{"lstm.weight_ih_l0": [[0.020388277247548103, -0.014388352632522583], [0.011654485017061234, -0.08020857721567154], [-0.24814313650131226, 0.1929098516702652], [-0.06205597519874573, 0.008360153064131737], [0.0056000142358243465, 0.011217501014471054], [-0.005263861734420061, -0.012309090234339237], [0.0030707113910466433, 0.0023153687361627817], [0.030603507533669472, 0.047907765954732895], [-0.01440596953034401, -0.06349122524261475], [0.09675508737564087, 0.27219799160957336], [-0.016210757195949554, -0.010563886724412441], [-0.018153799697756767, -0.028973715379834175], [0.070524662733078, -0.6120585203170776], [0.18880373239517212, 0.09197875112295151], [0.14728663861751556, 0.09663209319114685], [-0.4288557767868042, -0.2961277961730957], [0.009283026680350304, -0.01769360713660717], [-0.0009774361969903111, -0.2965511679649353], [-0.11465673893690109, 0.37701690196990967], [-0.09159067273139954, 0.0915997251868248], [0.00339943403378129, 0.014337933622300625], [-0.0029380498453974724, -0.008193261921405792], [0.002782718278467655, 0.0018278096104040742], [0.031852658838033676, 0.025517145171761513], [-0.019495654851198196, -0.03866439312696457], [0.019714627414941788, 0.16421930491924286], [-0.013491014949977398, -0.00022717847605235875], [-0.01817273534834385, -0.026003168895840645], [0.2209084928035736, 0.08678824454545975], [0.22446474432945251, 0.13898099958896637], [-0.006451559718698263, 0.12033160030841827], [-0.38312798738479614, -0.1656181365251541], [0.048667702823877335, 0.020687943324446678], [-1.4864767789840698, -0.22771114110946655], [1.1929118633270264, -0.1656404733657837], [0.19710220396518707, -0.0019472358981147408], [-0.22166115045547485, 0.023792065680027008], [-0.012143205851316452, -0.03993336483836174], [-0.008464433252811432, 0.05732731521129608], [0.2177588939666748, 0.07104156911373138], [0.78876131772995, 0.06904998421669006], [3.4304585456848145, -0.05506940931081772], [-0.24164873361587524, -0.1248147115111351], [-0.01460366789251566, 0.2714429199695587], [-0.9483736753463745, -0.27975431084632874], [1.0588937997817993, 0.06889384984970093], [0.2586818337440491, 0.10451662540435791], [-2.2851405143737793, 0.1808839589357376], [0.03204965218901634, 0.03353287652134895], [0.06611558049917221, 0.012930009514093399], [-0.15258829295635223, 0.23587554693222046], [-0.5411483645439148, 0.11481473594903946], [0.005418737884610891, 0.010797174647450447], [-0.004795957822352648, -0.013246897608041763], [0.0030005979351699352, 0.00233060191385448], [0.03368965908885002, 0.03387751057744026], [-0.01809541881084442, -0.0686977431178093], [0.21891890466213226, 0.3352503776550293], [-0.020624984055757523, -0.010765600949525833], [-0.01838015206158161, -0.03194534033536911], [-0.026538731530308723, 0.01944090984761715], [0.23708677291870117, 0.10209167003631592], [0.038791950792074203, 0.5792213678359985], [-0.4911019504070282, -0.1812530905008316]], "lstm.weight_hh_l0": [[-0.00854287389665842, -0.006712140515446663, 0.04633806645870209, 0.07390318065881729, -0.0059816972352564335, -0.00461403327062726, -0.002342093735933304, -0.02349909208714962, 0.0034555187448859215, -0.011655516922473907, -0.0017225777264684439, -0.004750455264002085, -0.034676484763622284, 0.010934682562947273, 0.017112458124756813, -0.057746872305870056], [-0.0053652082569897175, -0.024353403598070145, 0.003495874349027872, -0.007641361560672522, 0.0013777880230918527, -0.0028921342454850674, 0.002947443863376975, 0.019113564863801003, 0.0014306765515357256, -0.04504925012588501, 0.009644821286201477, -0.010320288129150867, 0.12321751564741135, -0.01609291136264801, 0.12675189971923828, 0.022205015644431114], [0.07139761000871658, -0.05080053210258484, -0.11886183172464371, -0.11976390331983566, -0.0018821465782821178, 0.010799111798405647, 0.012882266193628311, -0.0519656240940094, 0.03929273411631584, -0.19059723615646362, -0.042265623807907104, 0.046632494777441025, 0.28517529368400574, -0.005503208842128515, 0.2104942947626114, 0.17804887890815735], [0.012012919411063194, 0.010342982597649097, -0.07600271701812744, -0.08249278366565704, 0.003187358845025301, -9.655285975895822e-05, 0.005316956900060177, 0.006857869680970907, -0.004925474990159273, -0.06152743846178055, 0.005429490935057402, 0.0035766144283115864, -0.0022257394157350063, -0.014279713854193687, 0.1563539206981659, 0.0445052906870842], [0.0007189902244135737, -0.003957978915423155, 0.007322884164750576, 0.01463027112185955, 0.0004053670563735068, -0.0005176025442779064, 0.0013601239770650864, -0.0005097867106087506, 0.0005854321643710136, 0.0030285241082310677, 0.0003610140411183238, 0.002947661792859435, 0.0023444266989827156, 0.002950950525701046, -0.03274070471525192, 0.00862037856131792], [-0.0006538288434967399, 0.00027830793987959623, 0.009661508724093437, 0.012646486982703209, -0.0005447180010378361, -0.0003998699248768389, 0.000240260676946491, -0.001009189523756504, 6.607290561078116e-05, -0.022697431966662407, -0.00038831427809782326, 0.0017798787448555231, 0.01369501743465662, -0.009190747514367104, -0.029367882758378983, -0.00849008560180664], [0.0016493722796440125, -0.000665247964207083, -0.0007678812835365534, -0.0028225972782820463, 0.0004065026587340981, -0.00011371730215614662, 0.00020600920834112912, 0.0014946236042305827, -6.747546649421565e-06, 0.004333471413701773, 0.0007333045941777527, -0.0003711828321684152, -0.0030057199764996767, 0.0006114565767347813, 0.005613922141492367, -0.0016833170084282756], [0.0034349982161074877, -0.025847718119621277, 0.03087671659886837, 0.0036446310114115477, 0.002168741775676608, 0.004906561691313982, 0.0024747811257839203, 0.01861431449651718, -0.0004504634707700461, 0.03015962243080139, -0.014178243465721607, -0.0013466004747897387, -0.030807122588157654, 0.046699002385139465, 0.00239375582896173, 0.00026719001471064985], [0.014817515388131142, 0.018736736848950386, 0.009240823797881603, -0.0024479213170707226, 0.0004343182663433254, -0.0037419970612972975, -0.0015997776063159108, 0.015793146565556526, -0.0034249071031808853, -0.030634397640824318, 0.0117037957534194, -0.011942052282392979, -0.03525258228182793, -0.026127979159355164, -0.020643705502152443, 0.002878467319533229], [0.06755237281322479, -0.03841327875852585, -0.046866726130247116, -0.12183879315853119, 0.01094029750674963, 0.030287405475974083, 0.01216424535959959, 0.04990294575691223, 0.035027310252189636, 0.10144165903329849, 0.03183278068900108, -0.001399610424414277, -0.22531381249427795, 0.12354149669408798, 0.10695205628871918, 0.13086049258708954], [0.0007567900465801358, -0.009171555750072002, 0.03148685395717621, 0.0267111137509346, 0.0016450252151116729, 0.00021716418268624693, 0.0032740337774157524, -0.0019472351996228099, -0.0011865750420838594, 0.026127085089683533, 0.0021550371311604977, 0.0005843383260071278, -0.058550819754600525, 0.011947398073971272, -0.05937136337161064, -0.014230992645025253], [0.0023275651037693024, 0.01948494464159012, -0.018643610179424286, -0.01745855249464512, -0.001634172978810966, -0.0026392920408397913, -0.001308829989284277, -2.2383428586181253e-05, -0.00764365354552865, -0.027100814506411552, 0.0047532920725643635, -0.008057262748479843, 0.021337155252695084, -0.00906513724476099, 0.005584442522376776, 0.027958447113633156], [0.023915445432066917, -0.2538299858570099, 0.26140403747558594, 0.11354316025972366, 0.0027258056215941906, -0.011716388165950775, 0.04936604201793671, 0.08164526522159576, 0.07097414135932922, -0.502082109451294, -0.007941100746393204, 0.09683490544557571, -0.43064558506011963, 0.04421039670705795, 0.023407744243741035, -1.2953293323516846], [0.027112392708659172, 0.07458754628896713, 0.03897940367460251, 0.05058841034770012, -0.00786101259291172, -0.18040397763252258, 0.00894230604171753, 0.03224729746580124, -0.041904352605342865, 0.003154935548081994, 0.0016820270102471113, 0.02186964638531208, -0.04496278986334801, -0.2050091028213501, -0.03996800631284714, 0.015891244634985924], [0.0077431825920939445, -0.005039162468165159, -0.04217707738280296, -0.05753307417035103, -0.009978274814784527, -0.0021086002234369516, -0.00733786029741168, 0.016973238438367844, 0.004746801219880581, 0.1136578768491745, 0.00036166654899716377, -0.0138157419860363, -0.021202025935053825, 0.00873230304569006, 0.11749579012393951, -0.018457235768437386], [-0.1635105013847351, 0.2171371579170227, -0.42905518412590027, -0.14591649174690247, 0.0278339684009552, -0.017459597438573837, 0.026516614481806755, 0.028547728434205055, 0.0876237154006958, -0.7677397727966309, 0.045020248740911484, -0.05816154554486275, 0.48088014125823975, -0.06675997376441956, -0.38678884506225586, 0.8309579491615295], [-0.0052092792466282845, -0.0019929297268390656, 0.044159896671772, 0.06607082486152649, -0.004724273923784494, -0.0033668200485408306, -0.0020882850512862206, -0.015111011452972889, 0.0024373175110667944, -0.014576965942978859, -0.0004284674068912864, -0.0039015389047563076, -0.02274991013109684, 0.0037093209102749825, -0.01081154216080904, -0.038469940423965454], [0.05845887213945389, -0.2659829556941986, -0.07243744283914566, -0.13669076561927795, 0.014379875734448433, -0.011796182952821255, 0.004880869295448065, 0.06203475967049599, -0.0055504171177744865, 0.14925982058048248, 0.036220669746398926, -0.014027563855051994, 0.214284747838974, -0.005871486850082874, 0.5317495465278625, -0.11391022801399231], [0.30357035994529724, -0.15660519897937775, -0.032827191054821014, -0.1884557604789734, -0.004116416908800602, 0.005814214237034321, 0.011303900741040707, 0.018911005929112434, 0.04690622165799141, 0.09940986335277557, -0.030557801946997643, 0.10132082551717758, 0.18968160450458527, 0.01357048936188221, 0.4061585068702698, 0.010373753495514393], [0.04349800944328308, 0.022345170378684998, -0.17731508612632751, -0.2164880633354187, 0.0005748320836573839, 0.0012297820067033172, 0.0060952212661504745, 0.016657602041959763, -0.0027109808288514614, -0.02097218856215477, 0.010438657365739346, 0.005591786466538906, 0.010114208795130253, -0.03495357558131218, 0.3137054741382599, 0.04409851133823395], [0.0027229341212660074, -0.0034340517595410347, 0.0016869049286469817, 0.007860911078751087, 0.00033695794991217554, -0.0008494502981193364, 0.0011219988809898496, 0.0026282931212335825, 0.0003566148807294667, 0.00825139693915844, 0.0010830856626853347, 0.002825032453984022, -0.0019180263625457883, 0.0009435966494493186, -0.023305492475628853, 0.006727568339556456], [-0.00021200765331741422, 0.0001331836829194799, 0.007278483361005783, 0.009684702381491661, -0.0005559520213864744, -0.0004219820839352906, 0.00017386421677656472, -0.0002534710511099547, -4.101841841475107e-05, -0.01781860738992691, -0.00025169915170408785, 0.0016542722005397081, 0.011162701062858105, -0.005910164210945368, -0.024112699553370476, -0.007577130105346441], [0.002228908473625779, -0.0009235528996214271, -0.0010676546953618526, -0.0039675538428127766, 0.0005632342654280365, -0.00015410492778755724, 0.00028904801001772285, 0.00209065992385149, -0.00010259832197334617, 0.005866453517228365, 0.0010086297988891602, -0.0003641440416686237, -0.003958755638450384, 0.000806611031293869, 0.00788433849811554, -0.0022634209599345922], [-0.006542242597788572, -0.02736843377351761, 0.04950651526451111, 0.02146555297076702, 0.001196655328385532, 0.0048993839882314205, 0.0014344367664307356, 0.011438047513365746, -0.00035456844489090145, 0.029156265780329704, -0.019296804443001747, -0.0031292811036109924, -0.02146061882376671, 0.04581043869256973, -0.016362231224775314, -0.0021845134906470776], [0.012629671022295952, 0.01944018341600895, -0.012220910750329494, -0.022084834054112434, -0.0013280510902404785, -0.003637955291196704, -0.0022825896739959717, 0.013848981820046902, -0.0017565147718414664, -0.041722916066646576, 0.010464872233569622, -0.011876432225108147, -0.03636704012751579, -0.027933811768889427, 0.02173580415546894, 0.014448529109358788], [0.007002789061516523, -0.024385936558246613, 0.1903461068868637, -0.004772154148668051, 0.008507044985890388, 0.06672591716051102, 0.006623181980103254, 0.07331175357103348, 0.0034457691945135593, 0.13133080303668976, 0.05894813686609268, -0.004523772746324539, -0.335519939661026, 0.14007681608200073, 0.01337887067347765, 0.0202836524695158], [0.0006052999524399638, -0.006078649777919054, 0.019636593759059906, 0.01977486163377762, 0.0011275274446234107, 0.0003176548925694078, 0.002370585920289159, -0.0005388318677432835, -0.0011255460558459163, 0.015787256881594658, 0.002252687467262149, 0.0006584554794244468, -0.05176330357789993, 0.009187109768390656, -0.04248819127678871, -0.0018558460287749767], [0.003021776443347335, 0.021467871963977814, -0.024003582075238228, -0.022493500262498856, -0.0018861041171476245, -0.0030796353239566088, -0.0014338928740471601, 0.0006114551215432584, -0.008422717452049255, -0.03016093000769615, 0.005417867098003626, -0.008616096340119839, 0.022503789514303207, -0.010623226873576641, 0.013589642941951752, 0.03105524741113186], [0.2110998034477234, 0.023657262325286865, -0.35478609800338745, -0.5120993852615356, -0.05686149746179581, 0.0011627228232100606, -0.018141303211450577, 0.16101206839084625, -0.13682183623313904, 0.04731850326061249, 0.0240180604159832, 0.04156212508678436, -0.42095425724983215, -0.07683531939983368, 0.3699606955051422, -0.2718731462955475], [0.08007287979125977, 0.10234896838665009, -0.016050204634666443, -0.06770528852939606, -0.014454654417932034, -0.2750568687915802, 0.010134228505194187, 0.08572307974100113, -0.11574757844209671, 0.029325567185878754, 0.030666613951325417, 0.015845121815800667, -0.12583254277706146, -0.2337312251329422, 0.47139713168144226, 0.01045292615890503], [0.03761440888047218, 0.023336755111813545, -0.16617260873317719, -0.1873106211423874, -0.015424327924847603, -0.007306018844246864, -0.009271286427974701, 0.028891820460557938, -0.009527863934636116, 0.07050161063671112, 0.010374905541539192, -0.021757669746875763, -0.05795823037624359, 0.023824961856007576, 0.33884182572364807, 0.06857964396476746], [-0.20820815861225128, 0.13803446292877197, -0.09539853781461716, -0.10276878625154495, 0.021740537136793137, 0.007749718613922596, -0.003751672338694334, 0.0274767205119133, 0.0987359881401062, -0.750699520111084, -0.006033096928149462, -0.036205895245075226, -0.15153037011623383, -0.13866408169269562, -0.4074142277240753, 0.359294056892395], [-0.02945350483059883, -0.02284647338092327, 0.006475072354078293, 0.11592446267604828, -0.019622929394245148, -0.009988831356167793, -0.006483424920588732, -0.061555564403533936, 0.009068788029253483, -0.02564607746899128, -0.02474225126206875, -0.009763140231370926, -0.04703478515148163, 0.04540747404098511, 0.33924078941345215, -0.09787978231906891], [0.7648791670799255, -0.12180525064468384, -0.21877382695674896, 0.00853524450212717, -0.055605754256248474, 0.04854094237089157, -0.05515040084719658, -0.07600494474172592, -0.08031738549470901, 0.379852831363678, 0.14657379686832428, -0.05131961777806282, 0.13892540335655212, -0.0692669078707695, 0.31874868273735046, -0.05331436172127724], [0.049172502011060715, -0.2880609333515167, 0.08182382583618164, 0.32603949308395386, 0.06379884481430054, 0.0011966441525146365, 0.04142620787024498, 0.24780718982219696, -0.05006925016641617, 0.48284679651260376, 0.16448746621608734, 0.010523601435124874, -0.009099865332245827, 0.19838450849056244, -0.001273333909921348, -0.1489732414484024], [-0.03060169331729412, -0.05325537174940109, 0.18174342811107635, 0.20518332719802856, -0.004213755950331688, 0.0014852244639769197, -0.005867541301995516, -0.0051406379789114, 0.014306028373539448, 0.11364041268825531, -0.015802720561623573, 0.002816238906234503, 0.046325135976076126, 0.04452222213149071, -0.12455644458532333, -0.09295303374528885], [-0.017368031665682793, 0.07214225828647614, 0.11266013979911804, 0.08911383152008057, -0.025592247024178505, 0.0037058654706925154, 0.01445914339274168, 0.07006639242172241, -0.03697812557220459, 0.0813620463013649, 0.022273564711213112, -0.009770460426807404, -0.013833067379891872, 0.014836768619716167, -0.17979393899440765, -0.09607329964637756], [-0.017989307641983032, -0.07748502492904663, 0.003276586765423417, -0.03414378687739372, 0.010352501645684242, -0.021656721830368042, -0.001753328018821776, -0.06873182207345963, 0.038974057883024216, 0.014278811402618885, -0.04446939751505852, 0.01114216260612011, -0.013770409859716892, 0.22078092396259308, 0.11451799422502518, -0.05162220820784569], [-0.0025099474005401134, -0.00593129126355052, 0.0766836404800415, 0.08681435883045197, 0.009189523756504059, 0.006764180026948452, 0.010688812471926212, 0.03746534511446953, 0.0005721938796341419, -0.015923457220196724, 0.012165277265012264, 0.007480783853679895, 0.02042221464216709, 0.012590429745614529, -0.154493510723114, 0.03909459337592125], [0.17837606370449066, -0.10777655988931656, -0.11790695786476135, -0.16561195254325867, -0.012300814501941204, 0.04991299286484718, -0.001140087260864675, -0.01836048997938633, -0.003230203175917268, 0.06360191851854324, 0.043355491012334824, 0.019540200009942055, -0.054756417870521545, 0.09016210585832596, 0.20814868807792664, -0.037390969693660736], [-0.2131059169769287, -0.05630659684538841, 0.03929396718740463, -0.06885264068841934, -0.05560090392827988, -0.0037789230700582266, -0.019129380583763123, 0.02981465496122837, 0.01411950122565031, -0.3260176479816437, -0.03425811976194382, 0.027437828481197357, -0.3607064485549927, 0.015011989511549473, -0.13587743043899536, 0.12388433516025543], [0.22662954032421112, -0.15835969150066376, -0.10466983169317245, 0.3194543123245239, -0.07111596316099167, 0.02354476973414421, -0.038778431713581085, 0.01442090142518282, 0.42268991470336914, 0.03226151317358017, -0.06038130819797516, -0.039855990558862686, 0.5068099498748779, -0.011776809580624104, 0.39468881487846375, 0.03963867574930191], [0.11220452934503555, -0.06984361261129379, 0.139146089553833, 0.11416458338499069, 0.029551686719059944, 0.009339246898889542, 0.020090876147150993, -0.01997479610145092, -0.002201053313910961, 0.02511913888156414, -0.030672771856188774, 0.005551517475396395, 0.11445756256580353, 0.005364349111914635, 0.2760263979434967, -0.010375196114182472], [-0.021769920364022255, -0.024615168571472168, 0.027336832135915756, 0.05663177743554115, -0.010174608789384365, 0.004880030173808336, 0.003623965196311474, 0.012762298807501793, 0.0006004917668178678, -0.04150886461138725, -0.009999426081776619, 0.02525726705789566, -0.01726592890918255, -0.005094033200293779, -0.13430018723011017, 0.009206579998135567], [-0.14592240750789642, 0.17694145441055298, -0.16153796017169952, -0.0079292431473732, -0.02156347967684269, 0.004751082509756088, -0.005666614510118961, 0.05965190380811691, 0.17772379517555237, -0.49355337023735046, 0.04268965870141983, -0.03422187268733978, 0.23842063546180725, -0.028825033456087112, -0.3825937509536743, 0.6620063781738281], [-0.26293209195137024, 0.16805559396743774, 0.5042482614517212, -0.015201082453131676, 0.047421909868717194, 0.14230696856975555, 0.01493547111749649, 0.06969189643859863, 0.14334142208099365, -0.16070911288261414, 0.02619008719921112, 0.07412949949502945, 0.13091954588890076, 0.038686785846948624, -0.3030388355255127, 0.169968381524086], [0.006569440010935068, 0.010316303931176662, -0.0719384253025055, -0.08323415368795395, -0.026836656033992767, -0.0018848692998290062, -0.02255375124514103, 0.022505274042487144, 0.004790032282471657, 0.15160125494003296, 1.7822161680669524e-05, -0.03341406211256981, -0.011607583612203598, 0.006267181131988764, 0.168568953871727, -0.007037619594484568], [-0.14710579812526703, 0.1301727145910263, -0.1296052634716034, -0.10124125331640244, -0.0072059547528624535, -0.043656036257743835, 0.017274875193834305, -0.05845499038696289, -0.02409745752811432, -0.919028639793396, -0.02149290405213833, -0.05035862326622009, 0.08114766329526901, 0.013003671541810036, -0.10669592022895813, 0.3316505253314972], [-0.017162591218948364, -0.01793612539768219, 0.12320102751255035, 0.1625511795282364, -0.00731485104188323, -0.00484169228002429, -0.002578008221462369, -0.028995320200920105, 0.0056640151888132095, 0.01579941250383854, -0.0045375158078968525, -0.005445514805614948, -0.05514191836118698, 0.02065778523683548, 0.09823126345872879, -0.10749606788158417], [-0.12667682766914368, -0.18939156830310822, 0.2455977499485016, 0.09039100259542465, 0.01966368779540062, -0.0039590816013514996, 0.010479521006345749, 0.03554243966937065, 0.01369273941963911, 0.03326115757226944, 0.014544589444994926, 0.0026036917697638273, 0.2543763220310211, 0.010494072921574116, 0.11980927735567093, 0.05282553285360336], [0.3872137665748596, 0.06459865719079971, -0.26812833547592163, -0.2720179557800293, -0.005184818059206009, -0.006321948021650314, 0.015411744825541973, 0.021549634635448456, 0.05796873942017555, -0.2575549781322479, -0.030122965574264526, 0.05143332853913307, 0.6013144850730896, 0.05945216491818428, 0.3511682450771332, 0.37934210896492004], [0.16365955770015717, 0.039985254406929016, -0.12155801057815552, -0.09830282628536224, -0.006486591417342424, -0.005517174955457449, 0.00922910775989294, 0.025369886308908463, -0.016517583280801773, -0.19798769056797028, -0.006385359447449446, 0.022488368675112724, 0.6259618401527405, -0.01004104781895876, -0.004450524691492319, 0.1808381825685501], [0.0009750053868629038, -0.004101636819541454, 0.007055438123643398, 0.014937743544578552, 0.00041900400537997484, -0.0005684765637852252, 0.0013363169273361564, -0.0001477536716265604, 0.0005081300623714924, 0.005946669261902571, 0.00040296977385878563, 0.0029303196351975203, 0.0019148949068039656, 0.002728305058553815, -0.033068910241127014, 0.006914892233908176], [-0.0006159875192679465, 0.00040873157558962703, 0.011012647300958633, 0.013757207430899143, -0.0005093496874906123, -0.00035619334084913135, 0.00019441494077909738, -0.0008857147768139839, -5.6650980695849285e-05, -0.019494405016303062, -0.0003757616213988513, 0.0017266736831516027, 0.013010683469474316, -0.009488964453339577, -0.030932344496250153, -0.01201652828603983], [0.0018842288991436362, -0.000878417631611228, -0.0010552582098171115, -0.0033195356372743845, 0.0004870288830716163, -0.00015411077765747905, 0.000277332408586517, 0.001706099370494485, -1.1438594810897484e-05, 0.004981714766472578, 0.0008194926776923239, -0.0003139731998089701, -0.0033327790442854166, 0.0007080562063492835, 0.006675154436379671, -0.001980774337425828], [-0.003661849768832326, -0.026982061564922333, 0.04061486944556236, 0.014058667235076427, 0.001361156813800335, 0.004548581317067146, 0.0020735992584377527, 0.01419451367110014, -0.0014539205003529787, 0.023343252018094063, -0.019920554012060165, -0.003070414997637272, -0.0192561112344265, 0.04785842075943947, -0.010296596214175224, 0.0030506656039506197], [0.014846344478428364, 0.021763227880001068, 0.008782485499978065, 0.0003832704678643495, -0.0003791588533204049, -0.004086547531187534, -0.0023496863432228565, 0.01836487650871277, -0.004687301814556122, -0.03139641508460045, 0.012817606329917908, -0.013974715955555439, -0.0325947068631649, -0.03187607601284981, -0.06229780986905098, 0.0024051456712186337], [0.07124684751033783, -0.07657335698604584, 0.004490702413022518, -0.07371054589748383, 0.01863272115588188, 0.03879572078585625, 0.024217423051595688, 0.09023252129554749, 0.03615337610244751, 0.07569483667612076, 0.05207164213061333, 0.02759883739054203, -0.2889305651187897, 0.13883912563323975, 0.04439110308885574, 0.16463060677051544], [-0.00034671073080971837, -0.007020163349807262, 0.026316028088331223, 0.026629449799656868, 0.0008653714321553707, -0.00015792994236107916, 0.0030305024702101946, -0.0018316133646294475, -0.0014527214225381613, 0.02268100343644619, 0.0018859459087252617, 0.0006292391335591674, -0.059125255793333054, 0.008349566720426083, -0.06342656910419464, -0.012030576355755329], [0.0024955999106168747, 0.020699061453342438, -0.016872312873601913, -0.01511656865477562, -0.0015799922402948141, -0.0027516158297657967, -0.0013634522911161184, 0.0001263905578525737, -0.00840118620544672, -0.027918484061956406, 0.0049806819297373295, -0.008325434289872646, 0.02288213185966015, -0.009682580828666687, -0.004487060476094484, 0.02820473350584507], [-0.017822913825511932, -0.09134247153997421, -0.579365611076355, -0.3726637661457062, -0.014615505933761597, -0.021960262209177017, 0.013234257698059082, 0.24006971716880798, -0.01805744133889675, -0.04715469107031822, 0.08851490169763565, 0.12608514726161957, -0.06443324685096741, -0.06588076800107956, -0.23671354353427887, -0.10743134468793869], [0.03952452167868614, 0.07049626857042313, 0.0222930945456028, 0.013745460659265518, 0.003733108751475811, -0.18114244937896729, 0.009828495793044567, 0.04301369562745094, -0.05690806359052658, 0.08512211591005325, 0.006692309398204088, 0.022429682314395905, -0.06926348060369492, -0.18160483241081238, 0.07596343755722046, -0.027935439720749855], [0.14882054924964905, -0.06893163174390793, -0.08192437887191772, 0.01739400625228882, 0.001293552340939641, -0.007705905474722385, -0.0016499478369951248, -0.005384201183915138, 0.01783553883433342, -0.0647849589586258, -0.021583499386906624, -0.0075331032276153564, -0.03804083168506622, 0.0259996447712183, 0.7280329465866089, 0.37145665287971497], [-0.2132357805967331, 0.13479620218276978, -0.44114843010902405, -0.21955260634422302, 0.012909275479614735, 0.01904350332915783, 0.014241540804505348, 0.035022590309381485, 0.04127178713679314, -0.7729192972183228, 0.047249097377061844, -0.052710894495248795, -0.2652759253978729, -0.022272586822509766, -0.4476991891860962, -0.20187342166900635]], "lstm.bias_ih_l0": [-0.03612489998340607, 0.26893824338912964, 0.036241594702005386, 0.1620294451713562, -0.03258910030126572, -0.033691003918647766, 0.011143305338919163, 0.006061236374080181, 0.007244972977787256, 0.5071285367012024, -0.06538446247577667, 0.0053730015642941, -0.6148395538330078, -0.027956338599324226, 0.30036988854408264, 0.2636263072490692, -0.12560831010341644, 0.21166415512561798, 0.12855909764766693, 0.3544784486293793, -0.027930965647101402, -0.027579735964536667, 0.010585876181721687, -0.017556089907884598, 0.06284352391958237, 0.17212378978729248, -0.04857805371284485, 0.014528738334774971, 0.6575745940208435, 0.10551316291093826, 0.3895915448665619, 0.32208672165870667, 0.15504735708236694, -0.07339141517877579, -0.09314829856157303, -0.27785927057266235, 0.15166687965393066, -0.035305459052324295, 0.07794953882694244, -0.05041283741593361, 0.1371358335018158, -0.036736391484737396, 0.022570928558707237, -0.048777975142002106, -0.15006470680236816, 0.08038263767957687, 0.3956390619277954, 0.06761054694652557, -0.1657838672399521, -0.13471701741218567, -0.26084887981414795, 0.030570367351174355, -0.03440319746732712, -0.03556941822171211, 0.011173279024660587, -0.00823738519102335, -0.06443740427494049, 0.3225169777870178, -0.07079888135194778, -0.007885156199336052, 0.07772933691740036, -0.0013321094447746873, 0.573876142501831, 0.09544151276350021], "lstm.bias_hh_l0": [-0.03648226708173752, 0.2677397131919861, 0.03532867878675461, 0.162029430270195, -0.032589141279459, -0.033691003918647766, 0.011143305338919163, 0.0060589490458369255, 0.016070714220404625, 0.5160169005393982, -0.06538598984479904, 0.00537299457937479, -0.4960765838623047, -0.032441020011901855, 0.3003687858581543, 0.05497807636857033, -0.12564532458782196, 0.21358244121074677, 0.10137612372636795, 0.35447853803634644, -0.027930965647101402, -0.027579735964536667, 0.010585876181721687, -0.017555806785821915, 0.04601314291357994, 0.23925115168094635, -0.04856570065021515, 0.014528738334774971, 0.5736409425735474, 0.09897559881210327, 0.3898736536502838, 0.564365804195404, 0.13369415700435638, -0.1863768845796585, -0.36467260122299194, -0.2733936011791229, 0.08536198735237122, -0.09218991547822952, 0.10464907437562943, 0.055339306592941284, -0.16420702636241913, -0.09166567772626877, 0.10532862693071365, 0.09081250429153442, 0.16251739859580994, 0.21840408444404602, 0.3732525706291199, 0.08905978500843048, -0.1659942865371704, -0.1316048949956894, -0.0998031347990036, 0.030570367351174355, -0.034403227269649506, -0.03556941822171211, 0.011173279024660587, -0.008240947499871254, -0.08413004130125046, 0.37688666582107544, -0.07097984105348587, -0.007885156199336052, -0.10245824605226517, -0.0009025565814226866, 0.5669140815734863, 0.12116401642560959], "dense.weight": [[0.14044782519340515, -0.17655567824840546, 0.3656931221485138, 0.09932240843772888, 0.06293654441833496, 0.01004879642277956, 0.01786268688738346, -0.012638036161661148, -0.15375559031963348, 0.13116709887981415, 0.12184415757656097, -0.06675887107849121, -0.8006973266601562, 0.22633332014083862, 0.40819117426872253, -0.6221955418586731]], "dense.bias": [-0.1078948974609375]}