{
    "lstm.weight_ih_l0": [
        [
            -0.22602252662181854,
            -0.026579510420560837
        ],
        [
            0.012412849813699722,
            0.26322099566459656
        ],
        [
            0.013352093286812305,
            0.1301002949476242
        ],
        [
            -0.029617536813020706,
            -0.04382764920592308
        ],
        [
            0.003795042634010315,
            0.4661528468132019
        ],
        [
            -0.003550830064341426,
            -0.047883663326501846
        ],
        [
            0.006552707403898239,
            -0.2714496850967407
        ],
        [
            0.07906652241945267,
            0.13554230332374573
        ],
        [
            -0.016586696729063988,
            0.1742086559534073
        ],
        [
            -0.05513900890946388,
            0.36912015080451965
        ],
        [
            0.02389395236968994,
            0.11674661189317703
        ],
        [
            -0.03587940335273743,
            0.009787949733436108
        ],
        [
            0.08728411793708801,
            0.1304299235343933
        ],
        [
            0.02011680044233799,
            0.017486311495304108
        ],
        [
            -0.001150103285908699,
            0.04419951140880585
        ],
        [
            -0.052537765353918076,
            0.008075275458395481
        ],
        [
            -0.08175750076770782,
            -0.255700945854187
        ],
        [
            -0.011905980296432972,
            0.011630570515990257
        ],
        [
            0.0038084809202700853,
            0.09260650724172592
        ],
        [
            -0.024640709161758423,
            -0.0007793254917487502
        ],
        [
            0.06229814141988754,
            0.3250657021999359
        ],
        [
            0.004939243197441101,
            -0.039716098457574844
        ],
        [
            0.000404385820729658,
            -0.1882668137550354
        ],
        [
            0.0057157534174621105,
            0.017338739708065987
        ],
        [
            0.030916990712285042,
            0.004709332250058651
        ],
        [
            0.0604216493666172,
            0.41366204619407654
        ],
        [
            0.028312813490629196,
            0.05718538165092468
        ],
        [
            -0.000619197147898376,
            -0.5890142917633057
        ],
        [
            0.26340436935424805,
            0.15602456033229828
        ],
        [
            0.03290910646319389,
            -0.04994410648941994
        ],
        [
            0.01922747679054737,
            -0.11048966646194458
        ],
        [
            -0.05332190543413162,
            -0.03962601348757744
        ],
        [
            1.392086386680603,
            -0.5016471743583679
        ],
        [
            1.8644903898239136,
            0.34931910037994385
        ],
        [
            -0.07789073139429092,
            1.1791229248046875
        ],
        [
            0.07085073739290237,
            0.2740591764450073
        ],
        [
            1.549185037612915,
            -0.16121849417686462
        ],
        [
            0.2630236744880676,
            -0.15596096217632294
        ],
        [
            0.38690507411956787,
            -0.1215808093547821
        ],
        [
            -1.0688822269439697,
            0.36889001727104187
        ],
        [
            0.49997419118881226,
            0.5843285322189331
        ],
        [
            0.12018314003944397,
            0.38253358006477356
        ],
        [
            0.016643570736050606,
            0.44752806425094604
        ],
        [
            1.7319236993789673,
            0.5287793874740601
        ],
        [
            0.691711962223053,
            -0.3259635269641876
        ],
        [
            0.06970711797475815,
            0.49516716599464417
        ],
        [
            -0.05516019091010094,
            -0.8231446146965027
        ],
        [
            0.6058415174484253,
            -0.3403618633747101
        ],
        [
            -0.12557949125766754,
            -0.7425881624221802
        ],
        [
            0.1807078868150711,
            0.2152794897556305
        ],
        [
            0.2849920690059662,
            -0.7806150913238525
        ],
        [
            -0.04475535824894905,
            -0.08551447838544846
        ],
        [
            0.11894356459379196,
            0.3392969071865082
        ],
        [
            -0.01329512894153595,
            -0.2069520205259323
        ],
        [
            0.06534459441900253,
            -0.4498252868652344
        ],
        [
            -0.017763853073120117,
            -0.08541005849838257
        ],
        [
            -0.049188800156116486,
            0.13425414264202118
        ],
        [
            -0.10836412757635117,
            0.4434613585472107
        ],
        [
            0.05372123792767525,
            -0.23878887295722961
        ],
        [
            -0.19722966849803925,
            -0.23553654551506042
        ],
        [
            0.11877663433551788,
            0.17766012251377106
        ],
        [
            0.02526235207915306,
            -0.058827705681324005
        ],
        [
            0.053533125668764114,
            0.023241396993398666
        ],
        [
            -0.07519745081663132,
            0.11144949495792389
        ]
    ],
    "lstm.weight_hh_l0": [
        [
            0.043463002890348434,
            -0.17835423350334167,
            0.510610044002533,
            0.03848288953304291,
            -0.3242996633052826,
            -0.021370677277445793,
            0.07814545184373856,
            -0.06356042623519897,
            -0.0916639044880867,
            -0.016323355957865715,
            0.24041439592838287,
            0.04718378186225891,
            0.03520365059375763,
            -0.0904235914349556,
            -0.12727046012878418,
            0.017448605969548225
        ],
        [
            -0.01851930469274521,
            -0.1734810620546341,
            0.32199084758758545,
            -0.013066200539469719,
            -0.011567999608814716,
            0.012702638283371925,
            0.08866643905639648,
            -0.09521866589784622,
            -0.13743212819099426,
            -0.27500471472740173,
            0.38480499386787415,
            0.05417574197053909,
            0.28167790174484253,
            -0.018728630617260933,
            0.0800560787320137,
            -0.023292087018489838
        ],
        [
            -0.00864635780453682,
            -0.03086000680923462,
            0.0832289531826973,
            -0.029468534514307976,
            0.04361705854535103,
            -0.016122834756970406,
            0.0566817969083786,
            -0.050226517021656036,
            -0.08111535757780075,
            -0.06902546435594559,
            0.15916496515274048,
            -0.008216113783419132,
            0.052582476288080215,
            -0.07522787153720856,
            0.1351003348827362,
            -0.011509840376675129
        ],
        [
            -0.017424212768673897,
            0.0014490968314930797,
            0.0809914767742157,
            -0.015091534703969955,
            -0.009979664348065853,
            -0.012772665359079838,
            -0.09675862640142441,
            0.02890060655772686,
            -0.029993494972586632,
            -0.019642559811472893,
            -0.005610196851193905,
            -0.0785893052816391,
            0.008303627371788025,
            0.004310068674385548,
            -0.053051166236400604,
            -0.029253259301185608
        ],
        [
            -0.379815936088562,
            -0.2558794319629669,
            0.3934326469898224,
            -0.030277492478489876,
            -0.15159519016742706,
            0.03888352960348129,
            -0.09789393842220306,
            -0.008240350522100925,
            0.025737563148140907,
            -0.03529800847172737,
            -0.08199181407690048,
            -0.02268923446536064,
            0.2680602967739105,
            0.4019297659397125,
            0.056261513382196426,
            -0.042698945850133896
        ],
        [
            0.013371219858527184,
            0.03489026054739952,
            0.04979446530342102,
            -0.0037399244029074907,
            0.04280783608555794,
            -0.005784092471003532,
            0.008359473198652267,
            -0.017145825549960136,
            -0.014791643247008324,
            -0.033175498247146606,
            0.007829330861568451,
            0.039666760712862015,
            0.0006572998827323318,
            -0.030513441190123558,
            0.059751130640506744,
            -0.012256154790520668
        ],
        [
            -0.1654716432094574,
            -0.05680706351995468,
            0.07037793844938278,
            -0.07126788794994354,
            0.034985288977622986,
            -0.008353936485946178,
            -0.009765631519258022,
            -0.08861612528562546,
            -0.1929336041212082,
            -0.035683393478393555,
            0.10218606889247894,
            -0.1077214777469635,
            0.1341601461172104,
            0.010182568803429604,
            -0.12964597344398499,
            0.05425393953919411
        ],
        [
            0.059719912707805634,
            0.045163147151470184,
            0.5484150648117065,
            -0.025812292471528053,
            -0.06662940233945847,
            -0.017630837857723236,
            0.07740753889083862,
            0.03640316426753998,
            0.059208113700151443,
            0.18150407075881958,
            -0.5555402040481567,
            -0.030893394723534584,
            0.010052066296339035,
            0.37206944823265076,
            -0.678939700126648,
            0.04352715238928795
        ],
        [
            -0.04344576224684715,
            -0.0409533865749836,
            0.20837175846099854,
            -0.017282867804169655,
            -0.03534073755145073,
            -0.036230120807886124,
            -0.18920381367206573,
            0.029368095099925995,
            0.006272586062550545,
            0.04601109400391579,
            0.1870230883359909,
            -0.24806809425354004,
            -0.030698753893375397,
            -0.14529819786548615,
            0.14635515213012695,
            -0.04650784283876419
        ],
        [
            -0.1510428488254547,
            0.07322576642036438,
            -0.11548887938261032,
            0.03457781299948692,
            -0.03395013138651848,
            -0.047424860298633575,
            -0.06784679740667343,
            0.10602100193500519,
            0.14684535562992096,
            0.2989709973335266,
            0.1810252070426941,
            0.06251110881567001,
            -0.26280245184898376,
            -0.3647480309009552,
            -0.11596875637769699,
            -0.03071584179997444
        ],
        [
            -0.00415027653798461,
            0.0025442487094551325,
            0.07344226539134979,
            -0.012804354541003704,
            0.015522435307502747,
            -0.008093276061117649,
            0.019512904807925224,
            -0.016362106427550316,
            -0.01458257157355547,
            -0.04442073404788971,
            0.07804565131664276,
            -0.004363242071121931,
            0.029341744258999825,
            -0.014072608202695847,
            0.03347202390432358,
            0.0006918976432643831
        ],
        [
            0.22693869471549988,
            0.015151113271713257,
            0.8442187905311584,
            -0.06972023844718933,
            0.1484876424074173,
            0.02793748304247856,
            -0.015233277343213558,
            -0.22621892392635345,
            -0.34771835803985596,
            -0.4189203381538391,
            0.2166469246149063,
            0.2012835144996643,
            0.38429850339889526,
            0.09560894966125488,
            -0.08957760035991669,
            -0.0031129198614507914
        ],
        [
            0.07989390939474106,
            0.031295694410800934,
            0.021429989486932755,
            -2.2353537133312784e-05,
            0.046956632286310196,
            -0.0033685520756989717,
            0.17766541242599487,
            -0.009091279469430447,
            -0.052398327738046646,
            0.018237434327602386,
            0.24604631960391998,
            0.09161124378442764,
            0.0495370551943779,
            -0.07871544361114502,
            -0.003620740957558155,
            0.044930584728717804
        ],
        [
            0.010778406634926796,
            0.07024922966957092,
            0.15924273431301117,
            0.01871853694319725,
            0.04101654514670372,
            -0.025696463882923126,
            -0.05553990975022316,
            -0.02080046571791172,
            0.03720567375421524,
            -0.1354842334985733,
            0.346879243850708,
            -0.04213305935263634,
            -0.009285429492592812,
            -0.06148223578929901,
            -0.008133143186569214,
            -0.0005527169560082257
        ],
        [
            -0.07227189093828201,
            0.013519427739083767,
            0.29698246717453003,
            -0.006454394198954105,
            -0.005302886478602886,
            -0.03767503425478935,
            0.055234264582395554,
            -0.05470022186636925,
            -0.027291374281048775,
            -0.03373386338353157,
            0.5101181268692017,
            0.043381694704294205,
            0.02601412497460842,
            -0.13981199264526367,
            0.1832045614719391,
            -0.04575743526220322
        ],
        [
            0.3479168117046356,
            0.10319885611534119,
            0.13696837425231934,
            0.02533598430454731,
            0.11498963832855225,
            -0.03823181614279747,
            0.10927656292915344,
            0.020113693550229073,
            -0.21368061006069183,
            -0.11616791784763336,
            0.10482069849967957,
            0.2065318375825882,
            0.02049873024225235,
            0.07852368801832199,
            0.18646639585494995,
            -0.01070642564445734
        ],
        [
            0.10972270369529724,
            0.05435263365507126,
            0.5595744252204895,
            0.004905661568045616,
            -0.24276067316532135,
            0.02920524962246418,
            0.01825365237891674,
            -0.15263278782367706,
            0.013128974474966526,
            0.026312973350286484,
            0.04637780785560608,
            -0.01838529109954834,
            0.08804883062839508,
            -0.11197245121002197,
            -0.20018048584461212,
            0.11203525215387344
        ],
        [
            -0.02382732927799225,
            -0.38106662034988403,
            -0.2162957489490509,
            -0.05994498357176781,
            -0.056390732526779175,
            0.117884561419487,
            0.16657647490501404,
            -0.09761907160282135,
            -0.19190189242362976,
            -0.15692412853240967,
            0.07737964391708374,
            0.30402007699012756,
            0.4959604740142822,
            0.22143341600894928,
            0.09462050348520279,
            0.007029963657259941
        ],
        [
            7.244906009873375e-05,
            -0.03758929669857025,
            0.13126668334007263,
            -0.031612612307071686,
            0.04844323918223381,
            -0.011365552432835102,
            0.06847726553678513,
            -0.06123775616288185,
            -0.09946839511394501,
            -0.08232002705335617,
            0.21559575200080872,
            9.67414234764874e-05,
            0.07091353833675385,
            -0.12697388231754303,
            0.1934596747159958,
            -0.012463574297726154
        ],
        [
            -0.02110346034169197,
            -0.0031237343791872263,
            0.08607781678438187,
            -0.012879014946520329,
            -0.025870051234960556,
            -0.014419259503483772,
            -0.08408565819263458,
            0.039166759699583054,
            -0.03748418018221855,
            -0.02784871682524681,
            0.012559550814330578,
            -0.07410909235477448,
            0.015511973761022091,
            0.021796278655529022,
            -0.06673337519168854,
            -0.02902081236243248
        ],
        [
            -0.21164797246456146,
            -0.0987987220287323,
            -0.10218862444162369,
            0.048339955508708954,
            -0.10946691781282425,
            0.06553786993026733,
            0.1888798624277115,
            -0.18423369526863098,
            0.17637492716312408,
            0.12010972201824188,
            -0.11690270900726318,
            0.44229111075401306,
            0.1762741059064865,
            0.4733319580554962,
            -0.11232808977365494,
            0.004069839138537645
        ],
        [
            0.016041798517107964,
            0.03379591181874275,
            -0.021914541721343994,
            -0.005974910221993923,
            0.0332682766020298,
            0.00043493558769114316,
            0.002939981874078512,
            -0.010868151672184467,
            -0.010980087332427502,
            -0.01420859806239605,
            -0.018278013914823532,
            0.032832566648721695,
            0.00380741897970438,
            -0.012268495745956898,
            0.024479513987898827,
            -0.00354804121889174
        ],
        [
            -0.04519020766019821,
            0.08821666985750198,
            0.4078108072280884,
            -0.02761354111135006,
            -0.017152920365333557,
            -0.034591857343912125,
            0.036641985177993774,
            -0.10674524307250977,
            -0.2270553559064865,
            -0.10546842962503433,
            0.1296393722295761,
            -0.06785554438829422,
            0.13620765507221222,
            0.04196451976895332,
            0.006437704898416996,
            0.09537652134895325
        ],
        [
            -0.09890789538621902,
            0.05089609697461128,
            0.3704136908054352,
            0.02645728923380375,
            -0.20180590450763702,
            -0.04208415374159813,
            0.06977104395627975,
            -0.013910963200032711,
            -0.017138907685875893,
            0.04275674745440483,
            -0.3983834683895111,
            0.010899812914431095,
            -0.13324914872646332,
            0.226466566324234,
            -0.5633054375648499,
            0.005429958458989859
        ],
        [
            -0.051166754215955734,
            0.08857252448797226,
            0.2112145870923996,
            0.002866530790925026,
            -0.035614013671875,
            -0.030178209766745567,
            -0.32814401388168335,
            0.04691913351416588,
            -0.09994994103908539,
            0.10797923058271408,
            0.2235255092382431,
            -0.276170551776886,
            -0.023332767188549042,
            -0.25007903575897217,
            0.21130196750164032,
            0.026544976979494095
        ],
        [
            -0.04140328988432884,
            0.1978757530450821,
            -0.05294564366340637,
            0.05020422860980034,
            0.07336622476577759,
            -0.03624792397022247,
            -0.007226273417472839,
            0.11060123890638351,
            0.20082709193229675,
            0.4283294379711151,
            -0.0327477753162384,
            0.1878613978624344,
            -0.30247101187705994,
            -0.017945438623428345,
            -0.21437381207942963,
            0.026234347373247147
        ],
        [
            0.0064073847606778145,
            0.008381222374737263,
            0.12901057302951813,
            -0.017518768087029457,
            0.013973787426948547,
            -0.004602155648171902,
            0.02687154710292816,
            -0.01980392262339592,
            -0.01080408412963152,
            -0.07234350591897964,
            0.09573517739772797,
            -0.014032467268407345,
            0.04833463206887245,
            -0.06181049719452858,
            0.2157057225704193,
            0.01682538352906704
        ],
        [
            0.2734900414943695,
            0.07926003634929657,
            0.37992674112319946,
            -0.06713325530290604,
            0.04984531179070473,
            0.131660595536232,
            -0.06581313163042068,
            -0.3598199784755707,
            -0.1074858233332634,
            -0.0017609609058126807,
            0.06113741919398308,
            0.311353474855423,
            0.3870697617530823,
            0.3044954836368561,
            -0.2397298663854599,
            0.10012533515691757
        ],
        [
            0.1300906240940094,
            0.05524566397070885,
            -0.038426268845796585,
            0.005391284823417664,
            0.00023075657372828573,
            0.048387397080659866,
            0.16737356781959534,
            0.07236042618751526,
            0.019642924889922142,
            0.40620654821395874,
            0.059840861707925797,
            0.1835760623216629,
            -0.19193337857723236,
            -0.006320009008049965,
            0.09288271516561508,
            0.14399223029613495
        ],
        [
            0.06594056636095047,
            0.06950313597917557,
            0.04036816209554672,
            0.010910534299910069,
            0.05096393823623657,
            -0.0052691251039505005,
            -0.03107830323278904,
            -0.043310120701789856,
            0.052331216633319855,
            -0.1897757351398468,
            0.17328090965747833,
            0.0014016039203852415,
            0.0679510235786438,
            0.017596112564206123,
            -0.1606360822916031,
            0.06352506577968597
        ],
        [
            -0.04298151656985283,
            0.08835462480783463,
            0.3338438868522644,
            -0.018469901755452156,
            0.10026948899030685,
            0.025593386963009834,
            0.04593424126505852,
            -0.05088384822010994,
            -0.07824599742889404,
            -0.1082300990819931,
            0.6106533408164978,
            0.043027572333812714,
            0.15709102153778076,
            -0.21004387736320496,
            0.3111315369606018,
            0.05282575264573097
        ],
        [
            0.38819968700408936,
            0.05862858146429062,
            0.17634640634059906,
            0.027842342853546143,
            0.020730093121528625,
            -0.029627202078700066,
            0.08584893494844437,
            0.032226383686065674,
            -0.21014778316020966,
            -0.11931665986776352,
            0.06652829796075821,
            0.13666319847106934,
            0.046296779066324234,
            0.04329885169863701,
            0.13776986300945282,
            -0.01737927459180355
        ],
        [
            0.12269603461027145,
            0.4550953805446625,
            0.14025117456912994,
            -0.13861502707004547,
            0.9819793105125427,
            0.074326291680336,
            0.05902945250272751,
            -0.11138615757226944,
            -0.07667160779237747,
            -0.1400754600763321,
            0.1433132439851761,
            0.7657034993171692,
            0.5318858623504639,
            0.37548598647117615,
            -0.2202218621969223,
            0.12967191636562347
        ],
        [
            0.07184964418411255,
            0.1838468462228775,
            0.2138025015592575,
            -0.08342479169368744,
            0.33619481325149536,
            0.18216243386268616,
            -0.23779615759849548,
            -0.05479169264435768,
            0.2211061418056488,
            0.3133718967437744,
            -0.07465974241495132,
            0.08321796357631683,
            0.3086717426776886,
            0.014433340169489384,
            0.09249715507030487,
            -0.2541030943393707
        ],
        [
            -0.09261076897382736,
            0.09074439108371735,
            0.9194852709770203,
            0.09201221168041229,
            -0.08112043142318726,
            -0.02795425057411194,
            -0.04628395289182663,
            0.07234299182891846,
            0.18129338324069977,
            0.006975519470870495,
            0.13697557151317596,
            0.19166012108325958,
            -0.13873718678951263,
            0.10453389585018158,
            -0.16270531713962555,
            -0.07384311407804489
        ],
        [
            0.25307217240333557,
            0.11030137538909912,
            0.004830746445804834,
            0.06924192607402802,
            -0.09123032540082932,
            -0.07480427622795105,
            0.11386636644601822,
            -0.05892198160290718,
            0.15320317447185516,
            0.17551402747631073,
            0.4704382121562958,
            0.21445202827453613,
            -0.2352885901927948,
            0.08614937216043472,
            -0.006012857425957918,
            -0.08918086439371109
        ],
        [
            -0.023568440228700638,
            0.2813413143157959,
            -0.1923905611038208,
            0.17411765456199646,
            0.3547321856021881,
            -0.00012714238255284727,
            -0.08713728934526443,
            0.01071565318852663,
            0.05011296644806862,
            -0.11217983067035675,
            0.13143491744995117,
            -0.20474570989608765,
            0.3325447142124176,
            0.31169506907463074,
            0.2869657874107361,
            -0.10424269735813141
        ],
        [
            0.018413739278912544,
            -0.30107277631759644,
            0.11334257572889328,
            -0.04314621910452843,
            -0.09978394955396652,
            0.04694940522313118,
            0.016644293442368507,
            -0.06629109382629395,
            -0.011545027606189251,
            -0.08135220408439636,
            -0.06375401467084885,
            -0.04589022323489189,
            0.28707456588745117,
            0.023625211790204048,
            0.1365845948457718,
            0.024112822487950325
        ],
        [
            0.16872334480285645,
            0.027540620416402817,
            -0.2531192898750305,
            0.071651391685009,
            0.13722780346870422,
            0.01857302524149418,
            0.3595260977745056,
            -0.481643408536911,
            -0.006532724015414715,
            0.22314497828483582,
            0.09116850793361664,
            0.5325806140899658,
            0.21825151145458221,
            0.23387442529201508,
            -0.0004901168285869062,
            0.07707882672548294
        ],
        [
            -0.037859559059143066,
            0.15840204060077667,
            0.1017867848277092,
            0.12091463804244995,
            0.07436709851026535,
            -0.10119831562042236,
            -0.11627941578626633,
            0.12785813212394714,
            0.03594355285167694,
            0.18992923200130463,
            -0.23652997612953186,
            -0.12219976633787155,
            -0.025878408923745155,
            0.18608812987804413,
            -0.10897151380777359,
            -0.017687609419226646
        ],
        [
            0.0024711890146136284,
            -0.22308026254177094,
            0.043729301542043686,
            0.2155987173318863,
            -0.29435938596725464,
            -0.1586282104253769,
            0.08299173414707184,
            -0.2795383930206299,
            0.3198930323123932,
            0.17509037256240845,
            0.15531274676322937,
            -0.12764492630958557,
            -0.21181251108646393,
            -0.022522075101733208,
            0.15329210460186005,
            -0.23864634335041046
        ],
        [
            -0.0013264568988233805,
            -0.04138994961977005,
            -0.2709280848503113,
            0.23980925977230072,
            -0.38826265931129456,
            0.05136587470769882,
            -0.3793855905532837,
            -0.06856753677129745,
            0.37402722239494324,
            0.4512912333011627,
            -0.14537881314754486,
            -0.13132081925868988,
            -0.43723738193511963,
            -0.11951306462287903,
            -0.016815749928355217,
            -0.38084641098976135
        ],
        [
            -0.042274750769138336,
            0.016205891966819763,
            -0.21666042506694794,
            0.0829816609621048,
            0.08789470791816711,
            -0.17216791212558746,
            0.04871242865920067,
            0.03787112608551979,
            -0.018780019134283066,
            -0.35736188292503357,
            0.8272132277488708,
            -0.01035501342266798,
            0.07025919109582901,
            0.1882879137992859,
            -0.4320051670074463,
            0.0045143552124500275
        ],
        [
            0.285409539937973,
            1.0731817483901978,
            0.3241322636604309,
            -0.018838422372937202,
            0.7890786528587341,
            0.28383028507232666,
            -0.30006343126296997,
            -0.4556753635406494,
            0.446687787771225,
            0.5216883420944214,
            0.003214588388800621,
            0.30560097098350525,
            0.2916035056114197,
            0.22903913259506226,
            0.12851856648921967,
            0.39131149649620056
        ],
        [
            0.17886120080947876,
            -0.7045339941978455,
            0.18560582399368286,
            0.10214417427778244,
            -0.3508755564689636,
            -0.23622483015060425,
            -0.022189348936080933,
            -0.19087308645248413,
            -0.23454159498214722,
            -0.2025071382522583,
            -0.039219968020915985,
            -0.19550438225269318,
            -0.0812419131398201,
            0.19999243319034576,
            0.008859551511704922,
            0.032340604811906815
        ],
        [
            -0.20890377461910248,
            -0.11620909720659256,
            -0.1607925444841385,
            0.13356950879096985,
            -0.6869953274726868,
            -0.018244370818138123,
            -0.21345330774784088,
            0.4958093762397766,
            0.21844667196273804,
            0.3250090777873993,
            -0.6098361611366272,
            0.22238147258758545,
            -0.27495965361595154,
            0.29105043411254883,
            -0.5562958121299744,
            -0.09541328251361847
        ],
        [
            0.12713779509067535,
            -0.2222440093755722,
            0.28317171335220337,
            -0.19010888040065765,
            0.09813907742500305,
            0.010093010030686855,
            0.08278937637805939,
            -0.10927381366491318,
            -0.182369664311409,
            -0.22234444320201874,
            0.020677300170063972,
            0.00014309625839814544,
            0.005019412841647863,
            -0.3420097827911377,
            0.8267349004745483,
            -0.026986543089151382
        ],
        [
            0.0675099715590477,
            -0.07954243570566177,
            0.25266703963279724,
            0.14058461785316467,
            -0.3073139190673828,
            -0.02479451708495617,
            0.27914145588874817,
            -0.009872675873339176,
            -0.009283402934670448,
            0.15539419651031494,
            0.03521278128027916,
            -0.303561806678772,
            -0.012903203256428242,
            -0.05544426664710045,
            0.006876696366816759,
            0.28739532828330994
        ],
        [
            0.14318875968456268,
            0.30292218923568726,
            0.47485458850860596,
            0.009710706770420074,
            -0.09972395747900009,
            0.009710588492453098,
            0.07849359512329102,
            -0.19059456884860992,
            -0.38844168186187744,
            -0.18421430885791779,
            0.2764054536819458,
            0.5244008898735046,
            0.047806356102228165,
            -0.0945286676287651,
            -0.4252392053604126,
            0.1679079681634903
        ],
        [
            0.1289670765399933,
            0.10800101608037949,
            0.49900829792022705,
            0.020991800352931023,
            0.16058318316936493,
            0.0037281622644513845,
            0.20968180894851685,
            -0.18076129257678986,
            -0.180800199508667,
            -0.45701247453689575,
            0.2996775209903717,
            0.2705920338630676,
            0.27209970355033875,
            0.04622223600745201,
            0.03476386517286301,
            -0.013806193135678768
        ],
        [
            -0.058787353336811066,
            -0.10145142674446106,
            -0.2744700312614441,
            -0.14003975689411163,
            0.05369216576218605,
            0.04309621453285217,
            0.19819775223731995,
            -0.10598237812519073,
            -0.4764806926250458,
            0.07670644670724869,
            0.07375562191009521,
            -0.5119479298591614,
            0.35198134183883667,
            -0.022091124206781387,
            0.13737252354621887,
            0.14163106679916382
        ],
        [
            -0.020200684666633606,
            -0.012133498676121235,
            0.10919270664453506,
            -0.0197740625590086,
            -0.02393273450434208,
            -0.013937758281826973,
            -0.11675611138343811,
            0.02728351578116417,
            -0.053969793021678925,
            -0.027887215837836266,
            -0.026900943368673325,
            -0.10042176395654678,
            0.015110685490071774,
            0.017193526029586792,
            -0.057080306112766266,
            -0.032140955328941345
        ],
        [
            -0.09606152027845383,
            0.1054026186466217,
            0.38126009702682495,
            0.030845027416944504,
            0.15439195930957794,
            0.003454409772530198,
            0.12920258939266205,
            -0.30137914419174194,
            -0.06201797351241112,
            -0.3360426425933838,
            0.05060894414782524,
            0.32012939453125,
            0.2424435019493103,
            0.32706218957901,
            -0.025024844333529472,
            -0.07539933174848557
        ],
        [
            0.0257224440574646,
            0.05122809857130051,
            0.06453841179609299,
            -0.002584461122751236,
            0.05564409866929054,
            -0.007873118855059147,
            0.015251499600708485,
            -0.027150357142090797,
            -0.02728472650051117,
            -0.05121331289410591,
            0.054397355765104294,
            0.08139196783304214,
            -0.0153127396479249,
            -0.057267919182777405,
            0.059174954891204834,
            -0.022171540185809135
        ],
        [
            -0.20919714868068695,
            0.014791425317525864,
            0.1726042479276657,
            -0.02789352834224701,
            0.005647032521665096,
            -0.040500447154045105,
            0.06496240943670273,
            -0.1070084348320961,
            -0.21808822453022003,
            -0.057385481894016266,
            0.13459806144237518,
            -0.3349640369415283,
            0.04190022498369217,
            -0.19719445705413818,
            -0.011218477971851826,
            0.16150614619255066
        ],
        [
            -0.033640287816524506,
            0.009951150976121426,
            0.24263319373130798,
            -0.052259527146816254,
            -0.09752216935157776,
            -0.05285416170954704,
            0.10460551828145981,
            -0.03771291673183441,
            -0.18102146685123444,
            -0.21358628571033478,
            -0.08734934777021408,
            0.322115033864975,
            0.05616151541471481,
            0.22524815797805786,
            -0.4720708727836609,
            0.001510265632532537
        ],
        [
            -0.04807833582162857,
            -0.0454593263566494,
            0.21663962304592133,
            -4.8417736252304167e-05,
            -0.08656163513660431,
            -0.060886021703481674,
            -0.2526162266731262,
            0.07206523418426514,
            -0.045886777341365814,
            0.12718923389911652,
            0.27856022119522095,
            -0.3103407621383667,
            -0.10567747801542282,
            -0.21866436302661896,
            0.1913437396287918,
            -0.05228152498602867
        ],
        [
            -0.16903191804885864,
            0.05951681733131409,
            0.0009544000495225191,
            0.06329582631587982,
            -0.09556961059570312,
            -0.0718764215707779,
            -0.05123679339885712,
            0.17658540606498718,
            0.17651169002056122,
            0.49029943346977234,
            0.11379705369472504,
            0.05340566858649254,
            -0.4296065866947174,
            -0.26795250177383423,
            -0.19709265232086182,
            -0.06520819664001465
        ],
        [
            0.018467407673597336,
            0.017268458381295204,
            0.19158831238746643,
            -0.021429359912872314,
            -0.052803799510002136,
            -0.0011046282015740871,
            0.13910026848316193,
            -0.17251300811767578,
            -0.05756695941090584,
            -0.10876095294952393,
            0.2380618155002594,
            0.08914854377508163,
            0.07983339577913284,
            -0.23613888025283813,
            0.7371036410331726,
            0.004122339189052582
        ],
        [
            -0.3332360088825226,
            -0.4243503212928772,
            0.9536706209182739,
            -0.08013634383678436,
            -0.3447752892971039,
            0.031071720644831657,
            -0.08809869736433029,
            0.025579052045941353,
            -0.2982139587402344,
            0.026385776698589325,
            -0.09291096031665802,
            -0.047399770468473434,
            0.300151526927948,
            0.14575938880443573,
            -0.4324705898761749,
            0.1843136101961136
        ],
        [
            0.08109501749277115,
            0.06661350280046463,
            0.17871758341789246,
            0.000639000441879034,
            0.1183643639087677,
            -0.01581844687461853,
            0.1383969783782959,
            0.018837323412299156,
            -0.046691205352544785,
            0.14042730629444122,
            0.11515079438686371,
            0.1103062555193901,
            0.008116835728287697,
            0.005303206387907267,
            -0.0029049012809991837,
            0.039573267102241516
        ],
        [
            0.04356300085783005,
            0.17509473860263824,
            -0.03250310942530632,
            -0.023898188024759293,
            0.3883460760116577,
            -0.019232457503676414,
            -0.02474329248070717,
            -0.18988721072673798,
            -0.09368547797203064,
            -0.49337926506996155,
            0.42423468828201294,
            -0.26184970140457153,
            0.12133437395095825,
            -0.0468505397439003,
            0.05222851410508156,
            -0.011864668689668179
        ],
        [
            -0.14670303463935852,
            0.19697138667106628,
            0.1588757485151291,
            0.008208760991692543,
            0.06884605437517166,
            -0.02201807126402855,
            0.07583937793970108,
            -0.06556429713964462,
            -0.008023671805858612,
            -0.051214877516031265,
            0.5393384695053101,
            0.10507430881261826,
            -0.08355442434549332,
            -0.30923163890838623,
            0.27291905879974365,
            -0.04489883407950401
        ],
        [
            0.30398881435394287,
            0.02460825815796852,
            0.06593629717826843,
            0.025101691484451294,
            0.031094519421458244,
            -0.03423459082841873,
            0.10251642763614655,
            0.028848819434642792,
            -0.18989670276641846,
            -0.10652351379394531,
            0.18064908683300018,
            0.2065945416688919,
            0.05261565372347832,
            -0.02775321528315544,
            0.20460934937000275,
            -0.04045282304286957
        ]
    ],
    "lstm.bias_ih_l0": [
        0.3632844090461731,
        0.5125567317008972,
        0.5818381905555725,
        0.03172532469034195,
        0.4432682394981384,
        0.08345773071050644,
        0.27341604232788086,
        0.1121794581413269,
        0.30431726574897766,
        -0.008978725410997868,
        0.2616409659385681,
        0.4776366353034973,
        0.35983964800834656,
        0.13772833347320557,
        0.38002482056617737,
        0.10251598805189133,
        -0.10344720631837845,
        -0.10433919727802277,
        0.47497424483299255,
        0.031898315995931625,
        -0.1846514195203781,
        -0.10416984558105469,
        0.2394687384366989,
        0.20418354868888855,
        0.06633448600769043,
        -0.002046644687652588,
        0.4285910725593567,
        0.015247534029185772,
        0.12592066824436188,
        0.01684522069990635,
        0.20035885274410248,
        -0.030236518010497093,
        -0.051325295120477676,
        -0.045523300766944885,
        0.0009563798666931689,
        -0.14665807783603668,
        0.20576266944408417,
        -0.03291531652212143,
        0.3129458427429199,
        -0.10010866820812225,
        -0.16871392726898193,
        -0.2914998233318329,
        0.0912858098745346,
        0.08948399126529694,
        0.1427767425775528,
        -0.09735003858804703,
        -0.0005974068772047758,
        0.027807706966996193,
        0.052521925419569016,
        0.3398377597332001,
        0.2849045991897583,
        -0.004830819554626942,
        0.2925022542476654,
        -0.051560815423727036,
        0.11850934475660324,
        0.07991745322942734,
        0.20387162268161774,
        0.24093887209892273,
        0.21896113455295563,
        0.34272029995918274,
        0.4320976138114929,
        0.21953509747982025,
        0.36527615785598755,
        0.11990558356046677
    ],
    "lstm.bias_hh_l0": [
        0.24469247460365295,
        0.528084397315979,
        0.5818638801574707,
        0.005084926728159189,
        0.3666064441204071,
        0.015016310848295689,
        0.09461738169193268,
        0.3674388825893402,
        0.3799611032009125,
        0.09495466947555542,
        0.26582828164100647,
        0.5841061472892761,
        0.44912028312683105,
        0.2947455942630768,
        0.4265698492527008,
        0.09430023282766342,
        -0.023235725238919258,
        -0.00851224921643734,
        0.4684041738510132,
        0.001486326684243977,
        0.08555881679058075,
        -0.06277578324079514,
        0.12241053581237793,
        0.3466668128967285,
        0.07488062977790833,
        0.046324487775564194,
        0.3279339671134949,
        0.015649937093257904,
        0.12362051010131836,
        0.3174889087677002,
        0.4146883189678192,
        -0.02599688619375229,
        -0.0589495450258255,
        -0.17366531491279602,
        0.027601180598139763,
        -0.1434732973575592,
        -0.10041976720094681,
        -0.12730899453163147,
        -0.04595128819346428,
        -0.13737574219703674,
        -0.255854070186615,
        -0.06227152422070503,
        0.36636263132095337,
        -0.2545887529850006,
        0.001766711357049644,
        0.020728163421154022,
        0.40057873725891113,
        -0.06065291911363602,
        0.11731723695993423,
        0.39080703258514404,
        0.4571329653263092,
        -0.07605894654989243,
        0.39806678891181946,
        -0.05338183790445328,
        0.1416892260313034,
        0.12010981887578964,
        0.2738913595676422,
        0.005062825046479702,
        0.260469913482666,
        0.39587780833244324,
        0.47731128334999084,
        -0.07467096298933029,
        0.21671687066555023,
        0.06871208548545837
    ],
    "dense.weight": [
        [
            0.7540353536605835,
            -0.17466452717781067,
            -0.05810106173157692,
            0.11480031907558441,
            -0.25547465682029724,
            0.24082447588443756,
            0.5006460547447205,
            -0.5658486485481262,
            0.32227110862731934,
            0.30644500255584717,
            0.05932909995317459,
            0.6984037756919861,
            0.5831205248832703,
            -0.17262029647827148,
            -0.17747192084789276,
            0.604592502117157
        ]
    ],
    "dense.bias": [
        0.12445876747369766
    ]
}