{
    "lstm.weight_ih_l0": [
        [
            -0.028234874829649925,
            0.06104462221264839
        ],
        [
            0.04679151251912117,
            0.032020606100559235
        ],
        [
            0.05073957145214081,
            0.24253657460212708
        ],
        [
            0.004218607675284147,
            0.038725242018699646
        ],
        [
            -0.068754181265831,
            0.2211254984140396
        ],
        [
            0.014101800508797169,
            0.32054656744003296
        ],
        [
            0.003034349996596575,
            0.07898995280265808
        ],
        [
            -0.004199230577796698,
            0.09132881462574005
        ],
        [
            -0.034903671592473984,
            0.3421989977359772
        ],
        [
            -0.017473582178354263,
            0.13489627838134766
        ],
        [
            0.035998325794935226,
            0.028183139860630035
        ],
        [
            -0.06909919530153275,
            0.14179059863090515
        ],
        [
            -0.06348501890897751,
            0.19198091328144073
        ],
        [
            0.0035584894940257072,
            0.06242186203598976
        ],
        [
            0.017353279516100883,
            0.3102087378501892
        ],
        [
            -0.030532650649547577,
            -0.05823236703872681
        ],
        [
            -0.020512372255325317,
            -0.008910435251891613
        ],
        [
            0.040623653680086136,
            -0.035756900906562805
        ],
        [
            0.023883046582341194,
            0.026398949325084686
        ],
        [
            -0.008921386674046516,
            0.0072990888729691505
        ],
        [
            0.03687316179275513,
            0.0023490525782108307
        ],
        [
            -0.0912313163280487,
            0.0874517560005188
        ],
        [
            0.011881789192557335,
            0.1966046839952469
        ],
        [
            -0.020030636340379715,
            0.031328264623880386
        ],
        [
            0.0037171414587646723,
            0.15410950779914856
        ],
        [
            0.008128112182021141,
            -0.07322727888822556
        ],
        [
            0.03888729214668274,
            -0.0945964902639389
        ],
        [
            -0.32445842027664185,
            0.10063175857067108
        ],
        [
            -0.06396949291229248,
            0.02951464056968689
        ],
        [
            0.05625541880726814,
            0.04535374417901039
        ],
        [
            0.02406749688088894,
            0.41877448558807373
        ],
        [
            -0.08069495856761932,
            0.005021372344344854
        ],
        [
            0.7076429724693298,
            -0.07074678689241409
        ],
        [
            -0.4599277377128601,
            0.035987477749586105
        ],
        [
            -2.028205156326294,
            0.02979174256324768
        ],
        [
            -0.11858247965574265,
            0.4115148186683655
        ],
        [
            1.0049537420272827,
            -0.07690413296222687
        ],
        [
            0.24230018258094788,
            0.23028431832790375
        ],
        [
            -0.2230711132287979,
            -1.1019642353057861
        ],
        [
            0.27111688256263733,
            0.2469005137681961
        ],
        [
            1.9474188089370728,
            0.08306533843278885
        ],
        [
            -0.3907076120376587,
            -0.046229902654886246
        ],
        [
            0.0024897661060094833,
            -0.258568674325943
        ],
        [
            0.6029582023620605,
            0.05912812054157257
        ],
        [
            -0.2684765160083771,
            -0.39206811785697937
        ],
        [
            0.12913046777248383,
            0.01405288651585579
        ],
        [
            0.18378528952598572,
            -0.7141223549842834
        ],
        [
            -0.15435685217380524,
            0.06520378589630127
        ],
        [
            -0.02473975159227848,
            0.06054123863577843
        ],
        [
            0.05799601599574089,
            0.00741554656997323
        ],
        [
            0.043076641857624054,
            0.2484995573759079
        ],
        [
            0.017649244517087936,
            0.03988002613186836
        ],
        [
            -0.11051801592111588,
            0.08581557124853134
        ],
        [
            0.05616052821278572,
            0.28268012404441833
        ],
        [
            0.05374127998948097,
            -0.7408852577209473
        ],
        [
            -0.024790257215499878,
            0.11564460396766663
        ],
        [
            -0.03588928282260895,
            0.2456924468278885
        ],
        [
            -0.021306240931153297,
            0.15364548563957214
        ],
        [
            0.1105264201760292,
            -0.007080061361193657
        ],
        [
            -0.2721606194972992,
            0.02445893920958042
        ],
        [
            0.008195900358259678,
            0.2606835663318634
        ],
        [
            0.006026903633028269,
            0.07419141381978989
        ],
        [
            -0.008436242118477821,
            0.3640909492969513
        ],
        [
            -0.04384965822100639,
            -0.05588014796376228
        ]
    ],
    "lstm.weight_hh_l0": [
        [
            -0.012893013656139374,
            0.008410030044615269,
            0.020653918385505676,
            -0.005576108582317829,
            -0.006614113692194223,
            0.06491848826408386,
            0.024537857621908188,
            -0.014669084921479225,
            -0.016460789367556572,
            0.010522349737584591,
            -0.009900537319481373,
            -0.04301366209983826,
            0.039581507444381714,
            -0.003444824367761612,
            -0.01437676977366209,
            0.011161347851157188
        ],
        [
            0.0030351513996720314,
            -0.031473491340875626,
            -0.05092940106987953,
            -0.029149238020181656,
            0.0951416939496994,
            0.08367398381233215,
            0.1419464349746704,
            -0.001836232841014862,
            0.05865420028567314,
            0.02809794619679451,
            -0.04616501182317734,
            0.062311477959156036,
            -0.10790538042783737,
            -0.006578264757990837,
            -0.06827086955308914,
            0.014252262189984322
        ],
        [
            -0.03177601471543312,
            -0.04231537505984306,
            -0.025321805849671364,
            -0.11438516527414322,
            0.0724421963095665,
            0.3388940691947937,
            0.2580103576183319,
            -0.07544193416833878,
            -0.010581589303910732,
            0.09220875799655914,
            -0.2284601777791977,
            0.05020122975111008,
            -0.2537114918231964,
            -0.039957717061042786,
            -0.2851857542991638,
            -0.008312035351991653
        ],
        [
            -0.02148175798356533,
            0.00021971021487843245,
            0.054586030542850494,
            -0.07677146047353745,
            0.014221650548279285,
            0.05653715133666992,
            0.20554707944393158,
            -0.012271910905838013,
            -0.07076985388994217,
            0.014120610430836678,
            -0.03698201850056648,
            0.004080173093825579,
            -0.06215623766183853,
            -0.008302480913698673,
            -0.018760694190859795,
            -0.00917699933052063
        ],
        [
            -0.0752679705619812,
            -0.04948360100388527,
            0.09174403548240662,
            -0.06213349476456642,
            0.12886157631874084,
            0.3210240602493286,
            0.2458818554878235,
            -0.018464654684066772,
            -0.022862596437335014,
            0.04970001429319382,
            -0.057775747030973434,
            0.055707529187202454,
            -0.4147602915763855,
            0.11961400508880615,
            -0.25341930985450745,
            -0.0524168461561203
        ],
        [
            -0.013935119844973087,
            -0.05061909928917885,
            -0.053194183856248856,
            -0.04897052422165871,
            0.23478011786937714,
            0.1259036362171173,
            -0.02313922718167305,
            -0.08021345734596252,
            0.15613716840744019,
            0.10235331207513809,
            -0.07602410763502121,
            0.08700183033943176,
            -0.07751265168190002,
            -0.01070653647184372,
            -0.06471111625432968,
            0.004899360239505768
        ],
        [
            0.00040907826041802764,
            0.025905676186084747,
            -0.024204671382904053,
            -0.004867339041084051,
            -0.027672452852129936,
            0.03932606428861618,
            -0.12621323764324188,
            -0.0715799331665039,
            -0.04041600227355957,
            0.024435367435216904,
            0.075490303337574,
            -0.026542073115706444,
            0.024876466020941734,
            -0.04875354841351509,
            0.04630616307258606,
            -0.007868114858865738
        ],
        [
            -0.01262427307665348,
            -0.024052586406469345,
            -0.007840113714337349,
            -0.025503622367978096,
            0.09186507761478424,
            -0.0029393560253083706,
            -0.0032662078738212585,
            -0.029535235837101936,
            0.02729654312133789,
            0.027970653027296066,
            0.033141154795885086,
            0.04922974854707718,
            -0.10975246876478195,
            0.015967193990945816,
            -0.05329965427517891,
            -0.014456460252404213
        ],
        [
            -0.06941413879394531,
            -0.04789864644408226,
            0.052182916551828384,
            -0.10849936306476593,
            0.13632532954216003,
            0.38518187403678894,
            0.42180049419403076,
            -0.05281280353665352,
            -0.015759462490677834,
            0.09285512566566467,
            -0.1348324865102768,
            0.046238940209150314,
            -0.38063517212867737,
            0.07302132993936539,
            -0.30486932396888733,
            -0.0025503826327621937
        ],
        [
            -0.005437840241938829,
            -0.01716790720820427,
            -0.07241620123386383,
            -0.04679575189948082,
            0.01001774612814188,
            0.04497368261218071,
            0.0015275297919288278,
            -0.015088493004441261,
            0.03938664495944977,
            0.026445312425494194,
            -0.06571845710277557,
            -0.0024933884851634502,
            0.03517908602952957,
            -0.04883746802806854,
            -0.035917237401008606,
            0.0001462252694182098
        ],
        [
            -0.005447013303637505,
            -0.009906570427119732,
            -0.10701265186071396,
            -0.021287808194756508,
            -0.017047932371497154,
            -0.07696610689163208,
            -0.04697529971599579,
            -0.10194587707519531,
            0.03596724942326546,
            0.03763594105839729,
            0.10642673820257187,
            -0.012693301774561405,
            0.01913348212838173,
            -0.07500380277633667,
            0.04022496938705444,
            0.004791981540620327
        ],
        [
            -0.045248229056596756,
            -0.01847897842526436,
            -0.17634999752044678,
            0.09204726666212082,
            0.10094857215881348,
            0.1639770269393921,
            0.2174815535545349,
            0.06300493329763412,
            0.19721679389476776,
            -0.010485406033694744,
            0.21228541433811188,
            -0.06700704246759415,
            -0.4403000771999359,
            0.09550411254167557,
            -0.09443433582782745,
            0.03808453306555748
        ],
        [
            -0.03652505204081535,
            0.028514176607131958,
            0.13757558166980743,
            -0.04530671611428261,
            -0.038679663091897964,
            0.022643132135272026,
            -0.10775987058877945,
            -0.1323316991329193,
            -0.15964572131633759,
            0.04010077193379402,
            0.03217083588242531,
            -0.03316931053996086,
            0.09247846156358719,
            -0.07409588992595673,
            -0.043389856815338135,
            0.0029914123006165028
        ],
        [
            -0.0027083514723926783,
            0.032661136239767075,
            0.017543120309710503,
            -0.035447876900434494,
            -0.08393622189760208,
            0.14136821031570435,
            -0.02960924059152603,
            -0.07779471576213837,
            -0.11397764831781387,
            -0.0039758579805493355,
            -0.02551579475402832,
            -0.036138132214546204,
            0.040213946253061295,
            0.0036339580547064543,
            -0.004470822401344776,
            -0.025812789797782898
        ],
        [
            0.0064231958240270615,
            -0.010576180182397366,
            -0.04262927174568176,
            0.012432333081960678,
            0.017745010554790497,
            -0.05224533751606941,
            -0.13740958273410797,
            -0.05796859785914421,
            0.011071190237998962,
            0.03223315626382828,
            0.0642944797873497,
            0.01689252071082592,
            0.054065387696027756,
            -0.061822839081287384,
            -0.007609930820763111,
            0.021564004942774773
        ],
        [
            -0.02308199740946293,
            -0.015762245282530785,
            -0.01081516221165657,
            -0.06632394343614578,
            0.07095715403556824,
            0.11421805620193481,
            0.06298041343688965,
            -0.10231027752161026,
            0.020314635708928108,
            0.03158647567033768,
            -0.007895117625594139,
            0.06760364025831223,
            -0.0541580393910408,
            -0.07738038897514343,
            0.048127323389053345,
            -0.024023177102208138
        ],
        [
            -0.02506154030561447,
            0.002250007586553693,
            0.006006584968417883,
            -0.01282441709190607,
            -0.0059790099039673805,
            0.07912640273571014,
            0.07581345736980438,
            0.013577183708548546,
            -0.023829186335206032,
            0.012893103063106537,
            -0.018224716186523438,
            -0.0525062270462513,
            0.00043107179226353765,
            0.009382559917867184,
            -0.013886354863643646,
            0.02407134883105755
        ],
        [
            0.0033592942636460066,
            -0.016926247626543045,
            -0.022821059450507164,
            -0.01380669604986906,
            0.06080997735261917,
            0.0712420716881752,
            0.12811364233493805,
            0.013068280182778835,
            0.03737984597682953,
            0.012092857621610165,
            -0.023556973785161972,
            0.04033338278532028,
            -0.08271320164203644,
            0.0019751708023250103,
            -0.010115833953022957,
            0.024905089288949966
        ],
        [
            -0.0017094252398237586,
            0.0030118573922663927,
            0.016648901626467705,
            -0.039158761501312256,
            0.06223227083683014,
            0.3366241753101349,
            0.2772764563560486,
            0.0030708564445376396,
            -0.03827521577477455,
            0.011011423543095589,
            -0.12851230800151825,
            -0.00860893540084362,
            -0.21388638019561768,
            0.013697126880288124,
            -0.12911145389080048,
            -0.0012903850292786956
        ],
        [
            -0.029815388843417168,
            0.013095236383378506,
            0.0807453915476799,
            -0.10005868971347809,
            -0.01782546378672123,
            0.07724780589342117,
            0.245033398270607,
            0.00427878275513649,
            -0.09582916647195816,
            0.0070571694523096085,
            -0.024784250184893608,
            -0.06425213813781738,
            -0.0013517881743609905,
            0.0069529335014522076,
            -0.06686726212501526,
            -0.011714746244251728
        ],
        [
            -0.018791992217302322,
            -0.022189751267433167,
            0.00600673072040081,
            0.036161020398139954,
            0.10913211852312088,
            0.1661987006664276,
            0.08363363891839981,
            0.0456208772957325,
            0.021479319781064987,
            -0.07144109904766083,
            0.12123987823724747,
            0.049982424825429916,
            -0.2766886055469513,
            0.15481281280517578,
            -0.17014113068580627,
            -0.07792994379997253
        ],
        [
            -0.05723267421126366,
            -0.003334627253934741,
            0.28624385595321655,
            -0.03487752005457878,
            0.19613438844680786,
            0.1437695324420929,
            0.03323692828416824,
            -0.08226140588521957,
            -0.13497662544250488,
            0.08256198465824127,
            -0.09129708260297775,
            -0.006098225712776184,
            0.02091822400689125,
            0.11530855298042297,
            -0.008288243785500526,
            -0.014303690753877163
        ],
        [
            0.020795997232198715,
            0.07425425946712494,
            -0.05027031525969505,
            0.042942628264427185,
            -0.01417204923927784,
            0.03683941066265106,
            -0.38907650113105774,
            -0.08856544643640518,
            -0.046440284699201584,
            0.021347420290112495,
            0.19814197719097137,
            -0.12359406799077988,
            0.09068131446838379,
            -0.05085199698805809,
            0.22664779424667358,
            -0.010455229319632053
        ],
        [
            -0.016097411513328552,
            -0.02955646440386772,
            -0.0035104367416352034,
            -0.02690468542277813,
            0.09594530612230301,
            -0.023491796106100082,
            0.018196284770965576,
            -0.029077278450131416,
            0.023974444717168808,
            0.023729266598820686,
            0.06276416033506393,
            0.05326686054468155,
            -0.1123112291097641,
            0.03928807005286217,
            -0.04692111909389496,
            -0.016139265149831772
        ],
        [
            -0.06934753060340881,
            0.0315549261868,
            0.04529435932636261,
            0.0002777409099508077,
            0.09144753962755203,
            0.3072224259376526,
            0.21437940001487732,
            0.009627304039895535,
            0.02172931283712387,
            0.027130892500281334,
            -0.0015944591723382473,
            0.05920267850160599,
            -0.42738470435142517,
            0.025644296780228615,
            -0.20565573871135712,
            0.013890975154936314
        ],
        [
            0.00990535132586956,
            -0.023168228566646576,
            -0.06413605064153671,
            -0.015550320968031883,
            0.044913798570632935,
            -0.03824803978204727,
            -0.01110759750008583,
            0.001584804616868496,
            0.0676567479968071,
            0.011537856422364712,
            -0.005913090892136097,
            -0.012325185351073742,
            0.04159688204526901,
            0.03184587508440018,
            -0.021371515467762947,
            -0.004813810344785452
        ],
        [
            -0.008954952470958233,
            0.0064359549432992935,
            -0.18155856430530548,
            -0.03126218169927597,
            0.009786278940737247,
            -0.12203630805015564,
            -0.08851167559623718,
            -0.1977403163909912,
            0.054574381560087204,
            0.03433981537818909,
            0.17902278900146484,
            0.03885270282626152,
            0.011976076290011406,
            -0.14698022603988647,
            0.0591716393828392,
            -0.044254012405872345
        ],
        [
            -0.19852013885974884,
            0.06737402826547623,
            0.2148289680480957,
            -0.040266916155815125,
            -0.17979785799980164,
            0.4131866693496704,
            0.3005036413669586,
            -0.14338652789592743,
            -0.1771838217973709,
            -0.0268928911536932,
            0.13256029784679413,
            -0.10113748908042908,
            -0.16905544698238373,
            -0.0981256365776062,
            -0.34708452224731445,
            -0.08539433777332306
        ],
        [
            -0.01619046926498413,
            0.08800424635410309,
            0.11926936358213425,
            -0.059640370309352875,
            0.0009741029352881014,
            0.10479679703712463,
            -0.0629320815205574,
            -0.10385991632938385,
            -0.14359591901302338,
            0.04231513291597366,
            -0.030193299055099487,
            -0.17917175590991974,
            0.21154959499835968,
            -0.05484049767255783,
            0.11937305331230164,
            0.0023459375370293856
        ],
        [
            0.018521487712860107,
            0.021809974685311317,
            -0.13197815418243408,
            -0.07476741075515747,
            -0.03083401918411255,
            0.19947536289691925,
            0.09223755449056625,
            -0.0876840129494667,
            0.019404469057917595,
            0.04525710642337799,
            -0.17957553267478943,
            -0.0953584760427475,
            0.010671798139810562,
            -0.1173183023929596,
            -0.05868673697113991,
            0.026540907099843025
        ],
        [
            0.03631044551730156,
            -0.006414090283215046,
            -0.0938538983464241,
            0.055507101118564606,
            0.011773151345551014,
            -0.17486071586608887,
            -0.2161485254764557,
            -0.020076533779501915,
            0.0516057088971138,
            0.021099992096424103,
            0.16103623807430267,
            -0.03154681622982025,
            0.19171790778636932,
            -0.08579269796609879,
            0.10286899656057358,
            0.055934082716703415
        ],
        [
            -0.031760796904563904,
            0.009265410713851452,
            0.10772750526666641,
            -0.0385991707444191,
            0.03609481826424599,
            0.02980835735797882,
            -0.04572398588061333,
            -0.12391024827957153,
            -0.04300522431731224,
            0.004678955301642418,
            0.08093953877687454,
            -0.020430689677596092,
            0.13090811669826508,
            -0.07093939930200577,
            0.09595722705125809,
            -0.024910908192396164
        ],
        [
            -0.020898930728435516,
            -0.028215674683451653,
            -0.07713539153337479,
            -0.16096927225589752,
            0.08482345938682556,
            0.06322990357875824,
            -0.1884530931711197,
            0.054771240800619125,
            -0.050204768776893616,
            0.009101769886910915,
            -0.1277773082256317,
            -0.0011703106574714184,
            0.2011083960533142,
            0.06528081744909286,
            0.04765423759818077,
            0.1381097137928009
        ],
        [
            -0.12940190732479095,
            0.1468134969472885,
            0.19302718341350555,
            0.009099532850086689,
            -0.060040414333343506,
            0.11074016243219376,
            -0.1700250208377838,
            0.018519951030611992,
            -0.36779651045799255,
            0.11320032179355621,
            0.0673711821436882,
            -0.0846698060631752,
            -0.04511648416519165,
            -0.1031784638762474,
            0.111881785094738,
            -0.17049801349639893
        ],
        [
            -0.019566988572478294,
            0.2754260003566742,
            0.02992411144077778,
            0.19757947325706482,
            0.17508868873119354,
            -0.12465859949588776,
            0.13434353470802307,
            -0.20917488634586334,
            -0.2579534947872162,
            0.04513250291347504,
            -0.030464092269539833,
            0.25764212012290955,
            -0.07058793306350708,
            0.1908327043056488,
            -0.07359723746776581,
            0.1703546643257141
        ],
        [
            0.2052171230316162,
            -0.020325805991888046,
            -0.34337812662124634,
            0.03230689465999603,
            0.06504695117473602,
            0.061167728155851364,
            -0.07239456474781036,
            0.05222194269299507,
            0.1492074579000473,
            0.14206095039844513,
            0.06824533641338348,
            -0.015764424577355385,
            0.25654298067092896,
            -0.04752650111913681,
            0.12703655660152435,
            0.13594955205917358
        ],
        [
            0.13295918703079224,
            -0.17607103288173676,
            -1.2775943279266357,
            -0.11137629300355911,
            0.2583300471305847,
            0.40029019117355347,
            0.013578894548118114,
            0.26758894324302673,
            0.8364737629890442,
            -0.032192785292863846,
            -0.16047832369804382,
            0.14011354744434357,
            -0.012996518984436989,
            0.1256837397813797,
            -0.09545352309942245,
            0.009526151232421398
        ],
        [
            -0.27847322821617126,
            0.3575748801231384,
            0.8048339486122131,
            0.07883193343877792,
            -0.2573922872543335,
            0.08632174879312515,
            0.4425644874572754,
            -0.10974422842264175,
            -0.6311399340629578,
            -0.2837739586830139,
            -0.04352813959121704,
            -0.015536140650510788,
            -0.5347279906272888,
            0.19782274961471558,
            -0.25105398893356323,
            -0.21706528961658478
        ],
        [
            0.09952300041913986,
            -0.10585431754589081,
            0.07585839182138443,
            -0.24359899759292603,
            0.1308857798576355,
            -0.014229617081582546,
            0.5229671597480774,
            0.16747421026229858,
            0.13758444786071777,
            0.013066214509308338,
            0.051616325974464417,
            -0.036272354423999786,
            0.15203604102134705,
            0.020187251269817352,
            0.47614505887031555,
            -0.06419546157121658
        ],
        [
            0.0143537363037467,
            -0.13208913803100586,
            -0.17338548600673676,
            0.016107622534036636,
            0.07859525829553604,
            0.09436672925949097,
            0.18943296372890472,
            0.1387108713388443,
            0.3419448435306549,
            -0.15186309814453125,
            0.012787610292434692,
            0.10719844698905945,
            0.08435149490833282,
            0.08511780947446823,
            -0.19970230758190155,
            0.006896939128637314
        ],
        [
            0.2159440666437149,
            -0.1893460601568222,
            -0.5417016744613647,
            -0.19171147048473358,
            0.009570073336362839,
            0.09784787148237228,
            -0.03034001961350441,
            -0.10844901949167252,
            0.39019253849983215,
            -0.26374587416648865,
            -0.21748657524585724,
            -0.018746253103017807,
            0.05226844921708107,
            0.17130111157894135,
            0.09170321375131607,
            0.10793182253837585
        ],
        [
            0.06634338945150375,
            -0.1379285752773285,
            -0.48327600955963135,
            -0.09476924687623978,
            0.03866221010684967,
            0.2197970747947693,
            -0.08646266162395477,
            0.14976976811885834,
            0.34762150049209595,
            -0.05287802591919899,
            -0.24756935238838196,
            -0.21135082840919495,
            -0.09313476830720901,
            -0.04020044580101967,
            0.15870268642902374,
            0.005936036817729473
        ],
        [
            0.1759297251701355,
            0.12674997746944427,
            -0.10228694975376129,
            0.1878156065940857,
            0.05321042612195015,
            -0.22852982580661774,
            -0.3405592143535614,
            -0.12298940122127533,
            0.14203466475009918,
            0.14848875999450684,
            0.33542874455451965,
            -0.015871668234467506,
            -0.005004358012229204,
            0.17508238554000854,
            0.2130669504404068,
            -0.28675058484077454
        ],
        [
            0.1919996440410614,
            -0.13706956803798676,
            -0.6028802394866943,
            -0.19736133515834808,
            0.2760343551635742,
            0.05983783304691315,
            0.05913984030485153,
            0.07291197031736374,
            0.4974879026412964,
            -0.04841092973947525,
            0.14097276329994202,
            0.1702723652124405,
            -0.011936194263398647,
            1.4910436220816337e-05,
            -0.06360216438770294,
            -0.0966663584113121
        ],
        [
            -0.17501933872699738,
            0.12214431911706924,
            0.8762341737747192,
            -0.29074499011039734,
            -0.20191405713558197,
            -0.33457276225090027,
            -0.6363356113433838,
            -0.34646281599998474,
            -0.5400561690330505,
            0.052982937544584274,
            0.26632678508758545,
            0.26068758964538574,
            0.18358319997787476,
            -0.24775782227516174,
            0.06547018885612488,
            -0.01583770662546158
        ],
        [
            0.07784487307071686,
            -0.047220174223184586,
            -0.0504019670188427,
            0.012980400584638119,
            0.3056413233280182,
            0.007324082311242819,
            0.18019498884677887,
            0.2518151104450226,
            0.33080923557281494,
            -0.08670173585414886,
            0.07762321829795837,
            0.41555774211883545,
            -0.15301278233528137,
            0.10385474562644958,
            -0.13225597143173218,
            -0.07957077026367188
        ],
        [
            0.01053607277572155,
            0.1516542136669159,
            -0.1126677468419075,
            -0.21396249532699585,
            -0.14366930723190308,
            -0.01036151684820652,
            -0.6074278354644775,
            -0.18590186536312103,
            -0.059865809977054596,
            0.07621821016073227,
            0.014016568660736084,
            -0.051314759999513626,
            -0.07760338485240936,
            0.011338160373270512,
            0.2887096107006073,
            0.05694783478975296
        ],
        [
            0.07068028301000595,
            -0.3146122992038727,
            -0.39594268798828125,
            0.10498299449682236,
            0.06187666952610016,
            0.027977578341960907,
            0.09084487706422806,
            0.2009000927209854,
            0.2983480989933014,
            0.21920284628868103,
            -0.22400398552417755,
            -0.3295954167842865,
            0.2437783181667328,
            -0.15677544474601746,
            0.08104847371578217,
            0.28379616141319275
        ],
        [
            -0.01034437958151102,
            0.004157973453402519,
            0.016975900158286095,
            -0.0033218625467270613,
            0.012091626413166523,
            0.06218224763870239,
            0.024942908436059952,
            -0.012119152583181858,
            -0.0034910168033093214,
            0.01739354617893696,
            -0.009760268963873386,
            -0.02869478054344654,
            0.004410819616168737,
            -0.005947988945990801,
            -0.0007629521423950791,
            0.01676621101796627
        ],
        [
            0.00066039664670825,
            -0.032070547342300415,
            -0.03871241584420204,
            -0.036009885370731354,
            0.11185502260923386,
            0.13228848576545715,
            0.19397082924842834,
            -0.00762796588242054,
            0.061222199350595474,
            0.015768973156809807,
            -0.04931559041142464,
            0.08583831787109375,
            -0.1269596517086029,
            -0.002471568528562784,
            -0.057481128722429276,
            9.847935143625364e-05
        ],
        [
            -0.03473727032542229,
            -0.04128691181540489,
            -0.019767120480537415,
            -0.11685860902070999,
            0.07550685107707977,
            0.3618321120738983,
            0.26646456122398376,
            -0.08786968886852264,
            -0.016374289989471436,
            0.09052912890911102,
            -0.23094895482063293,
            0.050942033529281616,
            -0.27333810925483704,
            -0.04850384220480919,
            -0.29341819882392883,
            -0.010126491077244282
        ],
        [
            -0.022443510591983795,
            -0.006508602295070887,
            0.05836502090096474,
            -0.09537865221500397,
            -0.027781326323747635,
            0.09184068441390991,
            0.16033554077148438,
            -0.0382060669362545,
            -0.03895341977477074,
            -0.005478159990161657,
            -0.03178534284234047,
            -0.03576219081878662,
            0.0515122227370739,
            -0.012509193271398544,
            -0.014972800388932228,
            -0.017297405749559402
        ],
        [
            -0.09068161994218826,
            -0.027333302423357964,
            0.09196662902832031,
            -0.01012241281569004,
            0.1251283437013626,
            0.38695356249809265,
            0.29344314336776733,
            0.025290552526712418,
            -0.031630679965019226,
            0.011080828495323658,
            0.10616886615753174,
            0.012782569043338299,
            -0.642036497592926,
            0.21987004578113556,
            -0.13636250793933868,
            -0.08516936749219894
        ],
        [
            0.003836944932118058,
            -0.055849701166152954,
            -0.08537779003381729,
            -0.02981344610452652,
            0.15803836286067963,
            0.10730554908514023,
            -0.12610265612602234,
            -0.08357164263725281,
            0.1480177640914917,
            0.07711214572191238,
            -0.04660173878073692,
            0.03145943954586983,
            0.08239323645830154,
            -0.01300862804055214,
            -0.020630620419979095,
            -0.0025865286588668823
        ],
        [
            0.042717449367046356,
            0.014184175059199333,
            -0.08188095688819885,
            -0.08848590403795242,
            0.041121721267700195,
            -0.12791787087917328,
            -0.22362110018730164,
            -0.2207924723625183,
            -0.05059228464961052,
            0.0649493932723999,
            0.22680778801441193,
            0.11330979317426682,
            -0.002908373950049281,
            0.04582170397043228,
            0.7548906207084656,
            -0.12172690033912659
        ],
        [
            -0.017725331708788872,
            -0.022877318784594536,
            0.02924218773841858,
            -0.04953524097800255,
            0.09588929265737534,
            0.0022251824848353863,
            0.022255413234233856,
            -0.02600380964577198,
            0.003029738087207079,
            0.03404536470770836,
            0.034012291580438614,
            0.06761419028043747,
            -0.1392170935869217,
            0.039691012352705,
            -0.05545494332909584,
            -0.010690632276237011
        ],
        [
            -0.0663420781493187,
            -0.04142730310559273,
            0.04899752140045166,
            -0.09159424155950546,
            0.1638241559267044,
            0.42038494348526,
            0.4799507260322571,
            0.02273343689739704,
            0.014245863072574139,
            0.08366606384515762,
            -0.11443810164928436,
            0.022431932389736176,
            -0.4940479099750519,
            0.09412527829408646,
            -0.2587827742099762,
            0.007992688566446304
        ],
        [
            0.0036536671686917543,
            -0.04435986652970314,
            -0.10588710010051727,
            -0.028707491233944893,
            0.06129640340805054,
            0.016284843906760216,
            0.009029990062117577,
            0.016525600105524063,
            0.08815963566303253,
            0.06877817213535309,
            -0.08122958242893219,
            0.006702715065330267,
            0.02966686524450779,
            -0.05561017245054245,
            -0.020981142297387123,
            0.02985971048474312
        ],
        [
            -0.024243129417300224,
            -0.04345595836639404,
            -0.15670382976531982,
            -0.01948411576449871,
            0.06611716747283936,
            -0.07723104953765869,
            0.04059527814388275,
            -0.07488814741373062,
            0.09912991523742676,
            0.01638530194759369,
            0.11250437051057816,
            0.08013523370027542,
            -0.12107732146978378,
            -0.019666964188218117,
            -0.1601141095161438,
            -0.03824109584093094
        ],
        [
            -0.15424850583076477,
            0.14755915105342865,
            0.2750422954559326,
            0.05171207711100578,
            -0.19388245046138763,
            0.3999266028404236,
            0.06535345315933228,
            -0.07416385412216187,
            -0.293813019990921,
            -0.08422026038169861,
            0.286443293094635,
            -0.22130967676639557,
            -0.24124616384506226,
            0.027670813724398613,
            -0.15009519457817078,
            -0.10836320370435715
        ],
        [
            -0.012057014741003513,
            0.036842796951532364,
            0.10978280007839203,
            -0.024341102689504623,
            -0.11166934669017792,
            -0.04414181783795357,
            -0.2123710811138153,
            -0.1413659155368805,
            -0.219297856092453,
            0.01756024919450283,
            0.048761963844299316,
            0.02622382715344429,
            0.17176084220409393,
            -0.0897076427936554,
            -0.058645930141210556,
            -0.028890209272503853
        ],
        [
            0.005541814025491476,
            -0.017660506069660187,
            -0.06481701880693436,
            -0.008437960408627987,
            0.06369408965110779,
            0.1028110459446907,
            0.051855236291885376,
            -0.01920255646109581,
            0.05290133133530617,
            0.03886539861559868,
            0.004366029053926468,
            0.024061713367700577,
            -0.20507849752902985,
            0.021826349198818207,
            -0.04447273910045624,
            0.03344551473855972
        ],
        [
            0.003758974140509963,
            -0.032740816473960876,
            -0.04693061485886574,
            0.02672974020242691,
            0.057149700820446014,
            -0.12116236239671707,
            -0.17938920855522156,
            -0.04999229311943054,
            0.036584172397851944,
            0.042110465466976166,
            0.11968108266592026,
            0.03328343480825424,
            0.039555974304676056,
            -0.047139186412096024,
            -0.03375997021794319,
            0.046348635107278824
        ],
        [
            -0.03074677661061287,
            -0.013122220523655415,
            0.016161609441041946,
            -0.07036952674388885,
            0.06927091628313065,
            0.11510596424341202,
            0.09605170786380768,
            -0.11879979074001312,
            0.009084071964025497,
            0.032434165477752686,
            -0.02940351702272892,
            0.050712451338768005,
            -0.025519883260130882,
            -0.08673586696386337,
            0.048341769725084305,
            -0.025617314502596855
        ]
    ],
    "lstm.bias_ih_l0": [
        0.20023806393146515,
        0.12386219948530197,
        0.5953514575958252,
        -0.014920197427272797,
        0.466167688369751,
        0.34067821502685547,
        0.5835549235343933,
        0.08545275032520294,
        0.47599583864212036,
        0.20130281150341034,
        0.2532598078250885,
        0.0373723991215229,
        0.5079428553581238,
        0.007133531384170055,
        0.3272252678871155,
        0.20426100492477417,
        0.08945552259683609,
        -0.034927502274513245,
        -0.1261449158191681,
        0.058871589601039886,
        -0.190987229347229,
        0.2815994322299957,
        0.4870593249797821,
        0.059924449771642685,
        0.07799337059259415,
        0.08637773990631104,
        0.32014158368110657,
        0.1858614683151245,
        0.21777956187725067,
        0.29989075660705566,
        0.14512880146503448,
        0.2068740427494049,
        0.032344743609428406,
        0.03429705277085304,
        0.0384172685444355,
        -0.175190731883049,
        0.10502374172210693,
        0.17670938372612,
        0.15093421936035156,
        -0.23666277527809143,
        0.13338015973567963,
        0.030673982575535774,
        -0.04277869313955307,
        0.06701869517564774,
        -0.059920355677604675,
        -0.16339947283267975,
        -0.050723038613796234,
        -0.15203693509101868,
        0.17661793529987335,
        0.0658211037516594,
        0.5975190997123718,
        0.03955560550093651,
        0.24398981034755707,
        0.4494006633758545,
        0.37646982073783875,
        0.14392141997814178,
        0.3955601751804352,
        0.2093971222639084,
        0.24796907603740692,
        0.015384441241621971,
        0.4874313175678253,
        -0.05895799770951271,
        0.4084874987602234,
        0.18381711840629578
    ],
    "lstm.bias_hh_l0": [
        0.07186287641525269,
        0.11371508240699768,
        0.5598579049110413,
        -0.054944876581430435,
        0.4820186495780945,
        0.38460448384284973,
        0.5286831855773926,
        0.1895003318786621,
        0.35660097002983093,
        0.21282878518104553,
        0.24350899457931519,
        0.0927007794380188,
        0.4459984004497528,
        0.0364491306245327,
        0.2815723419189453,
        0.17437495291233063,
        0.002519543981179595,
        -0.04363039508461952,
        0.04948428273200989,
        -0.14136749505996704,
        -0.14704841375350952,
        0.04224163666367531,
        0.4840037524700165,
        -0.017397381365299225,
        -0.19288474321365356,
        -0.08495113998651505,
        0.32246169447898865,
        0.42463478446006775,
        0.2670346796512604,
        0.1406307816505432,
        0.10827232152223587,
        0.25985047221183777,
        -0.06967731565237045,
        -0.1067507266998291,
        -0.09543342143297195,
        -0.15197910368442535,
        -0.21185387670993805,
        -0.17840102314949036,
        0.11139139533042908,
        -0.2642150819301605,
        -0.23825109004974365,
        0.1473459154367447,
        0.17022693157196045,
        0.04841635003685951,
        0.04864269122481346,
        -0.15225057303905487,
        0.1184198409318924,
        0.16187365353107452,
        0.18920665979385376,
        0.07503832876682281,
        0.5990687608718872,
        0.14657580852508545,
        0.22259162366390228,
        0.3881983757019043,
        0.48680201172828674,
        0.015725232660770416,
        0.3823002874851227,
        -0.0021579705644398928,
        0.26946285367012024,
        0.21463042497634888,
        0.46103259921073914,
        -0.08730066567659378,
        0.42097729444503784,
        0.1757076233625412
    ],
    "dense.weight": [
        [
            0.21290847659111023,
            0.10094860941171646,
            0.04539686441421509,
            -0.04672769084572792,
            0.8575774431228638,
            0.22276094555854797,
            0.11195212602615356,
            -0.06314855813980103,
            0.4400971531867981,
            -0.5904718041419983,
            0.38838765025138855,
            0.7919358611106873,
            0.13606899976730347,
            0.3029510974884033,
            -0.09211323410272598,
            -0.5940414071083069
        ]
    ],
    "dense.bias": [
        0.1446962207555771
    ]
}