{"lstm.weight_ih_l0": [[-0.15173760056495667, 0.42914363741874695], [0.008091475814580917, -0.06794359534978867], [-0.07657007873058319, 0.2321244329214096], [-0.03238334506750107, 0.07320789247751236], [0.04306858777999878, -0.0027889185585081577], [-0.08702179789543152, -0.06573896110057831], [0.019837643951177597, -0.010679998435080051], [0.014077549800276756, 0.028664257377386093], [-0.09822381287813187, 0.19409964978694916], [-0.0017674380214884877, 0.19736424088478088], [0.04512496665120125, 0.037062644958496094], [0.020227735862135887, 0.10495169460773468], [0.02732372283935547, 0.10252629965543747], [0.027400610968470573, 0.2508987784385681], [-0.0038109843153506517, 0.09077679365873337], [-0.022600354626774788, 0.018929708749055862], [0.07515977323055267, 0.04814496263861656], [0.006509937811642885, -0.017138153314590454], [-0.11537843197584152, 0.4892931878566742], [-0.040193621069192886, 0.023223478347063065], [0.060582585632801056, -0.041755568236112595], [-0.11791770905256271, -0.22522737085819244], [0.008534662425518036, 0.03955757990479469], [0.009489130228757858, 0.03208800405263901], [-0.22463029623031616, 0.11451318114995956], [-0.01199579518288374, 0.17125554382801056], [0.16580894589424133, 0.10407429933547974], [0.010012737475335598, 0.02452005073428154], [-0.04910537227988243, 0.16721467673778534], [-0.0278229508548975, 0.18225516378879547], [-0.06065456569194794, -0.10970503091812134], [0.016043731942772865, 0.019350195303559303], [-2.066619634628296, -0.09482979029417038], [0.07730457931756973, 0.14895294606685638], [0.5801498293876648, -0.1652657836675644], [0.22803735733032227, -0.10481970757246017], [0.14926576614379883, -0.026840662583708763], [-0.12334427237510681, -0.2906467020511627], [-0.06530502438545227, -0.058320239186286926], [-0.0789361521601677, -0.12272516638040543], [0.48883095383644104, -0.05124671384692192], [0.45070767402648926, -0.6972315311431885], [0.09950925409793854, -0.20542006194591522], [0.3380046784877777, 0.01055693905800581], [0.15000316500663757, -0.1532740294933319], [-1.2754110097885132, 0.18394310772418976], [-1.3074110746383667, -0.6444998383522034], [0.25351640582084656, -0.7631939053535461], [0.060499850660562515, 0.6057257056236267], [0.010602360591292381, -0.07635527104139328], [-0.08213919401168823, 0.18325777351856232], [-0.040507879108190536, 0.06476584821939468], [0.05005085468292236, 0.014247164130210876], [-0.100924052298069, 0.04190709441900253], [0.027764447033405304, 0.0007904497324489057], [0.02236882969737053, 0.05419214814901352], [-0.12654049694538116, 0.23113666474819183], [0.1788180023431778, 0.12066879123449326], [0.12642459571361542, 0.0057425410486757755], [0.01198429986834526, 0.026717739179730415], [0.01025847066193819, 0.1256484091281891], [-0.026136917993426323, 0.32304462790489197], [0.006831399630755186, 0.09951389580965042], [-0.04813065379858017, 0.04165051504969597]], "lstm.weight_hh_l0": [[-0.479246586561203, 0.01587570272386074, -0.17455428838729858, -0.01694374904036522, 0.016714707016944885, 0.5607281923294067, -0.06505053490400314, 0.059443891048431396, -0.7898613810539246, 0.6402549147605896, 0.25477921962738037, -0.03440872207283974, -0.12724874913692474, 0.41807782649993896, -0.29324403405189514, -0.7073459625244141], [0.004520054440945387, -0.007914021611213684, -0.003935514483600855, -0.009794122539460659, 0.01971183530986309, 0.03135184571146965, -0.004052267409861088, -0.002491703489795327, -0.017103828489780426, 0.09958471357822418, -0.021134212613105774, -0.014039434492588043, -0.004628677386790514, 0.0022713765501976013, -0.01722635328769684, 0.007723673712462187], [0.4312039613723755, -0.005235103890299797, -0.26447194814682007, -0.02900625392794609, -0.0501541830599308, -0.006872992962598801, -0.010311736725270748, -0.03205190971493721, 0.21579809486865997, 0.07946107536554337, 0.043432049453258514, -0.08869651705026627, -0.04230475425720215, 0.1503557562828064, 0.08383675664663315, -0.04339735209941864], [-0.040404677391052246, -0.005098072346299887, 0.003969534765928984, -0.0033993166871368885, 0.012790782377123833, 0.09030918776988983, -0.04072713851928711, -0.008198064751923084, -0.029065893962979317, 0.10927936434745789, 0.011645525693893433, -0.010137995705008507, 0.034445278346538544, 0.07179369777441025, 0.02262020856142044, -0.08138696849346161], [-0.05325828865170479, 0.007186614442616701, 0.027510369196534157, 0.0020547688473016024, -0.021451115608215332, 0.027920864522457123, -0.026632366701960564, -0.009369498118758202, 0.04632723703980446, -0.01955335959792137, 0.044979553669691086, 0.03719488903880119, 0.019506968557834625, -0.08839816600084305, 0.000714963476639241, -0.039551977068185806], [0.04495484381914139, -0.005475575570017099, 0.043885014951229095, -0.02425132691860199, -0.020092103630304337, 0.04597732797265053, -0.07204598933458328, -0.020868055522441864, -0.027753837406635284, 0.14029686152935028, 0.043315380811691284, 0.02364906668663025, -0.034564245492219925, 0.11005949229001999, 0.07362717390060425, -0.16301938891410828], [-0.0029264248441904783, 0.0005114054074510932, 0.014046312309801579, 0.004896677564829588, 0.014360986649990082, 0.028458742424845695, -0.03775589540600777, -0.014099091291427612, 0.018451929092407227, 0.054749995470047, 0.011065206490457058, -0.004566763527691364, 0.004821155685931444, 0.02034604735672474, 0.02905561402440071, -0.054867394268512726], [0.03353985399007797, 0.004654360003769398, -0.009923482313752174, 0.004141099750995636, 0.001140387263149023, -0.02093944139778614, -0.02076069451868534, -0.01471131294965744, 0.01676373928785324, -0.009675429202616215, -0.006629331968724728, 0.008503680117428303, -0.004478009417653084, 0.020437993109226227, -0.0043643382377922535, -0.04108268767595291], [0.008654393255710602, 0.019601672887802124, -0.025857601314783096, 0.016382452100515366, -0.029970543459057808, -0.0030647902749478817, -0.08231990039348602, -0.041096702218055725, 0.06410056352615356, -0.06918206065893173, 0.027588868513703346, 0.03003242239356041, 0.029781989753246307, 0.12079176306724548, 0.12407814711332321, -0.22429779171943665], [-0.013383885845541954, 0.01566680334508419, 0.004242985974997282, 0.0095956576988101, 0.010689335875213146, -0.014449086971580982, -0.08311454951763153, -0.05148956552147865, 0.008810698986053467, -0.07376904785633087, 0.02555292472243309, 0.052939772605895996, -0.023575983941555023, 0.02190345898270607, 0.040854696184396744, -0.16619965434074402], [0.018597900867462158, 0.01497562974691391, 0.10533884167671204, 0.021218737587332726, -0.036518361419439316, 0.018881147727370262, -0.01687769778072834, -0.005493317265063524, 0.05681157857179642, 0.008778145536780357, 0.06695635616779327, 0.06754736602306366, 0.025917841121554375, 0.003453868208453059, 0.002842250047251582, -0.01282552257180214], [0.026534022763371468, -0.004256007261574268, 0.023811599239706993, 0.009497584775090218, -0.015602256171405315, 0.04748876392841339, -0.03505122289061546, -0.010838012211024761, 0.06499695032835007, 0.1206727847456932, 0.0763109102845192, 0.025906773284077644, 0.009733689948916435, -0.037420451641082764, 0.10813954472541809, 0.05647614970803261], [-0.1718103140592575, 0.016901344060897827, 0.004282299429178238, 0.018928898498415947, 0.02978358045220375, 0.03990153968334198, -0.06087854132056236, -0.026801016181707382, -0.09269788861274719, -0.024461956694722176, 0.00826792512089014, 0.01903693564236164, 0.04032289981842041, -0.005679331254214048, -0.007406166289001703, -0.1192653626203537], [-0.17670699954032898, 0.013292760588228703, 0.08159814029932022, -0.004244387149810791, 0.021290412172675133, 0.08706726878881454, -0.1459164023399353, -0.07485632598400116, -0.015010547824203968, 0.03786349296569824, 0.060478851199150085, 0.07193758338689804, 0.038732923567295074, -0.007313856855034828, -0.028856465592980385, -0.15244030952453613], [-0.0682331994175911, -0.033182088285684586, -0.0016034560976549983, -0.02860954962670803, 0.05345425009727478, 0.1500626504421234, -0.16360990703105927, -0.07134586572647095, 0.08469050377607346, 0.1647946983575821, 0.01305699534714222, -0.06404836475849152, 0.03886112943291664, 0.060000885277986526, 0.12430576980113983, -0.16210314631462097], [-0.12210369110107422, -0.031586576253175735, 0.043655794113874435, -0.02597304806113243, 0.03697723150253296, 0.19135794043540955, -0.07648451626300812, -0.021973155438899994, 0.04520665481686592, 0.2325206696987152, 0.03372669965028763, -0.05659165605902672, 0.02816362865269184, -0.0248270146548748, 0.09701967984437943, -0.01365122850984335], [-0.31757768988609314, 0.0016372465761378407, 0.19020527601242065, 0.06854867190122604, 0.03662748634815216, 0.14732766151428223, -0.02821853570640087, -0.025305602699518204, 0.026678919792175293, 0.2123841494321823, 0.1625044047832489, 0.004420366603881121, -0.10663080215454102, 0.2073148787021637, -0.10136377066373825, -0.08996666967868805], [0.007740391883999109, -0.006576913874596357, -0.00549535546451807, -0.008400313556194305, 0.015593241900205612, 0.028888890519738197, 0.0011979029513895512, 0.00020635288092307746, -0.018731873482465744, 0.09085164219141006, -0.022735871374607086, -0.01162679772824049, -0.0018043859163299203, 0.002251471858471632, -0.019923940300941467, 0.013284961692988873], [0.20400956273078918, -0.012864760123193264, -0.29409050941467285, -0.09557904303073883, -0.04768548533320427, 0.04448560252785683, -0.09301871061325073, -0.06407766789197922, 0.12034761160612106, 0.1037738248705864, 0.07597778737545013, -0.121336929500103, -0.05993052199482918, 0.10028869658708572, 0.12173755466938019, -0.1743338257074356], [-0.02294217050075531, -0.003751934738829732, -0.007976235821843147, 0.004083735402673483, 0.008532245643436909, 0.058654025197029114, -0.026827426627278328, -0.0023903478868305683, -0.026752974838018417, 0.053559623658657074, 0.006093685980886221, -0.013130772858858109, 0.04644625633955002, 0.07953549176454544, 0.02213439904153347, -0.048757314682006836], [-0.11035959422588348, 0.012002229690551758, 0.050142399966716766, 0.0033540630247443914, -0.024917563423514366, 0.04829484224319458, -0.02956249937415123, -0.004980172961950302, 0.035007294267416, -0.010943119414150715, 0.07472540438175201, 0.03784037008881569, 0.040508076548576355, -0.13980330526828766, -0.013365340419113636, -0.02744148299098015], [-0.008618408814072609, -0.022789521142840385, -0.004587697796523571, -0.03024423122406006, -0.0420844703912735, 0.04594642296433449, -0.02572891116142273, 0.007844164967536926, -0.029534118250012398, 0.17172209918498993, 0.05353887751698494, -0.006127310451120138, -0.06200080364942551, 0.11716272681951523, 0.09918225556612015, -0.16238269209861755], [0.004613992292433977, 0.00037889915984123945, 0.010012195445597172, 0.005150637123733759, 0.0175555981695652, 0.0306242685765028, -0.04376819729804993, -0.017506975680589676, 0.02289382368326187, 0.056449055671691895, 0.009653347544372082, -0.007825566455721855, 0.004275389481335878, 0.030329860746860504, 0.03615593910217285, -0.06235077977180481], [0.037494514137506485, 0.004915518686175346, -0.02109760232269764, 0.004666301887482405, 0.003029113169759512, -0.025276709347963333, -0.017794523388147354, -0.015124695375561714, 0.01575312577188015, -0.013185588642954826, -0.011439945548772812, 0.005505234934389591, -0.008637947030365467, 0.023633893579244614, -0.005786069203168154, -0.03656541183590889], [0.0010402241023257375, -0.009857500903308392, -0.1718069612979889, -0.004360852763056755, -0.03285951912403107, 0.044635530561208725, -0.06637029349803925, -0.035663455724716187, 0.18322627246379852, -0.014189235866069794, 0.05617951601743698, -0.03849879652261734, -0.01864054426550865, 0.19127124547958374, 0.22520433366298676, -0.14844752848148346], [0.2526698708534241, 0.037634946405887604, -0.1608373373746872, 0.03765663132071495, -0.023817969486117363, -0.29123654961586, -0.030305854976177216, -0.037605732679367065, -0.016111744567751884, -0.27052465081214905, 0.01853233017027378, 0.051983993500471115, -0.07021438330411911, 0.14427465200424194, 0.19757957756519318, -0.11633512377738953], [-0.1898142695426941, 0.025839509442448616, 0.200736403465271, 0.02118779718875885, -0.045826610177755356, 0.05942336469888687, -0.08440028131008148, -0.04981589317321777, 0.08890439569950104, 0.006340726278722286, 0.13950134813785553, 0.1391483098268509, 0.03369244188070297, -0.0925082415342331, -0.10747945308685303, -0.14791588485240936], [-0.01581384427845478, 0.017353670671582222, 0.02668626978993416, 0.021350840106606483, -0.03477519005537033, 0.0412074513733387, -0.0381472185254097, -0.011639800854027271, 0.03623488172888756, 0.07089172303676605, 0.0922531709074974, 0.07887721061706543, 0.03312568739056587, -0.04217628389596939, 0.056340981274843216, -0.03858714923262596], [-0.07748188078403473, 0.03467627242207527, -0.035271964967250824, 0.04908343777060509, 0.023584162816405296, -0.015025296248495579, -0.06645306944847107, -0.034871283918619156, -0.10604390501976013, -0.0788983702659607, -0.01663588173687458, 0.020250538364052773, 0.048978809267282486, 0.0895191878080368, 0.06466145813465118, -0.1627827137708664], [-0.2787376344203949, -0.02176094800233841, 0.05723673105239868, -0.040688030421733856, 0.10900411009788513, 0.1699453592300415, -0.08530490100383759, -0.039440639317035675, -0.1960633248090744, 0.17219509184360504, 0.050439756363630295, 0.006017851643264294, -0.0373774915933609, 0.0037271075416356325, -0.031679775565862656, 0.07382319867610931], [0.09853089600801468, -0.053752999752759933, 0.020069396123290062, -0.008959087543189526, 0.04060022905468941, 0.040187470614910126, -0.04028312489390373, -0.028507910668849945, 0.16476070880889893, 0.04391327127814293, -0.05944623425602913, -0.13350366055965424, -0.00436598714441061, 0.13228125870227814, 0.28824859857559204, 0.24462313950061798], [-0.2682371437549591, -0.03354944288730621, 0.10618151724338531, -0.022210311144590378, 0.05712287500500679, 0.23738886415958405, -0.08647014200687408, -0.01729360595345497, 0.028176279738545418, 0.2605936527252197, 0.07608307152986526, -0.036679863929748535, 0.0444229356944561, -0.08202551305294037, 0.08147437870502472, 0.00012639585474971682], [0.6015413999557495, -0.20736390352249146, 0.08643753826618195, -0.2552878260612488, -0.3166191577911377, 0.24213816225528717, 0.1664310246706009, 0.17450159788131714, -0.3138369619846344, -0.33336955308914185, -0.07608871161937714, 0.06975769251585007, 0.1088511198759079, 0.4121384024620056, 0.7840003371238708, -0.11150861531496048], [-0.04103890433907509, 0.025227343663573265, 0.0584825798869133, 0.04543738067150116, -0.025510365143418312, 0.03429603949189186, 0.08624661713838577, 0.011210284195840359, -0.057426609098911285, -0.3278960883617401, 0.03139391168951988, 0.0032679359428584576, -0.04204336181282997, 0.0028863379266113043, -0.02528460882604122, -0.2014399617910385], [-0.5297090411186218, 0.1429472267627716, 0.0713263750076294, -0.08732134848833084, 0.009066830389201641, 0.17988231778144836, -0.1319531947374344, 0.044048044830560684, -0.10793264210224152, -0.2537805140018463, 0.2096579372882843, -0.053055211901664734, -0.07664740085601807, -0.25223854184150696, 0.19573543965816498, -0.11509891599416733], [-0.11164997518062592, 0.13399416208267212, -0.044045452028512955, 0.18847030401229858, 0.1075432226061821, -0.01410412322729826, 0.18828526139259338, 0.050666458904743195, -0.016774600371718407, -0.323418527841568, -0.06439975649118423, 0.10693817585706711, 0.14971044659614563, 0.16189023852348328, 0.24594883620738983, -0.15323185920715332], [-0.10750537365674973, -0.08899714052677155, -0.1706954538822174, 0.03860897570848465, 0.20391100645065308, -0.0677962675690651, -0.059503212571144104, -0.11077240109443665, -0.17842701077461243, 0.21312634646892548, -0.2593434751033783, -0.026542413979768753, -0.05551191046833992, 0.19573979079723358, 0.12510327994823456, 0.15695185959339142], [-0.5719041228294373, -0.03910312429070473, -0.3394804894924164, 0.09025923162698746, 0.11524145305156708, 0.24259339272975922, -0.19636203348636627, -0.038275204598903656, 0.05821451544761658, 0.293778657913208, -0.04822671785950661, -0.05277547240257263, 0.0023111337795853615, -0.21082216501235962, -0.23310460150241852, 0.3109140694141388], [0.036015335470438004, 0.006214984226971865, 0.016933562234044075, -0.019247176125645638, -0.06365159153938293, 0.0108103072270751, 0.07350589334964752, 0.02939227968454361, -0.013498063199222088, -0.16370843350887299, -0.05202411487698555, 0.0316799096763134, 0.021641220897436142, -0.052116211503744125, -0.09332729876041412, 0.08409921824932098], [-0.06255227327346802, 0.011277654208242893, 0.09006109833717346, -0.012617071159183979, -0.07011605054140091, 0.14325596392154694, 0.06969881057739258, 0.02438838966190815, -0.07045755535364151, -0.08331867307424545, 0.03639775887131691, -0.02343668043613434, 0.05401633679866791, -0.14632056653499603, 0.023654215037822723, -0.071147121489048], [0.36297720670700073, -0.012817462906241417, 0.1713738590478897, 0.08527515828609467, -0.15566784143447876, -0.334545373916626, -0.019495993852615356, 0.2045561522245407, 0.2628045380115509, 0.03732645511627197, 0.03521660715341568, -0.16131360828876495, 0.2003098726272583, -0.17512522637844086, 0.7516302466392517, -0.08562475442886353], [0.34950193762779236, -0.10331893712282181, 0.2256409078836441, -0.0399644561111927, 0.04910387098789215, 0.46340256929397583, 0.21285571157932281, 0.05306803435087204, -0.24717549979686737, 0.6730278134346008, 0.1199854165315628, -0.0379318930208683, 0.07032808661460876, 0.03192649036645889, 0.5276222229003906, 0.30406978726387024], [-0.32661551237106323, -0.021865984424948692, 0.1423812359571457, -0.09379195421934128, -0.08597522228956223, -0.00820103194564581, -0.040870457887649536, 0.0563487745821476, -0.10171952843666077, -0.08597058057785034, 0.15799303352832794, 0.32389894127845764, -0.28496983647346497, -0.07329145073890686, 0.053037870675325394, 0.06306841224431992], [-0.17303051054477692, 0.14496386051177979, 0.1951834112405777, 0.037239573895931244, -0.1217133104801178, -0.16325432062149048, 0.17861084640026093, 0.01158718392252922, -0.15890251100063324, -0.3572078049182892, 0.030825717374682426, 0.35391324758529663, -0.1768411546945572, -0.02679298259317875, -0.4956536889076233, -0.1719042956829071], [-0.08388633280992508, 0.057922281324863434, -0.1289757937192917, 0.12821915745735168, 0.08073662966489792, 0.1981392353773117, -0.18824052810668945, 0.026304902508854866, 0.08802217990159988, -0.2771770656108856, -0.10716989636421204, -0.05427337810397148, 0.2625824213027954, -0.4719838798046112, 0.0786738321185112, -0.295621395111084], [0.042970698326826096, 0.04297809302806854, 0.15222565829753876, -0.12650667130947113, -0.3208025097846985, -0.0553407296538353, 0.012453143484890461, 0.23646552860736847, -0.06803122907876968, 0.12216867506504059, -0.006546255201101303, -0.1365440934896469, -0.08061584830284119, 0.23748980462551117, 0.20771999657154083, -0.193726047873497], [0.02745736390352249, -0.059772390872240067, 0.051770616322755814, -0.3774028718471527, -0.0787443295121193, 0.07320734858512878, -0.016144366934895515, -0.14875413477420807, 0.049427300691604614, -0.4031326472759247, 0.15447814762592316, -0.000906239787582308, -0.036407940089702606, -0.17936068773269653, 0.3094390332698822, 0.037502434104681015], [0.10256602615118027, -0.05094572901725769, 0.11546677350997925, 0.03149455413222313, -0.0055365655571222305, -0.05251126363873482, 0.0343157984316349, 0.021035635843873024, 0.17211326956748962, 0.07313497364521027, 0.06840057671070099, 0.046072110533714294, -0.01336699165403843, -0.23839949071407318, 0.2786659598350525, 0.5946705341339111], [-0.2314060926437378, 0.14521026611328125, -0.10849268734455109, 0.09815441817045212, -0.11743302643299103, 0.059925612062215805, -0.024604598060250282, 0.017463654279708862, -0.2481471300125122, 0.06509637832641602, 0.19541232287883759, 0.30286458134651184, -0.027628906071186066, 0.23475173115730286, -0.7446935176849365, -0.7222180366516113], [-0.0027846028096973896, -0.008748343214392662, -0.00761061254888773, -0.01107080653309822, 0.022734297439455986, 0.034606531262397766, -0.005026376340538263, -0.003311706008389592, -0.019242336973547935, 0.10487573593854904, -0.020888691768050194, -0.010824068449437618, -0.006864145863801241, -0.002735966118052602, -0.01865261048078537, 0.01297483779489994], [0.3327382802963257, 0.044041503220796585, -0.16361822187900543, 0.04824729263782501, -0.12322729080915451, -0.049753397703170776, -0.0023277122527360916, 0.01726442202925682, 0.09446654468774796, -0.09842641651630402, 0.11639952659606934, 0.0444403700530529, 0.03248178958892822, 0.20192623138427734, 0.09861288219690323, -0.15751926600933075], [-0.039804063737392426, -0.007313196547329426, -0.014910581521689892, -0.0063294339925050735, 0.0180185716599226, 0.0683094933629036, -0.043057896196842194, -0.012888576835393906, -0.03054291568696499, 0.20555490255355835, 0.00991445779800415, -0.02463562972843647, 0.018112236633896828, 0.0964631736278534, 0.028630772605538368, -0.06954536586999893], [-0.09052752703428268, 0.01355284545570612, 0.05120224878191948, 0.011963147670030594, -0.03736274689435959, 0.07371781021356583, -0.031037747859954834, -0.00726494612172246, 0.045540232211351395, -0.08364672213792801, 0.06351979821920395, 0.04214770719408989, 0.046862658113241196, -0.11260556429624557, 0.002151943976059556, -0.049329642206430435], [0.035631682723760605, -0.00991944782435894, 0.021821370348334312, -0.03517930954694748, -0.020160824060440063, 0.03997449949383736, -0.08934148401021957, -0.03526325896382332, -0.011267130263149738, 0.040560077875852585, 0.04444935917854309, 0.010136214084923267, -0.033432550728321075, 0.11950401216745377, 0.09796300530433655, -0.24799159169197083], [-0.023762241005897522, -0.002080315025523305, 0.009075909852981567, 0.006085444241762161, 0.015567339956760406, 0.027696950361132622, -0.04680568352341652, -0.020501933991909027, 0.04766109213232994, 0.09828293323516846, 0.00881172064691782, -0.0036500347778201103, 0.0073069119825959206, 0.009270180948078632, 0.013900352641940117, -0.059620290994644165], [0.022706057876348495, 0.0041529713198542595, -0.014583105221390724, 0.00429457938298583, 0.0021967606153339148, -0.02658073604106903, -0.022867752239108086, -0.018832022324204445, 0.03069394826889038, -0.00483290059491992, -0.013058281503617764, 0.01014985516667366, -0.0057495031505823135, 0.010098653845489025, -0.015484996140003204, -0.03981046751141548], [0.0328814871609211, 0.009849080815911293, 0.003702461253851652, -0.0058874706737697124, -0.028427038341760635, 0.039302099496126175, -0.09703545272350311, -0.047456078231334686, 0.010302682407200336, -0.07067535817623138, 0.021526938304305077, 0.043208956718444824, 0.015190398320555687, 0.11856941133737564, 0.09957507252693176, -0.2034751921892166], [0.03958926722407341, 0.05446884036064148, -0.13990658521652222, 0.0475400872528553, 0.05700581893324852, -0.0067924028262495995, -0.10442923754453659, -0.06975220143795013, 0.015992645174264908, -0.12569741904735565, -0.03422179073095322, 0.08498845994472504, -0.02390032634139061, -0.18306168913841248, -0.17200060188770294, -0.17238974571228027], [-0.058136798441410065, 0.02418392151594162, 0.11184088885784149, 0.009296226315200329, -0.07082963734865189, 0.008561388589441776, -0.02390504628419876, -2.342590960324742e-05, 0.027108941227197647, 0.06796348839998245, 0.1344922035932541, 0.08846987783908844, 0.020459340885281563, -0.08348730206489563, -0.11071284860372543, -0.04976445063948631], [0.03436334803700447, -0.004029588308185339, 0.05641695111989975, 0.012392096221446991, -0.015391337685286999, 0.07459710538387299, -0.04188934341073036, 0.002739031333476305, 0.061514630913734436, 0.14178644120693207, 0.12841568887233734, 0.03954821452498436, 0.013301788829267025, -0.04289857670664787, 0.1480240821838379, 0.0317387692630291], [-0.13014006614685059, 0.016115665435791016, -0.0017826332477852702, 0.025960076600313187, 0.043014176189899445, 0.002178866183385253, -0.06023579463362694, -0.04181893542408943, -0.06913210451602936, -0.03508225083351135, -0.03523317351937294, 0.011140567250549793, 0.029220500960946083, 0.04579244926571846, 0.010285641066730022, -0.10787972807884216], [-0.1553468108177185, 0.026999235153198242, 0.06904391944408417, 0.008208949118852615, 0.022350160405039787, 0.0742267444729805, -0.13867157697677612, -0.07827908545732498, -0.04967609792947769, -0.00037036879803054035, 0.04725109413266182, 0.07689370214939117, 0.030807917937636375, 0.05889761820435524, -0.00835789367556572, -0.21486712992191315], [-0.061582740396261215, -0.038763683289289474, 0.007215254940092564, -0.02090276964008808, 0.07173626869916916, 0.12490024417638779, -0.1774238497018814, -0.0866314172744751, 0.13625630736351013, 0.1468656063079834, -0.00859163049608469, -0.10813508927822113, 0.030382275581359863, 0.05959411710500717, 0.18939903378486633, -0.10628461092710495], [-0.21163012087345123, -0.036452192813158035, 0.09035038203001022, -0.03455900400876999, 0.04234130308032036, 0.2848159074783325, -0.12072576582431793, -0.02633349969983101, 0.018491214141249657, 0.28459101915359497, 0.10201682150363922, -0.051715023815631866, 0.041850797832012177, -0.01604427583515644, 0.14648954570293427, -0.03893876448273659]], "lstm.bias_ih_l0": [0.21974201500415802, 0.06821237504482269, 0.14942769706249237, 0.12960223853588104, 0.17219223082065582, 0.35207778215408325, 0.09002619981765747, 0.04357793927192688, 0.34105566143989563, 0.5055413246154785, 0.07520923763513565, 0.2551563084125519, 0.1653258353471756, 0.4015894830226898, 0.5622952580451965, 0.3327873945236206, 0.1652543991804123, -0.036321088671684265, 0.42517054080963135, -0.023698750883340836, 0.14542943239212036, 0.06026212498545647, 0.07997069507837296, 0.05668123811483383, 0.17145241796970367, 0.22452452778816223, 0.2567763924598694, 0.16881908476352692, 0.22715690732002258, 0.21050451695919037, 0.17830882966518402, 0.23474359512329102, -0.06432908028364182, -0.18180318176746368, -0.05854639410972595, 0.18430407345294952, 0.00873858854174614, 0.13131526112556458, -0.2843332588672638, -0.09262950718402863, -0.011782635934650898, 0.23111377656459808, 0.03963208198547363, 0.017087498679757118, -0.10067391395568848, 0.028991330415010452, 0.11666835099458694, -0.0917903333902359, 0.3029898405075073, -0.010933573357760906, 0.271425724029541, 0.060851603746414185, 0.0984748899936676, 0.30146193504333496, 0.03736741840839386, 0.02660420536994934, 0.3356477916240692, 0.4510705769062042, 0.20703433454036713, 0.2249174565076828, 0.18142636120319366, 0.33978357911109924, 0.6197501420974731, 0.35467374324798584], "lstm.bias_hh_l0": [0.29039129614830017, 0.03707540035247803, 0.08564195036888123, 0.09595929831266403, 0.06985726952552795, 0.14914970099925995, 0.04208154231309891, 0.07478300482034683, 0.3391873240470886, 0.5126652717590332, 0.1452818065881729, 0.16710183024406433, 0.1541871428489685, 0.43455129861831665, 0.5628004670143127, 0.28165778517723083, 0.06828531622886658, -0.0359518826007843, 0.3124547302722931, 0.049054741859436035, 0.07721015065908432, 0.2557450234889984, 0.05911853536963463, 0.0037671865429729223, 0.13664557039737701, 0.38272297382354736, 0.2780758738517761, 0.08729047328233719, 0.1919928342103958, 0.06200027093291283, 0.17288163304328918, 0.3032613694667816, 0.14942164719104767, 0.12433090806007385, 0.2278165966272354, -0.1772279590368271, 0.12652793526649475, 0.17692963778972626, -0.1737367957830429, -0.15143875777721405, 0.09031414240598679, 0.08882532268762589, 0.027638597413897514, 0.10378237813711166, 0.02703215181827545, -0.10252626985311508, 0.16784998774528503, 0.08598241955041885, 0.4704492688179016, 0.06170521304011345, 0.2819036543369293, 0.14600056409835815, 0.09021396189928055, 0.2852188050746918, 0.11917432397603989, 0.03677352890372276, 0.3575132191181183, 0.49020206928253174, 0.17895106971263885, 0.11022665351629257, 0.1742599606513977, 0.32048216462135315, 0.6171780228614807, 0.4038294851779938], "dense.weight": [[-0.9477187395095825, -0.054288096725940704, 0.706548810005188, -0.08045241981744766, -0.0037918060552328825, -0.07015998661518097, -0.06315836310386658, -0.10919927805662155, 0.41504108905792236, 0.09613369405269623, 0.34754106402397156, 0.435418039560318, -0.36004573106765747, 0.32683008909225464, -0.11849118024110794, 0.10494936257600784]], "dense.bias": [-0.055186282843351364]}