{
    "in_shape": [
        null,
        null,
        1
    ],
    "layers": [
        {
            "type": "lstm",
            "activation": "tanh",
            "shape": [
                null,
                null,
                32
            ],
            "weights": [
                [
                    [
                        2.127340793609619,
                        -0.13489991426467896,
                        -0.3490510880947113,
                        -0.054271187633275986,
                        0.3046942353248596,
                        -0.0021566562354564667,
                        0.09705880284309387,
                        0.1376931220293045,
                        -0.01708422601222992,
                        0.3367249071598053,
                        -0.11847767233848572,
                        0.1523573398590088,
                        -0.03731084242463112,
                        0.13218539953231812,
                        0.19953148066997528,
                        -0.038936298340559006,
                        -0.08077062666416168,
                        -0.07789164036512375,
                        0.021423710510134697,
                        1.5986437797546387,
                        -0.43995922803878784,
                        -0.37605375051498413,
                        -0.10544688999652863,
                        -0.49192309379577637,
                        -0.07299407571554184,
                        0.01636585034430027,
                        0.8852707743644714,
                        -0.28293338418006897,
                        -0.11356640607118607,
                        0.08628293871879578,
                        0.39582327008247375,
                        0.2084541767835617,
                        0.3509491980075836,
                        -0.20624218881130219,
                        0.7138268947601318,
                        -0.272599995136261,
                        -0.10331738740205765,
                        0.38752472400665283,
                        0.3026946187019348,
                        0.4382319748401642,
                        -0.23926754295825958,
                        0.1906811147928238,
                        0.13128869235515594,
                        -0.06323875486850739,
                        -0.10870996117591858,
                        -0.93843013048172,
                        0.32281237840652466,
                        -0.35531288385391235,
                        0.1554437130689621,
                        0.25575512647628784,
                        0.055010609328746796,
                        0.6419219374656677,
                        -0.23017674684524536,
                        -0.15675899386405945,
                        -0.016554439440369606,
                        0.23233506083488464,
                        -0.4849955439567566,
                        -0.274078905582428,
                        0.5458681583404541,
                        0.14995771646499634,
                        -0.15181291103363037,
                        -0.059207938611507416,
                        0.06287497282028198,
                        0.8507313132286072,
                        -1.342647910118103,
                        -0.4907807409763336,
                        0.07610994577407837,
                        -0.05810154601931572,
                        -0.17895029485225677,
                        0.20439858734607697,
                        0.15679596364498138,
                        -0.24862410128116608,
                        -0.26414650678634644,
                        0.21624422073364258,
                        0.11875106394290924,
                        -1.3780491352081299,
                        -0.240333691239357,
                        -0.2670572102069855,
                        -0.9346127510070801,
                        -0.15076693892478943,
                        0.2664397060871124,
                        -0.4003102481365204,
                        -0.2766073942184448,
                        -1.1714109182357788,
                        0.09839130938053131,
                        -0.5481402277946472,
                        -0.07799169421195984,
                        1.6254111528396606,
                        0.200428768992424,
                        -0.18523800373077393,
                        0.3581557869911194,
                        -0.03427615016698837,
                        -0.2984628677368164,
                        0.05859513208270073,
                        -0.3149649202823639,
                        -0.3086712956428528,
                        0.654344379901886,
                        -0.06556426733732224,
                        0.3734651803970337,
                        -0.11555345356464386,
                        0.22482307255268097,
                        0.2083788961172104,
                        -0.02134840190410614,
                        0.32488536834716797,
                        -0.36972877383232117,
                        0.21093344688415527,
                        -0.007383192423731089,
                        -0.38388457894325256,
                        -0.3280654549598694,
                        -0.6109284162521362,
                        -0.2675727903842926,
                        -0.055361103266477585,
                        0.42925891280174255,
                        -1.265440821647644,
                        0.41509321331977844,
                        -2.719003200531006,
                        -0.2491913139820099,
                        -0.10718605667352676,
                        -0.03404004126787186,
                        -1.0207734107971191,
                        -0.047304872423410416,
                        -0.28201180696487427,
                        0.6650282144546509,
                        0.1722530871629715,
                        0.16975592076778412,
                        -0.025866538286209106,
                        0.08813221752643585,
                        0.8878520727157593
                    ]
                ],
                [
                    [
                        -1.3122453689575195,
                        0.5975552797317505,
                        0.4517401456832886,
                        0.6980153918266296,
                        -0.3121955096721649,
                        -0.21554024517536163,
                        -0.06527423858642578,
                        -0.21128326654434204,
                        -0.03612227737903595,
                        -0.13611237704753876,
                        0.25452592968940735,
                        0.5218111276626587,
                        0.11667190492153168,
                        -0.25714507699012756,
                        -0.3256186246871948,
                        0.0962032601237297,
                        0.053404584527015686,
                        0.5880609750747681,
                        -0.6798235177993774,
                        -1.3868378400802612,
                        0.4330909550189972,
                        0.6081168055534363,
                        0.050457291305065155,
                        1.0673424005508423,
                        -0.3454820215702057,
                        -0.14416804909706116,
                        -0.5475937128067017,
                        0.4293270707130432,
                        0.3245980441570282,
                        0.018302863463759422,
                        0.3549010157585144,
                        0.2647641897201538,
                        -0.0029130661860108376,
                        0.2684691846370697,
                        0.3055955171585083,
                        0.08615227043628693,
                        -1.2554912567138672,
                        -0.518182635307312,
                        -0.030800970271229744,
                        -0.22592037916183472,
                        0.1318463236093521,
                        -0.14658305048942566,
                        -0.009365599602460861,
                        1.5053623914718628,
                        0.14202411472797394,
                        0.4807763993740082,
                        0.06079738959670067,
                        0.20378385484218597,
                        0.21040134131908417,
                        -0.03134715184569359,
                        -0.34194132685661316,
                        0.22692200541496277,
                        0.13245758414268494,
                        0.4444465637207031,
                        0.22306500375270844,
                        2.403226375579834,
                        0.05921978875994682,
                        -0.10322652757167816,
                        -0.7136584520339966,
                        -0.21709845960140228,
                        0.6408320069313049,
                        -0.017305893823504448,
                        0.33139878511428833,
                        -0.4405227601528168,
                        0.2328941971063614,
                        0.4098737835884094,
                        0.08585519343614578,
                        0.27111947536468506,
                        -0.047683317214250565,
                        -0.09943120926618576,
                        -0.0736904889345169,
                        0.15557891130447388,
                        0.1171533465385437,
                        0.13905061781406403,
                        -0.003724026260897517,
                        -0.08485772460699081,
                        -0.13994188606739044,
                        -0.40739738941192627,
                        -0.24984563887119293,
                        0.1263696551322937,
                        0.21497808396816254,
                        0.1259494572877884,
                        0.22341017425060272,
                        0.8074595928192139,
                        -0.13843294978141785,
                        0.1552986353635788,
                        -0.16106750071048737,
                        -0.13476698100566864,
                        -0.2936900556087494,
                        0.16924689710140228,
                        -0.4104260504245758,
                        0.07201306521892548,
                        0.036829426884651184,
                        0.17637863755226135,
                        -0.08797956258058548,
                        -0.14578232169151306,
                        0.9042600393295288,
                        0.6707529425621033,
                        0.3620469868183136,
                        0.12323896586894989,
                        -0.4988487660884857,
                        -0.2764681875705719,
                        -0.32306933403015137,
                        -0.21420620381832123,
                        -0.008701890707015991,
                        -0.16431991755962372,
                        0.0771825909614563,
                        2.062891721725464,
                        0.2779259979724884,
                        0.3580397665500641,
                        0.19974802434444427,
                        0.2719770073890686,
                        -0.04508286342024803,
                        -0.29364368319511414,
                        -0.8501390218734741,
                        4.1646647453308105,
                        0.11873888224363327,
                        0.45394033193588257,
                        0.26453617215156555,
                        2.5804271697998047,
                        0.18914538621902466,
                        0.25329530239105225,
                        -0.846670925617218,
                        -0.07024383544921875,
                        0.43189844489097595,
                        0.04137240722775459,
                        0.17887398600578308,
                        -0.3181518316268921
                    ],
                    [
                        -2.6334927082061768,
                        -0.005669473670423031,
                        -0.10057628899812698,
                        0.1863694041967392,
                        -0.3491711914539337,
                        0.28626391291618347,
                        0.4359629154205322,
                        -0.06791812181472778,
                        0.41927316784858704,
                        0.12586085498332977,
                        0.18952834606170654,
                        -1.0111547708511353,
                        -0.16484832763671875,
                        -0.628287136554718,
                        0.6296766400337219,
                        0.393698126077652,
                        -0.5952209234237671,
                        0.10467277467250824,
                        0.10864324122667313,
                        -2.32116961479187,
                        0.5010804533958435,
                        -0.12118282169103622,
                        0.15356795489788055,
                        -0.310905396938324,
                        -0.21673305332660675,
                        0.2845953404903412,
                        -0.11353715509176254,
                        0.28709927201271057,
                        0.14933815598487854,
                        -0.1273910403251648,
                        0.34578531980514526,
                        -0.33289605379104614,
                        -1.2720742225646973,
                        0.3734036386013031,
                        -0.49603337049484253,
                        -0.39726683497428894,
                        -0.6694878339767456,
                        0.19503648579120636,
                        0.41403722763061523,
                        -0.03148147463798523,
                        0.1873105764389038,
                        0.08904282003641129,
                        0.06284073740243912,
                        -0.7738507390022278,
                        0.0021415725350379944,
                        0.013895919546484947,
                        -0.7236309051513672,
                        0.3866230547428131,
                        -0.5995686054229736,
                        0.23522821068763733,
                        0.054704345762729645,
                        -0.8050209879875183,
                        0.5006551146507263,
                        0.2346528172492981,
                        -0.09845928847789764,
                        -0.4295981824398041,
                        0.36511939764022827,
                        0.4780046343803406,
                        -0.06509314477443695,
                        -0.4962787330150604,
                        0.04646378010511398,
                        0.1476239114999771,
                        0.4257982075214386,
                        -0.7003543376922607,
                        0.24624790251255035,
                        0.07808694243431091,
                        0.14955151081085205,
                        0.1706758439540863,
                        -0.06751638650894165,
                        -0.0429367832839489,
                        0.06313063949346542,
                        0.18818099796772003,
                        -0.017999688163399696,
                        -0.23637621104717255,
                        0.08512890338897705,
                        -0.3774370849132538,
                        0.006340680178254843,
                        -0.17362993955612183,
                        -0.13445891439914703,
                        0.1009487733244896,
                        -0.19841188192367554,
                        0.20973582565784454,
                        0.10787789523601532,
                        0.2637633681297302,
                        -0.21063150465488434,
                        -0.2485349178314209,
                        -0.10966261476278305,
                        0.027850555256009102,
                        0.0022302225697785616,
                        0.4114687144756317,
                        -0.04638678953051567,
                        0.08594954013824463,
                        -0.09592972695827484,
                        0.26698291301727295,
                        0.30046525597572327,
                        0.046877019107341766,
                        -1.3408786058425903,
                        -0.535263180732727,
                        -0.3920985162258148,
                        0.06917993724346161,
                        -0.3101827800273895,
                        0.4584295153617859,
                        0.20139318704605103,
                        -0.25289812684059143,
                        -0.08453071117401123,
                        0.3243385851383209,
                        0.043864477425813675,
                        -1.2805092334747314,
                        0.2117530256509781,
                        0.12615616619586945,
                        1.1300392150878906,
                        0.49986520409584045,
                        -0.5334871411323547,
                        0.4200703501701355,
                        0.06185528263449669,
                        0.5076438188552856,
                        0.9565650820732117,
                        0.3278505206108093,
                        -0.00273845624178648,
                        -0.2656208276748657,
                        0.4621492028236389,
                        0.39625483751296997,
                        -0.12219670414924622,
                        -0.37486597895622253,
                        -0.18119993805885315,
                        0.08706070482730865,
                        0.30307522416114807,
                        -0.8637200593948364
                    ],
                    [
                        1.7298123836517334,
                        0.1793900579214096,
                        -0.09090704470872879,
                        -0.167130708694458,
                        0.24793778359889984,
                        -0.08149561285972595,
                        -0.13769316673278809,
                        -0.061450231820344925,
                        -0.388383150100708,
                        -0.2733280658721924,
                        0.11503127217292786,
                        1.1034992933273315,
                        0.17430271208286285,
                        0.027994517236948013,
                        1.068691372871399,
                        0.06123682111501694,
                        0.2977128028869629,
                        0.2830299139022827,
                        0.32655730843544006,
                        2.7095603942871094,
                        0.1520279347896576,
                        -0.28546732664108276,
                        -0.2951543629169464,
                        0.3750150799751282,
                        0.5760889649391174,
                        -0.34308987855911255,
                        0.09082057327032089,
                        0.046476930379867554,
                        -0.12402474135160446,
                        -0.2965627908706665,
                        0.0035826272796839476,
                        -0.08534672856330872,
                        0.8920031189918518,
                        0.37943562865257263,
                        -0.8497376441955566,
                        -0.5237963199615479,
                        0.3528187572956085,
                        -0.5005548000335693,
                        -0.04160187393426895,
                        -0.19814106822013855,
                        -0.2378999888896942,
                        -0.05703681334853172,
                        0.11430279910564423,
                        0.4118695557117462,
                        -0.18470467627048492,
                        0.3414895832538605,
                        0.6826965808868408,
                        0.235313281416893,
                        0.3933231234550476,
                        0.7135149240493774,
                        0.21654772758483887,
                        1.3204970359802246,
                        0.29649052023887634,
                        0.11127448081970215,
                        -0.4674508273601532,
                        -0.05270000174641609,
                        0.473106324672699,
                        -0.09669873863458633,
                        -0.012575552798807621,
                        -0.12443649023771286,
                        -0.012608475051820278,
                        -0.543741762638092,
                        -0.2772892117500305,
                        -0.6308122277259827,
                        -0.1216149628162384,
                        -0.11311426013708115,
                        0.18298502266407013,
                        -0.3574492633342743,
                        -0.12128656357526779,
                        0.23821613192558289,
                        -0.05251934379339218,
                        0.17020173370838165,
                        0.15380781888961792,
                        -0.10209394991397858,
                        -0.020507043227553368,
                        -0.06787540018558502,
                        -0.11031962186098099,
                        0.2210460603237152,
                        0.07759179174900055,
                        0.11674918234348297,
                        0.3068724274635315,
                        0.22008439898490906,
                        -0.04112928733229637,
                        0.07212743163108826,
                        -0.1334124505519867,
                        0.17618776857852936,
                        -0.12157171219587326,
                        0.20290637016296387,
                        -0.47044333815574646,
                        -0.06896702200174332,
                        0.021690944209694862,
                        -0.02931826002895832,
                        -0.016043856739997864,
                        -0.11898496747016907,
                        0.024395782500505447,
                        -0.000407043524319306,
                        1.0137020349502563,
                        0.276030957698822,
                        -0.5680243968963623,
                        -0.18380235135555267,
                        -0.13256555795669556,
                        -0.4832727313041687,
                        -0.12377219647169113,
                        -0.12076061218976974,
                        0.06573071330785751,
                        -0.19048671424388885,
                        0.10603795200586319,
                        0.7635409235954285,
                        -0.13213515281677246,
                        0.204769104719162,
                        0.9160109758377075,
                        0.12540243566036224,
                        0.3198949992656708,
                        0.31490984559059143,
                        0.5344253182411194,
                        1.1749210357666016,
                        0.263769268989563,
                        -0.11236918717622757,
                        -0.11945724487304688,
                        0.0002822522656060755,
                        0.326952189207077,
                        0.02603958547115326,
                        0.15674254298210144,
                        0.07520671933889389,
                        -0.037197742611169815,
                        -0.39192089438438416,
                        0.016841601580381393,
                        -0.3779939115047455
                    ],
                    [
                        -0.5765648484230042,
                        -0.7827466726303101,
                        0.08192411810159683,
                        -0.004186756443232298,
                        -0.24148468673229218,
                        0.1458018720149994,
                        0.1358957141637802,
                        0.09703487902879715,
                        -0.08502432703971863,
                        0.10480105131864548,
                        -0.013496586121618748,
                        0.2387857735157013,
                        0.30405154824256897,
                        0.055862121284008026,
                        -0.3051270544528961,
                        -0.1408223807811737,
                        0.25121286511421204,
                        -0.5544490814208984,
                        0.11783069372177124,
                        -0.5863461494445801,
                        0.06909676641225815,
                        0.031935520470142365,
                        0.3442455232143402,
                        0.057018909603357315,
                        -0.0944250300526619,
                        0.18794439733028412,
                        0.10192502290010452,
                        0.31868302822113037,
                        0.04093242064118385,
                        0.1595938503742218,
                        0.41296014189720154,
                        0.004383367951959372,
                        -0.4877334535121918,
                        -0.06447713822126389,
                        0.5336477160453796,
                        -0.17550356686115265,
                        -0.7825974225997925,
                        0.11042517423629761,
                        0.3000603914260864,
                        -0.19909217953681946,
                        -0.2042771428823471,
                        0.02266564406454563,
                        -0.25886890292167664,
                        0.37559694051742554,
                        0.23341238498687744,
                        -0.3563825488090515,
                        -0.32944631576538086,
                        0.27488967776298523,
                        0.29346656799316406,
                        -0.41157132387161255,
                        0.2957349121570587,
                        0.10593315958976746,
                        0.07255364209413528,
                        -0.004102692008018494,
                        0.2624027729034424,
                        0.2878188490867615,
                        -0.22828178107738495,
                        -0.14203256368637085,
                        0.1767546385526657,
                        0.015855416655540466,
                        -0.1326429545879364,
                        0.2016458660364151,
                        0.4061011075973511,
                        0.2941300570964813,
                        0.014057474210858345,
                        -0.03120563179254532,
                        -0.38233599066734314,
                        0.501307487487793,
                        0.4147443175315857,
                        -0.05418555811047554,
                        -0.0706193819642067,
                        0.0581866055727005,
                        -0.12370973080396652,
                        0.07528530061244965,
                        -0.04685251787304878,
                        -0.046673357486724854,
                        0.11461105197668076,
                        0.1751602590084076,
                        -0.006258216220885515,
                        -0.0382506288588047,
                        -0.02767018973827362,
                        -0.10787905007600784,
                        -0.120304636657238,
                        0.005325218662619591,
                        0.18309080600738525,
                        -0.0706733912229538,
                        0.0955178439617157,
                        0.09677767753601074,
                        -0.13759639859199524,
                        0.029784968122839928,
                        0.12736769020557404,
                        -0.23308280110359192,
                        0.05078670382499695,
                        0.10940926522016525,
                        -0.14294132590293884,
                        0.08300268650054932,
                        -0.18591012060642242,
                        -0.7296680808067322,
                        0.22753557562828064,
                        -0.09264547377824783,
                        -0.26537349820137024,
                        0.18534477055072784,
                        0.056840840727090836,
                        -0.05834024399518967,
                        -0.1653357595205307,
                        0.09387495368719101,
                        0.04524046182632446,
                        0.2270393818616867,
                        0.3169362246990204,
                        -0.33769115805625916,
                        -0.38806042075157166,
                        -0.1083836480975151,
                        0.46217960119247437,
                        -0.14323511719703674,
                        -0.1134863942861557,
                        0.08378755301237106,
                        0.003939834889024496,
                        0.0852612555027008,
                        0.3924998641014099,
                        0.15962772071361542,
                        -0.07191328704357147,
                        0.30420851707458496,
                        -0.02785569615662098,
                        -0.008648047223687172,
                        0.1634463369846344,
                        0.06737726926803589,
                        0.2923695743083954,
                        -0.20480717718601227
                    ],
                    [
                        1.092095136642456,
                        -0.6796320080757141,
                        -0.0999104306101799,
                        -0.28155067563056946,
                        -0.15307579934597015,
                        -0.08468373119831085,
                        0.10894221067428589,
                        0.2557089328765869,
                        0.2852230966091156,
                        0.21676944196224213,
                        -0.41221025586128235,
                        1.0088918209075928,
                        0.428318053483963,
                        -0.24501004815101624,
                        0.5995615124702454,
                        0.2972762882709503,
                        0.4169883131980896,
                        0.07795656472444534,
                        0.3830989897251129,
                        0.1864762306213379,
                        -0.1961955726146698,
                        0.2227189689874649,
                        0.29931044578552246,
                        0.7843952178955078,
                        0.10479161143302917,
                        0.4232412278652191,
                        -0.17164872586727142,
                        0.11658337712287903,
                        -0.440897136926651,
                        -0.07442518323659897,
                        0.17993301153182983,
                        -0.1497277319431305,
                        0.5980459451675415,
                        -0.35856008529663086,
                        -0.11938323080539703,
                        -0.6267979741096497,
                        -0.5852111577987671,
                        -0.09426293522119522,
                        0.13162614405155182,
                        -0.04898940399289131,
                        0.19958694279193878,
                        0.07393661886453629,
                        -0.5235866904258728,
                        0.3604964017868042,
                        0.37285372614860535,
                        -0.5679405331611633,
                        0.09738562256097794,
                        0.2691013216972351,
                        0.23805542290210724,
                        0.42467716336250305,
                        0.4455009400844574,
                        0.4458838999271393,
                        -0.2826107442378998,
                        -0.014828848652541637,
                        0.49303171038627625,
                        0.4675464332103729,
                        0.031147534027695656,
                        0.39367905259132385,
                        -0.041776787489652634,
                        -0.4189789891242981,
                        -0.5031351447105408,
                        -0.2197340726852417,
                        0.14151544868946075,
                        0.19151921570301056,
                        0.18129397928714752,
                        0.06630662083625793,
                        0.00024969398509711027,
                        0.1784948855638504,
                        0.12453162670135498,
                        -0.15824124217033386,
                        -0.042102523148059845,
                        0.045887548476457596,
                        -0.03519119694828987,
                        0.02221493050456047,
                        -0.09644138813018799,
                        0.34504711627960205,
                        -0.04903744161128998,
                        0.03434539958834648,
                        -0.05914220213890076,
                        0.043201714754104614,
                        0.013939282856881618,
                        -0.18143998086452484,
                        -0.04685058072209358,
                        0.2640603482723236,
                        -0.03507699817419052,
                        0.23322689533233643,
                        0.04492614418268204,
                        0.09250107407569885,
                        -0.27940359711647034,
                        -0.03381604701280594,
                        -0.07849858701229095,
                        -0.22969010472297668,
                        0.1474255621433258,
                        -0.07724150270223618,
                        -0.008967094123363495,
                        -0.1975545734167099,
                        1.1687318086624146,
                        -0.6530517935752869,
                        0.077565036714077,
                        -0.23188704252243042,
                        -0.08982092142105103,
                        0.11584349721670151,
                        0.3130255341529846,
                        0.11759955435991287,
                        0.013939441181719303,
                        0.1997571438550949,
                        0.07039947062730789,
                        0.6342953443527222,
                        0.448778361082077,
                        -0.3699932098388672,
                        0.8388654589653015,
                        0.3374522626399994,
                        0.3915511667728424,
                        0.3963596820831299,
                        0.5819675922393799,
                        0.3303980827331543,
                        -0.1488557904958725,
                        0.34619536995887756,
                        0.12463533133268356,
                        0.761357307434082,
                        0.11646363139152527,
                        0.4891924560070038,
                        -0.13464999198913574,
                        -0.20955626666545868,
                        -0.087679423391819,
                        -0.09901711344718933,
                        0.32697001099586487,
                        -0.09977990388870239
                    ],
                    [
                        0.09445051103830338,
                        0.6499475240707397,
                        -0.002230146899819374,
                        -0.4027623236179352,
                        0.021358350291848183,
                        0.11572729796171188,
                        0.15617620944976807,
                        0.16790762543678284,
                        0.19780749082565308,
                        0.05645113065838814,
                        0.08097641170024872,
                        0.08639749884605408,
                        -0.2616472840309143,
                        0.0057979789562523365,
                        0.07640519738197327,
                        0.21763457357883453,
                        0.3695146143436432,
                        0.7876999378204346,
                        0.15556488931179047,
                        0.261125773191452,
                        -0.1769893616437912,
                        0.2700031101703644,
                        0.14655597507953644,
                        0.8905251026153564,
                        0.031974323093891144,
                        0.060103267431259155,
                        -0.1348675787448883,
                        -0.31228744983673096,
                        0.07450982928276062,
                        0.16281630098819733,
                        -0.06870754808187485,
                        0.022995859384536743,
                        -0.03248072788119316,
                        0.15597642958164215,
                        -0.10244733095169067,
                        -0.3635672330856323,
                        0.3297445476055145,
                        -0.40238577127456665,
                        -0.0937500149011612,
                        0.253467321395874,
                        0.18828114867210388,
                        0.21342578530311584,
                        0.21578292548656464,
                        -0.11912228912115097,
                        -0.5158507227897644,
                        -0.05848122388124466,
                        -0.02501060627400875,
                        -0.135954350233078,
                        0.1551579087972641,
                        0.7996081709861755,
                        -0.1370117962360382,
                        0.04276898875832558,
                        -0.07535633444786072,
                        -0.0490511916577816,
                        0.20215611159801483,
                        0.30842265486717224,
                        -0.11734187602996826,
                        -0.23528413474559784,
                        0.24016764760017395,
                        0.08193115890026093,
                        0.3045755922794342,
                        0.048093438148498535,
                        -0.20974744856357574,
                        -0.3935674726963043,
                        0.06813105940818787,
                        -0.21436406672000885,
                        -0.07153743505477905,
                        -0.1517510563135147,
                        0.05220737308263779,
                        0.049509771168231964,
                        0.35535645484924316,
                        -0.10051243752241135,
                        -0.10176293551921844,
                        0.05344456434249878,
                        0.033453453332185745,
                        0.05740230903029442,
                        -0.020653381943702698,
                        0.15461532771587372,
                        -0.04410182312130928,
                        -0.06585994362831116,
                        0.01468011923134327,
                        0.3019591271877289,
                        -0.10902473330497742,
                        0.17252035439014435,
                        -0.07720271497964859,
                        0.09066427499055862,
                        -0.08533075451850891,
                        -0.0939556434750557,
                        -0.004618932027369738,
                        -0.03322596475481987,
                        -0.0019653111230582,
                        0.13037268817424774,
                        0.2728087604045868,
                        0.005929996259510517,
                        -0.09244975447654724,
                        -0.041555650532245636,
                        0.09679453074932098,
                        0.41725221276283264,
                        0.06846678256988525,
                        -0.31027400493621826,
                        0.29287099838256836,
                        -0.3163106441497803,
                        0.0621834322810173,
                        0.3499520719051361,
                        0.0019245371222496033,
                        0.1410464495420456,
                        -0.06979439407587051,
                        -0.036485955119132996,
                        -0.3206462860107422,
                        -0.03445104509592056,
                        -0.13108937442302704,
                        -0.07296042144298553,
                        0.31870150566101074,
                        0.21499861776828766,
                        0.33488938212394714,
                        0.4478108286857605,
                        -0.07585032284259796,
                        0.08538303524255753,
                        0.30659475922584534,
                        0.9228670597076416,
                        -0.07817643880844116,
                        -0.2546878159046173,
                        0.24537266790866852,
                        -0.04624607041478157,
                        -0.1337031126022339,
                        0.017903750762343407,
                        -0.20606154203414917,
                        -0.028686564415693283
                    ],
                    [
                        -0.4691670536994934,
                        0.438875675201416,
                        -0.10293141007423401,
                        -0.2626506984233856,
                        -0.028043275699019432,
                        -0.07920941710472107,
                        0.03955760598182678,
                        -0.01621435023844242,
                        0.19767716526985168,
                        0.06594514846801758,
                        -0.07062966376543045,
                        -0.30359745025634766,
                        -0.1650436818599701,
                        0.054175376892089844,
                        0.1263449490070343,
                        -0.02346738427877426,
                        -0.169170081615448,
                        -0.08318177610635757,
                        -0.5637089014053345,
                        -0.625988245010376,
                        -0.41979989409446716,
                        0.25826650857925415,
                        0.17661887407302856,
                        1.0195789337158203,
                        -0.11164215952157974,
                        0.17586727440357208,
                        -0.4359157383441925,
                        -0.3464878797531128,
                        -0.07903671264648438,
                        0.07688017189502716,
                        0.17679379880428314,
                        -0.4202207326889038,
                        -0.20847338438034058,
                        0.22291284799575806,
                        0.37069976329803467,
                        0.09995320439338684,
                        0.1283113658428192,
                        0.16234715282917023,
                        0.15264447033405304,
                        0.5664525628089905,
                        0.12719006836414337,
                        0.15522556006908417,
                        0.14350435137748718,
                        -0.5042174458503723,
                        -0.5424705147743225,
                        -0.39837542176246643,
                        -0.19354547560214996,
                        -0.10522735863924026,
                        -0.027826659381389618,
                        -0.17517665028572083,
                        -0.637062132358551,
                        -0.9061405658721924,
                        -0.45184415578842163,
                        0.022157976403832436,
                        0.12466186285018921,
                        -0.23301810026168823,
                        -0.3025389313697815,
                        -0.1267096996307373,
                        -0.23711752891540527,
                        0.1468164175748825,
                        0.2781425714492798,
                        0.10890025645494461,
                        0.14706596732139587,
                        -0.2612829804420471,
                        0.2313585728406906,
                        -0.059426888823509216,
                        0.08536621928215027,
                        -0.03902636095881462,
                        0.04249978065490723,
                        -0.041283417493104935,
                        0.05352658033370972,
                        -0.08820667117834091,
                        -0.23928214609622955,
                        0.11020998656749725,
                        0.12577907741069794,
                        0.15296250581741333,
                        -0.05257078632712364,
                        0.03710959479212761,
                        -0.022573325783014297,
                        0.013701729476451874,
                        0.05465667322278023,
                        -0.022749952971935272,
                        0.025420499965548515,
                        -0.010741505771875381,
                        -0.12768611311912537,
                        -0.06088729947805405,
                        -0.034016210585832596,
                        -0.2719842791557312,
                        -0.21479377150535583,
                        0.02355053834617138,
                        -0.024499280378222466,
                        0.09651429951190948,
                        0.2199770212173462,
                        0.13898634910583496,
                        0.06993188709020615,
                        0.09486553817987442,
                        -0.021790241822600365,
                        -0.24541720747947693,
                        0.2495654821395874,
                        -0.09431136399507523,
                        -0.09622328728437424,
                        -0.04950341209769249,
                        0.03366342931985855,
                        0.30579620599746704,
                        -0.0051654065027832985,
                        0.12854155898094177,
                        -0.02484213002026081,
                        -0.2695343494415283,
                        -0.37596097588539124,
                        -0.02795669063925743,
                        0.03187570720911026,
                        -0.30604612827301025,
                        -0.07076046615839005,
                        -0.5184241533279419,
                        -0.617743730545044,
                        0.42302438616752625,
                        -0.41268444061279297,
                        0.18454965949058533,
                        0.23166264593601227,
                        0.820539653301239,
                        -0.3054966628551483,
                        -0.216665118932724,
                        0.046464502811431885,
                        -0.06657367199659348,
                        -0.058849986642599106,
                        0.06115982308983803,
                        -0.030713265761733055,
                        -0.019600478932261467
                    ],
                    [
                        -0.4990262985229492,
                        -0.27580660581588745,
                        0.19989262521266937,
                        0.5689365863800049,
                        0.19294072687625885,
                        -0.02389819547533989,
                        0.009938351809978485,
                        -0.06069384142756462,
                        -0.4439026117324829,
                        -0.1238088384270668,
                        0.17275221645832062,
                        -0.805552065372467,
                        0.20519112050533295,
                        -0.2231018841266632,
                        0.3737984895706177,
                        0.06983444839715958,
                        -0.04552605375647545,
                        -0.3677985966205597,
                        0.6213815212249756,
                        0.19444313645362854,
                        0.5845285058021545,
                        -0.44203707575798035,
                        -0.10893489420413971,
                        -1.8084768056869507,
                        0.06865038722753525,
                        -0.0029121623374521732,
                        0.34933000802993774,
                        0.3838103115558624,
                        0.20231802761554718,
                        -0.06646260619163513,
                        -0.04945532605051994,
                        0.1380559802055359,
                        0.3575880527496338,
                        0.11135473847389221,
                        -0.6262531280517578,
                        0.09051735699176788,
                        -0.33822959661483765,
                        -0.30495885014533997,
                        -0.22490453720092773,
                        -0.5963619351387024,
                        -0.2504168450832367,
                        -0.2786532938480377,
                        0.08682110160589218,
                        -0.09719841182231903,
                        0.26110443472862244,
                        0.13408680260181427,
                        0.28851303458213806,
                        0.11603369563817978,
                        -0.13285470008850098,
                        -0.779327929019928,
                        0.2928027808666229,
                        0.719191312789917,
                        0.32259801030158997,
                        0.5417077541351318,
                        -0.4697151184082031,
                        -0.1482258439064026,
                        0.3214680254459381,
                        0.22563289105892181,
                        -0.3502364456653595,
                        -0.3224274516105652,
                        0.47758543491363525,
                        -0.25915005803108215,
                        -0.1887863129377365,
                        -0.2029249668121338,
                        -0.15556807816028595,
                        0.03754212707281113,
                        0.048869308084249496,
                        0.18750345706939697,
                        -0.06527756154537201,
                        -0.09840364754199982,
                        0.09421534091234207,
                        0.04678112268447876,
                        0.2221887856721878,
                        -0.12752482295036316,
                        -0.1549852192401886,
                        -0.40703290700912476,
                        0.1396639496088028,
                        0.1470104306936264,
                        -0.11772726476192474,
                        -0.012884676456451416,
                        -0.05887465551495552,
                        -0.36369988322257996,
                        -0.24635536968708038,
                        0.10722319781780243,
                        -0.041588496416807175,
                        -0.26106351613998413,
                        -0.2314513623714447,
                        0.2873784899711609,
                        -0.4956333041191101,
                        0.11186552047729492,
                        0.18109159171581268,
                        0.08563369512557983,
                        -0.16324260830879211,
                        0.08444544672966003,
                        0.13198891282081604,
                        -0.32428082823753357,
                        -0.08818866312503815,
                        -0.18636421859264374,
                        -0.2835879921913147,
                        0.16142626106739044,
                        -0.308552622795105,
                        -0.052996374666690826,
                        -0.0366487130522728,
                        -0.3526320457458496,
                        -0.056977029889822006,
                        -0.07105912268161774,
                        0.39691686630249023,
                        -0.34091517329216003,
                        0.440006822347641,
                        -0.23557978868484497,
                        0.5692299604415894,
                        0.05257454514503479,
                        -0.17251348495483398,
                        0.13299471139907837,
                        0.12644299864768982,
                        0.6661890149116516,
                        0.5061222910881042,
                        -0.2641180455684662,
                        -0.25498971343040466,
                        -0.7866536974906921,
                        0.3298179805278778,
                        0.08492570370435715,
                        -0.3635962903499603,
                        0.012359165586531162,
                        0.37134063243865967,
                        0.04792286083102226,
                        -0.031828708946704865,
                        -0.3780019283294678
                    ],
                    [
                        -0.13351093232631683,
                        -0.13409508764743805,
                        0.3526739180088043,
                        0.083951935172081,
                        0.31685811281204224,
                        -0.07893545180559158,
                        0.049351587891578674,
                        0.1944120079278946,
                        0.07529901713132858,
                        0.03690532222390175,
                        0.03998842462897301,
                        -0.3514007031917572,
                        0.27550897002220154,
                        -0.03707388415932655,
                        -0.3806924819946289,
                        0.23075246810913086,
                        -0.038378261029720306,
                        -0.028399942442774773,
                        0.4487300217151642,
                        0.5223466157913208,
                        0.2905990183353424,
                        -0.6310386657714844,
                        0.020222319290041924,
                        -1.5258105993270874,
                        0.5032450556755066,
                        0.05055129528045654,
                        0.8717246651649475,
                        0.05337097868323326,
                        -0.2124009132385254,
                        -0.0943695679306984,
                        -0.34030312299728394,
                        0.5173577666282654,
                        0.20231762528419495,
                        0.06965179741382599,
                        -0.560952365398407,
                        0.24059243500232697,
                        0.5624755620956421,
                        -0.5844921469688416,
                        -0.0341978557407856,
                        -0.38053780794143677,
                        0.09627162665128708,
                        -0.03652213513851166,
                        -0.21723778545856476,
                        0.2366035431623459,
                        0.2875300645828247,
                        0.49364224076271057,
                        -0.16772925853729248,
                        0.20255516469478607,
                        -0.08534739911556244,
                        0.04266984015703201,
                        0.13465477526187897,
                        0.3585829436779022,
                        0.40780311822891235,
                        0.2730899751186371,
                        -0.2705353796482086,
                        -0.3953586220741272,
                        0.33705034852027893,
                        0.1297137290239334,
                        0.49150350689888,
                        -0.07586269080638885,
                        -0.2770427167415619,
                        -0.2585746645927429,
                        -0.2586744725704193,
                        0.08909710496664047,
                        -0.07852210849523544,
                        -0.14100295305252075,
                        0.18523071706295013,
                        -0.11998938024044037,
                        0.024709392338991165,
                        -0.04582624509930611,
                        -0.14175741374492645,
                        0.16750891506671906,
                        0.491904079914093,
                        0.061308253556489944,
                        0.05527542531490326,
                        0.1379530280828476,
                        0.07525849342346191,
                        -0.2611309587955475,
                        -0.30549490451812744,
                        0.11586954444646835,
                        -0.05400141701102257,
                        -0.26683667302131653,
                        0.03943103924393654,
                        -0.0022713171783834696,
                        0.007482727989554405,
                        -0.03803611919283867,
                        -0.41318637132644653,
                        0.03754829987883568,
                        0.14768965542316437,
                        0.16177520155906677,
                        0.01745559461414814,
                        -0.17645058035850525,
                        -0.02845897153019905,
                        0.1196151152253151,
                        0.007936861366033554,
                        0.13306842744350433,
                        -0.32717129588127136,
                        0.6809983253479004,
                        -0.10545910894870758,
                        0.3277120590209961,
                        0.08842796087265015,
                        0.16617785394191742,
                        0.06790834665298462,
                        -0.12952665984630585,
                        0.29239702224731445,
                        -0.032522737979888916,
                        0.06700247526168823,
                        -0.16281041502952576,
                        0.17883270978927612,
                        0.2401254028081894,
                        -0.3277578055858612,
                        0.10041023790836334,
                        -0.03541889041662216,
                        0.5373935103416443,
                        0.37900424003601074,
                        -0.9721985459327698,
                        0.32180628180503845,
                        -0.37081488966941833,
                        -0.09751102328300476,
                        -1.2291542291641235,
                        0.21586762368679047,
                        0.041859932243824005,
                        0.4324522018432617,
                        -0.10907379537820816,
                        -0.14865504205226898,
                        -0.06589117646217346,
                        0.03575889393687248,
                        0.30535879731178284
                    ],
                    [
                        0.03131451830267906,
                        0.0841432586312294,
                        -0.16234354674816132,
                        -0.1450539231300354,
                        0.04605218023061752,
                        -0.02664398029446602,
                        0.028769606724381447,
                        0.12173847109079361,
                        0.17792195081710815,
                        -0.015560711733996868,
                        -0.25711730122566223,
                        0.22879864275455475,
                        0.07180758565664291,
                        0.13473312556743622,
                        -0.21064653992652893,
                        -0.013049047440290451,
                        -0.04271556809544563,
                        0.7956754565238953,
                        -0.09757082164287567,
                        0.01591462269425392,
                        0.2109317183494568,
                        0.16733305156230927,
                        0.13725292682647705,
                        0.2794933021068573,
                        -0.06227198615670204,
                        -0.21958163380622864,
                        0.07873723655939102,
                        -0.033346060663461685,
                        -0.007983194664120674,
                        0.1689395159482956,
                        0.07952070981264114,
                        0.13660959899425507,
                        0.04375838860869408,
                        -0.3150061368942261,
                        0.40680208802223206,
                        -0.010553481988608837,
                        -0.42116859555244446,
                        0.04758767411112785,
                        0.0001640358241274953,
                        0.13641922175884247,
                        0.04003430902957916,
                        0.2037692368030548,
                        -0.2659919261932373,
                        0.42502346634864807,
                        0.19742341339588165,
                        -0.12672074139118195,
                        -0.0705079510807991,
                        0.08730076253414154,
                        -0.09664656966924667,
                        -0.040085989981889725,
                        -0.3119054436683655,
                        0.1099017933011055,
                        0.23605084419250488,
                        0.13898558914661407,
                        0.09688353538513184,
                        0.8687933087348938,
                        -0.13821099698543549,
                        -0.2277439385652542,
                        0.4463256597518921,
                        0.010860998183488846,
                        -0.17509157955646515,
                        0.2188766896724701,
                        0.014732882380485535,
                        0.240560844540596,
                        0.025900499895215034,
                        0.0973595380783081,
                        0.002594234421849251,
                        0.05269717425107956,
                        -0.008827893063426018,
                        -0.08301810175180435,
                        -0.139679417014122,
                        -0.051322534680366516,
                        -0.009455492720007896,
                        -0.3554637134075165,
                        -0.08505004644393921,
                        -0.09642019122838974,
                        -0.02379557676613331,
                        -0.024799441918730736,
                        0.0705334022641182,
                        -0.12578390538692474,
                        -0.14546185731887817,
                        0.13507506251335144,
                        0.01594080775976181,
                        -0.05630963668227196,
                        -0.13622058928012848,
                        0.048430800437927246,
                        -0.18581542372703552,
                        -0.3113410472869873,
                        -0.009300664998590946,
                        -0.02616451494395733,
                        0.1292358934879303,
                        0.059507954865694046,
                        0.006406810134649277,
                        -0.15249775350093842,
                        -0.17018432915210724,
                        0.012614787556231022,
                        0.32614457607269287,
                        0.009949175640940666,
                        0.4153200089931488,
                        0.136712908744812,
                        0.14081811904907227,
                        0.2548943758010864,
                        0.21397624909877777,
                        0.07538104057312012,
                        -0.0224542785435915,
                        0.15648731589317322,
                        -0.2118070274591446,
                        0.6558948159217834,
                        0.012413096614181995,
                        0.0022370819933712482,
                        -0.17792880535125732,
                        -0.18951474130153656,
                        0.1276196390390396,
                        0.09434208273887634,
                        0.1272323876619339,
                        -0.6348782777786255,
                        0.24082458019256592,
                        0.12869462370872498,
                        0.054429780691862106,
                        -0.09427974373102188,
                        0.096832774579525,
                        -0.33788156509399414,
                        0.3643934726715088,
                        0.15773864090442657,
                        -0.10788454860448837,
                        0.18185509741306305,
                        -0.10434912890195847,
                        0.38140344619750977
                    ],
                    [
                        -0.44809862971305847,
                        0.4997193217277527,
                        -0.13382002711296082,
                        -0.32276564836502075,
                        -0.11972159892320633,
                        -0.018920542672276497,
                        -0.019850008189678192,
                        0.04176944121718407,
                        0.1059405505657196,
                        0.14524511992931366,
                        0.056356869637966156,
                        -0.04353659972548485,
                        -0.061832983046770096,
                        0.05792022496461868,
                        -0.6203458309173584,
                        0.08305595815181732,
                        0.08560226112604141,
                        0.42011842131614685,
                        -0.05246855318546295,
                        -0.5797760486602783,
                        -0.15789295732975006,
                        -0.040050338953733444,
                        0.1183120608329773,
                        -0.2870675027370453,
                        -0.3408677875995636,
                        0.150173157453537,
                        -0.34655311703681946,
                        -0.08659181743860245,
                        0.0567910298705101,
                        -0.08026930689811707,
                        0.12668311595916748,
                        0.011457552202045918,
                        -0.15330135822296143,
                        -0.0579833984375,
                        0.19811080396175385,
                        -0.11993122100830078,
                        0.10779520124197006,
                        0.196331188082695,
                        -0.02266128920018673,
                        0.2903099060058594,
                        0.21011999249458313,
                        -0.06996515393257141,
                        0.19770683348178864,
                        -0.09050866961479187,
                        -0.34212714433670044,
                        -0.20674516260623932,
                        -0.01834801770746708,
                        -0.026924055069684982,
                        0.05364272743463516,
                        0.011211098171770573,
                        -0.25882118940353394,
                        -0.9272094368934631,
                        -0.21907676756381989,
                        0.07488581538200378,
                        0.1199534460902214,
                        0.12839287519454956,
                        -0.45967990159988403,
                        -0.16894882917404175,
                        -0.04514441266655922,
                        0.12770870327949524,
                        0.16505752503871918,
                        -0.006527384743094444,
                        -0.23047302663326263,
                        0.25501760840415955,
                        0.018301313742995262,
                        -0.1914803832769394,
                        -0.01962094195187092,
                        -0.13921988010406494,
                        0.11170420050621033,
                        -0.10026977956295013,
                        0.1597995162010193,
                        -0.06064446642994881,
                        -0.20548617839813232,
                        0.03826421499252319,
                        -0.06685569882392883,
                        0.2710845470428467,
                        0.04267663508653641,
                        0.03165151923894882,
                        -0.16010789573192596,
                        0.13903315365314484,
                        0.1834813803434372,
                        -0.11866522580385208,
                        0.20653894543647766,
                        -0.2223682850599289,
                        -0.12007395923137665,
                        0.03712860122323036,
                        0.013141795992851257,
                        -0.05691998079419136,
                        0.11116175353527069,
                        -0.06775183230638504,
                        0.046557627618312836,
                        0.02640436217188835,
                        0.09005376696586609,
                        -0.11398804187774658,
                        -0.019287867471575737,
                        0.21646122634410858,
                        -0.16877329349517822,
                        0.5665825605392456,
                        -0.1002752035856247,
                        -0.17903664708137512,
                        0.14092840254306793,
                        0.024297261610627174,
                        -0.07963432371616364,
                        0.21702346205711365,
                        0.09470177441835403,
                        -0.013862214982509613,
                        -0.10257884114980698,
                        0.08562516421079636,
                        -0.2934053838253021,
                        0.0465378575026989,
                        -0.5207825899124146,
                        -0.1081617921590805,
                        0.015038471668958664,
                        0.2866458594799042,
                        -0.0698196068406105,
                        -0.651551365852356,
                        -0.14990749955177307,
                        0.18310445547103882,
                        0.05165623873472214,
                        -0.34902721643447876,
                        -0.3264523446559906,
                        -0.2910773456096649,
                        -0.07673249393701553,
                        0.2713356614112854,
                        -0.016567425802350044,
                        -0.1143733561038971,
                        -0.07227692008018494,
                        0.22780534625053406
                    ],
                    [
                        -1.2923591136932373,
                        0.4678649306297302,
                        0.021901965141296387,
                        -0.7249962091445923,
                        -0.8627637624740601,
                        -0.6345999836921692,
                        -0.3857560157775879,
                        -0.62176513671875,
                        -0.27317678928375244,
                        -0.14952418208122253,
                        -0.46077343821525574,
                        0.5915769934654236,
                        -0.07552681863307953,
                        -0.14809651672840118,
                        -0.2665235996246338,
                        -0.11300358921289444,
                        -0.3124677240848541,
                        0.8425880670547485,
                        -1.6181284189224243,
                        -3.9063053131103516,
                        -0.08470579981803894,
                        0.5632326006889343,
                        0.16218306124210358,
                        0.07497470080852509,
                        -0.0590391680598259,
                        -0.831961989402771,
                        -2.35219669342041,
                        -0.028594551607966423,
                        -0.5505693554878235,
                        -0.45211443305015564,
                        0.05994739010930061,
                        -0.5511497259140015,
                        0.09932611137628555,
                        -1.2860966920852661,
                        0.19827736914157867,
                        0.11313355714082718,
                        0.8371442556381226,
                        0.0549955815076828,
                        -0.35273727774620056,
                        0.05781880393624306,
                        0.19108787178993225,
                        -0.10723581165075302,
                        -0.2825561463832855,
                        0.05588975176215172,
                        0.2709384858608246,
                        0.08013409376144409,
                        -0.43379366397857666,
                        0.08896885812282562,
                        -0.1950826346874237,
                        -1.039852261543274,
                        0.8278025388717651,
                        -2.6895344257354736,
                        -0.2334330976009369,
                        0.11798293888568878,
                        0.4695872962474823,
                        0.06356034427881241,
                        -0.07570995390415192,
                        -0.5101560354232788,
                        0.7226466536521912,
                        0.4055628478527069,
                        -0.40496689081192017,
                        -0.016296615824103355,
                        0.3383001983165741,
                        -0.06695535033941269,
                        0.862079381942749,
                        0.2664797902107239,
                        -0.06086783483624458,
                        -0.07904744148254395,
                        -0.26746267080307007,
                        -0.2662481665611267,
                        -0.1331290602684021,
                        0.0997118353843689,
                        -0.05144030973315239,
                        0.20482046902179718,
                        -0.10556113719940186,
                        0.04123283922672272,
                        0.03081757389008999,
                        -0.38430359959602356,
                        -0.6586545705795288,
                        0.27296802401542664,
                        -0.060467611998319626,
                        0.557140588760376,
                        0.13124698400497437,
                        1.1928716897964478,
                        -0.23164407908916473,
                        0.35524216294288635,
                        -0.18598806858062744,
                        0.03780161961913109,
                        0.18763990700244904,
                        0.05138257145881653,
                        -0.7648204565048218,
                        -0.13774055242538452,
                        -0.24690769612789154,
                        0.11464821547269821,
                        0.10923199355602264,
                        0.024430884048342705,
                        1.4171760082244873,
                        0.7515665888786316,
                        -0.06467607617378235,
                        -0.1725320816040039,
                        0.06842610239982605,
                        -0.4664430022239685,
                        -0.29581770300865173,
                        -0.27160215377807617,
                        0.12311690300703049,
                        -0.28939288854599,
                        -0.1314850151538849,
                        0.6736086010932922,
                        -0.11547575145959854,
                        0.04796091839671135,
                        -0.2866379916667938,
                        -0.13692031800746918,
                        -0.14367370307445526,
                        -0.6979455351829529,
                        0.17549318075180054,
                        1.6499344110488892,
                        -0.48708170652389526,
                        0.18901321291923523,
                        0.28460967540740967,
                        0.8599892258644104,
                        -0.24371595680713654,
                        -0.23677745461463928,
                        -0.9146937727928162,
                        -0.23530013859272003,
                        -0.7304395437240601,
                        0.014824177138507366,
                        0.15684537589550018,
                        -0.19388273358345032
                    ],
                    [
                        -0.4936404526233673,
                        -0.870107889175415,
                        -0.06630048155784607,
                        -0.2504655420780182,
                        -0.3343183696269989,
                        -0.2223905473947525,
                        -0.028972385451197624,
                        -0.3512704074382782,
                        -0.19811585545539856,
                        -0.2084370255470276,
                        -0.32643672823905945,
                        -0.13138744235038757,
                        0.11555687338113785,
                        0.028530562296509743,
                        -0.2907464802265167,
                        -0.09856511652469635,
                        -0.4378637671470642,
                        -1.2514358758926392,
                        -0.6900677680969238,
                        -0.4795931279659271,
                        -0.2623150944709778,
                        -0.4565429389476776,
                        0.19156107306480408,
                        -1.7021435499191284,
                        -0.14185549318790436,
                        0.05762217193841934,
                        0.37096521258354187,
                        0.3520700931549072,
                        0.07903395593166351,
                        -0.2540629506111145,
                        -0.03258739784359932,
                        -0.009781384840607643,
                        -0.7876119017601013,
                        -0.08396298438310623,
                        -0.20669274032115936,
                        -0.19113248586654663,
                        0.0401812382042408,
                        0.2202538698911667,
                        0.18074768781661987,
                        -0.47492924332618713,
                        0.27861496806144714,
                        -0.0022608619183301926,
                        -0.20727398991584778,
                        -0.24094825983047485,
                        0.2157825082540512,
                        0.4886889159679413,
                        -0.31692734360694885,
                        0.20768935978412628,
                        -0.3591369390487671,
                        -0.6901622414588928,
                        -0.3997001647949219,
                        -0.74405437707901,
                        -0.1953784078359604,
                        -0.21209163963794708,
                        0.10873209685087204,
                        -1.0271438360214233,
                        0.09588972479104996,
                        0.3367619812488556,
                        0.24847182631492615,
                        0.2709956467151642,
                        -0.36968544125556946,
                        -0.05387638136744499,
                        0.23231141269207,
                        0.47781699895858765,
                        -0.21272407472133636,
                        -0.04926786571741104,
                        -0.049779344350099564,
                        0.004718173760920763,
                        -0.042433228343725204,
                        -0.15703412890434265,
                        -0.04420384764671326,
                        -0.06091836094856262,
                        0.18300320208072662,
                        -0.007165840361267328,
                        0.13694025576114655,
                        0.05531378462910652,
                        0.06926359981298447,
                        -0.17876987159252167,
                        -0.10908330231904984,
                        0.09401647746562958,
                        -0.11563300341367722,
                        -0.0387396402657032,
                        -0.09228339046239853,
                        -0.20953020453453064,
                        0.10761764645576477,
                        -0.11885645240545273,
                        -0.10516202449798584,
                        0.046328894793987274,
                        0.19032859802246094,
                        -0.10674935579299927,
                        -0.10308632254600525,
                        -0.17784857749938965,
                        -0.2703474462032318,
                        0.10789775103330612,
                        -0.18490047752857208,
                        0.01905643939971924,
                        -0.601807713508606,
                        -0.0888322964310646,
                        0.11903726309537888,
                        0.129396453499794,
                        0.054966192692518234,
                        0.21361960470676422,
                        -0.06440350413322449,
                        -0.49930161237716675,
                        0.15615971386432648,
                        -0.02656056545674801,
                        0.02508033998310566,
                        0.19440078735351562,
                        0.17296791076660156,
                        0.07659019529819489,
                        -0.3907527029514313,
                        0.14566829800605774,
                        -0.4151068925857544,
                        -0.7826007008552551,
                        -0.5962144732475281,
                        -1.709911823272705,
                        -0.18567368388175964,
                        -0.4020515978336334,
                        0.07078441232442856,
                        -1.5423822402954102,
                        -0.3133203089237213,
                        0.25477319955825806,
                        0.11014953255653381,
                        -0.015578538179397583,
                        -0.03662635385990143,
                        -0.13854552805423737,
                        0.010987864807248116,
                        0.07505392283201218
                    ],
                    [
                        0.9893233180046082,
                        -0.04846138134598732,
                        0.4697118401527405,
                        0.02858935482800007,
                        -0.04727509245276451,
                        0.25497546792030334,
                        0.20730651915073395,
                        0.1580713838338852,
                        -0.20975834131240845,
                        -0.04930644482374191,
                        -0.038306351751089096,
                        1.2524417638778687,
                        -0.09380251169204712,
                        -0.2864886522293091,
                        0.8557561635971069,
                        -0.05488051846623421,
                        0.09758568555116653,
                        0.29582008719444275,
                        0.4939492344856262,
                        2.2595300674438477,
                        -0.03345641493797302,
                        0.38414785265922546,
                        0.3076457977294922,
                        1.4222102165222168,
                        0.05067002400755882,
                        0.2588769197463989,
                        -0.7502170205116272,
                        0.2412348985671997,
                        -0.16300281882286072,
                        -0.01269225962460041,
                        0.27636462450027466,
                        0.12367302179336548,
                        0.4648907780647278,
                        0.6419742703437805,
                        0.2720343768596649,
                        -0.21236693859100342,
                        -0.6238470673561096,
                        0.049206193536520004,
                        -0.026133669540286064,
                        0.08527906984090805,
                        -0.4157782196998596,
                        0.012902296148240566,
                        -0.021011995151638985,
                        0.4811097979545593,
                        -0.23237378895282745,
                        -0.6647351384162903,
                        0.4217589795589447,
                        -0.14998240768909454,
                        0.15811580419540405,
                        0.8024001717567444,
                        0.5495161414146423,
                        0.6519745588302612,
                        0.10411480814218521,
                        0.050641510635614395,
                        0.13710123300552368,
                        -0.023346146568655968,
                        0.18440447747707367,
                        0.17048722505569458,
                        -0.42960116267204285,
                        -0.3521958291530609,
                        -0.20574888586997986,
                        0.06270526349544525,
                        0.007243714760988951,
                        0.06513569504022598,
                        0.36754217743873596,
                        0.18257078528404236,
                        0.07748600840568542,
                        0.10290348529815674,
                        -0.011120164766907692,
                        -0.21787036955356598,
                        0.05189751088619232,
                        0.17191758751869202,
                        -0.013285379856824875,
                        -0.016374194994568825,
                        -0.00858347862958908,
                        0.31447088718414307,
                        -0.22336749732494354,
                        0.06463570892810822,
                        0.04573669657111168,
                        -0.033643465489149094,
                        0.1527404487133026,
                        0.17297503352165222,
                        0.12921880185604095,
                        0.34964337944984436,
                        0.0880550742149353,
                        0.23145505785942078,
                        0.011495518498122692,
                        0.13643956184387207,
                        -0.011941241100430489,
                        -0.007291190791875124,
                        -0.2850898504257202,
                        -0.07735460996627808,
                        0.00938169751316309,
                        0.08355043083429337,
                        0.3744930922985077,
                        -0.032630424946546555,
                        0.7143679261207581,
                        0.10695192962884903,
                        0.06285062432289124,
                        -0.10324587672948837,
                        -0.30995526909828186,
                        -0.1365790218114853,
                        0.21676094830036163,
                        0.16394656896591187,
                        -0.2908117473125458,
                        0.20342542231082916,
                        0.07885531336069107,
                        0.8767892122268677,
                        0.04227130860090256,
                        -0.6799275875091553,
                        0.8266454339027405,
                        0.15102438628673553,
                        -0.00663301395252347,
                        0.3892069458961487,
                        0.5280779600143433,
                        2.3275692462921143,
                        -0.12452761083841324,
                        0.4566378891468048,
                        0.31659451127052307,
                        1.3890647888183594,
                        0.1345055252313614,
                        0.23548178374767303,
                        -0.37357810139656067,
                        0.013618149794638157,
                        -0.22953727841377258,
                        0.042404599487781525,
                        0.3049510419368744,
                        0.07238206267356873
                    ],
                    [
                        0.4843898415565491,
                        -1.124524712562561,
                        0.834906280040741,
                        -0.0720466896891594,
                        0.36294034123420715,
                        0.42632150650024414,
                        -0.09854824095964432,
                        0.021481191739439964,
                        0.1998547464609146,
                        -0.1721780151128769,
                        0.004734151531010866,
                        0.8559008240699768,
                        0.21829001605510712,
                        0.16176718473434448,
                        0.5739860534667969,
                        -0.07050423324108124,
                        0.35046276450157166,
                        -0.15047594904899597,
                        0.7535286545753479,
                        1.6403611898422241,
                        -0.16186997294425964,
                        -0.02342079021036625,
                        0.34381088614463806,
                        1.05095636844635,
                        0.4788509011268616,
                        0.5318976044654846,
                        0.12656237185001373,
                        0.033194348216056824,
                        0.04597744345664978,
                        0.2579335570335388,
                        0.16988033056259155,
                        0.13900354504585266,
                        0.4903924763202667,
                        -0.8004420399665833,
                        0.24269768595695496,
                        -0.08118463307619095,
                        0.47034046053886414,
                        -0.21224330365657806,
                        -0.28041282296180725,
                        -0.0571216456592083,
                        -0.4392949044704437,
                        -0.030342765152454376,
                        0.019854433834552765,
                        -0.2657659947872162,
                        -0.11350953578948975,
                        -0.13848719000816345,
                        0.29129618406295776,
                        -0.30534547567367554,
                        0.3562218248844147,
                        0.5993860960006714,
                        0.6111377477645874,
                        -0.13687528669834137,
                        -0.025489607825875282,
                        0.013972928747534752,
                        0.10036717355251312,
                        -0.21627892553806305,
                        0.21316930651664734,
                        0.3893313705921173,
                        0.09064245969057083,
                        -0.17123156785964966,
                        -0.24013148248195648,
                        -0.07907335460186005,
                        0.0636134147644043,
                        -0.4399184286594391,
                        0.5330020189285278,
                        0.36978018283843994,
                        -0.098330058157444,
                        -0.02412172220647335,
                        0.00668817525729537,
                        -0.0065198978409171104,
                        -0.016438541933894157,
                        0.023100165650248528,
                        -0.10254476219415665,
                        0.026045188307762146,
                        -0.24270616471767426,
                        1.2647955417633057,
                        -0.08561845123767853,
                        0.046344511210918427,
                        -0.42093467712402344,
                        0.12649063766002655,
                        0.054680559784173965,
                        0.5213606357574463,
                        0.11469966918230057,
                        0.8174920082092285,
                        -0.11843894422054291,
                        0.35585740208625793,
                        -0.11943962424993515,
                        0.17886091768741608,
                        0.27523115277290344,
                        0.4822259843349457,
                        -0.2857455611228943,
                        0.02361804060637951,
                        -0.3050743341445923,
                        0.051849592477083206,
                        -0.007959709502756596,
                        -0.07963050156831741,
                        0.02633613534271717,
                        0.3764520585536957,
                        0.18729199469089508,
                        -0.03358275815844536,
                        0.19470566511154175,
                        -0.03897574543952942,
                        0.08153147250413895,
                        -0.1443181186914444,
                        -0.21919900178909302,
                        -0.29899105429649353,
                        -0.08426603674888611,
                        0.39272016286849976,
                        0.3320648670196533,
                        0.17305316030979156,
                        0.5629013776779175,
                        0.07093436270952225,
                        0.39629244804382324,
                        0.9993860125541687,
                        -0.02809702605009079,
                        0.5089012384414673,
                        -0.21745571494102478,
                        0.10850870609283447,
                        0.32309889793395996,
                        1.0520254373550415,
                        0.019581489264965057,
                        0.5526765584945679,
                        0.5089362859725952,
                        0.16899465024471283,
                        0.444769024848938,
                        0.05911672115325928,
                        0.16091854870319366,
                        -0.02195950783789158
                    ],
                    [
                        -0.10238296538591385,
                        0.1762641817331314,
                        0.23705792427062988,
                        -0.22840537130832672,
                        -0.08479981124401093,
                        -0.08222468197345734,
                        -0.06293432414531708,
                        -0.14105646312236786,
                        -0.08718768507242203,
                        0.02065197192132473,
                        -0.16423197090625763,
                        0.14283403754234314,
                        0.06637612730264664,
                        -0.22419898211956024,
                        -0.2095465064048767,
                        0.2679101228713989,
                        0.0055539715103805065,
                        -0.16106551885604858,
                        -0.18558411300182343,
                        0.4214321970939636,
                        0.1576969176530838,
                        -0.5934239029884338,
                        -0.08941396325826645,
                        -0.9329582452774048,
                        0.4363882839679718,
                        0.06234309449791908,
                        0.5693632960319519,
                        0.1511463224887848,
                        -0.19688761234283447,
                        -0.23587638139724731,
                        -0.151471346616745,
                        0.0262826606631279,
                        0.022118346765637398,
                        0.45077744126319885,
                        -0.30956700444221497,
                        -0.06703992187976837,
                        -0.030235454440116882,
                        -0.21741166710853577,
                        -0.21377550065517426,
                        -0.28482428193092346,
                        0.05368930101394653,
                        -0.10146937519311905,
                        -0.49354615807533264,
                        0.01568114012479782,
                        0.30543452501296997,
                        0.40881532430648804,
                        -0.5403571128845215,
                        0.25928306579589844,
                        -0.2226504683494568,
                        0.6328340172767639,
                        -0.2760831415653229,
                        0.4440120458602905,
                        0.17992083728313446,
                        -0.20784075558185577,
                        0.1496785581111908,
                        -0.3371599018573761,
                        0.3014068603515625,
                        0.32577943801879883,
                        0.2998894453048706,
                        -0.1780039519071579,
                        -0.502658486366272,
                        -0.10483083873987198,
                        0.2984052896499634,
                        -0.07632657140493393,
                        -0.06522247195243835,
                        0.020077208057045937,
                        0.1149071529507637,
                        -0.047732964158058167,
                        0.040625281631946564,
                        -0.007142920512706041,
                        0.01142505370080471,
                        -0.12819966673851013,
                        0.13791462779045105,
                        0.10380809754133224,
                        0.2394251823425293,
                        -0.14596211910247803,
                        0.026084203273057938,
                        -0.04781479015946388,
                        -0.20756246149539948,
                        0.02376057393848896,
                        0.421885222196579,
                        0.03152431920170784,
                        -0.023916784673929214,
                        -0.11631196737289429,
                        0.15675579011440277,
                        -0.0699291005730629,
                        -0.07830654829740524,
                        0.14098457992076874,
                        0.18862095475196838,
                        0.07145195454359055,
                        0.055177897214889526,
                        -0.12989938259124756,
                        -0.0821823999285698,
                        0.03014974482357502,
                        -0.02976161427795887,
                        0.06938295066356659,
                        -0.1805797666311264,
                        0.22683890163898468,
                        -0.08543182164430618,
                        0.09221209585666656,
                        -0.0023704394698143005,
                        -0.07523104548454285,
                        -0.07845547050237656,
                        -0.21653129160404205,
                        0.24214650690555573,
                        0.09917375445365906,
                        -0.024287372827529907,
                        0.2607424855232239,
                        0.21016180515289307,
                        0.11642798781394958,
                        -0.31081509590148926,
                        0.22040891647338867,
                        -0.2239501029253006,
                        0.2754833400249481,
                        0.005179838743060827,
                        -0.39910295605659485,
                        0.24053379893302917,
                        -0.4139207601547241,
                        0.2484787404537201,
                        -0.9233132600784302,
                        0.2039409726858139,
                        0.19053353369235992,
                        0.14173036813735962,
                        -0.07987030595541,
                        -0.24530735611915588,
                        -0.20193704962730408,
                        0.12423858046531677,
                        -0.12785403430461884
                    ],
                    [
                        0.8163167834281921,
                        0.5350208878517151,
                        0.27821585536003113,
                        0.031937647610902786,
                        0.20187421143054962,
                        0.4430215358734131,
                        0.27413061261177063,
                        0.6960070729255676,
                        -0.2814939320087433,
                        0.1288853883743286,
                        0.2698571979999542,
                        0.3216765522956848,
