{"lstm.weight_ih_l0": [[-5.274837894830853e-05], [-7.50004401197657e-05], [-0.0006598803447559476], [-0.0003863234887830913], [-4.155402348260395e-05], [-0.0019386459607630968], [-0.00032789941178634763], [-0.0009105819626711309], [0.1052977666258812], [-0.47057515382766724], [-0.0005585175240412354], [1.3912498616264202e-05], [0.02447909489274025], [1.534499034505643e-07], [-0.0005870917811989784], [-6.098342453242367e-08], [-0.0014415655750781298], [-0.002996322698891163], [-0.00010577562352409586], [2.4199518520617858e-05], [-0.0020615269895642996], [0.059040702879428864], [-0.006910078227519989], [-0.0013916862662881613], [-0.007104975637048483], [-8.639122097520158e-05], [-0.0002609177026897669], [-0.0033220879267901182], [-0.020917031913995743], [-0.0010311383521184325], [0.49795037508010864], [-0.0068434374406933784], [-0.0005610527005046606], [-0.0004656457167584449], [-0.0001851163397077471], [-5.742902430938557e-05], [-1.9597944174165605e-06], [-5.4216201533563435e-05], [-0.00038339290767908096], [-0.0001975173072423786], [-0.04870307072997093], [-0.0002823451650328934], [3.0626492275587225e-07], [-0.00016861449694260955], [-0.0005785860703326762], [0.01559216994792223], [-0.00035361089976504445], [-0.0010278248228132725], [-0.0005215001874603331], [-1.7242140529560857e-05], [-0.0007899440824985504], [-4.3332162022124976e-05], [-0.00010825811477843672], [-8.89214570634067e-05], [-0.0008164186147041619], [-0.00030274345772340894], [-0.00011267333320574835], [-0.0003337001835461706], [-1.985093877010513e-05], [-8.692726260051131e-05], [-0.00031834584660828114], [-0.10707838088274002], [-0.0006062266184017062], [-0.00017602309526409954], [-4.98533554491587e-05], [-5.610691732726991e-05], [-0.0006021182052791119], [-0.0004029777483083308], [-7.229831226140959e-06], [-0.0014374799793586135], [-0.00026665840414352715], [-0.0005389715079218149], [0.15578660368919373], [0.024001987650990486], [-0.00047799479216337204], [1.900950155686587e-05], [0.047492846846580505], [2.700332970562158e-07], [-0.0005639009177684784], [-4.9441620575407796e-08], [-0.0014358292100951076], [-0.0030132257379591465], [9.886487532639876e-05], [3.5219007259001955e-05], [-0.0012542202603071928], [-0.0693633034825325], [-0.09285110980272293], [-0.001352164545096457], [-0.0064430139027535915], [-5.503643842530437e-05], [-0.0002567532646935433], [-0.002909512724727392], [0.2503851652145386], [-0.0008768663392402232], [-0.0025905021466314793], [-0.006352198775857687], [-0.0005414671031758189], [-0.000450241583166644], [-0.00016225784202106297], [-1.6292899545078399e-06], [-1.4908895309417858e-06], [-1.4364679373102263e-05], [-0.0003866806218866259], [-0.00017445591220166534], [-0.2109537422657013], [-0.0002836701169144362], [4.560630770811258e-07], [0.00011971725325565785], [3.6473087675403804e-05], [0.06688054651021957], [-0.00035973076592199504], [-0.0011613002279773355], [-0.00039992405800148845], [-1.6376370695070364e-05], [-0.0008413047180511057], [-4.284239548724145e-05], [-0.0001557323121232912], [5.976343163638376e-05], [-0.0009491579839959741], [-0.0003000415745191276], [-0.00013205524010118097], [0.0007289539207704365], [-1.4836965419817716e-05], [-5.16290201630909e-05], [-0.00028835312696173787], [0.38015010952949524], [-0.0003494224511086941], [-7.953990279929712e-05], [-3.461348023847677e-05], [0.00015659169002901763], [0.00011525167064974084], [0.001320068957284093], [0.0008602572488598526], [-0.0015178821049630642], [0.0007769792573526502], [4.395132236822974e-06], [-0.8665724396705627], [-1.3807244300842285], [-0.0027137307915836573], [0.0013986064586788416], [0.06662570685148239], [0.00015420409908983856], [0.0007738934946246445], [0.00025595506303943694], [0.003406305331736803], [-0.0021477818954735994], [-0.002680730540305376], [0.0005960892303846776], [0.0016477411845698953], [-0.9082773923873901], [-0.12723468244075775], [5.623822289635427e-05], [0.006890907883644104], [0.001228689681738615], [-0.0015994873829185963], [-0.0041975099593400955], [0.4038110077381134], [0.0004343613691162318], [-1.621984839439392], [0.0063827913254499435], [-0.0007503509405069053], [-0.0003279995871707797], [0.0008979356498457491], [-0.0009074778063222766], [8.525595330866054e-05], [0.0021401303820312023], [-0.0026004030369222164], [0.000496810011100024], [-0.5135823488235474], [-0.0014848073478788137], [-0.0001711888617137447], [0.0010757942218333483], [0.0007878080359660089], [-0.10677435994148254], [0.0018414361402392387], [-0.001576524693518877], [0.0032899044454097748], [0.0005524656153284013], [0.0014198715798556805], [-0.00018232919683214277], [-0.0010747992200776935], [-0.0016313507221639156], [-0.0007464478840120137], [-0.0010595094645395875], [6.854835373815149e-05], [-0.005302058532834053], [-6.20855571469292e-05], [-0.001968496711924672], [-0.0005809437134303153], [0.22149978578090668], [0.0008082407293841243], [-2.5839904992608353e-05], [-5.101351780467667e-05], [-7.487563561880961e-05], [-0.0006568004610016942], [-0.00037914866697974503], [-4.229239857522771e-05], [-0.001980722649022937], [-0.00033254982554353774], [-0.000950456247664988], [0.12732355296611786], [-0.4112909436225891], [-0.0005560093559324741], [1.2638016414712183e-05], [0.029367053881287575], [1.770926161270836e-07], [-0.0005775320460088551], [-5.685246406983424e-08], [-0.0014352165162563324], [-0.0029080708045512438], [-0.00012129927927162498], [2.5114850359386764e-05], [-0.0021090961527079344], [0.047011781483888626], [-0.16948723793029785], [-0.0013688666513189673], [-0.007099194452166557], [-8.941749547375366e-05], [-0.00025681310216896236], [-0.0033302875235676765], [0.016312843188643456], [-0.001028892700560391], [0.37420791387557983], [-0.006873070728033781], [-0.0005631135427393019], [-0.0004545937408693135], [-0.0001848637912189588], [-5.984905510558747e-05], [-1.9706676539499313e-06], [-5.94600205658935e-05], [-0.0004000049957539886], [-0.0001971370365936309], [-0.15941981971263885], [-0.00028148124692961574], [3.4092170153599e-07], [-0.0001838733587646857], [-0.0006124089704826474], [0.013123896904289722], [-0.00034970854176208377], [-0.0009725239360705018], [-0.0005217258585616946], [-1.6383199181291275e-05], [-0.0007762787281535566], [-4.340698433225043e-05], [-0.00010953339369734749], [-0.00010378388833487406], [-0.0007944802637211978], [-0.00029494857881218195], [-0.00010916074825217947], [-0.0003971332625951618], [-1.992512625292875e-05], [-8.747694664634764e-05], [-0.00031559279887005687], [0.09857069700956345], [-0.0006163439829833806], [-0.0001861717173596844]], "lstm.weight_hh_l0": [[-3.876762662002875e-07, 1.7371173726132838e-06, 1.6270166725007584e-06, 2.4652860020069056e-07, -9.349829355187467e-08, -5.26859867022722e-06, 1.544471501802036e-06, 1.0304842135155923e-06, 2.072625733262612e-07, 7.928402737888973e-06, 3.1433421554538654e-06, 6.823410672041064e-07, -6.3285733631346375e-06, 4.172198941887473e-08, -3.750342898456438e-07, 6.089943216380789e-09, 7.900692367002193e-08, 3.3235662613151362e-06, 2.111586354658357e-07, -5.894102059755824e-07, 5.230505394138163e-06, 8.660178423269826e-07, 1.3388400475378148e-05, -1.3676329047029867e-07, 5.300392786011798e-06, 4.0752206587058026e-07, -7.029315156614757e-07, 1.1267962918282137e-06, -4.382993211038411e-05, 1.2829652007440018e-07, -3.6314559110905975e-05, 5.012537940274342e-08, -1.8027802752840216e-06, -2.9928551725788566e-07, 2.1664365590368106e-07, 4.4507837060336897e-07, -1.159308116172042e-08, -9.986745226342464e-07, -1.0558167105045868e-06, 4.047227619707883e-08, 3.795962402364239e-05, -1.0403416581539204e-06, 6.430616394936806e-08, -1.0471531908251563e-07, 3.21296761285339e-06, -2.9388438633759506e-06, 5.705232979380526e-07, -3.1035044685268076e-06, -1.6157891025159188e-07, -6.234422045281462e-08, 1.297889582474454e-07, -7.063623570502386e-07, 4.6159300381987123e-07, 3.167041597862408e-07, 1.0308286846338888e-06, 7.547322411483037e-07, -2.0607973283404135e-07, -6.934925750101684e-06, 2.0123223976042937e-07, 2.8153592666058103e-06, -4.5247497837408446e-07, -2.0373507140902802e-05, 2.451587988616666e-06, 2.9345924801305046e-08], [-5.634743160953803e-07, 2.4410694550169865e-06, -2.091270516757504e-06, -2.18360401049722e-06, -9.411248811375117e-07, 8.636346137791406e-06, -3.119559778497205e-06, -2.5660881419753423e-06, -2.0496323486440815e-05, -2.811132071656175e-05, 4.76552440886735e-06, 5.040884047957661e-07, 1.491445982537698e-05, 9.095199260400477e-08, -2.2212859107639815e-07, 2.596089032635973e-08, -2.5191707209160086e-06, -1.1599258868955076e-05, -6.432109671550279e-07, 1.5067472531882231e-06, -1.1883292245329358e-05, 1.2151360351708718e-05, 2.1705754988943227e-05, -2.959159530746547e-07, -7.5575289884000085e-06, 3.875784670981375e-07, 1.4258641840569908e-06, 4.083705334778642e-06, -1.8725815607467666e-05, -2.8482509151217528e-06, -6.717446376569569e-05, -1.6210200328714564e-06, 5.817687451781239e-06, 1.0814486017807212e-07, -1.3333310562302358e-06, 6.817305120421224e-07, 6.206771985262094e-08, -2.0128195501456503e-06, 2.734123654590803e-06, -1.2242255706951255e-06, -6.431513611460105e-05, -3.1136005418375134e-06, -1.367339734770212e-07, 7.4676700023701414e-06, -3.2564523735345574e-06, -2.9435226679197513e-05, 9.409185253161922e-08, 6.389775535353692e-07, -1.3799181033391505e-06, -7.187624078142107e-07, -1.3318572200660128e-06, -1.4769167364647728e-06, -9.288320370615111e-07, 3.842098522000015e-06, -2.668201659616898e-06, 3.0204621452867286e-06, -8.467842462778208e-07, -1.9308814103169425e-07, -9.157078295629617e-08, 1.4897824485160527e-06, -2.018760824284982e-06, 1.2226566468598321e-05, 4.030372110719327e-06, -9.610058668840793e-07], [3.0383844205061905e-06, 3.0766832423978485e-06, -3.0534288271155674e-06, 1.499603058618959e-06, -8.931868251238484e-06, 1.2606403288373258e-05, -3.886736976710381e-06, 1.2351011946520885e-06, 2.977539406856522e-05, -0.00011208237265236676, 4.562440517474897e-05, -2.936169209988293e-07, -7.740951696177945e-05, -7.857385497800351e-08, 4.1301754549749603e-07, -3.5285939503637564e-08, 2.2260934429141344e-08, 2.768599642877234e-06, 1.0549809303483926e-05, 4.838304334953136e-07, -6.129025678092148e-07, 5.3786756325280294e-05, 0.0003516610013321042, -5.756334758189041e-06, -4.4817908928962424e-05, -1.2298106639718753e-06, 1.4410557014343794e-06, 2.894449835366686e-07, -0.00042098271660506725, -8.48238315143135e-08, -0.0005323135410435498, 5.35624803887913e-06, -7.227089895422978e-07, -3.655414957393077e-06, -9.332405170425773e-06, -2.507969838916324e-06, 4.6430440647782234e-07, -5.08613311467343e-06, -7.694061991969647e-07, 6.10459551353415e-07, 0.00021584636124316603, 1.0793367437145207e-05, 5.863625318625054e-08, 3.3820273529272527e-05, -5.1969847845612094e-05, -0.0005150761571712792, -9.930417945724912e-07, -5.8572954912960995e-06, -7.852064300095662e-06, 7.129283119411411e-08, 3.025174692083965e-06, -1.4812987501500174e-05, -5.446005957310263e-07, 2.500232403690461e-05, -5.68466430195258e-06, 3.0537346447090385e-06, -2.084651441691676e-06, -1.5051167565616197e-06, -5.729666554543655e-07, 2.5017812731675804e-05, -2.6069048544741236e-05, 0.00010889489203691483, 5.270256588119082e-05, -4.952712060912745e-06], [-6.319528438325506e-07, -5.415185455603932e-07, 5.134817797625146e-07, -3.6733688375534257e-06, 1.7893319181894185e-06, -1.1896255273313727e-05, 3.0590306323574623e-06, -1.0135880984307732e-05, 5.489193426910788e-05, -3.781235500355251e-05, 1.432377757737413e-05, -1.3454200598062016e-06, -3.597764953156002e-05, -3.125194325548364e-07, -9.572804628987797e-07, -1.9560518538241922e-08, 3.2658688269293634e-06, 2.0429033611435443e-06, -5.378796686272835e-06, -3.1167949146038154e-06, 8.228717888414394e-06, -3.0511082513839938e-05, 0.000234055652981624, 7.438781722157728e-06, 1.2369354408292565e-05, 1.5270751418938744e-07, -5.629938186757499e-06, -9.101381124310137e-07, -0.0002856701030395925, -1.761583462212002e-06, -0.0002783510717563331, 2.348664384044241e-05, -3.705773451656569e-06, 1.1204002703379956e-06, -1.5730593077023514e-05, 5.964755018794676e-07, 2.5868990860544727e-07, 1.1686923926390591e-06, -6.501159077743068e-06, 3.934912911063293e-06, 0.00022613187320530415, -2.2137348878459306e-06, -3.798242858010781e-07, 1.4748889952898026e-05, 3.1876788852969185e-06, -0.00026144797448068857, -1.7878920743896742e-07, -1.277269529964542e-05, 6.665516139037209e-09, 1.0029825716628693e-06, -2.5227866444765823e-06, -5.594227786787087e-06, -3.1091226446733344e-06, 8.199293006327935e-06, 5.238402536633657e-06, 3.0106962185527664e-06, 6.786333415220724e-07, -1.106296076613944e-05, 2.7968141580458905e-07, 1.1800536412920337e-05, 3.211072453268571e-06, 1.6703665096429177e-05, 2.555171522544697e-05, -4.503565662616893e-07], [-9.96270159703272e-07, -4.558489763439866e-07, -4.272450496500824e-06, -2.1912551346758846e-06, -6.878172484903189e-07, 6.593539865207276e-07, 1.899109520309139e-06, 6.115031283115968e-06, 1.4086309647609596e-06, -2.1905039830016904e-05, 1.5787677511980291e-06, 1.0867786386370426e-06, -2.73699993158516e-06, -1.0793780802487163e-07, -8.096358783404867e-08, 4.6536747788650246e-08, 9.721323976918939e-07, 4.798379904968897e-06, 7.008435431998805e-07, 1.0806365935422946e-07, 5.847166448802454e-07, -1.7296571968472563e-05, -3.682598253362812e-05, -3.895458121405682e-06, -3.972066224378068e-06, 6.696052423649235e-07, 3.6476233162829885e-06, 1.4514868098558509e-06, 3.4356928608758608e-06, -2.6952375264954753e-06, -2.6233416065224446e-05, 1.338661604677327e-06, -2.476988811395131e-06, -3.5155856039637e-06, -3.880009444401367e-06, -3.938448116969084e-06, 3.2288318152495776e-07, -8.055745581714291e-08, -3.5213129194744397e-06, -5.616496423499484e-07, -8.711568807484582e-05, -4.878144750364299e-07, -6.944579666878781e-08, -3.1629347176931333e-06, 2.659639449120732e-06, -2.6680579594540177e-06, -2.437377133901464e-06, 2.0206200588290812e-06, 7.768616305803278e-10, -1.3609724192065187e-06, -3.005460484928335e-06, -5.643306622005184e-07, -9.126624149757845e-07, -1.2332612868704018e-06, -1.984935806831345e-06, 4.470230123843066e-06, 2.0156253555114745e-08, 4.48182572654332e-06, 3.749914867512416e-07, 1.112493805521808e-06, 7.904138783487724e-07, -2.508713578208699e-06, -7.910504677965946e-07, 7.439468276970729e-07], [-4.494117717968038e-07, -7.276817086676601e-06, -5.1663686463143677e-05, 2.3793065338395536e-05, -2.8919874239363708e-05, -0.00010661251872079447, 3.1453295378014445e-05, -2.432912197036785e-06, -0.00030081436852924526, -0.0011711925035342574, 0.00012112099648220465, 1.2454655688998173e-06, -0.00014416640624403954, 1.5283511629604618e-06, -4.6112214477034286e-05, 2.0264302236228104e-07, 2.304321424162481e-05, -5.3888379625277594e-05, 2.0759391190949827e-05, -6.242157269298332e-06, 3.787947935052216e-05, 0.00023109346511773765, 0.0003815525851678103, -3.785760054597631e-05, -6.538168236147612e-06, -1.6286987374769524e-05, -2.414156188024208e-05, -9.379446419188753e-05, -0.000493350496981293, 5.960548878647387e-05, -0.0006592799327336252, 8.75594123499468e-05, 4.638153768610209e-06, 3.8433885492850095e-05, -6.464314355980605e-05, -9.101721843762789e-06, -2.2734154754289193e-06, 2.0501705876085907e-05, 9.510764357401058e-06, -1.719137253530789e-05, 7.142419053707272e-05, -3.403657319722697e-05, -1.6331734968844103e-06, 8.226040517911315e-05, 0.00012926329509355128, -0.0012150515103712678, 5.584327936958289e-06, 3.678252687677741e-05, 6.589838903892087e-06, -8.952567895903485e-07, 4.144912236370146e-05, -2.997627598233521e-05, 2.384127765253652e-05, 8.15988823887892e-05, -4.540252120932564e-05, -1.3661760931427125e-06, 2.824740658979863e-05, -5.6913493608590215e-05, 1.0474122063897084e-05, 3.788791673287051e-06, 2.41964116867166e-05, 6.7152309384255204e-06, 0.00012067789066350088, -9.842068720899988e-06], [1.1188220696567441e-06, 4.5108549784345087e-07, -3.3756768971215934e-06, 2.808737463055877e-06, -6.074712928239023e-06, -9.79386913968483e-06, 3.2861869385669706e-06, -2.7597670850809664e-05, 5.430879355117213e-06, -4.9978836614172906e-05, 5.879531272512395e-06, -4.859988393945969e-07, -1.0535599358263426e-05, 1.6933961433096556e-07, -4.029318915854674e-06, -3.278338267520553e-09, 1.4792576621402986e-06, -9.574035175319295e-06, 1.3124618817528244e-05, 1.2332822052485426e-06, 2.7610244046627486e-07, -5.0568585720611736e-05, 3.4886204957729205e-05, -1.2887339835288003e-05, -6.0994329942332115e-06, 4.554863153316546e-07, -2.3392869934468763e-06, -1.0457630196469836e-05, -6.875838880660012e-05, 5.715877705370076e-06, -7.391029794234782e-05, 7.718384949839674e-06, -1.0682820175134111e-06, 2.8957249469385715e-06, -2.01103171093564e-06, 4.4317584979580715e-06, -1.6355990339889104e-08, 1.39800715714955e-06, -2.6868819986702874e-06, -6.880079581605969e-07, 6.716117786709219e-05, -6.091031991672935e-06, -2.2450556969033642e-07, 2.4155701794370543e-07, 1.9215203792555258e-05, -0.00012981229519937187, -8.35782373087568e-07, 4.056816123920726e-06, 9.139077405961871e-07, 6.524331865875865e-07, 5.244683961791452e-06, -3.056029981962638e-06, 1.0430801467009587e-06, 1.2344622518867254e-05, -3.940901478927117e-06, -9.587134854882606e-07, 3.962757546105422e-06, -1.6204119219764834e-06, 5.848751811754482e-07, -2.332639496671618e-06, -1.2807737448383705e-06, 4.671263013733551e-05, 5.603200406767428e-06, -2.617327083953569e-07], [1.9894400793418754e-06, 1.493662603024859e-05, -2.2199932573130354e-05, 2.901478364947252e-05, 1.6088754364318447e-06, 9.190172568196431e-05, -1.4780326637264807e-05, -4.079420250491239e-05, -0.00031359135755337775, -0.000845691654831171, 8.869986777426675e-05, -6.838705758127617e-06, -0.00023612317454535514, -4.2638623654056573e-07, 0.00014603545423597097, 1.8461167883288e-07, -3.099977402598597e-05, -9.162362403003499e-05, -6.66513733449392e-05, 7.258367077156436e-06, -0.00014859664952382445, 0.00016589777078479528, -0.0003185253881383687, 1.862576937128324e-05, -5.2756786317331716e-05, -1.6305722965626046e-05, 2.211848368460778e-05, 8.573925151722506e-05, -7.149285374907777e-05, 9.073387627722695e-05, -0.0006743513513356447, -4.30148902523797e-05, -7.566590738861123e-06, -3.282122270320542e-05, -6.068048151064431e-06, -1.495865399192553e-05, -1.6928755712797283e-06, 1.8513412214815617e-05, 3.108524833805859e-05, -2.0252637114026584e-06, -0.00042186648352071643, -3.4156168112531304e-05, 6.143132509350835e-07, -7.843524940653879e-08, -0.00012758119555655867, -0.0008108480251394212, -2.5508656108286232e-05, 6.265547654038528e-06, -5.2611383580369875e-05, -3.2069610824692063e-06, 2.3687101929681376e-05, 1.517781856819056e-05, -6.314942311291816e-07, -9.251752999261953e-06, -4.2552201193757355e-05, 2.3085569409886375e-05, 1.975718987523578e-05, 8.914491627365351e-05, -3.093774694207241e-06, -1.7923210180015303e-05, -5.215017881710082e-05, 0.0015569463139399886, 4.311759403208271e-05, 2.502596771591925e-06], [-0.00038977997610345483, -0.0008023552945815027, 0.0006692592287436128, -5.0921229558298364e-05, 0.000818454020190984, -0.0023592652287334204, 0.0002725138911046088, -0.00011621150770224631, -0.0317455492913723, -0.09531683474779129, -0.0011608412023633718, 0.00011334718874422833, -0.011610055342316628, -2.6584972147247754e-05, -0.0008528923499397933, 9.914539259625599e-05, 0.0005321420612744987, -0.0020994001533836126, -7.336500857491046e-05, -9.505618800176308e-05, 0.0013260706327855587, 0.021586542949080467, 0.04247656837105751, 0.0007883326034061611, 0.0017921077087521553, 0.00022565560357179493, -0.00015949265798553824, -0.0011278584133833647, 0.06403911858797073, 0.0008933813660405576, 0.06854420155286789, -0.0008274741121567786, 0.0011742374626919627, 0.0011385780526325107, 0.00017554663645569235, -0.0007728430209681392, -0.00011463295231806114, 0.0005470511969178915, 0.001350830658338964, 0.0003897508722729981, -0.11496727168560028, -0.0003891299129463732, 3.113462298642844e-05, -0.0007313186069950461, 0.0018174267606809735, -0.07777301222085953, -0.0003408411575946957, -0.0006642451626248658, 0.001308912644162774, 0.0002849943412002176, -0.0001307204511249438, 4.948043715558015e-05, 0.00043233169708400965, -1.0941696018562652e-05, 0.0002482450508978218, -0.001121126115322113, 0.0006623345543630421, -0.0018195280572399497, -0.00021857368119526654, -0.0002849339216481894, 0.0005467862356454134, -0.1580350399017334, -0.0004342008614912629, -0.00046245381236076355], [-0.0005504080909304321, -0.00019516950123943388, 0.0002674695278983563, 0.0008261970360763371, 0.001181742874905467, 0.004279130604118109, 1.951031299540773e-05, 0.005747684743255377, 0.06011776626110077, -0.016382630914449692, -0.001458571176044643, 0.0007501544896513224, -0.04073125496506691, 0.0002447336446493864, 0.0024241770152002573, 4.23595956817735e-05, 0.0026270258240401745, 0.002790575847029686, -0.0017774375155568123, 0.0012748552253469825, -0.0031151443254202604, 0.03014104813337326, 0.2827339470386505, -0.0030736092012375593, 0.004720946773886681, -0.00031915257568471134, -0.001731883268803358, -0.0028359941206872463, -0.1829390674829483, -0.0003747203736566007, 0.10989000648260117, 0.004628982860594988, -0.0004366041102912277, -0.0019079409539699554, 0.0009552997071295977, 0.00033519163844175637, 6.172793655423447e-05, 0.0015930862864479423, -0.0032614313531666994, 3.1587918783770874e-05, 0.360885888338089, -0.0003996617451775819, -0.00023507128935307264, 0.0026668121572583914, -0.0018587146187201142, 0.05045749619603157, 0.0011694488348439336, -0.0011985967867076397, 0.001024274853989482, 0.0006033507524989545, 0.0009796738158911467, 0.0002808122953865677, -0.0012338522356003523, -0.0004666582099162042, -0.0011552029754966497, -0.0003867079212795943, -0.00016357206914108247, -0.003593860426917672, -0.00031286993180401623, -0.0016968334093689919, -0.00029485151753760874, -0.20843373239040375, 0.0044710831716656685, 0.0018913114909082651], [1.3089000276522711e-05, 1.2464882274798583e-05, -4.077459379914217e-05, 4.3222812564636115e-06, -3.289148025942268e-06, 2.5005419956869446e-07, -1.1128163350804243e-06, 1.724658977764193e-05, 2.3652080926694907e-05, -0.00017811109137255698, -2.3832058104744647e-06, -7.700373885199951e-07, -4.174610148766078e-05, 8.911937356970157e-07, 2.655115349625703e-05, 4.055187829976603e-08, -5.830217560287565e-05, -2.986666004289873e-05, -4.208747668599244e-06, -2.0348427369754063e-06, -1.8246762920171022e-05, -2.6883883037953638e-05, 0.0003138180181849748, -4.282017471268773e-05, -1.5539601008640602e-05, -1.0969787581416313e-05, 1.0071223186969291e-05, 1.6434994904557243e-05, -0.0003572533605620265, 1.1416451343393419e-05, -0.00024288904387503862, 1.2380089174257591e-05, 3.8887901609996334e-05, -4.0328250179300085e-05, -1.9176266505382955e-05, -1.0569921869318932e-05, -2.49421964326757e-06, -1.5781462934683077e-05, -1.6724693523428869e-06, 4.970967438566731e-06, 0.00013375385606195778, 1.2716395758616272e-06, 4.036360508052894e-07, 6.53363213132252e-06, -9.530755960440729e-06, -0.00042313215089961886, -1.474377768317936e-05, 5.340979896573117e-06, -3.7807051285199123e-06, -1.0391134310339112e-05, 6.067574304324808e-06, -2.8306024546509434e-07, -7.128160746106005e-07, 1.154515075540985e-06, -2.352233605051879e-05, 3.939279486075975e-05, -5.504572982317768e-06, 6.8068961809331086e-06, 2.129987478838302e-06, 4.973112481820863e-06, -4.41419297203538e-06, 3.339900649734773e-05, 2.7729627163353143e-06, -2.3233360479935072e-06], [-1.1997640569916257e-07, -5.51940956938779e-07, 7.056831119456319e-09, 3.4452159525244497e-07, -1.1501639392008656e-06, -5.718721354242007e-07, -2.104403478142558e-07, 1.6499237744938e-06, 2.8685013830909156e-07, -3.6330886814539554e-06, 1.2741699038087972e-06, -1.866887231471992e-07, -5.214377324591624e-06, 1.149912733922065e-07, 3.4481979582778877e-07, 4.137976072904337e-10, -1.8699809345434915e-07, -2.3133370632422157e-06, -7.863076412206738e-09, 1.2473974209115113e-07, -3.634411086750333e-06, -9.14615793590201e-06, -3.1120507628656924e-05, -6.904615474923048e-07, -3.773519665628555e-07, -3.643613979420479e-07, -2.7900387067347765e-07, -4.1558351426829176e-07, 2.4661623683641665e-05, -9.948548722604755e-07, 8.049939424381591e-06, -1.4867551954012015e-06, -6.24258348125295e-07, 5.759325176768471e-07, 1.2349833866664994e-07, -1.8440390192608902e-07, -9.111086995972073e-08, 4.6987722157609824e-07, 9.79113057297809e-09, 2.41486134200386e-07, -4.792565232492052e-05, 5.73368410528019e-08, -6.578577682603282e-08, 1.5672819131395954e-07, -1.578906221766374e-06, 2.2487607566290535e-05, 2.3927705683490785e-07, 2.142083758371882e-06, 1.6020116788695304e-07, 6.826860499131726e-08, 5.188102170095021e-10, -2.5611134901737387e-07, 1.0519556070676117e-07, -2.845031872311665e-07, -3.9470376123063033e-07, 5.2694808516662306e-08, 6.919750603628927e-07, 2.141656295862049e-06, -1.4648652779669646e-07, 1.3412383736977063e-07, 8.541827583030681e-07, 1.2268258160474943e-06, -5.861659602146574e-08, 4.888527200819226e-07], [0.0003446272748988122, 0.00023174269881565124, -0.0009112725965678692, -0.0004757477145176381, -0.00015387716121040285, 0.001182025414891541, -0.0004745430778712034, 0.00047034939052537084, -0.01108959037810564, -0.012053366750478745, 0.0007389395614154637, -6.442688027163967e-05, 0.0006579661858268082, -3.2038053632277297e-06, 0.00046834402019158006, 3.045385028599412e-06, -0.0010773217072710395, 0.0008637880673632026, -6.154368747957051e-05, 5.2798804972553626e-06, -0.0007854874129407108, 0.0027383025735616684, -0.012308903969824314, -0.00041414055158384144, -0.0020224640611559153, -0.0003189746057614684, 0.0005327483522705734, 0.0016456462908536196, 0.005872136447578669, -0.000769549107644707, 0.0031740483827888966, -0.0025425092317163944, 0.0005891483742743731, -0.00016659166431054473, -0.0005632899701595306, -0.00045572256203740835, -2.148362182197161e-05, -0.00047669769264757633, 0.0010884316870942712, -0.00043370635830797255, -0.020884903147816658, 0.0005615531699731946, 2.67104733211454e-05, 0.0003509092493914068, -0.000511755293700844, -0.004424888174980879, -0.0006295134662650526, 0.0005145528120920062, -0.0007755150436423719, -0.0001800453756004572, -0.0006470705266110599, -0.0002375658805249259, 0.0004338542348705232, -3.277378709753975e-05, -0.001268724212422967, -5.464490459416993e-05, -0.00021678397024516016, 0.001532119233161211, 0.00015443989832419902, 0.000547023955732584, -0.0004808515077456832, -0.018242256715893745, 0.00037438093568198383, -0.0004626112640835345], [1.083005507496182e-08, 5.530885971438693e-09, -4.2416603562855926e-09, 1.2711182328928317e-08, -1.5949060738762455e-08, 1.2778031965865466e-08, 8.954092578505879e-09, 4.542836506971071e-08, -4.810742666450096e-07, 1.813315520848846e-06, 1.5023282173842745e-08, -1.5697180444362857e-08, -1.5153921140154125e-07, 5.77936098977716e-09, 4.712383727678571e-08, 3.431366790099949e-13, -2.792749320690291e-08, -1.6867783614316068e-08, 3.798699577117759e-09, 1.0120899673893291e-08, -9.364136843714732e-08, -2.7056356088905886e-07, -3.1093088637135224e-07, -9.049208493649985e-09, -5.9006563191132955e-08, -6.825513931829619e-09, 2.8339831814605532e-08, 4.407417719676232e-08, 3.951253972900304e-07, -7.114698163945832e-09, -1.995574166357983e-06, -1.8259813217014198e-08, 4.531731434553876e-09, 1.3221662875650964e-08, 8.132424511586578e-09, 1.1344499561971588e-08, -1.3672321053093128e-09, -6.319690992739879e-09, 1.688851014591819e-08, -1.09647588786288e-08, -8.158369837474311e-07, 2.0933491384766967e-08, -3.1752598328438353e-09, 5.980447070896844e-08, -7.998063544789602e-09, -5.14862790623738e-07, -4.179385726388318e-08, 7.646314692522083e-09, -3.0573250597853985e-08, -3.233685319514734e-09, 4.9592383533081374e-09, -8.452551547577514e-09, 2.482114780377742e-08, 2.166220625099413e-08, -1.587724840490523e-09, 2.495164608262712e-08, -4.993204960612729e-09, -1.375997698005449e-07, -1.0746611378564808e-09, -3.495319234048111e-08, -4.018508903413931e-08, 1.4177360299072461e-06, 8.747389301788644e-08, -6.9186940621079884e-09], [-2.7199175747227855e-06, -4.687270575232105e-06, -6.051153832231648e-06, -2.041508224692734e-07, -6.5676827034621965e-06, -6.074412794987438e-06, 3.971242222178262e-06, 1.7056100887202774e-06, -1.7876696801977232e-05, -0.00010153187031392008, 3.721100074471906e-05, 3.2108891900861636e-06, -1.6640580724924803e-05, 4.4931422849003866e-07, -5.156920906301821e-06, -1.8350991126681038e-07, 6.466740160249174e-06, 1.949020952451974e-05, 1.3087361367070116e-05, -1.1363414387233206e-06, 1.8216665921499953e-05, -2.0041648895130493e-05, 0.00023915937345009297, 2.008954470511526e-05, -5.6245637097163126e-05, -1.8421646927890833e-06, -2.16204057323921e-06, 5.716091618523933e-05, -0.00034627472632564604, 1.00334718808881e-05, -0.0003662372473627329, -0.00014365582319442183, 3.62301602763182e-06, 2.227279537692084e-06, -2.306328315171413e-05, 3.426968930853036e-07, 2.968502030853415e-07, -3.6367987377161626e-06, 2.9998598165548174e-06, 1.1058801874241908e-06, 0.00027624331414699554, 5.46735645912122e-06, -2.2088504181283497e-07, 7.956998160807416e-06, -2.833096232279786e-06, -0.0001970423909369856, 1.320762635259598e-06, 2.3889655494713224e-05, -1.2572219930007122e-05, 3.7826453080924693e-07, -2.1553410078922752e-06, 6.563500960510282e-07, 1.5349571185652167e-05, 1.946332849911414e-05, 5.3855769692745525e-06, 5.158060048415791e-06, -5.169394626136636e-06, 1.3059023331152275e-05, 1.8842089843928989e-07, 2.3175779517714545e-07, -2.8764718081220053e-05, -4.890676791546866e-05, 8.90264715280864e-08, -7.617794835823588e-06], [5.059064972501304e-11, 5.453049470305338e-12, -5.99531813083587e-11, 1.5370922590296487e-10, 2.5484736543290865e-10, 7.87470033625226e-10, 6.309659045244942e-11, 5.982609407872985e-10, -8.698223474823408e-09, -2.1807085914815616e-08, 1.4628764866131405e-09, 1.436893937167838e-10, -5.262883906453908e-09, -4.4202745630439466e-11, 1.1183508563661348e-09, 9.143518407694895e-12, 9.804528300350057e-10, -1.7524663942225516e-09, -5.351377674323032e-10, 1.4417568527935742e-10, 2.3422852546417516e-09, -7.723266470804901e-09, 2.6885205173243776e-08, 1.2769334201134797e-10, 3.015576899301209e-09, 5.912680067776677e-11, 6.51596346323835e-11, -2.626625028590013e-10, -4.8435545352276677e-08, -2.653988973033705e-10, 2.6410043929558924e-08, 1.999467036384317e-09, -2.7676677616383927e-10, 3.3185541988001166e-13, -2.171569452036337e-10, 4.207900972108547e-10, 1.0814196760300376e-10, 4.480526782923988e-10, -5.23215637482366e-10, 5.335232811098933e-10, -6.680123565416807e-09, -2.926903996947061e-10, 3.588167957202515e-11, -5.560047977581917e-10, -7.805422419515651e-10, -3.277376237065255e-08, 4.093075531286239e-11, -3.0120148042378503e-10, 3.596967446117816e-10, -1.0998838124998134e-11, 8.281652447150734e-11, -5.210333553495872e-11, 2.051078751286184e-10, -9.144225932011807e-10, 2.2340111704988175e-10, -5.463349217471603e-10, 8.798186623693027e-10, -1.3226364448115646e-09, -2.6244362238969643e-10, 6.380022621321757e-10, -8.961592579126432e-10, -7.662489309723242e-08, -8.068822519857743e-12, 2.286081740576762e-10], [-5.297334269016574e-07, 1.0943466577373329e-06, 4.192298547422979e-06, 1.0912199286394753e-05, -2.3117601813282818e-05, -1.3185647731006611e-05, 4.045002242492046e-06, -7.179314252425684e-06, 0.0003886298509314656, 0.00023835033061914146, 9.669292194303125e-05, -3.091746975769638e-06, -0.000164764845976606, -4.083582609837322e-07, -1.933903604367515e-06, -6.299356591910055e-09, 1.8491095033823512e-05, -2.4574839699198492e-05, 1.999821688514203e-05, 2.934999656645232e-06, 3.821543486992596e-06, -9.915116243064404e-05, 0.0006645613466389477, -4.159010586590739e-06, 1.597185109858401e-05, 1.4295607115855091e-06, -5.357698682928458e-06, -1.9826164134428836e-05, -0.0009678493952378631, 5.474352292367257e-06, -0.0015942908357828856, 2.7222953576711006e-05, -1.1046516192436684e-05, 7.208912506939669e-07, -3.901087256963365e-05, 4.3790087147499435e-06, 8.396220323447778e-07, -6.487444892400163e-08, -5.247375611361349e-06, 6.40485382064071e-07, 0.000645126448944211, -3.3023466130543966e-06, 1.7653850648002845e-07, 8.027174044400454e-05, 3.165365569657297e-06, -0.0012168746907263994, 9.157358363154344e-06, -4.530227215582272e-06, -4.4313378566585016e-06, 9.507324421065277e-07, 1.5609750334988348e-05, -3.064708289457485e-05, -1.6844469428178854e-06, 3.757197191589512e-05, 8.733816684980411e-06, 4.643512738766731e-07, -2.230664364333279e-07, 1.1885901585628744e-05, -7.017277994236792e-07, 2.0581475837389007e-05, -1.6061689166235738e-05, 1.3449390280584339e-05, 5.2322277042549103e-05, -5.286849500407698e-06], [1.3152524843462743e-05, 3.0184198749338975e-06, 5.31856903762673e-06, 2.5088651455007493e-05, -2.3750085347273853e-06, -9.989274985855445e-05, 2.7394840799388476e-05, -0.00012857854017056525, -0.00033739989157766104, 5.619047078653239e-05, 9.050769222085364e-06, 5.928706741542555e-06, -0.00021231381106190383, -1.0666022944860742e-06, -1.9347020497662015e-05, 2.5456452590333356e-07, 1.808050183171872e-05, 8.501789852743968e-05, -4.8702855565352365e-05, -8.641026170153054e-07, 0.00014216129784472287, 0.0001482459920225665, 0.0007705375319346786, 6.685982225462794e-05, 0.00014751616981811821, 8.637622158857994e-06, -1.3374305126490071e-05, 5.659827365889214e-05, -0.0024865656159818172, 3.241907324991189e-05, -0.00039099741843529046, -4.6265387936728075e-05, -1.3579415281128604e-05, 5.280167897581123e-05, 1.0819730050570797e-05, -3.117803316854406e-06, -4.2452367665646307e-07, 7.929372259241063e-06, -3.2145206205314025e-05, 1.14364993351046e-05, 0.0013015903532505035, 2.501315793779213e-05, -1.22927951906604e-06, -8.710669499123469e-05, -0.0001074599931598641, -0.0004607473383657634, 7.63271873438498e-06, -4.098199042346096e-06, 7.831361290300265e-05, 2.571316372268484e-06, 4.368674126453698e-05, 3.013659079442732e-05, -4.725606231659185e-06, -4.035844176542014e-05, 2.6441546651767567e-05, 1.930672806338407e-05, -1.1308425200695638e-05, -0.00011864385305671021, -9.311772828368703e-07, 1.2960341564394184e-06, 7.160170412134903e-07, -0.000280742155155167, -4.7253673983504996e-05, 6.382955234585097e-06], [-6.692894203297328e-06, -3.323702003399376e-06, 2.803361212500022e-06, 3.661069513327675e-06, -5.338376922736643e-06, -2.1543772163568065e-05, 3.660023139673285e-06, 2.576776068963227e-06, -1.6441228581243195e-05, 6.245928670978174e-05, 3.407636086194543e-06, -7.537524879808188e-07, 5.3703231969848275e-05, 9.959061344488873e-07, -3.4904821859527146e-06, 7.437846250013536e-08, 2.8451211164792767e-06, 1.758461439749226e-05, 1.326079018326709e-05, -1.3368653526413254e-06, 2.0822153601329774e-05, -5.568449341808446e-05, -0.0002835699124261737, -2.786291042866651e-05, -9.717476132209413e-06, 3.6681819892692147e-06, 2.6237119072902715e-06, -5.5357286328217015e-06, 0.00024065628531388938, 5.662203875544947e-06, -0.00016126867558341473, 1.6690725033186027e-06, -4.351639290689491e-06, -3.809854206338059e-06, -2.831590251162197e-08, -1.0659608051355463e-05, 7.688934147154214e-07, 8.066570444498211e-06, 2.0356617369543528e-07, -4.201943397674768e-07, -0.00032879793434403837, 2.64005757344421e-06, 4.419513004449982e-07, 6.310063326964155e-06, -2.426869741611881e-06, -0.00011165533942403272, 1.1611089121288387e-06, 1.427698225597851e-05, -4.003532865226589e-07, -1.5018844123915187e-06, -2.682656713659526e-06, 6.631767632825358e-07, -1.927954372149543e-06, 9.878483069769572e-06, -1.088368117052596e-05, 1.0966405170620419e-05, 5.565026640397264e-06, 1.113317921408452e-06, 2.7558519377635093e-07, -1.667389426529553e-07, 1.5460814211110119e-06, 2.0616074834833853e-05, 7.651967280253302e-06, 1.0008445315179415e-05], [1.0580359912637505e-06, -4.270300166808738e-07, -8.134573477036611e-07, -2.6458212687430205e-06, 3.084262516495073e-07, -2.5972917683247942e-06, -2.2955158840431977e-07, -1.413809513906017e-07, -2.0519219106063247e-05, -1.853315723110427e-07, -9.956901294572162e-07, 8.535350275451492e-07, -1.0588970326352865e-05, -6.296343002532012e-08, -6.676434338714898e-08, 9.912938025991025e-09, -4.011903456557775e-06, 3.437559144003899e-06, 1.4063131459352007e-07, 1.093160676646221e-06, -2.200682502007112e-06, -1.7834547179518268e-05, -3.2224201277131215e-05, -2.16790658669197e-06, -4.545860065263696e-06, -3.133916592901187e-08, -7.455935246980516e-08, -1.7968648080568528e-07, 3.3589320082683116e-05, -3.157698984068702e-06, 6.4611172092554625e-06, -3.912276497430867e-06, -4.31917868581877e-07, -1.8059157582683838e-06, -1.5012951735116076e-06, 1.1384329354768852e-06, -8.608962787093333e-08, -6.509994818770792e-07, 3.887222135290358e-07, 2.1981293230055599e-07, -5.3356532589532435e-05, 8.320192819155636e-07, -2.195741899413406e-07, -1.871878083647971e-07, -3.783801219015004e-07, 7.415890195261454e-06, -6.951613045202976e-07, 1.9723340756172547e-06, 1.7140025647677248e-06, -2.703673658288608e-07, 1.5382144056275138e-06, 1.6485570597524202e-07, 1.0920618365162227e-07, -3.2684692996554077e-07, -1.7588605487617315e-06, 7.638041097379755e-07, 1.5139280549192335e-06, -5.194956429477315e-06, 5.150030233380676e-07, 7.317797781070112e-07, 4.717068975423899e-07, 4.457362229004502e-05, 1.126737743106787e-06, -1.002902649815951e-06], [2.8879305318696424e-05, 2.1808202291140333e-05, 1.8392085621599108e-05, -3.824167652055621e-05, -1.0370084055466577e-05, 8.641219028504565e-05, -1.8005202946369536e-05, 0.00019252943457104266, -0.0004033673903904855, -0.0010768159991130233, 2.3249480364029296e-05, 2.115042434525094e-07, 7.176360668381676e-05, -6.000585131005209e-07, -8.278010682261083e-06, 9.65761955740163e-07, -2.5305673261755146e-05, -8.689891546964645e-05, 1.4580627066607121e-05, -1.4042637303646188e-05, 0.00010056438622996211, 0.00022211259056348354, 8.504642028128728e-05, 3.2271560485241935e-05, 0.00011581884609768167, -1.4093125173531007e-05, 1.0389641829533502e-05, -3.3849846658995375e-06, -0.0007734901155345142, -8.155770774465054e-05, -0.0005064848228357732, 6.306591967586428e-05, -1.2587434866873082e-05, -5.645817509503104e-05, -6.0805108660133556e-05, -1.2792605730282958e-06, 1.8960579382110154e-06, -9.048123501997907e-06, -2.076197779388167e-05, -3.419584027142264e-05, -0.00017693731933832169, 1.888990846055094e-05, -9.098818054553703e-07, 4.8226436774712056e-05, 1.2783906640834175e-05, -0.0010186998406425118, -1.1676315807562787e-05, 1.6427398804808035e-05, 1.7831298464443535e-05, -1.4414985116673051e-06, -5.390939622884616e-05, -1.3920904166297987e-05, -1.7281276996072847e-06, 1.2896446605736855e-05, -1.785710992407985e-05, 8.404396066907793e-05, -1.7511223632027395e-05, -5.858526492374949e-05, 2.257018195450655e-06, 3.4464002965250984e-05, -2.1346695575630292e-05, 0.0002352090523345396, 4.3666543206200004e-05, -8.742385944060516e-06], [-0.0006967789377085865, -0.0008335027960129082, 0.0012812507338821888, 0.0010967242997139692, 0.0010980311781167984, -0.0011043378617614508, 0.0015559487510472536, -0.0012055885745212436, 0.0071298046968877316, -0.14351502060890198, -0.0018951522652059793, 0.00035507610300555825, -0.001184484688565135, 7.326285413000733e-05, -0.0015146428486332297, 1.6071111531346105e-05, 0.0015053896931931376, -0.0020739282481372356, -0.00104401761200279, 0.000677542935591191, 0.0029163321014493704, -0.012933896854519844, -0.006178147625178099, 0.0016392540419474244, 0.004298592451959848, 0.000645178952254355, -0.0012624001828953624, -0.0030723875388503075, -0.12195763736963272, 0.0024330096784979105, 0.09542886167764664, 0.00278459838591516, 0.0005373620078898966, 0.0008127678884193301, 0.0011670629028230906, 0.00010584691335679963, 1.6718188362574438e-06, 0.0008927554008550942, -0.0004011614073533565, 0.0008041979745030403, -0.13169357180595398, -0.0011458945227786899, -5.236473953118548e-05, -0.0017856804188340902, 0.0024429094046354294, -0.10024111717939377, 0.000981137272901833, -0.0013866581721231341, 0.0013759122230112553, 0.0002882072003558278, 0.0011533465003594756, 0.00020204379688948393, 0.00019356650591362268, 0.00027524653705768287, 0.000929808069486171, -0.0007924656383693218, 0.0008258558227680624, -0.002145906910300255, -0.00035752993426285684, -0.0015055385883897543, 0.0009616155293770134, -0.16360658407211304, -0.0013413297710940242, 0.0007622526027262211], [0.00037710959441028535, 0.00028632095200009644, -0.00038838182808831334, 4.4889733544550836e-05, -4.565036215353757e-05, -0.00044956160127185285, 7.418813038384542e-05, -3.181542342645116e-05, -0.01726539433002472, -8.954929171522963e-07, -0.00023344482178799808, -9.214914462063462e-05, 0.006266580894589424, 3.942680268664844e-05, -3.664083851617761e-05, 4.639528015104588e-06, -0.0009259821963496506, 0.0001933351013576612, -0.0005125225870870054, -1.9623923435574397e-05, 0.00016783546016085893, 0.007473987992852926, 0.034307967871427536, -0.00032038846984505653, 4.035671008750796e-05, 0.00048154740943573415, 0.00014585092139896005, 0.0004774578846991062, 0.0616319440305233, 0.00019415972928982228, 0.0054535940289497375, -0.00019099297060165554, -4.791110040969215e-05, 3.0325521947816014e-05, 0.00020073469204362482, -0.0002505882875993848, 1.1495128546812339e-06, 0.0003990732948295772, -0.00034444534685462713, 0.00015128155064303428, 0.02310810424387455, -0.00013670393673237413, -3.567998646758497e-05, -0.00013899235636927187, 0.0001273479574592784, 0.021562349051237106, -4.468360930331983e-05, 0.0009659621864557266, 0.0007072404259815812, 9.110528480960056e-05, 9.122866322286427e-05, 3.3397482184227556e-05, 0.00020849915745202452, 0.0001916950714075938, -0.000238618697039783, 0.00013129173021297902, -0.00010651716002030298, 0.0005325872334651649, 6.255083280848339e-05, -0.00039266436942853034, -0.0004807691730093211, 0.017969414591789246, -0.0001646385353524238, 0.00011055741924792528], [1.2937072142449324e-06, -5.712431629945058e-06, 1.1022814760508481e-05, 8.408256690017879e-06, 1.6415919162682258e-05, 1.4138078768155538e-05, -1.1083546269219369e-05, 8.499590330757201e-05, -0.0001355055283056572, -0.00017847800336312503, 7.18878727639094e-05, -4.356588306109188e-06, -6.808242324041203e-05, 5.931318014518183e-07, 1.4635799743700773e-05, -9.501919606691445e-08, 1.8159264072892256e-05, -4.506795448833145e-05, 5.304258593241684e-06, 1.2027300726913381e-05, -4.163818812230602e-05, -1.0871191079786513e-05, 0.00021862339053768665, -3.3802302823460195e-06, -9.772073826752603e-05, 8.637090104457457e-06, -6.253365882002981e-06, -6.262334409257164e-06, -0.0009676872869022191, -1.875227280834224e-05, -0.0006001868168823421, 4.225929660606198e-05, -2.3777987735229544e-05, -9.995988875743933e-06, -9.941167263605166e-06, -1.3862179912393913e-05, 1.3198043546935878e-08, 9.220754691341426e-06, -2.2384700059774332e-05, 5.090434115118114e-06, 0.0004111329326406121, -1.110601829168445e-06, 1.8319482819606492e-07, -7.545518747065216e-05, -3.358757749083452e-05, -0.0005497811362147331, -1.492524575041898e-06, -1.120959859690629e-05, 3.355619810463395e-06, -9.504454396846995e-07, 1.3416091860563029e-05, -2.6103587515535764e-05, -3.736561666300986e-06, 7.174860002123751e-06, 6.759094958397327e-06, -2.605125075660908e-07, 2.129947279172484e-05, 0.0001544326078146696, 8.701390470378101e-07, 1.6011015759431757e-05, 1.209980109706521e-05, 6.493871478596702e-05, -5.761788997915573e-06, -2.7332444005878642e-06], [6.045084955985658e-05, 4.12455883633811e-05, -2.485097638782463e-06, -5.139423956279643e-05, -1.4956005543353967e-05, 0.00011933570931432769, -3.0681665521115065e-05, -9.684641554486006e-05, -0.0002742481592576951, -0.000628099893219769, 2.1356590877985582e-05, -4.0636434277985245e-05, -0.00020520127145573497, -3.85532075597439e-06, 7.952957275847439e-06, 9.939569736161502e-07, -1.685006827756297e-05, -0.0002064166183117777, -3.014576805071556e-06, -3.632237348938361e-05, 0.00017102099081967026, -6.051897435099818e-05, 0.0016494713490828872, -3.0752966267755255e-05, 0.0002505851734895259, -2.6957603040500544e-05, 2.001321718125837e-06, 0.00018884667952079326, -0.004602805711328983, -0.00014410432777367532, -0.002712950576096773, 2.244959250674583e-05, -2.269200012960937e-05, -0.0003443913592491299, 2.4670222046552226e-05, -6.546224994963268e-06, 4.88024443257018e-06, -2.3285543647943996e-05, -2.3954680727911182e-05, -5.617178976535797e-05, 0.001691404148004949, 1.248109128937358e-05, 1.5842624634387903e-06, 5.533712828764692e-05, 1.4260212083172519e-05, -0.003923435229808092, -1.1189866199856624e-05, -4.595838618115522e-06, -7.060355710564181e-05, 1.8196266182712861e-06, -8.225886267609894e-05, -1.2696677913481835e-05, -1.79553735506488e-05, 2.69071801994869e-06, -3.379949339432642e-05, 0.0003909424995072186, -2.5989656933234073e-05, -0.00015680956130381674, 1.3045921150478534e-05, 7.220102270366624e-05, -2.02486444322858e-05, 0.0001608487218618393, 3.1886796932667494e-05, -2.3417687771143392e-05], [-5.592615366367681e-07, 9.815818202696391e-07, -1.923049097740659e-07, -1.2768884971592342e-06, 5.617052352135943e-07, 5.743450401496375e-06, -2.033720193139743e-06, 7.3324863478774205e-06, 3.48509092873428e-06, 2.5002227630466223e-06, 3.693643975566374e-06, 2.984773175285227e-07, -1.2965545465704054e-05, -3.203812681817908e-08, -7.311232366191689e-07, -1.0909244174683863e-08, 4.373931972168066e-07, -2.4958992526080692e-06, 4.339719907875406e-06, -5.629399879580888e-07, -2.106729226625248e-07, -9.366628546558786e-06, 4.735710899694823e-05, 2.878828809116385e-06, -1.1768039485104964e-06, -1.8003909190156264e-06, 2.735955320076755e-07, 1.4834760122539592e-06, -3.665992335299961e-05, 7.363960996542573e-09, -3.4872322430601344e-05, -3.1305471566156484e-06, -3.6661406284110853e-06, -2.9293330499058357e-06, -1.6770485444794758e-07, -1.1141796818492367e-08, 1.0608547285073655e-07, 1.617799085806837e-07, 4.562787580653094e-06, 9.441404245080776e-07, 2.7929520001634955e-05, -1.3732770867136423e-06, 3.803378945121949e-08, 3.133947529931902e-06, -4.424806320457719e-06, -3.824340819846839e-05, 4.3095144519611495e-07, -2.653549699971336e-06, 1.0866642696782947e-06, -3.7910007222308195e-07, -2.926858996943338e-06, 1.25909707548999e-07, -1.5637729688933177e-07, 2.0349677924969e-06, 8.986155535239959e-07, 2.1690150333597558e-06, -4.7175421968859155e-06, 3.857802312268177e-06, -2.4624392835903564e-07, 5.24251049682789e-07, -3.465861482254695e-07, -1.4444662156165577e-05, -4.119070126762381e-06, 1.2591135600814596e-06], [-1.3826841041009175e-06, -1.707850971754965e-09, 1.2681614691700815e-07, 2.867783734927798e-07, -3.994566100118391e-07, -8.488594176014885e-06, 2.0065879198227776e-06, -3.447946255619172e-06, 5.131953003001399e-05, -3.6833509511779994e-05, 1.356956909148721e-05, -6.484707455456373e-07, -2.776578548946418e-05, 1.462063039525674e-07, -1.691970282990951e-06, -1.266493576679295e-09, 2.1235009626252577e-06, -9.063810466614086e-06, -1.0939256753772497e-06, -4.5222975586511893e-07, 2.1525663669308415e-06, -3.800437843892723e-05, 0.00015633212751708925, 1.574917632751749e-06, 4.333655851951335e-06, 1.8441208737840498e-07, -2.5028828076756326e-06, -1.0565039701759815e-05, -0.00018005070160143077, 3.4702404718700564e-06, -0.0001634762593312189, 9.627092367736623e-06, -2.1564667349593947e-06, 6.529919005515694e-07, 1.660134557823767e-06, 6.450746354857984e-07, 1.431123877182472e-07, 1.052541847457178e-06, -1.6076536439868505e-06, -3.1245793508105635e-08, 0.00010636443039402366, -1.6799236846054555e-06, -2.3501171142470412e-07, 1.0275400200043805e-05, 2.1708556232624687e-06, -0.00016547524137422442, 1.6128626612044172e-07, -8.369831334675837e-07, 2.2181393433129415e-06, -2.5917736934388813e-07, 3.13053510581085e-06, -3.723857389559271e-06, -6.274295287767018e-07, 5.882810910406988e-06, 1.395205231347063e-06, -1.6752558167354437e-06, 1.5233197245834162e-06, -4.5335536924540065e-06, 4.5975269813425257e-07, -3.326908199596801e-06, -1.1731772247003391e-06, 5.474062709254213e-05, 2.168403079849668e-05, -1.3391909305937588e-06], [6.714488699799404e-05, 2.6795580652105855e-06, -0.00020413086167536676, -0.00016580875671934336, -3.1856434361543506e-06, 4.174750574748032e-05, -8.907367737265304e-05, -4.209088729112409e-05, 0.0005910188774578273, -0.0002911854244302958, -6.680842034256784e-06, -2.0776776636921568e-06, -0.00039467442547902465, -1.1948387736993027e-06, 0.00023031156160868704, -1.1820005596518968e-07, 5.3925741667626426e-05, -7.930228457553312e-05, -3.019395262526814e-05, -5.371304723666981e-06, 1.6458758182125166e-05, -1.9980860088253394e-05, 0.0005905855214223266, -0.0003190016432199627, 1.6790983863756992e-05, -9.181141649605706e-05, 1.0208489584329072e-05, 2.239370223833248e-05, -0.001836279989220202, -0.0002558280248194933, -0.0025537037290632725, 2.9993698262842372e-05, 0.0002716408343985677, 1.4435297089221422e-05, -0.0001317604328505695, -7.324991747736931e-05, -1.5656794857932255e-05, 1.829140074960378e-07, -4.094214091310278e-06, -6.711165769957006e-05, 0.0006982644554227591, 4.934539902023971e-06, 4.489096738780063e-07, -2.720387783483602e-06, -1.0635643548084772e-06, -0.0031719044782221317, -3.0025468731764704e-05, -7.557991921203211e-06, -0.00020424899412319064, -6.0196922277100384e-05, -0.00024978892179206014, 3.1198815122479573e-06, 7.734770406386815e-06, -1.4918759916326962e-05, -0.00014033140905667096, -6.033356385160005e-06, -0.00010841534094652161, 3.349901089677587e-05, 1.0453150025568902e-05, -4.045299192512175e-06, 9.579725883668289e-06, 0.0007093287422321737, -4.325425834394991e-06, 1.4817519513599109e-05], [-0.0005467950832098722, -0.0009520999738015234, 0.0026649285573512316, 0.0010792696848511696, 0.0004765046469401568, -0.003484533168375492, 0.0008307464886456728, -0.003537585027515888, 0.10741639882326126, 0.017252683639526367, -0.0019094166345894337, -0.0002414580958429724, 0.030548835173249245, -6.680336082354188e-05, -0.001987400697544217, -4.633798016584478e-05, 0.0034473601263016462, -0.003761156927794218, -0.0013165598502382636, -0.0004365336790215224, 0.0034176360350102186, 0.008574607782065868, -0.05843617767095566, 0.002935901051387191, 0.0077091702260077, 0.0013713148655369878, -0.0010614608181640506, -0.005206429399549961, 0.11112286150455475, 0.0021932716481387615, 0.13321687281131744, 0.008048437535762787, -0.0021224624942988157, 0.0017532514175400138, 0.0009823980508372188, 0.0004994687042199075, 0.0001767340290825814, 0.0014082525158300996, -0.00290196412242949, 0.0012812482891604304, -0.013424393720924854, -0.0024890112690627575, 3.697292186188861e-06, -0.002052908530458808, 0.0022739169653505087, 0.023725805804133415, 0.0012304248521104455, -0.0017781490460038185, 0.001922178314998746, 0.0006688501453027129, 0.0020809315610677004, 0.0006632329314015806, -0.0019599711522459984, -0.00140087166801095, 0.003160246880725026, -0.0020136479288339615, 0.001565540675073862, -0.0008224535267800093, -0.00027889953344129026, -0.0008923853747546673, 0.0016438516322523355, -0.017444344237446785, -0.0030334684997797012, 0.0006600908818654716], [-2.7740220502892043e-06, 9.462252137382166e-07, -8.057226295932196e-06, 1.0953906894428656e-05, -4.124456609133631e-06, -2.2976319087320007e-05, 5.9547046475927345e-06, -1.2848988262703642e-05, -2.406617386441212e-05, -0.0001595042267581448, 4.655699376598932e-05, 1.4150514004995784e-07, -3.6173842090647668e-06, -3.4314498975618335e-07, -2.3388884073938243e-06, 2.4120492270185423e-08, 6.801867129979655e-06, 1.3962306184112094e-05, 1.935313321155263e-06, -3.3368123695254326e-06, 5.8063222240889445e-05, -2.979488272103481e-06, 0.00031085521914064884, 1.121106561186025e-05, 4.885197267867625e-05, 6.959721304156119e-06, -6.766097612853628e-06, 2.0358440451673232e-05, -0.0004029212868772447, 4.782459200214362e-06, -0.0003500331367831677, -0.00017205727635882795, -1.2524519661383238e-06, 8.641674867249094e-06, -2.1181258489377797e-05, -9.236363439413253e-06, -9.312830684393703e-07, -6.661612133029848e-06, 3.281073804828338e-05, 7.884187652962282e-06, 0.0003854509850498289, 1.1968466424150392e-05, 3.576053231313381e-08, -4.492550579016097e-05, -1.7159662093035877e-05, -0.00041749986121430993, 1.2295133728912333e-06, 1.1136520697618835e-05, 1.6680796477430704e-07, 3.3361573059664806e-06, 9.66290281212423e-06, -1.7419424693798646e-05, -6.8752192419196945e-06, 1.6039941328926943e-05, -3.945526714232983e-06, -7.922037184471264e-06, 7.127845037757652e-06, -7.287342305062339e-05, -9.89035243037506e-07, 1.644460644456558e-05, -1.210621303471271e-05, -9.521377796772867e-05, 2.6118144887732342e-05, 1.3816186310577905e-06], [-0.0010825985809788108, -0.0010233334032818675, 0.002249837154522538, 0.0016025002114474773, 0.0005765902460552752, 0.0010143124964088202, 0.0009275562479160726, 0.0010689898626878858, -0.11987411975860596, -0.1125221848487854, -0.001445511355996132, 0.00028497129096649587, 0.03470675274729729, 9.663922537583858e-05, -0.0005371527513489127, 4.159265154157765e-05, 0.003126945113763213, 0.0006230405997484922, 0.0007649027975276113, -6.81883393554017e-05, 0.0002539444831199944, -0.061435360461473465, -0.11959653347730637, 0.00011497490777401254, 0.005593116860836744, 0.00038453255547210574, -0.0018886857433244586, -0.00520421052351594, 0.3684517443180084, 0.001127314637415111, 0.08722028136253357, 0.007145066745579243, -0.0012047477066516876, 0.0004865722730755806, 0.001515684649348259, 0.0012208092957735062, -0.00010656497033778578, 0.0009364773286506534, -0.002003598026931286, 0.0005129377823323011, -0.21121442317962646, -0.0010308600030839443, -0.00013409147504717112, -0.00024360569659620523, 0.000954439805354923, -0.01509393285959959, 0.0015975021524354815, -0.002446949016302824, 0.000620239123236388, 0.0007985624251887202, 0.002364156302064657, 0.0005870008026249707, -0.0010482228826731443, -0.00047131560859270394, 0.0014283914351835847, -0.0006411366630345583, 0.0005161452572792768, 2.6366511519881897e-05, -0.0005827553104609251, -0.0016080057248473167, 0.0016611672472208738, 0.30910050868988037, -7.444572111126035e-05, 0.0013703489676117897], [1.804475141398143e-05, -2.546814357629046e-06, -3.230064612580463e-05, 5.762182627222501e-05, -5.6370190577581525e-06, -2.8665588615695015e-05, -0.00012578294263221323, 0.00010125664994120598, 0.0013270842609927058, -0.00027961962041445076, 5.1128241466358304e-05, -5.318085641192738e-06, -0.0005193627439439297, 2.6661161882657325e-06, 0.0003861291625071317, 2.3830195061691484e-07, -8.695646101841703e-05, -9.866176696959883e-05, -5.479716492118314e-05, 2.041612970060669e-05, -0.0007052671862766147, -0.00011058498785132542, 0.0018776622600853443, -6.40853977529332e-05, -0.0007157681975513697, -7.056533490867878e-07, 1.9875738871633075e-05, 5.549462002818473e-05, -0.00389538099989295, -0.00041732113459147513, -0.005208958871662617, -4.760391675517894e-05, -3.592477150959894e-05, -0.00012479913129936904, -7.003610517131165e-05, -0.00010007677337853238, 2.7772564408223843e-06, -4.6715890675841365e-06, 6.266946729738265e-05, 1.60291456268169e-05, 0.0015948530053719878, 8.444359991699457e-05, 5.968925620436494e-07, 0.0003734380879905075, -0.0002992992813233286, -0.005639899056404829, -2.0154477169853635e-05, 0.0002971052599605173, -1.4290168110164814e-05, 2.2345175239024684e-06, -0.000108649670437444, -0.00011780791101045907, 3.4916429285658523e-05, 9.91249835351482e-05, 3.323438431834802e-05, 0.0003206899273209274, -1.0672832104319241e-05, 0.00032967148581519723, -1.220779085997492e-05, -1.6977528503048234e-05, -6.406498869182542e-05, 0.00033630841062404215, 0.0003743930137716234, -2.0038001821376383e-05], [-5.699366283806739e-06, 9.403934200236108e-06, -4.8766455620352644e-06, 2.0862474059413216e-07, -7.686034223297611e-06, 2.728227264015004e-05, -1.4595297216146719e-05, 1.6001053154468536e-05, 9.57143129198812e-05, 9.097246947931126e-05, 2.1357509467634372e-05, -4.3378181544539984e-06, -6.0928974562557414e-05, -4.913141538054333e-07, 1.5146720215852838e-05, -2.9134978873912587e-08, -2.0286252322421205e-07, 3.2497900974703953e-06, -1.959431529030553e-06, -2.5313013338745805e-06, -3.8832396967336535e-05, -2.300612504768651e-05, 2.275845872645732e-05, -1.6899624824873172e-05, -8.558438275940716e-05, -7.861571248213295e-06, 6.910353818057047e-07, 5.052927735960111e-05, -0.00025739235570654273, 3.3987780625466257e-06, -0.00013803383626509458, 6.724679678882239e-06, 1.1937615454371553e-05, 2.0768711692653596e-06, -1.399527354806196e-05, -5.8978612287319265e-06, 1.5335142222738796e-07, 2.5660713731667784e-07, 2.2398453438654542e-05, 5.666077527166635e-07, 4.2830964957829565e-05, 1.0996971468557604e-05, 4.3566538465711346e-07, 5.2147461246931925e-05, -2.53113958024187e-05, -6.135730654932559e-05, 2.9707518933719257e-06, 2.0569079424603842e-05, -1.5504407201660797e-05, -1.3932425417806371e-06, -6.929769824637333e-07, -7.409235422528582e-06, 1.1415300832595676e-05, 1.558372787258122e-05, -7.6047235779697075e-06, 1.3202412446844392e-05, 8.01401438366156e-06, 8.363792585441843e-05, -7.068265972520749e-07, 4.041741249238839e-06, -8.766182872932404e-06, 0.00012977916048839688, 5.474701902130619e-05, 2.336961415494443e-06], [1.5685347989347065e-06, -2.7533938009582926e-06, 7.255162472574739e-06, -6.109638661655481e-07, -1.0314176506653894e-05, -1.1206626368220896e-05, 2.8826375455537345e-06, 1.9628445443231612e-05, -1.803660961741116e-05, -7.382795593002811e-05, 2.588753886811901e-05, -1.110906055146188e-06, -1.910256833070889e-05, 6.603085722645119e-08, 4.116064701520372e-06, -4.574243561705771e-08, 4.455206180864479e-06, -6.0141278481751215e-06, 5.178453193366295e-06, 1.6702518905731267e-06, -1.1207579518668354e-05, -1.1469750461401418e-05, 0.00020609489001799375, 1.0997296158166137e-05, -0.00012440276623237878, -6.845377356512472e-06, -3.5497021144692553e-07, 3.0313884735733154e-07, -0.0002930322370957583, 8.460404387733433e-06, -0.0002559474087320268, -4.392188202473335e-05, 5.1323850129847415e-06, -1.1283155799901579e-05, -1.843396239564754e-05, -9.596794825483812e-07, 2.9328742812140263e-07, 2.055389813904185e-06, 1.8310194718651474e-05, 1.5897667537956295e-07, 0.00023937896185088903, 2.7292046070215292e-05, -2.2900347573795443e-07, 2.3038352082949132e-05, -3.4494813007768244e-05, -0.00018076863489113748, -2.2083679596107686e-07, 2.4031707653193735e-05, 5.015216629544739e-06, 1.1874615211127093e-06, 5.076905722489755e-07, -7.506491783715319e-06, 1.8706212358665653e-05, 6.255733296711696e-06, 4.867408733844059e-07, 6.784692686778726e-06, -5.063142907602014e-06, 4.2117739212699234e-05, 8.503601520715165e-07, 9.794873221835587e-06, -2.6647943741409108e-05, -8.524631994077936e-05, 3.1495113944401965e-05, 3.933866992156254e-06], [-1.8903101306477765e-07, 3.951505789245857e-07, -7.94991592556471e-06, 1.27853684261936e-06, -3.512581997711095e-06, -6.762299108231673e-06, -4.017943410872249e-06, 2.1493771782843396e-05, 3.5728524380829185e-05, 6.925617344677448e-05, 1.731643897073809e-05, -1.0409657988930121e-06, -9.526156645733863e-06, 3.6240487588656833e-07, 1.6148153008543886e-05, -5.237783984313182e-09, -7.38882022233156e-07, -3.0899450393917505e-06, 3.5128443869325565e-06, 8.251487884081143e-07, 1.9296007849334273e-06, -7.412354989355663e-06, 7.745912444079295e-05, 7.596581212965248e-07, -7.94043626228813e-06, 8.687747765634413e-08, -1.44121884204651e-06, 2.8044285500072874e-05, -0.00011677099246298894, -1.0583188668533694e-05, -0.00011629197979345918, 5.642972610075958e-06, -1.3408920267465874e-06, -6.319142812571954e-06, 1.5080913726706058e-06, 2.831920369317231e-07, -4.0738032680565084e-07, 3.3560533552190464e-07, -4.943503313370456e-07, 7.80284949541965e-07, 5.578294803854078e-05, 5.643358690576861e-06, 6.937953145325082e-08, 1.0283375786457327e-06, 1.664590399741428e-06, -9.488969226367772e-05, 2.9986563276906963e-07, 1.7712573026074097e-05, 1.5966913906595437e-06, 1.4585572216674336e-07, -1.4897595065122005e-05, -4.9901277634489816e-06, -5.409533514466602e-07, 6.065225079510128e-06, 1.5988941868272377e-06, 3.4453025818947935e-06, 1.419053091922251e-06, 8.305475603265222e-06, 1.0951252704671788e-07, 4.875495051237522e-06, -6.318897249002475e-06, 3.283519617980346e-05, 5.48208981854259e-06, -8.130281230478431e-07], [1.9664815908981836e-07, 2.621392013679724e-06, -3.544538230926264e-06, 7.721471888544329e-07, 3.53561716792683e-07, 1.2317305845499504e-05, 9.088071237783879e-07, 1.2742216313199606e-05, -3.7367819459177554e-05, 5.8397636166773736e-05, 5.352896437216259e-07, -1.3719058244987536e-07, -1.2824423720303457e-05, 8.815090524194602e-08, 1.6591716303082649e-06, -2.1632372337876404e-08, 7.108115482878929e-07, -1.2887174989373307e-06, -2.3210591280076187e-06, -1.9146882550558075e-06, 3.671027855034481e-07, -7.64387095841812e-06, 3.360105256433599e-05, 7.604681968587101e-07, 6.5371023083571345e-06, 1.714855635270851e-08, -8.236526696236979e-07, 6.9520938268397e-06, 2.3014550606603734e-05, 1.9733138287847396e-06, -0.00010843081690836698, -3.1057097658049315e-06, -3.778040081670042e-06, -9.557090834277915e-07, 1.0464665578524546e-08, -3.2447860576212406e-07, -4.9979995253579546e-08, 1.4638823131463141e-06, 6.1571854530484416e-06, -2.880298950458382e-07, -2.825530646077823e-05, 4.744936177303316e-06, -9.552068291895921e-08, 5.501869054569397e-06, -2.8965748697373783e-06, -3.890602965839207e-05, 1.2562811662064632e-06, 5.944385179645906e-07, -5.643579470415716e-07, -2.516875099445315e-07, 3.6462805041992397e-07, -2.396115519331943e-07, -5.147442152519943e-07, -2.091960368488799e-06, 3.061609277210664e-06, 1.9333697309775744e-06, -3.343916432640981e-06, 1.261296631582809e-07, -7.381516979876324e-07, 3.5783173188974615e-06, -4.296512088330928e-06, 1.4390560863830615e-05, 8.921121661842335e-06, 2.2108073949311802e-07], [-2.9701250348068697e-09, -3.357842892626195e-09, 3.066792153560982e-09, 1.555757833671123e-08, -1.6890574272565573e-08, -3.3545330069273405e-08, 1.1424008405924724e-09, 1.2607127786168348e-08, -2.231157765208991e-07, 3.9627835235478415e-07, 6.166631294490799e-08, -2.025820933226896e-08, 2.0402023892529542e-07, 1.3374951146616354e-09, -6.320856282826526e-09, -2.9595495498746516e-10, -2.251965502964026e-09, -5.450680973240196e-08, -3.758471933679175e-08, 4.2100273267564603e-10, 1.7627717951995692e-08, -7.415016511913564e-07, -2.821127793595224e-07, -1.4478862553346517e-09, -1.348132343537145e-07, 2.5295054939533657e-09, -6.58557119948e-09, 2.3939495008562517e-07, -7.425055059684382e-07, 3.712854024229273e-08, -3.0492660698655527e-06, -9.311959203728293e-09, -2.6041210077210053e-08, -7.4062111998784985e-09, -4.1288444663223345e-08, -2.1895917967640344e-08, 3.0145050899932357e-09, -1.539090299651491e-09, 1.9438516574155074e-08, 1.116163250713953e-08, 3.651618669664458e-07, 6.008208686125727e-08, 3.784535879125528e-11, 4.8003592212353396e-08, 7.302884075244265e-09, -2.2125102532299934e-06, 6.020772769232963e-09, 7.999601336905471e-08, -1.1200914862286027e-08, -1.6660751667174623e-09, 2.477642979670236e-08, -6.320204803955676e-09, 1.7633604798561464e-08, 8.258523109816451e-08, 1.0613508960588547e-09, 1.551771156016457e-08, 3.301648066056373e-09, 3.213005683733172e-08, -5.195917029965358e-09, 5.120898816102226e-09, -1.2222712086895626e-07, 3.49121989984269e-07, -1.2580066766076925e-08, -5.371069367043901e-09], [-5.543499810301e-07, -1.32565503463411e-06, 1.3530283240470453e-06, 9.691329978522845e-07, 1.7546791468703304e-06, -3.3544129109941423e-06, 9.234314006789646e-07, 6.669786785096221e-07, 4.387928856885992e-05, 1.8741158783086576e-05, -2.60252727457555e-06, 2.6705066602517036e-07, 1.647707358642947e-05, 1.4219013522165369e-08, 5.566292884395807e-07, 2.9668466794419146e-08, 7.990253720890905e-07, -5.302637873683125e-06, -1.3273689773996011e-06, 3.108910391347308e-07, -4.474454271985451e-06, -1.3791182027489413e-05, -3.561123594408855e-05, 3.716622529736924e-07, -6.5885346884897444e-06, 3.066704152843158e-07, -4.923979304294335e-07, 8.95091852726182e-06, 3.805312644544756e-06, -3.572734613044304e-06, -7.750165241304785e-05, -9.685452823759988e-06, 2.774861741272616e-06, 2.161113172860496e-07, -3.8675281643918424e-07, -1.119943135563517e-06, -1.7980995892230567e-07, 1.0295869969922933e-06, 1.6528525748071843e-06, -6.940619527995295e-07, -1.6813992260722443e-05, -9.20644424695638e-07, 1.5516661733272485e-07, 3.366808343230332e-08, -8.315461741403851e-07, 1.4283818927651737e-05, 2.2987292425113992e-07, 4.149847882217728e-06, 3.069916090225888e-07, 1.9222350999825721e-07, 7.471034564332513e-07, -2.0329587187006837e-06, -6.6936216569502e-08, -1.0164342256757664e-06, -6.500734457404178e-07, 1.8610784309203154e-06, -4.821631023332884e-07, 6.941265382920392e-06, 2.9042078608654265e-07, 4.2568344724713825e-06, -3.598712510211044e-06, 3.330606341478415e-05, 2.433953568470315e-06, 2.716935796343023e-07], [4.449930202099495e-06, 1.0063741683552507e-05, 1.1173159691679757e-05, 9.612058420316316e-06, 5.240742211753968e-06, -3.7605323086609133e-06, 1.5961916233209195e-06, 7.201023981906474e-05, 0.00019892622367478907, 2.6936446374747902e-05, -5.068643076810986e-06, -6.680915021206602e-07, -1.4197662494552787e-05, 5.953635096034304e-08, -7.903575351519976e-06, -7.906317733841206e-08, -3.521931830618996e-06, 1.0550555998634081e-05, 6.413778010028182e-06, -4.87354463984957e-06, 8.18372257072042e-07, -0.00012396485544741154, 5.260015677777119e-05, -9.566561857354827e-06, 1.0950531759590376e-05, 4.078427537024254e-06, 4.55813676580874e-07, -1.5886325854808092e-06, -0.00018144739442504942, -5.538366849577869e-07, -0.0002925564767792821, -4.7121266106842086e-06, 5.479234914673725e-06, -9.361272532260045e-06, -1.4776873285882175e-05, -4.530340447672643e-06, 3.091884650530119e-07, -1.2402778359899003e-08, 8.715068361198064e-06, -1.6257927200058475e-06, 0.00027704949025064707, 1.7909210328070913e-06, 1.2524909109856708e-08, -7.8291013778653e-06, 1.5074782822921406e-05, -0.00012111479009035975, 4.020741471322253e-06, 5.9653712014551274e-06, 2.2480903680843767e-06, 6.094043669691018e-07, 1.329598126176279e-05, 8.387943353227456e-07, 9.233613127435092e-06, -7.921058795545832e-07, 2.700747472772491e-06, -5.252289611235028e-06, -1.024305856844876e-05, -1.9280845663161017e-05, 4.007609177847371e-08, 1.4660167835245375e-06, 9.489474905421957e-06, 8.208046347135678e-05, -1.1747209100576583e-05, 1.328030975855654e-06], [-9.429602982891083e-07, 8.749114499551069e-07, 1.2597095064847963e-06, 1.464722600985624e-07, -2.539425395298167e-06, 4.974318471795414e-06, -1.3827519751430373e-06, 4.891969069831248e-07, 1.816259555198485e-06, -4.7839708713581786e-05, -2.1919154278293718e-06, -1.0571637432121861e-07, -1.6707466784282587e-05, -5.304733718958232e-08, 2.348697876186634e-07, -2.9527791767236522e-08, -7.307382361432246e-07, 3.0959922696638387e-06, 4.631731826520991e-06, 4.5736277343166876e-07, 7.130668564059306e-06, -4.41717838839395e-06, 8.004324627108872e-05, 1.3780766039417358e-06, 7.267798537213821e-06, -8.462049549962103e-07, 9.431570333617856e-07, 2.37631393247284e-05, -0.0001264077436644584, 3.6394217772794946e-07, -0.0001396019069943577, 1.9670169422170147e-06, -4.4735199367096357e-07, 1.7972879504668526e-06, -3.7975416944391327e-06, -5.473852411341795e-07, -4.420064314558658e-08, -1.631337113394693e-06, -1.4107818060438149e-06, -1.6443605090898927e-06, 4.416828232933767e-05, 4.194623215880711e-06, 5.3710870417944534e-08, 1.0473829206603114e-05, -7.219713552331086e-06, -0.0001452071446692571, -8.968298743639025e-07, -2.1688870219804812e-06, -3.5408602343522944e-06, 6.379934802680509e-08, 9.157221825262241e-07, 9.116700994127314e-07, 5.104152833723674e-08, 6.805598331993679e-06, -2.603963139335974e-06, 1.6906902828850434e-06, -6.117736575106392e-07, -4.912205895379884e-06, 3.1762911589794385e-07, 8.148071174218785e-06, -5.058961605186596e-08, 2.6206929760519415e-05, 1.7595060853636824e-05, -9.954685538104968e-07], [-0.0007289948989637196, -0.0012363010318949819, 0.0028596401680260897, 0.0010364828631281853, 0.0006469812360592186, -0.0010259763803333044, -6.242080416996032e-05, -0.0005637481226585805, -0.00956125557422638, -0.0886736810207367, -0.00197156285867095, 0.00017233121616300195, -0.0019769868813455105, -3.25888795487117e-05, -0.0010019091423600912, 1.1628729225776624e-05, 0.004414204973727465, -0.0019464688375592232, -0.0018803076818585396, -0.000341151055181399, 0.0015334992203861475, 0.014260096475481987, 0.05790840461850166, 0.0006101487670093775, 0.008871441707015038, 0.0008595255203545094, -0.0014427296118810773, -0.006120511330664158, -0.009443433955311775, 0.0008280682377517223, 0.03866945579648018, 0.009329001419246197, -0.0021508843638002872, 0.0007381978794001043, 0.0010200650431215763, 0.00018596649169921875, 0.0002536410465836525, 0.001997685758396983, -0.0038480402436107397, 0.001124405418522656, 0.0732491984963417, -0.0019624296110123396, -2.5898867534124292e-05, 1.2091492180843488e-06, 0.0009056603885255754, 0.021200599148869514, 0.0013254540972411633, -0.002312642289325595, 0.0018051040824502707, 0.00075962720438838, 0.0020611046347767115, 0.0007402384071610868, -0.002483563730493188, -0.0020643791649490595, 0.002814696868881583, -0.0017459278460592031, 0.0013605094281956553, -0.0030086287297308445, -0.00038809224497526884, -0.00107575801666826, 0.0017058689845725894, -0.07562588155269623, -0.0004755904956255108, 0.0008558196714147925], [2.894487352023134e-06, -3.044707682420267e-06, -2.774565700747189e-06, 1.2598741250258172e-06, 1.3034449466431397e-06, 2.9389448172878474e-06, -1.7347878156215302e-06, 3.603645018301904e-05, 2.6952791813528165e-05, 2.3941422114148736e-05, 2.9656512197107077e-06, -1.1376641850802116e-06, -4.3001193262171e-05, -1.4017267346844164e-09, 4.747407729155384e-06, -4.8647731176743036e-08, -7.628818821103778e-07, 1.1646449820545968e-05, -3.4797956232068827e-06, -1.5994781961126137e-06, -1.4172653209243435e-05, -2.0967672753613442e-05, 0.00011552692740224302, -8.43038287712261e-06, -1.3197288353694603e-05, -3.9416906361111614e-07, -1.6456842786283232e-06, 8.234325832745526e-06, -0.00022653827909380198, -7.048935458442429e-06, -0.00020483825937844813, -3.998033662355738e-06, -4.286804596631555e-06, -1.918681118695531e-05, -1.7012773241731338e-05, -5.087180397822522e-06, 1.1028780022570572e-07, -2.588112693047151e-06, -2.0386994492582744e-06, -1.9273697944299784e-06, 0.0001154924466391094, 5.362131005881565e-08, 1.3525119868518232e-07, -1.5787933307365165e-06, -5.967374363535782e-06, -0.0002333824522793293, -1.938880586749292e-06, -1.4206555078999372e-06, -3.496804538372089e-06, -1.0045851013273932e-06, -1.2938292570652266e-07, -6.674176802334841e-07, -3.661503171770164e-07, -1.35204061280092e-06, 1.1623031426211128e-08, 8.509411600243766e-06, -2.2354758755227522e-07, 1.421318211214384e-05, 1.446533275384354e-07, 1.118094019147975e-06, -2.882305807361263e-07, -3.44852487614844e-05, 1.6394807289543678e-06, -2.2601695945922984e-06], [-1.4799813818910934e-08, 5.394545254944205e-09, -3.5307443635446134e-09, -2.1790885540440286e-08, -1.0316869136772766e-08, -4.963733601925924e-08, 2.0907853226503903e-08, 1.1311494851895532e-08, -2.0059115968251717e-07, 1.2153958550698007e-06, 4.1962792352023826e-08, -3.1873754746669647e-09, 9.810682399802317e-08, 3.657881775254168e-09, 1.0098649694256778e-09, -1.928835841047416e-10, 4.39939612517648e-10, 4.87172684415782e-08, 2.629933959497066e-08, -4.365525718696972e-09, -8.626655301213759e-08, -3.1163423841462645e-07, -1.213222233786837e-08, 8.399215767340706e-10, 3.409457605130228e-08, 5.089390242574154e-09, 3.407234316910035e-08, 6.091155313470153e-08, 3.7617283510371635e-07, -1.3363504969277074e-08, -8.112525620163069e-07, 4.216199833706469e-09, -1.9440387077906962e-08, -4.477571202698982e-09, 1.1260739896101768e-08, 3.507456991513891e-09, -1.7329540025201595e-09, -4.213409177111771e-09, -2.1113123693794478e-08, -1.7169242028103326e-08, -6.054206096450798e-07, 1.6427090798742938e-08, 1.8798198553326984e-09, 2.5890537713735284e-08, -9.521908594933848e-08, -4.909056201540807e-07, -3.157481742732671e-08, 1.159284668261762e-09, 3.215902566466866e-08, -4.283116972203516e-09, -2.9812948554308605e-08, -3.302288220652372e-09, 5.725863339023363e-09, 2.2872344018765034e-08, -2.720722847016077e-08, 1.7128822804579613e-08, -4.1566261543835026e-09, -1.4346581700408478e-08, 7.1251777811198735e-09, -1.766344404074971e-08, -1.7860983803075214e-08, 1.7255300690521835e-06, 7.21487722898928e-08, -6.862807655494407e-09], [3.449148096024146e-07, 2.028145536314696e-05, -5.305887316353619e-05, -7.343231118284166e-06, -5.386316388467094e-07, 5.144416354596615e-05, -4.409230314195156e-06, 8.140808495227247e-05, -2.6254890599375358e-06, -2.4017401756282197e-06, 1.2955701095052063e-05, 3.610371777540422e-06, -1.8294516848982312e-05, 1.2674391882683267e-06, 4.19345851696562e-05, 1.3500556406143005e-07, -5.083105861558579e-05, 0.00010631445184117183, 9.324520760856103e-06, -9.75115199253196e-07, -3.8584330468438566e-05, 0.00020863763347733766, 5.9362395404605195e-05, -4.981302481610328e-07, -4.3698040826711804e-05, -1.0291563739883713e-05, 1.62674823513953e-05, -7.713741979387123e-06, 0.00013008704991079867, 2.8412796382326633e-05, -0.00036454229848459363, -0.0001510116271674633, -7.085501465553534e-07, -4.451024506124668e-05, 3.6375154195411596e-06, -2.054369542747736e-05, -1.8471477005732595e-06, -1.2656198123295326e-05, -3.7198221889411798e-06, -2.9847262339899316e-05, -0.0002996077237185091, -1.463280796087929e-06, -2.1181034526307485e-07, 5.604312264040345e-06, -2.7950291041634046e-05, -0.00037216159398667514, -2.6698719011619687e-05, -1.032762725117209e-06, -1.0019883120548911e-05, -7.783782166370656e-06, -5.614314432023093e-05, -2.5725867089931853e-06, 2.0542312029192544e-07, 3.3053013339667814e-06, -3.0684303055750206e-05, 2.498484536772594e-05, -2.2772197553422302e-05, 5.2769522881135345e-05, -3.6489482226897962e-06, -2.5522638225083938e-06, -8.732607057027053e-06, 0.0005245833308435977, 1.1830408766400069e-05, -7.468532203347422e-06], [1.2381245142023545e-05, -1.1421234376030043e-05, -2.5648561859270558e-05, 6.017070518282708e-06, 3.694836550494074e-06, 7.940178329590708e-05, -3.2513660698896274e-05, 0.00010059643682325259, -9.835729724727571e-05, -0.0003214525349903852, 1.2764437997248024e-05, 4.3091199586342555e-06, -7.113201718311757e-05, 1.700949383121042e-06, 1.0414246389700565e-05, 1.337336357210006e-07, 1.2230799256940372e-05, 6.228661368368194e-05, 1.4885159544064663e-05, -4.105549123778474e-06, -1.8263563106302172e-05, 0.00010842471237992868, 0.00018236508185509592, -0.00013769094948656857, 5.825855168950511e-06, -1.53634900925681e-05, 1.0256767382088583e-06, -8.722155143914279e-06, -3.3876363886520267e-05, 1.6262489225482568e-05, -0.00032673985697329044, -7.036007446004078e-06, 2.3158763724495657e-05, -4.707996140496107e-06, 1.2999412319913972e-05, -2.68366165983025e-05, -1.2033142411382869e-06, 6.856408163002925e-06, -1.839520518842619e-05, 1.3705830497201532e-05, -0.00038312701508402824, 1.7022683778122882e-06, -4.967280915479932e-07, 5.706354386347812e-06, -1.532029091322329e-05, -0.0005513786454685032, 9.974558452086058e-06, -2.3402684746542946e-05, -1.9758475900744088e-05, -8.193040230253246e-06, 9.46693580772262e-06, -5.723422418668633e-06, -1.079898083844455e-06, -7.811673299329414e-07, -1.5664065358578227e-05, 6.20668797637336e-05, 3.0235978556447662e-05, -2.414400842098985e-05, -8.32682508189464e-06, 8.997112672659568e-06, -3.4417203096381854e-06, 0.0001564080739626661, 1.3294854397827294e-05, 1.694560887699481e-05], [0.00077898392919451, 0.0011323686921969056, -0.0038847976829856634, -0.0020148777402937412, 0.00020390520512592047, 0.004747651517391205, -0.0011497181840240955, 0.004755678586661816, -0.07355263084173203, -0.05448243394494057, 0.0028691994957625866, 0.00047294149408116937, -0.010307284072041512, 0.00032250117510557175, 0.004231399390846491, 2.5944063963834196e-05, -0.005747993476688862, 0.004198962356895208, 2.8892967748106457e-05, 0.0012411000207066536, -0.004588129930198193, -0.003990880213677883, 0.09030675143003464, -0.0038336541038006544, -0.006724322214722633, -0.0015044145984575152, 0.0015300498344004154, 0.0071426681242883205, 0.015558917075395584, -0.0031001954339444637, 0.06451284140348434, -0.01073821634054184, 0.0029943331610411406, -0.0033631271217018366, -0.0016639863606542349, -0.0014748336980119348, -0.00032846612157300115, -0.0007995624328032136, 0.0032577707897871733, -0.002084080595523119, -0.0016307967016473413, 0.0027105160988867283, -0.00016227354353759438, 0.003108876757323742, -0.003707258263602853, 0.04246836155653, -0.002455673646181822, 0.0025640474632382393, -0.0030197002924978733, -0.0004123737453483045, -0.003427034243941307, -0.0010445989901199937, 0.0021099259611219168, 0.002439754782244563, -0.006117831449955702, 0.001806451240554452, -0.001825740560889244, -0.001269002677872777, 0.0004708449123427272, 0.0007208139868453145, -0.002912866184487939, -0.13271842896938324, 0.004876131657510996, 0.001380982343107462], [6.023971081958734e-07, 1.7131051777141693e-07, 1.5244778523992863e-06, 4.281421752239112e-06, -3.321240683362703e-06, 9.815813655222883e-07, -9.715445230540354e-07, -5.907423201279016e-06, 4.934765456710011e-05, 3.1371509976452217e-05, 1.8322316464036703e-05, 6.536375849464093e-07, -4.120246376260184e-05, 1.6810237468689593e-07, -1.641928520257352e-06, -1.3816727761906122e-09, 5.240147402219009e-06, -1.3121925803716294e-05, 2.682752210603212e-06, -1.9289584543003002e-06, 1.250717104994692e-06, -1.1678719147312222e-06, 0.00017165238386951387, -1.8391100411463412e-06, 3.7634329146385426e-06, 1.0146899285246036e-06, 3.7042212852611556e-07, -1.604040153324604e-05, -0.0002599616127554327, 9.798770861380035e-07, -0.00033093770616687834, 1.999497544602491e-05, -3.926421868527541e-06, -4.62603850337473e-07, -9.338069503428414e-06, 1.111702431444428e-06, 2.8645359861911857e-07, 5.190738647797843e-07, -4.078329766343813e-06, -5.441452799459512e-07, 0.00016683035937603563, -2.519807594580925e-06, 2.6056622459691425e-07, 1.741009509714786e-05, 1.1178921113241813e-06, -0.00024439211119897664, 8.411553267251293e-07, -2.4863884391379543e-06, -3.3941923902602866e-06, 5.237404252511624e-07, 2.700089225982083e-06, -6.459579708462115e-06, -2.277510930071003e-06, 9.474742000747938e-06, 2.9955272111692466e-06, -9.541306553728646e-07, -2.9230179166006565e-08, 2.323916078239563e-06, 4.1065362665904104e-07, 7.729961907898542e-06, -4.751363576360745e-06, 0.00010031634155893698, 2.3850883735576645e-05, -1.6594551652815426e-06], [-3.288319703642628e-06, -1.4464841115113813e-05, -1.2175298707006732e-06, 8.461859124508919e-07, 1.3727332088819821e-06, -3.566424493328668e-05, 1.2688407878158614e-05, 4.011221608379856e-05, -9.08188012544997e-05, -4.917125261272304e-05, -1.0892338650592137e-05, -7.363989880104782e-06, -2.2527616238221526e-05, -3.4466935971977364e-07, -3.53988593815302e-06, 4.0227778441703776e-08, 1.5198406799754594e-05, -2.1584322894341312e-05, -7.480886324628955e-06, -1.2086421747881104e-06, -1.2554313798318617e-05, -7.841030310373753e-05, 4.5957145630382e-05, -2.997558294737246e-05, -5.183880148251774e-06, 8.624110705568455e-06, -6.440291144826915e-06, 7.464490408892743e-06, -0.0007304608589038253, -5.87946215091506e-06, -0.00014850185834802687, 4.236628228682093e-06, -2.5976596589316614e-06, 4.858795364270918e-06, -1.87080581781629e-06, -5.745970156567637e-06, -5.961314286651032e-07, -1.8581930589789408e-06, -1.0497054063307587e-05, -1.5812020137673244e-06, 0.0002903880085796118, 1.76164144249924e-06, 5.098356723465258e-07, 1.2186468666186556e-05, 2.2088715923018754e-05, -0.00023908419825602323, -6.152364449008019e-07, -2.1222875147941522e-05, 1.9316862562845927e-06, -1.9082715141394146e-07, 5.3859052968618926e-06, -3.169384399370756e-06, -3.803217623499222e-06, 8.465637620247435e-06, 1.1795044883911032e-05, 1.4084218946663896e-06, -3.9014025787764695e-06, 2.3850161596783437e-06, 3.614721890699002e-06, 2.5720046323840506e-06, 1.5005633031250909e-05, 4.656328746932559e-05, -1.2488116226450074e-05, -3.4407523799018236e-06], [-3.587045512176701e-06, 3.2313957376572944e-07, 5.823856099596014e-07, 3.1337544896814507e-06, -8.272523700725287e-06, 8.784509191173129e-06, 1.0717709528762498e-06, -9.706632226880174e-06, -2.079811747535132e-05, -0.00025203012046404183, 3.069956073886715e-05, -6.758392032679694e-07, -3.84199847758282e-05, -3.8947352010154646e-08, -4.811740836885292e-06, -1.3831170520006708e-07, 9.862604883892345e-07, -5.4592828746535815e-06, 5.087945282866713e-06, 3.3328462905046763e-06, -7.513420860050246e-05, -4.539799192571081e-05, 8.304534276248887e-05, 1.577982766320929e-05, -0.0001467913098167628, -2.2939839254831895e-06, -1.225973619511933e-06, 3.079927773796953e-05, -0.0003050947852898389, 7.011071261331381e-07, -0.000415121583500877, 1.412478127349459e-06, -3.2333682042917644e-07, -3.2163728747036657e-07, -8.50110336614307e-06, -3.613222361309454e-06, -4.625411520464695e-07, 2.0730360574816586e-06, -4.214741238683928e-06, -7.71486884332262e-06, -2.4975295673357323e-05, -5.181263986742124e-06, 3.112273816441302e-07, 2.1485137040144764e-05, -4.774323679157533e-05, -0.00047604835708625615, 2.4189969280996593e-06, 7.545491371274693e-06, 4.182797056273557e-06, 4.6124128516567e-08, 1.344319343843381e-06, -1.2229055755597074e-05, 4.776328751177061e-06, 2.0586259779520333e-05, -1.1470564459159505e-05, 1.1162564561573163e-07, -4.071053353982279e-06, 7.352782267844304e-05, 2.5110255137406057e-06, 1.93447049241513e-05, -2.4968641810119152e-05, 8.032796904444695e-05, 6.501864845631644e-05, 4.201658612146275e-06], [1.0112731274602993e-07, -1.1066772032108929e-07, 5.9544994712723565e-08, -2.8429536058638405e-08, -1.9259621453215914e-08, -2.5233117639800184e-07, 4.8778733940935126e-08, -3.8386548339985893e-07, 5.237163350102492e-06, 3.862864559778245e-06, 3.754457793547772e-07, 6.699184496028465e-08, -3.4919626159535255e-06, 1.325549892072786e-08, -5.5182990621460704e-08, 2.158365708382348e-09, -1.228268331487925e-07, -2.465357029635129e-09, 3.284875447207014e-07, 1.0537706174318373e-07, -5.804801617159683e-07, -8.3011934748356e-07, 1.2977165170013905e-05, -4.965442030879785e-07, 5.935887870123224e-08, -7.006862290381832e-08, 3.035005491369702e-08, 2.4200471671065316e-07, -1.7004580513457768e-05, 1.1454724102577529e-07, -1.2121010513510555e-05, -6.580494726904362e-08, 7.305827409709309e-08, 9.017037427838659e-08, -2.79556573445916e-08, 9.775771303566216e-10, -1.897360490943356e-08, 3.42869768132914e-08, -2.2587509818094986e-07, -1.1626221407823323e-07, 1.4127309441391844e-05, -8.458412992240483e-08, -3.630189482350943e-10, 2.2178147673912463e-07, 3.31193035663091e-07, 5.858640292899508e-07, -1.2735316090584092e-07, 1.9738986338779796e-06, -3.2835669117048383e-07, -5.819331505563241e-08, 4.906575767904542e-08, -2.616646987974036e-08, -5.998806074103413e-08, 8.217035656343796e-07, -2.8892540626657137e-07, -2.3479849176055723e-08, 1.2642895796943776e-07, 3.3453255809945404e-07, 2.2835697777168207e-09, 1.0604136235770056e-07, 1.1275810862798608e-07, -2.9518291739805136e-06, -1.0777093661928916e-09, 1.1526721976906629e-07], [-5.238753146841191e-07, 1.0577878128970042e-06, 7.667045792913996e-06, 1.0005088370235171e-05, -1.0352396202506498e-05, -1.670031633693725e-05, 6.272346126934281e-06, 4.5959728595335037e-05, 0.00012393393262755126, 0.00015633863222319633, 5.2610157581511885e-05, -3.544285505086009e-07, -9.707377466838807e-05, -2.2877350147609832e-07, -5.620519004878588e-06, -7.296802095879684e-08, 1.3231473531050142e-05, -5.975009571557166e-06, 9.653800589148887e-06, 2.842047479134635e-06, 1.1919185453734826e-05, -7.291120709851384e-06, 0.0004985635168850422, 2.9692985208384925e-06, 8.750227607379202e-06, 4.393546987557784e-06, -3.2520365493837744e-06, 0.00010371409734943882, -0.0006167298415675759, 1.003390752885025e-05, -0.0006047734641470015, -0.0001643994910409674, -9.269539987144526e-06, 7.151733370847069e-06, -2.4124232368194498e-05, 2.1113999082444934e-06, 7.226509524116409e-07, -1.030441467264609e-06, -3.710223097641574e-07, 6.9612251536455005e-06, 0.000468583544716239, 1.149187210103264e-05, -3.134273356408812e-07, 3.742066473932937e-05, -4.9265210691373795e-05, -0.0005301127093844116, 3.86834062737762e-06, -1.185464770969702e-05, 6.945889708731556e-06, 2.7536600555322366e-06, 1.2282534044061322e-05, -1.924168100231327e-05, -4.804209766007261e-06, 2.863086774596013e-05, 1.1142300536448602e-05, -2.070370328510762e-06, 5.19825198352919e-06, -1.9677248928928748e-05, -1.0805391639223672e-06, 2.6511666874284856e-05, -2.9564183932961896e-05, 0.00011577273107832298, 7.18088194844313e-05, -3.4470622267690487e-06], [8.294761641991499e-07, 1.245455109710747e-06, -3.364063559274655e-06, -4.1271226791650406e-07, -2.243304777493904e-07, 5.2890209190081805e-06, -1.4602734381696791e-06, 4.493926098803058e-06, 8.545002856408246e-06, -4.783219537785044e-06, 5.165891252545407e-07, -3.3410947253287304e-07, -6.001887868478661e-06, 6.936725327477689e-08, 1.4813241477895644e-06, 5.7328657376842784e-09, -7.677867870370392e-06, 7.897844625404105e-06, -3.4827576200768817e-07, -1.2557894990550267e-07, -1.1695727835103753e-06, 7.880204975663219e-06, 2.2300540877040476e-05, -5.64946276426781e-06, -1.52768211592047e-06, -1.5085088307387196e-06, 1.596302922735049e-06, -4.919263005831453e-07, -3.147832103422843e-05, -2.3441957637260202e-06, -1.9531978978193365e-05, -1.2200601304357406e-05, 3.512987177600735e-06, -3.997720341430977e-06, -2.385213292654953e-06, -1.6048059023887618e-06, -1.9816849317066954e-07, -1.8258460841025226e-06, 9.245762377929623e-09, 3.8533696056219924e-07, 1.7493950508651324e-05, 1.1575232150562442e-07, -6.637822735910959e-08, 3.560185746209754e-07, -6.81668211655051e-07, -4.0616305341245607e-05, -2.244284587504808e-06, 6.69054145419068e-08, -2.7138426048622932e-06, -4.6987415203147975e-07, -9.106688025894982e-07, 3.349991395396046e-09, 5.643460454507476e-08, -1.535235583105532e-07, -4.542975602817023e-06, 3.6653559618571308e-06, -2.242120444861939e-06, 1.4219239119483973e-06, 7.154999934755324e-07, -2.1751402812242304e-07, -3.003590620664909e-07, 5.916790996707277e-06, 4.826376311939384e-07, -6.202766940077709e-07], [-4.2259154042767477e-07, -2.4189984060285497e-07, -2.1388136701716576e-06, -8.002032245713053e-07, -2.2814806754922756e-07, 4.768990606862644e-07, 2.528100218057716e-08, 3.914447006536648e-06, 2.3938995582284406e-05, 6.433507951442152e-05, 7.299896083168278e-07, -4.486234672640421e-07, -1.8087754142470658e-05, 3.252151969945771e-08, 4.6221663296819315e-07, 7.585064520920781e-11, -2.6303669073968194e-06, 2.558275582487113e-06, 1.476647781828433e-08, -6.847871532045247e-07, -2.9667155558854574e-06, 2.1563557311310433e-05, 4.333764809416607e-05, -1.5191949032100638e-08, -8.006470125110354e-06, -1.3299775218911236e-06, -4.4268779220146826e-07, 5.3333155847212765e-06, -8.893591439118609e-05, -1.172791371573112e-06, -6.59411889500916e-05, -5.6821268117346335e-06, -6.446483666877612e-07, -2.2645474473392824e-06, -2.8664999263128266e-06, 6.104052374666935e-08, -2.1840816089024884e-07, -2.0505716236129956e-07, 4.534064828476403e-06, -1.7333329083157878e-07, 0.0001160485771833919, 5.303305101733713e-07, -1.218743648223608e-07, 1.008733079288504e-06, 5.025667633162811e-07, -5.860248620592756e-06, -2.3963107764757297e-07, -1.4094844402734452e-08, -9.125497513196024e-07, -5.719721798413957e-07, -1.4667282357549993e-06, -1.1818218581538531e-07, 2.9717664347117534e-06, 1.344788984170009e-06, -2.0008576484542573e-06, 7.466751981155539e-07, -6.726232015807909e-08, 3.816500338871265e-06, 4.352383342620669e-09, 1.3881294762541074e-06, 3.5208009308007604e-07, -1.0009492143581156e-05, 1.169937604572624e-06, 8.267938369499461e-07], [7.708355838076386e-07, 1.895512923510978e-06, -1.2607370990735944e-05, -5.936729849054245e-06, -1.2790042092092335e-07, 2.0592309738276526e-05, -9.774610589374788e-06, 4.0070696627481084e-07, 6.911279342602938e-05, 9.104917262447998e-05, 2.0068526396244124e-07, -1.063166678250127e-06, 5.591352419287432e-06, -2.3699520568243315e-07, 8.952583812060766e-06, -3.401104109457265e-08, -1.4224827282305341e-05, -1.1534705663507339e-05, 6.404002306226175e-06, -1.4302278259492596e-06, -5.756351129093673e-06, 7.58583155402448e-06, -4.615375291905366e-05, -4.603223715093918e-06, -7.383054253295995e-06, 5.9045959233117173e-08, 4.193200766167138e-06, 2.6241696104989387e-06, 0.00016182487888727337, -4.208126938465284e-06, -0.00020173903612885624, -1.6403442714363337e-05, 5.096207587484969e-06, -1.0869513289435417e-06, -3.928443220502231e-06, -6.328038125502644e-06, -1.3135928611518466e-06, -5.487959242600482e-06, 4.819122434440715e-09, -4.865546998189529e-06, -0.00017557335377205163, -2.2571180480213116e-08, 2.3934092041599797e-07, 9.95754362520529e-07, -5.410613539424958e-06, -0.00018779269885271788, -6.491899966931669e-06, 1.1842041658383096e-06, -1.1510297554195859e-05, -2.400809307800955e-06, -9.38953053264413e-06, 1.3188292768973042e-07, -4.532137154455995e-07, 1.9106012132397154e-06, -1.2322112524998374e-05, 6.029074938851409e-06, -5.021316155762179e-06, 8.522933967469726e-06, 2.2931558305572253e-06, 7.311894023587229e-08, 2.727156243054196e-07, 2.9108011290190916e-07, 5.045657189839403e-07, 9.754719940247014e-06], [-7.535556960647227e-07, -1.0774953125292086e-06, 1.0060823115054518e-05, 5.5933533076313324e-06, 1.8897308109444566e-06, -1.2226325452502351e-05, 3.5379305245442083e-06, 1.024136599880876e-05, -4.592926416080445e-05, 0.00012144064385211095, -4.092600647709332e-06, -6.712180606882612e-07, -7.12153414497152e-05, -2.9960599334799554e-08, 6.962641691643512e-06, 7.934417567412311e-08, 3.737354745680932e-06, -6.216126621438889e-06, -6.645732810284244e-06, 1.515192593615211e-07, -2.1421566998469643e-05, -1.2435012649802957e-05, 0.00040432371315546334, 3.9608212318853475e-06, -1.6971736840787344e-05, -2.495887940767716e-07, -2.0743814275192562e-06, 1.4314370673673693e-05, -0.0006743580452166498, -1.6639169189147651e-06, -0.0004170990432612598, 9.484432666795328e-06, -3.8716025301255286e-06, 7.59252088755602e-06, 1.5342045571742347e-06, -2.2944000193092506e-06, 2.705488952869928e-07, 1.0290342800090002e-07, -4.503793206822593e-06, 5.293794856697787e-06, 0.0004467530525289476, -2.180537421736517e-06, 2.5989722374220037e-08, -2.8622343961615115e-06, 2.9736886517639505e-06, -0.00020942086121067405, 3.5754446798819117e-06, 4.121721303818049e-06, 4.175048161414452e-06, -1.3163305538910208e-06, 7.117714176274603e-06, -1.579016497998964e-05, -1.892497834887763e-06, -5.813156349177007e-06, 1.6571049172853236e-06, 3.0997673547972227e-06, 4.379407982924022e-06, 3.002431731147226e-05, -2.350888735236367e-06, 1.887983955839445e-07, 9.260045317205368e-07, -0.00010616769577609375, -9.702573606773512e-07, -6.628313826695376e-07], [4.6664663955198193e-07, 1.2031943015244906e-06, 2.558080268499907e-06, -2.464210638208897e-06, -6.535969987453427e-06, 5.675253305525985e-06, -2.8803274290112313e-06, -1.1073772839154117e-05, -9.705750926514156e-06, -7.723193994024768e-05, 2.269328251713887e-05, -4.116337493087485e-07, -2.3018568754196167e-05, -5.988908213794275e-08, 1.5909953390291776e-06, -4.2787632992258295e-08, 3.188779373886064e-08, -1.7341048987873364e-06, -1.1248901046201354e-06, 3.7067227367515443e-06, -3.116936932201497e-05, -1.310248080699239e-06, 0.00014264676428865641, 6.250229944271268e-06, -5.968404730083421e-05, -8.605010748397035e-07, 1.8352121600173632e-08, 2.8979839044041e-06, -0.00020764868531841785, -4.12434337704326e-06, -0.00011596312833717093, -4.3924053898081183e-05, -4.928921043756418e-06, -6.620445219596149e-06, -1.4202071724866983e-05, -1.6372522395613487e-06, 1.6078081443993142e-07, 7.517253948208236e-07, 3.328983439132571e-05, -2.526585149098537e-06, 0.00013318545825313777, -1.340309836450615e-06, 1.176141921632734e-07, 8.202258868550416e-06, -8.319014341395814e-06, -6.300694076344371e-05, 2.088867177008069e-06, 7.805099812685512e-06, 2.020880629061139e-06, 5.693811431228823e-07, -4.0495592656952795e-06, -8.231913852796424e-06, 1.428285122528905e-05, 8.377263611691887e-07, -1.0484424819878768e-05, 2.3392374259856297e-06, 2.6991101549356245e-06, 2.7275251341052353e-05, 7.554473313575727e-07, 6.370823484758148e-06, -2.1734788333560573e-06, -6.0951264458708465e-05, 8.542714567738585e-06, -4.9075460992753506e-06], [-1.062713408828131e-06, -4.2331467398071254e-07, 2.9998108175277594e-07, 2.6811801490111975e-06, 5.682533696926839e-07, 9.186828719975892e-06, -3.473425977063016e-06, 3.6330138755147345e-06, 2.745178562690853e-06, -7.371357787633315e-05, 9.58888358582044e-06, -3.496477916087315e-07, -6.37064476904925e-06, -7.578029226351646e-08, 7.280256340891356e-06, 2.7300688376641347e-09, -2.1664056930603692e-06, 9.45905048865825e-06, 3.0365233669726877e-06, 5.87820522923721e-07, 4.229056230542483e-06, 2.3215859982883558e-05, 3.772353375097737e-05, -4.72055580758024e-06, -3.3397882361896336e-06, -2.9393931981758215e-06, 3.590777737372264e-07, -1.2964477491550497e-06, -8.438125951215625e-05, -2.6151240035687806e-06, -3.843551530735567e-05, 1.4283011751103913e-06, 2.7134226456837496e-06, -3.8174675864866003e-07, -7.0476639848493505e-06, -4.307612016418716e-06, 1.2872455101842206e-07, -1.6660824257996865e-06, -7.63170828577131e-06, -3.083189028529887e-07, 4.96073243994033e-06, -2.241766424049274e-06, 5.9460585788428943e-08, 1.6950649524005712e-06, -4.376557626528665e-06, -5.194796540308744e-05, -5.865447505470911e-08, 4.881389941147063e-06, -5.583927759289509e-06, -1.0136628816326265e-06, -3.6051034157935646e-07, -3.39223970513558e-06, 3.3496437481517205e-06, 3.0843464173813118e-06, -7.288361416613043e-07, 4.346311925473856e-06, -4.358349997346522e-06, 1.2855663044319954e-05, 3.025485852958809e-07, 4.2529891288722865e-06, 4.446627826837357e-06, -5.701273039449006e-06, 1.6409234376624227e-05, 1.3863569847671897e-06], [1.2048776625306346e-05, 3.1307488825405017e-05, -1.3561301784648094e-05, 2.2503742002299987e-05, -2.2689244360662997e-05, 0.00011539327533682808, -1.8149605239159428e-05, 0.00011109864863101393, -0.00013072088768240064, -0.0001629259204491973, 2.953678267658688e-05, -8.035072823986411e-06, 0.00032478701905347407, -4.12464078181074e-06, 3.1097388273337856e-05, 7.358986522376654e-07, -1.5039754543977324e-06, 6.350917101372033e-05, 7.746240953565575e-06, 1.1514577636262402e-05, 0.00014453793119173497, -0.0005845194100402296, -0.00012794359645340592, 4.0184459066949785e-05, 0.00015834475925657898, 1.8132783225155436e-05, 1.7197709894389845e-05, 0.00010661686974344775, 0.0005025687860324979, 3.2075563467515167e-06, -0.0006791975465603173, -1.4249125342757907e-05, 1.1241879292356316e-05, -6.794136425014585e-05, 2.291699274792336e-05, -2.910129478550516e-05, 1.9053354662901256e-06, 1.9218177840230055e-05, 3.481902967905626e-05, -5.469566076499177e-06, -0.0006393405492417514, -2.8151584047009237e-05, 1.9005590274900896e-06, 4.5221284381113946e-05, 9.739796951180324e-05, -0.0003059285518247634, -7.304039172595367e-06, 6.402929284377024e-05, 0.00010383861808804795, 5.900099949940341e-06, 2.3007834897725843e-05, 2.303774181200424e-06, 1.2929347576573491e-05, 4.378017365525011e-06, 4.639928738470189e-05, 1.6882579075172544e-05, -1.7023010514094494e-05, -7.82063725637272e-05, 8.215320121962577e-06, -4.989499757357407e-06, -1.9140388758387417e-05, 0.00037173149758018553, 4.328072827775031e-05, 1.357610472041415e-05], [-4.7521321988597265e-08, -1.8250249311790867e-08, 2.9596708372992e-07, 4.219890001877502e-07, -1.6074365305485117e-07, 5.665559683620813e-07, -2.227741191518362e-08, -1.4064523838897003e-06, 5.040134055889212e-06, -6.877978080410685e-07, 3.1276786103262566e-06, 4.3130793159207315e-08, 3.598634066293016e-07, -1.801969062853459e-08, -1.7276572350510833e-07, -9.432589820335124e-09, -1.2177497410448268e-07, 5.673884970747167e-07, -7.082184083628817e-07, 7.602084650670804e-08, 2.1183925582590746e-06, -9.333926982435514e-07, 1.2244347999512684e-05, 8.683879855198029e-07, -6.413646502778647e-08, -1.2344077049419866e-07, 9.719358473603279e-08, -8.494014309690101e-07, -8.497485396219417e-06, 5.283477548800875e-07, -8.541325769328978e-06, 7.387196774288896e-07, 1.5817482790225768e-07, -7.904878174258556e-08, -5.814273063009523e-09, 9.499145647851037e-08, 1.3284099154020623e-08, -2.0296867830893461e-07, -4.4801652165915584e-07, -1.563408744686967e-07, 5.582454036812123e-07, 7.533733423770173e-07, -2.1462810195771453e-08, 1.3559368881033151e-06, 6.149152795842383e-07, -1.2315877938817721e-05, -1.555992810153839e-07, -5.124023516600573e-08, -2.7552997039492766e-07, 7.71468045002166e-09, 6.257640166040801e-07, -4.408038591918739e-07, 1.2868656540376833e-07, 2.1840477870682662e-07, -3.5288357480567356e-07, -3.3917777386704984e-07, -3.784592905731188e-08, -2.7761834644479677e-06, -1.3589070135822112e-07, 8.429033755419368e-07, -7.981363410181075e-07, -1.8403094372843043e-06, 1.8492884237275575e-06, -1.8936448498152458e-07], [1.5596700677633635e-06, 4.593822268361691e-06, -1.0573171493888367e-05, -7.958391506690532e-06, -6.156697622827778e-07, -8.08500681159785e-06, 2.844124082912458e-07, 1.0903034308284987e-05, -4.9923710321309045e-06, 3.8117494113976136e-05, 2.477194584571407e-06, -1.0688802376535023e-06, -6.1768555497110356e-06, 5.578477271228621e-07, -3.6300050396675942e-06, -6.353521087021363e-08, -2.2114629246061668e-05, 2.2830634407000616e-05, 2.505950078557362e-06, 5.12104975314287e-07, 4.717731826531235e-06, 4.6948982344474643e-05, 3.398011176614091e-05, -1.2316573702264577e-05, 2.6787936349137453e-06, 9.269758152186114e-07, 4.774928584083682e-06, 1.2326330534051522e-06, -4.675765012507327e-05, 2.9379507395788096e-06, -8.515876106685027e-05, -3.513329829729628e-06, 1.4741031009180006e-06, 2.070981281576678e-06, 3.925279997929465e-06, -4.6755283733546094e-07, -4.7197680430599576e-08, -4.337724476499716e-06, 3.544853939274617e-07, 2.567261617514305e-06, -1.8404853108222596e-05, 1.1384245226508938e-06, -3.4429720585649193e-07, -2.1937819383310853e-07, 1.069417407961737e-06, -6.124535138951614e-05, 1.3300906402946566e-06, 4.173023739895143e-07, 1.4510355867969338e-06, -8.772153705649544e-07, -5.565157152886968e-07, 5.837478056491818e-07, 2.194597783500285e-07, 2.1543705770454835e-06, 2.6364812129031634e-06, 7.710020327067468e-06, -3.704624532474554e-06, 1.098964617085585e-06, 1.243725591848488e-06, 1.195748950522102e-06, 5.682310302290716e-07, 5.08219854964409e-05, 2.1016358004999347e-06, 1.3677189372174325e-06], [5.448094725579722e-06, -4.3146751522726845e-06, -8.795352187007666e-06, 5.802216946904082e-07, -7.890424740253366e-07, -1.1616202755249105e-05, 1.9167134723829804e-06, 3.1616502383258194e-05, 3.182338332408108e-05, -4.0328850445803255e-05, 3.3643691494944505e-06, -9.274255035052192e-07, -4.808907033293508e-05, 1.7707625588059273e-08, 5.926311587245436e-06, -4.009782728076061e-08, 3.049590986847761e-06, -1.6687888546584873e-06, -7.606026883877348e-07, 1.4683480742405663e-07, -8.129110028676223e-06, -7.348525286943186e-06, 0.00017407778068445623, -2.486959783709608e-05, -9.062020581040997e-06, 1.8356630562266218e-06, -3.6812282360187965e-06, 5.327244707586942e-07, -0.0001979806402232498, 4.441104010766139e-06, -0.00012930078082717955, 8.199772310035769e-06, 3.6281444408814423e-06, -1.9446879377937876e-05, -4.929469014314236e-06, -5.695500021829503e-06, -1.4506310890283203e-06, -2.2825438463769387e-06, -1.783277866707067e-06, 2.8371825919748517e-06, 8.855223859427497e-05, 1.1742240246803703e-07, -3.3489678230580466e-07, 1.4900153644248348e-07, -1.6377040310544544e-06, -0.000196488355868496, 1.34758272452018e-06, -7.215942900984373e-07, -1.7080126781365834e-05, -5.401983344199834e-06, 1.4910684740243596e-06, -1.000730094347091e-06, -2.3830367013033538e-07, -1.8182541907663108e-06, 3.0501430501317373e-06, 1.951565309354919e-06, 5.136697609486873e-07, 1.6887786387087544e-06, 3.054223725484917e-06, -1.288603979077152e-08, -1.6301568166454672e-06, 7.479892519768327e-05, 2.424038939352613e-06, 2.8553424726851517e-06], [0.00038074114127084613, 0.0004840887268073857, -0.0009713072213344276, -0.00021239076158963144, -8.638577855890617e-05, 0.0035376399755477905, -0.0003179572813678533, 0.0024843961000442505, -0.05279289186000824, -0.014542699791491032, 0.0009410402271896601, -0.0005234875134192407, -0.023217828944325447, 8.870083547662944e-05, 0.0009493699762970209, 4.605265348800458e-05, -0.0010264500742778182, 0.002820073626935482, 