{"lstm.weight_ih_l0": [[0.09432747960090637], [-0.02149455063045025], [0.13281254470348358], [0.20055431127548218], [0.22027936577796936], [-0.11680855602025986], [0.01022022683173418], [0.26496559381484985], [-0.07888399809598923], [-0.3888160288333893], [0.0339636355638504], [-0.6026015281677246], [-0.09525249153375626], [-0.21312215924263], [-0.14578521251678467], [0.9861094951629639], [0.10624603182077408], [0.054095931351184845], [-0.27286142110824585], [-0.13962239027023315], [0.017007578164339066], [0.1925884634256363], [-0.029162870720028877], [0.027506018057465553], [-0.33846762776374817], [-0.47999846935272217], [0.1170061007142067], [-0.11325474083423615], [-0.14804790914058685], [-0.19747909903526306], [-0.032542623579502106], [0.4215098023414612], [0.14382241666316986], [4.323073387145996], [-1.2302755117416382], [-0.0997532308101654], [0.17542320489883423], [0.4097341299057007], [1.7042503356933594], [-0.49605104327201843], [-0.1640189290046692], [-3.1548619270324707], [0.22744566202163696], [1.5117497444152832], [0.22283044457435608], [-0.3323201835155487], [-0.04071308299899101], [0.8327145576477051], [0.043508388102054596], [-0.054728541523218155], [0.16369479894638062], [0.009635955095291138], [0.1231909841299057], [0.10591784864664078], [0.3715977072715759], [0.178926482796669], [0.11569658666849136], [-0.24962355196475983], [-0.11879397928714752], [-0.27837085723876953], [0.1549433469772339], [-0.0122483866289258], [-0.15046779811382294], [-0.06760866194963455]], "lstm.weight_hh_l0": [[-0.6934183835983276, 0.5495436787605286, -0.4363461136817932, -0.5428401827812195, -0.8782519698143005, -0.5462017059326172, 1.2928400039672852, 0.26263099908828735, 0.01148690190166235, 0.34087780117988586, 0.3239588737487793, 0.03563997894525528, 0.1584736406803131, -0.23936030268669128, -0.07440516352653503, 0.32167816162109375], [-0.6180512309074402, -0.05735506862401962, 0.19559727609157562, 0.04955336079001427, 0.3355729877948761, 0.43418294191360474, -0.026646092534065247, 0.0009374151704832911, -0.1512008160352707, 0.04048605263233185, -0.34266841411590576, 0.06715986877679825, 0.04563840478658676, -0.14674785733222961, 0.6248347163200378, -0.4313400983810425], [0.266437292098999, 0.09568320959806442, -1.1256694793701172, -0.027866749092936516, -0.7396936416625977, -0.9715293645858765, 0.1829594075679779, -0.20646794140338898, -0.31213831901550293, 0.027353176847100258, 0.7684820890426636, -0.00962484534829855, -0.05035346746444702, -0.36866360902786255, -0.6309295892715454, 1.061069130897522], [0.5631853342056274, -0.03795900195837021, -0.2015531361103058, 0.05815073475241661, -0.7558549642562866, -0.7503191232681274, -0.06172262877225876, -0.5748211145401001, -0.12723493576049805, 0.41021934151649475, 0.3663031756877899, 0.36985576152801514, -0.03018195554614067, -0.42534929513931274, -0.14476719498634338, -0.022794712334871292], [0.07810725271701813, -0.23941949009895325, 0.13864070177078247, 0.5526834726333618, 0.12212622165679932, -0.14046041667461395, -0.13737830519676208, -0.4588738679885864, -0.5354456305503845, -0.08844862878322601, 0.40429142117500305, 0.37724077701568604, 0.10704362392425537, 0.16980990767478943, -0.2748147249221802, -0.20296570658683777], [0.19123458862304688, 0.4290623068809509, -0.10421088337898254, 0.5126783847808838, -0.024828679859638214, 0.1726415455341339, -0.05817762389779091, -0.22356578707695007, -0.5574930906295776, -0.17837058007717133, 0.6046160459518433, -0.003066951408982277, 0.7372488379478455, -0.07412411272525787, -0.14800356328487396, 0.03631865233182907], [-0.47276225686073303, 0.0889226570725441, 0.26842638850212097, 0.058351945132017136, 0.4319332540035248, 0.7065224051475525, 0.09106089174747467, -0.013567479327321053, -0.08013042062520981, -0.07733961939811707, -0.49238383769989014, 0.052192945033311844, 0.04809227213263512, -0.04286449775099754, 0.5633037090301514, -0.4930057227611542], [0.4034992456436157, 0.33613425493240356, 0.005504569038748741, 0.037272606045007706, 0.25270193815231323, -0.11036232858896255, 0.1439882218837738, 0.032709285616874695, -0.05828574672341347, -0.26523664593696594, 0.0888291671872139, 0.2648810148239136, 0.5353443622589111, -0.09485139697790146, 0.5511075258255005, 0.17567700147628784], [0.1679685115814209, -0.371849924325943, -0.4744361937046051, 0.5034154653549194, -0.9234659671783447, -0.43531131744384766, 0.03430381417274475, -0.10103422403335571, 0.4034203290939331, 0.1490677297115326, 0.5127007961273193, 0.05511798337101936, -0.035448767244815826, 0.12236254662275314, -0.4753319025039673, -0.05970172584056854], [-0.7524320483207703, -0.7331792116165161, 0.26017341017723083, 0.0862601101398468, 0.1477886140346527, 0.36889997124671936, 0.03764890506863594, 0.07546652108430862, 0.058218710124492645, 0.40829408168792725, -0.2384931445121765, -0.21084891259670258, -0.10955993086099625, -0.602352499961853, 0.23092344403266907, -0.6871972680091858], [0.4982621371746063, 0.21679380536079407, -0.20119790732860565, -0.18643443286418915, -0.26718950271606445, 0.17825736105442047, 0.040660157799720764, -0.08818722516298294, 0.4298802316188812, -0.14032001793384552, 0.07131275534629822, 0.09054888784885406, -0.19628311693668365, -0.06393543630838394, -0.09777813404798508, 0.23669055104255676], [0.7073118090629578, -0.6862873435020447, -0.7007635831832886, -0.1534777730703354, -1.1885870695114136, -0.5913751125335693, -0.3685295879840851, -0.5823535323143005, -0.032716672867536545, 1.075179934501648, 0.48169222474098206, -0.4293358325958252, 0.09750472754240036, 0.3076542317867279, -0.4245152771472931, 1.6154489517211914], [-0.4079718291759491, 0.26687750220298767, -0.16332048177719116, -0.499336302280426, -0.042840223759412766, -0.39539414644241333, -0.10805928707122803, 0.045462433248758316, 0.5398902297019958, 0.3248108923435211, 0.8153052926063538, -0.15787678956985474, -0.041337914764881134, -0.48552703857421875, -0.24272260069847107, 0.3963512182235718], [-0.3658660054206848, -0.3414550721645355, 0.030532315373420715, 0.030812900513410568, -0.1396188586950302, -0.14048530161380768, -0.3534550666809082, -0.19751045107841492, -0.08129718899726868, 0.09743952006101608, 0.11473070830106735, -0.29895398020744324, -0.11575507372617722, -0.037178754806518555, 0.06671079993247986, 0.31132254004478455], [-0.1969747543334961, 0.15246281027793884, 0.3058415353298187, -0.2946990728378296, 0.18345561623573303, 0.17973236739635468, 0.08731409162282944, -0.13309651613235474, 0.3218003213405609, -0.1551661193370819, -0.3350892961025238, -0.18050463497638702, -0.06793013215065002, -0.12275416404008865, 0.31731346249580383, 0.19383122026920319], [0.1251988708972931, 0.6769616007804871, -0.29268014430999756, -0.1641201376914978, -0.5270991921424866, -0.2551104426383972, 0.24424360692501068, 0.12366480380296707, -0.030598441138863564, -0.21277548372745514, 0.07110939174890518, 0.5729116201400757, 0.20342665910720825, 0.3002076745033264, 0.07387367635965347, -0.40090668201446533], [-0.6381787061691284, 0.03457371145486832, 0.4313131272792816, -0.18704679608345032, 0.8585759997367859, 0.6246010065078735, 0.028428826481103897, 0.029943063855171204, -0.6477698683738708, 0.19063591957092285, -0.4549579322338104, 0.333458811044693, 0.4438721835613251, -0.28842195868492126, 0.5548001527786255, -0.3511946201324463], [-0.2798973321914673, 0.28119948506355286, 0.3065067231655121, 0.2412838488817215, -0.03465486690402031, 0.12564446032047272, -0.6745264530181885, 0.2578313946723938, -0.21492117643356323, 0.49285194277763367, -0.8453153967857361, 0.17543181777000427, -0.06081744283437729, 0.3123042583465576, 0.24209623038768768, -0.9768103957176208], [-0.31221529841423035, 0.4350144863128662, 0.24241703748703003, 0.05447756126523018, 0.45643362402915955, 0.5004948377609253, 0.10834899544715881, -0.32611560821533203, 0.20273281633853912, -0.45997580885887146, -0.49408459663391113, -0.5871850848197937, 0.17019107937812805, -0.6671577095985413, 0.18663142621517181, -0.9043746590614319], [-0.18817266821861267, 0.5163547992706299, 0.36019912362098694, -0.18134371936321259, 0.6385740041732788, 0.8934071660041809, 0.1432645618915558, 0.09084460139274597, 0.3987739086151123, -0.3940737545490265, -0.7697333693504333, -0.2591145932674408, -0.10943104326725006, 0.21785172820091248, 0.7253461480140686, -0.43550416827201843], [-0.03734419122338295, -0.6759281754493713, 0.13589344918727875, 0.10936982184648514, 0.3346540927886963, -0.39056044816970825, -0.7775258421897888, -0.31153547763824463, -0.16481074690818787, 0.37182942032814026, 0.25204288959503174, 0.3031318485736847, 0.33166754245758057, -0.16452717781066895, 0.057319335639476776, -0.19441069662570953], [-0.4331738352775574, 0.2184603065252304, -0.029601989313960075, 0.118344746530056, 0.39937707781791687, 0.41814979910850525, -0.12718473374843597, -0.033450692892074585, -1.0318386554718018, -0.015640005469322205, 0.5896074771881104, 0.2712799906730652, 1.0467214584350586, -0.055653542280197144, 0.01999872364103794, -0.4597260653972626], [0.3427588641643524, 0.21375788748264313, 0.41431090235710144, 0.045669931918382645, 0.21792882680892944, 0.29708340764045715, -0.2241787165403366, 0.1860215663909912, 0.2134833037853241, -0.07780771702528, 0.2461814135313034, -0.17325139045715332, 0.3519156575202942, 0.3839467465877533, 0.18899399042129517, -0.4929855465888977], [0.26269304752349854, 0.4096701145172119, 0.3228038549423218, 0.3618429899215698, 0.03312908858060837, -0.07915075123310089, 0.3209837079048157, -0.07730613648891449, 0.11603675782680511, -0.01461893878877163, -0.12872877717018127, 0.08987632393836975, 0.13674259185791016, -0.09234007447957993, 0.8747619986534119, -0.14522287249565125], [-0.14554086327552795, 0.22437845170497894, 0.38903385400772095, 0.23451858758926392, 0.45183125138282776, 0.6941643357276917, 0.5388945937156677, 0.5514625906944275, 0.3795500099658966, -0.3827541172504425, -0.9579647779464722, -0.47733035683631897, 0.026462851092219353, 0.2728588283061981, 0.9103773832321167, -0.38875865936279297], [-0.07916207611560822, -0.35841822624206543, 0.26565301418304443, 0.03554067760705948, -0.1324702948331833, -0.3861376643180847, -0.15788912773132324, -0.2285204380750656, 0.2417137175798416, 0.3435779809951782, 0.3268613815307617, -0.4580628275871277, 0.053517308086156845, -0.39230191707611084, -0.1953016072511673, 0.1884375363588333], [0.6186025142669678, 0.38374200463294983, -0.44451457262039185, -0.6957407593727112, 0.421866238117218, 0.533666729927063, 0.25713759660720825, 0.2963222563266754, 0.7838256359100342, -0.3251960873603821, -0.7533644437789917, -0.07408805191516876, -0.45222100615501404, -0.05502810329198837, 0.31427285075187683, -0.6138457655906677], [-0.25854381918907166, -0.21981683373451233, 0.6360920667648315, 0.01073395274579525, 0.8845667839050293, 0.7724950313568115, 0.12876446545124054, -0.3938210904598236, -0.24539199471473694, -0.12657229602336884, -0.290788471698761, 0.1856721043586731, -0.48087218403816223, -0.5658682584762573, 1.2425670623779297, -0.6860561966896057], [0.35195568203926086, 0.017546769231557846, 0.0264188963919878, 0.016178516671061516, 0.6776061654090881, 0.6615735292434692, -0.04376358166337013, -0.044325217604637146, -0.5681623220443726, -0.5112239718437195, -0.5875261425971985, -0.3678032159805298, -0.28549978137016296, 0.33655861020088196, 0.19607679545879364, -0.18856480717658997], [0.018241913989186287, 0.1330331265926361, 0.21173982322216034, -0.020786911249160767, -0.3244941532611847, 0.1002623662352562, -0.2444949448108673, 0.07071954756975174, 0.05031101033091545, -0.27101072669029236, -0.08005093038082123, -0.5753457546234131, 0.11271462589502335, 0.10300806909799576, 0.2060636579990387, 0.14453640580177307], [-0.07502172887325287, -0.0752309188246727, 0.09888707846403122, 0.05422026664018631, -0.04828295856714249, 0.10337387025356293, 0.72960364818573, -0.0024613167624920607, -0.07680929452180862, -0.2558825612068176, -0.250447154045105, -0.11357323080301285, -0.1100243553519249, -0.15234540402889252, 0.2853127121925354, 0.3315645456314087], [-0.16737714409828186, -0.06418997049331665, -0.07076527923345566, -0.11741641163825989, -0.43445447087287903, -0.1761365681886673, -0.1394985020160675, 0.18406200408935547, -0.3271581530570984, 0.10153385251760483, 0.14247694611549377, 0.31301048398017883, -0.30949804186820984, -0.08944694697856903, -0.10565274953842163, -0.6730740070343018], [0.13220392167568207, 0.2920784056186676, -0.09286975115537643, -0.25863713026046753, 0.41689983010292053, -0.4392276704311371, 1.3114792108535767, -0.5408231019973755, -0.05294228717684746, 0.06816944479942322, 0.3396168053150177, -0.2539910078048706, 0.21912474930286407, -0.2247975617647171, -0.08988020569086075, -0.29388540983200073], [-0.24882881343364716, 0.16771258413791656, 1.064118504524231, 0.07143665105104446, 0.018125737085938454, -0.1019563376903534, -0.27251487970352173, 0.20514899492263794, 0.03940131515264511, -1.963423252105713, 0.14266036450862885, -1.441651701927185, 0.09464877098798752, -0.40487000346183777, 0.03033020719885826, -0.5037479400634766], [0.017187900841236115, -0.4436248242855072, 0.13121750950813293, -0.017330627888441086, 0.14176484942436218, 0.1678944081068039, -0.040282003581523895, -0.0511353425681591, 0.05930568277835846, 0.10179544240236282, 0.1605285257101059, -0.6011931896209717, -0.10534016788005829, 0.38044479489326477, 0.15950056910514832, 0.14598765969276428], [-0.021786324679851532, -0.08707062155008316, 0.030572380870580673, 0.4531536400318146, -0.2429831624031067, -0.017596950754523277, 0.42007243633270264, 0.009400231763720512, 0.3139464855194092, 0.21900151669979095, -0.060234565287828445, 0.012276394292712212, -0.30241119861602783, -0.029403822496533394, -0.17901170253753662, -0.17706210911273956], [0.1934235394001007, -0.6943429112434387, 0.1508321762084961, -0.5466893911361694, 0.3530518114566803, 0.06017344072461128, -1.01694917678833, 0.1464661806821823, -0.45375460386276245, 0.026254266500473022, -0.8736013174057007, 0.562445342540741, 0.2164873480796814, 0.09844265133142471, 0.1777954250574112, 0.04785921797156334], [0.09016366302967072, 0.15679936110973358, -0.038514964282512665, 0.3753100633621216, -0.008499027229845524, 0.36659371852874756, 0.13786563277244568, 0.2107764482498169, -0.08704490959644318, -0.11421164870262146, 0.36829596757888794, -0.13822664320468903, -1.0006451606750488, -0.13032184541225433, -0.08694315701723099, -0.4028233289718628], [0.3618957996368408, 5.809876441955566, 1.158829927444458, 0.0025183658581227064, -0.23356378078460693, -0.05476188659667969, 1.7699775695800781, -0.8727695345878601, 0.027143316343426704, -1.1218609809875488, 0.1255975365638733, -1.2279937267303467, -0.3724607229232788, -0.988945484161377, -0.23245663940906525, 0.4158676564693451], [0.1253809928894043, -0.4614146649837494, -0.21301184594631195, -0.1284831017255783, -0.018849940970540047, -0.3078826665878296, 0.8866570591926575, -0.21519659459590912, 0.04487865790724754, 0.765143096446991, 0.06603693217039108, -0.17075885832309723, 0.35700464248657227, 0.14131532609462738, 0.19378001987934113, 0.1667015254497528], [-0.07157513499259949, -0.16327668726444244, 0.16996891796588898, -0.5056558847427368, 0.05888478085398674, -0.12926927208900452, -0.2822515666484833, -0.21354518830776215, 0.39518749713897705, 0.08557312935590744, -0.15818290412425995, 0.14151409268379211, 0.036611489951610565, 0.33015763759613037, 0.012224365025758743, 0.041592326015233994], [-0.1689852625131607, 0.2848038673400879, -0.6801485419273376, -0.04578189179301262, -0.012457150965929031, -0.10005459189414978, -0.1502211093902588, 0.08586610853672028, -0.1331143081188202, -0.4634740352630615, -0.10558098554611206, 2.3028926849365234, 0.09372219443321228, -0.15689313411712646, 0.03497856482863426, -0.3817981779575348], [0.33472004532814026, -0.46529924869537354, -0.038948122411966324, -0.11918386816978455, -0.43503695726394653, -0.7171121835708618, 0.0294888187199831, 0.27064263820648193, -0.2839474380016327, 0.17163144052028656, 0.3562406897544861, -0.11309394985437393, -0.23051556944847107, 0.562267541885376, -0.1207020953297615, -0.1992502510547638], [0.03027304820716381, 0.7963017225265503, 0.44959381222724915, -0.0460633859038353, -0.04923557490110397, -0.09423782676458359, 0.3392820358276367, -0.32732954621315, -0.09626580774784088, -0.4564323425292969, 0.15586122870445251, 0.08070123940706253, -0.12935449182987213, -0.16031143069267273, -0.019819123670458794, 0.37653106451034546], [0.10177616775035858, 0.00249124551191926, -0.29571276903152466, 0.7513042092323303, 0.4942018985748291, 0.03282171115279198, 0.029361799359321594, -0.476735919713974, -0.5111643671989441, 0.07103925943374634, 0.2413588911294937, -0.13726507127285004, -0.15031947195529938, -0.2509038746356964, -0.1442967802286148, -0.10016458481550217], [0.19904059171676636, 0.444913774728775, -0.6135416626930237, -0.2503739893436432, -0.2313683032989502, 0.20784355700016022, 0.1902087926864624, -0.1935962587594986, 0.14056606590747833, -0.3348935544490814, 0.2470550835132599, 0.40948542952537537, -0.009796992875635624, 0.10601871460676193, -0.16135840117931366, 0.2698443531990051], [-0.04303599148988724, -0.0325036458671093, -0.10698156803846359, -0.4337458610534668, 0.2797076404094696, 0.7525263428688049, 1.3576253652572632, -0.6212195158004761, 0.45918968319892883, 0.1781751960515976, 0.29266995191574097, -0.2635045051574707, 0.5545624494552612, -0.05572624132037163, 0.15834034979343414, 0.25770652294158936], [0.03738629072904587, 0.8152014017105103, 0.34401246905326843, -0.07173445075750351, 0.3054637312889099, 0.5763337016105652, 0.703417181968689, 0.24979740381240845, 0.1687929332256317, -0.3467370867729187, -0.019873706623911858, -0.11285826563835144, -0.0501694455742836, -0.14725318551063538, -0.4375680387020111, -0.20747290551662445], [-0.513889491558075, -0.08663913607597351, 0.046597082167863846, -0.01914430782198906, 0.342887282371521, 0.4356934428215027, 0.07450464367866516, -0.36389780044555664, -0.07675553858280182, 0.04044630751013756, -0.2058444768190384, 0.022942906245589256, 0.07590310275554657, -0.12994883954524994, 0.22398200631141663, -0.32838892936706543], [-0.4424108862876892, -0.10896545648574829, 0.25796693563461304, 0.054902125149965286, 0.44186288118362427, 0.5042730569839478, -0.11325912922620773, 0.040253814309835434, -0.13257472217082977, 0.020935190841555595, -0.37936627864837646, -0.007773831952363253, 0.06273273378610611, -0.11324815452098846, 0.4675804674625397, -0.47606074810028076], [-0.019867774099111557, 0.2139512300491333, 0.12611110508441925, -0.11728548258543015, 0.18567244708538055, 0.2927732467651367, -0.44242364168167114, 0.44317448139190674, -0.05645731836557388, 0.0981433317065239, -0.22160235047340393, 0.12416144460439682, -0.23657426238059998, 0.055676162242889404, 0.064093679189682, -0.5885099768638611], [-0.3907437324523926, 0.03513479232788086, 0.08578869700431824, -0.11757858842611313, -0.20997017621994019, 0.22781334817409515, 0.3082893490791321, 0.22168023884296417, -0.1003468930721283, -0.1177242323756218, -0.2824449837207794, -0.030430275946855545, -0.05708962306380272, 0.07234477251768112, 0.3223424553871155, -0.1694577932357788], [-0.09230304509401321, -0.27382907271385193, 0.01629239320755005, -0.04119054600596428, 0.49653586745262146, 0.347233384847641, -0.06415111571550369, 0.03560769557952881, -0.2550535202026367, -0.14449210464954376, -0.029172383248806, 0.12332795560359955, 0.08917456120252609, -0.04016673564910889, 0.016269385814666748, -0.5472438335418701], [-0.36846911907196045, 0.13241590559482574, -0.2705526351928711, -0.02926129475235939, 0.20560280978679657, 0.5329691767692566, -0.010573596693575382, -0.20312941074371338, 0.35471799969673157, -0.242911696434021, -0.08064975589513779, -0.12523160874843597, -0.7042529582977295, 0.18377137184143066, 0.11856307834386826, -0.4172873795032501], [-1.389721393585205, -0.060997504740953445, 0.5789149403572083, -0.18697167932987213, 0.33744123578071594, 0.8029937744140625, 0.09309361129999161, -1.0280488729476929, -0.21585240960121155, 0.3458031713962555, 0.16950801014900208, -0.050762634724378586, -0.6569660305976868, -0.5900996327400208, 1.500138282775879, 0.2529011368751526], [0.036318838596343994, 0.3789529800415039, 0.13140524923801422, 0.017045563086867332, 0.24024787545204163, 0.29717904329299927, 0.2674594223499298, -0.14545363187789917, -0.14707060158252716, -0.18490499258041382, -0.1742018312215805, 0.18984919786453247, 0.11347375065088272, -0.053532712161540985, 0.5771076679229736, 0.018745871260762215], [-0.050421565771102905, 0.13718201220035553, 0.15405426919460297, 0.24928350746631622, 0.08738941699266434, 0.43535757064819336, 0.2535110414028168, 0.021723583340644836, -0.17738595604896545, -0.05889500305056572, -0.17301158607006073, 0.16786602139472961, -0.18215225636959076, 0.24963726103305817, -0.08394619822502136, -0.3414863348007202], [-0.5116098523139954, -0.540223240852356, 0.2528638243675232, 0.08158006519079208, 0.22248908877372742, 0.398479700088501, 0.15422524511814117, 0.06102651357650757, 0.013454399071633816, 0.22749178111553192, -0.2435969114303589, -0.15430599451065063, 0.0013398492010310292, -0.3305036127567291, 0.42222505807876587, -0.48401832580566406], [-0.5602968335151672, -0.49382027983665466, -0.2799055278301239, -0.31860390305519104, 0.04602833837270737, 0.27365025877952576, 0.22665336728096008, 0.4904178977012634, 0.3173857033252716, -0.1591467559337616, -0.6847041249275208, 0.05474225431680679, 0.0652516633272171, -0.02987627126276493, 0.05181540176272392, -0.12022175639867783], [-0.48389720916748047, 0.07090651243925095, -0.274874210357666, 0.23682206869125366, -0.21803724765777588, 0.26338064670562744, 0.09656961262226105, 0.012259791605174541, 0.012249460443854332, -0.29577335715293884, -0.6543196439743042, -0.46915489435195923, -0.08994557708501816, -0.42218753695487976, 0.0410025529563427, 0.07468258589506149], [-0.2733565866947174, -0.4392237365245819, -0.2458048164844513, -0.0005800962098874152, 0.2954089939594269, 0.6219247579574585, 0.21914026141166687, 0.2739858329296112, -0.6625640392303467, -0.1252247542142868, 0.15311633050441742, 0.16142982244491577, 0.10441683232784271, 0.2439517378807068, 0.40461042523384094, 0.5037233233451843], [-0.3663157820701599, -0.012922649271786213, -0.1710253357887268, 0.032360345125198364, 0.06409180909395218, 0.13882461190223694, -0.43557581305503845, 0.14285971224308014, -0.13372796773910522, -0.14833824336528778, -0.044075239449739456, -0.13334324955940247, 0.1119304820895195, -0.008792705833911896, 0.30168017745018005, 0.1158360168337822], [-0.17218449711799622, 0.4566155672073364, 0.25527846813201904, -0.13849353790283203, 0.050172362476587296, -0.1350233405828476, 0.14229008555412292, -0.5535101294517517, 0.11185887455940247, -0.003302263328805566, -0.255880743265152, -0.1314665526151657, -0.46225830912590027, -0.12916278839111328, 0.469373881816864, -0.018275516107678413], [0.12318309396505356, -0.19826525449752808, 0.219481959939003, -0.08029134571552277, -0.003174882847815752, 0.21543830633163452, 0.6312817335128784, -0.3451080024242401, -0.17204226553440094, -0.7555842399597168, 0.3991062343120575, -0.5755926966667175, -0.39982688426971436, -0.23611778020858765, -0.11864050477743149, -0.6054754257202148]], "lstm.bias_ih_l0": [-0.7068230509757996, 0.7590861320495605, -0.2899762988090515, -1.1311283111572266, -0.034702274948358536, -0.16663096845149994, 0.7618095874786377, 0.0406118780374527, -0.9361999034881592, 0.44657593965530396, -0.5262967944145203, -0.48960578441619873, -0.5756738185882568, 0.024488398805260658, 0.4437296688556671, 0.17942564189434052, 0.6858511567115784, -0.7071712613105774, 1.2836843729019165, 1.2513374090194702, 0.16113939881324768, 0.7721080780029297, -0.20825102925300598, -0.0027749137952923775, 1.1517856121063232, -0.32833215594291687, 0.4156114459037781, 1.0761504173278809, 1.2115542888641357, 0.34604763984680176, 0.3004642724990845, 0.7927985787391663, -0.15144549310207367, -0.4453948438167572, 0.1388636976480484, 0.10498525947332382, 0.10642313212156296, 0.273871511220932, 0.11905305832624435, 0.000669725879561156, -0.1183614656329155, -0.22303876280784607, 0.09960369765758514, 0.12879730761051178, -0.11596466600894928, 0.32603728771209717, -0.20375299453735352, -0.5954705476760864, 0.37851160764694214, 0.9912956357002258, 0.6752392053604126, 0.30517494678497314, 0.5029810667037964, 0.5223587155342102, -0.8553451299667358, 0.30407676100730896, 0.5113173723220825, 0.6070071458816528, 0.5025819540023804, 0.5211355686187744, -0.09730315953493118, 0.4069516658782959, 0.4869725704193115, 0.6216475367546082], "lstm.bias_hh_l0": [-0.6629868149757385, 0.7603945136070251, -0.3755630552768707, -1.1794923543930054, 0.15151910483837128, -0.02339625358581543, 0.761804461479187, 0.03674152493476868, -1.144936203956604, 0.4431139826774597, -0.4094914495944977, -0.44970157742500305, -0.681280791759491, 0.059478484094142914, 0.443584680557251, 0.13305361568927765, 0.7312685251235962, -0.7021147608757019, 1.1804742813110352, 1.2867639064788818, 0.21202383935451508, 0.7197600603103638, -0.20416481792926788, -0.03511425852775574, 1.1702589988708496, -0.3305370807647705, 0.42691463232040405, 1.037322998046875, 1.2201045751571655, 0.3991471827030182, 0.3734592795372009, 0.7934030294418335, 0.08296606689691544, -0.2831402122974396, 0.014398692175745964, 0.10537052899599075, 0.0964558869600296, 0.1121828705072403, -0.07766909897327423, 0.33583587408065796, 0.023265784606337547, -0.15088093280792236, 0.2729465961456299, 0.12873680889606476, -0.043566230684518814, 0.2211792916059494, 0.11303842812776566, -0.49836990237236023, 0.3793153166770935, 0.9901043176651001, 0.6791059970855713, 0.29146721959114075, 0.5561886429786682, 0.5493689179420471, -0.9167046546936035, 0.3028121590614319, 0.41780760884284973, 0.6075133085250854, 0.4993906021118164, 0.5849019289016724, -0.18935443460941315, 0.36469030380249023, 0.4964142441749573, 0.5970582365989685], "dense.weight": [[0.1417805254459381, 0.11812940239906311, 0.03403829038143158, 0.3617912828922272, -0.4859168827533722, 0.11511264741420746, -1.8080261945724487, 0.7904224395751953, -0.4896107316017151, -0.10321490466594696, 0.18467116355895996, 0.44282057881355286, 0.8627488017082214, -0.017659032717347145, 0.5472685694694519, 0.12967349588871002]], "dense.bias": [0.014345953240990639]}