{"lstm.weight_ih_l0": [[-0.5502635836601257], [0.7664428353309631], [0.1957029551267624], [0.49622753262519836], [0.027520697563886642], [0.0641346424818039], [0.41762998700141907], [-0.11208341270685196], [0.037394050508737564], [0.4283469021320343], [0.5823675990104675], [0.6036607027053833], [0.14778316020965576], [0.20159834623336792], [0.7667257189750671], [0.2077716886997223], [0.1737038493156433], [-0.19611117243766785], [0.20882922410964966], [0.38805004954338074], [-0.17937666177749634], [-0.38808709383010864], [-0.3581245243549347], [0.27216213941574097], [0.04842314124107361], [0.1552710235118866], [-0.4345284104347229], [-0.44959622621536255], [-0.22095447778701782], [0.17079144716262817], [0.3256959617137909], [-0.12143705785274506], [-0.4626777768135071], [0.35873907804489136], [0.07591131329536438], [0.6207972764968872], [-0.4804867208003998], [-0.43200743198394775], [0.27972882986068726], [0.016398044303059578], [0.08112159371376038], [0.1520116925239563], [0.3932361304759979], [0.4397394359111786], [-0.01645854488015175], [0.25090229511260986], [0.4394476115703583], [-0.020192358642816544], [0.42169347405433655], [-0.1185787171125412], [0.13544543087482452], [0.30581629276275635], [-0.1714823991060257], [-0.3483614921569824], [-0.08205902576446533], [0.3928603529930115], [-0.01412196084856987], [0.16680103540420532], [-0.3393629789352417], [-0.287844181060791], [-0.3547658920288086], [0.36563611030578613], [0.12245728075504303], [-0.14456160366535187], [0.3806957006454468], [-0.6852845549583435], [-0.2154264748096466], [0.6003143787384033], [-0.857110321521759], [-0.8941361308097839], [0.6580512523651123], [-0.002237459644675255], [0.3453907072544098], [-0.7708936929702759], [-0.2666390836238861], [0.7102668881416321], [0.35750749707221985], [-0.5185977816581726], [0.6702262759208679], [-0.11680205911397934], [-0.516162097454071], [-0.23666314780712128], [-0.29989945888519287], [0.6878666877746582], [0.3857322633266449], [-0.3156210482120514], [0.04943428561091423], [0.6213825345039368], [0.34650465846061707], [0.6550243496894836], [0.3675019145011902], [0.38562729954719543], [-0.4971182942390442], [-0.640937328338623], [-0.34987279772758484], [0.002013199497014284], [-0.8578973412513733], [0.28703203797340393], [-0.04731164872646332], [0.5924634337425232], [-0.34410515427589417], [-0.1147543415427208], [0.3783668279647827], [-0.23537859320640564], [-0.056480489671230316], [0.06049495190382004], [0.5730782747268677], [0.5892747640609741], [0.20287840068340302], [0.16558125615119934], [0.5841481685638428], [0.2984039783477783], [0.05719809606671333], [-0.23408174514770508], [0.14101077616214752], [0.37759554386138916], [-0.3564673066139221], [-0.7965855002403259], [-0.4105626344680786], [0.5713798403739929], [-0.10450855642557144], [0.4155190885066986], [-0.633996844291687], [-0.5617559552192688], [-0.61224764585495], [0.31143537163734436], [0.255980908870697], [-0.05396042764186859]], "lstm.weight_hh_l0": [[-0.06883327662944794, -0.10935506969690323, -0.15988413989543915, 0.15851736068725586, -0.0039741224609315395, -0.10571722686290741, 0.16032558679580688, -0.14675556123256683, 0.07671461254358292, -0.019549984484910965, -0.11835683137178421, 0.15530826151371002, 0.16109327971935272, -0.12406754493713379, 0.14624308049678802, -0.024580184370279312, -0.1713920384645462, 0.07963074743747711, 0.05333172157406807, 0.1219162568449974, 0.04854685440659523, -0.09657924622297287, -0.09402907639741898, 0.11385904997587204, 0.035879455506801605, 0.1432509571313858, 0.035760100930929184, -0.03328549861907959, -0.06835596263408661, -0.10572860389947891, -0.19231760501861572, 0.07725419104099274], [-0.28277909755706787, -0.25865402817726135, -0.41390594840049744, 0.21166621148586273, 0.2051238715648651, 0.33388346433639526, 0.17092524468898773, -0.16638243198394775, 0.16358904540538788, -0.16792215406894684, 0.18725250661373138, 0.2697475850582123, 0.12095125019550323, -0.3868989646434784, 0.4614466726779938, 0.22004614770412445, -0.7617756128311157, 0.2080828696489334, -0.06180405989289284, 0.3589784801006317, -0.09190347790718079, 0.1596652716398239, 0.3214930593967438, 0.12448618561029434, 0.1081366315484047, 0.33442625403404236, -0.11027530580759048, -0.10402237623929977, 0.007395027205348015, -0.46250730752944946, 0.44131341576576233, 0.25639697909355164], [-0.06655193865299225, 0.27674999833106995, 0.22932589054107666, -0.06653894484043121, 0.4380148649215698, 0.2589642405509949, -0.014241322875022888, 0.10688438266515732, -0.031562987715005875, 0.2283722162246704, 0.2927379608154297, 0.044567082077264786, -0.02300168387591839, -0.03679339215159416, -0.1646200269460678, 0.35183435678482056, 0.3070189952850342, 0.04219674691557884, -0.06613869220018387, 0.10589461028575897, -0.036466196179389954, 0.2629746198654175, -0.1497662365436554, -0.0654333084821701, 0.00435858266428113, 0.08132964372634888, -0.04272385314106941, -0.01591426692903042, 0.009067850187420845, -0.019647477194666862, 0.06642071157693863, -0.05016925185918808], [-0.1446697860956192, -0.14901341497898102, -0.22324953973293304, 0.04023309797048569, 0.2528424561023712, 0.44710850715637207, -0.005104475189000368, 0.0365445576608181, 0.09889259934425354, -0.09822313487529755, 0.16429932415485382, 0.019053485244512558, 0.16893836855888367, -0.010734058916568756, 0.20567071437835693, 0.11079701036214828, -0.11957845836877823, 0.13430997729301453, 0.02306198887526989, 0.040930747985839844, -0.21426089107990265, 0.28780466318130493, 0.004055861383676529, -0.06936106085777283, 0.10188409686088562, 0.16911879181861877, -0.12695571780204773, -0.12307173758745193, 0.007752777077257633, -0.0577843077480793, 0.28307655453681946, 0.08944179117679596], [-0.3063301146030426, -0.31409963965415955, -0.6464852690696716, 0.6645392179489136, 0.029458407312631607, -0.02313467673957348, 0.355029433965683, -0.2424944043159485, 0.2533724308013916, -0.1866103559732437, 0.07733044028282166, 0.5861709713935852, 0.26691675186157227, -0.3033773899078369, 0.6275209188461304, 0.10772313922643661, -0.8609141111373901, 0.2654326260089874, -0.009520594961941242, 0.38855767250061035, -0.1262298971414566, 0.10826458781957626, 0.2979729175567627, 0.34502309560775757, 0.027068307623267174, 0.23805809020996094, -0.09058243036270142, -0.23175857961177826, 0.0170676838606596, -0.7734918594360352, 0.10861551016569138, 0.2804049253463745], [-0.1921187937259674, -0.2741106152534485, -0.30964913964271545, 0.48916923999786377, -0.01765020191669464, -0.053728487342596054, 0.20452368259429932, -0.2452027052640915, 0.3083602786064148, -0.052892930805683136, 0.044402290135622025, 0.26626160740852356, 0.15722213685512543, -0.3852260410785675, 0.3189994990825653, 0.03132268413901329, -0.6807618141174316, 0.2201719731092453, -0.13610093295574188, 0.3401172459125519, -0.06987272948026657, -0.10883378237485886, 0.20707860589027405, 0.2936526834964752, 0.10713012516498566, 0.17785222828388214, -0.013841720297932625, -0.23768560588359833, 0.06578831374645233, -0.376906156539917, 0.13929733633995056, 0.21708786487579346], [-0.27450108528137207, -0.06121279299259186, -0.197644904255867, 0.3645981550216675, -0.05534649267792702, 0.2746814489364624, 0.1982770562171936, -0.12440558522939682, 0.07476623356342316, -0.153547003865242, -0.06766092032194138, 0.348633736371994, 0.1787242740392685, -0.30990371108055115, 0.24408267438411713, -0.07214122265577316, -0.5965785384178162, 0.10874767601490021, -0.04415920004248619, 0.3102596402168274, -0.046171750873327255, 0.26389822363853455, 0.10790595412254333, 0.16785171627998352, 0.05352054908871651, 0.2515866160392761, -0.2606790065765381, -0.04723019897937775, -0.08981676399707794, -0.435863733291626, 0.2735116481781006, 0.3194962739944458], [-0.03182351216673851, -0.11284384876489639, 0.10411766916513443, 0.1197872906923294, 0.03680432215332985, -0.17650660872459412, 0.12025228142738342, 0.04473571479320526, -0.052494581788778305, -0.12048789113759995, -0.01233615167438984, -0.05976618826389313, 0.1053481325507164, 0.13101623952388763, 0.07779957354068756, 0.022539999336004257, 0.15431378781795502, -0.057404547929763794, 0.08984192460775375, 0.04684576019644737, 0.08686171472072601, -0.13434243202209473, -0.011333920061588287, -0.0126527464017272, 0.059088509529829025, 0.19022643566131592, 0.040730394423007965, -0.0703204795718193, -0.018174320459365845, 0.02658768929541111, -0.02199743501842022, -0.1074313074350357], [-0.1549190729856491, -0.0007905251113697886, 0.1918478012084961, -0.009032469242811203, -0.0038116774521768093, -0.08666398376226425, 0.039839763194322586, 0.03523336723446846, 0.01341596245765686, -0.04450413957238197, -0.22836562991142273, -0.1029786691069603, 0.0165559109300375, -0.04904495179653168, -0.12092942744493484, -0.04711856320500374, 0.33476319909095764, -0.018771465867757797, 0.14985240995883942, 0.061590149998664856, -0.05542358383536339, 0.02524530328810215, -0.11449172347784042, -0.019222790375351906, 0.01972355507314205, 0.038632120937108994, -0.08434474468231201, -0.0845385268330574, 0.07374311983585358, 0.14196252822875977, -0.2673576772212982, -0.06264470517635345], [-0.1518363356590271, -0.20451468229293823, -0.4749356806278229, 0.4392710328102112, 0.11751940846443176, 0.270148903131485, 0.2737441956996918, -0.2922748029232025, 0.17270563542842865, -0.05593885853886604, 0.13729599118232727, 0.3971852958202362, -0.0259193554520607, -0.3531627058982849, 0.1598266065120697, 0.02761691063642502, -0.7699781656265259, 0.03448261320590973, 0.046324197202920914, 0.3450097441673279, -0.22401954233646393, 0.1569831371307373, 0.44353294372558594, 0.10823997110128403, 0.017167765647172928, 0.22532880306243896, -0.08792857825756073, -0.27106013894081116, 0.06434070318937302, -0.3578653633594513, 0.194602832198143, 0.20763665437698364], [-0.08704100549221039, -0.4533612132072449, -0.028870664536952972, 0.08275922387838364, -0.5332270264625549, -0.4882109761238098, 0.2808874845504761, -0.1659853458404541, 0.17701661586761475, -0.33184197545051575, -0.31602367758750916, 0.03465992957353592, 0.4241641163825989, -0.222512885928154, 0.14093443751335144, -0.2026798129081726, -0.04978400841355324, -0.005142628215253353, 0.38239771127700806, 0.2861925959587097, 0.06050841510295868, -0.21960687637329102, -0.14552786946296692, 0.29675358533859253, 0.10297325998544693, 0.5156937837600708, 0.13481323421001434, -0.11640807241201401, -0.09293051809072495, -0.07445027679204941, -0.5105555057525635, -0.021726330742239952], [-0.12615561485290527, -0.011394001543521881, -0.2784055173397064, 0.08653004467487335, 0.19503332674503326, 0.13555514812469482, 0.14156092703342438, 0.02831752598285675, 0.10658068209886551, 0.03498976677656174, 0.09074082970619202, 0.06048567220568657, 0.15677416324615479, -0.02189038321375847, 0.2557663321495056, 0.11437612026929855, -0.26455527544021606, 0.15760311484336853, 0.0549776591360569, 0.14800511300563812, -0.17946313321590424, 0.25885769724845886, 0.02282625064253807, 0.16665831208229065, 0.07164538651704788, -0.02840396948158741, -0.09660857915878296, -0.010509781539440155, 0.12461575865745544, -0.09460962563753128, 0.1328379064798355, 0.021926376968622208], [-0.05259124934673309, 0.05358640477061272, -0.037417326122522354, -0.05251716822385788, 0.2304958701133728, 0.16866683959960938, 0.03942447900772095, -0.01514297816902399, -0.07227558642625809, -0.1237201988697052, 0.17085228860378265, -0.180740088224411, 0.10042920708656311, 0.12696699798107147, 0.00466637359932065, 0.08175618201494217, 0.10484351217746735, 0.038699425756931305, 0.05680438503623009, -0.13469198346138, -0.05037671700119972, 0.13742633163928986, -0.0592641606926918, -0.103029265999794, 0.07034365832805634, -0.09169084578752518, -0.13885492086410522, 0.009324111044406891, 0.05594678595662117, -0.07243325561285019, 0.1455967128276825, -0.09438156336545944], [-0.01936372183263302, -0.05868860334157944, 0.10202481597661972, 0.017974359914660454, 0.1286608874797821, 0.2162872701883316, 0.17846673727035522, -0.11511039733886719, 0.12656022608280182, 0.14573082327842712, 0.16663368046283722, -0.09137190878391266, -0.09423954784870148, -0.06983858346939087, 0.05454877391457558, 0.05813290551304817, -0.24194376170635223, -0.1374616026878357, 0.052782490849494934, 0.1624729484319687, -0.11226870119571686, 0.16693323850631714, -0.15380790829658508, -0.04409938305616379, 0.08302636444568634, 0.06560366600751877, -0.017897669225931168, -0.07490139454603195, -0.12403123080730438, -0.11195562034845352, 0.22489599883556366, 0.11095520853996277], [-0.11957082152366638, -0.1884278655052185, -0.27294474840164185, 0.19006431102752686, -0.10612349212169647, 0.03415898233652115, 0.18657778203487396, -0.24051013588905334, 0.1646725982427597, -0.26048293709754944, -0.11190073192119598, 0.10889028012752533, -0.030792593955993652, -0.11338765919208527, 0.31572872400283813, 0.0475551076233387, -0.2912296950817108, 0.06255561113357544, -0.09356559813022614, 0.2339438945055008, 0.04396551102399826, 0.2167406529188156, 0.02573484182357788, 0.11829788982868195, 0.07701800018548965, 0.2981017827987671, -0.1007445827126503, -0.09111008793115616, -0.08011025190353394, -0.25669604539871216, 0.13933435082435608, 0.19391381740570068], [0.02811887115240097, -0.21891339123249054, -0.28922298550605774, 0.03845089673995972, -0.07996712625026703, -0.1504611372947693, 0.12008138000965118, -0.04265998303890228, 0.04399944096803665, -0.18364392220973969, -0.17979881167411804, 0.14409251511096954, 0.13121898472309113, -0.04832598194479942, 0.21564196050167084, 0.006022180896252394, -0.39355233311653137, 0.03060958907008171, 0.13972364366054535, 0.14399272203445435, 0.07222039252519608, 0.007884819060564041, 0.040632329881191254, 0.22610938549041748, 0.030861083418130875, 0.3166210949420929, 0.0776023119688034, -0.07887614518404007, -0.396206796169281, -0.24686822295188904, -0.01918114349246025, 0.06068282574415207], [-0.40625473856925964, 0.06858629733324051, -0.23522654175758362, 0.1731065809726715, 0.6929998993873596, 0.5734916925430298, -0.06092260405421257, -0.043628815561532974, -0.24000348150730133, 0.1698252260684967, 0.4434601962566376, 0.012395581230521202, -0.11196239292621613, -0.20590095221996307, 0.1333046853542328, 0.298129141330719, -0.02213224396109581, 0.260414719581604, -0.052882954478263855, 0.09203879535198212, -0.28726693987846375, 0.593012273311615, 0.3378707468509674, -0.18179167807102203, -0.06701590865850449, -0.20041529834270477, -0.48696061968803406, -0.368652880191803, 0.44005799293518066, -0.10945764183998108, 0.32293516397476196, 0.10630501061677933], [-0.0021189844701439142, -0.004808248020708561, -0.07194291800260544, -0.13720113039016724, 0.005425293929874897, 0.1096976101398468, -0.009732206352055073, -0.011208903975784779, -0.08687976747751236, 0.10562334209680557, 0.12702950835227966, -0.03286147117614746, 0.024772344157099724, -0.0011609524954110384, -0.043474819511175156, 0.12027563899755478, 0.06918691843748093, 0.05968408286571503, -0.008525454439222813, -0.17693620920181274, 0.054561544209718704, 0.15608182549476624, 0.005505824461579323, 0.019342053681612015, 0.016107911244034767, 0.04079652205109596, 0.08882348239421844, -0.048505958169698715, 0.07915745675563812, 0.08869396895170212, 0.0017520482651889324, -0.12451929599046707], [-0.03933658078312874, -0.1419401913881302, -0.00681774178519845, 0.17765925824642181, -0.04553676396608353, 0.09845274686813354, 0.07223721593618393, -0.054058413952589035, 0.06655701249837875, -0.10451844334602356, -0.05635106936097145, 0.11177878826856613, -0.0025166042614728212, 0.010060246102511883, 0.18942071497440338, -0.0060605998151004314, -0.15273292362689972, 0.08297858387231827, -0.07023836672306061, 0.05679004266858101, -0.022568438202142715, -0.03968579322099686, -0.13218624889850616, 0.12087986618280411, 0.051656030118465424, 0.1529877483844757, 0.0575130470097065, 0.06373269855976105, 0.1031077429652214, -0.1749536246061325, -0.10550715029239655, 0.035722069442272186], [-0.05281812325119972, 0.09484349936246872, 0.05894342064857483, 0.03394727408885956, 0.26932626962661743, 0.15216098725795746, 0.002533620921894908, -0.0971980094909668, 0.05150800570845604, -0.10035738348960876, 0.27500826120376587, 0.1234799399971962, -0.13337953388690948, -0.08067360520362854, 0.10669653862714767, 0.1144433245062828, -0.0554322823882103, 0.12187802791595459, -0.0738341212272644, 0.07466680556535721, -0.1692616045475006, 0.13108740746974945, -0.09823893755674362, 0.060650479048490524, 0.04350949078798294, -0.05115967616438866, -0.13546808063983917, -0.08807384222745895, 0.20541226863861084, -0.0009648585109971464, 0.16583077609539032, -0.030608685687184334], [0.0025743055157363415, -0.09070277214050293, -0.18678371608257294, 0.008771653287112713, 0.1243164911866188, 0.0240178182721138, 0.05821945145726204, 0.016867350786924362, 0.05608644336462021, -0.14802242815494537, 0.18021705746650696, 0.031273264437913895, -0.048464491963386536, -0.11019795387983322, 0.032434407621622086, 0.07506944239139557, -0.22477568686008453, 0.1110151931643486, -0.11591924726963043, -0.041568659245967865, 0.15483947098255157, -0.017023803666234016, -0.0036513605155050755, -0.06833910942077637, 0.0037631650920957327, 0.03575338423252106, 0.06717207282781601, 0.07575256377458572, 0.044516671448946, 0.031099427491426468, -0.05324731022119522, -0.025964178144931793], [-0.19280099868774414, 0.08833527565002441, -0.27343952655792236, 0.12602496147155762, -0.04336685314774513, -0.046090543270111084, -0.024048922583460808, -0.07157542556524277, 0.2647264003753662, 0.05227851867675781, 0.2520977556705475, 0.13892486691474915, 0.17913682758808136, -0.2226991206407547, -0.08767882734537125, 0.20277132093906403, -0.216842383146286, -0.01867927983403206, -0.026295877993106842, 0.10097507387399673, -0.14689180254936218, -0.05918120965361595, 0.05657540634274483, 0.13147634267807007, 0.0011377236805856228, 0.11716388165950775, -0.14995360374450684, -0.04612879827618599, 0.07807692140340805, -0.061342544853687286, 0.019417449831962585, 0.0875791609287262], [-0.05358504503965378, 0.15966109931468964, 0.16162075102329254, -0.0070351483300328255, 0.30978110432624817, 0.24179384112358093, -0.20525051653385162, 0.16321957111358643, -0.06858211010694504, 0.1483081579208374, 0.331085205078125, -0.20649051666259766, -0.06866775453090668, 0.12730760872364044, -0.15951140224933624, 0.17557623982429504, 0.5414059162139893, -0.026929857209324837, -0.05222645774483681, -0.016826963052153587, -0.08334961533546448, 0.20261229574680328, -0.19467590749263763, -0.042341198772192, -0.042549971491098404, -0.020726654678583145, -0.15167832374572754, -0.09520915895700455, 0.18591636419296265, 0.1558743566274643, 0.1915328949689865, -0.09353974461555481], [-0.18891958892345428, -0.027954723685979843, -0.07116995006799698, 0.07949089258909225, 0.23548614978790283, 0.121737539768219, -0.020607512444257736, -0.07910260558128357, 0.02221282385289669, 0.029793603345751762, 0.17515547573566437, -0.0742609053850174, -0.02672538533806801, -0.06937018781900406, -0.015597592107951641, 0.17717105150222778, 0.08808347582817078, 0.02178388461470604, 0.0017040562815964222, 0.09181835502386093, -0.10577349364757538, 0.11072289198637009, 0.10539697110652924, 0.06996603310108185, -0.00313967140391469, 0.042720768600702286, -0.24819691479206085, -0.2180931717157364, 0.18449147045612335, -0.07422319799661636, 0.2878749966621399, -0.058388397097587585], [-0.11462097615003586, 0.06124619022011757, -0.057918548583984375, -0.03926130384206772, 0.0186007022857666, 0.05978523567318916, 0.08897668868303299, -0.027576901018619537, 0.06241659075021744, -0.014926785603165627, 0.14438773691654205, -0.14707538485527039, -0.002322516869753599, 0.08828321844339371, -0.011127320118248463, 0.09676650166511536, -0.1191522553563118, -0.0023138236720114946, 0.03887973725795746, -0.1651894748210907, 0.04801883175969124, -0.008227089419960976, -0.10180564969778061, 0.03448270633816719, 0.03468191623687744, 0.043324679136276245, -0.08739548921585083, -0.06444839388132095, 0.009526372887194157, -0.005182732827961445, 0.07202272117137909, 0.06401146203279495], [-0.2781863510608673, 0.06011706590652466, -0.12967239320278168, 0.14309963583946228, 0.40364623069763184, 0.6581079959869385, 0.09233709424734116, -0.20234403014183044, 0.14137178659439087, 0.21871790289878845, 0.5920631289482117, -0.008352859877049923, 0.17776162922382355, -0.05123929679393768, 0.07412673532962799, 0.271859735250473, -0.06018863990902901, 0.05163853242993355, 0.12005827575922012, 0.045209627598524094, -0.28711822628974915, 0.22168423235416412, 0.1339859664440155, -0.01794544607400894, 0.08308055251836777, -0.09763205051422119, -0.2825000286102295, -0.16132254898548126, 0.3535650074481964, -0.2847260534763336, 0.4444460868835449, 0.2187725156545639], [-0.10346192121505737, -0.020009178668260574, -0.15206727385520935, 0.05855864658951759, 0.11130227148532867, -0.020015954971313477, 0.019001677632331848, -0.0492134727537632, 0.014444155618548393, 0.10463282465934753, 0.07086800038814545, 0.1336783468723297, 0.020991729572415352, -0.0573604516685009, 0.03336701542139053, 0.07415284961462021, -0.2099922001361847, -0.014576666057109833, -0.021869204938411713, -0.040686123073101044, -0.0889190137386322, -0.049829620867967606, 0.0661768764257431, -0.026411840692162514, 0.025593584403395653, -0.03947139158844948, -0.018309546634554863, -0.02797941491007805, -0.01072623673826456, -0.07884835451841354, -0.0028109655249863863, -0.008816177025437355], [-0.04737389460206032, 0.037671998143196106, 0.013340942561626434, 0.07310902327299118, 0.03152333199977875, -0.03860342875123024, -0.013365351594984531, -0.01861162669956684, 0.061566077172756195, 0.01593799516558647, 0.037497639656066895, 0.09863018989562988, 0.07473232597112656, 0.021489402279257774, 0.09952305257320404, 0.09730766713619232, -0.1628418266773224, -0.08924449235200882, -0.10497891902923584, 0.08921414613723755, 0.003068462247028947, 0.04180324077606201, 0.030967602506279945, 0.057563766837120056, 0.03333950787782669, 0.08546139299869537, -0.024013299494981766, -0.06422455608844757, -0.04425075277686119, -0.03423631191253662, 0.02913314290344715, 0.11260101944208145], [-0.08836638182401657, 0.03446885570883751, -0.10316947847604752, 0.13018925487995148, -0.05480906367301941, 0.05071723833680153, 0.054108407348394394, -0.25029101967811584, -0.0244351364672184, -0.13915669918060303, -0.07696832716464996, 0.024903815239667892, 0.09983952343463898, 0.02147768996655941, 0.09578341245651245, -0.06601926684379578, -0.2254030853509903, 0.0640823170542717, 0.014519168995320797, 0.05247088521718979, -0.28587469458580017, 0.0642256885766983, 0.22921091318130493, -0.10044819861650467, -0.06054173409938812, 0.1067967414855957, -0.062000297009944916, -0.3093746602535248, 0.13949713110923767, 0.021787114441394806, 0.19139228761196136, -0.0014339785557240248], [-0.1783810406923294, 0.18568670749664307, 0.10184772312641144, -0.034755393862724304, 0.4450010359287262, 0.38097670674324036, -0.07528641819953918, 0.010690918192267418, 0.031963907182216644, 0.21805834770202637, 0.3739158809185028, -0.11903920024633408, -0.029956895858049393, -0.023935412988066673, -0.04359548166394234, 0.2668505311012268, 0.0016625041607767344, -0.04888934642076492, -0.019449863582849503, -0.09897390007972717, -0.09192148596048355, 0.24313753843307495, -0.027192361652851105, -0.08441276848316193, -0.011574121192097664, -0.1071479320526123, -0.22450515627861023, -0.1590350866317749, 0.1577901691198349, -0.06079176440834999, 0.2960691452026367, -0.030218934640288353], [0.016410883516073227, -0.28558623790740967, -0.23734472692012787, 0.3963548541069031, -0.2526805102825165, -0.0305850300937891, 0.14600814878940582, -0.20201611518859863, 0.2625376284122467, -0.18893961608409882, -0.3308182954788208, 0.30457454919815063, 0.3564874827861786, -0.21121272444725037, 0.344646155834198, -0.14281459152698517, -0.5654223561286926, -0.07620902359485626, 0.04320335015654564, 0.4349876046180725, 0.033712223172187805, -0.1380319744348526, -0.08695714920759201, 0.358944296836853, 0.1303102672100067, 0.37032556533813477, 0.12546393275260925, 0.13870464265346527, -0.16270935535430908, -0.3984295129776001, -0.07464518398046494, 0.04220864549279213], [0.07121507078409195, -0.015678558498620987, -0.030939441174268723, -0.03352250158786774, 0.09069380909204483, 0.1408846527338028, -0.05513053759932518, 0.08957090973854065, -0.1088571548461914, 0.013237381353974342, 0.1670326292514801, -0.1284862458705902, -0.040223393589258194, 0.18400909006595612, -0.07285811752080917, 0.07959852367639542, 0.2793136239051819, 0.07387321442365646, -0.08243194967508316, -0.11727400869131088, 0.1442178636789322, 0.008780157193541527, -0.14592668414115906, -0.09599227458238602, -0.00028968226979486644, 0.025512976571917534, 0.11717648804187775, 0.07342185825109482, -0.13519804179668427, 0.2259070873260498, 0.11667224764823914, -0.11869572103023529], [-0.002430216409265995, -0.1625533252954483, 0.022428911179304123, 0.10875148326158524, -0.026484619826078415, -0.04316605627536774, 0.09156014770269394, -0.09085088223218918, 0.0896175354719162, -0.04872168228030205, -0.11850355565547943, 0.036325424909591675, 0.1276436597108841, -0.12000440806150436, 0.17105212807655334, -0.03670699521899223, -0.23903873562812805, 0.03492279350757599, 0.034598056226968765, -0.009204650297760963, 0.04510822147130966, -0.13095185160636902, -0.07601229846477509, 0.07235868275165558, 0.03542809560894966, 0.1309310346841812, 0.04063240438699722, 0.0036347138229757547, -0.11677999049425125, -0.08152154833078384, -0.15885847806930542, 0.04253672808408737], [0.31600576639175415, 0.10453613847494125, 0.046828728169202805, 0.04979134351015091, 0.05852536857128143, 0.17154929041862488, -0.02847420983016491, 0.014424997381865978, 0.08546461164951324, -0.014119486324489117, 0.3179941475391388, -0.06689264625310898, 0.10465613007545471, -0.01145204994827509, 0.004829976707696915, 0.3813374638557434, -0.18537965416908264, -0.05215846747159958, -0.12438572198152542, 0.07660114020109177, 0.10946285724639893, -0.024922166019678116, 0.15938708186149597, -0.0931500792503357, -0.01054427307099104, 0.15374423563480377, 0.011640225537121296, 0.12493094056844711, -0.050749145448207855, -0.12026073038578033, 0.33457133173942566, -0.10264835506677628], [0.21723617613315582, 0.052221305668354034, -0.013398127630352974, -0.1491227000951767, 0.3369259834289551, 0.06755587458610535, 0.003326673526316881, 0.18322664499282837, 0.002606068504974246, 0.06950864940881729, 0.24640117585659027, -0.14305227994918823, 0.11474236100912094, 0.06693714112043381, -0.04288583621382713, 0.41597381234169006, 0.29496216773986816, -0.06663420796394348, 0.06668337434530258, 0.10871722549200058, -0.06433270126581192, 0.15588243305683136, -0.03741178289055824, 0.04623092710971832, 0.02070549502968788, 0.08627866953611374, 0.07183338701725006, 0.12291411310434341, -0.06675907969474792, 0.1112227812409401, 0.23141497373580933, -0.21156981587409973], [0.14134012162685394, 0.15182042121887207, -0.09041212499141693, -0.15128323435783386, 0.19219818711280823, 0.2829760015010834, -0.10396920889616013, -0.03591891750693321, 0.06899625062942505, 0.030866973102092743, 0.07244672626256943, 0.032582130283117294, 0.02325442060828209, 0.13524173200130463, 0.16934458911418915, 0.09642500430345535, -0.1138564869761467, -0.178640678524971, 0.10414038598537445, 0.17552456259727478, 0.08260292559862137, 0.14909282326698303, -0.09668922424316406, -0.08615819364786148, 0.031449705362319946, 0.1902303248643875, -0.022373050451278687, -0.056994400918483734, -0.1466478854417801, -7.44173739803955e-05, 0.01189679279923439, -0.007629819214344025], [0.0778721272945404, -0.11456861346960068, -0.3747102916240692, 0.1581798940896988, 0.06859054416418076, -0.008528563193976879, -0.024340232834219933, 0.11236078292131424, 0.25442954897880554, 0.1641719937324524, 0.23508039116859436, 0.07305117696523666, 0.01746021769940853, -0.2343846708536148, 0.052312180399894714, 0.19117054343223572, -0.5085914731025696, 0.031086673960089684, 0.014344947412610054, 0.16484560072422028, -0.15222077071666718, -0.0712917223572731, 0.16724130511283875, 0.05597184598445892, 0.046641673892736435, -0.016815971583127975, -0.033222589641809464, -0.0656508058309555, -0.04255850985646248, -0.34339284896850586, -0.014104976318776608, 0.1565028429031372], [-0.01649954356253147, -0.11206784099340439, -0.312486469745636, 0.08256959170103073, -0.19908398389816284, -0.08523154258728027, 0.1269208788871765, -0.22286488115787506, 0.24217575788497925, -0.10131314396858215, 0.015345375053584576, 0.1600216031074524, 0.06537272036075592, -0.22908014059066772, 0.08040061593055725, -0.1185307502746582, -0.36895015835762024, -0.08909300714731216, 0.017152966931462288, 0.014555472880601883, 0.004894376732409, -0.03112560138106346, 0.20675553381443024, 0.043534331023693085, -0.05737427622079849, 0.09654625505208969, 0.04216782748699188, -0.06833598762750626, 0.10451219230890274, -0.19656680524349213, 0.002113113645464182, 0.23016513884067535], [-0.0992455929517746, 0.09007379412651062, 0.01794649288058281, -0.08821672201156616, 0.002149599604308605, -0.006825386546552181, 0.061859168112277985, -0.02205708809196949, -0.06172565370798111, -0.03255615383386612, -0.07269870489835739, -0.06893424689769745, -0.06488350033760071, -0.17973573505878448, -0.045254480093717575, -0.05976369231939316, -0.16437497735023499, 0.08867444097995758, -0.09668855369091034, 0.11315330862998962, 0.037113338708877563, -0.029313385486602783, 0.22229254245758057, -0.013452129438519478, 0.0745401456952095, -0.09122119843959808, -0.2266836315393448, -0.1568206399679184, 0.044264063239097595, 0.03847208619117737, 0.17727571725845337, 0.2141440361738205], [0.06439901143312454, -0.08529459685087204, -0.019087545573711395, -0.11271215975284576, -0.131616473197937, -0.12166416645050049, 0.014370721764862537, 0.03825492411851883, 0.11620375514030457, 0.005746627692133188, 0.09934010356664658, -0.050449199974536896, 0.14985591173171997, 0.12638364732265472, 0.1083182692527771, 0.003352674888446927, 0.25798436999320984, 0.04618401825428009, 0.02081657387316227, 0.07013870775699615, 0.08349930495023727, -0.10180020332336426, -0.08085989207029343, 0.098916195333004, 0.06846090406179428, 0.24428601562976837, 0.12481918931007385, 0.001618649810552597, 0.006277095060795546, 0.07047086209058762, -0.07287579774856567, -0.06754562258720398], [0.2093522995710373, 0.04549610987305641, 0.04860902577638626, -0.16820628941059113, -0.14800822734832764, -0.2467317283153534, 0.07764901220798492, 0.11415580660104752, 0.036585018038749695, -0.03258160874247551, -0.03896906226873398, -0.12706595659255981, -0.1337103694677353, 0.05568656697869301, -0.032453399151563644, -0.03861415013670921, 0.07624934613704681, -0.03677202761173248, -0.004372058901935816, -0.05374399572610855, 0.1293272078037262, -0.19218479096889496, -0.11844571679830551, -0.10229787975549698, -0.014433500356972218, 0.013233454897999763, 0.16718900203704834, 0.18160571157932281, -0.040892768651247025, 0.1767241656780243, -0.1237727478146553, -0.10448693484067917], [-0.023748209699988365, -0.07626854628324509, -0.18550951778888702, 0.11140275001525879, 0.05177970603108406, 0.2141326665878296, -0.12795451283454895, 0.020940454676747322, 0.11547835171222687, 0.02642172761261463, -0.020038403570652008, -0.042795367538928986, 0.12687623500823975, -0.17114387452602386, 0.12842166423797607, 0.1752348244190216, -0.35065439343452454, 0.10461508482694626, -0.05171044543385506, -0.1190689206123352, -0.049323711544275284, 0.09549536556005478, 0.01670241355895996, -0.09396753460168839, -0.027455540373921394, -0.04369015991687775, 0.03849830850958824, -0.1056649312376976, 0.09858846664428711, -0.007561712060123682, 0.17590433359146118, 0.01833764836192131], [0.11310023069381714, -0.2206510305404663, -0.004266223404556513, -0.03562982380390167, -0.4800519645214081, -0.41309353709220886, 0.200022891163826, -0.01609450951218605, 0.21990467607975006, -0.29023170471191406, -0.07900039106607437, -0.03490215912461281, 0.09862866997718811, -0.09284127503633499, 0.14754578471183777, -0.14506588876247406, -0.11472026258707047, -0.061293330043554306, 0.05289069935679436, 0.06228609383106232, 0.1186947226524353, -0.29718512296676636, 0.020195556804537773, 0.056522052735090256, -0.07537118345499039, 0.23090606927871704, 0.2689749598503113, 0.10482664406299591, -0.3714287579059601, -0.025831669569015503, -0.28397366404533386, -0.034387435764074326], [0.002834289101883769, -0.04441693797707558, -0.12309923768043518, 0.12199802696704865, 0.009842249564826488, 0.21469685435295105, 0.14165900647640228, 0.09443118423223495, -0.09907011687755585, 0.15257002413272858, -0.02277938276529312, -0.14035995304584503, -0.024012763053178787, 0.06505397707223892, -0.0124252550303936, 0.18274928629398346, -0.0538555383682251, -0.02690001390874386, -0.04382694512605667, 0.08570696413516998, 0.1086292713880539, -0.04049517214298248, 0.0941842570900917, 0.1105126291513443, 0.105537049472332, -0.046641428023576736, -0.11103766411542892, 0.12733639776706696, -0.19292134046554565, -0.09810875356197357, 0.05157587677240372, 0.09424588829278946], [0.15391084551811218, 0.12608003616333008, -0.06349754333496094, -0.0788530707359314, 0.13515299558639526, 0.12305426597595215, -0.11977220326662064, 0.08373468369245529, -0.05135558173060417, -0.12093646824359894, 0.06226038932800293, 0.038641151040792465, -0.04258657246828079, -0.0790950283408165, 0.051345545798540115, 0.11537130922079086, 0.08636696636676788, -0.13772964477539062, -0.023895831778645515, -0.0009442210430279374, 0.07894545793533325, 0.03847131133079529, -0.03462866321206093, -0.10624491423368454, 0.017716500908136368, 0.10167093575000763, 0.06776561588048935, 0.05098540335893631, -0.04372117668390274, 0.06889042258262634, 0.17355667054653168, -0.08207765221595764], [0.12030397355556488, -0.07320211827754974, 0.012677892111241817, 0.054690826684236526, 0.08254850655794144, 0.04384350776672363, 0.03616902977228165, 0.01032900158315897, -0.059453073889017105, 0.15509948134422302, 0.07533752918243408, -0.01600787229835987, -0.039700429886579514, 0.11004357784986496, 0.09959498792886734, 0.07373999059200287, 0.02381523698568344, 0.011860352009534836, -0.09894728660583496, 0.03000594861805439, 0.16979902982711792, 0.05311427265405655, -0.029586372897028923, -0.021912645548582077, 0.0905815064907074, 0.18049763143062592, 0.04939527437090874, 0.18031221628189087, -0.16709253191947937, 0.060093995183706284, 0.03396410122513771, -0.04134203493595123], [0.06792324781417847, 0.06524066627025604, -0.1753622442483902, -0.11734306067228317, 0.2195013016462326, 0.23607681691646576, -0.019348755478858948, 0.05087548866868019, -0.0185855720192194, 0.16271832585334778, -0.08224454522132874, 0.056341372430324554, 0.0002047903835773468, -0.11092036217451096, 0.15536849200725555, -0.009135915897786617, -0.2131507396697998, 0.07466652244329453, 0.14798425137996674, 0.14893987774848938, 0.12710970640182495, -0.07988286763429642, -0.14633700251579285, -0.05822688713669777, 0.16753260791301727, 0.18179941177368164, 0.06321679055690765, -0.1222270056605339, -0.055469490587711334, 0.026241563260555267, 0.2311805635690689, 0.15234020352363586], [0.1495698094367981, -0.16652603447437286, -0.05406741797924042, -0.0858406275510788, -0.14456436038017273, -0.1728050261735916, 0.059897907078266144, -0.040524158626794815, 0.01927311345934868, -0.14132043719291687, -0.07431168109178543, -0.016869714483618736, 0.14504531025886536, -0.01698984205722809, 0.0625639483332634, 0.03023192659020424, -0.09075553715229034, -0.09543479979038239, 0.04512839391827583, -0.08680878579616547, 0.1863488256931305, -0.1264231652021408, -0.07324469834566116, 0.06863658875226974, -0.0028215558268129826, 0.28480565547943115, 0.21485355496406555, 0.03816118836402893, -0.30959397554397583, -0.13301853835582733, -0.1620151698589325, 0.0031354690436273813], [0.22360561788082123, 0.13422825932502747, 0.3124488890171051, -0.02547479048371315, 0.27076858282089233, 0.030222686007618904, 0.06524143368005753, 0.28577134013175964, 0.04201266169548035, 0.15734131634235382, 0.49045294523239136, -0.2677730917930603, 0.01408402156084776, 0.1268320232629776, -0.033666834235191345, 0.33618485927581787, 0.14983923733234406, -0.04625684767961502, -0.1406974345445633, -0.0011621281737461686, 0.14855770766735077, -0.028206247836351395, -0.10330977290868759, -0.14533782005310059, 0.07674515247344971, -0.0333084873855114, 0.04816379025578499, 0.11315560340881348, 0.12136325985193253, 0.2705055773258209, 0.33602407574653625, -0.1010659784078598], [0.04277462139725685, 0.13427740335464478, 0.15790070593357086, 0.04416963458061218, 0.0714230090379715, 0.0031392162200063467, 0.02874702773988247, 0.07034089416265488, 0.04547547549009323, -0.08317679911851883, 0.022064214572310448, -0.11339849978685379, 0.04435151815414429, 0.09222669154405594, -0.17709822952747345, 0.06398636847734451, 0.1898343861103058, -0.07473891973495483, -0.03209560364484787, 0.0304777380079031, 0.012586504220962524, -0.026219792664051056, 0.02062566764652729, 0.08381496369838715, 0.026609528809785843, 0.06369195133447647, -0.01347397267818451, 0.10229813307523727, -0.08805368840694427, -0.02076454646885395, 0.11619703471660614, -0.04647508263587952], [0.11314705014228821, -0.06046454980969429, -0.03874940052628517, 0.07383348047733307, -0.07103367149829865, -0.11294210702180862, 0.13465185463428497, -0.041071608662605286, 0.04857156425714493, -0.02188107743859291, -0.01295017171651125, -0.0703262984752655, -0.05257011204957962, -0.021700715646147728, 0.07329243421554565, -0.018759340047836304, -0.17635078728199005, -0.05265685170888901, -0.014015188440680504, -0.0737718939781189, 0.07705950736999512, 0.06467632949352264, 0.017846914008259773, -0.004930237773805857, 0.05619717761874199, 0.12480395287275314, 0.006338006816804409, 0.14351369440555573, -0.01677238941192627, -0.039209939539432526, -0.13638512790203094, -0.05314503610134125], [-0.07035713642835617, 0.10983709990978241, 0.12688329815864563, -0.1531745344400406, 0.1610773354768753, 0.1627376526594162, -0.027519160881638527, 0.08120617270469666, -0.02665899693965912, -0.10720974206924438, 0.18030941486358643, 0.036397337913513184, 0.08466901630163193, 0.05548784136772156, -0.16416430473327637, 0.1582535356283188, 0.14505113661289215, 0.06502487510442734, 0.021682133898139, -0.09523822367191315, -0.10468962788581848, -0.03695797920227051, -0.04754821956157684, 0.005109234247356653, 0.05029718577861786, 0.13325805962085724, -0.15409579873085022, 0.01992253214120865, -0.12376107275485992, -0.04108039662241936, 0.10879159718751907, -0.016209764406085014], [0.07766860723495483, -0.12534303963184357, -0.16125474870204926, -0.061203960329294205, 0.08362021297216415, -0.026602378115057945, 0.02550124004483223, -0.0763271301984787, 0.05174626410007477, -0.011942669749259949, 0.06050507351756096, -0.009806721471250057, 0.09356506913900375, -0.051082056015729904, 0.05785965546965599, 0.012928944081068039, -0.14731279015541077, 0.016157368198037148, -0.06114645302295685, -0.08918673545122147, 0.023353589698672295, -0.10890654474496841, -0.01337756309658289, 0.08768880367279053, 0.0509890541434288, 0.12794746458530426, 0.16691496968269348, 0.05571751296520233, -0.11453039199113846, 0.041468989104032516, -0.11712290346622467, -0.10317737609148026], [0.053053900599479675, 0.032871417701244354, -0.2155223786830902, 0.06341437995433807, 0.09602943062782288, 0.05625484883785248, 0.057420630007982254, 0.04476691409945488, 0.3198717534542084, 0.040009353309869766, 0.07512041181325912, -0.018023967742919922, 0.20561756193637848, 0.05077360197901726, -0.137995645403862, 0.1108623519539833, -0.24447131156921387, 0.04586847499012947, 0.026974236592650414, -0.0036022686399519444, -0.033236682415008545, -0.02317732386291027, 0.012735378928482533, 0.016706563532352448, 0.028409019112586975, 0.11033498495817184, 0.0639866441488266, 0.0778769701719284, -0.0003685385745484382, 0.010250719264149666, 0.03297688066959381, 0.12739434838294983], [0.15669424831867218, 0.08681583404541016, 0.0026480755768716335, -0.02857331931591034, 0.18405866622924805, 0.11066973209381104, -0.09679071605205536, 0.12684446573257446, 0.0380311943590641, 0.13305771350860596, 0.3033708333969116, -0.019571498036384583, 0.007129091303795576, 0.12230628728866577, 0.059610240161418915, 0.21129655838012695, 0.2431335598230362, 0.0250663161277771, -0.024926479905843735, -0.02623791992664337, 0.029069816693663597, 0.1015307679772377, -0.181873619556427, 0.032130684703588486, 0.020428955554962158, 0.15115775167942047, 0.026250328868627548, 0.060136694461107254, 0.024255583062767982, 0.045141205191612244, 0.20255008339881897, -0.13518306612968445], [0.11566729843616486, 0.12360215187072754, 0.09506738930940628, -0.128382608294487, 0.0002506815944798291, -0.016190996393561363, 0.05377975106239319, 0.048702046275138855, 0.0887950137257576, -0.060223039239645004, 0.028340741991996765, 0.025606118142604828, -0.10937240719795227, 0.11574027687311172, 0.12279286980628967, 0.13447029888629913, -0.008327459916472435, 0.011132887564599514, 0.03514021262526512, 0.016663553193211555, 0.02030283398926258, -0.020254692062735558, -0.11975080519914627, -0.11430347710847855, -0.03456694260239601, 0.05396096035838127, -0.004176170565187931, -0.025893669575452805, -0.10286305099725723, -0.038070499897003174, 0.07184624671936035, -0.06528298556804657], [0.07648269832134247, 0.034024789929389954, 0.12885317206382751, -0.03777824714779854, 0.027183331549167633, -0.12605632841587067, -0.09834232181310654, 0.045330096036195755, -0.055414650589227676, 0.07431571930646896, 0.022624652832746506, -0.11471322178840637, -0.0014125510351732373, 0.1193632259964943, -0.13977393507957458, 0.07689109444618225, -0.03337135538458824, 0.03143259137868881, 0.00851910375058651, -0.18247385323047638, 0.004237460903823376, 0.07053009420633316, -0.10676763951778412, 0.011239966377615929, 0.021342016756534576, -0.06217758357524872, -0.05123098939657211, -0.011580592952668667, -0.14940063655376434, 0.047528427094221115, 0.006111550144851208, -0.03958640992641449], [0.17991949617862701, -0.10286488384008408, -0.04411299154162407, 0.1732865273952484, 0.21971982717514038, 0.2893744707107544, 0.05275176465511322, 0.054112862795591354, 0.08819505572319031, 0.17374391853809357, 0.38942191004753113, 0.10571480542421341, -0.07549639046192169, -0.1919575184583664, -0.039444372057914734, 0.1134347915649414, -0.18681809306144714, 0.06907997280359268, 0.12427261471748352, -0.0431058406829834, -0.0603565089404583, 0.06729274243116379, -0.013082871213555336, 0.09892452508211136, 0.02499610185623169, -0.08823949098587036, -0.04718373343348503, 0.0192438755184412, -0.003424219088628888, -0.028578152880072594, 0.42162588238716125, 0.1953776478767395], [0.016637427732348442, -0.0024426805321127176, -0.09718327969312668, 0.0229874886572361, -0.08289968967437744, -0.05958017334342003, -0.08121447265148163, -0.08025398850440979, 0.041220877319574356, -0.035138197243213654, -0.022579794749617577, 0.15387731790542603, 0.07502465695142746, -0.034141771495342255, 0.048079267144203186, 0.021433880552649498, -0.21267883479595184, 0.016214026138186455, -0.05153743550181389, 0.016365427523851395, 0.015647059306502342, 0.011287390254437923, -0.017447609454393387, 0.06733208894729614, -0.04295339435338974, 0.05347771942615509, -0.019536206498742104, 0.09584134817123413, 0.10301899164915085, -0.06024754419922829, 0.0780148133635521, 0.02429424785077572], [0.001028507249429822, -0.11767742037773132, 0.04321018606424332, 0.04360438510775566, -0.1049477830529213, -0.02854750119149685, -0.010994489304721355, 0.04070824757218361, 0.10176996886730194, -0.12040433287620544, 0.11296987533569336, -0.07965845614671707, 0.11582635343074799, 0.10948731750249863, 0.09239856153726578, 0.004811604041606188, -0.1712549328804016, -0.11197959631681442, 0.009830291382968426, 0.027589350938796997, -0.02555972896516323, -0.0484989769756794, -0.06982234865427017, 0.020139852538704872, 0.03886480629444122, 0.11615774035453796, 0.0023248367942869663, 0.10077687352895737, 0.04274756833910942, -0.12414171546697617, -0.10615488141775131, -0.008892660960555077], [-0.04694564640522003, 0.02682037279009819, 0.09076812863349915, -0.07393033057451248, -0.17307148873806, 0.11371800303459167, 0.10970333963632584, -0.10471013933420181, 0.06757840514183044, 0.04430786892771721, -0.1815076470375061, 0.11979124695062637, 0.011350080370903015, -0.09176968783140182, 0.07274269312620163, -0.026442531496286392, -0.03502829372882843, 0.054907843470573425, -0.034521568566560745, 0.12854433059692383, -0.001377417123876512, -0.07688619196414948, 0.1224898099899292, 0.14925356209278107, 0.017165038734674454, 0.03330085426568985, -0.10520388185977936, 0.07431212067604065, 0.16205745935440063, -0.18489713966846466, 0.03615378960967064, 0.2151682823896408], [0.07526037842035294, 0.10187020152807236, 0.17038078606128693, -0.16622604429721832, 0.3475235402584076, 0.21375125646591187, -0.14977619051933289, 0.17149236798286438, -0.007761870976537466, 0.13256722688674927, 0.330439954996109, -0.11129678040742874, 0.02977485954761505, 0.1663820445537567, 0.03252587839961052, 0.24207928776741028, 0.03701132535934448, -0.04328620806336403, -0.008427386172115803, -0.0704374760389328, -0.003911485429853201, 0.12493360787630081, -0.12720759212970734, 0.06439781188964844, 0.02350011095404625, 0.12281020730733871, -0.030156396329402924, 0.0099854851141572, -0.02651575393974781, 0.049740154296159744, 0.3393896818161011, -0.0487552210688591], [-0.036629557609558105, -0.09183944761753082, -0.13657087087631226, 0.2327747493982315, -0.12941083312034607, 0.021287526935338974, 0.2485085129737854, -0.1474040448665619, -0.0858689546585083, -0.07474100589752197, -0.16227121651172638, 0.32748162746429443, 0.10140977054834366, -0.024161992594599724, 0.2465076446533203, -0.11959809064865112, -0.3430461883544922, 0.033483583480119705, 0.07745371013879776, 0.14667227864265442, 0.06630168855190277, -0.021514611318707466, 0.12273107469081879, 0.04170377552509308, 0.05209481716156006, 0.20814013481140137, 0.09247730672359467, 0.021064383909106255, 0.0658584013581276, -0.2984144687652588, -0.23020458221435547, 0.06395331770181656], [0.02228064462542534, 0.0877399891614914, 0.12122361361980438, 0.020457232370972633, 0.044873226433992386, -0.13893811404705048, -0.09882108122110367, 0.1674482524394989, -0.009553561918437481, -0.04352429136633873, 0.09021664410829544, 0.012383488938212395, -0.016702545806765556, 0.17075762152671814, -0.13523922860622406, 0.05681934207677841, 0.1526566743850708, -0.1609107404947281, -0.03148313984274864, -0.15777279436588287, 0.04551040753722191, 0.06193456053733826, 0.031076909974217415, 0.02281935140490532, 0.012907168827950954, -0.05064283311367035, 0.03374771773815155, -0.014343900606036186, -0.031678564846515656, 0.18615320324897766, -0.07159538567066193, -0.17576931416988373], [-0.07907365262508392, 0.031254690140485764, 0.14122506976127625, -0.22001029551029205, 0.18516762554645538, 0.13804025948047638, -0.0778551772236824, 0.15601950883865356, 0.011404518969357014, -0.11643613129854202, 0.16836188733577728, -0.2420782744884491, -0.21200333535671234, 0.06933754682540894, -0.14063610136508942, -0.00936987902969122, 0.10333918035030365, -0.030438750982284546, -0.08485928177833557, -0.11618126183748245, -0.08043720573186874, -0.03344227746129036, 0.1324739307165146, -0.10064801573753357, -0.101645328104496, -0.16182735562324524, -0.03124340996146202, 0.0805060863494873, 0.006814001593738794, 0.25733277201652527, -0.1467006802558899, -0.1809609830379486], [-0.03788493573665619, -0.0925920233130455, -0.115508072078228, -0.22504694759845734, 0.1369694024324417, 0.2037505805492401, -0.15796267986297607, -0.23500628769397736, -0.10535094887018204, 0.14889739453792572, -0.06816904991865158, -0.2762291431427002, -0.0181766077876091, 0.06038808077573776, -0.11744667589664459, -0.10836942493915558, 0.034749459475278854, 0.09045285731554031, 0.01150831114500761, -0.11296781152486801, -0.22560562193393707, 0.07520070672035217, 0.016984442248940468, -0.17486581206321716, -0.10190306603908539, -0.33422163128852844, -0.0004932733136229217, -0.28957390785217285, 0.18192604184150696, -0.0638490840792656, 0.08507901430130005, 0.1723444014787674], [-0.06530296802520752, 0.30924874544143677, 0.1521814614534378, -0.14543868601322174, 0.10404208302497864, 0.005077861249446869, -0.07150840759277344, -0.14635568857192993, -0.3634223937988281, -0.02319522574543953, -0.1413954198360443, -0.27472037076950073, -0.26077815890312195, 0.04991018772125244, -0.15105879306793213, -0.2802107632160187, 0.286708801984787, -0.07715556025505066, -0.05536523088812828, -0.03276878967881203, -0.19639502465724945, 0.151611328125, 0.021461492404341698, -0.3078218996524811, -0.2249927520751953, -0.5552719831466675, -0.1756184697151184, -0.09745834022760391, 0.32156309485435486, 0.246831014752388, -0.24753475189208984, 0.03608201444149017], [-0.056713465601205826, 0.03356269374489784, -0.044123806059360504, 0.2546447813510895, -0.1252513825893402, -0.1286410391330719, 0.150636225938797, -0.11464039981365204, -0.1770392656326294, -0.08612848073244095, 0.16599959135055542, 0.17087610065937042, 0.1549879014492035, -0.13889294862747192, 0.23999843001365662, 0.0939231738448143, -0.044793736189603806, 0.11182381212711334, -0.13774096965789795, 0.1311352401971817, 0.11806656420230865, 0.09801717102527618, -0.018512438982725143, -0.0009868295164778829, 0.0595548115670681, 0.35079699754714966, 0.06373585760593414, -0.06853970140218735, -0.09714017808437347, 0.07958999276161194, -0.14472582936286926, -0.14833971858024597], [-0.022173548117280006, 0.21645845472812653, 0.11459168046712875, -0.08218033611774445, 0.22326835989952087, 0.13212092220783234, 0.0018512425012886524, 0.08506426215171814, -0.21230919659137726, 0.04139718413352966, -0.003942322917282581, -0.11456353962421417, -0.006921424996107817, 0.09965873509645462, -0.1490984559059143, 0.044341299682855606, -0.1081305667757988, 0.10576970875263214, 0.03904265910387039, -0.018004275858402252, -0.02502366527915001, -0.06817368417978287, 0.13219989836215973, -0.3152962028980255, -0.07909104228019714, -0.417483925819397, -0.008734394796192646, -0.10947316884994507, 0.1741674393415451, 0.1716923713684082, -0.12611962854862213, 0.1266331970691681], [-0.13738232851028442, 0.06863585114479065, 0.05803079158067703, 0.048450767993927, -0.008557026274502277, 0.14639273285865784, -0.18808646500110626, -0.14772650599479675, -0.2544771730899811, 0.02209348976612091, 0.13675320148468018, -0.11741631478071213, -6.0624879552051425e-05, 0.1203639879822731, -0.1680666208267212, 0.05167171731591225, -0.06499489396810532, 0.07824501395225525, 0.18303366005420685, -0.12329704314470291, -0.21800480782985687, -0.04564383625984192, -0.1015256866812706, -0.2638940215110779, -0.09732472896575928, -0.3491908609867096, 0.0019961600191891193, -0.14392705261707306, 0.08363019675016403, -0.011545459739863873, 0.05081859603524208, 0.20108208060264587], [0.05939383804798126, -0.2435983568429947, -0.08344798535108566, -0.06098540872335434, -0.20414860546588898, -0.18579158186912537, 0.02691146731376648, -0.024426966905593872, 0.14457063376903534, -0.23942869901657104, -0.20233838260173798, 0.28599581122398376, 0.017326457425951958, -0.08994419127702713, 0.03990193083882332, 0.0018420941196382046, -0.2748852074146271, -0.17934654653072357, -0.04107176139950752, 0.04098336398601532, 0.20588281750679016, 0.09189832955598831, 0.13923746347427368, 0.26883962750434875, 0.29239553213119507, 0.2923857569694519, 0.21151632070541382, 0.2349918633699417, -0.15638794004917145, -0.0010337489657104015, -0.03156958520412445, -0.018221663311123848], [-0.0549490749835968, 0.2802684009075165, -0.05269721522927284, -0.26556268334388733, 0.053206950426101685, 0.06716999411582947, -0.23233340680599213, -0.16350319981575012, -0.2537640333175659, 0.09231700748205185, -0.02208666503429413, -0.03760423883795738, -0.26041707396507263, 0.05631228908896446, 0.034316688776016235, -0.012626007199287415, 0.20885030925273895, 0.048957422375679016, 0.17251679301261902, -0.008344274945557117, 0.03559868782758713, -0.12306538969278336, 0.0069398959167301655, -0.10493388026952744, -0.3140609860420227, -0.3719173073768616, -0.14856623113155365, -0.020206274464726448, 0.13538166880607605, 0.0709599182009697, 0.13103437423706055, 0.005192888434976339], [0.011214099824428558, -0.007626289036124945, -0.023897381499409676, 0.009365178644657135, 0.19301973283290863, -0.05444402992725372, -0.1167929396033287, 0.19634008407592773, -0.06808074563741684, 0.08992014825344086, 0.3670800030231476, -0.009879164397716522, -0.007664534263312817, 0.11492785811424255, 0.10484002530574799, 0.012921883724629879, 0.40654656291007996, 0.17191769182682037, -0.14802932739257812, 0.12322451919317245, 0.06707485020160675, 0.1639501005411148, 0.008915788494050503, 0.06905778497457504, -0.05627967417240143, -0.2345791757106781, 0.1439616084098816, 0.1536112129688263, -0.010084636509418488, 0.04553816840052605, 0.27661651372909546, 0.12531612813472748], [0.023165229707956314, 0.2535451352596283, -0.12146054953336716, -0.18739430606365204, 0.2202814519405365, 0.10968444496393204, -0.23477566242218018, 0.16159211099147797, 0.20263759791851044, -0.051893867552280426, 0.14459455013275146, -0.004846698138862848, -0.19109554588794708, -0.005487895105034113, -0.2457694411277771, -0.1561136245727539, 0.20711567997932434, 0.12075577676296234, 0.18009532988071442, -0.08581839501857758, -0.012507455423474312, -0.07667018473148346, 0.17057040333747864, 0.04887015372514725, -0.006016913801431656, -0.1361726075410843, -0.1667691320180893, -0.13238872587680817, 0.21393059194087982, -0.049668412655591965, 0.035639312118291855, 0.14515455067157745], [-0.15956760942935944, 0.24769191443920135, 0.12076116353273392, -0.12351599335670471, 0.23816730082035065, 0.22055907547473907, -0.11000563949346542, 0.11192905902862549, -0.33621537685394287, -0.013418475165963173, -0.12453565001487732, -0.23732218146324158, -0.5877158045768738, 0.0044288551434874535, 0.02928103692829609, -0.04794209823012352, -0.02994500659406185, 0.11981353163719177, -0.30981048941612244, -0.2604847550392151, 0.055025096982717514, 0.06081783026456833, 0.03193865716457367, -0.5392011404037476, -0.26600515842437744, -0.6178752183914185, -0.2623233497142792, -0.11575514078140259, 0.171548530459404, 0.2836203873157501, -0.04542604088783264, -0.09505335986614227], [-0.01753203757107258, -0.03726371377706528, -0.03917674347758293, 0.1073695495724678, -0.2051045447587967, 0.07866508513689041, -0.000811240985058248, 0.030831407755613327, -0.12827196717262268, -0.07068973779678345, -0.14064891636371613, 0.06066407263278961, 0.1393665075302124, -0.2034604400396347, 0.06892956048250198, -0.026599068194627762, -0.17834049463272095, 0.1284390538930893, -0.13092118501663208, 0.18869823217391968, -0.06796079128980637, 0.03448493778705597, -0.05774039775133133, 0.26056721806526184, -0.031499311327934265, 0.33557209372520447, -0.031832724809646606, -0.05790446698665619, -0.03056764043867588, -0.048476096242666245, -0.07675309479236603, -0.1730547547340393], [0.09013357013463974, -0.05285276845097542, 0.19568274915218353, -0.16291497647762299, 0.1568504273891449, -0.08761279284954071, 0.10799551755189896, 0.21006400883197784, 0.08017339557409286, 0.05325492098927498, 0.15747778117656708, 0.005080066621303558, -0.026639342308044434, -0.08100409805774689, 0.16667887568473816, 0.24845033884048462, 0.18302902579307556, 0.09189677983522415, 0.05023159086704254, -0.07088745385408401, 0.15034803748130798, -0.09906268864870071, -0.2480902224779129, 0.06949073821306229, -0.09192989766597748, 0.15927496552467346, -0.09379982948303223, 0.13213250041007996, -0.2030489146709442, 0.16800658404827118, 0.0852341577410698, -0.13310985267162323], [-0.21915662288665771, 0.06932149827480316, 0.039542414247989655, -0.06211072579026222, 0.16794739663600922, -0.025915879756212234, -0.17564551532268524, 0.023290127515792847, -0.09960009902715683, 0.10147103667259216, -0.07004867494106293, -0.06822161376476288, -0.06332632899284363, 0.07978846877813339, -0.22057250142097473, -0.07199425250291824, -0.003208185313269496, -0.03173850476741791, -0.02004794031381607, -0.17321230471134186, 0.007626784034073353, 0.023067891597747803, 0.22393488883972168, -0.1801641434431076, -0.16568247973918915, -0.04693971574306488, -0.2304593175649643, -0.15753929316997528, 0.08970502018928528, -0.1267188936471939, -0.09068787842988968, -0.03287207707762718], [0.08882276713848114, -0.03678131476044655, -0.07496288418769836, 0.11162123829126358, 0.003612296190112829, 0.08467357605695724, 0.174165278673172, -0.03191438317298889, -0.07749110460281372, -0.10024543851613998, -0.016595128923654556, 0.12964361906051636, 0.1536191701889038, -0.20051342248916626, 0.2614179849624634, 0.1077888011932373, -0.06701876223087311, -0.14284630119800568, 0.07468976080417633, 0.2092714011669159, 0.15481853485107422, -0.0038428872358053923, 0.030356550589203835, 0.06872349977493286, 0.044655852019786835, 0.31116607785224915, -0.008442732505500317, 0.2374054491519928, -0.02612420730292797, -0.2025204300880432, 0.13454802334308624, -0.11301195621490479], [-0.05195503681898117, 0.31507408618927, 0.03199039772152901, -0.11390489339828491, 0.1974634975194931, -0.04723424091935158, -0.03057882748544216, -0.0645594596862793, -0.10936922580003738, 0.279649943113327, 0.04697876796126366, -0.05050239711999893, -0.04724034294486046, 0.11685745418071747, -0.15763580799102783, -0.11282888054847717, -0.036521777510643005, -0.10307838022708893, 0.049947965890169144, -0.058023810386657715, -0.2287507951259613, -0.006574191618710756, 0.017912795767188072, -0.3079856038093567, -0.1708005964756012, -0.14665699005126953, -0.0010320846922695637, -0.1830410361289978, -0.010131362825632095, 0.008225805126130581, 0.04182056710124016, -0.07861626893281937], [-0.45888617634773254, 0.3995279371738434, -0.03443782776594162, -0.2552948296070099, 0.38315463066101074, 0.3538075387477875, -0.3131857216358185, -0.21618956327438354, -0.3384857773780823, 0.12951844930648804, -0.14149722456932068, -0.1838134527206421, -0.24249647557735443, 0.1417204588651657, -0.43358948826789856, -0.20963932573795319, 0.03425440937280655, 0.08372525125741959, 0.3627610504627228, -0.5501757860183716, -0.06124284490942955, 0.038281723856925964, 0.01747705414891243, -0.44795605540275574, -0.16449208557605743, -0.8372726440429688, -0.32141196727752686, -0.2714081108570099, 0.6279062032699585, 0.20407363772392273, -0.12420682609081268, 0.01187682431191206], [0.2116628885269165, -0.07838628441095352, -0.036460209637880325, 0.15737539529800415, -0.04149692505598068, -0.020517796277999878, -0.10957510024309158, -0.06304982304573059, -0.07405205070972443, -0.13321764767169952, -0.06825699657201767, 0.03573186695575714, -0.025586288422346115, -0.08529059588909149, 0.17005807161331177, -0.019012119621038437, -0.17054224014282227, -0.008163332007825375, -0.0818471759557724, -0.10526556521654129, -0.08249121159315109, 0.10908304899930954, 0.053111664950847626, -0.005276242271065712, 0.2194298952817917, 0.2492489218711853, -0.021639913320541382, 0.1372145563364029, -0.07535964250564575, 0.00031589766149409115, -0.02117684856057167, 0.016699371859431267], [0.07062346488237381, -0.23406066000461578, 0.11741272360086441, 0.11967656016349792, -0.03091074712574482, -0.18653681874275208, 0.1166733130812645, 0.09481876343488693, -0.04526885598897934, -0.002483271062374115, 0.11547473818063736, 0.040086742490530014, 0.1449173390865326, 0.05190163478255272, -0.0783354789018631, 0.18494215607643127, 0.046253226697444916, -0.1262855976819992, -0.22675295174121857, -0.07132631540298462, 0.13996858894824982, -0.11005894839763641, -0.1365489810705185, 0.24289624392986298, 0.12490785121917725, 0.3231261968612671, 0.12030786275863647, 0.04733503237366676, -0.12872596085071564, 0.12461461871862411, 0.06242510303854942, -0.1293662190437317], [0.06400392204523087, -0.12245739251375198, 0.0007921301876194775, 0.1234266608953476, 0.020885340869426727, -0.025541210547089577, -0.04415224865078926, 0.06918518990278244, -0.02940886840224266, -0.00010615459177643061, 0.1986994445323944, -0.024268900975584984, 0.05659836530685425, 0.022146672010421753, -0.0976044312119484, 0.19465120136737823, 0.16882148385047913, -0.18226520717144012, -0.04922490194439888, 0.17167308926582336, 0.19523976743221283, -0.011074746027588844, 0.05694647878408432, 0.1501285284757614, 0.22738634049892426, 0.037621088325977325, 0.016634395346045494, -0.01432006061077118, 0.1261819452047348, -0.07371437549591064, 0.06464709341526031, -0.17555111646652222], [0.06750622391700745, 0.1586003303527832, -0.05249844491481781, -0.18990398943424225, -0.08849415928125381, -0.16841545701026917, 0.07513394206762314, 0.15186315774917603, 0.03279844671487808, 0.1451674848794937, 0.11297287791967392, -0.1059764102101326, -0.09584994614124298, 0.01949896477162838, 0.07598567754030228, -0.07326976954936981, 0.09110435843467712, -0.14228196442127228, -0.0577879324555397, 0.0822545737028122, -0.03820417448878288, 0.07711475342512131, -0.02092672511935234, -0.08965589851140976, -0.10996437817811966, -0.033644527196884155, -0.0377216637134552, -0.10488517582416534, 0.08679226785898209, 0.004990418441593647, -0.1135355606675148, -0.16446276009082794], [-0.09725262969732285, 0.036201369017362595, -0.29683858156204224, 0.17120561003684998, 0.07208574563264847, 0.1515246331691742, 0.015665486454963684, -0.06111220270395279, 0.12767982482910156, 0.043725259602069855, -0.2584936320781708, 0.10013936460018158, -0.028810838237404823, 0.03213299438357353, -0.09992285072803497, 0.1158190593123436, -0.16821908950805664, -0.1120554581284523, 0.10815322399139404, 0.17288418114185333, 0.015019767917692661, 0.03573162481188774, 0.20838120579719543, 0.11664986610412598, -0.07089677453041077, -0.12085925787687302, 0.09393439441919327, -0.23806118965148926, -0.13859328627586365, -0.2550477683544159, -0.09713312983512878, 0.13527964055538177], [0.15446463227272034, -0.10890451073646545, -0.2539762854576111, 0.09311215579509735, -0.09424077719449997, -0.09457506984472275, 0.27949848771095276, -0.05668310821056366, 0.2678883671760559, 0.08759815990924835, 0.12425700575113297, 0.19047942757606506, 0.03310920298099518, -0.2422054558992386, 0.10771536082029343, 0.10015426576137543, -0.5584811568260193, -0.004934701137244701, -0.04538756236433983, 0.24705621600151062, 0.1793476790189743, -0.14243005216121674, 0.09536553919315338, 0.10579822212457657, 0.03480952978134155, 0.36865314841270447, 0.2355823814868927, 0.23782260715961456, -0.024682505056262016, -0.35038426518440247, 0.1286337524652481, 0.21021762490272522], [0.09643500298261642, 0.23235222697257996, 0.18494711816310883, 0.09270256757736206, 0.16239093244075775, 0.16603635251522064, -0.083096943795681, 0.13567498326301575, -0.012226521968841553, -0.09872009605169296, -0.042740073055028915, -0.059347059577703476, 0.05507051199674606, 0.06050010398030281, 0.1235375627875328, 0.06996874511241913, 0.16125832498073578, -0.08492015302181244, 0.07253441959619522, -0.14879795908927917, -0.05416398122906685, 0.13037987053394318, -0.0017994513036683202, -0.01135938335210085, 0.10677142441272736, 0.12251371145248413, 0.02091725915670395, -0.03848986700177193, -0.13098609447479248, 0.14914271235466003, 0.18943683803081512, -0.0017245181370526552], [-0.19347959756851196, -0.04265070706605911, 0.17674005031585693, -0.07313959300518036, 0.10011337697505951, -0.031754642724990845, -0.10336466878652573, 0.22233076393604279, -0.04022201523184776, 0.11080039292573929, 0.07397964596748352, 0.09851349145174026, -0.09685869514942169, -0.05113089084625244, 0.012695031240582466, -0.12554806470870972, -0.08205199986696243, -0.023730233311653137, -0.1499224156141281, -0.10581663995981216, -0.028521085157990456, -0.006570464000105858, -0.12498296052217484, -0.09584752470254898, -0.008871941827237606, -0.2250550091266632, 0.031010013073682785, -0.16328221559524536, -0.15063098073005676, 0.112777940928936, -0.12366252392530441, -0.09196613729000092], [-0.0422535315155983, 0.15291398763656616, -0.06784451007843018, -0.0819709375500679, 0.1515369862318039, -0.058424532413482666, 0.11959255486726761, 0.14588585495948792, 0.02783975750207901, 0.04245484992861748, 0.10700365155935287, -0.06184833496809006, 0.10416808724403381, 0.0015303152613341808, 0.12892132997512817, 0.13531219959259033, 0.18642523884773254, -0.11693712323904037, -0.12454129755496979, -0.016577906906604767, 0.15646809339523315, -0.1044524759054184, 0.03503553196787834, 0.07724018394947052, 0.1641850769519806, 0.06193886697292328, 0.04377105459570885, 0.14126288890838623, 0.035396602004766464, -0.08205942809581757, -0.1345382034778595, 0.10499938577413559], [0.03770861029624939, 0.1798648089170456, 0.07144351303577423, -0.15353581309318542, 0.003328068647533655, 0.0007429258548654616, 0.014618288725614548, 0.13356006145477295, 0.18089903891086578, -0.05905649811029434, 0.10291225463151932, 0.10631190240383148, -0.00021522289898712188, 0.06331564486026764, -0.02830776944756508, -0.17860108613967896, 0.17511263489723206, 0.0001445757516194135, -0.0784095972776413, -0.005709729623049498, 0.21549227833747864, -0.18871790170669556, -0.25387701392173767, -0.1357453465461731, -0.040236230939626694, -0.13038383424282074, 0.018582284450531006, -0.12099824845790863, -0.23336169123649597, -0.00551835261285305, -0.02388065494596958, -0.1600935310125351], [0.12435328960418701, 0.06419070810079575, 0.22484734654426575, 0.0068146646954119205, -0.0986533835530281, 0.1061631366610527, 0.09265325963497162, 0.19019648432731628, 0.020944884046912193, -0.01301416102796793, 0.04191207140684128, -0.07532985508441925, -0.15429754555225372, 0.0745895653963089, -0.10553557425737381, -0.024044716730713844, 0.11513468623161316, 0.0478912778198719, 0.0024940951261669397, -0.16495965421199799, -0.09061429649591446, 0.0012024824973195791, -0.040138427168130875, -0.11976367980241776, 0.07413290441036224, -0.09137087315320969, -0.08949432522058487, -0.07740963250398636, 0.10056648403406143, -0.022839650511741638, 0.045218177139759064, -0.23889505863189697], [0.0071274274960160255, -0.16614072024822235, -0.24127888679504395, -0.07087036967277527, -0.09535322338342667, -0.028445536270737648, 0.05566643178462982, -0.049909837543964386, -0.03947775810956955, -0.1907014697790146, -0.2861815094947815, -0.10043686628341675, -0.03768017888069153, 0.1317240446805954, 0.08623924851417542, -0.20769354701042175, -0.1908874660730362, -0.09714508056640625, 0.0967809185385704, -0.1582133173942566, 0.09023895114660263, 0.07862410694360733, -0.0951402485370636, -0.1751120239496231, -0.15013261139392853, -0.11801957339048386, -0.2070385217666626, -0.06200288236141205, 0.1207083910703659, -0.17861364781856537, -0.1064038798213005, 0.13311274349689484], [-0.08900496363639832, -0.13114510476589203, 0.14638680219650269, -0.07666817307472229, 0.13634395599365234, -0.1498280018568039, -0.1748015582561493, 0.028154270723462105, -0.028401631861925125, -0.16243894398212433, -0.15397077798843384, -0.12085265666246414, -0.05251230672001839, 0.0699346587061882, -0.020389532670378685, -0.3231079578399658, 0.013361741788685322, 0.005771644413471222, 0.009544644504785538, -0.010939997620880604, 0.023376256227493286, 0.11231013387441635, 0.16816705465316772, -0.18395031988620758, -0.14202046394348145, -0.30480125546455383, -0.2125605046749115, -0.09640517830848694, 0.17493733763694763, -0.024703968316316605, -0.06403142958879471, -0.09591301530599594], [0.18812063336372375, 0.38350191712379456, 0.025094138458371162, -0.020381199195981026, 0.22277532517910004, 0.2509739100933075, -0.047433577477931976, 0.08926854282617569, -0.37187930941581726, 0.027923762798309326, 0.39242249727249146, -0.032972630113363266, -0.2559725046157837, 0.08744905889034271, 0.00029406356043182313, 0.1328909695148468, -0.09040960669517517, 0.1582118272781372, -0.30144381523132324, -0.03355087712407112, -0.09315384179353714, 0.1850413829088211, 0.207529678940773, -0.4058837592601776, -0.1345854103565216, -0.4230014979839325, -0.002073130803182721, 0.03906223922967911, 0.23152607679367065, 0.15635013580322266, 0.11630497872829437, -0.027471628040075302], [0.14667068421840668, -0.13395757973194122, 0.010574604384601116, 0.14068347215652466, -0.0769544243812561, -0.1463870406150818, 0.11864333599805832, 0.03741041198372841, 0.060909900814294815, -0.14176499843597412, 0.07281824201345444, 0.1547718197107315, -0.037044696509838104, -0.030803848057985306, 0.03812551870942116, 0.04987671226263046, -0.2742285132408142, -0.1491977572441101, -0.2680715024471283, 0.113375723361969, -0.05323685333132744, 0.12636011838912964, -0.015751410275697708, 0.04155426472425461, -0.004411994945257902, 0.13890622556209564, 0.08894748240709305, 0.16668623685836792, -0.06971924006938934, 0.0854865238070488, 0.06123292073607445, -0.12076105177402496], [-0.05769830197095871, -0.1428026407957077, -0.16224876046180725, 0.18025487661361694, -0.012486831285059452, -0.033136703073978424, 0.15910355746746063, -0.13310642540454865, 0.09182313829660416, -0.11765659600496292, -0.271546334028244, 0.0480353981256485, 0.1328079104423523, -0.12218467891216278, 0.14045406877994537, -0.09375310689210892, -0.14069974422454834, 0.06723517179489136, 0.11435799300670624, 0.03401494771242142, -0.009057422168552876, -0.044329944998025894, 0.009320627897977829, 0.07346966117620468, 0.014873056672513485, 0.11244267225265503, -0.055866584181785583, -0.02170809544622898, -0.0530436709523201, -0.07101374864578247, -0.2040121704339981, 0.038770899176597595], [-0.018048275262117386, -0.07461696863174438, -0.3022056818008423, 0.1745261698961258, 0.7037070393562317, 0.7002062201499939, 0.07520116865634918, 0.08374570310115814, 0.0033636093139648438, 0.16498561203479767, 0.7338017821311951, 0.17680223286151886, -0.05942356586456299, -0.17475609481334686, 0.07342062890529633, 0.48545852303504944, -0.5774672627449036, 0.1463324874639511, -0.1520698219537735, 0.03230336308479309, -0.24430668354034424, 0.25497815012931824, 0.09025999158620834, 0.12829312682151794, 0.1216391921043396, -0.04342683404684067, -0.2841228246688843, -0.1896376758813858, 0.05948415771126747, -0.32120853662490845, 0.7127843499183655, 0.03542032837867737], [0.07210845500230789, 0.23842807114124298, 0.07899898290634155, -0.07455358654260635, 0.29870641231536865, 0.18245142698287964, -0.20483778417110443, 0.024690665304660797, -0.05104795843362808, 0.2778001129627228, 0.28205054998397827, -0.12921740114688873, -0.04182010516524315, -0.017382945865392685, -0.07492587715387344, 0.31526318192481995, 0.17993293702602386, -0.0031234712805598974, -0.07153856009244919, 0.15340106189250946, 0.09675692766904831, 0.2461790293455124, -0.011684028431773186, 0.13990318775177002, 0.0511956512928009, 0.11239375919103622, -0.044596072286367416, -0.07700558006763458, -0.003711705096065998, -0.018432391807436943, 0.18013644218444824, 0.032864391803741455], [0.0008399077923968434, 0.059597358107566833, 0.09198245406150818, 0.022112680599093437, 0.6365700960159302, 0.6202402114868164, -0.07171652466058731, 0.09722740203142166, -0.026026932522654533, 0.1254117339849472, 0.5097386837005615, -0.011798212304711342, -0.030056433752179146, -0.17561745643615723, 0.1143185943365097, 0.3091380000114441, -0.21649512648582458, 0.04266337305307388, -0.01143515482544899, 0.046410221606492996, -0.056055065244436264, 0.21424342691898346, 0.11053819209337234, 0.07563832402229309, 0.07640618085861206, 0.08663714677095413, -0.08465953916311264, -0.0022348230704665184, 0.1540485918521881, -0.11485375463962555, 0.6163933873176575, -0.04256052523851395], [-0.33398720622062683, -0.2661561071872711, -0.5496121048927307, 0.44922906160354614, 0.14962945878505707, 0.0750579759478569, 0.17750202119350433, -0.35414162278175354, 0.217893585562706, -0.019047101959586143, 0.22863778471946716, 0.4797148108482361, 0.146901935338974, -0.3010697364807129, 0.4725243151187897, 0.1679958999156952, -0.8402479887008667, 0.08724746108055115, -0.04497900605201721, 0.3551105856895447, -0.19705484807491302, 0.24684076011180878, 0.3531761169433594, 0.23135925829410553, 0.09011886268854141, 0.27331802248954773, -0.10007496923208237, -0.24132078886032104, 0.08209288865327835, -0.7367550134658813, 0.2761314809322357, 0.3441493511199951], [-0.06192391738295555, -0.2689836323261261, -0.2464965134859085, 0.39932551980018616, 0.04427004233002663, 0.04291382059454918, 0.07129140198230743, -0.22278809547424316, 0.2440696507692337, -0.1965484321117401, 0.10720151662826538, 0.337856262922287, 0.09944350272417068, -0.16196294128894806, 0.45449507236480713, 0.008939933031797409, -0.6595773100852966, 0.18317265808582306, -0.0072191860526800156, 0.1672138273715973, -0.04976795241236687, -0.03613504022359848, 0.26934877038002014, 0.2718009948730469, -0.07249924540519714, 0.1126018688082695, 0.006959696765989065, -0.17817580699920654, 0.1663561463356018, -0.46954604983329773, 0.21973027288913727, 0.13959559798240662], [-0.21602824330329895, -0.07555918395519257, -0.12764233350753784, 0.20668728649616241, 0.5359749794006348, 0.4894223213195801, 0.05968491733074188, 0.007387928664684296, 0.05333119258284569, 0.1745510995388031, 0.39458101987838745, 0.1451578587293625, -0.12848007678985596, -0.21957005560398102, 0.15969787538051605, 0.2751331925392151, -0.1956590861082077, 0.23976321518421173, -0.12124879658222198, 0.048596445471048355, -0.03565552085638046, 0.19889521598815918, 0.010685146786272526, -0.08161653578281403, 0.03065064549446106, -0.15737062692642212, -0.26551952958106995, -0.09008212387561798, -0.08702381700277328, -0.24468547105789185, 0.5445942282676697, 0.1309833526611328], [0.02044261060655117, -0.10294937342405319, -0.0622563473880291, 0.1412227302789688, -0.1377088576555252, -0.13590000569820404, 0.16662243008613586, -0.10582596063613892, 0.021822452545166016, -0.21859993040561676, -0.024368369951844215, -0.06312993168830872, 0.14434778690338135, 0.018752695992588997, 0.054764654487371445, -0.020173124969005585, 0.12036334723234177, -0.07966598123311996, 0.12362725287675858, 0.048980239778757095, 0.14026641845703125, 0.017441313713788986, -0.04457681253552437, 0.11375678330659866, 0.08998184651136398, 0.14810194075107574, 0.11555134505033493, 0.014466146938502789, 0.07546566426753998, -0.032157864421606064, -0.22731555998325348, -0.14895111322402954], [-0.2212306708097458, 0.08149298280477524, 0.059648219496011734, -0.024872656911611557, -0.031249817460775375, -0.0733141154050827, -0.09857326000928879, 0.004573068115860224, 0.01597907580435276, 0.07366382330656052, -0.26815065741539, -0.13413289189338684, -0.07684625685214996, 0.16603480279445648, 0.00045573789975605905, -0.0980050191283226, 0.2896764278411865, -0.039476096630096436, 0.1899653822183609, -0.10713127255439758, -0.06831102073192596, 0.013216707855463028, -0.06757447123527527, -0.003637895919382572, -0.029233112931251526, -0.011472959071397781, -0.0995166003704071, -0.10563497245311737, 0.1120549887418747, 0.022898215800523758, -0.28504684567451477, -0.06529794633388519], [-0.06687892973423004, 0.115369513630867, -0.31588372588157654, 0.18106624484062195, 0.37637969851493835, 0.23676729202270508, 0.16228336095809937, -0.016674406826496124, -0.03238843008875847, 0.12401888519525528, 0.4832940995693207, 0.14183282852172852, -0.0015032656956464052, -0.20117852091789246, 0.21283359825611115, 0.33406582474708557, -0.4625665545463562, 0.1277637928724289, -0.12646162509918213, 0.0752103328704834, -0.03873683139681816, 0.11694729328155518, 0.3626601994037628, -0.05423354357481003, 0.019349023699760437, -0.06783729791641235, -0.242411807179451, -0.28968486189842224, 0.04009222611784935, -0.31117647886276245, 0.5398846864700317, 0.24131512641906738], [-0.14428572356700897, -0.4425126910209656, 0.10771330446004868, 0.101776622235775, -0.4561029076576233, -0.4213482737541199, 0.3245512843132019, -0.22417056560516357, 0.12505951523780823, -0.4059155583381653, -0.4416227638721466, 0.2556690573692322, 0.3531911373138428, -0.2558247447013855, 0.15547458827495575, -0.2882852256298065, 0.0034961020573973656, -0.027207572013139725, 0.32872503995895386, 0.2225905954837799, 0.07194412499666214, -0.12567082047462463, -0.1849178820848465, 0.22348245978355408, 0.07385437935590744, 0.3998847007751465, 0.1093762218952179, -0.10133959352970123, -0.07050687074661255, -0.05492178723216057, -0.4914382994174957, -0.033668696880340576], [-0.03993399441242218, 0.0359405055642128, -0.030280904844403267, 0.14909832179546356, 0.47343453764915466, 0.4685015082359314, 0.11795089393854141, 0.03432076796889305, -0.09043078869581223, 0.1631685495376587, 0.39034754037857056, 0.033395785838365555, -0.10653358697891235, 0.013765832409262657, 0.10041458904743195, 0.3300095200538635, 0.008061246946454048, -0.08108481019735336, -0.04881330206990242, 0.013731095939874649, -0.1363615244626999, 0.18837761878967285, -0.016840077936649323, 0.10535386204719543, 0.02960822358727455, 0.18211834132671356, -0.2109360247850418, -0.016040988266468048, 0.011855438351631165, -0.0980580672621727, 0.35922619700431824, 0.12553299963474274], [0.013695122674107552, 0.15103022754192352, 0.10749775916337967, 0.05909525975584984, 0.18041829764842987, 0.11937557905912399, -0.023085609078407288, -0.01602322980761528, -0.10510170459747314, -0.05316116288304329, 0.06511081010103226, 0.045085713267326355, 0.09921420365571976, -0.015082504600286484, -0.06739366054534912, 0.17246554791927338, -0.028910554945468903, 0.040474120527505875, 0.0738852247595787, -0.08848194032907486, -0.06915973126888275, 0.11521816998720169, -0.0734095573425293, -0.09466826915740967, -0.024190472438931465, -0.022070160135626793, -0.07155530154705048, 0.004165296442806721, 0.1548125445842743, 0.05931476503610611, 0.23603606224060059, -0.08226252347230911], [0.02227942645549774, 0.13988083600997925, -0.04015633836388588, 0.16534404456615448, 0.28503236174583435, 0.2731187343597412, 0.07322496920824051, 0.17551888525485992, -0.15093930065631866, -0.03950561583042145, 0.29454076290130615, -0.1479426473379135, -0.13113200664520264, -0.13758988678455353, -0.07994811236858368, 0.29265016317367554, -0.10875050723552704, -0.09017007052898407, -0.1288290172815323, -0.11735940724611282, 0.013157385401427746, 0.2473914474248886, 0.10568802058696747, -0.11988603323698044, -0.07373256236314774, -0.037171486765146255, -0.11069633811712265, 0.08130046725273132, -0.05696341022849083, -0.01990704983472824, 0.29965949058532715, -0.11756545305252075], [-0.009857337921857834, 0.07705021649599075, -0.07013207674026489, 0.0357646606862545, 0.3473926782608032, 0.3748246133327484, -0.05205276235938072, 0.15739409625530243, -0.12066709995269775, -0.07066826522350311, 0.3735877275466919, 0.046310752630233765, 0.020633533596992493, 0.020452067255973816, 0.1489299237728119, 0.360781192779541, -0.12271459400653839, 0.12318088859319687, -0.1476302295923233, 0.1644829958677292, 0.05721178650856018, 0.08941596746444702, 0.18235604465007782, 0.18622364103794098, -0.08589053153991699, 0.07954137027263641, 0.0024336641654372215, -0.16403928399085999, -0.11436557024717331, -0.10508117079734802, 0.2145913541316986, 0.09730859100818634], [-0.027622897177934647, -0.2218138873577118, -0.3775703012943268, 0.1690663844347, -0.06007752567529678, -0.05341535434126854, 0.19388768076896667, -0.09112408012151718, 0.04426460713148117, -0.11756644397974014, -0.05901680886745453, 0.1556364744901657, 0.10241776704788208, -0.12620112299919128, 0.2194472849369049, -0.02213452197611332, -0.37331897020339966, 0.04426571726799011, 0.11111786961555481, 0.10636270046234131, 0.06230998784303665, -0.05433892831206322, 0.08532225340604782, 0.15018430352210999, 0.04389011859893799, 0.33489570021629333, 0.10161671042442322, -0.0573938712477684, -0.2819954752922058, -0.2530349791049957, -0.03776811435818672, 0.10269580036401749], [-0.3301136791706085, 0.1908312439918518, -0.030746985226869583, -0.06377861648797989, 0.9444241523742676, 0.8832219839096069, -0.22880946099758148, 0.06913392245769501, -0.2174164205789566, 0.31248757243156433, 0.6481846570968628, -0.15117311477661133, -0.14137987792491913, -0.025501610711216927, -0.05560595169663429, 0.651112973690033, 0.040812231600284576, 0.11608350276947021, -0.1691529005765915, -0.03601408377289772, -0.32187917828559875, 0.54482102394104, 0.17229634523391724, -0.21679671108722687, -0.08747801929712296, -0.3650969862937927, -0.5110421776771545, -0.4208175837993622, 0.6353709101676941, 0.012681876309216022, 0.7200406193733215, 0.10927681624889374], [-0.026998838409781456, 0.023359540849924088, 0.18976208567619324, -0.07827182859182358, 0.057327739894390106, -0.067143015563488, 0.06412369012832642, 0.1556900143623352, -0.08728986233472824, -0.05446339398622513, -0.00032249646028503776, -0.13186495006084442, 0.03228181228041649, -0.001382147311232984, -0.00857676099985838, 0.10928280651569366, 0.10879135131835938, -0.057554371654987335, 0.047658082097768784, 0.023129314184188843, 0.11723670363426208, 0.10396210104227066, -0.17699311673641205, 0.01479203999042511, 0.039563409984111786, -0.07405093312263489, -0.014494510367512703, 0.02302354760468006, -0.07271822541952133, 0.1397206336259842, 0.11405041813850403, -0.1250607669353485], [-0.06878313422203064, -0.10067177563905716, -0.14472173154354095, 0.02841232903301716, -0.0016547966515645385, -0.043877676129341125, 0.11099842190742493, -0.11504023522138596, 0.08479059487581253, -0.05311887711286545, -0.06343360245227814, 0.16272027790546417, -0.0009541816543787718, -0.16152262687683105, 0.15265971422195435, -0.021511878818273544, -0.2546135187149048, -0.03422428295016289, -0.042480215430259705, 0.1734311580657959, 0.010603003203868866, 0.013697527348995209, 0.0014147409237921238, 0.1218862533569336, 0.041928909718990326, 0.1683148741722107, 0.0462954118847847, 0.0668019950389862, 0.02404281683266163, -0.07800707221031189, 0.06724869459867477, 0.015833359211683273], [-0.07131057232618332, -0.01607954129576683, -0.018748648464679718, -9.291239257436246e-05, 0.1888304352760315, 0.3629007637500763, 0.0825536698102951, 0.10480757802724838, -0.09863624721765518, 0.07671384513378143, 0.2292698472738266, 0.11289937049150467, -0.059268493205308914, 0.023037025704979897, 0.021146826446056366, 0.24624139070510864, 0.05516258627176285, -0.06657692044973373, -0.008365546353161335, 0.014968045987188816, -0.1868480145931244, 0.0461617149412632, -0.11393239349126816, 0.08510227501392365, 0.016836751252412796, 0.15702539682388306, -0.06305643916130066, -0.07511428743600845, 0.12892241775989532, 0.09859974682331085, 0.11441595107316971, -0.11423961818218231], [0.16069060564041138, -0.04527286812663078, -0.11520054191350937, 0.10224119573831558, 0.05148754641413689, -0.024754194542765617, 0.13988278806209564, -0.04883776977658272, -0.007197280880063772, 0.0027186060324311256, 0.11799123138189316, -0.05278291925787926, 0.08874674886465073, -0.02450127899646759, -0.10345419496297836, 0.03858298808336258, 0.01761835627257824, 0.003617907641455531, -0.07156537473201752, 0.13903644680976868, -0.054085634648799896, 0.004149073734879494, 0.024099677801132202, 0.10765613615512848, -0.006642776075750589, 0.19705642759799957, 0.11357530951499939, -0.027362821623682976, 0.03781306743621826, -0.0018949961522594094, -0.003078032284975052, 0.1101684719324112], [0.02617698162794113, 0.09368064254522324, -0.09590654075145721, -0.12195118516683578, 0.16205841302871704, 0.057978495955467224, -0.13577599823474884, 0.039959851652383804, 0.3133032023906708, 0.25282201170921326, 0.09402096271514893, 0.04042382538318634, 0.1811463087797165, -0.16911430656909943, -0.033048029989004135, 0.17394888401031494, -0.24030274152755737, -0.0017793941078707576, 0.19677260518074036, 0.11544850468635559, -0.17264579236507416, 0.060451969504356384, -0.07022924721240997, 0.11565344035625458, -0.05103093385696411, 0.1356314718723297, -0.05413024500012398, -0.15783053636550903, -0.11201140284538269, -0.1984923928976059, 0.014747938141226768, 0.061194371432065964], [-0.06774883717298508, 0.228547602891922, 0.20583148300647736, -0.15891273319721222, 0.21538324654102325, 0.20384033024311066, -0.19228793680667877, 0.15980413556098938, 0.05798399820923805, 0.13227760791778564, 0.2222026288509369, -0.01462862454354763, -0.11470040678977966, 0.10611285269260406, -0.1438937932252884, 0.1494789570569992, 0.5348033905029297, -0.10364585369825363, 0.017185820266604424, -0.10286346077919006, -0.10435529053211212, 0.06356795132160187, -0.11229760199785233, 0.011343364603817463, -0.04172284156084061, 0.10135902464389801, -0.09900561720132828, -0.06251286715269089, 0.18982571363449097, 0.16231365501880646, 0.019644543528556824, -0.11613845825195312], [-0.19105273485183716, 0.09827250242233276, -0.11556772887706757, 0.06651832908391953, 0.20737682282924652, 0.22096216678619385, -0.016003916040062904, 0.08659029752016068, 0.01580131985247135, 0.0007131301099434495, 0.1124749630689621, -0.028668273240327835, -0.03000752255320549, 0.03958222270011902, 0.13615337014198303, 0.17061938345432281, 0.05690053850412369, -0.051844872534275055, 0.020612983033061028, 0.18389151990413666, -0.012364967726171017, 0.12462503463029861, 0.015260247513651848, 0.050716206431388855, 0.07276749610900879, 0.055610354989767075, -0.18165899813175201, -0.13311438262462616, 0.06224958971142769, -0.07408416271209717, 0.23615126311779022, 0.08051890879869461], [-0.02446511946618557, 0.10942346602678299, 0.030975790694355965, 0.04487866163253784, 0.04408564418554306, 0.06451834738254547, 0.09391476213932037, 0.08639899641275406, 0.06079311668872833, -0.027579225599765778, 0.12964940071105957, 0.08156707137823105, -0.03739670291543007, -0.04692011699080467, 0.06155119463801384, 0.09575361013412476, 0.0412478931248188, 0.043675582855939865, 0.024466555565595627, -0.019022060558199883, -0.032243527472019196, 0.08012320101261139, -0.028841843828558922, -0.045706164091825485, -0.0376494862139225, -0.10432442277669907, -0.02996020019054413, -0.047470346093177795, -0.012754105031490326, 0.06734669953584671, 0.014535282738506794, 0.011517663486301899], [-0.35619452595710754, -0.1022762656211853, -0.09045474976301193, -0.01540074497461319, 0.3996574878692627, 0.45151016116142273, -0.06927137821912766, -0.1030382588505745, 0.17220869660377502, 0.05714509263634682, 0.27741310000419617, 0.15235647559165955, 0.23920999467372894, -0.3132146894931793, 0.11849849671125412, 0.16614128649234772, -0.2968924343585968, 0.18153327703475952, 0.17770487070083618, 0.19118183851242065, -0.3391866981983185, 0.4021154046058655, 0.3000968098640442, 0.26795142889022827, 0.0675613060593605, 0.05266982689499855, -0.29270800948143005, -0.19832660257816315, 0.2678948640823364, -0.1963745355606079, 0.5625327825546265, 0.13703373074531555], [0.012540447525680065, -0.030696123838424683, -0.12357481569051743, 0.14299160242080688, 0.05586269870400429, 0.04183661565184593, 0.005052248015999794, -0.037198979407548904, 0.0424405112862587, 0.06976675242185593, -0.04685153812170029, 0.010232122614979744, 0.07005365192890167, -0.11141645908355713, 0.022870654240250587, 0.01402241550385952, -0.24403497576713562, -0.10113708674907684, 0.0661732405424118, -0.02792920172214508, 0.01324624102562666, 0.01959710381925106, 0.10723761469125748, -0.09665624797344208, 0.021954858675599098, 0.0045626224018633366, 0.06163610890507698, -0.01972612924873829, -0.01248817890882492, -0.017253724858164787, -0.09390723705291748, 0.14036810398101807], [0.0047998433001339436, -0.05618007853627205, -0.05872746929526329, 0.1604459583759308, 0.11068215221166611, 0.08656232804059982, 0.0400560237467289, 0.027505114674568176, 0.13451088964939117, -0.02677915245294571, 0.0038009779527783394, 0.03225089609622955, 0.04580773413181305, 0.013160189613699913, 0.12350170314311981, -0.004561515990644693, -0.03840629756450653, -0.09627719223499298, 0.059473130851984024, -0.06146428361535072, 0.026949837803840637, 0.011609545908868313, 0.06430497020483017, 0.05812077224254608, 0.027185074985027313, 0.0828719511628151, 0.018956365063786507, -0.05241759493947029, -0.0011292046401649714, -0.027446793392300606, -0.12306445091962814, 0.06928449869155884], [-0.2515898644924164, -0.17466643452644348, -0.21935825049877167, -0.028988292440772057, 0.07665593177080154, 0.19062328338623047, 0.18809959292411804, -0.08257529139518738, 0.14649444818496704, -0.1315644532442093, -0.10150133818387985, 0.06392736732959747, 0.0325981080532074, -0.21894074976444244, -0.09010054916143417, -0.19046266376972198, -0.09830837696790695, 0.0937003493309021, 0.062409404665231705, 0.16119644045829773, -0.2977401316165924, 0.17352378368377686, 0.11777133494615555, 0.09028197079896927, 0.05608154833316803, -0.17842264473438263, -0.30454346537590027, -0.14831528067588806, 0.046114593744277954, -0.13446514308452606, 0.12215415388345718, 0.18498338758945465], [-0.09161209315061569, 0.023619433864951134, -0.06406313925981522, 0.11411777138710022, 0.5306761264801025, 0.3127482235431671, -0.05961577966809273, 0.011007430031895638, -0.03966578468680382, 0.0670604556798935, 0.4302486181259155, 0.04839668795466423, -0.07178381830453873, -0.0026330123655498028, -0.03765787556767464, 0.30155065655708313, 0.12919218838214874, -0.0635681301355362, -0.029900502413511276, -0.04472910612821579, -0.1392384022474289, 0.3054121732711792, 0.07752165198326111, 0.08958542346954346, 0.022967442870140076, -0.08487939834594727, -0.15445297956466675, -0.09679455310106277, 0.10799798369407654, -0.043444037437438965, 0.4234771430492401, -0.025199495255947113], [-0.1025056540966034, -0.283851683139801, -0.27222034335136414, 0.20043540000915527, -0.16494494676589966, -0.046624746173620224, 0.31567856669425964, -0.17726489901542664, 0.14302639663219452, -0.19156622886657715, -0.2542192041873932, 0.38882267475128174, 0.2538592219352722, -0.21959830820560455, 0.41773009300231934, -0.09119492769241333, -0.5577820539474487, 0.007925247773528099, 0.056098535656929016, 0.1944694221019745, -0.05800716578960419, 0.09556417912244797, -0.036975257098674774, 0.21472373604774475, 0.07284054160118103, 0.3908228278160095, 0.021834535524249077, 0.07571781426668167, -0.07684174180030823, -0.4185667037963867, -0.04748636111617088, 0.10604321956634521], [-0.05070893093943596, -0.009964373894035816, 0.20631946623325348, -0.08018150180578232, 0.15851393342018127, 0.013446510769426823, -0.10782068967819214, 0.0434841513633728, -0.11156269907951355, 0.0408325269818306, 0.22767871618270874, -0.09035712480545044, 0.03032822348177433, -0.05442216992378235, -0.0574452243745327, 0.07955167442560196, 0.2686704993247986, 0.03674403950572014, 0.010605319403111935, 0.013952081091701984, 0.1382540464401245, 0.033129338175058365, -0.03617403283715248, -0.11098556220531464, 0.03497286140918732, -0.1077767014503479, 0.067729152739048, 0.0529162734746933, 0.049978554248809814, 0.02915700152516365, -0.011372807435691357, 0.02364075556397438]], "lstm.bias_ih_l0": [-0.08740469813346863, 0.1653331220149994, 0.11614867299795151, 0.014341568574309349, 0.24677586555480957, 0.12481047958135605, 0.31488215923309326, 0.15071474015712738, 0.04801225662231445, 0.2649933993816376, 0.2002776563167572, 0.0644649863243103, -0.06834667176008224, 0.11679500341415405, 0.1365123987197876, 0.02333836629986763, 0.6414869427680969, 0.1306585669517517, -0.034944869577884674, 0.13143204152584076, 0.024521231651306152, 0.03046906739473343, 0.11995501071214676, 0.15118148922920227, -0.08407508581876755, 0.21114161610603333, -0.048455119132995605, -0.04524940997362137, 0.25093576312065125, 0.05979473888874054, -0.0848664790391922, -0.1629939079284668, -0.206411674618721, 0.08733173459768295, 0.13796967267990112, 0.11503368616104126, 0.06777948886156082, -0.12418557703495026, 0.0005526780150830746, -0.023636246100068092, -0.0687568187713623, -0.1368495374917984, -0.018923478201031685, 0.11737976223230362, -0.13348427414894104, 0.15289221704006195, 0.02005327306687832, -0.11408054083585739, 0.034882381558418274, 0.06205720454454422, 0.037752002477645874, 0.03344991058111191, -0.20292770862579346, 0.12603963911533356, 0.1271941363811493, 0.1496066153049469, -0.2537252902984619, -0.03421912342309952, -0.10395722091197968, -0.016158105805516243, 0.1340009719133377, 0.13773830235004425, 0.04587717726826668, -0.03614894673228264, -0.1767718493938446, 0.018196873366832733, 0.0038841255009174347, 0.16376325488090515, 0.06435087323188782, 0.04123041778802872, -0.12458625435829163, 0.014004789292812347, 0.04776100069284439, 0.05278068780899048, 0.118199422955513, 0.07876798510551453, 0.1553179770708084, -0.10121530294418335, 0.012091422453522682, 0.1501016765832901, 0.04268436133861542, 0.15753604471683502, 0.02610858529806137, 0.10901385545730591, -0.1526801884174347, 0.025754455476999283, 0.1389167457818985, 0.07691127061843872, -0.07938894629478455, -0.07272439450025558, 0.07908562570810318, 0.08457653224468231, 0.1216445192694664, -0.031350716948509216, -0.0524788424372673, -0.03132284805178642, 0.06942541152238846, 0.3707846701145172, 0.1377272605895996, 0.07043680548667908, 0.12144259363412857, 0.1245322898030281, 0.006263673305511475, -0.10190581530332565, 0.15145744383335114, 0.25699514150619507, 0.2837786376476288, 0.14649195969104767, -0.14099165797233582, 0.0674208477139473, 0.18638494610786438, 0.0749141201376915, 0.4802757203578949, 0.09364907443523407, 0.12365101277828217, 0.17912188172340393, 0.036722082644701004, -0.02552948147058487, -0.00791879277676344, 0.09746241569519043, 0.0035008734557777643, 0.16609112918376923, 0.012259287759661674, -0.08674175292253494, 0.0660497173666954, 0.06959129124879837, 0.20514683425426483, 0.010348603129386902], "lstm.bias_hh_l0": [-0.045780379325151443, 0.3325183391571045, 0.24893105030059814, 0.08817583322525024, 0.21473939716815948, -0.03981420770287514, 0.2531268000602722, -0.12677434086799622, 0.12821093201637268, 0.19580641388893127, 0.008091428317129612, 0.13058164715766907, -0.07248236238956451, 0.005193333141505718, 0.2766307592391968, 0.06511329114437103, 0.6576532125473022, -0.07495663315057755, -0.06967170536518097, 0.27310866117477417, -0.030856268480420113, -0.010191849432885647, 0.2096989005804062, 0.07244768738746643, -0.14917977154254913, 0.4421350955963135, 0.09400659799575806, 0.002934361808001995, 0.048587098717689514, 0.11979194730520248, -0.019961316138505936, -0.1455560028553009, 0.0421619638800621, -0.10874750465154648, 0.11160263419151306, 0.19742129743099213, -0.11672622710466385, -0.07850590348243713, 0.054866719990968704, 0.019980736076831818, -0.10239442437887192, 0.0631505697965622, 0.02391667664051056, 0.08692608028650284, 0.013697401620447636, -0.06489039212465286, -0.09133855998516083, -0.04594296216964722, -0.11168080568313599, 0.08285660296678543, 0.040612831711769104, -0.12273579090833664, -0.11721048504114151, 0.07080578804016113, 0.11019352078437805, -0.15206299722194672, 0.046391356736421585, 0.03411656990647316, -0.17498096823692322, -0.10399873554706573, 0.14529801905155182, -0.12807133793830872, 0.12072412669658661, -0.03837105259299278, 0.06905630975961685, -0.11163260787725449, -0.1500108540058136, -0.06116434186697006, 0.11766700446605682, 0.14082950353622437, 0.17413778603076935, -0.0950748547911644, -0.015136616304516792, -0.04620857909321785, 0.032145142555236816, -0.03008456900715828, 0.022853538393974304, -0.11402486264705658, 0.053917400538921356, -0.021402832120656967, -0.24028176069259644, -0.11650095134973526, 0.1269662082195282, 0.05739186704158783, 0.08095476776361465, 0.06497996300458908, -0.1649126410484314, 0.020861128345131874, 0.15209336578845978, 0.14464515447616577, -0.110883928835392, -0.15629447996616364, -0.012425617314875126, -0.14347371459007263, 0.11964826285839081, 0.15460556745529175, 0.11572862416505814, 0.2139796018600464, 0.12837153673171997, -0.0055479081347584724, 0.32035478949546814, 0.11988011002540588, 0.23299703001976013, -0.06644729524850845, 0.07238663733005524, 0.09421584755182266, 0.264664888381958, 0.08801969885826111, 0.15679065883159637, 0.02086307853460312, 0.21362072229385376, 0.1300254762172699, 0.3775380849838257, 0.02679562382400036, 0.04188644886016846, 0.19080770015716553, -0.012013970874249935, -0.1304585486650467, 0.07923856377601624, 0.03657444566488266, -0.03210027888417244, 0.4369986355304718, -0.10973060131072998, 0.07066712528467178, 0.19281834363937378, 0.17982570827007294, 0.16013726592063904, -0.12085768580436707], "dense.weight": [[0.1764318346977234, -0.48261839151382446, 0.03874042257666588, 0.2744879424571991, -0.31394731998443604, -0.17109298706054688, 0.4952838718891144, 0.09716389328241348, 0.2330334186553955, -0.4710652232170105, 0.21054695546627045, 0.22318331897258759, 0.10774233192205429, -0.1968402862548828, 0.308631956577301, -0.08424416929483414, -0.22353596985340118, -0.06956617534160614, -0.11276861280202866, 0.175596684217453, 0.09902261942625046, -0.31423431634902954, -0.13433022797107697, 0.22984343767166138, 0.18115903437137604, 0.48242512345314026, 0.156447172164917, 0.16241897642612457, -0.35449084639549255, -0.10626333206892014, 0.02622745931148529, 0.016490353271365166]], "dense.bias": [-0.11496178805828094]}