{"lstm.weight_ih_l0": [[0.6488362550735474, -1.2176004648208618], [-0.6090512871742249, 0.6199888586997986], [0.025104643777012825, 0.20747147500514984], [-0.08732154220342636, -0.49678704142570496], [-0.7573685050010681, 0.15916794538497925], [0.30229321122169495, -0.25063395500183105], [0.02035820670425892, -0.7173940539360046], [-0.03803986310958862, 0.16240884363651276], [0.4043969213962555, 0.19090992212295532], [-0.29597294330596924, -0.06072568893432617], [-0.14224688708782196, -0.8332196474075317], [0.5967695116996765, -0.7259534597396851], [0.9028763175010681, 0.6687264442443848], [0.17382274568080902, 0.02522417902946472], [-0.49961596727371216, -0.9138914346694946], [-0.016499599441885948, -0.5472311973571777], [1.1050361394882202, -0.6571409702301025], [0.747825026512146, 0.011129316873848438], [-0.03755362704396248, -0.08603425323963165], [0.10398167371749878, -0.20786155760288239], [-0.8526290655136108, 0.15491262078285217], [0.5780501365661621, 0.2389744222164154], [0.03245675936341286, -0.4330978989601135], [-0.06721998751163483, 0.34266576170921326], [0.3122383952140808, 0.39781734347343445], [-0.4237777888774872, 0.16340427100658417], [-0.2413693517446518, -0.5270117521286011], [0.7710104584693909, -0.7772549986839294], [1.0505343675613403, 0.44057944416999817], [-0.3885301947593689, 0.2368595004081726], [-0.11633378267288208, -0.30428245663642883], [0.026822853833436966, -0.3850085735321045], [0.08916453272104263, 0.13995380699634552], [0.9720982313156128, 0.21633575856685638], [-0.565226674079895, -0.30647367238998413], [0.4308253526687622, 0.04155636951327324], [0.7361093759536743, -0.5191940665245056], [0.238851398229599, 0.7065231800079346], [0.12246444076299667, -0.3423641324043274], [-0.4717801809310913, -0.6180399060249329], [-0.9152772426605225, -0.06447315961122513], [0.3175170421600342, 0.4320085644721985], [-0.40856361389160156, -0.1091730073094368], [-0.2806246280670166, 0.9555031061172485], [0.37894290685653687, 0.12266350537538528], [0.1888078898191452, 0.07841785252094269], [-1.115787386894226, 0.3337710499763489], [0.09581080824136734, 0.32597577571868896], [1.0293077230453491, -0.9808303713798523], [0.6732484102249146, 0.7541050910949707], [-0.16531091928482056, -0.1260232925415039], [-0.0526113323867321, -0.419899046421051], [-1.2383906841278076, 0.19377398490905762], [1.0946571826934814, 0.5953587293624878], [0.003917476162314415, -0.5899747014045715], [0.2633382976055145, 0.6926926970481873], [-0.015534548088908195, 0.6778789162635803], [-0.5834766030311584, 0.050706107169389725], [-0.048465050756931305, -0.48625874519348145], [1.0687428712844849, -0.2483372986316681], [1.4135878086090088, 0.5141290426254272], [-0.08048312366008759, 0.062426142394542694], [-0.009042409248650074, -0.8664184212684631], [0.10765727609395981, -0.22810228168964386]], "lstm.weight_hh_l0": [[0.1359173059463501, 0.06701634079217911, 0.21214580535888672, -0.32318201661109924, -0.11911745369434357, 0.06180635467171669, 0.5094764828681946, 0.3060024082660675, 0.020409924909472466, -0.24514082074165344, -0.30732402205467224, 0.1608162224292755, 0.26652792096138, -0.006577786989510059, 0.2887125611305237, 0.345639705657959], [0.13765935599803925, -0.08120681345462799, 0.21632474660873413, 0.319589227437973, -0.5879828929901123, 0.929529070854187, -0.12231577187776566, -0.48550334572792053, 0.17371182143688202, 0.11808686703443527, -0.5525768995285034, 0.6763175129890442, -0.15397489070892334, 0.3306816816329956, -0.38218435645103455, 0.7014681696891785], [-0.015949971973896027, 0.24047435820102692, -0.03718912973999977, -0.053304195404052734, 0.05331442132592201, -0.14626207947731018, 0.05774330347776413, 0.07253976911306381, 0.23950399458408356, 0.28543034195899963, 0.15303479135036469, -0.16119582951068878, 0.13803361356258392, -0.03665701672434807, -0.039660193026065826, -0.027343787252902985], [0.3111783266067505, -0.03242811933159828, 0.23864109814167023, 0.10302115231752396, 0.456989586353302, -0.09806068241596222, 0.058682382106781006, 0.3700163960456848, 0.054817914962768555, -0.2757173776626587, -0.2562009394168854, -0.1280355006456375, 0.09765203297138214, -0.17567865550518036, 0.029074469581246376, 0.08838479220867157], [0.5293700695037842, 0.13312280178070068, -0.1998300850391388, 0.21220405399799347, 0.020569629967212677, 0.32854270935058594, 0.0001393349375575781, -0.22015027701854706, -0.07008590549230576, -0.017890600487589836, 0.09705168008804321, 0.03175167366862297, -0.35709238052368164, -0.4224608540534973, -0.27348676323890686, -0.08034408837556839], [-0.07914124429225922, 0.5987522602081299, -0.1359468549489975, -0.31226232647895813, -0.2672843933105469, 0.0658748522400856, 0.3271349370479584, -0.10898199677467346, 0.4518020749092102, 0.4604114294052124, 0.2853720188140869, 0.01768898405134678, 0.16518396139144897, -0.12096097320318222, 0.5828286409378052, -0.19360515475273132], [0.014162699691951275, 0.0007240750710479915, 0.16023027896881104, 0.059543851763010025, 0.3698892891407013, -0.04322804883122444, 0.11713653057813644, 0.12262050807476044, 0.19599248468875885, -0.5047010183334351, -0.05369121581315994, 0.008914710953831673, -0.03846605122089386, 0.0316978394985199, -0.10285742580890656, 0.2974525988101959], [0.17743650078773499, -0.6670857667922974, -0.1103152483701706, 0.0855536237359047, -0.1580565720796585, 0.2811291813850403, -0.061884891241788864, -0.036637648940086365, -0.5595647692680359, 0.25210022926330566, -0.010531275533139706, 0.03769213333725929, -0.017306948080658913, -0.0005576936528086662, -0.07737665623426437, 0.07235749065876007], [0.632878839969635, 0.4241839647293091, 0.5807229280471802, 0.34435713291168213, -0.1568579077720642, 1.3028438091278076, 0.2745875120162964, 0.15537387132644653, 0.16882920265197754, 0.14110523462295532, -0.820079505443573, 0.799288809299469, 0.2423923909664154, -0.42861077189445496, -0.6663041710853577, 0.6423014998435974], [0.18197835981845856, 0.7295175194740295, 0.4789299964904785, 0.3762214183807373, -0.3286486864089966, 0.7586510181427002, -0.25807318091392517, -0.5070860385894775, -0.07398563623428345, -0.1047976091504097, -0.4294002652168274, 0.18788659572601318, 0.08575297147035599, 0.18008220195770264, -0.4037328362464905, 0.33086881041526794], [0.09470226615667343, -0.03230498731136322, 0.3102925419807434, 0.009998666122555733, 0.5189478993415833, -0.034055039286613464, -0.1048731729388237, 0.48086458444595337, -0.45936331152915955, -0.3644387125968933, 0.3470953106880188, -0.4187932014465332, -0.4072297513484955, 0.08346760272979736, 0.10143578797578812, -0.065776027739048], [-0.17338630557060242, 0.4407755434513092, -0.06946990638971329, -0.03136253356933594, 0.132160484790802, 0.23733757436275482, 0.26480618119239807, -0.07710880786180496, -0.4841117560863495, 0.4880068302154541, -0.03328583016991615, -0.003634639550000429, 0.3261168599128723, -0.18148794770240784, -0.25607872009277344, 0.18023142218589783], [-0.21272361278533936, 0.02452961541712284, 0.008062430657446384, 0.04596702381968498, -0.4011673331260681, 0.27713900804519653, 0.16337166726589203, -0.242742657661438, 0.5327383279800415, -0.243522047996521, -0.2473977506160736, 0.6353713870048523, 0.10468359291553497, 0.0012690955772995949, -0.11987373977899551, 0.28636786341667175], [-0.16064782440662384, 0.12191640585660934, 0.42281803488731384, 0.08562059700489044, 0.21822938323020935, 0.17960737645626068, -0.01678585819900036, 0.43225225806236267, 0.10423203557729721, 0.07069177180528641, -0.1308099329471588, 0.09083156287670135, -0.2577977776527405, 0.16172347962856293, -0.14943407475948334, 0.296416312456131], [0.28990936279296875, -0.3210453987121582, 0.20412901043891907, 0.005379036068916321, -0.05682935565710068, -0.06969384849071503, 0.11436700075864792, 0.13970179855823517, 0.029353024438023567, -0.290451318025589, -0.09831788390874863, 0.006505882833153009, 0.23106756806373596, -0.32653868198394775, -0.015010661445558071, 0.22509175539016724], [0.05386953800916672, -0.12572233378887177, -0.24328838288784027, -0.0630500540137291, 0.20399555563926697, -0.2177070677280426, 0.06661676615476608, 0.06973710656166077, -0.1858350932598114, 0.042201220989227295, 0.15689705312252045, -0.41739898920059204, -0.008963864296674728, -0.0009091204847209156, 0.2929879426956177, -0.22053855657577515], [0.17492714524269104, 0.658046305179596, -0.233383446931839, 0.5352780222892761, -0.18896235525608063, 0.0958571583032608, -0.4773091673851013, -0.4027867317199707, -0.8144760131835938, 0.08344850689172745, -0.2406984567642212, -0.506884753704071, 0.012148184701800346, 0.1615603268146515, -0.42201027274131775, -0.4022535979747772], [-0.15096957981586456, -0.08160550892353058, -0.6249821782112122, -0.1221952736377716, 0.5960975885391235, -0.6135232448577881, 0.04608903452754021, 0.1793067455291748, 0.7945770025253296, 0.5344288945198059, 0.7808010578155518, -1.0536093711853027, 0.14672908186912537, -0.2384791225194931, 0.6091059446334839, -0.8304502964019775], [-0.19178630411624908, 0.2176901251077652, -0.3812960386276245, -0.06254984438419342, 0.09623993188142776, 0.0083969347178936, 0.22784647345542908, 0.29103806614875793, 0.3597175180912018, -0.08580862730741501, 0.1696927547454834, -0.06865383684635162, 0.16427749395370483, -0.21262899041175842, 0.2480974793434143, -0.33827096223831177], [0.4546649754047394, 0.15499068796634674, -0.12036341428756714, 0.25290942192077637, 0.22523048520088196, 0.03359563648700714, -0.1101914644241333, 0.19911298155784607, 0.16919708251953125, -0.1011163592338562, -0.21531550586223602, -0.2966334819793701, 0.05680214613676071, -0.1316789984703064, -0.22952179610729218, -0.04184182733297348], [0.6683127880096436, -0.13500304520130157, 0.08986691385507584, 0.08496980369091034, -0.16330592334270477, 0.24376481771469116, 0.08586078882217407, -0.2330629527568817, 0.20179006457328796, -0.10038962960243225, 0.03141474723815918, -0.022816138342022896, -0.26062557101249695, -0.45585712790489197, -0.2522147595882416, 0.11684917658567429], [0.1370384842157364, 1.0365720987319946, -0.4702790379524231, 0.019103480502963066, -0.4664055109024048, 0.4548976421356201, 0.15062616765499115, -0.49229303002357483, -0.061927542090415955, 0.27054211497306824, 0.15932102501392365, -0.019414756447076797, 0.5152671933174133, -0.11347228288650513, 0.3208707869052887, -0.1529889553785324], [0.23225075006484985, -0.08767957240343094, -0.044334571808576584, 0.15003986656665802, 0.24790330231189728, -0.05946768820285797, -0.0396503284573555, -0.0011715053115040064, 0.028351346030831337, -0.43466830253601074, 0.03016039915382862, -0.06952203810214996, -0.029703646898269653, -0.06405618786811829, -0.031083760783076286, 0.005032768007367849], [0.35243213176727295, -0.8586217761039734, -0.303779661655426, 0.1581263542175293, -0.2306680679321289, 0.31827449798583984, -0.13036714494228363, -0.08958061784505844, -0.7264801859855652, 0.45967167615890503, 0.1306704431772232, -0.16200050711631775, -0.08698742091655731, 0.027012068778276443, -0.152146115899086, -0.28354987502098083], [0.46708446741104126, 0.3352510333061218, -1.1692839860916138, -0.3339141011238098, -0.28588712215423584, -1.3781076669692993, 0.24246394634246826, -0.7116696238517761, 1.0294536352157593, 0.19747500121593475, 0.8834049701690674, -1.1360830068588257, -0.47814616560935974, -0.9077381491661072, 0.6476813554763794, -1.1268789768218994], [-0.38098227977752686, -0.09892863780260086, -0.4629112184047699, -0.4089566767215729, 0.38076791167259216, -0.5189229846000671, 0.2815808653831482, 0.23082788288593292, 0.44013309478759766, -0.040673695504665375, 1.21449613571167, -0.3344510495662689, -0.1598878651857376, -0.09221931546926498, 0.6940388083457947, -0.7127698063850403], [0.08962096273899078, 0.058602821081876755, -0.025040602311491966, -0.06270408630371094, 0.3493798077106476, -0.3386400043964386, -0.08029820024967194, 0.7035248279571533, -0.24655339121818542, -0.3933676779270172, 0.6535879969596863, -0.6362875699996948, -0.30669084191322327, 0.005428815260529518, 0.18389980494976044, -0.3684546649456024], [-0.4951707422733307, 0.49608075618743896, -0.4936765730381012, 0.06287726759910583, 0.2408578246831894, -0.1293419748544693, 0.034195736050605774, -0.16201166808605194, -0.4726589024066925, 0.45258548855781555, -0.04530085250735283, -0.18607719242572784, 0.1699458360671997, -0.14565126597881317, -0.3119710087776184, 0.036655329167842865], [-0.11596332490444183, -0.6672039031982422, -0.6054582595825195, -0.3521990180015564, 0.13873255252838135, -0.14715152978897095, 0.46526026725769043, 0.5969764590263367, 0.3518630564212799, 0.11051828414201736, 0.644914448261261, -0.10897309333086014, 0.045778535306453705, 0.09340260922908783, 0.47708070278167725, -0.4512122571468353], [-0.20162709057331085, -0.36525338888168335, -0.3209575116634369, -0.2721046209335327, 0.22524991631507874, -0.5137950778007507, 0.15715542435646057, 0.5850098729133606, 0.5750847458839417, 0.2846906781196594, 0.7020441293716431, -0.22161322832107544, -0.17959265410900116, -0.26578959822654724, 0.397582471370697, -0.39052727818489075], [0.19739671051502228, -0.2722640037536621, -0.34877800941467285, 0.04063927009701729, -0.14961305260658264, -0.3994416296482086, -0.057269107550382614, 0.22531825304031372, 0.3395843207836151, -0.19567440450191498, 0.05615975335240364, -0.3669075071811676, 0.32313787937164307, -0.5053014755249023, 0.04948626831173897, -0.39137279987335205], [0.09539203345775604, 0.12670636177062988, -0.23978236317634583, -0.17538505792617798, 0.1975879967212677, -0.3719404637813568, 0.1454022228717804, 0.2541692554950714, -0.06918403506278992, -0.14434275031089783, 0.3799302279949188, -0.48677507042884827, 0.3284393846988678, -0.14726437628269196, 0.4692283570766449, -0.15078800916671753], [-0.09464427828788757, -0.23291952908039093, -0.21822941303253174, 0.13999374210834503, -0.2569740116596222, 0.304770827293396, -0.1619393229484558, -0.14618684351444244, -0.7891654372215271, -0.14527708292007446, 0.24245095252990723, 0.12122375518083572, -0.16449357569217682, -0.08113211393356323, -0.1376512050628662, -0.06034122034907341], [-0.1217377632856369, 0.04610884562134743, -0.05256948247551918, 0.2870132625102997, 0.17782431840896606, 0.357746422290802, -0.1419878900051117, 0.03672495484352112, 0.8764491677284241, 0.46315711736679077, -0.18779723346233368, -0.3524131178855896, 0.581099808216095, -0.14115406572818756, -0.2307673692703247, 0.1764986366033554], [0.41045528650283813, -0.3419305980205536, 0.23917052149772644, -0.03633664920926094, -0.15568624436855316, -0.16396237909793854, -0.22329090535640717, -0.337695837020874, -0.41300901770591736, -0.1754232794046402, -0.21115975081920624, 0.32176971435546875, 0.0019088704138994217, -0.01463119313120842, 0.12275324761867523, 0.17335262894630432], [0.20131398737430573, 0.28614944219589233, 0.15231701731681824, 0.15827125310897827, 0.2729875445365906, 0.09940508008003235, -0.12679363787174225, -0.056542329490184784, -0.5093466639518738, -0.10170286148786545, -0.3363323509693146, 0.05743402987718582, -0.16022644937038422, 0.032804325222969055, -0.2081582248210907, -0.1381896734237671], [-0.3252394199371338, -0.16472969949245453, 0.03524940088391304, -0.1980864256620407, 0.13207438588142395, 0.14063836634159088, -0.006244438234716654, 0.038803670555353165, 0.12484999001026154, 0.377287358045578, 0.423103004693985, -0.12017147243022919, 0.2060941606760025, 0.1864968091249466, 0.1468898355960846, -0.12124042958021164], [0.141522616147995, 0.022331517189741135, 0.265081524848938, 0.18550288677215576, -0.5669280290603638, 0.22229699790477753, -0.1958010345697403, -0.06781471520662308, -0.05734221637248993, -0.012508678250014782, -0.041698262095451355, -0.2481338083744049, -0.053109463304281235, 0.2086857706308365, -0.009812628850340843, 0.25995972752571106], [-0.04192553833127022, -0.1870691180229187, 0.03706524893641472, -0.21475638449192047, 0.25663116574287415, 0.0777040496468544, 0.24611307680606842, 0.19353190064430237, 0.6768332123756409, -0.09427604079246521, 0.3507896959781647, 0.2534438967704773, 0.11242656409740448, -0.021255407482385635, -0.08867228776216507, 0.1050606220960617], [-0.16378168761730194, 0.42824235558509827, -0.12528133392333984, -0.014669694006443024, 0.3290967047214508, -0.039615828543901443, -0.043444979935884476, 0.2216355949640274, 0.008624277077615261, 0.30130842328071594, 0.4213736057281494, -0.033030033111572266, -0.13506239652633667, -0.17794343829154968, 0.4161754846572876, 0.025215722620487213], [-0.3299369215965271, -0.251941442489624, -0.05120684206485748, -0.2688094675540924, 0.19464866816997528, 0.12573198974132538, 0.22994177043437958, -0.3791208267211914, -0.3410574495792389, -0.0780632495880127, 0.037053339183330536, 0.2699768543243408, 0.17647485435009003, -0.10120193660259247, 0.25330600142478943, -0.06247631460428238], [-0.8837332129478455, 0.37520816922187805, -0.34163153171539307, -0.15333479642868042, 0.1253386288881302, 0.1382385939359665, 0.11915449053049088, 0.28014707565307617, 0.34879425168037415, 0.27805817127227783, -0.2118450105190277, -0.3298885226249695, 0.3750995099544525, -0.19559842348098755, -0.10993115603923798, 0.11625064164400101], [-0.05432446673512459, -0.0490075945854187, -0.15756550431251526, -0.2773398458957672, -0.1728648692369461, -0.28819188475608826, 0.030439989641308784, -0.001327133271843195, 0.07191026210784912, -0.024496659636497498, 0.35504576563835144, -0.10324642062187195, -0.36495664715766907, -0.052472781389951706, 0.12035759538412094, -0.36436736583709717], [-0.010118662379682064, 0.24671463668346405, -0.23476539552211761, 0.12106550484895706, -0.8677161931991577, 0.28531259298324585, 0.012587926350533962, -0.05664154142141342, 0.013353705406188965, -0.16886503994464874, -0.03201347589492798, 0.022850703448057175, -0.04270687326788902, -0.15353281795978546, 0.02003907784819603, -0.26994895935058594], [-0.2965228855609894, -0.3288266062736511, 0.11731075495481491, 0.26346397399902344, -0.37714794278144836, 0.15239009261131287, -0.12884296476840973, -0.49711617827415466, 0.2707597017288208, -0.20435558259487152, 0.27105712890625, 0.028388645499944687, 0.17579160630702972, -0.09183355420827866, -0.12530571222305298, -0.34074512124061584], [0.11294907331466675, -0.25418514013290405, 0.0196089968085289, 0.18169961869716644, -0.1244843602180481, 0.017352480441331863, -0.30434882640838623, 0.18972048163414001, 0.004077243618667126, 0.07452046126127243, 0.1527402102947235, 0.5252150297164917, -0.5191402435302734, 0.13512475788593292, -0.2968328893184662, 0.31021562218666077], [-0.3081066906452179, -0.23969487845897675, -0.28118693828582764, -0.3901051878929138, -0.4915049374103546, -0.35786017775535583, 0.3721701502799988, -0.24546775221824646, 0.4784408509731293, -0.28909966349601746, 0.1614721417427063, 0.4943431317806244, 0.07308840751647949, -0.26797670125961304, 0.03892183676362038, -0.058368053287267685], [-0.2506360411643982, -0.012802140787243843, 0.28891777992248535, 0.15230488777160645, 0.214725524187088, 0.11660793423652649, -0.30058416724205017, 0.2325010448694229, -0.046729639172554016, -0.10502217710018158, -0.03582095727324486, 0.487419992685318, -0.02194344811141491, -0.0034771973732858896, -0.472359836101532, 0.1576996147632599], [0.0038940156809985638, 0.18510322272777557, 0.21640972793102264, 0.14983004331588745, -0.005099267698824406, -0.02303645946085453, 0.028906555846333504, 0.05942654237151146, -0.383883535861969, -0.4976004660129547, -0.3568672239780426, -0.3582993149757385, 0.11693363636732101, 0.054023731499910355, 0.09235374629497528, 0.03161436319351196], [0.11696871370077133, 0.7591506242752075, -0.2728767395019531, 0.036952998489141464, -0.4039495885372162, 0.4011654853820801, -0.0694601833820343, -0.16115190088748932, 0.5031955242156982, 0.6891888380050659, -0.2570921778678894, -0.0748143196105957, 0.32025906443595886, -0.05080072209239006, -0.019622307270765305, 0.03504009544849396], [-0.025238225236535072, 0.047098685055971146, 0.014401426538825035, -0.1548902839422226, 0.4461873173713684, -0.08622897416353226, 0.3011731207370758, 0.0020049645099788904, 0.2246086597442627, 0.0754089280962944, 0.1817457526922226, -0.2652626037597656, 0.033546704798936844, -0.33347707986831665, 0.08056878298521042, 0.016633519902825356], [0.40554553270339966, -0.020303763449192047, 0.08311983942985535, 0.22878989577293396, 0.34934768080711365, -0.07859427481889725, -0.14637067914009094, 0.1895906776189804, -0.022651998326182365, -0.2828030288219452, -0.25320011377334595, -0.0944397896528244, 0.1261475384235382, -0.08872427046298981, -0.1505383998155594, 0.22750884294509888], [0.554064929485321, -0.1899615079164505, -0.07112458348274231, 0.1684814840555191, -0.34581154584884644, 0.5030719041824341, 0.03678879141807556, -0.14304637908935547, 0.03393331915140152, 0.49102723598480225, 0.08815383166074753, 0.05922752246260643, -0.29341447353363037, -0.4071574807167053, -0.14245495200157166, 0.009712912142276764], [0.0695529505610466, 0.9212303161621094, -0.17801518738269806, -0.1996399611234665, -0.15639859437942505, 0.13203905522823334, 0.3571264445781708, -0.2377030998468399, -0.0028745639137923717, 0.08033179491758347, 0.20749960839748383, 0.18399831652641296, 0.6195717453956604, 0.029866820201277733, 0.3101156949996948, 0.03590760752558708], [-0.028905317187309265, -0.0012760153040289879, 0.134807750582695, -0.10649103671312332, 0.41301414370536804, -0.16378885507583618, 0.13456247746944427, 0.21143577992916107, 0.15879696607589722, -0.3519968092441559, -0.14794735610485077, -0.1270349770784378, -0.014222045429050922, -0.08703207969665527, 0.09656862169504166, 0.21571333706378937], [0.3106405436992645, -0.6256682276725769, -0.061549216508865356, 0.2423345297574997, -0.45330506563186646, 0.5351059436798096, -0.12085447460412979, -0.44477781653404236, -0.5225667357444763, 0.22413605451583862, -0.16872364282608032, 0.303305983543396, 0.24559558928012848, 0.19367194175720215, -0.198080375790596, 0.03910830244421959], [0.6716300249099731, 0.4632570743560791, -0.4007244408130646, -0.14189259707927704, -0.5190149545669556, 0.2744273543357849, 0.18251346051692963, -0.14683584868907928, 0.6691985726356506, 0.36192893981933594, 0.43931931257247925, 0.07556731253862381, 0.4836018979549408, -0.9364731311798096, 0.22148464620113373, -0.05107647925615311], [-0.07469460368156433, 0.13786917924880981, -0.13479693233966827, -0.12251575291156769, 0.015538278967142105, -0.36771437525749207, 0.29355892539024353, -0.32893285155296326, 0.4299600422382355, -0.13777194917201996, 0.23093406856060028, -0.39541396498680115, 0.18382325768470764, 0.02160223387181759, 0.08151619136333466, -0.2556929290294647], [0.36103007197380066, -0.01094868965446949, 0.08048441261053085, -0.0417361781001091, 0.40702953934669495, -0.3619832396507263, -0.1877860426902771, 0.7948256134986877, -0.5998143553733826, -0.36670780181884766, 0.5315327048301697, -0.48603153228759766, -0.15044964849948883, 0.27726662158966064, 0.23837235569953918, -0.2922991216182709], [-0.3658233880996704, 0.7250493764877319, -0.2667934000492096, 0.09273847192525864, 0.2670840322971344, 0.015823833644390106, 0.17378760874271393, -0.26616382598876953, -0.631499171257019, 0.3722727298736572, -0.1634502410888672, -0.3112303912639618, 0.36340460181236267, -0.17746683955192566, -0.11723974347114563, 0.00024597940500825644], [-0.21506835520267487, -0.01228759903460741, -0.11508563160896301, -0.04690781980752945, -0.17848779261112213, 0.15447966754436493, 0.2162834256887436, -0.10283009707927704, 0.41769346594810486, -0.2116849571466446, -0.12071475386619568, 0.6256769895553589, 0.3461008071899414, 0.0020680660381913185, 0.05838502198457718, 0.18707896769046783], [-0.25425317883491516, -0.19031676650047302, 0.0669967457652092, -0.030805058777332306, 0.22266507148742676, -0.24316281080245972, 0.16275416314601898, 0.40855106711387634, 0.46388527750968933, -0.06337165087461472, 0.14548173546791077, 0.06478641927242279, -0.0461050420999527, -0.08466964215040207, -0.081898532807827, 0.17343191802501678], [0.27258485555648804, -0.010359220206737518, -0.024779751896858215, 0.12029005587100983, 0.4104808568954468, -0.40237051248550415, 0.02137875184416771, 0.3422493636608124, -0.21530412137508392, -0.35619980096817017, -0.14217644929885864, -0.2440655678510666, 0.2897665798664093, -0.08195875585079193, 0.04085714370012283, 0.13682276010513306], [0.16850559413433075, -0.09669141471385956, -0.14838868379592896, 0.01105355005711317, 0.22546672821044922, -0.29490363597869873, 0.009541275911033154, 0.17458045482635498, -0.3724316954612732, -0.1266709864139557, 0.24596017599105835, -0.20480790734291077, 0.28449925780296326, 0.0534561350941658, 0.36382055282592773, -0.0027496267575770617]], "lstm.bias_ih_l0": [-0.44806525111198425, -0.2826499044895172, 0.0400964692234993, -0.22751979529857635, 0.01612369529902935, 0.05341586098074913, -0.21662592887878418, 0.015927672386169434, -0.8017364740371704, -0.3397275507450104, -0.10161928832530975, 0.09433028846979141, -0.05693281441926956, -0.3375064432621002, -0.3499928414821625, -0.045175813138484955, 0.4469466507434845, 0.49764055013656616, 0.2921557128429413, -0.19445890188217163, 0.00023030101147014648, 0.20237894356250763, 0.06487058848142624, 0.14683660864830017, 1.027056336402893, 0.40094131231307983, 0.3036634027957916, 0.3471127152442932, 0.30464380979537964, 0.29886454343795776, 0.3314463496208191, 0.13901910185813904, 0.11369781941175461, 0.13922235369682312, -0.3027080297470093, -0.17238527536392212, 0.044717468321323395, -0.3653566539287567, 0.05276881158351898, -0.009078053757548332, -0.12915180623531342, 0.11940187960863113, 0.017228053882718086, -0.21214191615581512, -0.1473378688097, -0.011754854582250118, 0.24888750910758972, -0.10618798434734344, -0.09992799162864685, -0.15720120072364807, 0.17733146250247955, -0.30857041478157043, -0.04622773081064224, 0.19838209450244904, 0.014828911051154137, 0.021064097061753273, 0.32086706161499023, -0.04491276293992996, 0.28115251660346985, 0.19971399009227753, 0.08553356677293777, -0.1450929343700409, -0.11065113544464111, -0.027464106678962708], "lstm.bias_hh_l0": [-0.5165286660194397, -0.2358763962984085, 0.05374572426080704, -0.16088740527629852, -0.15581507980823517, 0.2405262142419815, -0.1846773475408554, -0.11265275627374649, -0.6674191951751709, -0.0719173476099968, -0.10294634848833084, 0.16703574359416962, -0.05412226542830467, -0.27909553050994873, 0.015808306634426117, 0.1367511749267578, 0.3152548372745514, 0.6060161590576172, 0.3193172812461853, 0.12459349632263184, -0.07405897229909897, 0.3755861222743988, -0.011405251920223236, 0.2597586512565613, 1.013185977935791, 0.5026204586029053, 0.26471513509750366, -0.008313368074595928, 0.42591333389282227, 0.4460000991821289, 0.27205410599708557, 0.13109520077705383, -0.12439251691102982, 0.031237410381436348, -0.3300134539604187, 0.026333317160606384, -0.23589490354061127, -0.3068060278892517, 0.24709798395633698, -0.0938282385468483, 0.020640138536691666, 0.07353396713733673, 0.3817864954471588, -0.10297974944114685, 0.0496174618601799, 0.15439389646053314, 0.13441331684589386, -0.27281054854393005, -0.16168592870235443, 0.26953601837158203, -0.0012069798540323973, -0.1550319343805313, 0.07655919343233109, 0.24941600859165192, -0.21677860617637634, 0.01853652112185955, -0.06189020350575447, 0.10706154257059097, 0.21767671406269073, -0.023487843573093414, -0.011291611939668655, -0.23937062919139862, 0.03614582121372223, 0.386176198720932], "dense.weight": [[0.3746093511581421, -0.2107614278793335, 0.192989319562912, -0.24896617233753204, 0.17604565620422363, 0.08490896224975586, -0.014446885325014591, -0.07835710793733597, -0.5480673909187317, -0.3051123023033142, -0.047653306275606155, 0.3075282871723175, 0.2919206917285919, -0.3136671483516693, 0.300606906414032, -0.07682410627603531]], "dense.bias": [0.07918636500835419]}