{"lstm.weight_ih_l0": [[-0.06656986474990845], [0.21139051020145416], [0.042549267411231995], [0.064784936606884], [-0.06940476596355438], [0.20235173404216766], [0.25736501812934875], [-0.23621726036071777], [0.037888817489147186], [0.21116489171981812], [0.08023321628570557], [0.08895581215620041], [-0.045223455876111984], [0.04919596016407013], [0.11693426221609116], [-0.019530337303876877], [0.06858345121145248], [0.17232537269592285], [-0.1343671679496765], [0.105630062520504], [0.06732693314552307], [0.033364180475473404], [-0.10140670090913773], [0.011508509516716003], [0.26316720247268677], [0.08716080337762833], [0.00674991961568594], [-0.03852780535817146], [0.08085374534130096], [-0.10074755549430847], [0.11016177386045456], [0.1121101826429367], [0.15428581833839417], [0.28345364332199097], [-0.006224942859262228], [0.00045721977949142456], [-0.008167167194187641], [0.2212706059217453], [0.23206178843975067], [0.01953919604420662], [0.04128395766019821], [0.02257504314184189], [0.1546841412782669], [0.11290556192398071], [-0.26787444949150085], [0.1561233103275299], [-0.02750193141400814], [-0.2655937671661377], [-0.1786622554063797], [0.2686116397380829], [-0.016777850687503815], [0.3070468604564667], [-0.05098584666848183], [-0.10856862366199493], [0.06761085242033005], [-0.04391021654009819], [0.008686494082212448], [0.12742063403129578], [0.07957600802183151], [0.17209959030151367], [-0.018979333341121674], [0.004625704139471054], [0.004987592808902264], [0.01132446713745594], [-0.2083209753036499], [-0.20495054125785828], [0.2374163269996643], [0.017557300627231598], [-0.2673426568508148], [0.26956677436828613], [0.2173757404088974], [-0.10877200961112976], [-0.0417507030069828], [-0.2808895707130432], [0.032079122960567474], [-0.17576821148395538], [0.2027653306722641], [-0.1913020759820938], [0.03016945905983448], [-0.24398323893547058], [0.0354863777756691], [-0.18787308037281036], [-0.2260279804468155], [-0.008621406741440296], [-0.06023283675312996], [-0.06882009655237198], [-0.10274473577737808], [-0.16260656714439392], [-0.08227095007896423], [0.09579014778137207], [-0.1026461198925972], [0.14314882457256317], [0.16643041372299194], [0.09503995627164841], [0.26308462023735046], [-0.04367200285196304], [-0.09736043214797974], [0.08923119306564331], [-0.11849784106016159], [0.2125997394323349], [-0.14431187510490417], [0.03637561947107315], [0.13822625577449799], [-0.02905227057635784], [-0.01625078357756138], [0.3163817822933197], [0.16818149387836456], [0.08771271258592606], [-0.17075522243976593], [0.14072759449481964], [-0.018360260874032974], [-0.23905295133590698], [-0.15377666056156158], [0.33814916014671326], [-0.053679458796978], [0.03347032144665718], [-0.02870989963412285], [-0.08479398488998413], [-0.07384689152240753], [-0.025407826527953148], [0.013714123517274857], [-0.13953854143619537], [0.07729344815015793], [0.14887943863868713], [0.11157340556383133], [0.019130287691950798], [0.022124364972114563], [0.20878231525421143]], "lstm.weight_hh_l0": [[0.0836455225944519, -0.028520554304122925, 0.04816173389554024, 0.03190602362155914, 0.14797458052635193, 0.11645801365375519, 0.05836384743452072, 0.09887567907571793, 0.22180505096912384, -0.07255375385284424, -0.02173537015914917, -0.1575542390346527, -0.152083620429039, -0.10886617004871368, 0.086549773812294, 0.029879659414291382, 0.1530224233865738, -0.22643409669399261, 0.03295942023396492, -0.19903074204921722, -0.07970062643289566, -0.10100578516721725, -0.03767101466655731, -0.03113260120153427, -0.19635836780071259, 0.0255171749740839, 0.04205953702330589, 0.0140692088752985, -0.016910044476389885, -0.1730802208185196, -0.03113238513469696, 0.09248728305101395], [-0.12873421609401703, -0.03678685054183006, -0.14329247176647186, 0.14999084174633026, -0.0006922755856066942, 0.16939206421375275, 0.12676021456718445, -0.11114798486232758, -0.028667286038398743, -0.10266841948032379, 0.1501377671957016, -0.07400650531053543, 0.035344310104846954, -0.13809502124786377, 0.006125979125499725, 0.14984798431396484, 0.19404654204845428, -0.1791256070137024, 0.015786506235599518, -0.12545999884605408, -0.02567376382648945, -0.026495566591620445, 0.02964848466217518, -0.06712718307971954, -0.13166308403015137, 0.07550962269306183, -0.07597776502370834, 0.21688169240951538, -0.00816143024712801, -0.07080502808094025, 0.14471551775932312, 0.08645816147327423], [0.18918098509311676, -0.03347188979387283, 0.041113466024398804, -0.014975180849432945, 0.12334366887807846, -0.12975722551345825, -0.06723825633525848, 0.030348027125000954, 0.17184263467788696, -0.12842957675457, 0.047686751931905746, -0.14595818519592285, 0.03839253634214401, -0.10908256471157074, -0.1446363627910614, 0.16569088399410248, 0.12752698361873627, 0.0058858455158770084, -0.0724402368068695, -0.0738142728805542, 0.09571334719657898, -0.14469392597675323, -0.13499456644058228, -0.18695014715194702, 0.04054440185427666, 0.07395358383655548, 0.16655489802360535, 0.050920046865940094, 0.05944269523024559, -0.04250514879822731, 0.048914533108472824, -0.02007562853395939], [-0.07219141721725464, 0.05660310015082359, 0.014154721051454544, -0.14201095700263977, -0.06145784258842468, -0.13139213621616364, -0.07320169359445572, -0.10665071755647659, 0.03690788149833679, 0.023824408650398254, -0.10809318721294403, -0.04084090515971184, 0.06012199446558952, -0.0020464053377509117, 0.0949011892080307, -0.12823686003684998, -0.08516804128885269, -0.09803229570388794, 0.01697862520813942, 0.04740588739514351, 0.040386613458395004, -0.1374659538269043, -0.06635738164186478, -0.11221901327371597, -0.1413695365190506, -0.030421709641814232, -0.1739843636751175, -0.14709745347499847, 0.16661280393600464, -0.13930560648441315, 0.2346370667219162, -0.10645758360624313], [0.010053804144263268, -0.06477735191583633, -0.001328333280980587, 0.21151283383369446, 0.07501819729804993, 0.031524643301963806, 0.10465910285711288, -0.029996374621987343, 0.1859017014503479, -0.15588600933551788, -0.0935947373509407, 0.06600840389728546, 0.02073080651462078, 0.06518618017435074, 0.12251121550798416, -0.07773841917514801, -0.040461573749780655, -0.18255622684955597, -0.06987902522087097, 0.09065467119216919, 0.06409303843975067, 0.11688531190156937, 0.14252400398254395, 0.028143804520368576, -0.03341955319046974, 0.12348683923482895, 0.019660893827676773, -0.03501106798648834, -0.060263779014348984, 0.0447668619453907, -0.05735192075371742, 0.10313963145017624], [-0.03335811570286751, -0.20019792020320892, -0.10045517981052399, -0.06642553210258484, -0.09779644757509232, 0.22667254507541656, 0.056218113750219345, 0.14527331292629242, -0.034818120300769806, -0.05290336161851883, 0.03923511132597923, 0.019387660548090935, 0.11681758612394333, 0.019995680078864098, -0.02050505392253399, 0.025280790403485298, -0.007778518367558718, -0.09217324107885361, 0.015830498188734055, -0.045173194259405136, -0.00449529942125082, -0.00965171866118908, -0.14035505056381226, 0.07547379285097122, -0.0778811126947403, 0.05118688941001892, -0.10663627088069916, 0.03155427426099777, -0.10837336629629135, -0.00309615395963192, 0.1699962168931961, -0.020181532949209213], [-0.05442064255475998, -0.07906334847211838, 0.09080848097801208, 0.03673887625336647, -0.08589325100183487, -0.018857181072235107, 0.05528808385133743, 0.02270805649459362, 0.04244125634431839, -0.1604994833469391, 0.0270305834710598, -0.039386287331581116, -0.059273574501276016, -0.09297426044940948, 0.06884855031967163, -0.11990392953157425, 0.1201460212469101, -0.042800575494766235, -0.130296528339386, -0.1248270645737648, -0.003405812196433544, 0.07815545052289963, -0.06013643741607666, 0.026017697528004646, -0.0378890186548233, 0.06464290618896484, -0.06584283709526062, -0.07367312908172607, -0.07389891147613525, -0.07466054707765579, -0.016582295298576355, -0.07730234414339066], [-0.07205835729837418, 0.059568557888269424, 0.041518788784742355, -0.09415528923273087, -0.05759022757411003, -0.05869630351662636, -0.08459185808897018, -0.04485950991511345, 0.022822659462690353, -0.009379027411341667, -0.019276106730103493, 0.02150818146765232, 0.14326559007167816, -0.0803271010518074, 0.012585438787937164, -0.08367714285850525, -0.022529445588588715, 0.05763091519474983, -0.09959641098976135, -0.09557552635669708, -0.10916634649038315, 0.0783599391579628, 0.011850862763822079, 0.05106461048126221, 0.08309800922870636, -0.014830728992819786, 0.02215348370373249, -0.1540488302707672, -0.016987374052405357, -0.05706065520644188, -0.06280577182769775, 0.05711973085999489], [0.007146373391151428, 0.04137353226542473, 0.10000833123922348, 0.0628444030880928, 0.08035263419151306, 0.026581352576613426, 0.00923159159719944, -0.12838436663150787, -0.03242164105176926, 0.006834955886006355, 0.004681180696934462, 0.058935049921274185, 0.07950733602046967, 0.0207356009632349, -0.05215967819094658, -0.04065392538905144, -0.028407221660017967, -0.043053269386291504, 0.010402071289718151, 0.15923278033733368, 0.07284221053123474, -0.06570769846439362, -0.09671923518180847, -0.08834552019834518, 0.01057498250156641, -0.04213133454322815, 0.01762123964726925, 0.07723385840654373, -0.014239383861422539, 0.11409209668636322, -0.04213226959109306, -0.07547964155673981], [-0.25335872173309326, 0.01765412464737892, 0.03029480203986168, 0.05572979152202606, -0.18072479963302612, 0.178360253572464, 0.0003259512595832348, 0.13115867972373962, -0.06026880815625191, -0.20079228281974792, 0.09970960766077042, -0.20009247958660126, -0.024303046986460686, 0.049990102648735046, 0.12846733629703522, 0.13761073350906372, 0.05691412836313248, 0.028767172247171402, 0.054972123354673386, 0.07948862761259079, -0.16427887976169586, -0.047627076506614685, -0.06690007448196411, -0.20550945401191711, -0.19787870347499847, 0.1563650220632553, -0.08806176483631134, 0.0630190372467041, 0.18735742568969727, 0.029575131833553314, 0.049449898302555084, 0.120243139564991], [-0.03221761807799339, -0.03178019821643829, -0.09883148968219757, 0.11391270905733109, 0.024274444207549095, 0.008218055590987206, 0.009811388328671455, -0.08207302540540695, 0.028669415041804314, -0.03307589143514633, 0.0007419119356200099, 0.09169972687959671, 0.010075048543512821, 0.06238727644085884, -0.13374961912631989, -0.16819371283054352, -0.13232797384262085, 0.154301255941391, 0.09017402678728104, -0.0769512802362442, -0.13772842288017273, 0.08600379526615143, -0.08811546117067337, 0.0798952504992485, -0.11268696933984756, -0.003744507906958461, 0.09390083700418472, 0.04607563093304634, 0.01914311945438385, 0.1655951887369156, 0.14443811774253845, 0.038818810135126114], [-0.060795415192842484, -0.1295938789844513, 0.09233731776475906, 0.009352273307740688, -0.04264938086271286, -0.02246624045073986, 0.0450037382543087, 0.13557010889053345, 0.11541474610567093, -0.07928065210580826, -0.1294907033443451, -0.14684003591537476, 0.15156179666519165, -0.08514127135276794, 0.09410537034273148, 0.0816744789481163, 0.1940537691116333, -0.19355282187461853, -0.12711209058761597, 0.14835134148597717, -0.14643225073814392, -0.06189175322651863, -0.1197185292840004, -0.03218172490596771, -0.034474264830350876, 0.11540111899375916, -0.06735292077064514, 0.001965149072930217, 0.1842733770608902, -0.12923572957515717, -0.04348454624414444, -0.12784907221794128], [0.0818665623664856, -0.011810027062892914, -0.06108707934617996, 0.05623044818639755, 0.031463801860809326, -0.01650313101708889, -0.0022578686475753784, -0.016107862815260887, 0.09490329027175903, 0.16829083859920502, -0.133999764919281, -0.11011094599962234, -0.03440571948885918, 0.0003918371512554586, 0.1494787186384201, -0.09667880088090897, 0.06963405758142471, 0.058482177555561066, -0.13970911502838135, 0.004788228776305914, 0.08010408282279968, -0.15325705707073212, -0.11935438215732574, 0.05057721957564354, -0.16369134187698364, 0.13588011264801025, 0.04629068449139595, -0.0734458938241005, 0.14534328877925873, 0.07112547755241394, -0.018761584535241127, 0.056106895208358765], [-0.1749078631401062, -0.2154405415058136, 0.06581088155508041, 0.1757371723651886, -0.03154765069484711, 0.1971672773361206, -0.04812430217862129, -0.07369589060544968, 0.09481289237737656, -0.23893706500530243, 0.04848884418606758, -0.21724125742912292, 0.12671765685081482, 0.059851907193660736, 0.18357883393764496, -0.14045241475105286, 0.18452566862106323, -0.1906074732542038, 0.027796175330877304, -0.1401994228363037, -0.13966263830661774, 0.11595854163169861, 0.105238176882267, 0.06373178213834763, 0.045966971665620804, 0.14942961931228638, 0.06180373206734657, -0.07308479398488998, 0.1542694866657257, -0.1252727061510086, 0.07359852641820908, 0.11524245142936707], [0.05037865415215492, -0.18387174606323242, -0.0039322818629443645, -0.17502041161060333, -0.03763926029205322, 0.15123865008354187, -0.036102138459682465, 0.013680693693459034, -0.06632979214191437, -0.19022783637046814, 0.08884109556674957, -0.015140322968363762, -0.09008893370628357, 0.009694100357592106, -0.16139933466911316, -0.013379520736634731, 0.010793864727020264, 0.06189867854118347, -0.15449735522270203, 0.05478333309292793, 0.1255471259355545, -0.0336691252887249, 0.01482699066400528, 0.02657330594956875, -0.14504671096801758, 0.20685569941997528, -0.08118855208158493, 0.014972474426031113, 0.0035018061753362417, 0.09748940914869308, 0.12771447002887726, -0.025972189381718636], [0.1691134124994278, 0.08385211229324341, -0.03156402334570885, 0.11985056102275848, 0.14121927320957184, -0.0734337568283081, -0.03357815369963646, 0.021784478798508644, -0.07241419702768326, 0.0813063234090805, 0.014460140839219093, -0.09349220991134644, -0.04491168260574341, 0.0173181165009737, -0.04009978473186493, -0.13117849826812744, 0.0037236332427710295, -0.02487952820956707, -0.09841982275247574, -0.08092279732227325, -0.010513609275221825, 0.14621220529079437, -0.04892463982105255, -0.029694857075810432, 0.1359090358018875, 0.1005159392952919, -0.032716646790504456, 0.04073561728000641, 0.09377739578485489, 0.08253002166748047, -0.20469705760478973, 0.08975233882665634], [-0.03126196190714836, 0.0016384304035454988, 0.06113841384649277, 0.09958605468273163, -0.047364991158246994, -0.11992403119802475, 0.02870599366724491, 0.03246064856648445, 0.04599481076002121, 0.07587836682796478, -0.07435999810695648, 0.14344525337219238, -0.011798592284321785, 0.016458449885249138, -0.10798391699790955, -0.12618492543697357, -0.1554361879825592, -0.008515640161931515, -0.0853106752038002, -0.007557230535894632, -0.0909787118434906, 0.15310612320899963, -0.03560293838381767, 0.09860475361347198, 0.010838774964213371, 0.016648614779114723, 0.00999470241367817, 0.089349664747715, -0.16414056718349457, -0.010282774455845356, -0.06314298510551453, -0.06255773454904556], [-0.14604556560516357, -0.2143084555864334, -0.09043485671281815, 0.041712284088134766, -0.040153373032808304, 0.06818407028913498, -0.07959314435720444, 0.010632759891450405, 0.15275780856609344, -0.1480841338634491, -0.022870605811476707, -0.18185311555862427, -0.03570902347564697, -0.1149040013551712, 0.028029389679431915, -0.12638068199157715, 0.20385459065437317, -0.16237632930278778, -0.07383918762207031, -0.0984768345952034, -0.12618714570999146, -0.014477147720754147, -0.15117767453193665, -0.028313251212239265, -0.1799253523349762, 0.1351374089717865, 0.028424184769392014, 0.19521917402744293, -0.001450918847694993, 0.1266748607158661, -0.028449103236198425, -0.11183486878871918], [-0.05106830969452858, 0.036686427891254425, -0.14151479303836823, -0.0070948489010334015, 0.10228139907121658, -0.08858830481767654, 0.029795916751027107, -0.06864135712385178, 0.14912037551403046, 0.09152230620384216, 0.10397899895906448, -0.055865779519081116, 0.10292614996433258, -0.03938470780849457, 0.03296410292387009, -0.0982435941696167, 0.13821730017662048, -0.047047995030879974, -0.06164192035794258, -0.11722636967897415, 0.054594919085502625, -0.02462901547551155, 0.09676168859004974, -0.13543972373008728, 0.0016131808515638113, -0.029074646532535553, -0.10740199685096741, -0.10329069197177887, -0.1460637003183365, 0.12698261439800262, 0.06164107099175453, 0.15534155070781708], [-0.13023033738136292, 0.0538141168653965, -0.0729331523180008, 0.06621682643890381, -0.1459408849477768, -0.11650338768959045, -0.06436294317245483, 0.05617043003439903, -0.16623468697071075, -0.11974359303712845, 0.14115603268146515, 0.1050986796617508, 0.002125476486980915, 0.02859598398208618, -0.1484481543302536, -0.055601608008146286, -0.01753322221338749, -0.13957391679286957, 0.06775445491075516, -0.16344760358333588, -0.0744311735033989, -0.036056023091077805, -0.004544711206108332, 0.06711775064468384, 0.027518343180418015, 0.007270350586622953, -0.04890633001923561, -0.1589820832014084, 0.047371312975883484, 0.12600313127040863, 0.008434402756392956, -0.1302480399608612], [0.07794862985610962, 0.04649826139211655, 0.16065044701099396, 0.11378698796033859, -0.04112398996949196, 0.051812417805194855, 0.07772601395845413, -0.14118161797523499, -0.032916609197854996, 0.009396620094776154, 0.11120761185884476, -0.02158062718808651, 0.07917340099811554, 0.033546656370162964, -0.018380988389253616, 0.08269507437944412, 0.07462262362241745, -0.02086273767054081, -0.02512049488723278, -0.1124117523431778, 0.06389651447534561, -0.10897672921419144, -0.12981025874614716, -0.01978355087339878, 0.14130233228206635, -0.015242932364344597, 0.13439781963825226, 0.0750247985124588, -0.16349975764751434, 0.013404865749180317, 0.10305377840995789, -0.07926357537508011], [-0.026221273466944695, -0.010657739825546741, 0.0617949552834034, 0.056177083402872086, -0.06444993615150452, -0.12938424944877625, -0.05290577933192253, -0.1752753108739853, -0.07502322643995285, -0.04352091997861862, -0.05959102511405945, 0.07802458852529526, -0.0920494869351387, 0.018290743231773376, -0.11189064383506775, -0.01800982840359211, -0.10336383432149887, 0.14296674728393555, -0.13905669748783112, -0.09999013692140579, -0.07995589822530746, 0.09214461594820023, 0.06670799106359482, 0.035260528326034546, 0.10238049924373627, 0.008799763396382332, 0.060709428042173386, 0.04941195622086525, 0.04470333456993103, 0.03879869729280472, 0.12392810732126236, -0.10100266337394714], [-0.12162059545516968, -0.04724082723259926, -0.025528689846396446, -0.14885272085666656, -0.1591484397649765, -0.06598687171936035, -0.06250333040952682, -0.18728698790073395, 0.017316725105047226, 0.061031125485897064, -0.0367322713136673, -0.051800742745399475, 0.14191579818725586, -0.05947122722864151, 0.064037024974823, -0.031754206866025925, -0.10823891311883926, -0.05628310143947601, -0.1483118087053299, 0.08261127024888992, -0.11215060949325562, -0.10084612667560577, -0.13085141777992249, 0.09838106483221054, 0.17352156341075897, 0.04187089577317238, 0.004486372694373131, 0.03909678757190704, 0.0996260866522789, 0.07226631790399551, 0.04112643003463745, -0.013880016282200813], [-0.03347284719347954, 0.05706951022148132, 0.052432429045438766, 0.006043265573680401, 0.007930072024464607, 0.1359895020723343, -0.07228416204452515, -0.14335501194000244, -0.06747081875801086, -0.02158830687403679, 0.07582754641771317, 0.05557715892791748, 0.15568076074123383, -0.14687564969062805, 0.12066654860973358, 0.13314104080200195, 0.016961315646767616, 0.009406795725226402, -0.043940797448158264, 0.054087575525045395, 0.017880987375974655, 0.05079936236143112, 0.10116752982139587, 0.10302399843931198, 0.014367234893143177, 0.13173937797546387, -0.013593512587249279, 0.15694749355316162, -0.1407187134027481, 0.16233684122562408, 0.16413313150405884, 0.04872569814324379], [-0.10228443145751953, -0.20967425405979156, -0.08721323311328888, -0.02150057442486286, 0.027563095092773438, -0.12948782742023468, 0.013512511737644672, 0.12977780401706696, 0.019191110506653786, 0.051326196640729904, -0.07572993636131287, -0.003244576510041952, 0.1431112140417099, -0.09012096375226974, -0.13648448884487152, 0.05263609439134598, -0.09908832609653473, 0.028128519654273987, -0.0859149619936943, 0.12007167190313339, -0.026694729924201965, 0.16367393732070923, 0.1005779355764389, -0.15891341865062714, 0.03830580413341522, -0.10102729499340057, 0.029767245054244995, -0.045756518840789795, 0.007367749232798815, 0.048281073570251465, 0.03520674630999565, -0.17730383574962616], [0.0008862819522619247, -0.06971150636672974, -0.09999459981918335, 0.05816299840807915, -0.030347365885972977, -0.02817392721772194, -0.046820368617773056, 0.028942881152033806, 0.07656218111515045, -0.07633830606937408, 0.08715659379959106, -0.04974682629108429, -0.08639287203550339, -0.061911433935165405, -0.10125809907913208, -0.032007280737161636, 0.05132833495736122, -0.08931831270456314, -0.02315317653119564, 0.04958316683769226, -0.046583391726017, 0.012190726585686207, -0.018750391900539398, -0.10587672144174576, -0.056488506495952606, -0.0011599075514823198, 0.030608192086219788, 0.060482967644929886, 0.06407558917999268, 0.08002505451440811, -0.0014790922868996859, 0.05816846713423729], [-0.01638181321322918, -0.023995114490389824, 0.007942015305161476, 0.05337681248784065, 0.06629076600074768, -0.1585502177476883, 0.014430264942348003, 0.053340569138526917, 0.07722734659910202, -0.10541948676109314, -0.11617013812065125, 0.1504974663257599, 0.13945239782333374, -0.044750720262527466, 0.10216499865055084, -0.0447525791823864, 0.018888089805841446, 0.10413189977407455, -0.13576433062553406, 0.06256480515003204, 0.10674306750297546, 0.14031149446964264, 0.023398270830512047, 0.062367141246795654, 0.10601965337991714, 0.04088548570871353, 0.0406896248459816, 0.09061567485332489, -0.14696459472179413, 0.004946616478264332, -0.055582236498594284, 0.05277464911341667], [-0.22996504604816437, 0.012748741544783115, -0.14212460815906525, 0.17723891139030457, -0.030052969232201576, 0.1936066746711731, 0.12185950577259064, 0.10064508765935898, -0.07846005260944366, 0.040365200489759445, 0.020962227135896683, -0.017625799402594566, 0.08526648581027985, -0.032741837203502655, 0.020427295938134193, 0.08358462154865265, 0.14556540548801422, 0.09995739161968231, -0.1094169020652771, 0.13557375967502594, 0.07238824665546417, 0.14353753626346588, -0.04531201347708702, -0.0029417204204946756, 0.08456013351678848, 0.10114205628633499, 0.06624861806631088, 0.09528368711471558, -0.13228513300418854, 0.01815973035991192, -0.1030208021402359, 0.07868106663227081], [0.07549015432596207, 0.0336933471262455, -0.09747181087732315, -0.11817280203104019, 0.07662150263786316, 0.15863381326198578, -0.05128280445933342, -0.10963933169841766, -0.0039100488647818565, 0.0431487150490284, 0.011043036356568336, 0.09617408365011215, 0.16503027081489563, -0.017963631078600883, 0.07509113103151321, 0.13836954534053802, -0.08631263673305511, -0.17399053275585175, -0.04957038164138794, -0.13286402821540833, 0.1351434588432312, 0.05743777006864548, 0.07466358691453934, -0.10180824995040894, -0.14449335634708405, 0.10395165532827377, -0.16241401433944702, 0.16809722781181335, 0.018239272758364677, 0.14222294092178345, 0.08825524896383286, 0.061917200684547424], [-0.0030539664439857006, 0.0034329965710639954, 0.0028641095850616693, -0.15464340150356293, 0.045126475393772125, -0.09411846846342087, -0.06761693954467773, -0.029426271095871925, 0.0032004686072468758, 0.0855168029665947, -0.06263624131679535, 0.06528203934431076, -0.06045449525117874, -0.06799927353858948, 0.07659684121608734, -0.05603108927607536, 0.11037633568048477, -0.050747308880090714, 1.5087869542185217e-05, 0.18422289192676544, 0.12347066402435303, 0.06668204069137573, -0.06351335346698761, 0.0167348925024271, 0.12479148060083389, -0.004603080451488495, -0.02479739859700203, 0.0917278304696083, -0.09042467176914215, -0.11981786042451859, -0.046460025012493134, -0.06868916749954224], [0.12710966169834137, -0.16890719532966614, -0.17156356573104858, -0.05309393256902695, -0.07628672569990158, -0.06211717426776886, 0.015352876856923103, 0.13261592388153076, 0.19249753654003143, -0.23809859156608582, 0.2209772914648056, 0.033304981887340546, -0.013934648595750332, -0.02894146367907524, 0.16312845051288605, 0.06455907225608826, 0.19933050870895386, 0.033924076706171036, 0.032015636563301086, 0.007559557911008596, -0.1294654905796051, 0.05784892290830612, 0.05938712880015373, 0.07252205908298492, 0.06748154759407043, 0.06326010078191757, -0.09838550537824631, 0.19818079471588135, -0.10416928678750992, 0.0533742718398571, 0.10204016417264938, -0.07682640850543976], [-0.06753291934728622, 0.005091712344437838, 0.11390220373868942, -0.1263202279806137, -0.10481786727905273, -0.06698881089687347, -0.08754043281078339, -0.012800001539289951, 0.028868962079286575, -0.03733149170875549, -0.062017761170864105, 0.12163710594177246, 0.15205442905426025, 0.06609988212585449, 0.10048268735408783, -0.15700899064540863, -0.04137793183326721, 0.06680302321910858, 0.053368210792541504, 0.08751150220632553, -0.04000738263130188, -0.04394906759262085, 0.09801224619150162, -0.019927572458982468, 0.177873894572258, 0.04446658492088318, -0.06082818657159805, -0.04956828057765961, -0.04805925488471985, 0.056199900805950165, 0.15486963093280792, -0.10399232804775238], [-0.03187442570924759, -0.06465944647789001, -0.025565652176737785, 0.05808759480714798, 0.08295851200819016, -0.02278973162174225, 0.10316239297389984, 0.06389638036489487, 0.006736094132065773, -0.17046065628528595, 0.19260792434215546, -0.00030017411336302757, 0.01806456781923771, -0.16462233662605286, 0.0847911462187767, 0.05703582242131233, -0.09765932708978653, -0.21683494746685028, 0.14926402270793915, -0.0003884236793965101, -0.2325013130903244, -0.19456785917282104, 0.0825161337852478, -0.16847236454486847, 0.04267730563879013, -0.0801897943019867, -0.15404833853244781, 0.1394992470741272, -0.022390346974134445, -0.15810269117355347, -0.1539950966835022, 0.10636354982852936], [-0.09009736776351929, -0.16307200491428375, -0.024911124259233475, 0.13503706455230713, -0.14118364453315735, 0.03222599998116493, 0.043739575892686844, 0.04510154947638512, 0.08733335882425308, -0.24407081305980682, 0.167056605219841, -0.12555700540542603, 0.12475110590457916, -0.0022278307005763054, 0.19584794342517853, -0.0036933505907654762, 0.06477478891611099, -0.05128142610192299, -0.06352604925632477, -0.08425644785165787, -0.04211125895380974, -0.12268023192882538, -0.13026411831378937, -0.12736676633358002, -0.07044908404350281, 0.0922112762928009, 0.03201356902718544, 0.046131912618875504, 0.02675963193178177, -0.003404492512345314, 0.026003705337643623, 0.04766106605529785], [0.17702460289001465, 0.017488738521933556, -0.10522422194480896, -0.03392309322953224, 0.17656028270721436, 0.11338791996240616, 0.054018549621105194, -0.002569973934441805, -0.02039157599210739, 0.059792667627334595, 0.09905513375997543, 0.0078440485522151, 0.052700474858284, 0.13578586280345917, 0.07959266006946564, 0.16369417309761047, 0.015922358259558678, -0.16388137638568878, 0.164849653840065, -0.12060781568288803, -0.06457056105136871, -0.129216730594635, 0.14641496539115906, 0.12745162844657898, 0.03895963355898857, -0.08410967141389847, 0.10895280539989471, -0.1260969638824463, -0.11785589903593063, -0.11540420353412628, -0.10405031591653824, 0.20706412196159363], [0.0791187584400177, -0.21876922249794006, -0.06782947480678558, 0.147753044962883, 0.11523433029651642, -0.04529041051864624, 0.12404613196849823, 0.07780114561319351, 0.10216258466243744, -0.1227264255285263, 0.10903515666723251, 0.11250205338001251, -0.0727095901966095, -0.10405883938074112, 0.12847428023815155, 0.04232630878686905, -0.03885268047451973, -0.15531381964683533, -0.13661527633666992, -0.12061979621648788, 0.07585032284259796, 0.02749619260430336, 0.09482225775718689, 0.11504300683736801, -0.0377129390835762, -0.0183466374874115, 0.05089833587408066, 0.1679711639881134, -0.160291850566864, -0.13528931140899658, 0.14905476570129395, -0.02339155413210392], [-0.11767548322677612, 0.08590410649776459, -0.09034815430641174, -0.017026064917445183, 0.06217075511813164, -0.03792820870876312, 0.09944096207618713, -0.09562911838293076, 0.0703371986746788, -0.01789725571870804, 0.10847601294517517, -0.17615991830825806, 0.049995142966508865, -0.06585342437028885, 0.03151213750243187, 0.0013622851110994816, 0.17627057433128357, -0.13014112412929535, 0.06362143903970718, -0.11346062272787094, 0.14058944582939148, -0.12800844013690948, -0.043324775993824005, -0.0034731654450297356, 0.12008967995643616, 0.1001846045255661, 0.021557949483394623, 0.12313838303089142, 0.038985949009656906, -0.04846217855811119, -0.16458167135715485, -0.022951003164052963], [-0.1915636658668518, -0.18287457525730133, 0.09914648532867432, 0.20031709969043732, -0.08178303390741348, -0.07456238567829132, 0.1786547750234604, -0.06598497182130814, 0.09520730376243591, -0.17045514285564423, 0.07433479279279709, 0.05403067544102669, -0.10141519457101822, -0.18795762956142426, 0.06299642473459244, 0.1254643201828003, 0.08459678292274475, 0.08396979421377182, 0.09855164587497711, -0.07006002217531204, -0.1320323944091797, -0.1401498019695282, -0.09106706827878952, -0.005742634646594524, -0.0827975943684578, 0.05441683530807495, -0.16534902155399323, -0.015208299271762371, -0.07345281541347504, 0.0596645213663578, 0.07552091777324677, -0.05774892494082451], [-0.135966494679451, -0.11038899421691895, -0.08463431149721146, -0.05435308441519737, -0.08450191468000412, -0.007489641197025776, 0.00012039818102493882, 0.07061818987131119, 0.08118452876806259, -0.11311177164316177, 0.04492180421948433, 0.043459512293338776, -0.07269108295440674, -0.054218851029872894, 0.02254324033856392, 0.028886474668979645, -0.0672675222158432, -0.07011514902114868, -0.07268185168504715, 0.0693967416882515, 0.0956355631351471, 0.056866925209760666, -0.05444354936480522, 0.02036762796342373, 0.07790639996528625, -0.008372324518859386, -0.02456715703010559, -0.028203828260302544, -0.03220241516828537, -0.10619824379682541, 0.02632315270602703, -0.04789530485868454], [-0.07255679368972778, 0.025782769545912743, 0.002762327203527093, -0.0847233384847641, 0.007280110381543636, 0.0787624642252922, 0.021805131807923317, 0.031885020434856415, -0.010536438785493374, 0.005972189363092184, -0.09104688465595245, 0.014875764958560467, 0.0033543535973876715, 0.05218355730175972, -0.016202323138713837, -0.15516437590122223, -0.07727877050638199, -0.015703177079558372, 0.09751071035861969, 0.1481093168258667, 0.07473183423280716, 0.011941871605813503, 0.05422487109899521, 0.05624464154243469, 0.023357870057225227, -0.03237055987119675, -0.05335337296128273, -0.1364680528640747, 0.10813131183385849, 0.1315983533859253, -0.020228857174515724, 0.021365761756896973], [0.01438144501298666, 0.026824001222848892, 0.13917097449302673, 0.07763158529996872, -0.058826759457588196, -0.01993047259747982, -0.014997168444097042, 0.046833377331495285, -0.08614465594291687, -0.008007686585187912, 0.022555362433195114, -0.04714205861091614, -0.004289757460355759, 0.018521616235375404, -0.10960748046636581, 0.0214223749935627, -0.040392447263002396, -0.07333286851644516, 0.003949054516851902, 0.12071157246828079, 0.08009818941354752, -0.09606923907995224, 0.06289075314998627, 0.048133477568626404, 0.030453644692897797, -0.01666063815355301, 0.02972673624753952, 0.0077091786079108715, -0.13784897327423096, 0.02109808474779129, 0.046293266117572784, -0.0031146497931331396], [-0.1899162381887436, -0.13921323418617249, -0.11139871925115585, 0.1961117535829544, -0.0494917556643486, 0.14311453700065613, 0.1139480397105217, -0.027528639882802963, -0.06680244207382202, -0.1836073249578476, 0.024183029308915138, -0.11722111701965332, 0.11947495490312576, 0.04430495575070381, 0.049569666385650635, -0.08448933064937592, 0.08611936122179031, -0.256165087223053, -0.1546037495136261, -0.12459893524646759, -0.09695688635110855, -0.020280640572309494, -0.030793510377407074, -0.09047365188598633, -0.10027190297842026, 0.1227320209145546, 0.05081984028220177, -0.014688494615256786, 0.04512050375342369, -0.10266703367233276, 0.25288841128349304, 0.14295870065689087], [-0.03672891855239868, 0.05589887872338295, 0.12359163165092468, 0.12256918847560883, -0.0824301466345787, -0.09446695446968079, -0.024798870086669922, -0.012849667109549046, -0.08739061653614044, -0.07371365278959274, -0.06413852423429489, -0.017709288746118546, 0.151004821062088, -0.0013682886492460966, 0.09321204572916031, -0.05816347151994705, -0.11696349829435349, -0.03404403105378151, -0.05814826861023903, 0.17019370198249817, -0.01758434996008873, -0.001841663382947445, 0.04117130488157272, -0.06349442899227142, -0.08854454010725021, -0.022316087037324905, -0.059840425848960876, -0.08531659841537476, 0.013666790910065174, -0.13918133080005646, -0.08565771579742432, -0.13704019784927368], [-0.23301374912261963, -0.14829790592193604, 0.11715612560510635, 0.10889311134815216, -0.14269572496414185, 0.06756159663200378, 0.031077545136213303, -0.13274462521076202, -0.032986219972372055, -0.17898021638393402, 0.15132249891757965, -0.08933409303426743, -0.015090172179043293, -0.15612414479255676, 0.058026816695928574, -0.014153174124658108, 0.03721243888139725, -0.13943716883659363, -0.1662910282611847, -0.09352986514568329, -0.015019699931144714, -0.05007040128111839, 0.0491749532520771, -0.11147152632474899, 0.08624979108572006, -0.04574710130691528, -0.14289040863513947, 0.17390283942222595, 0.10316097736358643, 0.1530940979719162, 0.0409841351211071, 0.07116234302520752], [0.06851466000080109, 0.15374688804149628, 0.018541129305958748, -0.031372737139463425, 0.06591717898845673, 0.003279835684224963, -0.1388857215642929, -0.004927517380565405, -0.050141315907239914, -0.04792305827140808, 0.049817267805337906, -0.027776800096035004, 0.12200195342302322, -0.14367148280143738, -0.1339718997478485, 0.09302540868520737, -0.04385804384946823, -0.17817483842372894, 0.06280984729528427, -0.03475528210401535, -0.0497063547372818, 0.1017816886305809, 0.14264236390590668, -0.02739802561700344, -0.12183979153633118, -0.15217484533786774, -0.11984370648860931, 0.14752265810966492, -0.11686927080154419, -0.12097165733575821, -0.16609378159046173, 0.1522080898284912], [-0.1385718286037445, -0.20360739529132843, -0.05118675157427788, 0.12407881021499634, -0.08373701572418213, -0.061570387333631516, 0.17645443975925446, -0.06978584825992584, -0.08410251140594482, -0.03895079717040062, -0.005633198656141758, -0.05373040959239006, 0.006845897063612938, 0.05585131794214249, 0.13913094997406006, 0.05807572975754738, 0.18821538984775543, 0.05461227148771286, -0.14235186576843262, 0.11048666387796402, -0.12851856648921967, -0.1655203402042389, 0.019243642687797546, 0.014081967994570732, 0.06787443906068802, 0.12645037472248077, -0.2291099727153778, 0.0715804398059845, 0.12471074610948563, 0.03273090347647667, 0.06627368181943893, -0.047758277505636215], [-0.02485688030719757, -0.014010571874678135, -0.09335220605134964, -0.18297044932842255, -0.179052472114563, 0.013050918467342854, -0.12823939323425293, -0.09719706326723099, -0.0333426296710968, -0.13707387447357178, 0.08883871138095856, -0.10957682877779007, 0.14105211198329926, 0.05876242369413376, -0.07521035522222519, 0.0687003880739212, -0.15897122025489807, -0.036980122327804565, -0.10242325812578201, -0.03386778384447098, -0.08655243366956711, -0.08677372336387634, 0.11337021738290787, -0.049178559333086014, -0.06244891881942749, 0.159023717045784, -0.10426387935876846, 0.15991172194480896, -0.1647655963897705, 0.10843413323163986, 0.07438680529594421, -0.16141510009765625], [0.18457208573818207, 0.1282375305891037, -0.15279072523117065, 0.1438925862312317, -0.010865909978747368, 0.07925894111394882, 0.12155333161354065, 0.08272360265254974, 0.03492460027337074, -0.04732121154665947, 0.1510051190853119, -0.15282617509365082, 0.008468409068882465, -0.10210438072681427, 0.0820532739162445, 0.13481025397777557, -0.008682985790073872, 0.033825840801000595, -0.057500168681144714, 0.054428137838840485, 0.07303983718156815, -0.053720325231552124, 0.17277416586875916, -0.014988163486123085, -0.08840757608413696, 0.054250795394182205, 0.1112617701292038, -0.14805956184864044, -0.14820434153079987, 0.01903567463159561, -0.036040909588336945, 0.18940705060958862], [-0.023957716301083565, -0.007700458634644747, -0.053706537932157516, 0.023699048906564713, -0.026378896087408066, -0.12708483636379242, 0.015862692147493362, -0.11464521288871765, -0.03722595050930977, 0.07423214614391327, 0.03748924285173416, -0.0877288207411766, -0.07677812874317169, 0.02803766168653965, 0.0972772017121315, 0.09264849871397018, 0.0850856602191925, -0.06759756803512573, 0.00040636956691741943, 0.12857744097709656, 0.006260333117097616, -0.05505172535777092, 0.06277946382761002, 0.0436963252723217, 0.08974111080169678, 0.017894171178340912, 0.10481441766023636, 0.09887412935495377, -0.08309141546487808, 0.11887215822935104, 0.0765475183725357, -0.014478953555226326], [-0.13274908065795898, -0.12174611538648605, 0.05431023985147476, 0.1291552484035492, -0.13694672286510468, 0.18582938611507416, -0.09128931909799576, 0.11793646961450577, 0.019765041768550873, -0.02814212068915367, 0.16248703002929688, 0.007376073859632015, -0.045807164162397385, -0.14946092665195465, 0.08566401153802872, 0.0073971073143184185, 0.21880461275577545, 0.03568663448095322, -0.0683756023645401, -0.07346933335065842, -0.20349083840847015, 0.09291526675224304, 0.036165494471788406, 0.07051227986812592, -0.08467399328947067, 0.0687839686870575, -0.21730348467826843, 0.17780885100364685, 0.20403122901916504, -0.16810208559036255, 0.04310395196080208, 0.1223672479391098], [-0.02976245991885662, -0.08586530387401581, -0.04869542643427849, 0.14019866287708282, 0.11986621469259262, 0.1109953299164772, -0.12246255576610565, 0.019985564053058624, -0.04933420568704605, -0.18282747268676758, 0.07166183739900589, 0.035960424691438675, -0.04325978830456734, 0.1002347469329834, -0.037047408521175385, -0.09536103159189224, -0.006190359592437744, 0.11497925966978073, -0.12554778158664703, 0.06660561263561249, -0.1619499921798706, 0.10608215630054474, 0.10428446531295776, -0.07207180559635162, -0.1737288236618042, 0.04374849051237106, 0.07456745952367783, 0.14399708807468414, -0.09183220565319061, -0.04943840578198433, -0.18676115572452545, 0.18246042728424072], [-0.053479500114917755, -0.2515988349914551, -0.023998675867915154, 0.11637192964553833, -0.0788591280579567, 0.1915743499994278, 0.1936887949705124, 0.13858969509601593, 0.0067701926454901695, -0.07634787261486053, -0.11096470057964325, -0.06560289114713669, -0.10762099176645279, 0.025893434882164, 0.012784835882484913, 0.03012671321630478, 0.1498294472694397, -0.0008874329505488276, -0.07628282159566879, 0.05569904297590256, -0.16200290620326996, -0.08664160966873169, -0.19608235359191895, -0.16404950618743896, -0.09643092751502991, -0.001391473924741149, -0.05772007256746292, 0.12622885406017303, -0.13637244701385498, 0.10073018074035645, -0.002839241176843643, -0.030087919905781746], [0.09031124413013458, -0.05930342152714729, -0.058915991336107254, -0.16281835734844208, -0.05808090791106224, -0.14665910601615906, -0.005765791516751051, -0.11026906222105026, -0.029991058632731438, 0.08014297485351562, 0.04146389290690422, -0.003468481358140707, -0.00434163399040699, -0.022271044552326202, 0.057251010090112686, -0.1254764348268509, -0.009937075898051262, 0.04419907554984093, 0.10037855058908463, 0.18003156781196594, 0.16253431141376495, 0.0478556826710701, 0.04520520567893982, 0.020457180216908455, -0.03983493149280548, 0.013089487329125404, 0.0150844631716609, 0.03513634577393532, 0.12702469527721405, 0.01775616966187954, -0.09386689960956573, 0.01359886210411787], [0.015462403185665607, -0.004682315979152918, -0.01693078689277172, -0.07100065797567368, -0.10030615329742432, -0.0583326518535614, -0.06323297321796417, 0.029531804844737053, -0.040881793946027756, 0.08789202570915222, -0.03504520654678345, 0.040551163256168365, 0.054505910724401474, -0.03204920515418053, 0.07528643310070038, -0.0908920094370842, 0.044785887002944946, 0.028160778805613518, 0.016640987247228622, 0.04419466853141785, 0.12116661667823792, 0.13491615653038025, -0.004720887169241905, 0.05209784954786301, 0.11422503739595413, 0.021154576912522316, 0.05081541836261749, -0.027194367721676826, 0.09538145363330841, 0.008702603168785572, 0.07871606945991516, 0.024285171180963516], [-0.15020231902599335, -0.039454299956560135, 0.0673866793513298, 0.1266961544752121, -0.16072115302085876, -0.021101295948028564, -0.08299025148153305, 0.08936413377523422, 0.07657771557569504, -0.1096469834446907, 0.07784955203533173, -0.11938465386629105, 0.002109333872795105, 0.0063679954037070274, 0.04059010371565819, -0.14672644436359406, -0.1077834963798523, 0.10302963852882385, 0.03600096330046654, 0.10620196908712387, 0.15252476930618286, -0.02903100661933422, 0.035046905279159546, -0.12391307950019836, 0.0995999425649643, 0.012221211567521095, 0.02326747588813305, 0.0031620326917618513, -0.016154717653989792, 0.1016378253698349, -0.0252951942384243, 0.011871435679495335], [-0.16746555268764496, -0.047641851007938385, -0.0012941899476572871, -0.006114265415817499, -0.09597422927618027, -0.09629976004362106, -0.06874970346689224, -0.0787314921617508, -0.10577178001403809, -0.1767069399356842, -0.0011402901727706194, 0.15122243762016296, -0.10150913894176483, -0.09693388640880585, 0.13936123251914978, 0.10683728754520416, 0.0915459543466568, -0.09953820705413818, 0.042217791080474854, 0.15160106122493744, 0.1136225089430809, -0.0371253676712513, -0.18139120936393738, 0.13977853953838348, 0.060280248522758484, 0.024286732077598572, 0.05623157322406769, -0.10219467431306839, -0.03937384858727455, -0.06733137369155884, 0.15495526790618896, -0.12992799282073975], [-0.1270507276058197, -0.19610995054244995, 0.13096699118614197, -0.1812770664691925, -0.02542652189731598, -0.012021341361105442, 0.14663928747177124, -0.04425498843193054, -0.07358364760875702, 0.016551215201616287, -0.12813080847263336, 0.03129251301288605, 0.13480053842067719, -0.09600653499364853, -0.09139654040336609, -0.13559165596961975, 0.06146058440208435, -0.18342888355255127, 0.059277068823575974, -0.10029524564743042, -0.05471375957131386, -0.04647723212838173, -0.1738128960132599, -0.06847501546144485, 0.09204162657260895, 0.12278353422880173, -0.11943484097719193, -0.04819612577557564, -0.1745462268590927, -0.15381580591201782, -0.060632336884737015, -0.17352373898029327], [-0.018154216930270195, 0.0027620410546660423, -0.0153768640011549, 0.01753224804997444, 0.028420446440577507, 0.07610557973384857, 0.0485708974301815, -0.08084454387426376, 0.07117301225662231, -0.11309491097927094, 0.012411553412675858, -0.0629023015499115, 0.13780269026756287, -0.03683295100927353, 0.09853921830654144, 0.07811339199542999, -0.0642225369811058, -0.00716302078217268, 0.006394689902663231, -0.11846696585416794, -0.011073412373661995, -0.004101790487766266, -0.0760004073381424, 0.045856963843107224, -0.054945286363363266, -0.01920739747583866, 0.007998086512088776, 0.14439493417739868, 0.11175183951854706, 0.012235219590365887, -0.009084693156182766, 0.03946110978722572], [0.03899399936199188, 0.0636783167719841, 0.03414114937186241, 0.13046608865261078, -0.04606969654560089, -0.07845797389745712, -0.03140098601579666, -0.1427522897720337, -0.058785486966371536, 0.011463923379778862, -0.08882611989974976, 0.07028522342443466, -0.05561865121126175, -0.0034602812957018614, -0.10536608099937439, 0.028746038675308228, -0.04664600268006325, 0.12333091348409653, -0.16024553775787354, 0.12705767154693604, -0.08199300616979599, 0.027146946638822556, 0.03557756915688515, -0.11049899458885193, 0.009599175304174423, 0.0076620373874902725, 0.11863304674625397, -0.030374187976121902, -0.07253434509038925, -0.06709843128919601, -0.022332940250635147, 0.05330633372068405], [0.05871124565601349, -0.22495898604393005, -0.13527874648571014, 0.03758023679256439, 0.03379864618182182, 0.08776047080755234, 0.03630835935473442, -0.05126752331852913, 0.09431347250938416, -0.015348796732723713, 0.09783061593770981, -0.03662581741809845, 0.08819815516471863, -0.20475101470947266, -0.10433956980705261, 0.048930250108242035, 0.1264815330505371, 0.06134031340479851, -0.08992353081703186, 0.04828422889113426, 0.12897133827209473, -0.11442797631025314, 0.04255605489015579, -0.16683562099933624, 0.0020008343271911144, 0.04249989241361618, -0.06470771878957748, 0.062424395233392715, 0.0169035866856575, -0.13333694636821747, -0.042921338230371475, -0.19350191950798035], [0.038942765444517136, -0.14055180549621582, 0.07996402680873871, -0.03830200806260109, -0.16915330290794373, -0.13426049053668976, -0.007065318059176207, -0.14460845291614532, 0.05849518999457359, -0.09283304959535599, 0.05087981000542641, -0.06482517719268799, 0.17384061217308044, -0.10802783817052841, -0.07391969859600067, -0.1565198004245758, -0.10269764065742493, -0.0714549720287323, 0.09850350022315979, 0.017303260043263435, -0.0940999984741211, 0.061651840806007385, -0.16446265578269958, 0.036928076297044754, 0.05051809549331665, 0.03869785740971565, 0.07368063181638718, 0.12143119424581528, -0.06647360324859619, 0.16192637383937836, 0.11209455132484436, -0.05635738745331764], [-0.00826268456876278, -0.006550381425768137, 0.030624281615018845, 0.027775002643465996, -0.15363460779190063, -0.07161016017198563, -0.06217868626117706, 0.019199222326278687, -0.07364347577095032, -0.002500368282198906, -0.12189329415559769, -0.020172499120235443, 0.027921810746192932, 0.033164262771606445, -0.03524019941687584, 0.10792125761508942, -0.09701846539974213, 0.022731680423021317, 0.022391606122255325, 0.1693018227815628, -0.1182437390089035, 0.023465905338525772, 0.10532468557357788, 0.045676250010728836, 0.09279625862836838, -0.014474962837994099, 0.04145599901676178, -0.043291136622428894, 0.11256285011768341, 0.12949004769325256, -0.08616114407777786, 0.03705485910177231], [0.1583869308233261, 0.029123347252607346, -0.031718239188194275, -0.03684801608324051, 0.12216750532388687, 0.13674423098564148, -0.03299405425786972, 0.10160721093416214, 0.043372511863708496, -0.03529515117406845, 0.10704416036605835, 0.06461885571479797, -0.18328635394573212, -0.0795212984085083, 0.17156535387039185, 0.08911382406949997, 0.1476583331823349, -0.1748376041650772, -0.11098019778728485, -0.014353408478200436, 0.12603484094142914, -0.028223009780049324, -0.13950473070144653, -0.22594384849071503, 0.10346795618534088, 0.11513780802488327, 0.08098309487104416, 0.016441965475678444, 0.16584493219852448, -0.01069340854883194, 0.037319082766771317, 0.044496551156044006], [0.05209381878376007, -0.0017710896208882332, 0.11643698066473007, -0.16242869198322296, 0.01172445248812437, -0.15790466964244843, 0.013828901574015617, -0.07307795435190201, -0.008361579850316048, 0.09707654267549515, -0.13139928877353668, -0.07597576081752777, -0.02673080936074257, 0.00027136539574712515, -0.10362119227647781, 0.06320496648550034, -0.13611388206481934, 0.0561455637216568, -0.06409294158220291, 0.04548388347029686, -0.006268407683819532, 0.00330484751611948, -0.08344248682260513, 0.04787849262356758, -0.057641834020614624, 0.04340442642569542, -0.029979251325130463, 0.07292922586202621, -0.057530727237463, -0.07999686151742935, 0.028515182435512543, 0.06119763106107712], [-0.10600948333740234, 0.12978528439998627, 0.10241023451089859, 0.07960595935583115, 0.08086545020341873, 0.021069789305329323, -0.02944759652018547, -0.035739216953516006, 0.1368068903684616, 0.2048734724521637, 0.15949945151805878, 0.16252931952476501, -0.17837122082710266, -0.06269001960754395, 0.0904187336564064, 0.16296112537384033, -0.08232277631759644, 0.14100828766822815, 0.09859799593687057, 0.010332421399652958, 0.09975085407495499, 0.0027233536820858717, -0.12081500887870789, 0.012667398899793625, -0.022087320685386658, 0.04114959016442299, -0.029094861820340157, 0.12218743562698364, 0.013890597969293594, -0.07043538242578506, 0.0974862203001976, 0.006079328712075949], [0.08948122709989548, 0.01585490070283413, 0.13546398282051086, 0.15640589594841003, 0.20252205431461334, -0.06989750266075134, -0.12592418491840363, 0.1368207335472107, -0.030087409541010857, 0.07400888204574585, -0.11482218652963638, 0.15175725519657135, 0.004114820621907711, 0.06277456879615784, -0.08592715859413147, -0.0474403016269207, 0.07837643474340439, 0.09634481370449066, -0.05720849335193634, -0.14936991035938263, 0.11841966211795807, 0.10163571685552597, 0.16005347669124603, -0.0063519603572785854, -0.038527484983205795, -0.008954910561442375, 0.147004634141922, 0.06141739711165428, 0.10220494866371155, 0.11039000749588013, 0.09991941601037979, -0.07285675406455994], [-0.07979816198348999, -0.2034706473350525, -0.03670068457722664, 0.1615900844335556, -0.04190404340624809, 0.1791781336069107, -0.04015199840068817, -0.0603705495595932, 0.13018538057804108, -0.15998190641403198, -0.13498112559318542, -0.1894175112247467, 0.10287906974554062, -0.08376295864582062, -0.009869175963103771, 0.03155306354165077, -0.13010630011558533, 0.09014344960451126, -0.18247635662555695, -0.16508127748966217, 0.016431499272584915, 0.02962115779519081, -0.10548143833875656, -0.14146827161312103, -0.09721885621547699, 0.14066766202449799, 0.06837165355682373, 0.1694696694612503, 0.03915460407733917, -0.11200134456157684, 0.22149629890918732, 0.12227232754230499], [-0.009418935514986515, -0.09963099658489227, -0.08055543899536133, 0.0585276335477829, -0.13237428665161133, 0.1831282675266266, -0.1041669249534607, 0.07094857841730118, -0.06808046996593475, -0.1781807839870453, 0.15489697456359863, -0.10371019691228867, -0.0004951449809595942, -0.10800471901893616, 0.03643415495753288, 0.0771591067314148, -0.07485605776309967, -0.15453799068927765, -0.2002420276403427, -0.10900993645191193, 0.05623158439993858, -0.08351708203554153, -0.1340743750333786, -0.007094250060617924, 0.04529253765940666, -0.038679566234350204, -0.08398471772670746, 0.15952423214912415, 0.12264339625835419, -0.11379902064800262, -0.10349161177873611, 0.07346832007169724], [0.10987584292888641, 0.040660206228494644, 0.01913635805249214, 0.010554675944149494, 0.08228994905948639, 0.08494200557470322, -0.07322756201028824, 0.13855911791324615, 0.1804216504096985, -0.039216842502355576, 0.059952445328235626, -0.020581018179655075, 0.07178723812103271, 0.09112756699323654, -0.1555563509464264, 0.04205155745148659, 0.131062850356102, 0.061788298189640045, 0.1421041190624237, -0.03732890635728836, -0.15573309361934662, -0.10510513931512833, 0.061108093708753586, 0.10940960049629211, 0.025276165455579758, -0.13817961513996124, -0.041608795523643494, -0.12351503223180771, -0.03137267380952835, 0.07893694192171097, 0.0936790332198143, -0.01968975178897381], [-0.1764819473028183, -0.23620250821113586, -0.13083209097385406, 0.14656950533390045, -0.022976934909820557, 0.0928674042224884, -0.1332320272922516, -0.16657471656799316, -0.09201810508966446, -0.1538015604019165, 0.03159977123141289, 0.0039650811813771725, -0.0034100927878171206, 0.03264908492565155, 0.014875149354338646, 0.04880862310528755, -0.030030978843569756, 0.06573125720024109, 0.061394598335027695, 0.18073593080043793, -0.07544977962970734, 0.04391154646873474, -0.10883671790361404, -0.12302453070878983, -0.10392334312200546, -0.052718862891197205, 0.0068623642437160015, -0.08600430935621262, -0.07089367508888245, 0.18434502184391022, 0.14143823087215424, 0.0970163643360138], [-0.09084682166576385, 0.03276996314525604, -0.048349276185035706, -0.1472616195678711, 0.04951430484652519, -0.10445833206176758, 0.1276731938123703, 0.09041926264762878, 0.04780808836221695, 0.09189998358488083, -0.06881333142518997, -0.009580152109265327, 0.035024236887693405, -0.04160633310675621, 0.075385682284832, -0.16126924753189087, -0.11948816478252411, -0.06846379488706589, 0.004536903463304043, -0.02195795252919197, -0.07356996089220047, 0.0983067974448204, -0.13341327011585236, -0.12027722597122192, 0.19375033676624298, -0.09614147245883942, 0.15844561159610748, -0.11382310092449188, -0.11668127775192261, 0.14198198914527893, -0.009519844315946102, 0.017539236694574356], [0.03198089823126793, 0.02613670378923416, 0.11592505872249603, 0.15137998759746552, 0.1680646389722824, -0.17932693660259247, -0.1252271980047226, -0.019215330481529236, -0.10029274225234985, -0.07182298600673676, -0.17245787382125854, 0.12119076400995255, -0.10283792018890381, 0.1826753318309784, 0.05166231468319893, 0.11592750251293182, -0.18306687474250793, -0.11709766834974289, -0.04431283101439476, 0.05638425052165985, 0.12406758219003677, 0.14324085414409637, -0.15230391919612885, 0.04046729579567909, 0.10769560933113098, 0.04523222893476486, 0.14854562282562256, -0.14284898340702057, -0.09088548272848129, -0.0946272611618042, -0.14902278780937195, -0.027577318251132965], [-0.02007816918194294, -0.10117219388484955, 0.06912971287965775, 0.012993894517421722, 0.009708563797175884, 0.0662948340177536, -0.10681813955307007, -0.14556048810482025, -0.16919942200183868, -0.13011199235916138, 0.15337741374969482, -0.002314472571015358, 0.0567755401134491, -0.1335575133562088, -0.09148845821619034, -0.05732174217700958, -0.042449284344911575, -0.029568923637270927, -0.08461437374353409, 0.03250055015087128, 0.026499131694436073, 0.07138948142528534, -0.1009911522269249, -0.049549397081136703, 0.10274913907051086, -0.07557129114866257, 0.07262206077575684, 0.07570343464612961, -0.16719114780426025, 0.10344051569700241, 0.11056361347436905, -0.06647836416959763], [0.038228411227464676, 0.01747855357825756, -0.20672796666622162, -0.146764874458313, -0.09764842689037323, -0.18736562132835388, -0.07417044043540955, -0.08702395856380463, -0.09382820874452591, 0.06842543184757233, -0.01790536195039749, 0.040045373141765594, 0.09625223278999329, 0.015977568924427032, -0.09066396951675415, 0.10021918267011642, 0.0948108658194542, 0.03130722418427467, 0.1944497972726822, 0.07536080479621887, -0.07142891734838486, 0.014621376059949398, 0.12590770423412323, 0.08224913477897644, 0.15531344711780548, -0.15648025274276733, 0.18738733232021332, -0.09867682307958603, 0.061415884643793106, -0.16068188846111298, 0.012739893049001694, 0.15276654064655304], [-0.15952835977077484, 0.012364288792014122, 0.1516352891921997, 0.12791414558887482, -0.12879055738449097, 0.05244312435388565, 0.06772451102733612, -0.08844833076000214, 0.12205442041158676, 0.11043102294206619, -0.05249783769249916, -0.019647276028990746, -0.002616232493892312, -0.16419069468975067, 0.1361372023820877, -0.14949017763137817, 0.1784323751926422, 0.15180176496505737, 0.11418592184782028, 0.020243672654032707, -0.13186976313591003, -0.12623341381549835, 0.14421631395816803, -0.14356952905654907, 0.1367744505405426, 0.1646149903535843, -0.001337765483185649, -0.04086398333311081, 0.10718157887458801, 0.04579347372055054, 0.11413127183914185, -0.18801696598529816], [0.05742292106151581, 0.08178719133138657, -0.10563995689153671, -0.012134083546698093, -0.0539788082242012, -0.02439204230904579, -0.07639507949352264, -0.09139399975538254, -0.02116684801876545, 0.12180908024311066, -0.05387839674949646, -0.12581059336662292, 0.12507063150405884, 0.20622804760932922, 0.10642430186271667, -0.09021805226802826, 0.12647853791713715, 0.02298615127801895, -0.09706218540668488, 0.13445822894573212, -0.07897350192070007, -0.15116986632347107, 0.1865762323141098, 0.10182289779186249, 0.0883517637848854, -0.026414889842271805, -0.07312753051519394, 0.062017772346735, -0.15341541171073914, -0.12499991059303284, -0.19221065938472748, 0.14137683808803558], [-0.13834737241268158, -0.027706313878297806, 0.029364850372076035, -0.05475826561450958, -0.04936859756708145, 0.1163516417145729, -0.106943778693676, -0.04603714495897293, -0.016374949365854263, -0.21497929096221924, -0.10362815856933594, 0.0848197340965271, -0.06065055727958679, 0.00322322896681726, -0.011889595538377762, -0.17469988763332367, -0.03614676371216774, -0.19730202853679657, -0.030626630410552025, -0.019576072692871094, -0.1391066014766693, 0.15075381100177765, -0.1687290072441101, -0.0982702225446701, -0.09141155332326889, 0.19678270816802979, -0.1630731076002121, -0.11785566806793213, 0.006921528838574886, 0.10575059056282043, -0.03141005337238312, -0.07035208493471146], [-0.014704660512506962, 0.13098742067813873, 0.05261746793985367, 0.02785397134721279, 0.02761995419859886, -0.03303704410791397, 0.05278293415904045, 0.14779412746429443, -0.13845255970954895, -0.046043381094932556, 0.09412213414907455, -0.14490145444869995, -0.16474774479866028, 0.22089532017707825, 0.07628851383924484, 0.19276338815689087, -0.025676606222987175, 0.11437299847602844, -0.08691005408763885, -0.114485964179039, -0.1328422874212265, -0.033582936972379684, -0.05582733079791069, -0.15786217153072357, -0.1612498164176941, 0.08141548931598663, -0.05516139417886734, 0.15843088924884796, 0.09956219047307968, 0.03875044733285904, 0.03634737804532051, 0.13879911601543427], [-0.06126464158296585, 0.01905222050845623, -0.019350962713360786, 0.16471004486083984, -0.1919069141149521, -0.04245828837156296, 0.06533389538526535, 0.0646042600274086, -0.17045223712921143, -0.1974906474351883, -0.10239367187023163, 0.11416847258806229, 0.006872306577861309, 0.030329793691635132, 0.15911535918712616, 0.14880406856536865, 0.10369694977998734, 0.031111065298318863, -0.14263196289539337, 0.03466648980975151, 0.10893365740776062, -0.035616789013147354, 0.08107484877109528, -0.16892243921756744, -0.12046027183532715, 0.2156844288110733, 0.054315075278282166, -0.13262391090393066, -0.07503565400838852, 0.05586029961705208, -0.017178162932395935, -0.16156043112277985], [0.04278218373656273, -0.05696617439389229, -0.05337806046009064, -0.043316055089235306, 0.07036969810724258, 0.11819165199995041, 0.06446146219968796, 0.08941110223531723, -0.09469850361347198, -0.09021648019552231, 0.08021079748868942, 0.062144018709659576, -0.12680229544639587, -0.08661869913339615, 0.11954285204410553, -0.14245258271694183, -0.05939725041389465, 0.11716306954622269, -0.1461051106452942, 0.17277486622333527, 0.06786797195672989, -0.10068533569574356, -0.03938295319676399, -0.0763961523771286, 0.10286666452884674, 0.13528935611248016, 0.16982543468475342, 0.062344953417778015, 0.11195249110460281, -0.09557695686817169, -0.1997004747390747, 0.0687938928604126], [-0.07516108453273773, 0.05404392629861832, 0.07409238815307617, 0.09524931758642197, -0.12074524164199829, 0.1184050440788269, -0.1703241765499115, 0.006661519408226013, -0.08254082500934601, 0.09472571313381195, -0.0726366862654686, -0.14035293459892273, -0.07988209277391434, -0.052092645317316055, -0.14520351588726044, -0.05453503876924515, -0.11472261697053909, -0.02178843878209591, -0.10028238594532013, -0.08351390063762665, 0.03217883035540581, 0.140479177236557, -0.0005869694286957383, -0.09228477627038956, 0.008276927284896374, -0.10358721762895584, -0.0036587368231266737, 0.016922328621149063, -0.0029633024241775274, -0.05249006301164627, 0.06509803235530853, 0.035964034497737885], [0.021647533401846886, 0.04792537912726402, -0.12230327725410461, -0.137466162443161, 0.07922283560037613, -0.04017709195613861, -0.1942591369152069, 0.1609208732843399, 0.12337765097618103, 0.22401472926139832, 0.15905049443244934, 0.13774806261062622, -0.1319049447774887, 0.16025888919830322, -0.05474294349551201, 0.15005603432655334, -0.08872637897729874, -0.1303843855857849, 0.16302520036697388, 0.09821409732103348, 0.07412082701921463, -0.004461123142391443, -0.04460451379418373, -0.11414368450641632, -0.08010591566562653, 0.11632061749696732, -0.12470325827598572, 0.08502842485904694, -0.17303963005542755, 0.09301552176475525, -0.11702822893857956, -0.0754389539361], [0.1655104011297226, 0.14259162545204163, -0.044014107435941696, -0.15724250674247742, -0.06933730840682983, 0.10363989323377609, 0.14454877376556396, 0.04843427613377571, 0.10915886610746384, 0.17712533473968506, -0.030002517625689507, 0.17047367990016937, 0.15641164779663086, 0.1465909630060196, -0.16489063203334808, -0.08431369811296463, 0.12728404998779297, 0.11924973875284195, -0.07365582138299942, 0.1616029441356659, 0.06842217594385147, 0.04303416609764099, 0.009594452567398548, -0.04232027754187584, 0.13699446618556976, -0.0012023684103041887, 0.10840149223804474, 0.11878322064876556, -0.1375752091407776, -0.14132939279079437, 0.08043031394481659, -0.0677371621131897], [0.10666685551404953, 0.2530869245529175, -0.18976011872291565, 0.011215442791581154, 0.1420278400182724, -0.11361508816480637, -0.12182511389255524, -0.006723364349454641, 0.05446235090494156, 0.21119192242622375, 0.006564081646502018, -0.01194053702056408, 0.015226473100483418, 0.05050097405910492, 0.05773007124662399, -0.05731245502829552, -0.006466472055763006, 0.07891671359539032, -0.04563912749290466, -0.038286831229925156, 0.02822389081120491, -0.10695628821849823, -0.013350785709917545, 0.019589027389883995, -0.12879423797130585, -0.0974787101149559, 0.05563279613852501, -0.07345231622457504, -0.13276918232440948, 0.00663447892293334, -0.18821801245212555, 0.011939902789890766], [-0.06272031366825104, 0.020978223532438278, -0.16345444321632385, 0.05304289981722832, -0.048584695905447006, 0.19569069147109985, 0.1684340238571167, 0.09192097187042236, 0.14002536237239838, 0.11098301410675049, -0.06453036516904831, 0.09396718442440033, -0.10009178519248962, -0.1725628674030304, -0.011308051645755768, -0.005432804115116596, 0.11519872397184372, -0.07817507535219193, -0.12371981143951416, -0.10004547983407974, -0.09178628772497177, 0.027447128668427467, -0.0009702007519081235, 0.07670032978057861, 0.14058612287044525, 0.10927104949951172, 0.0010613761842250824, -5.250266985967755e-05, -0.15650857985019684, 0.1590697467327118, -0.0073752086609601974, 0.11482135206460953], [0.07976354658603668, -0.03787379339337349, 0.05451100692152977, -0.014381195418536663, 0.18089738488197327, 0.05533604323863983, 0.21163058280944824, 0.04572739452123642, 0.056545890867710114, 0.09575437009334564, -0.09824032336473465, -0.15168099105358124, 0.06708521395921707, 0.045015595853328705, -0.09339043498039246, 0.0028741504065692425, 0.08723649382591248, -0.03545054420828819, -0.0661720559000969, -0.17515550553798676, 0.08566513657569885, -0.13604974746704102, 0.11775412410497665, 0.03805607557296753, -0.21170543134212494, -0.07681138068437576, 0.04635940119624138, -0.10414896160364151, -0.04324958100914955, -0.20161600410938263, -0.15045885741710663, 0.05681488290429115], [0.02733493596315384, 0.1458893120288849, 0.14137090742588043, 0.09243306517601013, 0.10536275058984756, 0.019559986889362335, -0.14103250205516815, -0.16988761723041534, -0.1318376511335373, 0.21823684871196747, 0.03830000385642052, 0.12756948173046112, -0.03626631945371628, -0.06523232161998749, 0.040264856070280075, 0.06313030421733856, 0.11347038298845291, 0.15336669981479645, -0.07157483696937561, -0.043733373284339905, -0.07551471889019012, -0.09693212062120438, 0.012474979273974895, -0.036617111414670944, 0.16472995281219482, 0.10470124334096909, 0.13895900547504425, 0.10242191702127457, 0.023374289274215698, -0.0006356750964187086, -0.12178552150726318, -0.090629443526268], [-0.06161419302225113, 0.18941660225391388, -0.12266954779624939, -0.0007616146467626095, 0.22040867805480957, 0.06473305076360703, 0.1020921990275383, -0.11193002015352249, 0.016811324283480644, 0.21085603535175323, -0.08829528838396072, -0.004577820189297199, 0.07765015214681625, -0.004558997228741646, -0.05598258972167969, -0.03172741085290909, -0.045760978013277054, -0.0034613735042512417, -0.0917150154709816, 0.07614897191524506, 0.09822152554988861, 0.0392567478120327, -0.07917077839374542, -0.05668506771326065, -0.20212654769420624, -0.04482489079236984, 0.10564766079187393, -0.008637359365820885, -0.11064416915178299, -0.06824616342782974, -0.06582583487033844, -0.046014562249183655], [-0.07302277535200119, -0.048565346747636795, 0.10153153538703918, 0.014692943543195724, -0.0889320895075798, -0.10523586720228195, 0.0023089302703738213, -0.0650193989276886, 0.06401510536670685, 0.008882254362106323, -0.030885977670550346, 0.009205264039337635, 0.1477479487657547, -0.03860444203019142, 0.06519163399934769, 0.001127283787354827, 0.13475248217582703, 0.1743176281452179, -0.08724776655435562, 0.13455474376678467, -0.1425521820783615, -0.032331887632608414, 0.049368057399988174, 0.10449805110692978, -0.07009809464216232, 0.07214763760566711, -0.11600100249052048, -0.10514672100543976, 0.1265001893043518, -0.15309984982013702, -0.20759643614292145, 0.19895219802856445], [-0.1749507635831833, -0.19926829636096954, 0.006801217328757048, 0.07531443983316422, 0.022035948932170868, 0.21001285314559937, 0.1413908749818802, 0.15106907486915588, 0.06380197405815125, 0.11037493497133255, -0.06687430292367935, 0.07632169127464294, 0.15677860379219055, 0.0878211259841919, -0.065643809735775, -0.12910869717597961, 0.19626843929290771, 0.09762412309646606, 0.0790458619594574, -0.14009734988212585, 0.07696152478456497, -0.13302397727966309, 0.10198929905891418, -0.06397314369678497, 0.0997048169374466, -0.1413956582546234, -0.10555911809206009, 0.1361199915409088, 0.05644591152667999, -0.06177366524934769, 0.15274785459041595, -0.0849619209766388], [-0.14253324270248413, -0.07502361387014389, 0.08035413920879364, -0.11905983835458755, 0.17709702253341675, -0.11539994180202484, -0.08957373350858688, -0.14540915191173553, 0.12904590368270874, -0.031097160652279854, 0.16211701929569244, -0.09769032150506973, -0.022326312959194183, 0.09779632836580276, 0.13351456820964813, 0.14917312562465668, -0.15562543272972107, 0.04983104020357132, -0.08329272270202637, 0.058789439499378204, -0.1799170970916748, 0.02950717695057392, 0.15430302917957306, -0.1407080441713333, -0.12147151678800583, -0.17651116847991943, -0.11308259516954422, 0.028150593861937523, -0.08301998674869537, -0.0054664225317537785, -0.018416114151477814, -0.07904273271560669], [-0.1485053449869156, 0.02353060245513916, 0.11438629776239395, 0.0986962765455246, -0.19846418499946594, 0.006036519538611174, -0.002011320786550641, -0.07397762686014175, 0.054017528891563416, -0.017375467345118523, -0.16790160536766052, -0.10430170595645905, -0.09498938918113708, 0.05384856089949608, 0.08858247846364975, -0.18594598770141602, 0.09612664580345154, -0.039647478610277176, 0.060109611600637436, 0.1248142346739769, -0.02103847824037075, -0.12533916532993317, -0.01834253966808319, 0.07541170716285706, 0.043163515627384186, -0.004058185499161482, -0.15152119100093842, -0.008623173460364342, 0.010450487025082111, 0.112489715218544, 0.17493174970149994, -0.09565994143486023], [0.046472273766994476, -0.14192579686641693, 0.19801759719848633, 0.09664856642484665, -0.14362625777721405, 0.10344723612070084, -0.11083374172449112, 0.058212894946336746, -0.02003578655421734, -0.15975111722946167, 0.14083509147167206, -0.06272803246974945, -0.12013442069292068, -0.05170608311891556, -0.16066007316112518, 0.0846850648522377, 0.1258135437965393, 0.04485832527279854, -0.02246040664613247, 0.1753944307565689, 0.05320601165294647, -0.13482755422592163, 0.06301582604646683, -0.13193383812904358, -0.08920320123434067, -0.0014300717739388347, 0.036488208919763565, -0.00580185791477561, -0.06695575267076492, -0.054362889379262924, 0.2255297303199768, -0.22607210278511047], [0.1738917976617813, -0.11728456616401672, -0.017261410132050514, 0.05608619377017021, 0.016676120460033417, -0.0807826817035675, -0.114960677921772, -0.06718123704195023, -0.03898520767688751, 0.08495566248893738, -0.06968996673822403, 0.10162467509508133, -0.1104968935251236, -0.14928199350833893, 0.10602515935897827, 0.1587395966053009, -0.06166849285364151, 0.015547250397503376, 0.06004679203033447, 0.05955113470554352, -0.1787177473306656, 0.05875329673290253, 0.10058149695396423, -0.0970250591635704, -0.06151904910802841, -0.04266005754470825, -0.06713518500328064, -0.035787325352430344, -0.05829482153058052, -0.10079933702945709, 0.06294474005699158, -0.06497737020254135], [-0.17205357551574707, -0.141520693898201, 0.10499509423971176, -0.018980883061885834, -0.10590272396802902, -0.019014211371541023, 0.05990104749798775, 0.09325439482927322, 0.01829157955944538, -0.02795516699552536, -0.034713055938482285, 0.08084852248430252, 0.10777156800031662, -0.07132121920585632, -0.1470676213502884, -0.1822310835123062, 0.07891368865966797, -0.16569851338863373, -0.12776640057563782, -0.1711796373128891, -0.04583451896905899, -0.07953959703445435, -0.17783986032009125, 0.10890460014343262, -0.003014722838997841, 0.06946684420108795, -0.06295299530029297, -0.012252242304384708, 0.07086895406246185, 0.16695620119571686, -0.017493098974227905, -0.08054030686616898], [-0.05746489763259888, -0.08690965920686722, -0.014555844478309155, 0.003455481491982937, 0.006027953699231148, 0.153856560587883, 0.039552729576826096, -0.08280657976865768, -0.06125093623995781, 0.10842631012201309, 0.13329581916332245, -0.05352861434221268, -0.12665367126464844, -0.16966214776039124, -0.14698702096939087, -0.032014150172472, 0.0834544450044632, -0.012400001287460327, -0.13405688107013702, 0.04711947217583656, -0.07213079929351807, 0.06645747274160385, -0.1744130253791809, -0.022780578583478928, 0.04984565079212189, 0.18647931516170502, 0.08694826066493988, -0.0389946885406971, -0.08329793065786362, -0.05007561668753624, 0.15237261354923248, -0.0321008563041687], [-0.02651887573301792, -0.08283579349517822, -0.1752147078514099, -0.025341859087347984, 0.11836250126361847, 0.15620438754558563, 0.12982721626758575, -0.06810880452394485, 0.21515072882175446, -0.1196209266781807, 0.031067799776792526, -0.26462507247924805, -0.16165393590927124, -0.04164683446288109, 0.20684832334518433, -0.00861416570842266, 0.18623696267604828, -0.241267129778862, -0.013264978304505348, -0.046975765377283096, 0.02589510567486286, -0.10209966450929642, -0.11299080401659012, -0.11918040364980698, 0.03543393313884735, -0.07512017339468002, -0.07368526607751846, 0.24853655695915222, 0.06494692713022232, 0.07416579872369766, -0.10982883721590042, 0.03527545928955078], [-0.11977946758270264, -0.12796936929225922, 0.08893600851297379, 0.23601798713207245, -0.11238144338130951, 0.1713630110025406, 0.04879729822278023, 0.03883015364408493, 0.127750962972641, -0.20119909942150116, 0.16592787206172943, -0.22160853445529938, 0.10169757902622223, -0.016443734988570213, 0.18964840471744537, -0.011566483415663242, 0.16638414561748505, -0.07158408313989639, 0.034258339554071426, -0.23085333406925201, 0.04165046289563179, -0.15156635642051697, 0.0463700145483017, -0.10062746703624725, 0.06014299765229225, 0.14851248264312744, -0.17949727177619934, -0.0047641294077038765, 0.07387720048427582, -0.19800704717636108, 0.10441993176937103, 0.08705983310937881], [0.05911463871598244, -0.04913226515054703, 0.06334777921438217, 0.04397936165332794, -0.10057591646909714, 0.13808929920196533, -0.011162911541759968, 0.1096046045422554, 0.11060593277215958, -0.043932344764471054, -0.0008827210403978825, -0.002856894861906767, -0.1559060513973236, 0.1408734768629074, 0.1423121690750122, 0.0744195431470871, 0.13458453118801117, 0.033570896834135056, -0.01330577488988638, -0.11113671213388443, 0.10563720762729645, -0.025939935818314552, -0.1457805037498474, 0.07426448911428452, -0.1906607449054718, 0.06414467096328735, 0.04254375025629997, 0.018165742978453636, 0.17182880640029907, 0.1581619679927826, -0.19296035170555115, 0.04035181179642677], [-0.2395477443933487, -0.23306336998939514, -0.12327137589454651, -0.02689557522535324, -0.006244951859116554, -0.1059531643986702, -0.006248443387448788, -0.15631204843521118, 0.06692522019147873, -0.06270013004541397, 0.1301451027393341, -0.01998867280781269, 0.11884871870279312, 0.11501927673816681, 0.002302282489836216, 0.12236877530813217, -0.08538200706243515, 0.15092197060585022, 0.07020196318626404, -0.14469628036022186, 0.06893771886825562, 0.02325691655278206, 0.024102721363306046, 0.1616639494895935, 0.06147284433245659, 0.16460181772708893, -0.18628352880477905, 0.0761818140745163, -0.1784038096666336, -0.1313527524471283, 0.01348983682692051, -0.16494306921958923], [0.1420595347881317, -0.052539315074682236, -0.1185382604598999, -0.034761518239974976, -0.0782322883605957, 0.19580474495887756, 0.11601100116968155, -0.03652020916342735, 0.18151693046092987, -0.016546357423067093, -0.01027648150920868, 0.06649275869131088, -0.17434099316596985, 0.04985174536705017, 0.014254515990614891, -0.08367238193750381, 0.017618589103221893, 0.010013794526457787, 0.04387606680393219, -0.19697344303131104, 0.04368632659316063, 0.09963643550872803, -0.09312550723552704, 0.07192408293485641, -0.06315156817436218, -0.0012979996390640736, -0.10223610699176788, 0.16498048603534698, 0.1852179616689682, -0.058055367320775986, -0.1682484745979309, 0.022437352687120438], [0.024452893063426018, -0.15784496068954468, 0.04701283946633339, -0.10327527672052383, -0.03694528341293335, 0.17227791249752045, 0.0487867146730423, 0.009765692986547947, 0.15569782257080078, -0.17551511526107788, -0.050367679446935654, 0.00383775494992733, 0.07201700657606125, -0.09765114635229111, 0.10690206289291382, 0.006086290348321199, -0.05924618989229202, -0.010226854123175144, 0.08256242424249649, -0.0625588670372963, 0.004849696531891823, 0.0034279129467904568, -0.11032877117395401, -0.14888344705104828, -0.017320305109024048, 0.09240338951349258, -0.19668495655059814, -0.00309052225202322, 0.15146176517009735, 0.10445654392242432, 0.1420518457889557, 0.05480790510773659], [-0.0842040479183197, -0.08977402001619339, -0.08567268401384354, 0.13864068686962128, -0.03431497886776924, 0.10295195132493973, 0.023715976625680923, -0.09077730774879456, 0.040262069553136826, -0.10295294970273972, 0.03105044551193714, 0.04693898931145668, -0.03770320490002632, -0.05606427788734436, 0.0037161207292228937, -0.06413175165653229, 0.007982173934578896, -0.006919604726135731, 0.022941576316952705, 0.05217648670077324, 0.06448599696159363, -0.06364843994379044, 0.01271742396056652, 0.03186507150530815, -0.026855725795030594, 0.060538701713085175, 0.06631394475698471, -0.024305427446961403, 0.08262014389038086, 0.0931914895772934, 0.04515092819929123, -0.0020404134411364794], [0.056120604276657104, -0.048695389181375504, -0.06708512455224991, -0.1127723827958107, -0.023065688088536263, -0.05179000273346901, 0.07037341594696045, -0.1166723221540451, -0.03615202754735947, 0.002810046076774597, 0.03548768162727356, 0.10890065878629684, 0.12475106865167618, -0.03217330202460289, 0.11249738186597824, 0.0932687297463417, 0.07704620063304901, -0.11490810662508011, -0.04980647936463356, -0.03387972712516785, 0.08748982846736908, 0.07437059283256531, 0.01358215045183897, -0.05499311909079552, 0.08465760946273804, -0.043295059353113174, -0.000836298568174243, -0.10558478534221649, 0.07181636244058609, 0.06137353554368019, 0.0687669888138771, -0.031344059854745865], [0.054769087582826614, 0.04106881842017174, 0.06987735629081726, -0.1699458807706833, 0.06919267773628235, -0.0758715569972992, -0.016394229605793953, 0.05028022080659866, -0.02656114473938942, 0.04597404971718788, -0.06710033118724823, -0.021481724455952644, 0.12048608064651489, 0.02094690501689911, -0.13400350511074066, 0.01854131929576397, -0.052503135055303574, 0.062320586293935776, -0.06809334456920624, 0.02818857692182064, -0.05384190008044243, 0.13653145730495453, 0.09238739311695099, 0.051822058856487274, 0.10125645250082016, -0.028964849188923836, 0.028965817764401436, 0.07678738236427307, -0.13409315049648285, -0.06331402063369751, -0.08990168571472168, -0.04810986667871475], [-0.2439647912979126, -0.17879827320575714, -0.014109756797552109, 0.10809710621833801, -0.1894696056842804, -0.056660473346710205, 0.038361478596925735, -0.0020636850968003273, 0.020231720060110092, -0.25418728590011597, 0.04467594623565674, -0.02221013233065605, -0.02852156199514866, -0.09686332941055298, 0.022594057023525238, 0.02174827829003334, 0.026871860027313232, -0.06069573014974594, -0.032090961933135986, -0.18088676035404205, -0.13904635608196259, -0.0012954823905602098, 0.03807751461863518, -0.05138973519206047, -0.09449644386768341, 0.04077504575252533, -0.13840323686599731, 0.010300546884536743, -0.07851562649011612, -0.183389812707901, -0.008387339301407337, 0.023421630263328552], [0.06319974362850189, -0.018495574593544006, 0.1313810795545578, 0.06616366654634476, 0.009724576026201248, -0.10234517604112625, -0.04887637123465538, -0.02779225818812847, 0.04131472483277321, 0.08124064654111862, 0.03297484293580055, 0.14220905303955078, 0.09878664463758469, -0.03870768845081329, -0.019039545208215714, -0.09717562794685364, 0.11258891224861145, -0.021779388189315796, 0.1071542277932167, -0.10181862115859985, -0.14051124453544617, -0.0397682785987854, 0.03015507012605667, -0.04999544471502304, -0.012625490315258503, -0.012892885133624077, -0.07615135610103607, 0.07487870007753372, 0.021048780530691147, -0.11108139157295227, -0.05633048713207245, -0.08378791809082031], [-0.03525468707084656, -0.16442516446113586, 0.022436799481511116, -0.1378212422132492, -0.14222414791584015, 0.21549801528453827, 0.15479567646980286, 0.11314411461353302, -0.05143990367650986, -0.21363598108291626, -0.06600489467382431, -0.024348607286810875, 0.01615644432604313, -0.023033006116747856, -0.08860304206609726, 0.10762026160955429, -0.007302443031221628, -0.12092944979667664, -0.16777431964874268, 0.02275218442082405, 0.004950618837028742, 0.1499289870262146, -0.03964695334434509, 0.04580901190638542, -0.1701522171497345, 0.18014682829380035, -0.15530283749103546, 0.03548957034945488, 0.035458967089653015, -0.06614889949560165, 0.09084640443325043, 0.04061095789074898], [0.14809930324554443, 0.015198634937405586, -0.11005497723817825, -0.027988480404019356, 0.16820651292800903, -0.14375050365924835, 0.05195096507668495, 0.11079636216163635, -0.06212930753827095, -0.12288999557495117, 0.11321056634187698, 0.025851061567664146, 0.12235705554485321, 0.1422782689332962, 0.057935964316129684, -0.12167561054229736, 0.007682282943278551, 0.04971587657928467, -0.03289632871747017, -0.14553438127040863, -0.018509715795516968, 0.04301939532160759, -0.1057390570640564, -0.12723882496356964, -0.1589360237121582, 0.122461698949337, -0.11767168343067169, 0.05119426175951958, 0.035611700266599655, -0.12476513534784317, 0.05847581848502159, -0.09927491098642349], [-0.07392235845327377, -0.20552821457386017, -0.08512363582849503, 0.018197232857346535, 0.08615724742412567, 0.0614180788397789, -0.014061419293284416, 0.04787718877196312, -0.04353984072804451, -0.0006234217435121536, 0.1743440181016922, -0.12051032483577728, -0.030119191855192184, -0.17296557128429413, 0.02932952158153057, 0.02142411656677723, -0.03818533569574356, -0.028721656650304794, 0.09585230052471161, -0.01819434016942978, -0.223563551902771, -0.08596595376729965, 0.05629272013902664, -0.18724709749221802, 0.04989909008145332, 0.04644756019115448, -0.12066777050495148, 0.2231692224740982, -0.041739560663700104, -0.06900398433208466, 0.033248111605644226, -0.07218330353498459], [-0.25478479266166687, -0.03547606244683266, 0.1762589067220688, 0.14090873301029205, -0.2099461555480957, 0.0478932186961174, -0.1293921321630478, -0.10106541961431503, -0.10512619465589523, -0.10937213152647018, 0.14284232258796692, -0.09166914224624634, 0.15876780450344086, 0.08785858750343323, -0.1395956426858902, 0.006444357801228762, -0.14406563341617584, -0.13532063364982605, -0.1654457151889801, 0.14476774632930756, -0.15312543511390686, -0.07505141198635101, -0.16103798151016235, -0.14646455645561218, 0.17780441045761108, -0.05236148461699486, -0.05167928338050842, -0.14870955049991608, 0.07773146033287048, 0.01485452800989151, 0.05909743160009384, 0.11900779604911804], [0.0076865204609930515, 0.1912623792886734, 0.039636991918087006, 0.042097534984350204, -0.13605327904224396, 0.048103705048561096, -0.04315086826682091, -0.10565236955881119, -0.06359851360321045, 0.13803289830684662, -0.05868719518184662, 0.11703162640333176, 0.1487559825181961, -0.043262310326099396, 0.1347964107990265, 0.13527409732341766, 0.06837602704763412, 0.04258781671524048, -0.0927758663892746, -0.15730604529380798, -0.05145486444234848, 0.00038673958624713123, 0.09574836492538452, -0.07085566222667694, -0.03964429348707199, 0.05161012336611748, 0.18195243179798126, 0.14455176889896393, -0.06495317816734314, -0.14925578236579895, 0.013508262112736702, 0.21060879528522491], [-0.02416907250881195, 0.030172336846590042, 0.1622302383184433, 0.0541396401822567, 0.052576642483472824, -0.11166729032993317, -0.0010143077233806252, -0.07657966017723083, 0.0052642240189015865, -0.06919866055250168, -0.016850406304001808, -0.04977772384881973, 0.00985505897551775, 0.05008094012737274, 0.03949402645230293, 0.0480855330824852, -0.08662190288305283, 0.09787362813949585, 0.0058471099473536015, 0.14125306904315948, 0.09380227327346802, 0.12048568576574326, 0.01741403341293335, -0.0962672233581543, -0.014160937629640102, 0.020135056227445602, -0.018193144351243973, -0.1333221048116684, -0.11175662279129028, -0.10720846801996231, 0.06063476949930191, -0.0006911393720656633], [-0.21978957951068878, -0.09039804339408875, -0.07064355909824371, -0.016102366149425507, -0.07439644634723663, 0.21591874957084656, 0.2081461399793625, -0.17340423166751862, -0.011820055544376373, 0.015238825231790543, -0.0471784844994545, 0.06611747294664383, 0.011508159339427948, -0.09554294496774673, -0.039985306560993195, -0.16750311851501465, 0.024726394563913345, -0.12028036266565323, -0.0010793479159474373, 0.06118345633149147, -0.1423417180776596, -0.16759613156318665, 0.019987953826785088, 0.04319993406534195, -0.020784681662917137, 0.19274738430976868, -0.06478669494390488, 0.1937558650970459, 0.031629256904125214, -0.049612004309892654, 0.21607142686843872, -0.13720494508743286], [-0.12343473732471466, 0.0987197756767273, -0.09263715893030167, -0.022283844649791718, 0.14232178032398224, 0.05874089151620865, 0.04333882033824921, -0.1534624844789505, 0.021672839298844337, -0.05180799216032028, 0.059390466660261154, 0.009799029678106308, -0.1458534449338913, -0.1346503496170044, 0.13340316712856293, 0.12622353434562683, 0.08987100422382355, -0.012431738898158073, -0.06325169652700424, -0.1182156428694725, -0.14708232879638672, -0.012998656369745731, -0.1314379721879959, 0.04798845201730728, -0.17607270181179047, -0.05867661535739899, -0.02807079441845417, -0.1310427486896515, 0.031642016023397446, -0.15047061443328857, 0.05815272033214569, -0.0863896980881691], [0.007552109193056822, -0.027735864743590355, -0.14180982112884521, -0.1461649239063263, -0.02103518880903721, -0.11976531147956848, -0.04948089271783829, -0.0028364062309265137, -0.14473657310009003, 0.0012878614943474531, -0.03049076348543167, 0.11484336853027344, 0.10007916390895844, 0.07402163743972778, -0.008077073842287064, 0.06987985968589783, -0.09460967034101486, 0.051054324954748154, -0.19610388576984406, -0.15870116651058197, 0.1282857060432434, 0.11850620806217194, 0.050082188099622726, -0.08697503805160522, 0.17875738441944122, 0.10060899704694748, -0.07262563705444336, 0.07717978954315186, -0.052358634769916534, 0.1511772722005844, 0.05755346640944481, -0.0583430752158165], [-0.10179071873426437, 0.026098759844899178, 0.046472713351249695, -0.1559765338897705, -0.09372958540916443, 0.020122740417718887, -0.06446217745542526, 0.0479438491165638, 0.0038175424560904503, 0.10635106265544891, 0.008779237978160381, 0.0484895259141922, 0.10527292639017105, 0.025945361703634262, 0.12414912134408951, 0.08436372876167297, -0.14655333757400513, -0.05471426993608475, -0.07344428449869156, -0.12428153306245804, -0.079521045088768, -0.1270228922367096, -0.043386563658714294, 0.0715973824262619, 0.14081621170043945, 0.030137818306684494, -0.06717447191476822, -0.1566731482744217, -0.18189193308353424, -0.032208796590566635, 0.09722483158111572, 0.09108041971921921], [-0.06307346373796463, 0.002802793402224779, -0.0846710279583931, -0.13070110976696014, 0.051888979971408844, 0.07829001545906067, 0.027647504583001137, -0.13274523615837097, 0.06008614972233772, -0.0076823304407298565, -0.08541412651538849, 0.07723815739154816, 0.19635334610939026, -0.022233303636312485, 0.0035624108277261257, -0.057652197778224945, 0.06558306515216827, -0.0790967047214508, -0.08428768068552017, 0.027421984821558, 0.11351911723613739, -0.043274011462926865, -0.16070018708705902, 0.013317885808646679, 0.12391925603151321, 0.030740709975361824, 0.06805498152971268, 0.06626614183187485, 0.09107693284749985, 0.06888727098703384, 0.07775890082120895, -0.12063181400299072], [-0.07882747054100037, -0.04625127092003822, 0.047782301902770996, -0.027707329019904137, -0.035619430243968964, -0.10497571527957916, -0.024489235132932663, -0.11069043725728989, -0.06573247909545898, -0.00975772738456726, 0.10544878244400024, 0.05417393520474434, -0.061871230602264404, -0.0018985504284501076, 0.09227863699197769, 0.030968403443694115, 0.037809696048498154, 0.08316485583782196, -0.08146069198846817, 0.09252213686704636, 0.07511637359857559, 0.14915139973163605, 0.007397381588816643, -0.07490944117307663, 0.028622383251786232, 0.07044690102338791, 0.026314733549952507, 0.03996753692626953, -0.06203000247478485, 0.015019960701465607, 0.02856692671775818, -0.05390029773116112], [-0.2103392779827118, -0.13183251023292542, 0.10254641622304916, 0.1255650371313095, -0.09615536034107208, 0.1372501105070114, 0.12386409193277359, -0.03690062463283539, 0.029168972745537758, 0.033941466361284256, -0.11381331086158752, -0.12189813703298569, 0.03178170695900917, -0.014219453558325768, 0.01823548786342144, -0.024653557687997818, -0.053027115762233734, 0.12079612910747528, -0.182527557015419, 0.012305879034101963, 0.13951772451400757, -0.07712863385677338, 0.05446092039346695, -0.06014135479927063, -0.003082838375121355, 0.13553138077259064, -0.040281992405653, 0.12891703844070435, -0.16976603865623474, -0.024758799001574516, 0.20268689095973969, -0.17621512711048126], [-0.048708558082580566, -0.2088751494884491, -0.06633985042572021, 0.04222140461206436, -0.10528978705406189, -0.038237303495407104, -0.05261525884270668, -0.08136919885873795, 0.12508048117160797, -0.059112548828125, -0.039015159010887146, -0.021936532109975815, 0.02767583355307579, -0.10186544805765152, 0.02389170229434967, -0.009628493338823318, 0.07948436588048935, 0.142736554145813, 0.10469737648963928, -0.15625108778476715, -0.12674511969089508, 0.10022427886724472, 0.0722484439611435, -0.03724916651844978, 0.1253133863210678, -0.06591176986694336, -0.023792162537574768, 0.06340232491493225, -0.11170263588428497, -0.05889728292822838, -0.03990914672613144, 0.055731091648340225], [-0.0680733323097229, -0.0789823830127716, -0.10211575031280518, 0.12441111356019974, 0.011332188732922077, 0.008169785141944885, -0.02085231803357601, -0.00785127840936184, 0.08164005726575851, -0.09723935276269913, 0.0011451647151261568, 0.018015950918197632, 0.0800611674785614, -0.0032684223260730505, -0.03540206700563431, 0.09865409880876541, -0.0665447786450386, -0.02071477845311165, -0.11340530216693878, -0.006228102836757898, -0.024960793554782867, -0.0404411219060421, -0.01253227423876524, -0.10860534012317657, -0.08008113503456116, 0.0018887748010456562, 0.06889519095420837, 0.06095249950885773, -0.09896283596754074, 0.02974673919379711, -0.04910734295845032, -0.008430211804807186], [-0.04200836271047592, -0.018032148480415344, 0.030283255502581596, -0.03880217671394348, 0.0662369579076767, -0.025679750367999077, 0.016189565882086754, -0.07709725946187973, 0.025202762335538864, 0.03396333009004593, -0.12903067469596863, 0.12832002341747284, 0.06046333536505699, 0.09466734528541565, -0.10255264490842819, -0.07756348699331284, -0.05100920423865318, -0.07814322412014008, -0.004565669689327478, 0.13428746163845062, 0.039121922105550766, -0.06889304518699646, -0.06967576593160629, 0.03279741853475571, 0.011134878732264042, 0.0744771733880043, 0.10106560587882996, -0.13742296397686005, 0.0136391781270504, 0.16461363434791565, 0.13762333989143372, 0.06539520621299744], [-0.011949394829571247, -0.002618927974253893, -0.01602953113615513, 0.07049242407083511, -0.015925101935863495, 0.10564570873975754, 0.10610954463481903, 0.05344090238213539, -0.08749013394117355, 0.09313167631626129, -0.03096766211092472, -0.002058938145637512, 0.09015388041734695, -0.09897038340568542, 0.07275234162807465, -0.02050035074353218, 0.1067466288805008, -0.01410338468849659, 0.02001081593334675, 0.13201259076595306, -0.18361376225948334, 0.1032773032784462, -0.030914554372429848, 0.04346650466322899, 0.042650822550058365, 0.06438414752483368, -0.14103800058364868, 0.16210047900676727, -0.029235418885946274, 0.06443069130182266, -0.07645214349031448, 0.0746103897690773], [-0.13709840178489685, 0.0455038845539093, 0.11684361100196838, -0.0757613554596901, 0.10297629237174988, -0.10419797152280807, -0.129087433218956, -0.05701332539319992, 0.09924522042274475, -0.1688319593667984, -0.004391403868794441, -0.1617695689201355, 0.09820815920829773, 0.050677187740802765, 0.044655848294496536, -0.14825086295604706, -0.0507693737745285, 0.12479851394891739, 0.08824522793292999, -0.14376281201839447, 0.16051289439201355, 0.026739021763205528, -0.0568288154900074, -0.1386113315820694, 0.11144295334815979, 0.14808715879917145, -0.02062189392745495, 0.13133949041366577, 0.010970638133585453, -0.04420965164899826, 0.15173326432704926, 0.06652041524648666], [0.0278206504881382, 0.01675858534872532, -0.041276294738054276, -0.02633127011358738, -0.09233593940734863, -0.08559209108352661, -0.07969214022159576, -0.10995958745479584, -0.015389167703688145, 0.02297506481409073, -0.006319550797343254, -0.020234907045960426, -0.05753403156995773, 0.03959713503718376, -0.06615885347127914, 0.1251215636730194, -0.1134834960103035, 0.032795775681734085, -0.007368461694568396, 0.025019755586981773, -0.02445135824382305, 0.05265311151742935, -0.14843341708183289, 0.07141399383544922, 0.1603015810251236, 0.008405019529163837, 0.0501314140856266, -0.16407738626003265, 0.10139570385217667, 0.15298990905284882, -0.10422832518815994, -0.09512537717819214], [0.17714759707450867, 0.054508011788129807, 0.08725360035896301, -0.08271485567092896, 0.08935229480266571, 0.22720006108283997, 0.06839650869369507, 0.12022672593593597, 0.2253340780735016, -0.16654333472251892, 0.2132195383310318, 0.043845321983098984, -0.1079401820898056, -0.15023285150527954, 0.2291683852672577, 0.17272169888019562, -0.030346818268299103, 0.00119722168892622, 0.06074562296271324, 0.08564148098230362, -0.04735285043716431, 0.0028514284640550613, 0.06654468923807144, -0.058966003358364105, -0.18511062860488892, -0.07285582274198532, -0.16182361543178558, 0.2063528597354889, 0.07559040933847427, 0.0841582641005516, -0.1403016746044159, 0.03432060033082962], [-0.027863407507538795, -0.027299141511321068, -0.06508656591176987, 0.002605689223855734, -0.12112203240394592, -0.15745030343532562, -0.08670610934495926, -0.12780378758907318, -0.046017955988645554, 0.06732113659381866, 0.08640225976705551, -0.05235549062490463, -0.019032826647162437, -0.015744611620903015, -0.16165220737457275, -0.1642104834318161, -0.05223885923624039, 0.09966900199651718, -0.15826787054538727, 0.007020596414804459, 0.019398663192987442, 0.03877532109618187, -0.08122176676988602, 0.10743925720453262, -0.08621875941753387, 0.04014662653207779, -0.07779490947723389, -0.06683696061372757, 0.07539384812116623, -0.09307952970266342, 0.07974385470151901, -0.13252809643745422]], "lstm.bias_ih_l0": [-0.010731058195233345, 0.11849554628133774, 0.07343866676092148, -0.16539795696735382, 0.07966560870409012, 0.08100702613592148, -0.10059870034456253, -0.19458386301994324, -0.14223521947860718, 0.04255650192499161, -0.056098632514476776, -0.13373713195323944, -0.004999115597456694, 0.17538471519947052, 0.020420195534825325, -0.09039080142974854, -0.007327345199882984, 0.16753584146499634, 0.10815943777561188, 0.1370757520198822, 0.03262609988451004, 0.07969261705875397, -0.1502336710691452, 0.020320141687989235, 0.027475614100694656, 0.04857549071311951, -0.18352419137954712, 0.18452483415603638, 0.07702755182981491, 0.07856115698814392, 0.06969619542360306, 0.057359907776117325, 0.1586613804101944, -0.059380777180194855, -0.09261170774698257, 0.04755934700369835, 0.02577812224626541, 0.1917077898979187, 0.10893768817186356, 0.032124850898981094, -0.17755064368247986, -0.004836039151996374, -0.12408044934272766, -0.0074352724477648735, -0.017483631148934364, 0.020240357145667076, -0.14891430735588074, -0.031255170702934265, -0.19931943714618683, -0.06908367574214935, 0.007847477681934834, -0.0533311553299427, 0.0738382637500763, -0.06562284380197525, 0.11436288058757782, 0.12373138964176178, -0.04903195798397064, -0.09286580234766006, -0.03027108684182167, 0.05167169123888016, -0.035424381494522095, -0.06377328932285309, -0.020613543689250946, 0.009487827308475971, 0.059044577181339264, -0.0946115031838417, -0.10405775159597397, 0.1610960066318512, 0.09516598284244537, 0.060046326369047165, 0.028275828808546066, 0.0892840251326561, 0.045322492718696594, -0.14947304129600525, 0.1446351706981659, -0.1718512773513794, -0.0719233900308609, -0.13311320543289185, 0.06061524897813797, 0.09113093465566635, -0.06184776499867439, -0.17487332224845886, 0.12180756032466888, -0.12957146763801575, -0.04382159560918808, -0.057738080620765686, -0.12472956627607346, 0.05455480515956879, -0.13195182383060455, 0.036677874624729156, 0.05405169725418091, 0.10421779006719589, 0.14984895288944244, -0.02381119504570961, -0.1359972208738327, 0.05669333413243294, 0.1378127485513687, 0.07826437801122665, -0.03741287440061569, 0.033431462943553925, 0.10033579170703888, -0.0017178042326122522, -0.11021772027015686, 0.12108773738145828, 0.08067095279693604, 0.03951455280184746, -0.13166604936122894, 0.18245215713977814, 0.10027945786714554, 0.05119820684194565, 0.06417249143123627, 0.05577738955616951, -0.004826383199542761, -0.007791982032358646, -0.13816945254802704, 0.16477882862091064, 0.09515204280614853, -0.16341949999332428, -0.18341004848480225, -0.03988858684897423, 0.049268417060375214, -0.03739349544048309, -0.13502249121665955, -0.005075198132544756, 0.0814104825258255, -0.010686750523746014, 0.053486719727516174, 0.05537309870123863], "lstm.bias_hh_l0": [0.17588746547698975, 0.03972991183400154, 0.15878745913505554, -0.0381288081407547, 0.189533069729805, 0.11467832326889038, 0.09757614880800247, -0.09069718420505524, -0.06945767253637314, -0.005062013864517212, -0.12059536576271057, -0.16125021874904633, 0.18335935473442078, -0.03809868544340134, -0.13896694779396057, -0.1530309021472931, 0.06486818939447403, 0.11097919195890427, 0.08295948058366776, 0.07863562554121017, -0.15883494913578033, -0.14065904915332794, -0.13468196988105774, -0.0474499948322773, -0.125472754240036, 0.13569043576717377, 0.11626768857240677, 0.11888132244348526, -0.1042238101363182, 0.07312408834695816, 0.15380099415779114, -0.059490226209163666, 0.08279159665107727, 0.19818651676177979, 0.05834659934043884, -0.1387070268392563, 0.02897646464407444, -0.05729052796959877, -0.015480412170290947, 0.004962285049259663, 0.06671225279569626, 0.19996726512908936, -0.11421674489974976, 0.13561391830444336, 0.06367265433073044, 0.10856827348470688, 0.05648507550358772, -0.054080817848443985, -0.08643410354852676, -0.04370872303843498, 0.1592966616153717, 0.0049769077450037, 0.07486693561077118, -0.09423243999481201, 0.06342597305774689, -0.13381771743297577, -0.09294762462377548, 0.02021613158285618, -0.06224700063467026, 0.04852652922272682, 0.030014654621481895, -0.1482541412115097, 0.1815655678510666, -0.06585272401571274, -0.06976786255836487, 0.07837535440921783, -0.1485653519630432, 0.10806220769882202, -0.04460958391427994, 0.028260832652449608, 0.10242155939340591, 0.07385578751564026, 0.03692669793963432, 0.1561533808708191, -0.13064152002334595, 0.08763636648654938, -0.07768671214580536, -0.023251673206686974, 0.1594574898481369, 0.06711354106664658, 0.14538341760635376, 0.06361141055822372, 0.06046019122004509, -0.0984019860625267, -0.13016267120838165, -0.044060975313186646, 0.15232126414775848, -0.15616455674171448, -0.09236609190702438, -0.07642620801925659, -0.12868306040763855, 0.03588518127799034, 0.14341109991073608, -0.12655526399612427, 0.1075764074921608, 0.01512996107339859, 0.13952405750751495, 0.23424272239208221, -0.11760202050209045, 0.10641513764858246, 0.1409696340560913, -0.05065914988517761, 0.020070264115929604, 0.08376559615135193, 0.12836477160453796, 0.012049444951117039, -0.17221307754516602, -0.05087075009942055, 0.1616784781217575, 0.07607171684503555, -0.08460820466279984, 0.09970258176326752, 0.026875123381614685, -0.035667430609464645, -0.016946448013186455, 0.14809216558933258, 0.09941103309392929, 0.003435427788645029, 0.042514823377132416, 0.08533476293087006, 0.028179144486784935, 0.005867193918675184, -0.11888404935598373, -0.13257253170013428, 0.055379100143909454, 0.04293016716837883, -0.02868141420185566, -0.05148284137248993], "dense.weight": [[0.16195641458034515, 0.09744485467672348, -0.18235549330711365, -0.044923435896635056, 0.11064578592777252, -0.067143514752388, -0.04487243667244911, -0.010637909173965454, -0.029874205589294434, 0.06661176681518555, -0.09946228563785553, 0.09786725789308548, -0.1544761061668396, 0.20215904712677002, -0.12098133563995361, 0.09008290618658066, -0.04294060543179512, 0.10475240647792816, 0.11326226592063904, 0.15287910401821136, 0.0005963009898550808, 0.027653999626636505, -0.013659094460308552, 0.020317960530519485, 0.13571979105472565, -0.0844576433300972, 0.013151398859918118, -0.15225853025913239, -0.04757210239768028, 0.04140476509928703, -0.22490225732326508, -0.03126661479473114]], "dense.bias": [0.05312288925051689]}