{"conv1.weight": [[[-0.12507303059101105, -0.066866934299469, -0.005379660986363888, -0.03863177448511124, -0.082454152405262], [-0.21720311045646667, -0.22782212495803833, -0.23622624576091766, -0.21290114521980286, -0.21331320703029633]], [[-0.11150738596916199, -0.40400198101997375, -0.44541481137275696, -0.2000627964735031, 0.11659357696771622], [0.01686684414744377, 0.08532027900218964, 0.2797710597515106, -0.004336649086326361, 0.17864611744880676]], [[-0.22994659841060638, -0.26578080654144287, -0.27336305379867554, -0.2555059492588043, -0.2177446335554123], [-0.1026868224143982, -0.11235897988080978, -0.11707176268100739, -0.1101733073592186, -0.09697461873292923]], [[4.141901445109397e-05, 4.0139013435691595e-05, 3.9397706132149324e-05, 3.991255289292894e-05, 3.987427771789953e-05], [2.068805588351097e-05, 2.05605938390363e-05, 2.042517917288933e-05, 2.027572554652579e-05, 2.0133997168159112e-05]], [[-0.11399582773447037, -0.12941579520702362, -0.13381412625312805, -0.1331348419189453, -0.12977235019207], [-0.04705538973212242, -0.04693546146154404, -0.04732423648238182, -0.04743717238306999, -0.04731553792953491]], [[0.1317436695098877, 0.17929165065288544, 0.15034429728984833, 0.04639412462711334, -0.10185860097408295], [-0.3082219660282135, -0.30744537711143494, -0.3069513440132141, -0.29713621735572815, -0.2883230149745941]], [[0.0007925253012217581, 0.0007693578372709453, 0.0007623741985298693, 0.0007886218372732401, 0.0008013556944206357], [-0.001722158514894545, -0.0017263389891013503, -0.0017307756934314966, -0.0017372501315549016, -0.0017429954605177045]], [[9.550884388920267e-12, 8.532582626563645e-12, 7.395722055603127e-12, 6.206677533038274e-12, 5.04613451718372e-12], [2.1485174750424108e-11, 2.150046807258832e-11, 2.151235092839876e-11, 2.1497994356911576e-11, 2.149397847206469e-11]], [[6.943488006783127e-10, 6.807880925663312e-10, 6.687279618944331e-10, 6.672091212855946e-10, 6.575126554331234e-10], [7.55291440501793e-10, 7.54127482682776e-10, 7.532173218471883e-10, 7.529085133128888e-10, 7.528863088523963e-10]], [[-0.0075376820750534534, -0.00862424448132515, -0.008910207077860832, -0.008572795428335667, -0.008070621639490128], [-0.009642362594604492, -0.009693585336208344, -0.009745446965098381, -0.009733498096466064, -0.00967200007289648]], [[2.0292764801865815e-08, 1.6365277133445488e-08, 1.4714900409273923e-08, 1.7599813162405553e-08, 1.9316816590730923e-08], [8.842949483778284e-08, 8.833386289097689e-08, 8.811198881630844e-08, 8.690923181120525e-08, 8.566981080093683e-08]], [[0.3063778281211853, 0.5426395535469055, 0.28184154629707336, 0.07806848734617233, -0.3792210817337036], [0.14624814689159393, 0.26277029514312744, 0.2960864007472992, 0.2574152648448944, 0.010078124701976776]], [[-0.01918107271194458, 0.11968798190355301, 0.20937539637088776, 0.304450124502182, 0.375813364982605], [-0.028452787548303604, -0.002745694015175104, -0.0020524049177765846, -0.0019928349647670984, -0.002025873865932226]], [[0.029693957418203354, 0.030206969007849693, 0.03069167770445347, 0.031315118074417114, 0.031953126192092896], [-0.11923553049564362, -0.1193854808807373, -0.11949271708726883, -0.1194678470492363, -0.11949317902326584]], [[-0.06080840900540352, -0.22877897322177887, -0.33940428495407104, -0.14352183043956757, 0.16372263431549072], [-0.19829148054122925, -0.16660834848880768, -0.19313664734363556, -0.17568612098693848, -0.20331338047981262]], [[-0.2071896344423294, -0.3100525736808777, -0.33380216360092163, -0.2008446455001831, -0.027723899111151695], [-0.10276225209236145, 0.0005319340853020549, 0.0820084735751152, 0.044651731848716736, -0.03413369506597519]]], "conv1.bias": [0.4629676938056946, 0.0913422703742981, -0.2030261754989624, -0.0007564794505015016, -0.41287800669670105, -0.0247645303606987, -0.008731731213629246, -1.342321115371803e-10, -1.948183303568385e-08, -0.03573938459157944, -3.4725428577075945e-06, -0.769500732421875, -0.886461615562439, -0.2390204519033432, 0.6199204325675964, 0.006238296162337065], "act1.weight": [0.005456515122205019], "conv2.weight": [[[-1.5358897487161016e-09, -1.450382258738614e-09, -1.359336532225086e-09, -1.2662145776332068e-09, -1.1418580525557331e-09], [2.0131549760549206e-09, 2.2009349898155506e-09, 2.4122739361587264e-09, 2.570943902213685e-09, 2.569361834403594e-09], [-7.3149366563995954e-09, -7.247847211289127e-09, -7.114908218142091e-09, -6.912394656666265e-09, -6.6530501108275075e-09], [2.8949980433734535e-12, 2.9092106328121314e-12, 2.979550633996908e-12, 3.0633197801305245e-12, 3.0802482960112787e-12], [-3.499536216367005e-09, -3.4110800850584155e-09, -3.2649374315241175e-09, -3.0785642923802925e-09, -2.85273205058445e-09], [2.2827590928642394e-09, 2.3110682256799464e-09, 2.3467319198999803e-09, 2.3932107406920977e-09, 2.4862754077759064e-09], [4.769606584686947e-11, 4.4262843390541207e-11, 4.082694252116603e-11, 3.704824294570308e-11, 3.390319275320408e-11], [-2.002892742229508e-18, -2.931783482902056e-18, -3.931005875542384e-18, -4.860286631873751e-18, -5.746598250515132e-18], [-3.2741643000575233e-16, -2.990946658044431e-16, -2.8488163823797317e-16, -2.877306864956222e-16, -3.058764615664143e-16], [-1.9428775255292408e-10, -1.9139462237305338e-10, -1.9002546758351002e-10, -1.9097440295823276e-10, -1.9399953865573139e-10], [-2.5495625643784554e-14, -2.4484559684096775e-14, -2.4024681780109892e-14, -2.4186236374139705e-14, -2.4943678646562918e-14], [-1.5826241428484877e-09, -1.7018860765105615e-09, -1.776485847315712e-09, -1.8224594056093224e-09, -1.8888965946928238e-09], [4.3300625307551854e-09, 4.036339262825095e-09, 3.777355761513945e-09, 3.6103815492793956e-09, 3.5637777173747054e-09], [3.230771206119698e-09, 3.2694247309450475e-09, 3.3531997178926076e-09, 3.45650152944188e-09, 3.5788385588375604e-09], [-3.991914354628534e-09, -3.852960617223289e-09, -3.736399634135523e-09, -3.6287739479945458e-09, -3.5467875303396568e-09], [9.698670311308888e-09, 9.698755576437179e-09, 9.701672354367474e-09, 9.71305880170803e-09, 9.779417275979085e-09]], [[-4.7105831981753e-06, -4.668163001042558e-06, -4.6456789277726784e-06, -4.610589257936226e-06, -4.635187451640377e-06], [-4.172865010332316e-05, -4.2123767343582585e-05, -4.2383380787214264e-05, -4.2415253119543195e-05, -4.163164703641087e-05], [8.477557571495709e-07, 8.445191497230553e-07, 7.986917580637964e-07, 7.044940844025405e-07, 5.824305162605015e-07], [-1.562529994281192e-09, -1.556729634089038e-09, -1.5542650499966726e-09, -1.5522859664329758e-09, -1.5515674300914384e-09], [8.147737844410585e-07, 8.135874622894335e-07, 8.087627065833658e-07, 7.984726835275069e-07, 7.840392868274648e-07], [3.29106001117907e-06, 3.024368652404519e-06, 2.8346560156933265e-06, 2.7378214326745365e-06, 2.7519959076016676e-06], [-1.1840637803572918e-08, -1.166238572380962e-08, -1.1670424626686327e-08, -1.1620437057047184e-08, -1.158813489610111e-08], [3.766465831171913e-15, 5.08288166263071e-15, 7.980676666394237e-15, 1.3395564327646058e-14, 2.0523017082974514e-14], [6.26606459861595e-13, 6.432525410764167e-13, 6.482058813317426e-13, 6.390225805105731e-13, 6.167835339687677e-13], [2.4365567696804646e-07, 2.427468928090093e-07, 2.4078570959318313e-07, 2.372336354028448e-07, 2.310675881744828e-07], [-1.4866856010153917e-11, -1.4792706989896764e-11, -1.47190280797016e-11, -1.466293579610589e-11, -1.455854707621551e-11], [-1.1210475349798799e-05, -1.1337260730215348e-05, -1.1336463103361893e-05, -1.1209193871764e-05, -1.0988637768605258e-05], [4.523602001427207e-06, 4.442626959644258e-06, 4.332860498834634e-06, 4.174222340225242e-06, 3.956859018217074e-06], [-1.3461534535963438e-06, -1.5134069144551177e-06, -1.4805997352596023e-06, -1.2460612879294786e-06, -8.139161309372867e-07], [-1.336808145424584e-05, -1.3287941328599118e-05, -1.3462487913784571e-05, -1.3893887626181822e-05, -1.4632554666604847e-05], [1.900133725030173e-06, 2.167191496482701e-06, 2.1905809717281954e-06, 1.8993033563674544e-06, 1.6626142951281508e-06]], [[-2.31489616453473e-06, -2.322173031643615e-06, -2.341246954529197e-06, -2.353404852328822e-06, -2.395301862634369e-06], [1.4610574226026074e-06, 1.512486278443248e-06, 1.5347244470831356e-06, 1.5355730056398897e-06, 1.5825239643163513e-06], [-1.1787445828304044e-06, -1.1893473583768355e-06, -1.1981627494606073e-06, -1.2076035318386857e-06, -1.212744905387808e-06], [-3.303434470414146e-10, -3.315556995620028e-10, -3.299328033001814e-10, -3.2426955565156845e-10, -3.1490005047984937e-10], [7.177165457505907e-07, 7.14108409738401e-07, 7.095248975019786e-07, 7.03657917711098e-07, 6.966444630052138e-07], [8.712573844604776e-07, 8.039658609959588e-07, 7.576485927529575e-07, 7.32554553906084e-07, 7.334699034799996e-07], [-3.191799269330886e-09, -2.9474291896036675e-09, -2.7290629756038243e-09, -2.8033775301139485e-09, -3.1280646961562297e-09], [1.1955234775784009e-16, 1.33009901344698e-16, 1.344837783775899e-16, 1.2984390394609824e-16, 1.2106971463861756e-16], [-1.3643076672196185e-14, -1.3702210583342849e-14, -1.3743978625004906e-14, -1.3736102065628388e-14, -1.3728305127348912e-14], [-1.2499303814195173e-08, -1.2433225116126323e-08, -1.2240876756663965e-08, -1.1964838897426944e-08, -1.1570469915511694e-08], [-1.0247512473998688e-12, -9.81166970587255e-13, -9.567205968424863e-13, -9.612632955249834e-13, -1.0128156993638449e-12], [-2.7535963909031125e-06, -2.898081902458216e-06, -2.98537179332925e-06, -2.9945238111395156e-06, -2.942746277767583e-06], [-2.143689528111281e-07, -2.4646959673191304e-07, -2.7956082249147585e-07, -3.1507093467553204e-07, -3.512494117785536e-07], [-5.94550790822268e-08, -3.3192158355177526e-08, 2.0950947643427753e-08, 9.672070433452973e-08, 1.9338776269250957e-07], [-3.923773419955978e-06, -3.874633421219187e-06, -3.9098454180930275e-06, -4.019811967737041e-06, -4.220212304062443e-06], [-1.758187551104129e-07, -1.495491659397885e-07, -1.4482500887424976e-07, -1.695731697282099e-07, -1.88613398677262e-07]], [[-6.897454829513094e-10, -6.422481990675522e-10, -5.926292789837362e-10, -5.294671923117278e-10, -4.684899690410305e-10], [-3.610110876905992e-09, -3.3692566514531563e-09, -3.1964246804960794e-09, -3.1186082605216825e-09, -2.848801194943462e-09], [-2.8757964898318278e-09, -2.9176119298313097e-09, -2.969421819543072e-09, -3.0314006860265863e-09, -3.098108436461189e-09], [2.374428084706004e-11, 2.383577710207696e-11, 2.3751634339874705e-11, 2.3495068737777736e-11, 2.3166749768543937e-11], [-1.268709137747237e-09, -1.2902418022875395e-09, -1.3065047932414586e-09, -1.3149171751436484e-09, -1.3190708525456785e-09], [1.868667220961129e-09, 1.8004479018784991e-09, 1.7395707097023205e-09, 1.694675400010226e-09, 1.667902038704483e-09], [1.328881171769325e-10, 1.3235239293418744e-10, 1.338476413037526e-10, 1.3321511949104803e-10, 1.3183212854706028e-10], [6.21041361941737e-19, 6.153015556712316e-19, 6.119014814621206e-19, 6.131247264917217e-19, 6.166917360882035e-19], [7.125046334725306e-16, 7.154452142280423e-16, 7.154531551619228e-16, 7.120014429623023e-16, 7.057891974480209e-16], [-1.08230119311159e-10, -1.1239106173510649e-10, -1.1355257706346933e-10, -1.106814154216984e-10, -1.0473406863997781e-10], [-4.157050087326289e-15, 1.6109003880989108e-15, 6.1719123464320375e-15, 7.0489433890298225e-15, 5.48014985577187e-15], [-2.9526563416482077e-09, -3.0769120584750453e-09, -3.1098508213034393e-09, -3.057347264245891e-09, -2.953188360521608e-09], [4.257692254316936e-10, 3.559515737716623e-10, 2.905784779461129e-10, 2.2315853331900115e-10, 1.5494575067442895e-10], [-4.302667111488745e-09, -4.264772535123029e-09, -4.2299319602534524e-09, -4.19715240340679e-09, -4.129403041730484e-09], [-3.3495455298293564e-09, -3.235077317143009e-09, -3.2118798731772813e-09, -3.2927935933457775e-09, -3.48281758988378e-09], [1.1115358633517758e-09, 1.196873045117286e-09, 1.2259976367445802e-09, 1.181480469014673e-09, 1.141693850570391e-09]], [[7.481492092509257e-10, 7.949133018492205e-10, 8.193254408261907e-10, 8.3309659171249e-10, 8.848340948830469e-10], [-6.695378029775156e-09, -7.665875045859138e-09, -8.594443379195127e-09, -7.593495610080936e-09, -3.902718592740939e-09], [4.669111319799413e-09, 4.9240518329440874e-09, 5.197603680784368e-09, 5.461384677829528e-09, 5.733739705249263e-09], [-2.4329352768526213e-11, -2.3670732041125575e-11, -2.3014395944542798e-11, -2.1951091985772386e-11, -1.9561066308404484e-11], [-4.885641224916526e-09, -5.092982036103422e-09, -5.3065245531058736e-09, -5.4872852928156135e-09, -5.625894861083225e-09], [1.5658214724822983e-09, 1.5242971329598731e-09, 1.375427105543281e-09, 1.1415187683994077e-09, 9.380641818879099e-10], [-4.3553767363480045e-12, -9.913778782275062e-13, 1.9083710306455615e-12, 3.7827432158854535e-12, 5.397534849627128e-12], [-1.255910706319426e-16, -1.0216363485343616e-16, -6.914239289441718e-17, -2.896101268741264e-17, 1.5347459454472122e-17], [1.129625267194082e-15, 1.1134947952630447e-15, 1.0958527930376321e-15, 1.0588460294512101e-15, 9.664536872679608e-16], [-9.517051591245718e-10, -9.837020087388737e-10, -1.012853245718759e-09, -1.0322225296732768e-09, -1.042718578148083e-09], [-4.24895687210769e-13, -4.2371493683482364e-13, -4.233964253416017e-13, -4.1776903659564157e-13, -3.951091840856402e-13], [-1.2021170903153688e-07, -1.332370658246873e-07, -1.5390565977213555e-07, -1.7160762411094765e-07, -1.7956286058051774e-07], [-1.2798905402178207e-07, -1.3664116238487622e-07, -1.4187550334554544e-07, -1.4502208500744018e-07, -1.4727729080732388e-07], [5.507877265387151e-09, 5.755276255570152e-09, 5.785563583771136e-09, 5.522470480912034e-09, 4.99210761617519e-09], [2.695757783666153e-10, 3.1415767209885814e-10, 3.601767772920539e-10, 4.031489309053171e-10, 4.570404055215249e-10], [1.0698544272713661e-09, 1.1380124620430365e-09, 1.223154799667725e-09, 1.3211907123888977e-09, 1.4312657725668032e-09]], [[-6.559369921887992e-06, -6.669122740277089e-06, -6.648755970672937e-06, -6.416632913897047e-06, -5.827600489283213e-06], [1.6901021808735095e-05, 1.828574932005722e-05, 1.9619976228568703e-05, 2.0661515009123832e-05, 2.2867901861900464e-05], [-1.9213839550502598e-05, -1.937186243594624e-05, -1.9447628801572137e-05, -1.9400895325816236e-05, -1.920477552630473e-05], [2.8708573296398754e-09, 1.997242815576783e-09, 2.354342054644576e-09, 4.113198670552265e-09, 6.723309020628676e-09], [1.7976248273043893e-05, 2.002826840907801e-05, 2.0814326489926316e-05, 2.0003082681796513e-05, 1.8168264432461e-05], [-4.855042789131403e-05, -4.788082878803834e-05, -4.752438690047711e-05, -4.7581623221049085e-05, -4.805639400728978e-05], [-1.8057077113553532e-06, -1.8040593658952275e-06, -1.8015585965258651e-06, -1.793488195289683e-06, -1.7758434296410996e-06], [6.696040240567001e-15, 7.0067734302342935e-15, 7.0787127854775485e-15, 6.7768408309879565e-15, 6.2838951842567395e-15], [-2.0939086781742583e-13, -2.0569596102370385e-13, -2.0302071926815018e-13, -2.0250430022086818e-13, -2.090903134226857e-13], [2.5260135316784726e-06, 2.4582002424722305e-06, 2.434982661725371e-06, 2.460733639964019e-06, 2.532935468479991e-06], [-2.0738401274034146e-10, -2.1231584546033133e-10, -2.1396548421925843e-10, -2.0819435064822756e-10, -1.9904916603863398e-10], [-2.12397408176912e-05, -2.490183942427393e-05, -2.7568981749936938e-05, -2.9003618692513555e-05, -2.9601989808725193e-05], [3.143281355733052e-05, 3.343795833643526e-05, 3.397426553419791e-05, 3.3937085390789434e-05, 3.360791743034497e-05], [1.2701506193479872e-06, -1.5559839994239155e-06, -3.644496473498293e-06, -4.706935214926489e-06, -4.690937657869654e-06], [3.1066429073689505e-05, 3.073060725000687e-05, 3.074971755268052e-05, 3.108174496446736e-05, 3.210474460502155e-05], [1.7060723394024535e-06, 1.4908799812474172e-06, 1.2346177982180961e-06, 9.9227941063873e-07, 5.912458505008544e-07]], [[-2.7860724838291162e-09, -2.3236759183475897e-09, -1.8365090559413488e-09, -1.26128107957868e-09, -5.233535826931757e-10], [3.272880277904733e-08, 3.220411670668e-08, 3.16097263919346e-08, 3.0914691251382465e-08, 3.050232066925673e-08], [-8.726780409418211e-10, -8.87543205596586e-10, -8.620865687980483e-10, -8.105905946464986e-10, -7.493155540494456e-10], [-5.198412447032785e-12, -5.5579399589611445e-12, -6.1057417802268255e-12, -6.837953380606221e-12, -7.62714370827755e-12], [7.066790708165627e-09, 7.049331784969581e-09, 7.003862823040663e-09, 6.924509410310975e-09, 6.8147634202375684e-09], [1.0771839420442575e-08, 1.057101162160734e-08, 1.0303812025824755e-08, 9.974669090695443e-09, 9.59861434779441e-09], [-6.526543194773637e-11, -6.482882286551472e-11, -6.440435684762491e-11, -6.344806624536403e-11, -6.279141789855558e-11], [4.0550693189452314e-17, 3.784040944264272e-17, 3.5929668549759526e-17, 3.575833628384264e-17, 3.728465656757039e-17], [1.1326738446503686e-15, 1.1698369916946774e-15, 1.1839064207068081e-15, 1.1565017284895793e-15, 1.1000694289281824e-15], [2.439979773782852e-09, 2.2332129478996876e-09, 2.1447219555881247e-09, 2.1712427411557655e-09, 2.2996138326902837e-09], [-7.567824676386198e-14, -7.663687799598293e-14, -7.709628156151935e-14, -7.640141638917339e-14, -7.51148682099842e-14], [-3.270057646886926e-08, -3.1115053644725776e-08, -2.949024136000844e-08, -2.7762702359268587e-08, -2.6034630451476914e-08], [6.600816337964943e-09, 6.750092484963943e-09, 6.860373602535219e-09, 6.876322622417774e-09, 6.810663588652233e-09], [1.1816054801272458e-08, 1.165788798829226e-08, 1.1570034708086041e-08, 1.1532021559901295e-08, 1.1483271222800795e-08], [-1.6892233389853573e-08, -1.6310945483155592e-08, -1.5902816841162348e-08, -1.5715203360855412e-08, -1.5761806082537078e-08], [-1.0364697988762828e-09, -9.159860647756091e-10, -1.045729169923959e-09, -1.4371404066793048e-09, -1.8856480821227706e-09]], [[-7.904880305886763e-08, -7.912314003988286e-08, -7.957333991726045e-08, -7.980938931950732e-08, -8.113560312494883e-08], [-1.8315749628072808e-07, -1.780305893817058e-07, -1.747493456605298e-07, -1.7390097184488695e-07, -1.679287606748403e-07], [1.1596537063951473e-08, 1.1492748086538995e-08, 1.0858657972789842e-08, 9.618204899197735e-09, 8.039124033132339e-09], [1.596963013217323e-11, 1.575290939359597e-11, 1.5613397727487488e-11, 1.5647497186854764e-11, 1.565384974422379e-11], [2.7276440661694323e-08, 2.705262502900041e-08, 2.667724352534151e-08, 2.615942840122898e-08, 2.5442201234682216e-08], [5.10701418932058e-08, 4.9260123091698915e-08, 4.762765826171744e-08, 4.6306382728289464e-08, 4.542403786444993e-08], [3.765274984163236e-12, 4.063352085359462e-12, 4.5573228350803685e-12, 4.701402461781967e-12, 5.037182043005073e-12], [3.4971740460863917e-16, 3.495541125382763e-16, 3.491440691824664e-16, 3.484604871242526e-16, 3.4747125852097798e-16], [-1.4677566904523808e-15, -1.4703156828651544e-15, -1.472314257104201e-15, -1.4656889771490146e-15, -1.4582849562779464e-15], [9.464335981590466e-10, 9.442591153430158e-10, 9.378072762800116e-10, 9.252517085833745e-10, 9.091619679324481e-10], [2.9551476283390388e-12, 2.9449999296854434e-12, 2.938998436979867e-12, 2.939437538859724e-12, 2.9440768399557893e-12], [-7.808271362819141e-08, -8.116427352433675e-08, -8.216625246859621e-08, -8.127835116056303e-08, -7.926558254212068e-08], [1.0601055144832117e-08, 9.213965590504358e-09, 7.565115645036258e-09, 5.4522319992145185e-09, 2.967379009177762e-09], [-2.303727342223283e-08, -2.2843964941898776e-08, -2.259607967403099e-08, -2.2299172286466273e-08, -2.198063597802502e-08], [-2.1175490871883085e-07, -2.104579266415385e-07, -2.128992377947725e-07, -2.1890920720579743e-07, -2.2928934129140544e-07], [2.6129935548624417e-08, 2.9077581231717886e-08, 2.9376995058782995e-08, 2.6305880140853333e-08, 2.3869803911225063e-08]], [[-1.1037355989174102e-06, -1.1097760079792351e-06, -1.121184595831437e-06, -1.1302981874905527e-06, -1.1517313396325335e-06], [6.042956783858244e-07, 6.157671919027052e-07, 6.218745056685293e-07, 6.226670166142867e-07, 6.364776368172897e-07], [-1.3804391585381381e-07, -1.5239997708249575e-07, -1.6773752520293783e-07, -1.8428485759613977e-07, -1.9960388897288794e-07], [-6.303300104093523e-10, -6.436133292986312e-10, -6.572725697040482e-10, -6.683322784084567e-10, -6.774793503971921e-10], [1.630230173077507e-08, 1.5815478704439556e-08, 1.5776704387349128e-08, 1.5939880526616435e-08, 1.666778892683851e-08], [3.9227685988407757e-07, 3.7672958796974854e-07, 3.645484412118094e-07, 3.5642946727421077e-07, 3.5371832041164453e-07], [-6.257362628048213e-09, -6.240461480899739e-09, -6.2090066421660595e-09, -6.12933215293765e-09, -6.060474788682768e-09], [-2.1754476224507754e-17, -2.5049277225010597e-17, -2.598245937870107e-17, -2.3917103540080692e-17, -1.9322179757436403e-17], [-8.887344968299977e-16, -8.7848809808574e-16, -8.860242560965799e-16, -9.010680376958491e-16, -9.417742176794043e-16], [-1.208981093014927e-08, -1.2151852857300582e-08, -1.2213430267138392e-08, -1.2314838926386074e-08, -1.243995839672607e-08], [-3.427011062082097e-12, -3.4071868590390686e-12, -3.397882235994798e-12, -3.402212973152574e-12, -3.418645791800068e-12], [-1.1927471632589004e-06, -1.1770933951993356e-06, -1.1536320698724012e-06, -1.1227373306610389e-06, -1.0846667919395259e-06], [1.464170225062844e-07, 1.3845070157003647e-07, 1.2762278345235245e-07, 1.1187085391384244e-07, 9.303257542114807e-08], [1.3049540825704753e-07, 1.5792444685303053e-07, 1.7467986879182718e-07, 1.7681485076082026e-07, 1.683242771832738e-07], [-1.8474253238309757e-06, -1.8342780094826594e-06, -1.852839886851143e-06, -1.9040503502765205e-06, -1.9924698335671565e-06], [-3.231286029858893e-07, -3.123385852177307e-07, -3.063833275973593e-07, -3.0781754389863636e-07, -3.083220860844449e-07]], [[-1.5435381328643416e-07, -1.5479361081816023e-07, -1.5868612024405593e-07, -1.6534323776795645e-07, -1.760697472263928e-07], [4.009320093700808e-07, 4.048362427511165e-07, 4.07480712283359e-07, 4.076343600445398e-07, 4.139967302307923e-07], [-4.121836809645174e-07, -4.041698105083924e-07, -3.954761780278204e-07, -3.867296811677079e-07, -3.7840840150238364e-07], [-9.23000148533859e-11, -9.472213291505938e-11, -9.779044934932202e-11, -1.0058608806984282e-10, -1.0389408083844032e-10], [-1.2071794230905653e-07, -1.2020650785871112e-07, -1.1966182000833214e-07, -1.1973845914781123e-07, -1.1981492775703373e-07], [2.203620397267514e-08, 1.9932665296096275e-08, 2.0671883760314813e-08, 2.6314056711385092e-08, 3.4004312254865e-08], [2.2298871638071205e-09, 2.208847549312054e-09, 2.19083728936198e-09, 2.193534687222609e-09, 2.19733853334958e-09], [-7.930100309749832e-07, -1.2412212981871562e-06, 2.880241822822427e-07, 5.599720225291094e-06, -2.2452401537975675e-07], [-1.26133022958024e-14, -1.2358916278885305e-14, -1.225927386406915e-14, -1.2295988507167888e-14, -1.2554148902897948e-14], [-1.2514688840781218e-08, -1.3195705861335227e-08, -1.3418925526309522e-08, -1.3119305641851042e-08, -1.251536740909387e-08], [-2.874194751558562e-13, -2.8804131931188526e-13, -2.877221301923055e-13, -2.88256912913884e-13, -2.8762522962313963e-13], [-6.931227289896924e-07, -7.414631681967876e-07, -7.68721633903624e-07, -7.754289867989428e-07, -7.664133363505243e-07], [-4.6329599712180425e-08, -4.954714682980921e-08, -5.311129314122809e-08, -5.711591199997201e-08, -6.132766827704472e-08], [-6.680718200868796e-08, -3.4232741086270835e-08, -2.572868496031333e-08, -3.995059572048376e-08, -7.662256251705912e-08], [-4.951754206672376e-08, -4.3563751717101695e-08, -4.367722539200258e-08, -4.760384797464212e-08, -6.006737152119968e-08], [4.494658867315593e-07, 4.5542313387159084e-07, 4.5541884219346684e-07, 4.48229229732533e-07, 4.403941034070158e-07]], [[-0.039389777928590775, -0.02869364060461521, -0.02013232372701168, -0.025843681767582893, -0.05838490650057793], [-0.018502406775951385, 0.12281481921672821, 0.16913598775863647, 0.05450594797730446, -0.11440638452768326], [-0.03277866169810295, -0.001603046664968133, 0.01219392754137516, -0.0003417414554860443, -0.028179863467812538], [3.086853394052014e-05, 3.27275920426473e-05, 3.4307038731640205e-05, 3.473438846413046e-05, 3.542585182003677e-05], [0.09281689673662186, 0.09560035169124603, 0.09930262714624405, 0.10246282070875168, 0.10551111400127411], [-0.047703035175800323, -0.1326916515827179, -0.19073450565338135, -0.20214621722698212, -0.1683637648820877], [0.0009605521918274462, 0.0009971391409635544, 0.0010362365283071995, 0.0010587504366412759, 0.0010800404706969857], [-1.2190267892342455e-11, -1.1155368295767687e-11, -1.0059601589229583e-11, -9.351158736237153e-12, -8.833757510207096e-12], [-1.799084076159474e-10, -1.502006019560298e-10, -1.259103654671634e-10, -1.2253750791835216e-10, -1.1737739946671155e-10], [-0.0013435487635433674, -0.0006586819072254002, -0.00010469568951521069, 3.3680287742754444e-05, -0.00017008476424962282], [5.299211025544537e-08, 6.324012957747982e-08, 7.136295465670628e-08, 7.230672594005227e-08, 7.323532003056243e-08], [0.04643496498465538, -0.16020679473876953, -0.28140687942504883, -0.3031035363674164, -0.188798189163208], [-0.060916151851415634, -0.11237382888793945, -0.18616488575935364, -0.28580889105796814, -0.40803903341293335], [-0.010659359395503998, -0.009862959384918213, -0.008824927732348442, -0.007761024404317141, -0.0064854854717850685], [0.01772342622280121, 0.16065943241119385, 0.24501170217990875, 0.17895451188087463, -0.004825304728001356], [0.031696416437625885, 0.14888298511505127, 0.20069164037704468, 0.11979691684246063, -0.02176850661635399]], [[-5.798626290243192e-08, -5.8578905282047344e-08, -5.949915760083968e-08, -6.024112053637509e-08, -6.188648882243797e-08], [1.76130612317138e-08, 1.780581904142764e-08, 1.7709306021629345e-08, 1.750688127799549e-08, 1.777563696236939e-08], [5.3714779291169634e-09, 6.500315841151405e-09, 7.18658732523636e-09, 7.323876616283087e-09, 6.958353448993648e-09], [-4.500974679771952e-12, -4.580787572178169e-12, -4.472246791648038e-12, -4.204127931201063e-12, -3.7321096733877734e-12], [5.397254199124291e-09, 5.3350501794113825e-09, 5.336644903763954e-09, 5.417442938693284e-09, 5.5425619649440705e-09], [1.9821147390075566e-08, 1.8884289687548517e-08, 1.8391443035170596e-08, 1.8348625729913692e-08, 1.8857347683365333e-08], [7.455436268344329e-11, 7.53970566536033e-11, 7.630801546198995e-11, 7.737369078775203e-11, 7.83331802201026e-11], [8.145980373832385e-18, 8.122631546681851e-18, 8.124002184956852e-18, 8.158254079761447e-18, 8.211447583412895e-18], [1.3482375622679408e-16, 1.3499226284373848e-16, 1.3471121995881747e-16, 1.342123969622235e-16, 1.3287219231632017e-16], [-5.725231400077746e-10, -5.695856009069189e-10, -5.661039415016944e-10, -5.64953583914729e-10, -5.642152300922021e-10], [9.670129280658912e-13, 9.408064605143096e-13, 9.237878474330219e-13, 9.215726055541995e-13, 9.394902390769122e-13], [-5.6627889932769904e-08, -5.7040679735109734e-08, -5.726436569375437e-08, -5.7254073482226886e-08, -5.6977800255708644e-08], [-4.024622857201621e-09, -4.584450152833597e-09, -5.169944472527277e-09, -5.7962070698636126e-09, -6.435806554350165e-09], [-1.080271605502503e-08, -1.0954487983383387e-08, -1.0981141329580169e-08, -1.088540901861279e-08, -1.0680734519041835e-08], [-1.0142102269128372e-07, -1.0069041422866576e-07, -1.0217826940106534e-07, -1.0599192279414638e-07, -1.1261762722369895e-07], [-6.714818479025553e-09, -8.16979461859546e-09, -9.662386446507298e-09, -1.1091767504467498e-08, -1.1871631677706773e-08]], [[-6.760944026851234e-10, -6.680831443617308e-10, -6.628315118994976e-10, -6.561444165775754e-10, -6.577187683376451e-10], [6.90400681069292e-10, 6.904232741078431e-10, 6.822303277864705e-10, 6.695715648596945e-10, 6.751647574354536e-10], [-1.3199020765242153e-09, -1.2872262145080526e-09, -1.2443209795875987e-09, -1.1911535091613246e-09, -1.1313731063111732e-09], [3.4610376088532735e-13, 3.45799452440565e-13, 3.463908847256558e-13, 3.479321052188983e-13, 3.51239003160142e-13], [-8.42181879789905e-10, -8.320423794394571e-10, -8.229639192336435e-10, -8.184998234739282e-10, -8.171882615037873e-10], [3.3885846906223094e-10, 3.364417078266513e-10, 3.435991768885316e-10, 3.583829621955914e-10, 3.8786671097135184e-10], [-1.1380697816434915e-12, -1.4295987353987738e-12, -1.7506846666792697e-12, -2.2119511083884547e-12, -2.729200546114363e-12], [-5.504408762748767e-20, -5.496459427815162e-20, -5.582736304409003e-20, -5.696518875074793e-20, -5.827085457357167e-20], [1.9655440900066667e-17, 1.6664458375470876e-17, 1.5146174978574694e-17, 1.5552047689736088e-17, 1.755656439430319e-17], [-2.7048844067345534e-11, -2.7022373921825604e-11, -2.708759605507538e-11, -2.7320944118169876e-11, -2.767633518196977e-11], [-2.564606123631576e-15, -2.536644083735054e-15, -2.5266931406707103e-15, -2.532555667456894e-15, -2.5516005680011966e-15], [-9.148619639631761e-10, -9.280887725005016e-10, -9.216207241813379e-10, -8.980597931973477e-10, -8.671337536902968e-10], [1.4416362548175243e-10, 1.3755312167074152e-10, 1.3338088966641237e-10, 1.2653154912722897e-10, 1.1678029376849253e-10], [-1.0638808627463914e-12, -2.122064893597675e-12, -4.655403666731228e-12, -9.156675417898441e-12, -1.62075075582635e-11], [-1.4767431721907087e-09, -1.443363761843841e-09, -1.446725961251616e-09, -1.4879851795157606e-09, -1.5736729697124474e-09], [1.095891044577968e-09, 1.1284677636780316e-09, 1.1414902356676748e-09, 1.1276247713354337e-09, 1.1029259727735052e-09]], [[4.936955792095299e-13, 4.998571543658736e-13, 5.080483559891102e-13, 5.214400417528908e-13, 5.370487583290784e-13], [7.81759205981114e-13, 8.171174782807544e-13, 8.437065607790062e-13, 8.572820730211317e-13, 9.038306127834295e-13], [2.5982124438050924e-13, 2.4538625797120017e-13, 2.324865018381306e-13, 2.1994916738626857e-13, 2.090171026709886e-13], [-1.0228188594682878e-15, -1.081049515855824e-15, -9.992836255123534e-16, -7.616641493301244e-16, -3.492979380112911e-16], [-3.297664062391209e-13, -3.319160809915622e-13, -3.298795969459284e-13, -3.2288348427236824e-13, -3.11071128708193e-13], [2.3271984925070377e-13, 2.203737409570139e-13, 2.1304419545783299e-13, 2.152459796771894e-13, 2.2501591518883646e-13], [1.1771971786107252e-15, 1.2292742465155773e-15, 1.3212438133790283e-15, 1.3375686793714605e-15, 1.3046400617887127e-15], [-2.6076487633144795e-22, -2.6266629617029474e-22, -2.6353457328056616e-22, -2.6371375199113444e-22, -2.6410888926311602e-22], [-2.840872326926386e-20, -2.97103371995558e-20, -3.0332144375648395e-20, -3.0046631354998353e-20, -2.9112379320733725e-20], [1.831460567783879e-14, 1.685446487237341e-14, 1.603619208181018e-14, 1.5944592244828207e-14, 1.6555497817376426e-14], [-7.907846656006945e-18, -7.912456533560703e-18, -7.908744146971565e-18, -7.908045179353957e-18, -7.91478504698504e-18], [-1.443106918685988e-12, -1.392799287361357e-12, -1.333861623584176e-12, -1.2704145461311933e-12, -1.2074886446625244e-12], [6.759243230229639e-13, 7.28283319068046e-13, 7.776351719675223e-13, 8.201118820508335e-13, 8.498395672081049e-13], [5.224558510970832e-14, 1.1356445840139673e-13, 1.6526873185956914e-13, 2.2282636890150198e-13, 2.694293085078042e-13], [-8.061440512525941e-13, -7.76560890244915e-13, -7.579627572286418e-13, -7.520034941976839e-13, -7.590805696684744e-13], [-3.5370268996678944e-13, -3.354848137574612e-13, -3.245028486371926e-13, -3.235578580236542e-13, -3.2281691425897763e-13]], [[-0.0960034430027008, -0.09614758938550949, -0.09631858021020889, -0.0965796485543251, -0.09698643535375595], [-0.09570998698472977, -0.0961381196975708, -0.09650889039039612, -0.09684040397405624, -0.09717491269111633], [0.020329566672444344, 0.020244309678673744, 0.02035515569150448, 0.020663032308220863, 0.021090758964419365], [4.761524178320542e-05, 4.762408934766427e-05, 4.780112431035377e-05, 4.817127774003893e-05, 4.8557438276475295e-05], [-0.0038608326576650143, -0.0038351526018232107, -0.003782805288210511, -0.003707921365275979, -0.0036209130194038153], [-0.07799141854047775, -0.07778676599264145, -0.07751011103391647, -0.07720871269702911, -0.07688251882791519], [0.00029829461709596217, 0.0003010337532032281, 0.0003040952142328024, 0.00030639502801932395, 0.0003088705416303128], [3.8331116058998305e-11, 3.818602031802065e-11, 3.7942118197298313e-11, 3.758491781691298e-11, 3.712853635651214e-11], [-1.5006083042834462e-09, -1.5010284126759643e-09, -1.4935840342289453e-09, -1.4705702211514904e-09, -1.4367044220975345e-09], [-0.0008255238644778728, -0.0007978401845321059, -0.0007776758866384625, -0.0007678178371861577, -0.0007688950281590223], [4.379706410873041e-07, 4.3940016780652513e-07, 4.3910947056247096e-07, 4.361249636986031e-07, 4.3114766867802246e-07], [-0.11181075870990753, -0.11120310425758362, -0.11059993505477905, -0.11006301641464233, -0.10958971083164215], [0.004345150664448738, 0.004279678221791983, 0.004231366794556379, 0.004183394368737936, 0.004127702210098505], [0.0008217325084842741, 0.0007993631879799068, 0.0006796787492930889, 0.0005177241400815547, 0.00035409507108852267], [-0.05431331694126129, -0.054414715617895126, -0.054717522114515305, -0.05529777333140373, -0.05615746229887009], [-0.019849868491292, -0.01962408423423767, -0.019548650830984116, -0.019740581512451172, -0.020122667774558067]], [[-1.074519806465446e-09, -1.0780566439549943e-09, -1.0781386894365141e-09, -1.0772752689902632e-09, -1.073779509752626e-09], [-3.070189880105545e-09, -3.115988800317382e-09, -3.1371136799407395e-09, -3.146273241938502e-09, -3.134135617699485e-09], [-1.3650852892510557e-08, -1.3806924492598682e-08, -1.3952567101682689e-08, -1.4076197096812848e-08, -1.417001982417787e-08], [-4.142621575636829e-12, -4.157489456868557e-12, -4.1568003379677254e-12, -4.154729945499147e-12, -4.1440796107183875e-12], [-1.2552604511384402e-09, -1.2640438695754597e-09, -1.2738720078786514e-09, -1.283826378539743e-09, -1.293524953815961e-09], [2.6501112415644457e-10, 2.6594873525631613e-10, 2.679345356693119e-10, 2.725134840009247e-10, 2.785686958883815e-10], [1.628212842330612e-11, 1.6344113562549722e-11, 1.635542916378352e-11, 1.6343565389931314e-11, 1.629453343088283e-11], [1.3545311297693987e-19, 1.3577164213625815e-19, 1.357078846056062e-19, 1.3568153114827815e-19, 1.3551689635698595e-19], [2.785521779221705e-17, 2.800311768574153e-17, 2.801413904022319e-17, 2.802009474063357e-17, 2.7950588408121965e-17], [3.108412832686369e-11, 3.133540302235893e-11, 3.142626089913669e-11, 3.1506106751288954e-11, 3.14860360006719e-11], [2.972343260410071e-09, 3.4799700898702213e-09, 3.729288433618194e-09, 3.6645655399070165e-09, 3.346342536403313e-09], [3.3577196578704616e-10, 3.436876616635942e-10, 3.5336078507697266e-10, 3.650488800133189e-10, 3.776026158419654e-10], [5.903252331407316e-10, 5.849509210342774e-10, 5.755826926190366e-10, 5.63080304605279e-10, 5.452447937592808e-10], [-5.572562411515491e-10, -5.727787688591945e-10, -5.845584016839211e-10, -5.939755354233967e-10, -5.997912166932906e-10], [-1.4731410535873124e-09, -1.4811545323567543e-09, -1.4819880878036429e-09, -1.4831296191175625e-09, -1.4772378875704817e-09], [-1.56482471425079e-08, -1.5793236940453426e-08, -1.5858555357795012e-08, -1.5867485103626677e-08, -1.5814809017911102e-08]], [[-0.0010589674348011613, -0.0010595018975436687, -0.0010652592172846198, -0.0010688332840800285, -0.0010868150275200605], [-9.093583503272384e-05, -4.92808576382231e-05, -2.18194709304953e-05, -1.1626401828834787e-05, 2.372727067267988e-05], [-0.0007101818337105215, -0.0007226906600408256, -0.0007377080037258565, -0.000755835440941155, -0.0007746598566882312], [-4.373486461872744e-08, -4.204616388392424e-08, -4.038782819293374e-08, -3.860986552695067e-08, -3.732420239543899e-08], [-1.8846065358957276e-05, -1.8396220184513368e-05, -1.727233211568091e-05, -1.5915435142233036e-05, -1.4166831533657387e-05], [0.0006811509956605732, 0.0006486546481028199, 0.0006259570945985615, 0.0006147404783405364, 0.000617471057921648], [-3.5014641071029473e-06, -3.5222315091232304e-06, -3.5409668726060772e-06, -3.5445118555799127e-06, -3.549817392922705e-06], [-3.3873300215106483e-13, -3.4137796756095184e-13, -3.4395953424880277e-13, -3.4349281231860207e-13, -3.4431997726104557e-13], [-2.359822190087235e-12, -2.2777231489801153e-12, -2.1732715453637308e-12, -1.977524914653639e-12, -1.7751830821283177e-12], [-1.4188412933435757e-05, -1.4338706023409031e-05, -1.4486678082903381e-05, -1.4679158994113095e-05, -1.4883236872265115e-05], [-4.460726898969369e-09, -4.469734804501968e-09, -4.466163439076354e-09, -4.4156531764372176e-09, -4.349224536071006e-09], [-0.012025101110339165, -0.012116492725908756, -0.012124507687985897, -0.012016208842396736, -0.011795531027019024], [1.1637419447652064e-05, -5.488632268679794e-06, -2.5986697437474504e-05, -5.097483881399967e-05, -7.742051093373448e-05], [0.00036063644802197814, 0.00036994009860791266, 0.00038433351437561214, 0.0004027625545859337, 0.0004225622396916151], [-0.0022386156488209963, -0.002214336534962058, -0.0022293664515018463, -0.0022855643182992935, -0.0023893900215625763], [-2.3034825062495656e-05, -7.599237960675964e-06, -5.548051831283374e-06, -2.3555554435006343e-05, -3.7506892113015056e-05]], [[3.3349933925563846e-11, 3.4935856291218315e-11, 3.599372189189154e-11, 3.636733622580657e-11, 3.605259146777229e-11], [1.7013675624594216e-12, 2.6825681433140236e-12, 2.765847013225242e-12, 2.6513040894682316e-12, 3.3786805818392107e-12], [7.319744810274642e-11, 7.111863181696876e-11, 7.00165758704685e-11, 6.985163836237263e-11, 7.064423351854643e-11], [-5.1029466026017434e-14, -5.106033190661538e-14, -5.106284251227104e-14, -5.101523248437177e-14, -5.096538290135996e-14], [6.889889353489664e-11, 6.711266264947113e-11, 6.532627216948583e-11, 6.384204970233398e-11, 6.290916398921098e-11], [4.652816673611504e-11, 4.3318484216348097e-11, 4.210912521451782e-11, 4.291834249103843e-11, 4.6130266273536336e-11], [-7.589069346905508e-13, -7.590936343046528e-13, -7.496876383572548e-13, -7.24788393365039e-13, -6.809712299257753e-13], [1.5272927120859856e-20, 1.5896324034692203e-20, 1.5471854364656056e-20, 1.3618808233823885e-20, 1.0873588035629319e-20], [2.760657391752851e-19, 2.785394486465191e-19, 2.803996744465743e-19, 2.800105635165505e-19, 2.812821210638035e-19], [1.0918248726995983e-12, 1.0878171193690056e-12, 1.0943345838884677e-12, 1.1133293722695448e-12, 1.1434994661232989e-12], [-2.712063707138913e-16, -2.7041942416633285e-16, -2.699926254400351e-16, -2.700569205346876e-16, -2.7070196259380136e-16], [-1.1402429000995085e-10, -1.1364656438139775e-10, -1.1142670813812927e-10, -1.074860200844796e-10, -1.0304806313810033e-10], [-6.618400272273561e-12, -8.081342886545606e-12, -8.929627003106955e-12, -9.748550057475658e-12, -1.0578564933749757e-11], [-1.944950311916216e-10, -1.9376202031740064e-10, -1.9204840495667952e-10, -1.8920223721075047e-10, -1.8492114783885683e-10], [4.089238322957378e-11, 3.784598676115358e-11, 3.6270118852765876e-11, 3.668960968372659e-11, 3.858270300471922e-11], [-8.628966291501783e-11, -8.754153651979735e-11, -8.847212545903815e-11, -8.962142139523621e-11, -9.048783250475978e-11]], [[-0.025027181953191757, -0.025097299367189407, -0.02520185336470604, -0.025324931368231773, -0.025435103103518486], [-0.0017553514335304499, -0.0023750481195747852, -0.00295791937969625, -0.0034995493479073048, -0.004142086952924728], [-0.010810810141265392, -0.010779705829918385, -0.010738717392086983, -0.010672420263290405, -0.010574796237051487], [-5.7246460016813216e-08, -5.8739107799965495e-08, -6.00751093315921e-08, -6.080666281604863e-08, -6.092246707112281e-08], [2.3518578018411063e-05, 2.307973954884801e-05, 2.261705776618328e-05, 2.200499875470996e-05, 2.1374373318394646e-05], [0.0003370108606759459, 0.0003239567740820348, 0.0003130323311779648, 0.0003049212973564863, 0.00030056684045121074], [-3.703148204747819e-11, 3.6819955417932704e-10, 1.298020912976483e-09, 1.774015156996711e-09, 1.656512149672551e-09], [-2.7131225936141874e-14, -2.844428116438244e-14, -2.940927869613495e-14, -3.00069417555858e-14, -3.0203700732969394e-14], [8.499128484329432e-12, 8.519328471845444e-12, 8.538256039691827e-12, 8.559217570813793e-12, 8.582533989054397e-12], [1.0626739594954415e-06, 1.068287815542135e-06, 1.0968890364893014e-06, 1.1355647302480065e-06, 1.1947020084335236e-06], [1.3154063394082982e-09, 1.3232154261189066e-09, 1.3264742637630889e-09, 1.3264896958631311e-09, 1.322185250174357e-09], [-0.00043137764441780746, -0.0004528223071247339, -0.00046138293691910803, -0.0004588340816553682, -0.00044971363968215883], [-2.6402898583910428e-05, -3.515930438879877e-05, -4.486945545068011e-05, -5.588203566730954e-05, -6.708329601678997e-05], [-0.00010820277384482324, -0.0001075012405635789, -0.00010645076690707356, -0.00010494551679585129, -0.0001031160427373834], [-0.034142814576625824, -0.034329403191804886, -0.03461560606956482, -0.03495381399989128, -0.0353907085955143], [0.005225839093327522, 0.005114363506436348, 0.005068222526460886, 0.00514401076361537, 0.005273778457194567]], [[-0.2617017924785614, -0.2593569755554199, -0.26010438799858093, -0.25342434644699097, -0.24265211820602417], [0.15888679027557373, 0.3033953905105591, 0.3170774579048157, 0.12918540835380554, -0.05253493785858154], [-0.13269254565238953, -0.10194879025220871, -0.08565305173397064, -0.08159903436899185, -0.08694785088300705], [3.512079638312571e-05, 3.4732132917270064e-05, 3.4656375646591187e-05, 3.501819082885049e-05, 3.5249893699074164e-05], [-0.0011149657657369971, -0.0013123339740559459, -0.0013397678267210722, -0.0011368930572643876, -0.0007338424329645932], [0.07515319436788559, 0.07463131099939346, 0.07433414459228516, 0.07463715225458145, 0.07492327690124512], [0.002524570096284151, 0.002506844699382782, 0.0024972136598080397, 0.002505398355424404, 0.0025113464798778296], [-1.9059882144789597e-11, -1.9045568941389313e-11, -1.8990713515631974e-11, -1.895543617902451e-11, -1.8944783242158536e-11], [1.0346897783009013e-09, 1.0238139225293708e-09, 1.021523532429569e-09, 1.0306415720862105e-09, 1.0361607127862271e-09], [-0.0018167009111493826, -0.0016803489997982979, -0.0015263048699125648, -0.0013654122594743967, -0.0012290070299059153], [2.014861735233353e-07, 1.9912259574539348e-07, 1.979522465944683e-07, 1.9920454974453605e-07, 2.0019537316784408e-07], [0.07800877094268799, -0.03913413733243942, -0.0891985073685646, -0.06151202321052551, 0.012093974277377129], [0.05454029142856598, 0.05431390553712845, 0.05460180714726448, 0.055387482047080994, 0.055658869445323944], [0.041071489453315735, 0.04068863391876221, 0.040504053235054016, 0.040640298277139664, 0.04072290286421776], [-0.06976106762886047, -0.013117055408656597, 0.016668129712343216, -0.008656185120344162, -0.051742587238550186], [0.024177903309464455, 0.09109627455472946, 0.09149353951215744, 0.014205020852386951, -0.05300203338265419]], [[2.0676627343618748e-07, 2.097839342241059e-07, 2.1250875192890817e-07, 2.1892434176606912e-07, 2.2430511137372378e-07], [4.752925804041297e-07, 4.888568128080806e-07, 4.974025955561956e-07, 5.002129341846739e-07, 5.154369091542321e-07], [-3.9910398186293605e-07, -4.0659230648998346e-07, -4.1424496544095746e-07, -4.2151452817051904e-07, -4.270520719273918e-07], [2.0083620877464625e-10, 2.055941250578286e-10, 2.1206383871152923e-10, 2.1915735892719113e-10, 2.2777629782311237e-10], [1.6487281584431912e-07, 1.6419951975876756e-07, 1.6350945486465207e-07, 1.628688579558002e-07, 1.6209682485168742e-07], [2.6819606091521564e-07, 2.545138784171286e-07, 2.4372792495341855e-07, 2.3705757712377817e-07, 2.353016697043131e-07], [2.6277888753867273e-09, 2.6734605640399423e-09, 2.7197948337942535e-09, 2.766003204257572e-09, 2.8173134936082533e-09], [1.5112474647802548e-16, 1.5002773293221276e-16, 1.4646652848926986e-16, 1.3900060803860305e-16, 1.284017774138386e-16], [1.1313304758070117e-13, 1.1327545075979356e-13, 1.1328587265317658e-13, 1.130934877539326e-13, 1.1276592317257042e-13], [3.120647207310867e-08, 3.1505837938539116e-08, 3.167284035043849e-08, 3.173942531020657e-08, 3.1684059820236143e-08], [-1.307224592244846e-13, -1.3770732330050522e-13, -1.3691257600301904e-13, -1.1591765145414074e-13, -8.696145068149211e-14], [-1.06306174529891e-06, -1.1056927178287879e-06, -1.1257916412432678e-06, -1.1244611641814117e-06, -1.1085422784162802e-06], [1.2078584177288576e-07, 1.1284500800456954e-07, 1.035161218965186e-07, 9.171179726763512e-08, 7.864065310059232e-08], [6.224681214916927e-08, 6.810898156572875e-08, 6.862701695808937e-08, 5.890173682132627e-08, 4.569405831489348e-08], [-1.667946492034389e-07, -1.553142539023611e-07, -1.4700728456773504e-07, -1.4270227666202118e-07, -1.429359173243938e-07], [-3.502277650113683e-07, -3.476977212812926e-07, -3.464490134774678e-07, -3.488836171072762e-07, -3.495748899240425e-07]], [[-0.047202274203300476, -0.04742428660392761, -0.04758436977863312, -0.04750475659966469, -0.047477249056100845], [-0.10243010520935059, -0.10259649157524109, -0.10291080921888351, -0.1031796932220459, -0.1034209132194519], [-0.004444267600774765, -0.004520379472523928, -0.004609062802046537, -0.004711809568107128, -0.004817451350390911], [1.020989088829083e-06, 7.575020504191343e-07, 7.099314416336711e-07, 1.027225835059653e-06, 1.5192038063105429e-06], [1.5838800493384042e-07, 5.272183443594258e-06, 1.3486651369021274e-05, 2.5684394131531008e-05, 3.9676142478128895e-05], [0.012786340899765491, 0.013325086794793606, 0.01358324196189642, 0.013515209779143333, 0.013289245776832104], [-4.2841347749345005e-06, -3.9355918488581665e-06, -3.472544221949647e-06, -3.5372174806980183e-06, -3.649195377875003e-06], [-6.114070296055207e-13, -4.918386119386053e-13, -3.4661376958726453e-13, -2.0103707652589786e-13, -4.4251494829561366e-14], [1.6136074421080338e-10, 1.6330282959220455e-10, 1.6408020775404708e-10, 1.6339871122816874e-10, 1.6226422983045552e-10], [-0.00019622640684247017, -0.00019635363423731178, -0.000195208442164585, -0.00019190702005289495, -0.00018789307796396315], [1.1952812428717152e-07, 1.3741518500864913e-07, 1.7005594088459475e-07, 2.353611137095868e-07, 3.0501834658025473e-07], [-0.06188846752047539, -0.06131666898727417, -0.060845889151096344, -0.060620859265327454, -0.060561783611774445], [-0.0006177789764478803, -0.0007305461331270635, -0.0008590468787588179, -0.0009861427824944258, -0.0010991907911375165], [0.00019883571076206863, 0.0003563751233741641, 0.0006044991314411163, 0.0009270781883969903, 0.0012793930945917964], [-0.07206815481185913, -0.07237750291824341, -0.07256892323493958, -0.07248509675264359, -0.07245689630508423], [0.0016725700115785003, 0.001766566769219935, 0.0017925805877894163, 0.0017251372337341309, 0.0016856108559295535]], [[-0.0004563715774565935, -0.0005768496193923056, -0.0005268323002383113, -0.0013313117669895291, -0.0010688593611121178], [-0.015722017735242844, -0.15810872614383698, -0.1746746450662613, -0.07533659040927887, 0.07273079454898834], [0.004464124329388142, 0.004583793226629496, 0.005322048906236887, 0.006466604303568602, 0.007102594710886478], [-6.782134278182639e-06, -7.043519872240722e-06, -7.363131771853659e-06, -7.492853001167532e-06, -7.470463060599286e-06], [0.002669611247256398, 0.0027464081067591906, 0.003119886154308915, 0.0037524239160120487, 0.00409409636631608], [-0.001584239536896348, -0.0012922933092340827, -0.0015930881490930915, -0.0025784007739275694, -0.002473777625709772], [-4.362525942269713e-06, -3.814776391664054e-06, -3.890991138177924e-06, -5.041758868173929e-07, 2.8624499464058317e-06], [-1.076435468538861e-11, -1.2081441749800526e-11, -1.3031635666405084e-11, -9.397468046790092e-12, -3.042654019361213e-12], [1.1014731349234808e-09, 1.095767920844537e-09, 1.0887583057339612e-09, 1.094894175324157e-09, 1.1066288996275375e-09], [0.00030261100619100034, 0.0003086077922489494, 0.00034111179411411285, 0.00040290685137733817, 0.000439732481027022], [-3.618975341623809e-08, -3.53908085060084e-08, -3.444043272793351e-08, -3.241978774326526e-08, -2.7981553074596377e-08], [0.22401097416877747, 0.43175965547561646, 0.4139399528503418, 0.15622782707214355, -0.15488538146018982], [-0.024859899654984474, -0.016079580411314964, -0.013384295627474785, -0.008001456037163734, 0.00461493618786335], [-0.02097526378929615, -0.021033475175499916, -0.020896995440125465, -0.020618826150894165, -0.019956553354859352], [-0.0005349461571313441, -0.0007933229207992554, -0.00033144449116662145, 0.000412226771004498, 0.0009178918553516269], [0.0030102375894784927, 0.002847736468538642, 0.0033601790200918913, 0.005589262116700411, 0.0070754848420619965]], [[0.00029738066950812936, 0.00029897980857640505, 0.0003018546267412603, 0.00030402731499634683, 0.00030920709832571447], [-0.0006978623569011688, -0.0008308327523991466, -0.0009700331720523536, -0.0011122662108391523, -0.0013043168000876904], [-3.7088528188178316e-05, -3.750351243070327e-05, -3.654955071397126e-05, -3.4060398320434615e-05, -3.053224281757139e-05], [2.6317328760683267e-08, 2.6749438220008415e-08, 2.6796740826284804e-08, 2.658584463688385e-08, 2.599566606420467e-08], [-1.1394910870876629e-05, -1.1508658644743264e-05, -1.1565455679374281e-05, -1.1517136954353191e-05, -1.1394642569939606e-05], [-0.00011789495329139754, -0.00011345016537234187, -0.00010953721357509494, -0.00010648017632775009, -0.00010461804049555212], [-8.260620631972415e-08, -8.37417530874518e-08, -8.482295044132115e-08, -8.524442307589197e-08, -8.555262809295527e-08], [5.1111861155961596e-15, 5.23412108942886e-15, 5.385498582597412e-15, 5.657387264820096e-15, 5.981060153306119e-15], [-4.0896374286190917e-13, -4.0968479151672066e-13, -4.103505729657897e-13, -4.115204813200102e-13, -4.132074185852347e-13], [-1.7956043620870332e-06, -1.791519025573507e-06, -1.7820532320911298e-06, -1.7637310065765632e-06, -1.7418033166904934e-06], [-9.72322569681161e-12, -1.1108130040793363e-11, -1.1476449131297972e-11, -1.0540288260252328e-11, -8.400388024076832e-12], [0.00041057492489926517, 0.0004214351065456867, 0.00042649474926292896, 0.00042596255661919713, 0.00042177631985396147], [2.1191546693444252e-05, 2.423510159133002e-05, 2.7547966965357773e-05, 3.122562338830903e-05, 3.49393485521432e-05], [-9.114006388699636e-06, -2.647379551490303e-05, -4.808637095266022e-05, -7.134578481782228e-05, -9.325666178483516e-05], [0.0006763447308912873, 0.0006730133318342268, 0.0006791488267481327, 0.0006951969116926193, 0.0007221770356409252], [-4.817865919903852e-05, -5.484384746523574e-05, -5.513534415513277e-05, -4.7193632781272754e-05, -4.036353493575007e-05]], [[0.019299522042274475, 0.01925216242671013, 0.02023419737815857, 0.01973615400493145, 0.020223231986165047], [0.21856315433979034, 0.17299877107143402, 0.11482271552085876, -0.005191005766391754, -0.06962228566408157], [-0.22362320125102997, -0.21939247846603394, -0.2225533127784729, -0.2302553951740265, -0.2401338815689087], [6.688209737149009e-07, 8.207133532778244e-07, 9.467923405281908e-07, 1.2957008266312187e-06, 1.560047621751437e-06], [0.004132322035729885, 0.00408210838213563, 0.004085903987288475, 0.004328238312155008, 0.004693359602242708], [0.016663700342178345, 0.016717346385121346, 0.01685846596956253, 0.017338868230581284, 0.01750520057976246], [5.381649680202827e-05, 5.2597471949411556e-05, 5.264297578833066e-05, 5.8127832744503394e-05, 6.121166370576248e-05], [1.7254118273024588e-11, 1.729021960328314e-11, 1.7281403738578227e-11, 1.7291074821956798e-11, 1.728540401091383e-11], [-2.5099958569918535e-11, -2.6367422134576657e-11, -2.812389210404831e-11, -1.610847913391389e-11, -4.686989511781814e-12], [0.0008359295316040516, 0.0008193987887352705, 0.0008155530085787177, 0.0008451965404674411, 0.0008891615434549749], [4.031479505783864e-08, 3.9336363499842264e-08, 3.794576031168617e-08, 3.741091703091115e-08, 3.622680111448062e-08], [-0.10070277005434036, -0.0826178565621376, -0.07084890455007553, -0.06594936549663544, -0.07606004178524017], [0.00937382411211729, 0.009627478197216988, 0.009827053174376488, 0.010209678672254086, 0.010209128260612488], [-0.001584441401064396, -0.0016433086711913347, -0.0016068356344476342, -0.0013230082113295794, -0.001143276342190802], [-0.27535754442214966, -0.27377912402153015, -0.25409403443336487, -0.25701260566711426, -0.26030856370925903], [0.1476965695619583, 0.10054143518209457, 0.05075119063258171, -0.0026851568836718798, -0.0116833271458745]], [[-6.543470476572111e-07, -6.502047540379863e-07, -6.498697189272207e-07, -6.4898256368906e-07, -6.581404363714682e-07], [9.755749488249421e-07, 9.942258429873618e-07, 1.0055008488052408e-06, 1.0090208206747775e-06, 1.0339513210055884e-06], [-3.875567644584521e-10, -5.985294482258041e-09, -1.2037198793279913e-08, -1.887083023177638e-08, -2.4851072311093958e-08], [-6.349307191122477e-11, -7.558962483722453e-11, -9.120023486408613e-11, -1.0714270443079599e-10, -1.2561938989019694e-10], [-3.018080008132529e-07, -3.0193555744517653e-07, -3.0272101980699517e-07, -3.0442325282820093e-07, -3.077150552144303e-07], [5.113644760967873e-07, 4.845832677347062e-07, 4.688513399742078e-07, 4.647778268918046e-07, 4.749059598907479e-07], [9.72911085028727e-09, 9.734301364971998e-09, 9.729274275116495e-09, 9.70775815289926e-09, 9.674304912721254e-09], [-8.958052102363214e-16, -9.057363539055228e-16, -9.24306915999363e-16, -9.50531585441948e-16, -9.768679573544524e-16], [1.217457666798094e-13, 1.2191267960426355e-13, 1.2197512964939872e-13, 1.2179433893713676e-13, 1.2154714084181006e-13], [4.568195421938981e-08, 4.5267633197454415e-08, 4.53275141865106e-08, 4.6204934989191315e-08, 4.774032902332692e-08], [9.193761203729611e-13, 9.132703274183918e-13, 9.04967181920846e-13, 8.981539470487299e-13, 8.870069392527546e-13], [-8.448178618891689e-07, -8.89237867340853e-07, -9.072297189050005e-07, -9.004715479932202e-07, -8.766107271185319e-07], [-1.2849240249579452e-07, -1.4205237164333084e-07, -1.5680090825753723e-07, -1.7311404576503264e-07, -1.89785154702804e-07], [4.152779808919149e-07, 3.338930412155605e-07, 2.7698953886101663e-07, 2.447641804792511e-07, 2.3499819690186996e-07], [-8.749531730245508e-07, -8.479165103381092e-07, -8.447346999673755e-07, -8.689044648235722e-07, -9.22957497095922e-07], [-6.795983722440724e-07, -6.77045306929358e-07, -6.758871791134879e-07, -6.804942245253187e-07, -6.811018238295219e-07]], [[1.1135345090451665e-08, 1.1572896418954315e-08, 1.2049997444307792e-08, 1.2819568517841162e-08, 1.3625883532597527e-08], [-1.9759744063208018e-08, -1.672795058027532e-08, -1.4571539530550126e-08, -1.3567426293548124e-08, -1.077413624983592e-08], [-8.46701730949917e-09, -4.13453937753161e-09, -1.0363453428752223e-09, 3.888521171724335e-10, 5.773106992457144e-10], [-8.360981178234805e-12, -8.351166980169467e-12, -8.333903012136545e-12, -8.338574622457351e-12, -8.320312321064005e-12], [1.6153698823018203e-08, 1.6194833918348195e-08, 1.6170195848985713e-08, 1.6021736826132837e-08, 1.5829574095960197e-08], [2.0500477759810565e-08, 1.8916965771609284e-08, 1.7770608096157048e-08, 1.721280007416226e-08, 1.7330847867924604e-08], [1.7951545805416913e-10, 1.8004064905596806e-10, 1.8065840490244511e-10, 1.813597050315252e-10, 1.8222130748757337e-10], [8.592018080407211e-19, 1.6345519037966354e-18, 2.02913421998214e-18, 1.8236319501413036e-18, 1.260377580888886e-18], [-1.594582007202481e-16, -1.563056102650166e-16, -1.5370893812097995e-16, -1.5359552835027648e-16, -1.5393935755241272e-16], [-2.2505484975621215e-10, -2.3293478257357947e-10, -2.3836077556183e-10, -2.401688570241589e-10, -2.3888047095965703e-10], [-8.602901140216616e-15, -6.355239498854548e-15, -5.3697772275798986e-15, -5.8273173206323595e-15, -7.397515658033333e-15], [-5.2353552604245124e-08, -5.3060773552715546e-08, -5.27758707846715e-08, -5.155407833967729e-08, -4.9803826840388865e-08], [8.146299634859133e-09, 7.59561569196876e-09, 6.710140443288992e-09, 5.406341152536243e-09, 3.875222365223863e-09], [-1.3660746311927596e-08, -1.590014164776221e-08, -1.6615304687661592e-08, -1.580542807744223e-08, -1.3662826425786534e-08], [-4.085964278033316e-08, -3.936971637585884e-08, -3.881866916799481e-08, -3.933909908937494e-08, -4.0995427497136916e-08], [-4.676730469554968e-08, -4.778324225185315e-08, -4.860252644789398e-08, -4.93354050945527e-08, -4.953800925022733e-08]], [[1.5489370071009034e-06, 2.193272848671768e-06, 2.7617215891950764e-06, 3.5781140468316153e-06, 4.323608209233498e-06], [5.378814967116341e-05, 5.456688450067304e-05, 5.492974378284998e-05, 5.488673195941374e-05, 5.599511496257037e-05], [4.458817056729458e-05, 4.547577191260643e-05, 4.584190537570976e-05, 4.5646818762179464e-05, 4.4989330490352586e-05], [3.598978821628407e-07, 3.5982594681627234e-07, 3.595716293602891e-07, 3.594975055420946e-07, 3.595521320676198e-07], [-3.3569318475201726e-05, -3.315440335427411e-05, -3.2825722882989794e-05, -3.268416185164824e-05, -3.2654974347678944e-05], [3.1252038752427325e-05, 3.0068051273701712e-05, 2.911577576014679e-05, 2.8449789169826545e-05, 2.8171010853839107e-05], [-1.4596561186408508e-06, -1.4658028248959454e-06, -1.4691265732835745e-06, -1.4691836440761108e-06, -1.467279275857436e-06], [-9.600833854057217e-14, -8.984376827572693e-14, -7.929070675863001e-14, -6.211392213290381e-14, -3.970969061385665e-14], [3.1825709602417707e-12, 2.579875332461845e-12, 2.427939359977982e-12, 2.7805377358219863e-12, 3.5878611279877015e-12], [3.5969824239145964e-06, 3.5694288271770347e-06, 3.564378175724414e-06, 3.5821708479488734e-06, 3.6157875911158044e-06], [-3.698768027970978e-11, -5.941502151385336e-11, -7.322002726350973e-11, -7.540276736328622e-11, -7.064612089768829e-11], [-6.75175033393316e-05, -6.818665860919282e-05, -6.796147499699146e-05, -6.687964196316898e-05, -6.531063263537362e-05], [5.842019618285121e-06, 5.669406618835637e-06, 5.29336557519855e-06, 4.5887750275142025e-06, 3.6536125662678387e-06], [-4.192507913103327e-05, -4.5371893065748736e-05, -4.6965065848780796e-05, -4.690751666203141e-05, -4.526838893070817e-05], [-4.2343352106399834e-05, -4.072621595696546e-05, -3.977201413363218e-05, -3.955704960389994e-05, -4.0161517972592264e-05], [-4.9731836043065414e-05, -5.019666423322633e-05, -5.057557427790016e-05, -5.118278568261303e-05, -5.1427155995042995e-05]], [[-6.689799755821291e-12, 1.2041783585894916e-12, 9.827374157500568e-12, 2.06619842763045e-11, 3.312247004449986e-11], [8.681200758253738e-10, 8.9233320732518e-10, 9.089946018114858e-10, 9.149454527346279e-10, 9.407848944320563e-10], [-3.759036137918059e-10, -3.715359131462037e-10, -3.5301980783053466e-10, -3.2113273151779254e-10, -2.813302368842585e-10], [1.5028386521342973e-13, 1.4942886338020767e-13, 1.4557966106481385e-13, 1.3824661901362667e-13, 1.2801287536511746e-13], [-3.5476999116212937e-10, -3.7260844409914284e-10, -3.7074218695032357e-10, -3.5093342121150783e-10, -3.108559520903498e-10], [2.0717974558159824e-10, 2.0180195015040425e-10, 1.9433869791196656e-10, 1.8594770168078867e-10, 1.767535007246579e-10], [3.917172575890193e-12, 3.898926754369869e-12, 3.923855598081394e-12, 3.9799708667631606e-12, 4.055188910362384e-12], [-6.216743619054932e-19, -6.21647064945279e-19, -6.2078705560216525e-19, -6.188687203640782e-19, -6.161851913605913e-19], [-1.45948524828632e-17, -1.4498083931723072e-17, -1.4481573406696513e-17, -1.452879218478349e-17, -1.4661455411424745e-17], [-1.090132487318457e-13, -5.290684340283902e-13, -6.112054764216557e-13, -3.8217467927294246e-13, 7.657911712524376e-14], [-4.510553676269596e-16, -3.9471727401116515e-16, -3.732273334552743e-16, -3.8360457232010316e-16, -4.265836063989376e-16], [-5.42942857340023e-10, -5.881192755019526e-10, -6.033661903437348e-10, -5.940616332189563e-10, -5.705588224103053e-10], [-4.960990646063479e-11, -5.902874716801065e-11, -6.89412624210739e-11, -7.9765805072185e-11, -9.119478783237156e-11], [3.356876998594771e-10, 3.3443062208426966e-10, 3.3140301614054124e-10, 3.2688318718498977e-10, 3.2076447054052437e-10], [-4.909961326404755e-10, -4.719695745336594e-10, -4.6256051766668804e-10, -4.63916127735331e-10, -4.761775973527449e-10], [-4.224646188433212e-10, -4.200934322629024e-10, -4.160416455789573e-10, -4.133128006511555e-10, -4.0852002336499993e-10]], [[-0.13495425879955292, -0.11221466213464737, -0.09260040521621704, -0.0859130322933197, -0.08367754518985748], [-0.0637015700340271, 0.12561549246311188, 0.19322040677070618, 0.09871001541614532, -0.050147414207458496], [0.06943465024232864, 0.09883753210306168, 0.10400265455245972, 0.08068124204874039, 0.04247439652681351], [3.432513403822668e-05, 3.493842086754739e-05, 3.5471777664497495e-05, 3.544703940860927e-05, 3.5344797652214766e-05], [0.1389073133468628, 0.14223450422286987, 0.14671145379543304, 0.1509166806936264, 0.15511077642440796], [-0.1086602732539177, -0.1371588110923767, -0.16190962493419647, -0.1745411455631256, -0.15300367772579193], [0.002200853079557419, 0.002225864212960005, 0.0022537293843925, 0.002264525042846799, 0.0022687925957143307], [1.2404460271453477e-11, 1.2626554315997573e-11, 1.2896636883419355e-11, 1.3022192699163604e-11, 1.3086132004402895e-11], [6.978205790986181e-10, 7.16812775802822e-10, 7.333551543808881e-10, 7.339148178076016e-10, 7.307757177166252e-10], [0.005132285412400961, 0.005792149342596531, 0.006288869306445122, 0.006382247898727655, 0.006157906260341406], [2.2936626464797882e-07, 2.366932250197351e-07, 2.428967604828358e-07, 2.434983628063492e-07, 2.434728685329901e-07], [0.0018424282316118479, -0.09478633850812912, -0.1702406108379364, -0.2261413186788559, -0.22635558247566223], [0.0717940703034401, 0.03280619904398918, -0.0192165095359087, -0.06570558995008469, -0.09334652870893478], [0.049789413809776306, 0.05063570663332939, 0.05145161226391792, 0.051902350038290024, 0.05208023637533188], [0.0525396391749382, 0.1837560534477234, 0.24434547126293182, 0.11788345873355865, -0.05406565219163895], [0.13109824061393738, 0.25646087527275085, 0.27538609504699707, 0.14395520091056824, -0.027941051870584488]], [[-0.02223406732082367, -0.01946643553674221, -0.015792377293109894, -0.01934017613530159, -0.0129862604662776], [-0.09327881783246994, -0.07521487027406693, -0.0623188242316246, -0.05875590816140175, -0.04480299353599548], [0.000587398768402636, 0.0007327563362196088, 0.0004269553755875677, 0.0005425331764854491, 0.0007742564775981009], [-7.682537216169294e-06, -7.524315606133314e-06, -8.259760761575308e-06, -8.199599506042432e-06, -8.239569069701247e-06], [0.0012411122443154454, 0.0013273699441924691, 0.0010081941727548838, 0.001131913741119206, 0.001318441005423665], [-0.035417553037405014, -0.034394752234220505, -0.033212415874004364, -0.030860044062137604, -0.02986249327659607], [9.803203283809125e-06, 7.073285360092996e-06, -1.6188008657991304e-06, -4.199914201308275e-06, -6.296484571066685e-06], [-1.5467948102920737e-11, -1.444927771182547e-11, -1.4213035262611307e-11, -1.296064297551247e-11, -1.170429898833536e-11], [-5.127789859393772e-10, -5.294695792912307e-10, -5.284824244888853e-10, -5.248333989626985e-10, -5.089689225634686e-10], [0.00015966547653079033, 0.0001577056391397491, 0.00012201372010167688, 0.00012336965301074088, 0.00013043539365753531], [-8.604164491998745e-09, -8.495909753492015e-09, -1.084566481068805e-08, -1.0830458307964363e-08, -1.0619426227265194e-08], [-0.024459993466734886, -0.07083646208047867, -0.10693568736314774, -0.10828286409378052, -0.07929518818855286], [0.0024402521084994078, 0.0020020788069814444, 0.0029246772173792124, 0.00734303193166852, 0.005126976408064365], [0.0008322539506480098, 0.00016938445332925767, -0.000792386126704514, -0.0014815161703154445, -0.0019182267133146524], [-0.1429470032453537, -0.13944056630134583, -0.11492051929235458, -0.09010843187570572, -0.03913983702659607], [0.00026951238396577537, 0.0006114004063419998, 0.0007084186072461307, 0.0007644457509741187, 0.0009801974520087242]], [[4.304148149003595e-10, 4.30552482555413e-10, 4.3098233315497225e-10, 4.352323501599642e-10, 4.3976655650368457e-10], [2.511962027273995e-10, 3.0335500778022606e-10, 3.400637549333396e-10, 3.5771940964934856e-10, 4.063338554516349e-10], [-4.102134465444607e-10, -4.201325121133692e-10, -4.2818193435323337e-10, -4.3356929158022695e-10, -4.3519143844150676e-10], [8.864560967864962e-14, 8.871995206636424e-14, 8.868755475019766e-14, 8.847435994550554e-14, 8.811213477594171e-14], [-2.5400914704931665e-10, -2.532271614619219e-10, -2.5167687378591097e-10, -2.4985685742606734e-10, -2.480057270659586e-10], [2.2148369249741506e-10, 2.0935803091148841e-10, 2.0237803100009444e-10, 2.0106710740819267e-10, 2.0602700101512994e-10], [-4.25136922194147e-12, -4.407451834054221e-12, -4.4446078761861685e-12, -4.373484213671119e-12, -4.2017400843363806e-12], [-6.048804758203471e-19, -5.257414699791964e-19, -4.3666818007764875e-19, -3.775213541600805e-19, -3.398349279039821e-19], [-8.618363369326718e-18, -8.603006761254671e-18, -8.598247991190654e-18, -8.610601933639133e-18, -8.607530612024724e-18], [8.03081125905214e-12, 8.019237184020422e-12, 7.996867057435963e-12, 7.96157671040243e-12, 7.92397310961368e-12], [-3.9840220085094434e-15, -3.863987699004616e-15, -3.8220769322909465e-15, -4.108838242517995e-15, -4.384735931680034e-15], [-4.890667870682819e-10, -4.906151596095754e-10, -4.837308886784797e-10, -4.698795241786513e-10, -4.54041360065105e-10], [3.167773821033393e-10, 3.7698039134781425e-10, 4.0224254482801314e-10, 4.0158959491165547e-10, 3.915156532308117e-10], [-2.542699384378011e-10, -2.3936477799857414e-10, -2.203512511345096e-10, -2.0029966574242053e-10, -1.8086718234222587e-10], [-3.102441636926301e-10, -2.945542143528712e-10, -2.8246632810535743e-10, -2.745247640323356e-10, -2.705728419094555e-10], [-1.2066145305134057e-10, -1.1440916269922496e-10, -1.108519040449174e-10, -1.1080113909711642e-10, -1.0998867094880183e-10]]], "conv2.bias": [-8.582002237744746e-07, -0.0003070987295359373, -0.0001402519701514393, -4.032123683828104e-07, -7.830427506405613e-08, -0.0005873565678484738, -3.0966257327236235e-06, -4.478258233575616e-06, -2.94294750347035e-05, -0.0001004805599222891, 0.5239314436912537, -7.231219115055865e-06, -1.153053759139766e-07, -2.6854973106393842e-11, -0.12367014586925507, -7.035687588086148e-09, -0.0814926028251648, -1.726001208623984e-08, -0.1144494116306305, -0.2657785415649414, -4.114724288228899e-05, -0.10922876745462418, -0.3758823275566101, -0.02325892075896263, -0.20071667432785034, -6.036946797394194e-05, -5.208408310863888e-06, -0.001620278344489634, -1.0485481993782741e-07, 0.2809988558292389, 0.08640961349010468, -1.3135775134287542e-07], "act2.weight": [-0.0020651211962103844], "conv3.weight": [[[1.915645918802722e-13, 2.915708852743032e-13, 1.1645210891506746e-13, 8.227176535521852e-13, 9.491029923786032e-13], [-1.9787364802237306e-10, -2.1300036734395178e-10, -2.2785419384607764e-10, -2.391107589705399e-10, -2.4850935198550417e-10], [2.52661676303223e-11, 2.5183246113447133e-11, 2.5118877464147538e-11, 2.5053939825547822e-11, 2.502331848674988e-11], [-7.097643870204728e-13, -7.32483789334798e-13, -7.400238191332398e-13, -7.315759868557759e-13, -7.019850195924549e-13], [9.374156995350241e-14, 8.442935071776084e-14, 7.671631613390822e-14, 7.136748603111392e-14, 6.843406863323714e-14], [1.2968152077519335e-05, 1.3894637959310785e-05, 1.4428332178795245e-05, 1.4358332919073291e-05, 1.3904274055676069e-05], [3.7723470180939245e-13, 3.8093348462588106e-13, 3.965120332766192e-13, 4.387669698055485e-13, 4.972210252036924e-13], [2.766730204314949e-12, 2.7639333963908053e-12, 2.75959160037087e-12, 2.742061785965255e-12, 2.7217854706163003e-12], [2.4254299957338077e-11, 2.4241412696635045e-11, 2.4231169154509402e-11, 2.4205686066647303e-11, 2.4183195376781264e-11], [3.9307050669901145e-11, 3.955730881743946e-11, 3.97080666958427e-11, 3.9738649870724174e-11, 4.006528095401585e-11], [-0.002073699375614524, -0.0020541527774184942, -0.0020284252241253853, -0.001995544880628586, -0.0019629138987511396], [-9.431236173973456e-13, -9.406740794290491e-13, -9.383317690556114e-13, -9.410733910891755e-13, -9.444405977762638e-13], [8.063740105333783e-14, 8.035710768669602e-14, 8.01184612360048e-14, 8.017191917937191e-14, 8.026757291603945e-14], [-1.0096967573983222e-16, -1.0389487755339534e-16, -1.0399008273317774e-16, -9.844447861816503e-17, -8.637127465214116e-17], [3.3251052400373737e-07, 3.4494138390073203e-07, 3.3170880442412454e-07, 2.8856604217253334e-07, 2.178652920292734e-07], [-1.8983551641998768e-14, -1.8969152081895445e-14, -1.8984383428352972e-14, -1.9174532160616195e-14, -1.9322127651675257e-14], [-5.899223864958003e-08, -5.868106356388125e-08, -5.822100490604498e-08, -5.747768483388427e-08, -5.6712828211402666e-08], [6.353923633170989e-15, 6.319502331776942e-15, 6.2944670024714204e-15, 6.257141225101239e-15, 6.218141287110809e-15], [3.311276088879822e-07, 3.210585077795258e-07, 3.129697176973423e-07, 3.0572451237276255e-07, 3.0192819622243405e-07], [1.3786601584797609e-06, 1.3410896144705475e-06, 1.3074242133370717e-06, 1.2796216424248996e-06, 1.2669577245105756e-06], [-1.4022581706907289e-11, -1.4103355636119197e-11, -1.4186109752178933e-11, -1.4434088473069817e-11, -1.4702740760985655e-11], [1.1515115261317987e-07, 1.1462011428875485e-07, 1.1391534116000912e-07, 1.1349533224347397e-07, 1.138693264124413e-07], [4.4990184733251226e-07, 3.8310062677737733e-07, 3.222233431188215e-07, 2.800503580147051e-07, 2.488557129254332e-07], [-1.1293740165285726e-08, -1.130504223567641e-08, -1.1313793457645716e-08, -1.1308347147576114e-08, -1.1295913537878732e-08], [5.461574232867861e-07, 5.796193818241591e-07, 6.140521691122558e-07, 6.459690098381543e-07, 6.73380498028564e-07], [-3.7237157801683907e-11, -3.71566076518004e-11, -3.7084817855470575e-11, -3.6708362044501897e-11, -3.6298960365277466e-11], [2.010101937330311e-12, 2.0150584759820456e-12, 2.0186820964829266e-12, 2.0158156827793094e-12, 2.0099913487087173e-12], [2.6477424697191054e-09, 2.76707567969936e-09, 2.853114189349526e-09, 2.84954859708364e-09, 2.8390465534045006e-09], [3.277766784121755e-14, 3.2909273044298346e-14, 3.302875551183804e-14, 3.300561457171905e-14, 3.293335927318647e-14], [-0.0005839080549776554, -0.0005749687552452087, -0.0005646142526529729, -0.0005529969348572195, -0.0005423176917247474], [1.7806792129704263e-07, 1.9665057493511995e-07, 2.3487453404413827e-07, 2.655326909462019e-07, 2.0915575760227512e-07], [4.1783511871805457e-14, 4.171110071921058e-14, 4.1657276857610254e-14, 4.16694165338103e-14, 4.1672028783419635e-14]], [[-7.448958510018928e-15, -8.409582810664767e-15, -7.768659237498803e-15, -7.52194479798499e-15, -7.98008374333116e-15], [-9.7921584035765e-12, -1.056468801330368e-11, -1.1200916062714672e-11, -1.1655879386673895e-11, -1.1990835407926781e-11], [-6.067625649966088e-14, -5.815278271946445e-14, -5.6480580439390374e-14, -5.4901622934281843e-14, -5.323628839734411e-14], [-2.7288431651262247e-16, 1.891104154536774e-16, 4.237584074127097e-16, 3.9456152582798877e-16, 9.215214878569865e-17], [-2.024916467397763e-17, -3.7335915295769076e-17, -5.528469234059796e-17, -7.405270244665446e-17, -9.005506726186442e-17], [3.939304598125047e-14, -4.776807747096379e-13, -7.54832394506133e-13, -7.301930869847706e-13, -3.945126289452844e-13], [-5.90638106999497e-15, -5.993422599171296e-15, -6.1765888153338284e-15, -6.493273682005004e-15, -6.97345242463873e-15], [1.0716621038112887e-14, 1.0934514334563425e-14, 1.1023271528974414e-14, 1.0949586438826868e-14, 1.0764883281381542e-14], [5.4017381523720556e-14, 5.750015399800038e-14, 5.693173390402054e-14, 5.6199988917151125e-14, 5.5892519345429603e-14], [-7.562704802677178e-13, -5.825721849372911e-13, -6.902070061320931e-13, -1.1306192527343883e-12, -1.9029131569092694e-12], [-1.897662684768875e-07, -1.9173801035776705e-07, -1.936242028932611e-07, -1.947177281635959e-07, -1.9446700605385558e-07], [7.82570351836459e-15, 7.75286207303251e-15, 7.726743812103923e-15, 7.737990715577566e-15, 7.78907019042879e-15], [3.764846780632795e-16, 3.812749670173578e-16, 3.837656144591999e-16, 3.8372731268811622e-16, 3.819190826341855e-16], [1.519691051503594e-19, 1.1321628798831532e-19, 9.152527295700506e-20, 8.951355032023049e-20, 1.0692154692436335e-19], [-1.0113804904676726e-08, -2.1048556675395957e-08, -2.043699254272724e-08, -7.940380797322177e-09, 1.9782966376169497e-08], [-1.8988939459757575e-16, -1.8953180111004663e-16, -1.8823603922409456e-16, -1.8592213050065302e-16, -1.8343009339538187e-16], [3.060013908928738e-10, 3.042273932774009e-10, 3.02394109752413e-10, 3.0037905496271833e-10, 2.98507024654171e-10], [4.3720148203012547e-17, 4.4436906821234646e-17, 4.4776798643655135e-17, 4.458941245640982e-17, 4.41156133277068e-17], [-2.133348220301201e-10, -2.141399974009417e-10, -2.137196530860308e-10, -2.096414569718874e-10, -2.0381242527012233e-10], [7.505328025736446e-10, 3.687388727691143e-10, 3.894287670114238e-12, -3.067573695059167e-10, -5.033378158714186e-10], [4.696603891386764e-13, 4.225216639237861e-13, 3.503211447059701e-13, 2.499030442217748e-13, 1.3990403887470526e-13], [3.5113973950728905e-09, 3.4723692809990325e-09, 3.403191062290034e-09, 3.312737195670934e-09, 3.199231102257727e-09], [6.081720460571205e-09, 1.0928522087283454e-08, 1.1825785684038692e-08, 1.1520151055322003e-08, 1.0887402979165017e-08], [-5.6262803443951626e-11, -4.591802285625057e-11, -3.754421773471961e-11, -3.2535089206087164e-11, -3.1142931983252353e-11], [-9.338855244678257e-10, -8.902400483457029e-10, -8.501920834014243e-10, -7.954067959836664e-10, -7.461384288198758e-10], [1.1998091322545923e-12, 1.2759872368775516e-12, 1.3207678223672858e-12, 1.2957482309339241e-12, 1.1693576879370782e-12], [1.5034379110038208e-14, 1.53416420057206e-14, 1.5352426429205042e-14, 1.5356910621627806e-14, 1.5376524516554427e-14], [-2.5117245089356643e-11, -2.793657319366538e-11, -2.98731456238599e-11, -3.074475049547054e-11, -3.103443543817086e-11], [-5.755284474127551e-16, -5.809467583576633e-16, -5.680818631360874e-16, -5.210897987113989e-16, -4.436646345852514e-16], [-3.460306885472164e-08, -3.565174111486158e-08, -3.653588009910891e-08, -3.707383200435288e-08, -3.7228513605214175e-08], [2.9200050710720404e-10, 2.8104063520828504e-10, 2.757734041125559e-10, 2.7226443322092564e-10, 2.4685237187682674e-10], [1.7628366821842434e-10, 1.7471434021754106e-10, 1.7712405153691435e-10, 1.7312858091589334e-10, 8.607677071115205e-11]], [[1.6461534758471612e-14, -8.007364556979852e-16, -7.527591966644334e-15, -8.676273675206625e-15, -7.211005779311514e-15], [4.771494865885018e-10, 4.297719957691015e-10, 3.840538997934573e-10, 3.422604977210142e-10, 3.078173826942532e-10], [1.0788396218042173e-11, 1.0470428343789528e-11, 1.0123016140617391e-11, 9.774686268726462e-12, 9.350541174679705e-12], [-3.7158688262874454e-14, -3.6682421965424095e-14, -3.722047423417897e-14, -4.1342078957277983e-14, -4.695572205257008e-14], [-2.366732874405867e-14, -2.4531851227607877e-14, -2.5281702390757797e-14, -2.589654327837896e-14, -2.6251827859972987e-14], [-1.2771711466186275e-10, -1.2518322489718514e-10, -1.2242895586211944e-10, -1.274545607943267e-10, -1.3434717227589488e-10], [1.253246963671406e-12, 1.2589549628488905e-12, 1.2687900860161583e-12, 1.2829008688708399e-12, 1.297513962592034e-12], [4.771564003289153e-13, 4.750127157934769e-13, 4.736478136785349e-13, 4.742388122827568e-13, 4.751525236636189e-13], [6.3845777623083855e-12, 6.280416291193358e-12, 6.212278955142203e-12, 6.202963923757077e-12, 6.2487428426072356e-12], [-8.602707435301227e-11, -9.326474315063393e-11, -1.0155070534478838e-10, -1.1200971400393556e-10, -1.2259419868154708e-10], [-0.0006718395161442459, -0.0006516242283396423, -0.0006333141936920583, -0.0006206798716448247, -0.0006113331182859838], [1.4098998661268847e-12, 1.4099075639623093e-12, 1.4094980608017615e-12, 1.40831085942289e-12, 1.4086200738824828e-12], [-2.992179249801364e-15, -2.4830624735576413e-15, -2.13829952347617e-15, -2.0742064461815686e-15, -2.2993638971877594e-15], [1.135557928970043e-17, 1.1384178232198838e-17, 1.1316806852848231e-17, 1.1275239372706216e-17, 1.1294442370626635e-17], [-3.182490218023304e-07, -2.976985342684202e-07, -2.791755662201467e-07, -2.872918685170589e-07, -2.9854541594431794e-07], [-3.3776024918564726e-14, -3.405349597142629e-14, -3.429705521321158e-14, -3.446722413231497e-14, -3.4556938473956356e-14], [-1.5863189872789007e-08, -1.5827367860765662e-08, -1.5840420530821575e-08, -1.5899992433787702e-08, -1.5966271860179404e-08], [1.2098062530141213e-15, 1.1971132525412788e-15, 1.1908599259290555e-15, 1.2013934159028732e-15, 1.2178170671127788e-15], [-7.099566090573717e-08, -7.112093669547903e-08, -7.108994282134518e-08, -7.103720633949706e-08, -7.089251852221423e-08], [3.4291380757167644e-07, 3.335269411763875e-07, 3.2402849114987475e-07, 3.1663157074035553e-07, 3.118435643045814e-07], [-8.753581193232662e-12, -8.805212635409898e-12, -8.997236115859675e-12, -9.698656808221351e-12, -1.0612149180244668e-11], [-3.6372340694867944e-09, -4.9828052794964606e-09, -7.924339406883973e-09, -2.0501667918892963e-08, -3.933672942935118e-08], [1.917581613497532e-07, 2.461377732743131e-07, 3.065655960199365e-07, 3.435615951730142e-07, 3.278572933140822e-07], [4.233128514385953e-09, 4.196827774194389e-09, 4.1704937281394905e-09, 4.155912947112483e-09, 4.1559333752161365e-09], [1.7402373941877158e-07, 1.723566356304218e-07, 1.7371858973547205e-07, 1.7477138669619308e-07, 1.7681183805962064e-07], [-1.0708397059702723e-12, -1.0634137884504846e-12, -1.0473783298992068e-12, -9.038912196848714e-13, -7.397864330675741e-13], [9.890895611222583e-13, 1.0219408869485691e-12, 1.0400162718873784e-12, 1.0433782744040387e-12, 1.0336987342485227e-12], [4.646968587707079e-09, 4.686034671408379e-09, 4.721168789245667e-09, 4.727449987029786e-09, 4.730690061904852e-09], [3.163659926478518e-14, 3.1661989924412076e-14, 3.1656582466076805e-14, 3.152343227490022e-14, 3.135694964318328e-14], [6.82129175402224e-05, 7.754998659947887e-05, 8.506947051500902e-05, 8.88818540261127e-05, 9.016955300467089e-05], [-2.9329197404059926e-10, -1.895743784174897e-09, -1.706693231184886e-09, -2.1811286110562378e-09, -2.4344219973215786e-09], [9.315908064226868e-15, 9.24298869186364e-15, 9.189219887404884e-15, 9.187467376237015e-15, 9.191027455714325e-15]], [[-2.696614199299008e-12, -2.668715075315742e-12, -2.614136121112387e-12, -2.561958457880653e-12, -2.534282679544919e-12], [1.405041361035586e-10, 1.4166162687345718e-10, 1.3492897077416188e-10, -1.4400763567734565e-11, -2.4655609151547075e-11], [-2.384479766415204e-11, -1.1572062752485124e-11, -2.6427998244676898e-12, 2.88563205448622e-12, 5.6881487367488326e-12], [-1.4415180160654018e-08, -9.836143455288493e-09, -7.383983646747083e-09, -6.465098678631875e-09, -6.318332967936158e-09], [-2.4240212701670538e-14, -2.0579110992873482e-14, -1.740141268114035e-14, -1.5036986277449857e-14, -1.3623197655957073e-14], [-2.4985405411293016e-10, -2.0976351211565714e-10, -1.8696082182412255e-10, -1.862393850249333e-10, -2.018382405655217e-10], [2.57889711105172e-13, -1.9110554068044183e-13, -6.073588355338944e-13, -8.561130862387578e-13, -9.303104077026947e-13], [5.431414324373607e-13, 6.009532064685241e-13, 6.393922392412821e-13, 6.467012255567672e-13, 6.353002976119959e-13], [3.648600789985662e-13, -1.2720119011919162e-12, -2.6062648133401423e-12, -3.4727409749940596e-12, -3.786691012835908e-12], [2.7118756892874352e-11, 1.2396599372022088e-11, 2.8669825194449494e-11, 3.485844946027328e-11, 3.1673986350400085e-11], [2.0956817934347782e-06, 2.079156729450915e-06, 2.027432856266387e-06, 1.951388867382775e-06, 1.850714738793613e-06], [-1.606263516293338e-12, -1.7070252546561027e-12, -1.7732854030658163e-12, -1.795046099609121e-12, -1.7862572315383018e-12], [2.1572495986820275e-14, 1.4638928226085382e-14, 8.987636210353728e-15, 5.358415127625429e-15, 4.1703658687736005e-15], [-7.301832301682425e-17, -6.882230708458366e-17, -6.487517325504802e-17, -6.195412057943746e-17, -6.066819883405233e-17], [2.1915691377216717e-06, 1.7098175248975167e-06, 1.3783720760329743e-06, 1.217032945532992e-06, 1.2246875940036261e-06], [1.327607457562302e-13, 1.334436575996245e-13, 1.337152909014136e-13, 1.3347738983971597e-13, 1.3269783492517173e-13], [-4.143656973099041e-09, -1.1127654353515481e-08, -1.647968872475758e-08, -1.8939683599228374e-08, -1.80865971088906e-08], [-5.8546570030708865e-15, -6.460206362777143e-15, -6.8425862578044144e-15, -6.9949704496307785e-15, -6.9270794883589254e-15], [-3.332044684611901e-08, -3.375900803348486e-08, -3.403857107286967e-08, -3.4165982043532495e-08, -3.419875227450575e-08], [-1.0921293096544105e-06, -1.0828598533407785e-06, -1.0746007319539785e-06, -1.0599172810543678e-06, -1.0523244782234542e-06], [2.753978815828173e-11, 3.8731833712501995e-11, 4.5308035101498945e-11, 4.746601028893238e-11, 4.559260260994513e-11], [-1.91409435501555e-06, -1.926933009599452e-06, -1.9710821561602643e-06, -2.034391627603327e-06, -2.0930574464728124e-06], [-7.56120789446868e-06, -1.1744094990717713e-05, -1.6984909962047823e-05, -2.0522835256997496e-05, -2.0184435925330035e-05], [2.4228203887588506e-09, 2.5665678471398223e-09, 2.6723521173721565e-09, 2.7335871344291718e-09, 2.7440971717140883e-09], [-4.274811544746626e-07, -3.80809325406517e-07, -3.3991105397035426e-07, -3.0332583378367417e-07, -2.6713590273175214e-07], [-1.9162972597630556e-10, -2.072375743233934e-10, -2.1596061050566107e-10, -2.174377067287736e-10, -2.1187088194984938e-10], [2.506578061431397e-12, 2.4482609949777467e-12, 2.3707756677954217e-12, 2.308949472590305e-12, 2.2840616117209e-12], [3.605916953919319e-10, 3.9729508571895167e-10, 4.447633095150394e-10, 5.114508261350181e-10, 5.980755335421861e-10], [-4.2244023356436886e-14, -2.312928663969916e-14, -8.461206927701075e-15, 1.016400149673113e-15, 5.3048737515130114e-15], [1.6488010032844613e-06, 1.696342451396049e-06, 1.728043912407884e-06, 1.7252339148399187e-06, 1.7063717905330122e-06], [1.5280649279247882e-07, 1.4986150631557393e-07, 1.4342100485009723e-07, 1.33334282281794e-07, 1.1974242397627677e-07], [9.675270567360839e-13, 9.181787274936681e-13, 8.874477758560873e-13, 8.80604400163576e-13, 8.959081306686434e-13]], [[-3.4233557655305447e-10, -3.2895494661566715e-10, -3.185597341470725e-10, -3.177609564364303e-10, -3.198264431070186e-10], [-3.0725516353413695e-07, -1.4317968179966556e-06, 4.2153274648626393e-07, -2.119476221196237e-06, 4.968872531208035e-07], [1.1654529563642768e-09, 1.4583169116733075e-09, 1.756675360731208e-09, 2.029576506856756e-09, 2.2429669233048344e-09], [2.1664892102535305e-10, 2.1623974832962745e-10, 2.1618226653252748e-10, 2.1672473538014714e-10, 2.1729942845105654e-10], [3.731516912955021e-14, -4.925411749463759e-13, -1.0649010969907002e-12, -1.6159868582166226e-12, -2.162211165321337e-12], [-4.991346003180297e-08, 9.048406468536996e-09, 8.600880896381113e-09, 1.347523692629693e-07, 3.476689300896396e-07], [7.104441479555135e-10, 7.884920494305447e-10, 8.057095546298854e-10, 7.200225415893158e-10, 5.705498296038058e-10], [-3.506237800099399e-10, -4.6384041052505154e-10, -5.750502851675776e-10, -7.079326014292064e-10, -8.37922842222838e-10], [-3.0346054558094693e-09, -3.028771011770459e-09, -3.0603541922857858e-09, -3.1198996719439265e-09, -3.203048493105598e-09], [-2.8385136019437596e-08, -2.7987484330083134e-08, -2.7149670955850524e-08, -2.549186284284133e-08, -2.2906579744130795e-08], [-0.0017109012696892023, -0.0017293530981987715, -0.00174401153344661, -0.001749110990203917, -0.00175528007093817], [-8.226160308488772e-10, -8.336612511428143e-10, -8.38393576785279e-10, -8.361319414618151e-10, -8.291626274470332e-10], [3.487773611587919e-11, 3.9252372185938356e-11, 4.247699414428041e-11, 4.378533646764993e-11, 4.3772475227799035e-11], [-5.0577777236564606e-15, 7.428332410720339e-15, 1.516797822867684e-14, 1.8264125902314222e-14, 1.879185283944207e-14], [5.095374945085496e-06, 1.8065677068079822e-05, 2.9676180929527618e-05, 3.8372101698769256e-05, 4.357540819910355e-05], [-1.5939354870708744e-12, -1.501447837587433e-12, -1.4930899398801767e-12, -1.5617132153450397e-12, -1.7102279878736248e-12], [-9.825367669691332e-06, -9.852804396359716e-06, -9.859338206297252e-06, -9.859345482254867e-06, -9.857651093625464e-06], [3.909476908869891e-12, 3.910481747443351e-12, 3.909315145905756e-12, 3.889205797691364e-12, 3.85621786239132e-12], [-5.8591381275618915e-06, -6.038987066858681e-06, -6.07204356128932e-06, -5.895221420360031e-06, -5.5755572248017415e-06], [2.6826153771253303e-05, 2.603159191494342e-05, 2.5304683731519617e-05, 2.481898627593182e-05, 2.434791713312734e-05], [8.942586227078664e-09, 8.81556250220683e-09, 8.830864040021424e-09, 8.964474496053754e-09, 9.046388527167437e-09], [-8.670022907608654e-06, 4.222280767862685e-05, 7.833076233509928e-05, 7.350875966949388e-05, 2.107593900291249e-05], [-3.150835618725978e-05, -2.900994149968028e-05, -2.705068254726939e-05, -2.5987083063228056e-05, -2.5775094400160015e-05], [-2.071486981947146e-08, -1.4948547288895497e-07, -2.431139023428841e-07, -2.665251770395116e-07, -2.388794371199765e-07], [-3.3787298434617696e-06, -2.4403993847954553e-06, -1.6954629700194346e-06, -2.390598183410475e-06, -3.6723586163134314e-06], [-5.1781174903453575e-09, -4.114963481072209e-09, -4.073217763078674e-09, -4.967899869257053e-09, -6.762210347233122e-09], [1.9034985393462378e-11, 3.344931623350256e-11, 4.451538443417391e-11, 4.851395674076997e-11, 4.779420262335243e-11], [-7.694631563026633e-07, -7.372217396550695e-07, -7.060311304485367e-07, -7.184282821981469e-07, -7.363952363448334e-07], [-1.2152548065080815e-11, -1.3942143446687982e-11, -8.59000977987412e-12, 4.0340521721693445e-12, 1.2672634643051683e-11], [-0.00037465826608240604, -0.00037696267827413976, -0.0003776185621973127, -0.0003740759566426277, -0.0003702777612488717], [-1.8296554117114283e-05, -1.5482317394344136e-05, -1.4840981748420745e-05, -1.7338708858005702e-05, -1.9497496396070346e-05], [1.1285474291189423e-11, 9.274960140193134e-12, 8.161115880311876e-12, 9.008870038851313e-12, 9.991815534682313e-12]], [[2.3420987349869627e-20, 2.0756048907532454e-20, 2.5172776153188294e-21, -3.2214969008532475e-20, -4.2679550158584133e-20], [3.529310958066967e-12, 3.729155005627316e-12, -3.012561337542574e-12, -6.585478148045387e-13, -1.9420565416233826e-12], [-7.063695108405942e-21, -1.301658459912316e-21, 3.1374536542513693e-21, 1.689654432865311e-21, -1.5040719387950643e-21], [5.436119914083043e-21, 5.435651393814214e-21, 5.43523578402402e-21, 5.4111829227746265e-21, 5.3841896929415484e-21], [5.095490633489275e-22, 4.3683002232658e-22, 3.547864686996774e-22, 2.9931263388483235e-22, 2.7833865257230576e-22], [-5.47384030321187e-19, 9.43429280043477e-20, 7.245609993500053e-19, 1.5342863432193625e-18, 2.263652744940418e-18], [6.491453660905031e-20, 6.103123382584356e-20, 5.470585476748444e-20, 4.393809576706076e-20, 2.7921807925328495e-20], [6.335839985051066e-21, 6.823619668103064e-21, 7.227754750678471e-21, 7.416974739180677e-21, 7.517372170442167e-21], [5.851151243303632e-20, 6.925159319468215e-20, 7.518298224987314e-20, 7.430037407393052e-20, 6.847815347255093e-20], [8.739187987041114e-19, 6.406910890917225e-19, 3.9687854371655774e-19, 2.3943687948820713e-20, -3.6976379588161677e-19], [3.842264268522858e-15, 3.5777718779955985e-15, 3.2505232399227414e-15, 2.929659747964524e-15, 2.6808721953123062e-15], [-3.440569304518738e-21, -3.4614988319415336e-21, -3.4586477245469965e-21, -3.42046170705031e-21, -3.362461321149998e-21], [1.1328373289465198e-22, 1.1086213186401521e-22, 1.096956274662468e-22, 1.115427610530399e-22, 1.1446003178941962e-22], [-4.222007723608078e-25, -4.481337364552367e-25, -4.634788066950156e-25, -4.607674424599644e-25, -4.457662662710553e-25], [2.748903128778693e-15, 2.8716936834938863e-15, 2.8811893463490806e-15, 2.757558746708448e-15, 2.495037401849449e-15], [1.2042278524738282e-22, 1.2027114724873762e-22, 1.2069214653663597e-22, 1.211365465944268e-22, 1.214316941689498e-22], [6.775432956350501e-16, 6.812263537083895e-16, 6.847467285162967e-16, 6.9022067893792765e-16, 6.939776935754741e-16], [-2.6807285851386643e-23, -2.785201852438152e-23, -2.83649327295126e-23, -2.7093872707366195e-23, -2.3437537121546635e-23], [-8.467250507779734e-16, -7.003721041129744e-17, 4.531524623856836e-16, 6.284027850792103e-16, 6.016155269409707e-16], [-7.221689617633469e-16, -6.362602862144148e-16, -5.637319254354629e-16, -5.128051282729822e-16, -4.691630791546844e-16], [2.3269040410574744e-19, 2.406243069510498e-19, 2.46099725618268e-19, 2.5006212754755015e-19, 2.529929318554021e-19], [1.8728800553881406e-15, 1.755392879834825e-15, 1.6405175303743679e-15, 1.4783628135014255e-15, 1.3144444681531813e-15], [5.75135966755711e-17, 6.340393161958773e-18, 1.0808287645113907e-17, 1.0547460061746951e-16, 2.835986480206789e-16], [5.589005454572754e-18, 5.763618318799023e-18, 5.8185468337853006e-18, 5.734236449850833e-18, 5.508568757446873e-18], [-2.114792718063528e-16, -1.7927546296354853e-16, -1.1857724078198297e-16, -5.923662050896395e-17, -6.441570420327687e-17], [4.758394730814622e-19, 4.40741062317495e-19, 4.3015992301808153e-19, 4.474023994891728e-19, 4.921392221481845e-19], [-2.2847120298594593e-21, -2.2162678828804897e-21, -2.201720732430137e-21, -2.247907541310643e-21, -2.3417366011309006e-21], [4.320079789233745e-18, 4.78254571636418e-18, 5.575685365168813e-18, 6.900023446152443e-18, 8.261673163026502e-18], [-8.956653511587364e-23, -1.6768874637990034e-23, 2.9056605971210386e-23, 8.91318790679841e-23, 3.49638646422131e-23], [2.1172162381443e-15, 2.2402285037334373e-15, 2.3341280351672072e-15, 2.3861386109857e-15, 2.4133196865048535e-15], [1.3087144755534631e-16, -8.887629518430695e-17, -2.1915791664078865e-16, -3.033559297434019e-16, -1.7197966378638182e-16], [-9.419969822796665e-23, -7.548389752095124e-23, -5.755416830699599e-23, -4.7011187459123724e-23, -1.370370825909948e-23]], [[1.1124110521620878e-08, 1.1346526385125344e-08, 1.2586031772343631e-08, 1.3689990474574643e-08, 1.500777813134846e-08], [4.866196334774031e-08, 1.042921908833705e-07, -1.3851416724719456e-07, -4.684864052251214e-07, -7.11583368229185e-07], [4.1373559156454576e-07, 4.357767693363712e-07, 3.7970562516420614e-07, 3.2154238738257845e-07, 3.322546717754449e-07], [3.1613331952229373e-09, 3.1777294129398115e-09, 3.0187028432493435e-09, 2.8127404849698223e-09, 2.743828719786734e-09], [-3.8599989871102025e-09, -3.610238330509219e-09, -2.9726348049763374e-09, -1.9054569033727375e-09, -6.726850743099533e-10], [-1.3976329682918731e-05, -1.3190438949095551e-05, -1.4533371540892404e-05, -1.9129129213979468e-05, -2.100958226947114e-05], [2.868888948626136e-08, 2.8856959488621214e-08, 2.7592903961703996e-08, 2.6298174304884014e-08, 2.6243936801506607e-08], [2.5641377021656808e-08, 2.6177595202625525e-08, 2.4812527144035812e-08, 2.2881694761167637e-08, 2.2308697111839138e-08], [2.2431170521031163e-07, 2.2533824051151896e-07, 2.1248585824196198e-07, 1.9421513286488334e-07, 1.864482044311444e-07], [7.927193905743479e-07, 8.03495311174629e-07, 7.721976658103813e-07, 7.257281140482519e-07, 7.108047839210485e-07], [-0.209716334939003, -0.14684945344924927, -0.1422930359840393, -0.15646150708198547, -0.26878517866134644], [-5.376669065526585e-08, -5.374877076746998e-08, -5.783612166965213e-08, -6.599977808718904e-08, -7.158725878753103e-08], [4.492107519293853e-10, 4.4332634785426706e-10, 3.8036795935170176e-10, 2.251151487442371e-10, 2.148296991688614e-11], [7.778299488878093e-13, 7.74177217558597e-13, 7.671363002302589e-13, 7.547311300232229e-13, 7.420905253144316e-13], [0.05572919920086861, 0.055475883185863495, 0.05514519661664963, 0.05459139868617058, 0.05457198992371559], [-8.20403953105675e-11, -8.053704231292258e-11, -8.260393757897333e-11, -8.825033759318757e-11, -9.161234965082699e-11], [0.00043496416765265167, 0.00043977252789773047, 0.00038196760579012334, 0.0003145162481814623, 0.0003058077418245375], [7.547265590268637e-11, 7.758055309281531e-11, 7.094480558578198e-11, 6.304271688017948e-11, 6.207104275013364e-11], [0.0001841498160501942, 0.00020278195734135807, 0.00016731549112591892, 0.00013872816634830087, 0.00015374051872640848], [-0.01959219016134739, -0.0022706238087266684, -0.006432975176721811, -0.03550863265991211, -0.10225310176610947], [1.627524852665374e-07, 1.671672720249262e-07, 1.5097710104328144e-07, 1.3192023118335783e-07, 1.3010703980853577e-07], [0.03525552526116371, 0.035156454890966415, 0.03366146981716156, 0.031145602464675903, 0.028643961995840073], [0.36481982469558716, 0.47242146730422974, 0.29610005021095276, -0.07988718152046204, -0.2957015931606293], [0.00013379374286159873, 0.00013406398647930473, 0.00012359104584902525, 0.00011175988765899092, 0.00010752821253845468], [0.003196452045813203, 0.0031979118939489126, 0.0030322878155857325, 0.0027480446733534336, 0.0024094819091260433], [3.940437807159469e-07, 3.9171419530248386e-07, 3.6358238730826997e-07, 3.372562389358791e-07, 3.3762742646104016e-07], [3.62834313705207e-08, 3.659908287545477e-08, 3.471462406423598e-08, 3.208660359632631e-08, 3.115514246587736e-08], [6.2898698161006905e-06, 6.434591341530904e-06, 5.733504622185137e-06, 4.918242666462902e-06, 4.753475423058262e-06], [3.622580291295918e-10, 3.832554551497225e-10, 3.3774480434622944e-10, 2.8948923813665317e-10, 2.95586694010197e-10], [-0.02981998771429062, 0.006381999235600233, 0.009225721471011639, 0.03509281203150749, 0.02084900625050068], [0.0005289748078212142, 0.00014681631000712514, -0.0035402709618210793, -0.00042824377305805683, 0.0008389054564759135], [-1.6334494867820126e-09, -1.6226324728307873e-09, -1.6922697687604682e-09, -1.7888569514568076e-09, -1.8367523058060442e-09]], [[4.3365826337890545e-13, 4.226342583193987e-13, 4.0697393371980084e-13, 3.956488999271035e-13, 3.8866986343776e-13], [-4.687136963277272e-12, -4.38227145543868e-12, -3.784879527846119e-12, -3.0756636387047065e-12, -2.5084337818698232e-12], [-1.5261828259505172e-12, -2.251236740427598e-12, -2.4040134032760063e-12, -2.2057219332266564e-12, -2.1026067172080776e-12], [-2.7272068880545425e-14, -2.7186091648267324e-14, -2.6940641828943762e-14, -2.662166277353495e-14, -2.6280642226772684e-14], [1.8253805652884876e-15, 1.793661722512656e-15, 1.7301565919625671e-15, 1.6458669669527524e-15, 1.5640281258966996e-15], [-7.034088311819175e-10, -7.378998523321911e-10, -7.471067098308026e-10, -7.134511315065595e-10, -6.236967053929732e-10], [-1.09437214632635e-05, 2.5750061922735767e-06, 1.9369028905202867e-06, -2.2470360363513464e-06, -3.323366763652302e-05], [-3.1355140380807944e-13, -3.2833300965193213e-13, -3.3291723327763534e-13, -3.1753294655115227e-13, -2.9195355443108195e-13], [-1.9739104014510067e-12, -2.3784136552601476e-12, -2.7082587474719366e-12, -2.9223685103774155e-12, -3.0521685439460766e-12], [-1.5318837507088262e-13, -7.94308087186113e-13, -1.368127887455689e-13, -9.157108665086566e-13, -1.9308667620517028e-13], [1.7821275832829997e-07, 1.800172242383269e-07, 1.8105940569057566e-07, 1.818633847960882e-07, 1.8239437338252174e-07], [-4.384460459624928e-13, -4.374920293658685e-13, -4.3667234541841515e-13, -4.356188532724653e-13, -4.355964916026578e-13], [2.9041631322002104e-08, 3.536672732451507e-09, 1.0207349632196383e-08, 1.3226483019934676e-08, 9.586657689908407e-09], [1.8700516717565544e-18, 2.3137275708873875e-18, 2.8083838519407826e-18, 3.1777365390579605e-18, 3.563982942620462e-18], [-1.1676709618768655e-05, -1.1437967259553261e-05, -8.511156920576468e-06, 8.398226327699376e-07, 1.1962688404310029e-05], [-5.004724873796372e-16, -5.031995099533224e-16, -5.07599210839598e-16, -5.104338065975845e-16, -5.122450806761695e-16], [5.877539427379119e-11, 1.3153217404138218e-10, 2.0349294471699864e-10, 2.4925836394906753e-10, 2.931560272312339e-10], [-1.6122599818583724e-15, -1.6121242448285749e-15, -1.6734442421329843e-15, -1.78642234367071e-15, -1.946257037301123e-15], [5.938379121772641e-09, 5.640045319665887e-09, 5.514607437362429e-09, 5.520881085629981e-09, 5.732999408536443e-09], [4.8030962318534876e-08, 4.753167459625729e-08, 4.7669622915691434e-08, 4.863990810122232e-08, 5.0900055725833226e-08], [-9.959364062617215e-13, -1.005924944036396e-12, -1.0155108091242093e-12, -1.0199863956922295e-12, -1.02142307199099e-12], [-2.2693596335443544e-08, -2.7546503744702022e-08, -3.262872283471552e-08, -3.195732034555476e-08, -3.652792912589575e-08], [1.0626452606743442e-08, 8.067653212151527e-09, 5.860210983144043e-09, 4.659323593614317e-09, 3.966803330257562e-09], [8.064357515102927e-11, 7.956136444109418e-11, 7.788444889023083e-11, 7.607020569011524e-11, 7.33355876025854e-11], [-4.7439574046848065e-08, -5.2795456895182724e-08, -6.08768857546238e-08, -6.870914148748852e-08, -7.153929715286722e-08], [-9.113946576599918e-13, -9.691909818101974e-13, -1.0450926148791728e-12, -1.1141490291119438e-12, -1.1831499321934835e-12], [1.1125754045262712e-13, 1.083567101062971e-13, 1.0720334938773418e-13, 1.0692801624603149e-13, 1.0830530537079414e-13], [-5.4639606617001846e-08, 1.217804257436228e-08, -2.622150496733866e-09, 3.242034551931283e-08, -6.573956312649898e-08], [-1.3198533452686394e-14, -1.289164748666553e-14, -1.2579609019226518e-14, -1.2402059902053703e-14, -1.241796379267135e-14], [5.4599240684183314e-08, 5.7488094284963154e-08, 6.042069600198374e-08, 6.33730437016311e-08, 6.650533634910971e-08], [-4.646302453892304e-09, -4.569724154634969e-09, -3.333875397970587e-09, -2.272091181865221e-09, -2.1165313945914477e-09], [1.591708908503086e-14, 1.633326347707121e-14, 1.6560092124082333e-14, 1.666225107378478e-14, 1.6597993460340174e-14]], [[4.6767922867729794e-09, 4.404455911100058e-09, 4.238356776653518e-09, 4.183364765708575e-09, 4.260184649496068e-09], [-2.8506633498182055e-06, -3.797082172241062e-06, -8.727757290216687e-07, 2.877465249184752e-06, 3.6529841054289136e-06], [3.357556010996632e-08, 4.289912425292641e-08, 5.502128530565642e-08, 6.275640629382906e-08, 6.521422335481475e-08], [6.455954104644945e-10, 6.780379591120322e-10, 7.054095085834433e-10, 7.224162379415588e-10, 7.348734953893654e-10], [1.3075936167172841e-11, 1.1343855542411685e-11, 1.0317989518338067e-11, 9.849974134945594e-12, 1.0218355675495339e-11], [-4.187599643046269e-06, -4.084126430825563e-06, -4.087006345798727e-06, -4.274524599168217e-06, -4.583066584018525e-06], [1.1393468390963335e-08, 9.24565224380558e-09, 7.700415416422857e-09, 6.9980767847255265e-09, 7.197850315776577e-09], [4.017173260706386e-09, 4.018328336741206e-09, 4.017647992071716e-09, 4.003593012669171e-09, 3.9901064674552345e-09], [2.1236852276729223e-08, 2.472397042652119e-08, 2.656671149736667e-08, 2.676695842751542e-08, 2.551418631924207e-08], [-5.307927608555474e-07, -4.1414352836000035e-07, 3.376961785761523e-07, 2.530426854718826e-07, -1.9898884602298494e-06], [-0.05894093960523605, -0.0588904470205307, -0.05884641781449318, -0.05864919349551201, -0.05846136063337326], [4.77749217964174e-09, 4.810928988518981e-09, 4.826446797778772e-09, 4.8058925727900714e-09, 4.775380091359693e-09], [1.8874150853331884e-10, 1.769891733172102e-10, 1.7019215203806226e-10, 1.6919671219639554e-10, 1.7412254971205243e-10], [1.3014165720288181e-14, 1.514998386074537e-14, 2.020646562399253e-14, 2.6855438784779452e-14, 3.623084837245209e-14], [-1.8797365555656143e-05, -2.189951737818774e-05, -2.6313837224734016e-05, -3.1595922337146476e-05, -3.745669891941361e-05], [3.736497656420257e-12, 3.2456760803295515e-12, 3.2108263530589154e-12, 3.69041602832354e-12, 4.547356415030013e-12], [5.7395853218622506e-05, 5.747026443714276e-05, 5.7402670790906996e-05, 5.7374800235265866e-05, 5.734975275117904e-05], [-6.451122188527725e-13, -1.733331902488422e-12, -2.3334626331888986e-12, -2.4061386563745124e-12, -1.9757292590155684e-12], [-3.464384644757956e-05, -3.553799615474418e-05, -3.6000419640913606e-05, -3.5959052183898166e-05, -3.5623823350761086e-05], [0.0019973190501332283, 0.001998617546632886, 0.002003025496378541, 0.0020086236763745546, 0.0020116628147661686], [5.161449934121265e-08, 5.0883596003359344e-08, 5.0721222777383446e-08, 5.096034172424879e-08, 5.185823326314676e-08], [9.024180326377973e-05, 9.207079710904509e-05, 9.004179446492344e-05, 8.141442231135443e-05, 6.155169830890372e-05], 