{"lstm.weight_ih_l0": [[-0.013376712799072266, 0.3563597798347473], [0.007109775207936764, 0.07572700083255768], [-0.04747166484594345, 0.14172771573066711], [-0.009489687159657478, 0.10052329301834106], [0.030502112582325935, 0.12665599584579468], [0.0008891322067938745, -0.06342895328998566], [-0.000901851977687329, 0.2882499694824219], [-0.03151873126626015, 0.10616318136453629], [0.08094056695699692, -0.6933885812759399], [-0.014504894614219666, 0.17551538348197937], [-0.010107340291142464, 0.46240389347076416], [0.006186793092638254, 0.13361650705337524], [-0.0493471622467041, 0.06249667704105377], [-0.04865701124072075, 0.21691110730171204], [0.022341355681419373, 0.15919922292232513], [-0.0062753139063715935, 0.017998311668634415], [-0.003976590931415558, 0.19714771211147308], [-0.01984158717095852, -0.050892796367406845], [-0.09199180454015732, 0.24438032507896423], [-0.015665268525481224, 0.0970768854022026], [0.04207416996359825, 0.10267462581396103], [-0.05438724905252457, -0.07480691373348236], [-0.08141779899597168, 0.21630249917507172], [-0.039420101791620255, -0.07144848257303238], [0.10520540922880173, -0.4144575297832489], [-0.05805513635277748, 0.15721917152404785], [-0.04963398724794388, 0.3149671256542206], [0.038574643433094025, 0.18752796947956085], [0.01347592007368803, -0.10630679875612259], [-0.02325909212231636, 0.2137872725725174], [0.043439026921987534, -0.04178759828209877], [0.0044525424018502235, -0.12662197649478912], [1.3001070022583008, 0.2536883056163788], [-0.708615243434906, 0.17610974609851837], [0.516050398349762, -0.2596689760684967], [-0.26302480697631836, -0.30971866846084595], [0.6233271956443787, -0.010226154699921608], [-0.10117799043655396, -0.4316437840461731], [-0.1604922115802765, -0.3142393231391907], [-0.2774195969104767, 0.1068645492196083], [0.06362409889698029, -0.5225350856781006], [0.3084472417831421, -0.3763780891895294], [-2.1181745529174805, 0.07862450182437897], [-0.2650604844093323, 0.2405800223350525], [-1.0136449337005615, -0.32538771629333496], [0.2302505224943161, 0.36698731780052185], [0.8358331322669983, 0.2377977818250656], [-0.09188060462474823, 1.0845180749893188], [0.0190279521048069, 0.3151707947254181], [0.011213073506951332, 0.1185401901602745], [-0.009758495725691319, 0.29842761158943176], [-0.014433721080422401, 0.14177437126636505], [0.06056424230337143, 0.13567739725112915], [-0.00728691415861249, -0.06758113205432892], [0.012634431943297386, 0.2972509264945984], [-0.10755478590726852, -0.06698200851678848], [0.06454326957464218, -0.6386534571647644], [-0.11805805563926697, 0.2620501220226288], [-0.0855913758277893, 0.4705422520637512], [0.11902853101491928, 0.0860120877623558], [-0.03542287275195122, 0.12494166195392609], [-0.04856865480542183, 0.29985764622688293], [0.015237050130963326, 0.1859590709209442], [0.044940706342458725, -0.7418934106826782]], "lstm.weight_hh_l0": [[-0.007581751793622971, 0.0789480060338974, 0.08789872378110886, 0.025518590584397316, 0.03272537887096405, 0.0688217505812645, -0.049913190305233, 0.022969942539930344, 0.04754653200507164, -0.09423637390136719, -0.020393341779708862, 0.21046268939971924, -0.049146439880132675, 0.140353724360466, -0.038599733263254166, -0.08156649023294449], [9.407545439898968e-05, 0.061588674783706665, 0.0042648958042263985, 0.004337077494710684, 0.030420837923884392, 0.008152837865054607, -0.0984724760055542, 0.0261834766715765, -0.011669271625578403, -0.0423138402402401, -0.07921979576349258, 0.06276427954435349, -0.03922523185610771, 0.11459840089082718, -0.036321964114904404, -0.05039830133318901], [-0.1307939738035202, 0.11457853764295578, 0.012355114333331585, 0.0014952935744076967, -0.05679602548480034, 0.06760559231042862, -0.04894258826971054, -0.01215389184653759, -0.025170359760522842, 0.08847871422767639, 0.0604608990252018, 0.02445346489548683, 0.05782488361001015, -0.06826261430978775, -0.11355844885110855, 0.07301489263772964], [-0.00646103685721755, 0.019620835781097412, -0.02967226691544056, -0.0004325492773205042, 0.035255007445812225, -0.007944746874272823, -0.02088850922882557, 0.008945871144533157, -0.04481640085577965, -0.05004313588142395, -0.05331169813871384, 0.08988790214061737, -0.014789042994379997, 0.01059320755302906, -0.006403528153896332, 0.021860210224986076], [0.03124080039560795, 0.022690925747156143, 0.04483780637383461, 0.009554821997880936, 0.014798763208091259, 0.048499055206775665, -0.04960031434893608, 0.04858009144663811, -0.022986138239502907, -0.06201792508363724, -0.12570908665657043, 0.07096614688634872, 0.0004459451592992991, 0.06602806597948074, 0.03886173665523529, 0.029686251655220985], [-0.0070881168358027935, 0.021433863788843155, 0.1347745805978775, 0.03881284222006798, 0.08133453130722046, 0.05229531228542328, -0.16896659135818481, 0.056024398654699326, 0.07315918803215027, -0.1281002014875412, -0.16617828607559204, 0.12352681905031204, -0.057397592812776566, 0.11803214251995087, 0.0003472064563538879, -0.05373658239841461], [0.06687901169061661, 0.03804190456867218, 0.11107773333787918, 0.013647454790771008, 0.008632992394268513, 0.0677255317568779, -0.11663569509983063, 0.08561812341213226, 0.0023832786828279495, -0.10925482958555222, -0.07513730973005295, 0.09258414059877396, 0.054926518350839615, 0.11967908591032028, 0.006227096077054739, 0.040185291320085526], [-0.0018573097186163068, 0.05682561174035072, 0.09475136548280716, 0.01723826862871647, -0.012881004251539707, 0.042836498469114304, 0.0020362106151878834, -0.00737803103402257, 0.06719931960105896, -0.0437052957713604, 0.11868815124034882, 0.034456875175237656, 0.042662620544433594, 0.0007453914731740952, -0.05675815790891647, -0.06629537791013718], [-0.048453737050294876, -0.08928504586219788, 0.007637722417712212, 0.06943920254707336, 0.10558053851127625, 0.12999841570854187, 0.022180870175361633, -0.08071592450141907, -0.08858074992895126, 0.14756126701831818, -0.12843634188175201, -0.06538571417331696, -0.006322199013084173, -0.08365410566329956, -0.0013554170727729797, 0.09838319569826126], [-0.006749361753463745, 0.017206070944666862, 0.12078038603067398, 0.0419464148581028, -0.025304248556494713, 0.047132398933172226, 0.057033807039260864, 0.07543965429067612, -0.10033177584409714, -0.015551242977380753, -0.005355950444936752, -0.0379377156496048, 0.004039576277136803, 0.039719995111227036, 0.006787503138184547, 0.14431414008140564], [0.07091112434864044, 0.060148417949676514, -0.3003995418548584, -0.11319825798273087, 0.34299230575561523, -0.1583351492881775, -0.7230334877967834, -0.12925323843955994, 0.504382848739624, -0.2123301923274994, -0.00047000544145703316, 0.2992309629917145, -0.27775463461875916, 0.4616086483001709, -0.2885693609714508, -0.6275137066841125], [0.0023279839660972357, 0.04551244527101517, 0.016208209097385406, -0.0015172717394307256, -0.010615741834044456, 0.05905909463763237, 0.022792832925915718, -0.0010132392635568976, 0.04277810454368591, -0.063921719789505, 0.03921366110444069, 0.10058218985795975, 0.012117828242480755, 0.0670202225446701, 0.023849278688430786, -0.044642869383096695], [0.057119425386190414, 0.18453849852085114, 0.14110779762268066, 0.0022351143416017294, 0.011266031302511692, 0.2761106491088867, -0.1270500123500824, 0.0893964171409607, 0.1712755709886551, -0.49712371826171875, -0.012843135744333267, 0.4163786768913269, 0.06313004344701767, 0.3538500666618347, 0.1505299210548401, -0.10499859601259232], [0.004324423149228096, 0.08603372424840927, 0.06333788484334946, -0.006890841294080019, -0.04069903865456581, 0.10374878346920013, 0.04967271536588669, 0.04980877414345741, 0.019463568925857544, -0.167882040143013, 0.13250121474266052, 0.15540535748004913, 0.04674724116921425, 0.11367755383253098, 0.03489161282777786, 0.023502640426158905], [0.023439979180693626, 0.05736025050282478, 0.07218913733959198, 0.018493590876460075, 0.03431491181254387, 0.06683044880628586, -0.01813909038901329, 0.04766741394996643, 0.03277407959103584, -0.197610542178154, -0.019125496968626976, 0.20071622729301453, -0.047590967267751694, 0.16954797506332397, 0.025730043649673462, 0.0010565747506916523], [-0.04394831508398056, 0.04774799570441246, 0.06759130954742432, 0.017487790435552597, -0.023317629471421242, 0.08252649009227753, 0.03881153464317322, 0.014361545443534851, -0.05875439569354057, -0.010021165013313293, -0.00011873748735524714, 0.036432068794965744, 0.021948562934994698, 0.010736355558037758, -0.015121381729841232, 0.09472474455833435], [-0.056798867881298065, 0.026221444830298424, -0.007253635674715042, -0.008652802556753159, -0.02359364926815033, 0.023910043761134148, 0.00663024140521884, 0.0177426990121603, 0.14084497094154358, 0.12365556508302689, 0.03268181160092354, 0.14702484011650085, 0.10622494667768478, 0.09399373084306717, -0.05482346564531326, -0.15490970015525818], [-0.05304066836833954, 0.04382390156388283, -0.07048404961824417, -0.019566504284739494, 0.010266711004078388, 0.008148383349180222, -0.045670364052057266, -0.02453191764652729, -0.024800224229693413, 0.07524176687002182, -0.008174280636012554, 0.04764954373240471, -0.011183005757629871, 0.06830950081348419, -0.05059066787362099, -0.10149163007736206], [-0.244105726480484, 0.06721315532922745, -0.08540281653404236, 0.007269979454576969, -0.07616262137889862, 0.07038629055023193, -0.05086822062730789, 0.02453725039958954, 0.0426485538482666, 0.13734175264835358, -0.013841374777257442, 0.009534315206110477, 0.07338868081569672, -0.21708816289901733, -0.2306828647851944, 0.10369639098644257], [-0.011036431416869164, 0.021610228344798088, -0.07720966637134552, -0.02347235009074211, 0.002286334987729788, -0.02303328551352024, 0.021529342979192734, -0.009874848648905754, -0.07750032097101212, 0.020426180213689804, -0.037884004414081573, 0.03928543999791145, 0.0290975421667099, -0.07487548142671585, -0.005577968433499336, 0.04813840240240097], [0.02280145138502121, 0.02007298357784748, 0.06214487925171852, 0.013405143283307552, 0.008123812265694141, 0.045845530927181244, -0.022953161969780922, 0.05354250222444534, -0.04643305763602257, 0.0023923541884869337, -0.16412463784217834, 0.04359017685055733, 0.011814176104962826, 0.0029669078066945076, 0.03944673761725426, 0.042499907314777374], [-0.05648854002356529, 0.0660610944032669, 0.11891131848096848, 0.018884968012571335, 0.027346773073077202, 0.0761040449142456, -0.1226147711277008, 0.03719477355480194, 0.05242867395281792, -0.05620136857032776, -0.10741124302148819, 0.10519380867481232, 0.02558847889304161, 0.021930648013949394, -0.05972953513264656, -0.08028798550367355], [0.12790098786354065, 0.06120220944285393, 0.019837461411952972, -0.054343029856681824, 0.009567327797412872, 0.06705420464277267, -0.08467421680688858, 0.04045294225215912, 0.05951371416449547, -0.09105599671602249, -0.05241703987121582, 0.13963209092617035, 0.19310207664966583, 0.09955880790948868, -0.016052206978201866, -0.009176824241876602], [-0.019900772720575333, 0.022329207509756088, 0.12801864743232727, 0.05078437179327011, 0.05222352221608162, -0.014592677354812622, -0.09795506298542023, 0.005268233362585306, 0.1315101981163025, -0.02705688402056694, 0.033591244369745255, -0.03078436106443405, -0.04988766461610794, 0.03707776963710785, -0.09273659437894821, -0.10409469157457352], [-0.03233262151479721, -0.11793357133865356, 0.05754300206899643, 0.07147707045078278, 0.1668417751789093, 0.1163313239812851, -0.009101579897105694, -0.05803345888853073, -0.24926024675369263, 0.243744358420372, -0.06827719509601593, -0.16455917060375214, 0.024239709600806236, -0.0531771145761013, -0.06087927892804146, 0.22138062119483948], [-0.01734153740108013, -0.027753589674830437, 0.12372009456157684, 0.07799980044364929, 0.03415980935096741, 0.014212497510015965, 0.012554805725812912, 0.08586009591817856, -0.12278183549642563, 0.038685012608766556, 0.029699476435780525, -0.10506200045347214, -0.03483963757753372, 0.11060911417007446, -0.08107682317495346, 0.15150299668312073], [0.07453996688127518, 0.05007348582148552, 0.007552319206297398, -0.08239703625440598, -0.03582196682691574, 0.1284564584493637, -0.11501530557870865, 0.045625608414411545, 0.2597338557243347, -0.09327995777130127, -0.02208160236477852, 0.09592955559492111, -0.044577524065971375, 0.31014707684516907, 0.07392390072345734, -0.3131667971611023], [0.008248930796980858, 0.06467770040035248, 0.009432243183255196, -0.002257280284538865, -0.047021981328725815, 0.1423361748456955, 0.05403951182961464, -0.004945898894220591, 0.08690048009157181, -0.07114704698324203, 0.0211517084389925, 0.1385164111852646, 0.02847317047417164, 0.0834207609295845, 0.1089586690068245, -0.09555888175964355], [0.009161887690424919, 0.12629839777946472, 0.11357762664556503, 0.04104287177324295, -0.036799583584070206, 0.3433452844619751, 0.006035909987986088, -0.015014389529824257, 0.05703382194042206, -0.14915959537029266, -0.11712825298309326, 0.19459427893161774, -0.02994244545698166, 0.19681471586227417, 0.25172877311706543, -0.18146869540214539], [0.11638207733631134, 0.06590792536735535, 0.030536357313394547, -0.029061971232295036, 0.026046443730592728, 0.10970083624124527, -0.09302757680416107, 0.031014887616038322, 0.10663042962551117, -0.21556097269058228, 0.1298934370279312, 0.1859092116355896, 0.014991396106779575, 0.2610875368118286, 0.050593726336956024, -0.08954554796218872], [0.026514112949371338, -0.015594374388456345, -0.01922220177948475, 0.013328583911061287, 0.020283881574869156, 0.022072643041610718, 0.011241928674280643, -0.004503014497458935, 0.022168610244989395, -0.02007545717060566, -0.02550498954951763, 0.0522649846971035, -0.038142066448926926, 0.05708128958940506, 0.07054471969604492, -0.029625440016388893], [-0.03831091523170471, 0.02530331164598465, 0.12493494153022766, 0.02076955884695053, 0.002785799326375127, 0.19605061411857605, 0.006624789908528328, 0.013505249284207821, -0.16065311431884766, 0.08642630279064178, -0.07845126837491989, -0.004088172689080238, 0.04088015854358673, 0.029668480157852173, 0.014352128840982914, 0.1352616846561432], [-0.03656624257564545, 0.09942352771759033, 0.2263423353433609, -0.11550675332546234, -0.21823066473007202, 0.13405437767505646, 0.09655503183603287, -0.25366100668907166, 0.3148150146007538, 7.758470019325614e-05, -0.14130215346813202, 0.1433027982711792, 0.29620420932769775, 0.05668879300355911, -0.34582436084747314, 0.05826709419488907], [-0.378854900598526, -0.025222279131412506, 0.07329262048006058, -0.03522171080112457, -0.29675644636154175, -0.03994434326887131, -0.0725717693567276, -0.10962499678134918, 0.10426259785890579, -0.05124446749687195, 0.14048011600971222, 0.0032759620808064938, 0.10457330197095871, 0.038446247577667236, -0.02196718566119671, 0.09478685259819031], [-0.08451613038778305, -0.029809117317199707, 0.2607725262641907, 0.1753527820110321, 0.0822981521487236, 0.14954833686351776, -0.1426490694284439, 0.23631097376346588, -0.15181896090507507, 0.20731322467327118, -0.2948499023914337, -0.10240207612514496, -0.0014918484957888722, 0.15309928357601166, -0.13468359410762787, 0.21474355459213257], [0.1435856819152832, -0.19208411872386932, 0.10891719162464142, 0.09172305464744568, 0.09234451502561569, -0.12003357708454132, 0.009494720958173275, 0.0015385636361315846, -0.20476172864437103, 0.1337917447090149, -0.18955419957637787, 0.01731659471988678, -0.13233664631843567, 0.12023814767599106, 0.23986713588237762, -0.11762366443872452], [0.3705222010612488, -0.22096391022205353, -0.14396296441555023, -0.10413879156112671, 0.18040090799331665, -0.0531221404671669, -0.09215089678764343, -0.24844661355018616, 0.08481717109680176, -0.06595728546380997, -0.15905307233333588, 0.12239319831132889, -0.2239583134651184, 0.08161506801843643, -0.07137893885374069, -0.16228227317333221], [-0.41836291551589966, 0.2456635683774948, 0.160719096660614, -0.006437668111175299, -0.2084488421678543, 0.33321666717529297, 0.052919428795576096, 0.10643918067216873, -0.309911847114563, -0.127640500664711, 0.21866638958454132, -0.13888204097747803, 0.5082155466079712, 0.23554569482803345, -0.24273185431957245, 0.1450972706079483], [-0.9104176163673401, 0.13555872440338135, -0.006100791040807962, 0.30009979009628296, -0.08622536808252335, 0.23260152339935303, 0.24302740395069122, 0.03538475185632706, -0.5112298727035522, 0.04340098425745964, 0.45699459314346313, 0.1751672327518463, 0.49529415369033813, -0.24350285530090332, -0.41359543800354004, 0.6024104356765747], [0.35916668176651, -0.16042110323905945, 0.19706490635871887, -0.11452385783195496, 0.21670210361480713, 0.23013655841350555, -0.18056578934192657, 0.016040530055761337, -0.05494868382811546, -0.10312088578939438, -0.5219467282295227, -0.04000217467546463, -0.12416265904903412, -0.18613246083259583, 0.30625951290130615, 0.16858363151550293], [-0.27951666712760925, -0.3056657612323761, 0.0732574388384819, 0.2535019516944885, 0.07624656707048416, 0.26457834243774414, -0.06839632242918015, 0.14170673489570618, 0.24772624671459198, -0.40205302834510803, 0.008714365772902966, -0.35781189799308777, 0.2852315306663513, -0.05606557056307793, -0.39268574118614197, -0.5523873567581177], [-0.15402071177959442, -0.016192501410841942, 0.05708995461463928, 0.11550281196832657, -0.00241636554710567, 0.19301019608974457, 0.0003317948430776596, -0.24098147451877594, -0.3256654143333435, 0.21310162544250488, 0.03635117784142494, -0.06862425804138184, 0.042111169546842575, -0.3342016935348511, -0.23014360666275024, 0.43945902585983276], [-0.6099433898925781, 0.29678255319595337, 0.02699451521039009, 0.2996240556240082, -0.25860026478767395, 0.1247466430068016, 0.012164739891886711, 0.28900259733200073, 0.030360307544469833, -0.0025676009245216846, 0.44334107637405396, 0.07138906419277191, 0.4318072497844696, 0.06470975279808044, -0.4420844316482544, 0.06547289341688156], [-0.21745388209819794, 0.21532204747200012, -0.2329743355512619, -0.09284890443086624, 0.01532182190567255, 0.0628109872341156, 0.04960017651319504, -0.04999660328030586, 0.26546964049339294, -0.31219482421875, 0.17009237408638, 0.26089751720428467, 0.09968165308237076, 0.22206708788871765, -0.02166863903403282, -0.28611627221107483], [-0.30854088068008423, 0.13157330453395844, -0.010903078131377697, -0.049619920551776886, -0.27892202138900757, 0.21766993403434753, -0.13122490048408508, 0.45779579877853394, -0.3261452317237854, -0.12490423768758774, 0.05005437135696411, -0.18032069504261017, 0.4781026840209961, 0.10552156716585159, -0.17662906646728516, 0.16514480113983154], [0.46876975893974304, -0.029898466542363167, -0.06877610087394714, -0.16491016745567322, 0.05192910507321358, 0.0359116867184639, -0.15454347431659698, -0.05211302265524864, 0.2877807319164276, 0.10507090389728546, -0.10867802798748016, 0.13679549098014832, -0.45088762044906616, 0.208237886428833, 0.3237476348876953, -0.46494629979133606], [0.43038398027420044, 0.18662181496620178, 0.21556589007377625, -0.20182758569717407, -0.0034906696528196335, 0.407183974981308, 0.5825219750404358, -0.35816824436187744, 0.28778189420700073, -0.023784272372722626, -0.3091760277748108, 0.06271746009588242, -0.09788419306278229, -0.20278938114643097, 0.0014812708832323551, 0.030902421101927757], [-0.03793111816048622, 0.39524373412132263, 0.003372488310560584, -0.17404870688915253, -0.14588068425655365, -0.46725553274154663, -0.2023843675851822, 0.24112257361412048, -0.25149378180503845, -0.2629005014896393, 0.01832301914691925, 0.103424571454525, 0.04124728962779045, 0.2463383674621582, 0.07266496121883392, 0.36246606707572937], [0.019509194418787956, 0.08941977471113205, 0.13632425665855408, 0.03521345555782318, 0.050155531615018845, 0.05594075843691826, -0.06873510032892227, 0.029399562627077103, 0.03036525286734104, -0.06546802073717117, -0.0767359808087349, 0.21413345634937286, -0.10378221422433853, 0.23858335614204407, -0.017937643453478813, -0.11053801327943802], [0.0002258494932902977, 0.04491536691784859, -0.009611070156097412, 0.002403216902166605, 0.029787763953208923, 0.007811153773218393, -0.11123000830411911, 0.02422831393778324, -0.017149142920970917, -0.034798763692379, -0.0751761943101883, 0.10024536401033401, -0.04523681476712227, 0.12388243526220322, -0.027707137167453766, -0.026952583342790604], [-0.08992812782526016, 0.1693972945213318, 0.06340743601322174, -0.002630125731229782, -0.0878203958272934, 0.16093024611473083, 0.06942823529243469, 0.0079186437651515, -0.0047636618837714195, 0.11731596291065216, 0.12015976756811142, -0.006204886827617884, 0.14492639899253845, -0.1270458698272705, -0.11172894388437271, 0.06871417164802551], [-0.023295244202017784, 0.021509861573576927, -0.03119770810008049, 0.003249863162636757, 0.03799277916550636, -0.015000918880105019, -0.018559280782938004, 0.0167775209993124, -0.06505221128463745, -0.056918393820524216, -0.07191923260688782, 0.09995771944522858, -0.037773389369249344, 0.01872662454843521, -0.006009226199239492, 0.03855692967772484], [0.06498342007398605, 0.011239314451813698, 0.06545700877904892, 0.013561494648456573, 0.028345366939902306, 0.05353847146034241, -0.08457022905349731, 0.06305940449237823, -0.02436576411128044, -0.05204685777425766, -0.18016737699508667, 0.04834815859794617, -0.01838942989706993, 0.09304949641227722, 0.05850370600819588, 0.021272609010338783], [-0.014622785151004791, 0.026007870212197304, 0.15339675545692444, 0.048850174993276596, 0.0665905550122261, 0.07078177481889725, -0.14293117821216583, 0.06811828166246414, 0.06584496796131134, -0.11950238049030304, -0.15739038586616516, 0.12464292347431183, -0.03568276762962341, 0.10319814085960388, -0.0034470208920538425, -0.04516882076859474], [0.09731482714414597, 0.012488107196986675, 0.1019529476761818, 0.002913949778303504, -0.002621821826323867, 0.02179565094411373, -0.08271855115890503, 0.08093596994876862, -0.030269406735897064, -0.04620460420846939, -0.1345602124929428, 0.04584371671080589, 0.05587831139564514, 0.10035612434148788, 0.003994842991232872, 0.05468450114130974], [-0.013122707605361938, 0.09092393517494202, 0.09493929892778397, 0.013906780630350113, -0.021611591801047325, 0.01375952921807766, 0.004375539254397154, -0.0231938436627388, 0.0823030173778534, -0.09187007695436478, 0.22899559140205383, 0.06991222500801086, 0.04520973563194275, 0.05238229036331177, -0.0749397873878479, -0.07767432928085327], [-0.06595001369714737, -0.14513292908668518, 0.12145418673753738, 0.09281030297279358, 0.16813905537128448, 0.19324401021003723, 0.010933192446827888, -0.05644526705145836, -0.1394905298948288, 0.26884377002716064, -0.19259187579154968, -0.12098990380764008, 0.022129548713564873, -0.09519588202238083, -0.037202104926109314, 0.14581845700740814], [-0.035173892974853516, 0.07626017928123474, 0.0863158106803894, 0.005737230181694031, -0.047978077083826065, 0.08207016438245773, 0.039858438074588776, 0.05988359823822975, -0.0840582400560379, -0.047766733914613724, 0.09611089527606964, 0.024265239015221596, 0.08170146495103836, 0.05965171009302139, -0.05920227989554405, 0.13452816009521484], [0.01126982644200325, 0.174437016248703, -0.1971212476491928, -0.12038765102624893, 0.05986608564853668, -0.008313271217048168, -0.3639323115348816, -0.11624035239219666, 0.4246757924556732, -0.04165021702647209, 0.1783711314201355, 0.14131464064121246, 0.06197939068078995, 0.3046003580093384, -0.349810391664505, -0.4673844873905182], [0.026392756029963493, 0.0181412473320961, 0.09270545095205307, 0.04817871376872063, 0.03940927982330322, 0.03410948067903519, -0.1015988290309906, 0.038742173463106155, 0.04767284169793129, -0.03577597811818123, -0.07948002964258194, 0.0759180337190628, -0.10140258073806763, 0.14049535989761353, 0.0343034565448761, -0.08221207559108734], [0.06497488170862198, 0.13646844029426575, 0.16808253526687622, 0.023479895666241646, 0.015210364013910294, 0.26916322112083435, -0.1112210601568222, 0.13741183280944824, 0.18901151418685913, -0.545632541179657, -0.03884051367640495, 0.41029202938079834, 0.0571196973323822, 0.328594446182251, 0.16962766647338867, -0.11584925651550293], [0.022475261241197586, 0.10095304250717163, 0.06041979789733887, -0.010396946221590042, -0.036914192140102386, 0.11618104577064514, -0.007671496830880642, 0.0748259499669075, 0.026456275954842567, -0.2438824325799942, 0.1289089471101761, 0.2226548194885254, 0.041480883955955505, 0.1868690848350525, 0.06443793326616287, 0.020171700045466423], [0.020164353772997856, 0.06733223795890808, 0.07135782390832901, 0.014405409805476665, 0.039908524602651596, 0.058803293853998184, -0.023491423577070236, 0.05328373238444328, 0.04004249349236488, -0.2206285446882248, -0.028325941413640976, 0.22383639216423035, -0.056312743574380875, 0.18089187145233154, 0.021498840302228928, 0.007550176233053207], [-0.279168963432312, -0.16456657648086548, 0.19199194014072418, 0.20498453080654144, 0.08119127154350281, 0.2419740855693817, 0.10555325448513031, -0.047072604298591614, -0.09945137053728104, 0.16495583951473236, -0.171799436211586, -0.1633625030517578, -0.06651873886585236, -0.0967266708612442, -0.03895789757370949, 0.06144583970308304]], "lstm.bias_ih_l0": [0.5704797506332397, 0.14047622680664062, 0.26198872923851013, 0.18891848623752594, 0.2037811130285263, 0.25500762462615967, 0.38545140624046326, 0.2584414780139923, 0.3250816762447357, 0.28553083539009094, 0.46167001128196716, 0.26367029547691345, 0.20857395231723785, 0.2583933472633362, 0.44143977761268616, 0.48524609208106995, 0.21894046664237976, 0.2369578331708908, 0.15555214881896973, 0.07810983061790466, 0.08072423934936523, 0.07085466384887695, 0.007354820147156715, 0.051683615893125534, 0.13116000592708588, 0.29499301314353943, 0.04063480347394943, 0.18690037727355957, 0.1197911724448204, 0.08582813292741776, 0.03010299615561962, 0.43823057413101196, -0.16531962156295776, 0.008326160721480846, 0.2419731318950653, 0.08651776611804962, -0.02483975701034069, 0.020839283242821693, 0.0537700429558754, 0.0594634972512722, 0.14286454021930695, -0.028690196573734283, 0.07491736114025116, -0.022342948243021965, 0.0446038618683815, 0.14668510854244232, -0.04030544310808182, -0.13219301402568817, 0.5094585418701172, 0.2928885817527771, 0.16730868816375732, 0.15254426002502441, 0.14768101274967194, 0.3080800771713257, 0.3629561960697174, 0.11491350829601288, 0.4690968096256256, 0.3262183368206024, 0.4638926088809967, 0.10547829419374466, 0.29463377594947815, 0.2668920159339905, 0.4702965319156647, 0.43477344512939453], "lstm.bias_hh_l0": [0.5403543710708618, 0.1836182028055191, 0.24326956272125244, 0.1122148334980011, 0.24736249446868896, 0.2321491688489914, 0.4339664578437805, 0.23613198101520538, 0.3132857382297516, 0.3023723363876343, 0.44962528347969055, 0.201618492603302, 0.20459891855716705, 0.2762000858783722, 0.4422075152397156, 0.5214996933937073, 0.07271040230989456, 0.23657971620559692, 0.2202424257993698, 0.022439878433942795, 0.1973380744457245, 0.11804467439651489, -0.009056546725332737, 0.07658541202545166, 0.3480493426322937, 0.20888842642307281, -0.06570661813020706, 0.3629094660282135, 0.09668746590614319, 0.006041145417839289, 0.027683774009346962, 0.41379377245903015, -0.03383484110236168, 0.10008087009191513, 0.13591618835926056, 0.1268070787191391, 0.011555507779121399, 0.2669226825237274, 0.09720805287361145, 0.02664325013756752, -0.0884556844830513, -0.0838083028793335, -0.20688533782958984, 0.13200300931930542, -0.01396674383431673, -0.0894211158156395, -0.08695507794618607, -0.05642891675233841, 0.5505746006965637, 0.18475647270679474, 0.014677129685878754, 0.16102904081344604, 0.23570841550827026, 0.2265615016222, 0.41953977942466736, 0.09136413782835007, 0.26582127809524536, 0.30837732553482056, 0.332910418510437, 0.31396159529685974, 0.32624852657318115, 0.31693190336227417, 0.47054728865623474, 0.23615993559360504], "dense.weight": [[0.4932865500450134, -0.12031294405460358, 0.41669201850891113, -0.24416381120681763, 0.05554211139678955, 0.10185326635837555, -0.5224608182907104, 0.3136010468006134, 0.37861207127571106, -0.13732227683067322, -1.0587983131408691, -0.14676104485988617, 0.86081862449646, -0.2555727958679199, 0.07169678062200546, 0.13817211985588074]], "dense.bias": [0.03859337791800499]}