{"lstm.weight_ih_l0": [[0.4366919696331024, 0.16591563820838928], [-0.14010527729988098, -0.7787114381790161], [0.08356643468141556, 0.10601695626974106], [0.4183422923088074, -0.09230043739080429], [0.2146926075220108, 0.23560775816440582], [0.5680664777755737, 0.10460665822029114], [0.07015085220336914, -0.28140315413475037], [-0.060227226465940475, -0.27726510167121887], [-0.35067588090896606, 0.1582159548997879], [0.043181270360946655, -0.07210107892751694], [0.48821932077407837, 0.13360905647277832], [-0.9160909652709961, -1.7314282655715942], [1.0445722341537476, 0.27169278264045715], [0.6421273946762085, -0.5827502608299255], [0.2255639135837555, 0.0013412230182439089], [0.2235064059495926, 0.2533346116542816], [0.6367599964141846, 0.23149807751178741], [-0.4381968080997467, -0.7876167893409729], [0.3274703323841095, -0.055433426052331924], [0.4366551637649536, -0.05641799047589302], [0.35332491993904114, 0.16053718328475952], [0.7616450190544128, 0.30057743191719055], [-0.09314896911382675, -0.6056010723114014], [-0.12236534059047699, -0.1744638830423355], [-0.3241586685180664, -0.15572933852672577], [-0.8398838043212891, -0.13443557918071747], [0.6317864656448364, 0.15039415657520294], [-0.9453042149543762, -1.3567806482315063], [0.9619590044021606, 0.03461934253573418], [0.5640242099761963, -0.7866717576980591], [0.16737625002861023, 0.1695259064435959], [0.5748833417892456, 0.2060609757900238], [0.537774920463562, 0.04250747337937355], [0.3202475309371948, 0.3087208569049835], [0.659889280796051, -0.08562110364437103], [0.19834446907043457, 0.17673976719379425], [-0.4616234302520752, 0.2131512463092804], [0.17786556482315063, -0.7213997840881348], [-0.18709439039230347, -0.18442553281784058], [0.030608797445893288, 0.01801813393831253], [-0.15450485050678253, -0.28167352080345154], [-0.17178598046302795, 0.13217614591121674], [-0.4491722583770752, 0.30400583148002625], [-0.06343510001897812, 0.8756847977638245], [0.4732789099216461, -0.4974258840084076], [-0.2796694338321686, 0.41474977135658264], [0.27718865871429443, -0.11129827797412872], [-0.304800420999527, -0.08859946578741074], [0.7985644340515137, 0.3185604214668274], [-0.2900388240814209, -0.5227333307266235], [0.23770184814929962, 0.22148127853870392], [0.35989445447921753, -0.14149737358093262], [0.18835224211215973, 0.004751949571073055], [0.6664433479309082, 0.0916081890463829], [0.01252380944788456, -0.5460653305053711], [-0.016349177807569504, -0.11742932349443436], [-0.33716651797294617, -0.0374797023832798], [-0.7285512089729309, -0.29169508814811707], [0.5535182356834412, 0.22393494844436646], [-0.8873498439788818, -1.941082239151001], [1.0039325952529907, -0.0007713446975685656], [0.7504103779792786, -0.6926969885826111], [0.2328416109085083, -0.10040193796157837], [0.45798709988594055, 0.010181928053498268]], "lstm.weight_hh_l0": [[0.0009670791332609951, 0.0982905924320221, -0.10503650456666946, 0.1241619735956192, 0.05539378523826599, 0.17534981667995453, 0.30859261751174927, -0.026465464383363724, -0.03796149417757988, 0.4617723524570465, 0.15359602868556976, 0.40971893072128296, -0.44122570753097534, 0.00484034139662981, -0.05004523694515228, 0.2820134162902832], [-0.09766770154237747, -0.19906817376613617, -0.2052236944437027, -0.19655312597751617, -0.06876494735479355, 0.0998849868774414, 0.004909704439342022, -0.07209446281194687, 0.30450761318206787, 0.2827925980091095, -0.19612596929073334, -0.016102096065878868, 0.16472889482975006, -0.25370800495147705, -0.004042668733745813, 0.33003535866737366], [0.25480225682258606, -0.39061668515205383, 0.11996357142925262, 0.12627874314785004, 0.04367542639374733, -0.13731488585472107, -0.05277561396360397, 0.030010957270860672, -0.06433138996362686, -0.18467479944229126, 0.039870426058769226, -0.11846886575222015, -0.2503413259983063, 0.14139747619628906, -0.021054888144135475, -0.1781468391418457], [0.2487504631280899, 0.06910696625709534, -0.06102428212761879, 0.20159216225147247, 0.12984426319599152, 0.17224472761154175, 0.032551273703575134, -0.023564361035823822, -0.179027259349823, 0.0796835869550705, -0.08387959003448486, 0.1090158000588417, 0.057749342173337936, -0.0418342724442482, -0.05595524609088898, 0.05728914961218834], [0.018269235268235207, -0.3204628825187683, -0.09797246754169464, 0.06350253522396088, 0.1627741903066635, 0.10805623233318329, 0.020948471501469612, 0.030130663886666298, 0.03866052255034447, -0.1520921140909195, 0.02805275470018387, 0.09716270118951797, 0.0398750863969326, 0.2576419413089752, -0.2065047174692154, 0.02480824664235115], [0.3344830870628357, 0.12035990506410599, 0.19522981345653534, 0.12908688187599182, -0.2451920360326767, -0.03758107125759125, 0.11602727323770523, -0.05965900048613548, -0.03696107491850853, -0.024044735357165337, 0.007183741312474012, 0.09278752654790878, -0.028945546597242355, 0.12758900225162506, 0.2296057641506195, 0.0101470360532403], [-0.19109654426574707, -0.004924064036458731, -0.15175653994083405, 0.0034043097402900457, 0.18854132294654846, 0.3038269877433777, 0.2269326001405716, -0.17779193818569183, 0.24776500463485718, 0.43316251039505005, 0.03426294028759003, -0.16841471195220947, -0.35838812589645386, -0.17744944989681244, -0.13567866384983063, 0.2146759182214737], [-0.3500513732433319, 0.12522576749324799, -0.3002718985080719, -0.07467406988143921, 0.19533798098564148, 0.19601140916347504, 0.043304018676280975, -0.0961475744843483, 0.06984246522188187, 0.13316382467746735, -0.027290578931570053, -0.1698000580072403, -0.16886158287525177, -0.059554968029260635, -0.16434668004512787, 0.21476610004901886], [-0.04286579042673111, 0.17497754096984863, -0.0935809388756752, -0.004128029569983482, 0.03467066213488579, -0.23890145123004913, -0.06197058781981468, 0.021115360781550407, -0.21780292689800262, 0.10517707467079163, 0.09421256929636002, 0.6830843687057495, -0.2811005413532257, 0.09889926761388779, 0.13449275493621826, 0.10742928087711334], [-0.30806973576545715, 0.2485009729862213, -0.17209333181381226, 0.029688579961657524, 0.38632261753082275, 0.3279958665370941, 0.18127389252185822, -0.23283466696739197, 0.35159146785736084, 0.09461361169815063, 0.13736310601234436, 0.2958407700061798, -0.43381959199905396, 0.34300875663757324, -0.2295355349779129, 0.29715368151664734], [0.1319974958896637, -0.28213486075401306, 0.031842976808547974, 0.10520049184560776, 0.07216259092092514, -0.03477807343006134, 0.007488920819014311, 0.010416594333946705, -0.020377809181809425, 0.1551324725151062, -0.06505237519741058, 0.1728346049785614, 0.013263346627354622, -0.043755412101745605, 0.027111070230603218, 0.021022623404860497], [0.024129852652549744, -0.3741706609725952, -0.06619960814714432, -0.05731116235256195, -0.2395712435245514, 0.3877449929714203, 0.04595247656106949, 0.06856021285057068, -0.39049848914146423, -0.07116575539112091, -0.2992430031299591, 0.019536403939127922, 0.5453588962554932, -0.08279075473546982, -0.19954439997673035, 0.031185002997517586], [0.12300146371126175, 0.3597651422023773, -0.004360068589448929, 0.4279096722602844, -0.07029388844966888, -0.006322142668068409, 0.14619548618793488, -0.09625152498483658, -0.12592127919197083, -0.11157794296741486, -0.08285548537969589, 0.28958413004875183, 0.09042192995548248, -0.37803423404693604, -0.04195407032966614, -0.12928959727287292], [-0.2137543112039566, 0.3884756565093994, -0.2924664318561554, -0.025475841015577316, 0.16521698236465454, 0.4043697416782379, 0.2323620468378067, -0.1610473096370697, 0.15035301446914673, 0.18385960161685944, -0.07335708290338516, -0.0471295565366745, -0.002130590844899416, -0.27350571751594543, -0.06820600479841232, 0.09577981382608414], [-0.062075961381196976, -0.14653919637203217, -0.07029638439416885, 0.029024625197052956, 0.002824791707098484, 0.17190198600292206, -0.02818710170686245, 0.07809855043888092, 0.1278897523880005, 0.01598217338323593, -0.1514613926410675, 0.013853012584149837, 0.331458181142807, 0.05205031484365463, 0.034995775669813156, -0.08199286460876465], [0.20362627506256104, -0.23214606940746307, 0.07026184350252151, 0.041366416960954666, 0.0952523872256279, -0.09745003283023834, 0.01906006969511509, -0.13254143297672272, -0.004988083615899086, -0.0726991817355156, 0.02557443268597126, -0.21878187358379364, -0.20226596295833588, -0.06847116351127625, 0.05823909118771553, 0.08091884106397629], [0.06975920498371124, 0.11717282980680466, 0.23926587402820587, 0.35400810837745667, 0.0653332844376564, -0.3597230315208435, 0.08108966797590256, -0.20409852266311646, -0.2468135952949524, -0.0005267764208838344, -0.21876169741153717, -0.08756612241268158, 0.21829979121685028, -0.3208562135696411, 0.04741733521223068, -0.13082849979400635], [0.23056955635547638, -0.670899510383606, 0.3051464855670929, -0.1959494948387146, -0.32370659708976746, -0.38398975133895874, -0.16052843630313873, -0.3533642292022705, 0.1700422316789627, 0.4730192720890045, -0.5632390379905701, -0.23018686473369598, 0.5989450216293335, -0.4361521303653717, 0.23020344972610474, -0.2565039396286011], [0.25373896956443787, -0.13433896005153656, 0.030797049403190613, 0.2127707153558731, 0.08443721383810043, 0.0065267328172922134, -0.15158365666866302, 0.0196662750095129, -0.1025429219007492, -0.32102641463279724, 0.020518843084573746, 0.019639549776911736, -0.0735626295208931, 0.1270766407251358, 0.18532270193099976, -0.0944972038269043], [0.4501296877861023, 0.05107715353369713, 0.28513267636299133, 0.16901510953903198, -0.05875329673290253, 0.019898394122719765, -0.10854516923427582, -0.05910412222146988, -0.11774807423353195, -0.039206720888614655, -0.1479286402463913, 0.08460941165685654, 0.11291084438562393, -0.03158518671989441, 0.04807910695672035, -0.12813159823417664], [-0.019992446526885033, -0.30051547288894653, -0.0855184867978096, -0.008251842111349106, 0.11728593707084656, 0.11017773300409317, -0.17622697353363037, 0.05079789459705353, 0.060968101024627686, -0.15104371309280396, -0.15180541574954987, 0.09193962067365646, 0.03968462720513344, 0.20020551979541779, -0.03939954936504364, 0.009545384906232357], [0.31946706771850586, -0.27448901534080505, 0.0816429927945137, 0.3567563593387604, -0.20433545112609863, -0.37622204422950745, -0.22373975813388824, -0.08300091326236725, -0.11533211916685104, -0.12950485944747925, -0.09630898386240005, -0.08858294039964676, -0.02561519481241703, 0.1278233677148819, 0.06586559116840363, -0.27507850527763367], [-0.3510093688964844, 0.2398575246334076, 0.01800227165222168, -0.0817708671092987, -0.0609612800180912, 0.10972888022661209, 0.13031981885433197, -0.46079277992248535, 0.14056898653507233, 0.8140757083892822, 0.07870573550462723, -0.457099974155426, -0.08010061085224152, -0.26017457246780396, 0.09639497846364975, 0.10796070843935013], [-0.30357471108436584, 0.14579111337661743, -0.3028022050857544, 0.018076924607157707, 0.0672634169459343, 0.13434523344039917, 0.2829517722129822, -0.09317771345376968, 0.058738261461257935, 0.1801345944404602, -0.0015401453711092472, -0.2609871029853821, -0.10433641821146011, -0.001083296607248485, -0.17222437262535095, 0.16672110557556152], [-0.056352969259023666, 0.1416313499212265, -0.026227867230772972, 0.05926733836531639, 0.003161801490932703, -0.11038509011268616, -0.10662123560905457, 0.025497253984212875, -0.26490291953086853, 0.002698861761018634, 0.04038121551275253, 0.7982729077339172, -0.18159162998199463, 0.0596122220158577, 0.1521131992340088, 0.11808378249406815], [0.09295378625392914, 0.20616452395915985, 0.5474386811256409, -0.17873157560825348, -0.2807985842227936, -0.5111907720565796, 0.7696763873100281, -0.5102483630180359, -0.097232386469841, -0.5005794167518616, -0.04964802786707878, -0.44211602210998535, 0.5547282695770264, -0.555072546005249, 0.42862775921821594, -0.20167160034179688], [0.19610650837421417, -0.4180770516395569, -0.1344958245754242, 0.20652367174625397, -0.010989113710820675, -0.18011486530303955, 0.016065547242760658, 0.012085970491170883, -0.0042630210518836975, 0.16662588715553284, -0.20525142550468445, 0.1982654631137848, -0.046410493552684784, -0.08189187943935394, 0.03625069558620453, -0.05637560784816742], [-0.11302083730697632, -0.22675415873527527, 0.4594012200832367, -0.13271303474903107, -0.3057788014411926, 0.16465237736701965, 0.02855496108531952, -0.0912371277809143, -0.7568876147270203, 0.16573140025138855, -0.43919143080711365, -0.3659105598926544, 0.8318743705749512, -0.2469693273305893, 0.2714681327342987, -0.28249213099479675], [0.35844841599464417, 0.38622769713401794, 0.0396018922328949, 0.4303896129131317, -0.16295777261257172, -0.3685275614261627, 0.269593745470047, -0.14344502985477448, -0.09342335909605026, -0.2942807972431183, 0.04450393095612526, 0.10410945117473602, -0.1607799232006073, -0.4833568334579468, 0.14867262542247772, 0.008361740037798882], [-0.3888722360134125, 0.29526013135910034, -0.1977906972169876, 0.032472699880599976, 0.1666470170021057, 0.32152020931243896, 0.4388141632080078, -0.2746425271034241, 0.1423121988773346, 0.21221746504306793, -0.07759565114974976, -0.16505217552185059, -0.0430658720433712, -0.03694581240415573, 0.04424186050891876, 0.20703259110450745], [-0.09407859295606613, -0.1311013549566269, 0.05692834407091141, 0.03274577483534813, -0.07615843415260315, -0.13859738409519196, -0.07898494601249695, 0.03575742989778519, -0.035587407648563385, -0.05439010635018349, -0.06967123597860336, 0.013578977435827255, 0.12964460253715515, -0.005519168917089701, 0.02975659817457199, 0.1317977011203766], [0.265593022108078, -0.2099122405052185, 0.042050618678331375, 0.07250118255615234, -0.017808303236961365, -0.09058377891778946, 0.16962972283363342, -0.1705213040113449, 0.2103840559720993, 0.10841257870197296, -0.22011291980743408, -0.09124299883842468, 0.2005711793899536, -0.048799414187669754, -0.005302682518959045, 0.1134282574057579], [0.19857516884803772, -0.238040030002594, 0.26178479194641113, 0.2147856056690216, -0.2807333469390869, -0.1030619665980339, -0.15146802365779877, 0.2206476777791977, -0.04467228800058365, -0.3700879216194153, 0.1483992338180542, 0.20875588059425354, -0.031229408457875252, 0.2731044888496399, -0.1731823831796646, -0.22383646667003632], [-0.41831424832344055, 0.1496289223432541, 0.00827063713222742, -0.18062379956245422, 0.11643600463867188, 0.1658385992050171, 0.17381878197193146, 0.003482337575405836, -0.06177747994661331, 0.365183025598526, 0.31214791536331177, 0.03328971937298775, 0.0295012965798378, -0.10745759308338165, -0.1283641755580902, 0.11966950446367264], [0.3109078109264374, -0.38311564922332764, -0.0014503303682431579, 0.06537123024463654, 0.1378965973854065, -0.11818498373031616, -0.007534747943282127, 0.2140299677848816, 0.0786239504814148, -0.3350033760070801, 0.12003980576992035, -0.3849983513355255, -0.01442360132932663, 0.10412489622831345, -0.24580900371074677, -0.0364404171705246], [0.13776902854442596, 0.30258849263191223, 0.0740538164973259, 0.22714239358901978, -0.1630192995071411, 0.14537231624126434, -0.25192856788635254, 0.040143437683582306, -0.0953199565410614, -0.26522576808929443, 0.003113863989710808, 0.19720155000686646, -0.1586456149816513, -0.2764294743537903, -0.07074315845966339, 0.14248719811439514], [-0.3737846910953522, 0.3116210401058197, -0.08195260912179947, 0.23033739626407623, 0.14244472980499268, -0.10315046459436417, 0.2445380985736847, -0.10455036163330078, -0.015576459467411041, 0.5649586915969849, 0.12481870502233505, -0.11016751825809479, -0.2870060205459595, -0.07665695250034332, 0.24607251584529877, -0.06182461231946945], [-0.18427112698554993, 0.027741922065615654, -0.023343810811638832, -0.0014857978094369173, 0.04051756486296654, 0.34069401025772095, -0.274026483297348, -0.05323054641485214, 0.21330145001411438, 0.34359315037727356, -0.17707398533821106, -0.23188616335391998, 0.3329104781150818, -0.5431327223777771, 0.21375395357608795, 0.15581950545310974], [-0.3112436532974243, 0.38776931166648865, -0.012891953811049461, 0.09172999113798141, 0.16761797666549683, 0.2573404908180237, 0.0500686839222908, -0.17669358849525452, -0.010118735022842884, 0.03587346896529198, 0.30179229378700256, -0.08951540291309357, -0.4387929439544678, 0.012625920586287975, 0.04501073807477951, 0.41141295433044434], [0.05936024710536003, -0.08058366179466248, -0.15449319779872894, 0.02076863683760166, 0.008962895721197128, -0.009881761856377125, -0.24058030545711517, -0.3021150231361389, 0.1557951122522354, -0.299351304769516, 0.02777816727757454, 0.08183234930038452, 0.16228893399238586, -0.025985166430473328, -0.03837652504444122, 0.028899548575282097], [-0.07942900061607361, -0.12167953699827194, 0.3014865517616272, -0.048096153885126114, -0.24636788666248322, 0.2665819525718689, 0.03953494131565094, 0.0834643617272377, 0.26776638627052307, -0.03351952135562897, -0.1949487030506134, -0.29901495575904846, 0.32745110988616943, -0.10851418226957321, -0.008271786384284496, 0.0395754799246788], [-0.2640427052974701, 0.4720466732978821, -0.015564724802970886, -0.08454722911119461, -0.08887631446123123, -0.19354020059108734, 0.04287794232368469, -0.16434164345264435, 0.03226208686828613, 0.12429220974445343, 0.0006116036674939096, -0.0688391700387001, 0.13985377550125122, -0.018246248364448547, 0.027455881237983704, 0.1363852620124817], [0.19625958800315857, 0.1031750813126564, 0.029703810811042786, -0.22386434674263, 0.14877301454544067, 0.08914067596197128, 0.04443357139825821, -0.08650057017803192, -0.12278803437948227, 0.041948214173316956, -0.24427108466625214, -0.1181504875421524, -0.2945454716682434, 0.20291854441165924, 0.1832420527935028, 0.06797298043966293], [0.06561196595430374, 0.3354105055332184, 0.21058949828147888, 0.3784886300563812, -0.07850780338048935, -0.16780894994735718, -0.17213399708271027, 0.025366244837641716, -0.2037803679704666, 0.27006304264068604, -0.06393703073263168, 0.4648083448410034, 0.16374632716178894, 0.10261241346597672, 0.18571126461029053, -0.06694654375314713], [-0.2370847761631012, -0.22197112441062927, -0.26611340045928955, -0.10677865892648697, 0.22538714110851288, 0.2027217447757721, 0.12603235244750977, 0.021223783493041992, 0.23322580754756927, -0.26651084423065186, -0.17545805871486664, 0.21867072582244873, 0.29295384883880615, -0.1906987875699997, 0.11455303430557251, -0.03195285052061081], [0.32059648633003235, -0.20315706729888916, -0.16120317578315735, -0.06583260744810104, 0.15141661465168, -0.26629438996315, -0.22868499159812927, -0.11704470217227936, 0.04181202873587608, -0.18057501316070557, -0.15230698883533478, 0.03279988467693329, -0.21790000796318054, 0.2216225117444992, -0.12946657836437225, -0.18403413891792297], [-0.27598291635513306, 0.10446780920028687, 0.09441988170146942, 0.18259058892726898, -0.08875913172960281, -0.24554239213466644, 0.042309824377298355, 0.12020684778690338, -0.03591248393058777, 0.09283193945884705, 0.28487250208854675, -0.0955343171954155, -0.1427212953567505, 0.298632949590683, -0.021635275334119797, 0.04495122656226158], [-0.008689701557159424, 0.6139311790466309, -0.22721950709819794, -0.0037824406754225492, 0.1963578760623932, 0.043777357786893845, 0.039273377507925034, -0.24036625027656555, -0.24910064041614532, 0.3831169903278351, -0.09535470604896545, -0.022197075188159943, -0.08235760778188705, 0.0791124477982521, 0.00406033918261528, 0.09960856288671494], [0.1501692682504654, -0.1727137267589569, -0.11508620530366898, 0.29718446731567383, -0.15792140364646912, 0.03738028556108475, 0.1982835978269577, -0.07424803823232651, -0.07622787356376648, 0.3443463444709778, -0.26637759804725647, 0.27866867184638977, 0.036402419209480286, -0.08004013448953629, -0.16244013607501984, 0.2295701652765274], [0.11581244319677353, -0.5335618257522583, 0.0684698224067688, -0.022035351023077965, -0.3436030447483063, -0.2098424881696701, -0.10767366737127304, -0.2665504813194275, 0.1157098188996315, 0.3328988552093506, -0.42881497740745544, -0.2186221480369568, 0.13814933598041534, -0.3811768591403961, 0.047395009547472, -0.13810107111930847], [0.12771371006965637, 0.01857202686369419, -0.13142740726470947, -0.08420632034540176, -0.1808568686246872, 0.11163698136806488, 0.08449073880910873, -0.0694984421133995, 0.017471306025981903, 0.1474941074848175, -0.1138000339269638, -0.015573862008750439, -0.17107467353343964, 0.2697138786315918, -0.07072889804840088, 0.12700463831424713], [0.2901545464992523, -0.01419051643460989, -0.02151617594063282, 0.13825391232967377, 0.03552202135324478, 0.11595915257930756, 0.025114670395851135, 0.045654814690351486, -0.09181506186723709, -0.10821854323148727, -0.12598606944084167, 0.14928890764713287, 0.04676889255642891, 0.08942388743162155, -0.11591590940952301, -0.07765419036149979], [-0.04863355681300163, -0.24765998125076294, -0.25029295682907104, 0.0653727799654007, -0.16469602286815643, -0.11679471284151077, -0.017161503434181213, 0.020123666152358055, -0.05131169408559799, 0.06682074815034866, -0.04784829542040825, 0.28298354148864746, 0.03934166952967644, 0.11877625435590744, 0.03848635405302048, 0.07482875138521194], [0.13951802253723145, -0.17481401562690735, 0.03788251802325249, 0.14548125863075256, -0.20935307443141937, 0.1910702884197235, 0.0034095097798854113, 0.026554539799690247, 0.01819547638297081, 0.05266905575990677, -0.1689690351486206, 0.22166700661182404, 0.5386912226676941, 0.05650921165943146, 0.05054907128214836, 0.15765728056430817], [-0.21441586315631866, 0.09943164885044098, -0.03314708545804024, -0.24615931510925293, 0.026387952268123627, 0.3235689103603363, 0.3480744957923889, -0.3863618075847626, 0.19120097160339355, 0.4175148904323578, 0.07237037271261215, -0.35497424006462097, -0.18041275441646576, -0.17269054055213928, -0.031646087765693665, 0.14139296114444733], [-0.23348847031593323, 0.23548583686351776, -0.35091543197631836, -0.049372315406799316, 0.05738488957285881, 0.2835758626461029, 0.15771906077861786, -0.07502543181180954, 0.1719871163368225, 0.270255446434021, -0.01430307887494564, -0.11360293626785278, -0.30506518483161926, -0.07780531793832779, -0.10069245845079422, 0.19037778675556183], [-0.07009708881378174, 0.16176171600818634, 0.05775047466158867, -0.005352642387151718, 0.004797919187694788, -0.12669475376605988, -0.07597488909959793, 0.04009908065199852, -0.10972233861684799, 0.04547467827796936, 0.0766860619187355, 0.6678457856178284, -0.14240506291389465, 0.071013443171978, 0.038166798651218414, 0.0890362411737442], [0.07188638299703598, 0.4561851918697357, -0.1394686996936798, -0.16140124201774597, 0.18712520599365234, 0.06156674027442932, 0.5641237497329712, -0.16566118597984314, 0.2933432161808014, -0.26147162914276123, 0.054566338658332825, -0.2859750986099243, 0.2640664577484131, -0.11547435075044632, 0.15896949172019958, 0.2547685205936432], [0.044727250933647156, -0.27323171496391296, -0.20675724744796753, 0.14658010005950928, -0.045902594923973083, 0.05598967522382736, 0.03615891933441162, 0.014176097698509693, 0.03166276589035988, 0.05725666135549545, -0.08779378980398178, 0.194498211145401, 0.06842634081840515, -0.0339205265045166, -0.05802327021956444, 0.11562350392341614], [0.004223335534334183, -0.3656882345676422, -0.13468188047409058, -0.07142194360494614, -0.25294649600982666, 0.7405345439910889, -0.04863559827208519, 0.10223665088415146, -0.3823593258857727, -0.06619415432214737, -0.3001207709312439, 0.006865343544632196, 0.42271432280540466, -0.0634964108467102, -0.10911926627159119, -0.08897476643323898], [0.02002103626728058, 0.35493868589401245, 0.004885219503194094, 0.36741891503334045, 0.03617922216653824, -0.1189781203866005, 0.12489474564790726, -0.09732130169868469, -0.13717235624790192, -0.2054964154958725, -0.037940409034490585, 0.15206705033779144, -0.08129852265119553, -0.4605864882469177, -0.01878482848405838, 0.08381540328264236], [-0.45908260345458984, 0.33613455295562744, -0.30472466349601746, -0.08104201406240463, 0.16505247354507446, 0.3514862060546875, 0.21159522235393524, -0.05253732576966286, 0.07397346943616867, 0.17770785093307495, -0.06492090225219727, -0.1090119257569313, 0.030414320528507233, -0.1473494917154312, -0.14507229626178741, 0.1637933850288391], [-0.10470002889633179, -0.12805815041065216, 0.057829130440950394, -0.009862788952887058, -0.15707901120185852, 0.12828999757766724, -0.08767376095056534, 0.04496537148952484, 0.04082998260855675, -0.12565086781978607, -0.15960441529750824, 0.05085959658026695, 0.11535529792308807, 0.07275395840406418, -0.06833373755216599, 0.0864499881863594], [0.09651566296815872, -0.06339742988348007, 0.0431523360311985, 0.19169068336486816, -0.16646099090576172, 0.22906717658042908, 0.1871684491634369, -0.1126645877957344, 0.08841297775506973, -0.06931513547897339, -0.12832707166671753, 0.05124407261610031, -0.18696899712085724, -0.12828731536865234, -0.06976407766342163, 0.019048167392611504]], "lstm.bias_ih_l0": [-0.29575178027153015, -0.019503619521856308, 0.08902106434106827, -0.04480132460594177, 0.06973985582590103, -0.07284540683031082, -0.051609404385089874, -0.07953108102083206, -0.1342402696609497, -0.08502259850502014, -0.08104696869850159, -0.08689151704311371, 0.2629704773426056, -0.020611366257071495, -0.011130125261843204, -0.07692601531744003, 0.18373674154281616, 0.07861921191215515, -0.1399979591369629, 0.022490020841360092, 0.14543813467025757, 0.3125097155570984, -0.0846235528588295, -0.20748776197433472, 0.20134031772613525, 0.6002650260925293, 0.01520034484565258, 0.6358672976493835, 0.27907127141952515, 0.08452362567186356, -0.23006732761859894, -0.04372775927186012, -0.011602791026234627, -0.16309484839439392, 0.1907644420862198, -0.04726892337203026, -0.14777709543704987, -0.1048085168004036, -0.0679820328950882, -0.1733044981956482, -0.03762491047382355, 0.12771564722061157, 0.17193856835365295, 0.055240947753190994, 0.14392371475696564, 0.15820030868053436, 0.03719600290060043, 0.11048600822687149, -0.029857279732823372, 0.09279053658246994, 0.07481775432825089, 0.08033173531293869, -0.24932195246219635, 0.012375621125102043, -0.2889123857021332, -0.35332345962524414, 0.223719522356987, -0.10279884189367294, 0.024657541885972023, -0.0436692088842392, 0.18569250404834747, 0.031302303075790405, 0.199907124042511, -0.19841499626636505], "lstm.bias_hh_l0": [-0.11707200855016708, -0.18825069069862366, 0.11971217393875122, -0.3377701938152313, 0.09204766899347305, 0.10927234590053558, -0.37843117117881775, -0.09029534459114075, -0.03490367904305458, -0.11935039609670639, -0.3590644598007202, -0.20167019963264465, 0.149235337972641, 0.07350589334964752, -0.030422450974583626, 0.06752125918865204, 0.4972280263900757, 0.3347051739692688, 0.19433827698230743, 0.13861019909381866, -0.12142686545848846, 0.21732918918132782, -0.07354129105806351, -0.1509067416191101, 0.279461532831192, 0.3975123465061188, -0.003609467763453722, 0.5218445658683777, 0.3508669435977936, -0.04330335557460785, 0.021047458052635193, 0.002759787021204829, -0.06516896188259125, 0.1707906275987625, 0.19245657324790955, 0.13346265256404877, -0.08342187851667404, -0.04762786626815796, 0.08843418210744858, 0.16081425547599792, -0.07653053104877472, -0.11660183221101761, -0.24005702137947083, -0.17020677030086517, 0.1565086543560028, -0.2625933289527893, 0.24685946106910706, -0.23047633469104767, -0.21032963693141937, 0.30853793025016785, 0.1508413702249527, -0.21573111414909363, 0.16543570160865784, -0.029738057404756546, 0.0022310635540634394, -0.181814506649971, 0.008865930140018463, -0.03396392986178398, -0.33683639764785767, 0.22044043242931366, 0.16637282073497772, -0.14041203260421753, -0.09249968081712723, 0.020454086363315582], "dense.weight": [[0.3270430862903595, -0.03266044333577156, 0.1935298889875412, -0.0883360505104065, -0.051676180213689804, -0.31181690096855164, -0.10840240120887756, -0.07754894345998764, -0.058996278792619705, -0.19574789702892303, -0.25285667181015015, -0.6805644035339355, 0.18466582894325256, 0.1568366438150406, 0.2337086796760559, -0.13969118893146515]], "dense.bias": [-0.10600923746824265]}