{"conv1.weight": [[[[0.22603793442249298, 0.2178897261619568, 0.2303403615951538], [0.30787646770477295, -0.2381800264120102, 0.19715847074985504], [-0.28546419739723206, 0.017110737040638924, -0.3497955799102783]]], [[[0.051084257662296295, -0.3084964454174042, 0.18889017403125763], [-0.028253335505723953, 0.10166677087545395, 0.2320227473974228], [-0.30265989899635315, 0.0972433090209961, 0.005710382014513016]]], [[[-0.2439117282629013, -0.31015896797180176, 0.14314812421798706], [0.24905090034008026, -0.06987908482551575, 0.15719641745090485], [0.10364226996898651, 0.2142219990491867, 0.031996410340070724]]], [[[-0.28781354427337646, 0.2602084279060364, 0.14189185202121735], [-0.3322962820529938, 0.29265061020851135, 0.05538076162338257], [0.16686367988586426, 0.06602064520120621, -0.2295456826686859]]], [[[0.16380828619003296, 0.23496730625629425, 0.1571144461631775], [0.0846111848950386, 0.0786266028881073, 0.22353829443454742], [0.14518027007579803, -0.09797698259353638, -0.28961244225502014]]], [[[0.11750271171331406, 0.13094140589237213, -0.15459394454956055], [-0.17693829536437988, -0.23544761538505554, 0.26235145330429077], [0.23267531394958496, 0.15509115159511566, -0.1438072770833969]]], [[[-0.28285524249076843, 0.15505915880203247, 0.15351493656635284], [-0.3381536304950714, -0.08497704565525055, 0.30491676926612854], [-0.02676033414900303, -0.07250576466321945, -0.015173308551311493]]], [[[-0.26517316699028015, -0.371439129114151, -0.13131682574748993], [0.016092147678136826, -0.04359029233455658, -0.01965188980102539], [0.22040162980556488, 0.09785586595535278, 0.304992139339447]]], [[[-0.19857683777809143, 0.2038549929857254, 0.09474621713161469], [0.03141409158706665, 0.042552754282951355, -0.1843380182981491], [-0.09928903728723526, 0.0824747085571289, -0.0368465892970562]]], [[[0.17052242159843445, 0.19699010252952576, -0.02795768901705742], [0.017246533185243607, 0.1425153762102127, -0.30006924271583557], [-0.10433017462491989, 0.07573901861906052, 0.08195418864488602]]], [[[0.27995067834854126, 0.2408202737569809, 0.18555141985416412], [0.25334101915359497, -0.2159334421157837, -0.2052563577890396], [0.08212167769670486, 0.04896349459886551, 0.15800528228282928]]], [[[-0.2380797415971756, 0.27281254529953003, -0.22142811119556427], [0.07085388153791428, 0.30278897285461426, 0.11171413958072662], [0.16942325234413147, 0.2039010375738144, 0.09735268354415894]]], [[[-0.21694208681583405, -0.18963350355625153, 0.1075485348701477], [-0.037905775010585785, 0.27608516812324524, 0.16512419283390045], [-0.16661375761032104, -0.009626220911741257, -0.21296775341033936]]], [[[0.20730745792388916, 0.2717210352420807, 0.04120998829603195], [0.12867149710655212, 0.2543652355670929, -0.3395402133464813], [-0.29300791025161743, -0.003384097246453166, 0.25846436619758606]]], [[[0.05244632437825203, -0.1311999410390854, -0.04904251918196678], [-0.08190920203924179, 0.1775215119123459, -0.11246208101511002], [0.25585830211639404, -0.021215427666902542, -0.23577667772769928]]], [[[0.15806101262569427, 0.29345446825027466, 0.17615795135498047], [0.2493446171283722, -0.20960068702697754, 0.2793940305709839], [-0.014358451589941978, -0.08141987025737762, 0.23558175563812256]]]], "conv1.bias": [0.013204655610024929, -0.01407566573470831, -0.10706073045730591, -0.31984981894493103, -0.228520005941391, -0.13713723421096802, -0.05969017744064331, -0.05816933512687683, -0.22969269752502441, -0.011653133668005466, -0.013461178168654442, -0.13165155053138733, 0.03568239510059357, 0.167218878865242, -0.012798933312296867, -0.014490521512925625], "conv2.weight": [[[[-1.2096453247067984e-05, -3.154752266709693e-05, -4.032590368296951e-05], [5.4705054935766384e-05, -2.0146089809713885e-06, 3.2293850381392986e-05], [-1.0096341611642856e-05, -9.388420039613266e-06, -2.8384999950503698e-06]], [[-1.307232537328673e-06, 2.227769982710015e-06, -1.4769584595342167e-06], [-6.019869829287927e-07, -3.465539293756592e-06, -2.1779716917080805e-05], [-3.196530769855599e-06, -2.433600639051292e-05, -6.228240818018094e-05]], [[6.915279300301336e-07, -5.267317646939773e-06, -3.2888365240069106e-05], [-0.0001370497338939458, -0.00040337623795494437, -9.04061016626656e-05], [0.0013237384846433997, -0.0018418069230392575, -0.002548394026234746]], [[-1.3409547250375908e-07, -2.764695182122523e-06, -5.2318528105388395e-06], [-3.060775384255976e-07, -5.466395577968797e-06, -1.3999990642332705e-06], [-7.427909167745383e-07, -5.134010621077323e-07, 3.042225444005453e-06]], [[3.873926289088558e-06, -3.977660071541322e-06, -6.156747986096889e-06], [1.700497705314774e-06, -4.054802957398351e-06, -4.019967491331045e-06], [-0.0002018791128648445, -0.0001326717174379155, -2.509220030333381e-05]], [[-1.7662333107182349e-07, 5.517165391211165e-07, -1.5779879731780966e-06], [3.777576785068959e-05, 1.4898089375492418e-06, 3.919127266271971e-06], [0.000527239462826401, 0.0004814997664652765, 0.0003328052698634565]], [[-2.245018322355463e-06, 2.2962738512433134e-05, 3.6902661122439895e-06], [-1.0351789114793064e-06, -2.4654539174662204e-06, 5.081410563434474e-05], [5.877677153875993e-07, 4.818754314328544e-05, -1.0545575605647173e-05]], [[-9.751995548867853e-07, -1.0523049240873661e-05, -2.3848841010476463e-05], [0.00020458304788917303, 6.80181328789331e-05, -0.00016632270126137882], [-0.0042100828140974045, 0.0013527338160201907, 0.0026425966061651707]], [[2.448927318710048e-07, -1.8635349761098041e-06, -1.2849669701608946e-06], [-3.0380732596313464e-07, -1.3065827033642563e-06, -1.1522386103024473e-06], [-1.0038451847549368e-07, 4.087821992015961e-07, -2.6944869091494184e-07]], [[-2.1217708479071007e-07, -4.616257228917675e-06, -7.190647465904476e-06], [3.7084264548070678e-09, -3.219979589630384e-06, -7.024602837191196e-07], [-5.067995516583323e-07, -1.9027251028091996e-06, -4.2277997636119835e-06]], [[7.336997896345565e-06, 4.0533342371418257e-07, -1.777435500116553e-05], [-4.857933527091518e-05, -2.6791501568368403e-06, -2.7163447157363407e-05], [-0.0025928551331162453, -0.0016055938322097063, -0.0005330274580046535]], [[1.2736765029330854e-06, -2.7438130928203464e-05, -3.9382895920425653e-05], [0.0006009137723594904, -0.001888858387246728, -0.0006737848161719739], [0.0011493134079501033, -0.0043999673798680305, 7.448783435393125e-05]], [[2.1957899662083946e-05, -3.900711817550473e-06, -0.00024169163953047246], [0.00012611248530447483, 0.0001595925132278353, -4.1146387957269326e-05], [-8.291340782307088e-05, 5.669648089678958e-05, 3.316145739518106e-05]], [[-7.750955410301685e-05, -0.00011302492930553854, -0.00012358003004919738], [-7.310970249818638e-05, -9.448557830182835e-05, -0.00012946627975907177], [-0.0002165323676308617, -0.00012453021190594882, -0.00011079251271439716]], [[-4.4119324229541235e-06, 3.556498541001929e-06, -1.659991994529264e-06], [1.9033903981835465e-06, -8.235621749008715e-07, -1.551171862956835e-06], [1.6493809198436793e-06, -8.046960431329353e-08, -1.9672804683068534e-06]], [[1.0171708709094673e-05, -1.5586227164021693e-05, -5.2848092309432104e-05], [6.540238246088848e-05, -3.07168738800101e-05, -8.076192170847207e-05], [-0.007284344639629126, 0.003192322328686714, 0.00047480908688157797]]], [[[-0.019558703526854515, 0.0418936051428318, -0.00824838224798441], [0.0608673058450222, -0.06598703563213348, -0.03527501970529556], [-0.025369036942720413, 0.04176277667284012, -0.008683562278747559]], [[-0.06274662166833878, -0.07778535038232803, -0.03506964445114136], [0.05819176509976387, 0.03221597522497177, -0.010450377129018307], [-0.036163389682769775, 0.05896192044019699, 0.0007285508909262717]], [[-0.018026791512966156, -0.04444428160786629, -0.025682814419269562], [0.050738625228405, 0.09110715240240097, 0.01725221425294876], [0.021731803193688393, -0.041190050542354584, -0.04948963224887848]], [[-0.01363090518862009, -0.0616852268576622, -0.055021028965711594], [0.05676841735839844, -0.07734031230211258, -0.038423944264650345], [0.048829883337020874, -0.037737321108579636, -0.06682315468788147]], [[-0.08210189640522003, 0.010377535596489906, 0.01971982978284359], [-0.06340605765581131, -0.07451669871807098, 0.050836462527513504], [-0.00014082700363360345, -0.0022242951672524214, 0.03834842890501022]], [[0.03767874836921692, -0.07535985112190247, -0.018229302018880844], [0.04261372610926628, -0.05611375346779823, -0.0025165544357150793], [0.05240657180547714, -0.055914171040058136, -0.016671577468514442]], [[-0.009017967619001865, 0.02452452853322029, 0.1211290955543518], [0.004389309324324131, 0.018053172156214714, 0.0912325531244278], [0.029611121863126755, -0.06003601476550102, 0.04360569268465042]], [[-0.013154987245798111, -0.0185751523822546, 0.05623086169362068], [-0.06555692851543427, 0.039902906864881516, -0.045666374266147614], [-0.11835955083370209, -0.08285900950431824, -0.011414905078709126]], [[0.02052280679345131, 0.014720514416694641, 0.03894902393221855], [0.017789321020245552, 0.05558440089225769, 0.006990676745772362], [-0.013624776154756546, -0.05727577582001686, 0.02632564678788185]], [[0.05060415714979172, -0.09047286212444305, 0.027051517739892006], [-0.022334346547722816, -0.06266846507787704, -0.07022178173065186], [-0.06279011070728302, 0.0696980431675911, -0.05401933938264847]], [[0.040337637066841125, -0.031721994280815125, -0.0018892864463850856], [0.06282101571559906, -0.0409376360476017, -0.005186862777918577], [-0.06408451497554779, -0.022118618711829185, 0.06282221525907516]], [[0.05829373374581337, -0.034367457032203674, -0.03796014562249184], [0.049355484545230865, -0.04651659354567528, -0.05251270532608032], [0.042317453771829605, -0.007307225372642279, -0.0029142615385353565]], [[-0.015912743285298347, -0.005321631673723459, 0.029518455266952515], [0.009730586782097816, -0.03371501713991165, -0.0034611441660672426], [0.10786128789186478, 0.03274334594607353, 0.055408675223588943]], [[-0.04005559906363487, 0.01299272384494543, 0.003372789127752185], [-0.04447785019874573, 0.0006037528510205448, 0.06325501203536987], [-0.02631005458533764, 0.0504504032433033, 0.05032889172434807]], [[-0.024349769577383995, -0.012108729220926762, -0.016776325181126595], [0.010782137513160706, 0.027693305164575577, 0.01133202575147152], [-0.0005544257583096623, -0.00966882985085249, -0.06608673930168152]], [[-0.05377209559082985, -0.08160524070262909, -0.017457198351621628], [0.06289214640855789, 0.039780668914318085, 0.06479185074567795], [-0.031094085425138474, 0.0640670508146286, -0.02613801509141922]]], [[[-0.020775625482201576, -0.0738983005285263, -0.05033065006136894], [-0.07440758496522903, -0.02314557135105133, -0.08091457188129425], [-0.039421193301677704, 0.07592573761940002, 0.038895368576049805]], [[0.03235775604844093, -0.009286397136747837, -0.014427530579268932], [0.050373390316963196, 0.03844541311264038, 0.03669348359107971], [0.0618964247405529, -0.016731534153223038, 0.01295644324272871]], [[0.04062335938215256, -0.06606701761484146, 0.0638575553894043], [-0.04539346322417259, -0.05089530721306801, 0.05257108435034752], [-0.05077272653579712, 0.026482464745640755, -0.032140880823135376]], [[0.013400198891758919, -0.00046911981189623475, -0.013123133219778538], [-0.0196384284645319, -0.030806951224803925, 0.009063389152288437], [0.09370207786560059, -0.06408041715621948, -0.09597273170948029]], [[0.016967017203569412, -0.046026695519685745, -0.032974936068058014], [-0.08527552336454391, 0.06641094386577606, 0.05070078745484352], [-0.07271343469619751, 0.025102224200963974, 0.012086818926036358]], [[-0.06359134614467621, 0.052370812743902206, 0.0018576736329123378], [-0.03515254706144333, -0.016533683985471725, -0.03907123953104019], [-0.07035300880670547, 0.028438759967684746, -0.0574311800301075]], [[-0.047549083828926086, -0.04370635375380516, 0.044183045625686646], [0.03905492275953293, -0.014375274069607258, 0.02244214527308941], [0.15072229504585266, -0.014036718755960464, -0.06066620722413063]], [[0.0075009665451943874, 0.04112115129828453, 0.027256352826952934], [-0.035927217453718185, -0.02798946015536785, 0.06424831598997116], [-0.06624894589185715, 0.0033666265662759542, -0.038424864411354065]], [[0.019365955144166946, -0.019183998927474022, -0.002608672948554158], [0.009556859731674194, -0.018421383574604988, -0.008715374395251274], [0.003666012082248926, 0.055930472910404205, -0.0037863224279135466]], [[-0.05636407434940338, -0.0037692382466048002, -0.1047830581665039], [-0.034757137298583984, -0.054785776883363724, -0.07150596380233765], [-0.05664018169045448, 0.05741632729768753, 0.064252570271492]], [[0.018412915989756584, -0.0782402828335762, 0.012976417317986488], [-0.04594678059220314, 0.03954843431711197, -0.027315227314829826], [-0.06331934779882431, -0.0024165634531527758, -0.02097124606370926]], [[0.013100087642669678, -0.05199426785111427, -0.05537017807364464], [0.07744096964597702, -0.037358734756708145, -0.058931879699230194], [0.07852049916982651, -0.0186664629727602, -0.018347319215536118]], [[-0.027618521824479103, 0.01403073687106371, 0.014214643277227879], [0.06632029265165329, 0.05940600857138634, 0.015768107026815414], [0.14137157797813416, 0.055082496255636215, 0.00960352923721075]], [[0.03326169773936272, -0.06474578380584717, -0.1039469912648201], [-0.049863770604133606, 0.040946390479803085, 0.0476953461766243], [-0.07084106653928757, 0.05515024811029434, -0.05151771381497383]], [[-8.128589252009988e-05, 0.013960745185613632, 0.0024119592271745205], [2.9869364880141802e-05, -0.017021138221025467, -0.04154925048351288], [0.004566464573144913, -0.019172821193933487, -0.02574249729514122]], [[-0.09778058528900146, -0.07602380961179733, 0.026200147345662117], [0.02139369584619999, -0.04859094321727753, 0.06274633854627609], [-0.08490361273288727, 0.05427848547697067, 0.02537771314382553]]], [[[-0.03702467679977417, -0.12450551241636276, -0.08011887222528458], [-0.051853738725185394, -0.01452940795570612, -0.04089755192399025], [-0.12086379528045654, 0.02278446964919567, 0.09525637328624725]], [[-0.0369015708565712, 0.005352886393666267, -0.0212407186627388], [-0.11945755779743195, 0.07781513035297394, -0.01641024649143219], [-0.07850794494152069, -0.0525289811193943, -0.07499023526906967]], [[-0.06755492091178894, 0.05567658692598343, 0.07605386525392532], [-0.10476438701152802, 0.0020696655847132206, 0.09122961014509201], [-0.07436637580394745, -0.07732821255922318, -0.06851722300052643]], [[-0.06468568742275238, 0.06474597752094269, 0.00645534647628665], [-0.06073276698589325, 0.029717491939663887, -0.047058284282684326], [-0.0791257694363594, 0.12254143506288528, -0.04785686358809471]], [[-0.03277831897139549, -0.012802863493561745, -0.003881489858031273], [-0.0010008930694311857, 0.0670134499669075, 0.0863121971487999], [-0.01197470910847187, -0.0064429668709635735, -0.0400572195649147]], [[-0.0410134419798851, -0.05815736576914787, 0.03507517650723457], [-0.06864389777183533, -0.03466735780239105, 0.017071334645152092], [-0.0071180760860443115, -0.07795400172472, -0.045688774436712265]], [[-0.06380512565374374, -0.006570077501237392, -0.13417606055736542], [-0.089295893907547, 0.07226908951997757, -0.24606385827064514], [-0.10421528667211533, 0.10534941405057907, -0.18783795833587646]], [[-0.08981839567422867, -0.041308119893074036, 0.06471055746078491], [-0.021644718945026398, -0.013661605305969715, 0.026143323630094528], [-0.013689949177205563, 0.04076715558767319, 0.009523197077214718]], [[-0.0025789765641093254, -0.019483769312500954, 0.02912157028913498], [0.004345031920820475, 0.13049347698688507, 0.0003476467973086983], [-0.020667973905801773, 0.061733096837997437, -0.009420719929039478]], [[-0.013823281973600388, 0.08386430144309998, 0.0027370441239327192], [0.016651298850774765, 0.0409734807908535, 0.018153702840209007], [-0.051602840423583984, 0.06080047786235809, 0.1172788068652153]], [[-0.09381673485040665, -0.05669812858104706, 0.06705914437770844], [-0.07632792741060257, 0.030228884890675545, -0.019219733774662018], [-0.031546641141176224, -0.03418615832924843, -0.013946563005447388]], [[-0.040333498269319534, 0.02334536798298359, 0.08896300196647644], [-0.11467749625444412, 0.12576764822006226, -0.04412281513214111], [-0.11266300827264786, 0.06005092337727547, 0.015421031974256039]], [[-0.008598022162914276, 0.11442450433969498, 0.01359157357364893], [-0.02974449098110199, 0.09676611423492432, 0.007401466369628906], [-0.039152707904577255, 0.053276002407073975, -0.06438200920820236]], [[-0.019408775493502617, 0.08402512222528458, -0.10122179985046387], [-0.00366843375377357, 0.020965682342648506, 0.02754163183271885], [-0.06574191153049469, 0.1126585304737091, 0.10705611109733582]], [[4.682841608882882e-05, -5.350757055566646e-05, -8.532874198863283e-05], [-4.784051998285577e-05, 0.0009963784832507372, 0.03894668444991112], [8.915887883631513e-05, 0.0002780508657451719, 0.08797406405210495]], [[-0.12157527357339859, -0.08043961971998215, 0.019265225157141685], [-0.11939217150211334, -0.006429346278309822, 0.07960639894008636], [-0.0307328924536705, 0.023886531591415405, -0.06460536271333694]]], [[[-0.04987412691116333, 0.0084389578551054, 0.023786446079611778], [0.06891097128391266, -0.040904659777879715, -0.0056288535706698895], [-0.048200346529483795, -0.005074101034551859, -0.008176686242222786]], [[0.07629670202732086, -0.045753683894872665, -0.0904754176735878], [-0.01926664263010025, -0.055395543575286865, 0.04161994904279709], [0.04421963170170784, -0.059888411313295364, -0.06817635893821716]], [[0.04764634743332863, 0.024288997054100037, 0.08362190425395966], [-0.026173043996095657, 0.04217508062720299, 0.01106333639472723], [0.09170537441968918, 0.01910579577088356, 0.031491007655858994]], [[-0.03545193374156952, 0.10214313864707947, -0.06040554121136665], [0.09310038387775421, 0.10323473811149597, 0.021494518965482712], [0.0970260500907898, 0.03692462295293808, 0.06302808970212936]], [[0.06875751167535782, -0.013601815328001976, 0.024045204743742943], [0.03042732924222946, 0.042232975363731384, 0.0019510253332555294], [0.0913875624537468, 0.06263867765665054, 0.024530800059437752]], [[0.08333349972963333, 0.09083078801631927, -0.06681626290082932], [0.07785152643918991, -0.03317837044596672, -0.042064253240823746], [-0.06913618743419647, -0.013539796695113182, -0.038820672780275345]], [[-0.04588044434785843, 0.05377138406038284, -0.02333267591893673], [0.053537119179964066, 0.03796954080462456, -0.018356237560510635], [0.00529641006141901, 0.024124303832650185, 0.08646397292613983]], [[-0.046552687883377075, -0.07498352974653244, -0.06015884876251221], [0.012573586776852608, 0.034045811742544174, -0.0679820328950882], [0.003162961918860674, -8.4000697825104e-05, 0.006929372437298298]], [[0.03485560417175293, -0.005385109689086676, 0.053208786994218826], [-0.024568885564804077, 0.021737871691584587, 0.008534927852451801], [-0.030789755284786224, -0.011463533155620098, 0.03504539281129837]], [[-0.0689278170466423, 0.05253145471215248, 0.049774251878261566], [0.026085644960403442, -0.0019031985430046916, 0.018070867285132408], [-0.05997058004140854, 0.06759066134691238, 0.02993706613779068]], [[-0.054058827459812164, -0.03714604303240776, 0.09024369716644287], [0.06162184476852417, -0.05124179646372795, 0.017642103135585785], [-0.018735380843281746, 0.0850660651922226, 0.016368359327316284]], [[-0.004327879287302494, 0.1022011861205101, 0.023044902831315994], [-0.019033078104257584, 0.09088673442602158, 0.01334189623594284], [0.053726233541965485, -0.03455762937664986, -0.01824318990111351]], [[0.00792213249951601, -0.0018560811877250671, 0.0031670252792537212], [0.03438156843185425, 0.0727560818195343, -0.07046056538820267], [0.005838534329086542, 0.03992682695388794, -0.020774243399500847]], [[-0.006546528544276953, 0.062153518199920654, -0.015907596796751022], [0.08951124548912048, 0.10176273435354233, 0.10226757079362869], [-0.020123539492487907, 0.0554695650935173, -0.06269404292106628]], [[-0.08120080828666687, 0.06518910825252533, -0.030581194907426834], [-0.07822422683238983, 0.0272362120449543, 0.040342818945646286], [-0.08437246829271317, 0.037351083010435104, 0.019703038036823273]], [[0.028687264770269394, 0.07649598270654678, -0.04467431455850601], [0.03401939943432808, 0.05642591789364815, -0.04620255157351494], [0.07127484679222107, 0.058706462383270264, 0.0008274837164208293]]], [[[-0.009216643869876862, 0.0032474659383296967, -0.04461599886417389], [-0.009359953925013542, -1.6841944670886733e-05, -0.04095006734132767], [-0.009327332489192486, -0.013344838283956051, -0.0737677738070488]], [[0.0488932766020298, -0.0413915179669857, -0.045592594891786575], [0.1096937358379364, -0.046253472566604614, -0.02985536865890026], [0.12983949482440948, -0.07667194306850433, -0.03980284184217453]], [[0.020751476287841797, 0.0046896240673959255, -0.0662553682923317], [0.06885078549385071, -0.008332992903888226, -0.12289604544639587], [0.0388495959341526, 0.03062950260937214, -0.0791633129119873]], [[0.07828229665756226, 0.05120021849870682, -0.052199769765138626], [0.07054642587900162, 0.10652667284011841, -0.08766257017850876], [0.05571966990828514, 0.0035869013518095016, -0.07012210786342621]], [[0.04958048090338707, 0.019139781594276428, -0.04657067731022835], [0.009735188446938992, 0.019825739786028862, -0.05750204250216484], [0.005326677113771439, 0.09056858718395233, -0.0604262575507164]], [[-0.05417419970035553, 0.009969116188585758, -0.06833722442388535], [0.006609281990677118, 0.013227527029812336, -0.0644855946302414], [0.025546254590153694, 0.017347736284136772, 0.014296416193246841]], [[0.06172444671392441, 0.049898285418748856, 0.0026283864863216877], [0.059290025383234024, 0.004187109414488077, -0.0020006343256682158], [0.07134179025888443, -0.009552039206027985, -0.004259826615452766]], [[0.01688523031771183, -0.017116643488407135, -0.0751376748085022], [0.08860009908676147, 0.006457325536757708, -0.11897198855876923], [0.06275695562362671, 0.04169563576579094, -0.009982013143599033]], [[0.02637074701488018, 0.06433258205652237, -0.022733235731720924], [0.015124439261853695, 0.10078511387109756, -0.020255424082279205], [0.06243664771318436, 0.021566376090049744, -0.02409498579800129]], [[-0.04711446166038513, 0.017170388251543045, -0.04624420776963234], [0.01802091673016548, 0.09908788651227951, -0.06218996271491051], [-0.015914104878902435, 0.06521344184875488, -0.06375395506620407]], [[0.05122879520058632, -0.002055411459878087, -0.05706924572587013], [-0.008763641119003296, 0.058443743735551834, -0.011158168315887451], [-0.03405790030956268, -0.03006199561059475, -0.0750497579574585]], [[0.051072414964437485, 0.023659363389015198, -0.030052080750465393], [-0.010246692225337029, 0.017697840929031372, -0.09265980124473572], [0.10164933651685715, 0.09654788672924042, -0.08728814125061035]], [[-0.013311409391462803, -0.01975771225988865, -0.015299566090106964], [0.007507462054491043, -0.022295836359262466, -0.010266494937241077], [0.024330519139766693, -0.027341650798916817, -0.009008306078612804]], [[0.03996270149946213, 0.061802588403224945, -0.06896847486495972], [0.032172758132219315, -0.0046719457022845745, -0.052743248641490936], [0.037721920758485794, 0.10373307019472122, -0.06150657683610916]], [[-0.11358549445867538, 0.10111615806818008, -0.043678198009729385], [-0.08476193994283676, 0.10853465646505356, -0.03703001141548157], [0.0032958120573312044, 0.07602201402187347, -0.014643245376646519]], [[-0.03586003556847572, -0.08472812920808792, -0.05758458375930786], [-0.01965436339378357, -0.0500856377184391, -0.0843982845544815], [0.006673935800790787, -0.08123518526554108, -0.041479919105768204]]], [[[0.04212198778986931, 0.026389967650175095, 0.09358371794223785], [0.06468328833580017, 0.0025151108857244253, -0.03716721758246422], [0.038381509482860565, 0.028244953602552414, 0.10250473022460938]], [[0.008877759799361229, -0.02613663114607334, -0.06877516210079193], [-0.01481534168124199, -0.010898384265601635, 0.09561282396316528], [0.01618150807917118, 0.02716425061225891, -0.007859544828534126]], [[-0.044888176023960114, 0.005154168698936701, -0.033975712954998016], [-0.058932047337293625, 0.08958269655704498, 0.03651535511016846], [0.015152626670897007, -0.0432637520134449, 0.07005943357944489]], [[-0.013402932323515415, -0.02512330375611782, 0.0394858717918396], [0.09336968511343002, 0.11260992288589478, 0.07268927991390228], [0.03916988521814346, 0.014620575122535229, 0.03733884170651436]], [[-0.026666652411222458, -0.006730253808200359, 0.09688271582126617], [-0.03807651996612549, 0.10498849302530289, -0.02175828255712986], [0.009296833537518978, 0.03634178638458252, 0.07271851599216461]], [[0.08153094351291656, 0.017983099445700645, -0.00872720405459404], [0.048318590968847275, -0.03141787275671959, 0.008629806339740753], [0.02770756185054779, -0.012164903804659843, 0.08391780406236649]], [[-0.035254690796136856, 0.027587607502937317, 0.015354503877460957], [-0.007394353859126568, 0.012204911559820175, 0.03293287754058838], [0.03306883946061134, 0.11883075535297394, 0.11207742244005203]], [[-0.04507097601890564, 0.07192420214414597, 0.05374573543667793], [-0.10204172134399414, -0.10731382668018341, -0.10698375850915909], [0.0011929363245144486, -0.030473845079541206, 0.0070745134726166725]], [[0.04875379428267479, -0.011292924173176289, -0.03758173808455467], [-0.044591665267944336, 0.08147057145833969, 0.0818890854716301], [0.0409739688038826, -0.040716610848903656, 0.007110645063221455]], [[-0.016933145001530647, -0.023799287155270576, 0.09844676405191422], [0.005639004986733198, 0.0299343541264534, 0.02470121532678604], [0.0023549965117126703, 0.10406342893838882, 0.04782543703913689]], [[0.03798462450504303, 0.07575724273920059, 0.029280181974172592], [0.022614510729908943, 0.02453002706170082, 0.04771003499627113], [0.0121464179828763, 0.05470867082476616, 0.02076917141675949]], [[-0.024623584002256393, 0.05228643864393234, 0.11315085738897324], [0.058972425758838654, -0.03176165744662285, 0.033473651856184006], [-0.044198524206876755, 0.08554662019014359, -0.023578332737088203]], [[0.11745347827672958, 0.032461605966091156, 0.0496232770383358], [0.027597766369581223, 0.11126726865768433, 0.05791713669896126], [0.07707355916500092, 0.02096189185976982, 0.029004963114857674]], [[0.03957004100084305, 0.011445438489317894, -0.005870319902896881], [0.09297101199626923, -0.01578770950436592, 0.024081936106085777], [0.012766405940055847, -0.003700877074152231, -0.05137404426932335]], [[-0.06144913285970688, 0.06955618411302567, -0.0071229711174964905], [-0.0010342404711991549, 0.01586003042757511, 0.07303277403116226], [-0.05821722745895386, 0.041838839650154114, 0.06827794760465622]], [[0.06840058416128159, 0.058991093188524246, 0.01951483078300953], [-0.016482194885611534, 0.07802233844995499, 0.0874108374118805], [0.03207329288125038, -0.023631425574421883, 0.013376516290009022]]], [[[0.023968862369656563, 0.0431993268430233, -0.004923480097204447], [-0.0013021513586863875, -0.04840752109885216, -0.01708478294312954], [-0.05549950525164604, -0.05808946490287781, 0.045265767723321915]], [[-0.005429564509540796, -0.021663712337613106, 0.006761298514902592], [-0.026358099654316902, -0.038888540118932724, 0.04719924181699753], [-0.020378194749355316, 0.04364699870347977, 0.06700814515352249]], [[0.021841343492269516, -0.043332234025001526, 0.045990362763404846], [-0.00946937408298254, -0.011343691498041153, -0.0007206106674857438], [-0.07265391200780869, -0.07098469138145447, -0.02590533345937729]], [[0.014629028737545013, -0.06547551602125168, 0.007328882347792387], [0.02015862986445427, 0.029599148780107498, 0.048060476779937744], [0.015176726505160332, -0.020069384947419167, 0.019284522160887718]], [[-0.07655742764472961, -0.08017903566360474, 0.005061603616923094], [-0.05346136912703514, -0.0170883946120739, 0.05374835431575775], [-0.03541640192270279, -0.0073822252452373505, -0.01827053911983967]], [[0.008617590181529522, 0.0037005560006946325, 0.014315154403448105], [0.02753482200205326, -0.042517539113759995, -0.0595543347299099], [0.044964756816625595, 0.049129389226436615, 0.04603419452905655]], [[0.021830301731824875, 0.043151307851076126, 0.11630479991436005], [0.016050325706601143, 0.019117724150419235, 0.12535534799098969], [0.011068176478147507, 0.001168691087514162, 0.10969192534685135]], [[0.052734073251485825, -0.012549130246043205, -0.039514150470495224], [0.019429201260209084, -0.012629043310880661, -0.056467752903699875], [-0.00905909389257431, -0.01484789326786995, -0.04909135773777962]], [[-0.0047874790616333485, -0.02845199778676033, -0.04314737394452095], [0.027896327897906303, 0.003174085635691881, -0.04303957149386406], [0.008908250369131565, -0.02170371450483799, -0.004928252659738064]], [[0.028915785253047943, -0.06629298627376556, -0.04324246570467949], [0.025559913367033005, -0.031375180929899216, 0.020567215979099274], [-0.01607608050107956, 0.024959392845630646, -0.012197025120258331]], [[-0.009457722306251526, -0.06499234586954117, -0.019533101469278336], [-0.07668907940387726, 0.015059865079820156, 0.05025998130440712], [0.041965559124946594, -0.04956886172294617, -0.003532103495672345]], [[-0.037703219801187515, -0.07191377878189087, -0.0464303195476532], [-0.05535830929875374, -0.016494350507855415, 0.05757206305861473], [-0.03245965391397476, -0.0659240111708641, -0.0109217194840312]], [[0.007067153230309486, 0.0044780694879591465, 0.02542218007147312], [0.007447357755154371, -0.025365054607391357, 0.018136831000447273], [0.003011890919879079, -0.00024795340141281486, 0.024301141500473022]], [[-0.06624208390712738, -0.06902597844600677, -0.03881896659731865], [-0.010834797285497189, -0.017668865621089935, 0.016303755342960358], [-0.025663534179329872, -0.07068200409412384, 0.016597962006926537]], [[0.0017562608700245619, -7.360546078416519e-06, 0.00021650879352819175], [0.0036024500150233507, 0.00012990031973458827, 8.136277028825134e-05], [0.0025349361822009087, -0.00035581120755523443, 0.00013727054465562105]], [[-0.025821778923273087, 0.029486864805221558, 0.07693353295326233], [-0.02883654274046421, -0.02554989419877529, 0.06540124118328094], [0.04320785403251648, -0.05955377221107483, 0.03102201409637928]]], [[[0.06556576490402222, -0.06221642717719078, 0.026063142344355583], [-0.009512403979897499, -0.07388641685247421, 0.03657432645559311], [0.007925222627818584, 0.08538729697465897, 0.052908074110746384]], [[0.06793923676013947, 0.08565454185009003, 0.03872474655508995], [0.029014332219958305, -0.012407483533024788, -0.022213660180568695], [-0.07215683907270432, -0.01857350394129753, 0.05960272252559662]], [[0.07018576562404633, -0.017799919471144676, 0.0702681615948677], [-0.09319239109754562, 0.00735702458769083, 0.03545486181974411], [0.031014081090688705, 0.039446428418159485, -0.04621036723256111]], [[0.010926813818514347, -0.034712500870227814, -0.07666998356580734], [-0.013413558714091778, 0.09989377856254578, 0.02993938885629177], [0.05263017490506172, 0.07950328290462494, 0.011974169872701168]], [[-0.030899876728653908, -0.05273701623082161, 0.01878545992076397], [-0.06958349049091339, -0.045072756707668304, -0.03888091817498207], [-0.08517374098300934, -0.011276377364993095, -0.029948106035590172]], [[0.0016742644365876913, -0.07970461249351501, -0.011069710366427898], [0.026682211086153984, 0.07346675544977188, 0.019935013726353645], [-0.03615764155983925, 0.00849226675927639, -0.025937315076589584]], [[-0.032654449343681335, 0.02892000786960125, -0.05635691061615944], [0.04336601123213768, 0.09222298860549927, -0.09462136030197144], [0.005517784506082535, 0.1529003232717514, -0.0038430558051913977]], [[0.02417643740773201, -0.060342658311128616, 0.0489729568362236], [0.008338991552591324, 0.05072306469082832, 0.048640426248311996], [-0.012643275782465935, -0.05352480709552765, 0.027831168845295906]], [[0.051222797483205795, 0.07193030416965485, -0.04615325853228569], [-0.02671271376311779, 0.07471063733100891, 0.04261315241456032], [-0.005373815074563026, -0.020577408373355865, 0.04605609178543091]], [[0.042260199785232544, -0.03781392425298691, 0.059362079948186874], [-0.024129923433065414, 0.08159671723842621, -0.04447412118315697], [0.02280043438076973, 0.04403476044535637, 0.043743863701820374]], [[-0.012763003818690777, -0.04368839040398598, -0.07877243310213089], [-0.07331112772226334, 0.016354583203792572, 0.08569616824388504], [-0.06611501425504684, 0.04244791716337204, 0.029192041605710983]], [[0.024477604776620865, 0.09099225699901581, 0.04938943311572075], [-0.056598398834466934, 0.04456540569663048, -0.058721136301755905], [-0.05512678623199463, -0.008581594564020634, 0.0005715927691198885]], [[0.026845289394259453, 0.06928159296512604, -0.002487658057361841], [0.005864324513822794, 0.0681716725230217, -0.010456372052431107], [-0.0017894289921969175, 0.04369133710861206, 0.004675936885178089]], [[-0.012447415851056576, 0.04185668006539345, 0.04411563277244568], [-0.034256815910339355, 0.08041302859783173, -0.006746293976902962], [-0.002450963482260704, -0.027905672788619995, 0.08717223256826401]], [[-4.211984560242854e-05, -0.0033766564447432756, 0.010096018202602863], [0.0006654895259998739, 0.005118857603520155, 0.025739388540387154], [0.010881799273192883, 0.031946826726198196, 0.05424540862441063]], [[0.043487660586833954, 0.06694719940423965, -0.06752034276723862], [-0.07788330316543579, -0.04104113206267357, -0.02249738574028015], [-0.023107046261429787, 0.02681026980280876, -0.07564468681812286]]], [[[0.06632362306118011, 0.06816116720438004, 0.03452979773283005], [-0.04522286728024483, 0.10685037076473236, 0.09093315154314041], [0.04479584842920303, 0.021538767963647842, -0.07057717442512512]], [[-0.06752225011587143, 0.059318047016859055, -0.0641551986336708], [0.063666932284832, 0.03243362531065941, 0.14429645240306854], [-0.040702082216739655, -0.08596907556056976, -0.00847839005291462]], [[0.10678699612617493, -0.010216958820819855, 0.10108242928981781], [-0.10069901496171951, -0.1637158989906311, -0.17888328433036804], [-0.05024588108062744, 0.07071489095687866, 0.052681781351566315]], [[0.0912163108587265, -0.045604586601257324, -0.061528485268354416], [0.0129139618948102, 0.03684048354625702, 0.008928133174777031], [-0.04716818407177925, 0.006468732375651598, 0.09996487945318222]], [[0.037716709077358246, 0.011712769977748394, 0.013510117307305336], [-0.026281047612428665, 0.10309597849845886, 0.09334739297628403], [-0.0731603279709816, -0.018438095226883888, -0.07284308969974518]], [[-0.020781006664037704, -0.08225693553686142, -0.07278091460466385], [-0.05173347890377045, 0.014144256711006165, 0.027692070230841637], [0.04887403920292854, -0.030529364943504333, 0.10957479476928711]], [[-0.04417528584599495, -0.06429266184568405, -0.037498388439416885], [0.055898554623126984, 0.13413961231708527, 0.17856690287590027], [0.11827564239501953, 0.16002844274044037, 0.3112320303916931]], [[-0.10229533910751343, -0.03182410076260567, 0.03573554381728172], [0.011474354192614555, -0.06453589349985123, -0.0955127477645874], [0.051485683768987656, 0.07580667734146118, 0.06443522125482559]], [[0.019951028749346733, 0.02240140177309513, -0.020472856238484383], [-0.021973686292767525, 0.0446288175880909, -0.020289912819862366], [0.0617438405752182, 0.0524284765124321, 0.06623037904500961]], [[-0.044117413461208344, -0.06433507055044174, -0.06301308423280716], [0.02464578114449978, 0.0754600465297699, 0.035169072449207306], [0.06910808384418488, 0.05240644887089729, -0.06196329742670059]], [[-0.037993308156728745, 0.07125117629766464, -0.052390530705451965], [-0.013157455250620842, 0.0913863331079483, -0.06357670575380325], [-0.01948869600892067, 0.021436117589473724, 0.012570786289870739]], [[-0.028804687783122063, 0.07075165957212448, 0.0393720380961895], [-0.02979944832623005, -0.019521594047546387, -0.0705200806260109], [0.03998751938343048, -0.03517860174179077, -0.05785609409213066]], [[0.05491475388407707, 0.11512373387813568, 0.02510353922843933], [0.13722921907901764, 0.11829447001218796, 0.09106504172086716], [-0.14592480659484863, -0.13433502614498138, 0.01966411992907524]], [[0.020103707909584045, -0.03873782977461815, -0.050821609795093536], [-0.03661421313881874, -0.05234825611114502, -0.04245070368051529], [-0.039462748914957047, 0.010965432040393353, -0.014245540834963322]], [[-0.13853901624679565, -0.13076473772525787, -0.14787383377552032], [0.03604629263281822, 0.01167993526905775, -0.06414590030908585], [-0.08346643298864365, -0.03126226365566254, -0.04305386170744896]], [[-0.0011494416976347566, 0.03515821322798729, 0.021043594926595688], [0.0898064523935318, 0.03206176683306694, 0.01647830195724964], [-0.07877760380506516, -0.053908657282590866, -0.037873610854148865]]], [[[-0.0002859883534256369, -5.536334356293082e-05, 0.0001974149636225775], [0.00038688440690748394, -0.00010971003212034702, -0.0005186375346966088], [2.3900322048575617e-05, -0.0012444914318621159, -0.0017518318491056561]], [[0.00016413106641266495, 0.00014071750047151, 9.353100176667795e-05], [0.0001369557430734858, 0.00012725671695079654, 0.00014328087854664773], [0.00014726760855410248, 0.00012152878480264917, 0.00010684255539672449]], [[0.00031846706406213343, 0.00031107626273296773, 0.0002682613267097622], [0.000179691516677849, 0.0003717979125212878, 0.0003818382683675736], [0.0001572562614455819, 0.0002115563693223521, 0.00011813298624474555]], [[-0.0001712814555503428, -0.0001547357242088765, 7.237969839479774e-05], [-0.00013857855810783803, -0.00012560772302094847, -0.00021983246551826596], [-0.00011088424798799679, -0.00013521587243303657, -0.00022100679052527994]], [[0.00048353782040067017, 0.00013682707503903657, -0.00020611663057934493], [-0.0011818378698080778, -0.003053635358810425, -0.003505183383822441], [-0.001925993012264371, -0.0040777637623250484, -0.004362995270639658]], [[-0.0002622281899675727, -0.00011236801219638437, -3.601864227675833e-05], [-0.00015693233581259847, -3.881666998495348e-05, -2.1190630832279567e-06], [-0.00011937150702578947, -1.1817865924967919e-05, -2.8997950721532106e-05]], [[4.3743733840528876e-05, 6.136376032372937e-05, 3.1031602702569216e-05], [0.00013325894542504102, -3.692034078994766e-05, 5.9034959122072905e-05], [6.330649193841964e-05, 0.00011135325621580705, -5.925343430135399e-05]], [[-0.00019249835168011487, -9.774820500751957e-05, -3.901066884282045e-05], [-0.00013304663298185915, -0.0001335906854365021, -0.0001775349082890898], [-1.9555602193577215e-05, -6.008594937156886e-05, -7.096108311088756e-05]], [[2.1907933842157945e-05, -4.063862070324831e-05, 3.862261291942559e-05], [4.8982747102854773e-05, -1.7386972103849985e-05, 5.861706449650228e-05], [-4.316693593864329e-05, -9.424104064237326e-05, 5.9058689657831565e-05]], [[0.000182551026227884, 0.0002025262947427109, 0.0001015255184029229], [-4.382926636026241e-05, -0.0002442716504447162, -0.00019516872998792678], [-0.00021996210853103548, -0.0001319414732279256, -4.0124003135133535e-05]], [[-0.00010147505963686854, -0.00162411923520267, -0.0023997463285923004], [-0.001662548864260316, -0.003895833855494857, -0.004593925084918737], [-0.0020088122691959143, -0.004032890312373638, -0.004406499210745096]], [[-0.0035547951702028513, -0.005668324418365955, -0.0054940516129136086], [-0.0028742391150444746, -0.004569409415125847, -0.0040173958986997604], [-0.001519220182672143, -0.002051667543128133, -0.0013798624277114868]], [[-1.5513922335230745e-05, -3.474201002973132e-05, -1.2028619494230952e-05], [-8.105117740342394e-05, -5.250703907222487e-05, -2.749844679783564e-05], [-6.226579716894776e-05, -6.421721627702937e-05, -1.5995234207366593e-05]], [[0.0004366297507658601, 0.0003546677762642503, 0.00035546906292438507], [7.433594873873517e-05, -0.0007943334057927132, -0.0009707738063298166], [-9.431235230294988e-05, -0.0010754958493635058, -0.0011597565608099103]], [[2.588803727121558e-05, -1.4319644833449274e-05, 6.186340033309534e-05], [-7.755897968309e-06, 2.2161211745697074e-05, -3.597578324843198e-05], [-2.3710379537078552e-05, 9.900334589474369e-06, 2.500448772480013e-06]], [[-0.005044284276664257, -0.006981115788221359, -0.0070605091750621796], [-0.00715635297819972, -0.009688775055110455, -0.009796518832445145], [-0.0063437786884605885, -0.008596179075539112, -0.008406437002122402]]], [[[-0.1824079006910324, -0.19924718141555786, -0.17558713257312775], [0.10214699059724808, 0.03960448130965233, 0.09277445822954178], [0.01748673990368843, 0.055321283638477325, 0.055208105593919754]], [[-0.07859073579311371, -0.004183163866400719, -0.08107805252075195], [0.03592967242002487, -0.05336673930287361, -0.020841920748353004], [-0.059405919164419174, -0.003849058412015438, 0.01958131231367588]], [[0.10401179641485214, 0.026778344064950943, 0.0553411990404129], [-0.03548561409115791, 0.025743994861841202, 0.06266458332538605], [-0.09931347519159317, -0.07008176296949387, 0.02492336370050907]], [[-0.07609865069389343, -0.04270821064710617, 0.1326737105846405], [-0.033192481845617294, -0.020783519372344017, 0.06381701678037643], [0.026983007788658142, 0.1020737811923027, -0.010301663540303707]], [[-0.05081624537706375, -0.12542542815208435, -0.05683739483356476], [0.04830767586827278, -0.020597413182258606, 0.049025848507881165], [-0.057974789291620255, 0.0791320949792862, 0.05442402884364128]], [[0.00040433736285194755, 0.028838565573096275, 0.04127117991447449], [0.05826621130108833, -0.057868994772434235, 0.03321855887770653], [0.06040068715810776, 0.006432896014302969, -0.024910658597946167]], [[-0.2398732453584671, -0.07921133190393448, 0.011543632484972477], [-0.20813287794589996, -0.09524581581354141, -0.04823265224695206], [-0.05501275509595871, -0.09899682551622391, -0.3854313790798187]], [[0.0914572924375534, 0.07843860983848572, 0.10883857309818268], [-0.09773780405521393, 0.07384494692087173, -0.03126167878508568], [-0.24127647280693054, -0.16316723823547363, -0.08082378655672073]], [[-0.10537748783826828, 0.003668207908049226, 0.06875871121883392], [-0.14252571761608124, -0.02862967737019062, 0.030787386000156403], [0.031944483518600464, 0.05440772697329521, 0.05179569497704506]], [[-0.12079620361328125, -0.06064650043845177, -0.12829570472240448], [-0.003793881041929126, 0.05970432609319687, 0.0014518755488097668], [0.04610587656497955, 0.07931020855903625, 0.0941687598824501]], [[-0.045640673488378525, -0.07293172180652618, -0.10337482392787933], [-0.0702410563826561, 0.0023494167253375053, 0.06265556067228317], [-0.030767086893320084, -0.011558322235941887, 0.07896889746189117]], [[0.04332920163869858, -0.04240628704428673, -0.024949997663497925], [-0.00999477505683899, 0.05785121023654938, 0.06513183563947678], [0.003911155741661787, -0.008064010180532932, 0.051993630826473236]], [[-0.12495690584182739, -0.06735142320394516, 0.03408535569906235], [-0.09421451389789581, 0.07755127549171448, 0.04644095525145531], [0.1321026086807251, 0.12073804438114166, 0.04548210650682449]], [[-0.13111458718776703, -0.12329079955816269, -0.03998761251568794], [-0.049537044018507004, 0.013778612948954105, -0.04161575436592102], [-0.011893832124769688, -0.009272371418774128, 0.021155115216970444]], [[-0.16561399400234222, -0.16646885871887207, 0.030129574239253998], [0.05740683525800705, -0.08510245382785797, 0.02902478165924549], [-0.01040994469076395, -0.1513463258743286, -0.03691622242331505]], [[0.026560474187135696, -0.10515748709440231, -0.09665339440107346], [0.06940656155347824, 0.05905317887663841, 0.0710945874452591], [-0.0405474528670311, 0.08214323222637177, -0.06449390947818756]]], [[[-0.06618877500295639, 0.004679676610976458, 0.05782776698470116], [0.04508645087480545, 0.03553193062543869, -0.019221676513552666], [0.0009306726278737187, -0.05664524808526039, 0.020912740379571915]], [[-0.0371110737323761, 0.06272536516189575, 0.03495196998119354], [0.004263736307621002, -0.08457967638969421, -0.018157267943024635], [0.054233621805906296, -0.02091917395591736, -0.0004976346390321851]], [[0.04851217195391655, 0.003501080209389329, -0.02908327803015709], [-0.025300130248069763, -0.039581675082445145, 0.046083949506282806], [0.03211766481399536, 0.056196052581071854, -0.0017402772791683674]], [[-0.01667770929634571, 0.04447827488183975, -0.08167088776826859], [0.05680183693766594, -0.03687242418527603, 0.020906642079353333], [0.007459426298737526, 0.05309302359819412, 0.042820174247026443]], [[0.004970936104655266, 0.07304217666387558, -0.00030967005295678973], [-0.01253491174429655, -0.08268558233976364, 0.012444330379366875], [-0.04937750846147537, -0.07813633233308792, 0.039544399827718735]], [[0.038852982223033905, -0.06947898864746094, -0.0795712023973465], [-0.012853502295911312, 0.08320485800504684, -0.005783222150057554], [0.04113537445664406, -0.00010765871411422268, 0.04339103400707245]], [[0.005792243871837854, 0.04932725802063942, -0.05332106724381447], [-0.004404077772051096, -0.0038444711826741695, -0.05471336841583252], [-0.00805965717881918, -0.036338046193122864, -0.026344146579504013]], [[0.04916270822286606, -0.05736284703016281, 0.040758974850177765], [-0.033788006752729416, 0.02756538614630699, 0.04497518762946129], [-0.0059466250240802765, -0.03309209644794464, 0.046318382024765015]], [[-0.02925444208085537, 0.021800797432661057, -0.059849388897418976], [-0.0057204123586416245, 0.06339245289564133, -0.02809346653521061], [0.07313596457242966, 0.014115859754383564, -0.020026832818984985]], [[-0.05196184292435646, -0.005915047600865364, -0.0499567873775959], [-0.07055331021547318, 0.061476144939661026, 0.011764835566282272], [0.016081564128398895, -0.0013241817941889167, -0.059344369918107986]], [[-0.051064737141132355, 0.03389342129230499, -0.02897854708135128], [-0.07923570275306702, -0.07095887511968613, -0.045429736375808716], [0.025412896648049355, 0.016150115057826042, 0.03830777853727341]], [[-0.007794621866196394, 0.01223762333393097, -0.033739376813173294], [0.04050266742706299, -0.030321067199110985, 0.015753448009490967], [0.04971209540963173, 0.023443959653377533, 0.05360587313771248]], [[0.05541037395596504, 0.06226228177547455, -0.017819305881857872], [-0.004273091442883015, -0.026364436373114586, -0.0069457427598536015], [-0.013660232536494732, -0.027440330013632774, -0.012551914900541306]], [[-0.03976944088935852, -0.017922556027770042, 0.07345756888389587], [0.013504032976925373, 0.056831374764442444, 0.0549323707818985], [0.03957424312829971, 0.005438819527626038, -0.061704959720373154]], [[-0.009890308603644371, -0.009033117443323135, -0.004103312734514475], [0.011918636970221996, 0.03796255961060524, 0.005557767115533352], [-0.04718242585659027, -0.02126476913690567, -0.024171914905309677]], [[0.010568089783191681, 0.05825994536280632, -0.03514740616083145], [-0.08940207213163376, 0.025759752839803696, -0.04726909101009369], [0.05737954378128052, -0.06510699540376663, -0.056417759507894516]]], [[[0.04505809023976326, -0.061344653367996216, 0.039830125868320465], [-0.011196506209671497, 0.016373924911022186, -0.053230367600917816], [-0.007131676655262709, 0.02718883939087391, -0.029624849557876587]], [[0.02492540143430233, -0.049967631697654724, -0.048260822892189026], [-0.023585140705108643, -0.05456891283392906, -0.06780038774013519], [-0.051193464547395706, -0.012312072329223156, -0.1042599156498909]], [[-0.14075760543346405, -0.14177514612674713, -0.19003288447856903], [-0.08304087817668915, 0.014667406678199768, 0.06176791712641716], [0.09564605355262756, 0.011400469578802586, 0.012862208299338818]], [[-0.13681939244270325, -0.10936619341373444, -0.08363576978445053], [-0.09734499454498291, -0.02142386883497238, -0.020265575498342514], [0.046404335647821426, 0.02002020739018917, 0.031166965141892433]], [[-0.07113715261220932, -0.027859341353178024, -0.06603572517633438], [-0.14751659333705902, -0.07309243083000183, -0.10614390671253204], [-0.15168941020965576, -0.07455498725175858, -0.12983042001724243]], [[-0.11914046853780746, -0.0865762010216713, -0.06878161430358887], [0.009758923202753067, 0.02560441568493843, -0.024481642991304398], [-0.07339288294315338, 0.048730600625276566, 0.06221378594636917]], [[-0.06361168622970581, -0.0548541322350502, 0.0014962141867727041], [-0.05109259858727455, -0.08585298806428909, -0.0793132558465004], [-0.02562449499964714, -0.014185357838869095, -0.07891670614480972]], [[-0.18146133422851562, -0.19883616268634796, -0.12999562919139862], [-0.013741077855229378, 0.11727634072303772, 0.02053356170654297], [0.09208763390779495, 0.03866893798112869, 0.06971313804388046]], [[-0.035024672746658325, -0.0030410834588110447, 0.030316563323140144], [0.03237253427505493, 0.018970124423503876, -0.016294512897729874], [-0.003474855562672019, 0.03324615955352783, 0.024305500090122223]], [[-0.044927388429641724, -0.07072757184505463, 0.017749236896634102], [0.07206900417804718, 0.05543346330523491, -0.05513640493154526], [-0.13069087266921997, -0.066966213285923, -0.047090522944927216]], [[-0.029430076479911804, -0.08184212446212769, -0.009497828781604767], [0.05169404298067093, 0.023627514019608498, 0.0403732992708683], [-0.0005123583832755685, -0.09229264408349991, 0.02129152975976467]], [[-0.07885108888149261, -0.09048345685005188, -0.09558239579200745], [-0.04304246976971626, 0.05279124900698662, -0.0029419423080980778], [0.08155225962400436, 0.08877791464328766, 0.0008097116951830685]], [[-0.016101598739624023, 0.003313459223136306, 0.0038929700385779142], [-0.01462418120354414, -0.006725273095071316, -0.00043900185846723616], [-0.0016250642947852612, -0.0186559297144413, -0.09746572375297546]], [[-0.02908603474497795, -0.05324137955904007, 0.03419903293251991], [-0.03218546137213707, -0.09272059053182602, -0.06211322173476219], [-0.14306318759918213, -0.07820018380880356, -0.1353112757205963]], [[-0.027080317959189415, -0.058594562113285065, -0.03591712564229965], [-0.18350471556186676, -0.05300375446677208, 0.016843611374497414], [-0.0007733446545898914, 0.031013932079076767, 0.010377428494393826]], [[-0.12803702056407928, -0.0796983391046524, -0.05581413209438324], [-0.08881776034832001, 0.0036178112495690584, -0.1336042582988739], [-0.041980911046266556, -0.04841959476470947, 0.008315575309097767]]], [[[-0.00690703559666872, -0.008185196667909622, -0.007914621382951736], [-0.006384961307048798, -0.0076953088864684105, -0.007424539420753717], [-0.006202477961778641, -0.007462894078344107, -0.007330718915909529]], [[-0.0016235972288995981, -0.0019927690736949444, -0.00035242963349446654], [-0.0026382713112980127, -0.0037028444930911064, -0.002400227589532733], [-0.003748310264199972, -0.0035398215986788273, -0.0001970697339856997]], [[0.0002341589133720845, 9.941057942342013e-05, -0.00026505955611355603], [-0.001628563622944057, -8.331429853569716e-06, -0.0005248988163657486], [-0.000725068966858089, -0.0019404646009206772, -0.0019384738989174366]], [[2.9257394999149255e-05, -0.0002801196533255279, 1.642333882045932e-05], [-2.64109894487774e-05, 0.00010710595233831555, -8.734178663871717e-06], [9.606077219359577e-05, -0.00027363732806406915, -9.367530765302945e-06]], [[0.0005312490393407643, -0.0022134773898869753, -0.0021898930426687002], [1.5174025520536816e-06, 0.0009612496942281723, 0.00027725164545699954], [-0.0016892403364181519, -0.0015031029470264912, -0.0015380393015220761]], [[-0.00011338632612023503, 8.320794586325064e-05, -3.8505775592057034e-05], [-6.65606785332784e-05, 1.5299627193599008e-05, -0.0001338597503490746], [0.00014871433086227626, -0.0004309277865104377, -0.0005699657485820353]], [[-0.0025886844377964735, -0.0014219770673662424, -0.000700572447385639], [-0.0021257386542856693, -0.0033617166336625814, -0.0011735499138012528], [-0.001051450613886118, -0.0041598426178097725, -0.002344896551221609]], [[0.0005029500462114811, 0.0003646532422862947, -0.0014318687608465552], [-0.0021538056898862123, -0.0024874235969036818, -0.00280849845148623], [-0.0004748665960505605, -0.001823886763304472, -0.0009486546623520553]], [[-1.5890471331658773e-05, -1.2147396773798391e-05, -4.774852641276084e-06], [1.5450535784111707e-07, -1.4802969872107496e-07, -9.670867484601331e-08], [-3.0223493467929075e-06, 1.9838900698232464e-05, -1.205261952463843e-07]], [[-0.0018212874419987202, -0.005051959306001663, -0.006455442402511835], [-0.0018055522814393044, -0.0025597293861210346, -0.0025875403080135584], [-0.001780390040948987, -0.002299792831763625, -0.0024435806553810835]], [[-0.016047386452555656, -0.017914293333888054, -0.01745925098657608], [-0.015102313831448555, -0.01747855171561241, -0.016648583114147186], [-0.01411556825041771, -0.016879307106137276, -0.01637841761112213]], [[-0.002592930104583502, -0.005928465165197849, -0.002698478987440467], [-0.004761289339512587, -0.004883731249719858, -0.002635331591591239], [-0.004052667412906885, -0.00322742760181427, -0.0029751891270279884]], [[0.004957377444952726, 0.006233546417206526, 0.006504334509372711], [0.0050397831946611404, 0.006054613273590803, 0.006314909551292658], [0.00482606515288353, 0.005921574309468269, 0.006149118300527334]], [[0.0029503677505999804, -0.0013686761958524585, -0.00022367069323081523], [0.003063254291191697, 0.0014509562170132995, -0.0006228857091628015], [0.005238045006990433, 0.0024716209154576063, 0.001682073576375842]], [[-7.136193744372576e-05, -0.00026714219711720943, -0.00010801308235386387], [7.533179450547323e-05, -2.9111695766914636e-05, -0.00015448902559001], [0.00017714301066007465, 5.568394044530578e-05, -9.962954209186137e-05]], [[-0.02221120148897171, -0.02274598740041256, -0.02017216570675373], [-0.021470123901963234, -0.02266657166182995, -0.019488636404275894], [-0.020349454134702682, -0.021789507940411568, -0.01897900551557541]]], [[[-0.06709176301956177, 0.04391804337501526, -0.07303886860609055], [-0.06649929285049438, -0.058092184364795685, 0.044878747314214706], [-0.0072760502807796, 0.045594967901706696, 0.07643289119005203]], [[-0.07473599910736084, -0.0068272934295237064, -0.014502311125397682], [0.023885080590844154, 0.08149158209562302, 0.03332388401031494], [0.03207801282405853, 0.0027008468750864267, -0.03637523204088211]], [[0.05116209387779236, 0.07571323961019516, 0.009421521797776222], [0.0003434357640799135, 0.09434785693883896, 0.004296354483813047], [0.0308530293405056, 0.05851498246192932, -0.08900168538093567]], [[0.08342921733856201, -0.02459600381553173, 0.06575141847133636], [0.059333208948373795, 0.006827943027019501, 0.03663909435272217], [0.013665384612977505, -0.05022191256284714, 0.03433911129832268]], [[-0.0036255340091884136, -0.009432832710444927, -0.07806607335805893], [0.08393016457557678, -0.015646688640117645, 0.06142440810799599], [0.03367174044251442, 0.06800492107868195, 0.055917829275131226]], [[0.052568431943655014, 0.0338340662419796, -0.0027353789191693068], [0.01934962533414364, 0.022569915279746056, 0.03436695411801338], [0.03656614199280739, -0.008631092496216297, -0.04385428503155708]], [[-0.022820116952061653, -0.02731419913470745, -0.002906991168856621], [0.027668746188282967, -0.011669931001961231, -0.14425444602966309], [0.10979273915290833, 0.09035557508468628, -0.04526110365986824]], [[0.012608811259269714, 0.019529009237885475, 0.0777704194188118], [-0.0968189612030983, -0.0948672965168953, -0.00901257898658514], [-0.051294200122356415, -0.09480852633714676, -0.04618017002940178]], [[-0.052634596824645996, 0.026133550330996513, 0.0011526377638801932], [0.024277973920106888, -0.015178985893726349, 0.03821593523025513], [0.07544345408678055, 0.010393816977739334, 0.0699760913848877]], [[-0.07974203675985336, 0.05384213849902153, -0.050681885331869125], [-0.016763467341661453, 0.012637852691113949, 0.05730840563774109], [-0.025095952674746513, 0.011732612736523151, 0.0401427336037159]], [[-0.038303863257169724, 0.0254628024995327, 0.0729258731007576], [-0.052533071488142014, 0.08982657641172409, 0.07507820427417755], [0.018127288669347763, 0.056960973888635635, 0.0958777368068695]], [[0.017526812851428986, -0.009402346797287464, 0.042858514934778214], [-0.007125158328562975, 0.08890144526958466, 0.004572977777570486], [-0.009189927019178867, 0.08083228021860123, -0.06116142496466637]], [[0.061119697988033295, 0.06154577061533928, -0.020363841205835342], [0.09433700144290924, 0.11498383432626724, 0.02662755362689495], [0.0804222896695137, 0.1258787214756012, -0.0026656268164515495]], [[0.019428273662924767, -0.08421098440885544, -0.08430260419845581], [0.03327236697077751, -0.03415941447019577, -0.04246558994054794], [0.008836867287755013, 0.012013009749352932, 0.031097611412405968]], [[-0.058522239327430725, 0.03432493656873703, 0.09602990746498108], [-0.03439245745539665, 0.010015088133513927, 0.061542101204395294], [0.0013279051054269075, -6.88940635882318e-05, -0.007302411831915379]], [[-0.06431546062231064, 0.08101682364940643, 0.036180607974529266], [0.049652099609375, 0.0883786603808403, 0.08394257724285126], [0.03667258843779564, -0.04103374108672142, 0.07925800234079361]]], [[[-6.408787278644468e-09, -2.266097993697258e-07, -7.831395087976034e-09], [1.504150617392952e-07, 1.693704945182617e-07, -5.323238951859821e-07], [1.090840214601485e-06, 9.813178394324495e-07, 1.3002882042201236e-06]], [[2.1187281618040288e-07, -2.57664169112104e-07, 3.888037269916822e-07], [4.911907467430865e-07, 2.21332925320894e-07, -5.942170560047089e-07], [-1.3124933957442408e-06, 7.69067227679443e-08, -1.8682074198750342e-07]], [[1.132245188273373e-06, 6.520266992993129e-07, -1.6966190230505163e-07], [-4.201773117529228e-05, -3.956062573706731e-05, -4.214176078676246e-05], [-1.785952554200776e-05, -0.00020668863726314157, -0.0002255962899653241]], [[-6.053186041299341e-08, -2.4674053022977205e-08, 6.904780320837745e-07], [-1.0008135831185427e-07, -5.888356895411562e-07, 1.1407183819756028e-06], [-1.6741682884457987e-07, 1.1244803772569867e-06, 8.315330433106283e-07]], [[3.1635956077025185e-08, -2.7666163759931806e-07, 5.293883873491723e-07], [-1.9531165662556305e-07, -5.928095561102964e-07, 9.964051059796475e-07], [-3.231036680517718e-05, -2.427051731501706e-05, -5.5999247706495225e-05]], [[1.1243862445553532e-06, 8.736546419640945e-07, 5.819151169816905e-07], [9.857038094196469e-06, 7.027979791018879e-06, 1.003158922685543e-05], [4.611516487784684e-06, -2.8301355996518396e-06, -7.386102396367278e-08]], [[4.0655351085661096e-08, -5.088584202894708e-07, 7.371393451194308e-08], [-7.887737751843815e-08, 5.7130389308213125e-08, -2.0873108041996602e-07], [9.797213351703249e-08, -4.1851168930406857e-07, 2.7593640083978244e-07]], [[5.39753415296218e-08, -2.58947096654083e-07, -5.602175860985881e-07], [-6.0343201766954735e-05, -4.554292172542773e-05, -1.2417476682458073e-05], [-4.096008706255816e-05, -8.366148540517315e-05, -1.8142174667445943e-05]], [[8.813405827368115e-08, -1.3109405472278013e-07, -1.3229653461621638e-07], [2.172833717395406e-07, 9.011218082832784e-08, -1.3840599422110245e-07], [1.6851267048423324e-08, 3.637421741586877e-08, 3.4574728147163114e-07]], [[3.4735862186607847e-08, -3.9272256913136516e-07, -1.1332019056453646e-07], [-2.929619995484245e-07, -4.42076554918458e-07, 1.3072522619950178e-07], [-6.004457731023649e-08, 3.609920895542018e-08, 6.58832334465842e-07]], [[-1.946072643477237e-06, -2.0467314243433066e-06, -2.78552874988236e-06], [-2.62738667515805e-05, -1.1355674359947443e-05, -1.8446438843966462e-05], [-0.00033861183328554034, -0.0005311663262546062, -0.0005023754783906043]], [[7.336541330005275e-07, 1.0154296887776582e-06, 6.958488029340515e-06], [-0.0012675090692937374, -0.0007042363868094981, -0.0009193522855639458], [-0.0019503722433000803, -0.0018092702375724912, -1.1756267667806242e-05]], [[-1.3862165637590351e-08, -1.389579580290956e-07, -1.9425179687004857e-07], [9.946200663080162e-08, -1.881775801848562e-07, 1.0580805565041373e-07], [-1.0876365763579088e-07, 1.758657930395202e-08, 2.171872282019649e-08]], [[1.032872845030397e-07, 7.675229767301062e-07, -1.9251997329661208e-08], [2.929122615569213e-07, 3.381865667506645e-07, -4.4606110805034405e-07], [-1.699342465144582e-05, -8.239716407842934e-06, 1.0122165861048416e-07]], [[1.348856670801979e-07, 4.0447933002951686e-08, 3.3603670956949827e-09], [-3.9389956896229705e-07, -2.8250200401203074e-08, 1.2231337720436386e-08], [2.09856281685461e-07, 1.137456990818464e-07, -8.528500217153123e-08]], [[-2.5727447336976184e-06, -5.235611411080754e-07, 7.740713954262901e-06], [-6.50057481834665e-05, -7.804505730746314e-05, -9.372500062454492e-05], [-0.00017716620641294867, -0.0009727721335366368, -0.0007413491839542985]]], [[[-0.003133198479190469, -0.003898280905559659, -0.00398385152220726], [0.006505494471639395, 0.004567187745124102, 0.0035539744421839714], [-0.0018794829957187176, -0.0022304619196802378, -0.002303681569173932]], [[0.0019953912124037743, 0.0019110789289698005, 0.0011537573300302029], [0.0011330228298902512, 0.001067319419234991, 0.00033146777423098683], [-8.1365775258746e-05, 2.1488909624167718e-05, 6.64321705698967e-05]], [[-0.0010687601752579212, -0.0012695760233327746, -0.0012239040806889534], [-0.0004353963304311037, -0.0004092496819794178, -0.00040098009048961103], [-0.0009143019560724497, -0.0008463099948130548, -0.0005979759735055268]], [[0.0009310327004641294, 0.00048488430911675096, 3.397397085791454e-05], [0.0009097055881284177, 0.0006262362585403025, 3.479085353319533e-05], [-0.0002577450650278479, 0.00014617975102737546, 0.0009486345807090402]], [[-0.004083531908690929, -0.005268903914839029, -0.005318561103194952], [-0.0016767899505794048, -0.0030817475635558367, -0.0036974509712308645], [-0.0019719323609024286, -0.0023063968401402235, -0.0024011738132685423]], [[-0.0004204772412776947, -0.0006331105250865221, -0.0006290941964834929], [-0.0005449719028547406, -0.0006327905575744808, -0.0006074757548049092], [-0.0005695339641533792, -0.0005763513618148863, -0.00035263094468973577]], [[0.0014814242022112012, 0.0007998088258318603, 0.0001948466378962621], [0.0011173083912581205, 0.0008705229265615344, -0.00033038054243661463], [-0.0007798155420459807, 0.000478926784126088, -0.00023717661679256707]], [[-0.0003465750196482986, -0.0005229157395660877, -0.0005399200599640608], [-0.00024238432524725795, -0.00024449179181829095, -0.00019497225002851337], [-0.000374758179532364, 0.0006822753348387778, 0.001363700139336288]], [[0.0005170493968762457, 0.00020586936443578452, 0.00025982517399825156], [0.0002707967651076615, -0.0011404318502172828, -0.0009580334881320596], [0.0005424432456493378, -0.0007744782487861812, 0.0008340548374690115]], [[-0.00022059128968976438, -0.0002407553984085098, -0.0007984543917700648], [0.0026302554178982973, -0.00024102786846924573, 0.00351123558357358], [0.00038560357643291354, 0.00023294231505133212, -0.0001278910058317706]], [[-0.0038069274742156267, -0.004567624069750309, -0.0047639659605920315], [-0.003954791929572821, -0.004720192402601242, -0.00481794448569417], [-0.0029475849587470293, -0.0032877372577786446, -0.003279901808127761]], [[-0.003816506126895547, -0.004302673507481813, -0.004149618558585644], [-0.0017289326060563326, -0.0017945547588169575, -0.0016737080877646804], [-0.0017790059791877866, -0.0017650423105806112, -0.0016048677498474717]], [[0.0002422413235763088, -0.0004765592748299241, 0.00012770392640959471], [0.0006595635786652565, 0.00013946932449471205, -0.00024433687212876976], [0.0001219588884850964, -8.026272553252056e-05, 2.2446418370236643e-05]], [[-0.002681612502783537, -0.0035924382973462343, -0.0038315230049192905], [0.0002014037308981642, 0.0013375191483646631, 0.0004194008943159133], [-0.0019901178311556578, -0.0021690446883440018, -0.0021298599895089865]], [[-1.5616617019986734e-05, 6.702357495669276e-05, -0.00013797840801998973], [4.416109004523605e-05, 7.223383727250621e-05, 8.139410783769563e-05], [1.5907835404505022e-05, -6.94488626322709e-05, 0.00017734534048940986]], [[-0.006203780882060528, -0.00679397489875555, -0.00658801943063736], [-0.004982205107808113, -0.0057063535787165165, -0.005754671525210142], [-0.00286260899156332, -0.0030465438030660152, -0.0029615003149956465]]], [[[-0.02875237539410591, -0.03294218331575394, -0.03523057699203491], [-0.04953658953309059, -0.05300768092274666, -0.05377510190010071], [-0.059473466128110886, -0.06007778272032738, -0.05968429893255234]], [[-0.03779151663184166, -0.034859687089920044, -0.025252798572182655], [-0.04593212157487869, -0.04450436681509018, -0.03918838128447533], [-0.0449468195438385, -0.0441603846848011, -0.04121863469481468]], [[-0.0572638176381588, -0.05729639157652855, -0.05614137277007103], [-0.05249617621302605, -0.05308837816119194, -0.05274062976241112], [-0.042998380959033966, -0.04494572430849075, -0.047126445919275284]], [[-0.03692801296710968, -0.038449402898550034, -0.03557818382978439], [-0.04653074964880943, -0.045535169541835785, -0.04009146988391876], [-0.048851076513528824, -0.047599855810403824, -0.043779369443655014]], [[-0.04095463827252388, -0.04645467549562454, -0.04794486239552498], [-0.05673348903656006, -0.058384377509355545, -0.0584464967250824], [-0.06012573093175888, -0.059645649045705795, -0.058454692363739014]], [[-0.042648863047361374, -0.04642802104353905, -0.04739009216427803], [-0.04122880473732948, -0.0452447347342968, -0.046296630054712296], [-0.03759936988353729, -0.040633659809827805, -0.04088129103183746]], [[-0.020686380565166473, -0.009807388298213482, 0.008027785457670689], [-0.03325558081269264, -0.023855959996581078, 0.0003942008479498327], [-0.038270559161901474, -0.030771469697356224, -0.006914500147104263]], [[-0.057545255869627, -0.05626190826296806, -0.05559755489230156], [-0.047857314348220825, -0.050328031182289124, -0.05013546347618103], [-0.0373920276761055, -0.04039248824119568, -0.03998442739248276]], [[-0.003961413167417049, -0.0021829588804394007, -0.0012503920588642359], [-0.004565523937344551, -0.0002702949568629265, 0.003074783133342862], [-0.01688605174422264, -0.01514741126447916, -0.005544673185795546]], [[-0.03569605574011803, -0.03872084245085716, -0.0396537221968174], [-0.04163224250078201, -0.04627171531319618, -0.04778861254453659], [-0.04959573596715927, -0.05292896553874016, -0.053466614335775375]], [[-0.05339885503053665, -0.05537228658795357, -0.056224510073661804], [-0.05691651627421379, -0.058454643934965134, -0.05871107429265976], [-0.05840781703591347, -0.05873629078269005, -0.058142002671957016]], [[-0.060101281851530075, -0.060460325330495834, -0.0600423589348793], [-0.0578533373773098, -0.05643592029809952, -0.05727758631110191], [-0.05246010050177574, -0.052469052374362946, -0.05203082039952278]], [[0.0037228395231068134, 0.005270404275506735, 0.0037829375360161066], [-0.010427449829876423, -0.0035979701206088066, 0.009453792124986649], [-0.010982436127960682, -0.003463985165581107, 0.009240437299013138]], [[-0.04518289491534233, -0.046395476907491684, -0.0454137921333313], [-0.0544162355363369, -0.055974364280700684, -0.055906012654304504], [-0.05856321007013321, -0.05921109393239021, -0.058701351284980774]], [[0.0070971217937767506, -0.0053606159053742886, -0.01631556637585163], [0.006696363445371389, -0.0011085645528510213, -0.014506201259791851], [0.002461261348798871, 0.00430025439709425, -0.01000160351395607]], [[-0.05666179582476616, -0.057940829545259476, -0.057090990245342255], [-0.06030859798192978, -0.060592494904994965, -0.06023160740733147], [-0.059611521661281586, -0.0589950866997242, -0.05861581116914749]]], [[[0.04101656377315521, 0.05224445462226868, -0.07627128809690475], [-0.05626395344734192, 0.026813281700015068, -0.015671560540795326], [0.05853303521871567, 0.08744712173938751, 0.05214383825659752]], [[0.09039632230997086, 0.033512528985738754, 0.05180640146136284], [0.06214924156665802, -0.06688429415225983, -0.028769828379154205], [0.008993033319711685, -0.04756305366754532, -0.01216880977153778]], [[0.0004748078645206988, -0.01799408160150051, 0.006094351876527071], [-0.022023798897862434, 0.035855624824762344, -0.07194435596466064], [0.024349506944417953, 0.006918052677065134, -0.021115032956004143]], [[0.060206543654203415, 0.03716937452554703, -0.012438158504664898], [0.10603062808513641, 0.05830055847764015, -0.08615290373563766], [0.05634130537509918, -0.021097924560308456, 0.021772341802716255]], [[0.009435384534299374, 0.049788136035203934, -0.0829557403922081], [-0.0008730834815651178, 0.07925451546907425, 0.02587932161986828], [-0.054875150322914124, 0.0858851820230484, 0.01398306805640459]], [[0.033865850418806076, 0.014048006385564804, -0.014902901835739613], [0.022140607237815857, -0.06906221807003021, 0.045642875134944916], [0.019057050347328186, -0.018346121534705162, 0.012937983497977257]], [[0.06371866911649704, -0.07296015322208405, 0.08531126379966736], [0.05471975356340408, -0.04655187204480171, 0.043447140604257584], [0.02849423885345459, 0.09506881982088089, 0.15629762411117554]], [[-0.06828539073467255, 0.002856997773051262, -0.03230182081460953], [-0.13570834696292877, -0.014832982793450356, -0.1359800100326538], [0.049855224788188934, -0.00655590882524848, 0.005912440828979015]], [[0.0794515311717987, 0.0035025146789848804, 0.0663658007979393], [0.06851375102996826, 0.017046645283699036, 0.012157382443547249], [-0.039180681109428406, -0.04769722744822502, 0.028103407472372055]], [[-0.02318941429257393, -0.002592962933704257, 0.06755325943231583], [-0.027169935405254364, 0.0760074034333229, -0.005488954950124025], [0.07595695555210114, 0.06219947338104248, -0.0024809185415506363]], [[-0.018486086279153824, 0.0023097095545381308, 0.033410899341106415], [0.0415438711643219, 0.054230064153671265, 0.052073556929826736], [0.08577200025320053, 0.05566364899277687, 0.07324455678462982]], [[0.08686570078134537, -0.005307035520672798, 0.07116808742284775], [0.011038171127438545, -0.02186678536236286, 0.04705321043729782], [-0.05953292176127434, -0.07560119032859802, 0.002925457200035453]], [[0.09024535119533539, 0.0526544563472271, -0.029824640601873398], [0.0638611689209938, 0.07062643766403198, -0.025294514372944832], [0.022666029632091522, -0.005534416530281305, -0.009051204659044743]], [[0.07701355218887329, 0.06323697417974472, -0.03646794334053993], [-0.05681893974542618, 0.04061312973499298, 0.050507910549640656], [0.05192016810178757, 0.04943019896745682, -0.06696847826242447]], [[-0.08904555439949036, 0.05933060497045517, 0.05634449049830437], [-0.019308345392346382, 0.00820794515311718, -0.023127026855945587], [-0.035815708339214325, 0.044426869601011276, 0.020416023209691048]], [[-0.02828317880630493, 0.03308891877532005, -0.07271967083215714], [-0.0584472119808197, 0.035600222647190094, -0.03952227532863617], [-0.01811135932803154, 0.09136250615119934, 0.06708403676748276]]], [[[0.017930274829268456, 0.05444420874118805, -0.03890344500541687], [0.06217397376894951, 0.047324299812316895, 0.030408790335059166], [-0.03272455930709839, 0.0738975927233696, -0.006104516331106424]], [[0.04598502814769745, -0.03339715674519539, -0.09461534768342972], [-0.005333435256034136, 0.07137677073478699, 0.024600598961114883], [-0.03321978449821472, 0.025094425305724144, -0.040395986288785934]], [[-0.060623012483119965, 0.018003882840275764, 0.07189197093248367], [-0.08441130816936493, -0.08528557419776917, 0.02435799315571785], [-0.05201718583703041, -0.032343536615371704, -0.031433720141649246]], [[-0.01619195006787777, -0.05566931143403053, -0.01883789151906967], [0.05152055621147156, 0.0619390532374382, 0.03409886360168457], [0.06245242804288864, 0.10219471156597137, -0.014437830075621605]], [[-0.030103763565421104, -0.06397198885679245, -0.0781959593296051], [-0.0037747113965451717, -0.0074172243475914, -0.007520462851971388], [-0.046052705496549606, 0.07600662112236023, 0.015961287543177605]], [[-0.061033766716718674, 0.059303004294633865, -0.01941840723156929], [0.02435799315571785, -0.057378292083740234, -0.07187219709157944], [-0.029981618747115135, -0.00627993093803525, 0.07151808589696884]], [[-0.036093514412641525, 0.03738022223114967, -0.0166231170296669], [0.07420431077480316, -0.0020444148685783148, -0.08388835936784744], [0.10574878007173538, 0.04479534924030304, 0.04980390518903732]], [[-0.043493565171957016, 0.010737741366028786, 0.024304160848259926], [-0.16929322481155396, -0.03331431373953819, -0.1413954347372055], [0.06877686828374863, -0.046808354556560516, 0.017023906111717224]], [[0.05664525553584099, -0.006623127963393927, -0.0625302642583847], [0.05542010813951492, 0.10169059038162231, 0.015795517712831497], [-0.02005850523710251, -0.019002750515937805, 0.03259401395916939]], [[-0.021235616877675056, -0.030846890062093735, -0.014414878562092781], [0.0356232225894928, 0.08417511731386185, -0.06257005035877228], [-0.0527736060321331, 0.0853278785943985, 0.017350321635603905]], [[-0.0494934506714344, -0.012004024349153042, 0.07846003025770187], [-0.04910780116915703, 0.0011560744605958462, 0.06640975177288055], [0.05544676631689072, -0.009885745123028755, -0.05700626224279404]], [[0.013425106182694435, 0.09385763108730316, 0.0509490966796875], [-0.026247719302773476, -0.056029368191957474, -0.016435110941529274], [0.006048596929758787, 0.026026349514722824, -0.016056912019848824]], [[0.06249777227640152, 0.026836659759283066, -0.027014335617423058], [0.11499844491481781, 0.12175250798463821, -0.010171125642955303], [0.10480280965566635, 0.08120328933000565, -0.03827712684869766]], [[-0.03131481260061264, 0.013863625004887581, 0.07268615812063217], [0.0718030110001564, -0.034034647047519684, 0.04826034978032112], [0.03259548172354698, 0.05947007238864899, 0.07230467349290848]], [[-0.057861074805259705, 0.0499444343149662, 0.04983721673488617], [-0.05313288792967796, -0.01205216720700264, -0.0108987707644701], [0.05371880158782005, 0.07686959207057953, 0.06421071290969849]], [[-0.03827425464987755, 0.05163063108921051, -0.05004534870386124], [0.025152165442705154, 0.011894512921571732, 0.0047044651582837105], [-0.057274144142866135, 0.0031231336761265993, -0.03774326667189598]]], [[[-0.013776499778032303, 0.004321603570133448, -0.02346193976700306], [-0.013094191439449787, -0.004485284443944693, -0.010970867238938808], [0.026996050029993057, -0.04469268023967743, -0.017123613506555557]], [[-0.006471917498856783, 8.14868399174884e-05, -1.0358575309510343e-05], [-0.010329371318221092, 0.00035694660618901253, -0.00024301129451487213], [-0.010008949786424637, 0.002837926149368286, -0.013396158814430237]], [[-0.001946467673406005, 0.050015661865472794, -0.008975440636277199], [-0.05186719819903374, -0.0514056570827961, 0.012007692828774452], [-0.006053839810192585, -0.001213657669723034, -0.01156388595700264]], [[-0.010370001196861267, 0.038813747465610504, -0.005293679423630238], [0.004903220105916262, 0.011430397629737854, -0.0011085814330726862], [0.017440544441342354, -0.005055131856352091, -0.003551090369001031]], [[-0.0023457403294742107, -0.06456308811903, 0.0010864527430385351], [-0.010324522852897644, 0.00457762973383069, -0.03700412064790726], [0.0028501476626843214, 0.0232441034168005, -0.003829138819128275]], [[0.044246356934309006, -0.005108002107590437, -0.0048764171078801155], [-0.04609466344118118, -0.01713731698691845, -0.03904424235224724], [-0.011634341441094875, -0.014755569398403168, -0.013922939077019691]], [[0.0010058062616735697, 2.429079586363514e-07, -2.123429339917493e-06], [0.0016373286489397287, 3.949933216063073e-07, -5.524731932382565e-06], [-0.013702556490898132, -9.894434782609096e-08, -4.522614744928433e-06]], [[0.030279256403446198, 0.03457429260015488, 0.0062395003624260426], [0.030905982479453087, 0.005215130280703306, -0.0210579764097929], [-0.00435025617480278, -0.04248155653476715, -0.006130280438810587]], [[-0.007874708622694016, -0.0039046520832926035, -4.890227864962071e-05], [-0.0029849407728761435, 0.00570422550663352, -4.0986873500514776e-05], [-0.022093694657087326, 0.00247279554605484, -0.00014248507795855403]], [[-0.028665287420153618, -0.009897114709019661, -0.008211144246160984], [-0.020272549241781235, 0.026968833059072495, -0.002772514009848237], [-0.024728240445256233, 0.051418889313936234, 0.0007227262831293046]], [[0.0024817469529807568, 0.00258884415961802, -0.017401738092303276], [-0.02822033315896988, -0.003344132099300623, -0.01518868375569582], [0.03171359375119209, 0.04570246487855911, -0.054479606449604034]], [[-0.041589997708797455, 0.022896137088537216, -0.03780186548829079], [0.06304574012756348, 0.004539054352790117, -0.05740129202604294], [-0.0372842513024807, -0.0652720108628273, -0.029046330600976944]], [[-0.0007545183761976659, 0.0030004384461790323, 3.680926965898834e-06], [-0.007858739234507084, 0.0013715688837692142, 3.8437538023572415e-05], [-0.009855247102677822, 9.14017618924845e-06, 2.349223393594002e-07]], [[-0.07052476704120636, 0.009641987271606922, -0.016125403344631195], [-0.039557162672281265, 0.03252551704645157, -0.03992575779557228], [0.045671720057725906, 0.003993536811321974, -0.03951117396354675]], [[0.0012358329258859158, 0.02959754504263401, 0.00035838241456076503], [-0.008808126673102379, 0.008636361919343472, 0.0002509728365112096], [-0.00917598232626915, -0.00239953538402915, 0.00011871298920596018]], [[0.002626386471092701, -0.04699988663196564, -0.0376918688416481], [-0.06119770184159279, -0.06313376873731613, 0.020201509818434715], [0.028242236003279686, 0.003766895504668355, -0.016343817114830017]]], [[[0.06849309056997299, 0.01616070419549942, -0.00036434835055842996], [0.026206422597169876, -0.08808141201734543, -0.0868014544248581], [0.08002004027366638, 0.025249235332012177, 0.026583366096019745]], [[0.009795673191547394, 0.030355725437402725, 0.010684712789952755], [0.013328720815479755, -0.060528889298439026, -0.10415836423635483], [0.03875507414340973, -0.07123302668333054, 0.06873078644275665]], [[-0.015194372273981571, -0.038490887731313705, 0.054008908569812775], [-0.05026071146130562, 0.06780005991458893, 0.0034513443242758512], [-0.011344628408551216, -0.05534449592232704, -0.03365584835410118]], [[-0.07022560387849808, 0.025330733507871628, -0.03592947497963905], [-0.039759960025548935, -0.05685220658779144, -0.07561951130628586], [0.09086176007986069, 0.04015769436955452, -0.030888089910149574]], [[0.021542441099882126, -0.00029796166927553713, -0.00030884621082805097], [0.04976731166243553, -0.024550337344408035, -0.03733770176768303], [0.04338047280907631, 0.0074865310452878475, 0.041018497198820114]], [[-0.043705619871616364, -0.05201268568634987, 0.035880036652088165], [-0.03620273247361183, -0.009069355204701424, 0.055314529687166214], [0.04101787507534027, 0.005510912276804447, -0.08626231551170349]], [[-0.024959471076726913, -0.025225162506103516, -0.02084430679678917], [-0.03773075342178345, -0.016873396933078766, -0.0036016216035932302], [0.0483543761074543, -0.0069757625460624695, -0.009609526954591274]], [[-0.003415497485548258, -0.07394807040691376, 0.011918283067643642], [0.08629250526428223, 0.036857906728982925, 0.007095442619174719], [0.041801221668720245, -0.027066202834248543, -0.026214415207505226]], [[0.0029554928187280893, 0.0066439686343073845, -0.05624612793326378], [-0.0577048659324646, -0.05696627125144005, -0.04163380712270737], [-0.006623465567827225, 0.01843852736055851, 0.04784291610121727]], [[-0.03638603538274765, -0.06207943335175514, -0.009402898140251637], [0.0051866271533071995, 0.010808669030666351, 0.031193621456623077], [-0.013017421588301659, -0.0681866705417633, 0.0053208996541798115]], [[0.034542232751846313, -0.026430681347846985, -0.09798978269100189], [-0.03901934251189232, 0.016116047278046608, -0.08933065831661224], [0.056737519800662994, 0.011924793012440205, 0.012265455909073353]], [[0.004687861073762178, 0.015637926757335663, -0.057192061096429825], [-0.03078598529100418, 0.08505744487047195, 0.032233040779829025], [-0.011558007448911667, 0.05567486211657524, -0.0752566009759903]], [[-0.007960012182593346, -0.0024577672593295574, 0.0033740163780748844], [-0.014647193253040314, -0.03605549782514572, -0.0187766682356596], [-0.0067873140797019005, 0.02875828742980957, -0.001337601919658482]], [[0.031680937856435776, 0.06792593747377396, -0.07635922729969025], [-0.08717117458581924, -0.04867056757211685, 0.040203943848609924], [-0.07512912154197693, 0.004955033306032419, -0.020768381655216217]], [[-0.04048199951648712, 0.01314273476600647, 0.004604067653417587], [-0.024443205446004868, 0.01951782777905464, -0.03885338082909584], [0.05870528891682625, 0.014546256512403488, 0.005235312972217798]], [[0.04025016352534294, -0.07698256522417068, -0.048177801072597504], [0.05494420975446701, 0.01842493936419487, -0.0068669100292027], [0.07030882686376572, -0.05881236121058464, -0.04736493527889252]]], [[[-0.012451433576643467, -0.0011907314183190465, -0.009580514393746853], [-0.0013033660361543298, -0.0006536110304296017, -0.0025432372931391], [6.188245606608689e-05, 2.0066472643520683e-06, -5.0641517645999556e-08]], [[0.00020448541908990592, 2.1798045054310933e-05, -4.354390694061294e-05], [1.995471876625743e-07, 9.137830261352065e-07, 9.2561354136933e-09], [-0.004696729127317667, -0.00032400895725004375, -0.00012899059220217168]], [[-0.006345283705741167, -0.001862471690401435, -0.00034876083373092115], [-0.012774530798196793, -0.015297362580895424, -0.008848163299262524], [-0.012276113033294678, -0.027219025418162346, -0.008072085678577423]], [[0.002748864470049739, 9.218065679306164e-05, -0.0001201429549837485], [-2.5401355742360465e-05, 1.9744013570743846e-06, -2.3732942281640135e-05], [0.00021837653184775263, -0.00045910978224128485, -0.0015837991377338767]], [[-0.012774625793099403, -0.01287180557847023, 0.004660078790038824], [0.008713082410395145, -0.008036724291741848, -0.008566174656152725], [0.007326851133257151, 7.324337639147416e-05, -0.006849672179669142]], [[-0.003542583901435137, 0.003675071755424142, -0.0003780517145060003], [-0.003356900531798601, -0.017827976495027542, -0.02320442907512188], [-0.03444985672831535, 0.014368541538715363, -0.037641607224941254]], [[5.825652351632016e-07, 5.26067140071973e-07, 1.3307658264238853e-07], [-3.962181267525011e-07, -1.3742088356138993e-07, 3.3664269949440495e-07], [3.9467067836085334e-07, -5.7916665241464216e-08, 4.603382119938715e-09]], [[0.00038881273940205574, -0.0003688396536745131, 5.1884276217606384e-06], [0.009084058925509453, -0.004693011753261089, -0.006769491359591484], [0.028077106922864914, -0.004214239772409201, 0.014815100468695164]], [[2.7699451266016695e-07, -3.245506974280943e-08, -3.7038762457086705e-06], [-0.00022672775958199054, -4.220710536628758e-07, -4.1722938703969703e-07], [-0.0004739141440950334, 6.2529370552510954e-06, 1.4023623407410923e-05]], [[-0.0012612896971404552, -0.00038548908196389675, 0.0005026138969697058], [-0.0041256980039179325, -0.0020333195570856333, 0.00015102242468856275], [-0.007634276989847422, -0.00295764347538352, -0.0006092622643336654]], [[-0.007679026108235121, -0.0291470717638731, -0.02489337883889675], [-0.018537500873208046, 0.013864914886653423, 0.012580620124936104], [-0.02482421323657036, -0.017751608043909073, -0.03061002865433693]], [[0.004489638842642307, -0.019277827814221382, -0.0004314453690312803], [-0.009853444993495941, 0.018321791663765907, -0.02914872020483017], [-0.03318524360656738, 0.021796097978949547, -0.0039599123410880566]], [[-1.6734865937451104e-07, -1.051059825840639e-07, -3.700172044318606e-07], [2.524092792555166e-07, -4.1794240956960493e-08, -4.1709787979016255e-07], [2.688525455596391e-07, -4.966350388713181e-07, 2.0186331539662206e-07]], [[-0.019465191289782524, -0.021009018644690514, -0.003253410803154111], [-0.004655247554183006, -0.010843348689377308, -0.013236965984106064], [0.00699574826285243, -0.024052375927567482, -0.008068619295954704]], [[-8.217755720352216e-08, -7.969608617486301e-08, -1.663669912943533e-08], [2.2447166259098594e-07, -7.123848733137095e-10, 1.1402145361216753e-07], [-2.1327851129626652e-07, 3.42902552574742e-07, 1.1313288084124906e-08]], [[-0.010106448084115982, -0.002362115541473031, -0.011057496070861816], [0.006113181356340647, 0.0011202224995940924, 0.011980727314949036], [-0.0006503823096863925, 0.02276550978422165, -0.004105956759303808]]], [[[-0.017028598114848137, -0.05685695633292198, -0.047495096921920776], [-0.03514573350548744, -0.03896527737379074, -0.06591049581766129], [0.07616885751485825, 0.002677846234291792, 0.0790870264172554]], [[-0.043231040239334106, 0.0014196323463693261, -0.03938844054937363], [0.06406807899475098, 0.017887191846966743, -0.0746103897690773], [0.006130692083388567, -0.06744759529829025, -0.029304295778274536]], [[0.05726811662316322, -0.005297835450619459, -0.03697068616747856], [0.09619953483343124, 0.08068342506885529, 0.08340521901845932], [0.06266454607248306, 0.05666326358914375, 0.04457315057516098]], [[-0.02045246958732605, 0.07285651564598083, -0.06365501135587692], [0.04952690750360489, 0.055383823812007904, 0.07951445877552032], [-0.041250310838222504, 0.020429866388440132, 0.0017400881042703986]], [[-0.040725525468587875, -0.1000106930732727, -0.06932338327169418], [-0.07505770027637482, 0.0417603999376297, 0.029107077047228813], [0.035410091280937195, 0.08072102814912796, -0.052740853279829025]], [[-0.08174862712621689, 0.03615789860486984, -0.07784947752952576], [0.01657523214817047, -0.02086411416530609, -0.016783641651272774], [0.031230606138706207, 0.02534094825387001, -0.04777581989765167]], [[-0.019281018525362015, -0.08239547163248062, 0.015224705450236797], [0.0027881241403520107, -0.03440737724304199, 0.004582348745316267], [-0.013460787944495678, 0.0118462098762393, -0.09541624039411545]], [[-0.035579267889261246, 0.04665478318929672, -0.013982965610921383], [0.07031857967376709, 0.049250151962041855, 0.055436909198760986], [-0.07579831779003143, 0.002086712047457695, -0.03160388395190239]], [[-0.04029310494661331, 0.009662671014666557, -0.0765179768204689], [-0.04745461791753769, -0.04359337314963341, -0.03006848879158497], [-0.042182035744190216, -0.039698220789432526, 0.022895948961377144]], [[0.01707613468170166, -0.025629257783293724, 0.0201982781291008], [0.03201989084482193, 0.02597486414015293, -0.016901249065995216], [-0.08347178250551224, 0.00204669707454741, -0.01381664164364338]], [[0.033258989453315735, -0.01984696090221405, 0.02811257913708687], [-0.07542754709720612, -0.027962375432252884, 0.030245957896113396], [-0.0157934483140707, -0.07132751494646072, 0.0763101726770401]], [[0.050144173204898834, -0.050761863589286804, 0.036288220435380936], [0.05150740593671799, 0.023647967725992203, 0.08284512907266617], [0.05277074873447418, 0.05806678906083107, 0.046916086226701736]], [[-0.06475608795881271, -0.04180753603577614, -0.05355805531144142], [0.09847421944141388, -0.007774055004119873, -0.028871111571788788], [0.12712152302265167, 0.034447673708200455, 0.016383018344640732]], [[0.00914719421416521, -0.047828271985054016, 0.0076232487335801125], [0.010103271342813969, 0.04611702635884285, 0.026985861361026764], [0.05702434480190277, 0.0025272280909121037, 0.08155978471040726]], [[-0.10591889917850494, 0.01656889170408249, 0.02520371787250042], [-0.09135514497756958, -0.030077369883656502, 0.009942368604242802], [-0.025136053562164307, -0.038104284554719925, 0.032668329775333405]], [[0.005887109786272049, -0.03305688872933388, 0.04044612869620323], [-0.033455170691013336, 0.07727926969528198, 0.04630088806152344], [-0.015127114951610565, 0.029514819383621216, -0.046734876930713654]]], [[[-0.026123445481061935, -0.004497734364122152, -0.09834052622318268], [0.08591685444116592, -0.01163705438375473, -0.11733019351959229], [-0.00464068865403533, -0.03070646896958351, -0.07994898408651352]], [[0.04489241912961006, -0.03244353458285332, -0.0007649544859305024], [0.10489346832036972, -0.027741046622395515, -0.0052423938177526], [0.055528901517391205, -0.04962548613548279, -0.022132448852062225]], [[0.046290118247270584, -0.0892118290066719, -0.07670465856790543], [0.02589549869298935, -0.0865459144115448, -0.054792702198028564], [-0.009099242277443409, -0.08509250730276108, -0.010628882795572281]], [[0.09642133116722107, 0.02197398617863655, -0.028499947860836983], [0.1456724852323532, 0.08480565994977951, -0.050924237817525864], [0.08419009298086166, 0.0036673927679657936, -0.018431905657052994]], [[0.09131105989217758, 0.001316328882239759, -0.10497427731752396], [0.027817126363515854, -0.006886024493724108, -0.1203257143497467], [0.036554478108882904, -0.022301996126770973, -0.07748591154813766]], [[-0.06644023954868317, 0.059428900480270386, -0.06784383207559586], [-0.027807550504803658, 0.06889253109693527, -0.10406344383955002], [-0.028678227216005325, -0.012272861786186695, -0.051359616219997406]], [[0.05755244940519333, 2.312729748155107e-06, -0.0008713206043466926], [0.0739908218383789, 2.1545997697103303e-07, 0.0005001971730962396], [0.07117191702127457, -5.352521839085966e-06, 0.0007092481828294694]], [[-0.049024682492017746, -0.07197350263595581, -0.02680499292910099], [-0.0333586260676384, -0.06555020809173584, -0.0153250927105546], [-0.022990617901086807, -0.07046250998973846, -0.03961107134819031]], [[-0.023019015789031982, 0.063604936003685, -0.0004275639948900789], [0.0014536143280565739, 0.07798725366592407, 0.00012429541675373912], [0.04092840850353241, 0.03277847543358803, -1.3395033420238178e-05]], [[-0.0029184389859437943, 0.004011004231870174, -0.059708867222070694], [-0.06907179206609726, 0.03976386785507202, -0.13018950819969177], [0.0048197065480053425, 0.022216971963644028, -0.08718499541282654]], [[-0.04248606041073799, 0.078097864985466, -0.0712612196803093], [0.04657287895679474, 0.06490198522806168, -0.19010765850543976], [0.07799030095338821, 0.05877521261572838, -0.09592937678098679]], [[-0.04236650839447975, 0.1290716677904129, -0.09325065463781357], [-0.04532260820269585, 0.12589026987552643, -0.1356966197490692], [-0.03688648343086243, 0.0025069694966077805, -0.04230234771966934]], [[-0.005781775806099176, 0.005972235929220915, -0.0002767829573713243], [0.007626902777701616, 0.002291633514687419, 4.8810157750267535e-05], [0.0220560934394598, -0.0004401534388307482, -7.411660135403508e-06]], [[0.00935094989836216, 0.011386441066861153, -0.10433746129274368], [-0.028271611779928207, -0.007839334197342396, -0.12234117090702057], [-0.04676451534032822, 0.01732962764799595, -0.09976856410503387]], [[-0.0993182435631752, 0.022968512028455734, -0.06070871278643608], [-0.0075884610414505005, 0.0010956457117572427, -0.0490262433886528], [0.006645481567829847, 0.019757583737373352, -0.03657495975494385]], [[0.10220672190189362, 0.05831385403871536, -0.15203440189361572], [0.09724850952625275, -0.06080099195241928, -0.11248467117547989], [0.06536794453859329, -0.07677499204874039, -0.06525366008281708]]], [[[0.027125826105475426, -0.014433758333325386, -0.030936500057578087], [-0.06663157045841217, -0.023932287469506264, -0.08867581188678741], [-0.01537061482667923, 0.0035162358544766903, 0.01725509762763977]], [[-0.020778855308890343, 0.004435489419847727, -0.03130423650145531], [0.028780659660696983, -0.0017961686244234443, -0.04324802756309509], [-0.012201079167425632, -0.12109412997961044, -0.13179169595241547]], [[-0.16659243404865265, -0.0740528479218483, -0.12648709118366241], [-0.04199434071779251, -0.0263524129986763, 0.035802971571683884], [0.07727760076522827, 0.08584272861480713, 0.049149803817272186]], [[-0.10968203097581863, -0.11422034353017807, -0.07516947388648987], [-0.019939325749874115, 0.05030795559287071, 0.004371947143226862], [0.0172395221889019, 0.028271308168768883, 0.01668107882142067]], [[-0.03265310078859329, -0.0817948430776596, -0.10003377497196198], [-0.09602566808462143, -0.08569356799125671, -0.09621725976467133], [-0.16876563429832458, -0.08488045632839203, -0.09222668409347534]], [[-0.13255178928375244, -0.05514220520853996, -0.12546513974666595], [-0.06346312165260315, -0.03973836451768875, -0.03412014618515968], [0.0038889292627573013, -0.010708123445510864, -0.040326979011297226]], [[-0.06373154371976852, -0.0387016236782074, 0.017582474276423454], [-0.04097515344619751, -0.046113427728414536, -0.024989062920212746], [-0.03407253324985504, -0.02127666585147381, -0.059522319585084915]], [[-0.12217383086681366, -0.08231017738580704, -0.18239809572696686], [0.02423134259879589, 0.09593398123979568, 0.07453154027462006], [0.13713905215263367, 0.11257444322109222, 0.015199107117950916]], [[-0.04865540191531181, -0.023664241656661034, 0.02841413952410221], [0.007153804879635572, -0.005346136167645454, -0.008138198405504227], [-0.005361062474548817, -0.0209602452814579, -0.015998251736164093]], [[-0.005502953194081783, -0.029050135985016823, -0.012193202041089535], [0.005107233766466379, -0.02361350692808628, -0.004478147719055414], [-0.06900644302368164, -0.06930592656135559, -0.07315856963396072]], [[-0.0893278494477272, -0.09582158178091049, -0.003843520535156131], [0.04830107465386391, 0.020224062725901604, -0.07141227275133133], [-0.024617144837975502, -0.014463737607002258, -0.10533206909894943]], [[-0.05892017111182213, -0.12741981446743011, -0.14862768352031708], [-0.023927802219986916, -0.005852909293025732, -0.003933950327336788], [0.07459734380245209, 0.06944546103477478, 0.04185628518462181]], [[-0.02245834656059742, -0.0008251863182522357, 0.003624478355050087], [-0.014417493715882301, -0.0007461870554834604, 0.0026745388749986887], [-0.051225244998931885, -0.04063873365521431, -0.09860261529684067]], [[-0.04737458750605583, -0.08367136865854263, 0.037369389086961746], [-0.10129894316196442, -0.05657372251152992, -0.13045397400856018], [-0.04609718173742294, -0.060137540102005005, -0.05771590396761894]], [[-0.007852885872125626, -0.03497207164764404, -0.01107504777610302], [-0.11682351678609848, 0.03699006512761116, 0.05606186389923096], [0.07066935300827026, 0.1179761067032814, 0.06228511035442352]], [[-0.00886623840779066, -0.1360042542219162, -0.04841088131070137], [-0.07340050488710403, -0.11501665413379669, -0.047183260321617126], [-0.08504191040992737, -0.00884005706757307, -0.07517804950475693]]], [[[-0.04585982486605644, -0.042999230325222015, -0.013261309824883938], [-0.048361003398895264, 0.0841636210680008, 0.07213444262742996], [-0.06912349164485931, 0.07627353817224503, 0.08305384963750839]], [[-0.06579173356294632, 0.015778537839651108, -0.08064691722393036], [0.06497520953416824, -0.06975063681602478, -0.019934160634875298], [-0.0018311470048502088, -0.033148378133773804, -0.07551326602697372]], [[-0.0017605448374524713, 0.000721795775461942, 0.060853611677885056], [-0.02801576256752014, -0.06526921689510345, -0.04589835926890373], [0.008957360871136189, -0.02677842043340206, -0.03816555440425873]], [[-0.008762803860008717, 0.07499635219573975, -0.01588941551744938], [0.008419220335781574, -0.0214155875146389, -0.03456553444266319], [-0.03222138062119484, -0.00885670818388462, 0.021589117124676704]], [[-0.06935478001832962, -0.0364532507956028, -0.0602383054792881], [0.05898221209645271, -0.05725788697600365, -0.057368699461221695], [-0.01854696311056614, -0.0024359046947211027, 0.025461319833993912]], [[-0.08464496582746506, 0.047840360552072525, 0.046475667506456375], [0.043851226568222046, 0.061753083020448685, -0.07360349595546722], [0.005223018117249012, -0.03130132332444191, -0.02536419779062271]], [[-0.06178157404065132, 0.04022577777504921, 0.027024419978260994], [0.07727865874767303, 0.06492669880390167, -0.06368254870176315], [0.002658775309100747, 0.028073960915207863, -0.1455763578414917]], [[0.078550323843956, -0.03552926331758499, -0.058551713824272156], [-0.14674526453018188, -0.09617066383361816, -0.13081854581832886], [0.04915454983711243, -0.010472997091710567, -0.0017425494734197855]], [[0.04015646502375603, 0.03762134164571762, 0.05952960252761841], [-0.013934582471847534, 0.05857612565159798, 0.0017343794461339712], [0.0045094843953847885, 0.09391240775585175, 0.009829988703131676]], [[-0.006266320124268532, 0.0824553370475769, 0.025589410215616226], [-0.04577473923563957, -0.008516855537891388, 0.030399393290281296], [0.04942433908581734, 0.022571120411157608, -0.0004923496744595468]], [[0.023430131375789642, -0.043935149908065796, 0.05929877609014511], [-0.08506330102682114, 0.02581142447888851, 0.046032264828681946], [0.019511830061674118, 0.06126328557729721, 0.03088405542075634]], [[0.017520815134048462, 0.07759969681501389, -0.06070764735341072], [0.011393720284104347, 0.0932873785495758, 0.03449976444244385], [0.001636999542824924, -0.016384685412049294, -0.02018733322620392]], [[0.04495694860816002, 0.00429766159504652, -0.026336058974266052], [0.10789022594690323, 0.11713401973247528, -0.014324350282549858], [0.0699487179517746, 0.03395412862300873, -0.02850247174501419]], [[0.02677815966308117, -0.012123542837798595, -0.025972768664360046], [0.060665734112262726, -0.03769895061850548, -0.06255725771188736], [0.009218854829668999, -0.030267072841525078, -0.07366904616355896]], [[-0.046628210693597794, 0.06805586814880371, 0.009171276353299618], [-0.009841963648796082, 0.033415623009204865, -0.03549693152308464], [0.0732768177986145, 0.1154576763510704, 0.04371695592999458]], [[0.0323881171643734, 0.020886346697807312, -0.07194457203149796], [0.046732764691114426, -0.06333284825086594, 0.014707479625940323], [-0.05307072773575783, 0.08407775312662125, -0.0759204626083374]]], [[[0.008144992403686047, 0.10763980448246002, -0.03385869041085243], [0.06003204360604286, 0.03520599752664566, -0.011050348170101643], [-0.11075824499130249, -0.10759702324867249, -0.08835024386644363]], [[0.060532718896865845, -0.010456433519721031, 0.0796198919415474], [-0.026448121294379234, -0.00526422169059515, 0.0796438455581665], [-0.03367410600185394, -0.044565413147211075, 0.026684092357754707]], [[-0.16366206109523773, -0.06664042174816132, -0.07846647500991821], [-0.08591709285974503, -0.07022904604673386, -0.07408668100833893], [-0.09159468859434128, -0.07595852017402649, -0.043089766055345535]], [[0.09585434198379517, -0.07395414263010025, -0.012107043527066708], [0.06610187143087387, -0.04243619367480278, -0.027489053085446358], [-0.055926065891981125, -0.03322668373584747, 0.049379438161849976]], [[-0.05375960096716881, 0.013744921423494816, -0.02151414379477501], [-0.07949543744325638, -0.009432087652385235, 0.09509807825088501], [-0.14938312768936157, -0.04741852730512619, -0.1305752992630005]], [[-0.0674426481127739, -0.01860840804874897, 0.04732125625014305], [-0.00283165299333632, -0.07197148352861404, 0.044271599501371384], [-0.09131321310997009, -0.0625440925359726, -0.03175695985555649]], [[0.08091586828231812, 0.059794340282678604, -0.002393944188952446], [0.06387870013713837, 0.08081933110952377, 0.23810596764087677], [-0.01012189220637083, 0.04493449628353119, 0.11813212931156158]], [[0.009311639703810215, -0.026260564103722572, -0.04476549103856087], [-0.1064431220293045, -0.11399422585964203, -0.10459011793136597], [0.058132920414209366, 0.02062997967004776, 0.08808772265911102]], [[0.03456693887710571, 0.06672484427690506, -0.06479617953300476], [0.1124400794506073, -0.018781034275889397, 0.017834942787885666], [-0.07649893313646317, 0.012399132363498211, 0.03658182546496391]], [[0.0032335922587662935, 0.03087805025279522, 0.06987714022397995], [0.10503822565078735, 0.06986604630947113, -0.04079239442944527], [-0.06980710476636887, -0.10205361247062683, -0.08142771571874619]], [[0.014870061539113522, 0.048064373433589935, 0.07667949795722961], [-0.0584510862827301, 0.0806625708937645, -0.024617431685328484], [-0.07048766314983368, -0.04070424288511276, -0.03948353976011276]], [[-0.06779900938272476, -0.06022721156477928, -0.014783618040382862], [-0.11589100956916809, -0.09711527079343796, -0.11862944066524506], [-0.0018791803158819675, -0.0895247682929039, -0.046880051493644714]], [[0.11661871522665024, 0.1301172375679016, 0.08571626991033554], [-0.0801645964384079, -0.02914843149483204, 0.058113060891628265], [0.03397854417562485, 0.02590782940387726, 0.016776250675320625]], [[0.037039708346128464, 0.09379342198371887,