{"lstm.weight_ih_l0": [[0.018582509830594063], [0.0011173903476446867], [9.30210626393091e-06], [2.9696383307964425e-07], [0.027994586154818535], [0.006632083095610142], [1.821382284106221e-06], [-2.172423410229385e-05], [-0.04551180079579353], [-3.842556907329708e-06], [-0.01805671490728855], [-0.00426086038351059], [0.054886575788259506], [-2.8480753826443106e-06], [-0.004201236646622419], [0.06897154450416565], [0.05074480175971985], [-0.0025635105557739735], [8.49905154609587e-06], [7.862712436690344e-08], [0.03889084607362747], [0.009892952628433704], [8.714888508620788e-07], [-3.940081296605058e-05], [-0.07417459040880203], [-7.201967491710093e-06], [-0.02075348049402237], [-0.005517051089555025], [0.10801799595355988], [-2.4956389097496867e-05], [-0.0059182834811508656], [0.10441508889198303], [0.8954036831855774], [0.7170704007148743], [0.006503103766590357], [0.0045860037207603455], [0.9469718337059021], [0.9502180218696594], [-0.004982083570212126], [0.01700233295559883], [0.8120740056037903], [0.0072115324437618256], [0.5330002903938293], [-0.19784976541996002], [0.8541020154953003], [-0.015234414488077164], [-0.4470483660697937], [0.7809415459632874], [0.012936693616211414], [0.003999107051640749], [9.13933490664931e-06], [3.0649630389234517e-07], [0.028478218242526054], [0.006761419121176004], [2.0521376882243203e-06], [-1.4969071344239637e-05], [-0.03565732389688492], [-3.423944008318358e-06], [-0.017652813345193863], [-0.0030266321264207363], [0.05583636090159416], [7.1873578235681634e-06], [-0.0011577337281778455], [0.10159935057163239]], "lstm.weight_hh_l0": [[0.012813272885978222, 0.007990384474396706, 0.0005118235712870955, 1.828112726798281e-05, 0.011439506895840168, 0.010801938362419605, 3.740869942703284e-05, 0.0005172069650143385, 0.00634332001209259, 0.000358880206476897, 0.010016393847763538, -0.0047502596862614155, 0.022085154429078102, 0.00013564656546805054, -0.008869729936122894, 0.025459585711359978], [-0.0025164312683045864, -0.0024539579171687365, 1.8062391973217018e-05, -9.226392648997717e-06, -0.002412277739495039, -0.00320168468169868, 0.00011593948875088245, 3.182907676091418e-05, -0.008589820936322212, 1.5710636944277212e-05, -0.002895725890994072, 0.0008631484815850854, -0.00016948318807408214, 0.00025714331422932446, 0.0013571768067777157, -0.0012131024850532413], [1.8698350459089852e-06, 5.8975846428666046e-09, 1.7435217714023565e-08, -3.2592240017947915e-10, 4.4950539290766756e-07, 1.4227929341359413e-06, -3.812993476515203e-09, 8.408715501673214e-09, 2.1114267383381957e-06, 1.0473932832155697e-08, 1.6073645383585244e-06, -2.1935575489351322e-07, 4.063135747855995e-07, -1.0999110955367541e-08, 2.8489216674643103e-07, -1.0306887361366535e-06], [7.096709708775961e-08, 6.229529958545754e-08, -4.4558917666748243e-10, -2.5870538350458716e-12, 3.9267469276182965e-08, 5.3956664913812347e-08, -2.234632062725339e-10, 8.031190157353763e-10, 1.254584844900819e-07, 2.1642089509388285e-10, 5.632061927940413e-08, -8.321656252974208e-09, 9.355544960953921e-08, -1.479661171366331e-09, -5.374745626340882e-08, 1.082429008647523e-07], [0.007993808947503567, 0.005133063532412052, 0.0001857435272540897, -7.807927431713324e-06, 0.008269358426332474, 0.006847788114100695, 0.00019273230282124132, 0.00031023696647025645, -0.00035817662137560546, 0.00011411357263568789, 0.004587789531797171, -0.0026111684273928404, 0.016939349472522736, 0.00039545015897601843, -0.006378745194524527, 0.01934080198407173], [0.003879721974954009, 0.0035961633548140526, 0.000313613738398999, 2.3570590201416053e-05, 0.00545243127271533, 0.0033138147555291653, 7.256880780914798e-05, 0.00019786144548561424, -0.0036564862821251154, 4.13980487792287e-05, 0.001310928724706173, -0.0018662690417841077, 0.012924887239933014, 0.00020346298697404563, -0.004648706875741482, 0.016391858458518982], [-1.3240090765975765e-06, -6.061570161364216e-07, -4.85901652247378e-10, -1.1549915884812023e-10, -6.37493599242589e-07, -4.6638277240163006e-07, 1.1559979640196616e-08, -1.2447971542428604e-08, -6.303635586846212e-07, -6.897055704335742e-10, -3.0209429269234533e-07, 1.2075986433046637e-07, -7.98828352799319e-07, 3.763306466453287e-08, 6.971498578423052e-07, -4.2101805775018875e-06], [-1.0009657671616878e-05, -6.3751872403372545e-06, -2.613519889393956e-08, -4.3586143583240755e-09, -8.8077331383829e-06, -1.0414522876089904e-05, 2.6913589579180552e-08, -9.759552455079756e-08, -1.654132029216271e-05, -4.057308800042847e-08, -8.477937626594212e-06, 2.6461382276465883e-06, -9.668697202869225e-06, 1.2777871916114236e-07, 4.791827450389974e-06, -8.408855137531646e-06], [-0.01673956587910652, -0.00970556028187275, 6.325576396193355e-05, -2.5073666620301083e-05, -0.012874862179160118, -0.016759995371103287, 4.656356031773612e-05, -0.00012651515135075897, -0.029083456844091415, -9.850089554674923e-05, -0.014728891663253307, 0.003944775089621544, -0.01186622679233551, 0.00019877833256032318, 0.007215383928269148, -0.009388258680701256], [-1.291384137402929e-06, -9.438770689484954e-07, -1.9250498972667174e-09, -1.2047913777735175e-09, -1.0913521464317455e-06, -1.599648726369196e-06, 1.5719304746752982e-09, -7.1627694886444715e-09, -2.389941982983146e-06, 9.948115220481668e-09, -1.3031476555624977e-06, 2.2284437761754816e-07, -7.698138801970345e-07, 1.3865471437668475e-08, 8.965021720541699e-07, -0.00011043114500353113], [-0.005321599077433348, -0.004306375049054623, 5.101079659652896e-05, 1.5219625026929862e-07, -0.005304524675011635, -0.006427892483770847, 1.2405085726641119e-05, -9.330540706287138e-06, -0.011523698456585407, 3.8073458199505694e-06, -0.004429691005498171, 0.0014065946452319622, -0.0048287780955433846, 8.344444358954206e-05, 0.003040769835934043, -0.004975875839591026], [-0.002245306270197034, -0.0012508271029219031, -1.318760723734158e-06, -2.316327027074294e-06, -0.0017232117243111134, -0.0022049767430871725, 4.383112354844343e-06, -2.0053726984770037e-05, -0.0030888060573488474, -7.5581060627882835e-06, -0.0016351304948329926, 0.00047066211118362844, -0.001748562091961503, 2.082679384329822e-05, 0.0009695206535980105, -0.001597572467289865], [0.012814721092581749, 0.005585683509707451, 0.00012752428301610053, -1.0947864211630076e-05, 0.009802284650504589, 0.010370656847953796, 0.00012917141430079937, 0.0003961235051974654, 0.003993997350335121, 7.169994933065027e-05, 0.008816415444016457, -0.003428257070481777, 0.0189168993383646, 0.00040230961167253554, -0.006948790978640318, 0.016547853127121925], [-2.9093140256009065e-05, -1.1869280569953844e-05, -1.1980655578724964e-08, -7.314416627934861e-09, -1.4130141607893165e-05, -1.3793097423331346e-05, 7.32141600678915e-08, -1.7902115700962895e-07, -2.0701680114143528e-05, -3.296388229045988e-08, -1.0886217751249205e-05, 3.5405068956606556e-06, -1.6525014871149324e-05, 3.343517391840578e-07, 1.1443257790233474e-05, -2.2661233742837794e-05], [-0.0035756262950599194, -0.0026530271861702204, -1.921344619404408e-06, -3.8502425923070405e-06, -0.003315513487905264, -0.003862472018226981, 2.68665244220756e-05, -1.5209761841106229e-05, -0.006903701461851597, 1.8800692487275228e-06, -0.0029723404441028833, 0.0009589038672856987, -0.0028786680195480585, 0.00010377701983088627, 0.0019438740564510226, -0.00382630480453372], [0.00567718967795372, -0.000500823836773634, -5.3272386139724404e-05, -3.125703369732946e-05, 0.002760282251983881, 0.0030881145503371954, 0.00016452008276246488, 0.0001762028259690851, -0.004976051859557629, -2.598847459012177e-05, 0.003129301592707634, -0.00019076908938586712, 0.009808839298784733, 0.0005567136686295271, -0.0015649092383682728, 0.005712457466870546], [0.020479122176766396, 0.009494190104305744, 0.0005209879018366337, 5.088213583803736e-06, 0.01411073375493288, 0.016685616225004196, 8.809237624518573e-05, 0.0005674151470884681, 0.017967207357287407, 0.0004169246240053326, 0.018057025969028473, -0.006444880273193121, 0.026057999581098557, 0.00021257154003251344, -0.010529624298214912, 0.02296743355691433], [-0.003079946618527174, -0.004495424684137106, 2.4826858862070367e-05, -1.0553311767580453e-05, -0.004706136416643858, -0.004581232089549303, 0.0001368188241031021, 1.058027282851981e-05, -0.01052573136985302, 1.120333035942167e-05, -0.0032232007943093777, 0.001357393222860992, -0.0030866824090480804, 0.0003099491586908698, 0.003184099681675434, -0.0073102135211229324], [1.641441713218228e-06, -3.6671247016784037e-07, 1.85123969487222e-08, 2.1299267904950625e-10, 1.4942481030288945e-08, 1.0726475920819212e-06, -3.06463654453637e-09, 4.9921826672516545e-09, 1.5495458001169027e-06, 9.737894046679685e-09, 1.4394777281268034e-06, -1.2115143022128905e-07, -9.660491429031026e-08, -5.983172179924168e-09, 6.323779189187917e-07, -1.971596475414117e-06], [2.205388405229769e-08, -2.1793315596596585e-08, -9.325673566706882e-10, -7.181354816365726e-11, -6.115787698490749e-08, -2.3136912830068468e-08, 3.2638357294612064e-11, -3.6023552196784436e-11, 1.8786410205251514e-09, 5.718387222075627e-11, 1.916610159469201e-08, 1.3635657936106327e-08, -2.248589403563983e-08, -2.451756575538866e-10, 1.880403921461493e-08, -9.711448711868798e-08], [0.011367613449692726, 0.0027267488185316324, 0.00022125414398033172, -2.1259964341879822e-05, 0.006022186018526554, 0.0074776033870875835, 0.00027362408582121134, 0.00035723470500670373, -0.0005855497438460588, 0.0001672726502874866, 0.008187438361346722, -0.0029780766926705837, 0.015094760805368423, 0.0005761273205280304, -0.004722257144749165, 0.008640054613351822], [0.005393060855567455, -0.0006175294402055442, 0.00035401128116063774, 1.405178500135662e-05, 0.0010233343346044421, 0.0019022478954866529, 0.00013373563706409186, 0.0002615605480968952, -0.006645585875958204, 0.00010597543587209657, 0.003146322211250663, -0.0015890515642240644, 0.008672051131725311, 0.00038946219137869775, -0.0013165379641577601, 0.002417443785816431], [-1.357018732051074e-06, -1.0087668442793074e-06, -7.992155826030967e-10, -3.8120542833475213e-10, -1.0818629334607976e-06, -6.949017574697791e-07, 2.0261959221556936e-08, -1.5835839306532762e-08, -1.0225962796539534e-06, -6.927387552480013e-10, -4.356728879884031e-07, 2.560623784120253e-07, -1.5155951587075833e-06, 5.5047273406216846e-08, 9.568035466145375e-07, -6.1033420024614315e-06], [-1.3855968973075505e-05, -1.2875910215370823e-05, -5.489411591952376e-09, -5.13590325823543e-09, -1.684960261627566e-05, -1.6387615687563084e-05, 4.420692789608438e-08, -1.6821867632188514e-07, -2.5563911549397744e-05, -5.2894989721608e-08, -1.145284841186367e-05, 4.5777164814353455e-06, -1.870232699729968e-05, 2.4316244662259123e-07, 1.0468867913004942e-05, -2.567980482126586e-05], [-0.02357509918510914, -0.017847474664449692, 9.577698801876977e-05, -1.2325433090154547e-05, -0.022646814584732056, -0.025583818554878235, 6.478749128291383e-05, -0.00018339607049711049, -0.044065434485673904, -0.00010286393080605194, -0.020595291629433632, 0.006548525299876928, -0.023212980479002, 0.00035181353450752795, 0.014247145503759384, -0.0272614024579525], [-1.909870434246841e-06, -2.098416871376685e-06, 9.98356508574716e-10, -1.4552067328921225e-09, -2.65679136646213e-06, -2.3697084543528035e-06, 3.826102545900767e-09, -2.014003541717102e-08, -4.044045908813132e-06, 1.1376770636672973e-08, -1.8112301631845185e-06, 6.119198019405303e-07, -2.431907660138677e-06, 3.3732483473158936e-08, 1.9254164271842455e-06, -0.00010536597983445972], [-0.005684249568730593, -0.005754835903644562, 7.223660941235721e-05, -1.2447133030946134e-06, -0.006800114177167416, -0.007339692208915949, 1.7664047845755704e-05, -2.0969475372112356e-05, -0.013150026090443134, 8.472579793306068e-06, -0.004628990776836872, 0.0017670777160674334, -0.006814091466367245, 0.00011548152542673051, 0.0043311771005392075, -0.008820588700473309], [-0.0024882457219064236, -0.001714752521365881, 4.6753677906963276e-07, -2.665702368176426e-06, -0.0022488997783511877, -0.002602127380669117, 5.13561599291279e-06, -2.4331495296792127e-05, -0.003714290214702487, -7.937254849821329e-06, -0.0018044657772406936, 0.000602865417022258, -0.0024093075189739466, 2.939214391517453e-05, 0.001387940370477736, -0.0028974078595638275], [0.025916552171111107, 0.012977579608559608, 0.00013438740279525518, -1.4572437976312358e-05, 0.020081372931599617, 0.022361891344189644, 0.00016078994667623192, 0.0005903124110773206, 0.022080358117818832, -0.00018522358732298017, 0.020622750744223595, -0.007285247556865215, 0.032107312232255936, 0.0004205054428894073, -0.014263013377785683, 0.026630938053131104], [-3.8037513149902225e-05, -1.791885915736202e-05, 2.1345420986307317e-09, -1.1182236470119733e-08, -2.1043981178081594e-05, -1.9436654838500544e-05, 8.806459561583324e-08, -2.482383649748954e-07, -3.016117261722684e-05, -4.257084285086421e-08, -1.6593072359682992e-05, 5.243134182819631e-06, -2.50016510108253e-05, 4.4073527760701836e-07, 1.7346383174299262e-05, -3.828298576991074e-05], [-0.003592817112803459, -0.0032656097318977118, -1.9531476880274568e-07, -3.389457106095506e-06, -0.003967399708926678, -0.004170198924839497, 2.737499562499579e-05, -1.9872584744007327e-05, -0.007446798030287027, 5.7759193623496685e-06, -0.002999077085405588, 0.0011145471362397075, -0.003782465821132064, 0.00011701203038683161, 0.0025491761043667793, -0.005837528966367245], [0.013891701586544514, 0.004574079532176256, -4.155501301283948e-05, -2.6391006031190045e-05, 0.009992188774049282, 0.010972293093800545, 0.0001532190217403695, 0.0002825241244863719, 0.006811804138123989, -0.00023110098845791072, 0.01032874546945095, -0.002458419883623719, 0.0183977372944355, 0.0005461357650347054, -0.006248182151466608, 0.013109364546835423], [-0.1840265840291977, -0.23592205345630646, -0.004546792712062597, -0.0007833152776584029, -0.023735621944069862, -0.3335236608982086, 0.002286426490172744, -0.022543659433722496, -0.2968396842479706, -0.029725685715675354, -0.2895364761352539, 0.1847483515739441, -0.030001414939761162, 0.00786328874528408, 0.06990231573581696, -0.18171262741088867], [-0.07296062260866165, -0.10330049693584442, -0.001267065992578864, -0.0003390546189621091, -0.08663153648376465, -0.09467653930187225, 0.0010529046412557364, -0.003924204036593437, -0.30371955037117004, -0.0036282935179769993, -0.09090089052915573, 0.10546544939279556, -0.07043328881263733, 0.00682514812797308, 0.1015578955411911, -0.24583083391189575], [-0.001630696700885892, -0.001343039213679731, -5.160061118658632e-05, -6.588996711798245e-06, -0.0016963757807388902, -0.0017465193523094058, 3.681552698253654e-05, -4.3126376112923026e-05, -0.004486502148211002, -0.00039138650754466653, -0.0018986136419698596, 0.0005767837283201516, -0.0023443258833140135, 9.349986794404685e-05, 0.0011216675629839301, -0.0046540736220777035], [-0.0009525534114800394, -0.0009763790294528008, -6.976842541916994e-06, -0.00034003937616944313, -0.0010236382950097322, -0.0009221637737937272, 9.689626494946424e-06, -1.7212489183293656e-05, -0.0009694964974187315, -0.0001401603512931615, -0.0009099259041249752, 0.0003430584038142115, -0.00212350906804204, 3.864660902763717e-05, 0.0011273795971646905, -0.006249337922781706], [-0.055786825716495514, -0.28953802585601807, -0.004186343401670456, -0.0014947933377698064, -0.23938217759132385, -0.26283764839172363, 0.0023480700328946114, -0.04337149113416672, -0.40507641434669495, -0.010630316101014614, -0.18545876443386078, 0.22316668927669525, -0.19876930117607117, 0.0632062628865242, 0.20919275283813477, -0.17405198514461517], [-0.19189050793647766, -0.12040527164936066, -0.0034467766527086496, -0.0015165196964517236, -0.10922430455684662, -0.2454202026128769, 0.0024571227841079235, -0.021088773384690285, -0.5062671303749084, -0.010059350170195103, -0.29372459650039673, 0.2450481355190277, -0.11123733222484589, 0.02298739179968834, 0.24745486676692963, -0.03518456965684891], [0.00034760517883114517, 4.764022014569491e-05, 3.9911836211103946e-05, 1.4626381016569212e-05, 2.2493608412332833e-05, 0.000498438545037061, 0.00016575468180235475, 2.7637408493319526e-05, -0.0005398741341196001, 0.0013904982479289174, -0.0008899443782866001, 0.0013358659343793988, 0.0005789662827737629, 0.005589122883975506, -0.0001254263479495421, 0.017556410282850266], [-0.005207529291510582, -0.004827938508242369, -2.894334465963766e-05, -1.2285152479307726e-05, -0.006086754612624645, -0.005968994460999966, 5.230549140833318e-05, -0.00016070643323473632, -0.007730504497885704, 0.00028584105893969536, -0.0021667969413101673, 0.0017622295999899507, -0.007922284305095673, 0.0005287651438266039, 0.003724468406289816, -0.0036311966832727194], [-0.02517717145383358, -0.06142579764127731, -0.0007568155415356159, -0.00025458651361986995, -0.05142402648925781, -0.05269215255975723, 0.0009313015616498888, -0.0017088954336941242, -0.12120447307825089, 0.0011293557472527027, -0.03129801154136658, 0.035330113023519516, -0.06072010099887848, 0.0045727333053946495, 0.045457158237695694, -0.10725746303796768], [0.00028620491502806544, -0.0016488683177158237, -0.00012857862748205662, -6.198846676852554e-05, -0.003951572813093662, -0.0018843011930584908, 0.0007314773392863572, 1.6015255823731422e-05, -0.002606664551422, -0.016505293548107147, 0.002297780243679881, -0.0021136675495654345, -0.0037633907049894333, 0.00034286020672880113, 0.00027904819580726326, -0.005645264405757189], [-0.027021512389183044, -0.0391453318297863, -0.0006372455973178148, -0.00019098275515716523, -0.03763679787516594, -0.045024242252111435, 0.0006014966638758779, -0.0013852460542693734, -0.09850926697254181, -0.0011423564283177257, -0.032844457775354385, 0.019953681156039238, -0.02688850648701191, 0.002776185516268015, 0.023076999932527542, -0.09482384473085403], [0.018313676118850708, 0.021238556131720543, 0.00013630950707010925, 5.294277434586547e-05, 0.024007456377148628, 0.023035068064928055, -0.00023250609228853136, 0.0004639890103135258, 0.029234645888209343, -0.00036987822386436164, 0.01164995227009058, -0.007763443049043417, 0.029474394395947456, -0.0010209644678980112, -0.015482574701309204, 0.038654495030641556], [-0.07126602530479431, -0.08066347986459732, -0.002770175226032734, -0.0001799323654267937, -0.09417624026536942, -0.13336537778377533, 0.001693492871709168, -0.0331745520234108, -0.4049414396286011, -0.012650971300899982, -0.26510950922966003, 0.1728898584842682, -0.120478056371212, 0.02408245950937271, 0.20145851373672485, 0.009503008797764778], [0.004473452921956778, 0.003932470455765724, 4.92868603032548e-05, 1.5671272194595076e-05, 0.004897983279079199, 0.005117894150316715, -7.207394082797691e-05, 0.00012529882951639593, 0.006371679715812206, 9.639261406846344e-05, 0.0029082519467920065, -0.0013610324822366238, 0.0060349274426698685, -0.0003148927935399115, -0.0029608814511448145, 0.007441437337547541], [0.03095407411456108, 0.03988100588321686, 0.0004210062325000763, 0.00014282744086813182, 0.04108583182096481, 0.03933568671345711, -0.0006243264069780707, 0.0012907988857477903, 0.11148655414581299, 0.0015019744168967009, 0.033912718296051025, -0.02881551720201969, 0.055272478610277176, -0.004155099391937256, -0.053843144327402115, 0.06925930082798004], [-0.03603307902812958, -0.08754836022853851, -0.001576788374222815, -0.00040422528400085866, -0.05099451541900635, -0.04573431983590126, 0.0010162580292671919, -0.004229689482599497, -0.177978515625, -0.0035407678224146366, -0.018082473427057266, 0.0951872169971466, -0.0029716899152845144, 0.009648037143051624, 0.06120143458247185, -0.15277744829654694], [0.008514284156262875, 0.005104174371808767, 0.0005001474055461586, 1.3249768926471006e-05, 0.00754821440204978, 0.006527360528707504, 4.033412187709473e-05, 0.0004175710491836071, 0.0007510599098168314, 0.00026619815616868436, 0.006242926698178053, -0.0034365744795650244, 0.017258716747164726, 0.0001673500082688406, -0.006400399841368198, 0.01999937742948532], [-0.0030452909413725138, -0.003151428420096636, 1.795309071894735e-05, -6.590572411369067e-06, -0.003031083382666111, -0.0038113039918243885, 0.0001177788435597904, 2.8862299586762674e-05, -0.010548333637416363, 1.6188187146326527e-05, -0.00367788621224463, 0.001161243417300284, -0.001343608251772821, 0.0002735998132266104, 0.002073909854516387, -0.0032003435771912336], [1.842222445702646e-06, 3.1584185933297704e-08, 1.4828531291755098e-08, -3.055238728677523e-09, 4.2296574065403547e-07, 1.4862565649309545e-06, -1.9289880803796677e-09, 1.163682838978275e-08, 2.2619835817749845e-06, 1.003177896308216e-08, 1.610194772183604e-06, -2.0311630066771613e-07, 4.019419179712713e-07, -7.242236144122671e-09, 2.1834955532540334e-07, -8.376504183615907e-07], [6.213645065145101e-08, 5.020073601258446e-08, -4.602350722748838e-10, -5.611468234523187e-11, 1.725169340716093e-08, 4.2296409930031587e-08, -9.236560821745954e-11, 5.850572248888852e-10, 1.1490621432130865e-07, 1.352005313259852e-10, 5.1957460556195656e-08, -4.227705741044474e-09, 8.317156385828639e-08, -1.2773907487328984e-09, -4.686751609028761e-08, 8.883301916284836e-08], [0.005151670891791582, 0.002609910676255822, 0.0001807805965654552, -1.1854419426526874e-05, 0.005104786716401577, 0.0036453797947615385, 0.0002424566773697734, 0.00024815808865241706, -0.00536647904664278, 6.358962127706036e-05, 0.002170103369280696, -0.0016800726298242807, 0.013117747381329536, 0.0004718805430456996, -0.004305207636207342, 0.014376317150890827], [0.0018178872996941209, 0.0018723804969340563, 0.00026929969317279756, 2.0195551769575104e-05, 0.0033206716179847717, 0.0010133915347978473, 8.733638969715685e-05, 0.0001924662064993754, -0.007740771863609552, 5.86238456889987e-05, -0.0005178208812139928, -0.001249594264663756, 0.010503393597900867, 0.00024426032905466855, -0.0032900404185056686, 0.01334934402257204], [-1.3281659221320297e-06, -6.633560474256228e-07, -7.024221759799332e-10, -3.20955928501121e-10, -6.930717404429743e-07, -4.782719429385907e-07, 1.484460998568693e-08, -1.2950208017059595e-08, -6.741521474395995e-07, -6.688923304132288e-10, -3.133804113986116e-07, 1.4219543231774878e-07, -9.147591981673031e-07, 4.1981007115055036e-08, 7.262539156727144e-07, -4.5971464714966714e-06], [-9.434692401555367e-06, -6.436861440306529e-06, -2.3431450557609423e-08, -2.8888262892934335e-09, -8.060879736149218e-06, -1.0161552381759975e-05, 2.62723940380738e-08, -8.491564074120106e-08, -1.703797170193866e-05, -3.6505444001022624e-08, -8.523400538251735e-06, 2.6637076189217623e-06, -9.953037078958005e-06, 1.2746124866680475e-07, 5.115592102811206e-06, -9.240594408765901e-06], [-0.015148517675697803, -0.00859974604099989, 7.122378156054765e-05, -1.4276252841227688e-05, -0.010803678072988987, -0.014835650101304054, 3.602450669859536e-05, -8.919588435674086e-05, -0.02869407832622528, -7.441596972057596e-05, -0.014405304566025734, 0.003749876981601119, -0.010561587288975716, 0.00017504708375781775, 0.006679686717689037, -0.008248102851212025], [-1.2031161986669758e-06, -8.472708827866882e-07, -2.8437940891024027e-09, -8.560288589087861e-10, -1.2525048305178643e-06, -1.501569840911543e-06, -8.161920028726399e-10, -7.1665278156274326e-09, -2.233616442026687e-06, 4.035787171119409e-08, -1.252899892278947e-06, 2.9352816000027815e-07, -9.82471306087973e-07, 1.4635551437436334e-08, 9.451244977753959e-07, -8.019174129003659e-05], [-0.005470501258969307, -0.00447054672986269, 6.056201164028607e-05, 1.0508398418096476e-06, -0.005361147690564394, -0.006520905066281557, 1.2397654245432932e-05, -6.370477876771474e-06, -0.01241675578057766, 7.87524004408624e-06, -0.004868101794272661, 0.0014981753192842007, -0.0052103884518146515, 8.592749509261921e-05, 0.0032889198046177626, -0.005671912804245949], [-0.0020296312868595123, -0.0011882079998031259, 3.8550811609638913e-07, -2.0288987343519693e-06, -0.0015478505520150065, -0.0019817810971289873, 3.353224201418925e-06, -1.7092130292439833e-05, -0.003070465289056301, -6.541977654705988e-06, -0.0016142831882461905, 0.0004687246691901237, -0.001687486656010151, 1.873526161944028e-05, 0.0009658089838922024, -0.0016469703987240791], [0.01043195091187954, 0.003906085854396224, 0.00011517535313032568, -1.0024774383055046e-05, 0.007826567627489567, 0.007907685823738575, 0.0001413508434779942, 0.00035458614001981914, -0.0007035312009975314, 0.00011065995204262435, 0.006455224007368088, -0.0026357450988143682, 0.015753911808133125, 0.00043919155723415315, -0.005362361669540405, 0.012888727709650993], [-2.914032302214764e-05, -1.1276963050477207e-05, 1.7026211551751658e-09, -3.6053577900929668e-09, -1.258747488463996e-05, -1.218689158122288e-05, 6.560802034982771e-08, -1.5858590529660432e-07, -2.0573390429490246e-05, -2.4047441371521927e-08, -1.0980280421790667e-05, 3.4876939025707543e-06, -1.5952991816448048e-05, 3.177518976826832e-07, 1.1467570402601268e-05, -2.3369269911199808e-05], [-0.0033692133147269487, -0.0026701625902205706, 1.91385333891958e-06, -6.624591151194181e-07, -0.003068283898755908, -0.0035975936334580183, 2.5647643269621767e-05, -1.0169344022870064e-05, -0.0074347034096717834, 3.0788228286837693e-06, -0.003157758852466941, 0.0010307594202458858, -0.0030631283298134804, 0.00010410024697193876, 0.0021217435132712126, -0.0044862148351967335], [0.008684112690389156, 0.0014037997461855412, -3.148247560602613e-05, -2.070904338324908e-05, 0.006037052720785141, 0.006189700681716204, 0.00014447276771534234, 0.00022009096574038267, -0.002922783140093088, -0.00011161303700646386, 0.00476958928629756, -0.0007861914345994592, 0.012681955471634865, 0.0005689581739716232, -0.0031021214090287685, 0.00617132568731904]], "lstm.bias_ih_l0": [0.14434406161308289, 0.07303055375814438, -5.0165410357294604e-05, -0.0005520610138773918, 0.21866409480571747, 0.21886955201625824, 0.00021675968309864402, 0.00015664038073737174, 0.1932850182056427, -0.01840737648308277, 0.039553552865982056, 0.014030289836227894, 0.15101587772369385, -1.273788348044036e-05, 0.017869897186756134, 0.09623362123966217, -0.12351104617118835, -0.05395163223147392, -6.123588536866009e-05, -0.00046906148781999946, -0.04715386778116226, -0.030254637822508812, 0.00030852609779685736, -0.00016692992358002812, 0.005543880630284548, -0.017916159704327583, 0.006573447026312351, -0.0073241665959358215, 0.12215357273817062, -0.0003823151346296072, -0.03099868632853031, 0.05224723368883133, -0.07577452063560486, 0.14573264122009277, -0.08164403587579727, 0.04492943733930588, 0.04315001517534256, 0.1481105089187622, 0.05747563764452934, 0.03997134789824486, 0.13487595319747925, 0.008802268654108047, -0.12638981640338898, -0.04830286651849747, 0.15246175229549408, 0.015375764109194279, -0.14306847751140594, 0.1074896901845932, 0.21608778834342957, 0.0668538436293602, -0.00011019770317943767, -0.0005606067716144025, 0.23529461026191711, 0.24050316214561462, 6.13931697444059e-05, 0.0001547713327454403, 0.2185889035463333, -0.018276700749993324, 0.03447175398468971, 0.014061208814382553, 0.13646496832370758, -5.052163396612741e-05, 0.02054763399064541, 0.14338864386081696], "lstm.bias_hh_l0": [0.12588253617286682, 0.060650765895843506, -5.012653855374083e-05, -0.0005520493723452091, 0.18282325565814972, 0.23411352932453156, -0.00040456175338476896, 0.00015659314522054046, 0.19182302057743073, -0.01840783841907978, 0.047135259956121445, 0.01403183676302433, 0.01988724060356617, -8.580210123909637e-05, 0.022481312975287437, 0.0631772130727768, -0.03204775229096413, -0.058612823486328125, -6.122754712123424e-05, -0.0004690601781476289, -0.039136841893196106, -0.0487203486263752, 0.0008199592703022063, -0.0001668395707383752, 0.009985470212996006, -0.01791595295071602, -0.007187928073108196, -0.007326618302613497, 0.027814986184239388, -0.0003384977753739804, -0.004584156908094883, -0.04517478495836258, 0.1387256383895874, -0.04377854987978935, 0.08256357163190842, -0.04412089288234711, 0.07028713822364807, -0.07110457867383957, -0.059156063944101334, -0.03815222531557083, -0.06053338199853897, -0.007920836098492146, 0.16049693524837494, 0.0255951639264822, -0.05660483241081238, -0.017732737585902214, 0.07311265915632248, 0.06857067346572876, 0.22801847755908966, 0.07918824255466461, -0.00011053325579268858, -0.000560277549084276, 0.2291906774044037, 0.22611606121063232, -0.0008763427031226456, 0.00015487307973671705, 0.21582229435443878, -0.018276844173669815, 0.05718658119440079, 0.01406086329370737, 0.1470186710357666, -2.011731339734979e-05, 0.0347323939204216, 0.04136941581964493], "lstm.weight_ih_l1": [[0.014801140874624252, 0.009055186063051224, 9.716337081044912e-05, 3.0895807867636904e-05, 0.01600268855690956, 0.014704697765409946, 2.714972652029246e-05, 0.00037654710467904806, 0.008423835970461369, 0.00021212600404396653, 0.0074413674883544445, -0.0031207839492708445, 0.021351784467697144, 0.00022774477838538587, -0.008215230889618397, 0.024529889225959778], [0.02775222435593605, 0.016582539305090904, 1.8909395294031128e-05, 4.0667568100616336e-05, 0.02850395068526268, 0.028638606891036034, -9.394494554726407e-06, 0.0003479565493762493, 0.03699130192399025, 6.744142410752829e-06, 0.019216302782297134, -0.0050413236021995544, 0.036224715411663055, 0.00020132932695560157, -0.015272825956344604, 0.03705981373786926], [0.014656482264399529, 0.008730492554605007, 0.00016687640163581818, 3.6955334508093074e-05, 0.015395894646644592, 0.01404064241796732, 4.077150151715614e-05, 0.00044152047485113144, 0.006156942341476679, 0.0002986698236782104, 0.007288684602826834, -0.0034665148705244064, 0.021379144862294197, 0.00023012813471723348, -0.008075005374848843, 0.023733241483569145], [0.02958756498992443, 0.016040712594985962, -4.0913848351920024e-05, 8.770591193751898e-06, 0.027357695624232292, 0.029241302981972694, 2.4805985958664678e-05, 0.0002882747503463179, 0.039740048348903656, -0.0004235514788888395, 0.023837799206376076, -0.005346871446818113, 0.03685992583632469, 0.0002604502369649708, -0.01551098469644785, 0.03261248394846916], [9.756864892551675e-05, 0.00019457539019640535, 1.9969661479990464e-06, 1.9085985059064114e-06, 0.0003677144995890558, 0.00019906953093595803, -1.98104999071802e-06, 4.254861778463237e-06, -1.256360519619193e-05, 2.262075668113539e-06, -8.740377779759001e-06, -1.9869286916218698e-05, 0.00022603322577197105, -2.042613914454705e-06, -8.36091858218424e-05, 0.00031554073211736977], [-7.325979822780937e-05, 4.913736688649806e-07, 8.005673635125277e-07, 6.196454478413216e-07, 2.3694801711826585e-05, -3.295994611107744e-05, -8.456657951683155e-07, 8.74912643666903e-07, -0.0001744675828376785, 5.434758350020275e-07, -9.425430471310392e-05, 1.6517253243364394e-05, -2.6313595299143344e-05, -2.3996796016945154e-07, 2.0196050172671676e-05, -5.712189704354387e-06], [0.00023008599237073213, 0.0003362463030498475, 2.538823537179269e-06, 4.504480784817133e-06, 0.0005773925222456455, 0.00012055615661665797, -2.5719568839122076e-06, 1.2942688954353798e-05, -0.0003421031578909606, 6.342041160678491e-06, -4.8259011236950755e-05, 1.982651519938372e-05, 0.000477537396363914, 3.0587164019379998e-06, -0.00014780044148210436, 0.00047814782010391355], [-0.00012325754505582154, 9.587027307134122e-05, 3.993955488112988e-06, 4.1078606045630295e-06, 0.0002559020649641752, -8.445923594990745e-05, -3.016958544321824e-06, 6.605659109482076e-06, -0.0007974242325872183, 3.519277015584521e-06, -0.00037754056393168867, 8.581181464251131e-05, 1.5750058082630858e-05, 1.8443996623318526e-06, 5.792686715722084e-05, 3.9985628973226994e-05], [7.199613901320845e-05, 6.962072075111791e-05, 2.886649781430606e-07, 4.514871250194119e-07, 0.00011395904584787786, 8.703929779585451e-05, -5.064406423116452e-07, 1.525433617644012e-06, 5.2770072215935215e-05, 6.082817094466009e-07, 2.6004068786278367e-05, -1.3199275599617977e-05, 8.385416731471196e-05, -8.753224278734706e-07, -4.459364936337806e-05, 0.00012298946967348456], [0.001267093699425459, 0.00022380870359484106, 3.504206324578263e-05, 1.1855594493681565e-05, 0.0014040699461475015, 0.0009922775207087398, -1.753480864863377e-05, 8.033539052121341e-05, -0.0027693002484738827, 0.00011290248949080706, 0.0002246452495455742, -0.0002032196061918512, 0.0019085736712440848, 8.96250203368254e-05, 6.841259164502844e-05, -0.0005098491092212498], [0.005585989449173212, 0.0022260271944105625, 7.055261812638491e-05, 1.778348996595014e-05, 0.004731735214591026, 0.004720951896160841, -1.6401678294641897e-05, 0.00019269215408712626, 0.000725689169485122, 0.00015756474749650806, 0.003301657736301422, -0.001358575071208179, 0.007522750645875931, 0.00014439073856920004, -0.001923615112900734, 0.005092431791126728], [-0.0006315973587334156, 0.00018363083654548973, 5.396629148890497e-06, 3.4944243907375494e-06, 0.00047973686014302075, 0.00012024759053019807, -4.96535449201474e-06, 6.154982202133397e-06, -0.00071990821743384, 3.370100557731348e-06, -0.0006721056415699422, 4.506198092713021e-05, 7.656307570869103e-05, -2.1736291273555253e-06, 6.429444329114631e-05, 0.000158736584126018], [2.926591832874692e-06, 6.688772828056244e-06, 9.912869813888392e-08, 9.76582796852199e-08, 1.243053611688083e-05, 6.818894235038897e-06, -1.2599396370660543e-07, 1.915369836069658e-07, -6.388551810232457e-06, 7.303525961788182e-08, -4.726841325464193e-06, -8.051134159359208e-08, 3.993006885139039e-06, -1.0996546251362815e-07, -2.1359533093345817e-06, 5.991151738271583e-06], [0.029650049284100533, 0.02335106022655964, 0.0003690759767778218, 6.09786256973166e-05, 0.03524331748485565, 0.030576195567846298, 0.00013228441821411252, 0.0008709088433533907, 0.020960550755262375, 0.0005109159392304718, 0.01672830805182457, -0.00862525962293148, 0.048420410603284836, 0.00031197554199025035, -0.022097639739513397, 0.060748420655727386], [0.02017471380531788, 0.010407058522105217, 1.6727517504477873e-05, 1.575282476551365e-05, 0.018679814413189888, 0.019276970997452736, 4.8694662837078795e-05, 0.0003626647812779993, 0.018258068710565567, -5.2610306738642976e-05, 0.012954349629580975, -0.003776826895773411, 0.025887325406074524, 0.0003259334771428257, -0.010012634098529816, 0.023517262190580368], [0.00176254753023386, 0.0011780564673244953, 4.761541731568286e-06, 8.614293619757518e-06, 0.002269421238452196, 0.002008110051974654, -2.0279358068364672e-06, 3.395638850633986e-05, 0.0008088472532108426, 1.0876814485527575e-05, 0.0006039246218279004, -0.00018579760217107832, 0.0019574470352381468, 1.586839061928913e-05, -0.000686928688082844, 0.0016760628204792738], [0.013961663469672203, 0.0042967237532138824, 7.677908433834091e-05, 5.779719231213676e-06, 0.01039964985102415, 0.011503519490361214, 6.904640758875757e-05, 0.00034247132134623826, 0.004591666627675295, 0.00010141659731743857, 0.007974396459758282, -0.0022668775636702776, 0.016478244215250015, 0.00042193473200313747, -0.004688831511884928, 0.012250610627233982], [0.02959364838898182, 0.017317933961749077, -1.196749053633539e-05, 2.3826680262573063e-05, 0.029016612097620964, 0.03001023456454277, 3.6724617530126125e-05, 0.0003366491582710296, 0.043007854372262955, -0.00015895628894213587, 0.02206169255077839, -0.005803115665912628, 0.03880789130926132, 0.00025645727873779833, -0.017009176313877106, 0.05002151429653168], [0.012165626510977745, 0.0027311749290674925, 0.00014286172518040985, 1.221707589138532e-05, 0.007858880795538425, 0.009127683937549591, 0.00011021467071259394, 0.00036467061727307737, 0.00038947738357819617, 0.00023352379503194243, 0.006693695671856403, -0.0021560522727668285, 0.013393554836511612, 0.00039447692688554525, -0.003206652821972966, 0.004951672162860632], [0.03805426508188248, 0.023248665034770966, -3.09769093291834e-05, 1.0912861398537643e-05, 0.035985317081213, 0.037909042090177536, 5.0178446144855116e-06, 0.0004318625433370471, 0.05835375189781189, -0.000440723670180887, 0.03301684185862541, -0.008457571268081665, 0.04958205670118332, -3.2380467018811032e-06, -0.02474766969680786, 0.05950002744793892], [-0.0002829645527526736, -0.00023669071379117668, 3.18672874755066e-07, 2.206142681870915e-07, -0.00022645345597993582, -0.0002837984065990895, 1.4991303487477126e-06, -2.9865661872463534e-06, -0.0005365798133425415, -3.0839197506793425e-07, -0.00021167407976463437, 8.804963727016002e-05, -0.00030627739033661783, 6.9926632022543345e-06, 0.00022887438535690308, -0.0005272634443826973], [-0.0001899341878015548, -0.0001315899280598387, 3.1045209425428766e-07, 1.4472844611645996e-07, -0.0001540041994303465, -0.00017722620395943522, 1.409639480698388e-07, -1.2045120456605218e-06, -0.0003401748545002192, -2.540726882216404e-07, -0.00016015220899134874, 5.0593891501193866e-05, -0.0001922495721373707, 2.611241825434263e-06, 0.00011966679448960349, -0.0002787424309644848], [-0.000463909498648718, -0.0005056252703070641, -4.5052161112835165e-07, 8.630380534668802e-07, -0.0005907659069634974, -0.0008395128534175456, 4.328798240749165e-06, -8.779884979048802e-07, -0.001353470841422677, 1.4458280475082574e-06, -0.00041820722981356084, 0.00023403817613143474, -0.0005636648857034743, 2.1092171664349735e-05, 0.00046359942643903196, -0.0012197879841551185], [-0.0005477250088006258, -0.0004803543852176517, 2.3541381324321264e-06, 1.6761474626036943e-06, -0.0005152023513801396, -0.0006838688277639449, 8.083046054707665e-07, -3.233655434087268e-06, -0.0015100775053724647, 6.843231403763639e-06, -0.0006333750206977129, 0.00023144592705648392, -0.0007010923000052571, 1.4300456314231269e-05, 0.0004861147317569703, -0.0011116828536614776], [-2.7264837626717053e-05, -4.683403312810697e-05, -1.0293178576148421e-07, -6.14233508500206e-09, -4.596345024765469e-05, -4.3083786295028403e-05, 4.5604676301991276e-07, -4.017873891370982e-07, -8.927655289880931e-05, -8.850232546819825e-08, -2.929706715804059e-05, 1.627829988137819e-05, -5.969907942926511e-05, 1.5547052498732228e-06, 3.924751217709854e-05, -0.00010694400407373905], [0.0004002679488621652, -0.0011055388022214174, 2.3919286832096986e-05, 4.875814738625195e-06, -0.00043203102541156113, -0.0003023095487151295, -1.3297628811415052e-06, 5.4057461966294795e-05, -0.0035380071494728327, 7.613623893121257e-05, 1.3271738680487033e-05, 7.294592796824872e-05, 0.0002863472909666598, 0.00014442800602409989, 0.0010274663800373673, -0.0024166537914425135], [0.003942431882023811, -0.0003631689469330013, 4.996528150513768e-05, 7.632023880432826e-06, 0.0013000856852158904, 0.002306868089362979, 9.854375093709677e-06, 0.00014118311810307205, -0.000970874389167875, 9.85130900517106e-05, 0.002662074286490679, -0.0007277335389517248, 0.003818915458396077, 0.0001998446969082579, 0.0001020007548504509, -0.001322233467362821], [-0.0013429338578134775, -0.0006295772618614137, 2.3100697035260964e-06, 3.7463939861481776e-07, -0.0006254236213862896, -0.0008266770746558905, 1.268103119400621e-06, -7.801635547366459e-06, -0.0017516594380140305, -1.0054453696284327e-06, -0.001108709373511374, 0.0002514743246138096, -0.0009290602174587548, 1.4567978723789565e-05, 0.0006811422645114362, -0.0014075750950723886], [-1.7029940863722004e-05, -1.4575023669749498e-05, 2.199277915337916e-08, 1.509770086727258e-08, -1.6910953490878455e-05, -1.7242851754417643e-05, 4.2576303371788526e-08, -1.5061569058616442e-07, -3.416793333599344e-05, -4.3964551110775574e-08, -1.7080717952921987e-05, 5.411753136286279e-06, -2.2025766156730242e-05, 3.296396755558817e-07, 1.3510767530533485e-05, -3.586118691600859e-05], [0.03861282393336296, 0.013036838732659817, 0.00047382767661474645, 1.5962496036081575e-05, 0.02538203075528145, 0.029774680733680725, 0.0003742643748410046, 0.0011026597348973155, 0.004777535796165466, 0.0006183331715874374, 0.02554013393819332, -0.008896215818822384, 0.038032498210668564, 0.0009742249385453761, -0.013870789669454098, 0.012160852551460266], [0.01817435398697853, 0.007800789084285498, -5.82247412239667e-06, 3.8253215279837605e-06, 0.014931229874491692, 0.01645686849951744, 7.768726936774328e-05, 0.00031039342866279185, 0.015312803909182549, -0.0001802992046577856, 0.012147335335612297, -0.0031994215678423643, 0.020891256630420685, 0.0003600053023546934, -0.007607299368828535, 0.014677859842777252], [0.0007071242434903979, -7.539870421169326e-05, -3.8447902284133306e-07, 2.5186320726788836e-06, 0.00048598420107737184, 0.0005837142234668136, 7.124200692487648e-06, 1.2003453775832895e-05, -0.000597989943344146, -5.503141892404528e-06, 8.218595758080482e-05, 0.00011257562437094748, 0.0004621353873517364, 4.290457582101226e-05, 0.0001967604912351817, -0.0006755960057489574], [-0.42548057436943054, -0.2394285798072815, 0.00012887048069387674, -0.001251735957339406, -0.32006800174713135, -0.37561920285224915, 0.01628514938056469, -0.02584308758378029, -0.3273569643497467, 0.005910955369472504, -0.17040716111660004, 0.14603126049041748, -0.29931262135505676, 0.04569316655397415, 0.1890624463558197, -0.2300204634666443], [-0.27574631571769714, -0.12172818928956985, -0.0025020781904459, -0.0007138634682632983, -0.21834398806095123, -0.280930757522583, 0.0186020415276289, -0.004769876133650541, -0.3656919002532959, -0.011006935499608517, -0.2669896185398102, 0.06658869981765747, -0.1570287048816681, -0.028104344382882118, 0.11107730865478516, -0.09153467416763306], [0.4146289527416229, 0.23623061180114746, 0.009930651634931564, 0.0011455038329586387, 0.31890425086021423, 0.3355425000190735, -0.014864014461636543, 0.030725931748747826, 0.3145044445991516, -0.007023871410638094, 0.18804091215133667, -0.07576607912778854, 0.30147987604141235, -0.0026416948530822992, -0.21195419132709503, 0.23896802961826324], [-0.2500128149986267, -0.15191948413848877, 0.00020382596994750202, -0.00020511321781668812, -0.17558281123638153, -0.22921179234981537, 0.003779282560572028, -0.005226810462772846, -0.2901579439640045, 0.0011483286507427692, -0.2632734179496765, 0.034187451004981995, -0.15240910649299622, -0.01835205964744091, 0.1211618036031723, -0.21220549941062927], [0.04742177948355675, 0.024879373610019684, 0.00017251193639822304, 0.00015599759353790432, 0.04502126947045326, 0.04762786999344826, -0.00013383581244852394, 0.0005047546583227813, 0.06745760887861252, 0.000319306505843997, 0.06486056745052338, -0.0097320806235075, 0.04630975052714348, 1.4122587117526564e-06, -0.017629368230700493, 0.012859399430453777], [-0.027229979634284973, -0.017084790393710136, -0.00015252377488650382, -0.00012123800843255594, -0.02942807972431183, -0.029771387577056885, 0.0001156608632300049, -0.0003492969262879342, -0.032195597887039185, -0.0005136469262652099, -0.023770775645971298, 0.004715426359325647, -0.025425754487514496, 0.00021825998555868864, 0.011413909494876862, -0.0031792139634490013], [-0.07844555377960205, -0.04794051870703697, -0.00021231976279523224, -0.00027059135027229786, -0.08257609605789185, -0.07853908836841583, 2.8389265935402364e-05, -0.00010851709521375597, -0.10706564038991928, -9.289442095905542e-05, -0.04607313871383667, 0.025788845494389534, -0.10139933228492737, 0.002083561383187771, 0.0698603093624115, -0.011562302708625793], [-0.05994533747434616, -0.036770131438970566, -0.0002780386130325496, -0.00024026581377256662, -0.06308002024888992, -0.0649617463350296, 0.00022218833328224719, -0.0007394076674245298, -0.06821668893098831, -0.000699561380315572, -0.04611409455537796, 0.010187369771301746, -0.050215814262628555, 0.00028692834894172847, 0.02529223822057247, -0.04690053313970566], [0.023667367175221443, 0.011716299690306187, 8.000811067176983e-05, 6.845220923423767e-05, 0.02368614263832569, 0.02207544445991516, -5.3495091378863435e-06, 0.00023337143647950143, 0.045825064182281494, -6.504051270894706e-05, 0.04128328338265419, -0.004664621315896511, 0.037396758794784546, -0.002027052454650402, -0.004791270941495895, 0.026889074593782425], [0.15391583740711212, 0.12335797399282455, -0.0004952503950335085, 0.00048579322174191475, 0.1634674221277237, 0.1522802710533142, -0.013933260925114155, 0.005629650317132473, 0.13583122193813324, -0.006461838725954294, 0.14482785761356354, -0.07674336433410645, 0.17561766505241394, 0.001954159699380398, -0.09319044649600983, 0.21744728088378906], [-0.21946541965007782, -0.22232159972190857, 0.02281772717833519, -0.001673472230322659, -0.23905880749225616, -0.26051005721092224, 0.06174090504646301, -0.0336000882089138, -0.08055470138788223, -0.014577704481780529, -0.18772925436496735, 0.1645539104938507, -0.18500258028507233, 0.103988878428936, 0.23661668598651886, -0.2895067632198334], [0.06322643160820007, 0.03938571363687515, 0.00041865577804856, 0.00028491768171079457, 0.07020201534032822, 0.07093651592731476, -0.00032470107544213533, 0.0007914400193840265, 0.05994417890906334, 0.0009207334369421005, 0.03209448233246803, -0.009995409287512302, 0.048667505383491516, -0.000548787706065923, -0.022128978744149208, 0.04347485303878784], [0.009293404407799244, 0.005747520364820957, 6.101656617829576e-05, 5.4633590480079874e-05, 0.010813557542860508, 0.010636817663908005, -7.243430445669219e-05, 9.423575102118775e-05, 0.0063599031418561935, 0.00046033516991883516, 0.0038341456092894077, -0.0009788105962798, 0.006286419462412596, 1.2810827456632978e-06, -0.0026211775839328766, 0.005844576749950647], [0.4990680515766144, 0.35503625869750977, -0.001599188894033432, 0.0009887872729450464, 0.5542482137680054, 0.6114795804023743, 0.0030856840312480927, 0.023639554157853127, 0.5136036276817322, 0.0182841494679451, 0.22772280871868134, -0.2864815890789032, 0.3826110363006592, -0.038550421595573425, -0.10131008177995682, 0.353882372379303], [0.3643087148666382, 0.0821283683180809, 0.03271675854921341, -0.0016457501333206892, 0.23545199632644653, 0.26021018624305725, 0.08956830948591232, 0.0070453789085149765, 0.23730112612247467, 0.04347221180796623, 0.3051137924194336, -0.005897907540202141, 0.3211747109889984, 0.06994044035673141, -0.2839830219745636, 0.0003006284823641181], [0.11260771006345749, 0.06259334087371826, 0.0002557898696977645, 0.00038361328188329935, 0.10659786313772202, 0.11205162853002548, 0.008575323037803173, 0.0004998628282919526, 0.16679725050926208, 0.0011969831539317966, 0.12678280472755432, -0.014091984368860722, 0.14501745998859406, -0.01728663593530655, -0.08223152160644531, -0.021974867209792137], [0.01861758343875408, 0.01159175205975771, 0.00012852161307819188, 5.3617921366821975e-05, 0.020596686750650406, 0.019058343023061752, -2.7077139748143964e-05, 0.0004506618424784392, 0.009814231656491756, 0.0003452389792073518, 0.008652647957205772, -0.003631750587373972, 0.024173500016331673, 0.00019175975467078388, -0.009538207203149796, 0.0240989588201046], [0.040581800043582916, 0.02548673003911972, 8.567696932004765e-05, 8.885633724275976e-05, 0.042796049267053604, 0.04310319945216179, -6.531120016006753e-05, 0.0005314637674018741, 0.051146894693374634, 5.306481762090698e-05, 0.026598423719406128, -0.007626504637300968, 0.048431459814310074, 9.417175897397101e-05, -0.021742917597293854, 0.06024525687098503], [0.016305316239595413, 0.00984205398708582, 0.00018567957158666104, 5.6408294767607003e-05, 0.017853334546089172, 0.016177525743842125, 1.593439264979679e-05, 0.0004707477055490017, 0.005132969003170729, 0.00032545518479309976, 0.006986146327108145, -0.0034056350123137236, 0.021618442609906197, 0.00019647330918814987, -0.008067985996603966, 0.021673765033483505], [0.037405241280794144, 0.021686166524887085, 2.6666000849218108e-05, 4.84330921608489e-05, 0.036279287189245224, 0.03794752061367035, -3.745985304703936e-05, 0.0004588247975334525, 0.04899447783827782, -0.00019230041652917862, 0.028541216626763344, -0.007234802469611168, 0.04827975481748581, 0.00027410322218202055, -0.019139589741826057, 0.03794631361961365], [0.00027934060199186206, 0.0003021088195964694, 3.244984327466227e-06, 2.7675421279127477e-06, 0.0005594341200776398, 0.0004039447521790862, -3.0763887934881495e-06, 6.861187102913391e-06, 0.00011920530960196629, 3.3638955301285023e-06, 6.319892418105155e-05, -4.3381085561122745e-05, 0.0003565973020158708, -4.281196197553072e-06, -0.00013528902491088957, 0.0003942498005926609], [-1.8622915376909077e-05, 3.046908022952266e-05, 1.1309792853353429e-06, 8.561048048250086e-07, 7.70760525483638e-05, 2.7284351745038293e-05, -1.1858002153530833e-06, 1.5794439605087973e-06, -0.00013672886416316032, 1.0228131941403262e-06, -7.235842349473387e-05, 9.768056770553812e-06, 1.0084570021717809e-05, -8.566408951082849e-07, 5.28270584254642e-06, 1.667906872171443e-05], [0.0006488350336439908, 0.0005762252840213478, 5.916640020586783e-06, 6.429333097912604e-06, 0.0010226533049717546, 0.0005925688310526311, -5.573541329795262e-06, 1.8399323380435817e-05, -8.940988482208923e-05, 9.859127203526441e-06, 0.00010092257434735075, -3.655468754004687e-05, 0.0007432884303852916, -2.220353053417057e-06, -0.0002552274090703577, 0.0005952974315732718], [0.0005188060458749533, 0.00046895560808479786, 8.056770639086608e-06, 6.358794053085148e-06, 0.0009139099856838584, 0.0006584568764083087, -7.70977021602448e-06, 1.3471740203385707e-05, -0.0003394602972548455, 2.7721944206859916e-05, -0.000116532995889429, -7.0146966208994854e-06, 0.0005028255400247872, -5.785293069493491e-06, -0.00014332820137497038, 0.0004794411070179194], [9.891083755064756e-05, 8.601847366662696e-05, 5.396900064624788e-07, 6.114717052696506e-07, 0.00014373594603966922, 0.00011817094491561875, -7.196176170509716e-07, 1.931349970618612e-06, 6.995172589085996e-05, 7.749967494419252e-07, 3.6575733247445896e-05, -1.665740091993939e-05, 0.00010248164471704513, -1.2514013860709383e-06, -5.1562565204221755e-05, 0.00013040145859122276], [0.0015599072212353349, 0.00035799568286165595, 4.107817221665755e-05, 1.722091474221088e-05, 0.00183891411870718, 0.0013874340802431107, -2.2789010472479276e-05, 8.68590286700055e-05, -0.0031743471045047045, 0.0001181407569674775, 1.258273459825432e-05, -0.00013171180034987628, 0.0018199741607531905, 8.540975250070915e-05, 0.00016419903840869665, -0.00035284776822663844], [0.005570462439209223, 0.001982001820579171, 7.916182221379131e-05, 2.503547329979483e-05, 0.004856485407799482, 0.004721540026366711, -2.7838788810186088e-05, 0.00020268469233997166, -0.001010824809782207, 0.00019089586567133665, 0.0026310423854738474, -0.001138345105573535, 0.006818541791290045, 0.0001608911552466452, -0.0014236964052543044, 0.0031683333218097687], [-0.00011867973080370575, 0.00048619601875543594, 8.386833542317618e-06, 5.1911270020355005e-06, 0.000988661078736186, 0.0006839666166342795, -7.655176887055859e-06, 1.3248542927613016e-05, -0.00030330955632962286, 6.164062142488547e-06, -0.0004215716908220202, -2.776792462100275e-05, 0.0004590445023495704, -8.252360203186981e-06, -0.00010306471085641533, 0.0004362919135019183], [8.82202493812656e-06, 1.0138405741599854e-05, 1.3662209141784842e-07, 1.2222143652707018e-07, 1.858005634858273e-05, 1.3536182450479828e-05, -1.594632834667209e-07, 2.700288916912541e-07, -1.3205092272983165e-06, 1.0900678404368591e-07, -1.9690621684276266e-06, -9.364755442220485e-07, 8.197401257348247e-06, -1.79588994342339e-07, -3.932422714569839e-06, 8.641693966637831e-06], [0.03733894228935242, 0.028952429071068764, 0.00041101386887021363, 0.00010811194806592539, 0.04469183459877968, 0.03924117609858513, 7.671376806683838e-05, 0.0010213606292381883, 0.024114729836583138, 0.0005869544693268836, 0.019466377794742584, -0.010045881383121014, 0.05442400649189949, 0.00022185896523296833, -0.02531464397907257, 0.06521036475896835], [0.02145446464419365, 0.011181027628481388, 3.476185884210281e-05, 3.725840724655427e-05, 0.020739519968628883, 0.021048543974757195, 3.448127972660586e-05, 0.00038661330472677946, 0.016254333779215813, 9.759620297700167e-06, 0.012207365594804287, -0.003585817525163293, 0.025058262050151825, 0.00029690636438317597, -0.009476070292294025, 0.020400850102305412], [0.002735079498961568, 0.001777877565473318, 1.361952399747679e-05, 1.3909600056649651e-05, 0.0033513293601572514, 0.00311361625790596, -1.1285077562206425e-05, 4.838062886847183e-05, 0.001353416359052062, 1.6493260773131624e-05, 0.0009650354040786624, -0.0003126716474071145, 0.0026443572714924812, 2.6549298581812764e-06, -0.0009513518889434636, 0.002014070050790906]], "lstm.weight_hh_l1": [[-0.0024462416768074036, -0.010994675569236279, 0.00011053170601371676, -0.020227370783686638, -0.0008777998154982924, 0.0006410829955711961, 0.001060551148839295, 3.452364762779325e-05, -0.0007697092951275408, -0.0012468076311051846, 0.001692692399956286, -0.00270959478802979, -0.0008089509210549295, 0.0038357614539563656, 0.0027755049522966146, 0.001066263997927308], [-0.004934866912662983, -0.010313045233488083, 0.0017789980629459023, -0.011403525248169899, -0.0016951453872025013, 0.0007022111676633358, 0.0022209864109754562, -0.00046358577674254775, -0.0011159881250932813, -0.0010555717162787914, 0.002070609712973237, -0.00291561265476048, -0.0009013373055495322, 0.006402763072401285, 0.001557648298330605, -0.0011865550186485052], [-0.003231434617191553, -0.010950202122330666, 0.0008933646022342145, -0.018107855692505836, -0.000649112684186548, 0.000557388411834836, 0.0007384955533780158, 3.981858026236296e-05, -0.000659712590277195, -0.0005414169281721115, 0.0010143332183361053, -0.0027938371058553457, -0.000831756042316556, 0.005378076806664467, 0.003665758529677987, 0.0017823639791458845], [-0.006262342445552349, -0.0026973248459398746, 0.0032937144860625267, -0.014942355453968048, -0.0015163511270657182, 0.00046190526336431503, 0.002363316249102354, -0.0010504996171221137, -0.0011315062874928117, 0.00011884423292940482, 0.0011852687457576394, -0.0026250670198351145, -0.0009285222040489316, 0.012257142923772335, 0.0013730993960052729, -0.0013277505058795214], [0.00030105048790574074, 0.0001775767741492018, -0.0003346969897393137, 6.682043022010475e-05, -4.261949288775213e-05, 2.6574944058666006e-05, 7.389800157397985e-05, 6.0804944951087236e-05, -2.1928777641733177e-05, -0.00014291072147898376, 0.0001652160717640072, -7.056299364194274e-05, -9.109638995141722e-06, -0.0005726541858166456, -0.00024939331342466176, -0.0001031496431096457], [0.00014858803479000926, 8.669880480738357e-05, -0.0001518588251201436, 2.8046733859810047e-05, -1.4337866559799295e-05, 1.3237702660262585e-05, 2.0183675587759353e-05, 2.9138991521904245e-05, -5.778883860330097e-06, -7.653224020032212e-05, 6.931043753866106e-05, -2.6479583539185114e-05, -3.2798468510009116e-06, -0.0002624827029649168, -9.08556321519427e-05, -3.06583424389828e-05], [0.00069281121250242, 0.0005868361331522465, -0.0007528169080615044, 0.0004677757387980819, -0.00012500875163823366, 7.373410335276276e-05, 0.00014971962082199752, 0.00016561961092520505, -5.552288712351583e-05, -0.00044329563388600945, 0.0005979071720503271, -0.00024190617841668427, -2.9504548365366645e-05, -0.0011726563097909093, -0.0004869596450589597, -0.0002240115136373788], [0.00090988032752648, 0.0006768861203454435, -0.0008804454118944705, 0.0003700699598994106, -0.00011998841364402324, 8.228755905292928e-05, 0.00014561088755726814, 0.0001929765858221799, -5.1907412853324786e-05, -0.0005095762899145484, 0.0005684167263098061, -0.00020903574477415532, -2.3800268536433578e-05, -0.0015733748441562057, -0.0005731497658416629, -0.00024271909205708653], [2.4922981538111344e-05, -1.196353514387738e-05, -2.7944775865762495e-05, -3.151743294438347e-05, -5.377787147153867e-06, 3.6324483971839072e-06, 6.796676188969286e-06, 4.853273821936455e-06, -2.1270466277201194e-06, -1.6095000319182873e-05, 2.0160099666099995e-05, -7.58095802666503e-06, -1.3849791002940037e-06, -5.0056129111908376e-05, -1.575938040332403e-05, -5.6287481129402295e-06], [0.002195414388552308, 0.0027061549481004477, -0.002244725124910474, 0.0025799814611673355, -0.00045743389637209475, 0.0003792291390709579, 0.0005906702717766166, 0.0007455945014953613, -0.00021431405912153423, -0.0007790289237163961, 0.0008598346612416208, -0.0010848345700651407, -0.00022054760484024882, -0.00249736150726676, -0.0015429342165589333, -0.0007972631719894707], [-0.0010316957486793399, -0.0005969817284494638, 0.00042784668039530516, 1.034149681800045e-05, -0.00033640468609519303, 1.1064860700571444e-05, 0.0005083925207145512, 0.00042596194543875754, -0.00027970311930403113, 0.0005155344842933118, -2.7820924515253864e-05, -0.0014073890633881092, -0.00036375364288687706, 0.003181209322065115, 0.0006882914458401501, 1.294428511755541e-05], [0.0010172800393775105, 0.0007774157566018403, -0.0011050207540392876, 0.0003727074945345521, -0.00010034546721726656, 7.597442163387313e-05, 0.0001672182697802782, 0.00018636704771779478, -4.41893280367367e-05, -0.0004325520421843976, 0.0004012279387097806, -0.00017598175327293575, -2.103785845974926e-05, -0.0019185597775503993, -0.0009691566810943186, -0.0002710665576159954], [1.3966318874736317e-05, 1.0628476957208477e-05, -1.323134438280249e-05, 7.578790246043354e-06, -1.432314093108289e-06, 1.1747137023121468e-06, 1.8828638985723956e-06, 2.9175084819144104e-06, -5.030955207985244e-07, -6.778054739697836e-06, 6.062516604288248e-06, -2.4838579975039465e-06, -2.956384435037762e-07, -2.2843867554911412e-05, -8.464829079457559e-06, -3.3745232030923944e-06], [-0.01787630468606949, -0.051085665822029114, 0.0095613282173872, -0.07302474975585938, 0.0006805458106100559, 0.0007205011788755655, -0.0012207406107336283, -0.003992810845375061, -0.0008582408772781491, 0.0025428791996091604, -0.0008939749677665532, -0.0023276505526155233, -0.0014381275977939367, 0.020163116976618767, 0.018139954656362534, 0.01037551462650299], [-0.0032897822093218565, -0.004912879317998886, 0.0012450295034796, -0.014092063531279564, -0.0012160602491348982, 0.0005876313662156463, 0.00159745616838336, 0.00012625077215489, -0.0009320886456407607, -0.0004539757501333952, 0.0010517187183722854, -0.0030426757875829935, -0.0009080814197659492, 0.006890243384987116, 0.0015630186535418034, -0.00024229212431237102], [0.0011057116789743304, 0.0011480195680633187, -0.0010044435039162636, 0.0009997219312936068, -0.00027830281760543585, 0.00015131282270886004, 0.0003529802488628775, 0.00031515868613496423, -0.00014814450696576387, -0.0006473271059803665, 0.0007325679180212319, -0.0004754883120767772, -8.331231219926849e-05, -0.0015763293486088514, -0.0008002672111615539, -0.0005117807886563241], [0.002371622249484062, 0.00279181357473135, -0.002174221444875002, -0.0016096828039735556, -0.0018201918574050069, 0.0008095208904705942, 0.002185280667617917, 0.0017147785983979702, -0.0010936176404356956, -0.0016251079505309463, 0.0020584550220519304, -0.0040909042581915855, -0.0009839284466579556, -0.0010371891548857093, -0.0015649535926058888, -0.001928080222569406], [-0.011410427279770374, -0.01670166663825512, 0.006640501320362091, -0.012704836204648018, -0.0010440913029015064, 0.0003263779217377305, 0.0014479352394118905, -0.0013672631466761231, -0.0008472760091535747, 0.0012025723699480295, -4.8115547542693093e-05, -0.0021918562706559896, -0.0008406043634749949, 0.016433048993349075, 0.005199842154979706, 0.0005914052599109709], [0.0021338986698538065, 0.006197694689035416, -0.001611526939086616, 0.01194995827972889, -0.0016064647352322936, 0.0007204210851341486, 0.0018734452314674854, 0.0016907047247514129, -0.0009793414501473308, -0.0008725935476832092, 0.0013552253367379308, -0.003930040635168552, -0.0009192475699819624, -0.000577309459913522, -0.0013205503346398473, -0.0015872508520260453], [-0.018130958080291748, -0.005636192858219147, 0.00966466125100851, 0.014428608119487762, -0.0005315318703651428, 0.0004370496899355203, 0.001230180962011218, -0.003122677793726325, -0.0008303351933136582, 0.0037204145919531584, -0.0015094325644895434, -0.001536688068881631, -0.000925189524423331, 0.02511044777929783, 0.006915212143212557, 0.0013859214959666133], [0.0005369566497392952, 0.0007135989726521075, -0.0005007634172216058, 0.0007619749521836638, -7.556173659395427e-05, 3.7635221815435216e-05, 0.00012244631943758577, 0.00012210701243020594, -3.204612949048169e-05, -0.00020662312454078346, 0.00021226017270237207, -0.00011988848564215004, -1.2237370356160682e-05, -0.0008498371462337673, -0.0004771233070641756, -0.0002284212678205222], [0.00023841885558795184, 0.00029992422787472606, -0.0002190861414419487, 0.0002983390004374087, -2.7461333957035094e-05, 1.7538442989462055e-05, 3.894710971508175e-05, 5.324007724993862e-05, -9.836937351792585e-06, -0.00010155233030673116, 8.911114855436608e-05, -4.5869765017414466e-05, -4.438958058017306e-06, -0.0003758961975108832, -0.00018057589477393776, -7.949673454277217e-05], [0.001162607572041452, 0.0017225926276296377, -0.0010716939577832818, 0.0019805149640887976, -0.00019900803454220295, 9.601037163520232e-05, 0.00024738459615036845, 0.0002961613063234836, -7.876737072365358e-05, -0.0005774914170615375, 0.0007262711296789348, -0.0003514900745358318, -3.596055103116669e-05, -0.0017316908342763782, -0.0009319441160187125, -0.0004876712046097964], [0.0012190426932647824, 0.0015097078867256641, -0.0010737190023064613, 0.0013714290689677, -0.00015833757061045617, 9.751933248480782e-05, 0.00020267695072107017, 0.0002891712647397071, -5.8837416872847825e-05, -0.0005864811828359962, 0.0005921825650148094, -0.0002737973409239203, -2.8070737243979238e-05, -0.0018389958422631025, -0.0008666612557135522, -0.00041544795385561883], [9.187287651002407e-05, 0.00013210867473389953, -7.411259139189497e-05, 0.00015838707622606307, -1.58697093866067e-05, 7.128288416424766e-06, 2.1159958123462275e-05, 2.1966983695165254e-05, -5.6089015743054915e-06, -3.4822758607333526e-05, 3.726515205926262e-05, -2.1950536392978393e-05, -2.4230280359915923e-06, -0.00013552221935242414, -7.767904753563926e-05, -4.129410444875248e-05], [0.00268883747048676, 0.00461144745349884, -0.002400901634246111, 0.0072551304474473, -0.0005749505944550037, 3.510607348289341e-05, 0.0007354645058512688, 0.0009090179810300469, -0.0002483049174770713, -0.0006580477929674089, 0.0008031767792999744, -0.0011824284447357059, -0.00021281455701682717, -0.0029656619299203157, -0.0022531128488481045, -0.001286307000555098], [0.0012869348283857107, 0.005114794708788395, -0.0007397946319542825, 0.006986663676798344, -0.0008135104435496032, 0.00010808882507262751, 0.0010207555023953319, 0.001017410191707313, -0.00043411270598880947, 0.00024188158567994833, 0.0002896200749091804, -0.001761642168276012, -0.0003651099686976522, -0.00014728250971529633, -0.0015574084827676415, -0.0015272472519427538], [0.0015566813526675105, 0.0019436873262748122, -0.001519377576187253, 0.001792939263395965, -0.00016648411110509187, 9.760433022165671e-05, 0.00028226338326931, 0.00031818071147426963, -6.617693725274876e-05, -0.0005753241712227464, 0.0005252084229141474, -0.00028435650165192783, -2.695045986911282e-05, -0.0025799721479415894, -0.0015085594495758414, -0.0005501201958395541], [2.703539576032199e-05, 4.095491749467328e-05, -2.3398570192512125e-05, 4.625446308637038e-05, -3.3877993246278493e-06, 1.8180265897171921e-06, 4.648023150366498e-06, 6.290369583439315e-06, -1.1531672043929575e-06, -1.0704651685955469e-05, 9.337299161416013e-06, -5.41529834663379e-06, -4.768903067997599e-07, -4.048291884828359e-05, -2.1230218408163637e-05, -1.0408037269371562e-05], [0.0012779409298673272, 0.004087245557457209, 3.0060027711442672e-05, 0.0033117588609457016, -0.002889074617996812, 0.001227696891874075, 0.002523836214095354, 0.0009418099652975798, -0.002484110416844487, 0.003065800527110696, -0.0009300570236518979, -0.008098204620182514, -0.00249348278157413, -0.0047249444760382175, 0.0024991037789732218, 0.00022075400920584798], [-0.0023542039562016726, 0.0012917546555399895, 0.0013549673603847623, 0.010090733878314495, -0.0012871215585619211, 0.0005045692669227719, 0.00164777971804142, 0.0005173449171707034, -0.0009096900466829538, 6.198780465638265e-05, 0.0005106008029542863, -0.0029666235204786062, -0.0008392013260163367, 0.006207724567502737, 0.0004816875443793833, -0.0010037580505013466], [0.001548886764794588, 0.0025473986752331257, -0.0012773425551131368, 0.0028594357427209616, -0.0003450209624134004, 0.00016781863814685494, 0.00043683868716470897, 0.00046638312051072717, -0.00015880924183875322, -0.0007345724734477699, 0.0007513314485549927, -0.0005722679197788239, -8.914713544072583e-05, -0.0019948130939155817, -0.00128505181055516, -0.0008047660230658948], [-0.11881738901138306, -0.28684937953948975, 0.16106873750686646, 0.014702437445521355, 0.04864054545760155, -0.10446657240390778, -0.12368219345808029, 0.01545022614300251, 0.06886818259954453, 0.14308618009090424, -0.06680046766996384, 0.17447438836097717, 0.03729913756251335, 0.2759481370449066, 0.13153594732284546, 0.014616675674915314], [0.09139154106378555, -0.020508049055933952, 0.011392259038984776, -0.034315939992666245, 0.0073677184991538525, 0.09546119719743729, -0.0054131303913891315, -0.012042279355227947, 0.014442778192460537, 0.043678443878889084, -0.010664232075214386, 0.039716944098472595, 0.03245871514081955, -0.012584581039845943, 0.013013651594519615, 0.010312588885426521], [0.12154822051525116, -0.030136559158563614, -0.24214160442352295, 0.008784573525190353, -0.060924626886844635, 0.043941348791122437, 0.13430336117744446, 0.04296720027923584, -0.02817893587052822, -0.24342449009418488, 0.127435103058815, -0.09314514696598053, -0.02586539462208748, -0.31114012002944946, -0.13447050750255585, -0.17652465403079987], [-0.051048267632722855, -0.05184048414230347, 0.038305990397930145, -0.17299063503742218, 0.027469346299767494, -0.013042466714978218, -0.018551837652921677, 0.017229607328772545, 0.008013475686311722, 0.02782336249947548, -0.01573151908814907, 0.04224609583616257, 0.007988081313669682, -0.03216810151934624, 0.02931303344666958, 0.021877817809581757], [0.01634056493639946, 0.06696880608797073, -0.009305257350206375, 0.10991103947162628, -0.005062848329544067, 0.0020488884765654802, 0.004748277831822634, 0.013566160574555397, -0.0027231911662966013, 0.0016978291096165776, 0.0035000506322830915, -0.005152909550815821, -0.0008202098542824388, -0.021766789257526398, -0.01308028120547533, -0.011920182034373283], [-0.008877157233655453, -0.016744866967201233, 0.00349739333614707, -0.024705497547984123, 0.0029153083451092243, -0.0038297066930681467, -0.0024976867716759443, -0.001892997999675572, 0.0011311161797493696, 0.0008149831555783749, -0.0019424419151619077, 0.002683432074263692, 0.0004635702644009143, 0.014071465469896793, 0.006095050368458033, 0.005917241796851158], [-0.08950507640838623, -0.02089199796319008, 0.06377983093261719, -0.07704775035381317, 0.011616460047662258, 0.0024164211936295033, -0.016034282743930817, 0.005034698639065027, 0.007371633313596249, 0.050884541124105453, -0.02016298659145832, 0.020776676014065742, 0.0018702616216614842, 0.06842716038227081, 0.03350366652011871, 0.02157030813395977], [-0.005427818279713392, -0.024943014606833458, 0.0017988943727687001, -0.03965241461992264, 0.005029020365327597, -0.001960178604349494, -0.004278804175555706, -0.003540132427588105, 0.0020834298338741064, -0.0008077412494458258, -0.0016453961143270135, 0.004580888897180557, 0.0008065664442256093, 0.01832006499171257, 0.008516540750861168, 0.010044628754258156], [0.02801649272441864, 0.050574105232954025, -0.0216816533356905, 0.050898026674985886, -0.004459009505808353, 0.0011537650134414434, 0.004112144932150841, 0.012508675456047058, -0.004405586048960686, -0.009301060810685158, 0.006337400060147047, -0.003822099417448044, -0.000983125064522028, -0.03567706421017647, -0.014410188421607018, -0.01114712655544281], [0.08554656058549881, 0.045580651611089706, -0.0601014643907547, 0.02845095656812191, 0.04411878436803818, 0.014882861636579037, 0.023861033841967583, -0.059756506234407425, -0.016347182914614677, -0.04340285062789917, 0.042505159974098206, -0.0243839081376791, -0.05459311231970787, -0.1157107874751091, -0.07248230278491974, -0.04386625811457634], [-0.056333404034376144, -0.11910468339920044, 0.2412852942943573, 0.015730487182736397, 0.09544011205434799, -0.14360447227954865, -0.05462489649653435, -0.16607549786567688, -0.0007653743377886713, 0.15296481549739838, -0.12645979225635529, 0.140694260597229, 0.05826113745570183, 0.27189207077026367, 0.08013574033975601, 0.012796962633728981], [0.019976548850536346, 0.034135784953832626, -0.01058345939964056, 0.04547131806612015, -0.006954353302717209, 0.005011964123696089, 0.005799037870019674, 0.006647249683737755, -0.00234222412109375, -0.00469543319195509, 0.004411565605551004, -0.00669611431658268, -0.0010913887526839972, -0.03421979025006294, -0.01646491326391697, -0.01407755445688963], [0.00581844337284565, 0.009656963869929314, -0.003884953446686268, 0.0083400784060359, -0.0012629220727831125, 0.0005588654312305152, 0.0012479480355978012, 0.0017334495205432177, -0.0004106572305317968, -0.001982883783057332, 0.0015386644518002868, -0.001550415763631463, -0.0002266310912091285, -0.008528650738298893, -0.004490757826715708, -0.0030710194259881973], [0.40194717049598694, 0.3767583668231964, -0.3880942165851593, 0.1794705092906952, -0.12421056628227234, 0.08928182721138, 0.1997469812631607, 0.2702783942222595, -0.05804245546460152, -0.29403069615364075, 0.1698428839445114, -0.2433100938796997, -0.052301861345767975, -0.3198317587375641, -0.1997872292995453, -0.22151297330856323], [0.10633375495672226, 0.17871767282485962, -0.1622064709663391, -0.1276424527168274, -0.12794137001037598, 0.019864140078425407, 0.11642224341630936, 0.11314856261014938, -0.021932393312454224, 0.010039054788649082, 0.09591005742549896, -0.11405497044324875, 0.07702631503343582, -0.20232118666172028, -0.009621278382837772, -0.10166783630847931], [0.06552767008543015, 0.09469927102327347, -0.013680567964911461, 0.1669464111328125, -0.02502116747200489, -0.04246894642710686, 0.004486463963985443, 0.05822382867336273, -0.006632387638092041, -0.012384917587041855, 0.0159000251442194, -0.02685638517141342, 0.018113138154149055, -0.037399593740701675, -0.01634790562093258, -0.023218020796775818], [-2.9389664632617496e-05, -0.008170883171260357, -0.0013878103345632553, -0.016513030976057053, -0.0011984646553173661, 0.0007807105430401862, 0.0013034315779805183, 0.0006352046621032059, -0.0008292000857181847, -0.0020048024598509073, 0.0020363524090498686, -0.0032062807586044073, -0.0008805819088593125, 0.0006510729435831308, 0.0013902282807976007, 0.00021723478857893497], [-0.0077283550053834915, -0.008055702783167362, 0.004014757927507162, 0.0004505323595367372, -0.0016499534249305725, 0.0006640233914367855, 0.001847518840804696, -2.7668602342600934e-05, -0.0009542506886646152, -0.0002284540532855317, 0.0003323401906527579, -0.003063816810026765, -0.0009363110875710845, 0.011150510050356388, 0.00277707795612514, -0.000988147919997573], [-0.00022268164320848882, -0.006954358424991369, -0.0012266050325706601, -0.014294629916548729, -0.0009983368217945099, 0.0007676410023123026, 0.0010777737479656935, 0.000766230165027082, -0.0007311496301554143, -0.001664404640905559, 0.0017065424472093582, -0.003240434918552637, -0.0008548881742171943, 0.0012567598605528474, 0.0018048458732664585, 0.0007481459761038423], [-0.002188559155911207, -0.00435913261026144, 0.0026989481411874294, -0.02325207181274891, -0.0018554084235802293, 0.0009316953364759684, 0.0024781140964478254, 0.002522628288716078, -0.0011424871627241373, -8.432803042524029e-06, 0.0008385465480387211, -0.003249169560149312, -0.0010481332428753376, 0.010827354155480862, 0.0004947985871694982, -0.002000188222154975], [0.0003142496570944786, 0.00029683197499252856, -0.000331672839820385, 0.00022463162895292044, -4.97353175887838e-05, 2.8489244868978858e-05, 7.79054025770165e-05, 7.373477274086326e-05, -2.197365574829746e-05, -0.00014897200162522495, 0.00015065631305333227, -7.968264253577217e-05, -9.115740795095917e-06, -0.0005453344201669097, -0.0002751892025116831, -0.0001286758779315278], [0.00014927050506230444, 0.00011284559877822176, -0.0001461644860683009, 6.859625864308327e-05, -1.5673698726459406e-05, 1.3908350410929415e-05, 1.992328543565236e-05, 3.232715607737191e-05, -5.243441137281479e-06, -7.697859837207943e-05, 6.236955232452601e-05, -2.784173375403043e-05, -3.2712696338421665e-06, -0.00024396930530201644, -9.325981955043972e-05, -3.508355439407751e-05], [0.0007789883529767394, 0.000889986811671406, -0.0007455540471710265, 0.00093587685842067, -0.00013574065815191716, 8.059633546508849e-05, 0.00015421010903082788, 0.00021015980746597052, -5.2976720326114446e-05, -0.0004486030957195908, 0.0005311130662448704, -0.00025303641450591385, -3.041945819859393e-05, -0.0011282730847597122, -0.000541095738299191, -0.00027917951229028404], [0.0008523450815118849, 0.0008321969653479755, -0.000730407249648124, 0.0007070027058944106, -0.00010648852185113356, 8.4479215729516e-05, 0.00011831143638119102, 0.0002238085144199431, -3.301248580100946e-05, -0.0004472571599762887, 0.0003801410784944892, -0.00018842653662431985, -2.3156459064921364e-05, -0.0011810025898739696, -0.0005045981961302459, -0.0002467427111696452], [3.6539244320010766e-05, 1.9406095816520974e-05, -3.1992673029890284e-05, 1.5610537957400084e-05, -7.6189185165276285e-06, 4.384818566904869e-06, 8.478677955281455e-06, 8.394318683713209e-06, -2.950187763417489e-06, -1.9594732293626294e-05, 1.9208098819945008e-05, -9.964491255232133e-06, -1.5580942545057042e-06, -6.164670048747212e-05, -2.310207491973415e-05, -1.2464076462492812e-05], [0.0029805784579366446, 0.003930860199034214, -0.002845368580892682, 0.004553698934614658, -0.0005598571733571589, 0.0003033480898011476, 0.0006998301832936704, 0.0009595397859811783, -0.0002306400565430522, -0.0011757061583921313, 0.001078474335372448, -0.0012230065185576677, -0.00022447132505476475, -0.003471462056040764, -0.00210209540091455, -0.0010944005334749818], [0.0012866667238995433, 0.002459070412442088, -0.0013426479417830706, 0.0015164862852543592, -0.0006750950124114752, 0.00023143926227930933, 0.0008705748477950692, 0.0009613855509087443, -0.00038907674024812877, -0.0003602821670938283, 0.0006971144466660917, -0.00185326486825943, -0.0004161964461673051, -0.00031951090204529464, -0.0008796966285444796, -0.0008383647655136883], [0.0009173997095786035, 0.0009079508599825203, -0.0009916569106280804, 0.000565083755645901, -9.662641969043761e-05, 7.310208457056433e-05, 0.0001482589141232893, 0.00019244174472987652, -3.400053537916392e-05, -0.00040428590727970004, 0.00031445486820302904, -0.00017303830827586353, -1.8637769244378433e-05, -0.0015966978389769793, -0.0009291128371842206, -0.00027524010511115193], [1.3813893019687384e-05, 1.3419859897112474e-05, -1.2343730304564815e-05, 1.1791946235462092e-05, -1.5786127960382146e-06, 1.1978514748989255e-06, 1.880586182778643e-06, 3.1992653930501547e-06, -4.821895913664775e-07, -6.586020845134044e-06, 5.190068350202637e-06, -2.596801778054214e-06, -2.897024273806892e-07, -2.0661069356719963e-05, -8.670950592204463e-06, -3.9178644328785595e-06], [-0.013601167127490044, -0.04722270742058754, 0.007021861616522074, -0.07206796109676361, -2.8123502488597296e-05, 0.000995004316791892, -0.0006778599927201867, -0.003336566500365734, -0.0011400209041312337, 0.0014277527807280421, -4.690575588028878e-05, -0.003107865108177066, -0.001575337490066886, 0.01208802592009306, 0.016151344403624535, 0.008952835574746132], [0.000503610004670918, 0.0004713000380434096, -0.0011441399110481143, -0.0026402329094707966, -0.001587925013154745, 0.0008390626753680408, 0.001969381468370557, 0.0010356296552345157, -0.0009900751756504178, -0.0016777567798271775, 0.0017497072694823146, -0.0035525308921933174, -0.0009243118693120778, 0.002232001395896077, -0.0006091464892961085, -0.0014298954047262669], [0.0013696769019588828, 0.002021603984758258, -0.0010940070496872067, 0.0021732680033892393, -0.000318412872729823, 0.00017740653129294515, 0.0003676193591672927, 0.0004435911832842976, -0.00013797843712382019, -0.0007191228214651346, 0.0006257104687392712, -0.0005287703825160861, -8.850149606587365e-05, -0.0015993794659152627, -0.0010034553706645966, -0.0006699481746181846]], "lstm.bias_ih_l1": [0.17582595348358154, 0.06511322408914566, 0.09257815033197403, 0.10154435783624649, 0.006187820341438055, 0.002055025426670909, 0.0067235552705824375, 0.012496954761445522, 0.0012803891440853477, -0.014208282344043255, 0.04697147384285927, 0.012401729822158813, -0.00010706226021284238, 0.4337165057659149, 0.03536974638700485, 0.012357549741864204, -0.06459376215934753, -0.06404660642147064, -0.018755674362182617, 0.13203178346157074, -0.00497221015393734, -0.0011563838925212622, -0.012882580980658531, -0.00910878274589777, -0.004479129333049059, -0.0030546619091182947, -0.06304164230823517, -0.006573214195668697, -0.0003379563568159938, -0.058959443122148514, -0.027724159881472588, -0.019705167040228844, 0.192826047539711, -0.05678938329219818, -0.10299099236726761, -0.13746559619903564, 0.028503594920039177, -0.00244669197127223, 0.004634271841496229, 0.03390992805361748, -0.12981683015823364, -0.053761761635541916, -0.10820508003234863, 0.06915049999952316, 0.036394085735082626, -0.1416454166173935, -0.046684522181749344, -0.026155682280659676, 0.20940664410591125, 0.04296451061964035, 0.10638846457004547, 0.04201807826757431, 0.006103660445660353, 0.0007352099055424333, 0.00216676015406847, -0.0026920984964817762, -0.0025675292126834393, -0.012942461296916008, -0.05314243584871292, 0.011631494387984276, -0.00018446004833094776, 0.3993987739086151, 0.018145330250263214, 0.012760961428284645], "lstm.bias_hh_l1": [0.20035414397716522, -0.050862859934568405, 0.09711578488349915, -0.08156877011060715, 0.006023362744599581, 0.002855904633179307, 0.00784782413393259, 0.01144517119973898, -0.0004226955061312765, -0.024579614400863647, -0.03208348527550697, 0.01157456822693348, 5.314509689924307e-05, 0.36777839064598083, -0.011614469811320305, 0.01880066655576229, -0.10507427155971527, 0.05929526314139366, -0.13080550730228424, -0.009555037133395672, -0.004988222382962704, -0.00444809952750802, -0.018154850229620934, 0.00112743373028934, -0.004037283826619387, -0.05329431593418121, -0.1371043175458908, -0.006720336619764566, -0.0002603527682367712, -0.10384209454059601, -0.14957736432552338, -0.028856627643108368, -0.24978889524936676, -0.1222301721572876, 0.1192193403840065, -0.11402473598718643, 0.0016650158213451505, -0.003327831393107772, -0.03225444257259369, -0.053057603538036346, 0.14442916214466095, 0.05634494498372078, 0.10827572643756866, -0.050573401153087616, -0.034303855150938034, 0.2266794592142105, 0.11408329755067825, 0.09934452921152115, 0.1666029542684555, -0.009418134577572346, 0.1638132482767105, 0.07376665621995926, 0.006189549807459116, 0.0038416869938373566, 0.005264724139124155, -0.0034698224626481533, -0.004720046650618315, 0.03688984736800194, 0.046234048902988434, 0.012429513037204742, -9.056853741640225e-05, 0.3999047875404358, 0.11022093892097473, -0.006376887671649456], "dense.weight": [[-0.36035677790641785, -0.28114357590675354, 0.4412671625614166, -0.14787231385707855, 0.08159160614013672, -0.06113075837492943, -0.1326787918806076, -0.12252683937549591, 0.03781312331557274, 0.23875196278095245, -0.31944870948791504, 0.14575615525245667, 0.026477068662643433, 0.6067689061164856, 0.32179152965545654, 0.1368611752986908]], "dense.bias": [-0.14280538260936737]}