{"lstm.weight_ih_l0": [[0.11868087202310562], [0.0002611720410641283], [0.05655854195356369], [-0.09175500273704529], [-0.05244141444563866], [-0.12523207068443298], [-0.0643816813826561], [-0.10171177238225937], [0.0064436593092978], [0.008528070524334908], [0.01673980988562107], [0.05665360763669014], [0.07150842249393463], [0.16116100549697876], [-0.02488304302096367], [0.009935660287737846], [0.06670452654361725], [-0.0399654395878315], [0.018267812207341194], [-0.045939262956380844], [-0.0290537029504776], [0.1931171715259552], [-0.010018991306424141], [-0.015329637564718723], [-0.1488524228334427], [-0.21373628079891205], [0.016269031912088394], [-0.04027262702584267], [0.1388092041015625], [-0.28782692551612854], [0.016134757548570633], [0.1109602302312851], [0.17476604878902435], [0.00010962036321870983], [0.07659474015235901], [0.21302135288715363], [-0.03536231443285942], [-0.1343504637479782], [0.27009719610214233], [-0.017798447981476784], [0.014216534793376923], [0.01133069396018982], [0.01681162603199482], [0.0703374594449997], [0.0156564861536026], [0.20580343902111053], [0.255367636680603], [-0.004390318877995014], [0.16017185151576996], [0.027206914499402046], [0.1219838336110115], [-0.13101452589035034], [0.10667254775762558], [0.1583692580461502], [-0.010301683098077774], [0.009527250193059444], [0.1282804161310196], [-0.30382856726646423], [0.005291651468724012], [-0.0650147944688797], [-0.014129229821264744], [-0.22227637469768524], [0.008548012003302574], [0.07114172726869583], [0.26372089982032776], [-0.021874424070119858], [5.56290340423584], [0.11626505106687546], [0.268635094165802], [0.056534528732299805], [-0.05169052258133888], [-0.05376115441322327], [-0.4426797926425934], [0.2557048201560974], [0.13295625150203705], [-0.04944850876927376], [-1.2861562967300415], [1.861313819885254], [-0.35245439410209656], [-0.49625879526138306], [0.30014026165008545], [0.30179518461227417], [-3.2817485332489014], [0.0067735458724200726], [-0.5897265076637268], [0.0983245000243187], [0.01991066336631775], [-0.0603230856359005], [0.3951205611228943], [0.43966546654701233], [-0.3611341714859009], [-0.24680517613887787], [0.365656316280365], [-0.3773016929626465], [-0.07035128027200699], [-0.49246537685394287], [0.1265236884355545], [0.00020253218826837838], [0.03128994628787041], [-0.017091942951083183], [0.006656232289969921], [-0.14225153625011444], [-0.059189651161432266], [-0.16256485879421234], [0.00768259959295392], [0.015985913574695587], [0.055363964289426804], [-0.07761861383914948], [-0.03209947794675827], [-0.02588159777224064], [-0.7127198576927185], [0.33666175603866577], [0.1388276219367981], [-0.20325912535190582], [-0.00027476390823721886], [-0.05853646621108055], [-0.05293366312980652], [0.3008163571357727], [0.051485735923051834], [-0.03191407769918442], [-0.09949098527431488], [0.06400850415229797], [0.2593348026275635], [-0.17844492197036743], [-0.06799301505088806], [-0.33963316679000854], [0.02442171238362789], [-0.036378130316734314]], "lstm.weight_hh_l0": [[-0.03137055039405823, -0.007731614168733358, -0.40343788266181946, 0.12835662066936493, -0.0058680931106209755, 0.014372535981237888, 0.15344174206256866, 0.0623629055917263, -0.09444887936115265, 0.03304285183548927, -0.0281636081635952, 0.18098069727420807, -0.18173140287399292, -0.4726565182209015, 0.021682268008589745, -0.03087695874273777, -0.04169514402747154, -0.06738468259572983, 0.16923721134662628, -0.022016387432813644, 0.012159818783402443, 0.05116473510861397, 0.025403467938303947, -0.10612345486879349, 0.11805879324674606, 0.0685037299990654, 0.021649187430739403, -0.2029430866241455, 0.07727213948965073, -0.11522580683231354, -0.00507350405678153, -0.13072837889194489], [-0.0011254140408709645, -4.401483602123335e-05, -0.0022110932040959597, 0.005970936268568039, 0.00039236716111190617, -0.0003207733971066773, -0.01329842396080494, 0.006447171792387962, -0.0009123723139055073, -0.027618974447250366, -0.025155745446681976, 0.0008263708441518247, -0.002041759667918086, 0.0029740273021161556, 0.014735943637788296, -0.021835574880242348, 0.022119738161563873, 0.0034449398517608643, -0.0003546095686033368, 0.0006196860340423882, 0.027227485552430153, 0.001183361280709505, -0.028449635952711105, 0.019457213580608368, -0.008702809922397137, 0.017932336777448654, -0.01581750623881817, -0.002486951882019639, -0.01606411673128605, 0.0030851135961711407, 0.0003209879214409739, -0.00033485828316770494], [0.3257937729358673, -0.002289010677486658, 0.06282863020896912, -0.1626158207654953, 0.03804364800453186, -0.11159593611955643, 0.11585983633995056, -0.3418498933315277, 0.06417585164308548, 0.1961970031261444, 0.316938191652298, 0.20224925875663757, -0.05613383650779724, 0.13188795745372772, -0.20581673085689545, 0.48482051491737366, -0.3375033736228943, -0.2831938862800598, -0.1314668208360672, -0.18981535732746124, -0.32117703557014465, 0.015935467556118965, 0.21804697811603546, -0.4128967523574829, 0.29919490218162537, -0.44929805397987366, 0.24356110394001007, 0.4183127284049988, 0.7472078800201416, -0.13843128085136414, -0.011513776145875454, 0.08373340219259262], [-0.06630362570285797, 0.005247114691883326, -0.11781834065914154, 0.1175207793712616, 0.009135043248534203, -0.027654191479086876, -0.04432842135429382, -0.12796346843242645, -0.0728837177157402, -0.02280271425843239, -0.05360005795955658, -0.05443054437637329, 0.11780671775341034, -0.12038259208202362, 0.03411904722452164, -0.15590570867061615, -0.02209814451634884, -0.04613303765654564, 0.2522627115249634, -0.0013753670500591397, 0.0844813883304596, 0.026110077276825905, -0.036567091941833496, 0.0283390823751688, -0.11599196493625641, 0.16625230014324188, -0.14139042794704437, 0.07513780891895294, -0.13589265942573547, 0.1303490698337555, -0.0019018680322915316, -0.05884232744574547], [-0.06037262827157974, 0.0036965725012123585, 0.10017255693674088, 0.029701897874474525, 0.03702104091644287, 0.019689561799168587, -0.08635569363832474, 0.023852061480283737, 0.02324247732758522, -0.16380634903907776, -0.16239191591739655, -0.18916474282741547, 0.31122592091560364, -0.0025592343881726265, 0.037778910249471664, -0.2684338390827179, 0.355998158454895, 0.2677541673183441, 0.07364118099212646, 0.015463920310139656, 0.21269242465496063, 0.00956718996167183, -0.12900729477405548, 0.1473732590675354, -0.2523833215236664, 0.1951880306005478, -0.35378286242485046, -0.02465037815272808, -0.1210598573088646, 0.1373988389968872, 0.017099495977163315, 0.15542136132717133], [-0.01502227783203125, -0.0045275273732841015, -0.02892947569489479, -0.04085133969783783, -0.028421394526958466, -0.0347118079662323, -0.10570351779460907, -0.1243976354598999, 0.007137887179851532, 0.00711815757676959, 0.00594224501401186, -0.14361532032489777, 0.2477966845035553, 0.006114250048995018, 0.00981144979596138, 0.02876186929643154, -0.0018076548585668206, 0.04320673272013664, 0.0744202584028244, -0.04635084047913551, 0.0055985827930271626, -0.021977178752422333, 0.006884959992021322, 0.005066761747002602, -0.10031406581401825, -0.039327044039964676, -0.012190308421850204, -0.004375799559056759, 0.04331166669726372, 0.13644367456436157, -0.0055055939592421055, 0.15137402713298798], [0.15502490103244781, 0.012481958605349064, 0.4718654751777649, 0.4462724030017853, 0.021780285984277725, 0.09104374051094055, 0.35930898785591125, 0.6437562108039856, 0.03601860627532005, -0.5472230315208435, -0.5967622995376587, -0.043621890246868134, -0.2033100128173828, -0.441032350063324, 0.24362803995609283, -0.461224228143692, 0.6344913840293884, 0.10722928494215012, -0.13544400036334991, -0.15425962209701538, 0.567097008228302, -0.2958860695362091, -0.5611488819122314, 0.4304315745830536, -0.30416178703308105, 0.742331326007843, -0.621350109577179, 0.12976142764091492, -0.33613505959510803, 0.15960754454135895, 0.25028562545776367, -0.2223578244447708], [0.026249580085277557, 0.007712596096098423, -0.16510964930057526, 0.00870423298329115, 0.0028223057743161917, -0.0008249045931734145, -0.5304417610168457, -0.16191762685775757, 0.031942207366228104, -0.0172408539801836, -0.13195298612117767, 0.25949984788894653, -0.3153446614742279, 0.2584048807621002, 0.19456364214420319, -0.2157851606607437, 0.08845319598913193, -0.23576825857162476, 0.5686503648757935, 0.09725068509578705, 0.09087724983692169, -0.17450039088726044, -0.05782230943441391, 0.07859981805086136, -0.24021127820014954, -0.10635367780923843, -0.05329471081495285, 0.08551063388586044, -0.1544303297996521, -0.02421054244041443, -0.02612425573170185, -0.1017855554819107], [0.04656504839658737, -0.0012161951744928956, -0.03568489849567413, -0.0356607660651207, 0.002911957213655114, -0.00614900654181838, 0.14760717749595642, -0.18154312670230865, -0.062312304973602295, 0.21374207735061646, 0.19967852532863617, 0.07173753529787064, -0.026367010548710823, -0.0027965488843619823, -0.11576151847839355, 0.18630820512771606, -0.19851011037826538, -0.11066839098930359, 0.009764499962329865, -0.016818610951304436, -0.22083577513694763, -0.04080101102590561, 0.2196788787841797, -0.16160887479782104, 0.0753784030675888, -0.14862318336963654, 0.13175830245018005, 0.08918563276529312, 0.15032151341438293, -0.0003341654082760215, -0.003094616811722517, 0.008229583501815796], [-0.004261841531842947, 0.0021478584967553616, 0.0552213229238987, 0.014384949579834938, -0.006178535055369139, 0.016395796090364456, 0.06928922235965729, -0.027838146314024925, 0.00186014617793262, 0.10719963908195496, 0.07562001794576645, -0.012057328596711159, -0.013990776613354683, 0.01588241383433342, -0.057349711656570435, 0.02708771452307701, -0.07490752637386322, 0.04316632077097893, 0.003981349524110556, -1.5582863852614537e-05, -0.1030338928103447, 0.01198883168399334, 0.11209017038345337, -0.01733984984457493, 0.003449175041168928, -0.01890079863369465, 0.02463032864034176, -0.008810614235699177, -0.036784812808036804, -0.015063362196087837, 0.004798341076821089, -0.010456312447786331], [-0.01715252362191677, -0.00031655916245654225, 0.026312975212931633, -0.01677512750029564, 0.0005545472959056497, 0.001377444132231176, 0.03802771121263504, -0.018095137551426888, -0.004021082539111376, 0.09927453100681305, 0.07645783573389053, -0.011138503439724445, 0.00865135993808508, -0.011414863169193268, -0.04275894910097122, 0.041828833520412445, -0.043470028787851334, -0.00010057719191536307, -0.0328904390335083, 0.009161463007330894, -0.08084571361541748, 0.003507492830976844, 0.10027194023132324, -0.041654594242572784, 0.005743386689573526, -0.0468464232981205, 0.037258874624967575, -0.010563618503510952, 0.02435488998889923, 0.005718148313462734, -0.002594195306301117, -0.00671972194686532], [-0.08994387835264206, -0.011390402913093567, -0.0629127100110054, -0.13296590745449066, 0.043771158903837204, -0.09912126511335373, -0.09280172735452652, -0.28456467390060425, -0.05070279911160469, -0.3300882875919342, -0.3253582715988159, 0.030327286571264267, -0.2612828314304352, -0.0852680653333664, 0.2077929526567459, -0.2208200842142105, 0.16125927865505219, -0.16773274540901184, 0.22193297743797302, 0.11180130392313004, 0.32034802436828613, -0.5174444317817688, -0.404345840215683, 0.34021586179733276, -0.20849840342998505, -0.21327875554561615, -0.13411083817481995, 0.1272640973329544, 0.03672719746828079, 0.2011357992887497, 0.014433607459068298, -0.01863015443086624], [-0.12370721250772476, 0.013074599206447601, -0.19238559901714325, -0.5771305561065674, 0.21786528825759888, -0.14834871888160706, -0.5584933161735535, 0.4068828523159027, -0.21035964787006378, -0.4575215280056, -0.4287155270576477, -0.14809072017669678, -0.061513159424066544, 0.22096596658229828, 0.30595123767852783, -0.6919561624526978, 0.5071096420288086, 0.22453279793262482, -0.10000292956829071, 0.24357357621192932, 0.4080432653427124, -0.4248213768005371, -0.3546775281429291, 0.2736975848674774, -0.18454661965370178, 0.1860896348953247, -0.33638885617256165, -0.1619892716407776, -0.08602448552846909, 0.8449029326438904, -0.028857698664069176, -0.06129482388496399], [0.21835732460021973, -0.02916897088289261, 1.0653150081634521, 0.23342935740947723, 0.004375473130494356, 0.017080489546060562, -0.1655193567276001, -0.1833825558423996, 0.0941784530878067, 0.10264036804437637, 0.24088513851165771, -0.124384805560112, 0.49840715527534485, 0.542232871055603, -0.41966408491134644, 0.06016615405678749, -0.45717543363571167, -0.8548253774642944, 1.1988229751586914, -0.2806864082813263, -0.22042612731456757, 0.36524370312690735, 0.17281344532966614, -0.35371240973472595, 0.8689621686935425, -0.19728466868400574, -0.6000486612319946, 1.6854513883590698, 0.0014188301283866167, 0.4581003487110138, 0.0791831761598587, -0.9951034784317017], [-0.5254389643669128, -0.0003475956036709249, 0.1338801234960556, -0.28706127405166626, 0.04267727956175804, -0.040763139724731445, -0.6671168208122253, 0.20725679397583008, -0.06392635405063629, -0.2821941375732422, -0.41547149419784546, 0.23883338272571564, 0.20749783515930176, -0.5695096254348755, 0.2600415349006653, -0.5623177886009216, 0.27196258306503296, -0.04345761984586716, -0.0219859816133976, -0.18717418611049652, 0.35164159536361694, 0.187764972448349, -0.27353188395500183, 0.14357995986938477, -0.1569880247116089, 0.34160491824150085, -0.26109376549720764, -0.07577472925186157, -0.5249890685081482, 0.33524465560913086, -0.015973161906003952, -0.2037345916032791], [-0.018871299922466278, 0.0007058308692649007, 0.029256418347358704, 0.01899324171245098, -0.011692885309457779, 0.018549922853708267, 0.05504702031612396, -0.13069471716880798, 0.0273195318877697, 0.22346501052379608, 0.16327136754989624, 0.0504845455288887, 0.009190569631755352, 0.0035010494757443666, -0.07428877055644989, 0.06529466807842255, -0.08365359157323837, 0.08853085339069366, -0.0383446179330349, -0.006868818309158087, -0.1906876266002655, 0.015868866816163063, 0.21779876947402954, -0.08920872211456299, 0.08145567029714584, -0.10134169459342957, 0.0621434785425663, 0.05975765362381935, 0.026174861937761307, 0.017365479841828346, -1.3653021596837789e-05, 0.020749107003211975], [0.05677911639213562, 0.000658355827908963, 0.1361103653907776, -0.01312610600143671, -0.015329723246395588, -0.01801683008670807, 0.19939246773719788, -0.12756742537021637, 0.007785848807543516, 0.30094456672668457, 0.21871232986450195, 0.0204610638320446, 0.03897172957658768, 0.12480837851762772, -0.21633745729923248, 0.12223490327596664, -0.15809060633182526, 0.01838942989706993, -0.18033960461616516, -0.0042093973606824875, -0.29314541816711426, -0.05045920982956886, 0.2626711428165436, -0.1454976201057434, 0.094816654920578, -0.04116359353065491, 0.11883636564016342, 0.053050026297569275, 0.14896079897880554, -0.006220283452421427, -0.005203630775213242, -0.037776172161102295], [0.0389263778924942, 0.0033852162305265665, -0.06123946234583855, -0.04246789962053299, -0.04289495572447777, -0.02016112394630909, 0.07652488350868225, -0.07179564237594604, 0.05829326808452606, 0.22351253032684326, 0.2040591984987259, 0.09694891422986984, 0.02741326577961445, 0.20116128027439117, -0.08327343314886093, 0.23755061626434326, -0.24646514654159546, -0.1335708200931549, -0.07212604582309723, 0.035475876182317734, -0.20453551411628723, 0.052274420857429504, 0.2258559614419937, -0.13927744328975677, 0.05674612522125244, -0.16734462976455688, 0.21814750134944916, 0.067680723965168, -0.10376685857772827, -0.05598948150873184, -0.008467408828437328, 0.017034703865647316], [0.07745125889778137, 0.0013826735084876418, 0.037994589656591415, -0.050907254219055176, -0.01352541521191597, -0.014677993021905422, 0.1799706071615219, -0.06726726144552231, 0.05091287940740585, 0.32177382707595825, 0.2975042164325714, 0.057724129408597946, -0.01805439591407776, 0.02224665693938732, -0.16898132860660553, 0.26910829544067383, -0.25786545872688293, -0.1498485505580902, -0.06677177548408508, -0.031234681606292725, -0.3343821167945862, -0.05437986180186272, 0.3314852714538574, -0.21198737621307373, 0.19348903000354767, -0.22854463756084442, 0.2232128083705902, 0.08790133148431778, 0.2534111440181732, -0.04656746983528137, -0.0026361728087067604, 0.005353232845664024], [0.05779937282204628, -0.01874113455414772, 0.23728518187999725, 0.05124354735016823, -0.017701420933008194, 0.06574210524559021, -0.09141393005847931, -0.08228378742933273, -0.01617460511624813, -0.12169381976127625, -0.11070861667394638, -0.11568370461463928, 0.08664289116859436, -0.013458442874252796, -0.029997071251273155, -0.08680722862482071, 0.14370045065879822, 0.2033698558807373, 0.2994496524333954, 0.33906474709510803, 0.21111388504505157, -0.18231943249702454, -0.1253259778022766, 0.11566264927387238, -0.43608328700065613, 0.16275708377361298, -0.2394234985113144, 0.1629849672317505, -0.423770546913147, 0.020648153498768806, 0.003995793405920267, -0.39739781618118286], [-0.040417857468128204, 0.001967317657545209, 0.0011291754199191928, 0.014760586433112621, -0.013630841858685017, 0.011697875335812569, 0.09236708283424377, -0.028533313423395157, -0.027352336794137955, 0.19676542282104492, 0.14036132395267487, -0.10815852135419846, -0.005509828217327595, -0.10962659865617752, -0.08877210319042206, 0.11155135184526443, -0.1421712338924408, -0.047620512545108795, 0.0631544291973114, -0.023692399263381958, -0.1482144594192505, 0.04104072228074074, 0.19580726325511932, -0.07756853103637695, 0.08620844781398773, -0.017852382734417915, 0.06271857768297195, -0.0676436498761177, 0.006625788751989603, -0.002838302869349718, -0.003146281698718667, 0.026480121538043022], [-0.2793823480606079, 0.0020496430806815624, 0.18283292651176453, 0.18083490431308746, -0.10572423785924911, 0.10226394981145859, -0.2255174070596695, -0.5934569239616394, -0.15299758315086365, -0.3520866930484772, -0.35740146040916443, 0.008965173736214638, -0.5572502613067627, 0.31878194212913513, 0.36196213960647583, -0.24735762178897858, 0.10833736509084702, 0.5669721961021423, -0.2990279495716095, -0.3121066689491272, 0.3776932656764984, 0.02178207039833069, -0.3611631989479065, 0.25585904717445374, -0.15366290509700775, 0.09626700729131699, -0.12796272337436676, -0.11457109451293945, -0.09397470951080322, 0.34873345494270325, -0.0076911561191082, 0.32803305983543396], [-0.007216837257146835, 0.0013807568466290832, 0.02854091115295887, 0.010965004563331604, -0.006840346846729517, 0.0125674894079566, 0.062328726053237915, -0.031626470386981964, 0.0076318299397826195, 0.10700637102127075, 0.07926599681377411, -0.0010855004657059908, -0.007819893769919872, 0.03891467675566673, -0.0528964065015316, 0.04734993353486061, -0.08208513259887695, 0.05339096859097481, 0.030861223116517067, 0.002345519606024027, -0.101102814078331, 0.008053780533373356, 0.10467186570167542, -0.0364488884806633, 0.0029956691432744265, -0.038028426468372345, 0.036270517855882645, 0.0012503772741183639, -0.02607668749988079, -0.011301223188638687, 0.0027295590844005346, -0.011348243802785873], [0.11607075482606888, 0.003091120859608054, 0.025324435904622078, -0.03353288024663925, -0.0014038733206689358, -0.026604777202010155, 0.11913932859897614, 0.01154659315943718, -0.0018141361651942134, 0.06727173179388046, 0.07006371766328812, 0.07331114262342453, 0.06471609324216843, 0.08299524337053299, -0.03961075842380524, 0.02358778938651085, -0.06712934374809265, 0.00496337516233325, -0.029704710468649864, -0.014541028998792171, -0.025616256520152092, -0.1059877797961235, 0.07198894023895264, -0.07227480411529541, 0.08369617164134979, -0.011887707747519016, 0.04755496606230736, 0.03725723177194595, 0.049213800579309464, 0.008800587616860867, -0.0008420562371611595, -0.05815034732222557], [-0.19598335027694702, -0.00019639408856164664, 0.012245806865394115, 0.23089848458766937, -0.01817334070801735, -0.03035641461610794, -0.4823479950428009, 0.6654403805732727, 0.15269771218299866, -0.27393412590026855, -0.37983939051628113, 0.15055957436561584, -0.11962395161390305, 0.14663363993167877, 0.32752054929733276, -0.47027790546417236, 0.16580605506896973, -0.023410527035593987, -0.32783401012420654, 0.04773816838860512, 0.34768781065940857, -0.06671284884214401, -0.3039736747741699, 0.34024491906166077, 0.07161376625299454, 0.6169401407241821, -0.35606345534324646, -0.0016763495514169335, -0.5109314918518066, -0.2962113618850708, 0.13752135634422302, 0.24793259799480438], [-0.1642608791589737, 0.0145285464823246, 0.06394898891448975, 0.12345974892377853, -0.0986696183681488, 0.039359200745821, -0.7002300024032593, 0.3567725718021393, -0.029523495584726334, -0.29950329661369324, -0.3218085467815399, -0.1590431183576584, -0.21331338584423065, 0.28739485144615173, 0.6176900863647461, -0.33458688855171204, 0.2575104236602783, -0.005380337126553059, 0.21376967430114746, 0.09005668759346008, 0.2686232030391693, -0.06915302574634552, -0.23165400326251984, 0.31592047214508057, -0.51353520154953, 0.21971885859966278, -0.31977105140686035, -0.1290215253829956, -0.5718713998794556, 0.19613419473171234, 0.1291743963956833, 0.36011239886283875], [-0.09033431857824326, 0.01977243646979332, -0.44355982542037964, -0.07241722196340561, 0.07597572356462479, 0.029710695147514343, -0.056546781212091446, -0.25793376564979553, -0.15157096087932587, 0.004484481178224087, -0.04290185123682022, 0.11509624868631363, 0.1299915909767151, 0.25250011682510376, 0.18719851970672607, -0.1060137003660202, 0.3183717131614685, 0.2772899270057678, -0.5868365168571472, 0.10627428442239761, -0.04567153751850128, 0.08765216916799545, 0.15123875439167023, -0.019934335723519325, -0.4955594539642334, -0.026525605469942093, 0.21172724664211273, -0.10766467452049255, 0.04167436063289642, -0.20217572152614594, -0.02738575078547001, 0.6458178162574768], [0.5203468799591064, 0.002915451768785715, 0.12414959073066711, -0.14188936352729797, 0.0017612456576898694, -0.1576971411705017, 0.16913120448589325, -0.8159713745117188, -0.05840187519788742, 0.006679803133010864, 0.08713390678167343, 0.3173157870769501, -0.151405468583107, 0.32414716482162476, 0.004654271993786097, 0.15425704419612885, -0.029468368738889694, -0.2426707148551941, -0.5113940834999084, -0.12385597079992294, -0.06649325042963028, -0.008272616192698479, 0.017756357789039612, -0.020865699276328087, -0.33386555314064026, -0.21584056317806244, 0.22057107090950012, 0.2308538854122162, 0.3163403272628784, 0.033157456666231155, 0.0028703641146421432, 0.362557590007782], [-0.04243752360343933, -0.008057613857090473, 0.2733667194843292, 0.03739549219608307, 0.08715198934078217, -0.0202124435454607, 0.13262486457824707, 0.2202402800321579, 0.1010383740067482, -0.00484122009947896, -0.025502802804112434, -0.03212869539856911, -0.2731302082538605, 0.20146390795707703, 0.05186943709850311, -0.19960078597068787, 0.20077721774578094, -0.046353019773960114, -0.4921247661113739, 0.004310949239879847, -0.014749747700989246, 0.14836685359477997, 0.017833277583122253, 0.08575720340013504, 0.20101040601730347, -0.015671826899051666, 0.009983470663428307, -0.034800294786691666, 0.14201055467128754, 0.05977465212345123, 0.0016834031557664275, 0.3514919579029083], [0.1473039984703064, 0.008014800027012825, -0.013760331086814404, 0.012302610091865063, -0.06900016218423843, -0.14430642127990723, -0.08054517209529877, -0.11659538000822067, -0.006612246856093407, -0.12218574434518814, -0.048598915338516235, 0.07315848022699356, 0.41748467087745667, -0.10853324830532074, 0.050265129655599594, 0.15280619263648987, -0.05088387802243233, -0.046346936374902725, 0.25892508029937744, -0.04235023632645607, -0.010433215647935867, 0.023594915866851807, -0.10257035493850708, 0.1063820868730545, 0.26528024673461914, 0.1121407225728035, -0.03956250846385956, -0.1730688214302063, 0.20705778896808624, 0.04085831716656685, 0.01850946433842182, 0.14520041644573212], [0.0018166513182222843, -0.001715863705612719, -0.10667132586240768, 0.007759076543152332, 0.011166808195412159, 0.001316339592449367, -0.057124216109514236, -0.05065833032131195, 0.007807911839336157, -0.09682071208953857, -0.08210485428571701, 0.028835278004407883, 0.009038953110575676, 0.0706210657954216, 0.06675903499126434, -0.07358498126268387, 0.12179702520370483, -0.07809813320636749, -0.08588039129972458, 0.018018420785665512, 0.09840496629476547, -0.058079496026039124, -0.09398875385522842, 0.08473392575979233, -0.05906503647565842, 0.060032665729522705, -0.0576680488884449, -0.039174191653728485, 0.01592748798429966, -0.010140029713511467, 0.006706505082547665, 0.041822317987680435], [-0.12332239747047424, 0.019624337553977966, 0.10334216058254242, 0.153889462351799, -0.0069862231612205505, -0.032716862857341766, -0.2200518101453781, 0.24582786858081818, -0.06788675487041473, -0.3439512550830841, -0.2941911816596985, 0.22812321782112122, -0.07052121311426163, -0.15483823418617249, 0.39715033769607544, -0.5212543606758118, 0.42635926604270935, 0.1147245392203331, -0.11347205936908722, 0.06072975695133209, 0.5407081842422485, -0.06422288715839386, -0.5839489102363586, -0.41800180077552795, -0.4711874723434448, 0.6240756511688232, -0.3864465653896332, -0.01747218891978264, -0.34670865535736084, 0.27042511105537415, -0.06551898270845413, 0.1858198195695877], [0.019542908295989037, -0.012318345718085766, -0.2820177376270294, 0.2956695258617401, 0.002901175059378147, -0.00657295947894454, 0.21702714264392853, 0.026021748781204224, -0.12351520359516144, 0.058922793716192245, 0.013217124156653881, 0.3142686188220978, -0.3088780641555786, -0.07281132787466049, 0.025990473106503487, 0.0051268525421619415, -0.05818216875195503, -0.2131338119506836, -0.028182528913021088, -0.08463207632303238, 0.007781467866152525, 0.13842718303203583, 0.04855616018176079, -0.08601083606481552, 0.3493216037750244, 0.07659118622541428, 0.09719536453485489, -0.2137095034122467, 0.17268450558185577, -0.10484155267477036, -0.005339355673640966, -0.013976236805319786], [-0.000767469231504947, 4.946331500832457e-06, -0.002362326718866825, 0.0055788783356547356, 0.000521812413353473, -0.00032208324410021305, -0.009950853884220123, 0.0036030777264386415, -0.0007921113865450025, -0.02712850458920002, -0.023241980001330376, 3.579509211704135e-05, -0.0015118307201191783, 0.0015332696493715048, 0.012002089060842991, -0.018427656963467598, 0.01919829472899437, 0.0019507979741320014, 0.0010437802411615849, 0.000510755751747638, 0.025567756965756416, 0.0009573521092534065, -0.027337264269590378, 0.017556818202137947, -0.006257181521505117, 0.01501825824379921, -0.010951328091323376, -0.001790735637769103, -0.013191268779337406, 0.00237133726477623, 0.0001712072262307629, 8.705139407538809e-06], [0.5231863856315613, 0.008204374462366104, -0.034369420260190964, -0.06543780118227005, -0.08940711617469788, 0.009471855126321316, 0.3099110722541809, -0.18137936294078827, 0.10158828645944595, -0.08367658406496048, 0.013821368105709553, 0.14774969220161438, 0.017871545627713203, -0.1250505894422531, -0.11325487494468689, 0.20456871390342712, -0.3613121509552002, 0.01650097221136093, 0.19615282118320465, -0.15307758748531342, -0.00030024826992303133, 0.6762357354164124, 0.04135836288332939, -0.23075513541698456, 0.01454826071858406, -0.11796072870492935, 0.06759960949420929, 0.061124205589294434, 0.3528274893760681, -0.20705333352088928, -0.02949172630906105, -0.06819642335176468], [-0.21615280210971832, 0.017521269619464874, 0.167282372713089, 0.10619305074214935, -0.04672177881002426, 0.04522890970110893, 0.2636694610118866, -0.27353882789611816, -0.11313186585903168, 0.3310856521129608, 0.2739447057247162, -0.008828545920550823, -0.16296708583831787, -0.3127953112125397, -0.3278263211250305, 0.04108799993991852, -0.4153028428554535, -0.20887215435504913, 0.031404197216033936, -0.012119642458856106, -0.24077194929122925, 0.3066968023777008, 0.268508642911911, -0.1528346985578537, -0.056754980236291885, 0.15082885324954987, -0.008379372768104076, -0.08370036631822586, -0.003754469333216548, 0.028534019365906715, 0.004241295624524355, -0.3834667205810547], [-0.08989904820919037, 0.0012086251517757773, 0.13885998725891113, -0.027834519743919373, 0.05203492194414139, 0.015952130779623985, 0.029982924461364746, 0.017904890701174736, 0.03467091545462608, 0.06735655665397644, 0.06790892034769058, -0.1724604368209839, 0.28524529933929443, -0.06659691780805588, -0.11835208535194397, -0.08940114080905914, 0.1778225600719452, 0.19523276388645172, -0.03186516463756561, -0.002633359283208847, -0.030510783195495605, 0.042750243097543716, 0.07735304534435272, -0.052418261766433716, -0.07607320696115494, 0.027561966329813004, -0.1865077167749405, -0.04455308988690376, 0.03128037229180336, 0.10822458565235138, 0.004397738724946976, 0.12565961480140686], [-0.05530720204114914, -0.0021771227475255728, -0.028910772874951363, -0.040876179933547974, -0.03625861182808876, -0.03637854382395744, -0.12469781935214996, -0.013017077930271626, 0.03900918364524841, -0.05530058592557907, -0.05184106156229973, -0.16292043030261993, 0.2353910654783249, 0.010128757916390896, 0.04769532382488251, -0.03208116814494133, 0.0524989515542984, 0.09511719644069672, 0.07642866671085358, -0.025676237419247627, 0.06701754778623581, 0.007113886531442404, -0.05797141045331955, 0.04263000935316086, -0.07428739219903946, 0.020543953403830528, -0.029159996658563614, -0.05728590860962868, -0.02485029026865959, 0.1583535075187683, -0.007662097457796335, 0.17288321256637573], [0.16759467124938965, -0.011874662712216377, 0.9593676924705505, 0.04484448581933975, -0.22088302671909332, 0.044472262263298035, 1.1481523513793945, -0.043202515691518784, 0.12947610020637512, 0.40464287996292114, 0.5562225580215454, -0.15127868950366974, 0.6272556185722351, -0.6163375973701477, -0.8106174468994141, 0.6347678303718567, -0.460780531167984, 0.3932632803916931, -0.4004870653152466, 0.20777887105941772, -0.5597362518310547, -0.31423094868659973, 0.4337392747402191, -0.425320029258728, 0.35401245951652527, -0.30397823452949524, 0.20294779539108276, -0.056548796594142914, 0.6639853715896606, 0.2655666768550873, -0.0981174185872078, -0.5953205227851868], [0.22959095239639282, 0.017723575234413147, 0.1281396746635437, -0.004852529615163803, 0.04749136418104172, -0.043609485030174255, -0.29498744010925293, -0.253334105014801, 0.04911347106099129, 0.23183438181877136, 0.17567135393619537, 0.3117784559726715, -0.2420452982187271, 0.5959533452987671, -0.2005334347486496, 0.11680550128221512, 0.04933999478816986, -0.012213467620313168, 0.6455582976341248, -0.03146493434906006, -0.19063429534435272, 0.003329724073410034, 0.23956753313541412, -0.1397000551223755, 0.08971898257732391, -0.2557084262371063, 0.08771398663520813, 0.11564882844686508, 0.1954079121351242, -0.13725902140140533, -0.019226105883717537, -0.17645631730556488], [0.04398107901215553, 0.0014352606376633048, -0.24557572603225708, 0.06347572803497314, 0.024570371955633163, 0.00046627497067674994, 0.020531926304101944, -0.08877680450677872, -0.1798492968082428, -0.07614418119192123, -0.07575801014900208, 0.061932966113090515, -0.1122204065322876, -0.09243075549602509, 0.09662758558988571, -0.05998583883047104, -0.002717784605920315, -0.04605405032634735, 0.046060383319854736, 0.01710534654557705, 0.06436935812234879, -0.07656542211771011, -0.079327791929245, 0.04055904597043991, -0.06419637054204941, 0.116147980093956, -0.059436600655317307, -0.01751236617565155, -0.07008862495422363, 0.03609379380941391, 0.00035381814814172685, 0.06090351194143295], [-0.010452927090227604, 0.0010321817826479673, 0.016184618696570396, 0.046070896089076996, -0.006307750009000301, 0.014910946600139141, 0.05926552042365074, -0.030223870649933815, -0.0019160716328769922, 0.16750772297382355, 0.08355329930782318, -0.006097021512687206, -0.012372337281703949, -0.09087243676185608, -0.05419522151350975, 0.041988492012023926, -0.07855714112520218, 0.03658199682831764, 0.013538511469960213, 0.011996963061392307, -0.13304582238197327, 0.005740698892623186, 0.08633013814687729, 0.061137109994888306, 0.0067284684628248215, -0.03940296545624733, 0.03199068456888199, -0.005913176108151674, -0.01874328777194023, -0.01731719635426998, 0.004993080161511898, -0.01805153675377369], [-0.027527205646038055, 8.368562703253701e-06, 0.02399740368127823, -0.03942197188735008, 0.00160515948664397, 0.0026436601765453815, 0.0762426108121872, -0.05245201662182808, -0.002065006410703063, 0.2036198079586029, 0.17121034860610962, -0.020258460193872452, 0.023042652755975723, -0.01823079027235508, -0.09441933035850525, 0.10906627029180527, -0.10310336202383041, 0.0007527830312028527, -0.01884719729423523, 0.020109355449676514, -0.18674789369106293, 0.00719101820141077, 0.20767395198345184, -0.11266018450260162, 0.011287461034953594, -0.11328406631946564, 0.08695840835571289, -0.008504929021000862, 0.06624656915664673, -0.003160445485264063, -0.005788787733763456, -0.01114585716277361], [0.007131197024136782, -0.04326741769909859, -0.15757426619529724, -0.30200645327568054, 0.04279593005776405, -0.08575288206338882, 0.5717015862464905, -0.39836615324020386, -0.2846059501171112, 0.16347619891166687, 0.23129205405712128, -0.23245105147361755, -0.2790861129760742, -0.10144264250993729, -0.1229279562830925, 0.13085998594760895, -0.2672106921672821, -0.11796537041664124, 0.12992984056472778, -0.11769518256187439, -0.23870249092578888, -0.21016666293144226, 0.16342636942863464, -0.14905807375907898, 0.10105706006288528, -0.4379381835460663, 0.30229976773262024, 0.13383105397224426, 0.6745351552963257, 0.4294985234737396, -0.031963564455509186, 0.0704827681183815], [0.6524900794029236, -0.012749336659908295, 0.07283658534288406, -0.031032439321279526, -0.21219627559185028, -0.06994250416755676, 0.10659331828355789, -0.5024799108505249, 0.18978723883628845, 0.4480133652687073, 0.5256726741790771, -0.0049408250488340855, -0.04024536907672882, 0.03589806705713272, -0.43634262681007385, 0.2293000966310501, -0.8349189758300781, -0.5934005379676819, -0.02714746631681919, -0.01414579525589943, -0.46261489391326904, -0.13283270597457886, 0.5024037957191467, -0.4244037866592407, 0.2843768298625946, -0.6671427488327026, 0.47975394129753113, -0.09765386581420898, 0.5448300242424011, 0.3790745139122009, -0.03621457517147064, 0.12887710332870483], [-0.8198501467704773, 0.01105146948248148, 0.23793300986289978, 0.11042922735214233, 0.01313655637204647, 0.34356337785720825, -0.2643969655036926, 0.25134819746017456, -0.020234178751707077, -0.23568253219127655, -0.0869939774274826, -0.3490162193775177, 0.19678568840026855, -0.49300113320350647, -0.06675820052623749, -0.13172021508216858, 0.09014639258384705, -0.46895405650138855, 0.5098322033882141, 0.3089626133441925, 0.07585197687149048, -0.3401995897293091, 0.012757483869791031, -0.2069098949432373, 0.40668490529060364, -0.06078494340181351, -0.11882747709751129, -0.1327076405286789, -0.12205303460359573, -0.11568163335323334, 0.014690899290144444, -0.17977021634578705], [-0.3671759366989136, 0.00802234560251236, 0.1556258499622345, -0.07457001507282257, 0.051139067858457565, 0.007583175785839558, 0.03732738643884659, -0.4712035357952118, -0.13201172649860382, 0.45287957787513733, 0.423173725605011, 0.5519154667854309, -0.30348530411720276, 0.2269604355096817, -0.36148038506507874, 0.08475149422883987, -0.28899651765823364, 0.2549636960029602, -0.12803950905799866, -0.2017149031162262, -0.46655434370040894, 0.05558985471725464, 0.5018925070762634, -0.48254042863845825, 0.2768005132675171, -0.17082077264785767, 0.4304850101470947, 0.40808606147766113, 0.24855269491672516, -0.12979383766651154, -0.04718757048249245, -0.12698374688625336], [-0.13634195923805237, -0.004373493604362011, -0.22900079190731049, 0.09645658731460571, -0.027586624026298523, 0.05453344061970711, -0.13515552878379822, -0.13151028752326965, 0.12220705300569534, 0.1793212592601776, 0.033873241394758224, 0.259606271982193, -0.11362563818693161, -0.4351692795753479, 0.0828716978430748, -0.09986157715320587, -0.1528041660785675, 0.010419392958283424, -0.07462776452302933, -0.006118441931903362, -0.10310717672109604, 0.12910343706607819, 0.17969749867916107, -0.030326899141073227, 0.11223410069942474, -0.04322095587849617, 0.13805942237377167, -0.00948360189795494, -0.15034545958042145, 0.17723660171031952, 0.0027216935995966196, 0.013138553127646446], [0.2530456781387329, 0.010471642017364502, -0.2147364318370819, 0.08361469209194183, 0.07500141113996506, -0.09983626753091812, 0.03962540253996849, -0.03252003341913223, -0.232832670211792, 0.14900176227092743, 0.15778404474258423, 0.019728543236851692, 0.008501999080181122, -0.21203383803367615, -0.08697417378425598, -0.2335355281829834, 0.19285140931606293, 0.13422715663909912, 0.15844778716564178, -0.09896264225244522, -0.1415850669145584, 0.047458864748477936, -0.025105051696300507, 0.018963556736707687, 0.11150677502155304, 0.30845344066619873, -0.3521147668361664, 0.27921876311302185, -0.1323566436767578, 0.09375341236591339, 0.028863374143838882, -0.16957159340381622], [0.05135665088891983, -0.010934161022305489, -0.03466326743364334, -0.2838398814201355, 0.028189826756715775, 0.04852931573987007, -0.1446434110403061, 0.05480504781007767, 0.33001548051834106, -0.02718174271285534, 0.02691340632736683, 0.1307409405708313, 0.07864182442426682, -0.31458455324172974, -0.07975061237812042, -0.0007721152505837381, -0.12719811499118805, -0.2795664370059967, -0.05794701352715492, 0.2510720193386078, -0.002469846745952964, 0.1897193342447281, -0.004819205030798912, -0.12240223586559296, 0.6201533675193787, -0.13663458824157715, -0.03373394161462784, 0.5330478549003601, -0.24151736497879028, 0.0030374466441571712, 0.00020424446847755462, -0.18558573722839355], [0.19131876528263092, 0.021807635203003883, 0.020527230575680733, -0.1501406729221344, 0.033263303339481354, 0.009698998183012009, 0.11108305305242538, -0.09716473519802094, 0.16048981249332428, 0.0024329996667802334, 0.04227918013930321, -0.05198949947953224, 0.06860707700252533, 0.12144786864519119, 0.011291914619505405, 0.28400668501853943, -0.23184315860271454, -0.23977559804916382, -0.341048002243042, -0.017148714512586594, -0.09417852759361267, -0.14225953817367554, 0.12657463550567627, -0.048195432871580124, 0.03332437202334404, -0.22936512529850006, 0.1916900873184204, 0.1937086284160614, 0.22046896815299988, -0.29078173637390137, 0.012012840248644352, -0.12979096174240112], [-0.04364916309714317, -0.023246370255947113, 0.035612668842077255, -0.0546458400785923, -0.027379432693123817, 0.06099969521164894, -0.027243563905358315, -0.12197217345237732, -0.03867311030626297, 0.13870079815387726, 0.09116600453853607, -0.07306166738271713, 0.1585361361503601, -0.14876434206962585, -0.12137430161237717, 0.09965840727090836, -0.006369458045810461, 0.05837380513548851, 0.24551263451576233, 0.37285465002059937, 0.05000866949558258, -0.21229133009910583, 0.1394118070602417, -0.07369978725910187, -0.415543794631958, -0.0566520169377327, -0.005451217759400606, -0.04813467711210251, -0.31679823994636536, 0.025010131299495697, -0.013712659478187561, -0.3504889905452728], [0.138494610786438, 0.002264574635773897, 0.2910813093185425, 0.05750642716884613, 0.015465730801224709, 0.039674337953329086, 0.02483934350311756, -0.00812689121812582, -0.03367335721850395, 0.20636801421642303, 0.14913436770439148, -0.38160598278045654, 0.01933494210243225, -0.007593562360852957, -0.11044945567846298, 0.17228369414806366, -0.09256831556558609, 0.021786702796816826, -0.1753120869398117, -0.0926298052072525, -0.11730308830738068, 0.14837639033794403, 0.19439925253391266, -0.09521914273500443, 0.12009595334529877, 0.08166158944368362, -0.06666181236505508, 0.1731223165988922, -0.027289751917123795, -0.07953549921512604, -0.003712082514539361, 0.0822078064084053], [0.034847475588321686, 0.00041651492938399315, 0.2561589181423187, -0.08194302022457123, 0.008902975358068943, 0.08127690851688385, 0.03217745199799538, -0.42863139510154724, 0.07762032002210617, 0.3915852904319763, 0.41182148456573486, 0.041808031499385834, -0.39118385314941406, 0.11532959342002869, -0.3273847699165344, 0.24573247134685516, 0.06971333175897598, -0.14025643467903137, -0.16519127786159515, 0.18880075216293335, -0.38863128423690796, -0.1312706023454666, 0.40061450004577637, -0.3485761880874634, -0.22428132593631744, -0.4791838824748993, 0.22632142901420593, -0.2570090889930725, 0.4345819354057312, -0.18758080899715424, -0.017059776932001114, -0.13213880360126495], [-0.0445861779153347, 0.0005594121175818145, -0.0287245474755764, -0.018156085163354874, -0.017363520339131355, 0.01979171484708786, 0.09451290220022202, -0.054984841495752335, -0.004607621114701033, 0.19408349692821503, 0.1529540866613388, -0.002058282494544983, -0.010386372916400433, 0.01044313795864582, -0.09340335428714752, 0.10159316658973694, -0.14691343903541565, 0.03833003714680672, 0.06067437678575516, 0.017456497997045517, -0.161759614944458, 0.013081580400466919, 0.19163699448108673, -0.08319791406393051, 0.012313146144151688, -0.08902221918106079, 0.08931496739387512, -0.019958732649683952, -0.008985128253698349, -0.006278165150433779, -0.0036564040929079056, -0.02696087956428528], [0.11082250624895096, 0.004829981829971075, -0.04171621799468994, -0.0547981895506382, -0.02131417579948902, -0.03221655637025833, 0.2948126494884491, 0.01919098198413849, -0.05662935599684715, 0.23099203407764435, 0.2211017906665802, 0.14058008790016174, 0.09397158026695251, 0.09473346918821335, -0.1284228265285492, 0.10759247839450836, -0.21894940733909607, 0.029924197122454643, -0.024309704080224037, -0.02935567870736122, -0.17501038312911987, -0.2064324915409088, 0.23209351301193237, -0.18058806657791138, 0.16902904212474823, -0.0644744411110878, 0.16683003306388855, 0.014524024911224842, 0.09942292422056198, 0.01492844894528389, -0.002363693667575717, -0.11092151701450348], [-0.5493099093437195, -0.005997948348522186, 0.5537252426147461, -0.41499218344688416, -0.09482810646295547, 0.038655783981084824, 0.10300417989492416, -0.33184999227523804, -0.01125045120716095, 0.49314823746681213, 0.4165281057357788, 0.18076588213443756, 0.06948624551296234, -0.3671834468841553, -0.5155066847801208, 0.34873488545417786, -0.5144248604774475, -0.08280684798955917, -0.09898598492145538, -0.0056352862156927586, -0.428585946559906, -0.41323715448379517, 0.6123365163803101, -0.44079697132110596, -0.09402694553136826, -0.07100801169872284, 0.14117881655693054, 0.3448059856891632, 0.34498050808906555, 0.20681548118591309, -0.12350088357925415, -0.8336339592933655], [-0.09527911990880966, 0.01696036383509636, -0.15063011646270752, -0.15686549246311188, -0.17492638528347015, 0.006004215683788061, 0.15362513065338135, 0.038639143109321594, -0.05390215292572975, 0.3748025894165039, 0.4465397894382477, 0.0005054485518485308, -0.03990265727043152, 0.5650795102119446, -0.09050539135932922, 0.3781185448169708, -0.41705429553985596, -0.31186234951019287, -0.6129759550094604, 0.06848778575658798, -0.4736362397670746, 0.18919581174850464, 0.439261257648468, -0.278266966342926, 0.4326380789279938, -0.4247892200946808, 0.5295221209526062, 0.1539284884929657, 0.26968759298324585, 0.009578253142535686, -0.1703394651412964, 0.9802923202514648], [-0.19769452512264252, 0.010202713310718536, -0.816342294216156, -0.05542204529047012, 0.07720386981964111, -0.0603613443672657, 0.07163211703300476, -0.27208784222602844, -0.12540367245674133, 0.02769719623029232, 0.002826881129294634, 0.25170135498046875, -0.016288653016090393, -0.03675854951143265, 0.1830635666847229, -0.1782139539718628, 0.21022994816303253, -0.19679538905620575, -0.5361133813858032, 0.031683459877967834, -0.09574147313833237, -0.2620336413383484, 0.11491648107767105, -0.007665600627660751, -0.06514348834753036, 0.012710290029644966, 0.25404852628707886, -0.21172396838665009, 0.13108304142951965, -0.20218032598495483, -0.03453332558274269, 0.5606334209442139], [0.13822785019874573, -0.0024656911846250296, -0.14428386092185974, -0.21738101541996002, -0.08136600255966187, -0.12187410145998001, 0.2928245961666107, -0.3173372447490692, 0.09854485094547272, -0.01845112070441246, 0.0513228103518486, -0.056112829595804214, -0.196767657995224, 0.3858475387096405, -0.09843631833791733, -0.13446827232837677, -0.02785908803343773, -0.33984023332595825, -0.38776159286499023, 0.027257423847913742, -0.021696345880627632, -0.12769614160060883, -0.00143947615288198, -0.014426282607018948, -0.2826445698738098, 0.18747496604919434, 0.11527936905622482, 0.04785649850964546, 0.07216750085353851, 0.09713615477085114, 0.006404094398021698, 0.08283498883247375], [-0.02745727077126503, -0.015343517065048218, -0.09407619386911392, -0.06666861474514008, 0.07545670866966248, -0.10869352519512177, 0.43171995878219604, -0.1709502786397934, -0.1442870944738388, 0.1780843287706375, 0.17981398105621338, 0.0752691999077797, -0.22572208940982819, 0.47824686765670776, -0.1061980128288269, -0.10795105993747711, -0.08646897226572037, 0.08234099298715591, -0.25286367535591125, -0.15366338193416595, -0.1905840039253235, 0.1209016740322113, 0.2215563952922821, -0.2351231724023819, 0.31585949659347534, -0.18225198984146118, 0.1655535101890564, 0.2633613646030426, 0.42817604541778564, 0.21787862479686737, -0.0337148942053318, 0.6710635423660278], [0.04989365115761757, 0.002164709148928523, 0.16241610050201416, -0.07991335541009903, -0.11775758117437363, -0.18260698020458221, -0.0990535318851471, -0.12716764211654663, -0.009288132190704346, -0.1206192895770073, -0.04569382965564728, -0.015825098380446434, 0.4933209717273712, -0.24771465361118317, -0.01873183436691761, 0.07447890937328339, -0.1152801439166069, -0.010544336400926113, -0.14331823587417603, -0.09455768018960953, 0.029224060475826263, 0.016485920175909996, -0.11590942740440369, 0.12275304645299911, 0.2302742749452591, 0.1425771713256836, -0.03138134256005287, -0.4319714903831482, 0.2015673667192459, 0.26568886637687683, 0.008108098991215229, 0.18928712606430054], [-0.002356425393372774, -0.0006630521384067833, -0.020844655111432076, -0.002712640445679426, 0.005591205786913633, 0.0008580473950132728, -0.02820630744099617, 0.03159988671541214, 0.00632849708199501, -0.07477803528308868, -0.06779658794403076, 0.007800163235515356, -0.0005653257830999792, 0.015436302870512009, 0.03565141558647156, -0.059484340250492096, 0.0715828686952591, -0.020527107641100883, -0.019467990845441818, 0.01550840213894844, 0.07789881527423859, -0.027565378695726395, -0.07622428983449936, 0.04232880845665932, -0.01943187788128853, 0.03637564182281494, -0.039321169257164, -0.030304204672574997, -0.016406334936618805, -0.012956562452018261, 0.001797047327272594, 0.007212874945253134], [-0.25265267491340637, 0.01458435133099556, -0.05408606678247452, -0.1358901411294937, 0.08531805127859116, -0.004444781690835953, 0.16301651298999786, -0.2763651907444, 0.18590283393859863, 0.5255856513977051, 0.5926570892333984, 0.35953110456466675, -0.02048208937048912, 0.1668270081281662, -0.5517258644104004, 0.3791910707950592, -0.589984655380249, -0.3959221839904785, -0.09181437641382217, 0.36248618364334106, -0.5228129625320435, 0.09118882566690445, 0.6555476784706116, -0.45178359746932983, 0.36977219581604004, -0.5426398515701294, 0.6613046526908875, -0.2579178214073181, 0.185699000954628, 0.0534832701086998, -0.06874672323465347, -0.0016478255856782198], [0.10450363904237747, 0.0012282083043828607, 0.7565521597862244, 0.12484069913625717, -0.04969385638833046, -0.13024811446666718, 0.5891091227531433, 0.14784608781337738, 0.049092262983322144, -0.155220165848732, 0.039391469210386276, -0.17710277438163757, 0.22637596726417542, 0.739863395690918, -0.050799719989299774, 0.06831605732440948, -0.013860208913683891, -0.7159175872802734, -0.3237330913543701, -0.03898780792951584, 0.13948039710521698, 0.16013121604919434, -0.022757340222597122, -0.05848782882094383, -0.23591332137584686, -0.08295654505491257, 0.1357717365026474, -0.03298978880047798, 0.17273357510566711, 0.015580491162836552, 0.02475796639919281, -0.014385869726538658], [0.0088721364736557, -0.023265598341822624, -0.02734733559191227, 0.003013129346072674, -0.0010531138395890594, 0.02395903505384922, -0.011825306341052055, -0.008597426116466522, 0.07771176844835281, 0.0006497380672954023, -7.504436507588252e-05, 0.028828755021095276, 0.011511743068695068, -0.0005123580922372639, -0.01308391522616148, -0.004785088822245598, 7.820071186870337e-05, 0.022640341892838478, -0.038300588726997375, -0.003854274982586503, 0.005252559669315815, 0.01619107834994793, -0.012945538386702538, -0.034185539931058884, 0.010190119035542011, 0.038008250296115875, -0.01913715898990631, -0.012730362825095654, 0.027482246980071068, -0.04485267773270607, -0.00304987165145576, -0.023027777671813965], [-0.12439433485269547, 0.006113278679549694, 0.3225128948688507, -0.08836553990840912, -0.19048693776130676, -0.1592279076576233, -1.1825523376464844, 0.10823042690753937, -0.15058647096157074, -0.03456661105155945, -0.07620508223772049, -0.19153659045696259, 1.851698398590088, 0.12890182435512543, 0.6144412159919739, 0.19030755758285522, -0.10543753206729889, -0.050608932971954346, -0.12259092926979065, 0.07367397844791412, 0.16083098948001862, -0.026363950222730637, 0.15077482163906097, -0.05452186241745949, 0.06639669835567474, -0.29303285479545593, -0.015489188022911549, 0.0014532197965309024, -0.03892592340707779, 0.15191702544689178, -0.14139235019683838, 0.45677924156188965], [0.1181473433971405, 0.015389738604426384, 0.2122960239648819, 0.16780251264572144, -0.016444481909275055, 0.030059678480029106, -0.02095138095319271, 0.20204433798789978, -0.17340317368507385, 0.08039669692516327, -0.04356875270605087, 0.013525822199881077, -0.2855449616909027, 0.14074745774269104, 0.17784430086612701, -0.08567631989717484, 0.052676666527986526, 0.28284916281700134, -0.5129051208496094, 0.08694888651371002, 0.10624692589044571, 0.05792205408215523, -0.1794954538345337, 0.12869398295879364, 0.12611141800880432, 0.32314565777778625, -0.03227148950099945, -0.018745217472314835, -0.1345161646604538, -0.3685806691646576, 0.013798166997730732, 0.5322365164756775], [0.10933472961187363, 0.01010884065181017, 0.4909799098968506, -0.06871291995048523, 0.2214919924736023, -0.04626090079545975, -0.13546767830848694, 0.12517961859703064, -0.11466000974178314, -0.08568856120109558, 0.07442621141672134, -0.11126120388507843, -0.14377667009830475, 0.18733181059360504, -0.044698283076286316, -0.11357638239860535, 0.4368230700492859, -0.02548072673380375, -0.21384835243225098, 0.0752834603190422, -0.03038834221661091, 0.11672735214233398, -0.09224950522184372, -0.02954397350549698, -0.04921650141477585, -0.07792989909648895, -0.042485013604164124, 0.0009447241900488734, 0.29117774963378906, -0.31691864132881165, -0.02049505151808262, -0.21724866330623627], [-0.35706570744514465, 0.013598873279988766, 0.4681830108165741, -0.09339966624975204, 0.07331405580043793, -0.02772017940878868, -0.09547115862369537, 0.1826585829257965, -0.35619184374809265, 0.04499300941824913, -0.0008984445594251156, 0.0144507410004735, -0.4274192750453949, -0.08831578493118286, 0.09686268866062164, -0.14539296925067902, -0.02716234140098095, 0.22978995740413666, 0.15582582354545593, 0.1274382323026657, -0.007437326945364475, 0.06634031981229782, 0.06560003757476807, -0.14839722216129303, -0.03332061320543289, -0.029287828132510185, 0.1736827790737152, 0.045810624957084656, -0.25984296202659607, -0.16103783249855042, -0.03339549899101257, 0.09334912151098251], [0.3146120011806488, -0.008750836364924908, 1.0190186500549316, 0.1898006796836853, -0.057984013110399246, 0.03143951669335365, -0.19448772072792053, -0.1782187521457672, 0.23268546164035797, 0.2471325695514679, 0.05110176280140877, -0.10384328663349152, -0.11901319772005081, 0.21819369494915009, 0.13544730842113495, 0.1388212889432907, 0.027274319902062416, -0.13407586514949799, 0.2098531723022461, -0.1389232873916626, -0.11244955658912659, -0.09830809384584427, 0.21714714169502258, 0.2260005623102188, 0.24711111187934875, 0.14403341710567474, -0.04463941603899002, 0.6495916843414307, -0.23329050838947296, -0.015785517171025276, 0.031055361032485962, 0.4054863452911377], [-0.279314786195755, 0.017746953293681145, -0.3776082396507263, 0.14189963042736053, 0.02413734421133995, 0.058167703449726105, 0.3100462853908539, 0.13002458214759827, 0.0696372538805008, -0.0007272344082593918, -0.07621777057647705, 0.01764192432165146, 0.29501011967658997, -0.5670372247695923, 0.0385553240776062, -0.036217283457517624, -0.018731296062469482, -0.6518641114234924, -0.7633395791053772, -0.015295011922717094, 0.21130231022834778, -0.2533392310142517, -0.04968167841434479, 0.2633951008319855, 0.07311911135911942, -0.014107312075793743, 0.1049838438630104, 0.04473819583654404, -0.1557185798883438, 0.09642864763736725, 0.03458939492702484, -0.09640336781740189], [-0.24461378157138824, -0.08212124556303024, 0.9009300470352173, 0.108118936419487, -0.10805357247591019, -0.028263159096240997, -0.2027612030506134, 0.15683944523334503, -0.21303190290927887, 0.07724840939044952, -0.03076290339231491, 0.12185834348201752, -0.21446090936660767, -0.15481849014759064, 0.20462465286254883, -0.17365702986717224, -0.23110587894916534, -0.05173111706972122, -0.002769807120785117, 0.08243782818317413, -0.004364723339676857, -0.07091701775789261, -0.03652344271540642, -0.17565707862377167, 0.07942419499158859, -0.32105082273483276, 0.3324147164821625, 0.03348526358604431, -0.3446877598762512, 0.031038662418723106, -0.08652305603027344, 0.19787615537643433], [0.016979457810521126, 0.057213880121707916, 0.2578088343143463, -0.04844024404883385, -0.050705041736364365, 0.039030522108078, 0.12094215303659439, -0.05857568979263306, 0.045720893889665604, 0.5650509595870972, 0.2201916128396988, 0.05685364454984665, -0.04386929050087929, 0.013121437281370163, -0.09506083279848099, 0.054451413452625275, -0.165602445602417, 0.1026301383972168, -0.2108536660671234, 0.0172153040766716, -0.26164722442626953, 0.02851002849638462, 0.27381280064582825, -0.10352450609207153, 0.10720186680555344, -0.03872935101389885, 0.08898674696683884, -0.025433531031012535, -0.051699161529541016, -0.07559321820735931, 0.003329640254378319, -0.10380092263221741], [-0.029172932729125023, 0.0043892269022762775, 0.14384238421916962, 0.03452874720096588, -0.021898524835705757, 0.006221666932106018, 0.0666314959526062, -0.02854032814502716, -0.013239054940640926, 0.2380346655845642, 0.10498002171516418, -0.018900273367762566, -0.0034659248776733875, -0.0144709637388587, -0.06750187277793884, 0.059907808899879456, -0.10336445271968842, -0.008987385779619217, -0.19082729518413544, 0.005720005836337805, -0.12924760580062866, 0.012405314482748508, 0.2623522877693176, -0.06120584160089493, 0.038361333310604095, -0.04736728221178055, 0.08535216003656387, -0.0479428693652153, 0.018406488001346588, 0.005619465373456478, -0.045170918107032776, -0.0036077715922147036], [-0.2524259686470032, -0.0014653411926701665, 0.0871594101190567, -0.12109115719795227, -0.1690526008605957, -0.07697642594575882, 0.13957476615905762, -0.48552945256233215, 0.17847655713558197, -0.03324409946799278, -0.047554776072502136, 0.29023313522338867, -0.4170385003089905, 0.15132340788841248, -0.16111432015895844, -0.19202271103858948, -0.02986108884215355, 0.10668657720088959, -0.20740190148353577, 0.04949928820133209, -0.011387737467885017, -0.16463018953800201, 0.16644689440727234, 0.16228973865509033, 0.2103963941335678, 0.030010197311639786, 0.14265033602714539, 0.36940720677375793, 0.016573678702116013, -0.18177352845668793, 0.03398532420396805, 0.2916145324707031], [-0.29098981618881226, -0.007761440705507994, -0.31354978680610657, 0.0425456203520298, -0.18264023959636688, -0.023160280659794807, -0.7649216651916504, -0.16883189976215363, -0.08629130572080612, 0.09278924763202667, -0.06647330522537231, 0.2401382178068161, 0.004208400379866362, -0.36576637625694275, -0.09632868319749832, -0.22233958542346954, -0.20932398736476898, 0.06618067622184753, 0.2951315641403198, -0.20282883942127228, -0.08343040943145752, 0.10102127492427826, 0.1819944679737091, -0.11918240040540695, -0.017167480662465096, 0.08006875962018967, 0.14445871114730835, 0.1705966293811798, -0.2391868680715561, -0.08672824501991272, -0.0011096434900537133, 0.2326018363237381], [0.1594846099615097, -0.009587092325091362, 3.284851551055908, 0.08483520895242691, -0.268975168466568, 0.38110798597335815, -0.6690385937690735, -0.029805589467287064, 0.6609567999839783, -0.11358728259801865, -0.006925875786691904, -0.21148620545864105, 0.7816084027290344, 1.5396705865859985, 0.17251673340797424, 0.5635205507278442, -0.1201266422867775, -0.01853102259337902, -2.52142596244812, -0.041656494140625, 0.3148990869522095, 0.14680065214633942, 0.04801248759031296, 0.21269188821315765, -0.14337697625160217, -0.06888504326343536, 0.2863824665546417, -0.08746257424354553, 0.3490751087665558, 0.41995614767074585, -0.10053771734237671, 0.9059575796127319], [0.07195792347192764, 0.0025849267840385437, -0.23776982724666595, -0.018948910757899284, -0.002073368290439248, -0.1123679131269455, -0.02179860882461071, -0.01853567361831665, 0.1056402251124382, -0.21265923976898193, -0.12284906208515167, -0.02996460720896721, 0.2618020474910736, 0.1883373111486435, 0.06889360398054123, 0.0015243836678564548, 0.11826223134994507, 0.09888853877782822, 0.043807752430438995, 0.01057305559515953, 0.18070386350154877, -0.19036920368671417, -0.2009536474943161, 0.06337416172027588, -0.061036139726638794, -0.1631910353899002, 0.010103742592036724, 0.07485514879226685, 0.1541946977376938, 0.21677599847316742, 0.00448611518368125, 0.3660876750946045], [-0.15358836948871613, -0.004210867453366518, -0.2513064444065094, -0.05134263262152672, 0.07095929235219955, 0.1058424785733223, -0.3729037344455719, -0.12245550751686096, 0.17173196375370026, 0.2681537866592407, -0.03717630356550217, 0.2612925171852112, 0.46025168895721436, -0.19175949692726135, 0.2418483942747116, -0.18865522742271423, -0.13636226952075958, 0.0205136239528656, 0.21446305513381958, 0.027230579406023026, -0.09947271645069122, -0.21103031933307648, 0.2275140881538391, -0.10957323759794235, 0.07103688269853592, -0.3471762239933014, 0.5543694496154785, 0.08634763956069946, -0.039064038544893265, 0.018650874495506287, -0.04529866948723793, 0.49674859642982483], [-0.10591784119606018, -0.012753226794302464, 1.1727205514907837, -0.020390870049595833, -0.007362360134720802, 0.022175529971718788, -0.23654311895370483, -0.12109626829624176, 0.21623042225837708, -0.2876628637313843, -0.09654568880796432, -0.06731701642274857, -0.006545500364154577, 0.5494063496589661, 0.0927509069442749, 0.359348863363266, -0.2681482434272766, 0.11233546584844589, -0.8318241238594055, 0.01381013635545969, 0.1555006355047226, 0.06727932393550873, -0.35836300253868103, 0.3086409270763397, 0.1195024624466896, -0.16431652009487152, -0.13059863448143005, -0.13878443837165833, 0.2684405744075775, 0.000694990623742342, 0.03689514100551605, -0.06432973593473434], [-0.32602712512016296, 0.006469630636274815, 1.6805499792099, -0.01950201578438282, -0.04635622352361679, 0.015247158706188202, -0.31436923146247864, 0.21929803490638733, 0.4567052721977234, -0.1811978667974472, 0.18047195672988892, -0.282237708568573, 0.1937229037284851, 1.451746940612793, -0.4223178029060364, 0.140102356672287, 0.07537463307380676, -0.011991264298558235, -1.0324808359146118, -0.11381736397743225, -0.16896729171276093, 0.4547409117221832, -0.1585301011800766, 0.015876853838562965, -0.13527560234069824, 0.5625526905059814, -0.16788241267204285, -0.2375291883945465, 0.35192981362342834, 0.41466638445854187, 0.05160028114914894, 0.39798447489738464], [-0.03683485835790634, 0.04046633839607239, -0.8071591258049011, 0.40466850996017456, 0.48913130164146423, 0.0749225839972496, -0.0935126468539238, 0.15726202726364136, 0.32594361901283264, -0.251368910074234, 0.06938493996858597, -0.3749551475048065, -1.061390995979309, 0.6478460431098938, -1.0126137733459473, 0.1241111233830452, 0.22288158535957336, -0.08158513903617859, -0.4715607762336731, -0.0022921424824744463, -0.25193384289741516, 0.10971084237098694, -0.035360101610422134, 0.15246093273162842, 0.1499011516571045, 0.19903934001922607, -0.48228541016578674, -0.007365775760263205, 0.42094647884368896, 0.24416007101535797, 0.2820558249950409, -1.0167663097381592], [-0.38621583580970764, -0.004081940744072199, 0.11927686631679535, -0.05444870516657829, -0.032155465334653854, 0.1417091339826584, -0.003937758971005678, 0.08132103830575943, 0.10947602242231369, -0.014611303806304932, 0.04268186166882515, 0.013150769285857677, -0.2558055520057678, 0.002931189024820924, -0.07713829725980759, 0.0728970617055893, 0.283025324344635, -0.14848798513412476, -0.019469421356916428, 0.3141849637031555, 0.049996618181467056, -0.28076326847076416, 0.06251254677772522, -0.11124300211668015, -0.6414486169815063, 0.03408530727028847, 0.10543779283761978, -0.30882272124290466, -0.14544370770454407, -0.10175883024930954, -0.005393012426793575, -0.20209117233753204], [-0.010809260420501232, 0.0028813208919018507, -0.5102828145027161, 0.07970601320266724, -0.05075473338365555, -0.0867210403084755, 0.03802316263318062, -0.2174193561077118, 0.010248031467199326, -0.31183287501335144, -0.2009550929069519, 0.3564649522304535, 0.047203343361616135, 0.03795314207673073, 0.13330720365047455, -0.15356850624084473, 0.037948109209537506, 0.15989327430725098, 0.9052436351776123, -0.012824703007936478, -0.06295038759708405, 0.18535631895065308, -0.3520697355270386, 0.07405256479978561, -0.27029985189437866, -0.12247194349765778, 0.0035402504727244377, -0.1446765661239624, 0.19776570796966553, 0.24050845205783844, 0.029868198558688164, 0.12425896525382996], [-0.4151427149772644, 0.013388808816671371, -0.17742402851581573, 0.159641295671463, -0.13972145318984985, -0.07694308459758759, -0.5491289496421814, 0.19300134479999542, -0.23724833130836487, 0.2061944156885147, -0.034819044172763824, 0.23313072323799133, -0.1586155891418457, -0.16344811022281647, 0.1369817554950714, 0.08060506731271744, -0.3358899652957916, -0.31585487723350525, -0.19669100642204285, -0.005621713120490313, 0.05138561129570007, 0.03270205855369568, 0.2360193431377411, -0.04548421502113342, -0.5602136254310608, 0.26025402545928955, 0.24074573814868927, -0.20540787279605865, -0.38761094212532043, 0.29531872272491455, -0.14986294507980347, -0.24097391963005066], [-0.019409216940402985, -0.10188253223896027, 0.1789657175540924, -0.11725445091724396, -0.017902063205838203, 0.024455327540636063, 0.10617350041866302, -0.06565272808074951, 0.00021896565158385783, 0.21725058555603027, 0.10847263783216476, 0.08402946591377258, -0.005476249847561121, 0.0724143534898758, -0.09133940935134888, 0.04972546920180321, -0.13105075061321259, 0.12206112593412399, 0.004237351473420858, -0.004464517347514629, -0.17542041838169098, 0.021598804742097855, 0.2593642473220825, -0.17699307203292847, 0.022695131599903107, -0.059686094522476196, 0.04076595604419708, -0.053039826452732086, -0.06582435965538025, -0.009918148629367352, -0.029001183807849884, -0.013607865199446678], [-0.07486012578010559, 0.0018854201771318913, -0.07801438122987747, 0.1630433201789856, -0.054869018495082855, 0.06519640982151031, -0.24635502696037292, -0.326345831155777, 0.08506271243095398, -0.18773865699768066, -0.0867554098367691, -0.3057515025138855, -0.1879282295703888, -0.1398584544658661, 0.20250734686851501, 0.07250107824802399, 0.010866337455809116, -0.007138443179428577, 0.1959085464477539, -0.04783729463815689, 0.12129009515047073, 0.35726070404052734, -0.21301844716072083, 0.08629526942968369, -0.31599828600883484, -0.03734353929758072, -0.057741276919841766, -0.06552416831254959, -0.24709109961986542, -0.039005354046821594, -0.0018889798084273934, 0.12757019698619843], [0.24150732159614563, 0.0017313910648226738, 0.1018521711230278, -0.32856523990631104, -0.06802967190742493, -0.058007463812828064, -0.078587606549263, 0.24482488632202148, -0.18977956473827362, 0.027344506233930588, 0.060983601957559586, 0.008431866765022278, 0.16053332388401031, -0.6292726397514343, 0.03431730344891548, 0.01433106791228056, -0.17613551020622253, -0.6267117261886597, 0.15683642029762268, 0.12594176828861237, -0.07888243347406387, 0.08250974863767624, 0.21686163544654846, -0.026481863111257553, 0.2123764157295227, 0.39074280858039856, -0.14269278943538666, -0.110134556889534, -0.2519286572933197, 0.11834538727998734, 0.00020570574270095676, -0.8143351078033447], [-0.38663217425346375, -0.02118503302335739, -0.16414399445056915, 0.10969945788383484, -0.13800925016403198, -0.08252310007810593, 0.13303346931934357, -0.13779334723949432, -0.23759056627750397, -0.25556230545043945, -0.13599807024002075, -0.3278532922267914, -0.07293614745140076, -0.4807174503803253, 0.160549595952034, -0.011981694027781487, 0.010468602180480957, -0.15867747366428375, -0.36021921038627625, -0.4578026533126831, 0.2824266254901886, -0.24964959919452667, -0.2505030930042267, 0.3870776295661926, 0.478348970413208, 0.37881597876548767, 0.03931885212659836, 0.1880166381597519, 0.26232144236564636, 0.14990556240081787, -0.025531001389026642, -0.09633724391460419], [0.05447271093726158, 0.008959775790572166, -0.6009462475776672, 0.3801734149456024, 0.02708122506737709, -0.05624173954129219, 0.32036563754081726, -0.4249202311038971, 0.08288723975419998, 0.45081570744514465, 0.12636595964431763, 0.37778714299201965, -0.18356463313102722, -0.286298543214798, 0.11211497336626053, -0.037376321852207184, -0.02946826070547104, -0.503128707408905, 0.14027287065982819, 0.0017078734235838056, -0.21860972046852112, -0.510169267654419, 0.369262158870697, -0.05515802279114723, -0.530548632144928, 0.03996716067194939, 0.1251165121793747, 0.04342982918024063, -0.4241582453250885, -0.1851574033498764, 0.02714335359632969, 0.19965562224388123], [0.06011726334691048, -0.022170592099428177, 1.1340757608413696, 0.16932788491249084, 0.09074275195598602, -0.18235380947589874, -0.09689871966838837, 0.06242092326283455, 0.21515163779258728, -0.257470965385437, 0.10083747655153275, -0.03976910188794136, 0.23896679282188416, 0.9469707012176514, -0.318134069442749, 0.11124268174171448, 0.10708264261484146, -0.06807232648134232, 0.2403312474489212, 0.19501766562461853, 0.019480934366583824, -0.0022479966282844543, 0.04229319840669632, -0.0238046757876873, 0.311782568693161, -0.37459906935691833, -0.044276319444179535, 0.16201525926589966, 0.3493576943874359, -0.47091779112815857, 0.06476040184497833, 0.12022974342107773], [-0.10835456848144531, 0.003909377846866846, 0.3333737254142761, -0.5473889708518982, 0.1094830110669136, -0.10601216554641724, 0.18263860046863556, -0.09415371716022491, -0.0725836232304573, -0.05241113901138306, 0.04836549237370491, 0.17734123766422272, -0.1610996276140213, -0.4349287748336792, -0.10690871626138687, -0.020176665857434273, 0.04892171546816826, -0.27275076508522034, -0.7004693150520325, -0.32704958319664, -0.07493727654218674, -0.07052750140428543, 0.023195723071694374, -0.09274587780237198, 0.4108794927597046, -0.7026671171188354, -0.02913738042116165, 0.23190057277679443, 0.40412619709968567, -0.14863161742687225, -0.09121764451265335, 0.4494258761405945], [0.16301065683364868, -0.010216097347438335, -0.30562707781791687, 0.02014506608247757, 0.05316000431776047, -0.1836538314819336, -0.1603434532880783, -0.27058145403862, -0.05658125504851341, -0.05409882590174675, 0.12444054335355759, 0.13487769663333893, 0.6757490634918213, -0.5189785361289978, 0.07712829113006592, -0.16821126639842987, -0.09466470777988434, 0.18186591565608978, 0.5416460037231445, -0.1346522867679596, -0.1327579766511917, 0.23314733803272247, -0.21504589915275574, -0.109572634100914, 0.10826114565134048, 0.2514607906341553, -0.19748260080814362, 0.276544988155365, -0.046784836798906326, -0.12479481101036072, -0.05309159681200981, 0.07627074420452118], [0.07984733581542969, -0.0033840741962194443, 0.3394641876220703, 0.031215457245707512, 0.00445000221952796, -0.0520692840218544, 0.02980230189859867, 0.0854397565126419, -0.10529882460832596, -0.06543496251106262, 0.0208320040255785, -0.018960682675242424, -0.12830211222171783, -0.03457657992839813, 0.0019735656678676605, 0.041592419147491455, -0.03538420796394348, -0.045095983892679214, -0.11840764433145523, -0.01905066892504692, 0.03587121516466141, -0.043521709740161896, -0.07358837872743607, 0.07687834650278091, 0.06964470446109772, 0.012129445560276508, -0.008765933103859425, 0.043174467980861664, -0.07708465307950974, 0.05372767522931099, -0.02239595167338848, -0.10075869411230087], [-0.10003944486379623, 0.0002934866352006793, -0.2724551856517792, -0.07302559912204742, -0.1453331708908081, -0.10683820396661758, 0.5098598003387451, 0.17310960590839386, -0.1624455451965332, -0.10717910528182983, -0.0636945590376854, -0.26539430022239685, -0.2480521947145462, -0.616845965385437, 0.025387058034539223, 0.08153323829174042, -0.18835972249507904, -0.0778188705444336, 0.41704392433166504, 0.21504655480384827, 0.00359436240978539, -0.1409420371055603, -0.1296723186969757, -0.011478540487587452, 0.34269049763679504, 0.1713310331106186, -0.07283832877874374, -0.024505281820893288, -0.027918992564082146, 0.13798555731773376, 0.09905333071947098, 0.1890357881784439], [-0.2875491976737976, -0.009585733525454998, -0.6420956254005432, 0.06933340430259705, -0.014692528173327446, 0.07306872308254242, 0.21016354858875275, 0.09372016787528992, -0.04860026016831398, 0.05815734341740608, -0.04793132096529007, 0.19706228375434875, -0.18133121728897095, -0.657260537147522, 0.04760749265551567, -0.11766012758016586, -0.0558948777616024, -0.13437530398368835, 0.10768946260213852, -0.015833653509616852, 0.031674060970544815, 0.03127231076359749, 0.047988370060920715, -0.12056303769350052, 0.21445198357105255, 0.10842057317495346, 0.03738156706094742, -0.20411933958530426, 0.0005517147365026176, -0.044071927666664124, -0.012165660969913006, -0.1845674067735672], [-0.0014629142824560404, -1.740961306495592e-05, -0.002443484263494611, 0.005940706934779882, 0.00041619769763201475, -0.00048348354175686836, -0.013387677259743214, 0.007095112930983305, -0.0019667143933475018, -0.02769949845969677, -0.025344708934426308, 0.0006344227585941553, -0.002390568843111396, 0.003113423939794302, 0.01498112827539444, -0.022075265645980835, 0.022292807698249817, 0.0040385122410953045, 0.00037484211497940123, 0.0005038994713686407, 0.027260184288024902, 0.0011213296093046665, -0.0284544937312603, 0.01939634419977665, -0.008752064779400826, 0.01792357675731182, -0.015533939003944397, -0.0034917050506919622, -0.016499890014529228, 0.0026007182896137238, 0.00032816335442475975, -0.000330563256284222], [0.11124709248542786, -0.0014362630899995565, -0.11122501641511917, -0.21797479689121246, 0.027637280523777008, -0.06711748242378235, 0.13458453118801117, -0.23680855333805084, -0.05366891622543335, 0.31749194860458374, 0.3851950764656067, 0.11678526550531387, -0.011999540962278843, 0.026397181674838066, -0.20227666199207306, 0.4351101219654083, -0.2630445063114166, -0.19608451426029205, 0.033115971833467484, -0.13340063393115997, -0.34126704931259155, 0.0055549778044223785, 0.3555276095867157, -0.4863998591899872, 0.29284340143203735, -0.4279293715953827, 0.22342079877853394, 0.24138937890529633, 0.6071856617927551, -0.06764445453882217, -0.027151068672537804, 0.07305596023797989], [-0.24279332160949707, 0.009864754974842072, -0.6641227006912231, -0.004139298107475042, -0.12226589769124985, 0.027670172974467278, -0.3281577229499817, -0.31785380840301514, 0.2994004487991333, -0.12594246864318848, -0.1368187963962555, -0.16588462889194489, 0.33521541953086853, -0.062142860144376755, 0.0013850672403350472, -0.18258115649223328, -0.04157933592796326, -0.13889388740062714, 0.06602715700864792, 0.08018890768289566, 0.1743340641260147, 0.309083491563797, -0.18659788370132446, 0.003687640419229865, -0.18762515485286713, 0.026419656351208687, -0.15867380797863007, -0.058814678341150284, -0.14592130482196808, 0.27470269799232483, 0.03899361193180084, 0.4216102361679077], [0.007720222696661949, 0.007990004494786263, 0.11519492417573929, 0.0696854516863823, 0.07806362956762314, 0.021141359582543373, -0.02382376603782177, 0.0667368471622467, 0.04470402002334595, -0.12159527838230133, -0.11170464009046555, -0.18314731121063232, 0.27387750148773193, -0.04380422830581665, -0.016735507175326347, -0.26599204540252686, 0.3673517107963562, 0.18590976297855377, 0.059446316212415695, 0.012502315454185009, 0.0978904664516449, -0.03247659280896187, -0.08618812263011932, 0.1088428646326065, -0.21555940806865692, 0.1435622125864029, -0.3128393292427063, -0.04837678372859955, 0.034989144653081894, 0.07355553656816483, 0.026366543024778366, 0.16179302334785461], [-0.01577451452612877, -0.005240933038294315, -0.05033145844936371, -0.04743906483054161, -0.03511946648359299, -0.04273129999637604, -0.12505626678466797, -0.13942627608776093, -0.003507340792566538, -0.01528973039239645, -0.012675835750997066, -0.16376261413097382, 0.2802508473396301, 0.012365499511361122, 0.026495402678847313, 0.02077973634004593, -0.0009949678787961602, 0.009487076662480831, 0.08675620704889297, -0.060655806213617325, 0.031191114336252213, -0.031241189688444138, -0.015104754827916622, 0.016889238730072975, -0.10656730830669403, -0.03515613079071045, -0.028792720288038254, 0.008608007803559303, 0.042916830629110336, 0.16698770225048065, -0.006883346009999514, 0.17284265160560608], [0.22198006510734558, -0.011926207691431046, 0.721969723701477, -0.3334301710128784, -0.023372523486614227, -0.18483583629131317, 0.4897690415382385, -0.48339125514030457, -0.17280934751033783, 0.11186932027339935, 0.24851617217063904, 0.21418580412864685, -0.030846159905195236, 0.21341952681541443, -0.1766054779291153, 0.291531503200531, -0.16067291796207428, -0.36979109048843384, -0.3593696057796478, -0.08071957528591156, -0.24364566802978516, 0.08871938288211823, 0.20925332605838776, -0.21606111526489258, 0.06184420362114906, -0.15569908916950226, 0.3628712296485901, 0.07009879499673843, 0.2697904706001282, 0.22080910205841064, -0.055195704102516174, 0.07552988082170486], [-0.10010311752557755, 0.006253980565816164, -0.1600164771080017, -0.031959544867277145, 0.061725176870822906, -0.09175720065832138, -0.2540692090988159, -0.22566364705562592, 0.004680334590375423, 0.1671031266450882, 0.11802992969751358, -0.11947830766439438, -0.07567168772220612, -0.1795092076063156, 0.059037141501903534, 0.04546002298593521, -0.10159426182508469, -0.19684693217277527, 0.31268054246902466, -0.18613311648368835, -0.09588085114955902, -0.04683948680758476, 0.14656369388103485, -0.08253653347492218, 0.24925944209098816, -0.3844231963157654, -0.0014117464888840914, 0.1947915405035019, 0.19403764605522156, 0.14834892749786377, -0.00911659561097622, 0.3270680606365204], [0.03493810072541237, -0.0019150160951539874, -0.06740669906139374, -0.043084707111120224, -0.004049722570925951, -0.008500903844833374, 0.1519567370414734, -0.1978321671485901, -0.07631710916757584, 0.20881548523902893, 0.19414636492729187, 0.07664256542921066, -0.03171781077980995, -0.038961756974458694, -0.10719678550958633, 0.18550896644592285, -0.2217344045639038, -0.17049922049045563, 0.0013800864107906818, -0.0197412371635437, -0.22056084871292114, -0.043108660727739334, 0.21630191802978516, -0.16477906703948975, 0.07637742906808853, -0.15220919251441956, 0.14191143214702606, 0.0722280889749527, 0.14532704651355743, 0.009990107268095016, -0.005260658450424671, 0.005597265902906656], [0.07110980898141861, 0.005635393783450127, 0.03889789432287216, -0.02654329128563404, -0.019139748066663742, 0.04437234252691269, 0.02115841582417488, -0.16215628385543823, -0.0390271320939064, 0.24449840188026428, 0.3162232041358948, 0.01749640330672264, -0.0421430729329586, 0.04492361471056938, -0.18005628883838654, 0.2281007170677185, -0.30729156732559204, 0.0045343488454818726, 0.18601788580417633, 0.0822053775191307, -0.33288490772247314, 0.1099398285150528, 0.2765815854072571, -0.12947773933410645, -0.04714490845799446, -0.19280947744846344, 0.12376759946346283, 0.03890714794397354, -0.03182113543152809, -0.013332469388842583, -0.013336798176169395, -0.031733039766550064], [0.2647527754306793, -0.001131800003349781, 0.5456916093826294, -0.016066793352365494, 0.023695219308137894, -0.0588565357029438, -0.07056859880685806, 0.07592665404081345, -0.03223925456404686, 0.25945061445236206, 0.16827106475830078, -0.06871069222688675, -0.001233272603712976, 0.22227336466312408, -0.1190505251288414, 0.1679617166519165, -0.21838746964931488, -0.15453492105007172, -0.29117172956466675, 0.10281788557767868, -0.1784908026456833, 0.13233348727226257, 0.31251442432403564, -0.15188592672348022, -0.16111330687999725, -0.14772745966911316, 0.13739100098609924, 0.11805159598588943, 0.01850186288356781, 0.02527814358472824, -0.015572929754853249, -0.0007067150436341763], [-0.12131374329328537, 0.007297546602785587, -0.021828684955835342, -0.11774785816669464, 0.04405464604496956, -0.0972137525677681, -0.05703989788889885, -0.008132001385092735, -0.09900272637605667, -0.08017846196889877, -0.038565587252378464, 0.21490377187728882, -0.11129779368638992, 0.2916222810745239, 0.128831148147583, 0.1317949742078781, 0.1438276618719101, 0.056891556829214096, 0.33606624603271484, -0.0205623060464859, 0.08603175729513168, -0.06537342071533203, -0.06812749803066254, 0.07934397459030151, 0.10251250863075256, -0.395678848028183, 0.21851493418216705, -0.1498960554599762, 0.35453352332115173, 0.021092792972922325, -0.022396931424736977, 0.19441719353199005], [-0.04971545562148094, -0.0031550282146781683, -0.031305599957704544, -0.025723230093717575, -0.05949068069458008, -0.0501517616212368, 0.163970947265625, -0.22656528651714325, 0.06196822598576546, 0.33178389072418213, 0.2917199730873108, -0.10106134414672852, 0.09261571615934372, 0.05815765634179115, -0.20752018690109253, 0.06988685578107834, -0.39329883456230164, -0.01816660538315773, -0.08998297899961472, 0.12608513236045837, -0.33098897337913513, -0.14937932789325714, 0.35046103596687317, -0.27971869707107544, -0.024562478065490723, -0.2643786668777466, 0.283845990896225, -0.06571076810359955, 0.1542440950870514, 0.1709490269422531, -0.011118276976048946, 0.05859651416540146], [0.19413530826568604, 0.03592251241207123, -0.7479681372642517, 0.12352250516414642, 0.08213747292757034, -0.31666693091392517, 0.0778045654296875, 0.1294839084148407, 0.0019988594576716423, 0.007209442090243101, 0.18401329219341278, 0.5249758958816528, -0.27929043769836426, 0.6805462837219238, 0.05070748180150986, 0.3788398206233978, 0.09641174226999283, -0.9451788067817688, -0.6337307691574097, 0.5702905654907227, -0.07853597402572632, 0.041048187762498856, 0.10010338574647903, -0.2050081193447113, 0.20850422978401184, -0.6551368832588196, 1.3248915672302246, -0.39430952072143555, 0.42145833373069763, -0.2182498723268509, -0.06415711343288422, 0.7880719304084778], [-0.33585500717163086, -0.003988079261034727, 1.6070058345794678, 0.10798346251249313, 0.11477060616016388, -0.08366504311561584, 0.18870195746421814, 0.05362370237708092, -0.31192195415496826, 0.04634222760796547, 0.02282777428627014, -0.29400134086608887, -0.7273373007774353, 0.06392655521631241, -0.03830211982131004, -0.0002775317116174847, -0.4723062813282013, -0.1132410392165184, -0.5635382533073425, -0.04048975929617882, 0.015515104867517948, -0.12619921565055847, 0.09802639484405518, -0.26600268483161926, -0.03838576003909111, -0.034420184791088104, 0.09429807960987091, -0.039284344762563705, -0.19261562824249268, 0.26616111397743225, -0.12584155797958374, -0.5620010495185852], [0.5441938042640686, -0.015102789737284184, 0.7279587984085083, 0.1728101223707199, -0.03581244871020317, 0.053398869931697845, -0.29644161462783813, 0.2010457068681717, 0.2911462187767029, 0.24587218463420868, 0.18309196829795837, -0.014403878711163998, 0.11823447793722153, 0.09102673828601837, -0.042505405843257904, 0.23865017294883728, -0.21627046167850494, 0.12722079455852509, -0.4758904278278351, 0.09043765813112259, -0.12395674735307693, 0.17499686777591705, 0.2507478892803192, 0.01451063808053732, -0.16500408947467804, -0.27369850873947144, 0.028190989047288895, 0.24497266113758087, 0.045727938413619995, 0.005927718244493008, 0.04438963159918785, -0.1913415938615799], [0.13875842094421387, 0.003955998457968235, 0.2613244652748108, 0.004227122291922569, -0.03232371062040329, -0.05719386786222458, -0.0638732984662056, 0.09115409851074219, -0.02329474687576294, 0.37678515911102295, 0.28199225664138794, -0.10552085936069489, 0.28823068737983704, 0.2343605011701584, -0.27839741110801697, 0.22839410603046417, -0.08240468800067902, 0.1122829020023346, -0.016408275812864304, -0.00383354933001101, -0.3194413483142853, 0.08328506350517273, 0.21577629446983337, -0.08354770392179489, 0.2200499325990677, -0.08628464490175247, -0.06033492460846901, 0.10912912338972092, 0.15469689667224884, 0.124542735517025, -0.004120839759707451, 0.06012335792183876], [0.18717387318611145, 0.019181085750460625, 0.46924808621406555, -0.14625149965286255, -0.1284647285938263, -0.0048742895014584064, -0.12365522235631943, 0.1924687772989273, 0.30748307704925537, 0.020054319873452187, 0.02591860666871071, 0.19527815282344818, 0.4048028290271759, 0.8393074870109558, -0.06684788316488266, 0.2515468895435333, -0.26039835810661316, -0.33307945728302, -0.0999462753534317, -0.07618938386440277, -0.01869920827448368, 0.0795273408293724, 0.011790318414568901, -0.04629942402243614, 0.5379712581634521, -0.032007381319999695, -0.1162170022726059, 0.4524920582771301, -0.2103113830089569, -0.21664798259735107, 0.02909667417407036, -0.4004080891609192], [0.03600873053073883, 0.0012532180408015847, 0.01032246183604002, -0.05678439885377884, -0.014068637043237686, -0.0021810324396938086, 0.19842104613780975, -0.10199790447950363, 0.03561926633119583, 0.35174494981765747, 0.31293076276779175, 0.04938173294067383, -0.031903043389320374, -0.026246285066008568, -0.1852235645055771, 0.25049033761024475, -0.27109411358833313, -0.14799773693084717, -0.05448860302567482, -0.020326513797044754, -0.32595986127853394, -0.05034758150577545, 0.3658711910247803, -0.22423714399337769, 0.1800416260957718, -0.22802665829658508, 0.22667758166790009, 0.10129658877849579, 0.22841933369636536, -0.01881793700158596, -0.004250405356287956, -0.017729224637150764], [-0.034502215683460236, -0.012979288585484028, 0.17797760665416718, -0.043166209012269974, -0.043300360441207886, 0.06039997190237045, -0.03258596360683441, -0.018371764570474625, 0.053321290761232376, 0.07081510871648788, 0.0553276427090168, -0.09541279077529907, 0.11939390003681183, -0.058223385363817215, -0.11819250881671906, 0.08798008412122726, -0.037249449640512466, 0.1753835827112198, 0.18994390964508057, 0.2850812077522278, 0.04497312381863594, -0.0796303078532219, 0.07016561180353165, -0.02950233779847622, -0.2881753742694855, -0.014014661312103271, -0.05292602255940437, 0.019653793424367905, -0.3013671636581421, 0.008815349079668522, -0.0038416357710957527, -0.2875724136829376], [0.06926123052835464, 0.00020319102623034269, 0.2558591365814209, -0.04666878655552864, 0.016498100012540817, -0.015171008184552193, 0.12664157152175903, -0.10127104818820953, -0.07126126438379288, 0.3935183882713318, 0.33391332626342773, -0.016789203509688377, -0.10747674107551575, 0.02716522105038166, -0.23061256110668182, 0.2065913826227188, -0.3057045042514801, -0.11648722738027573, -0.08139695227146149, 0.061224594712257385, -0.32925936579704285, 0.020512524992227554, 0.4416212737560272, -0.2894981801509857, 0.05543820187449455, -0.16430538892745972, 0.16188888251781464, -0.010922683402895927, 0.07545828819274902, 0.027767444029450417, -0.01577461138367653, -0.057462260127067566], [0.058035485446453094, 0.005478729959577322, 0.0950993075966835, 0.15720242261886597, 0.017542675137519836, 0.09240414947271347, 0.03669353947043419, -0.4449521601200104, -0.18151630461215973, -0.009055821225047112, 0.02637038566172123, 0.3257465660572052, -0.6644532680511475, 0.45474109053611755, 0.00015683038509450853, -0.1000705286860466, 0.2218025177717209, 0.23972918093204498, -0.04333468899130821, -0.07837475091218948, -0.008367331698536873, 0.051189396530389786, -0.00942943338304758, -0.034127216786146164, -0.18847741186618805, -0.026299206539988518, 0.042491428554058075, 0.08733910322189331, 0.1401892453432083, -0.10801167786121368, 0.004100615158677101, -0.18418575823307037], [0.02944866195321083, -0.0019445850048214197, 0.025340454652905464, -0.07272005826234818, -0.04591948539018631, 0.058623041957616806, 0.08107280731201172, -0.13131016492843628, 0.04761965200304985, 0.35286420583724976, 0.354874849319458, 0.04435453563928604, -0.046669963747262955, -0.007805964443832636, -0.25931209325790405, 0.289287269115448, -0.3694130778312683, 0.00814053975045681, 0.017635958269238472, 0.08942203223705292, -0.38305598497390747, 0.05721534788608551, 0.3705573081970215, -0.2854261100292206, 0.059347592294216156, -0.27695050835609436, 0.2337404489517212, 0.011631322093307972, 0.07910019904375076, -0.011708924546837807, -0.020496143028140068, -0.06905495375394821], [-0.039130207151174545, 0.01772981695830822, -0.24348776042461395, 0.03705765679478645, 0.06043405830860138, -0.11746236681938171, 0.06442147493362427, 0.18567883968353271, -0.18318068981170654, 0.10488559305667877, 0.1595693975687027, -0.04870761185884476, 0.09913889318704605, 0.3413347601890564, -0.0546584315598011, -0.020212115719914436, -0.21725226938724518, -0.3102916181087494, 0.4115470349788666, 0.07795480638742447, -0.16108989715576172, 0.12756147980690002, 0.12706688046455383, -0.1798812597990036, -0.10098715126514435, 0.19652758538722992, -0.0484539270401001, -0.08794070035219193, -0.03419624641537666, 0.08832567185163498, 0.0028734183870255947, 0.07093421369791031], [-0.10990781337022781, -0.016353225335478783, -0.016390718519687653, -0.02551424317061901, -0.09297055751085281, -0.031806617975234985, -0.05537469685077667, 0.02802853472530842, 0.09988327324390411, 0.26820650696754456, 0.193794384598732, -0.024806540459394455, 0.1296280026435852, -0.1683748960494995, -0.10472431778907776, 0.17934498190879822, -0.34346482157707214, -0.1366414725780487, 0.20595335960388184, 0.11460350453853607, -0.22485816478729248, 0.013399570249021053, 0.2981983721256256, -0.21090711653232574, 0.06548144668340683, -0.2869846820831299, 0.0717679113149643, 0.021339992061257362, 0.08189138025045395, 0.16263461112976074, -0.01533267181366682, -0.14276260137557983], [-0.013450763188302517, 0.0024148563388735056, -0.5120771527290344, -0.0636216253042221, -0.011491269804537296, -0.009736199863255024, 0.18170171976089478, -0.012764345854520798, 0.10604677349328995, 0.17160801589488983, 0.22497421503067017, 0.07409359514713287, 0.17786671221256256, 0.1149919182062149, -0.02267097309231758, 0.10044214129447937, -0.23292186856269836, -0.2338135838508606, 0.007075503468513489, 0.009963365271687508, -0.2563231289386749, -0.03109426610171795, 0.2419409304857254, -0.14582714438438416, 0.3028906583786011, -0.15842553973197937, 0.1587795615196228, -0.0424322672188282, 0.17455077171325684, -0.02543177269399166, 0.008919758722186089, 0.16215907037258148], [0.19780346751213074, 0.03252169489860535, -0.16316762566566467, -0.2140064537525177, 0.041400764137506485, -0.07036962360143661, -0.09635554254055023, -0.12837490439414978, -0.2115945965051651, 0.06952115148305893, 0.03645947575569153, 0.07705160975456238, 0.09976569563150406, 0.23415443301200867, 0.15457016229629517, 0.014947161078453064, 0.13348223268985748, -0.1810239553451538, -0.16650301218032837, 0.07056932151317596, -0.0932239219546318, 0.032857052981853485, 0.2220797836780548, -0.0678464025259018, 0.10621258616447449, -0.20395644009113312, 0.20836688578128815, -0.16683329641819, 0.2141227126121521, -0.12056305259466171, -0.03668319806456566, 0.6935321092605591], [0.1227036863565445, -0.004568577744066715, -0.20013082027435303, -0.2763647437095642, -0.04604775086045265, 0.031896039843559265, 0.214613676071167, -0.05293309688568115, 0.21463580429553986, 0.01968386396765709, 0.050896383821964264, -0.5549871921539307, -0.009081478230655193, -0.8881509900093079, -0.04743168130517006, -0.02879183366894722, -0.3817284405231476, -0.4307788610458374, 0.1639460027217865, -0.12180231511592865, 0.004544282332062721, 0.17048580944538116, 0.009835120290517807, -0.015288135968148708, 0.196200430393219, 0.032393164932727814, -0.028100818395614624, -0.06796370446681976, 0.1102144792675972, 0.2141471803188324, 0.010653031058609486, 0.3073575496673584], [0.1417284607887268, -0.02300463803112507, 0.7594395875930786, -0.07021039724349976, -0.01907285302877426, 0.006873400416225195, 0.4027073085308075, 0.1229192242026329, 0.26181259751319885, 0.06540276855230331, 0.07424516975879669, -0.1899527758359909, -0.4089491069316864, -0.0883057713508606, -0.021654145792126656, 0.11171118170022964, -0.11071904748678207, 0.11888409405946732, -0.8223079442977905, -0.01334830466657877, -0.0398375540971756, 0.13872209191322327, 0.1398492008447647, 0.03632023185491562, 0.014934297651052475, -0.21241126954555511, 0.1401149332523346, -0.03596366196870804, 0.03363515064120293, 0.3644988238811493, 0.010812213644385338, 0.18441592156887054], [-0.20533610880374908, 0.003212098265066743, -0.22322002053260803, -0.1744680255651474, -0.10967681556940079, -0.11929085105657578, -0.1055554747581482, 0.029210219159722328, 0.03130225092172623, -0.025671599432826042, -0.03144954517483711, -0.02806691639125347, 0.5213031768798828, -0.19965951144695282, 0.045074813067913055, 0.14469046890735626, -0.20109927654266357, -0.10905827581882477, 0.24812105298042297, -0.032404664903879166, 0.02195383794605732, 0.03618461266160011, 0.00782690942287445, 0.006245317868888378, 0.36486703157424927, 0.013951706700026989, 0.1124085783958435, -0.2762146592140198, 0.0912594348192215, 0.2568385601043701, -0.009208234958350658, 0.21194012463092804], [0.01872524432837963, -0.00142519804649055, -0.1562134027481079, 0.008806759491562843, 0.012815969064831734, -0.0017950315959751606, -0.08801466226577759, -0.04379163682460785, 0.003983033820986748, -0.11338558793067932, -0.11756353080272675, 0.033284302800893784, 0.018516073003411293, 0.06233610585331917, 0.09790924191474915, -0.08697313070297241, 0.16924813389778137, -0.12249469012022018, 0.006419079843908548, 0.01680423878133297, 0.13930773735046387, -0.062495067715644836, -0.11295244842767715, 0.10156156867742538, -0.08573107421398163, 0.056150875985622406, -0.05018387362360954, -0.05266738682985306, 0.012920602224767208, -0.01133017148822546, 0.012175090610980988, 0.07451626658439636], [0.17728087306022644, 0.004952863324433565, -0.014316525310277939, 0.0026745684444904327, -0.0003239384386688471, -0.04458586499094963, 0.23097994923591614, -0.18554289638996124, -0.06304459273815155, 0.27024245262145996, 0.3040667772293091, 0.014959621243178844, 0.17977124452590942, 0.44514355063438416, -0.16190052032470703, 0.1952597051858902, -0.3038262128829956, 0.1816590428352356, 0.02218458242714405, 0.08275330066680908, -0.30977919697761536, -0.13988524675369263, 0.306751012802124, -0.36633050441741943, 0.015735283493995667, -0.2109246551990509, 0.31915947794914246, -0.11113215237855911, 0.11242547631263733, -0.06184067204594612, -0.008496975526213646, 0.12666012346744537]], "lstm.bias_ih_l0": [-0.13985009491443634, -0.02994486317038536, 0.1305382251739502, 0.06512115895748138, 0.04510020092129707, -0.012592124752700329, -0.526107668876648, -0.1940128356218338, 0.22165295481681824, 0.21642661094665527, 0.1404481828212738, -0.3173077404499054, -0.40528398752212524, -0.16080822050571442, -0.27936315536499023, 0.30818435549736023, 0.2667257785797119, 0.2898051142692566, 0.642601490020752, -0.1212373673915863, 0.2597942650318146, -0.44819754362106323, 0.19474314153194427, 0.05903118848800659, -0.17889538407325745, -0.2721848785877228, 0.10111414641141891, -0.035761792212724686, -0.05385077744722366, -0.0618223138153553, -0.06283245980739594, -0.40649110078811646, 0.012685869820415974, -0.029285980388522148, -0.26751452684402466, 0.43907517194747925, 0.172538161277771, -0.06973796337842941, 0.1942894160747528, 0.1528359204530716, -0.09027664363384247, 0.5567806959152222, 0.2309001386165619, 0.26653414964675903, 0.5535593628883362, -0.3186052739620209, 0.39821726083755493, 0.14375610649585724, 0.3071270287036896, -0.06458859145641327, -0.0776405781507492, 0.1642453372478485, 0.21196803450584412, 0.3104027807712555, 0.3095118999481201, 0.22835613787174225, 0.44937393069267273, 0.39132457971572876, 0.13238275051116943, -0.039200153201818466, 0.03785093501210213, 0.023139402270317078, -0.08813358098268509, 0.559621274471283, -0.038501523435115814, -0.009405951015651226, 0.24990248680114746, 0.16590295732021332, -0.030469784513115883, 0.035278450697660446, 0.4104631245136261, -0.10330549627542496, -0.05299710854887962, 0.10687831789255142, 0.13346466422080994, -0.21193844079971313, -0.07810154557228088, -0.13887804746627808, -0.27233803272247314, 0.12023435533046722, -0.11360111832618713, -0.05031908303499222, 0.15950635075569153, -0.1357686072587967, -0.12730565667152405, 0.11407758295536041, 0.22095827758312225, 0.06096186488866806, -0.04048977047204971, 0.07270624488592148, -0.019642379134893417, -0.051460251212120056, -0.1206994503736496, 0.01782461442053318, 0.02624044194817543, -0.1261868178844452, -0.101246178150177, -0.030754484236240387, 0.3029620051383972, -0.03749863803386688, 0.11892340332269669, -0.03441563993692398, 0.10987760126590729, -0.0396459735929966, 0.19537703692913055, 0.37520816922187805, 0.10903303325176239, 0.01919940672814846, 0.5262845754623413, -0.20041269063949585, -0.18175648152828217, 0.12617605924606323, 0.27720510959625244, -0.045378394424915314, 0.7093707919120789, 0.07636138796806335, 0.23278886079788208, -0.0604657344520092, 0.3149838149547577, 0.01499450858682394, 0.2636823356151581, 0.2823857367038727, 0.19511567056179047, 0.014262585900723934, -0.1627109795808792, 0.09148092567920685, -0.08256597071886063, 0.3052545487880707], "lstm.bias_hh_l0": [-0.05366472899913788, -0.029887605458498, 0.11299259215593338, 0.0381508506834507, 0.06395787745714188, -0.012481503188610077, -0.4758763611316681, -0.06781040877103806, 0.22191272675991058, 0.24066250026226044, 0.12204673886299133, -0.32690492272377014, -0.43168890476226807, -0.26822629570961, -0.24071457982063293, 0.3230389952659607, 0.18523070216178894, 0.32087990641593933, 0.6419774293899536, -0.1252627968788147, 0.2509978711605072, -0.47624731063842773, 0.20830850303173065, 0.05984846130013466, -0.3176034390926361, -0.27771806716918945, 0.021864326670765877, -0.0485047772526741, -0.012876894325017929, -0.10656534880399704, -0.08048376441001892, -0.39678215980529785, -0.015449427999556065, -0.0292827095836401, -0.18976826965808868, 0.40588486194610596, 0.15703673660755157, -0.06970304995775223, 0.44692015647888184, 0.04426351934671402, -0.08735630661249161, 0.5333042740821838, 0.23593172430992126, 0.34387338161468506, 0.4884783923625946, -0.2559925615787506, 0.3174525499343872, 0.22109274566173553, 0.2871663272380829, -0.1084834560751915, 0.0058893985114991665, 0.16304220259189606, 0.22062073647975922, 0.33626389503479004, 0.3361508548259735, 0.2192309945821762, 0.4136379659175873, 0.4640265703201294, 0.17707502841949463, 0.02277994714677334, 0.1453746110200882, 0.05648382753133774, -0.08149842172861099, 0.5247931480407715, -0.1295286864042282, 0.024852121248841286, 0.1957700103521347, 0.27891644835472107, -0.01703735440969467, 0.048163607716560364, 0.5093026757240295, -0.0677226185798645, -0.05726679041981697, 0.14615635573863983, 0.1185871884226799, -0.08778395503759384, 0.056912120431661606, 0.034234669059515, -0.2656874358654022, 0.006169905420392752, -0.3485862612724304, 0.07392006367444992, -0.08359715342521667, 0.07396973669528961, -0.10603052377700806, 0.12400542199611664, 0.1889083832502365, 0.07505454123020172, 0.05602829158306122, -0.03718600422143936, 0.06527223438024521, -0.2323009967803955, -0.25984975695610046, -0.012119726277887821, 0.009216949343681335, 0.11361994594335556, -0.02787691354751587, -0.03049805946648121, 0.3666876256465912, -0.14330418407917023, 0.138326495885849, -0.03517070785164833, 0.05322490260004997, 0.08209963142871857, 0.19684912264347076, 0.47853413224220276, 0.1915106326341629, -0.05885910242795944, 0.54362553358078, -0.18615758419036865, -0.12485812604427338, 0.11612437665462494, 0.32632777094841003, -0.029382143169641495, 0.7094870805740356, 0.08049233257770538, 0.2519513964653015, -0.037205372005701065, 0.2554870545864105, 0.08686045557260513, 0.24669252336025238, 0.30216705799102783, 0.1627351939678192, -0.0615767166018486, -0.043118033558130264, 0.021541539579629898, -0.13752517104148865, 0.40668508410453796], "dense.weight": [[0.1510959267616272, -0.015562119893729687, 0.16018186509609222, -0.07867337763309479, 0.29548585414886475, -0.009439078159630299, -0.3961567282676697, -0.36935701966285706, -0.030644267797470093, -0.02625344507396221, 0.01695743203163147, -0.052240822464227676, 0.08367414772510529, -1.9632714986801147, -0.050896257162094116, -0.18027541041374207, -0.18056438863277435, 0.6477402448654175, -0.04400956258177757, 0.048402100801467896, -0.18286271393299103, 0.008122346363961697, -0.26104360818862915, -0.1541016399860382, 0.3823655843734741, -0.1618157923221588, -0.04572451859712601, 0.5909621715545654, -0.39792734384536743, -0.018131673336029053, 0.1018935963511467, -0.38351961970329285]], "dense.bias": [0.04617363587021828]}