{"lstm.weight_ih_l0": [[-0.023390473797917366, 0.10803122073411942], [-0.01622833125293255, 0.09810686856508255], [0.003671413054689765, 0.4741186499595642], [-0.050162024796009064, 0.8709069490432739], [0.0074775037355721, 0.15216007828712463], [-0.00480350386351347, 0.15330444276332855], [-0.0009143015486188233, 0.027877455577254295], [0.032163430005311966, 0.07009916752576828], [-5.632722621662367e-10, -2.1411350470401658e-09], [0.051549576222896576, 0.16709545254707336], [-9.023221753112765e-11, 1.6334745778223692e-09], [0.015718771144747734, -0.039251528680324554], [0.011653774417936802, 0.1260608285665512], [0.007319073658436537, 0.037165865302085876], [-0.016790250316262245, 0.293638676404953], [-0.0058672125451266766, 0.24623507261276245], [-0.03192714601755142, 0.16918833553791046], [-0.014214257709681988, 0.19745498895645142], [-0.021591873839497566, 0.10545207560062408], [-0.034513454884290695, 0.25684434175491333], [0.03187905251979828, 0.19325430691242218], [0.011127435602247715, 0.16813208162784576], [0.003008831525221467, 0.03273940458893776], [0.08974085003137589, 0.05273089557886124], [-3.187089203660065e-10, 7.171347959911145e-10], [0.03199099376797676, 0.07222399860620499], [-1.0772518294066558e-10, 1.6383705503386636e-09], [-0.09795603901147842, 0.17657312750816345], [-0.021721040830016136, 0.09081699699163437], [0.013414893299341202, 0.07852344959974289], [-0.017592914402484894, 0.13961750268936157], [-0.007952866144478321, 0.018206175416707993], [0.27392080426216125, -0.3442707061767578], [0.23518535494804382, 0.21282035112380981], [-1.714913010597229, -0.12952633202075958], [-1.5556243658065796, 0.025690216571092606], [-0.5316465497016907, 0.3076997995376587], [0.1169571503996849, -0.28541338443756104], [0.00550171360373497, -0.0856768935918808], [-0.11906545609235764, -0.5910041332244873], [-2.0869174477411434e-06, 1.5801038898644038e-05], [0.08268994837999344, -0.1063915491104126], [-3.4495653835620033e-06, -6.5597564571362454e-06], [-0.05633222311735153, 0.21192148327827454], [-0.3666257858276367, 0.02058844082057476], [-0.020516080781817436, -0.04160909727215767], [0.7331945896148682, 0.3185645341873169], [-0.6404554843902588, 0.16646483540534973], [-0.049999408423900604, 0.1672850400209427], [0.06299255788326263, 0.20996533334255219], [0.003828888526186347, 0.48465073108673096], [0.0008825542754493654, 0.6978380680084229], [-0.015707368031144142, 0.15886332094669342], [0.06691980361938477, 0.1974712759256363], [-0.00441470742225647, 0.031590599566698074], [0.17380760610103607, 0.09351612627506256], [-5.040883266360652e-10, -2.1411394879322643e-09], [0.031963009387254715, 0.13048531115055084], [-1.1287495244038936e-10, 1.6334682495511288e-09], [-0.27378422021865845, 0.1341831088066101], [0.0031490386463701725, 0.0998297855257988], [0.014009461738169193, 0.053880058228969574], [0.014971187338232994, 0.2549142837524414], [0.0038023556116968393, 0.24769710004329681]], "lstm.weight_hh_l0": [[-0.0033851012121886015, -0.11486439406871796, 0.03566574305295944, 0.035972610116004944, -0.025828642770648003, -0.05652107298374176, -0.03688604384660721, -0.05939694866538048, -3.7117931697139284e-06, -0.05238072946667671, 3.2342666145268595e-07, 0.023837242275476456, 0.04396401345729828, -0.06528879702091217, -0.05776185542345047, -0.010071590542793274], [-0.02944258227944374, -0.08884494751691818, 0.030433522537350655, 0.03862294554710388, 0.046141982078552246, -0.06300538033246994, -0.025945227593183517, -0.07010725140571594, -2.894147655752022e-06, -0.050385333597660065, 3.638193220467656e-06, 0.025651758536696434, 0.03324100002646446, -0.046794623136520386, -0.04314028471708298, -0.003891864325851202], [-0.23282527923583984, -0.23091837763786316, 0.0012819634284824133, -0.051086071878671646, -0.10045516490936279, -0.2129381150007248, -0.08749373257160187, -0.199146568775177, -2.6481686745682964e-06, -0.06591647863388062, -2.2338408598443493e-06, 0.22971244156360626, -0.011982123367488384, -0.13040652871131897, -0.03498140349984169, 0.0011333703296259046], [-0.5651078224182129, 0.23530201613903046, -0.09544628113508224, -0.004277178086340427, 0.3564196825027466, -0.2538686692714691, 0.02156500332057476, -0.15503142774105072, -1.128113581216894e-06, 0.035738106817007065, -4.603745765052736e-06, 0.13363081216812134, 0.00030436189263127744, 0.06787296384572983, 0.2835358679294586, 0.08248629420995712], [0.1133686751127243, -0.014422773383557796, 0.05275600776076317, -0.0076383925043046474, -0.0463142953813076, 0.04624985158443451, -0.022802231833338737, -0.007880044169723988, -6.144406597741181e-06, -0.01718089170753956, -7.511096669077233e-07, -0.03234988823533058, -0.01123901829123497, -0.03627123683691025, -0.02560787834227085, -0.01029286254197359], [0.017920758575201035, -0.07637854665517807, 0.05251762643456459, 0.019669242203235626, -0.011209961958229542, -0.032712146639823914, -0.029795581474900246, -0.05770383030176163, -4.766987331095152e-06, -0.044937919825315475, 4.115092451684177e-06, 0.053871992975473404, 0.023789474740624428, -0.04842298477888107, -0.034747738391160965, -0.005132555495947599], [-0.0015706719132140279, -0.014311250299215317, -0.0030803761910647154, -0.012002472765743732, -0.003353999461978674, -0.009551278315484524, -0.009957185946404934, -0.014304958283901215, -8.734699008527969e-07, 0.0040235333144664764, 1.486885707890906e-06, 0.009644214995205402, -0.0009637667681090534, -0.014818064868450165, 0.006353428587317467, 0.007297344505786896], [0.08522489666938782, -0.06669696420431137, 0.04777922481298447, 0.04782763123512268, -0.017679262906312943, 0.02381475642323494, -0.02648213505744934, 0.01263354904949665, -3.011572289324249e-06, -0.048993341624736786, -3.598316533626189e-09, -0.02859708108007908, 0.028046969324350357, -0.05089206248521805, -0.055818457156419754, -0.03470088541507721], [5.350966891803921e-10, 8.406305651575963e-10, 2.593930625849339e-11, 2.6950097709033116e-09, 2.8123050554995643e-09, 1.8728599227024745e-10, 6.427855470114707e-10, 7.02122804341343e-10, -9.41916985082664e-15, 9.287173807770444e-11, 1.7293690419040338e-14, -3.0893301250500826e-09, 1.5142818110547296e-09, 7.501173571178299e-10, -1.332538412945894e-09, 4.93006357960013e-10], [-0.12961922585964203, -0.14613831043243408, -0.04087989032268524, -0.18547682464122772, -0.13651932775974274, -0.07970164716243744, -0.05191006883978844, -0.04108927398920059, -8.321091513607826e-07, 0.0075162677094340324, 4.511612416990829e-07, 0.11451320350170135, -0.09123203158378601, -0.07369817048311234, 0.0961846113204956, 0.009951906278729439], [-1.4576947426903075e-09, -1.1184794201923864e-09, 7.568167620375377e-11, -1.431516433170188e-10, -3.2400762628448376e-10, -1.1899151663996577e-09, -3.822520633356419e-10, -8.768978321249676e-10, 3.073345207884118e-14, -5.979273187683987e-10, -3.2380029918194914e-14, 9.052610883131251e-10, 8.109300037029143e-11, -5.706950467754268e-10, -1.702107066403613e-10, 2.0763503763565616e-11], [0.1375151425600052, 0.10291292518377304, 0.013177319429814816, -0.09066562354564667, -0.147792786359787, 0.13226483762264252, -0.0190248005092144, 0.10079427063465118, 3.958039542339975e-06, 0.07870176434516907, -3.3653186619631015e-06, -0.0008608486969023943, 0.035879552364349365, -0.02404712326824665, 0.10082145780324936, -0.060737527906894684], [-0.13747180998325348, -0.2761547565460205, 0.011177475564181805, -0.028228916227817535, -0.11343381553888321, -0.14354383945465088, -0.07230769097805023, -0.092471182346344, -4.738458756037289e-06, -0.05399128794670105, -1.4964645345116878e-07, 0.12065313756465912, 0.05132933706045151, -0.12775695323944092, -0.07189672440290451, -0.01833445020020008], [-0.006931598763912916, -0.03685881942510605, 0.0018533727852627635, 0.008769022300839424, 0.003565884428098798, -0.02491128258407116, -0.01997806504368782, -0.023010680451989174, -2.7560793114389526e-06, 0.012518118135631084, 1.2985851753910538e-06, 0.005835182499140501, 0.009298177435994148, -0.03304500877857208, -0.014584853313863277, -0.0027315588667988777], [-0.005792869720607996, -0.0877426266670227, 0.10212437808513641, -0.01789313368499279, -0.09292913973331451, -0.027969028800725937, -0.04394598677754402, -0.06989213079214096, 9.780588925423217e-07, -0.09806820005178452, -5.577656793320784e-06, 0.129506453871727, 0.05471067503094673, -0.0611235611140728, 0.015106341801583767, -0.05991487205028534], [-0.12348886579275131, -0.12027148902416229, -0.0015340967802330852, 0.009958929382264614, -0.027119368314743042, -0.09761875122785568, -0.035241011530160904, -0.041521523147821426, -1.0285635653417557e-05, -0.020516708493232727, 2.6901093406195287e-06, 0.04861696437001228, 0.031203651800751686, -0.06286861002445221, -0.05467399209737778, 0.0005154471145942807], [-0.018536614254117012, -0.164580836892128, 0.03777899220585823, 0.02995937131345272, -0.05737438052892685, -0.08246580511331558, -0.055754709988832474, -0.08640111982822418, -4.830308625969337e-06, -0.05774348974227905, 6.352013883770269e-07, 0.0610860213637352, 0.05418664589524269, -0.0946517363190651, -0.05248293653130531, -0.008525006473064423], [-0.04393666610121727, -0.24109208583831787, 0.013082034885883331, 0.12729869782924652, 0.17744877934455872, -0.13377328217029572, -0.022825755178928375, -0.14963258802890778, -7.282210390258115e-06, -0.17372044920921326, 7.617823484906694e-06, -0.05093523859977722, 0.09778451919555664, -0.0691954717040062, -0.18069837987422943, 0.017479583621025085], [-0.13144682347774506, -0.03730861470103264, 0.0038786076474934816, -0.024052849039435387, 0.02852960117161274, -0.05842604860663414, 0.0008927305461838841, -0.0768316313624382, 1.2763177437591366e-05, -0.11374583095312119, -6.630584721278865e-06, 0.08198729157447815, 0.027356455102562904, 0.005575400777161121, -0.05218121036887169, 0.0029400698840618134], [-0.001727647497318685, 0.26286864280700684, 0.01505372580140829, 0.11856590956449509, 0.16336321830749512, -0.04585591331124306, 0.021564435213804245, -0.19682738184928894, 1.5281768810382346e-06, -0.056661926209926605, -1.0471425412106328e-05, 0.1404477059841156, 0.07048627734184265, 0.060777585953474045, 0.08720681071281433, -0.008417295292019844], [0.01647079735994339, 0.006477850954979658, 0.026028532534837723, -0.0946221724152565, -0.0672496110200882, -0.013358010910451412, -0.03858194500207901, -0.08573152124881744, -8.325569069711491e-06, 0.0850091353058815, 4.3310495811965666e-07, 0.09450078010559082, -0.05368729308247566, -0.04439833387732506, 0.08560124039649963, 0.012646537274122238], [0.009906278923153877, -0.11230571568012238, 0.04397101700305939, 0.040919430553913116, 0.020428229123353958, -0.04659523442387581, -0.029547302052378654, -0.06875909119844437, -9.224971108778846e-06, -0.09394101798534393, 7.3326823439856526e-06, 0.06067223846912384, 0.04442395642399788, -0.054070986807346344, -0.08475743234157562, -0.005261788610368967], [-0.0011354724410921335, -0.013036441057920456, -0.0042524938471615314, -0.015299621038138866, -0.004090507980436087, -0.008885952644050121, -0.010510407388210297, -0.014598354697227478, -9.49561922425346e-07, 0.005910098552703857, 1.6924533383644302e-06, 0.010431435890495777, -0.0014459369704127312, -0.01530865952372551, 0.009682876989245415, 0.007789012975990772], [0.13883796334266663, -0.08161357790231705, 0.04948483407497406, 0.04980124533176422, -0.014549126848578453, 0.06699370592832565, -0.028316957876086235, 0.06643037497997284, -6.3132247305475175e-06, -0.06743646413087845, 7.045295546959096e-07, -0.07478447258472443, 0.04236677289009094, -0.06138807162642479, -0.07007244974374771, -0.061273232102394104], [-6.646310724001125e-10, -9.138991785562212e-10, 2.6655364027128314e-10, 3.2394205096153428e-09, 2.5230528777342442e-09, -1.445828012869299e-09, 2.2140057148734016e-11, -7.927861700451899e-10, -4.81456712063226e-14, -7.27798932231849e-10, 3.674602566943342e-15, -1.9012129648388054e-09, 2.1583286269333257e-09, -2.7156352166990416e-10, -2.2830870527457137e-09, 3.032675222058856e-10], [-0.07610268890857697, -0.04152440279722214, 0.04130485653877258, -0.12069150805473328, -0.10388316959142685, 0.01631408929824829, -0.01912815310060978, 0.023717796429991722, 8.585956493334379e-06, -0.04811425134539604, -3.034587052752613e-06, 0.030998127534985542, -0.07261598110198975, -0.015269304625689983, 0.11520767211914062, -0.02187366969883442], [-1.4685459515106913e-09, -1.1234838614981868e-09, 9.730424799236914e-11, -1.0004495148985271e-10, -3.0530247774329666e-10, -1.2049288233839661e-09, -3.830605277421739e-10, -8.884127877806236e-10, 3.009343737202762e-14, -6.020190457256547e-10, -3.210893532936028e-14, 9.134396017351776e-10, 9.871498063418471e-11, -5.725953045043752e-10, -1.8751505903580323e-10, 1.8973716695014353e-11], [0.0029235200490802526, 0.0003686867421492934, 0.08599399775266647, -0.10587543994188309, -0.19958986341953278, 0.013103798031806946, -0.058044224977493286, 0.050206199288368225, 2.9449569183270796e-07, 0.1191869005560875, -3.6149622246739455e-06, 0.13014602661132812, 0.10194752365350723, -0.08398118615150452, 0.13901826739311218, -0.0826752558350563], [-0.19293145835399628, -0.1293800175189972, 0.01847054250538349, 0.04763609170913696, 0.056862931698560715, -0.025358974933624268, -0.01861567795276642, 0.08424009382724762, -6.469427717092913e-06, -0.03437523916363716, 2.4932246560638305e-06, -0.049425747245550156, 0.04402381181716919, -0.04658814147114754, -0.008063212037086487, 0.009079918265342712], [-0.011982090771198273, -0.047671932727098465, 0.0004339760052971542, 0.014094967395067215, 0.010502110235393047, -0.036062706261873245, -0.025474807247519493, -0.035067811608314514, -3.815387117356295e-06, 0.01258822064846754, 1.8183088741352549e-06, 0.0055281175300478935, 0.014951372519135475, -0.04239104315638542, -0.021526122465729713, -0.0020822130609303713], [-0.055187616497278214, -0.09377405047416687, -0.013859495520591736, -0.0007344049517996609, 0.09666841477155685, -0.11678629368543625, -0.019483480602502823, -0.15645736455917358, -7.505305802624207e-06, -0.10290483385324478, -1.946843212863314e-06, 0.09695866703987122, 0.10253032296895981, -0.03822264447808266, 0.02626747265458107, -0.010664441622793674], [-0.09409739822149277, 0.03551802784204483, -0.017816247418522835, -0.042726147919893265, 0.01247983518987894, -0.003682284615933895, 0.013159720227122307, 0.0338667556643486, -7.45712713978719e-06, 0.010941989719867706, 4.0106356209435035e-06, 0.01639731228351593, -0.013344482518732548, 0.025582998991012573, 0.01968090608716011, 0.0231795497238636], [0.39201903343200684, 0.021889567375183105, -0.08697787672281265, 0.1667052060365677, -0.1284666657447815, 0.18028008937835693, -0.028967969119548798, 0.08456231653690338, -4.888343482889468e-06, 0.11799726635217667, -3.919255505024921e-06, -0.1589653193950653, 0.02948714606463909, -0.06019412353634834, -0.1306583434343338, -0.05696796625852585], [-0.046871576458215714, 0.28493115305900574, -0.2455732226371765, -0.07932267338037491, 0.0026599743869155645, 0.0856366753578186, 0.07720831036567688, 0.16764070093631744, 2.2173075194587e-05, 0.06399526447057724, -2.587526296338183e-06, -0.14211760461330414, -0.05490197241306305, 0.1318196803331375, 0.06567313522100449, 0.0011247958755120635], [0.037781957536935806, -0.02138577029109001, 0.198190838098526, -0.24022896587848663, -0.044799480587244034, 0.18709489703178406, -0.014114988036453724, 0.1013183668255806, -8.614127182227094e-06, -0.03366180509328842, 1.6692257531758514e-06, 0.12394875288009644, 0.06026729196310043, -0.040866974741220474, 0.03858115151524544, 0.674843430519104], [-0.28240785002708435, 0.07637481391429901, 1.2848509550094604, 0.581749677658081, 0.029219700023531914, 0.136639803647995, -0.07462707906961441, 0.28285929560661316, 6.981774640735239e-05, 0.09768464416265488, -8.977828656497877e-06, 0.1804412603378296, -0.02839616872370243, 0.1623157113790512, -0.3934541642665863, 0.5973835587501526], [-0.16468386352062225, 0.30293750762939453, 0.2090074121952057, 0.4123671352863312, 0.35658660531044006, -0.02132881060242653, 0.062428638339042664, -0.00784244667738676, 6.988530913076829e-06, -0.15151017904281616, -5.2962827794544864e-06, -0.06565477699041367, 0.11434878408908844, 0.12226445972919464, 0.04529063031077385, 0.08344043046236038], [0.10526782274246216, 0.05706842616200447, -0.25452327728271484, -0.16796785593032837, -0.08595911413431168, 0.30387216806411743, 0.0240495428442955, 0.3408995568752289, 2.3120555852074176e-05, -0.07399540394544601, -2.2272963633440668e-06, -0.11237184703350067, -0.024509992450475693, 0.009498787112534046, -0.0848449170589447, -0.14266467094421387], [-0.002829726552590728, 0.050077710300683975, 0.025143740698695183, 0.05890509486198425, 0.0019259464461356401, 0.035009726881980896, 0.039174117147922516, 0.057904765009880066, 6.140096502349479e-06, -0.023663373664021492, -4.6079526327957865e-06, -0.036735065281391144, 0.009816703386604786, 0.057766299694776535, -0.03649516403675079, -0.03146270662546158], [-0.09358703345060349, -0.10512636601924896, -0.09085037559270859, -0.16367818415164948, -0.08850032091140747, 0.0806785523891449, 0.009100590832531452, 0.4265156388282776, 1.6523075828445144e-05, 0.03482526168227196, -2.9073723908368265e-06, -0.06849846988916397, -0.03369728475809097, -0.03276011720299721, 0.04844799265265465, 0.011717337183654308], [-6.202899839991005e-06, -9.651510481489822e-06, -3.9711349018034525e-06, -1.0754393770184834e-05, -4.8995705583365634e-05, -1.726526306811138e-06, 5.69928090499161e-07, -7.4137183219136205e-06, 2.9851671135006086e-10, -9.631433204049245e-05, -3.2116547199478873e-09, 7.09566447767429e-05, 4.1039979805646e-06, 1.0708045010687783e-05, -1.8122434994438663e-05, -2.5580013698345283e-06], [-0.02154252678155899, -0.08679569512605667, -0.5511283874511719, -0.3169722855091095, 0.0369693823158741, -0.14740701019763947, -0.02512897178530693, -0.09674081951379776, -7.06929131411016e-05, 0.3580256402492523, 2.5924829969881102e-05, -0.2177235633134842, -0.298785537481308, -0.04254833236336708, 0.35772112011909485, 0.20603325963020325], [1.3655703696713317e-05, 3.3229314340132987e-06, -6.091370778449345e-06, 5.04967465531081e-06, 1.3682535609405022e-05, 5.018673164158827e-06, 6.73229260428343e-06, 5.854269602423301e-06, 1.3709766655267686e-10, 1.3061148820270319e-05, 1.2606746757626297e-09, -2.4329719963134266e-05, 3.5047955861955415e-06, 4.974373496224871e-06, -3.7536938179982826e-06, 2.515545020287391e-06], [-0.051169026643037796, 0.03359023854136467, -0.12554755806922913, -0.32480862736701965, -0.013582668267190456, 0.18303921818733215, -0.019278712570667267, -0.382161021232605, 6.288102304097265e-05, -0.1318141222000122, -2.3925047116790665e-06, 0.42761531472206116, 0.06630393117666245, 0.014479730278253555, 0.16548916697502136, 0.1504034399986267], [-0.17848357558250427, 0.10830261558294296, 0.8245699405670166, 0.098824143409729, 0.0541667714715004, 0.09501563012599945, -0.008766645565629005, 0.14889241755008698, -6.45111285848543e-05, -0.013649034313857555, -6.02538193561486e-06, 0.10079687833786011, 0.34211328625679016, -0.011709259822964668, -0.10250257700681686, -0.06511309742927551], [0.005218525882810354, 0.08933766931295395, -0.0028998074121773243, -0.012898729182779789, -0.0036042635329067707, 0.05492665618658066, 0.057578571140766144, 0.038886792957782745, 9.93513640423771e-06, -0.07486624270677567, -2.8391734758770326e-06, -0.009163073264062405, -0.018314998596906662, 0.0981081873178482, 0.01988910511136055, 0.012398279272019863], [0.1098070964217186, 0.0896405503153801, -0.667897641658783, -0.6841955184936523, 0.019268466159701347, -0.0008174144313670695, 0.06688442081212997, -0.4087875485420227, 7.691237260587513e-05, -0.08034779876470566, -1.820206489355769e-05, -0.14957034587860107, -0.32294172048568726, 0.11770438402891159, 0.5281270742416382, 0.03796592354774475], [0.17999862134456635, 0.017246436327695847, -0.6972507238388062, -0.0016207594890147448, -0.07749465107917786, -0.13577455282211304, 0.09804107993841171, -0.34169864654541016, -4.942305167787708e-06, -0.020002812147140503, -8.594486644142307e-06, -0.22159692645072937, -0.014109110459685326, -0.0361257866024971, 0.1782735288143158, -0.1453208178281784], [-0.012557772919535637, -0.1544310599565506, 0.05925093963742256, 0.01856735534965992, -0.06917773187160492, -0.07564817368984222, -0.0574306957423687, -0.0833403691649437, -3.850671419058926e-06, -0.05085628479719162, 1.498209911687809e-07, 0.07199905067682266, 0.024274295195937157, -0.09358026087284088, -0.06068580970168114, 0.01253298670053482], [-0.03671535849571228, -0.20206159353256226, -0.07446670532226562, -0.06290465593338013, 0.024658678099513054, -0.12181643396615982, -0.04530880227684975, -0.12163399159908295, -9.960715942725074e-06, -0.0484040305018425, 6.648821909038816e-06, 0.0020506412256509066, -0.01287634577602148, -0.08881024271249771, -0.08160960674285889, 0.01261831447482109], [-0.248297318816185, -0.23594526946544647, 0.0022852751426398754, -0.06019953265786171, -0.09053093194961548, -0.229083850979805, -0.09031752496957779, -0.21537117660045624, -3.2732389172451803e-06, -0.06330325454473495, -2.042310597971664e-06, 0.23819108307361603, -0.013671232387423515, -0.13389863073825836, -0.026174670085310936, 0.0069757080636918545], [-0.14703713357448578, 0.3440941870212555, -0.014210758730769157, 0.03647833690047264, 0.23672311007976532, -0.01618604175746441, 0.013678357005119324, -0.07775849103927612, -6.512665095215198e-06, -0.0787782147526741, -5.392456841946114e-06, 0.00860592070966959, -0.02187098190188408, 0.05972271040081978, 0.13503199815750122, 0.0365188829600811], [0.13275524973869324, 0.029245750978589058, 0.10610319674015045, 0.022867457941174507, -0.08090819418430328, 0.08911842852830887, -0.02647976391017437, 0.014940489083528519, -8.054990757955238e-06, -0.009131338447332382, -3.3734744420144125e-07, 0.0031916333828121424, -0.01583557203412056, -0.03504230082035065, -0.02174104005098343, -0.01557901594787836], [-0.02917962707579136, -0.11906108260154724, 0.024998515844345093, 0.00863141193985939, -0.012718921527266502, -0.0725235864520073, -0.034322965890169144, -0.09832293540239334, -7.549656857008813e-06, -0.07466761022806168, 6.454666163335787e-06, 0.08007817715406418, 0.02280607633292675, -0.05795643478631973, -0.06982966512441635, -0.025350680574774742], [-0.0038864866364747286, -0.018574388697743416, 0.007282193750143051, -0.01517762616276741, -0.008399839513003826, -0.011521724052727222, -0.01173604466021061, -0.015507293865084648, -8.399590569752036e-07, 0.006552667822688818, 1.7353016801280319e-06, 0.013575652614235878, -0.006143298465758562, -0.016747739166021347, 0.0072578429244458675, 0.010945886373519897], [0.09490008652210236, -0.09899456799030304, -0.04313462972640991, 0.011539737693965435, -0.043317124247550964, -0.00017684369231574237, -0.03337324410676956, -0.012833821587264538, -4.823755716643063e-06, -0.06289105117321014, -6.455350387568615e-08, -0.024434585124254227, 0.012141023762524128, -0.06557253003120422, -0.06286274641752243, -0.08148659765720367], [6.463575230597485e-10, 6.392995577364502e-10, 2.1104357844636823e-11, 2.7559616810890475e-09, 2.5932738179079706e-09, 1.395138587989564e-10, 6.428474419450936e-10, 7.199153495562882e-10, 9.561197794323399e-15, -1.82927117897691e-10, 1.2773746429638362e-14, -3.0625857405652823e-09, 1.59811541777799e-09, 7.326563244980377e-10, -1.6482453180088896e-09, 2.6379498585527017e-10], [-0.14853817224502563, -0.16242292523384094, 0.0048506539314985275, -0.11375916749238968, -0.12123776972293854, -0.07455834746360779, -0.04417746141552925, -0.0181540809571743, 1.400732685397088e-06, -0.008409354835748672, 4.021192410164076e-07, 0.10634627193212509, -0.02488619089126587, -0.06826142966747284, 0.1039540246129036, -0.0183119997382164], [-1.451374354033419e-09, -1.1086691564798912e-09, 1.1609269101597874e-10, -1.524790849138924e-10, -3.306782070389147e-10, -1.1807138600161693e-09, -3.835279593911167e-10, -8.699412301638176e-10, 3.0580532138675676e-14, -5.882208053975546e-10, -3.2426457488099816e-14, 9.130452505168307e-10, 8.903113662972473e-11, -5.686925930170617e-10, -1.0802865546555296e-10, 2.5712999437987882e-11], [0.04430057108402252, 0.02691006287932396, 0.14245106279850006, 0.027334541082382202, -0.12522590160369873, 0.03255182132124901, -0.04321428760886192, 0.026307158172130585, -2.3971210794115905e-06, 0.03342467546463013, -5.27250767845544e-06, 0.09321222454309464, 0.03758557513356209, -0.059288445860147476, -0.009174122475087643, 0.016242116689682007], [-0.18858830630779266, -0.31948646903038025, 0.0318886898458004, 0.0003741213877219707, -0.10205470770597458, -0.1512886881828308, -0.062223874032497406, -0.07087761163711548, -1.3553108146879822e-06, -0.08191835135221481, -4.0157607372748316e-07, 0.12927058339118958, 0.06831314414739609, -0.11707279086112976, -0.0679459273815155, -0.03431529551744461], [-0.012945165857672691, -0.05651432275772095, -0.008589345961809158, 0.005064426921308041, -0.00673456909134984, -0.036664411425590515, -0.024978822097182274, -0.03158993646502495, -2.4303319605678553e-06, -0.0026939050294458866, 1.4847084912616992e-06, 0.009920625947415829, 0.018622687086462975, -0.04220011085271835, -0.033164139837026596, -0.014661326073110104], [0.09589368849992752, 0.04540814086794853, 0.015555458143353462, -0.13124285638332367, -0.02382623590528965, 0.025197606533765793, -0.019591020420193672, -0.07765299081802368, -4.134400114708114e-06, -0.07979682832956314, -5.002080797567032e-06, 0.04177999123930931, -0.02334463968873024, -0.016103854402899742, 0.10175563395023346, -0.00372650776989758], [-0.11886022984981537, -0.13456180691719055, 0.012194684706628323, 0.014318309724330902, -0.04289102554321289, -0.0943855568766594, -0.03972417488694191, -0.041516851633787155, -1.0594746527203824e-05, -0.02528523840010166, 2.6508178052608855e-06, 0.04782355949282646, 0.0293431393802166, -0.07054261118173599, -0.05202939733862877, -0.002514755120500922]], "lstm.bias_ih_l0": [0.21034671366214752, 0.16104595363140106, 0.42022228240966797, 0.285201758146286, 0.2842273712158203, 0.17605525255203247, 0.037946928292512894, 0.23374737799167633, -2.2810084931990104e-09, 0.22946284711360931, 1.260476945041944e-09, 0.17597351968288422, 0.23458953201770782, 0.07838651537895203, 0.3992256820201874, 0.2919711768627167, 0.2886327803134918, 0.2701934576034546, -0.038588494062423706, -0.055321067571640015, 0.20853954553604126, 0.20329804718494415, 0.042573705315589905, 0.2787412405014038, 2.985342251182743e-10, 0.15268629789352417, 1.2608046828788133e-09, 0.4547209143638611, 0.12931343913078308, 0.11249565333127975, 0.1092933639883995, -0.07460007816553116, 0.16110675036907196, -0.1409391462802887, 0.12063606083393097, 0.029444517567753792, -0.15437693893909454, 0.1075214371085167, -0.13006804883480072, 0.05237599089741707, -1.9999693904537708e-05, -0.017885247245430946, -5.289910859573865e-06, -0.0607343353331089, -0.06626933813095093, -0.21606218814849854, -0.20746293663978577, -0.07220110297203064, 0.2949119806289673, 0.30346915125846863, 0.4227484166622162, 0.38332536816596985, 0.2707073390483856, 0.19164347648620605, 0.04191778600215912, 0.26973655819892883, -2.2810109356896646e-09, 0.2034272849559784, 1.2604705057484011e-09, 0.3079228103160858, 0.21982960402965546, 0.09690738469362259, 0.2636871337890625, 0.306622177362442], "lstm.bias_hh_l0": [0.21034671366214752, 0.16104595363140106, 0.42022228240966797, 0.28506627678871155, 0.28422728180885315, 0.17605523765087128, 0.037946928292512894, 0.23374737799167633, -2.2810084931990104e-09, 0.22946281731128693, 1.260476945041944e-09, 0.1757703423500061, 0.23458753526210785, 0.07838651537895203, 0.400156170129776, 0.29197442531585693, 0.2886327803134918, 0.2701933979988098, -0.03869640454649925, -0.06028924137353897, 0.2085423469543457, 0.2033137083053589, 0.042573705315589905, 0.2787342965602875, 2.985342251182743e-10, 0.15268661081790924, 1.2608046828788133e-09, 0.4569590091705322, 0.12917464971542358, 0.11249565333127975, 0.11549437046051025, -0.07424207031726837, 0.15592890977859497, -0.1902402639389038, 0.09343786537647247, -0.07392369210720062, -0.12874260544776917, 0.037699129432439804, -0.13087862730026245, 0.0909116342663765, -1.9999693904537708e-05, -0.0840427353978157, -5.289910859573865e-06, 0.009009170345962048, 0.061537910252809525, -0.21704579889774323, -0.18129587173461914, -0.08277091383934021, 0.2949119806289673, 0.30346915125846863, 0.4227483868598938, 0.3827470541000366, 0.2706841826438904, 0.19164402782917023, 0.04191778600215912, 0.26973631978034973, -2.2810109356896646e-09, 0.203427255153656, 1.2604705057484011e-09, 0.3069157898426056, 0.21980200707912445, 0.09690738469362259, 0.24329334497451782, 0.3069062829017639], "dense.weight": [[-0.08024660497903824, 0.32787731289863586, -0.024236269295215607, -1.2112749814987183, -0.43544211983680725, 0.09440615773200989, 0.035432811826467514, 0.25150564312934875, 3.6777215427719057e-05, -0.5607144832611084, -1.3938081792730372e-05, 0.604656457901001, 0.8018546104431152, 0.06111185997724533, 0.4876643121242523, -0.4746500253677368]], "dense.bias": [0.03313480317592621]}