{"lstm.weight_ih_l0": [[0.0338163860142231, 0.05573182925581932], [-0.030864983797073364, 0.03720501810312271], [0.0589781291782856, 0.08154696971178055], [0.03866727650165558, 0.04620971158146858], [0.03442970663309097, 0.1578802466392517], [0.09428170323371887, 0.1724373996257782], [-0.03327065706253052, -0.09285882115364075], [0.011480750516057014, 0.04167860373854637], [0.009933562017977238, -0.17671562731266022], [0.0345257930457592, -0.015145029872655869], [-0.03359048813581467, -0.08694048225879669], [0.11456701904535294, -0.13833095133304596], [-0.004215450491756201, -0.024279067292809486], [0.009682169184088707, 0.009815468452870846], [-0.16059598326683044, -0.8022788763046265], [-0.07057645171880722, 0.20664048194885254], [0.07148388028144836, 0.028555626049637794], [-0.06784862279891968, 0.01659458316862583], [0.1008823812007904, -0.009742343798279762], [0.08543139696121216, 0.3222636580467224], [0.04602446407079697, 0.08676224946975708], [0.16284970939159393, 0.24332241714000702], [0.0030711283907294273, 0.014754756353795528], [0.0019049497786909342, 0.045376814901828766], [0.0042716809548437595, -0.0711396262049675], [0.0414360836148262, -0.1043180525302887], [-0.039481665939092636, -0.17884650826454163], [0.018503651022911072, -0.030531790107488632], [0.009557400830090046, -0.030330361798405647], [0.007536857854574919, -0.02127273939549923], [-0.07985369116067886, -0.5450509190559387], [-0.09613737463951111, 0.29793596267700195], [-0.13811291754245758, -0.23365628719329834], [0.19439879059791565, -0.32408761978149414], [0.5448028445243835, 0.259742796421051], [0.21033373475074768, -0.5411222577095032], [-0.3030630648136139, -0.3579077422618866], [-0.0694449171423912, 0.4364481270313263], [-0.5381762385368347, -0.27441301941871643], [0.3152872622013092, -0.13899002969264984], [-1.255807876586914, -0.060827359557151794], [-0.31944382190704346, -0.20379430055618286], [-0.19272711873054504, 0.0436800941824913], [-0.24837931990623474, -0.04310065880417824], [0.5098199248313904, -0.41257399320602417], [-0.22033992409706116, -0.020812075585126877], [2.665511131286621, 0.11282957345247269], [0.08803076297044754, -0.3956278860569], [0.063238225877285, 0.03649090230464935], [-0.03428078815340996, 0.023814445361495018], [0.08206278085708618, 0.12030475586652756], [-0.19372564554214478, 0.08177993446588516], [0.12733013927936554, -0.1405099481344223], [0.1003682091832161, 0.2520737946033478], [-0.03536151349544525, -0.05800478160381317], [0.011097059585154057, 0.04629678279161453], [0.018401630222797394, -0.2416684776544571], [0.06426765769720078, 0.03155343234539032], [-0.11420539766550064, -0.15166617929935455], [0.10844564437866211, -0.07702168077230453], [-0.00734869996085763, -0.1610577255487442], [0.008115166798233986, -0.006377432029694319], [-0.13802869617938995, -0.4258362650871277], [0.007055365480482578, 0.1650140881538391]], "lstm.weight_hh_l0": [[0.028868990018963814, 0.05419998988509178, 0.041807401925325394, -0.016120348125696182, -0.032497625797986984, -0.013657567091286182, 0.019950302317738533, 0.051499608904123306, -0.02290322445333004, 0.02585173211991787, -0.03327949717640877, 0.017441071569919586, -0.04321880638599396, -0.022002918645739555, -0.03170626610517502, 0.043121129274368286], [-0.00592770054936409, 0.03874995559453964, 0.028102882206439972, -0.0269292201846838, -0.0066302199847996235, 0.021171750500798225, 0.031107494607567787, 0.01991705782711506, 0.021669426932930946, 0.02979356423020363, -0.06861551851034164, -0.007515647914260626, -0.012834828346967697, -0.02577950991690159, -0.05772358179092407, 0.04702925309538841], [0.010285724885761738, 0.014188672415912151, 0.10244046896696091, 0.06873137503862381, -0.06352625787258148, -0.011455054394900799, -0.07541956752538681, -0.0014591539511457086, -0.05368240177631378, 0.017308328300714493, 0.0451863631606102, 0.14046001434326172, 0.009938647970557213, -0.01829647831618786, 0.0025630767922848463, -0.17632746696472168], [0.031314026564359665, -0.07329662889242172, 0.15264847874641418, 0.2232065200805664, -0.0534038171172142, 0.12091159075498581, -0.0631508007645607, -0.02168438397347927, -0.03923219442367554, -0.08299414813518524, 0.09048651158809662, -0.007773411460220814, 0.020416773855686188, -0.02570105530321598, 0.2591836452484131, 0.04693916067481041], [0.016915105283260345, -0.01872534118592739, 0.062395550310611725, -0.0025865877978503704, -0.052529022097587585, -0.002522525377571583, -0.04130380600690842, 0.008104431442916393, -0.04892902448773384, -0.011143133975565434, 0.05039333924651146, 0.07079785317182541, -0.013911780901253223, -0.011783670634031296, -0.009634086862206459, -0.08625827729701996], [-0.03149690106511116, 0.010309819132089615, 0.05923090875148773, -0.061528850346803665, -0.01916441135108471, 0.07074006646871567, -0.01572670042514801, 0.011172406375408173, -0.05467972159385681, 0.01450638473033905, -0.03337891027331352, -0.01645565591752529, 0.003556567709892988, -0.029802177101373672, -0.002944622188806534, -0.014829491265118122], [0.05441634729504585, 0.03814462944865227, 0.032946642488241196, -0.006010683719068766, -0.03583648055791855, -0.05249221250414848, 0.03376375138759613, 0.001506208791397512, -0.04252738878130913, 0.04194573312997818, 0.0108867809176445, 0.023321982473134995, -0.03223034739494324, 0.0008552765939384699, -0.08550810813903809, -0.05846591293811798], [0.01491892896592617, 0.0215626060962677, 0.06469041109085083, 0.021452462300658226, -0.034466005861759186, 0.01431695744395256, -0.001028177561238408, 0.025216948240995407, -0.005194658879190683, -0.01575537957251072, -0.04103336110711098, -0.003925558645278215, -0.009771655313670635, -0.032033514231443405, 0.023740554228425026, 0.0029684617184102535], [0.13170133531093597, 0.17906975746154785, 0.0064142015762627125, 0.08694762736558914, 0.048955127596855164, -0.12864413857460022, 0.1833837479352951, 0.14375320076942444, 0.007335249334573746, 0.11944770067930222, -0.12197257578372955, 0.02885577082633972, -0.03650082275271416, -0.04378478229045868, -0.06065819412469864, 0.2220001369714737], [-0.018992772325873375, 0.006170571781694889, -0.1033606082201004, -0.0837029367685318, 0.029661165550351143, -0.041574783623218536, 0.014595489017665386, -0.0077504306100308895, -0.047153789550065994, 0.115700364112854, 0.05883033573627472, 0.10189270973205566, -0.01721472665667534, 0.029221808537840843, -0.14544276893138885, 0.02071608044207096], [0.017021939158439636, 0.06181902065873146, 0.07478482276201248, -0.03834530711174011, -0.01244609896093607, 0.03473469614982605, 0.02667982503771782, 0.03866147994995117, -0.03451099246740341, -0.0029407956171780825, -0.12245278060436249, -0.05061069130897522, 0.03551606833934784, -0.0422138050198555, -0.08594449609518051, 0.033235665410757065], [0.1353112757205963, 0.09315235912799835, 0.11204446852207184, 0.23792342841625214, -0.011630095541477203, -0.04913869872689247, 0.08485694229602814, 0.11337800323963165, -0.04618477821350098, 0.04317127913236618, -0.05057447776198387, -0.0711747407913208, -0.006983124651014805, -0.06301560997962952, 0.40426674485206604, -0.005300029646605253], [0.04960288852453232, 0.02260470949113369, 0.01381529588252306, 0.0404624380171299, 0.0022981863003224134, -0.005616388749331236, 0.0464736670255661, 0.021913617849349976, -0.019543994218111038, 0.01401290949434042, 0.001350310049019754, -0.00017227247008122504, -0.001957191154360771, -0.013253828510642052, 0.04510531574487686, 0.04350663721561432], [0.005146345589309931, 0.002895581303164363, 0.05943674221634865, 0.010261988267302513, -0.012265586294233799, 0.009905297309160233, -0.006714029237627983, 0.0036686183884739876, -0.005862809251993895, -0.004417909309267998, 0.010197712108492851, 0.0009516885620541871, 0.002815229119732976, -0.010657018981873989, 0.010042388923466206, -0.032336946576833725], [0.2423580139875412, 0.2513103187084198, -0.1706988662481308, 0.5961365699768066, 0.3139917850494385, -0.22288091480731964, 0.3572792410850525, 0.08940146863460541, 0.06399686634540558, 0.3140393793582916, -0.06483718007802963, 0.06675766408443451, 0.15126702189445496, 0.015879454091191292, 0.012065528891980648, 0.27061453461647034], [-0.07208729535341263, 0.019080275669693947, -0.10554032772779465, -0.163465216755867, -0.020731598138809204, -0.04880222678184509, -0.03425854444503784, -0.03695160523056984, 0.07732974737882614, 0.012951819226145744, -0.01972230151295662, 0.10512494295835495, -0.05966206640005112, 0.03168313205242157, -0.28572219610214233, -0.04788611829280853], [0.026807913556694984, 0.0684250146150589, 0.007103793788701296, -0.011814691126346588, -0.01453664992004633, -0.025677334517240524, 0.037738919258117676, 0.057838182896375656, -0.03879792243242264, 0.05804174020886421, -0.028563467785716057, 0.026853548362851143, -0.04058445617556572, -0.01663057878613472, -0.03282671049237251, 0.051146384328603745], [-0.0315205380320549, 0.0510605052113533, -0.03966473788022995, -0.0645381286740303, 0.03572678938508034, 0.0017057009972631931, 0.05304885655641556, 0.002104362240061164, 0.044167209416627884, 0.08345212042331696, -0.06434892117977142, 0.031010132282972336, -0.010532678104937077, -0.006448082160204649, -0.17097017168998718, 0.08559300750494003], [0.10480868816375732, 0.08268288522958755, 0.21457578241825104, 0.23055563867092133, -0.06419642269611359, -0.060072317719459534, -0.033397842198610306, 0.1242208406329155, -0.098706915974617, 0.02012781612575054, -0.03128281980752945, 0.10904747247695923, 0.03244616091251373, -0.1285984218120575, 0.0035652026999741793, -0.09926595538854599], [-0.08500596880912781, -0.10437969863414764, 0.10937124490737915, 0.03659281134605408, -0.03222343698143959, 0.23702029883861542, -0.1590479463338852, -0.05265488848090172, -0.13580051064491272, -0.04681358113884926, 0.08115056902170181, 0.021133601665496826, 0.05984601378440857, 0.02312282845377922, 0.5515892505645752, 0.14284205436706543], [0.04531814157962799, -0.002284109126776457, 0.10263501107692719, 0.04130380228161812, -0.07347413897514343, -0.020859716460108757, -0.039530199021101, 0.03507183492183685, -0.06012381985783577, -0.016630932688713074, 0.03511670231819153, 0.09588275104761124, -0.0076591214165091515, -0.03263377770781517, -0.00604318967089057, -0.10497856140136719], [-0.03279440477490425, 0.02016020566225052, 0.06468681991100311, -0.022268299013376236, -0.006301251705735922, 0.1541273593902588, -0.03523769602179527, 0.03059280477464199, -0.0914069339632988, 0.030655216425657272, -0.06281624734401703, -0.048247627913951874, 0.03419092670083046, -0.0566183403134346, 0.08433016389608383, -0.07953344285488129], [0.10100508481264114, 0.0739651769399643, 0.003098635468631983, 0.017689594998955727, -0.055320266634225845, -0.03116699680685997, 0.035847004503011703, 0.006683324929326773, -0.08955150842666626, 0.09771201014518738, 0.037026140838861465, -0.0165006872266531, -0.013574869371950626, 0.00797099620103836, -0.01109222136437893, -0.012224449776113033], [0.02527276612818241, 0.019196679815649986, 0.08707435429096222, 0.023360898718237877, -0.04346736893057823, 0.012285587377846241, 0.003271746449172497, 0.03457058593630791, -0.004517565947026014, -0.02030334807932377, -0.04921925812959671, -0.002560441615059972, -0.01655026711523533, -0.03956572338938713, 0.030531227588653564, 0.012549953535199165], [0.029779991135001183, 0.0723683089017868, -0.03097541071474552, -0.03151797130703926, 0.05505675822496414, -0.09175598621368408, 0.07675674557685852, 0.03953581675887108, -0.008692958392202854, 0.08497535437345505, -0.001588525134138763, 0.10503145307302475, -0.027388112619519234, 0.00772935152053833, -0.0994703397154808, 0.03895622864365578], [0.035143814980983734, 0.07607979327440262, -0.14295481145381927, -0.09287039190530777, 0.08865535259246826, -0.08360140770673752, 0.14733944833278656, 0.031017117202281952, -0.06956937909126282, 0.25436970591545105, 0.04863867163658142, 0.125971257686615, -0.017516745254397392, 0.02660873718559742, -0.27376413345336914, 0.1428254246711731], [0.08581165969371796, 0.12463817745447159, 0.1638149619102478, 0.06534130871295929, -0.020084332674741745, 0.03702283278107643, 0.07764068245887756, 0.09392338991165161, -0.06753712147474289, 0.002334379591047764, -0.24192088842391968, -0.12971916794776917, 0.06988199055194855, -0.09721360355615616, -0.0712013766169548, 0.07112075388431549], [0.07347726821899414, -0.030357200652360916, 0.023081811144948006, 0.22553099691867828, 0.06491424888372421, -0.062372561544179916, 0.06420321762561798, 0.0007283413433469832, 0.031119927763938904, 0.0955539345741272, 0.257793128490448, 0.07051143050193787, -0.07277239859104156, 0.02417854405939579, 0.22244885563850403, -0.10709940642118454], [0.044669270515441895, 0.011175752617418766, -0.006430354900658131, 0.011446075513958931, 0.0020679172594100237, -0.011974995955824852, 0.031088609248399734, 0.022823516279459, -0.02922283299267292, -0.015537697821855545, 0.013458231464028358, 0.009975507855415344, -0.014417381025850773, -0.006189047358930111, 0.06308247148990631, 0.037376612424850464], [0.014746561646461487, 0.013888668268918991, 0.03824455663561821, 0.014799359254539013, -0.007776805665344, -0.00017900649982038885, 0.007356275804340839, 0.010937747545540333, -0.008172283880412579, -0.0021091594826430082, -0.0014031575992703438, -0.0064032962545752525, 0.009386568330228329, -0.014366290532052517, 0.01067168079316616, -0.012983874417841434], [0.21111737191677094, 0.06480240821838379, -0.0879412516951561, 0.5244647860527039, 0.15336401760578156, -0.20173047482967377, 0.1303764134645462, 0.012678402476012707, -0.04954848811030388, 0.06143626943230629, 0.07632796466350555, 0.44318607449531555, 0.13415606319904327, -0.0020218908321112394, 0.02299063839018345, -0.060447677969932556], [-0.08746424317359924, 0.024850428104400635, -0.1670479029417038, -0.15997572243213654, -0.04024484008550644, -0.09651855379343033, -0.060800742357969284, -0.059082992374897, 0.12469078600406647, 0.012419141829013824, -0.017589041963219643, 0.1651446670293808, -0.08938062936067581, 0.051561348140239716, -0.3107028603553772, -0.17992712557315826], [-0.0021236420143395662, 0.16528472304344177, -0.18063516914844513, 0.20020326972007751, 0.0817808285355568, -0.27293631434440613, 0.007947387173771858, 0.19254028797149658, -0.35456210374832153, 0.03095780685544014, 0.09072554111480713, 0.025332922115921974, 0.2713085412979126, -0.08148659765720367, 0.41043516993522644, 0.0743803158402443], [0.0030499515123665333, 0.06889446079730988, 0.15575401484966278, 0.08983784168958664, 0.09075165539979935, -0.11765521764755249, 0.05647417902946472, 0.018672367557883263, 0.17212069034576416, 0.03869147598743439, -0.23976358771324158, 0.10682886838912964, 0.19807085394859314, -0.10731587558984756, -0.34744101762771606, -0.11193998903036118], [0.11181046068668365, -0.16728298366069794, 0.0944877415895462, 0.1809290200471878, -0.11995092034339905, 0.056691356003284454, -0.15843570232391357, 0.23739545047283173, -0.1341707408428192, 0.06531202793121338, -0.05098915472626686, -0.1894265115261078, 0.2148609310388565, -0.06245599314570427, 0.4322372078895569, -0.15299934148788452], [-0.0019014390418305993, -0.05714072287082672, -0.04973389953374863, 0.1801231950521469, -0.058983732014894485, -0.49960365891456604, -0.5512107014656067, -0.035676006227731705, -0.050821173936128616, -0.062221214175224304, 0.2533167004585266, -0.1808134764432907, 0.1187475398182869, 0.05805044621229172, 1.095340371131897, -0.15774361789226532], [0.09516501426696777, 0.036061760038137436, -0.24933063983917236, 0.11176693439483643, 0.06630159914493561, -0.1658000499010086, 0.250516802072525, -0.14985646307468414, 0.05352148413658142, 0.18116368353366852, 0.06974434852600098, 0.02175646647810936, 0.09285467118024826, 0.04366132989525795, -0.1789548695087433, 0.04083514213562012], [0.09591115266084671, -0.12644141912460327, -0.008737745694816113, -0.13564574718475342, -0.005736368242651224, 0.08378788828849792, 0.12555021047592163, 0.14234381914138794, -0.19323667883872986, -0.06332281976938248, -0.13434498012065887, -0.1772051751613617, -0.07626134902238846, -0.08709277212619781, 0.3359931707382202, 0.03154366835951805], [0.23279869556427002, 0.27441635727882385, -0.24735012650489807, 0.1661464273929596, 0.009661396034061909, -0.27869683504104614, -0.06553393602371216, 0.23141084611415863, -0.22192245721817017, 0.05949968844652176, 0.07187519967556, -0.1324497014284134, -0.08784224092960358, 0.04349055886268616, -0.04193712770938873, 0.2552841305732727], [-0.023829933255910873, 0.1578749716281891, 0.08902844041585922, 0.10128745436668396, -0.009979878552258015, -0.14154364168643951, 0.11944390088319778, 0.09159742295742035, 0.09539458900690079, 0.045361120253801346, -0.131830096244812, 0.15978902578353882, 0.09148499369621277, 0.059605833142995834, 0.034506697207689285, 0.14101964235305786], [0.007437670603394508, 0.126704603433609, 0.05597289279103279, -0.006701919715851545, 0.011701555922627449, 0.19924388825893402, 0.2601807713508606, -0.06241659075021744, 0.09398909658193588, -0.08323170244693756, -0.07871286571025848, 0.19776737689971924, -0.20755429565906525, 0.2232060730457306, 0.10420528054237366, -0.15608027577400208], [0.008612986654043198, -0.009093888103961945, -0.2611139714717865, -0.0444873683154583, 0.1647941768169403, -0.16699238121509552, 0.1574532389640808, 0.007406668737530708, 0.051995303481817245, 0.2582453787326813, 0.04531029611825943, 0.024600746110081673, 0.0599871464073658, 0.0555705763399601, -0.12735289335250854, 0.02404121309518814], [0.08851258456707001, -0.1253809928894043, -0.25471362471580505, -0.23289811611175537, 0.02562989853322506, -0.12376569956541061, -0.05971704050898552, -0.15439526736736298, -0.0630597397685051, 0.16135983169078827, 0.46889567375183105, 0.15086980164051056, -0.013595227152109146, 0.1322791874408722, 0.370647132396698, -0.13952213525772095], [-0.026908593252301216, -0.054365042597055435, -0.1583677977323532, 0.3348730504512787, 0.2673582136631012, 0.32212960720062256, 0.059122975915670395, -0.26722338795661926, 0.37244054675102234, 0.020115245133638382, -0.09900524467229843, 0.598854660987854, 0.21972225606441498, 0.09986896812915802, -0.6496175527572632, -0.38678860664367676], [-0.12302953004837036, 0.02421237714588642, -0.014595386572182178, 0.16795587539672852, 0.19895122945308685, 0.15386264026165009, 0.014010257087647915, 0.16153323650360107, 0.05284854769706726, -0.1674458235502243, -0.019761627539992332, 0.021292217075824738, -0.0012193504953756928, -0.17046436667442322, -0.09825064241886139, -0.1619279831647873], [-0.0794091522693634, 0.11281655728816986, -0.10240846127271652, -0.3151072561740875, 0.06739560514688492, -0.023786025121808052, 0.026222771033644676, -0.15197022259235382, -0.04763282835483551, -0.05982038751244545, 0.14998477697372437, 0.09747140854597092, -0.05447088181972504, 0.05891524255275726, -0.003596831811591983, 0.0765596330165863], [-0.13674692809581757, 0.2831327021121979, 0.016315003857016563, -0.14128237962722778, 0.031321942806243896, -0.34128960967063904, -0.2066928595304489, 0.15687721967697144, -0.7511743903160095, 0.00965429749339819, 0.050952207297086716, 0.06435226649045944, 0.3790254592895508, -0.019630182534456253, 0.8037805557250977, 0.3849470317363739], [-0.15333780646324158, 0.011812105774879456, 0.12647338211536407, -0.23266705870628357, 0.2206898182630539, -0.12834270298480988, 0.11678101122379303, -0.03579474985599518, -0.02061949484050274, 0.02388625778257847, 0.024104531854391098, -0.2340763658285141, 0.014408394694328308, 0.009170765988528728, -0.45536932349205017, 0.508369505405426], [0.03741305693984032, 0.05168357118964195, 0.04166440665721893, -0.008542879484593868, -0.031120741739869118, -0.010472940281033516, 0.02132050320506096, 0.053734928369522095, -0.03830211982131004, 0.029784752056002617, -0.02261764369904995, -0.015030942857265472, -0.04926405847072601, -0.02216930314898491, -0.031107082962989807, 0.03984290733933449], [-0.010665700770914555, 0.07103043794631958, -0.005585830193012953, -0.07267484813928604, 0.006492299027740955, -0.0018883317243307829, 0.04435759782791138, 0.02784794569015503, 0.010839412920176983, 0.06271862983703613, -0.0910458192229271, 0.03811504691839218, -0.013135915622115135, -0.01908392459154129, -0.06484447419643402, 0.08162898570299149], [-0.0065617989748716354, -0.005254798568785191, 0.029254140332341194, -0.010760920122265816, -0.09486166387796402, 0.029378535225987434, -0.08681147545576096, -0.007986318320035934, -0.08910132199525833, -0.026125798001885414, 0.06865066289901733, 0.1281002163887024, 0.009338630363345146, -0.046293050050735474, -0.04774363711476326, -0.1597449630498886], [-0.04220684617757797, -0.006481696851551533, 0.12446185201406479, 0.0497809462249279, -0.015019930899143219, 0.12411195784807205, -0.015878835693001747, -0.06484073400497437, 0.03451742231845856, -0.032993339002132416, -0.05900878831744194, 0.21277743577957153, 0.0134992441162467, -0.03891905024647713, -0.2862781584262848, 0.06575559079647064], [0.03688819706439972, 0.012545355595648289, -0.06061798706650734, 0.030697748064994812, -0.03615117818117142, -0.07499745488166809, -0.039829131215810776, 0.03665900602936745, -0.05386020615696907, -0.005734578240662813, 0.031378332525491714, 0.1621410846710205, 0.0022949485573917627, -0.03452527895569801, -0.10544252395629883, -0.13470089435577393], [-0.033084843307733536, 0.002853413112461567, 0.09918876737356186, -0.06709643453359604, -0.04709094762802124, 0.10093502700328827, -0.03990583494305611, 0.012175819836556911, -0.08397146314382553, 0.0010327640920877457, -0.03808116540312767, -0.03354635834693909, -0.005974929314106703, -0.04090972989797592, 0.04137880355119705, -0.025599630549550056], [0.07858666032552719, 0.06877555698156357, -0.08638077974319458, 0.021404962986707687, -0.017358623445034027, -0.08184291422367096, 0.13577987253665924, 0.021154960617423058, -0.01857723481953144, 0.13867293298244476, 0.02536757104098797, 0.026339685544371605, -0.04477684199810028, 0.00910135917365551, -0.13569191098213196, -0.027365125715732574], [0.012431013397872448, 0.025483988225460052, 0.07186145335435867, 0.010237356647849083, -0.03786114975810051, 0.012264302931725979, -0.002802312606945634, 0.024219924584031105, -0.00853249803185463, -0.012490054592490196, -0.046915020793676376, 0.00042687670793384314, -0.00998042430728674, -0.0334533229470253, 0.0312797836959362, 0.005194030702114105], [0.14592806994915009, 0.18851147592067719, 0.013099794276058674, 0.10738592594861984, 0.06731776148080826, -0.1515878587961197, 0.20194567739963531, 0.15119293332099915, -0.006583890877664089, 0.13286012411117554, -0.13373439013957977, 0.020280133932828903, -0.02722499892115593, -0.04519038647413254, -0.034676410257816315, 0.24584704637527466], [0.018139071762561798, 0.002546414267271757, -0.05325137823820114, -0.08406480401754379, 0.010443241335451603, -0.027113912627100945, 0.034475620836019516, 0.005367062985897064, -0.08636060357093811, 0.11131711304187775, 0.07793689519166946, 0.0861075222492218, -0.013101119548082352, 0.012960369698703289, -0.12382569164037704, 0.031927186995744705], [0.05147076025605202, 0.11150122433900833, 0.07652933895587921, -0.008705554530024529, 0.011004245840013027, 0.018733538687229156, 0.09058055281639099, 0.06616601347923279, 0.007423285394906998, 0.032109297811985016, -0.19218552112579346, -0.07089480757713318, 0.048269759863615036, -0.060357242822647095, -0.12600058317184448, 0.07921513170003891], [0.11139378696680069, 0.07899337261915207, 0.138466477394104, 0.24584408104419708, -0.022424105554819107, -0.036897048354148865, 0.06389962881803513, 0.10067877173423767, -0.029798956587910652, 0.047253016382455826, -0.013196014799177647, -0.06601633876562119, -0.03984164074063301, -0.05820054933428764, 0.38154083490371704, -0.024859678000211716], [0.06409181654453278, 0.0432140938937664, -0.019220417365431786, 0.10985984653234482, -0.042919136583805084, -0.020885154604911804, 0.05142926424741745, 0.04164610430598259, -0.011080305092036724, 0.0016962457448244095, 0.010685885325074196, 0.004805406089872122, 0.001586147933267057, -0.01344944816082716, 0.08597368746995926, 0.02774839662015438], [0.002369711874052882, -0.0023049842566251755, 0.04173886775970459, 0.0003003300225827843, -0.003062115516513586, 0.005139201879501343, -0.0036974565591663122, -0.008852711878716946, -0.002044630004093051, -0.0051344698294997215, 0.00829173531383276, 0.01325325109064579, 0.005810962989926338, -0.003209885209798813, -0.006033854093402624, -0.031236741691827774], [0.1949307769536972, 0.17110028862953186, -0.1180410236120224, 0.4874424934387207, 0.21608185768127441, -0.17899836599826813, 0.23673251271247864, 0.05097917839884758, 0.036523591727018356, 0.2150174379348755, 0.0007303225575014949, 0.2831023931503296, 0.08909284323453903, -0.0030890433117747307, -0.15950922667980194, 0.17565271258354187], [-0.07958977669477463, 0.05193456634879112, -0.2061549872159958, -0.1934441477060318, 0.016867931932210922, -0.12232869863510132, 0.0051343184895813465, -0.027288947254419327, 0.056934718042612076, 0.06894447654485703, -0.029834022745490074, 0.15806399285793304, -0.07034028321504593, 0.05543655529618263, -0.3347555100917816, 0.03296220302581787]], "lstm.bias_ih_l0": [0.21224342286586761, 0.14933782815933228, 0.20847810804843903, 0.3038962483406067, 0.16705083847045898, 0.18355095386505127, 0.1622459590435028, 0.11578889191150665, 0.3484957218170166, 0.09481982886791229, 0.12947800755500793, 0.29496321082115173, 0.19106407463550568, 0.0014701520558446646, 0.6450846195220947, 0.06833911687135696, -0.007083403877913952, 0.0741630420088768, 0.06680156290531158, 0.2837669849395752, 0.026864202693104744, 0.13954418897628784, 0.2988547682762146, 0.18149906396865845, 0.07710202038288116, 0.11242633312940598, 0.34545838832855225, 0.11434163898229599, 0.047252923250198364, -0.031942568719387054, 0.0949716791510582, 0.08544030040502548, 0.06812587380409241, 0.14134958386421204, 0.06929445266723633, 0.17521260678768158, -0.08056444674730301, 0.023585913702845573, 0.19616065919399261, 0.1363094002008438, -0.25237542390823364, -0.12013129889965057, 0.09535717219114304, 0.15243491530418396, 0.08975967764854431, -0.18748395144939423, -0.1416725069284439, 0.12755313515663147, 0.052027471363544464, 0.17459598183631897, 0.2585475742816925, 0.47407230734825134, -0.012438631616532803, 0.20986883342266083, 0.23830191791057587, 0.04583283141255379, 0.2557000517845154, 0.1767532080411911, 0.15981851518154144, 0.33019766211509705, -0.02682466059923172, -0.05959721654653549, 0.6390095949172974, 0.20886780321598053], "lstm.bias_hh_l0": [0.18982690572738647, 0.18366874754428864, 0.13734962046146393, 0.4472857713699341, 0.18175393342971802, 0.06257252395153046, 0.17208422720432281, 0.09513529390096664, 0.3468440771102905, 0.06177288666367531, 0.1499420404434204, 0.29459401965141296, 0.22636237740516663, 0.023282069712877274, 0.6646854877471924, 0.21858131885528564, 0.050905756652355194, 0.1268627643585205, 0.32382234930992126, 0.02957465685904026, 0.19726698100566864, 0.1495761126279831, -0.024197224527597427, 0.1196306049823761, -0.0050626094453036785, 0.1847943812608719, 0.3071247637271881, 0.13849440217018127, 0.07550425082445145, 0.14430764317512512, -0.019915826618671417, 0.11840753257274628, 0.17284534871578217, 0.04472046718001366, 0.151829332113266, -0.020427193492650986, 0.015557123348116875, -0.18476812541484833, -0.10798068344593048, 0.0314515195786953, 0.21782106161117554, 0.1321534663438797, -0.0354895256459713, 0.0981954038143158, -0.17543257772922516, 0.05962409824132919, 0.02476356364786625, 0.060063380748033524, 0.11417652666568756, 0.21741150319576263, 0.27304089069366455, 0.327923983335495, 0.11690371483564377, 0.2021956741809845, 0.147939994931221, 0.07503457367420197, 0.2748747766017914, 0.18178912997245789, 0.15605980157852173, 0.2900325059890747, 0.01868533529341221, 0.09152720123529434, 0.7782729268074036, 0.14031511545181274], "dense.weight": [[-0.2721482217311859, 0.37723875045776367, 0.34981971979141235, 0.6162869930267334, -0.42442429065704346, -0.13321904838085175, -0.18947675824165344, 0.10672331601381302, 0.4254123568534851, -0.29250240325927734, -0.33376389741897583, 0.5264983773231506, 0.02109239436686039, -0.18114495277404785, 0.850959837436676, -0.007332071661949158]], "dense.bias": [-0.03283069655299187]}