{"lstm.weight_ih_l0": [[-0.6240646243095398], [0.3469240367412567], [-0.0797128677368164], [0.47868266701698303], [0.19359153509140015], [-0.025481142103672028], [0.04147050529718399], [-0.030469823628664017], [0.15211288630962372], [0.5419794321060181], [-0.0960279330611229], [-0.14413076639175415], [0.0989607572555542], [-0.05503908544778824], [0.36432430148124695], [-0.011859104037284851], [0.018497439101338387], [-0.07733417302370071], [0.1116313636302948], [-0.19313189387321472], [-0.13367874920368195], [-0.007218742277473211], [-0.012167803943157196], [0.13643257319927216], [0.10882475972175598], [-0.045283183455467224], [0.10893159359693527], [0.3679371476173401], [0.16614890098571777], [0.36064469814300537], [0.06912662088871002], [0.15844550728797913], [-1.6400235891342163], [-0.05434432998299599], [-0.42475056648254395], [-0.013908586464822292], [0.1858207881450653], [-0.18082864582538605], [-0.02380291000008583], [-0.08590524643659592], [-0.4738895297050476], [0.6333107948303223], [-0.06409773230552673], [-0.3567875027656555], [0.3034984767436981], [0.021833768114447594], [-0.2040879726409912], [-0.38586339354515076], [-0.17850832641124725], [-0.20503336191177368], [0.2568014860153198], [-0.16759274899959564], [-0.06475186347961426], [0.028606226667761803], [-0.007305986247956753], [0.09606488794088364], [0.16594170033931732], [-0.002173606539145112], [0.3499641418457031], [0.1560726761817932], [0.49540555477142334], [-0.662648618221283], [0.17605635523796082], [0.25914859771728516], [1.2138339281082153], [1.4896001815795898], [0.8187634348869324], [0.8804806470870972], [0.04399240016937256], [1.08225417137146], [0.11452917754650116], [0.22211548686027527], [0.34321513772010803], [-0.06958533823490143], [-0.1044691726565361], [-0.5852723121643066], [1.6404269933700562], [1.1918102502822876], [-0.21012943983078003], [-1.2786071300506592], [0.3487100601196289], [0.29098138213157654], [1.3971439599990845], [-1.4564257860183716], [0.17781934142112732], [0.20371738076210022], [-0.12001793086528778], [1.0693888664245605], [-0.23032264411449432], [-0.17508631944656372], [1.154273509979248], [-0.5930048227310181], [-0.035147059708833694], [0.270228773355484], [0.21555474400520325], [0.6287477612495422], [-0.02412879653275013], [-0.05455847829580307], [0.028249910101294518], [0.3882698714733124], [0.16728563606739044], [0.1679234504699707], [1.2839752435684204], [-0.14720214903354645], [0.09900211542844772], [-1.1873157024383545], [0.19247086346149445], [-0.022085439413785934], [0.18483252823352814], [-0.3624527156352997], [0.0702725201845169], [-0.22404518723487854], [-0.03159713000059128], [0.8649119734764099], [0.1955188661813736], [-0.21529266238212585], [-0.14589093625545502], [0.45553725957870483], [0.43531185388565063], [-0.13542599976062775], [0.8399907946586609], [-0.03936537727713585], [0.16020552814006805], [0.23966658115386963], [0.8957007527351379], [-0.1178455501794815], [0.1022922694683075], [0.5690158009529114]], "lstm.weight_hh_l0": [[-0.6356683969497681, -0.4295247197151184, 0.05315405875444412, -0.9982843995094299, 0.07478039711713791, 0.23288539052009583, -1.0750395059585571, 0.01232905313372612, 0.034418340772390366, -0.6197840571403503, -0.7274523973464966, 0.43590471148490906, 0.4232024848461151, 0.47174614667892456, 0.0027288806159049273, -0.3424360454082489, 0.5047169923782349, 0.7840482592582703, -0.15063895285129547, -0.3341622054576874, 0.7187840342521667, -0.24385954439640045, -0.45799902081489563, -0.5524042248725891, 0.5749875903129578, -0.39234429597854614, 0.19864313304424286, 0.0646134465932846, -0.031655143946409225, -0.07952474057674408, -0.007422283757477999, -0.0977088063955307], [1.5207347869873047, 0.2671732008457184, -0.39320698380470276, -0.10520162433385849, -0.161946639418602, -0.06123000383377075, -0.38448190689086914, -0.24802324175834656, 0.7463691830635071, -0.5536161065101624, -0.3822973370552063, 0.4332437813282013, 1.062287449836731, 0.06648372858762741, -0.11853009462356567, 0.8955798745155334, -0.20486223697662354, 0.3354944586753845, -0.04123963788151741, -0.012931844219565392, 0.5723688006401062, 0.4729164242744446, -0.657666027545929, -0.08555397391319275, 0.36413466930389404, -0.42487359046936035, 0.6188376545906067, 0.3385002017021179, 0.007697667460888624, 0.19993656873703003, -0.021349472925066948, 0.04584682732820511], [0.4961530864238739, 0.38272374868392944, -0.09189765155315399, 0.3343892991542816, -0.04920853301882744, -0.030377646908164024, 0.00429127411916852, 0.006498223636299372, -0.3173695206642151, -0.2681659460067749, -0.10412177443504333, 0.24819564819335938, 0.4162609577178955, -0.23072032630443573, -0.1213122233748436, -0.32188960909843445, 0.2441602498292923, -0.006020599044859409, -0.07207735627889633, -0.2460392415523529, 0.1420896053314209, 0.1858670711517334, -0.1055503785610199, -0.13018938899040222, 0.1763952523469925, -0.039999451488256454, 0.121333546936512, 0.34682855010032654, -0.13469016551971436, -0.008033218793570995, 0.0228898748755455, 0.15256325900554657], [-0.09487765282392502, 0.2933177947998047, 0.13265842199325562, 0.34903019666671753, -0.17141763865947723, -0.41287481784820557, -0.21644951403141022, 0.07970225811004639, -0.5259208679199219, -0.2501072585582733, -0.2885451912879944, 0.4235951900482178, -0.049187641590833664, -0.18840594589710236, -0.03575572371482849, 0.632720947265625, -0.8351371884346008, 0.20525753498077393, 0.5382487773895264, 0.08182399719953537, 0.2531930208206177, 0.36822065711021423, -0.4278469979763031, -0.2227945774793625, 0.14011263847351074, -0.27117300033569336, 0.17622776329517365, 0.12959308922290802, -0.200119748711586, -0.13793666660785675, -0.1731640249490738, 0.30785125494003296], [-0.07272826880216599, -0.08238465338945389, 0.04261985048651695, -0.27151843905448914, -0.025502320379018784, 0.05265291780233383, -0.033804118633270264, 0.049925945699214935, 0.11437813192605972, -0.0627794861793518, -0.08603854477405548, 0.21630549430847168, 0.18627198040485382, 0.08736414462327957, -0.32222655415534973, 0.05169796571135521, -0.12834841012954712, 0.002651927061378956, -0.16914620995521545, -0.08902798593044281, 0.07931146025657654, -8.637687278678641e-05, -0.02281387336552143, -0.08891556411981583, -0.02893751673400402, 0.009306352585554123, 0.06548687815666199, 0.1317862570285797, 0.1541869044303894, 0.2023705542087555, 0.041073352098464966, 0.23285818099975586], [0.2114747017621994, -0.02495558001101017, 0.0026180329732596874, 0.0010912248399108648, -0.0040594167076051235, -0.23945936560630798, -0.00430173659697175, 0.02395748905837536, 0.00909047108143568, -0.006440199911594391, 0.0009680050425231457, -0.00268519576638937, -0.0047244424931705, -0.05144553631544113, 0.002058345591649413, -0.004850225523114204, -8.741296369407792e-06, 0.004088884685188532, 0.0009840917773544788, -0.0002468742895871401, 0.011965508572757244, -0.2134794443845749, 0.4536447525024414, -0.324235200881958, 0.002995097544044256, -0.00532561307772994, -0.023397544398903847, -0.0029710684902966022, -0.0038980452809482813, 0.004203511402010918, -0.0070043341256678104, 0.00011813691526185721], [-0.04618353769183159, 0.05072500556707382, 0.02996494248509407, 0.007490959484130144, -0.0031751086935400963, 0.010565496049821377, 0.06985251605510712, -0.0021554213017225266, -0.03805362060666084, 0.03519880771636963, 0.09516330808401108, -0.01567593775689602, 0.004763763397932053, -0.038478292524814606, 0.009995897300541401, -0.004851237405091524, 0.00012187293032184243, -0.07526843994855881, 0.06325046718120575, 0.015037654899060726, -0.10333240777254105, -0.03556258976459503, 0.08963795006275177, 0.1363898366689682, -0.02463524416089058, 0.004023980349302292, -0.045205894857645035, -0.030098434537649155, 0.001062552910298109, -0.04048357158899307, -0.012506749480962753, 0.01099544856697321], [0.06396252661943436, 0.26251423358917236, 0.18598702549934387, -0.15112145245075226, 0.0944768637418747, 0.009134963154792786, 0.05843402445316315, 0.08837366849184036, -0.1113354042172432, -0.0343010313808918, 0.02934730239212513, 0.1305355429649353, -0.03992321714758873, 0.005199022591114044, -0.10814189165830612, -0.031130541115999222, 0.13574934005737305, -0.09958577901124954, 0.040976449847221375, -0.2618570923805237, 0.06599199026823044, -0.02915915474295616, 0.049979016184806824, -0.04878498241305351, 0.03939580172300339, -0.010389650240540504, 0.07484856992959976, -0.43357834219932556, -0.2292620688676834, 0.08469820022583008, 0.0639021024107933, 0.01786305569112301], [0.40281105041503906, 0.5640491843223572, 0.01881854049861431, -0.27528148889541626, -0.21408388018608093, -0.27241456508636475, -0.5901115536689758, -0.2465934455394745, -0.16703614592552185, -0.2939711809158325, -0.5464980602264404, 0.3941352963447571, -0.09700894355773926, -0.08596750348806381, -0.0488256998360157, -0.8033038377761841, -0.19649389386177063, 0.7083536982536316, 0.6316148638725281, 0.26806387305259705, 0.45547056198120117, 0.35995668172836304, -0.45818400382995605, -0.4931989312171936, 0.39805880188941956, -0.15618960559368134, 0.5006199479103088, -0.18718083202838898, -0.0017613380914554, 0.45428547263145447, -0.1721774786710739, -0.4306464195251465], [-0.06825865060091019, -0.2512928545475006, 0.14446458220481873, 0.6609938740730286, 0.18757817149162292, -0.11509624123573303, -0.09306851029396057, -0.1101493164896965, 0.1327700912952423, 0.011443967930972576, -0.15845124423503876, -0.46936023235321045, 0.3662552833557129, 0.2035469263792038, 0.04784170910716057, -0.06462479382753372, -0.03018173947930336, 0.12848131358623505, 0.41225090622901917, -0.6230798959732056, 0.11483386158943176, 0.05077643692493439, -0.03927807882428169, -0.3191806375980377, -0.046444352716207504, -0.058757077902555466, 0.08216734975576401, -0.30563098192214966, -0.34680116176605225, 0.1267569363117218, 0.14135617017745972, 0.22908686101436615], [-0.06769335269927979, 0.010302608832716942, 0.009309180080890656, -0.004880542866885662, -0.0017005879199132323, -0.0008959980332292616, 0.07263404130935669, -0.006839534267783165, -0.04376642405986786, 0.055386852473020554, 0.11223789304494858, -0.006628533825278282, -0.02015824429690838, -0.015899233520030975, 0.013149150647222996, 0.007898026145994663, 0.00013750007201451808, -0.08215925097465515, 0.01645570434629917, 0.03474162146449089, -0.14583267271518707, -0.04122663289308548, 0.10573486238718033, 0.07611283659934998, -0.018465831875801086, 0.011444584466516972, -0.1462048590183258, -0.010888651013374329, 0.005981564521789551, -0.05009876564145088, -0.009394108317792416, 0.0027224337682127953], [0.6270858645439148, 0.5007607340812683, 0.09811396151781082, 0.7182536125183105, -0.01714356429874897, -0.2695244550704956, -0.3114492893218994, 0.06143571808934212, 0.28394097089767456, -0.3562851548194885, -0.2440151423215866, 0.050942979753017426, 0.010377749800682068, -0.5193800330162048, -0.14084473252296448, 0.20285539329051971, 0.15146173536777496, 0.16122999787330627, 0.2612079083919525, 0.31798991560935974, 0.30346742272377014, 0.39692530035972595, -0.27597394585609436, -0.30484288930892944, 0.27941304445266724, -0.20007458329200745, 0.26507458090782166, 0.6428176164627075, 0.34807896614074707, -0.5003049373626709, 0.023753643035888672, 0.07523118704557419], [0.2353881299495697, -0.41945433616638184, -0.1616078019142151, -0.4038015902042389, 0.1173616349697113, -0.03314327448606491, -0.09933215379714966, -0.14419536292552948, 0.25388383865356445, -0.1605081856250763, -0.17864525318145752, 0.0010978135978803039, 0.268723726272583, 0.13102030754089355, -0.03702623024582863, -0.622721791267395, 0.3401415944099426, 0.10741320252418518, 0.10687382519245148, 0.27971380949020386, 0.2679617702960968, 0.12565398216247559, -0.19063445925712585, -0.2990199029445648, 0.0958385318517685, -0.017141295596957207, 0.2850134074687958, 0.12280463427305222, -0.3719368577003479, 0.18731872737407684, -0.013103168457746506, 0.2036135196685791], [0.14733470976352692, -0.2044573873281479, -0.15025147795677185, 0.05411806330084801, -0.1055530309677124, 0.06763856112957001, 0.026759667322039604, 0.0113211115822196, 0.08256682753562927, -0.1250074952840805, -7.744624599581584e-05, 0.6136415600776672, -0.16770540177822113, -0.11109424382448196, -0.05297344550490379, 0.18628312647342682, -0.2760743200778961, -0.006408256478607655, -0.15019552409648895, 0.40595880150794983, 0.030048422515392303, -0.10585902631282806, 0.2812919616699219, 0.11253448575735092, 0.013244629837572575, 0.01595684513449669, -0.16412755846977234, -0.14785033464431763, -0.17813372611999512, -0.19383008778095245, -0.10093923658132553, 0.004122803453356028], [0.016345899552106857, -0.09752281755208969, 0.0014799280324950814, -0.014424806460738182, 0.08070334047079086, -0.10214657336473465, -0.15234892070293427, 0.1574762761592865, 0.030345579609274864, -0.19527219235897064, -0.1891120970249176, 0.16233621537685394, -0.3669266402721405, 0.18199661374092102, 0.281826913356781, 0.22987745702266693, 0.008448544889688492, 0.15461736917495728, -0.19762012362480164, -0.13885585963726044, 0.19091883301734924, 0.06964162737131119, -0.1604236364364624, -0.2274705171585083, 0.05705871805548668, -0.07015004009008408, 0.18246984481811523, -0.30156704783439636, 0.19094356894493103, -0.11002913117408752, 0.021807486191391945, -0.22630096971988678], [0.2594952881336212, 0.5689378380775452, 0.33038726449012756, 0.4138345420360565, 0.05809701234102249, -0.395285427570343, -0.5223453044891357, -0.16254988312721252, 0.3145096004009247, -0.5450851917266846, -0.5902481079101562, 0.080045185983181, 0.5347979068756104, -0.4378163516521454, -0.12393814325332642, 0.7812986969947815, 0.28125524520874023, 0.529779851436615, -0.1970382183790207, 0.09256759285926819, 0.7160069346427917, 0.37707841396331787, -0.34043657779693604, -0.41424694657325745, 0.33569416403770447, -0.4565030038356781, 0.36701834201812744, -0.13288913667201996, 0.28097328543663025, 0.4976844787597656, -0.06530345231294632, 0.08230546116828918], [0.07695124298334122, -0.2719917297363281, -0.3655939996242523, 0.631832480430603, 0.5882949829101562, -0.3189252018928528, -0.3313654363155365, -0.3140895664691925, -0.8916333913803101, -0.47997790575027466, -0.509523868560791, -0.4589146077632904, 0.16526103019714355, -0.22811128199100494, -0.22936274111270905, -0.06763868033885956, 1.067705750465393, 0.3171788454055786, -0.24522088468074799, 0.3333453834056854, 0.5000487565994263, 0.4620268940925598, -0.5386554598808289, -0.4594413638114929, 0.4044015407562256, -0.14906823635101318, 0.3666350543498993, 0.04868083447217941, 0.0876825824379921, 0.34028223156929016, 0.9211814999580383, -0.5102328658103943], [-0.04769910126924515, 0.0891382023692131, 0.057832982391119, -0.019991904497146606, 0.028706427663564682, 0.0004869620897807181, 0.11789156496524811, -0.032327838242053986, -0.06413177400827408, 0.0826571136713028, 0.12915362417697906, 0.04554840922355652, 0.0025406458880752325, 0.0006213836604729295, -0.0009203446097671986, -0.05972672626376152, 0.02100323513150215, -0.0838840901851654, 0.033583905547857285, -0.025893600657582283, -0.16157330572605133, -0.05028696730732918, 0.11097834259271622, 0.12031498551368713, -0.010217305272817612, 0.004820710979402065, -0.12378890067338943, -0.08656229823827744, 0.005774353165179491, 0.008014604449272156, -0.030743615701794624, 0.07878747582435608], [0.30353087186813354, 0.0028956213500350714, -0.36242836713790894, -0.2886560559272766, 0.3181992173194885, 0.1315499097108841, -0.025026047602295876, -0.015416021458804607, -0.22557435929775238, -0.13290193676948547, -0.08452091366052628, 0.7847850322723389, 0.4805176258087158, 0.056093715131282806, -0.18842898309230804, -0.40578341484069824, -0.4868747591972351, 0.1015358716249466, 0.19450391829013824, -0.04161033779382706, 0.07018762081861496, 0.016110263764858246, -0.04721694067120552, -0.004009915050119162, -0.06364994496107101, 0.018132304772734642, 0.08775540441274643, -0.4356240928173065, -0.9270391464233398, 0.2764594256877899, 0.17252959311008453, -0.3045748174190521], [0.36521226167678833, 0.13001063466072083, -0.13791410624980927, -0.0029465353582054377, 0.21552498638629913, -0.0358625203371048, -0.024372482672333717, 0.008315300568938255, -0.14605802297592163, -0.13048331439495087, -0.10995393991470337, 0.39783939719200134, 0.16377882659435272, 0.4293261170387268, 0.04594866558909416, 0.01682157628238201, 0.27643945813179016, 0.02931790240108967, -0.07684282213449478, 0.14614549279212952, 0.24940039217472076, 0.10796792060136795, -0.06504986435174942, -0.26787132024765015, 0.07335961610078812, -0.053601428866386414, 0.10700009763240814, 0.10487677156925201, -0.01640424318611622, -0.06255275756120682, 0.14719659090042114, -0.09750412404537201], [-0.0650823786854744, 0.008168147876858711, -0.008198482915759087, -0.008229294791817665, 0.014074361883103848, -0.0073714726604521275, 0.05983969569206238, 0.0046032750979065895, -0.05174025893211365, 0.05438300967216492, 0.08925165235996246, 0.001139422762207687, -0.013400981202721596, -0.02132006548345089, 0.019681110978126526, 0.007205056957900524, 0.0005250777467153966, -0.07154472917318344, -0.006025087554007769, 0.023235293105244637, -0.11257212609052658, -0.03421890363097191, 0.0866280347108841, 0.025605324655771255, -0.020464718341827393, 0.017403220757842064, -0.09279114753007889, 0.004251519683748484, -0.007064634934067726, -0.046602193266153336, 0.011148336343467236, 6.226465484360233e-05], [-0.7297441959381104, 0.007315331604331732, 0.05094722658395767, 0.026086175814270973, -0.07179932296276093, 0.10664194077253342, 0.024794399738311768, -0.002746045123785734, 0.07872144877910614, -0.026396678760647774, 0.05200164020061493, -0.06882032006978989, -0.0368935763835907, -0.22815971076488495, -0.024387286975979805, -0.013018731959164143, 0.043921034783124924, -0.024938758462667465, 0.06814438849687576, 0.006390190217643976, -0.019299635663628578, 0.16234618425369263, 0.0005897214869037271, 0.0876476913690567, 0.0040659550577402115, -0.027314476668834686, 0.138834148645401, -0.03175529092550278, 0.06646551936864853, 0.0034766695462167263, -0.0976877212524414, 0.007842473685741425], [-0.5637940168380737, 0.06425436586141586, -0.0011009110603481531, -0.0028988502454012632, 0.033034466207027435, 0.025161247700452805, 0.029162345454096794, 0.016346264630556107, -0.05473260581493378, 0.03469449281692505, 0.02845626324415207, 0.011308792978525162, 0.021156342700123787, -0.5935707092285156, 0.016818905249238014, 0.08507867157459259, 0.00016125063120853156, -0.02302023582160473, 0.0115774841979146, -0.012430592440068722, -0.055587220937013626, -0.3042412996292114, -0.029120508581399918, 0.7463486790657043, -0.01837783493101597, 0.014951140619814396, -1.4197055101394653, -0.007815775461494923, -0.031883932650089264, -0.028854211792349815, 0.036416955292224884, 0.0015422384021803737], [0.14421145617961884, 0.002994368551298976, 0.02176053449511528, 0.0023880682419985533, -0.01548097562044859, 0.14461618661880493, -0.007146558258682489, -0.0075011528097093105, 0.02506878599524498, -0.01751107908785343, -0.012275041081011295, -0.020033204928040504, -0.004494684748351574, 0.11611045897006989, -0.01857013627886772, 0.0060499245300889015, -0.007277996279299259, 0.0071198041550815105, 0.012112214230000973, -0.0022599564399570227, 0.031678199768066406, 0.002392263850197196, 0.28886866569519043, -0.09980659186840057, 0.004095562733709812, -0.013332975097000599, -0.17646852135658264, -0.02184358611702919, 0.01635802909731865, 0.025448692962527275, -0.0207139253616333, 0.008365746587514877], [0.07004734128713608, 0.16043725609779358, 0.04446723312139511, -0.1787925362586975, -0.05050675570964813, 0.049420833587646484, 0.11200788617134094, 0.012805215083062649, -0.03457299992442131, 0.023126261308789253, 0.08847447484731674, 0.02829568274319172, 0.15507949888706207, 0.023288728669285774, -0.09787175804376602, 0.08510521799325943, -0.11315686255693436, -0.052529770880937576, 0.030989939346909523, -0.10382217913866043, -0.11021120846271515, -0.08571696281433105, 0.09888970106840134, 0.047405995428562164, -0.056965626776218414, 0.0090774055570364, -0.1525997817516327, -0.1719687134027481, 0.001255097915418446, 0.23706269264221191, -0.09280984848737717, 0.05865977704524994], [-0.033796343952417374, 0.01885952614247799, 0.0026361432392150164, 0.0009411043720319867, -0.0048346612602472305, -0.0045424471609294415, 0.05521188676357269, 0.007542833220213652, -0.014316831715404987, 0.028148967772722244, 0.06924784928560257, -0.010556519031524658, -0.011034684255719185, -0.005549284629523754, 0.014329977333545685, -0.0018038994167000055, 0.010929030366241932, -0.05946074798703194, -0.003466030117124319, -0.004686324391514063, -0.07772674411535263, -0.026516620069742203, 0.059239789843559265, 0.029903966933488846, -0.017658676952123642, 0.006762761622667313, -0.06745580583810806, 0.007941768504679203, 0.004756420385092497, -0.012685715220868587, -0.0076746889390051365, 0.003627999685704708], [-0.33212584257125854, 0.014888174831867218, -0.006698932498693466, -0.011768808588385582, 0.027340203523635864, 1.495589256286621, 0.023957330733537674, 0.07165687531232834, -0.04593054950237274, 0.02762913890182972, 0.07190465927124023, -0.00016624234558548778, 0.0009890252258628607, 0.15965823829174042, 0.03505839407444, 0.01636691391468048, 0.004560903646051884, -0.024278555065393448, -0.02343141660094261, -0.03376741334795952, -0.05028620734810829, -0.13896812498569489, 1.3426467180252075, -0.0008262685150839388, -0.02635001949965954, 0.010761325247585773, 0.37377092242240906, 0.015672970563173294, -0.04999179020524025, -0.04779281094670296, 0.0016555356560274959, -0.020560210570693016], [0.6163744330406189, -0.6808498501777649, -0.07541434466838837, 0.2145930677652359, 0.22248338162899017, -0.027171140536665916, -0.055199041962623596, -0.008037073537707329, 0.5726414322853088, -0.31146013736724854, -0.1571003943681717, -0.2031719982624054, 0.06416095793247223, 0.014724696055054665, -0.12235793471336365, 0.23811401426792145, -0.07303964346647263, 0.12703004479408264, -0.13525594770908356, 0.15066365897655487, 0.2076772004365921, 0.054715655744075775, -0.06558631360530853, -0.2005186676979065, -0.14675825834274292, -0.024676291272044182, 0.14546085894107819, 0.09530889242887497, -0.353936105966568, 0.09524316340684891, 0.44027796387672424, -0.0937982052564621], [0.35626140236854553, -0.26917174458503723, -0.3986252546310425, -0.3590904474258423, 0.3238307237625122, 0.024919724091887474, -0.2925739288330078, 0.08419336378574371, -0.03358333930373192, -0.14838625490665436, -0.2674309313297272, 0.24846325814723969, 0.022279437631368637, 0.09618524461984634, 0.08949167281389236, 0.08162324875593185, -0.41275617480278015, 0.2853730618953705, -0.03777020424604416, 0.258073091506958, 0.22454041242599487, 0.16480004787445068, -0.22221489250659943, -0.33089300990104675, 0.0860246941447258, -0.004276943858712912, 0.22561590373516083, 0.12433437258005142, 0.08771861344575882, 0.38999226689338684, 0.3352554142475128, -0.07784164696931839], [0.5726423263549805, -0.6239475607872009, 0.3374403417110443, 0.4734050929546356, -0.21577198803424835, -0.2561747133731842, -0.29871562123298645, -0.33799391984939575, 0.33196738362312317, -0.32563501596450806, -0.37160423398017883, 0.8812440037727356, -0.9049819707870483, -0.09694109857082367, -0.1987525075674057, 0.28809234499931335, -0.3784082531929016, 0.29233071208000183, 0.24494662880897522, 0.13992610573768616, 0.4412711560726166, 0.45489057898521423, -0.308815062046051, -0.46365800499916077, 0.26367536187171936, -0.12441080808639526, 0.3255554437637329, 0.09744840115308762, 0.38493621349334717, 0.03747132048010826, 0.07796601951122284, 0.5352219939231873], [-0.016624100506305695, 0.010433852672576904, 0.11612913012504578, -0.5445968508720398, 0.02533923089504242, 0.04126650094985962, -0.04361110180616379, -0.013131956569850445, 0.11247947812080383, -0.05284819006919861, -0.0558047853410244, 0.018938183784484863, 0.11430079489946365, 0.1436336189508438, -0.05683673918247223, 0.04168340563774109, -0.15706945955753326, -0.03378145024180412, -0.41711169481277466, 0.020733464509248734, 0.0554041713476181, -0.0506415031850338, -0.033388569951057434, -0.04187186062335968, -0.019686928018927574, 0.001507552107796073, 0.06960587203502655, 0.029122473672032356, -0.3368968069553375, -0.1307617872953415, -0.17122185230255127, 0.1830388456583023], [0.06656096875667572, -0.12204553931951523, -0.17132288217544556, 0.5101961493492126, -0.09850592911243439, -0.07558053731918335, -0.11660337448120117, -0.33143240213394165, 0.516152024269104, -0.22618143260478973, -0.10185525566339493, -0.2829189598560333, 0.44518429040908813, -0.251817524433136, -0.16142243146896362, 0.39577364921569824, -0.27280595898628235, 0.12466228008270264, 0.23867493867874146, 0.42301496863365173, 0.09675808995962143, 0.15834279358386993, -0.6096891164779663, -0.0919479951262474, 0.06692371517419815, -0.02987281046807766, 0.1517874151468277, -0.0665261521935463, 0.03386969119310379, 0.2516453266143799, -0.42428016662597656, 0.3093777596950531], [-1.2984684705734253, 0.33844736218452454, -0.10423358529806137, -0.4441930055618286, -0.14257492125034332, -0.5330572724342346, 0.25928795337677, 0.09764552861452103, 0.18571823835372925, 0.37142711877822876, -0.0029286076314747334, 0.5590847730636597, -0.12665608525276184, -1.1459167003631592, 0.10654368251562119, -0.7096433043479919, 0.572293758392334, -0.3007245659828186, 0.10962938517332077, -0.36944082379341125, -0.2194959968328476, 0.1342645287513733, 0.8274828791618347, 0.21061882376670837, 0.04848553612828255, -0.07050038874149323, 0.49602261185646057, 0.20945854485034943, -0.06225355342030525, -0.5336873531341553, -0.3084612786769867, -0.2694357633590698], [-0.17751885950565338, 0.4302821159362793, -0.6054719686508179, -0.057050615549087524, -0.44266533851623535, 0.11570088565349579, 0.4473012089729309, 0.08801902085542679, 0.2833031117916107, 0.38669443130493164, 0.489623486995697, 0.630663275718689, -0.18413633108139038, 0.1291479915380478, -0.33038851618766785, 0.5468945503234863, 0.277596116065979, -0.46008819341659546, -0.1512075811624527, -0.48599720001220703, -0.565521240234375, -0.38891032338142395, 0.0038433154113590717, 0.4057953655719757, -0.39975643157958984, 0.3030976951122284, -0.4059065282344818, 0.07874319702386856, 0.20389528572559357, -0.5352144241333008, -0.40793418884277344, 0.3641563355922699], [0.2303115576505661, 0.413038045167923, -0.08066270500421524, 0.38500431180000305, -0.06038174033164978, 0.051402173936367035, 0.15755262970924377, 0.07033785432577133, -0.6555265784263611, -0.019748017191886902, 0.11650694906711578, 0.4481755197048187, 0.17183929681777954, -0.06674939393997192, -0.10847689211368561, -0.4318731427192688, 0.291366308927536, -0.1715230792760849, -0.23382945358753204, 0.01205437071621418, -0.1001443937420845, 0.03764260560274124, 0.12864452600479126, 0.09045080095529556, 0.1366516798734665, 0.03781916946172714, -0.124837227165699, 0.3795573115348816, -0.052198294550180435, -0.1705331653356552, 0.05626482516527176, -0.007645724806934595], [-0.609882116317749, -0.2856161892414093, -0.26696282625198364, 0.44947782158851624, 0.03793077543377876, 0.2592051923274994, 0.45928454399108887, 0.24576888978481293, -0.6919196844100952, 0.30836910009384155, 0.44527408480644226, 0.10128669440746307, -0.46992549300193787, 0.19311979413032532, 0.296843558549881, -0.02819768339395523, -0.9790089726448059, -0.43773308396339417, 0.0459851399064064, 0.21813741326332092, -0.4850919842720032, -0.3594036400318146, 0.3722015917301178, 0.265817254781723, -0.3201596140861511, 0.1855865716934204, -0.4104880094528198, 0.12529246509075165, -0.2913329005241394, -0.6258506774902344, -0.07389774918556213, 0.36177167296409607], [-0.22967885434627533, -0.053070392459630966, 0.0398445688188076, -0.24387460947036743, -0.04551342502236366, 0.08299923688173294, 0.10735928267240524, 0.03931539133191109, 0.11059500277042389, 0.034342408180236816, 0.08613212406635284, 0.2195604294538498, 0.18578991293907166, 0.12464611977338791, -0.3571101129055023, 0.10165160894393921, -0.1685735285282135, -0.14714308083057404, -0.2128925323486328, -0.06819797307252884, -0.10043642669916153, -0.0878385528922081, 0.1322941929101944, 0.07576445490121841, -0.08516998589038849, 0.02274496480822563, -0.10165060311555862, 0.13845905661582947, 0.20220357179641724, 0.1670914888381958, 0.012942389585077763, 0.2296409159898758], [0.09002209454774857, -0.009162584319710732, -0.0016202632104977965, 0.0026143451686948538, 0.005259322933852673, -0.7049752473831177, 0.0010706132743507624, 0.1296435296535492, -0.00399302551522851, -0.006971713155508041, 0.0216224268078804, -0.001574277994222939, 0.003414774313569069, -0.17261427640914917, 0.018512431532144547, -0.003153566038236022, 0.0023550884798169136, 0.0006954433629289269, -0.022138919681310654, -0.05165048688650131, 0.006606893613934517, -0.20506532490253448, 0.38890841603279114, -0.0156338382512331, -0.003301202552393079, -0.0025063862558454275, -0.6408821940422058, -0.002134253503754735, -0.07571093738079071, 0.0023572593927383423, 0.0025266369339078665, -0.02209525555372238], [-0.11660295724868774, 0.07168436795473099, 0.010631994344294071, -0.0045655337162315845, -0.010041125118732452, 0.031246613711118698, 0.1676359474658966, 0.006014940328896046, -0.06459945440292358, 0.09762345254421234, 0.21291790902614594, -0.02548898197710514, -0.017682408913969994, -0.019863132387399673, 0.020655885338783264, -0.004755981266498566, 0.01364231202751398, -0.17375239729881287, 0.019316941499710083, 0.00769612705335021, -0.2378883957862854, -0.0775623470544815, 0.18874305486679077, 0.16734488308429718, -0.04664904624223709, 0.022001469507813454, -0.19173553586006165, -0.007205768022686243, 0.009826457127928734, -0.09019505232572556, -0.0269200149923563, -0.001188332331366837], [0.054621998220682144, 0.4912337064743042, 0.2469928115606308, -0.1319979727268219, 0.017146628350019455, 0.10599378496408463, 0.3319503366947174, 0.16898462176322937, -0.17726586759090424, 0.07147688418626785, 0.29300442337989807, 0.09870202839374542, -0.024930698797106743, -0.02289743535220623, -0.0016744778258726, -0.05093387886881828, 0.2368631213903427, -0.37612396478652954, -0.008507870137691498, -0.24695450067520142, -0.1815900355577469, -0.17370125651359558, 0.27394258975982666, 0.1417216956615448, -0.09846294671297073, 0.04836670309305191, -0.11815005540847778, -0.34265264868736267, -0.06201339140534401, 0.033092010766267776, 0.0016443653730675578, 0.10656747221946716], [-0.5448377728462219, 1.2425936460494995, -0.30754485726356506, -1.0279780626296997, -0.016159845516085625, 0.24973544478416443, 0.1825532466173172, 0.2802830636501312, -0.3199499547481537, 0.5097215175628662, 0.376266211271286, -0.2770977020263672, -0.017714273184537888, 0.1917000710964203, -0.18165843188762665, -0.5293282866477966, -0.25267499685287476, -0.09909167140722275, -0.41479700803756714, 0.3820696175098419, -0.5287423133850098, -0.2627299427986145, 0.26996955275535583, 0.29850998520851135, -0.21221943199634552, 0.27402931451797485, -0.3185255825519562, 0.270302951335907, 0.3086561858654022, -0.37803032994270325, 0.24560651183128357, 0.01095548551529646], [-0.31549200415611267, -0.12962189316749573, 0.13138394057750702, 0.650507390499115, 0.24185830354690552, 0.008115154691040516, 0.1953280121088028, -0.06675197929143906, 0.09618190675973892, 0.20452646911144257, 0.1686086505651474, -0.409199059009552, 0.35260674357414246, 0.31089991331100464, -0.05908948928117752, -0.07097481191158295, 0.05964387208223343, -0.17619889974594116, 0.37729892134666443, -0.7373178005218506, -0.19900405406951904, -0.15126226842403412, 0.25127023458480835, 0.00490550696849823, -0.18344879150390625, -0.021180007606744766, -0.22868844866752625, -0.39559561014175415, -0.35400789976119995, -0.1406681090593338, 0.14443093538284302, 0.1534573882818222], [-0.09963901340961456, 0.04790457338094711, 0.0025386777706444263, -0.014560556039214134, -0.005382903851568699, 0.025480985641479492, 0.19358877837657928, 0.004586309194564819, -0.07502720504999161, 0.08623197674751282, 0.22148412466049194, -0.019471323117613792, -0.02939700335264206, -0.024163035675883293, 0.028135187923908234, -0.008930240757763386, 0.016376078128814697, -0.18209734559059143, -0.01364137977361679, 0.012961199507117271, -0.27412018179893494, -0.09508419036865234, 0.1925228387117386, 0.11016322672367096, -0.0496218316257, 0.031593095511198044, -0.25181201100349426, 0.010783007368445396, 0.013709346763789654, -0.06831946969032288, -0.01870230957865715, -0.01037225965410471], [-0.07791712880134583, 0.7371403574943542, -0.15586616098880768, 0.6835682988166809, -0.08220674842596054, 0.1834850013256073, 0.19136707484722137, 0.1934874951839447, 0.31728509068489075, 0.23371855914592743, 0.3632048964500427, -0.5203136801719666, 0.13089260458946228, -0.026604702696204185, 0.13080312311649323, 0.06522386521100998, 0.7815629839897156, -0.30508187413215637, -0.012113958597183228, -0.15265825390815735, -0.3522800803184509, -0.2663951814174652, 0.3599214553833008, 0.31536269187927246, -0.19454848766326904, 0.09882806241512299, -0.416818767786026, 0.097358338534832, -0.14183460175991058, -0.8750994801521301, -0.10294792056083679, -0.22618654370307922], [-0.11841654032468796, 0.15169550478458405, -0.19293813407421112, -0.182289719581604, 0.04055754467844963, 0.2460389882326126, 0.3524231016635895, 0.11224766075611115, -0.12152624130249023, 0.22398430109024048, 0.27861467003822327, 0.2015819102525711, 0.4300265908241272, 0.3339685797691345, -0.31030794978141785, -0.9845572710037231, 0.5357811450958252, -0.36080294847488403, 0.003532406874001026, -0.08298005908727646, -0.25654032826423645, -0.23434242606163025, 0.3229480981826782, 0.2353220134973526, -0.2915717661380768, 0.15129627287387848, -0.19718749821186066, 0.2261345237493515, -0.04116285592317581, -0.22844621539115906, 0.23643864691257477, 0.06605372577905655], [0.48995086550712585, -0.13951267302036285, -0.0590459480881691, 0.28193655610084534, -0.07521434873342514, 0.11883239448070526, 0.04906335845589638, 0.15646158158779144, 0.07171988487243652, -0.17492276430130005, -0.050821442157030106, 0.508651852607727, -0.08568526059389114, -0.1453959047794342, -0.02311769686639309, 0.23406682908535004, -0.28303417563438416, 0.03396933525800705, -0.15837852656841278, 0.6291015148162842, 0.11385681480169296, -0.10854725539684296, 0.8149056434631348, -0.18830561637878418, 0.0031757645774632692, -0.004765183199197054, 0.15744760632514954, -0.311318576335907, -0.3345169723033905, 0.011280098930001259, -0.02658514864742756, 0.07918477803468704], [-0.47247228026390076, -0.1479083001613617, -0.1535835862159729, 0.038485463708639145, 0.007757384795695543, 0.08912888914346695, 0.26964834332466125, 0.11207509785890579, 0.02416973002254963, 0.32541608810424805, 0.35659259557724, -0.4307132363319397, -0.594589352607727, 0.026516159996390343, 0.30123504996299744, 0.023346727713942528, 0.3333720266819, -0.29702329635620117, -0.28969940543174744, -0.017939090728759766, -0.38318976759910583, -0.20399875938892365, 0.28406378626823425, 0.2767196297645569, -0.11024005711078644, 0.0652511939406395, -0.3574330508708954, 0.308164119720459, 0.397806853055954, -0.28999876976013184, 0.11310680955648422, -0.005735126789659262], [-0.24528011679649353, 0.4152412712574005, 0.4283130168914795, -0.23745663464069366, -0.11597495526075363, 0.2656441926956177, 0.8025373220443726, 0.1731724739074707, -0.038005586713552475, 0.752296507358551, 0.7947248220443726, -0.3754240572452545, 0.41891852021217346, -0.17938996851444244, 0.2497381865978241, 0.10525098443031311, 0.7507539987564087, -0.6302691102027893, 0.11909808963537216, -0.3664657175540924, -1.0129420757293701, -0.4585668742656708, 0.38864901661872864, 0.38628077507019043, -0.3527601659297943, 0.35465937852859497, -0.8067365884780884, 0.5756029486656189, 0.3729262053966522, -0.47270870208740234, 0.06615317612886429, -0.5433320999145508], [0.07663024961948395, 0.48648208379745483, -0.0890483409166336, -0.4104958474636078, 0.16841410100460052, 0.3929338753223419, 0.8333918452262878, 0.051064155995845795, -0.011752829886972904, 0.46171823143959045, 0.6675937175750732, 1.6621640920639038, -0.5170766711235046, 0.22243064641952515, 0.023119710385799408, -0.31635668873786926, 0.47287508845329285, -0.716971755027771, -0.19568035006523132, 0.11801324784755707, -0.6724891662597656, -0.4323531687259674, 0.5585711598396301, 0.45678600668907166, -0.44416072964668274, 0.21680741012096405, -0.5847516655921936, 0.07783902436494827, -0.1688872128725052, -0.4923366904258728, 0.07425295561552048, -0.4680967926979065], [-0.015893690288066864, 0.12299809604883194, 0.13021425902843475, -0.13454115390777588, 0.1289655715227127, 0.04752350226044655, 0.24046224355697632, -0.0827656090259552, -0.25185731053352356, 0.14861440658569336, 0.2485198825597763, 0.05296783894300461, 0.03164501488208771, 0.05578039959073067, 0.05051170289516449, -0.23467594385147095, 0.018366491422057152, -0.19724087417125702, -0.020689047873020172, -0.012224173173308372, -0.30252736806869507, -0.10428868979215622, 0.20115956664085388, 0.15655377507209778, -0.009276083670556545, 0.03276732936501503, -0.2410704791545868, -0.2279253900051117, -0.09167537838220596, 0.08659664541482925, 0.01891172118484974, 0.20047542452812195], [0.07109770178794861, -0.04915154352784157, -0.1691427081823349, 0.0057836552150547504, 0.1757451891899109, 0.1041264757514, 0.05416955426335335, 0.12855204939842224, -0.18915022909641266, -0.017963824793696404, 0.028895732015371323, 0.33582502603530884, 0.3849875032901764, -0.056849490851163864, -0.1968056857585907, -0.5050754547119141, -0.1561964601278305, 0.009361089207231998, 0.20426100492477417, -0.0727575421333313, -0.05498386546969414, -0.04001753032207489, 0.05296758562326431, 0.11567077040672302, -0.0853768140077591, 0.022315755486488342, -0.032928697764873505, -0.17259560525417328, -0.5851652026176453, 0.24333736300468445, 0.08387433737516403, -0.10177232325077057], [-0.1403678059577942, 0.19925618171691895, -0.03261367231607437, -0.11926490068435669, -0.04104241728782654, 0.16873615980148315, 0.3666801154613495, 0.1501723974943161, 0.06190239638090134, 0.22222848236560822, 0.31385016441345215, 0.17157188057899475, 0.020908819511532784, 0.38238078355789185, -0.08072012662887573, -0.06789162755012512, 0.42212551832199097, -0.36810049414634705, -0.2789691090583801, -0.20249226689338684, -0.16656066477298737, -0.23732368648052216, 0.34068334102630615, 0.13906347751617432, -0.20502059161663055, 0.048633232712745667, -0.28326791524887085, 0.13311706483364105, -0.09079615026712418, -0.32616376876831055, -0.1781271994113922, -0.19813154637813568], [-0.11578487604856491, 0.04188552871346474, -0.005585981998592615, -0.009380222298204899, 0.00729338638484478, 0.014809934422373772, 0.15269258618354797, 0.010463629849255085, -0.07032901048660278, 0.09876114130020142, 0.19779539108276367, -0.019408946856856346, -0.020936541259288788, -0.009586183354258537, 0.031998034566640854, 0.0034708722960203886, 0.017382372170686722, -0.16417811810970306, -0.01514305081218481, 0.0077080996707081795, -0.2324114739894867, -0.07438968867063522, 0.17305946350097656, 0.09259108453989029, -0.04508741572499275, 0.02813953347504139, -0.19999848306179047, 0.013505118899047375, 0.003416478866711259, -0.08462845534086227, 0.00011784474190790206, -0.0047426987439394], [-0.22334718704223633, 0.03865859657526016, 0.015773599967360497, -0.015734007582068443, -0.014256776310503483, 0.3029027283191681, 0.1284683793783188, 0.022023338824510574, -0.03189748898148537, 0.07268454879522324, 0.15928617119789124, -0.04168715327978134, -0.04191865399479866, 0.072335384786129, 0.003167138434946537, -0.024077827110886574, 0.04136859253048897, -0.13065092265605927, -0.0041646817699074745, 0.0095886941999197, -0.16798484325408936, 0.4585237503051758, 0.1365223377943039, 0.2196931540966034, -0.03645828366279602, 0.016452066600322723, 0.4847978949546814, -0.015307079069316387, 0.01914490945637226, -0.07918456196784973, -0.01828904077410698, -0.003013045759871602], [0.007789031136780977, 0.025616711005568504, 0.0029751346446573734, -0.0010344487382099032, 0.006988850887864828, 0.30233922600746155, 0.003879568073898554, 0.0023734201677143574, -0.014769294299185276, 0.00940225925296545, 0.00607205368578434, 0.0037310069892555475, 0.0010480426717549562, 0.012133301235735416, 0.004817850887775421, 0.02820678986608982, -0.0006255035405047238, -0.0022731018252670765, 0.00014291357365436852, 0.0036932870279997587, -0.015902187675237656, -0.002776847220957279, 0.0539228580892086, 0.4558242857456207, -0.00301160104572773, 0.004490978550165892, 0.373452365398407, -0.015394432470202446, -0.004465385805815458, -0.007412973325699568, 0.005425612907856703, 0.0009238481288775802], [0.05330558121204376, 0.03365021571516991, 0.029446229338645935, -0.004724480211734772, -0.006029805634170771, 0.5498032569885254, -0.005967870820313692, 0.0670318752527237, 0.03231725096702576, -0.05112743005156517, 0.030044741928577423, -0.02699725329875946, 0.03165190666913986, 0.24925783276557922, -0.006880482193082571, -0.02459936961531639, 0.002329078270122409, 0.014437024481594563, 0.03007831983268261, -0.07590186595916748, 0.0747114047408104, -0.34250563383102417, 0.3516029715538025, -0.11337783187627792, -0.01512583252042532, -0.022749528288841248, -0.6668060421943665, -0.04289465770125389, -0.026588888838887215, 0.060220781713724136, -0.022559309378266335, 0.019122380763292313], [0.13427342474460602, 0.26071032881736755, 0.027658354490995407, -0.262019544839859, -0.07769087702035904, 0.09332619607448578, 0.2382715493440628, 0.027845798060297966, 0.004922440741211176, 0.031856928020715714, 0.18375134468078613, -0.027481257915496826, 0.2191900908946991, 0.06969704478979111, -0.11395213752985, 0.076179638504982, 0.017503995448350906, -0.1553918719291687, -0.053911760449409485, -0.1679854393005371, -0.19405879080295563, -0.16478228569030762, 0.17967668175697327, 0.042137112468481064, -0.13521277904510498, 0.02965877577662468, -0.24228812754154205, -0.14499127864837646, -0.055087439715862274, 0.24045059084892273, -0.14302901923656464, 0.08830062299966812], [-0.043009866029024124, 0.042893778532743454, 0.006101624574512243, 0.0008907421724870801, -0.008131883107125759, 0.007829008623957634, 0.10433772951364517, 0.012697236612439156, -0.018057003617286682, 0.044301945716142654, 0.12060268968343735, -0.02063128724694252, -0.00761802401393652, 0.0026699400041252375, 0.019030841067433357, -0.007009921595454216, 0.013316355645656586, -0.10037872940301895, -0.005245856009423733, -0.022640174254775047, -0.13699458539485931, -0.04516807571053505, 0.10369005054235458, 0.06835726648569107, -0.03274441510438919, 0.009875542484223843, -0.12260793894529343, 0.00857053603976965, 0.0052744983695447445, -0.007850311696529388, -0.01047341525554657, 0.004224316217005253], [0.12994760274887085, 0.04537003114819527, 0.017258934676647186, 0.0047908686101436615, 0.052427988499403, 0.9395159482955933, 0.05766664072871208, 0.1233154833316803, -0.0817401260137558, 0.0039672222919762135, 0.05184304714202881, -0.023333176970481873, 0.03489822894334793, 0.3059585690498352, 0.0632854700088501, 0.05201287567615509, 0.01912613771855831, -0.01458792481571436, -0.019176091998815536, -0.08939201384782791, -0.052810944616794586, 0.06276842951774597, 1.134807825088501, -0.3548584282398224, -0.0207962766289711, -0.002057502744719386, 0.6665247082710266, 0.011159950867295265, -0.09977392852306366, -0.06760329008102417, -0.024021543562412262, -0.0776880756020546], [0.30818721652030945, -0.4739408493041992, -0.3273642957210541, 0.23397444188594818, 0.34436675906181335, 0.20712386071681976, 0.402831107378006, 0.10137511044740677, 0.5384458899497986, -0.001572903129272163, 0.31622791290283203, -0.09602630138397217, -0.061819568276405334, 0.16493968665599823, 0.0032808040268719196, -0.1076098382472992, 0.14706429839134216, -0.32826536893844604, -0.15512458980083466, -0.23436583578586578, -0.27454903721809387, -0.33017855882644653, 0.31655147671699524, 0.16528873145580292, -0.4481331408023834, 0.12676025927066803, -0.3655257821083069, 0.2051209658384323, -0.5087897777557373, -0.335706889629364, 0.489359587430954, -0.13160791993141174], [-0.20259103178977966, -0.025160355493426323, 0.10800857096910477, -0.10149957984685898, 0.2801685035228729, 0.23454180359840393, 0.31724467873573303, 0.019359469413757324, -0.3437038064002991, 0.36234912276268005, 0.3504409193992615, -0.23146846890449524, 0.053916629403829575, 0.29722559452056885, 0.06717783957719803, -0.36626332998275757, 0.039552632719278336, -0.31600597500801086, 0.2797621190547943, -0.01774926856160164, -0.39489999413490295, -0.28494584560394287, 0.3443094491958618, 0.28749385476112366, -0.3540973961353302, 0.12061905860900879, -0.38635802268981934, 0.0634656548500061, 0.23593221604824066, 0.2539576292037964, 0.44696322083473206, 0.28554031252861023], [0.020276501774787903, -0.1575932800769806, 0.0018366689328104258, -0.16084806621074677, -0.03450198844075203, 0.29438671469688416, 0.5095639228820801, -0.08119507133960724, 0.02113032341003418, 0.46081745624542236, 0.5071312785148621, 0.625563383102417, -0.6868451833724976, -0.3091786503791809, -0.29887112975120544, 0.7100600004196167, -0.18015728890895844, -0.4832901954650879, 0.09919292479753494, -0.3769110143184662, -0.6358405351638794, -0.3707806468009949, 0.4607025682926178, 0.2657078504562378, -0.3066678047180176, 0.27041909098625183, -0.5145255327224731, 0.6210098266601562, 0.7462579607963562, -0.13317134976387024, 0.2347766011953354, -0.497428297996521], [-0.13788019120693207, 0.06214350461959839, 0.24118763208389282, -0.70733243227005, -0.024348493665456772, 0.10737971216440201, 0.06215135380625725, -0.0361209399998188, 0.2360554039478302, 0.004647636786103249, 0.06508886814117432, -0.09004075825214386, 0.2923735976219177, 0.23633696138858795, -0.04807248339056969, 0.1751769334077835, -0.1639290601015091, -0.16172882914543152, -0.5623645782470703, 0.029968542978167534, -0.06902168691158295, -0.16036050021648407, 0.0821523442864418, 0.07911892235279083, -0.1274346560239792, 0.03555670753121376, -0.05764424428343773, 0.03176712617278099, -0.5131280422210693, -0.2237434834241867, -0.39872339367866516, 0.34705618023872375], [-0.3419839143753052, 0.025146210566163063, 0.015052595175802708, 0.6862103939056396, 0.015478667803108692, -0.02595967799425125, 0.32681435346603394, -0.23191578686237335, 0.02463003247976303, 0.2118237465620041, 0.381448358297348, -0.3479294776916504, 0.13725361227989197, -0.22031629085540771, 0.24065561592578888, -0.11330205202102661, 0.027486583217978477, -0.31690022349357605, 0.33218440413475037, 0.4113750159740448, -0.394302099943161, -0.26308852434158325, 0.06384611129760742, 0.2796380817890167, -0.1564328372478485, 0.10012795031070709, -0.3739049732685089, -0.15002714097499847, 0.12751716375350952, -0.08550155162811279, -0.17211851477622986, 0.03812277689576149], [0.3569995164871216, -0.3259468674659729, 0.03654955327510834, 0.2487468421459198, -0.0695720762014389, -0.32083040475845337, -0.09333904087543488, -0.05012945458292961, 0.0006436542025767267, 0.07175399363040924, -0.271999716758728, 0.12998420000076294, -0.018832728266716003, 0.18345440924167633, -0.10709305107593536, -0.0727837011218071, -0.09808303415775299, 0.05263352394104004, 0.16345953941345215, 0.10788886249065399, 0.17603053152561188, 0.583354651927948, -0.22774142026901245, 0.43035057187080383, 0.2228333055973053, -0.17748549580574036, 0.7734748125076294, -0.013694336637854576, 0.051921673119068146, 0.09232102334499359, -0.03148314356803894, 0.017834531143307686], [-0.32662925124168396, 0.23868006467819214, -0.03574519231915474, -0.04512186720967293, -0.18351542949676514, 0.0009879461722448468, 0.011733001098036766, -0.12953773140907288, 0.643862247467041, -0.2050763964653015, 0.055615030229091644, -0.01621624268591404, 0.6436470746994019, 0.0414980947971344, -0.27307233214378357, 0.31692561507225037, 0.09964977949857712, 0.0881972387433052, -0.2475331425666809, -0.7873115539550781, 0.04325898736715317, -0.0554630346596241, -0.0572030246257782, -0.024423424154520035, -0.2134888768196106, -0.007671097293496132, -0.5979930758476257, 0.24570949375629425, 0.03832431510090828, 0.32765400409698486, -0.35119229555130005, 0.17800408601760864], [-0.45090070366859436, 0.42157629132270813, 0.1404716670513153, -0.03779739513993263, -0.11607040464878082, -0.011045064777135849, -0.005690900143235922, -0.11626508831977844, -0.6748842000961304, 0.1257774829864502, -0.19524326920509338, 0.2024451047182083, -0.18005959689617157, -0.03570396825671196, 0.2558799982070923, 0.34350672364234924, 0.3362189829349518, 0.12236500531435013, -0.4670513868331909, -0.1791285127401352, 0.08738008141517639, 0.115108922123909, 0.09468631446361542, 0.26161396503448486, 0.17590004205703735, -0.13655777275562286, -0.0038074429612606764, 0.36016884446144104, -0.11007487028837204, 0.05880491062998772, 0.042349040508270264, 0.49262508749961853], [-0.7937151193618774, -0.19038422405719757, 0.1734314113855362, 0.17904213070869446, 0.11703944206237793, 0.026007670909166336, -0.0036222035996615887, -0.11558829247951508, -0.6610487699508667, 0.1585872769355774, -0.028254009783267975, 0.07612580806016922, -0.0819636806845665, -0.626878559589386, -0.07530416548252106, 0.2766696810722351, 0.31223368644714355, 0.05258885771036148, 0.13975732028484344, 0.005403110757470131, 0.05989641323685646, 0.07930249720811844, 0.04482688009738922, 0.15541766583919525, 0.05836555361747742, 0.0013627391308546066, 0.0392218753695488, -0.27796247601509094, 0.0589757040143013, 0.09061706811189651, 0.03444614261388779, 0.03105800226330757], [0.43145647644996643, -0.2905924916267395, -0.2638654112815857, 0.3132496476173401, 0.2011495977640152, 0.11698336899280548, -0.06814827024936676, -0.10665738582611084, -0.38769689202308655, -0.0038501962553709745, -0.07058083266019821, 0.2864653170108795, 0.18065129220485687, 0.11425197124481201, 0.02511885017156601, -0.633292019367218, -0.019726602360606194, 0.13666632771492004, 0.2141297310590744, -0.06764786690473557, 0.10135666280984879, -0.005495098885148764, 0.12960979342460632, -0.17359581589698792, 0.05908065289258957, 0.046097613871097565, 0.005846251267939806, -0.21018755435943604, -0.14984670281410217, -0.20987774431705475, 0.41617855429649353, -0.06647494435310364], [-0.1842971295118332, 0.16929814219474792, -0.007673297077417374, 0.02470928058028221, 0.07405520975589752, 0.5943085551261902, 0.10652679949998856, 0.19305357336997986, -0.15531352162361145, 0.049614302814006805, 0.17432692646980286, 0.02710420824587345, 0.003414636477828026, 0.27968814969062805, 0.07903297245502472, 0.11509402841329575, -0.002486542798578739, -0.06383639574050903, -0.18531681597232819, -0.09435611963272095, -0.11325256526470184, -0.41200605034828186, 0.7756993770599365, 0.480465292930603, -0.09044525027275085, 0.01782781444489956, -0.09006890654563904, 0.02063663862645626, -0.15192975103855133, -0.07314253598451614, 0.08529825508594513, 0.39433979988098145], [-0.053647641092538834, 0.07864272594451904, 0.012519053183495998, -0.0061305006965994835, 0.05128776654601097, 0.13622482120990753, 0.10323100537061691, 0.009038231335580349, -0.1364709734916687, 0.10892942547798157, 0.14796878397464752, 0.011250277049839497, 0.008972483687102795, 0.0578513965010643, 0.037263814359903336, 0.038654375821352005, -0.010768314823508263, -0.11194717884063721, 0.05066082999110222, 0.03999998793005943, -0.18707755208015442, -0.1006857231259346, 0.11018186807632446, 0.11574860662221909, -0.049324747174978256, 0.038521658629179, -0.22149230539798737, -0.020526770502328873, -0.04570856690406799, -0.09469560533761978, 0.04800162836909294, 0.010033764876425266], [0.41957932710647583, 0.7212291359901428, 0.20360054075717926, 0.007700447924435139, 0.09434536844491959, 0.12321919947862625, 0.14828109741210938, -0.14084148406982422, -0.30881959199905396, -0.35377028584480286, 0.08392951637506485, 0.25169438123703003, 0.24222016334533691, -0.20235463976860046, 0.06007528305053711, -0.2256920039653778, 0.4757089912891388, -0.15403945744037628, 0.18343891203403473, -0.09776373952627182, 0.11906533688306808, -0.09554412961006165, 0.14973077178001404, -0.14124318957328796, 0.12716034054756165, -0.06434909999370575, 0.2430175244808197, 0.21263141930103302, 0.07768715173006058, 0.2656839191913605, -0.0665021613240242, -0.03482669219374657], [0.5087530016899109, -1.3838961124420166, -0.5376394391059875, 0.47235968708992004, 0.08392995595932007, -0.09588628262281418, 0.3957761228084564, -0.3123679459095001, 0.37808892130851746, 0.22774052619934082, 0.19631850719451904, -0.29439088702201843, -0.132589653134346, 0.31036314368247986, 0.003392939455807209, -0.2541566491127014, -0.6652523875236511, -0.26979905366897583, 0.26007938385009766, 0.1337282657623291, -0.19381147623062134, 0.06282828003168106, -0.021992988884449005, -0.07078907638788223, -0.2297057956457138, 0.10903626680374146, -0.2407127022743225, 0.7084127068519592, -0.17238594591617584, -0.19699761271476746, 0.07588367164134979, -0.3902970254421234], [-0.13681098818778992, 0.017978111281991005, -0.020617414265871048, 0.07641247659921646, 0.048419639468193054, 0.04996219649910927, 0.09218116849660873, 0.03175745904445648, -0.06680507212877274, 0.127545565366745, 0.09477949142456055, -0.05200040712952614, 0.0025052851997315884, 0.05166292563080788, 0.09901679307222366, -0.005965764634311199, 0.07395480573177338, -0.08274923264980316, 0.026952052488923073, -0.13980847597122192, -0.1462792456150055, -0.041129011660814285, 0.12137363106012344, 0.09714903682470322, -0.040345363318920135, 0.0329178087413311, -0.18953603506088257, -0.0010282399598509073, -0.08033064007759094, -0.12237244099378586, 0.06723473221063614, 0.0175541453063488], [0.019694088026881218, 0.0035246661864221096, -0.004186818841844797, -0.014401973225176334, 0.024140900000929832, 0.11340214312076569, 0.07628922164440155, 0.006640270352363586, -0.10161333531141281, 0.09617460519075394, 0.10933122783899307, 0.008546779863536358, -0.02911907434463501, 0.18121343851089478, 0.025564126670360565, 0.018141305074095726, -0.00937824696302414, -0.08887902647256851, -0.002053038915619254, 0.05479489639401436, -0.17683827877044678, -0.15426312386989594, 0.1732839196920395, 0.05214923620223999, -0.02576708234846592, 0.029859347268939018, -0.3590383529663086, -0.004656171891838312, -0.02052285522222519, -0.07543543726205826, 0.01923298090696335, 0.0027811878826469183], [1.1534758806228638, 0.26052096486091614, -0.10952987521886826, -0.2893555462360382, 0.08318348228931427, -0.06499157100915909, 0.14067403972148895, 0.3210996389389038, -0.043408527970314026, -0.3123370409011841, 0.05344618111848831, -0.0870979055762291, -0.07164657860994339, 0.08864714950323105, 0.20982271432876587, 0.15766511857509613, -0.4791489243507385, -0.40292567014694214, 0.18828238546848297, 0.4458514153957367, -0.029585322365164757, -0.15775030851364136, -0.1452762335538864, -0.12207559496164322, -0.2891695499420166, 0.11492049694061279, 0.2325959950685501, 0.1292271465063095, 0.16226060688495636, -0.023473352193832397, 0.2886228859424591, -0.06860491633415222], [0.13565148413181305, -0.1271936297416687, -0.17111323773860931, -0.44613343477249146, 0.33087772130966187, 0.1738072782754898, -0.08673742413520813, 0.04253554344177246, 0.8358568549156189, -0.19220834970474243, -0.10048886388540268, -0.2991112768650055, -0.3947262763977051, -0.03232802823185921, 0.24493536353111267, -0.31665143370628357, 0.12104529142379761, 0.14757098257541656, 0.05165475606918335, -0.32323119044303894, 0.10616897791624069, -0.11606794595718384, 0.13464666903018951, -0.17129673063755035, -0.03637373447418213, 0.112330861389637, 0.22077025473117828, -0.03189099580049515, -0.1346280872821808, -0.09747282415628433, 0.3161795139312744, -0.11854451894760132], [0.4907234311103821, 0.38000720739364624, -0.09287693351507187, 0.1342325061559677, 0.006700209341943264, 0.41854581236839294, 0.26410701870918274, 0.4779808223247528, 0.3266313970088959, 0.016864093020558357, 0.3547680377960205, -0.026045186445116997, 0.3742320239543915, 0.6822960376739502, 0.10435497015714645, 0.5940452218055725, -0.43139171600341797, -0.3569100499153137, 0.2573608458042145, -0.1326187402009964, 0.061063021421432495, -0.07219798862934113, -0.06924125552177429, -0.20659257471561432, -0.025083288550376892, -0.01881023310124874, 0.1305118203163147, -0.34343069791793823, -0.05885191634297371, 0.013772922568023205, 0.001826255233027041, 0.22136421501636505], [0.49859076738357544, 0.560219407081604, -0.02991979941725731, -0.06064516305923462, -0.08754308521747589, -0.012828621082007885, -0.10642169415950775, -0.24353161454200745, -0.026686901226639748, 0.15284737944602966, -0.02197013609111309, -0.46317923069000244, -0.18892204761505127, -0.1251876801252365, 0.03898073360323906, 0.06542132049798965, 0.07250349223613739, 0.15664240717887878, 0.29758694767951965, 0.31744709610939026, 0.08165618032217026, 0.055099282413721085, 0.06448982656002045, -0.23079659044742584, 0.05916772410273552, -0.014720954932272434, 0.0622953362762928, 0.05765053629875183, -0.20845390856266022, -0.2922469675540924, -0.11325845867395401, 0.1536441445350647], [-0.4618247151374817, -0.25036415457725525, -0.20976802706718445, 0.1534363478422165, -0.03967021778225899, 0.05866669863462448, -0.30875957012176514, -0.028522878885269165, 0.13850180804729462, 0.23748882114887238, -0.07737787067890167, 0.20939576625823975, -0.23826414346694946, -0.15848158299922943, -0.29073038697242737, 0.030418630689382553, -0.24144595861434937, 0.20341694355010986, -0.4176803231239319, 0.1239178478717804, -0.15131452679634094, 0.339344322681427, 0.3763231337070465, 0.23640646040439606, 0.21883606910705566, 0.15245841443538666, -0.24044637382030487, 0.08786080777645111, 0.23601777851581573, 0.34518519043922424, 0.03947199881076813, 0.08021524548530579], [0.5723750591278076, 0.3603215217590332, -0.08501845598220825, -0.19122175872325897, -0.35876303911209106, -0.10703504085540771, 0.1396237462759018, 0.20587442815303802, 0.8894248008728027, -0.14035077393054962, 0.18683551251888275, 0.9079530239105225, -0.4256964325904846, 0.05475525185465813, -0.28863582015037537, 0.7840299606323242, 0.4001220762729645, -0.3137909173965454, 0.45394566655158997, -0.25466012954711914, 0.20500604808330536, -0.33416062593460083, 0.20287245512008667, 0.07965204864740372, -0.27614784240722656, -0.19178429245948792, -0.03914608433842659, -0.021434694528579712, 0.32753482460975647, -0.08363640308380127, -0.2935115694999695, 0.07826174050569534], [-0.1301875114440918, -0.11422903835773468, -0.10768608748912811, 0.15737788379192352, -0.2411922812461853, 0.032460737973451614, -0.10910145193338394, 0.19655443727970123, 0.44800877571105957, -0.08201663941144943, -0.07661571353673935, 0.2519436180591583, 0.08868426829576492, -0.11831607669591904, 0.025614676997065544, 0.7854248285293579, -0.02055857703089714, -0.10907512903213501, 0.08975403010845184, -0.02863434888422489, 0.16879159212112427, 0.058842938393354416, -0.1600147932767868, 0.021193088963627815, -0.10158665478229523, -0.06954946368932724, 0.1873919814825058, -0.003285013372078538, 0.0692436695098877, -0.15117499232292175, -0.1319042593240738, -0.21130526065826416], [0.5887231230735779, 0.10321741551160812, 0.17022451758384705, 0.8241977691650391, 0.12308648228645325, -0.09163352847099304, 0.1772952526807785, -0.27801135182380676, -0.6525834202766418, -0.027471428737044334, 0.15893308818340302, -0.0527779720723629, -0.384016215801239, 0.2861429452896118, -0.2473130077123642, 0.3049784302711487, -0.28870829939842224, -0.23153449594974518, 0.16043952107429504, 0.04904654249548912, -0.1380780041217804, 0.1361856311559677, -0.22337770462036133, -0.1575043797492981, -0.3229745924472809, 0.012669462710618973, -0.00874537043273449, -0.14684134721755981, -0.023510128259658813, -0.1592736542224884, 0.45786139369010925, -0.5140994787216187], [-0.11833299696445465, 0.38254794478416443, -0.15255454182624817, 0.34735482931137085, -0.03497868776321411, -0.1254088282585144, -0.12245269119739532, -0.02420889213681221, -0.5140266418457031, 0.25317278504371643, -0.06194800138473511, -0.06193378195166588, -0.14909300208091736, -0.142361581325531, 0.42496436834335327, -0.06286109238862991, -0.6332408785820007, 0.04750138893723488, -0.16979391872882843, -0.11236009001731873, -0.19271555542945862, 0.13212701678276062, -0.15187937021255493, 0.23190687596797943, 0.03477449342608452, 0.14624206721782684, -0.1976030319929123, -0.11945071816444397, 0.004827782511711121, 0.30355191230773926, 0.18044576048851013, -0.04650123789906502], [0.14809629321098328, -0.0469387024641037, 0.009134817868471146, 0.005713409744203091, -0.042508598417043686, -0.05154158174991608, -0.0627174824476242, -0.01717989519238472, 0.09455674886703491, -0.08220556378364563, -0.09361903369426727, -0.017976604402065277, -8.439623343292624e-05, 0.00956584420055151, -0.03128962218761444, -0.0503058061003685, 0.0029416847974061966, 0.07136785984039307, 0.011394759640097618, -0.018596556037664413, 0.12969739735126495, 0.038525041192770004, -0.1196661964058876, -0.12919922173023224, 0.031195051968097687, -0.032086312770843506, 0.33362966775894165, -0.004927694331854582, 0.03392127528786659, 0.062493160367012024, -0.042496051639318466, 0.000722385651897639], [-0.5050706267356873, 0.019211171194911003, -0.03446625918149948, -0.017117556184530258, 0.04781918227672577, -0.5693342685699463, -0.02494501695036888, -0.017923815175890923, -0.05930652841925621, 0.027447374537587166, -0.05865690857172012, 0.04587327316403389, 0.03714301064610481, -0.286499559879303, 0.0027873930521309376, -0.006213092710822821, -0.02413327246904373, 0.026610050350427628, -0.03560273349285126, -0.0021692346781492233, 0.012443927116692066, 0.44062089920043945, -0.2338782697916031, 0.13188976049423218, -0.0025092188734561205, 0.023732438683509827, 0.6278700232505798, 0.033706728368997574, -0.0324232392013073, -0.003114301711320877, 0.078132763504982, -0.005633206106722355], [0.17130634188652039, 0.08672814816236496, 0.024529315531253815, -0.001207180554047227, 0.047524552792310715, 0.1786707639694214, 0.03708409145474434, 0.024326061829924583, -0.07335218787193298, 0.051220476627349854, 0.05402156710624695, 0.017521671950817108, 0.02457321435213089, -0.1333550363779068, 0.024437054991722107, 0.07599784433841705, -0.0008047721930779517, -0.030043141916394234, -0.0006439547869376838, -0.014099164865911007, -0.08733467012643814, -0.22053617238998413, 0.9065819382667542, 0.20717447996139526, -0.02663758397102356, 0.02339867316186428, -0.45424550771713257, -0.05680638924241066, -0.04166041314601898, -0.04376615211367607, 0.05062708258628845, 0.0005342017393559217], [-0.6236013770103455, 0.540431797504425, 0.14879745244979858, 0.07235173881053925, -0.0772157609462738, -0.19676600396633148, 0.13786743581295013, -0.1060527116060257, -0.22258226573467255, 0.23205827176570892, 0.23521333932876587, -0.15225309133529663, -0.21420304477214813, -0.38380956649780273, -0.13548427820205688, 0.22386687994003296, -0.1544322669506073, -0.0302402563393116, -0.14796708524227142, 0.2132730931043625, -0.33690646290779114, 0.1453825682401657, 0.1432211995124817, 0.31602147221565247, -0.10142360627651215, 0.2061530500650406, -0.5672332048416138, -0.16487035155296326, 0.09858858585357666, 0.09342362731695175, 0.036064788699150085, -0.0055756536312401295], [-0.13826826214790344, -0.20197835564613342, 0.20743273198604584, 0.4697514772415161, 0.15521207451820374, -0.10709337890148163, -0.049396172165870667, -0.11651105433702469, 0.0720246359705925, -0.12260471284389496, 0.01671878807246685, 0.12931793928146362, -0.14122804999351501, -0.120224729180336, 0.0010329558281227946, -0.19630813598632812, -0.19499129056930542, -0.04988914355635643, 0.019366396591067314, 0.28452858328819275, 0.046063441783189774, 0.12315346300601959, -0.23200581967830658, 0.03922862187027931, -0.019377006217837334, -0.04306446388363838, 0.3712848126888275, 0.053343549370765686, -0.02507963590323925, -0.4795912504196167, 0.34695130586624146, -0.24251168966293335], [-0.034071799367666245, 0.014040014706552029, -0.011102861724793911, -0.002785119228065014, 0.006757896393537521, 0.07300616800785065, 0.06773477047681808, 0.009739409200847149, -0.04070941358804703, 0.050379060208797455, 0.0904599130153656, -0.004475093446671963, -0.018850302323698997, 0.04634794965386391, 0.01979922130703926, 0.004835885018110275, 0.010725913569331169, -0.0760127529501915, -0.01592090353369713, 0.005987236276268959, -0.11163067817687988, -0.04984544590115547, 0.202573761343956, 0.06932323426008224, -0.02375940792262554, 0.016503991559147835, -0.29388901591300964, 0.011525725945830345, 0.000269159470917657, -0.03157861903309822, 0.0020899437367916107, 0.0012018028646707535], [-0.37779054045677185, -0.08437572419643402, 0.17824284732341766, -0.004564009141176939, -0.20874932408332825, 0.22876180708408356, -0.2596711218357086, -0.1218993216753006, 0.1438511610031128, 0.004246889613568783, -0.2645193934440613, -0.019271263852715492, -0.18110941350460052, -0.2475854456424713, -0.19585609436035156, 0.20545853674411774, -0.004581097047775984, 0.2885296642780304, -0.01239065919071436, 0.1970948725938797, 0.14351987838745117, 0.3944461941719055, 0.3713286817073822, 0.8998586535453796, 0.21992777287960052, -0.11954869329929352, 0.7880651950836182, -0.20892789959907532, 0.13409855961799622, 0.18863871693611145, -0.12285929173231125, 0.23191304504871368], [0.47725456953048706, -0.522477924823761, 0.02051348052918911, 0.2014428824186325, -0.4224112927913666, 0.09828141331672668, 0.0998549535870552, 0.11350683122873306, 0.7292209267616272, -0.3252926170825958, 0.18314942717552185, -0.203776553273201, 0.352402925491333, 0.0830601379275322, -0.22061486542224884, -0.4169270992279053, 0.9073158502578735, -0.1282535046339035, -0.2847081124782562, 0.05216658115386963, -0.0823170468211174, -0.07499485462903976, -0.14238472282886505, -0.34018975496292114, -0.13203264772891998, 0.1806478500366211, 0.021355504170060158, 0.08106651902198792, 0.32803159952163696, 0.24810370802879333, 0.018668536096811295, -0.18118588626384735], [-0.296456903219223, 0.24630460143089294, 0.545221209526062, 0.21383339166641235, -0.1761332005262375, -0.12218721210956573, 0.06548920273780823, 0.08622550219297409, 0.026386480778455734, -0.018754716962575912, 0.04923084005713463, 0.24929122626781464, -0.35603398084640503, -0.4485113322734833, 0.11694404482841492, -0.06541081517934799, -0.17848221957683563, -0.1439540833234787, -0.015699129551649094, 0.04475973919034004, -0.1479640007019043, 0.0627666786313057, -0.08907421678304672, 0.261888712644577, -0.1020413264632225, 0.0563972145318985, -0.2256201207637787, 0.44310954213142395, 0.4181983172893524, 0.6378292441368103, -0.10600946098566055, -0.04615553840994835], [-0.7266700863838196, 0.14000827074050903, 0.31849420070648193, 0.1368839144706726, -0.41005823016166687, 0.11939704418182373, 0.16087056696414948, -0.2335684597492218, 0.27060648798942566, 0.017595728859305382, -0.07611227035522461, -0.2017955183982849, 0.27548348903656006, 0.093604177236557, 0.2819409668445587, -0.774225115776062, -0.829875111579895, 0.16107670962810516, -0.10403710603713989, 0.35793498158454895, -0.10834264755249023, 0.13310183584690094, -0.1525682806968689, 0.21149177849292755, -0.153581440448761, 0.1385885328054428, 0.04941018670797348, -0.14018212258815765, 0.03282535821199417, 0.2089248150587082, -0.3775070011615753, 0.39236733317375183], [0.2855573892593384, -0.46336954832077026, -0.3317985236644745, 0.3710390627384186, 0.07172351330518723, 0.10186784714460373, 0.027054274454712868, 0.07059035450220108, -0.38844576478004456, -0.13874267041683197, -0.04647134616971016, 0.3935413956642151, -0.17074613273143768, 0.21173357963562012, -0.045201778411865234, -1.0695942640304565, 0.061941489577293396, 0.06739776581525803, -0.22917981445789337, -0.13504521548748016, 0.08358197659254074, -0.024148553609848022, 0.13042040169239044, -0.15559867024421692, 0.0035045582335442305, 0.08278243988752365, 0.16443176567554474, 0.13938981294631958, -0.2721010744571686, 0.14440618455410004, 0.27524882555007935, 0.07321640849113464], [-0.7654946446418762, 0.28106728196144104, 0.20135915279388428, -0.25124645233154297, 0.014123063534498215, -0.1399850845336914, 0.05264578387141228, 0.019588835537433624, 0.101939857006073, 0.07306067645549774, -0.14269018173217773, -0.2623229920864105, -0.0402514785528183, -0.3403584659099579, -0.2227829545736313, -0.23647533357143402, 0.03523356840014458, 0.025082536041736603, 0.1103101372718811, -0.12246235460042953, -0.1032429113984108, -0.4055788516998291, -0.40366438031196594, -0.09475375711917877, 0.01783745549619198, -0.07352026551961899, 0.02292640693485737, -0.3345205783843994, -0.17120705544948578, -0.024280937388539314, -0.10296687483787537, 0.17114858329296112], [-0.5665422677993774, 0.12356207519769669, 0.05984658747911453, -0.11199887841939926, 0.17819848656654358, 0.33128637075424194, 0.3342892527580261, 0.04315157234668732, -0.2078315168619156, 0.17095154523849487, 0.4349702298641205, 0.10212739557027817, 0.1333397775888443, 0.6333504319190979, 0.1549133062362671, -0.18550917506217957, 0.14286327362060547, -0.5865514874458313, 0.06667893379926682, -0.24548538029193878, -0.23189646005630493, -0.0191334281116724, 0.229303240776062, 0.17046597599983215, -0.24149665236473083, 0.09951511025428772, -0.2358754575252533, -0.06873652338981628, -0.2479943484067917, -0.5038330554962158, 0.07493092119693756, 0.008232081308960915], [-0.06372100859880447, 0.35856249928474426, -0.03001021221280098, -0.018606210127472878, -0.06631723791360855, 0.12764094769954681, 0.36868128180503845, -0.010989162139594555, -0.10194583237171173, 0.23709481954574585, 0.4084590971469879, 0.15972290933132172, -0.013929357752203941, 0.013179061934351921, -0.02049229107797146, 0.06387742608785629, 0.09972069412469864, -0.383891224861145, -0.018424324691295624, -0.15578149259090424, -0.3551943302154541, -0.1517149955034256, 0.11627142131328583, 0.4205513000488281, -0.14902463555335999, 0.0410766638815403, -0.17856159806251526, 0.06852968782186508, 0.049281515181064606, -0.46086567640304565, -0.06569987535476685, -0.006510747130960226], [0.367000013589859, 0.5036340951919556, 0.1743369847536087, 0.3169599771499634, -0.07150781154632568, 0.008551416918635368, 0.12877735495567322, 0.07304929941892624, -0.4489806890487671, -0.1497918963432312, 0.00036024057772010565, 0.19047684967517853, 0.2976619601249695, -0.07134497165679932, -0.0006668111309409142, -0.3659633994102478, 0.3381522297859192, -0.1195952445268631, 0.03733394294977188, -0.3254711627960205, 0.0361180305480957, 0.07605094462633133, 0.009973432868719101, -0.0650986060500145, 0.07219827175140381, 0.0045364671386778355, 0.005639473907649517, 0.20119231939315796, -0.01787225343286991, -0.12093900889158249, 0.006523629650473595, 0.09532517939805984], [-0.6790232062339783, -0.5167341232299805, -0.08733030408620834, 0.3598968982696533, 0.16267099976539612, 0.03234948217868805, 0.2533275783061981, 0.03429026901721954, -0.6304714679718018, 0.3261209726333618, 0.20012317597866058, -0.3110368847846985, 0.09843457490205765, 0.026397351175546646, -0.059434451162815094, -0.6364285349845886, -0.35274621844291687, -0.25315582752227783, 0.13404002785682678, -0.22316740453243256, -0.25843000411987305, -0.07623516768217087, 0.017231911420822144, 0.456680029630661, -0.10001980513334274, 0.06747900694608688, -0.27626219391822815, 0.09569929540157318, -0.07830052077770233, -0.285015344619751, 0.08589109778404236, -0.006289004348218441], [-0.16168248653411865, -0.19739019870758057, 0.1480635404586792, -0.15019020438194275, -0.18184135854244232, 0.04779607802629471, -0.09371328353881836, -0.016979768872261047, 0.1996658444404602, -0.08236464112997055, -0.12905967235565186, 0.1382758617401123, 0.190108984708786, 0.08318831026554108, -0.4382927119731903, 0.24025879800319672, -0.27700456976890564, 0.06175459921360016, -0.30661842226982117, 0.07558055222034454, 0.11538766324520111, 0.052673593163490295, -0.057453613728284836, -0.1274326592683792, 0.0034925707150250673, 0.023109199479222298, 0.10518129914999008, 0.29884374141693115, 0.41135749220848083, 0.44923076033592224, -0.058773912489414215, 0.3536278009414673], [0.19624146819114685, -0.4143655002117157, 0.018916280940175056, -0.32910895347595215, 0.12696540355682373, 0.06722588837146759, -0.2393602728843689, 0.07688165456056595, 0.20125612616539001, -0.35563352704048157, -0.25785982608795166, 0.02806665189564228, 0.35018840432167053, 0.0477420836687088, 0.0005708712269552052, -0.1441836804151535, 0.04976043105125427, 0.39779651165008545, -0.018599601462483406, -0.04846230149269104, 0.7041406631469727, -0.38265010714530945, 0.3206184506416321, -0.4043749272823334, 0.2760270833969116, -0.23226775228977203, 0.10294093191623688, -0.15955482423305511, -0.014308384619653225, 0.45634713768959045, 0.11071763187646866, -0.03242649883031845], [0.5864960551261902, 0.44317230582237244, 0.23091167211532593, 0.20060355961322784, -0.19019459187984467, 0.09549689292907715, 0.32616740465164185, 0.08464920520782471, -0.08348798751831055, 0.0626787319779396, 0.19785723090171814, 0.45706459879875183, 0.3250845670700073, -0.03026951476931572, -0.02972659096121788, -0.21394552290439606, 0.5432900190353394, -0.2277320772409439, -0.12350647896528244, -0.06710381805896759, -0.2712726891040802, -0.22333016991615295, 0.20946088433265686, 0.10318933427333832, -0.2541953921318054, 0.08032888174057007, -0.282762348651886, -0.26137998700141907, 0.12670834362506866, 0.2246304303407669, -0.12781894207000732, 0.282461553812027], [0.26828765869140625, -0.35453706979751587, 0.046698588877916336, -0.44204771518707275, 0.0007919416530057788, 0.01719716377556324, -0.053687985986471176, 0.10352794826030731, 0.5212429761886597, -0.12078139930963516, -0.057141318917274475, -0.30965858697891235, -0.2745060920715332, 0.03346960246562958, -0.08443988859653473, 0.38587307929992676, -0.2202424705028534, 0.026661235839128494, -0.128482386469841, 0.18301650881767273, 0.20845402777194977, -0.10737311840057373, 0.0022378629073500633, -0.16474349796772003, 0.05846890062093735, -0.0013000939507037401, 0.1998765766620636, -0.26404061913490295, 0.11011717468500137, 0.2662479877471924, 0.11325699090957642, -0.143356591463089], [-0.3212284743785858, 0.4616111218929291, 0.21574130654335022, -0.17414937913417816, -0.0032703315373510122, 0.11313387751579285, 0.11768857389688492, 0.17073626816272736, -0.40399956703186035, 0.14794547855854034, 0.10584601014852524, 0.15849104523658752, 0.02827243134379387, 0.17981722950935364, 0.0873907282948494, -0.465806245803833, -0.04840840399265289, -0.03204429894685745, -0.056056566536426544, -0.28726232051849365, -0.19930699467658997, -0.1071164682507515, 0.21347804367542267, 0.0036607347428798676, -0.09962472319602966, 0.04976634681224823, -0.156640887260437, 0.2556014060974121, 0.12010911107063293, -0.29828089475631714, 0.10031697899103165, 0.008548535406589508], [-0.593438982963562, -0.6930570006370544, 0.032396525144577026, -0.02576350048184395, 0.020206624642014503, -0.02485826425254345, 0.0750470906496048, -0.08500336855649948, -0.3486791253089905, -0.06774333119392395, 0.054957758635282516, 0.23723873496055603, 0.10238014906644821, 0.08361029624938965, 0.06255340576171875, -0.15430103242397308, -0.3003543019294739, 0.0018458521226420999, 0.1159585565328598, -0.05764824151992798, -0.04919401556253433, -0.026443829759955406, -0.11211671680212021, -0.36651694774627686, 0.02010057307779789, -0.024550799280405045, -0.1039309948682785, 0.04768747463822365, 0.08688297867774963, -0.1645585298538208, -0.09600700438022614, -0.06274108588695526], [0.16309259831905365, 0.21297664940357208, 0.025165779516100883, 0.09373756498098373, -0.06817574054002762, 0.1234138011932373, 0.43066567182540894, 0.0764017254114151, -0.06747797131538391, -0.13743765652179718, 0.351992666721344, 0.0006993660936132073, 0.022810567170381546, -0.012924534268677235, 0.06570498645305634, -0.004937431309372187, 0.37089261412620544, -0.37770017981529236, -0.09472528100013733, -0.1280057728290558, -0.413235068321228, -0.31561508774757385, 0.25405222177505493, 0.2323465198278427, -0.2604726254940033, 0.1234603002667427, -0.4015921652317047, -0.016818713396787643, 0.04776761680841446, -0.03768604248762131, -0.06535927206277847, 0.09412679821252823], [-0.030695904046297073, 0.2431846261024475, 0.018183903768658638, 0.5734214186668396, -0.1134132593870163, -0.0035918334033340216, 0.04891873896121979, 0.11830423027276993, 0.38700762391090393, -0.020561471581459045, 0.13601051270961761, -0.24453915655612946, -0.3078564405441284, -0.014592664316296577, 0.22534659504890442, -0.15307225286960602, 0.5619312524795532, -0.1871488392353058, 0.02799864299595356, 0.18812686204910278, -0.10033728182315826, 0.00620474386960268, 0.0708291307091713, 0.07647858560085297, -0.043211620301008224, 0.00828713271766901, -0.12111321836709976, 0.24609041213989258, 0.2813561260700226, -0.49149248003959656, 0.3000432848930359, 0.3015552759170532], [0.25690701603889465, -0.21517126262187958, -0.17795731127262115, 0.19119267165660858, -0.07606849074363708, 0.023777619004249573, 0.21485653519630432, 0.0054876417852938175, 0.5091924071311951, -0.12897081673145294, 0.05866963043808937, 0.19703584909439087, 0.3924500346183777, 0.1786384880542755, 0.2126004993915558, -0.4040682017803192, 0.5581720471382141, -0.17960573732852936, 0.10272938013076782, -0.3390641510486603, 0.07893568277359009, -0.03865741565823555, 0.05866191163659096, -0.10464774072170258, -0.11780921369791031, 0.0018126042559742928, 0.05423998832702637, 0.4819132685661316, -0.5527921915054321, -0.07488037645816803, -0.12893420457839966, 0.16437147557735443], [0.5046657919883728, -0.36422574520111084, -0.28638845682144165, -0.061865366995334625, -0.07447420805692673, -0.38153859972953796, -0.27684539556503296, 0.08535541594028473, -0.008436562493443489, -0.17969198524951935, -0.3416230082511902, 0.23121844232082367, -0.11407686769962311, -0.10356906801462173, -0.003521519945934415, -0.33041030168533325, 0.18417656421661377, 0.11761504411697388, -0.1619805246591568, 0.5006901621818542, 0.30564433336257935, -0.24720518290996552, 0.47733595967292786, -0.31421592831611633, 0.330279141664505, -0.11818702518939972, -0.07919879257678986, 0.2123301476240158, -0.04134446009993553, -0.14645937085151672, -0.006815755274146795, 0.07130467146635056], [-0.1745244264602661, 0.050217192620038986, 0.1886667162179947, -0.13433898985385895, 0.022665254771709442, -0.05242505669593811, -0.012086930684745312, 0.21199071407318115, -0.19914285838603973, 0.006482144817709923, -0.03290168568491936, 0.1486695408821106, -0.1992122232913971, -0.06979706138372421, 0.21769516170024872, 0.08917292952537537, 0.21659311652183533, 0.029312551021575928, -0.18856941163539886, -0.4200925827026367, 0.04400165006518364, -0.0006326829898171127, -0.021098289638757706, -0.05880371108651161, 0.055965617299079895, -0.05457509309053421, 0.04231535643339157, -0.3054998815059662, 0.060927215963602066, -0.3290909230709076, -0.0461435429751873, 0.04770819842815399], [-0.5494341254234314, 0.009463103488087654, -0.05145275592803955, 0.36445334553718567, 0.11186425387859344, 0.10571689903736115, 0.24514800310134888, 0.03664163872599602, 0.07915748655796051, 0.31924688816070557, 0.2692511975765228, -0.2672322988510132, 0.33652645349502563, -0.21853069961071014, -0.12783655524253845, -0.015733083710074425, 0.05660513415932655, -0.1551416963338852, -0.1099730059504509, 0.047436852008104324, -0.35511186718940735, -0.1797923445701599, 0.21722446382045746, 0.39057421684265137, -0.08750911802053452, 0.08692343533039093, -0.546617329120636, 0.23779979348182678, 0.16837310791015625, 0.024126382544636726, 0.14518170058727264, -0.07511940598487854], [-0.24373537302017212, 0.28391799330711365, 0.09445464611053467, 0.2276677042245865, 0.04800959676504135, 0.018149221315979958, 0.26465123891830444, 0.08589071780443192, -0.2913029193878174, 0.02845185250043869, 0.10946226865053177, 0.6549435257911682, -0.06514935940504074, -0.21804994344711304, 0.06786739826202393, -0.5928767323493958, 0.8446159362792969, -0.23881088197231293, -0.13191968202590942, -0.021568663418293, -0.12241388857364655, -0.02844340167939663, -0.07592608779668808, 0.040820542722940445, -0.14342983067035675, 0.04561665654182434, -0.17688629031181335, -0.5489326119422913, -0.30969616770744324, -0.03633863851428032, 0.18218812346458435, 0.5300306677818298], [0.5750697255134583, 0.4624658524990082, 0.1251659393310547, 0.24710500240325928, -0.18920262157917023, 0.15929251909255981, 0.442386269569397, 0.1575295776128769, -0.06837072223424911, -0.1510486900806427, 0.3021054267883301, 0.3279208838939667, 0.23149313032627106, -0.09474092721939087, -0.0567019023001194, 0.04484880343079567, 0.6114736199378967, -0.40197116136550903, -0.15411899983882904, -0.05694916099309921, -0.33296409249305725, -0.30500689148902893, 0.22873879969120026, 0.07668165117502213, -0.31803107261657715, 0.11988076567649841, -0.29405972361564636, -0.0630333423614502, 0.2527463138103485, -0.008156460709869862, -0.06286951899528503, 0.28278958797454834], [0.2324250340461731, 0.007775766775012016, -0.40342482924461365, -0.3220347762107849, 0.23344698548316956, 0.13863344490528107, 0.021956000477075577, 0.046801306307315826, -0.10364292562007904, -0.08772203326225281, -0.030904795974493027, 0.6503424048423767, 0.4501470923423767, 0.07153073698282242, -0.18976114690303802, -0.2906408905982971, -0.5019168257713318, 0.0562751404941082, 0.08713626116514206, -0.023267369717359543, 0.009909302927553654, -0.015316332690417767, 0.012238931842148304, 0.02879294939339161, -0.08547327667474747, 0.012209216132760048, 0.02646000124514103, -0.2994931638240814, -0.6701804995536804, 0.28971758484840393, 0.12824857234954834, -0.31817853450775146], [0.31261271238327026, -0.04167654365301132, -0.05447830632328987, -0.5838788747787476, -0.002159593626856804, 0.10532380640506744, 0.1145235002040863, 0.13061605393886566, 0.042841836810112, -0.00899195671081543, 0.04628584533929825, 0.33330878615379333, -0.13320337235927582, 0.2581586539745331, -0.055176250636577606, -0.3650904595851898, 0.00828466471284628, -0.06532447040081024, -0.20034447312355042, 0.013832208700478077, 0.13951507210731506, -0.10550721734762192, 0.12084942311048508, -0.0751531645655632, -0.12951643764972687, 0.052722517400979996, -0.09798496216535568, -0.08443650603294373, 0.3116310238838196, 0.026911798864603043, 0.088239885866642, 0.29750651121139526], [-0.30847033858299255, 0.019898129627108574, 0.041621576994657516, 0.04555175453424454, -0.010147892870008945, 0.10329428315162659, 0.3336505591869354, 0.036804478615522385, -0.1334802508354187, 0.3446233570575714, 0.38470548391342163, -0.05290284752845764, -0.0020357496105134487, 0.057737283408641815, 0.0493265800178051, -0.14403851330280304, 0.07942381501197815, -0.33373576402664185, -0.004345985129475594, -0.061065673828125, -0.4250037968158722, -0.2856892943382263, 0.293472021818161, 0.19994209706783295, -0.1933009922504425, 0.09248552471399307, -0.4875349700450897, 0.03128869831562042, 0.03984050825238228, -0.04692051187157631, -0.0012871420476585627, 0.010756374336779118], [0.15677478909492493, -0.4312262237071991, 0.13260440528392792, -0.5426908731460571, 0.08799652755260468, 0.14335010945796967, -0.08601309359073639, 0.10788120329380035, 0.1330440193414688, -0.428365558385849, -0.06025182828307152, -0.2810167372226715, 0.07885846495628357, 0.20075973868370056, 0.04813088849186897, 0.28636109828948975, 0.2119692713022232, 0.12132355570793152, -0.031203731894493103, 0.0858248770236969, 0.06770990788936615, 0.2775452435016632, 0.45175737142562866, -0.0832798108458519, 0.06297329068183899, -0.05148029699921608, 0.2061455249786377, -0.556037962436676, -0.010810963809490204, 0.2067127674818039, 0.05492725968360901, -0.14334996044635773], [0.1138865053653717, 0.08029373735189438, 0.14975480735301971, 0.32633453607559204, 0.16582727432250977, 0.6873595714569092, 0.2245318591594696, 0.23728066682815552, -0.08296193927526474, 0.10818507522344589, 0.1915719360113144, 0.3518754243850708, 0.43460527062416077, 0.1135573536157608, -0.09812802821397781, 0.24966801702976227, -0.07927263528108597, -0.1044996902346611, -0.1952388882637024, -0.2522857189178467, -0.31475764513015747, 0.10748354345560074, 0.17242836952209473, 0.7999209761619568, -0.1565554141998291, 0.12470442056655884, 0.5849096775054932, -0.3819447159767151, 0.0036388940643519163, 0.2803097069263458, 0.24156597256660461, -0.26634031534194946], [-0.041117820888757706, -0.46416234970092773, 0.03180833160877228, -0.043984901160001755, 0.008183973841369152, 0.25683891773223877, -0.06264681369066238, -0.012465118430554867, -0.005447805393487215, -0.1653483361005783, 0.030292782932519913, -0.0059827049262821674, 0.35642293095588684, 0.18691356480121613, -0.0016085808165371418, 0.019558221101760864, -0.10419957339763641, 0.0001221468992298469, 0.019755950197577477, -0.11518225073814392, 0.09628508239984512, -0.13099800050258636, 0.3490160405635834, -0.29941314458847046, 0.01856306567788124, -0.024796772748231888, -0.36468741297721863, 0.10386120527982712, 0.1317417472600937, 0.13187485933303833, -0.1052006408572197, 0.058781757950782776], [0.572941780090332, -0.40912488102912903, 0.1107587069272995, 0.10141532868146896, 0.020155299454927444, 0.0844162106513977, -0.0037368375342339277, -0.15438970923423767, 0.23138217628002167, -0.6840570569038391, 0.0012981098843738437, -0.09951812773942947, 0.09106148034334183, 0.07558152824640274, -0.014121641404926777, 0.2434072345495224, -0.21790330111980438, 0.05065435171127319, 0.16150923073291779, 0.3487851321697235, -0.005591991823166609, -0.21699459850788116, 0.058570437133312225, -0.1386631727218628, -0.054202865809202194, -0.02147461287677288, -0.19151848554611206, -0.3119199275970459, -0.08864303678274155, 0.33435308933258057, 0.07731838524341583, -0.1665453165769577], [0.142224982380867, -0.328246146440506, 0.020341120660305023, -0.08617877215147018, -0.007933747954666615, -0.0797639712691307, -0.2743050754070282, -0.062081463634967804, 0.13868854939937592, -0.22878864407539368, -0.22410869598388672, -0.001073432620614767, 0.074201300740242, -0.009699886664748192, 0.02122596465051174, -0.16718925535678864, -0.17948123812675476, 0.3583570718765259, -0.018167737871408463, 0.1511743813753128, 0.200895294547081, 0.02265762910246849, -0.12800809741020203, -0.3869338631629944, 0.1707935929298401, -0.05668738856911659, 0.009476503357291222, -0.11459626257419586, 0.002342528896406293, 0.5958449244499207, 0.032106079161167145, 0.04547738656401634], [-0.19039233028888702, -0.05676555261015892, -0.0004955622716806829, -0.0515621118247509, 0.005739993881434202, 1.0781700611114502, 0.16056391596794128, 0.16292881965637207, -0.04646364971995354, -0.0027251748833805323, 0.1712796539068222, -0.07305037975311279, 0.27020806074142456, 0.3001083731651306, -0.025215331465005875, 0.11165894567966461, 0.2120499163866043, -0.0700078159570694, -0.1483170986175537, -0.15238423645496368, -0.2047346532344818, 0.20847317576408386, 0.8689062595367432, 0.06231040135025978, -0.0875733345746994, 0.04831576719880104, 0.5076891779899597, 0.169444277882576, 0.046300217509269714, 0.24331024289131165, -0.041043080389499664, 0.1597282439470291], [0.37902650237083435, -0.4749452769756317, -0.0304018035531044, 0.1944533884525299, 0.10732178390026093, 0.06855172663927078, 0.18083547055721283, 0.2184784859418869, 0.5804443955421448, -0.17985627055168152, 0.061276327818632126, -0.35293182730674744, 0.06074780225753784, 0.08186651021242142, 0.07019228488206863, -0.00016595418856013566, 0.10850047320127487, -0.10129190981388092, -0.14023810625076294, -0.18748553097248077, -0.05619159713387489, -0.06457673758268356, 0.17727693915367126, 0.02253248170018196, -0.20348218083381653, 0.020485086366534233, -0.06672880053520203, 0.41467398405075073, -0.12517718970775604, 0.1415615975856781, 0.22488641738891602, -0.07741733640432358], [0.159016415476799, -0.17130552232265472, -0.2947384715080261, -0.1160816103219986, 0.2516728937625885, 0.15320666134357452, -0.03954450413584709, -0.17985676229000092, 0.1316199153661728, -0.1274230033159256, -0.03414664790034294, 0.12421847134828568, 0.41060441732406616, -0.23425760865211487, -0.4764118194580078, -0.1610552966594696, -0.3854857087135315, 0.04782664775848389, 0.34647616744041443, -0.07845375686883926, 0.01231105625629425, -0.05231625586748123, 0.032338667660951614, -0.05597143992781639, -0.1687743216753006, 0.09655751287937164, 0.022362908348441124, 0.039645276963710785, 0.5697088241577148, 0.5206573605537415, 0.3158589005470276, 0.17320378124713898], [-0.1936647891998291, 0.42383718490600586, -0.046591028571128845, -0.29212963581085205, -0.12187472730875015, 0.1453118473291397, 0.24903236329555511, -0.04031561315059662, -0.2552841603755951, 0.17153173685073853, 0.27769553661346436, -0.19012843072414398, -0.06423618644475937, -0.09815694391727448, 0.11448147892951965, -0.31281107664108276, 0.08936625719070435, -0.2119140475988388, -0.05676666647195816, 0.1283351629972458, -0.40137726068496704, -0.20538875460624695, 0.2382989376783371, 0.18755054473876953, -0.15261083841323853, 0.09503011405467987, -0.3738654851913452, 0.12509560585021973, -0.03494654968380928, -0.10836794972419739, -0.0909183993935585, -0.1257256269454956], [-0.05008429288864136, 0.04585554078221321, 0.304126113653183, -0.7068496346473694, -0.06997629255056381, 0.06261441856622696, -0.06337719410657883, -0.02087133750319481, 0.17380587756633759, -0.08400225639343262, -0.07194109261035919, -0.027037741616368294, 0.25764474272727966, 0.13802877068519592, -0.13546594977378845, 0.020362749695777893, -0.17108581960201263, -0.02092178724706173, -0.5079423785209656, -0.021001871675252914, 0.0645844042301178, -0.030699824914336205, -0.051715973764657974, -0.0693693682551384, -0.01181984692811966, 0.010986123234033585, 0.08727052807807922, 0.1476779580116272, -0.2878679037094116, -0.11679399758577347, -0.31740668416023254, 0.3525136411190033], [-0.07892650365829468, 0.007569253910332918, -0.10952536016702652, 0.5729991793632507, -0.22560757398605347, -0.03705573454499245, 0.11403502523899078, -0.3425605297088623, 0.49702948331832886, -0.09092247486114502, 0.103436179459095, -0.44185444712638855, 0.4700733423233032, -0.044152382761240005, -0.1553693562746048, 0.16320030391216278, -0.09137902408838272, -0.12996794283390045, 0.20765195786952972, -0.028552914038300514, -0.09938041865825653, -0.002160104224458337, -0.34588074684143066, 0.10470511764287949, -0.06126215308904648, 0.010164959356188774, -0.07826893776655197, -0.0921391025185585, -0.010995116084814072, -0.023113535717129707, -0.5089513063430786, 0.3185535669326782]], "lstm.bias_ih_l0": [-0.4829145073890686, -0.22947810590267181, -0.0796024426817894, -0.5474740266799927, 0.0437665730714798, 0.4306377172470093, 0.01069435104727745, -0.12513694167137146, -0.14719100296497345, 0.03496227040886879, 0.01522242370992899, -0.42369404435157776, -0.2946770489215851, -0.27031007409095764, -0.25270751118659973, -0.6007698774337769, -0.7996493577957153, 0.027100611478090286, -0.018797876313328743, -0.21193869411945343, 0.1847335696220398, -0.6457782983779907, -0.060777224600315094, 0.4497308135032654, -0.057050418108701706, 0.0877583846449852, 0.13713859021663666, -0.16817352175712585, -0.09237585216760635, -0.2857261598110199, 0.07450589537620544, -0.5452147126197815, 1.1666855812072754, 0.44241830706596375, 0.07585874944925308, 0.27073368430137634, 0.13080288469791412, 0.565628707408905, 0.25044310092926025, 0.1458396166563034, 0.491438627243042, 0.20183813571929932, 0.171362966299057, 0.317923903465271, 0.2523576021194458, 0.6810024380683899, 0.33251312375068665, 0.1610717475414276, 0.37638404965400696, 0.17817886173725128, 0.08050164580345154, 0.17362965643405914, 0.24145109951496124, 1.0537906885147095, 0.8506223559379578, 0.28259900212287903, 0.04846768081188202, 0.13711777329444885, 0.4323493242263794, 0.1977996677160263, 0.3948195278644562, 0.37696167826652527, 0.13189394772052765, 0.4362752139568329, -0.21933259069919586, 0.10674531757831573, -0.24318116903305054, -0.1323074847459793, 0.21722936630249023, 0.13586656749248505, 0.07775593549013138, 0.14008018374443054, -0.40244096517562866, 0.43274474143981934, 0.12476951628923416, 0.13537472486495972, 0.22459784150123596, 0.16965755820274353, 0.19047018885612488, -0.17005597054958344, 0.07869843393564224, -0.21008077263832092, -0.14087903499603271, -0.23877300322055817, -0.28329741954803467, -0.05749563127756119, 0.23694805800914764, -0.014781386591494083, -0.16788272559642792, 0.0758853405714035, -0.38753002882003784, 0.13172897696495056, -0.2415873259305954, -0.36592385172843933, 0.22380298376083374, -0.07896069437265396, 0.05448087304830551, 0.3187921345233917, 0.023875826969742775, -0.1209661215543747, -0.01935007981956005, 0.18512099981307983, -0.006902239751070738, -0.18836171925067902, 0.5003665089607239, -0.14684560894966125, 0.11040397733449936, -0.014445307664573193, -0.12308882176876068, -0.22015339136123657, -0.14073015749454498, 0.030500609427690506, -0.2490409016609192, -0.14683327078819275, 0.04183444380760193, -0.09322600811719894, 0.3167117238044739, 0.02307780273258686, 0.3289698660373688, 0.4408629536628723, -0.147232323884964, -0.2059382051229477, 0.5078822374343872, 0.046800289303064346, 0.005000137258321047, 0.17256493866443634, 0.04749242216348648, -0.19715988636016846], "lstm.bias_hh_l0": [-0.508859395980835, -0.19952017068862915, -0.07961850613355637, -0.5475877523422241, 0.04376554116606712, 0.4281100630760193, 0.009024880826473236, -0.12513694167137146, -0.14718984067440033, 0.03496124595403671, -0.00014189227658789605, -0.4211932420730591, -0.29327526688575745, -0.3014114499092102, -0.2527085840702057, -0.5954148769378662, -0.7996447086334229, 0.02710062265396118, -0.0177594143897295, -0.2119390070438385, 0.18051548302173615, -0.6845656633377075, -0.24759812653064728, 0.4497673511505127, -0.0438588447868824, 0.08795902878046036, 0.09651261568069458, -0.1682429015636444, -0.09237382560968399, -0.28572818636894226, 0.07450592517852783, -0.4707159698009491, 1.250994324684143, 0.38933616876602173, 0.07621800899505615, 0.2708531320095062, 0.1308029294013977, 0.5623050332069397, 0.24968741834163666, 0.1458260864019394, 0.4914400279521942, 0.20183832943439484, 0.1836303323507309, 0.31519484519958496, 0.2547129988670349, 0.7261441946029663, 0.33251211047172546, 0.1615908294916153, 0.3763850927352905, 0.17818015813827515, 0.08051904290914536, 0.1736295372247696, 0.24300982058048248, 1.1354315280914307, 0.8252551555633545, 0.2824501693248749, 0.05747931823134422, 0.1366489678621292, 0.4514460265636444, 0.19755889475345612, 0.3948194980621338, 0.37696346640586853, 0.13189397752285004, 0.4532480835914612, 0.045467715710401535, 0.28251737356185913, -0.1948302984237671, -0.3012842833995819, 0.2598768174648285, 0.0962216779589653, 0.19261878728866577, 0.17711763083934784, -0.34657174348831177, 0.43203315138816833, 0.19035322964191437, 0.25701379776000977, 0.1612551212310791, 0.2036106288433075, 0.15879665315151215, -0.09764333069324493, -0.062055815011262894, -0.11657784879207611, -0.24410900473594666, -0.13765400648117065, -0.2952433228492737, -0.2544756233692169, 0.2988254725933075, -0.2991712987422943, -0.04618490859866142, 0.24270497262477875, -0.18582220375537872, 0.2107737809419632, -0.20023976266384125, -0.20109951496124268, 0.2218359261751175, -0.10943110287189484, 0.16757410764694214, 0.31597572565078735, 0.023862086236476898, -0.12095782160758972, -0.019349098205566406, 0.19756826758384705, 0.013880875892937183, -0.18817541003227234, 0.500366747379303, -0.14684510231018066, 0.10239101946353912, -0.012808580882847309, -0.12230032682418823, -0.1575949788093567, -0.14073152840137482, 0.033998940140008926, -0.24903976917266846, -0.1468334048986435, 0.04184728488326073, -0.09322646260261536, 0.3151254653930664, 0.06466631591320038, 0.17874708771705627, 0.44082459807395935, -0.15662182867527008, -0.2082105278968811, 0.4919547140598297, 0.0466344840824604, 0.005001169629395008, 0.17256639897823334, 0.04749276861548424, -0.2054608166217804], "dense.weight": [[-0.19902709126472473, -0.6074782013893127, -0.3151833117008209, 0.22963371872901917, 0.002884169574826956, -0.07806199789047241, 0.06286381185054779, 0.14717143774032593, 0.025333626195788383, -0.037433285266160965, -0.050364211201667786, 0.15880198776721954, -0.1813431829214096, 0.122249536216259, -0.30690813064575195, -0.5622197389602661, -0.3143722712993622, -0.06598597019910812, -0.24038198590278625, -0.026682281866669655, 0.051133520901203156, -0.03978806734085083, 0.1377279907464981, -0.0007451955461874604, 0.05814247950911522, 0.02189243957400322, -0.07184603810310364, 0.13589328527450562, 0.2555162310600281, 0.30378127098083496, 0.07313328981399536, -0.038493163883686066]], "dense.bias": [0.016850000247359276]}