{"lstm.weight_ih_l0": [[-0.13396012783050537], [0.03304459527134895], [-0.00091139180585742], [-0.07324397563934326], [-0.01634293422102928], [0.06371255218982697], [-0.015582656487822533], [-0.0002823330869432539], [0.0027298652566969395], [0.1053551509976387], [-0.0787501335144043], [-0.022107359021902084], [-0.10395096987485886], [0.017583396285772324], [0.022299859672784805], [0.056097935885190964], [0.11399818956851959], [-0.08025640994310379], [-0.13074836134910583], [0.07703011482954025], [0.012021266855299473], [0.007954705506563187], [-0.1452600210905075], [-0.04506639018654823], [0.13901397585868835], [0.06276515871286392], [-0.186848446726799], [0.01083058025687933], [-0.06538842618465424], [-0.12113721668720245], [-0.015239927917718887], [0.010734009556472301], [-0.0039040183182805777], [-0.10964986681938171], [0.000521429639775306], [0.03773016482591629], [0.019828947260975838], [-0.08517864346504211], [-0.149283304810524], [-0.060359466820955276], [0.0031364078167825937], [-0.09785743057727814], [-0.03859692066907883], [-0.04930570721626282], [-0.1408185362815857], [-0.07378454506397247], [-0.030580367892980576], [-0.07782624661922455], [0.027142196893692017], [0.15878812968730927], [-0.13333097100257874], [0.2586086690425873], [0.038676973432302475], [0.04291290044784546], [0.11896395683288574], [0.047472577542066574], [0.23010681569576263], [0.08625804632902145], [-0.04486982151865959], [0.07175862789154053], [0.0063847145065665245], [-0.06766065210103989], [0.0009128270321525633], [-0.010556917637586594], [-0.708794355392456], [0.0019737626425921917], [0.005677135195583105], [6.121713161468506], [0.14502118527889252], [-0.30672064423561096], [0.03660685569047928], [-0.001788963796570897], [0.009886274114251137], [0.11193699389696121], [-0.24506062269210815], [-0.0929928869009018], [-0.7324975728988647], [0.3825867474079132], [0.12305337935686111], [0.18583479523658752], [0.2918189764022827], [0.09752140939235687], [0.3888716995716095], [1.2266865968704224], [0.01503046229481697], [-0.21130339801311493], [-0.4468636214733124], [0.49022841453552246], [-0.22162383794784546], [-0.20301704108715057], [-0.35323911905288696], [0.5252955555915833], [0.019811715930700302], [0.4050225019454956], [-0.015727441757917404], [-0.2518845200538635], [-0.018170423805713654], [-0.017597950994968414], [-0.0010478118201717734], [-0.05345503240823746], [0.14142189919948578], [-0.09801735728979111], [-0.04092535376548767], [0.08731570094823837], [0.002758131828159094], [-0.06986714154481888], [-0.09888412803411484], [-0.09814739972352982], [0.3363596200942993], [-0.08121483772993088], [-0.01713903620839119], [0.019821442663669586], [0.2875036299228668], [-0.10376402735710144], [-0.018266066908836365], [-0.08286485075950623], [-0.002921308157965541], [0.04367893561720848], [-0.08097182214260101], [0.022422758862376213], [0.2621709704399109], [0.11694219708442688], [-0.03473123162984848], [0.1412171572446823], [-0.18338018655776978], [0.00017923969426192343], [0.001873605651780963], [0.011470452882349491]], "lstm.weight_hh_l0": [[0.09985960274934769, -0.22855819761753082, -0.005354991182684898, -0.28766295313835144, 0.05518598482012749, -0.8273326754570007, -0.04790932312607765, 0.22952018678188324, 0.01615656353533268, -0.15025363862514496, 0.33050069212913513, 0.22431504726409912, -0.8769300580024719, 0.0631449818611145, 0.2234327346086502, 0.23517826199531555, 0.669503390789032, -0.2818602919578552, 0.008286431431770325, -0.9767117500305176, 0.17465740442276, 0.01813802681863308, 0.1175307109951973, -0.07797135412693024, -0.3863561153411865, -0.16417662799358368, 0.0641644299030304, 0.07560435682535172, -0.4787198603153229, -0.20103496313095093, 0.12184645980596542, 0.10391000658273697], [-0.41958490014076233, 0.03931453451514244, -0.006933252327144146, -0.0783613994717598, 0.06848600506782532, -0.293084055185318, -0.29188746213912964, -0.057390011847019196, -0.006200041621923447, 0.29642990231513977, -0.0026929231826215982, 0.10248993337154388, -0.2442299723625183, 0.35507047176361084, 0.12128434330224991, 0.03485308215022087, -0.13103491067886353, 0.5007150173187256, -0.6433178782463074, -0.5143014192581177, 0.1867566704750061, -0.048038508743047714, 0.04929417371749878, 0.061890218406915665, -0.49076852202415466, 0.3299650549888611, -0.008900877088308334, 0.09519700706005096, -0.33496972918510437, -0.19892165064811707, 0.09255362302064896, 0.007454408332705498], [-0.0018913240637630224, -0.005374048370867968, 0.001635672408156097, 0.002623265376314521, -0.004667364060878754, -0.07171528786420822, 0.0009354785433970392, -0.004001408349722624, 0.0002397820499027148, 0.010916691273450851, 0.001057848334312439, 0.003714373568072915, -0.05545683577656746, 0.01341163832694292, 0.006714199669659138, -0.0006652387673966587, 0.0232292041182518, 0.02462306059896946, 0.0016472270945087075, -0.07303249835968018, 0.010925310663878918, -0.00029481074307113886, -0.004362928215414286, 0.004338995553553104, -0.004076580982655287, -0.0008577665430493653, -0.009007031098008156, 0.004023668821901083, -0.06649221479892731, -0.0029165041632950306, 0.030045242980122566, 0.00029246744816191494], [-0.16784435510635376, -0.013906988315284252, -0.002381867030635476, -0.06401824206113815, -0.16458603739738464, 0.11881162226200104, -0.1395585834980011, 0.17302881181240082, 0.009832012467086315, -0.11800117045640945, 0.17592932283878326, 0.212270125746727, 0.3233218193054199, -0.11995312571525574, -0.17111243307590485, -0.5189259648323059, -0.8697327375411987, 0.0019443781347945333, -0.02972896210849285, 0.31771600246429443, -0.8628316521644592, -0.24163231253623962, -0.015197811648249626, -0.000350611429894343, 0.13523119688034058, 0.30235394835472107, 0.07269705832004547, -0.025759588927030563, 0.3626171350479126, 0.07578247040510178, -0.20608071982860565, 0.00394210172817111], [0.09655885398387909, -0.1743205487728119, 0.008062498643994331, -0.05441571772098541, 0.09019646048545837, -0.0673065185546875, -0.046577807515859604, 0.19599145650863647, 0.00258590723387897, -0.22522641718387604, 0.12892641127109528, -0.08821099251508713, -0.025764865800738335, -0.16530820727348328, 0.10329555720090866, 0.04121183604001999, -0.22015520930290222, 0.29751354455947876, -0.2293495088815689, -0.151777982711792, 0.04413403570652008, 0.06379873305559158, -0.03209434822201729, 0.14604882895946503, 0.10881958901882172, 0.15171073377132416, 0.1809229850769043, -0.0006374691147357225, -0.12399762868881226, 0.0871078297495842, 0.11578331887722015, 0.07038059085607529], [-0.22115731239318848, 0.01666276529431343, 0.014475901611149311, 0.13749592006206512, 0.1179157942533493, 0.12014894187450409, 0.011830706149339676, -0.07042490690946579, 0.01192783284932375, 0.14858247339725494, -0.06753699481487274, 0.1342577189207077, 0.04298332706093788, 0.011671368032693863, 0.021030770614743233, -0.048784878104925156, -0.10608372837305069, 0.04614800214767456, 0.2301170974969864, -0.030963359400629997, -0.038812290877103806, -0.387999027967453, -0.13400551676750183, 0.36296790838241577, -0.02448229491710663, 0.0974503606557846, -0.2794073224067688, 0.07399404793977737, 0.0034656834322959185, -0.2796124517917633, -0.0076767862774431705, 0.15795044600963593], [0.004101587925106287, -0.2020585536956787, -0.006749440915882587, 0.115431047976017, -0.013688264414668083, 0.0818881168961525, 0.08844202756881714, -0.011871596798300743, -0.0016308377962559462, -0.06878430396318436, -0.04810553789138794, -5.056571535533294e-05, 0.040920618921518326, 0.07373613119125366, 0.004368216264992952, -0.13480810821056366, -0.10789745301008224, -0.007556756492704153, -0.03363189473748207, 0.13485823571681976, 0.11020318418741226, -0.1915019005537033, -0.060365550220012665, -0.07644150406122208, -0.05271582677960396, -0.016937604174017906, 0.03426830470561981, 0.05110955610871315, 0.1013946533203125, -0.11305950582027435, -0.3382011651992798, 0.05480276048183441], [0.015573222190141678, 0.05458483099937439, 0.004059965722262859, -0.1196230947971344, 0.017312949523329735, 0.1571839153766632, 0.020175235345959663, 0.0072918422520160675, 0.0011095305671915412, 0.04459187388420105, -0.01319076493382454, 0.002058500424027443, 0.15561050176620483, 0.01861322857439518, -0.0026163707952946424, 0.09318388998508453, -0.11544068902730942, -0.095398910343647, 0.03504321351647377, 0.23082058131694794, -0.18483303487300873, -0.04034773260354996, -0.060584213584661484, -0.0030443440191447735, 0.06517983973026276, 0.02319464273750782, -0.1330087035894394, -0.09623139351606369, 0.20354929566383362, -0.04631320759654045, -0.1216820552945137, -0.1624184101819992], [-0.0018445206806063652, -0.004505271092057228, 0.00042905836016871035, 0.0020292422268539667, -0.0012070049997419119, -0.06794144958257675, 0.0015027595218271017, -0.0016650911420583725, 0.0010171820176765323, 0.010407625697553158, -0.007002437952905893, 0.0035716367419809103, -0.05064760893583298, 0.010088087990880013, 0.010858546011149883, 0.005415104795247316, 0.023236820474267006, 0.021162724122405052, 0.0028054744470864534, -0.07136376202106476, 0.017063181847333908, 0.009684212505817413, -1.5660996723454446e-05, 0.001210834481753409, -0.002948131412267685, 0.0008972672512754798, -0.00037688619340769947, 0.002395886229351163, -0.06283845752477646, -0.0028923931531608105, 0.028368311002850533, 0.0024508293718099594], [-0.005022871308028698, -0.26133906841278076, 0.02185959555208683, 0.2997039258480072, 0.01846863329410553, -0.045606277883052826, -0.18623115122318268, 0.07586007565259933, -0.008441927842795849, 0.17085087299346924, 0.15589763224124908, -0.0653490200638771, -0.14744193851947784, -0.5314601063728333, -0.005849029403179884, -0.08109438419342041, 0.0236437376588583, 0.37132197618484497, -0.04618605226278305, -0.28864356875419617, 0.3751404285430908, -0.18879829347133636, 0.10896015912294388, 0.14764656126499176, -0.15927471220493317, -0.09266242384910583, 0.4265245497226715, 0.47403445839881897, -0.11011181026697159, 0.21420906484127045, -0.26786234974861145, 0.3761991262435913], [0.13035207986831665, -0.21281491219997406, 0.017805201932787895, -0.0999896451830864, -0.20149056613445282, 0.09356481581926346, 0.15318697690963745, -0.21443575620651245, 0.0017336353193968534, 0.02103104628622532, 0.303199827671051, -0.22337421774864197, -0.07282203435897827, -0.10960212349891663, -0.016418615356087685, 0.1892719715833664, 0.2640085220336914, -0.057655662298202515, 0.0937359631061554, 0.01814395561814308, 0.26560017466545105, 0.19679081439971924, 0.2944108545780182, -0.008830864913761616, -0.12958833575248718, -0.1456540822982788, -0.19889874756336212, -0.04236406460404396, 0.06115088239312172, -0.16012245416641235, -0.29302605986595154, -0.07782444357872009], [0.04398494213819504, -0.06609553843736649, -0.0020751021802425385, -0.07966148108243942, 0.0008920111577026546, 0.12855255603790283, 0.08278502523899078, 0.05070849135518074, -0.002079024678096175, -0.024890214204788208, 0.08788842707872391, -0.017940156161785126, 0.06593693047761917, -0.07053758949041367, -0.030676793307065964, 0.06243366748094559, -0.0714331865310669, -0.025567585602402687, 0.07867348939180374, 0.10592292994260788, 0.04417171701788902, 0.1053418293595314, 0.09504050016403198, -0.06515158712863922, -0.010449557565152645, 0.018804406747221947, 0.065053790807724, -0.05740460753440857, 0.12097400426864624, 0.040339600294828415, -0.08051988482475281, -0.09627307951450348], [0.3628321588039398, 0.029203860089182854, -0.005219289567321539, 0.2630968689918518, 0.0764998346567154, 0.0707520842552185, -0.22390592098236084, 0.06203937157988548, -0.005630663596093655, -0.02473345585167408, 0.019800689071416855, 0.2595658302307129, 0.10274692624807358, 0.0020389414858072996, 0.0630633682012558, -0.2196435183286667, -0.08241599798202515, 0.021310510113835335, -0.2892388701438904, 0.15210632979869843, 0.1765219122171402, 0.07350623607635498, -0.2848566174507141, -0.6020703911781311, 0.3529501259326935, -0.061659496277570724, 0.2282264679670334, -0.18216995894908905, 0.0334344245493412, 0.05756338685750961, 0.01741817779839039, 0.29522207379341125], [-0.02376616932451725, 0.10739729553461075, -0.015045330859720707, -0.06220550835132599, 0.1547997146844864, 0.1343352347612381, -0.05208832398056984, 0.09579844027757645, -0.00994826015084982, 0.07999441772699356, -0.05129186809062958, 0.05591389536857605, 0.14146743714809418, -0.007935150526463985, -0.15563549101352692, 0.03033083863556385, 0.029755860567092896, 0.17635542154312134, 0.1338813304901123, 0.06974837929010391, 0.055717747658491135, 0.14825451374053955, 0.10222669690847397, -0.010421445593237877, 0.06209259852766991, -0.03734857589006424, 0.07998691499233246, -0.09345231205224991, 0.12228856980800629, 0.04879844933748245, -0.1579856127500534, -0.01620802842080593], [0.003717802930623293, 0.0827251598238945, 0.003582207951694727, 0.06502808630466461, 0.045471690595149994, 0.3157758414745331, 0.013446140103042126, -0.035077016800642014, 0.009457061998546124, -0.2031305432319641, 0.0818307027220726, -0.034303683787584305, 0.24154572188854218, -0.0666997879743576, -0.024951046332716942, 0.14347641170024872, 0.012284088879823685, -0.22674639523029327, 0.02323291450738907, 0.3042876720428467, -0.02437763474881649, -0.02282768487930298, -0.03137832134962082, 0.04101339727640152, 0.07614706456661224, -0.059173718094825745, 0.0012395449448376894, -0.06036150082945824, 0.2768603563308716, -0.0015277238562703133, -0.17267245054244995, 0.054449018090963364], [0.026577049866318703, -0.14230771362781525, -0.023727167397737503, -0.20755521953105927, 0.4153262972831726, -0.33118999004364014, -0.3235900402069092, -0.1140473484992981, -0.015603948384523392, 0.0494496189057827, 0.14104212820529938, 0.09704600274562836, -0.33025407791137695, 0.28096503019332886, 0.37835434079170227, -0.15167325735092163, 0.4820171594619751, 0.8513593077659607, -0.17242097854614258, -0.43893134593963623, 0.21850532293319702, -0.027297088876366615, -0.0839911699295044, 0.2953107953071594, 0.0838780626654625, -0.004608302842825651, 0.0627073124051094, 0.08385919779539108, -0.2823907434940338, 0.2857765257358551, 0.12645679712295532, -0.3774721324443817], [0.06837871670722961, -0.07382572442293167, 0.0076954723335802555, 0.521538257598877, -0.06962727010250092, 0.12027724832296371, -0.05392180383205414, -0.033084895461797714, -0.0010249027982354164, 0.06632634252309799, -0.12497121840715408, 0.11239387094974518, 0.061685483902692795, 0.006956665776669979, -0.0798049345612526, -0.22916898131370544, -0.07504873722791672, 0.21940553188323975, -0.20355887711048126, 0.1261339634656906, -0.0010607958538457751, -0.24063155055046082, -0.1462642252445221, 0.14438128471374512, -0.05646192654967308, -0.06894773244857788, 0.23756234347820282, 0.09041724354028702, 0.05043267086148262, -0.10872739553451538, 0.006418098229914904, 0.5087719559669495], [-0.0680510625243187, 0.3756410777568817, 0.03477160260081291, -0.22902408242225647, 0.20799404382705688, -0.29101699590682983, 0.2552464008331299, 0.11978811025619507, 0.013875867240130901, -0.4319325089454651, 0.018260935321450233, 0.15693210065364838, 0.003118045860901475, 0.6393988132476807, 0.19410297274589539, 0.10965684801340103, 0.23129752278327942, 0.06860947608947754, -0.040545955300331116, -0.37683844566345215, 0.4108811914920807, 0.9282318949699402, 0.24013365805149078, -0.0871189534664154, 0.2816178798675537, 0.08570843189954758, 0.05713251233100891, -0.2441065013408661, -0.30169442296028137, -0.24646726250648499, 0.2616259753704071, -0.1711120903491974], [0.16320085525512695, 0.014355463907122612, 0.01581423729658127, 0.07942922413349152, -0.16411300003528595, -0.7489085793495178, -0.13174943625926971, 0.08112691342830658, -0.014411458745598793, 0.1043480783700943, -0.25960060954093933, 0.04014166444540024, -0.5702881813049316, 0.32173606753349304, 0.14576390385627747, -0.12671703100204468, 0.3936345875263214, -0.06792370975017548, 0.029109183698892593, -0.7657409310340881, 0.3583438992500305, -0.04260822385549545, -0.0937870442867279, 0.11063870787620544, -0.4242195785045624, 0.16968433558940887, 0.28576523065567017, 0.20700395107269287, -0.6431684494018555, -0.07529237866401672, 0.2589183747768402, 0.047910742461681366], [-0.2576706111431122, 0.02871572971343994, 0.007280922029167414, -0.0010672291973605752, 0.0002054382930509746, 0.1997528076171875, -0.06081652641296387, 0.021693548187613487, -0.022346077486872673, 0.0010294535895809531, -0.026432694867253304, 0.10888800770044327, 0.21646913886070251, 0.0776243805885315, -0.04544171690940857, -0.05390532687306404, -0.1362495869398117, 0.0658198744058609, 0.11685067415237427, 0.0892954170703888, -0.140091672539711, -0.07505738735198975, -0.022676987573504448, 0.24415305256843567, 0.0040273284539580345, 0.045321814715862274, -0.22571514546871185, -0.09739288687705994, 0.052503470331430435, -0.11773975193500519, -0.01182976458221674, 0.0509737953543663], [-0.3833999037742615, 0.2880399525165558, -0.002313550328835845, -0.353959858417511, 0.04774677753448486, -0.03696615621447563, -0.0811147466301918, 0.09407087415456772, -0.0064201499335467815, -0.08575601875782013, 0.3227023184299469, 0.024034563452005386, -0.0655510425567627, -0.01924312114715576, -0.2083273082971573, -0.004048136528581381, 0.1997043788433075, -0.05082119628787041, -0.10036005079746246, -0.10220222920179367, -0.09893402457237244, 0.19941997528076172, 0.34017401933670044, 0.10143472999334335, 0.1632765531539917, 0.06842000037431717, -0.5736569762229919, -0.024125760421156883, -0.07509997487068176, -0.3053755760192871, 0.14545579254627228, -0.4068281948566437], [0.011907783336937428, 0.07364353537559509, -0.0017112857894971967, 0.015403680503368378, -0.03553704172372818, 0.3096364140510559, -0.02690613642334938, -0.007296116091310978, -0.002239178866147995, 0.009861478582024574, 0.005734634585678577, 0.015365632250905037, 0.2849648594856262, 0.023777538910508156, -0.012228150852024555, 0.06408524513244629, -0.16880899667739868, -0.1476399004459381, 0.04025121033191681, 0.36349189281463623, -0.19948916137218475, -0.05403676629066467, 0.03082536719739437, -0.01676296629011631, 0.05631878226995468, 0.028219863772392273, 0.024483030661940575, -0.07673458009958267, 0.3443048596382141, -0.008546455763280392, -0.17683042585849762, 0.005243314895778894], [0.023495441302657127, -0.20637518167495728, -0.003403924871236086, -0.04845398664474487, 0.10793662816286087, 0.3996211290359497, -0.15048328042030334, 0.1950627863407135, 0.010782173834741116, -0.6927413940429688, -0.43543657660484314, 0.15883107483386993, 0.36002495884895325, -0.34302854537963867, -0.3600671887397766, -0.21971485018730164, -0.5470510721206665, -0.5148707628250122, -0.0998607650399208, 0.247770756483078, -0.4036875069141388, -0.5736714005470276, -0.29981809854507446, -0.3101709485054016, 0.1812182366847992, 0.011963492259383202, -0.13244087994098663, -0.4770355820655823, 0.20954908430576324, -0.1567879170179367, -0.3449631333351135, -0.003009609878063202], [0.23922215402126312, -0.007472101133316755, 0.0011631931411102414, -0.015271022915840149, -0.10856984555721283, -0.5410534143447876, -0.17873527109622955, 0.3551309108734131, -0.006406466942280531, 0.10027439147233963, -0.10081838816404343, -0.1908964067697525, -0.8115968704223633, 0.17946530878543854, 0.11728978902101517, -0.08732189238071442, 0.6725888848304749, 0.05474560335278511, -0.020214753225445747, -1.025462031364441, 0.4421594440937042, -0.0787690132856369, -0.14071226119995117, -0.13704726099967957, -0.2519131898880005, -0.33166658878326416, 0.011206862516701221, -0.04318416118621826, -0.3538622260093689, 0.11778663843870163, 0.2662180960178375, -0.005560697056353092], [-0.1656438708305359, 0.024510757997632027, 0.002257418353110552, 0.26351094245910645, -0.017696479335427284, -0.12116680294275284, 0.1910182684659958, -0.12639547884464264, -0.009851532056927681, 0.673275351524353, -0.058018915355205536, -0.09984555840492249, -0.1607489138841629, 0.2060735821723938, -0.12179946154356003, 0.17187826335430145, -0.08503155410289764, 0.39215320348739624, 0.22203107178211212, -0.1788734644651413, 0.3165002465248108, -0.2967761158943176, -0.15732599794864655, -0.16277870535850525, -0.21508660912513733, -0.15191763639450073, -0.030628301203250885, 0.07839559763669968, -0.1909288913011551, 0.3087370991706848, 0.21888981759548187, 0.2666737735271454], [0.05432318150997162, -0.018488654866814613, -0.0026922577526420355, 0.16783295571804047, -0.0030690571293234825, -0.0013763692695647478, 0.09547162055969238, -0.1119251623749733, 0.004550524055957794, -0.17947079241275787, 0.05304604396224022, -0.07507248967885971, -0.08211501687765121, -0.08286410570144653, 0.016543325036764145, 0.19704149663448334, 0.1486077606678009, -0.054402127861976624, 0.07297251373529434, 0.05998837202787399, 0.08990409970283508, -0.11197775602340698, -0.2098281979560852, 0.01210870873183012, 0.09687702357769012, -0.1458902209997177, 0.11497371643781662, 0.048163194209337234, 0.04934852570295334, 0.1437864601612091, -0.069758340716362, 0.16125573217868805], [0.017091678455471992, -0.23860210180282593, -0.012449230067431927, -0.08406494557857513, -0.06244988739490509, -0.41535279154777527, 0.049664221704006195, -0.009747388772666454, 0.0034348401241004467, 0.10206761211156845, 0.039146292954683304, -0.1753372997045517, -0.603813886642456, 0.31425002217292786, 0.19070811569690704, 0.21964864432811737, 0.07890450209379196, 0.5561684966087341, -0.1068669855594635, -0.7243685722351074, -0.022184811532497406, -0.09586944431066513, -0.2514339089393616, -0.10713094472885132, -0.25331544876098633, 0.0802733302116394, 0.5228200554847717, 0.017996158450841904, -0.20619799196720123, -0.16128352284431458, 0.36742183566093445, 0.05882133170962334], [-0.006168887484818697, 0.06576957553625107, -0.012606886215507984, 0.0055845677852630615, 0.02250034175813198, 0.06437142193317413, -0.2225385308265686, 0.0008799987263046205, -0.011090103536844254, 0.15936802327632904, 0.14746636152267456, 0.09225284308195114, 0.04798609018325806, -0.18177096545696259, -0.13255618512630463, 0.056534867733716965, -0.03625653311610222, 0.3446075916290283, -0.2534162700176239, 0.027283761650323868, 0.01831599324941635, -0.18911412358283997, -0.09018832445144653, 0.026300271973013878, 0.05724285915493965, -0.00911037065088749, 0.19029761850833893, 0.057774510234594345, 0.023367395624518394, -0.013184335082769394, -0.06699669361114502, -0.03348657116293907], [0.050174225121736526, -9.706718992674723e-05, -0.01154946070164442, -0.020002443343400955, -0.011002976447343826, 0.18972600996494293, 0.0035011102445423603, 0.035179734230041504, 0.0013367191422730684, -0.10002271085977554, 0.01968822255730629, 0.041660211980342865, -0.007742611691355705, -0.008616144768893719, -0.0196332149207592, 3.0305440304800868e-05, -0.027109738439321518, -0.017318466678261757, -0.06467445194721222, 0.13340967893600464, -0.08404266834259033, 0.15292343497276306, 0.06545209139585495, -0.11016597598791122, -0.03566879406571388, -0.03213687986135483, 0.03620350733399391, -0.042717210948467255, 0.07758407294750214, -0.013578927144408226, -0.03167258948087692, -0.04889257997274399], [0.08667124807834625, -0.1329403519630432, 0.023160751909017563, 0.07269284129142761, 0.005705357063561678, -0.7353660464286804, 0.10605721175670624, -0.041970059275627136, -0.012332054786384106, -0.10571056604385376, 0.10647065937519073, 0.11690523475408554, -0.2466696947813034, 0.009714135900139809, 0.0918516293168068, 0.05181024968624115, 0.38574719429016113, 0.18259640038013458, -0.04982994496822357, -0.7542259097099304, 0.14250095188617706, 0.3831694424152374, 0.033485621213912964, -0.11494235694408417, -0.6716017127037048, 0.005438830703496933, -0.0034880531020462513, 0.20473282039165497, -0.5166482329368591, -0.07149644941091537, 0.5746635794639587, 0.12874625623226166], [0.3904983699321747, -0.696442723274231, -0.023083223029971123, 0.21137511730194092, -0.03227851912379265, -0.12188592553138733, -0.04676727578043938, -0.31448209285736084, -0.01667480170726776, -0.1044570803642273, 0.43401628732681274, 0.07321160286664963, -0.09774754196405411, -0.018710238859057426, -0.11689682304859161, -0.032517291605472565, 0.04552442580461502, -0.059311918914318085, 0.09858433902263641, -0.19785170257091522, 0.2983662784099579, -0.5043774247169495, -0.6047619581222534, 0.10495135933160782, -0.003417538944631815, -0.03060791827738285, 0.9380722045898438, 0.05474068224430084, -0.15137052536010742, 0.08484052121639252, -0.31805211305618286, 0.21564283967018127], [-0.05966644361615181, 0.08977389335632324, 0.0010724915191531181, 0.03154253214597702, 0.03954995423555374, 0.4157523214817047, -0.057009026408195496, 0.0582166351377964, -0.00048303563380613923, -0.20476149022579193, 0.0341104120016098, 0.028798842802643776, 0.36142396926879883, -0.017706047743558884, -0.15223351120948792, -0.01822291500866413, -0.13901685178279877, -0.22205229103565216, -0.060502756386995316, 0.43402841687202454, -0.15186698734760284, -0.19070996344089508, -0.0357515849173069, -0.021120894700288773, 0.01481856219470501, -0.0011255190474912524, -0.04036718234419823, -0.08959618955850601, 0.41506561636924744, -0.05981793999671936, -0.23160439729690552, 0.012515604496002197], [0.1436818689107895, -0.006826329976320267, -0.005074233748018742, 0.10058289766311646, -0.3323928713798523, 0.7624706029891968, -0.1514839380979538, -0.18074283003807068, -0.018530718982219696, 0.10054740309715271, 0.03986496850848198, 0.11341667175292969, 0.6423296332359314, -0.2866772711277008, -0.0482134073972702, -0.08306330442428589, -0.3608854115009308, -0.31302693486213684, 0.03565182909369469, 0.7058678865432739, -0.7066125273704529, -0.2137647122144699, -0.1961652934551239, -0.16356737911701202, -0.10055778175592422, 0.0826517641544342, -0.04319116845726967, -0.15373875200748444, 0.8201223611831665, -0.01180218905210495, -0.5573172569274902, -9.673333988757804e-05], [0.22302314639091492, 0.026527613401412964, 0.0023756155278533697, 0.09733319282531738, 0.10863413661718369, 0.523390531539917, -0.20468373596668243, -0.20042705535888672, 0.005759613588452339, -0.04375686123967171, 0.41178834438323975, -0.05987662822008133, 0.4033668637275696, -0.17782248556613922, -0.02912232093513012, 0.3207886815071106, 0.08277181535959244, -0.349049836397171, 0.2595236599445343, 0.5038810968399048, -0.19748495519161224, -0.05762970820069313, -0.10947518795728683, -0.07289347797632217, 0.007286170031875372, -0.0004473277076613158, -0.16416554152965546, 0.20558419823646545, 0.614281952381134, 0.20042744278907776, -0.4312613606452942, 0.2125847190618515], [-0.0002845953858923167, -0.0012439914280548692, 0.00020654540276154876, 0.0002933168725576252, -0.0014953725039958954, -0.029129469767212868, -0.000573654833715409, -0.0019728427287191153, 7.74557629483752e-05, 0.00774441147223115, -0.0012845902238041162, 0.0029762096237391233, -0.021281084045767784, 0.008301814086735249, 0.001024549244903028, -0.0022060817573219538, 0.012550165876746178, 0.011149689555168152, 0.0003772369818761945, -0.028808778151869774, 0.0035866976249963045, -0.004032263997942209, -0.005093332380056381, 0.001474299468100071, -0.0015385807491838932, -0.0007134148618206382, -0.007186407223343849, -0.0006718935328535736, -0.026043597608804703, -0.0006775568472221494, 0.013588239438831806, -0.00054272694978863], [-0.059560634195804596, -0.11691668629646301, 0.004642043728381395, 0.0038333251141011715, -0.12127473950386047, -0.00655774399638176, -0.2672058641910553, 0.10950921475887299, 0.007337934337556362, 0.172239750623703, -0.04052378609776497, 0.01770695671439171, 0.3585433065891266, 0.004874964710325003, -0.10034827142953873, -0.5577642321586609, -0.8439298272132874, 0.17000383138656616, 0.0076071107760071754, 0.3352278769016266, -0.46833744645118713, -0.3069651424884796, 0.139409601688385, -0.07865925878286362, 0.3906008303165436, 0.42786481976509094, 0.06646654009819031, 0.0538969524204731, 0.15295200049877167, 0.2061065435409546, -0.3618772029876709, 0.08983933180570602], [0.16373449563980103, -0.21962152421474457, 0.014793111942708492, 0.09490368515253067, 0.06346919387578964, 0.31900274753570557, 0.0352860763669014, 0.1137915700674057, 0.011273692362010479, -0.6759774088859558, -0.047884028404951096, -0.2451990693807602, 0.2580665349960327, -0.013883632607758045, 0.13150396943092346, -0.10818269848823547, -0.24287772178649902, -0.12219793349504471, -0.10250473767518997, 0.22842112183570862, -0.24643687903881073, -0.12450327724218369, -0.1488872766494751, 0.18249663710594177, 0.19617979228496552, 0.036731306463479996, 0.1328718513250351, -0.08655344694852829, 0.3091120421886444, 0.09913598001003265, -0.2769833207130432, 0.10399506241083145], [-0.13944001495838165, -0.0036002243869006634, 0.00391822773963213, -0.21362872421741486, 0.1762460470199585, 0.31735530495643616, 0.09413331747055054, 0.043988414108753204, -0.004253502003848553, 0.2638589143753052, -0.09672331064939499, 0.07360968738794327, 0.29681798815727234, -0.14988593757152557, -0.08318766206502914, -0.18610018491744995, -0.5012247562408447, -0.04487421363592148, 0.2599126100540161, 0.043632589280605316, 0.07756944000720978, 0.06421052664518356, 0.18533477187156677, 0.3315294682979584, 0.022908389568328857, 0.23707590997219086, -0.171320840716362, 0.0335446260869503, 0.11106099933385849, -0.26059824228286743, -0.07500328123569489, -0.07699313014745712], [0.058111269026994705, 0.018698500469326973, -0.02119157277047634, -0.012179848738014698, 0.027955980971455574, 0.03648447245359421, 0.11239847540855408, 0.017042918130755424, -0.005831566639244556, 0.1570879966020584, -0.03803597018122673, 0.06687317043542862, 0.05524660274386406, 0.024027898907661438, -0.050953466445207596, -0.09507987648248672, -0.15081068873405457, 0.16263969242572784, -0.07578433305025101, 0.06094076484441757, 0.20410992205142975, -0.04148044064640999, 0.14811120927333832, -0.20095732808113098, -0.05594253167510033, -0.007166427560150623, 0.1270924061536789, -0.0005213246331550181, 0.02423555590212345, -0.1370754837989807, -0.3709080219268799, -0.012261266820132732], [0.04462921991944313, -0.0017741493647918105, -0.005798931233584881, -0.15852437913417816, 0.09516258537769318, -0.03833898901939392, -0.18335099518299103, -0.045191287994384766, 0.0019655609503388405, 0.24613627791404724, 0.07560782879590988, 0.08419250696897507, -0.05625252425670624, -0.11539777368307114, -0.39315420389175415, 0.4599462151527405, -0.009135350584983826, 0.33341407775878906, -0.023514647036790848, 0.09032052010297775, -0.11194560676813126, -0.17569053173065186, 0.020253876224160194, -0.1413348913192749, 0.1267877221107483, -0.15984661877155304, 0.06046483665704727, -0.19608835875988007, 0.05032601207494736, 0.039724200963974, -0.0235552079975605, -0.12805338203907013], [-0.002284277928993106, -0.0029650279320776463, 0.0003215368196833879, 0.0021441890858113766, 0.0006676216726191342, -0.027541985735297203, 0.0015935368137434125, -0.0014981358544901013, 0.0005403021350502968, 0.0070407879538834095, -0.004564173519611359, 0.0038761941250413656, -0.022250553593039513, 0.008408102206885815, 0.0027193669229745865, -0.0008781058713793755, 0.012234129011631012, 0.012004568241536617, 0.0017609185306355357, -0.027833543717861176, 0.00728641590103507, 0.005461522843688726, 0.0013930798741057515, 0.0026178935077041388, -0.0013468717224895954, -0.0015407721512019634, -0.0030256398022174835, 0.0027931625954806805, -0.025613004341721535, -0.003103697206825018, 0.01493044849485159, 0.001434135134331882], [0.08201712369918823, -0.41428422927856445, 0.00798055250197649, -0.07338664680719376, -0.27100324630737305, 0.3402305543422699, 0.054635655134916306, 0.058333661407232285, -0.020448237657546997, -0.4107310473918915, 0.11405624449253082, -0.065261609852314, 0.22243893146514893, -0.03570675849914551, -0.08077072352170944, -0.02039629966020584, -0.5790380835533142, -0.16467858850955963, -0.1753258854150772, 0.264891654253006, 0.3027479946613312, -0.4551544785499573, -0.13097475469112396, -0.21826623380184174, -0.249098539352417, 0.059476666152477264, 0.5297775268554688, 0.13349178433418274, 0.34011924266815186, 0.13141517341136932, -0.2119554579257965, 0.031259965151548386], [-0.15640486776828766, 0.05292701721191406, 0.030060885474085808, 0.12852570414543152, -0.14117711782455444, 0.14337752759456635, -0.26769378781318665, -0.12215395271778107, 0.0038799503818154335, -0.18615703284740448, 0.08301466703414917, 0.29665565490722656, 0.26004090905189514, -0.06148502975702286, -0.21485605835914612, 0.010431834496557713, -0.0476287342607975, 0.09094200283288956, -0.11407191306352615, 0.1616019606590271, -0.4388824999332428, -0.37613245844841003, -0.13290545344352722, -0.07860680669546127, -0.12740561366081238, -0.09691489487886429, 0.07084887474775314, -0.06914535164833069, 0.16999590396881104, -0.14637187123298645, -0.5285851359367371, 0.07824701815843582], [0.05382996425032616, -0.1670680046081543, -0.0028080770280212164, -0.17334234714508057, -0.08518785238265991, 0.1580599695444107, 0.11682252585887909, 0.1776781678199768, -0.0016998301725834608, -0.0802839919924736, 0.0923277735710144, 0.0001664738665567711, 0.09365509450435638, -0.1866506189107895, -0.013901562429964542, -0.08985157310962677, -0.24634578824043274, -0.02699356898665428, 0.09825276583433151, 0.11721205711364746, 0.03406156599521637, 0.19855201244354248, 0.16203606128692627, -0.11033204942941666, -0.12247392535209656, 0.10255138576030731, 0.21936780214309692, -0.03275312855839729, 0.1660647839307785, 0.17326635122299194, -0.044704996049404144, -0.1441623866558075], [0.21470528841018677, -0.21290956437587738, 0.0011532105272635818, -0.15932588279247284, -0.10986091196537018, -0.03102181665599346, -0.11248902976512909, -0.06304163485765457, -0.008137603290379047, -0.05533648654818535, 0.010103130713105202, 0.2493215650320053, 0.023890353739261627, -0.03609539568424225, -0.050512928515672684, -0.47076350450515747, -0.16016006469726562, 0.007108144927769899, -0.22608749568462372, 0.06178447604179382, 0.29750338196754456, -0.20373447239398956, -0.2867140471935272, -0.28153809905052185, -0.027232814580202103, -0.06851918995380402, 0.23809242248535156, 0.047712989151477814, 0.020080795511603355, 0.058766745030879974, 0.037485599517822266, -0.0283178873360157], [0.10826052725315094, 0.12739768624305725, -0.040577761828899384, -0.08559107035398483, 0.25337085127830505, 0.03583170473575592, -0.15865521132946014, 0.2083311378955841, -0.023991603404283524, 0.3679405450820923, -0.08226398378610611, 0.2979503571987152, 0.20953479409217834, -0.30427542328834534, -0.07848335802555084, -0.036353275179862976, 0.026167413219809532, 0.48253685235977173, 0.16695153713226318, -0.006307161413133144, 0.2485334277153015, 0.24015019834041595, 0.4189351499080658, -0.03942159563302994, 0.23063896596431732, 0.0004462077049538493, 0.12085086852312088, -0.015105054713785648, 0.05473949387669563, 0.015671370550990105, -0.20060735940933228, -0.0190143883228302], [-0.026139922440052032, 0.1359574794769287, -0.006493669468909502, 0.041898272931575775, -0.03166191279888153, 0.15427900850772858, 0.32166722416877747, 0.2849533259868622, 0.014835767447948456, 0.07829267531633377, -0.0034451379906386137, 0.018232127651572227, 0.022535154595971107, -0.003926725126802921, -0.038428064435720444, -0.012173633091151714, -0.24347266554832458, -0.18368934094905853, -0.029759611934423447, 0.1342824250459671, 0.07086826860904694, -0.28098487854003906, -0.17292532324790955, 0.024217789992690086, -0.09453388303518295, 0.04746632277965546, -0.017460908740758896, -0.1464620679616928, 0.015970420092344284, -0.05230545252561569, 0.1917003095149994, 0.24937137961387634], [0.09157562255859375, 0.23017674684524536, -0.019504085183143616, 0.010268314741551876, 0.477569043636322, 0.5193199515342712, 0.067631296813488, 0.22479724884033203, -0.03862703591585159, -0.16363397240638733, 0.3441976010799408, 0.2555873692035675, 0.3231073021888733, -0.30589890480041504, -0.18565680086612701, -0.05207222327589989, 0.14144642651081085, 0.12498251348733902, 0.03189139440655708, 0.5161471366882324, 0.1428423672914505, 0.1339266151189804, 0.2219637781381607, -0.09073790162801743, 0.09189368039369583, -0.050882574170827866, -0.04988856613636017, -0.20960618555545807, 0.48122715950012207, 0.01257311087101698, -0.5522763133049011, -0.026341170072555542], [0.10877341032028198, 0.12051227688789368, 0.006884584203362465, 0.14934787154197693, -0.22479742765426636, 0.18486803770065308, -0.1449672430753708, 0.13742512464523315, -0.0060625080950558186, 0.3463808596134186, 0.05723290517926216, 0.22829695045948029, 0.23042939603328705, -0.10157598555088043, -0.20356038212776184, -0.42836278676986694, -0.36489641666412354, 0.3015524446964264, -0.3514169156551361, 0.12388260662555695, -0.16546300053596497, -0.10412463545799255, 0.17694005370140076, 0.15978071093559265, 0.036768022924661636, 0.15795506536960602, 0.1485932320356369, 0.03223742917180061, 0.12083487957715988, -0.10030705481767654, 0.1401146799325943, 0.14040441811084747], [-0.18821650743484497, 0.2995007038116455, 0.018660670146346092, 0.29058390855789185, 0.20592820644378662, 0.5143706798553467, -0.03233518451452255, 0.15465176105499268, -0.01215137168765068, -0.259374737739563, -0.06366051733493805, 0.13743798434734344, 0.5020211338996887, 0.25947269797325134, -0.09461528062820435, 0.3794506788253784, -0.12152014672756195, -0.42687395215034485, 0.19494420289993286, 0.6199762225151062, -0.59556645154953, -0.2339799553155899, 0.032868579030036926, 0.2883109748363495, 0.16653819382190704, 0.08496151864528656, -0.5761259198188782, -0.24334177374839783, 0.5056382417678833, -0.2184358835220337, -0.2912650406360626, 0.34727996587753296], [0.10508082807064056, -0.0881742462515831, -0.005812297109514475, -0.07455077022314072, -0.09185347706079483, 0.7521517276763916, 0.09909744560718536, 0.03154120221734047, -0.01565403677523136, -0.24231398105621338, -0.28584110736846924, -0.005016724579036236, 0.5191482901573181, -0.4498154819011688, 0.003981371410191059, -0.1952783465385437, -0.05891671031713486, -0.7204561233520508, -0.1363522857427597, 0.655877411365509, -0.06748157739639282, -0.319689005613327, 0.027554232627153397, -0.07384959608316422, -0.3793305456638336, 0.16493283212184906, 0.012987101450562477, -0.2014928013086319, 0.759559690952301, -0.13578423857688904, -0.38168320059776306, -0.10385394841432571], [-0.15426094830036163, 0.0944148600101471, -0.0064160567708313465, 0.5241293907165527, -0.08318917453289032, 0.24140523374080658, -0.24370625615119934, -0.03196398913860321, -0.04270477592945099, -0.13146167993545532, 0.17259883880615234, 0.417019784450531, 0.24252116680145264, 0.2179083526134491, -0.02746172994375229, -0.40083685517311096, -0.2501278519630432, 0.32146021723747253, 0.07312054932117462, -0.04585976526141167, -0.24404969811439514, -0.2768632471561432, -0.19376805424690247, 0.11683444678783417, -0.03470819815993309, 0.0024119128938764334, 0.13619598746299744, -0.21171219646930695, -0.002548985881730914, -0.03893136605620384, 0.007770454045385122, 0.3762566149234772], [-0.38658297061920166, 0.3740421533584595, 0.0019585960544645786, -0.06491785496473312, -0.03842911496758461, 0.1992751508951187, -0.08931194990873337, 0.29553455114364624, -0.00966061744838953, 0.07857150584459305, -0.0116276228800416, 0.0027972788084298372, 0.0936310887336731, -0.11266373842954636, -0.07102372497320175, -0.03498653694987297, 0.11615555733442307, -0.26617205142974854, -0.009732264094054699, 0.17146067321300507, -0.2596239447593689, 0.12458452582359314, 0.18325331807136536, 0.03732038661837578, 0.17844773828983307, 0.16711844503879547, -0.5981621742248535, -0.1102944165468216, 0.11888222396373749, -0.3352397382259369, 0.14486384391784668, -0.033664271235466], [-0.24774359166622162, 0.2455880045890808, 0.009585096500813961, 0.12223226577043533, -0.13161875307559967, -0.10201943665742874, -0.3760034143924713, 0.18458491563796997, 0.009926245547831059, 0.39203083515167236, -0.00392403407022357, 0.13993363082408905, -0.2165425568819046, -0.0187442135065794, -0.22275760769844055, -0.1894679218530655, -0.06367421895265579, 0.4178016781806946, -0.06006529927253723, -0.10594290494918823, -0.3066897392272949, -0.5336642265319824, 0.20789216458797455, -0.055754467844963074, -0.1445968747138977, -0.3081592321395874, 0.1672319918870926, -0.043620042502880096, -0.034025970846414566, -0.14380799233913422, -0.07351601123809814, 0.15839830040931702], [0.11409099400043488, -0.030101729556918144, 0.005610519088804722, 0.13114506006240845, 0.14456042647361755, -0.07177965342998505, 0.3104925751686096, -0.17423895001411438, -0.01686861552298069, -0.14852650463581085, 0.03334883227944374, -0.0025071913842111826, 0.13185271620750427, -0.16876813769340515, -0.05199892446398735, 0.7460508942604065, 0.14927223324775696, 0.12519404292106628, 0.19620175659656525, 0.037857238203287125, 0.2625306248664856, 0.19891202449798584, -0.13966906070709229, 0.32401397824287415, 0.2003287971019745, 0.06274917721748352, -0.12680037319660187, -0.10693952441215515, -0.1059577465057373, 0.007948428392410278, 0.11080513149499893, -0.0976785346865654], [-0.023986881598830223, 0.22492392361164093, -0.009144020266830921, -0.0062598600052297115, -0.09701216965913773, 0.8169183135032654, 0.09144287556409836, 0.182332843542099, 0.0035937230568379164, -0.246711865067482, 0.28880852460861206, 0.2867029309272766, 0.6621567606925964, -0.5317131876945496, -0.10716469585895538, -0.10857566446065903, -0.23372295498847961, -0.13835979998111725, -0.1504163146018982, 0.8497717976570129, -0.4544866383075714, -0.19650326669216156, 0.0448513925075531, -0.010166073217988014, 0.04442974179983139, -0.032937902957201004, 0.04731404781341553, -0.11286076158285141, 0.830579400062561, -0.06278405338525772, -0.6273977756500244, -0.11106568574905396], [-0.31739264726638794, 0.1217542216181755, 0.015619787387549877, 0.2608574628829956, -0.03004622831940651, 0.11809773743152618, 0.11260191351175308, -0.02258005365729332, -0.007306230720132589, 0.25945502519607544, -0.08007851988077164, -0.1423483043909073, 0.06112562119960785, -0.037715017795562744, 0.00031638916698284447, 0.17328469455242157, 0.22899658977985382, 0.09459897130727768, 0.25459617376327515, 0.10390414297580719, 0.18159766495227814, -0.2921873927116394, -0.09959026426076889, 0.09436571598052979, -0.24425967037677765, -0.2866188585758209, -0.0040165334939956665, 0.22460199892520905, 0.09915568679571152, 0.42493903636932373, -0.0337630920112133, 0.26223278045654297], [0.01807715743780136, -0.058382850140333176, -0.007861624471843243, 0.1785697489976883, -0.11323583871126175, -0.06226731464266777, 0.07481703162193298, -0.10828125476837158, 0.0038027309346944094, -0.20738433301448822, 0.12686248123645782, -0.05927746742963791, -0.0989643931388855, 0.017469927668571472, -0.053250718861818314, 0.023207055404782295, 0.18841390311717987, -0.06179790943861008, 0.06669306755065918, 0.04376870393753052, 0.05102837085723877, -0.17327195405960083, -0.2938670814037323, -0.020115025341510773, 0.040809232741594315, -0.11671086400747299, 0.06062616780400276, 0.09090549498796463, 0.02286757342517376, 0.21766911447048187, -0.019962938502430916, 0.15011174976825714], [0.03709931671619415, 0.03611571341753006, -0.026108989492058754, 0.034633103758096695, 0.18665310740470886, 0.6301512122154236, -0.09130040556192398, -0.23385797441005707, -0.01251376885920763, 0.0017778015462681651, 0.18770256638526917, -0.16449950635433197, 0.3947112262248993, 0.09795106202363968, -0.014794900082051754, 0.3219587206840515, -0.13390256464481354, -0.37086090445518494, 0.25449708104133606, 0.5503546595573425, -0.3434470295906067, -0.09390751272439957, -0.05563965439796448, 0.15748104453086853, 0.05438238009810448, 0.09748849272727966, 0.11320944875478745, 0.1482151299715042, 0.6854924559593201, -0.21716958284378052, -0.6099918484687805, 0.056098572909832], [-0.1450100541114807, 0.13148857653141022, -0.027338173240423203, -0.048026323318481445, -0.10432255268096924, 0.06523498147726059, -0.2683057188987732, -0.054788943380117416, -0.016443511471152306, 0.20123609900474548, 0.5262715816497803, 0.08793988078832626, 0.05810930207371712, -0.3437972068786621, -0.3008827865123749, -0.0388595312833786, 0.06010386720299721, 0.34295231103897095, -0.19350694119930267, 0.027166496962308884, -0.17495769262313843, -0.2774098515510559, -0.033253785222768784, 0.15939345955848694, -0.0757722556591034, 0.022793414071202278, -0.03277629241347313, 0.20424839854240417, 0.037964362651109695, -0.0007007027743384242, -0.08379916846752167, -0.08836890757083893], [0.037972960621118546, -0.05763433501124382, -0.00038007384864613414, 0.1291244477033615, -0.03803304582834244, 0.2860715091228485, -0.019468247890472412, -0.013067444786429405, -0.006444951519370079, -0.13484138250350952, -0.006444137543439865, 0.09940551966428757, 0.1336580365896225, 0.039012063294649124, -0.05881990119814873, -0.05393660068511963, -0.06107410788536072, -0.04002454876899719, -0.0783502534031868, 0.4003148078918457, -0.2245294153690338, 0.09635565429925919, 0.008425392210483551, -0.17254222929477692, 0.021536750718951225, -0.001719614490866661, -0.02582673169672489, -0.0398530587553978, 0.1930485963821411, -0.03573479503393173, -0.11304336041212082, 0.04736090451478958], [0.10038384795188904, 0.17729414999485016, -0.015675246715545654, 0.02038133516907692, 0.046986013650894165, 0.6722272634506226, 0.11729107797145844, 0.06484195590019226, -0.012079522013664246, -0.2107931524515152, -0.008764909580349922, -0.2770130932331085, 0.5884454846382141, -0.018856734037399292, 0.14928282797336578, -0.13099250197410583, -0.2947465777397156, -0.3773156702518463, -0.1731296181678772, 0.5984166860580444, -0.3089251220226288, 0.06458976864814758, 0.20810967683792114, 0.12844805419445038, -0.19017311930656433, 0.09370670467615128, 0.17003528773784637, -0.390463650226593, 0.6382870674133301, 0.08582407981157303, -0.42190849781036377, 0.0901511013507843], [0.13937482237815857, -0.9612224102020264, -0.01733197271823883, 0.04607070982456207, 0.04851694777607918, 0.25060948729515076, 0.2109072357416153, -0.0844510868191719, -0.026065165176987648, -0.3929590582847595, 0.16641385853290558, -0.13931876420974731, 0.1648625284433365, -0.028509575873613358, 0.002770255319774151, 0.16709911823272705, -0.07642818987369537, -0.45257291197776794, 0.13166524469852448, 0.11165623366832733, 0.12265918403863907, -0.2517474889755249, -0.4439079761505127, 0.2273467481136322, -0.09532885253429413, 0.10959289222955704, 0.4331674575805664, 0.15147368609905243, 0.21863499283790588, 0.17525124549865723, -0.7787317037582397, 0.037095047533512115], [-0.03197052702307701, -0.05104757845401764, -0.013066723011434078, 0.022609183564782143, -0.05744790658354759, -0.042103126645088196, -0.11084125190973282, -0.05516994372010231, -0.007583915255963802, -0.049067120999097824, 0.054787036031484604, 0.13449148833751678, 0.054716091603040695, 0.17177806794643402, 0.00793862622231245, -0.30711379647254944, -0.49785590171813965, -0.07754002511501312, -0.16167405247688293, 0.004204043187201023, -0.4003186821937561, 0.11128994077444077, -0.20498797297477722, -0.1440638154745102, -0.1311872899532318, 0.06464477628469467, 0.2044915407896042, -0.011434116400778294, -0.02395292930305004, -0.11363765597343445, 0.08225522190332413, 0.016431409865617752], [0.15968924760818481, -0.07638221234083176, 0.018720533698797226, -0.699931800365448, -0.04246805980801582, -0.14558184146881104, -0.10727567970752716, -0.042152684181928635, 0.010711697861552238, 0.09724006056785583, 0.2506258487701416, -0.07479412853717804, 0.2057686150074005, -0.02192322164773941, 0.020323552191257477, 0.28884628415107727, 0.047568224370479584, 0.15977758169174194, -0.12861081957817078, 0.015514818020164967, -0.13388755917549133, 0.1710222363471985, 0.37041810154914856, -0.5398054122924805, -0.17297618091106415, 0.31234198808670044, 0.050288520753383636, 0.08555257320404053, 0.15067580342292786, 0.32968538999557495, 0.1664649397134781, -0.460705429315567], [-0.010996771976351738, 0.2777411639690399, -0.012575448490679264, -0.17471182346343994, 0.3086117208003998, -0.47702914476394653, 0.11191447824239731, 0.23859034478664398, 0.0011690669925883412, 0.13831795752048492, -0.32560333609580994, -0.050133123993873596, 0.07643208652734756, -0.5669523477554321, -0.06854625791311264, 0.05393442139029503, 0.09432166814804077, 0.0800192728638649, 0.5283822417259216, 0.008477349765598774, -0.1691076159477234, 0.09569604694843292, -0.2216482013463974, -0.8680604696273804, 0.05848487839102745, 0.0012385393492877483, -0.8821728229522705, 0.061596550047397614, 0.024913009256124496, -0.161176398396492, 0.15322230756282806, -0.04116136208176613], [-0.0013014075811952353, -0.010288340970873833, -0.012689270079135895, 0.020180264487862587, 0.002508698496967554, -0.009640076197683811, 0.0029859254136681557, -0.02561652660369873, 0.002424010308459401, 0.0031979677733033895, -0.00995629746466875, -0.003445720998570323, -0.0032446468248963356, 0.008813953958451748, 0.012641364708542824, 0.0008875770727172494, -0.005442989524453878, -0.002998997922986746, -0.0043899598531425, 0.006472419016063213, -0.0010240288684144616, 0.005310412496328354, 0.008291419595479965, -0.0054237921722233295, -0.0015660811914131045, -0.0024281225632876158, 0.003119786735624075, -0.019142841920256615, -0.003446165006607771, -0.004258702974766493, 0.017237864434719086, 0.012695700861513615], [1.59886634349823, 0.0005695847794413567, -0.0031796228140592575, 0.8502159714698792, 0.007433873135596514, 0.40244701504707336, -0.05195986479520798, 0.06365485489368439, -0.0023287206422537565, 0.0009584423387423158, 0.06420441716909409, -0.05408601462841034, 0.21560591459274292, -0.02894628420472145, -0.006532485131174326, 0.02918408252298832, -0.09430228173732758, -0.07579640299081802, -0.6238164901733398, -0.36305081844329834, 0.051282674074172974, 0.06337449699640274, 0.12627345323562622, -1.621471881866455, 0.037981703877449036, 0.10800332576036453, 0.07759850472211838, -0.011651991866528988, -0.45486360788345337, -0.8002622127532959, 0.037428732961416245, -0.6632739901542664], [0.3946879804134369, 0.41999518871307373, -0.012216860428452492, -0.04296499863266945, 0.08057967573404312, 0.06705767661333084, 0.40921545028686523, 0.11750026792287827, 0.007658206857740879, -0.22039157152175903, -0.3274739682674408, 0.13779252767562866, -0.435234397649765, 0.05389941483736038, -0.06504716724157333, 0.08005830645561218, -0.21391108632087708, -0.06670254468917847, -0.09504039585590363, 0.13756833970546722, 0.022310683503746986, 0.3338354229927063, 0.1618887335062027, 0.31130924820899963, -0.12936601042747498, 0.0715670958161354, -0.7070397138595581, -0.23164837062358856, -0.24450081586837769, 0.2024209052324295, -0.30506423115730286, -0.07086187601089478], [0.10601163655519485, 0.4604327082633972, -0.01948324218392372, 0.17271751165390015, 0.004523718263953924, 0.2852911949157715, 0.07101916521787643, 0.0943852961063385, 0.025049963966012, 0.18292821943759918, 0.20532386004924774, -0.11513130366802216, 0.4759102463722229, 0.20824651420116425, -0.18278662860393524, -0.08809519559144974, -0.04318447783589363, -0.05791227146983147, 0.20319099724292755, 0.13837085664272308, 0.29198533296585083, -0.23068197071552277, -0.06374959647655487, -0.4372108280658722, -0.11297381669282913, 0.12856078147888184, 0.21883860230445862, -0.17903384566307068, 0.5064201951026917, 0.06445017457008362, -0.16032546758651733, 0.22517475485801697], [0.37492263317108154, -0.07285110652446747, -0.004908293019980192, 0.05763205140829086, -0.2251637578010559, -0.31599411368370056, 0.13043461740016937, -0.17004616558551788, -0.004391810856759548, -0.33013299107551575, 0.39830610156059265, 0.1623028963804245, 0.26251769065856934, 0.1529504358768463, 0.0906592532992363, 0.11288628727197647, -0.12528258562088013, 0.01820467971265316, 0.4452866315841675, 0.3140832185745239, 0.4844609200954437, -0.1694604754447937, 0.8660183548927307, -0.008395947515964508, -0.2522629201412201, 0.037803418934345245, -0.3696519136428833, 0.13037921488285065, -0.23518845438957214, 0.011932320892810822, -0.15441085398197174, -0.31539589166641235], [-0.07806605845689774, 0.016639137640595436, 0.00031067049712873995, -0.47968077659606934, 0.03817630931735039, 0.021281151100993156, -0.28763511776924133, 0.3420718312263489, 0.015050210990011692, -0.8102137446403503, 0.21169798076152802, 0.17523464560508728, 0.04332491755485535, -0.21057440340518951, 0.10249385982751846, -0.04170722886919975, -0.2241404503583908, 0.009334472008049488, 0.01307071465998888, -0.3535899221897125, -0.13028492033481598, 0.39035463333129883, 0.7327314019203186, -0.27873218059539795, -0.4188409745693207, 0.2442067414522171, -0.43015411496162415, 0.08501717448234558, -0.0974089503288269, -0.08000098913908005, 0.3068113625049591, 0.062010738998651505], [-0.004195735324174166, 0.0013727451441809535, -0.0014244052581489086, -0.002675608266144991, -0.011315859854221344, -0.0021789665333926678, 0.021234428510069847, 0.00048585725016891956, -0.013891349546611309, -0.019774029031395912, -0.005665467120707035, -0.006689350586384535, 0.0028991857543587685, 0.012073488906025887, -0.0042420304380357265, 0.007118191570043564, 0.0021894241217523813, 0.0037528700195252895, 0.003479188773781061, 0.0006199069903232157, -0.020217115059494972, -0.007613486610352993, 0.007017464842647314, 0.011092416010797024, 0.01793474704027176, 0.020177172496914864, -0.010443723760545254, -0.0029798895120620728, -0.0046103294007480145, 0.01736704260110855, -0.008621337823569775, 0.004632496275007725], [0.21538832783699036, -0.13858802616596222, 0.04486086964607239, -0.47611021995544434, -0.03659715875983238, -0.03695531189441681, 0.27191320061683655, 0.09663351625204086, -0.003899643663316965, 0.6135464310646057, -0.0034381865989416838, 0.5309998393058777, 0.04512450471520424, 0.5045345425605774, -0.25253304839134216, 0.027719907462596893, -0.15433254837989807, 0.42682069540023804, 0.603459358215332, 0.021012969315052032, -0.14694079756736755, 0.02854062058031559, -0.017315583303570747, -0.5213775038719177, -0.22305536270141602, 0.03094254620373249, -0.6423408389091492, 0.0787617489695549, -0.27916568517684937, -0.004810339771211147, 0.3933531939983368, -0.5744474530220032], [-0.18222394585609436, 0.4812459945678711, 0.012575809843838215, -0.12706881761550903, -0.11195892095565796, 0.24916212260723114, -0.27848419547080994, -0.507940411567688, -0.014251434244215488, -0.03411056846380234, -0.07586073130369186, 0.36367836594581604, -0.04166802391409874, 0.5173314213752747, -0.0020734069403260946, 0.10051953047513962, 0.13890866935253143, 0.08535542339086533, -0.007084782235324383, -0.08135703206062317, -0.07976549118757248, 0.38088175654411316, -0.6633086204528809, 0.016608040779829025, -0.1516909897327423, -0.24608072638511658, 0.3419094383716583, 0.18772311508655548, 0.17288018763065338, -0.10717654973268509, -0.3153724670410156, -0.4791369140148163], [0.46348077058792114, 0.3947269320487976, 0.006396162323653698, 0.18012042343616486, -0.08620664477348328, 0.010456358082592487, -0.30516189336776733, 0.40607503056526184, -0.015678804367780685, 0.004615638870745897, -0.5415235757827759, 0.23049083352088928, -0.031818728893995285, -0.3880196809768677, 0.1671539694070816, -0.11107825487852097, 0.21996571123600006, 0.4790608584880829, 0.02619239315390587, 0.07441190630197525, -0.06008818745613098, -0.3914307653903961, -0.13022592663764954, -0.025141168385744095, 0.0003214322787243873, 0.16295285522937775, -0.12119165807962418, 0.0030066766776144505, 0.1218046322464943, -0.059842437505722046, 0.08818160742521286, -0.017980627715587616], [-0.14553527534008026, -0.15317530930042267, -0.009047433733940125, -1.2483129501342773, -0.030733652412891388, 0.13480117917060852, -0.20562341809272766, 0.1401837021112442, -0.0016761560691520572, 0.01837373711168766, 0.007519115228205919, 0.09618446230888367, 0.32234957814216614, -0.11118534952402115, 0.016124838963150978, -0.08876153826713562, 0.09113143384456635, -0.18396322429180145, -0.037776920944452286, 0.33443334698677063, -0.24633260071277618, -0.07362231612205505, -0.09483042359352112, 0.07758078724145889, -0.009461073204874992, 0.054457731544971466, -0.1303354948759079, -0.32451122999191284, 0.22939880192279816, 0.08831532299518585, -0.014463306404650211, -0.5354679822921753], [0.18757663667201996, 0.4371591806411743, 0.020788105204701424, 0.5887277722358704, 0.2597874402999878, -0.6909187436103821, 0.06702294945716858, 0.2386840581893921, -0.005583945661783218, 0.002763385185971856, -0.5603324770927429, -0.19166113436222076, 0.29164746403694153, 0.7013137936592102, 0.20560818910598755, 0.051928166300058365, -0.12062882632017136, 0.1299091875553131, 0.007311000023037195, 0.10957787930965424, 0.11485058814287186, -0.05621999129652977, -0.9128260016441345, -0.5406304597854614, 0.08103503286838531, 0.05446644499897957, -0.320209264755249, -0.26649805903434753, -0.44214165210723877, -0.08350414782762527, -0.013670442625880241, -0.0027367009315639734], [0.3797283172607422, 0.9328058958053589, -0.020003121346235275, -0.014587752521038055, 0.7086063623428345, -0.2899465560913086, 0.052476126700639725, -0.21485814452171326, -0.02635134942829609, -0.4301346242427826, -0.15599413216114044, 0.7140520811080933, -0.15051130950450897, 0.07482599467039108, 0.13956400752067566, 0.17826047539710999, -0.06941676139831543, 0.05969502031803131, 0.12078752368688583, -0.1833232343196869, -0.22913876175880432, 0.18880218267440796, -0.8634483218193054, 0.3048604726791382, 0.3270920515060425, -0.4959857165813446, 0.18044137954711914, 0.0755080059170723, -0.11830020695924759, 0.1921570897102356, 0.20378074049949646, -0.25560927391052246], [-0.29253891110420227, -0.14030253887176514, -0.01131246518343687, -0.2758631706237793, 0.1563960462808609, -0.061780963093042374, -0.0673786997795105, 0.2823949158191681, -0.004735392984002829, -0.1268261969089508, -0.4078218936920166, 0.1341640055179596, -0.23306666314601898, 0.16984516382217407, -0.14437805116176605, 0.635237991809845, 0.33979561924934387, 0.011367165483534336, -0.03821542114019394, 0.19938749074935913, 0.22053246200084686, 0.13930320739746094, -0.04225180298089981, -0.018364207819104195, -0.1620214283466339, -0.2638450264930725, -0.5334301590919495, -0.11511494964361191, -0.0617864765226841, 0.010330528020858765, 0.06430406868457794, -0.45696061849594116], [-0.03840639442205429, 0.212128147482872, -0.0038880689535290003, 1.1127448081970215, 0.28945550322532654, -0.30295607447624207, 0.08555015176534653, -0.44379088282585144, 0.0006368276081047952, -0.038982611149549484, -0.14212501049041748, -0.02654953859746456, -0.16030798852443695, -0.07503781467676163, -0.2880045175552368, 0.12383174896240234, -0.1200191080570221, -0.058388903737068176, 0.00759234419092536, 0.16166625916957855, -0.21123862266540527, 0.03562265634536743, -0.20150333642959595, 0.4886915981769562, 0.5235259532928467, 0.10656877607107162, -0.4444712698459625, 0.031518902629613876, -0.14825275540351868, 0.03741523250937462, -0.027328649535775185, 0.9644559025764465], [0.0744389221072197, -0.09909914433956146, 0.010685043409466743, 0.3333769738674164, 0.41312986612319946, -0.19507233798503876, -0.03178582340478897, 0.2667858600616455, -0.015627792105078697, 0.1722915768623352, -0.23278725147247314, -0.04755689948797226, 0.14566105604171753, 0.7600061297416687, -0.10193068534135818, 0.17487004399299622, -0.32199710607528687, 0.8052537441253662, -0.03732098639011383, -0.1541677713394165, -0.03609626740217209, 0.5969251990318298, 0.43092674016952515, -0.021689556539058685, 0.037542231380939484, -0.006822754628956318, 0.09702244400978088, -0.22568905353546143, -0.22607937455177307, 0.051475852727890015, 0.28312256932258606, 0.5858484506607056], [0.0046950438991189, -0.3969004154205322, 0.002769479528069496, 0.6276029944419861, -0.18035124242305756, 0.3304148316383362, 0.11062519997358322, 0.026206152513623238, 0.0008858962683007121, 0.07150863111019135, -0.14777980744838715, 0.16540135443210602, -0.12913882732391357, 0.27912455797195435, -0.31957942247390747, 0.1007048487663269, -0.058512814342975616, 0.18512314558029175, 0.20503424108028412, 0.0001007579849101603, -0.1269707828760147, 0.40485525131225586, -0.8420952558517456, 0.2591269016265869, 0.019635193049907684, 0.08066816627979279, 0.1916266232728958, -0.2120768278837204, -0.054687365889549255, -0.361537903547287, -0.16775363683700562, 0.4604089856147766], [0.21868902444839478, 0.03981424868106842, -0.0019427419174462557, 1.1872012615203857, 0.2396545261144638, 0.4571613371372223, -0.16998684406280518, 0.33093687891960144, 0.023800207301974297, 0.086113341152668, 0.025844570249319077, -0.0814274251461029, 0.23842468857765198, -0.015225150622427464, 0.024690162390470505, -0.0005375980981625617, -0.08475278317928314, -0.012374870479106903, -0.15519040822982788, 0.27766844630241394, 0.12172145396471024, 0.09448722004890442, -0.016477767378091812, -0.13615866005420685, 0.09672144800424576, -0.024499299004673958, 0.055815279483795166, -0.14086882770061493, -0.014681787230074406, 0.07096151262521744, -0.07973925769329071, 0.1879538595676422], [0.20643587410449982, -0.06943733245134354, 0.015521926805377007, -0.3571851849555969, -0.0011756879976019263, -0.1525399386882782, 0.2646349370479584, -0.1630321592092514, -0.022466201335191727, -0.4084479808807373, 0.4801815152168274, 0.07432094216346741, -0.09295503795146942, -0.0699782595038414, -0.24128159880638123, -0.07166744768619537, 0.15017136931419373, 0.11617877334356308, -0.2335086166858673, -0.33790096640586853, -0.07876086235046387, 0.43705207109451294, 0.4826356768608093, -0.07789019495248795, 0.022357819601893425, -0.2652381360530853, -0.05477086827158928, 0.31573939323425293, -0.010788469575345516, -0.30978819727897644, -0.27797070145606995, -0.7058624625205994], [-0.3380241096019745, -0.17019423842430115, 0.0011336266761645675, -1.9619207382202148, 0.09222162514925003, 0.18735356628894806, 0.063766248524189, -0.0642792135477066, 0.013186758384108543, 0.1682150810956955, 0.005040637217462063, -0.2558624744415283, -0.3067704141139984, -0.09884479641914368, 0.03404908627271652, 0.03593054786324501, 0.05320342257618904, 0.011260507628321648, 0.2255357950925827, -0.07362411916255951, -0.08118133991956711, 0.5512744188308716, 0.8596503138542175, 0.3711259067058563, 0.09580383449792862, 0.1678585410118103, -0.030558021739125252, -0.18531635403633118, 0.1157839447259903, 0.13193537294864655, 0.03599084913730621, -1.7001124620437622], [-0.5299877524375916, -0.04648294299840927, 0.002237399108707905, -3.7942512035369873, 0.22167381644248962, -0.21316693723201752, -0.2538321018218994, 0.513054370880127, -0.015294855460524559, -0.0012017441913485527, 0.22478768229484558, -0.4451225697994232, 0.14057518541812897, -0.20653030276298523, -0.1032177209854126, 0.009390337392687798, -0.07439690828323364, -0.06836779415607452, 0.4771840274333954, 0.12075097113847733, -0.054826900362968445, 0.5949457287788391, 1.3687231540679932, 0.5665883421897888, 0.12815254926681519, 0.23286156356334686, -0.2045062929391861, -0.03035777248442173, 0.18743647634983063, 0.19189094007015228, 0.11473745852708817, -2.2839317321777344], [0.28459054231643677, 0.2615422308444977, 0.014258359558880329, 0.9555715322494507, -0.07951206713914871, -0.4188748300075531, 0.01063437107950449, -0.16326001286506653, 0.005301363300532103, 0.013592390343546867, -0.11094290763139725, 0.09287427365779877, 0.16764070093631744, 0.0031649551820009947, 0.11235281825065613, 0.07129623740911484, 0.11990143358707428, 0.07561805099248886, 0.04212905094027519, 0.4046397805213928, -0.09761689603328705, -0.23214595019817352, 0.11650030314922333, -0.12523746490478516, -0.06836384534835815, -0.09598606824874878, -0.3414601683616638, 0.2921890616416931, 0.059670597314834595, -0.2567194998264313, 0.02945518307387829, 0.6655031442642212], [0.39567700028419495, 0.24947576224803925, 0.014607401564717293, -0.21408717334270477, 0.3514905571937561, 0.09347137063741684, 0.1767142117023468, -0.05159948021173477, 0.003158251056447625, 0.01039547473192215, 0.2017652541399002, 0.08313955366611481, 0.3186739981174469, -0.08025982975959778, 0.15086624026298523, -0.023727400228381157, -0.4086500406265259, 0.196225106716156, -0.36087167263031006, -0.046296149492263794, 0.13954149186611176, 0.25762614607810974, 0.1006605476140976, 0.3095038831233978, 0.7944799065589905, -0.10894279181957245, 0.03222624957561493, 0.3228186070919037, 0.02891990728676319, -0.43390733003616333, 0.05477612465620041, 0.0202957596629858], [0.126397967338562, -0.242727130651474, -0.010495983995497227, -0.4083278477191925, -0.0791756808757782, -0.2890186905860901, -0.27661365270614624, 0.12950879335403442, 0.013731203973293304, 0.23583462834358215, 0.07945007085800171, 0.09465955942869186, 0.1560760736465454, 0.11891885101795197, 0.08960708975791931, -0.14934416115283966, -0.2086486965417862, -0.09975539147853851, -0.009958372451364994, -0.009530166164040565, -0.1468871533870697, 0.4068266451358795, 0.1511898785829544, -0.03642386198043823, -0.005749932024627924, 0.2076026201248169, -0.5735912919044495, -0.03507170453667641, -0.055685997009277344, -0.3752777576446533, 0.008413251489400864, -0.12853604555130005], [0.03678832948207855, -0.03410469740629196, -0.005747728515416384, -0.1334025114774704, -0.012633505277335644, 0.10764613747596741, 0.16709835827350616, 0.2924366891384125, 0.0012685393448919058, 0.043481677770614624, -0.0582372285425663, 0.0473429337143898, 0.10319209843873978, 0.03063231334090233, -0.12016403675079346, 0.2206624448299408, 0.08467710018157959, 0.19839274883270264, -0.4212043285369873, 0.009268482215702534, -0.11659970134496689, 0.4973316192626953, 0.6559188961982727, 0.46109044551849365, -0.2756483256816864, 0.2139367163181305, 0.19843119382858276, -0.13453733921051025, 0.1996307373046875, -0.07691238075494766, -0.04784006625413895, -0.32514825463294983], [0.23425649106502533, -0.02660529688000679, 0.019546959549188614, 0.28577667474746704, 0.24738022685050964, -0.07114816457033157, 0.304882287979126, -0.27649468183517456, 0.012317156419157982, -0.08408232778310776, -0.19436180591583252, -0.053386982530355453, 0.002549999626353383, -0.09385662525892258, -0.11568596959114075, -0.15287655591964722, -0.3948325514793396, 0.40945959091186523, -0.26573291420936584, 0.03779590502381325, -0.0827014148235321, 0.4621092677116394, -1.0047744512557983, 0.5478814244270325, -0.02368556708097458, -0.2599993050098419, -0.3307706415653229, 0.383628249168396, 0.025980528444051743, -0.07364419102668762, 0.04653960466384888, 0.16396576166152954], [0.07668334245681763, -0.027180921286344528, -0.01018370408564806, 0.12625794112682343, -0.07435468584299088, 0.1471412181854248, -0.013126572594046593, 0.010518711991608143, -0.011460911482572556, 0.027984144166111946, 0.10215384513139725, 0.2538999021053314, 0.07681058347225189, 0.17064830660820007, 0.04024360701441765, -0.09894702583551407, -0.06587197631597519, 0.18211150169372559, -0.10714040696620941, 0.3326111137866974, -0.3012658357620239, 0.1272606998682022, -0.04470875859260559, -0.20533865690231323, -0.01005465816706419, -0.005127923097461462, 0.008544715121388435, -0.09310207515954971, 0.2108984738588333, -0.030942872166633606, -0.033193886280059814, -0.0044522760435938835], [-0.5907418727874756, -0.10879653692245483, 0.015266897156834602, -0.03954697772860527, 0.1269853413105011, 0.11899866163730621, -0.07021857798099518, -0.31072017550468445, 0.0193121787160635, 0.03416246548295021, 0.3824962079524994, 0.009849718771874905, -0.0344499871134758, -0.11855299770832062, 0.11674433201551437, -0.007662585936486721, -0.2170170545578003, 0.03026122972369194, 0.5974350571632385, -0.012852506712079048, -0.07255984842777252, 0.1300991177558899, 0.2799922525882721, 0.5142641663551331, -0.16278661787509918, 0.3010312616825104, 0.1570422649383545, -0.09319455176591873, -0.15306589007377625, 0.1421741545200348, 0.17969529330730438, -0.5803160667419434], [0.23040449619293213, 0.21000541746616364, 0.023258574306964874, -0.01905360445380211, -0.0972132757306099, -0.15152138471603394, 0.09357345104217529, 0.10781266540288925, 0.011268936097621918, 0.033558763563632965, 0.006895439699292183, -0.24559223651885986, -0.28863632678985596, 0.17753785848617554, 0.18833325803279877, 0.0947159081697464, 0.5031542181968689, 0.21154725551605225, -0.010120286606252193, 0.03757007047533989, 0.109406016767025, 0.20293423533439636, 0.21244309842586517, 0.004094572272151709, 0.039210714399814606, 0.13258224725723267, -0.17354850471019745, 0.04705669358372688, 0.004622450098395348, 0.11039408296346664, 0.3047561049461365, -0.12644024193286896], [-0.24142368137836456, -0.13812975585460663, -0.007259109523147345, 3.2991530895233154, -0.0104296850040555, -0.09461493790149689, -0.18542100489139557, 0.17375947535037994, 0.006576815154403448, 0.029574042186141014, 0.22816210985183716, -0.15428690612316132, 0.2708282768726349, -0.05659591406583786, -0.04139780253171921, 0.2771994173526764, -0.4014597237110138, -0.29322898387908936, -0.13387621939182281, -0.31407544016838074, 0.14379137754440308, 0.21508722007274628, 0.36880871653556824, 0.006672021467238665, 0.03756337612867355, 0.10426495224237442, 0.11828929930925369, -0.0018198476172983646, -0.0835704654455185, 0.06739397346973419, 0.16680394113063812, -1.6937459707260132], [0.03757872432470322, -0.02013719268143177, -0.012829489074647427, 0.14773790538311005, 0.1372724324464798, 0.40064314007759094, 0.06848133355379105, 0.10089299082756042, -0.007860519923269749, -0.10538265854120255, 0.0006275245104916394, 0.09366666525602341, 0.2154577374458313, -0.16295121610164642, 0.04119075834751129, 0.01651032827794552, 0.013814286328852177, -0.5171539783477783, -0.019801264628767967, 0.3925993740558624, -0.08867523819208145, -0.09974460303783417, -0.10358273983001709, -0.038170602172613144, -0.11098500341176987, -0.009972922503948212, 0.12314841151237488, -0.2086966335773468, 0.38819390535354614, -0.06507626920938492, -0.11538264155387878, 0.06582487374544144], [0.11549469828605652, -0.06459520757198334, -0.0009054553229361773, 0.012004904448986053, 0.0033146326895803213, 0.2955603301525116, -0.01203703973442316, -0.06144578382372856, -0.0008391509763896465, -0.1936601996421814, -0.09144067019224167, -0.028075169771909714, 0.27119332551956177, -0.07427559792995453, -0.034789081662893295, 0.08287235349416733, -0.10345517098903656, -0.3261374831199646, 0.09809010475873947, 0.23592308163642883, -0.1262277364730835, -0.1392640620470047, -0.1282927244901657, -0.05646258965134621, -0.02178187482059002, 0.002480710856616497, -0.004067266825586557, -0.07719019800424576, 0.28080248832702637, 0.13799260556697845, -0.3002910017967224, -0.010507113300263882], [-0.0018802431877702475, -0.005533459596335888, 0.0016911632847040892, 0.0024473031517118216, -0.004662353545427322, -0.07266717404127121, -0.00027128824149258435, -0.004033331293612719, 0.0002576614497229457, 0.010780205950140953, 0.0013513421872630715, 0.003621315350756049, -0.05622680485248566, 0.013735154643654823, 0.006992753595113754, -0.00068219646345824, 0.023684781044721603, 0.024580970406532288, 0.001689549651928246, -0.07362037152051926, 0.011399095878005028, 0.00038020298234187067, -0.004433492198586464, 0.004522221628576517, -0.00424455851316452, -0.0005642398609779775, -0.00920802727341652, 0.003994113299995661, -0.0673351064324379, -0.002944524632766843, 0.030555326491594315, 0.00040992931462824345], [-0.07960951328277588, 0.0705963671207428, 0.007029906380921602, -0.01677917316555977, -0.009712807834148407, 0.41424188017845154, -0.028841396793723106, 0.0570102296769619, -0.0024934245739132166, -0.22717265784740448, 0.05883647873997688, 0.03207551687955856, 0.39799749851226807, -0.1211588904261589, -0.13570162653923035, -0.10171012580394745, -0.34144505858421326, -0.24238114058971405, -0.025977369397878647, 0.4280259609222412, -0.3387390077114105, -0.1723884642124176, -0.02374744601547718, -0.02072879485785961, 0.06889654695987701, 0.0725860744714737, -0.0417478047311306, -0.07903586328029633, 0.4341304302215576, -0.03881661593914032, -0.2965163588523865, 0.028405500575900078], [-0.11159658432006836, -0.8258362412452698, 0.03205282241106033, 0.11619281023740768, 0.10941875725984573, -0.10804065316915512, -0.13080483675003052, -0.11266482621431351, 0.026696208864450455, -0.03227396681904793, -0.13979974389076233, 0.010911207646131516, -0.08517588675022125, -0.2760942578315735, 0.10040678828954697, -0.2741118371486664, -0.09904593974351883, 0.32751789689064026, 0.18985523283481598, -0.22852250933647156, 0.1670628935098648, 0.22604624927043915, -0.5284388065338135, 0.14647170901298523, -0.04423832520842552, 0.05451105907559395, 0.390634685754776, 0.2200077772140503, -0.13759008049964905, 0.19857321679592133, 0.26280519366264343, 0.1715351790189743], [0.1879778951406479, -0.048721279948949814, 0.000431065505836159, -0.22237342596054077, -0.01617921143770218, 0.36571237444877625, -0.201917827129364, 0.035224903374910355, -0.0024498149286955595, 0.1340661644935608, 0.14019747078418732, -0.07810059934854507, 0.34249985218048096, -0.21458259224891663, -0.2584492862224579, -0.13980504870414734, -0.40051546692848206, -0.24544931948184967, -0.0708540603518486, 0.2129017561674118, 0.08929352462291718, -0.07532110810279846, 0.29624077677726746, -0.14220421016216278, 0.2760782241821289, 0.06115216016769409, 0.3094084858894348, -0.08818256855010986, 0.287607342004776, 0.08385436981916428, -0.2354414016008377, 0.13143007457256317], [0.04494263604283333, -0.27673956751823425, -0.010038972832262516, 0.12335886806249619, -0.03839105740189552, 0.03753693029284477, 0.1569610834121704, -0.058735400438308716, -0.0035157292149960995, -0.08034814149141312, -0.03769062086939812, 0.002834107493981719, 0.005185081157833338, 0.07570631802082062, 0.0193853247910738, -0.19439150393009186, -0.13171683251857758, 0.011772578582167625, -0.07992912828922272, 0.15515176951885223, 0.14424344897270203, -0.23945942521095276, -0.014517068862915039, -0.08739397674798965, -0.07059936970472336, -0.032254014164209366, 0.022747283801436424, 0.10716837644577026, 0.05834554135799408, -0.16485576331615448, -0.3695353865623474, 0.09164544939994812], [-0.1329413503408432, 0.10912865400314331, 0.009250206872820854, -0.3737056255340576, 0.0252631027251482, -0.17774152755737305, -0.05963004380464554, -0.07144468277692795, 0.007152850739657879, -0.04889955744147301, -0.2636565864086151, -0.03294404596090317, -0.033337000757455826, -0.09363903105258942, 0.013220240361988544, 0.26978492736816406, -0.02114880643785, -0.07784587144851685, 0.20092681050300598, -0.013506992720067501, -0.3159555196762085, -0.014196951873600483, -0.3906085789203644, -0.018910430371761322, -0.02750895731151104, -0.06873884797096252, -0.44444191455841064, -0.1957174390554428, -0.0422295480966568, -0.10259987413883209, 0.08853699266910553, -0.46262794733047485], [-0.0020295288413763046, -0.0045083146542310715, 0.0003494436095934361, 0.0016864137724041939, -0.001172493095509708, -0.06923670321702957, 0.0014393620658665895, -0.0017308255191892385, 0.0010236009256914258, 0.010029410943388939, -0.006830533966422081, 0.0033757819328457117, -0.051354825496673584, 0.011042512021958828, 0.011992431245744228, 0.005637976806610823, 0.023639585822820663, 0.021250931546092033, 0.0028425315394997597, -0.07248429208993912, 0.01696549914777279, 0.00951459538191557, 0.00015853198419790715, 0.0013895122101530433, -0.0030474774539470673, 0.0009978273883461952, -0.0004322068998590112, 0.002708044368773699, -0.06385555118322372, -0.0028317838441580534, 0.029087364673614502, 0.0027552791871130466], [0.044501494616270065, 0.5832099914550781, 0.01628478616476059, 0.03401245176792145, 0.0590289868414402, 0.0021501868031919003, -0.2571152150630951, -0.37973061203956604, -0.0020546214655041695, -0.261173278093338, 0.5030859708786011, 0.5080488324165344, 0.021840298548340797, 0.304356187582016, 0.20473282039165497, 0.07072123140096664, 0.4537312388420105, -0.00902282353490591, 0.0042426553554832935, 0.08469466120004654, -0.409773588180542, -0.3608821630477905, -0.3019713759422302, -0.10933069884777069, -0.2885564863681793, -0.11808988451957703, -0.1138806864619255, 0.21859782934188843, 0.20950157940387726, -0.059510789811611176, 0.13569429516792297, -0.22719824314117432], [0.05969034507870674, -0.2715827226638794, 0.014849832281470299, -0.24473170936107635, -0.03653153404593468, 0.1200665831565857, -0.017107876017689705, -0.0444256030023098, 0.01532633975148201, -0.06030990183353424, 0.3568677008152008, -0.22436966001987457, 0.0894172415137291, -0.2821640372276306, 0.09718719124794006, 0.08298718929290771, -0.19769859313964844, 0.07147324830293655, 0.0070695411413908005, -0.049940671771764755, 0.31196585297584534, 0.1944458931684494, 0.2612152099609375, -0.06273337453603745, 0.013153827749192715, -0.010402013547718525, 0.3183324635028839, -0.15342918038368225, 0.06065366789698601, -0.037518516182899475, -0.4845496118068695, -0.07251938432455063], [0.12282917648553848, -0.30934661626815796, 0.01565641723573208, -0.31956756114959717, -0.0829658955335617, -0.08177341520786285, 0.3149131238460541, 0.07131228595972061, 0.002558700041845441, -0.06093273311853409, 0.33009058237075806, -0.1673859804868698, -0.17103241384029388, 0.034696076065301895, -0.08560112118721008, 0.30379390716552734, -0.0807308629155159, -0.0003697907377500087, 0.09102705121040344, -0.06721712648868561, 0.4343762993812561, 0.3375374972820282, 0.24550068378448486, -0.21029497683048248, -0.1483546644449234, 0.10010488331317902, 0.2392595410346985, -0.03428700566291809, -0.035982612520456314, 0.1401355117559433, -0.05269888415932655, -0.3217078745365143], [-0.23633235692977905, -0.06587206572294235, 0.005447702016681433, 0.3114067614078522, 0.06845404952764511, 0.3502000868320465, -0.11978255212306976, 0.0008156060357578099, -0.006147088948637247, -0.06533346325159073, -0.19573207199573517, 0.02362634614109993, 0.12986187636852264, 0.016541073098778725, -0.005566996522247791, 0.08951181918382645, -0.10394704341888428, -0.18036773800849915, 0.2626816928386688, 0.7087095975875854, -0.13448750972747803, -0.09548359364271164, -0.12189588695764542, 0.38216060400009155, 0.043951887637376785, -0.08991770446300507, -0.2994233965873718, 0.04503105953335762, -0.08873280137777328, -0.13424384593963623, 0.08395970612764359, 0.4658665060997009], [0.15213674306869507, -0.05318336561322212, -0.010308624245226383, 0.023066367954015732, 0.05517406016588211, -0.05365625396370888, -0.235731303691864, -0.03682076930999756, 0.006558919325470924, 0.2395559698343277, 0.30771154165267944, 0.10918284952640533, 0.07727853953838348, -0.04516029357910156, 0.15646162629127502, 0.04344136640429497, 0.035632893443107605, 0.4881344437599182, 0.26503968238830566, -0.042124077677726746, 0.2542203962802887, -0.06255049258470535, -0.22068053483963013, -0.3738273084163666, 0.18759338557720184, -0.05258166044950485, -0.15297338366508484, 0.029443711042404175, 0.06774387508630753, 0.06740499287843704, -0.06896603107452393, 0.03732236847281456], [-0.09785911440849304, 0.512382984161377, -0.0011959051480516791, -0.1779525876045227, 0.2789732813835144, -0.03336164355278015, -0.39326268434524536, -0.14043350517749786, -0.011928192339837551, -0.23711368441581726, -0.22670750319957733, 0.27048951387405396, 0.10766340792179108, 0.0747731402516365, 0.06230568513274193, 0.36639660596847534, 0.014369510114192963, 0.05312369018793106, -0.22298367321491241, -0.09927696734666824, -0.12587840855121613, -0.15352098643779755, -0.15262477099895477, 0.18071243166923523, 0.4940968155860901, -0.3195773959159851, -0.09992022067308426, -0.05731113255023956, -0.16297167539596558, 0.04968888312578201, 0.49254125356674194, -0.12176688015460968], [0.006222203373908997, -0.1525605022907257, -0.003208843059837818, -0.03120669350028038, 0.056641463190317154, 0.16554318368434906, 0.14516234397888184, 0.008271335624158382, -0.006759703159332275, 0.015326655469834805, 0.011563827283680439, -0.0856313705444336, 0.07827699184417725, -0.2625746726989746, -0.10527883470058441, 0.0661560446023941, 0.027655400335788727, -0.010643859393894672, -0.04158356413245201, 0.17359323799610138, 0.1712600439786911, 0.14288990199565887, 0.20283757150173187, 0.015585677698254585, 0.04708762466907501, -0.0219429824501276, 0.003005249658599496, 0.06229052692651749, 0.17755991220474243, 0.0985926017165184, -0.296661376953125, 0.08747616410255432], [-0.13832782208919525, -0.13061968982219696, 0.004286323208361864, 0.7273020148277283, -0.057843513786792755, 0.18030932545661926, 0.11806337535381317, -0.1467122882604599, 0.003113473067060113, -0.08150531351566315, -0.40168967843055725, -0.008090786635875702, 0.1440015435218811, 0.18665166199207306, -0.2338537871837616, -0.036682289093732834, -0.16072437167167664, 0.05349092558026314, -0.06400180608034134, 0.17422190308570862, -0.06032339483499527, -0.42407774925231934, -0.41445744037628174, 0.29982832074165344, 0.08203262835741043, -0.0625186488032341, -0.14263318479061127, 0.11220518499612808, 0.11898457258939743, -0.20291763544082642, -0.19938457012176514, 0.6227745413780212], [0.02093113400042057, -0.11579834669828415, 0.016601556912064552, -0.22279229760169983, -0.2896941602230072, 0.15471385419368744, 0.3071633279323578, -0.20683105289936066, -0.007310895249247551, 0.5666354298591614, 0.465912789106369, -0.08050446957349777, 0.09736203402280807, 0.23562489449977875, 0.06372366845607758, 0.12210351973772049, -0.2471023052930832, 0.027733663097023964, 0.02830141969025135, 0.10047003626823425, 0.03276795893907547, 0.23120054602622986, -0.5070285797119141, -0.20712588727474213, -0.071760393679142, 0.11876160651445389, 0.006798107642680407, 0.013493148609995842, 0.132804736495018, 0.04518510773777962, 0.037170618772506714, -0.2578705847263336], [-0.051453545689582825, 0.030010877177119255, 0.008139163255691528, -0.09468329697847366, 0.07231105864048004, 0.22989366948604584, 0.09674698859453201, 0.06140180677175522, -0.0016306752804666758, -0.4697988033294678, -0.0003975686267949641, 0.031020672991871834, 0.07315059751272202, -0.23676228523254395, 0.024446824565529823, 0.07164514064788818, 0.006987726781517267, -0.28560155630111694, 0.08704890310764313, 0.24106930196285248, -0.197651207447052, 0.034034453332424164, -0.06857167184352875, -0.13138289749622345, 0.025456445291638374, 0.04031318426132202, 0.019121143966913223, -0.2680710256099701, 0.23856961727142334, -0.10925096273422241, -0.1234712153673172, -0.13076485693454742], [0.009111768566071987, -0.007199918385595083, -0.0020930247846990824, -0.08465997874736786, 0.06323998421430588, 0.4103489816188812, 6.515638960991055e-05, 0.11876892298460007, 0.002880397019907832, -0.2526416480541229, -0.021722106263041496, -0.001621239585801959, 0.3167797923088074, -0.14031341671943665, -0.006551703438162804, 0.05601071938872337, -0.2083665281534195, -0.21879303455352783, 0.0037267752923071384, 0.4557966887950897, -0.08336858451366425, 0.08117872476577759, 0.028523042798042297, -0.0035446914844214916, 0.05527009069919586, -0.03205597773194313, 0.09247851371765137, -0.1698428988456726, 0.4274290204048157, 0.07918521016836166, -0.27310383319854736, -0.14755941927433014], [-0.10520537942647934, 0.05776332691311836, -0.0008869902230799198, -0.17308321595191956, -0.029977768659591675, 0.25020602345466614, -0.017354784533381462, 0.048797011375427246, -0.0025174201000481844, -0.1609729379415512, 0.14446265995502472, -0.03449825569987297, 0.2083176076412201, -0.15059053897857666, -0.1080026924610138, -0.04552784189581871, -0.14180640876293182, -0.20126871764659882, 0.03170890733599663, 0.2326451539993286, -0.13506446778774261, -0.07406605780124664, 0.1569329798221588, 0.02951415628194809, 0.06750398129224777, 0.04593753069639206, -0.10884575545787811, -0.07036523520946503, 0.24897876381874084, -0.11281342059373856, -0.13431543111801147, -0.18362218141555786], [0.1288224160671234, -0.05557040497660637, -0.006628907285630703, -0.009239480830729008, -0.2929578125476837, -0.014068089425563812, -0.00600218353793025, -0.18513981997966766, 0.005060527939349413, 0.7478086352348328, -0.10107456892728806, -0.004928230307996273, 0.019297024235129356, 0.1856650412082672, 0.39085426926612854, 0.14747010171413422, -0.32707563042640686, 0.05008885636925697, 0.08816184103488922, 0.22225047647953033, -0.18593347072601318, -0.1986866593360901, 0.09729892015457153, -0.14864607155323029, 0.09155052900314331, 0.0735597014427185, 0.23641230165958405, -0.2676658034324646, 0.11110861599445343, -0.13957248628139496, -0.17121370136737823, -0.154495969414711], [-0.366110235452652, 0.23375816643238068, 0.004797660280019045, -0.11699435114860535, 0.4165762960910797, 0.21943697333335876, -0.03297567740082741, 0.29511791467666626, 0.002511350903660059, -0.6921460628509521, 0.44366514682769775, 0.09120167046785355, 0.2668800354003906, -0.3789021968841553, -1.1812394857406616, 0.10090838372707367, -0.6034262180328369, 0.04102606698870659, 0.021797532215714455, -0.049842022359371185, -0.4403513967990875, -0.42672592401504517, 0.4344235062599182, -0.03768099471926689, 0.06274363398551941, -0.12260960787534714, -0.5731702446937561, -0.10222475230693817, 0.022185690701007843, -0.08996067196130753, 0.30221879482269287, -0.04748113453388214], [0.021038275212049484, -0.2634544372558594, 0.0011811067815870047, -0.02809075638651848, 0.11791553348302841, 0.4639042019844055, -0.03684768080711365, -0.11464522033929825, -0.03262470290064812, -0.46636778116226196, 0.010480649769306183, 0.004795868881046772, 0.13146226108074188, -0.22740644216537476, -0.061646804213523865, 0.15587128698825836, -0.09920045733451843, -0.49274834990501404, 0.08084888011217117, 0.35883110761642456, -0.13683828711509705, -0.022255679592490196, -0.042212024331092834, -0.10139508545398712, -0.1388229876756668, 0.06519992649555206, 0.0327896922826767, -0.03493364900350571, 0.3824262022972107, -0.010843630880117416, -0.3073517680168152, 0.026984676718711853], [-0.229220449924469, 0.015780417248606682, 0.004241990391165018, 0.37823230028152466, 0.0042686620727181435, 0.05187680199742317, 0.07274653762578964, -0.10934778302907944, -0.005334794521331787, 0.14859652519226074, -0.0941033586859703, -0.11454717814922333, 0.008523120544850826, 0.06173143535852432, -0.0742190033197403, 0.1290166676044464, 0.38105037808418274, -0.19009751081466675, 0.3367043733596802, 0.07242543995380402, -0.05811697244644165, -0.40778303146362305, -0.22798556089401245, 0.20726262032985687, -0.3202815353870392, -0.16238005459308624, -0.2909211814403534, 0.16368833184242249, 0.041945863515138626, 0.17297200858592987, -0.043412428349256516, 0.3237372636795044], [0.052830904722213745, -0.07480040192604065, 0.0010517359478399158, 0.28735464811325073, -0.014220009557902813, -0.12389501184225082, 0.10382020473480225, -0.22945067286491394, 0.006943083833903074, -0.32854944467544556, 0.13377146422863007, -0.09177722781896591, -0.3139181435108185, 0.02236689068377018, -0.041383981704711914, 0.36212635040283203, 0.3427722752094269, -0.036290064454078674, 0.11750300973653793, 0.01701616309583187, 0.1773291975259781, -0.289017915725708, -0.43038231134414673, 0.06301272660493851, 0.02344360016286373, -0.321319043636322, 0.18479643762111664, 0.08484431356191635, -0.009249765425920486, 0.18382714688777924, -0.07477759569883347, 0.25010979175567627], [0.1157417893409729, -0.039009492844343185, -0.003098774701356888, -0.0632428377866745, 0.006855653133243322, 0.3875522017478943, -0.12546847760677338, -0.04672534391283989, -0.002201837720349431, 0.13714756071567535, 0.010966029949486256, -0.014774023555219173, 0.33778995275497437, -0.08858081698417664, -0.22225496172904968, -0.22131066024303436, -0.06871961057186127, -0.1941034495830536, 0.058626409620046616, 0.34748417139053345, -0.2921963930130005, 0.20545507967472076, 0.10491982847452164, 0.008932310156524181, 0.08105587959289551, 0.2012144774198532, -0.002057737670838833, -0.09061333537101746, 0.3563190698623657, 0.0314837284386158, -0.22034169733524323, -0.0882166177034378], [-0.07816149294376373, -0.004693784285336733, -0.009626947343349457, 0.1326015442609787, 0.012496680952608585, 9.441621659789234e-05, -0.12361298501491547, -0.21953162550926208, -0.005380374379456043, 0.2108013778924942, 0.21053925156593323, 0.07297004014253616, 0.00903879664838314, -0.17214135825634003, 0.00693483604118228, -0.04354727268218994, -0.06219394505023956, 0.3624991178512573, -0.18044798076152802, 0.03836669772863388, -0.017803018912672997, -0.3335651755332947, -0.3784139156341553, 0.17371010780334473, 0.04758714511990547, -0.05307290330529213, 0.08825104683637619, 0.32137331366539, -0.061712153255939484, 0.09746486693620682, -0.09816721081733704, 0.044170793145895004], [-0.012244751676917076, -0.03920967876911163, -0.030602572485804558, 0.10669905692338943, -0.02693253569304943, 0.32930904626846313, 0.13066768646240234, -0.12096297740936279, 0.005074921529740095, -0.224604070186615, -0.10930834710597992, 0.11700787395238876, 0.23163583874702454, -0.20667408406734467, 0.0015785025898367167, -0.4104207754135132, -0.023802753537893295, -0.11834996938705444, -0.0937962681055069, 0.409847229719162, -0.005630319006741047, -0.32617464661598206, -0.4311977028846741, 0.02644345536828041, -0.25611412525177, -0.056097209453582764, 0.49300283193588257, -0.10722501575946808, 0.36804723739624023, 0.10204576700925827, -0.3761923909187317, -0.3702109158039093], [0.04906120523810387, -0.09951746463775635, 0.018380532041192055, -0.05555261671543121, -0.15107497572898865, 0.27155357599258423, -0.06420886516571045, 0.05996518209576607, -0.011406893841922283, 0.12164990603923798, -0.16120930016040802, 0.10112227499485016, 0.18970374763011932, -0.05004694685339928, 0.008888856507837772, -0.1815902292728424, -0.20624181628227234, -0.19186240434646606, 0.04529103264212608, 0.2577160894870758, -0.3216356337070465, 0.0798613652586937, 0.03689777851104736, 0.02020951919257641, 0.02734336443245411, 0.11723589152097702, 0.14257687330245972, 0.11455809324979782, 0.21332241594791412, -0.03793884813785553, -0.08123181015253067, 0.10483267903327942], [0.20469576120376587, 0.04863828793168068, -0.012663469649851322, 0.18349730968475342, 0.13901568949222565, 0.06694860756397247, -0.29342713952064514, 0.1720137894153595, -0.015126989223062992, 0.18479011952877045, -0.21964412927627563, 0.1991012692451477, 0.21478398144245148, -0.03664219379425049, 0.1822320967912674, 0.07378974556922913, 0.2086181640625, -0.04796191304922104, -0.10847876220941544, 0.182759091258049, 0.022772038355469704, -0.08353103697299957, 0.9778700470924377, 0.255133718252182, 0.04861019179224968, 0.006527699995785952, 0.1089458018541336, 0.19134843349456787, 0.07914046198129654, 0.3229493200778961, -0.17039532959461212, 0.005723050329834223], [-0.048416461795568466, 0.08524089306592941, 0.0023470690939575434, 0.03591065853834152, 0.04139263927936554, 0.42846694588661194, -0.0432894192636013, 0.032297901809215546, -0.0008747421088628471, -0.19788384437561035, 0.045513879507780075, 0.02146945893764496, 0.3960326910018921, -0.015631411224603653, -0.14057224988937378, 0.022833267226815224, -0.15839409828186035, -0.23057186603546143, -0.051246967166662216, 0.4638436436653137, -0.13081876933574677, -0.14004497230052948, -0.028128188103437424, -0.022657357156276703, 0.022459860891103745, -0.0034995253663510084, -0.03605511039495468, -0.09672318398952484, 0.4411095678806305, -0.05815607309341431, -0.24621044099330902, 0.013088581152260303]], "lstm.bias_ih_l0": [-0.756458044052124, -0.5327640771865845, -0.08469786494970322, 0.42721471190452576, -0.07793667912483215, 0.04384363070130348, 0.1122550368309021, 0.31730034947395325, -0.08111055195331573, -0.1201372891664505, 0.020803775638341904, 0.11621107161045074, 0.4266418516635895, 0.350798636674881, 0.33887746930122375, -0.31641456484794617, 0.1516716033220291, -0.3675629496574402, -0.7113797068595886, 0.49620959162712097, -0.12017367780208588, 0.5817931890487671, -0.21684110164642334, -0.6707177758216858, -0.015289275906980038, 0.031668100506067276, -0.7460529208183289, 0.11284410208463669, -0.02138475701212883, -0.7829322814941406, -0.24364250898361206, 0.6476945281028748, 1.0022395849227905, 0.8285179138183594, -0.03643609955906868, -0.4082808494567871, 0.34876587986946106, 0.41220736503601074, 0.06529898941516876, 0.09551933407783508, -0.03246726468205452, 0.3356315791606903, 0.0431680753827095, 0.1738739311695099, 0.07940402626991272, 0.2390460968017578, 0.19773773849010468, 0.6787927150726318, 0.17167837917804718, 0.6365666389465332, 0.9424177408218384, 0.4634939134120941, 0.25090137124061584, 0.0021664525847882032, -0.28434666991233826, 1.0062412023544312, 0.2719998359680176, 0.042424146085977554, 0.9316145181655884, 0.08802895247936249, 0.2967449426651001, 0.827957808971405, 0.37726858258247375, -0.2274700105190277, 0.0023635178804397583, 0.07939401268959045, -0.000882322492543608, 0.08456531167030334, 0.12725043296813965, 0.04973209649324417, -0.0007917013135738671, 0.03405522182583809, -0.009239688515663147, 0.25343480706214905, 0.03548407182097435, 0.13383832573890686, 0.2658000588417053, 0.19016200304031372, -0.018055452033877373, 0.17926311492919922, -0.20583149790763855, 0.11254746466875076, 0.00678588030859828, 0.24261374771595, -0.0060034687630832195, 0.003772483905777335, -0.09570910781621933, -0.13378775119781494, 0.05341493710875511, 0.22108642756938934, -0.048661164939403534, -0.15369634330272675, 0.29517123103141785, -0.0012487090425565839, -0.10167980939149857, 0.0343935526907444, 0.48451822996139526, 0.3083787262439728, -0.08515839278697968, 0.8417201638221741, -0.08228041976690292, 0.5430594682693481, 0.07154981791973114, -0.02002023346722126, -0.08187052607536316, 0.1772240251302719, -0.0038802605122327805, -0.0868990570306778, 0.46550998091697693, 0.3060280680656433, -0.11149953305721283, 0.1604715883731842, 0.1619032919406891, 0.23724685609340668, 0.2672109305858612, 0.6859946250915527, 0.22243288159370422, 0.3857875168323517, -0.25494062900543213, 0.4039277136325836, 0.13886457681655884, -0.05577641725540161, 0.43435099720954895, 0.0034231434110552073, 0.2567863464355469, 0.27889204025268555, 0.24562576413154602, 0.7088217735290527], "lstm.bias_hh_l0": [-0.7460187673568726, -0.5289180278778076, -0.08469786494970322, 0.42911672592163086, -0.07792529463768005, 0.04388117417693138, 0.1122550442814827, 0.3173387944698334, -0.08111055195331573, -0.11965209245681763, 0.02103302627801895, 0.11621405929327011, 0.4212486445903778, 0.3493400812149048, 0.33887746930122375, -0.3211176097393036, 0.15438468754291534, -0.3658050298690796, -0.6421974301338196, 0.49216964840888977, -0.11180554330348969, 0.5817931890487671, -0.21663643419742584, -0.6862953305244446, -0.01592101901769638, 0.03162087872624397, -0.625092089176178, 0.11247799545526505, -0.023632241412997246, -0.8293502330780029, -0.27781203389167786, 0.6476945281028748, 0.9785817265510559, 0.8267163038253784, -0.03643609955906868, -0.4334847629070282, 0.3488408029079437, 0.4118691086769104, 0.06529732793569565, 0.09594911336898804, -0.03246726468205452, 0.33932992815971375, 0.040761444717645645, 0.1738003045320511, 0.06890066713094711, 0.23871183395385742, 0.19774551689624786, 0.66709965467453, 0.17344790697097778, 0.6371883749961853, 0.9456056952476501, 0.4085051119327545, 0.2422049641609192, 0.004843912553042173, -0.2864267826080322, 0.9949423670768738, 0.2723776400089264, 0.04288109764456749, 0.94386225938797, 0.08599866926670074, 0.29633787274360657, 0.8219584226608276, 0.370794415473938, -0.22802609205245972, 0.038438815623521805, 0.23610664904117584, -0.000882322492543608, 0.028176838532090187, 0.028814559802412987, 0.07166486978530884, -0.024887464940547943, 0.06162279471755028, -0.009239688515663147, 0.150731161236763, -0.09691295772790909, 0.0462062768638134, 0.2711311876773834, 0.23594923317432404, -0.016722621396183968, 0.06617243587970734, -0.2510361671447754, -0.031152429059147835, -0.08469768613576889, 0.116847462952137, -0.05605144426226616, -0.0152185820043087, -0.215825155377388, 0.02478713169693947, 0.06885720789432526, 0.1655735820531845, -0.11435758322477341, -0.12884239852428436, 0.3021964430809021, -0.01767657697200775, -0.1024424135684967, -0.0025016034487634897, 0.4843443036079407, 0.30867165327072144, -0.08515839278697968, 0.8417147994041443, -0.08344569057226181, 0.5633387565612793, 0.07154297083616257, -0.02355073019862175, -0.08187052607536316, 0.17767083644866943, -0.003465769113972783, -0.08693279325962067, 0.42265915870666504, 0.2805309295654297, -0.11137283593416214, 0.16015906631946564, 0.15800254046916962, 0.2411108762025833, 0.26710110902786255, 0.7052860856056213, 0.22225040197372437, 0.38154637813568115, -0.2594521939754486, 0.40281280875205994, 0.13954252004623413, -0.05301385372877121, 0.43417882919311523, 0.007372340653091669, 0.2767309844493866, 0.28011348843574524, 0.25801223516464233, 0.7088217735290527], "dense.weight": [[0.0720667615532875, 0.14675505459308624, -0.004019519779831171, 0.04538906365633011, 0.29245373606681824, -0.14804983139038086, -0.23682589828968048, -0.35646188259124756, 0.0017215593252331018, -0.04340165853500366, 0.4200734794139862, -0.038849979639053345, 0.2513423264026642, -0.0827319473028183, 0.2864501476287842, 0.0683000236749649, 0.005100465379655361, -0.15767766535282135, 0.26299697160720825, 0.08995599299669266, 0.1363920271396637, -0.6470482349395752, 1.4816150665283203, -0.1803874671459198, -0.10992500185966492, 0.2180599868297577, -0.12412606924772263, 0.328915536403656, -0.02451864816248417, 0.09077639877796173, 0.4907580018043518, -0.02645411156117916]], "dense.bias": [0.03458613529801369]}