{"lstm.weight_ih_l0": [[0.354308545589447, -0.32852375507354736], [0.1038660779595375, 0.7337380051612854], [-0.5579217076301575, -0.1694442480802536], [0.060273002833127975, 0.47527703642845154], [-0.2551778554916382, 0.3938939869403839], [0.015387870371341705, -0.9270440340042114], [0.19648924469947815, 0.36464986205101013], [-0.19125881791114807, -0.6238489747047424], [-0.15355096757411957, -0.08587701618671417], [-0.1653866320848465, 0.1785791963338852], [0.010585528798401356, 0.1185244470834732], [-0.24938611686229706, 0.17173023521900177], [0.20971988141536713, 0.1316586583852768], [0.04535834863781929, -0.10809680074453354], [-0.2500001788139343, 0.008804893121123314], [0.12518301606178284, 0.6828717589378357], [0.21662211418151855, -0.6531481742858887], [0.12709738314151764, 0.06647874414920807], [-0.9197972416877747, -0.05493590980768204], [0.1256469190120697, 0.14641247689723969], [-0.9390543699264526, -0.22688138484954834], [-0.016701634973287582, -0.644591748714447], [0.6652849912643433, -0.2962024509906769], [0.07666491717100143, -0.5328986644744873], [-0.18407762050628662, -0.12548381090164185], [-0.1727553904056549, 0.04515286162495613], [0.04170246794819832, -0.02355646714568138], [-0.2744835913181305, 0.22178776562213898], [0.34515470266342163, -0.043858278542757034], [0.15208882093429565, -0.7418086528778076], [-0.3494589924812317, -0.08999951183795929], [-0.20966771245002747, 0.5524267554283142], [0.29727062582969666, 0.08057963103055954], [-1.8714714050292969, -0.07661561667919159], [0.14239804446697235, 0.45858272910118103], [0.12991037964820862, -0.6698001027107239], [0.5086562037467957, -0.3379022479057312], [-0.664796769618988, -0.8998618721961975], [-0.18899667263031006, -0.28952595591545105], [0.08832353353500366, 0.8140106201171875], [-0.22196228802204132, -0.07555276155471802], [0.5425005555152893, 0.1181914284825325], [-0.2378762662410736, -0.649135947227478], [0.112272247672081, -0.2090180218219757], [0.6718723177909851, -0.18577660620212555], [-0.15380413830280304, 0.2207907736301422], [0.0032088737934827805, -0.5769025087356567], [0.6513643860816956, 0.5436598062515259], [0.16462983191013336, -0.5474622845649719], [0.10205061733722687, 0.4912260174751282], [-0.5963221192359924, -0.10377810895442963], [1.4983149766921997, 0.2736067473888397], [-0.7354015707969666, 0.08560851961374283], [-0.08094675838947296, -0.7932701110839844], [0.8137794733047485, -0.04874328151345253], [-0.055049166083335876, -0.38275161385536194], [-0.16614750027656555, -0.0884506106376648], [-0.18266195058822632, 0.17970599234104156], [-0.020579608157277107, 0.09025052189826965], [-0.3403579890727997, 0.2284860610961914], [0.35104474425315857, 0.0695938915014267], [-0.25506386160850525, -0.14958594739437103], [-0.013837411068379879, -0.2697218358516693], [-0.9754837155342102, 0.6622072458267212]], "lstm.weight_hh_l0": [[-0.02790733613073826, -0.22605977952480316, -0.09503529965877533, -0.10062875598669052, -0.39068856835365295, 0.011634133756160736, -0.7112176418304443, -0.20055964589118958, -0.22224809229373932, -0.04513747617602348, -0.21084438264369965, 0.05005541443824768, 0.4097473621368408, 0.06305176019668579, -0.10818304866552353, 0.08532554656267166], [-0.1062767505645752, -0.06821109354496002, -0.0583750419318676, -0.331922322511673, -0.5685102939605713, -0.15376265347003937, -0.1946256011724472, 0.1433522254228592, 0.001652049832046032, 0.006309657357633114, -0.09996148198843002, -0.11607631295919418, 0.12496642023324966, -0.15326526761054993, -0.059199631214141846, 0.3328937590122223], [-0.22542132437229156, 0.3288024067878723, 0.10633572936058044, -0.20227760076522827, -0.35336625576019287, 0.1816355288028717, -0.09092176705598831, -0.08612249791622162, -0.18127350509166718, -0.09498842805624008, -0.0398382768034935, -0.11612416058778763, -0.10304775834083557, -0.18883804976940155, 0.04370708763599396, -0.0015720906667411327], [-0.11357898265123367, -0.19872820377349854, 0.12584133446216583, 0.03516086935997009, -0.8682318329811096, -0.07250695675611496, -0.40682488679885864, 0.38775694370269775, 0.04633573442697525, -0.033159125596284866, -0.4376133680343628, -0.12200301140546799, -0.07033983618021011, 0.3581600487232208, -0.06028366461396217, 0.6147034168243408], [0.18482890725135803, -0.21740229427814484, -0.14019612967967987, -0.537409245967865, 0.07232028245925903, -0.15075381100177765, -0.8675264716148376, -0.27682432532310486, -0.003611565101891756, 0.06690644472837448, -0.14320844411849976, 0.05409884825348854, -0.12825052440166473, -0.236972376704216, 0.01600528322160244, -0.018353480845689774], [-0.1803065985441208, -0.07700930535793304, -0.016059916466474533, 0.028334030881524086, 0.09776392579078674, 0.13907942175865173, 0.1275160312652588, 0.1739347279071808, -0.11239897459745407, 0.03799030929803848, -0.01575039140880108, 0.007707324810326099, -0.07514110207557678, -0.17012324929237366, -0.0258868969976902, 0.2364213615655899], [-0.8100898265838623, 0.5793755650520325, 0.14840909838676453, -0.1736190915107727, -0.6423929333686829, 0.553615391254425, 0.0583132840692997, 0.06729264557361603, 0.00821554847061634, -0.0945814698934555, -0.2653757631778717, -0.2567532956600189, 0.10129502415657043, 0.4467611312866211, -0.4572238624095917, 0.3608596920967102], [0.14056453108787537, 0.1718626320362091, -0.09193850308656693, -0.13807573914527893, -0.07266821712255478, -0.019920524209737778, -0.2645508944988251, -0.1718999743461609, 0.0474989116191864, -0.015717100352048874, -0.055847153067588806, 0.03516267240047455, -0.029112188145518303, 0.08303749561309814, 0.19052930176258087, -0.05439848452806473], [-0.08878627419471741, 0.06785155832767487, -0.02655683271586895, -0.021198242902755737, 0.05543167516589165, 0.19529640674591064, 0.13702288269996643, -0.01508240308612585, 0.09890708327293396, -0.0024725967086851597, 0.05025256425142288, 0.011501973494887352, -0.03876001760363579, 0.10578645020723343, 0.016396498307585716, -0.04776865988969803], [-0.027909785509109497, 0.048198822885751724, 0.04037470370531082, -0.15738794207572937, -0.12797556817531586, 0.06984341144561768, -0.052968136966228485, -0.01499552559107542, 0.04790888726711273, -0.037644580006599426, 0.01425628736615181, -0.09784727543592453, -0.036842260509729385, -0.07712341845035553, 0.01722254604101181, 0.14527073502540588], [0.03760094568133354, -0.051892977207899094, 0.12160332500934601, -0.15389083325862885, 0.1382809728384018, 0.10755336284637451, -0.15105517208576202, 0.010563736781477928, -0.03056812472641468, 0.03460090234875679, -0.015266812406480312, -0.03253998979926109, -0.0897841602563858, -0.2119012176990509, 0.04588606208562851, 0.0628504827618599], [-0.004243769217282534, 0.09360960125923157, 0.06265036761760712, -0.10321281105279922, -0.21224947273731232, 0.024030085653066635, -0.12842074036598206, -0.006297849118709564, 0.010685566812753677, -0.02915431745350361, -0.0833437442779541, -0.10214633494615555, -0.0755804106593132, -0.010429623536765575, -0.007885269820690155, 0.03065011277794838], [0.11757644265890121, -0.07807613164186478, 0.08526566624641418, -0.07011424005031586, -0.01337537169456482, -0.07381972670555115, 0.014540452510118484, 0.03623675927519798, 0.031248729676008224, 0.015069079585373402, 0.02895655855536461, -0.03963697329163551, 0.15033642947673798, -0.051675282418727875, 0.06466728448867798, 0.12466146796941757], [-0.2430710345506668, -0.15098100900650024, -0.2778908312320709, -0.27563562989234924, -0.7818707227706909, 0.11386971175670624, -0.47252172231674194, 0.1785327047109604, -0.015073041431605816, 0.01032152771949768, -0.34967562556266785, -0.03612111508846283, 0.37052860856056213, 0.09808653593063354, -0.1573367416858673, 0.2907840311527252], [-0.01650244928896427, 0.04574161022901535, -0.2380412369966507, -0.16165073215961456, -0.03742694854736328, 0.2609702944755554, -0.5087881088256836, -0.0009528418886475265, -0.037101324647665024, 0.0006399744306690991, -0.10933977365493774, 0.06650765240192413, -0.18685747683048248, 0.1915164589881897, -0.054578546434640884, -0.2694701552391052], [0.08473575115203857, -0.05279312655329704, 0.015361137688159943, -0.07713136076927185, -0.45283520221710205, -0.18091537058353424, -0.27061983942985535, 0.0035713298711925745, 0.08149274438619614, -0.049904897809028625, -0.17411990463733673, -0.05066525936126709, -0.02047695219516754, -0.06597939133644104, 0.019598061218857765, -0.04032096639275551], [0.011802136898040771, -0.1207064613699913, -0.04003867134451866, 0.41240543127059937, 0.5837840437889099, 0.35543492436408997, 0.40850433707237244, -0.49685797095298767, -0.08818328380584717, 0.013019980862736702, 0.4139673411846161, 0.137785404920578, 0.39460262656211853, 0.07887038588523865, -0.11817322671413422, -0.27310827374458313], [-0.01071836519986391, -0.053496576845645905, -0.23776386678218842, 0.6624654531478882, 0.16458989679813385, -0.21514762938022614, 0.3581727147102356, 0.10828116536140442, 0.04430653899908066, 0.03937692567706108, 0.2612505853176117, 0.22048410773277283, -0.014686544425785542, -0.11516676843166351, -0.05159314349293709, -0.6288912296295166], [-0.3682209253311157, 0.5081432461738586, 0.2973029613494873, -0.058682285249233246, 0.008632835000753403, 0.4510044753551483, 0.44590333104133606, -0.0878281369805336, -0.08267895132303238, -0.07661905139684677, 0.24228449165821075, -0.13857676088809967, -0.18418839573860168, -0.32539016008377075, 0.038672324270009995, -0.1892593950033188], [0.3356614410877228, -0.2816932797431946, 0.17340338230133057, 0.2327158898115158, 0.524675726890564, -0.05597444251179695, 0.4735426604747772, -0.03842395171523094, 0.08640004694461823, -0.07432416826486588, 0.285484254360199, -0.14079612493515015, 0.28325366973876953, 0.3638269603252411, 0.29585522413253784, 0.5137291550636292], [0.1012195572257042, -0.341137558221817, 1.4211314010026399e-05, 0.06618862599134445, 0.6386638879776001, 0.38500791788101196, -0.04791610315442085, -0.4586411714553833, 0.03904931992292404, 0.2613064646720886, 0.4495853781700134, 0.28939223289489746, 0.25533440709114075, 0.10302477329969406, -0.16908831894397736, -0.36565402150154114], [-0.30050596594810486, 0.0006815250962972641, -0.07060090452432632, 0.31550800800323486, 0.19279664754867554, 0.41016483306884766, 0.5427535772323608, 0.03722203150391579, -0.05584972724318504, 0.054057538509368896, 0.16835686564445496, 0.06573556363582611, -0.017371153458952904, 0.11760830134153366, -0.3148132562637329, -0.049346279352903366], [-0.29955217242240906, 0.25654336810112, 0.12376952171325684, 0.6779763698577881, 0.5071801543235779, 0.4887782037258148, 0.33485546708106995, -0.5560585260391235, 0.056222788989543915, -0.11787685751914978, 0.5453369617462158, -0.09905321151018143, 0.16648879647254944, 0.08548405766487122, 0.09668806940317154, -0.12829062342643738], [0.552767813205719, 0.09496697038412094, -0.10077744722366333, 0.05755861848592758, 0.6714155673980713, -0.19453631341457367, -0.20404012501239777, -0.4385175406932831, 0.05540682002902031, -0.001151345670223236, 0.19839274883270264, 0.047231100499629974, 0.04092027246952057, 0.0093685919418931, 0.21537376940250397, -0.230818510055542], [-0.10699813067913055, 0.08662441372871399, -0.011307058855891228, -0.03376609832048416, 0.11963710188865662, 0.24853362143039703, 0.20167085528373718, -0.013165499083697796, 0.13750849664211273, 0.009163478389382362, 0.08929821103811264, 0.021151231601834297, -0.07560212910175323, 0.12536850571632385, 0.0251921359449625, -0.07305619865655899], [-0.0297453161329031, 0.04158727079629898, 0.04103674367070198, -0.013732693158090115, -0.09033814817667007, 0.06570664793252945, -0.03597084805369377, -0.001084046089090407, 0.041755080223083496, -0.04780243709683418, 0.011410828679800034, -0.03833245113492012, -0.08763497322797775, -0.06403820961713791, 0.0019490971462801099, 0.017105640843510628], [0.02063671126961708, -0.04917168989777565, 0.1179211363196373, -0.11321866512298584, 0.15818889439105988, 0.1485908180475235, -0.07865959405899048, 0.014548295177519321, -0.023707136511802673, 0.053604066371917725, 0.0108299870043993, 0.0026687998324632645, -0.10808321088552475, -0.2335290014743805, 0.08689373731613159, -0.009427642449736595], [-0.011397828347980976, 0.11308424919843674, 0.11962108314037323, -0.1454075425863266, -0.20431384444236755, 0.008110065944492817, -0.16633349657058716, 0.00958001334220171, 0.00867382064461708, -0.02805258147418499, -0.12494588643312454, -0.16947434842586517, -0.06325463950634003, -0.02325313724577427, -0.03918256238102913, 0.10781951993703842], [0.2618062198162079, -0.1156194657087326, -0.043182775378227234, 0.1611538529396057, 0.3825262486934662, -0.10815675556659698, 0.2366800159215927, -0.1018572673201561, 0.1570018082857132, 0.09452160447835922, 0.20504190027713776, 0.03014133684337139, 0.14453402161598206, 0.025459041818976402, 0.17168311774730682, -0.1339585930109024], [0.5644197463989258, -0.3350948691368103, -0.17047728598117828, 0.3231564462184906, 0.9412121772766113, 0.15058110654354095, 0.4482342600822449, -0.3369200527667999, 0.03844735026359558, 0.10681717097759247, 0.6442315578460693, 0.05633311718702316, 0.11770284920930862, -0.23145103454589844, 0.24958114326000214, -0.2936164140701294], [-0.13533233106136322, 0.1200210377573967, -0.2760520577430725, -0.074161596596241, 0.23056697845458984, 0.4935346245765686, -0.02673760987818241, -0.08811576664447784, 0.02672327309846878, 0.017102256417274475, 0.07068874686956406, 0.0862368494272232, -0.1984732300043106, 0.2739499509334564, -0.1161857545375824, -0.38813114166259766], [0.05300318822264671, 0.23435349762439728, 0.17526941001415253, -0.2999016046524048, -0.061143845319747925, -0.11000983417034149, 0.18280914425849915, 0.02303476072847843, 0.12632215023040771, -0.0743679404258728, -0.060684606432914734, -0.16549737751483917, 0.01879904977977276, -0.12401851266622543, 0.06118455529212952, 0.22677922248840332], [0.2543337345123291, -0.26249295473098755, -0.06707725673913956, 0.23375320434570312, 0.29842111468315125, -0.10036319494247437, -0.3463003933429718, 0.012101207859814167, 0.037765540182590485, -0.0279226154088974, 0.02158982865512371, 0.00899406336247921, -0.034352801740169525, -0.19483952224254608, 0.13461826741695404, 0.15358960628509521], [-0.4256253242492676, 0.8168695569038391, -0.1828242540359497, -0.07952698320150375, -0.31177249550819397, 0.09157971292734146, 0.28363269567489624, -0.1734844446182251, 0.07257859408855438, 0.1439986377954483, -0.23872435092926025, -0.025455867871642113, 0.26005819439888, 0.1730295568704605, -0.3352029621601105, -0.25392788648605347], [-0.1783193200826645, -0.18545715510845184, 0.6112604737281799, 0.11696091294288635, -0.08945569396018982, 0.3347322642803192, 0.3887646794319153, 0.12679627537727356, -0.3657989501953125, -0.030584905296564102, 0.09072625637054443, -0.18570087850093842, 0.20088137686252594, -0.23176735639572144, -0.020423540845513344, 0.27908289432525635], [0.1387428492307663, 0.019630108028650284, 0.24413466453552246, 0.3006730079650879, -0.6965437531471252, -0.3690780699253082, 0.22691144049167633, 0.11938197910785675, 0.11106973141431808, -0.09523473680019379, -0.13332527875900269, 0.15401868522167206, 0.02263786643743515, 0.11588215827941895, -0.2615721821784973, -0.49490052461624146], [0.21184036135673523, 0.25626516342163086, -0.12583158910274506, 0.5758035182952881, 0.2780810296535492, -0.043588049709796906, 0.1162680983543396, -0.16210463643074036, 0.05761245638132095, -0.22171014547348022, 0.26399147510528564, -0.3332081437110901, -0.14803992211818695, -0.2020326852798462, 0.1991347372531891, 0.2651888132095337], [-0.3200824558734894, 0.11274456977844238, -0.03817262127995491, 0.1738945096731186, -0.31306448578834534, 0.17774605751037598, 0.3868807256221771, 0.30755385756492615, -0.04066074267029762, 0.1198619157075882, 0.17416450381278992, 0.04732920974493027, -0.36884650588035583, -0.10750467330217361, 0.08863396942615509, 0.1604076325893402], [0.0012792276684194803, -0.04152684658765793, 0.048180460929870605, -0.28594204783439636, -0.07803975045681, -0.025872673839330673, 0.5731536746025085, 0.27694669365882874, -0.03987082093954086, 0.14200511574745178, 0.07761214673519135, 0.24946637451648712, 0.07307989150285721, 0.1912035197019577, -0.24653589725494385, -0.6602910757064819], [-0.1742684543132782, -0.21698668599128723, 0.21616634726524353, 0.19863928854465485, -0.19480650126934052, 0.04221131280064583, 0.3799162805080414, 0.00513213686645031, -0.057369038462638855, 0.061982713639736176, 0.001101568341255188, -0.06440475583076477, -0.07121102511882782, -0.12588882446289062, -0.026045486330986023, 0.03957553580403328], [-0.11028603464365005, 0.09369438141584396, -0.11150993406772614, 0.01833433285355568, 0.040962718427181244, 0.15344829857349396, 0.08022832870483398, 0.05230604484677315, 0.10096728056669235, 0.03470867499709129, 0.05961296334862709, 0.05413331836462021, -0.11246637254953384, 0.16497142612934113, -0.050727471709251404, -0.07388737797737122], [-0.24939563870429993, 0.2311970293521881, -0.07910170406103134, -0.08477994799613953, 0.3143008053302765, 0.18780522048473358, -0.08660950511693954, -0.05925462394952774, -0.04055440425872803, 0.01971401460468769, 0.0025091213174164295, -0.04527398198843002, -0.35023051500320435, -0.06314742565155029, 0.03081369772553444, 0.05119379609823227], [0.010375876910984516, -0.4771248400211334, -0.11015448719263077, 0.1380832940340042, -0.04439863562583923, 0.2067524939775467, 0.4263192117214203, -0.29573142528533936, -0.05496426299214363, -0.001072792918421328, 0.03227408602833748, 0.06133268401026726, 0.24698206782341003, -0.2311209887266159, 0.1582152545452118, 0.15290166437625885], [0.052064448595047, -0.181327223777771, -0.17158177495002747, 0.10198822617530823, 0.29315057396888733, 0.06863506883382797, -0.18600255250930786, 0.03285188972949982, 0.041288964450359344, 0.1760382354259491, 0.0012636336032301188, 0.15718479454517365, -0.04137790948152542, -0.02271188236773014, -0.05742337554693222, -0.07007066905498505], [-0.07485257834196091, 0.3786851167678833, 0.23085655272006989, -0.31784147024154663, 0.07586263120174408, -0.07768619805574417, 0.06349895894527435, -0.14426974952220917, -0.18018080294132233, -0.005153576843440533, -0.013527779839932919, -0.008504467085003853, 0.3881969153881073, 0.2572852671146393, -0.27452051639556885, 0.009637169539928436], [0.06261537969112396, 0.031215330585837364, -0.6330613493919373, -0.22969792783260345, 0.269669771194458, 0.1032029241323471, -0.12025470286607742, -0.12965157628059387, 0.01110717374831438, 0.09468061476945877, -0.33536994457244873, 0.1550491601228714, 0.2730900049209595, 0.4725748896598816, -0.11912862956523895, -0.18174462020397186], [0.2802436351776123, -0.2744077146053314, 0.0778498724102974, 0.26264795660972595, 0.1720016896724701, 0.14826898276805878, -0.07702585309743881, -0.050874751061201096, 0.07464948296546936, 0.20086579024791718, 0.16068606078624725, 0.03994361311197281, -0.026299936696887016, -0.3561466336250305, 0.380560964345932, 0.10484187304973602], [-0.03088798187673092, -0.014968665316700935, 0.14085394144058228, 0.044231101870536804, -0.6478393077850342, 0.19990035891532898, 0.6739738583564758, 0.19945499300956726, 0.05007157102227211, -0.1635008007287979, -0.2560460567474365, -0.30314838886260986, 0.1614558845758438, -0.052730072289705276, 0.46900877356529236, 0.17482100427150726], [-0.003711442928761244, -0.1767449826002121, -0.1745176911354065, 0.04889468476176262, -0.04551617428660393, 0.23669315874576569, -0.05033673718571663, -0.22378680109977722, -0.07256496697664261, 0.001586024765856564, -0.008103332482278347, 0.11368042230606079, -0.014001689851284027, 0.0730290561914444, -0.08814243972301483, -0.059946056455373764], [-0.07967779040336609, 0.0213910099118948, -0.12131213396787643, -0.5525758266448975, -0.6954118013381958, -0.1478995382785797, -0.07670310884714127, 0.14474980533123016, 0.019627772271633148, -0.04969135671854019, -0.19410745799541473, -0.08852437883615494, 0.26355621218681335, -0.19943857192993164, 0.11092960089445114, 0.40011289715766907], [-0.2640821039676666, 0.3373565971851349, 0.2985523045063019, -0.07505492866039276, -0.2259395569562912, 0.34176966547966003, 0.14001981914043427, -0.027007412165403366, 0.007257713470607996, -0.06759446859359741, 0.08013724535703659, -0.12215489149093628, -0.13081249594688416, -0.2212086319923401, 0.0478048212826252, -0.038477055728435516], [-0.00945577584207058, -0.2756548225879669, -0.103491872549057, -0.01012723334133625, 0.6190152764320374, 0.20328280329704285, -0.31139877438545227, 0.050500888377428055, 0.16056255996227264, 0.09164436161518097, -0.03484058752655983, -0.046058543026447296, 0.12228364497423172, -0.11423861235380173, 0.23765099048614502, 0.0563419871032238], [0.21482981741428375, -0.04701652377843857, -0.09529363363981247, -0.2137995958328247, 0.28670215606689453, -0.219599187374115, -0.24363255500793457, -0.5177158713340759, 0.007422064431011677, 0.03948051109910011, 0.16347959637641907, 0.0770641341805458, 0.20287315547466278, -0.0729622021317482, 0.12409726530313492, -0.13196846842765808], [-0.30913016200065613, 0.10174031555652618, -0.031127775087952614, 0.11801182478666306, 0.018897507339715958, 0.3256448209285736, 0.4001900255680084, 0.24514101445674896, -0.04398757591843605, -0.005702946800738573, 0.0518028661608696, -0.0016365330666303635, -0.14341506361961365, -0.04984896257519722, -0.1862800270318985, 0.10645639151334763], [-0.11139079928398132, -0.21745829284191132, 0.042460352182388306, 0.09803353250026703, 0.2502405643463135, 0.42833513021469116, -0.024728408083319664, -0.12205027043819427, -0.0037189966533333063, -0.004552358295768499, 0.12695865333080292, -0.027799343690276146, 0.15136012434959412, -0.0633770152926445, -0.017269641160964966, 0.11146751046180725], [0.27272677421569824, 0.08504661917686462, -0.12626534700393677, -0.06043284386396408, 0.261650949716568, -0.06915479153394699, -0.3034830093383789, -0.40514451265335083, 0.05835692211985588, -0.006341677159070969, 0.09293274581432343, 0.05402974784374237, 0.08252456784248352, 0.12338356673717499, 0.18968626856803894, -0.13089697062969208], [-0.08674559742212296, 0.06481235474348068, 0.05112696439027786, -0.0453282967209816, 0.0779377818107605, 0.2072473168373108, 0.16547104716300964, 0.0019488220568746328, 0.10097036510705948, -0.006551800761371851, 0.06776589900255203, 0.005371228326112032, -0.020520295947790146, 0.06571994721889496, 0.033473119139671326, -0.05336638540029526], [-0.030857233330607414, 0.05546291917562485, 0.041764818131923676, -0.1631772816181183, -0.13622817397117615, 0.07267206907272339, -0.050872791558504105, -0.015134528279304504, 0.052907027304172516, -0.04222708195447922, 0.012314432300627232, -0.10272201150655746, -0.05158976465463638, -0.07758063822984695, 0.013768966309726238, 0.14244544506072998], [0.03559800237417221, -0.05238846689462662, 0.1586643010377884, -0.2310323864221573, 0.08723842352628708, 0.11307965219020844, -0.13775885105133057, 0.01587635651230812, -0.03128483518958092, 0.041101016104221344, -0.00850771926343441, -0.027557937428355217, -0.09017893671989441, -0.2407311350107193, 0.07369039207696915, 0.0154796177521348], [-0.00942106731235981, 0.11677135527133942, 0.06939862668514252, -0.10839678347110748, -0.3287297785282135, 0.023072119802236557, -0.0941397026181221, 0.00037134153535589576, 0.018617577850818634, -0.059484269469976425, -0.09837264567613602, -0.13705609738826752, -0.09784258157014847, 0.0029574555810540915, -0.0349518321454525, 0.054365191608667374], [0.15894392132759094, -0.10841596126556396, 0.10997320711612701, -0.0029177844990044832, -0.0017448129365220666, -0.10607345402240753, -0.02548794634640217, -0.04723118245601654, 0.025678303092718124, 0.029231850057840347, 0.04354732111096382, -0.044791080057621, 0.24665310978889465, -0.013045248575508595, 0.09560863673686981, 0.15777070820331573], [-0.0725826621055603, -0.023555779829621315, -0.25944626331329346, 0.12997624278068542, -0.13655640184879303, 0.20040003955364227, 0.09343788772821426, 0.22385530173778534, 0.003269893815740943, -0.04362792894244194, 0.03654478117823601, -0.009967922233045101, -0.0911320298910141, 0.170427143573761, -0.07479304075241089, 0.012604556046426296], [-0.11011765897274017, -0.03943679481744766, -0.2454325556755066, -0.09214127063751221, 0.38869306445121765, 0.347258985042572, -0.17068548500537872, -0.001239966368302703, 0.04235538840293884, 0.10157883167266846, 0.003796493401750922, 0.15208111703395844, -0.08454935997724533, 0.24527902901172638, -0.1413985788822174, -0.2497258335351944], [0.05395015329122543, 0.1876862496137619, 0.05711299180984497, 0.3443983495235443, -0.671828031539917, -0.08900536596775055, 0.1526198536157608, 0.0053986599668860435, 0.08240889757871628, -0.12824077904224396, -0.008918346837162971, -0.06043131276965141, -0.24244201183319092, -0.10851669311523438, 0.04592292010784149, -0.09378603845834732]], "lstm.bias_ih_l0": [-0.16476750373840332, 0.05775117501616478, -0.3660512864589691, -0.2857578694820404, 0.030306508764624596, -0.14331966638565063, -0.02140304259955883, -0.41335803270339966, 0.0481879822909832, 0.16501179337501526, 0.050905585289001465, -0.13448651134967804, 0.10579704493284225, -0.8076602220535278, -0.2311195284128189, 0.021275397390127182, 0.5745198130607605, 0.012788616120815277, 0.2838727533817291, 0.9599921703338623, 0.5972963571548462, 0.21362073719501495, 0.7915212512016296, 0.3467463552951813, 0.05757089704275131, -0.016634536907076836, 0.061398446559906006, 0.03820950165390968, 0.35656648874282837, 1.0224101543426514, 0.4683881402015686, 0.3356245160102844, -0.18224315345287323, -0.03811310604214668, -0.07263825088739395, 0.15921878814697266, 0.20905235409736633, 0.15509073436260223, 0.019373521208763123, -0.0009478897554799914, 0.16031545400619507, 0.00657803425565362, 0.18446120619773865, -0.006267333868891001, 0.10664818435907364, -0.17215920984745026, -0.1323627084493637, -0.08526383340358734, -0.08793375641107559, -0.2694929540157318, -0.15759913623332977, -0.03185804560780525, 0.3973834216594696, 0.010684041306376457, 0.1561720073223114, 0.11653201282024384, 0.04395483434200287, 0.16721831262111664, 0.09362450242042542, -0.11670874059200287, 0.1358134001493454, -0.04029325023293495, -0.2187110036611557, 0.03178786858916283], "lstm.bias_hh_l0": [-0.20158962905406952, 0.011037277989089489, -0.29034847021102905, -0.2703607976436615, -0.28209012746810913, -0.2855675518512726, -0.281501442193985, -0.4702662229537964, 0.04818769916892052, 0.16550740599632263, 0.014793782494962215, -0.13611242175102234, 0.10775507986545563, -0.6798404455184937, -0.215084508061409, 0.0892215445637703, 0.6928811073303223, -0.13548770546913147, 0.38525235652923584, 0.8253827095031738, 0.7226329445838928, 0.2674976587295532, 0.6200056672096252, 0.3213599920272827, 0.05757209286093712, -0.016785718500614166, -0.003432798432186246, 0.062336135655641556, 0.34712472558021545, 1.1636416912078857, 0.40576085448265076, 0.3441675901412964, 0.18126574158668518, 0.11206260323524475, 0.0033167649526149035, 0.2946047782897949, -0.010843317955732346, -0.1630924493074417, 0.09599011391401291, -0.11518004536628723, -0.005352461710572243, -0.05392395332455635, 0.27109283208847046, -0.03694894164800644, -0.035734351724386215, 0.13685517013072968, -0.02082172781229019, -0.1879062056541443, 0.015036721713840961, -0.17740316689014435, -0.014737463556230068, -0.061067115515470505, 0.41720983386039734, -0.00011116897803731263, 0.20672763884067535, 0.007271267473697662, 0.04395123943686485, 0.1667315810918808, 0.1590753197669983, -0.08316938579082489, 0.13660551607608795, -0.17961324751377106, -0.1480240374803543, -0.0627320408821106], "dense.weight": [[-0.020363150164484978, -0.4177962839603424, -0.03169000893831253, -0.4997454583644867, 0.26609811186790466, -0.36781948804855347, -0.23057448863983154, -0.16527855396270752, -0.04604480043053627, 0.32203662395477295, -0.23580051958560944, 0.17238031327724457, 0.15942628681659698, -0.02363446354866028, -0.08319766074419022, -0.4484516680240631]], "dense.bias": [0.012260617688298225]}