{"lstm.weight_ih_l0": [[0.0783514529466629], [0.08895796537399292], [0.07861772924661636], [0.022092225030064583], [-0.04596753418445587], [0.11272471398115158], [0.03262058272957802], [-0.04802519828081131], [0.2456171065568924], [0.26968294382095337], [0.31428709626197815], [-0.06357374787330627], [0.3287406265735626], [-0.1438276469707489], [0.008891522884368896], [0.07706404477357864], [-0.1455995738506317], [0.012740213423967361], [0.026054177433252335], [0.0901966392993927], [0.04158206284046173], [0.2799401879310608], [-0.31931596994400024], [0.2897258400917053], [-0.021160149946808815], [0.32766371965408325], [-0.2820538580417633], [0.06372303515672684], [0.10251885652542114], [0.2472277134656906], [-0.05212291330099106], [-0.11132413893938065], [0.2035578191280365], [0.07970787584781647], [0.09090562164783478], [0.04287634417414665], [-0.09259627759456635], [0.07511205971240997], [0.24373334646224976], [-0.06561687588691711], [0.15172043442726135], [0.224086731672287], [0.05105135962367058], [-0.17159587144851685], [0.16067366302013397], [0.03830881416797638], [0.016958681866526604], [0.112530916929245], [-0.27157530188560486], [0.09666542708873749], [0.25060710310935974], [0.04015467315912247], [-0.05149655044078827], [0.2297382652759552], [-0.2934829592704773], [0.2982780337333679], [-0.0454690158367157], [0.19510424137115479], [-0.13787853717803955], [0.20027343928813934], [0.2474372684955597], [0.14253227412700653], [0.128562331199646], [-0.2055598348379135], [0.02519012615084648], [0.15438884496688843], [-0.11407677829265594], [0.25700247287750244], [0.019494857639074326], [-0.13347238302230835], [-0.06107033044099808], [-0.008155970834195614], [-0.3106267750263214], [-0.25589191913604736], [-0.20506423711776733], [0.3322935402393341], [-0.15279117226600647], [-0.14911609888076782], [-0.32941481471061707], [-0.3416430950164795], [-0.25731614232063293], [0.33206936717033386], [-0.029525509104132652], [0.11480893939733505], [-0.24725441634655], [0.2904471158981323], [0.32302728295326233], [-0.3263629078865051], [-0.03461591154336929], [-0.043629106134176254], [0.32781991362571716], [-0.34341880679130554], [-0.03275849670171738], [0.03149387612938881], [-0.10749389976263046], [-0.261863648891449], [0.1600615680217743], [0.10321985930204391], [-0.11065053939819336], [0.12557879090309143], [-0.2523239254951477], [0.24274975061416626], [0.02981656789779663], [-0.2305295467376709], [0.1160198375582695], [0.31733107566833496], [0.13763225078582764], [-0.09184636175632477], [0.16830770671367645], [0.03156640753149986], [0.1607409119606018], [0.22468328475952148], [-0.273603230714798], [0.06487990915775299], [0.25950226187705994], [-0.08287987858057022], [0.03695281967520714], [0.24570825695991516], [-0.2279830276966095], [0.15988321602344513], [0.030482888221740723], [0.23463213443756104], [-0.053536634892225266], [0.14184992015361786], [0.15826445817947388], [0.1241297647356987], [0.13041655719280243], [-0.27928176522254944]], "lstm.weight_hh_l0": [[0.07117737829685211, 0.16100655496120453, 0.14762644469738007, -0.09777767211198807, -0.013755450956523418, 0.055512767285108566, -0.04027065262198448, 0.128281831741333, -0.0004579671658575535, -0.054483938962221146, 0.14350388944149017, 0.07275186479091644, -0.006053841207176447, -0.17789573967456818, 0.010855196975171566, -0.027410060167312622, -0.00825779139995575, 0.016234014183282852, -0.0948275625705719, 0.11065063625574112, 0.07514042407274246, -0.00453493557870388, 0.004017266910523176, -0.11420542001724243, 0.18319079279899597, -0.07235877215862274, 0.14672870934009552, -0.13534703850746155, 0.08612310141324997, 0.09568805992603302, 0.08342315256595612, -0.07625360786914825], [-0.08062169700860977, 0.021363815292716026, -0.0877201184630394, -0.0622742585837841, 0.17018721997737885, 0.04242967069149017, 0.0660453587770462, 0.018574342131614685, 0.1486223191022873, 0.05490028113126755, -0.1227932944893837, 0.058040373027324677, 0.11463563144207001, -0.029559604823589325, 0.0013624457642436028, -0.006229759193956852, 0.0025971836876124144, 0.059855278581380844, -0.057375404983758926, 0.09963472187519073, -0.011527100577950478, 0.11682701110839844, 0.175489604473114, -0.11338859051465988, 0.02115601673722267, 0.08499152213335037, 0.0794244110584259, 0.025184497237205505, -0.003775267628952861, 0.1263979822397232, -0.05935264006257057, -0.051394395530223846], [-0.04606109857559204, -0.03804811090230942, -0.0251294057816267, 0.10713324695825577, -0.03445352986454964, 0.05780583247542381, -0.03446761146187782, 0.026321792975068092, 0.05613017827272415, 0.11239509284496307, 0.15072955191135406, -0.052965227514505386, 0.10005775839090347, 0.0837240144610405, 0.03971821814775467, 0.014157406985759735, -0.09622965008020401, -0.020611459389328957, 0.08676198124885559, -0.03988102078437805, -0.01656225137412548, 0.10343145579099655, 0.015996312722563744, 0.13434936106204987, 0.02226440981030464, 0.015313440933823586, 0.06188319995999336, 0.015955831855535507, -0.11343667656183243, 0.15492750704288483, 0.092986561357975, -0.07506982982158661], [0.12136365473270416, -0.0742025226354599, 0.11490250378847122, -0.03889983519911766, 0.09137207269668579, -0.12740515172481537, -0.12516117095947266, -0.15279333293437958, -0.12622898817062378, 0.011314651928842068, -0.16380535066127777, -0.10628845542669296, -0.07501313835382462, -0.07879432290792465, -0.2329472154378891, -0.1482706218957901, -0.12790250778198242, 0.04941198229789734, 0.027474086731672287, 0.10248813033103943, -0.011548224836587906, 0.06754416972398758, 0.16530841588974, 0.06325928121805191, 0.10184849798679352, -0.1928788125514984, 0.02959427237510681, 0.10958811640739441, 0.10598348081111908, -0.011765032075345516, 0.12071269005537033, -0.024266375228762627], [-0.16386128962039948, -0.09516244381666183, 0.02153046242892742, -0.11637363582849503, 0.1407897025346756, 0.1350741982460022, -0.06962361931800842, 0.18071773648262024, 0.06325713545084, 0.19695228338241577, 0.14211884140968323, -0.03533370420336723, -0.011647759936749935, -0.024078408256173134, 0.1781609207391739, 0.07350070029497147, 0.026919934898614883, 0.04238907992839813, -0.10413924604654312, 0.13057008385658264, -0.07061076909303665, -0.19131124019622803, 0.08132186532020569, -0.06633605062961578, 0.08679040521383286, -0.06800901889801025, 0.037015609443187714, 0.06994833052158356, -0.16026102006435394, 0.15311171114444733, 0.020870739594101906, -0.1130538135766983], [-0.05526566877961159, -0.08610440790653229, -0.05943620577454567, -0.014569846913218498, 0.1173238530755043, 0.04897813871502876, -0.05902569741010666, -0.021856209263205528, -0.03304588049650192, 0.06654170900583267, 0.04070061445236206, -0.02676032856106758, -0.06564319133758545, -0.059487711638212204, -0.25657662749290466, -0.09658818691968918, -0.12193064391613007, 0.12641233205795288, -0.044481661170721054, -0.06380221992731094, -0.005570762325078249, 0.1028389185667038, -0.11761156469583511, -0.173087015748024, 0.13727140426635742, 0.13314399123191833, 0.07097863405942917, 0.1257164627313614, -0.0010851616971194744, -0.10399271547794342, 0.04401687905192375, -0.025731174275279045], [0.03565314784646034, -0.029193783178925514, 0.07293707132339478, -0.1161244809627533, 0.07989698648452759, -0.04382007569074631, 0.07042796164751053, -0.07165680825710297, -0.021106213331222534, 0.09961336851119995, -0.015872545540332794, -0.10687069594860077, 0.024750299751758575, -0.22383318841457367, 0.04899678751826286, 0.005383213050663471, -0.1439487636089325, -0.13051463663578033, 0.06710012257099152, 0.09115247428417206, 0.008690565824508667, 0.035038430243730545, 0.04102949798107147, 0.05341288074851036, -0.055061448365449905, 0.18298913538455963, 0.1825287938117981, -0.1669100522994995, 0.022962011396884918, 0.05057935789227486, 0.0312187597155571, -0.06711538881063461], [-0.08048000931739807, 0.13700948655605316, -0.01944158971309662, -0.03555358573794365, 0.15017548203468323, 0.04576653614640236, 0.08017045259475708, -0.10457450151443481, -0.05046900734305382, -0.023086663335561752, 0.15093748271465302, 0.11679402738809586, 0.10951289534568787, 0.02635122276842594, -0.01751413382589817, 0.059528883546590805, -0.027409229427576065, -0.010914498008787632, 0.04279477521777153, 0.07810236513614655, -0.01343658845871687, -0.09984195977449417, -0.10217766463756561, 0.01632179692387581, 0.00011800508946180344, 0.025347469374537468, -0.08504697680473328, -0.01024878490716219, 0.027983486652374268, 0.0010694870725274086, -0.0031802887097001076, -0.05059785395860672], [0.1835797131061554, -0.14948607981204987, -0.02781226858496666, -0.0433172844350338, -0.17197608947753906, 0.13279567658901215, 0.1063026413321495, 0.005191219504922628, -0.18977077305316925, 0.0017580501735210419, -0.21039383113384247, 0.0776505395770073, -0.16520176827907562, 0.036188334226608276, -0.1772828847169876, -0.15148818492889404, 0.05403807386755943, 0.1601984202861786, -0.085486501455307, 0.0902647078037262, -0.019853610545396805, 0.062712162733078, 0.10145079344511032, -0.05141329765319824, -0.014924810267984867, -0.0478472076356411, -0.1607346534729004, -0.2004588097333908, 0.0010921158827841282, -0.12660279870033264, 0.11571455001831055, -0.0736604705452919], [-0.07075798511505127, -0.16678836941719055, 0.09029114991426468, 0.015722500160336494, 0.07535848766565323, -0.07047980278730392, -0.15466099977493286, 0.1032775491476059, -0.07725469022989273, 0.0480615608394146, -0.01227915845811367, -0.029714643955230713, -0.0493476539850235, 0.02768547832965851, -0.12885130941867828, 0.0852946937084198, -0.03757631778717041, 0.0862654596567154, 0.17730040848255157, 0.02728949673473835, -0.0009435048559680581, 0.15141934156417847, 0.13219158351421356, 0.055209577083587646, -0.06586442142724991, -0.11814462393522263, 0.1327279508113861, 0.0681183859705925, 0.06069882586598396, 0.19000159204006195, 0.03155790641903877, 0.017045561224222183], [0.06907375156879425, 0.10239670425653458, -0.07738834619522095, 0.171724334359169, 0.0313141904771328, -0.1290084570646286, -0.09312717616558075, -0.001425368944182992, 0.059409383684396744, 0.13299617171287537, -0.08873589336872101, 0.044749125838279724, 0.015075086615979671, -0.20886322855949402, -0.2324933409690857, 0.054845791310071945, 0.10644493997097015, 0.1461811512708664, -0.008624874986708164, 0.01757521741092205, -0.006015235558152199, 0.1409902572631836, -0.004265865311026573, -0.19534477591514587, 0.1966327428817749, -0.03474925458431244, 0.04436122253537178, 0.10821520537137985, -0.04454885423183441, -0.13439878821372986, -0.0575607568025589, -0.029177291318774223], [-0.05781853571534157, 0.17959372699260712, 0.114131398499012, 0.13099227845668793, 0.06375294178724289, -0.19001609086990356, 0.09070821851491928, -0.011823276989161968, 0.0975547805428505, 0.020695021376013756, -0.03630443289875984, -0.1531255841255188, -0.11400885879993439, -0.07032909989356995, -0.038610491901636124, 0.1158321350812912, 0.10934866219758987, 0.11607785522937775, -0.1973363310098648, -0.1058938279747963, 0.020775198936462402, 0.07513438165187836, -0.13999176025390625, 0.08425036072731018, 0.015613776631653309, -0.04560523107647896, 0.012247418984770775, -0.1488288789987564, -0.008926172740757465, 0.037683840841054916, 0.03669527918100357, 0.09939039498567581], [0.0789259672164917, -0.12063255906105042, 0.07165997475385666, 0.09550859034061432, -0.04569166898727417, -0.06584133207798004, 0.1342467963695526, 0.1496829390525818, 0.07171511650085449, -0.03578633815050125, -0.046054862439632416, 0.01994447223842144, 0.10503163933753967, -0.22644269466400146, -0.08765637874603271, 0.07027973979711533, 0.05200668424367905, 0.14020834863185883, -0.13211748003959656, 0.15588703751564026, -0.027595695108175278, -0.014681655913591385, 0.1735018789768219, -0.0012572805862873793, -0.04485193267464638, -0.10820534825325012, 0.16671176254749298, -0.024716898798942566, -0.18221116065979004, -0.01621437817811966, 0.14821501076221466, 0.08108878135681152], [0.05817881226539612, 0.12643462419509888, -0.2053726613521576, 0.011903496459126472, 0.11723960936069489, -0.09722895920276642, -0.019856806844472885, -0.024364370852708817, -0.1313983052968979, -0.11986936628818512, 0.15435314178466797, -0.06690511107444763, -0.00447654677554965, -0.08414316922426224, -0.11356077343225479, 0.08351950347423553, -0.08352189511060715, -0.10114983469247818, 0.14166317880153656, 0.09122540801763535, 0.06052941456437111, -0.15272438526153564, 0.18511438369750977, 0.16471855342388153, -0.009510185569524765, -0.1092693954706192, -0.12530799210071564, -0.1408666968345642, 0.04326828569173813, 0.1718360185623169, -0.004037737380713224, -0.05110486224293709], [0.06256803870201111, -0.06831895560026169, -0.14820356667041779, 0.26156556606292725, 0.00030984729528427124, -0.1935536414384842, -0.1470133662223816, 0.19229790568351746, -0.13628633320331573, -0.2012772411108017, -0.10161897540092468, -0.02157498337328434, -0.16541889309883118, 0.004644366446882486, -0.017748501151800156, -0.11440087854862213, -0.11896373331546783, 0.19815552234649658, 0.0003828047774732113, 0.09952008724212646, -0.0823807418346405, 0.06871379911899567, -0.14565320312976837, -0.20301847159862518, 0.02167658880352974, 0.05756863206624985, 0.0626533180475235, -0.10554365813732147, 0.21594947576522827, -0.038506876677274704, -0.008882096037268639, 0.22083736956119537], [0.06800247728824615, -0.04802251234650612, 0.10776737332344055, -0.023778652772307396, -0.19976507127285004, -0.156617671251297, -0.04153885692358017, 0.042098283767700195, 0.06317784637212753, 0.02833491563796997, -0.09085428714752197, 0.009389101527631283, 0.020556017756462097, -0.25814199447631836, -0.07713769376277924, -0.16135387122631073, -0.14196227490901947, 0.1359921395778656, -0.007887257263064384, -0.12303884327411652, -0.11139047145843506, -0.09638145565986633, -0.11130551993846893, -0.21848072111606598, 0.11411163210868835, 0.07753435522317886, -0.09356871247291565, -0.16059160232543945, 0.06408942490816116, 0.12600916624069214, -0.11591481417417526, -0.01878112182021141], [0.08640573918819427, 0.016710905358195305, -0.15061695873737335, 0.1370907723903656, 0.009316538460552692, 0.08957552909851074, -0.1012943834066391, 0.022898565977811813, 0.06942053884267807, -0.05077826976776123, 0.05256074666976929, 0.032070618122816086, 0.13963747024536133, 0.12537801265716553, -0.13444553315639496, -0.0795561820268631, 0.024327043443918228, -0.010094801895320415, -0.011962709948420525, -0.10898259282112122, 0.13149715960025787, 0.0914027988910675, -0.08997081965208054, 0.006710608024150133, -0.1319355070590973, 0.07598458975553513, 0.025066185742616653, -0.08076208829879761, -0.13201265037059784, 0.161579430103302, -0.1496090441942215, -0.05107715353369713], [-0.02278769575059414, -0.027782509103417397, -0.028686217963695526, 0.19946321845054626, -0.0786546990275383, -0.035562336444854736, 0.03112759068608284, -0.01038628164678812, -0.09259147942066193, 0.062259312719106674, 0.03477326035499573, -0.04994475468993187, -0.09986616671085358, -0.03297460451722145, -0.23768144845962524, -0.03566199541091919, -0.04004626348614693, 0.09356232732534409, -0.10428095608949661, -0.04505712166428566, 0.013549446128308773, 0.052001308649778366, -0.07829272001981735, 0.04799046739935875, 0.026669466868042946, 0.011135401204228401, 0.04410571977496147, -0.20585455000400543, 0.019384359940886497, -0.09649965167045593, 0.038706351071596146, -0.05351865291595459], [-0.13227732479572296, 0.03482326492667198, -0.1663084626197815, -0.018291231244802475, 0.06061812490224838, 0.16819758713245392, 0.1611848622560501, -0.08853007853031158, 0.12355931848287582, 0.009249797090888023, 0.07005869597196579, 0.015742745250463486, 0.06892840564250946, 0.05344369262456894, 0.0688716247677803, 0.02649988979101181, -0.08011312782764435, -0.16652873158454895, 0.05801365524530411, -0.13687244057655334, -0.059714555740356445, -0.08384426683187485, -0.007153807673603296, -0.09530828148126602, 0.02827693149447441, 0.011176777072250843, 0.18621967732906342, -0.09218964725732803, -0.11603038758039474, -0.02205085940659046, -0.0764545425772667, -0.15630048513412476], [-0.12966622412204742, 0.08095750212669373, -0.09659167379140854, -0.016708381474018097, 0.18123164772987366, 0.12391708791255951, 0.018519675359129906, 0.034599706530570984, 0.17699408531188965, -0.022681526839733124, -0.03935455530881882, 0.14816464483737946, 0.1270340085029602, 0.047738585621118546, 0.04579954221844673, 0.1923118531703949, 0.13081635534763336, -0.13929888606071472, -0.04767454043030739, 0.06729789823293686, 0.0011576986871659756, -0.14196014404296875, -0.11903837323188782, 0.14652559161186218, 0.02446506917476654, 0.17176800966262817, -0.04201893135905266, 0.1375126987695694, -0.07144378870725632, -0.0770479366183281, -0.08061533421278, -0.0074866716749966145], [0.03586443513631821, -0.009847082197666168, -0.0008059577085077763, 0.005696384236216545, -0.05393466353416443, 0.019883397966623306, 0.008091799914836884, 0.006755799055099487, 0.0022489072289317846, 0.12552481889724731, -0.003985140472650528, -0.02271837741136551, 0.027149442583322525, 0.036602575331926346, 0.0396755188703537, 0.1306443065404892, 0.09351862221956253, -0.01837744563817978, 0.0371977761387825, -0.029084419831633568, -0.038233280181884766, -0.06504520028829575, -0.0919242799282074, 0.06712694466114044, -0.027171848341822624, 0.0420919694006443, -0.07781572639942169, -0.03275345265865326, -0.0610710009932518, 0.0012255869805812836, 0.02695702761411667, 0.003510798793286085], [0.08413401991128922, -0.10198364406824112, 0.10481709986925125, -0.0780135914683342, 0.14583554863929749, -0.1393156200647354, 0.061557065695524216, 0.08893545717000961, -0.19366014003753662, 0.06664343923330307, -0.14230425655841827, 0.13020677864551544, 0.14827409386634827, -0.21878153085708618, -0.20236849784851074, -0.10868092626333237, -0.1341124027967453, 0.1672932654619217, -0.07523548603057861, 0.11376021057367325, 0.07962356507778168, -0.1082530990242958, -0.13962823152542114, -0.18246789276599884, 0.022026263177394867, -0.05510982125997543, 0.11099740117788315, 0.056742068380117416, -0.0891217291355133, 0.12584227323532104, -0.08688689023256302, -0.17800989747047424], [-0.05164903402328491, -0.14558357000350952, 0.14384540915489197, -0.07641640305519104, -0.12472070753574371, 0.14682415127754211, -0.08814246207475662, 0.08912757784128189, 0.025072524324059486, -0.03061847947537899, -0.10483929514884949, -0.09024609625339508, -0.13443322479724884, 0.07256408035755157, -0.13178254663944244, 0.14804822206497192, 0.0750930905342102, 0.11815646290779114, -0.09723218530416489, -0.0777343362569809, -0.02843751572072506, 0.0439690537750721, 0.14956128597259521, 0.10602975636720657, 0.052676137536764145, -0.1492970734834671, -0.06532643735408783, -0.03331942856311798, -0.020457284525036812, 0.09584003686904907, -0.1598728746175766, 0.015674082562327385], [-0.1442524790763855, 0.08616434782743454, -0.03118796832859516, -0.0405258983373642, -0.12234871834516525, -0.11679031699895859, 0.0765799731016159, 0.1749987155199051, 0.04894467815756798, -0.16057690978050232, -0.136772021651268, 0.08624763041734695, -0.06328631192445755, -0.17963483929634094, -0.06264194846153259, -0.11706991493701935, -0.13655635714530945, 0.05507428199052811, -0.05741548910737038, -0.09313002228736877, -0.08177021145820618, 0.06586949527263641, -0.025860777124762535, -0.16948117315769196, 0.22560939192771912, 0.04749641567468643, -0.07768918573856354, -0.1877039521932602, -0.1687651127576828, -0.14916574954986572, -0.004008435178548098, -0.13585230708122253], [-0.12900155782699585, 0.013732516206800938, -0.14658166468143463, 0.06658665090799332, 0.11289533972740173, -0.00566742243245244, -0.033267006278038025, 0.009757744148373604, 0.005718570202589035, -0.026894381269812584, -0.12374043464660645, 0.06098012998700142, 0.060273781418800354, -0.013644112274050713, -0.01659657619893551, 0.0188777856528759, -0.021177664399147034, 0.02609214000403881, 0.03442664444446564, -0.012847067788243294, 0.03275804966688156, -0.12592653930187225, 0.09391674399375916, 0.06925607472658157, 0.020832151174545288, 0.1658456027507782, -0.054141681641340256, -0.024403367191553116, -0.02487419918179512, -0.00862143188714981, -0.08186304569244385, 0.06127343326807022], [0.1590660661458969, -0.11070984601974487, -0.1687830686569214, 0.18275445699691772, -0.0706244632601738, -0.11624614894390106, 0.061460480093955994, -0.1859235167503357, -0.15016800165176392, -0.061981599777936935, 0.15324653685092926, 0.049016039818525314, -0.03866853937506676, -0.03899984806776047, -0.06758502870798111, 0.02630922943353653, 0.07638872414827347, -0.11640125513076782, -0.04285509139299393, 0.15246336162090302, -0.09878968447446823, -0.011622730642557144, -0.0038941025268286467, -0.10094750672578812, 0.0926693007349968, 0.04774773120880127, -0.07272050529718399, -0.024789094924926758, -0.1420031636953354, -0.01819492131471634, -0.047845277935266495, -0.14632919430732727], [-0.08116273581981659, 0.023550134152173996, -0.11012105643749237, -0.1239791065454483, 0.1684747189283371, -0.1268637776374817, 0.02848173677921295, -0.09142857044935226, 0.0775689110159874, -0.01686299964785576, -0.11826659739017487, -0.13099238276481628, 0.08217409998178482, -0.05815216898918152, -0.01932598277926445, 0.016942348331212997, -0.16316834092140198, -0.09051037579774857, -0.05934363976120949, 0.0014497521333396435, -0.03643832728266716, -0.17299063503742218, -0.135083869099617, 0.08349712938070297, -0.20223093032836914, -0.08349525183439255, 0.1381150633096695, 0.15754905343055725, -0.08834882080554962, 0.022115757688879967, -0.05281921103596687, -0.10850223153829575], [-0.01428935769945383, -0.1568160057067871, -0.05131394416093826, -0.10474532842636108, 0.024136211723089218, 0.09562955796718597, -0.13315659761428833, 0.11205237358808517, -0.0093085253611207, 0.11433130502700806, -0.19620223343372345, 0.12849201261997223, -0.06189870461821556, -0.12827298045158386, -0.0015797852538526058, -0.13691478967666626, -0.1250918209552765, -0.017657671123743057, -0.1378350406885147, -0.08708450943231583, 0.034198250621557236, 0.17166858911514282, -0.0828406885266304, 0.07288075983524323, 0.05258643627166748, -0.1837530881166458, -0.02561401203274727, -0.1645919382572174, 0.10987625271081924, 0.09168096631765366, 0.056768111884593964, 0.02449573017656803], [-0.0852980837225914, -0.008262325078248978, 0.024264410138130188, 0.008625976741313934, 0.048201899975538254, 0.10930438339710236, 0.125096395611763, 0.05791245400905609, -0.09791392832994461, -0.0662740170955658, -0.017316076904535294, -0.1027001366019249, -0.08499743044376373, -0.051908235996961594, 0.02438020333647728, 0.1288720667362213, -0.1657954454421997, 0.11201437562704086, -0.08404065668582916, -0.05230224132537842, -0.010624336078763008, 0.08247816562652588, 0.12852543592453003, 0.1401638686656952, 0.11733487248420715, 0.1707295924425125, 0.17170009016990662, 0.14128343760967255, 0.040170274674892426, -0.08747073262929916, 0.1862596571445465, -0.10676161199808121], [-0.1966484934091568, -0.022333305329084396, 0.08519377559423447, -0.13718439638614655, -0.003470565192401409, 0.058814264833927155, 0.06775461882352829, 0.029732126742601395, 0.06902159750461578, 0.06502784043550491, 0.04862365126609802, 0.11703313887119293, 0.026435697451233864, -0.035937849432229996, -0.027042217552661896, -0.09391229599714279, 0.11064141988754272, -0.02294471673667431, 0.09904766082763672, -0.12464312463998795, -0.05294012278318405, -0.16662828624248505, -0.10576560348272324, 0.034535445272922516, -0.037670448422431946, 0.1936935931444168, 0.17990195751190186, -0.08228996396064758, 0.11780902743339539, -0.05908225104212761, 0.061101675033569336, -0.10975866764783859], [-0.09870198369026184, 0.19244574010372162, 0.02938389964401722, -0.07042521238327026, -0.026720654219388962, 0.15716196596622467, -0.07204224914312363, 0.10378635674715042, -0.13136149942874908, 0.02298293262720108, 0.18665891885757446, 0.1176256462931633, 0.07783433049917221, -0.037501584738492966, -0.04698280617594719, 0.1796453595161438, -0.02636270970106125, -0.09374098479747772, -0.10412270575761795, -0.04118547588586807, 0.056958459317684174, -0.033711858093738556, 0.166451558470726, 0.1511041820049286, 0.025194238871335983, -0.044711362570524216, -0.06852012127637863, -0.04491166025400162, -0.12410330027341843, 0.15306168794631958, -0.06460154801607132, 0.16128967702388763], [0.17320850491523743, -0.08317073434591293, 0.13905379176139832, 0.06843390315771103, 0.0043203020468354225, -0.07065287977457047, 0.055536963045597076, 0.1460559070110321, -0.10583075881004333, -0.010836218483746052, 0.04806118085980415, -0.017648033797740936, 0.031164128333330154, 0.13448180258274078, 0.16685156524181366, 0.08064224570989609, -0.13788238167762756, 0.10056697577238083, -0.1624257117509842, 0.0947045087814331, 0.14482703804969788, -0.07666482776403427, -0.16847580671310425, -0.06995191425085068, -0.07673030346632004, 0.1109725832939148, 0.03923363238573074, 0.022485580295324326, 0.14422711730003357, -0.14848046004772186, 0.07870452105998993, -0.018932543694972992], [0.09479840099811554, -0.07618475705385208, -0.028600070625543594, -0.08525340259075165, 0.02748001180589199, -0.040345996618270874, 0.10756219178438187, -0.08502403646707535, -0.12444479018449783, 0.13595707714557648, 0.1651487499475479, 0.16554369032382965, -0.06939499080181122, -0.16013917326927185, -0.17972420156002045, 0.10440342128276825, 0.056149374693632126, -0.07000794261693954, 0.0005022739642299712, 0.032823994755744934, 0.09155242145061493, 0.012776937335729599, 0.04357694089412689, 0.1144724115729332, 0.10194814205169678, 0.03346683457493782, -0.08065731823444366, -0.0018829478649422526, 0.06688595563173294, -0.14161071181297302, -0.11389502882957458, -0.11707959324121475], [0.051657937467098236, -0.03487706184387207, -0.0009018713608384132, 0.0863649919629097, 0.09299775958061218, 0.05949357897043228, 0.02766115590929985, -0.06864196807146072, -0.011680088937282562, 0.11721405386924744, -0.02836473658680916, -0.05243360251188278, 0.02546807751059532, -0.002765596378594637, -0.028370564803481102, -0.13135746121406555, -0.009081229567527771, 0.07307583838701248, -0.04474607855081558, 0.1612548530101776, -0.007573258597403765, 0.013311964459717274, -0.030119799077510834, 0.0880301371216774, 0.018036961555480957, 0.10820642113685608, -0.03675888851284981, 0.0566922128200531, -0.0791066363453865, 0.009521902538836002, -0.1415560245513916, -0.07747220247983932], [-0.1611008495092392, 0.06967932730913162, -0.16840490698814392, 0.10384318232536316, 0.09719014167785645, -0.03411652147769928, 0.05825839936733246, -0.06092308089137077, 0.13564912974834442, 0.14821825921535492, 0.05071273818612099, -0.023454919457435608, 0.005697824992239475, 0.03232276439666748, -0.12503208220005035, 0.045915648341178894, 0.05361761525273323, -0.08873214572668076, -0.006158855743706226, -0.09901527315378189, -0.001550454180687666, -0.14586713910102844, 0.06240170821547508, 0.12314973026514053, -0.014338468201458454, 0.15676702558994293, 0.03990207239985466, 0.006447250489145517, 0.07793682813644409, -0.07398559898138046, -0.027987683191895485, 0.006612988188862801], [0.12581399083137512, 0.09049328416585922, -0.009597896598279476, -0.06686423718929291, -0.18614409863948822, -0.0911487340927124, -0.14587345719337463, -0.13165931403636932, 0.09500613808631897, -0.14907850325107574, 0.05971970036625862, -0.04239444434642792, 0.05463935434818268, -0.27757468819618225, -0.12558922171592712, 0.07667887210845947, -0.0881514847278595, 0.028547795489430428, -0.174774169921875, -0.014154469594359398, -0.008479571901261806, -0.08473598212003708, 0.1417628973722458, -0.1999838501214981, -0.060095157474279404, -0.08280859142541885, -0.005067857913672924, 0.09713666886091232, -0.16695775091648102, 0.1557447910308838, 0.0766674056649208, -0.005066193174570799], [-0.012886716984212399, -0.05599621310830116, -0.0021078730933368206, -0.12584243714809418, -0.06311813741922379, -0.08253787457942963, 0.10245878249406815, 0.09671129286289215, -0.011881119571626186, 0.10702644288539886, 0.05567159503698349, -0.12802033126354218, -0.0761738270521164, 0.22646236419677734, -0.06735674291849136, -0.0287750493735075, 0.08100534230470657, -0.15466026961803436, -0.15303510427474976, -0.04324287176132202, -0.03133045881986618, 0.07014992833137512, -0.09699995815753937, 0.06873241066932678, -0.024949809536337852, 0.1291433870792389, -0.043763358145952225, 0.13325899839401245, -0.10640460252761841, -0.01638120971620083, -0.081800177693367, -0.024410445243120193], [0.07635682076215744, -0.09251725673675537, 0.041316136717796326, -0.055214859545230865, 0.10078581422567368, -0.03158891201019287, -0.06486550718545914, -0.004291343968361616, -0.1072927713394165, 0.11362341046333313, -0.042383864521980286, 0.09506083279848099, -0.010891325771808624, -0.2648395299911499, 0.03850526362657547, 0.14785780012607574, 0.017805125564336777, -0.10860683023929596, 0.00020297869923524559, 0.16874022781848907, -0.09218209981918335, 0.15773256123065948, -0.09164868295192719, 0.14330777525901794, 0.0743180587887764, -0.01137913390994072, 0.12748752534389496, -0.014602296985685825, -0.053705986589193344, -0.08389060944318771, 0.054429344832897186, -0.10621853917837143], [-0.15222449600696564, -0.019549855962395668, 0.0778341293334961, -0.09926469624042511, -0.07932118326425552, 0.09583724290132523, -0.0021000392735004425, 0.11113225668668747, -0.09394144266843796, 0.10683318972587585, 0.046774692833423615, -0.10880077630281448, -0.11891604214906693, -0.17622509598731995, 0.04833032190799713, 0.04823020473122597, 0.05230158567428589, 0.16079828143119812, -0.11022141575813293, 0.08996836841106415, 0.0342135950922966, 0.03369065374135971, -0.08529908955097198, 0.1024036630988121, 0.0696185976266861, 0.0840960144996643, 0.028895357623696327, -0.056936271488666534, -0.05357933044433594, 0.001486375113017857, -0.04719247296452522, 0.07169482856988907], [0.08803821355104446, -0.0939866453409195, -0.13974355161190033, -0.17842890322208405, 0.11351677775382996, 0.052630290389060974, 0.0028632073663175106, -0.07802072912454605, 0.02251577377319336, 0.11842382699251175, 0.1096053421497345, 0.0637131929397583, 0.05619393289089203, -0.05635920166969299, 0.02245502546429634, 0.12353847920894623, -0.10959398001432419, -0.02158859372138977, 0.05094870924949646, 0.06328967958688736, 0.0021640481427311897, 0.004052331205457449, 0.02136070840060711, 0.12586604058742523, -0.0011026826687157154, 0.18728506565093994, 0.1820581704378128, 0.12221979349851608, 0.04771166667342186, 0.01709277555346489, -0.09763449430465698, 0.004454663023352623], [-0.044815048575401306, -0.04897155612707138, 0.10041217505931854, 0.14171452820301056, -0.17021605372428894, -0.15875357389450073, -0.02350793033838272, 0.08494789898395538, 0.02175786904990673, 0.10504015535116196, 0.1078258752822876, 0.17829298973083496, 0.10304814577102661, -0.24865224957466125, -0.23861640691757202, -0.11600213497877121, -0.08383047580718994, 0.005456007085740566, 0.10127702355384827, -0.18503700196743011, -0.022000351920723915, -0.0540689155459404, 0.1047091856598854, 0.04001690447330475, -0.020974010229110718, 0.13747720420360565, -0.14888858795166016, -0.07615568488836288, 0.0729164332151413, 0.11704223603010178, 0.11657097935676575, -0.06650465726852417], [-0.058195583522319794, -0.021594317629933357, -0.029144693166017532, -0.13860338926315308, 0.1460251361131668, -0.11355564743280411, 0.16980256140232086, 0.11757983267307281, -0.13749125599861145, -0.17255869507789612, 0.14350661635398865, 0.16666460037231445, 0.03962382301688194, -0.06468289345502853, -0.2578320801258087, -0.06435049325227737, -0.06657592952251434, 0.17651695013046265, 0.06914564222097397, -0.11060971021652222, 0.019226178526878357, -0.0019111863803118467, -0.1048295646905899, -0.03481480851769447, -0.029133645817637444, 0.15515686571598053, -0.043826792389154434, -0.0938211977481842, -0.10172925889492035, 0.18548664450645447, 0.06970790028572083, -0.1716410517692566], [0.07322815805673599, -0.0349060595035553, 0.12172214686870575, -0.019123654812574387, -0.09089237451553345, -0.023529544472694397, 0.0407809242606163, 0.14439348876476288, -0.011668420396745205, -0.1542324274778366, -0.17051903903484344, 0.11330930143594742, -0.01849043369293213, -0.23371347784996033, -0.015003567561507225, 0.033980533480644226, -0.02139078453183174, -0.12273107469081879, -0.08248572796583176, 0.07616734504699707, -0.037363164126873016, 0.015711601823568344, -0.039429325610399246, -0.05140254274010658, -0.028407864272594452, -0.037892699241638184, 0.07040786743164062, 0.13301971554756165, 0.055525973439216614, -0.0821886956691742, 0.03503042459487915, -0.19985899329185486], [-0.0820646733045578, -0.05168405920267105, -0.00686117447912693, -0.0342082642018795, -0.09269005060195923, -0.19002673029899597, 0.02616773173213005, -0.07367940992116928, -0.07440929859876633, 0.07828109711408615, 0.13644817471504211, -0.05299239978194237, 0.0888301357626915, 0.13045236468315125, -0.09706823527812958, -0.017720816656947136, 0.020170295611023903, 0.02483360283076763, -0.1743239015340805, -0.09317515045404434, 0.12166893482208252, -0.1255292147397995, -0.09156391024589539, 0.0973561480641365, 0.04163074493408203, 0.07696563750505447, -0.05778161436319351, 0.013896787539124489, 0.17668864130973816, 0.05933910235762596, -0.011657260358333588, 0.1696932017803192], [0.07865410298109055, -0.014499379321932793, -0.11652464419603348, -0.06839592754840851, 0.09581981599330902, 0.04038052260875702, 0.008759468793869019, -0.1133727952837944, -0.05880439281463623, 0.15213526785373688, 0.020347125828266144, -0.006591572426259518, 0.035859160125255585, -0.11721432954072952, -0.20279428362846375, -0.1179487481713295, 0.13740938901901245, 0.16465851664543152, -0.03774181753396988, 0.10936044156551361, -0.056879088282585144, 0.0798681229352951, 0.16394680738449097, 0.1258649379014969, 0.12651842832565308, 0.14610326290130615, 0.17532788217067719, -0.006723487749695778, 0.07429774105548859, -0.13482828438282013, 0.11129910498857498, 0.0823633149266243], [0.03905089199542999, 0.04924331232905388, 0.08130054920911789, -0.14708036184310913, -0.11975094676017761, 0.02979714795947075, -0.09407452493906021, 0.021791676059365273, 0.06089560315012932, -0.013350322842597961, 0.18904951214790344, -0.049536291509866714, 0.07967713475227356, -0.01525853481143713, 0.055349282920360565, -0.03594924509525299, 0.0690097063779831, -0.16414421796798706, 0.043936315923929214, -0.07110407948493958, 0.08341949433088303, -0.11869494616985321, -0.07988344132900238, -0.12815462052822113, 0.05738215148448944, -0.12119362503290176, 0.16238225996494293, 0.1414831429719925, 0.06186890974640846, -0.08128657191991806, 0.07042678445577621, -0.020412668585777283], [0.08087338507175446, 0.09202887117862701, -0.14325973391532898, -0.003478155005723238, 0.026252232491970062, -0.00200341222807765, -0.07242221385240555, -0.03385656327009201, 0.004401096608489752, 0.06859057396650314, -0.2685208320617676, 0.06905712932348251, -0.037000998854637146, 0.06156639754772186, -0.06336450576782227, -0.07052154839038849, 0.16355204582214355, 0.006395291071385145, -0.020796392112970352, -0.01248029712587595, 0.048447705805301666, -0.026586104184389114, -0.0321962833404541, -0.021251332014799118, 0.06782685220241547, -0.17812186479568481, 0.13606952130794525, -0.22213582694530487, 0.10882662981748581, -0.12536516785621643, -0.17737853527069092, 0.2447323352098465], [-0.1379237025976181, -0.005243073217570782, -0.022233273833990097, 0.14254996180534363, -0.07173546403646469, 0.1094464659690857, -0.09026504307985306, 0.0698915347456932, -0.14899156987667084, 0.04471445083618164, 0.014690157026052475, 0.07555203139781952, 0.07033991068601608, -0.09418867528438568, -0.14862941205501556, 0.08018883317708969, 0.10796555131673813, 0.10458454489707947, -0.018790313974022865, 0.033688340336084366, 0.06899791955947876, 0.07495196163654327, -0.10515329241752625, -0.15550312399864197, -0.020049329847097397, -0.15140455961227417, -0.13818006217479706, -0.18492081761360168, -0.12220679223537445, -0.13289521634578705, 0.00036195688880980015, -0.1869022399187088], [0.14392395317554474, 0.007243753876537085, 0.07002252340316772, -0.08577530086040497, -0.0008189929649233818, 0.14328211545944214, -0.022910907864570618, 0.07033346593379974, -0.08649686723947525, 0.08178552985191345, -0.06122617796063423, -0.12201076000928879, -0.029048539698123932, 0.07565010339021683, 0.17569349706172943, 0.132469043135643, -0.125169038772583, 0.09741296619176865, -0.028288714587688446, -0.048010412603616714, -0.08721938729286194, 0.00012258882634341717, -0.1433495730161667, -0.14191694557666779, -0.07331410050392151, 0.016290105879306793, 0.09566168487071991, 0.16429242491722107, 0.115483857691288, -0.018717460334300995, -0.0006715033669024706, 0.024738797917962074], [0.026889530941843987, 0.11177334189414978, -0.15494590997695923, 0.16401882469654083, -0.11662282794713974, -0.12523885071277618, 0.05974343419075012, 0.057611800730228424, -0.0312834270298481, 0.037988681346178055, 0.09754985570907593, 0.04150834679603577, 0.011975234374403954, 0.009303255937993526, -0.1358056664466858, 0.007653494365513325, -0.12840110063552856, -0.0937088280916214, 0.09171153604984283, 0.10983847826719284, 0.026521330699324608, -0.03551873564720154, -0.10529753565788269, -0.0016841997858136892, 0.10435514897108078, -0.1463189572095871, -0.1431044638156891, -0.17355477809906006, 0.06364848464727402, 0.13727258145809174, -0.11207845062017441, -0.04815296083688736], [0.00042236808803863823, -0.0021535251289606094, -0.05132452771067619, 0.03945177048444748, -0.10022137314081192, -0.0763874351978302, -0.046405304223299026, -0.10394205152988434, -0.02195543609559536, -0.1567487120628357, 0.15751297771930695, 0.009824882261455059, 0.13683389127254486, -0.041964784264564514, -0.18289460241794586, -0.0162410419434309, -0.029823768883943558, -0.022465886548161507, -0.13354724645614624, -0.08183998614549637, 0.023200390860438347, 0.04004812613129616, -0.05517863854765892, 0.1278713196516037, 0.03896618261933327, 0.11958549171686172, -0.12717783451080322, 0.06111213564872742, -0.13688047230243683, -0.11027461290359497, 0.1601625233888626, -0.11666539311408997], [0.0895957350730896, 0.08851069957017899, -0.0775708332657814, -0.0672600194811821, 0.14310024678707123, 0.10378771275281906, -0.08065973222255707, -0.08008047193288803, 0.08788104355335236, 0.13666567206382751, 0.068506620824337, 0.04030436649918556, 0.019443565979599953, 0.08872189372777939, -0.15380065143108368, -0.010108623653650284, -0.030395571142435074, 0.015249905176460743, 0.08113931864500046, 0.18926659226417542, -0.004467393271625042, -0.02257760614156723, 0.004812783561646938, 0.10313577204942703, 0.017985578626394272, -0.05302776023745537, 0.0031265877187252045, -0.062030043452978134, 0.018748287111520767, -0.06116083264350891, 0.010664980858564377, -0.013320915400981903], [0.07205979526042938, -0.02297154627740383, 0.00046448688954114914, -0.1066015288233757, 0.02535983920097351, 0.013043001294136047, 0.013478321023285389, 0.006414119154214859, 0.003311273641884327, 0.11060664802789688, 0.005024832673370838, -0.026966318488121033, 0.02722533792257309, 0.04848143458366394, 0.03882082551717758, -0.05454932525753975, -0.054113514721393585, -0.018054882064461708, 0.03035888262093067, 0.039898667484521866, 0.01038380991667509, -0.11124321073293686, -0.08709941059350967, 0.025097565725445747, -0.018526829779148102, 0.11485376954078674, 0.02905518375337124, 0.08027879148721695, -0.047111496329307556, 0.02622085064649582, 0.029972001910209656, 0.0009334264323115349], [0.15113596618175507, 0.18359817564487457, -0.1370847076177597, -0.12841150164604187, 0.11297731846570969, -0.04207319766283035, 0.031110044568777084, 0.0031638245563954115, -0.018844978883862495, 0.07852710783481598, -0.03281504288315773, -0.06707922369241714, -0.006768723484128714, -0.04865742474794388, -0.06641190499067307, -0.020614614710211754, -0.14977185428142548, 0.15704071521759033, -0.1521071493625641, -0.035743165761232376, -0.007984341122210026, 0.1026134267449379, 0.17175281047821045, -0.012357386760413647, 0.16774219274520874, 0.03276024013757706, 0.01697409525513649, 0.1309518665075302, 0.07837867736816406, -0.012467950582504272, 0.019991913810372353, -0.12649588286876678], [-0.12062275409698486, -0.012014782056212425, -0.03620336949825287, 0.15112686157226562, 0.19062717258930206, 0.04884535074234009, 0.09499230980873108, 0.08324097096920013, 0.021076595410704613, -0.1509188562631607, 0.012993205338716507, -0.10036864131689072, -0.13391689956188202, -0.008995069190859795, 0.018718287348747253, -0.0711766853928566, -0.14675238728523254, -0.0881584882736206, 0.0030547468923032284, -0.009387957863509655, -0.04019555449485779, -0.1533488780260086, -0.01765374466776848, 0.05809883028268814, -0.013428302481770515, -0.15032730996608734, 0.07884976267814636, 0.07795394212007523, 0.08859817683696747, -0.14958496391773224, -0.009924732148647308, 0.1384999006986618], [0.07464419305324554, -0.14226020872592926, 0.1547437459230423, 0.017946045845746994, 0.12655985355377197, -0.08840220421552658, -0.09184733778238297, 0.02099018543958664, -0.19864968955516815, -0.21304672956466675, 0.09449481964111328, 0.20423682034015656, -0.1332130879163742, -0.179406076669693, -0.0795193463563919, -0.012907484546303749, 0.060868341475725174, 0.1928919106721878, -0.11385688185691833, 0.10686802119016647, 0.07362520694732666, 0.19191934168338776, -0.14048625528812408, 0.06929342448711395, 0.004227877594530582, 0.09924730658531189, 0.03536883369088173, -0.17942652106285095, 0.03973336145281792, -0.14170150458812714, 0.022040527313947678, -0.16247670352458954], [-0.028303533792495728, 0.056501902639865875, 0.029002714902162552, 0.06133851036429405, 0.0039647966623306274, -0.04015421122312546, 0.004491795785725117, -0.02760370634496212, -0.07472649216651917, -0.020764634013175964, -0.09863615036010742, 0.012376900762319565, -0.09868653863668442, -0.007958199828863144, -0.05300198122859001, 0.09584952890872955, 0.017259540036320686, -0.025240091606974602, 0.045023515820503235, 0.11653941124677658, 0.013256847858428955, 0.05904602259397507, -0.03450138494372368, -0.02896653674542904, 0.032306354492902756, -0.04308127611875534, 0.05665663629770279, -0.014446737244725227, 0.017784075811505318, 0.14137929677963257, 0.010755006223917007, -0.016763972118496895], [0.06713857501745224, -0.031077362596988678, 0.08208907395601273, 0.15157747268676758, 0.07450241595506668, 0.09131030738353729, -0.024088522419333458, 0.04359469935297966, 0.08276396989822388, -0.07734041661024094, -0.08879058808088303, 0.1791667640209198, -0.11262910813093185, -0.21605096757411957, 0.0668581947684288, 0.038778822869062424, -0.11131834983825684, 0.20522361993789673, 0.19113807380199432, -0.05659310519695282, 0.04090091586112976, 0.17765548825263977, 0.1459290087223053, 0.043675947934389114, 0.14227864146232605, -0.12015008926391602, 0.05881761759519577, -0.08267097920179367, 0.04876914247870445, 0.017823075875639915, 0.0015798149397596717, -0.06408099830150604], [-0.012742288410663605, -0.003175029531121254, -0.149319127202034, 0.08121071010828018, 0.06003432720899582, -0.17663918435573578, -0.1786450743675232, 0.01303749531507492, 0.06584423780441284, 0.016841039061546326, 0.0666397213935852, 0.03398536890745163, 0.14606386423110962, -0.04716605693101883, -0.1328250616788864, 0.035772837698459625, 0.0254055205732584, 0.0433480441570282, -0.10474688559770584, -0.0781307965517044, 0.1911037266254425, -0.03033340536057949, -0.1490391194820404, 0.11230730265378952, -0.09013262391090393, 0.16153712570667267, -0.040975674986839294, -0.12125782668590546, 0.05256389454007149, -0.125496044754982, 0.12283439189195633, 0.17736408114433289], [0.11540503054857254, 0.004366374108940363, 0.08909358084201813, -0.020443078130483627, -0.06707600504159927, -0.054945673793554306, 0.01804809272289276, -0.15068471431732178, -0.08736147731542587, -0.06835590302944183, -0.2149595320224762, -0.0008073421195149422, -0.0670461431145668, 0.002802859293296933, -0.054518137127161026, -0.11039548367261887, -0.05574031174182892, 0.03155723586678505, -0.11146952211856842, -0.022173436358571053, -0.12857943773269653, 0.13265590369701385, 0.10936298221349716, 0.0805698111653328, -0.035119760781526566, -0.014357956126332283, -0.010020305402576923, -0.08886722475290298, -0.06974215060472488, 0.07120324671268463, 0.055054087191820145, -0.14556817710399628], [-0.05148700624704361, -0.03197614476084709, -0.12474687397480011, -0.003610440297052264, 0.06628788262605667, 0.17140145599842072, -0.008497909642755985, -0.08758249878883362, 0.0711473748087883, -0.08068598806858063, 0.0527176596224308, 0.13799388706684113, 0.06844975054264069, -0.13992778956890106, 0.0528528168797493, -0.15291452407836914, 0.1032533049583435, -0.10702307522296906, 0.14134962856769562, -0.1399388611316681, -0.08013467490673065, -0.14403066039085388, 0.09734759479761124, 0.0063245357014238834, 0.12461739033460617, -0.11865762621164322, 0.0978650450706482, 0.14986443519592285, -0.17432861030101776, 0.14390170574188232, -0.02471117302775383, 0.009364563040435314], [0.017030833289027214, -0.10454659909009933, -0.043199144303798676, -0.042236920446157455, 0.07751521468162537, -0.09717395901679993, 0.01752302795648575, -0.02403496764600277, -0.024381574243307114, 0.05108414217829704, 0.004060024861246347, 0.12557783722877502, -0.14289532601833344, -0.11136437207460403, 0.01893365941941738, -0.1397303193807602, 0.14060214161872864, 0.13534781336784363, 0.14596515893936157, -0.14575687050819397, 0.12050357460975647, 0.0562293715775013, -0.15072153508663177, 0.11865441501140594, 0.1249924749135971, -0.04638935998082161, 0.09294909983873367, 0.048426926136016846, -0.1566055715084076, 0.1469002664089203, 0.1359872817993164, -0.029823290184140205], [-0.006589044816792011, 0.049428824335336685, -0.20134305953979492, -0.06950710713863373, 0.03360392153263092, 0.058557406067848206, -0.01902252994477749, 0.19237802922725677, 0.0388118214905262, 0.18903666734695435, 0.03785885125398636, 0.16492947936058044, 0.05327187106013298, 0.07947158068418503, -0.01177747081965208, 0.13021966814994812, -0.0035563509445637465, -0.16044624149799347, 0.03278737887740135, -0.011698278598487377, 0.028185497969388962, 0.03580760210752487, 0.157433420419693, -0.12481722980737686, -0.0025597470812499523, 0.03107721358537674, 0.15336591005325317, 0.04697471857070923, 0.03683074936270714, -0.09487682580947876, 0.010906282812356949, -0.08384881913661957], [0.17401069402694702, -0.10588443279266357, 0.04032851755619049, 0.030312752351164818, -0.003960427828133106, -0.1395866870880127, 0.046541813760995865, -0.08676119893789291, -0.018234983086586, -0.09604945778846741, -0.04651717096567154, 0.0912996232509613, -0.11192315816879272, 0.16415823996067047, -0.0001018778420984745, 0.016409602016210556, -0.12051023542881012, -0.1560039222240448, -0.13160422444343567, -0.12080582976341248, 0.16891831159591675, -0.09180083870887756, 0.10208407044410706, -0.10861730575561523, -0.05806359276175499, 0.05284027010202408, -0.12309678643941879, -0.09534206986427307, 0.10518937557935715, -0.04985097423195839, 0.008786339312791824, -0.03650124743580818], [-0.16155317425727844, -0.11987008899450302, 0.06971762329339981, -0.13594695925712585, 0.1281544417142868, -0.1491270214319229, -0.1131625846028328, -0.015521591529250145, -0.05537557974457741, -0.1092124804854393, 0.01610460691154003, 0.04850294813513756, -0.1602327972650528, 0.027139047160744667, -0.016035333275794983, -0.19211135804653168, -0.12524114549160004, 0.16936038434505463, -0.01943959668278694, 0.14450806379318237, -0.11209655553102493, -0.0802316889166832, -0.10932570695877075, 0.12157054990530014, -0.07832904160022736, -0.16897539794445038, 0.12435547262430191, -0.03741679713129997, -0.020326843485236168, -0.04939945414662361, -0.09816386550664902, 0.048597633838653564], [-0.03886803984642029, -0.1799546182155609, 0.05101502314209938, 0.17445717751979828, 0.1052277460694313, -0.19103743135929108, 0.10945453494787216, -0.15899258852005005, 0.037413593381643295, -0.19647172093391418, -0.045180585235357285, -0.06719981133937836, 0.040257856249809265, -0.03711211681365967, 0.03960832953453064, -0.11150291562080383, 0.055848609656095505, -0.04799295961856842, -0.06963980197906494, -0.030752547085285187, -0.05796350538730621, -0.03479807823896408, -0.09584169834852219, -0.12225332856178284, -0.030387962237000465, -0.09487519413232803, 0.0017161553259938955, 0.08139559626579285, 0.13556025922298431, -0.011951657012104988, -0.019802136346697807, 0.02071593888103962], [-0.006031055003404617, -0.05791034922003746, 0.0068590715527534485, -0.054368775337934494, 0.1391463279724121, -0.030635276809334755, 0.013213333673775196, -0.03067070059478283, 0.20458893477916718, -0.029610205441713333, 0.15583714842796326, -0.05117681249976158, -0.012867615558207035, -0.13179469108581543, -0.19415034353733063, 0.09594312310218811, 0.04977751523256302, -0.03647580370306969, 0.14744071662425995, 0.02299102023243904, 0.05101499333977699, -0.023935189470648766, -0.01963137648999691, -0.08312913030385971, 0.133010596036911, -0.11015646904706955, -0.06280466914176941, 0.20504704117774963, -0.15127378702163696, 0.020796988159418106, -0.003328870516270399, 0.11086564511060715], [-0.12059464305639267, -0.06281951814889908, -0.03223945572972298, -0.05673009902238846, -0.17157131433486938, -0.08242151141166687, 0.1532825082540512, -0.12659868597984314, -0.19847261905670166, -0.0210422333329916, 0.1386406123638153, 0.11032407730817795, 0.06047976389527321, -0.25256896018981934, -0.21645399928092957, -0.1833515614271164, -0.1469239592552185, -0.035918597131967545, -0.09363694489002228, -0.0055928644724190235, -0.09368560463190079, 0.1702817976474762, 0.04361267760396004, 0.0058227358385920525, 0.12811179459095, -0.04657670110464096, 0.0929500088095665, -0.04048413783311844, -0.1796540468931198, -0.14266951382160187, 0.04384150356054306, -0.17759069800376892], [0.05825222656130791, -0.12529850006103516, 0.10901292413473129, 0.1410451978445053, -0.12535125017166138, -0.1465664505958557, 0.050281822681427, 0.15182262659072876, 0.09831646829843521, 0.017367511987686157, -0.023382479324936867, -0.13922131061553955, -0.16901393234729767, -0.18391430377960205, -0.016558943316340446, -0.12949946522712708, -0.15221205353736877, -0.08001627027988434, 0.13129431009292603, 0.1103096455335617, -0.08679419755935669, -0.036705855280160904, 0.07779796421527863, 0.087587371468544, 0.16398198902606964, -0.14063964784145355, 0.1648094654083252, -0.12777909636497498, -0.12658420205116272, -0.07945293933153152, 0.14374031126499176, -0.08189937472343445], [0.11058981716632843, 0.08011848479509354, 0.010895769111812115, -0.04051286727190018, -0.049644116312265396, -0.18097898364067078, -0.0686011090874672, -0.05400657281279564, 0.0720587968826294, 0.05801977589726448, -0.09377111494541168, 0.12296184152364731, -0.1682414412498474, 0.03572867438197136, 0.012945296242833138, -0.015309282578527927, -0.126884326338768, -0.16950848698616028, -0.11169698089361191, 0.0023200043942779303, -0.019988277927041054, 0.15515848994255066, -0.05211253464221954, 0.14682628214359283, -0.021869810298085213, -0.0550256185233593, -0.15258057415485382, 0.1512421816587448, 0.03393092006444931, 0.11726865917444229, 0.13166019320487976, 0.04010030999779701], [0.0875437930226326, 0.09809456765651703, 0.002970776055008173, 0.1277955174446106, -0.020732980221509933, -0.08739948272705078, -0.10399738699197769, 0.13419219851493835, 0.011907102540135384, -0.036051537841558456, 0.11987055093050003, -0.06933995336294174, 0.02514389343559742, -0.0447247140109539, 0.10972372442483902, -0.1013883724808693, 0.049004118889570236, 0.1326160728931427, -0.02813054248690605, -0.045554231852293015, 0.030546952039003372, 0.07635979354381561, -0.12489403784275055, 0.1642826497554779, -0.1038200780749321, -0.14632855355739594, -0.14198873937129974, 0.00971951987594366, -0.06740080565214157, -0.11151459813117981, 0.128838449716568, 0.1832294762134552], [0.13527335226535797, 0.01665635220706463, 0.21941547095775604, 0.08241397142410278, 0.10213423520326614, -0.12176067382097244, -0.03158954903483391, -0.09980931878089905, -0.031283147633075714, -0.11457329988479614, 0.1231265738606453, -0.10913290083408356, -0.19275839626789093, 0.15749511122703552, -0.04669398069381714, 0.12072741240262985, 0.2182806432247162, 0.12650066614151, -0.11504533141851425, 0.004430805332958698, 0.09200338274240494, -0.12061604857444763, -0.1625010222196579, -0.18252019584178925, -0.08373776823282242, 0.056500665843486786, 0.11769497394561768, -0.10525733232498169, 0.22086909413337708, 0.049482863396406174, 0.18761470913887024, 0.1347884088754654], [0.18858152627944946, -0.05354370176792145, -0.030292030423879623, -0.02946392633020878, -0.07564699649810791, -0.05066714435815811, -0.18969212472438812, -0.13223715126514435, 0.07252117246389389, 0.03655213862657547, 0.16200551390647888, 0.11831952631473541, 0.13888674974441528, 0.2802436947822571, 0.003728574374690652, 0.14590637385845184, -0.13992144167423248, -0.12932568788528442, -0.10758020728826523, 0.15734714269638062, -0.054796043783426285, 0.12623369693756104, -0.11236065626144409, -0.07968642562627792, -0.15236441791057587, 0.05556931346654892, -0.060088399797677994, 0.17043831944465637, 0.00039496307726949453, 0.006621150299906731, 0.050049107521772385, 0.1575600951910019], [0.1373252272605896, 0.007966898381710052, -0.031123772263526917, -0.04202950373291969, 0.09803179651498795, 0.0566837452352047, -0.06789486110210419, 0.12800274789333344, 0.017111582681536674, 0.1377900391817093, -0.039321087300777435, -0.05982455611228943, 0.15611380338668823, 0.17590205371379852, 0.10497310012578964, 0.14194898307323456, -0.10935236513614655, -0.07155245542526245, 0.003878846764564514, 0.03545656055212021, -0.0035023451782763004, -0.1586727350950241, 0.11094678193330765, 0.039717987179756165, 0.08065731823444366, 0.15962207317352295, -0.09063196927309036, 0.17210569977760315, -0.09236666560173035, 0.1391841471195221, -0.06381053477525711, -0.08479370921850204], [0.13325235247612, -0.04125716909766197, 0.17373299598693848, -0.023234080523252487, -0.02340305969119072, -0.1294950693845749, -0.13679169118404388, 0.1697222739458084, -0.04715941101312637, 0.1740798056125641, 0.045549508184194565, 0.13171423971652985, 0.03982875496149063, -0.03935905173420906, 0.20199327170848846, 0.07432436943054199, 0.1600533276796341, 0.11910725384950638, -0.19012600183486938, 0.009471899829804897, 0.07047933340072632, -0.16149000823497772, -0.03239940479397774, 0.13289566338062286, 0.03012276068329811, -0.1796722561120987, -0.05109184980392456, 0.15473470091819763, 0.002295388374477625, -0.09316014498472214, 0.033520009368658066, 0.030157089233398438], [0.0400666706264019, -0.12182871997356415, 0.002180946758016944, 0.021966280415654182, -0.031860265880823135, -0.06094755977392197, -0.10804866999387741, 0.030035298317670822, -0.08157242089509964, -0.117533840239048, -0.08067955821752548, -0.021660789847373962, 0.14203858375549316, -0.25396662950515747, 0.07354800403118134, -0.12827183306217194, 0.14456705749034882, 0.20861473679542542, 0.14333318173885345, -0.05026489868760109, 0.023961849510669708, -0.03113364614546299, -0.014915967360138893, -0.10614345222711563, -0.034708019345998764, -0.10949941724538803, 0.07307006418704987, 0.035087984055280685, 0.12658703327178955, -0.08561146259307861, 0.01862076111137867, 0.009486624971032143], [0.1018185019493103, 0.12931109964847565, -0.11326614022254944, -0.020604882389307022, 0.051616210490465164, 5.0972914323210716e-05, -0.08260943740606308, -0.13366439938545227, 0.10216063261032104, 0.0708547905087471, 0.16987140476703644, -0.021391185000538826, -0.019663700833916664, 0.02206203155219555, 0.06123817339539528, -0.09444206207990646, 0.08729870617389679, 0.08854616433382034, 0.08106638491153717, 0.056533083319664, -0.12316875904798508, 0.15752747654914856, 0.01933663710951805, 0.013068098574876785, -0.06952322274446487, -0.026924945414066315, -0.056058600544929504, 0.16999100148677826, 0.1238984689116478, -0.03461954742670059, 0.12390311807394028, 0.12998004257678986], [0.1155499592423439, -0.16584736108779907, 0.05630410090088844, 0.15719486773014069, 0.06719022989273071, 0.16760317981243134, -0.16177314519882202, -0.024203293025493622, 0.07408052682876587, 0.0667802095413208, -0.12226938456296921, -0.044302962720394135, 0.14786913990974426, -0.13379396498203278, -0.06411566585302353, 0.115786612033844, 0.09817083179950714, -0.1333370804786682, 0.16060884296894073, -0.09446616470813751, 0.12953341007232666, 0.04360508918762207, 0.13582274317741394, 0.15842323005199432, -0.13592775166034698, 0.13371403515338898, -0.20477499067783356, -0.12507127225399017, -0.0800776258111, -0.12472198903560638, 0.066880963742733, 0.1372949481010437], [-0.04816398024559021, 0.04979230836033821, -0.0918668881058693, -0.19996407628059387, -0.12366826087236404, 0.12181306630373001, -0.08794207125902176, -0.14191091060638428, 0.079213947057724, -0.10539262741804123, 0.02325645089149475, 0.13280867040157318, -0.09735875576734543, 0.24784070253372192, 0.13116900622844696, 0.03518820181488991, 0.1311267465353012, 0.0342959426343441, -0.0007505353423766792, -0.067744679749012, 0.00096935557667166, -0.16714170575141907, -0.05797035992145538, 0.08454390615224838, -0.14842170476913452, -0.053605809807777405, 0.03252417966723442, 0.041252683848142624, 0.0814867615699768, -0.11611659824848175, 0.005864019971340895, 0.01858697645366192], [0.1789754182100296, 0.13608300685882568, -0.10745470225811005, 0.12503556907176971, 0.0021742945536971092, 0.15843942761421204, 0.1268574446439743, 0.14933079481124878, 0.03185093775391579, -0.055332250893116, 0.09616193175315857, 0.02458067052066326, -0.1675322949886322, 0.29861682653427124, 0.15872281789779663, -0.12481766194105148, 0.15562723577022552, -0.17387570440769196, 0.002553212456405163, 0.012785748578608036, 0.1477648764848709, -0.025501158088445663, 0.04764855280518532, 0.1140790581703186, -0.12278061360120773, 0.100196473300457, -0.19255897402763367, -0.029299195855855942, 0.21176721155643463, -0.16387081146240234, 0.10115707665681839, 0.2006095051765442], [-0.022957582026720047, 0.09845007956027985, -0.07180874049663544, -0.09063737839460373, 0.060738496482372284, -0.11477793008089066, -0.07654787600040436, -0.06677297502756119, 0.17131662368774414, -0.05278611555695534, 0.18590569496154785, 0.07462184876203537, 0.1886480301618576, -0.03647447004914284, -0.04857930913567543, 0.15307481586933136, -0.13755284249782562, -0.18583573400974274, 0.11136452108621597, -0.14736171066761017, 0.013772246427834034, -0.018701916560530663, -0.05565347149968147, 0.15588213503360748, -0.22331513464450836, 0.06789235770702362, 0.035998497158288956, 0.109410859644413, 0.17777544260025024, 0.062340181320905685, 0.14932863414287567, -0.05300115421414375], [-0.019555948674678802, 0.09766767174005508, 0.06868261843919754, -0.11144804954528809, -0.11796075105667114, 0.0593099445104599, -0.1200515404343605, 0.1540551483631134, -0.1583310067653656, -0.021144919097423553, -0.017955897375941277, 0.05083254724740982, 0.10428648442029953, -0.03349892795085907, -0.12081721425056458, 0.049567289650440216, -0.0006978693418204784, 0.02191806212067604, -0.1018620952963829, 0.12545263767242432, 0.1304997354745865, -0.08016474545001984, 0.16249988973140717, 0.008517773821949959, 0.1961624175310135, 0.024391978979110718, -0.12992607057094574, 0.0867416262626648, -0.16399706900119781, 0.12129340320825577, 0.06367523223161697, 0.042681075632572174], [-0.1432178020477295, 0.18087036907672882, -0.13985145092010498, 0.034976135939359665, 0.05440012365579605, -0.15290172398090363, -0.06975042074918747, -0.10869631916284561, -0.04510437697172165, 0.010088160634040833, 0.023793689906597137, -0.05693095549941063, -0.16688956320285797, 0.24065016210079193, -0.010945574380457401, 0.18732720613479614, -0.08189563453197479, -0.16743424534797668, 0.005001460202038288, -0.0005587988416664302, 0.15138696134090424, -0.14007535576820374, 0.01869840733706951, 0.18640775978565216, 0.003379169385880232, 0.0361848883330822, -0.13860315084457397, -0.13781027495861053, 0.03980488330125809, 0.019139694049954414, -0.006334099918603897, 0.0024479907006025314], [0.07521971315145493, -0.13058553636074066, -0.009255443699657917, 0.19722846150398254, -0.19669246673583984, 0.08592850714921951, -0.11854459345340729, 0.0974690243601799, 0.039144642651081085, -0.032297130674123764, -0.20863808691501617, 0.07697921246290207, 0.0577373281121254, -0.05945783108472824, -0.08738439530134201, -0.03803208842873573, 0.17779472470283508, -0.05427039414644241, 0.004479341208934784, -0.19259758293628693, 0.02357681468129158, 0.0709347054362297, -0.1630074679851532, 0.10928278416395187, 0.03362901136279106, -0.15720269083976746, -0.15184448659420013, 0.07590325176715851, 0.028043270111083984, 0.12359756976366043, -0.02742617391049862, -0.11313779652118683], [-0.13038945198059082, 0.0032953908666968346, 0.17811816930770874, 0.09146963059902191, 0.14943677186965942, -0.18628482520580292, -0.11293019354343414, 0.1461360603570938, 0.1628386527299881, -0.15694528818130493, 0.14572173357009888, -0.14549535512924194, -0.09860024601221085, -0.042893946170806885, -0.10402537882328033, -0.14482565224170685, -0.054310936480760574, -0.1155671775341034, -0.025336338207125664, -0.022784724831581116, -0.021966971457004547, 0.1397397667169571, 0.10124979168176651, 0.03919954225420952, -0.1777867078781128, -0.17521308362483978, -0.1303427666425705, -0.07505513727664948, 0.037563223391771317, 0.07995592802762985, 0.11067433655261993, 0.11803486943244934], [0.12501026690006256, -0.027035044506192207, -0.08529853075742722, -0.13225165009498596, 0.12226837128400803, 0.1602618545293808, 0.047097574919462204, -0.0525035597383976, -0.044421497732400894, -0.07153533399105072, -0.13994361460208893, 0.20891442894935608, -0.11469884216785431, -0.27169960737228394, -0.11301953345537186, -0.014792058616876602, -0.12976112961769104, 0.059255797415971756, 0.08539079129695892, 0.09685619175434113, 0.10358189791440964, -0.11526159197092056, 0.0991012454032898, -0.1174396201968193, 0.0498674139380455, 0.08491279184818268, 0.13985206186771393, 0.1042739748954773, 0.11776342988014221, 0.11231528222560883, -0.10341675579547882, -0.21512915194034576], [0.0577765628695488, -0.1660822182893753, 0.07880988717079163, -0.10644620656967163, -0.0903206542134285, -0.11392377316951752, -0.06351492553949356, -0.0731494203209877, -0.11827726662158966, -0.027428193017840385, -0.007014710456132889, -0.07218224555253983, -0.013308227993547916, -0.14671573042869568, -0.10286270081996918, -0.13969586789608002, 0.14168520271778107, -0.07594715058803558, 0.09355411678552628, 0.05795563384890556, -0.10381101071834564, -0.12818875908851624, 0.013512875884771347, 0.06469831615686417, 0.18799427151679993, -0.10234176367521286, -0.05544588714838028, -0.18958434462547302, -0.1928567737340927, 0.011081033386290073, 0.004727934021502733, -0.0208454392850399], [-0.02997322753071785, -0.0747949555516243, 0.10183084011077881, -0.1611156165599823, -0.018657300621271133, 0.0014459704980254173, 0.0727146789431572, 0.143577441573143, 0.1602364182472229, 0.18528102338314056, -0.15167376399040222, -0.2007661759853363, 0.0898447036743164, -0.03757175803184509, 0.12695252895355225, 0.08988488465547562, -0.06214601546525955, 0.03427111729979515, 0.007969089783728123, -0.08918029814958572, 0.10030875355005264, 0.0949825644493103, -0.1576353907585144, 0.1970730423927307, 0.03499668464064598, -0.03630335256457329, 0.028446819633245468, -0.09601869434118271, 0.20225894451141357, -0.03218143805861473, 0.11004906892776489, 0.15500587224960327], [-0.10182248800992966, 0.069252148270607, -0.0494273416697979, 0.16077278554439545, 0.20269180834293365, -0.15586717426776886, -0.02217639423906803, 0.19360487163066864, 0.1292039155960083, 0.05019960552453995, -0.11346597224473953, 0.018845655024051666, -0.009484115988016129, 0.030709678307175636, -0.1749631017446518, -0.161977156996727, -0.20390646159648895, -0.1480025351047516, 0.1146944984793663, -0.046096865087747574, -0.025326762348413467, 0.06486581265926361, 0.14029870927333832, -0.12475789338350296, -0.06864996254444122, 0.08229194581508636, 0.007719161920249462, -0.05187932401895523, 0.0767180472612381, 0.03613702952861786, 0.028976866975426674, 0.07524365931749344], [0.0600847490131855, -0.03154049068689346, -0.16212250292301178, -0.014121958054602146, 0.039578016847372055, 0.020394159480929375, -0.05792746692895889, 0.0014419943327084184, 0.01284829992800951, -0.09798893332481384, 0.18826444447040558, -0.012168767862021923, 0.02782348170876503, 0.12483582645654678, 0.03773316368460655, -0.11155673861503601, 0.15130849182605743, 0.12357470393180847, 0.03538048267364502, 0.17882977426052094, 0.041871342808008194, 0.07007123529911041, 0.08870693296194077, 0.13061489164829254, -0.10202024132013321, -0.06331390887498856, 0.09327179938554764, 0.2005457878112793, -0.05681823194026947, -0.07396216690540314, -0.11250133812427521, 0.2245454490184784], [0.1373005360364914, 0.09099350869655609, 0.10430987179279327, -0.06965561211109161, 0.046972885727882385, -0.15288858115673065, 0.11044372618198395, 0.09367462247610092, 0.08635535836219788, -0.13803315162658691, 0.13872931897640228, 0.024951186031103134, -0.0893632024526596, -0.12074510753154755, 0.031060023233294487, 0.1346341073513031, -0.010654381476342678, 0.07468865811824799, -0.02569887973368168, -0.18545451760292053, 0.040272463113069534, 0.17839670181274414, 0.12855660915374756, -0.13877646625041962, 0.14331570267677307, -0.08713337033987045, -0.08926361799240112, 0.06638234108686447, -0.06363719701766968, -0.10734733939170837, 0.1101822704076767, 0.0881313607096672], [0.16862353682518005, -0.06735167652368546, -0.12611925601959229, 0.0880153626203537, -0.14219175279140472, -0.09110529720783234, 0.012269916944205761, 0.11453638970851898, 0.0020351572893559933, -0.16361242532730103, 0.08173414319753647, 0.13708782196044922, 0.04364267736673355, 0.07008229941129684, 0.17853446304798126, -0.01396921556442976, 0.1727467030286789, -0.056418802589178085, 0.09713928401470184, -0.07664042711257935, -0.043885160237550735, -0.024322932586073875, -0.18652229011058807, -0.05939079448580742, -0.17887422442436218, -0.1425192952156067, 0.00912877731025219, -0.06527404487133026, -0.08437386900186539, 0.050874095410108566, -0.18463286757469177, 0.1875554919242859], [0.165211483836174, -0.01836242899298668, -0.1495351940393448, 0.17849336564540863, -0.18086789548397064, -0.08302880823612213, 0.10180096328258514, 0.049613796174526215, 0.05962824821472168, 0.013696775771677494, 0.015895426273345947, 0.021580297499895096, -0.045248717069625854, 0.015581379644572735, 0.09214604645967484, 0.017850957810878754, -0.032522052526474, 0.20030264556407928, 0.1288536787033081, -0.03856512904167175, -0.12362515926361084, 0.06970499455928802, -0.12488336116075516, -0.06615058332681656, 0.0015343992272391915, -0.12473542988300323, 0.08408916741609573, -0.10215897858142853, -0.15563388168811798, 0.1289394646883011, 0.20426681637763977, -0.034653231501579285], [-0.08160123974084854, 0.0029331764671951532, -0.12373795360326767, -0.09689509123563766, -0.0256035216152668, 0.1453646570444107, -0.09575936943292618, 0.004901488311588764, 0.07530734688043594, 0.12232611328363419, -0.025155186653137207, 0.017686866223812103, -0.17792454361915588, 0.036576222628355026, -0.14682002365589142, -0.05744005739688873, -0.10342394560575485, 0.06356018781661987, -0.1817391961812973, 0.1310141533613205, 0.06671159714460373, -0.14433565735816956, 0.08235268294811249, -0.16363941133022308, -0.05055181682109833, -0.1402473896741867, 0.08175278455018997, -0.01509574893862009, -0.04306626692414284, -0.12360722571611404, -0.19392164051532745, 0.02304762415587902], [-0.08481240272521973, -0.029543770477175713, 0.14542940258979797, -0.036331143230199814, 0.06662102043628693, 0.06255292147397995, 0.15281230211257935, -0.13151654601097107, 0.06527110934257507, 0.12586329877376556, 0.010968136601150036, -0.030574573203921318, 0.16539119184017181, 0.1964777112007141, -0.07641526311635971, -0.1081661507487297, 0.10219737142324448, -0.06628433614969254, 0.12259262055158615, 0.11382855474948883, 0.15230898559093475, 0.029045691713690758, 0.006049648858606815, 0.10155922919511795, -0.12493118643760681, 0.1616331785917282, 0.08740174770355225, -0.09719360619783401, 0.046990152448415756, 0.1361253261566162, 0.09663356095552444, -0.008192986249923706], [-0.06037556752562523, -0.19832538068294525, 0.20401017367839813, 0.1263895332813263, -0.16678723692893982, 0.09513247013092041, -0.17322544753551483, 0.032613273710012436, 0.0188736692070961, 0.10634729266166687, -0.14918005466461182, 0.022831831127405167, -0.17065592110157013, 0.22446535527706146, 0.0622078962624073, -0.039010584354400635, 0.05617096275091171, 0.09885601699352264, 0.03558608144521713, 0.020858315750956535, -0.07083723694086075, -0.15504765510559082, -0.04522281512618065, -0.02617720700800419, -0.11290010809898376, -0.07936427742242813, -0.013110517524182796, -0.03291274979710579, 0.0002672281116247177, -0.1621675193309784, -0.04103078693151474, 0.00020775734446942806], [-0.08512239903211594, 0.1597668081521988, -0.042860936373472214, 0.0292145237326622, -0.0659240335226059, 0.1489035189151764, -0.005115460604429245, 0.09629746526479721, -0.04696227237582207, 0.09662400186061859, -0.045170653611421585, -0.1286858469247818, 0.13861164450645447, -0.20965056121349335, -0.20687313377857208, -0.11470537632703781, -0.10743693262338638, -0.09064820408821106, 0.16579551994800568, -0.053156040608882904, 0.14459989964962006, 0.12949584424495697, 0.02730836160480976, -0.060660671442747116, 0.060951296240091324, 0.13038687407970428, 0.14345766603946686, -0.07815346121788025, 0.07162894308567047, 0.005211612209677696, 0.1550346165895462, -0.1858721822500229], [0.10678338259458542, 0.07119599729776382, 0.028002392500638962, -0.07257170975208282, -0.030892537906765938, -0.020741384476423264, 0.013710889965295792, 0.1209925189614296, 0.02031680941581726, 0.03578075021505356, -0.006582827772945166, 0.14034926891326904, -0.08903780579566956, -0.062496624886989594, 0.02008732594549656, -0.059223473072052, 0.09168856590986252, -0.0753214955329895, -0.031181350350379944, -0.005617332179099321, -0.017466925084590912, 0.10763417184352875, -0.0663440153002739, 0.05606330558657646, 0.04589112102985382, -0.04546389728784561, 0.10485249012708664, -0.018371379002928734, -0.043481502681970596, 0.13682705163955688, -0.05090866982936859, -0.0059582265093922615], [-0.03973383083939552, 0.10913083702325821, 0.022456536069512367, -0.12141191214323044, -0.021546896547079086, -0.03877245634794235, 0.054431188851594925, -0.0428326278924942, 0.11321339756250381, -0.0807691365480423, 0.14755702018737793, -0.018256328999996185, -0.09821081161499023, -0.014004646800458431, -0.06329769641160965, 0.09884001314640045, -0.15370847284793854, -0.027363713830709457, 0.02974124811589718, 0.14747074246406555, -0.02047545835375786, -0.1413392275571823, -0.055102549493312836, 0.07471293956041336, 0.027857167646288872, 0.1648462861776352, -0.04359745606780052, 0.1280728131532669, -0.048343490809202194, 0.1537269949913025, -0.06888198107481003, -0.08759745210409164], [0.007141738664358854, -0.15562276542186737, -0.10540587455034256, -0.06244810298085213, -0.02208055555820465, -0.15410935878753662, 0.14520475268363953, 0.07586709409952164, -0.16627532243728638, -0.1444096863269806, -0.10226859152317047, 0.010127311572432518, 0.07762649655342102, 0.015549233183264732, -0.1477251797914505, -0.16008983552455902, -0.01893801987171173, 0.04243439808487892, -0.087787926197052, 0.13051806390285492, 0.007030789740383625, 0.015217829495668411, 0.11733613163232803, -0.19514982402324677, -0.04315973073244095, -0.0185711607336998, -0.09066899120807648, -0.00286982418037951, 0.11501733213663101, 0.1230863705277443, -0.05743268132209778, -0.02370651252567768], [0.02526252344250679, 0.11040455102920532, -0.15791280567646027, -0.05957060679793358, -0.06977947801351547, 0.08246565610170364, 0.043352071195840836, 0.09962259232997894, 0.13923658430576324, 0.16263073682785034, -0.07858411222696304, -0.1230141893029213, 0.13535386323928833, -0.07686755806207657, 0.005893833935260773, 0.1509249061346054, 0.10110177844762802, 0.09777230769395828, 0.13158808648586273, 0.06552626192569733, -0.017434939742088318, 0.0021535796113312244, -0.00782515574246645, -0.12279319763183594, -0.15334686636924744, 0.015835685655474663, 0.18182073533535004, -0.04561422020196915, -0.027755219489336014, -0.1566239893436432, -0.0830647274851799, 0.1193469762802124], [-0.01219151634722948, 0.048576634377241135, -0.03510987013578415, 0.18572017550468445, 0.02155822329223156, -0.13782018423080444, -0.06896916776895523, 0.04056786373257637, 0.035631563514471054, -0.1498607099056244, 0.13959042727947235, 0.11589115858078003, 0.15133146941661835, -0.15742675960063934, -0.0020435298793017864, -0.1529683619737625, 0.09616298228502274, 0.07864560931921005, 0.07295012474060059, -0.02872040867805481, 0.1043359562754631, -0.03425079956650734, 0.005862903315573931, -0.0291469506919384, 0.1259651780128479, 0.06428968906402588, 0.15821367502212524, 0.14832179248332977, 0.05917888134717941, 0.11880772560834885, -0.03796445205807686, -0.11277251690626144], [-0.1546434909105301, -0.0010382967302575707, -0.015936069190502167, 0.12311071157455444, -0.0631612241268158, -0.11765281856060028, -0.1106189414858818, 0.03383495286107063, 0.13683044910430908, -0.12814775109291077, 0.11145440489053726, 0.11844033002853394, -0.1024111658334732, -0.1692541241645813, -0.0833936557173729, -0.08413297683000565, -0.07299995422363281, 0.06933927536010742, -0.09441830962896347, 0.07314828038215637, -0.11011364310979843, 0.16351255774497986, 0.11178965866565704, 0.11026515811681747, -0.003331549698486924, 0.10474059730768204, -0.008611198514699936, -0.06208784505724907, -0.12851783633232117, -0.030577881261706352, 0.09529554843902588, 0.05372922867536545], [-0.029440054669976234, 0.05731156840920448, -0.17299680411815643, 0.024159109219908714, -0.09101615846157074, 0.017749780789017677, 0.01171604823321104, -0.0015276992926374078, 0.03595089539885521, 0.01176629401743412, 0.044410839676856995, -0.0792883113026619, 0.09230853617191315, 0.007654848508536816, 0.005982992239296436, 0.11466938257217407, -0.06696587055921555, -0.043457891792058945, -0.001204105792567134, 0.03468618541955948, -0.011030173860490322, -0.1444280594587326, 0.1766459345817566, 0.12289336323738098, 0.01290718000382185, 0.09460978209972382, -0.024506252259016037, -0.08216183632612228, 0.029703227803111076, 0.08651486039161682, -0.029402006417512894, -0.044003814458847046], [0.12603063881397247, 0.15838980674743652, -0.12512783706188202, 0.08454789221286774, -0.01932312175631523, 0.12418344616889954, -0.14047467708587646, -0.1222149133682251, -0.1304171085357666, -0.02043163776397705, 0.055311381816864014, 0.17620113492012024, -0.009615912102162838, -0.2666380703449249, -0.02482682093977928, -0.12395332753658295, -0.11209947615861893, -0.07084181904792786, 0.018716037273406982, 0.1495439112186432, 0.018711645156145096, -0.024484070017933846, -0.06581985205411911, 0.03044808655977249, 0.20324623584747314, 0.12594422698020935, -0.05971016362309456, -0.22882932424545288, 0.16091038286685944, 0.1052490845322609, 0.16655728220939636, 0.027993327006697655], [0.09342163056135178, -0.1532576084136963, -0.0851539671421051, 0.1466258019208908, -0.052278999239206314, 0.06048106774687767, 0.008886457420885563, -0.1019139364361763, -0.07295875996351242, -0.0011351770954206586, 0.1556033194065094, 0.0791388675570488, 0.0687909722328186, 0.004616853781044483, -0.09140173345804214, -0.13673296570777893, -0.15230144560337067, 0.17228099703788757, 0.04609029367566109, -0.0060462020337581635, -0.19622495770454407, 0.10593592375516891, 0.08507077395915985, 0.04262351989746094, -0.00016376812709495425, -0.10848961025476456, 0.11369812488555908, 0.03671112656593323, 0.09630156308412552, 0.03572678193449974, -0.04220036417245865, -0.1672450602054596], [-0.004427628591656685, -0.11711259931325912, -0.09633667021989822, 0.12145397812128067, 0.09113544225692749, -0.07235164195299149, -0.07747116684913635, -0.15022124350070953, -0.18827056884765625, -0.09903217852115631, -0.0374671034514904, 0.1739368587732315, -0.019603563472628593, -0.16450442373752594, -0.03307603299617767, 0.059200409799814224, 0.1284063756465912, -0.10786610096693039, -0.15186940133571625, 0.02355780079960823, -0.07535897940397263, 0.04327666759490967, -0.04289639741182327, -0.17705397307872772, -3.863475285470486e-05, -0.06249867007136345, 0.04770853742957115, 0.12752769887447357, 0.13371440768241882, 0.018254294991493225, 0.038380954414606094, -0.17819303274154663], [0.07435274124145508, 0.10410801321268082, -0.04461301490664482, 0.05547885596752167, 0.15697002410888672, -0.1396440863609314, -0.01194752100855112, 0.15294665098190308, -0.10862226039171219, 0.09156086295843124, 0.00964153092354536, -0.14694844186306, 0.029844097793102264, 0.1869446486234665, 0.10997329652309418, 0.04789256304502487, 0.07250332087278366, 0.0705447793006897, -0.07759375870227814, -0.11096953600645065, 0.10349378734827042, 0.017795473337173462, -0.128562331199646, 0.03314031660556793, 0.04681193083524704, -0.024550028145313263, -0.0007923422381281853, 0.10485179722309113, 0.1812555342912674, 0.13862799108028412, 0.0849645808339119, 0.2148827463388443], [-0.07968391478061676, 0.15771250426769257, 0.06370530277490616, 0.14774192869663239, -0.06210408732295036, 0.12596842646598816, -0.02942088060081005, -0.15550978481769562, 0.027916904538869858, -0.027799231931567192, 0.10608290880918503, -0.0027647779788821936, 0.01283834595233202, -0.16859634220600128, -0.11024495959281921, -0.12131283432245255, -0.179709792137146, 0.13298256695270538, -0.08252033591270447, 0.1566195785999298, -0.10045474022626877, -0.024652618914842606, 0.025756163522601128, -0.050660111010074615, 0.12636207044124603, -0.026603562757372856, -0.07722374051809311, -0.08252428472042084, 0.08315828442573547, -0.049070198088884354, -0.11549006402492523, -0.05261002480983734], [0.08313602954149246, -0.07903709262609482, -0.16787099838256836, 0.14722223579883575, 0.10463990271091461, 0.07594044506549835, -0.07921376079320908, -0.018556438386440277, -0.13430637121200562, 0.1889657974243164, 0.05109106004238129, 0.12488452345132828, 0.05941064655780792, 0.044120967388153076, -0.13652990758419037, -0.1284109205007553, 0.11939027905464172, 0.07045052200555801, 0.15210780501365662, 0.13508976995944977, 0.05008510500192642, 0.009776473045349121, -0.02717795968055725, -0.097373828291893, 0.04903596267104149, 0.14977672696113586, 0.09883980453014374, 0.13267284631729126, -0.07973980158567429, -0.014601415023207664, -0.05752207711338997, 0.01902778632938862], [0.1045437604188919, 0.027986101806163788, -0.12392384558916092, 0.06289626657962799, -0.05554478242993355, -0.03552669286727905, -0.1285976618528366, 0.13517317175865173, -0.0733342170715332, -0.20419256389141083, -0.24793213605880737, -0.014937473461031914, -0.19904346764087677, -0.05535518378019333, -0.16578517854213715, -0.2176545113325119, -0.10500025749206543, 0.12774063646793365, -0.2007325440645218, -0.02341275103390217, -0.05476835370063782, -0.05556309595704079, 0.08128039538860321, -0.28294819593429565, 0.020506709814071655, -0.20280101895332336, 0.0011813035234808922, -0.13014517724514008, -0.011283054016530514, 0.06260436773300171, -0.23382136225700378, 0.05030043423175812], [0.11376780271530151, 0.15125659108161926, 0.09515496343374252, -0.0527731329202652, -0.05620560422539711, 0.014836899936199188, -0.0299298707395792, 0.1450597643852234, -0.1059504821896553, -0.07971898466348648, 0.031436409801244736, 0.18482686579227448, 0.03600287809967995, -0.04494228586554527, -0.2372199147939682, -0.19741320610046387, -0.17456799745559692, 0.0030195768922567368, 0.1638108491897583, -0.021360719576478004, -0.12839891016483307, 0.038702718913555145, -0.1463230848312378, -0.11807163804769516, 0.1971970945596695, -0.1887328326702118, -0.15457159280776978, -0.18156303465366364, 0.03461373224854469, -0.08674134314060211, -0.08807583153247833, 0.06400023400783539], [0.029884707182645798, 0.059332381933927536, -0.06227235123515129, 0.1253158003091812, -0.049697164446115494, 0.05997374653816223, -0.013933696784079075, 0.07456139475107193, 0.0006492796819657087, -0.12098070234060287, -0.12534230947494507, 0.16566874086856842, 0.15490049123764038, 0.07020297646522522, -0.13947905600070953, 0.08701847493648529, 0.0019014019053429365, -0.15564563870429993, 0.08858504146337509, 0.15539053082466125, 0.13083066046237946, 0.13877229392528534, 0.03003859892487526, 0.09069143980741501, -0.15726830065250397, 0.046331070363521576, -0.048090364784002304, -0.051855504512786865, -0.04307302460074425, 0.12446416914463043, -0.10185880213975906, 0.039145100861787796], [0.0812247171998024, 0.1488300859928131, -0.05127726495265961, 0.03217420354485512, 0.06906385719776154, -0.12365757673978806, -0.05838125944137573, 0.08986926078796387, 0.019689030945301056, -0.03060523420572281, -0.04722660407423973, -0.04521912336349487, -0.1287304013967514, 0.02731667086482048, -0.014786425977945328, 0.07923241704702377, 0.0232690516859293, -0.060294583439826965, 0.13554784655570984, 0.10112012177705765, 0.07301824539899826, -0.008965068496763706, -0.13255567848682404, -0.08113238215446472, 0.10864649713039398, 0.046722281724214554, -0.09782718122005463, -0.09426391869783401, -0.1480785608291626, 0.05959087982773781, 0.012342809699475765, 0.06828702986240387], [0.11501646786928177, 0.054274823516607285, 0.08268788456916809, -0.17323149740695953, -0.10960078239440918, 0.12556982040405273, 0.05448445677757263, 0.003677379572764039, -0.09188324958086014, 0.13565710186958313, -0.08082683384418488, 0.16931940615177155, 0.10028532892465591, -0.1098877564072609, -0.08686812967061996, 0.0035006096586585045, 0.041659288108348846, -0.0929836854338646, 0.04152386635541916, 0.1527245193719864, -0.003907154779881239, 0.05949278548359871, 0.0639684721827507, -0.015160427428781986, 0.023276930674910545, -0.12817440927028656, 0.18768106400966644, -0.13926425576210022, 0.08827105909585953, 0.14489594101905823, -0.10032140463590622, -0.18053750693798065], [-0.11920206248760223, 0.050983551889657974, 0.08372384309768677, 0.10518515855073929, 0.005408745724707842, -0.07517701387405396, 0.010992455296218395, -0.0387151874601841, -0.005574487615376711, 0.1510041356086731, -0.051068976521492004, 0.05046365410089493, -0.10324183851480484, -0.06076551601290703, -0.07274376600980759, -0.09750498831272125, -0.011127781122922897, 0.09385958313941956, -0.0731780081987381, 0.047779228538274765, 0.0016103207599371672, -0.09547878801822662, 0.1290917992591858, 0.020327873528003693, 0.001866048201918602, 0.12829795479774475, 0.1087406724691391, 0.03082575835287571, -0.013284694403409958, 0.1598644256591797, -0.02326272241771221, -0.02023754082620144], [0.048851657658815384, -0.016206275671720505, -0.0145293939858675, -0.008708401583135128, -0.020733075216412544, 0.03604394942522049, -0.0414101779460907, 0.009157838299870491, 0.08590152859687805, 0.13168449699878693, -0.04308076575398445, -0.06013442575931549, 0.015995966270565987, 0.021985601633787155, 0.03555970638990402, 0.008198588155210018, 0.0024173858109861612, -0.03812527656555176, -0.01509816013276577, 0.010567190125584602, 0.02395072765648365, -0.062177252024412155, 0.10601169615983963, 0.028241997584700584, -0.013847682625055313, 0.1309255212545395, -0.01386090274900198, 0.06986553221940994, -0.032466087490320206, 0.03851257264614105, 0.01718066819012165, -0.001260465243831277], [0.03613114356994629, 0.07134260982275009, 0.10502421110868454, 0.10292357206344604, -0.17076025903224945, -0.049343742430210114, -0.15121892094612122, -0.08209278434515, 0.08643779158592224, 0.005192434415221214, -0.16614004969596863, -0.02037055790424347, -0.09770885109901428, -0.17768250405788422, -0.24445180594921112, -0.15311527252197266, -0.07754479348659515, 0.03791828081011772, 0.13258735835552216, 0.15738074481487274, 0.05170274153351784, 0.026404596865177155, 0.08834918588399887, -0.10765770077705383, -0.020494677126407623, 0.09342742711305618, 0.005877761170268059, 0.12485340982675552, -0.03507676720619202, -0.07765145599842072, 0.10291630774736404, -0.10358936339616776], [0.14830254018306732, 0.12898516654968262, 0.12398763746023178, -0.09609074145555496, -0.09673324227333069, -0.09026043862104416, -0.16341103613376617, -0.07801232486963272, -0.015690205618739128, -0.11905618011951447, -0.08155693858861923, -0.042507532984018326, -0.10012004524469376, 0.058103978633880615, 0.02501356415450573, -0.1199052482843399, 0.16536308825016022, -0.13335373997688293, -0.05317427217960358, 0.031585946679115295, 0.08662549406290054, -0.15177221596240997, -0.01944069191813469, -0.030502095818519592, -0.008492035791277885, 0.07306885719299316, -0.12125793844461441, 0.1721794605255127, -0.03149210289120674, 0.10198762267827988, -0.17071852087974548, -0.09304980933666229], [0.11054665595293045, 0.07687491178512573, -0.12280526757240295, 0.014927167445421219, 0.08288411051034927, -0.14146791398525238, -0.09841374307870865, -0.09276440739631653, 0.019459154456853867, 0.07203233242034912, -0.16922707855701447, 0.2113581746816635, -0.09333446621894836, 0.024811146780848503, -0.23812037706375122, 0.031114747747778893, 0.060431107878685, 0.22114436328411102, 0.1375458687543869, 0.09951546043157578, -0.11034282296895981, 0.042744655162096024, -0.024759629741311073, -0.09113351255655289, -0.01949051395058632, -0.0019308621995151043, -0.09705989062786102, 0.07098659127950668, -0.02699255757033825, 0.06737112253904343, -0.0419280119240284, -0.12831521034240723], [0.10588768124580383, 0.06700682640075684, 0.00042322278022766113, 0.01325270812958479, -0.02752593532204628, 0.023589015007019043, -0.03462914377450943, 0.0423140674829483, 0.05178800970315933, 0.14588694274425507, -0.11206425726413727, 0.0816788598895073, -0.10525710880756378, 0.00602315180003643, -0.05342999845743179, -0.06474557518959045, -0.0803167074918747, 0.06571370363235474, 0.08061832189559937, 0.11331509798765182, 0.0026305695064365864, -0.09285860508680344, 0.004723933059722185, -0.02003810927271843, 0.016281958669424057, -0.07966116815805435, 0.0012300647795200348, -0.030568134039640427, 0.008404772728681564, -0.05300932377576828, -0.044787101447582245, 0.0063101015985012054], [-0.1613127887248993, -0.05063780024647713, -0.10530000925064087, 0.03034844808280468, -0.07418312877416611, -0.0558135025203228, 0.07069864869117737, -0.11196009814739227, 0.027765478938817978, -0.05230388045310974, 0.15561357140541077, -0.028034862130880356, 0.028507612645626068, -0.20402519404888153, -0.11923059076070786, 0.0657254233956337, -0.08072232455015182, -0.0202866792678833, 0.02042972296476364, -0.07850781083106995, -0.07639271765947342, -0.1302521973848343, 0.007459149695932865, -0.07598962634801865, 0.1128983199596405, 0.005856618285179138, 0.01722223497927189, -0.08779865503311157, -0.19754765927791595, -0.07421975582838058, 0.18305784463882446, 0.07246298342943192], [-0.025903766974806786, 0.11058225482702255, 0.06962429732084274, -0.08392129093408585, 0.16802364587783813, -0.015990430489182472, -0.05231620743870735, 0.08858682960271835, 0.12922805547714233, -0.10450167953968048, 0.039728254079818726, 0.12504518032073975, -0.1351809799671173, 0.07219652831554413, -0.09365833550691605, 0.016115019097924232, -0.17646756768226624, -0.1789667308330536, 0.13184380531311035, 0.01949244923889637, -0.038692325353622437, 0.16370238363742828, -0.14809200167655945, 0.10660828649997711, -0.21132704615592957, -0.09522509574890137, 0.056041277945041656, -0.04622281342744827, 0.15585912764072418, 0.12016300857067108, -0.05515269190073013, 0.17994515597820282], [-0.11841430515050888, -0.07441575080156326, 0.15052668750286102, -0.038129281252622604, 0.015992360189557076, -0.03730194643139839, -0.16816604137420654, -0.06963448971509933, -0.12766802310943604, -0.18766054511070251, -0.13907833397388458, -0.022435950115323067, -0.18116235733032227, -0.12714996933937073, -0.05231256037950516, 0.022073496133089066, 0.0011882508406415582, -0.03473440557718277, 0.005129548255354166, 0.15345580875873566, -0.0015584187349304557, 0.1900613009929657, 0.13369472324848175, -0.034276507794857025, -0.006421683821827173, -0.1653725951910019, -0.03104650229215622, -0.047320034354925156, 0.14531712234020233, 0.05668561905622482, 0.022307371720671654, -0.1341492086648941], [-0.05153116211295128, -0.1175084188580513, -0.1106143593788147, -0.07394548505544662, 0.0525551363825798, -0.05610082671046257, -0.0972263440489769, 0.08529704064130783, 0.06691782921552658, -0.12917634844779968, -0.1473744660615921, 0.14061339199543, -0.008168867789208889, -0.11752995103597641, -0.009275843389332294, -0.09408892691135406, -0.0013754854444414377, 0.13774904608726501, 0.039281297475099564, -0.11699651181697845, 0.04685968905687332, 0.07439031451940536, 0.1941022276878357, 0.13164231181144714, -0.0005867393338121474, 0.1931498497724533, -0.009598083794116974, 0.056136731058359146, 0.08100441098213196, -0.13287144899368286, -0.07932305335998535, -0.1711639016866684], [-0.02375892922282219, -0.05453886464238167, 0.09410180151462555, -0.04022109508514404, 0.027251310646533966, -0.027522537857294083, -0.05210951715707779, -0.016332335770130157, 0.1222623810172081, 0.15105581283569336, 0.1591372787952423, 0.057555895298719406, -0.06271713972091675, -0.05959634110331535, -0.14920483529567719, 0.05907970666885376, 0.11474930495023727, 0.0973106399178505, 0.0011487524025142193, -0.1402430236339569, -0.02359900251030922, 0.145512193441391, 0.10450438410043716, -0.13072697818279266, 0.15187379717826843, 0.165946364402771, -0.13164359331130981, -0.0037025664933025837, -0.17182070016860962, -0.13415704667568207, 0.028849884867668152, -0.09266473352909088], [-0.08468350023031235, -0.025447452440857887, -0.1878174990415573, -0.1032504066824913, -0.07829605787992477, 0.07504086941480637, 0.029372604563832283, 0.05944552645087242, 0.0636739730834961, 0.055600330233573914, 0.186524897813797, -0.10877088457345963, 0.02042010985314846, -0.011719416826963425, -0.19789060950279236, -0.0794079452753067, 0.00970307644456625, 0.07347266376018524, 0.15612182021141052, 0.04550386592745781, -0.002690942259505391, -0.1734786182641983, 0.1247083768248558, 0.1414150595664978, 0.00033227819949388504, 0.08437451720237732, 0.012001088820397854, -0.11009734123945236, 0.01723405346274376, -0.07569369673728943, 0.1120736300945282, 0.081882044672966], [0.16841663420200348, -0.019524049013853073, -0.13627322018146515, -0.051773328334093094, -0.07723028212785721, 0.11195151507854462, -0.1396782398223877, -0.09191841632127762, 0.04421275109052658, 0.11060267686843872, 0.06764280050992966, -0.05589519068598747, -0.025061335414648056, 0.16333724558353424, -0.07217826694250107, -0.11947944015264511, 0.12158134579658508, 0.10067427903413773, -0.12679845094680786, -0.07085788995027542, -0.03676856309175491, -0.08766346424818039, -0.14610645174980164, 0.16329622268676758, -0.011780137196183205, 0.0032600013073533773, 0.10944132506847382, -0.07119093835353851, -0.009888208471238613, -0.13089102506637573, 0.0026592323556542397, 0.04548647999763489]], "lstm.bias_ih_l0": [0.05111274495720863, -0.09278615564107895, -0.19772067666053772, -0.10227366536855698, 0.008073294535279274, -0.11215751618146896, -0.042252667248249054, 0.07442859560251236, 0.1524430811405182, -0.07631920278072357, -0.039601363241672516, -0.05116506293416023, -0.014782004989683628, 0.08229810744524002, 0.15901866555213928, 0.150102898478508, 0.051298972219228745, -0.01977943256497383, 0.01773286983370781, -0.19309136271476746, -0.00937574077397585, 0.08027521520853043, -0.1517462432384491, 0.19486528635025024, -0.21122010052204132, 0.13060978055000305, 0.04560033604502678, -0.07876922190189362, 0.06222987547516823, -0.14035531878471375, 0.13128426671028137, -0.0068665980361402035, 0.11926278471946716, -0.11879128962755203, -0.0825800970196724, 0.18616953492164612, 0.12358970940113068, 0.13930217921733856, -0.18870867788791656, -0.08398978412151337, -0.12301865965127945, 0.060835495591163635, -0.07319334894418716, -0.07677607983350754, -0.13099722564220428, 0.12689101696014404, 0.08277538418769836, 0.05542972311377525, 0.026795001700520515, -0.06642156839370728, 0.10511064529418945, -0.06469937413930893, -0.13882394134998322, -0.04621412232518196, 0.03796791285276413, -0.0071853450499475, -0.09757011383771896, 0.08291787654161453, -0.11651420593261719, -0.0879676416516304, -0.15593253076076508, 0.02167295478284359, 0.021259576082229614, 0.059092480689287186, 0.053124986588954926, -0.11485922336578369, -0.08395305275917053, 0.16478098928928375, -0.0041899713687598705, -0.01664147339761257, -0.0074217235669493675, 0.07600782811641693, -0.09999290108680725, -0.11056982725858688, -0.11273816227912903, -0.04502774402499199, -0.08010489493608475, 0.07350237667560577, -0.06909987330436707, -0.017071448266506195, 0.11060544848442078, -0.031173724681138992, 0.06132466346025467, -0.04295005276799202, -0.12460887432098389, 0.11273922771215439, -0.15335562825202942, -0.1717609167098999, -0.11915159225463867, -0.1681523472070694, -0.10357392579317093, -0.11008250713348389, -0.1609572172164917, 0.00012983600026927888, -0.005265350919216871, -0.020123537629842758, 0.06513575464487076, 0.12142754346132278, 0.015063169412314892, 0.1439685821533203, -0.10122738778591156, -0.03879312053322792, -0.1288791298866272, 0.025946274399757385, 0.1139703318476677, -0.06431577354669571, -0.012608298100531101, -0.04984254390001297, -6.54670293442905e-05, 0.01649228297173977, -0.06419774144887924, 0.0727047547698021, -0.10505372285842896, -0.0007233483484014869, 0.1495772898197174, 0.0889817625284195, -0.08861453086137772, 0.03444385156035423, 0.10328193008899689, 0.11990070343017578, -0.10723651945590973, 0.03957521915435791, -0.054417625069618225, 0.12426777184009552, 0.09049202501773834, -0.10746254771947861, -0.18062008917331696, -0.01598471589386463], "lstm.bias_hh_l0": [0.05888663977384567, -0.015193674713373184, 0.06612739711999893, 0.01575148105621338, 0.07781709730625153, 0.1455657035112381, 0.0028810263611376286, 0.09603946655988693, 0.12170420587062836, -0.11992429196834564, 0.08194682747125626, 0.079842209815979, -0.10899604111909866, -0.1954888552427292, 0.0900145173072815, 0.10948146879673004, -0.00012636257451958954, -0.09748653322458267, 0.09030209481716156, -0.025648601353168488, 0.05922086164355278, -0.16928255558013916, 0.14617152512073517, -0.005527761299163103, 0.13110512495040894, 0.051114097237586975, -0.06800231337547302, 0.04980168491601944, -0.19940699636936188, -0.19084681570529938, -0.022862214595079422, 0.05349830910563469, -0.07889346033334732, -0.15201541781425476, 0.04819078743457794, 0.04620181769132614, 0.08153408020734787, -0.17761284112930298, 0.13277843594551086, -0.17378643155097961, 0.057253025472164154, 0.13005603849887848, 0.11299488693475723, -0.05887690559029579, -0.12369600683450699, -0.16777032613754272, -0.09332314878702164, 0.033444326370954514, -0.07020805031061172, 0.11172418296337128, 0.12399931997060776, -0.03003266640007496, 0.0026446902193129063, -0.14950573444366455, 0.08646877110004425, 0.08039001375436783, -0.0047850701957941055, -0.13908147811889648, -0.07400505989789963, 0.09136109799146652, -0.1131083145737648, 0.11848727613687515, -0.010563050396740437, 0.1429091840982437, 0.17027081549167633, 0.04073691740632057, 0.09379022568464279, -0.06861138343811035, -0.1285405158996582, -0.06082475930452347, -0.1374283730983734, -0.07963120937347412, 0.0150013267993927, -0.17582407593727112, -0.09616715461015701, -0.10168809443712234, -0.028859779238700867, -0.02100689895451069, 0.0630984976887703, -0.15510031580924988, 0.14052623510360718, 0.0538746677339077, -0.0329526923596859, -0.07706344872713089, 0.1144992932677269, 0.08659031242132187, -0.059189487248659134, 0.03539467602968216, 0.11452104151248932, -0.15774211287498474, -0.12515543401241302, -0.10293572396039963, 0.17553630471229553, -0.08657069504261017, 0.08764227479696274, 0.058716028928756714, 0.11374042183160782, 0.06844489276409149, 0.11792679876089096, 0.18530647456645966, -0.20394347608089447, -0.18209832906723022, 0.009139851666986942, 0.025587216019630432, 0.03619050607085228, 0.16919639706611633, 0.03016980178654194, -0.016993045806884766, -0.09233784675598145, -0.14103581011295319, 0.21931548416614532, 0.1245136484503746, 0.04668440669775009, 0.07728668302297592, -0.037213366478681564, -0.03446013107895851, -0.005409966688603163, 0.08160177618265152, 0.03489144146442413, 0.18852072954177856, -0.08320123702287674, 0.17667599022388458, 0.007115968968719244, 0.02732715755701065, 0.08260414749383926, -0.16768629848957062, -0.03958533704280853, -0.011237876489758492], "dense.weight": [[-0.1740734726190567, -0.08525513112545013, 0.055005401372909546, -0.20126250386238098, -0.10941595584154129, 0.13617435097694397, 0.1262032389640808, -0.002999328076839447, 0.14964216947555542, 0.07392808049917221, 0.06438590586185455, -0.17748454213142395, 0.07701852172613144, -0.025836512446403503, 0.1633194386959076, 0.09541366994380951, 0.12967467308044434, -0.042128488421440125, 0.06518342345952988, -0.005109824705868959, 0.059037648141384125, -0.0730631873011589, -0.048982925713062286, 0.21013055741786957, 0.011122744530439377, 0.08785246312618256, -0.13028797507286072, 0.1390918791294098, -0.1461169272661209, -0.006896606180816889, 0.0712890625, 0.006717872805893421]], "dense.bias": [0.10702423751354218]}