{
    "in_shape": [
        null,
        null,
        1
    ],
    "layers": [
        {
            "type": "dense",
            "activation": "tanh",
            "shape": [
                null,
                null,
                8
            ],
            "weights": [
                [
                    [
                        0.0058295330964028835,
                        -1.644716501235962,
                        -0.9040751457214355,
                        0.7559338212013245,
                        -1.0875380039215088,
                        3.7314114570617676,
                        3.1796414852142334,
                        -1.3085381984710693
                    ]
                ],
                [
                    -0.0018228536937385798,
                    -0.008917867206037045,
                    0.00488611264154315,
                    0.002315318211913109,
                    -0.05390008166432381,
                    0.09669601172208786,
                    -0.1552322655916214,
                    0.035899568349123
                ]
            ]
        },
        {
            "type": "conv1d",
            "activation": "tanh",
            "shape": [
                null,
                null,
                4
            ],
            "kernel_size": [
                3
            ],
            "dilation": [
                2
            ],
            "weights": [
                [
                    [
                        [
                            -0.09001104533672333,
                            -0.127492755651474,
                            0.14523693919181824,
                            -0.12696701288223267
                        ],
                        [
                            -0.0635051354765892,
                            0.5444732308387756,
                            -1.0609183311462402,
                            -0.170869842171669
                        ],
                        [
                            -0.17914745211601257,
                            0.39590781927108765,
                            -0.6756255030632019,
                            -0.10248889774084091
                        ],
                        [
                            0.5164512395858765,
                            -0.4859802722930908,
                            0.841371476650238,
                            -0.17668336629867554
                        ],
                        [
                            -0.5081655979156494,
                            0.5245082974433899,
                            -0.9190616011619568,
                            -0.1517416387796402
                        ],
                        [
                            0.11511402577161789,
                            -0.7886391878128052,
                            1.088095784187317,
                            -0.4839351177215576
                        ],
                        [
                            0.510500431060791,
                            -0.5782960057258606,
                            0.9929527640342712,
                            -0.656635046005249
                        ],
                        [
                            -0.16627979278564453,
                            0.46327194571495056,
                            -0.997139036655426,
                            0.040693096816539764
                        ]
                    ],
                    [
                        [
                            0.025599060580134392,
                            -0.1850988268852234,
                            -0.02051977813243866,
                            0.2311878651380539
                        ],
                        [
                            1.1598083972930908,
                            -0.16076041758060455,
                            0.06887315213680267,
                            0.1497933715581894
                        ],
                        [
                            0.8284825682640076,
                            -0.0088254539296031,
                            0.017872441560029984,
                            -0.03542644903063774
                        ],
                        [
                            -0.7022033929824829,
                            0.06012754142284393,
                            -0.5065657496452332,
                            -0.02310720831155777
                        ],
                        [
                            0.7906690835952759,
                            0.2531510889530182,
                            0.36038362979888916,
                            0.2772902846336365
                        ],
                        [
                            -0.8289134502410889,
                            0.2010432332754135,
                            -0.38506433367729187,
                            -0.27063074707984924
                        ],
                        [
                            -0.972080409526825,
                            0.02910800278186798,
                            -0.24562399089336395,
                            0.4925830066204071
                        ],
                        [
                            0.8236925005912781,
                            -0.22756829857826233,
                            0.3128875494003296,
                            -0.11433574557304382
                        ]
                    ],
                    [
                        [
                            0.07164206355810165,
                            0.315462201833725,
                            -0.1282331347465515,
                            -0.21284794807434082
                        ],
                        [
                            -0.4852638244628906,
                            -0.3408673107624054,
                            1.0409127473831177,
                            -0.10299070924520493
                        ],
                        [
                            -0.8213748931884766,
                            -0.5031139850616455,
                            0.6417025327682495,
                            0.03296809643507004
                        ],
                        [
                            0.3249668776988983,
                            0.49465373158454895,
                            -0.3270624876022339,
                            0.061263784766197205
                        ],
                        [
                            -0.3493809998035431,
                            -0.7931176424026489,
                            0.5696023106575012,
                            0.22021888196468353
                        ],
                        [
                            0.8773636221885681,
                            0.5972914695739746,
                            -0.5730959177017212,
                            0.13101260364055634
                        ],
                        [
                            0.6272240877151489,
                            0.34197235107421875,
                            -0.814490020275116,
                            0.2696142792701721
                        ],
                        [
                            -0.48721182346343994,
                            -0.28501006960868835,
                            0.7013211250305176,
                            -0.12075361609458923
                        ]
                    ]
                ],
                [
                    -0.004537275526672602,
                    -0.5495098829269409,
                    -0.018817506730556488,
                    -0.09578824788331985
                ]
            ]
        },
        {
            "type": "gru",
            "activation": "tanh",
            "shape": [
                null,
                null,
                8
            ],
            "weights": [
                [
                    [
                        0.6882542371749878,
                        -0.32033538818359375,
                        -2.0048327445983887,
                        1.0627281665802002,
                        0.20738719403743744,
                        -0.40155985951423645,
                        0.696312665939331,
                        -0.710352897644043,
                        -0.16479440033435822,
                        -1.4022905826568604,
                        -3.8538408279418945,
                        -1.9902372360229492,
                        -4.345733165740967,
                        -1.5094735622406006,
                        1.6718446016311646,
                        -1.13237726688385,
                        -0.044736266136169434,
                        -0.057573623955249786,
                        0.6850153803825378,
                        -1.1470228433609009,
                        0.10673710703849792,
                        0.2698574662208557,
                        0.07982685416936874,
                        -0.947965145111084
                    ],
                    [
                        -1.6288471221923828,
                        -0.631691038608551,
                        -1.7534003257751465,
                        -1.6985894441604614,
                        -0.8020164966583252,
                        -0.15806257724761963,
                        -0.7884350419044495,
                        -1.2793481349945068,
                        0.6703857779502869,
                        -0.11107293516397476,
                        -0.6011717319488525,
                        -0.4020681083202362,
                        -1.031176209449768,
                        -0.5975133180618286,
                        -1.6086673736572266,
                        0.6210389137268066,
                        -0.3554367125034332,
                        0.06675517559051514,
                        0.5119635462760925,
                        0.09460308402776718,
                        -0.12851373851299286,
                        0.36018094420433044,
                        -0.0983143150806427,
                        0.5493742227554321
                    ],
                    [
                        -1.080585241317749,
                        -0.5799576044082642,
                        -0.52288818359375,
                        -2.2023115158081055,
                        0.18699748814105988,
                        -1.1350431442260742,
                        0.480037122964859,
                        -1.7731493711471558,
                        -0.3267744183540344,
                        1.1797934770584106,
                        0.08349047601222992,
                        -2.977156639099121,
                        1.3386294841766357,
                        0.45519915223121643,
                        0.7535726428031921,
                        -1.5572272539138794,
                        -0.6441135406494141,
                        -0.1674615442752838,
                        -3.446845531463623,
                        -1.2249846458435059,
                        -0.02076493762433529,
                        0.9500586986541748,
                        0.0023444746620953083,
                        -0.08188064396381378
                    ],
                    [
                        0.2933562994003296,
                        0.23763298988342285,
                        3.340770721435547,
                        -2.157743215560913,
                        -0.38075199723243713,
                        0.2154342532157898,
                        -0.28267109394073486,
                        -1.1841392517089844,
                        1.0405147075653076,
                        -0.6453161835670471,
                        -0.689736545085907,
                        -0.8482036590576172,
                        -1.803742527961731,
                        -0.26420822739601135,
                        0.5618788599967957,
                        1.7629252672195435,
                        -0.0034630675800144672,
                        0.1035827025771141,
                        -0.05017848685383797,
                        0.2976767122745514,
                        0.22947019338607788,
                        -0.12953978776931763,
                        0.15623071789741516,
                        -1.2549092769622803
                    ]
                ],
                [
                    [
                        0.3949472904205322,
                        0.6289579272270203,
                        -1.9517159461975098,
                        7.1165056228637695,
                        -1.499199390411377,
                        -0.2865522503852844,
                        -0.5675658583641052,
                        1.357398509979248,
                        0.2918756902217865,
                        0.24961872398853302,
                        -0.5896347761154175,
                        -1.2047878503799438,
                        0.17206895351409912,
                        0.660239577293396,
                        0.5856501460075378,
                        -2.3185722827911377,
                        0.6433604955673218,
                        -1.6789882183074951,
                        0.4579727351665497,
                        0.24279892444610596,
                        -0.6629219055175781,
                        1.3291704654693604,
                        -0.37253856658935547,
                        -0.45788031816482544
                    ],
                    [
                        0.5213170647621155,
                        0.24907875061035156,
                        -3.3547544479370117,
                        2.8403289318084717,
                        -0.37921369075775146,
                        -1.7091684341430664,
                        -0.5880613327026367,
                        -3.665841579437256,
                        1.0308668613433838,
                        0.5792588591575623,
                        -1.4229166507720947,
                        0.9100573658943176,
                        -1.7393579483032227,
                        -0.19516947865486145,
                        -0.8407507538795471,
                        -4.7679643630981445,
                        0.05618446320295334,
                        -0.9478065371513367,
                        0.9767774343490601,
                        -0.3212560713291168,
                        -0.8224995136260986,
                        -0.9841091632843018,
                        0.5451809167861938,
                        -0.8256198167800903
                    ],
                    [
                        -0.4531545341014862,
                        -0.43561550974845886,
                        -1.0917683839797974,
                        0.03609742596745491,
                        0.289140522480011,
                        0.009906969033181667,
                        -0.26519492268562317,
                        -0.937246561050415,
                        -0.8070292472839355,
                        -0.5079965591430664,
                        0.5898386240005493,
                        1.047495722770691,
                        1.1106691360473633,
                        0.6761868596076965,
                        -1.5288262367248535,
                        -1.0737091302871704,
                        -0.011767608113586903,
                        0.14077550172805786,
                        0.8107470870018005,
                        1.5817042589187622,
                        -0.06927983462810516,
                        -0.07462093979120255,
                        -0.24308067560195923,
                        0.7859333753585815
                    ],
                    [
                        0.09328863024711609,
                        0.40515831112861633,
                        -3.953281879425049,
                        3.0582022666931152,
                        0.6169096231460571,
                        0.4076139032840729,
                        0.16637761890888214,
                        -2.576324462890625,
                        -0.1645009070634842,
                        1.826042652130127,
                        0.3824285566806793,
                        1.1375492811203003,
                        1.306780219078064,
                        1.5493351221084595,
                        -0.01845121569931507,
                        -1.2488641738891602,
                        1.3454129695892334,
                        0.6820871829986572,
                        -0.4258885681629181,
                        1.0293551683425903,
                        -0.5756118297576904,
                        -0.5778255462646484,
                        -0.7881333231925964,
                        1.0156701803207397
                    ],
                    [
                        -0.3557794392108917,
                        0.728287935256958,
                        -0.1508953720331192,
                        -0.4936436414718628,
                        0.6084901094436646,
                        1.148801326751709,
                        0.24610711634159088,
                        -2.781118154525757,
                        -2.3721368312835693,
                        3.5891811847686768,
                        -1.27578866481781,
                        -0.21009373664855957,
                        -0.3156358301639557,
                        -0.5269119739532471,
                        -0.5413643717765808,
                        2.869741439819336,
                        0.953549861907959,
                        0.01594226434826851,
                        0.9731734991073608,
                        -0.8985177874565125,
                        0.8080617785453796,
                        0.4036714434623718,
                        -0.9783967733383179,
                        -1.0087684392929077
                    ],
                    [
                        -0.09174735099077225,
                        -0.24149641394615173,
                        1.3493435382843018,
                        5.68204927444458,
                        -1.491272211074829,
                        -0.24432970583438873,
                        -1.7267661094665527,
                        0.24899470806121826,
                        -0.770531415939331,
                        -0.7321317195892334,
                        0.5450211763381958,
                        0.12089170515537262,
                        0.44490355253219604,
                        0.48188599944114685,
                        0.16122786700725555,
                        -0.39328181743621826,
                        0.178218275308609,
                        0.28322309255599976,
                        0.36306557059288025,
                        -0.4174238443374634,
                        0.20364497601985931,
                        1.0041558742523193,
                        -0.43188679218292236,
                        -0.52332603931427
                    ],
                    [
                        -0.3292444050312042,
                        -0.5621140599250793,
                        -4.004739284515381,
                        6.7105488777160645,
                        1.4483413696289062,
                        0.230667382478714,
                        -0.9572120308876038,
                        5.67331075668335,
                        -2.620570659637451,
                        -1.3091063499450684,
                        -0.10834744572639465,
                        1.2804408073425293,
                        1.397592544555664,
                        -0.24518805742263794,
                        -2.0238611698150635,
                        -0.2841429114341736,
                        0.8853931427001953,
                        -0.08209776878356934,
                        -0.23954220116138458,
                        0.22913789749145508,
                        1.4007614850997925,
                        0.5304409265518188,
                        1.3475520610809326,
                        0.15068690478801727
                    ],
                    [
                        -0.09379301220178604,
                        -0.09444697201251984,
                        3.4930036067962646,
                        -2.2894928455352783,
                        -0.06827381253242493,
                        -0.6785739660263062,
                        -0.383821576833725,
                        -2.314856767654419,
                        -0.8586857318878174,
                        0.2243998497724533,
                        -0.14760005474090576,
                        0.7714129090309143,
                        -0.6840730309486389,
                        1.5596764087677002,
                        0.12762188911437988,
                        1.2972506284713745,
                        -0.04204195365309715,
                        0.4103257656097412,
                        -0.21947535872459412,
                        0.3863707482814789,
                        0.6593297719955444,
                        -0.16200000047683716,
                        -0.007459437474608421,
                        -0.08508185297250748
                    ]
                ],
                [
                    [
                        1.1616851091384888,
                        0.5543925762176514,
                        -1.1770561933517456,
                        1.882499098777771,
                        1.0312086343765259,
                        1.2512538433074951,
                        1.1625806093215942,
                        0.29604876041412354,
                        0.2225029468536377,
                        0.16120357811450958,
                        0.27666032314300537,
                        0.6812283992767334,
                        0.38240882754325867,
                        0.4865233898162842,
                        0.1896931231021881,
                        -0.08123158663511276,
                        -0.25929921865463257,
                        -0.3784767687320709,
                        0.2333119660615921,
                        -0.012543429620563984,
                        0.14510278403759003,
                        -0.3286857306957245,
                        -0.05000297725200653,
                        -0.3099556565284729
                    ],
                    [
                        1.2512258291244507,
                        0.5740365982055664,
                        -1.3171488046646118,
                        1.9227145910263062,
                        1.1650608777999878,
                        1.176602840423584,
                        1.0711613893508911,
                        0.3510780334472656,
                        0.14504539966583252,
                        0.25652793049812317,
                        0.23047831654548645,
                        0.8099278211593628,
                        0.39021703600883484,
                        0.49619922041893005,
                        0.35845956206321716,
                        -0.12364321202039719,
                        -0.6171388626098633,
                        0.033515822142362595,
                        0.031147075816988945,
                        0.41184866428375244,
                        0.1738823503255844,
                        -0.5123279690742493,
                        -0.15910768508911133,
                        0.31748366355895996
                    ]
                ]
            ]
        },
        {
            "type": "dense",
            "activation": "",
            "shape": [
                null,
                null,
                1
            ],
            "weights": [
                [
                    [
                        -0.028391916304826736
                    ],
                    [
                        1.894058346748352
                    ],
                    [
                        -0.025321898981928825
                    ],
                    [
                        -0.8680177927017212
                    ],
                    [
                        -0.8080408573150635
                    ],
                    [
                        0.09973475337028503
                    ],
                    [
                        -0.8818626999855042
                    ],
                    [
                        -0.252900093793869
                    ]
                ],
                [
                    0.2585548460483551
                ]
            ]
        }
    ]
}