{"lstm.weight_ih_l0": [[0.19939126074314117, -0.6386020183563232], [0.10167110711336136, 1.0751385688781738], [1.159224271774292, -1.0013972520828247], [-0.9667037129402161, -0.44751229882240295], [-0.03342650830745697, 0.0028695405926555395], [0.014782855287194252, -0.43864530324935913], [0.5193259119987488, -0.2394443303346634], [0.23904559016227722, -0.005252567119896412], [-0.07008867710828781, 0.37959104776382446], [-0.23841449618339539, -0.06082943454384804], [-0.12199295312166214, 0.6942617297172546], [0.010192730464041233, 0.009250003844499588], [-0.0836939588189125, -0.31243443489074707], [-0.5568373799324036, -0.5202127695083618], [-0.2196357399225235, -0.520607054233551], [-0.13589289784431458, 0.5927700996398926], [0.31895712018013, 0.011123644188046455], [-0.06555444747209549, 0.40363970398902893], [0.45619845390319824, 0.46326711773872375], [-0.5845112204551697, 1.4098438024520874], [-0.2575806677341461, 0.26393479108810425], [-0.20060361921787262, 0.7022275924682617], [0.40544357895851135, 0.015919093042612076], [-0.1801689863204956, 0.5335511565208435], [0.27770185470581055, 0.824853241443634], [-0.2219192534685135, 0.1521044224500656], [-0.94021075963974, -0.29788973927497864], [0.6295920014381409, 0.2273285984992981], [-0.21278056502342224, 0.5391077399253845], [0.2092810571193695, 0.9396286606788635], [-0.25217175483703613, 0.982718288898468], [-0.177204892039299, -0.08394211530685425], [-0.5073171854019165, -0.3891368806362152], [4.650969505310059, -0.10371250659227371], [1.3512300252914429, -0.4117219150066376], [-0.737598717212677, 0.15164442360401154], [0.48853737115859985, 0.10145315527915955], [0.26730430126190186, 0.1333107054233551], [-0.745780348777771, -0.3910132646560669], [-1.5120861530303955, 0.10557706654071808], [0.36918026208877563, -0.3350146412849426], [-0.0947904959321022, -0.05812993273139], [-3.8917298316955566, -0.16581593453884125], [-1.3573007583618164, -0.4742436707019806], [-0.059120431542396545, -0.5066230893135071], [-0.4094773828983307, -0.14573360979557037], [-0.20169782638549805, -0.1877940148115158], [1.5111099481582642, -0.20785418152809143], [0.2711372971534729, -0.08517742156982422], [0.21489867568016052, 1.0929763317108154], [0.9297196269035339, -0.03267998620867729], [-0.7902054190635681, 0.5692884922027588], [-0.16271811723709106, 0.18648387491703033], [-0.02816666103899479, 0.6963809728622437], [0.7173864841461182, 0.017656652256846428], [0.027003254741430283, 0.44725853204727173], [-0.1781448870897293, 0.35278594493865967], [-0.42988792061805725, 0.18389764428138733], [-0.14615660905838013, 0.7329309582710266], [0.439331978559494, 0.261018842458725], [0.25519606471061707, 0.07629582285881042], [0.8139475584030151, 0.6826415061950684], [-0.011880028992891312, 0.3688538074493408], [-0.41713592410087585, 0.5813336372375488]], "lstm.weight_hh_l0": [[-0.029301274567842484, -0.08417411148548126, 0.09589038044214249, 0.023202931508421898, -0.091166190803051, 0.5421597957611084, 0.12056247144937515, -0.11160030215978622, 0.3638503849506378, 0.3373129069805145, -0.41653236746788025, 0.29013344645500183, 0.19284175336360931, -0.5542784333229065, 0.16054551303386688, 0.21257825195789337], [0.006686973851174116, 0.6484523415565491, -0.5245227813720703, 0.22830034792423248, -0.05031381919980049, 0.5293480157852173, 0.12421564757823944, -0.41890496015548706, -0.27148112654685974, -0.6524209976196289, -0.43512409925460815, -1.8931052684783936, 0.10351568460464478, 0.9012361764907837, -0.19213806092739105, -0.279267817735672], [0.9536375999450684, 2.647211790084839, -0.25293901562690735, 0.8816361427307129, 0.553109884262085, -0.23880210518836975, 0.3129233419895172, 1.497851014137268, 0.5984019637107849, 0.3241216540336609, -0.6124423146247864, 0.5000016093254089, 0.8609285354614258, 0.010206718929111958, -0.05969144403934479, -0.8414583802223206], [0.21997365355491638, -0.1386679857969284, 1.2115236520767212, -0.06513608247041702, -0.21869544684886932, -0.5284925699234009, -0.8157567977905273, 0.7557269334793091, 0.2247961312532425, 0.5688125491142273, -0.1875869631767273, 1.238779067993164, 0.09705811738967896, -1.146162986755371, 0.9390507340431213, 0.9005140662193298], [-0.1966993510723114, 0.14394420385360718, -0.606195330619812, 0.15866456925868988, -0.09457758814096451, 0.20778264105319977, 0.06790768355131149, -0.5504752993583679, 0.4115750193595886, 0.08850053697824478, 0.17878751456737518, 0.17056462168693542, -0.10521962493658066, 0.21622803807258606, -0.8811414837837219, -0.39730286598205566], [-0.16814836859703064, 0.2822897136211395, -0.18195337057113647, 0.2210097461938858, -0.176007479429245, -0.5215780138969421, -0.6602784395217896, 0.22712364792823792, 0.4969604015350342, 0.6000523567199707, -0.5773219466209412, 0.478741317987442, -0.004395422525703907, -0.7214362621307373, -0.2879837453365326, -0.034598350524902344], [-0.337664395570755, -0.20983538031578064, 0.22792287170886993, 0.3346552848815918, 0.29076865315437317, -0.22462837398052216, 0.10118047147989273, 0.18715862929821014, 0.40266934037208557, 0.35192131996154785, -0.31000983715057373, 0.20061051845550537, 0.17566615343093872, 0.14595070481300354, -0.16821028292179108, -0.6422902345657349], [0.08846757560968399, -0.19351840019226074, 0.05175325646996498, -0.022395044565200806, 0.2531913220882416, -0.0613849014043808, -0.19585901498794556, 0.18895463645458221, 0.39973345398902893, 0.4210219383239746, -0.13542811572551727, 0.5898240804672241, 0.39895278215408325, -0.5597919821739197, -0.4768366813659668, 0.061698101460933685], [0.046608541160821915, 0.9821251630783081, -0.1266169548034668, -0.4022943079471588, -0.42594900727272034, -0.4652978181838989, -0.5918415784835815, -0.20254115760326385, -0.2454003095626831, -0.19948184490203857, 0.26163622736930847, -0.1718519777059555, 0.2643512189388275, -0.06506170332431793, 0.5995610356330872, 0.32494136691093445], [0.19614745676517487, 0.043363895267248154, 0.015132870525121689, -0.41070011258125305, 0.23800449073314667, -0.16864314675331116, -0.009578907862305641, 0.43710994720458984, -0.21174974739551544, 0.016478177160024643, -0.11270932108163834, -0.44662362337112427, -0.2328282594680786, -0.04949427768588066, 0.4981946647167206, 0.037237755954265594], [-0.2803467810153961, -0.1764891892671585, -0.4163814187049866, -0.2750577926635742, 0.030914580449461937, 0.6487783789634705, -0.12069550901651382, -0.26293107867240906, -0.38927245140075684, -0.4796490967273712, 0.06571594625711441, -0.8403134346008301, -0.32590726017951965, 0.40238064527511597, -0.22786730527877808, 0.17590156197547913], [-0.0563659742474556, -0.9932970404624939, -0.4168061912059784, -0.02479444071650505, 0.5258340835571289, -0.06908151507377625, -0.2547042667865753, -0.19308090209960938, 0.005465103313326836, 0.18058894574642181, -0.04115067422389984, -0.03881935775279999, 0.4975574016571045, 0.16718585789203644, -0.09782768040895462, 0.1731342226266861], [0.050430670380592346, 0.06449069082736969, 0.5590901970863342, -0.06932785362005234, 0.06607990711927414, -0.11025585234165192, -0.011709512211382389, 0.21059845387935638, 0.5462652444839478, 0.015066415071487427, 0.5659322738647461, 0.12913291156291962, -0.01484398078173399, -0.33272144198417664, -0.01699257083237171, 0.7738645076751709], [0.3829527795314789, -0.08827704936265945, -0.4347326457500458, 0.11782234907150269, 0.27237629890441895, -0.254070520401001, -0.7459093928337097, 0.622713029384613, 0.5186348557472229, 0.7119885087013245, -0.01890537329018116, 0.67270827293396, 0.3413662612438202, -0.1869685798883438, -0.5324084162712097, 0.05994062125682831], [0.763367235660553, 0.1045030876994133, -0.2462201565504074, -0.3279971480369568, 0.607977569103241, -0.6950098872184753, -0.4998273551464081, 0.15012165904045105, 0.009390928782522678, 0.40424102544784546, -0.6608585715293884, -0.29766228795051575, 0.6761477589607239, -0.6917799711227417, 0.594788134098053, 0.21575623750686646], [0.20707881450653076, 0.48088523745536804, -0.6252836585044861, -0.5269518494606018, -0.13362763822078705, 0.4638163149356842, 0.05396664887666702, -0.04622235894203186, -0.6941469311714172, -0.5038717985153198, 0.23776574432849884, -0.7610832452774048, -0.18232710659503937, 0.33539339900016785, 0.11986222863197327, -0.004811398219317198], [-0.22361411154270172, 0.11135607957839966, 0.19114160537719727, -0.04031677544116974, -0.18273593485355377, 0.6096453070640564, -0.028402015566825867, -0.5057538151741028, 0.14482329785823822, -0.12075074762105942, -0.11654998362064362, 0.026437176391482353, 0.32243776321411133, -0.18395550549030304, -0.16957437992095947, 0.09968782216310501], [0.2219965159893036, -0.8421590328216553, -1.1986066102981567, -0.44906774163246155, 0.2414642721414566, 0.39898356795310974, 0.5228681564331055, -0.5434866547584534, -0.06098358705639839, -0.03399679437279701, 0.33210936188697815, -1.0063140392303467, 0.050271328538656235, 0.5119391083717346, -0.29555007815361023, 0.4000396728515625], [-0.2693568170070648, -0.12353439629077911, -0.4823349416255951, -0.13563048839569092, -0.146542489528656, 0.9277341365814209, 0.09964936971664429, -0.9957125782966614, -0.059056784957647324, -0.676049530506134, 0.6927332878112793, -0.8543987274169922, 0.9279009699821472, 0.9167359471321106, -1.028810977935791, -0.3706393539905548], [-1.151795744895935, -0.060657016932964325, -1.3685247898101807, 0.09955345839262009, -0.38859450817108154, 0.6674615144729614, 0.35775846242904663, -0.2508522570133209, -0.8534704446792603, -1.2073720693588257, 0.9894816875457764, -1.2956441640853882, 0.4215795397758484, 0.830886960029602, -0.148723304271698, 0.1438608020544052], [0.07591796666383743, 0.02775522693991661, -0.06533293426036835, 0.45376646518707275, -0.22441230714321136, -0.4824886918067932, -0.13594667613506317, -0.22487008571624756, 0.3646607995033264, 0.16257981956005096, 0.3118356466293335, 0.3560914695262909, 0.010932006873190403, 0.421502947807312, -0.6994388103485107, 0.13158255815505981], [-1.102159857749939, -0.38860148191452026, -0.5201160311698914, 0.19649627804756165, 0.17802178859710693, -0.3570864796638489, 0.30230075120925903, -0.28389453887939453, -0.22053609788417816, -0.5252240896224976, 0.5544507503509521, -0.2959311604499817, 0.5244262218475342, 0.6036308407783508, -0.3566695749759674, -0.3143506646156311], [-0.4371853172779083, 0.2182137370109558, 0.6225242614746094, 0.2949780821800232, 0.4046100080013275, -0.014276271685957909, -0.017239706590771675, 0.0390777662396431, 0.15891918540000916, 0.01826838217675686, 0.2718413472175598, -0.05835014581680298, 0.2512471675872803, 0.30894768238067627, -0.16342630982398987, 0.06267502158880234], [-0.32075726985931396, 0.010037590749561787, -0.7657507658004761, 0.39654114842414856, 0.20129097998142242, 0.46661150455474854, 0.49942198395729065, -0.16697099804878235, -0.18394646048545837, -0.5424594283103943, 0.7659752368927002, -0.5939677953720093, -0.021127058193087578, 0.44292351603507996, -0.3308868110179901, 0.20853044092655182], [-0.5863843560218811, 0.40433526039123535, -0.22415728867053986, -0.47869354486465454, -0.26832085847854614, 0.1847163289785385, -0.8193541169166565, -0.317600280046463, -0.4882184863090515, -0.4175129532814026, 0.12165659666061401, -0.21739456057548523, -0.16871067881584167, 0.33225321769714355, 0.3158283829689026, -0.04156971722841263], [-0.07390531152486801, 0.952348530292511, 0.12660522758960724, -0.20067444443702698, 0.540958821773529, -0.031517863273620605, 0.18891401588916779, 0.0936073586344719, -0.12432394176721573, -0.03117365948855877, 0.1487748920917511, -0.2238251268863678, -0.3477208912372589, -0.2897048592567444, 0.6088574528694153, -0.20587696135044098], [-0.1687152087688446, -0.1461242288351059, -0.10140346735715866, -0.3325693607330322, 0.1076129674911499, 0.1521729975938797, 0.19215549528598785, -0.21406488120555878, -0.031088456511497498, 0.15014664828777313, -0.11563531309366226, -0.2937358021736145, 0.43632686138153076, -0.0010513202287256718, -0.5624297261238098, 0.0075059146620333195], [0.057943195104599, 0.5109084844589233, -0.22797587513923645, 0.3780967593193054, 0.8846657872200012, -0.15915769338607788, -0.2716832160949707, -0.07294667512178421, 0.027433613315224648, 0.02169153094291687, 0.18415483832359314, 0.06768062710762024, 0.09391365200281143, 0.5237037539482117, -0.3425295650959015, -0.8113409280776978], [-0.4454215466976166, 0.06705436110496521, -0.07369248569011688, 0.4506130814552307, 0.3048391342163086, 0.6434400677680969, 0.19812557101249695, -0.33633825182914734, 0.10461847484111786, -0.26461702585220337, 0.5468928217887878, -0.28872597217559814, -0.4373392164707184, 0.26470357179641724, -0.12767919898033142, 0.26852184534072876], [-1.2383897304534912, -0.08208759129047394, -0.06462900340557098, -0.29214638471603394, 0.7280659079551697, 0.42330947518348694, 0.5135740637779236, -0.30594784021377563, -0.35160237550735474, -0.7232621908187866, 0.7935028076171875, -0.6786319613456726, 0.2306658923625946, 0.3150465190410614, -0.01694117859005928, -0.40537533164024353], [-0.6183682680130005, -0.3607439398765564, -0.0394199900329113, 0.15591581165790558, -0.146530419588089, -0.019088683649897575, 0.34060046076774597, -0.7292749285697937, 0.003929822705686092, -0.629728376865387, 0.1677776575088501, -0.6145005226135254, 0.006428440101444721, 0.5613452792167664, -0.1336258351802826, 0.17147064208984375], [0.4345800280570984, -0.02402420900762081, -0.5205204486846924, -0.23309743404388428, 0.08024047315120697, 0.1475396752357483, 0.1169433742761612, 0.25449368357658386, -0.25073832273483276, -0.08776085078716278, 0.23941315710544586, -0.29233625531196594, -0.7017889022827148, 0.0756676122546196, -0.14925090968608856, 0.17105862498283386], [-0.0718962550163269, -0.05310759320855141, 0.019809197634458542, 0.230865478515625, -0.47644415497779846, -0.30966120958328247, -0.020473072305321693, 0.37905746698379517, 0.08580736815929413, 0.5256268978118896, -0.07497324794530869, 0.6962251663208008, 0.6731641292572021, 0.2525288164615631, -0.33810558915138245, -0.27346569299697876], [0.016036972403526306, 1.3971236944198608, -0.7206873893737793, 1.9548550844192505, 0.6344007849693298, -0.2796298563480377, 0.4553321897983551, -0.046240825206041336, -0.21177853643894196, 0.5075726509094238, -1.4153519868850708, -0.02966735139489174, -0.5610458254814148, 0.5202746987342834, -0.08418816328048706, 0.2848165035247803], [-0.2750600278377533, 1.3427441120147705, -0.06917596608400345, 0.23655347526073456, -0.4456508159637451, 0.1281185746192932, 0.09268902987241745, 0.5014325380325317, -0.06725700944662094, 0.0567772351205349, -0.32473912835121155, 0.19182655215263367, -0.03308916464447975, -0.15405887365341187, 0.08376108855009079, -0.6206362843513489], [0.06591285020112991, -0.4503110945224762, -0.06062589958310127, 0.0589347742497921, -0.6555469632148743, 0.121453657746315, 0.3280826508998871, 0.5713518857955933, 0.09188380092382431, -0.1604439914226532, 0.22352029383182526, 0.254543662071228, 0.081968292593956, 0.0035776630975306034, 0.3821697235107422, 0.17029935121536255], [0.09828457236289978, -0.30948391556739807, 0.3398478925228119, -0.10951843112707138, -0.05446875840425491, 0.1048794835805893, -0.1546681523323059, 0.4067676365375519, 0.19488678872585297, -0.042417462915182114, -0.43522417545318604, -0.018912512809038162, 0.026247663423419, -0.12636011838912964, 0.8788377642631531, 0.6861698031425476], [-0.43849486112594604, -0.29052403569221497, -0.26305070519447327, 0.2170490324497223, 0.1594230979681015, 0.4961487352848053, 0.0017897860379889607, -0.3022436499595642, 0.14201928675174713, 0.09468241035938263, -0.0445956215262413, 0.02773417718708515, 0.06403756886720657, -0.16816723346710205, -0.15408118069171906, 0.3485340178012848], [-0.0069328551180660725, -0.09964608401060104, -0.6291373372077942, -0.3366415500640869, 0.4279133975505829, 0.5038760900497437, -0.0721539855003357, 0.41293448209762573, 0.23059655725955963, 0.07759689539670944, 0.5920806527137756, 0.016905758529901505, 0.05450773611664772, 0.045840054750442505, 0.10955966264009476, -0.3169543445110321], [0.03454148769378662, -0.17603783309459686, -0.3022199869155884, -0.5353941321372986, -0.03912574425339699, -0.12227586656808853, 0.15092167258262634, 0.19072416424751282, 0.037521276623010635, 0.00374337425455451, -0.060854554176330566, 0.06890425831079483, -0.19877545535564423, -0.0023738606832921505, 0.3536718189716339, 0.2132902443408966], [-0.08898786455392838, 0.4615888297557831, 0.08630795776844025, 0.13811703026294708, -0.32219403982162476, -0.11932237446308136, 0.1467960625886917, 0.2324797809123993, -0.14622078835964203, -0.029382823035120964, -0.3329065442085266, -0.1777055263519287, -0.24335366487503052, -0.4204881489276886, -0.3419022560119629, -0.1932869851589203], [0.2170824110507965, -0.9495967626571655, 0.27775880694389343, 0.5722143650054932, -0.34657323360443115, -0.2979106307029724, -0.09592162072658539, -0.11209161579608917, -0.19913619756698608, 0.06961134821176529, -0.1701948344707489, 0.09119958430528641, 0.25124529004096985, 0.19602921605110168, 0.20306013524532318, 0.612848699092865], [-0.15280182659626007, 0.6641148924827576, 0.3332526385784149, -1.6062121391296387, 0.5274716019630432, 0.04738105833530426, -0.6005478501319885, 0.061137158423662186, 0.002722335048019886, 0.1338389813899994, -0.14759553968906403, -0.09918167442083359, 0.21695807576179504, -0.07591574639081955, -0.4897004961967468, -0.2811392843723297], [0.10341799259185791, -1.2056605815887451, 0.5891273021697998, -0.6717069745063782, -0.3410845100879669, -0.18659819662570953, 0.03522185981273651, -0.08006294816732407, -0.2561284005641937, 0.2758226990699768, 0.19009196758270264, 0.28310662508010864, 0.5299318432807922, -0.4033951163291931, -0.09959395974874496, 0.46651729941368103], [-0.11826424300670624, 0.7537917494773865, -0.06454095244407654, 0.058925751596689224, -0.19144651293754578, 0.11159355938434601, -0.156051367521286, 0.2521722912788391, -0.4634914696216583, -0.5166141390800476, -0.17912991344928741, -0.04623441398143768, 0.09078759700059891, -0.238247349858284, -0.5196669101715088, -0.42698854207992554], [0.14440377056598663, 0.04359304532408714, -0.17293497920036316, 0.08585759252309799, 0.16286373138427734, -0.2591172158718109, -0.016778361052274704, 0.3987959325313568, 0.015273532830178738, -0.011613275855779648, -0.11507537961006165, 0.060064464807510376, -0.1140923798084259, 0.14335425198078156, 0.3664039075374603, -0.18333646655082703], [-0.3244318664073944, -0.20332075655460358, -0.06075373291969299, -0.0029013294260948896, 0.06064116582274437, 0.5565049052238464, -0.01617964170873165, 0.362261563539505, 0.06172103434801102, -0.014448661357164383, -0.06574847549200058, -0.12118389457464218, -0.37350165843963623, -0.3988373279571533, 0.36624062061309814, 0.06116705760359764], [0.010086486116051674, -1.0491186380386353, 1.4233494997024536, 0.5320895314216614, -0.5375525951385498, 0.38460588455200195, 0.38759908080101013, 0.21431578695774078, 0.07796891033649445, -0.5207740068435669, 1.0981179475784302, -0.36204496026039124, 0.8951875567436218, 0.0442892350256443, -0.4697975218296051, -0.3302772641181946], [-0.4325757920742035, 0.49968624114990234, 0.3936483561992645, -0.1493019312620163, -0.041933536529541016, 0.5379523038864136, 0.03084169514477253, -0.44696542620658875, 0.24552106857299805, 0.16459046304225922, -0.07192189991474152, -0.11120206862688065, 0.20201344788074493, -0.43385109305381775, -0.2824230492115021, 0.2973567545413971], [0.34706610441207886, 0.08389171212911606, -0.9959201812744141, -0.3580685555934906, 0.07867229729890823, 0.9509052634239197, -1.4590561389923096, -0.10385897755622864, -1.5554994344711304, 0.04981575906276703, 0.3311973512172699, -1.5824133157730103, -0.6317356824874878, 0.7196000814437866, -1.5904422998428345, -0.48887667059898376], [-0.033300649374723434, 0.48964923620224, -0.20903369784355164, 0.03324258327484131, 0.8228389024734497, -0.04857638478279114, -0.17365218698978424, -0.4207904636859894, 0.32922056317329407, 0.149121955037117, -0.3793574273586273, -0.32589730620384216, 0.4455050528049469, 0.5190103650093079, -1.573677897453308, 0.5596596598625183], [-0.6019063591957092, 0.08069733530282974, -0.35582587122917175, -0.03497385233640671, -0.4442603886127472, -0.3736799657344818, -0.2028244584798813, 0.32870209217071533, -0.20070090889930725, -0.3616524338722229, -0.22249050438404083, -0.04004102200269699, -0.27056074142456055, 0.14127612113952637, 0.06261038780212402, -0.3203093409538269], [-0.06646469235420227, 0.23546276986598969, -0.5835718512535095, 0.25071942806243896, -0.3521772623062134, -0.23308993875980377, -0.09750735759735107, -0.4255465865135193, 0.3510148227214813, -0.0126950079575181, 0.10859780013561249, -0.04092612862586975, -0.08220865577459335, 0.521051287651062, -0.8326026797294617, -0.338005930185318], [-0.6209990978240967, 0.0026268791407346725, -0.20144440233707428, 0.053898196667432785, 0.4214427173137665, 0.019469114020466805, 0.20281708240509033, 0.5821171402931213, -0.4745390713214874, -0.2808658182621002, 0.0883089005947113, -0.10963690280914307, -0.3116008937358856, -0.024302475154399872, -0.13101312518119812, -0.14371269941329956], [-0.45776599645614624, 0.2769797444343567, 0.5500576496124268, 0.4316994845867157, 0.15076491236686707, -0.2220277041196823, -0.001330128638073802, -0.21291594207286835, 0.4519968032836914, 0.1120109036564827, 0.08698011934757233, 0.14329427480697632, 0.48493334650993347, 0.20417454838752747, -0.4322134554386139, -0.3288191258907318], [-0.14261721074581146, 0.5018324851989746, -0.27474668622016907, 0.3035205602645874, 0.10287680476903915, -0.08619648963212967, -0.1929999440908432, 0.032575201243162155, -0.3444005250930786, -0.29296761751174927, 0.42266276478767395, -0.5134870409965515, -0.045988816767930984, 0.4813580811023712, -0.307522714138031, -0.1422671675682068], [-0.1963990181684494, 0.7047044038772583, -1.038504719734192, -0.2543153762817383, -0.46775686740875244, -0.1407826840877533, 0.08415969461202621, 0.2343301624059677, -0.16459347307682037, -0.37943407893180847, -0.15629957616329193, -0.41734635829925537, -0.36365747451782227, 0.12155583500862122, 0.3218413293361664, -0.214812234044075], [-0.2473820447921753, 0.44814980030059814, -0.5126673579216003, -0.4007027745246887, 0.17736992239952087, 0.29284825921058655, 0.012871346436440945, -0.3045700192451477, -0.08660674840211868, -0.2693312168121338, 0.280256986618042, -0.41878196597099304, -0.10905861109495163, 0.10742625594139099, 0.14841093122959137, -0.026729706674814224], [-0.3051939904689789, -0.15919502079486847, -0.3851684629917145, -0.24917122721672058, 0.01957603357732296, 0.6605352163314819, -0.17936310172080994, -0.2729211449623108, -0.365215927362442, -0.48201724886894226, 0.23423610627651215, -0.8316492438316345, -0.314883291721344, 0.43908849358558655, -0.19837887585163116, 0.018942080438137054], [0.1238844096660614, -0.8158012628555298, -0.9610722064971924, -0.2145201414823532, 0.3196256160736084, 0.33230912685394287, 0.049367304891347885, -0.5313822031021118, -0.23680230975151062, -0.11308003962039948, 0.2268633097410202, -0.20956136286258698, 0.06163733825087547, 0.3531617224216461, 0.1439068466424942, -0.38242828845977783], [-0.08880331367254257, 0.230075865983963, 0.30731436610221863, 0.0995902270078659, -0.03888417035341263, 0.4036218523979187, 0.15623027086257935, 0.5236331224441528, 0.37116727232933044, -0.3001212775707245, -0.06435294449329376, 0.18943744897842407, -0.7780795097351074, -0.03215664625167847, -0.009882601909339428, -0.3969518840312958], [-0.9220322966575623, 0.379354864358902, -0.5281556248664856, -0.14894764125347137, 0.2960030734539032, -0.04500522091984749, -0.3167080283164978, 0.13768503069877625, -0.41980090737342834, -0.009591680020093918, 0.3115787208080292, -0.5047284960746765, 0.09729283303022385, 0.1939348429441452, -0.25514188408851624, -0.36463508009910583], [-0.3922201693058014, -0.7820192575454712, -0.21098323166370392, -0.041423603892326355, -0.4479435682296753, 0.016389301046729088, -0.3548278510570526, -0.21054275333881378, -0.09565874189138412, -0.01554359495639801, -0.1635163128376007, -0.6590080857276917, -0.5441303253173828, 0.11144959926605225, 0.07389014959335327, -0.576549768447876], [0.6185122728347778, 0.25837430357933044, -1.4296287298202515, -0.13779549300670624, -0.3760041892528534, 0.4064784646034241, 0.27389591932296753, 0.010194136761128902, -1.0981428623199463, -0.20742860436439514, 0.0945957750082016, -0.7249703407287598, -0.4106990098953247, 0.28696396946907043, -0.1366063803434372, 0.05287846550345421]], "lstm.bias_ih_l0": [-0.3844699263572693, 0.2813674211502075, -0.5220939517021179, -0.8462204933166504, -0.33671778440475464, -0.7937394380569458, 0.17840518057346344, -0.5463111400604248, -0.3254629075527191, -0.12916050851345062, 0.3973732888698578, 0.1392046958208084, -0.45256301760673523, -0.8012515306472778, -0.9007979035377502, -0.26943859457969666, 0.43108823895454407, -0.28779980540275574, 0.6561785340309143, 0.8529564738273621, -0.10910904407501221, 1.0530586242675781, 0.1340264081954956, 0.34607553482055664, -0.05377496778964996, 0.25819873809814453, 0.0861387625336647, 0.32157182693481445, 0.6719388961791992, 0.8195194602012634, 1.3704102039337158, -0.32560721039772034, -0.18991190195083618, 0.11194486916065216, -0.06162508204579353, 0.032956305891275406, 0.05968558043241501, -0.05176094174385071, 0.2915840744972229, -0.32508519291877747, 0.020852968096733093, -0.19494783878326416, 0.1954251378774643, 0.1882893145084381, 0.1038733646273613, 0.4017966389656067, 0.007191627752035856, -0.11744793504476547, 0.08417529612779617, -0.8297072649002075, 0.1904703825712204, 0.39111313223838806, -0.06411626935005188, 0.03530994802713394, 0.2059081643819809, 0.14377465844154358, 0.1258120834827423, 0.2861662209033966, 0.3604867458343506, 0.09394335746765137, 0.004684098064899445, 0.13134154677391052, -0.10938694328069687, -0.3667359948158264], "lstm.bias_hh_l0": [-0.2343120127916336, 0.30947932600975037, -0.4308120310306549, -0.7029524445533752, -0.1968107968568802, -0.759839653968811, 0.13172157108783722, -0.4874618947505951, -0.3904997706413269, -0.219467893242836, 0.34629589319229126, -0.03342246636748314, -0.4176809787750244, -0.5616506338119507, -1.2000073194503784, -0.10002309828996658, 0.2595052421092987, -0.3830857276916504, 0.5909827947616577, 1.0623459815979004, -0.032372284680604935, 1.0914180278778076, 0.05310676246881485, 0.6658264994621277, 0.04855658859014511, 0.3020813763141632, -0.15135154128074646, 0.1812983751296997, 0.6709214448928833, 0.6986024379730225, 1.2602640390396118, -0.4747117757797241, -7.933878805488348e-05, 0.005645052995532751, 0.3144359588623047, -0.20379486680030823, 0.19781436026096344, 0.0705990269780159, 0.2242695391178131, 0.07522693276405334, 0.3703097105026245, -0.17497824132442474, 0.0004578509251587093, 0.23063643276691437, 0.16943027079105377, 0.32945162057876587, 0.13282114267349243, 0.10146219283342361, 0.056492146104574203, -0.9025344252586365, 0.13201904296875, 0.4827099144458771, -0.13893462717533112, 0.023918256163597107, 0.09829335659742355, 0.1888146549463272, -0.06900990754365921, 0.04448414966464043, 0.44774654507637024, -0.02416837587952614, 0.07552877068519592, 0.1783478558063507, -0.028172221034765244, -0.21899236738681793], "dense.weight": [[0.23991018533706665, -1.1338553428649902, 0.03851133957505226, 0.11242552846670151, -0.09389181435108185, 0.4633656144142151, 0.035332053899765015, 0.16956554353237152, 0.8843238353729248, -0.1274489313364029, -0.23316675424575806, -0.2658376693725586, -0.04230174422264099, -0.33839553594589233, -0.7004296183586121, 1.065905213356018]], "dense.bias": [0.06950165331363678]}