{"lstm.weight_ih_l0": [[4.304791332426783e-12, 1.2344047659040847e-11], [1.8078458651968332e-12, -8.131288177504192e-12], [5.088399753633288e-12, 1.991213097185529e-11], [5.612219063501171e-14, -1.278936071630321e-11], [4.23754998105097e-12, 1.2902222693012e-11], [4.348743153775869e-12, 1.4862484506994456e-11], [6.322598694596948e-13, -1.26297765648542e-11], [-0.01137024536728859, 0.15073928236961365], [5.162377036266319e-12, 9.622728829039584e-12], [0.05413755401968956, 0.14513789117336273], [3.0298309434267923e-12, 1.1135227288849858e-11], [0.013931266963481903, 0.10136011987924576], [-0.014699652791023254, 0.05463992804288864], [0.011979442089796066, 1.0233882665634155], [0.004135612398386002, 0.3369482457637787], [0.017317378893494606, 0.18983647227287292], [4.0680821341773643e-13, -8.569488001153314e-12], [-0.011793476529419422, 0.037173181772232056], [5.181339840683308e-13, -1.0931277584502741e-11], [1.4866266854693388e-12, -2.013787227250763e-11], [0.015052536502480507, 0.08712965995073318], [-0.014430966228246689, 0.11361290514469147], [3.810131463805044e-12, 1.4246600427147982e-11], [-0.018269872292876244, 0.22209788858890533], [-0.016600266098976135, 0.1277933120727539], [5.889738783487752e-12, 1.5501331121492434e-11], [8.158297171503848e-13, -1.6076804817966028e-11], [4.144106498932265e-12, 1.502465339642267e-11], [4.667787857626227e-12, 4.008960264451078e-12], [7.664101016151281e-13, -1.4989945049115327e-11], [7.377894952961817e-13, -2.1660005386503478e-11], [4.711079183011835e-12, 2.127981124644407e-11], [4.599680879235901e-12, 1.7210437935899492e-11], [1.4809207462759821e-12, -5.332784127481949e-12], [-4.547039827995647e-13, 5.032123329140603e-11], [4.0630980567904484e-13, -1.2490262296660504e-11], [4.505998005277512e-12, 1.7939351393270186e-11], [4.8085611013826135e-12, 2.0025443109306096e-11], [9.276560639440157e-13, -1.2663505660759355e-11], [-0.05891590565443039, 0.3028445839881897], [4.954519867289564e-12, 1.454474561624064e-11], [0.014179768972098827, 0.004072841722518206], [1.6899599124611808e-12, 2.081800704045733e-11], [-0.05442831665277481, 0.17107774317264557], [-0.05816324055194855, 0.08643516153097153], [0.05137362331151962, 0.29397204518318176], [-0.006166290957480669, 0.020758042111992836], [-0.05596965551376343, -0.054370347410440445], [6.210258544393776e-13, -8.659470709937445e-12], [-0.007462949492037296, 0.06243560090661049], [7.676518383632758e-13, -1.1009427744457234e-11], [1.848378438154552e-12, -2.110199168181559e-11], [0.08049190789461136, 0.17550528049468994], [0.06110589578747749, 0.2064041793346405], [2.510436736963273e-12, 2.4665672282431217e-11], [-0.04931646212935448, 0.018665781244635582], [-0.016369419172406197, 0.0665009617805481], [-4.1981222914221766e-14, 4.6657441798991783e-11], [1.1509856652838768e-12, -1.6360881399668514e-11], [4.590672026544285e-12, 2.006502776430441e-11], [4.5050421726422485e-12, 7.873747660813724e-12], [1.1049368885129862e-12, -1.5217299642600324e-11], [1.1748867937561025e-12, -2.0671856587606285e-11], [1.9017328944243017e-13, 4.6385537771920227e-11], [-1.0547212241363013e-06, -3.510501755954465e-06], [-7.133600661290984e-07, -4.133869879296981e-06], [4.910985467176943e-07, -1.1263789190252282e-07], [1.850696378369321e-07, 1.2333747179127386e-07], [-1.0526905498409178e-06, -3.413217882552999e-06], [1.1001483244399424e-06, 3.3528874610055937e-06], [-3.1355844498648366e-07, -1.2436652241376578e-06], [0.2576140761375427, -0.06009964644908905], [-1.0490017530173645e-06, -4.2901824599539395e-06], [-0.48787757754325867, -0.23074059188365936], [-4.763315359923581e-07, -9.666695177656948e-07], [-0.09897265583276749, -0.49337664246559143], [-0.13249681890010834, 0.14840875566005707], [-2.0321059226989746, 0.03912435472011566], [-1.0738708972930908, -0.03490877151489258], [-0.9591184258460999, 0.17247489094734192], [2.8878955049549404e-07, 9.899881661112886e-07], [0.04007423669099808, -0.039031773805618286], [3.0682048191010836e-07, 1.15468947115005e-06], [-1.7556801878981787e-07, 1.3835915524396114e-06], [-0.18738578259944916, 0.26760613918304443], [0.27592331171035767, -0.4449875056743622], [6.22470849975798e-07, 1.0820502893693629e-06], [0.21854770183563232, 0.35782358050346375], [-0.07406552135944366, 0.2994166612625122], [-4.834441256207356e-07, -2.24319620656388e-07], [4.372038233668718e-07, 1.5344439816544764e-06], [1.1180422916368116e-06, 3.2716257010179106e-06], [1.0569432333795703e-06, 4.746040303871268e-06], [4.0740764006841346e-07, 1.4393491483133403e-06], [-8.645496905046457e-07, -3.0678284019813873e-06], [6.533418286380765e-07, -1.1667902555245746e-07], [5.2385569840329715e-12, 1.2344045056955633e-11], [2.1919814054138786e-12, -8.131290779589406e-12], [7.73285255273315e-12, 1.9912129237131815e-11], [4.2687888271962515e-13, -1.2789362451026687e-11], [5.192760284267184e-12, 1.2902228764544166e-11], [5.309774755296592e-12, 1.486248624171793e-11], [8.437352921365771e-13, -1.2629779166939414e-11], [-0.09116046875715256, 0.19911880791187286], [6.2535302457200626e-12, 9.622727961677846e-12], [0.06419925391674042, 0.11429152637720108], [4.273213727312708e-12, 1.1135223819402906e-11], [-0.17000123858451843, 0.15686801075935364], [-0.07043933868408203, 0.07689661532640457], [0.035819098353385925, 0.8686800599098206], [0.0012336308136582375, 0.34588587284088135], [-0.025402989238500595, 0.20093543827533722], [5.530758143135195e-13, -8.569487133791576e-12], [-0.011443671770393848, 0.05123952776193619], [6.614461582621356e-13, -1.0931278451864479e-11], [1.7391824742515882e-12, -2.0137877476678057e-11], [0.30750763416290283, 0.19027183949947357], [0.0026943266857415438, 0.13086144626140594], [5.243212114480755e-12, 1.424659695770103e-11], [-0.06635518372058868, 0.17645114660263062], [-0.0030220767948776484, 0.11018393933773041], [9.01828004634675e-12, 1.5501339795109814e-11], [9.910254041012312e-13, -1.6076803083242552e-11], [5.110534825186752e-12, 1.5024651661699195e-11], [5.519082153099264e-12, 4.008954192918912e-12], [9.623432693089962e-13, -1.4989946783838803e-11], [8.1912493281322e-13, -2.1660001917056526e-11], [6.957223425835268e-12, 2.127981471589102e-11]], "lstm.weight_hh_l0": [[1.2689260292984784e-16, 6.823854256524784e-17, -1.3007031320592136e-16, -2.498060634491767e-17, 1.2633872279168234e-16, -1.3124157448351684e-16, 1.9568044305266764e-17, 8.362506000170189e-12, 1.27840459267605e-16, -1.8134586714235734e-12, 9.370324478313359e-17, -6.722992822172369e-12, -9.561532121615812e-12, -1.129124918564095e-11, 3.815827862019283e-12, -5.835382524410626e-12, -1.6383342698655954e-17, -9.939840617256834e-12, -1.8289828574468172e-17, -7.771931782377744e-18, 1.18332522057972e-13, 1.6336529351512752e-11, -1.0617200651808032e-16, 1.7012057994952867e-12, -1.553713754876007e-11, 1.3642012216479282e-16, -2.1224617411330786e-17, -1.294549040650717e-16, -1.178661698576528e-16, -2.0657621497372638e-17, 4.7274176026960933e-17, -1.2114087864107672e-16], [5.268999219514162e-17, 4.47138932124317e-17, -3.404197290874206e-17, -7.56082991338023e-19, 5.206600022825612e-17, -5.2634528080708717e-17, 8.23313460471281e-18, -1.0663421100981507e-12, 5.806042923491765e-17, 9.539373414454988e-13, 3.1754408233449115e-17, 5.565014594977047e-12, -6.127036540886505e-14, -3.9685399064182114e-12, 1.3024124964275408e-12, -2.8759338660533373e-12, -6.353920873696465e-18, -1.0011716932920023e-12, -9.244867483732544e-18, -7.655654176490552e-18, -4.979591825687857e-12, 6.516002147571864e-12, -3.653282880009849e-17, -2.203849516074774e-12, -5.4847055716567006e-12, 3.660252703851221e-17, -1.2875072851832776e-17, -5.1985866279234433e-17, -5.781240078260485e-17, -1.0834113051018425e-17, 3.2960209264702364e-17, -3.3070336782735224e-17], [1.0947137851864813e-16, 3.4789846752885956e-17, -4.9446706348827357e-17, 1.1348441548194709e-17, 1.0856891123546298e-16, -1.1393474584231076e-16, -4.631399800679918e-17, 1.0420306111036393e-11, 1.1529158674469374e-16, 5.795920167417368e-12, 4.751060740708574e-17, -1.1356648260685276e-11, -9.363986148980263e-12, -1.6161011764936895e-11, 4.846046740974996e-12, 8.92449395634154e-12, 3.6832218551005936e-17, -1.1247189811436353e-11, 4.5041056379586226e-17, 9.772753802020817e-17, 8.984925975973057e-13, 4.838018180519654e-11, -6.080756884110016e-17, 4.651083337914308e-12, -3.636787745953107e-11, 6.996685373711613e-17, 5.968403257612654e-17, -1.1093120009857151e-16, -1.0044172275078657e-16, 5.606271526370819e-17, -3.4060905418602176e-17, -3.976942110089598e-17], [2.124220492551489e-17, 1.976015203944853e-17, -4.833935635408017e-17, 4.288983423029917e-17, 2.2894665289573297e-17, -2.344050523218479e-17, -3.6424947904609327e-17, -4.7113988058122835e-12, 2.7375562224777152e-17, -4.232123332337245e-12, 3.438235111336273e-17, 1.0017003719553497e-11, 9.581829253646479e-12, -4.8706407830556575e-12, 6.863590642017248e-13, -5.609723297862745e-13, 3.1303604725775065e-17, 5.553199393382169e-12, 3.0315845195268343e-17, 4.190169088798822e-17, -9.123279388900674e-12, 2.947075309484015e-12, -3.675254451440483e-17, 5.1007054482909986e-12, 2.7042216122624696e-12, 5.406269511295092e-17, 3.432538814765988e-17, -2.3850877805878472e-17, -2.038294128572338e-17, 3.677521918935613e-17, -1.2043140086660631e-17, -4.4133629321448204e-17], [1.242446985273921e-16, 6.581455926333264e-17, -1.2778938582786353e-16, -2.361101362621157e-17, 1.2372912016031024e-16, -1.286079769969358e-16, 1.7450501641800416e-17, 8.469680685962988e-12, 1.252257744385494e-16, -1.5682221146673392e-12, 9.178418576201057e-17, -7.081090488275654e-12, -9.773017464742573e-12, -1.1133028526844058e-11, 3.750910172739541e-12, -5.558515019793431e-12, -1.467005643543407e-17, -1.0063061495202419e-11, -1.623110341563802e-17, -4.7458160020346815e-18, 3.8552055428228704e-13, 1.6555886869773495e-11, -1.0415083370469885e-16, 1.4783849058147558e-12, -1.5674002026844214e-11, 1.3424030934481348e-16, -1.8639795456749558e-17, -1.2685701431117336e-16, -1.1513835319057952e-16, -1.8205019400624336e-17, 4.4114329543396116e-17, -1.1883848427176192e-16], [1.3327610791815227e-16, 6.957228196748344e-17, -1.3965413366207914e-16, -2.6182142432932596e-17, 1.3276532058117832e-16, -1.3818500795462576e-16, 1.9281216119141552e-17, 9.468534463430434e-12, 1.3385190503382798e-16, -1.5279295840706086e-12, 9.945092581307055e-17, -8.24556482120764e-12, -1.0709136702424793e-11, -1.1929380226705089e-11, 4.106191081598709e-12, -6.0083539706046185e-12, -1.6207444395757778e-17, -1.1022583887299042e-11, -1.788182173732639e-17, -5.716376793245201e-18, 5.616095154030443e-13, 1.7860263615276928e-11, -1.1276033466094267e-16, 1.5081560132690353e-12, -1.695138474033797e-11, 1.46643359851899e-16, -2.0446440632626625e-17, -1.3628462336301173e-16, -1.2283217844361694e-16, -2.0053066620520907e-17, 4.716478966275692e-17, -1.297479906997115e-16], [1.9127757571900714e-17, 1.4758745086350782e-17, -5.848102079789882e-17, 5.0818489441795497e-17, 2.1138779224804934e-17, -2.184379187832878e-17, -4.6760682155022715e-17, -3.947901467543646e-12, 2.5466009163253587e-17, -5.7014701120017275e-12, 3.7304717351786026e-17, 9.772046019596026e-12, 9.960160300692689e-12, -6.988909451166592e-12, 6.690224004131384e-13, -1.4051742625378894e-12, 4.0017701016114996e-17, 5.625915965729034e-12, 3.958507562958241e-17, 5.649562850909394e-17, -9.353030502867732e-12, 4.87823713715696e-12, -3.9731476671836947e-17, 7.1053735811732466e-12, 2.1267967855592707e-12, 6.650356762636481e-17, 4.542645306186448e-17, -2.2463279019598318e-17, -1.6437058153273923e-17, 4.799841566664296e-17, -2.1728990789834995e-17, -5.206582817468871e-17], [2.4663862063789566e-07, -4.32045199616482e-09, -7.739519105598447e-07, -2.373891732077027e-07, 2.498245805782062e-07, -2.706016175579862e-07, 1.560359379482179e-07, 0.035714633762836456, 1.9284583174794534e-07, 0.010026593692600727, 3.3923984688044584e-07, -0.06928260624408722, -0.014039043337106705, -0.030259065330028534, 0.002686714055016637, 0.019231589511036873, -1.3978130652958498e-07, -0.028384072706103325, -1.311593820219059e-07, -1.7796585893847805e-07, 0.005820986814796925, 0.08269082009792328, -3.631542710991198e-07, 0.053374726325273514, -0.022635525092482567, 8.062924052865128e-07, -1.3464195092183218e-07, -2.681941566606838e-07, -1.40266863013494e-07, -1.517771721637473e-07, 4.8068493185837724e-08, -6.893084218972945e-07], [1.3499363927227777e-16, 7.673453448911468e-17, -1.3430392946008616e-16, -1.8753031519524392e-17, 1.3452512417332774e-16, -1.3924360061534662e-16, 1.4658295581484792e-17, 7.485232919601792e-12, 1.3801488668112565e-16, -1.96124084854421e-12, 9.970217034360496e-17, -4.9859734396751065e-12, -9.731588798689295e-12, -1.1990076466406041e-11, 3.716710099410658e-12, -6.451618753122723e-12, -1.2229080362195201e-17, -9.98351228076455e-12, -1.4135585263161508e-17, -5.708963807390654e-19, -5.090073328106737e-13, 1.716008932173274e-11, -1.127965850241072e-16, 1.3103677214479359e-12, -1.6353305862248924e-11, 1.4103982662422797e-16, -1.6795445734191098e-17, -1.3752338257859155e-16, -1.2751396777110788e-16, -1.576140379405081e-17, 4.875561349065155e-17, -1.2547911669911723e-16], [-4.779607252203277e-07, -1.883431366422883e-07, 9.783783525563194e-07, -2.592142607227288e-07, -5.004712306799775e-07, 5.265058575787407e-07, 3.0748753943043994e-07, 0.12296586483716965, -4.830672537536884e-07, 0.05064115300774574, -7.043067284939752e-07, -0.20956747233867645, -0.1803065538406372, -0.12181813269853592, -0.01975126937031746, -0.021784476935863495, -2.5874010134430137e-07, -0.09190571308135986, -2.7038396410716814e-07, -4.377955633572128e-07, 0.18832720816135406, 0.09248507767915726, 7.612485433128313e-07, 0.04458809271454811, -0.08283092081546783, -9.92577156466723e-07, -3.2439632491332304e-07, 5.333756689651636e-07, 3.475460914614814e-07, -3.2973835573102406e-07, 1.3086899741665547e-07, 9.500832334197185e-07], [5.533898516728349e-17, 2.4510008405185226e-17, -5.09628059889064e-17, 1.1889539264354435e-17, 5.518880556399081e-17, -5.763652233204138e-17, -2.2609378968109884e-17, 6.1765002834501814e-12, 5.998312123329101e-17, 8.924322869238721e-13, 3.440945947639732e-17, -6.077897300033053e-12, -5.617950982889086e-12, -7.930385514942628e-12, 1.676374642399503e-12, 1.113143648437398e-12, 1.8670775025050894e-17, -6.144923545697845e-12, 2.082097312473961e-17, 4.288608875648553e-17, 9.241647161081779e-13, 1.7359945078676553e-11, -4.174581366463628e-17, 1.333030148938097e-12, -1.3053876556090582e-11, 6.003551816201257e-17, 2.6323519180146484e-17, -5.649600570345326e-17, -5.2712498125247965e-17, 2.5924960399961284e-17, -8.624695436915812e-18, -4.379222872159042e-17], [9.035206858243328e-07, 6.088255872782611e-07, -8.56518340697221e-07, -2.4406892862316454e-07, 8.97296843049844e-07, -9.310163022746565e-07, 2.854306728750089e-07, 0.06387205421924591, 9.096110034079175e-07, 0.02695569209754467, 6.531107601404074e-07, -0.03431642800569534, -0.06480727344751358, -0.09195088595151901, 0.01605617254972458, -0.06725561618804932, -2.3156417228165083e-07, -0.06287828832864761, -2.745262008829741e-07, -2.6886229420597374e-07, -0.01626094989478588, 0.0974135473370552, -7.254245133481163e-07, -0.017349693924188614, -0.07545436173677444, 8.9837334371623e-07, -3.2933337479335023e-07, -9.131259730565944e-07, -8.762081051827408e-07, -3.163756900903536e-07, 5.558478051170823e-07, -7.970871251927747e-07], [4.630924195225816e-07, 3.825679470992327e-07, -2.3573991825287521e-07, -1.5167493927492615e-07, 4.53666217481441e-07, -4.6777535089859157e-07, 2.0250632815077552e-07, 0.0223064124584198, 4.7616865117561247e-07, 0.028878461569547653, 2.4242154950115946e-07, -0.04783698171377182, -0.0942753329873085, 0.013524513691663742, 0.007200176361948252, 0.03742334991693497, -1.6012066339499142e-07, -0.0580405667424202, -1.9326292033383652e-07, -1.9487885083435685e-07, 0.03165632113814354, 0.025988969951868057, -2.8071266910956183e-07, -0.03447217121720314, -0.04999453201889992, 2.3127694248614716e-07, -2.396128593318281e-07, -4.5438392248797754e-07, -4.958253043696459e-07, -2.2655839870822092e-07, 3.96242882061415e-07, -2.278558781654283e-07], [-5.566417939917301e-07, -1.3280438224683166e-06, -2.925980425061425e-06, -9.604013229136399e-08, -4.847741479352408e-07, 4.3327239040991117e-07, -5.111528480483685e-07, 0.13526888191699982, -8.83298355347506e-07, -0.30227988958358765, 1.0631264331095736e-06, -0.19944798946380615, 0.20209524035453796, -0.04228699207305908, -0.05473208427429199, 0.11368458718061447, 3.964884740526031e-07, 0.054541319608688354, 5.301412784319837e-07, 6.769512879145623e-07, 0.1133233830332756, -0.30859649181365967, -1.0575625992714777e-06, 0.45125406980514526, 0.3415320813655853, 2.8930708140251227e-06, 7.369146715063835e-07, 3.9066011936483847e-07, 1.2594457530212821e-06, 6.440598099288763e-07, -1.2978126733287354e-06, -2.6481704935577e-06], [3.7786529105687805e-07, 1.927518553657137e-07, -4.011991165953077e-07, -2.0160565838978073e-07, 3.7574488942482276e-07, -3.947327797959588e-07, 1.6941557134941831e-07, 0.09998257458209991, 3.5257946251476824e-07, -0.03522028774023056, 2.8412509323061386e-07, -0.10219331085681915, -0.1367921382188797, -0.018163060769438744, 0.01775665581226349, -0.04117109626531601, -1.4274544923864596e-07, -0.09639830142259598, -1.507945910361741e-07, -1.2782572866854025e-07, 0.1067001223564148, 0.010284943506121635, -3.201603249181062e-07, -0.01478104293346405, -0.06706052273511887, 3.6902216038470215e-07, -1.7421074005596893e-07, -3.8772668631281704e-07, -3.31100324046929e-07, -1.7682580732980568e-07, 2.2714012004598771e-07, -3.83188563546355e-07], [-1.1195515980944037e-07, -2.3445904773211623e-08, 4.0940690837487637e-07, -1.592650136217344e-07, -1.2643727131944615e-07, 1.3606542381694453e-07, 1.527071020746007e-07, 0.21522119641304016, -1.0178260367865732e-07, 0.027966992929577827, -3.2052446385932853e-07, -0.27218082547187805, -0.31951525807380676, -0.10863179713487625, -0.0013101835502311587, -0.03750923275947571, -1.2881838529210654e-07, -0.18012899160385132, -1.2361135759419994e-07, -1.1370426022949687e-07, 0.27012380957603455, 0.08983384072780609, 3.4340868637627864e-07, 0.016195863485336304, -0.12852026522159576, -4.241851456754375e-07, -1.5064664182773413e-07, 1.414440475855372e-07, 3.00762756921813e-08, -1.5530038410815905e-07, 9.592314142992109e-08, 4.236487143316481e-07], [1.3096091375603882e-17, 9.8318828228757e-18, -4.043413351497624e-17, 3.5558833554984653e-17, 1.4514089876575973e-17, -1.5010439603138417e-17, -3.3023101461035996e-17, -2.7032709837976343e-12, 1.749220477956289e-17, -3.918590712331804e-12, 2.5894609488925488e-17, 6.64879045916833e-12, 6.777238926308771e-12, -4.883336356814594e-12, 4.657353062237357e-13, -9.585533321948558e-13, 2.821586192184527e-17, 3.821595817576906e-12, 2.805311579068669e-17, 4.0057177383668476e-17, -6.337060216854429e-12, 3.4323190990781516e-12, -2.7577706968511636e-17, 4.940532791902763e-12, 1.4453961031529738e-12, 4.5965132929093715e-17, 3.227295452456881e-17, -1.5454542947850787e-17, -1.1104855055771319e-17, 3.399781139019908e-17, -1.592202076231268e-17, -3.600683457474337e-17], [3.3233672525057045e-07, 2.501691085399216e-07, -2.1444529352265818e-07, -9.210225471179001e-08, 3.3031858492904576e-07, -3.414452010019886e-07, 1.2396469628583873e-07, 0.012636234983801842, 3.345067227655818e-07, -0.00297554605640471, 2.2937423693747405e-07, -0.02308073453605175, -0.03419532626867294, -0.021512391045689583, 0.019622037187218666, -0.009739846922457218, -1.0186177945570307e-07, -0.02963893488049507, -1.1710601910408514e-07, -1.3912206497934676e-07, 0.012929776683449745, 0.005001435987651348, -2.6027737476397306e-07, 0.009412931278347969, -0.021873556077480316, 1.9709996479377878e-07, -1.4120541891315952e-07, -3.356880426963471e-07, -3.292614678684913e-07, -1.37512842002252e-07, 2.337413889108575e-07, -2.2361530227499316e-07], [1.4740962357542117e-17, 1.184529585493081e-17, -4.745662229158808e-17, 4.2691678151478415e-17, 1.6419138112483574e-17, -1.6941724353714975e-17, -3.898764608652721e-17, -3.4973308971064654e-12, 2.0087215944929547e-17, -4.693550669648827e-12, 3.0213880295520157e-17, 8.406005058692045e-12, 8.560301772986278e-12, -5.5876071998473e-12, 5.158240913398504e-13, -1.2440484840198218e-12, 3.3383580154541705e-17, 4.888058707797072e-12, 3.294886696414304e-17, 4.67776294314127e-17, -8.034321472005779e-12, 3.799743939630895e-12, -3.2140317767707154e-17, 5.574136638375471e-12, 1.850934119515535e-12, 5.4099263113470666e-17, 3.774244478833684e-17, -1.7484520271672272e-17, -1.2683331558662372e-17, 3.9941894876058186e-17, -1.8180635770527497e-17, -4.221755145925282e-17], [2.1417290937051538e-17, 1.3026843950624006e-17, -9.899788230029771e-17, 8.639516362823169e-17, 2.52049211834298e-17, -2.6219851942697664e-17, -8.16281813150927e-17, -7.126748843844233e-12, 3.1318268983674405e-17, -1.0195369722076908e-11, 6.077406471756931e-17, 1.6180022599510124e-11, 1.7821889797264845e-11, -1.1419590967287618e-11, 4.1758832719854255e-13, -2.602802088441658e-12, 6.920805780016409e-17, 1.0179558584955117e-11, 6.985689165520578e-17, 9.489729654096614e-17, -1.6101212377273022e-11, 6.947102615395551e-12, -6.420170927008695e-17, 1.1512672759561582e-11, 4.210369899948496e-12, 1.12203675195919e-16, 8.112231735712467e-17, -2.7683503368857168e-17, -1.4538844083587235e-17, 8.461491213133997e-17, -4.853934215641589e-17, -8.804697713705109e-17], [3.596372835090733e-07, 5.334000547918549e-07, 4.0407599044556264e-07, -2.2130541310616536e-07, 3.450821566275408e-07, -3.4263672432643943e-07, 3.77286625052875e-07, -0.06992163509130478, 3.897745273206965e-07, 0.00444631464779377, 5.5128726472730705e-08, 0.03834069147706032, -0.05834750086069107, 0.10476674884557724, -0.016775431111454964, 0.06527100503444672, -3.125374803403247e-07, -0.03200915455818176, -3.5257312447356526e-07, -5.243095984042156e-07, 0.045495059341192245, -0.10947642475366592, -8.640333248877141e-08, -0.057599883526563644, 0.017338750883936882, -5.537926881515887e-07, -4.3155625917279394e-07, -3.274444111411867e-07, -4.83791495753394e-07, -4.2089905605280364e-07, 5.944696113147074e-07, 2.682693889255461e-07], [2.414772666270437e-07, 4.089184102440413e-08, -2.5410878379261703e-07, 3.46073221635379e-07, 2.557340792463947e-07, -2.72687913138725e-07, -4.6746171733502706e-07, -0.034781403839588165, 2.674408960956498e-07, 0.09570463746786118, 3.00928292062963e-07, -0.013847319409251213, -0.05156705528497696, 0.16239848732948303, -0.02037093974649906, 0.0760115385055542, 3.969197734932095e-07, -0.03237856552004814, 4.21917405901695e-07, 7.467042451025918e-07, -3.4201151720480993e-05, -0.009057704359292984, -3.3609202887419087e-07, -0.1360374242067337, -0.05784571170806885, 2.515635912914149e-07, 5.11111807099951e-07, -2.7502636612553033e-07, -1.706426644432213e-07, 5.159788543096511e-07, -3.0332938649735297e-07, -2.485064953816618e-07], [7.425526243505645e-17, 3.448871330524725e-17, -7.218545140165686e-17, 1.1488047301717121e-17, 7.41781096449624e-17, -7.744744506312719e-17, -2.3330741673621453e-17, 7.925426807886549e-12, 7.92228062682375e-17, 1.244541470747651e-12, 4.990113621630684e-17, -8.211909451050214e-12, -7.609282128007155e-12, -9.575436797637504e-12, 2.0765941050049364e-12, 5.700696533751659e-13, 1.9311070721809816e-17, -8.000781460959505e-12, 2.1380577352743985e-17, 4.689570450077097e-17, 1.346637319883659e-12, 2.0776665110577852e-11, -5.898568038089497e-17, 1.229045077516533e-12, -1.601242922977253e-11, 8.272444708963168e-17, 2.70814895908472e-17, -7.604732607109543e-17, -6.990840846375559e-17, 2.6796393520924674e-17, -4.154752027383384e-18, -6.32604042027812e-17], [1.0135652246390237e-06, 5.201521844355739e-07, -1.4460580359809683e-06, 1.351640719349234e-07, 1.0312444373994367e-06, -1.0784559663079563e-06, -2.1593886856408062e-07, 0.06500508636236191, 1.0220371677860385e-06, 0.10618390887975693, 1.0257406302116578e-06, -0.07734505087137222, -0.09378333389759064, -0.01587563566863537, 0.018691109493374825, -0.008019044995307922, 1.918668601774698e-07, -0.08491776883602142, 1.8282207747688517e-07, 4.907507786811038e-07, 0.05360930785536766, 0.06116285175085068, -1.113018242904218e-06, 0.014244825579226017, -0.04431198164820671, 1.4787208328925772e-06, 2.189040344546811e-07, -1.0742801350716036e-06, -8.683018108968099e-07, 2.3469436882805894e-07, 1.4728939845554123e-07, -1.3425171800918179e-06], [2.0964677105439478e-07, 1.8878068885896937e-07, 1.3335088056010136e-07, -5.9301651589294124e-08, 2.0728143113046826e-07, -2.121070963312377e-07, 1.043901605157771e-07, 0.018228035420179367, 2.1952192241769808e-07, -0.011559649370610714, 6.980614841722854e-08, -0.08604930341243744, -0.11204756051301956, -0.05993646755814552, 0.03644305840134621, -0.045590903609991074, -8.717658062096234e-08, -0.07041055709123611, -9.649124876887072e-08, -1.0628949098645535e-07, 0.11289172619581223, -0.05258442088961601, -9.467535022622542e-08, -0.022743012756109238, -0.07438318431377411, -2.1851940346095944e-07, -1.2050556108533783e-07, -2.1036474606717093e-07, -2.3043203611905483e-07, -1.1670704935795584e-07, 1.952494557144746e-07, 7.229287746213231e-08], [1.2203381018616036e-16, 3.9135251503753625e-17, -6.58762272323597e-17, 2.4343475441182376e-17, 1.2162391241413829e-16, -1.277327934390751e-16, -6.149663014369154e-17, 7.902930046488343e-12, 1.290163527566308e-16, 2.8832962493258174e-12, 6.072134353404763e-17, -7.266165100161537e-12, -5.32288362692368e-12, -1.8595633713425208e-11, 5.86331721022515e-12, 8.1133650145504e-12, 4.940515210357514e-17, -9.361893205106497e-12, 5.84323891953256e-17, 1.1939792306364379e-16, -3.5393693184615493e-12, 5.2486362478454396e-11, -7.588719052195006e-17, 6.574979709988993e-12, -3.857652391969779e-11, 8.910965276127551e-17, 7.563618421943207e-17, -1.2477875280063593e-16, -1.1059389569710709e-16, 7.229722666346992e-17, -4.3124416034574306e-17, -5.5205392189633726e-17], [2.1151479755930073e-17, 1.7906261615704883e-17, -6.76311272978379e-17, 6.018521138310506e-17, 2.3488991250970198e-17, -2.4189186404606535e-17, -5.4065110480339576e-17, -5.150718393465148e-12, 2.886073854483651e-17, -6.835470557631229e-12, 4.274380707368151e-17, 1.2338498278641197e-11, 1.2538812869944405e-11, -8.124666737996389e-12, 7.838278637262164e-13, -1.959666586989761e-12, 4.638416608380083e-17, 7.167935082291743e-12, 4.5434916773892125e-17, 6.419507197285182e-17, -1.1836470172055247e-11, 5.553904992156022e-12, -4.5474247557657796e-17, 7.949323491129867e-12, 2.586302916621208e-12, 7.726080664715562e-17, 5.1836014239464327e-17, -2.4932993828859118e-17, -1.8654974220989906e-17, 5.5111311975484395e-17, -2.375272124567048e-17, -6.010209627515574e-17], [1.2804828674214773e-16, 6.675989435458274e-17, -1.3241327251247575e-16, -2.4420416473039608e-17, 1.2753702294914096e-16, -1.3272855405731157e-16, 1.7356161692938743e-17, 9.307297987870555e-12, 1.2882554535037196e-16, -1.2425838353050112e-12, 9.471497269906965e-17, -8.40607184554587e-12, -1.0777123984895276e-11, -1.1348302506042351e-11, 3.951799824875035e-12, -5.5903281136193694e-12, -1.461229606762072e-17, -1.0916562792617768e-11, -1.605883643562895e-17, -3.4599416127396142e-18, 9.643357076413728e-13, 1.747202729718289e-11, -1.0758360677701431e-16, 1.1734790656553473e-12, -1.664745424845293e-11, 1.3918635971695795e-16, -1.824760431291979e-17, -1.308789517378634e-16, -1.1820846381257213e-16, -1.791738057749882e-17, 4.4253931161015466e-17, -1.2295048512354673e-16], [1.2343856138962242e-16, 7.708692004750717e-17, -1.1654072211387742e-16, -1.7706363494514093e-17, 1.227689289052587e-16, -1.265535382880399e-16, 1.8734807076268623e-17, 5.444013295718975e-12, 1.2730001254258736e-16, -1.8102081248902446e-12, 8.842050543190043e-17, -1.7076729570339455e-12, -7.533983853447168e-12, -1.061842627714249e-11, 3.3322990634215843e-12, -6.5747004195093606e-12, -1.5305590880587138e-17, -7.941618716811316e-12, -1.8522827155050884e-17, -9.947431682643233e-18, -1.885071525958848e-12, 1.4311372399655742e-11, -9.995450675254794e-17, 9.32779461310096e-13, -1.3824161433639848e-11, 1.2208768942253962e-16, -2.2935599149366097e-17, -1.2495632531709392e-16, -1.198521312467191e-16, -2.1174779779424467e-17, 5.4562719175794326e-17, -1.0950907148480095e-16], [2.1182530461764088e-17, 1.6882334440094893e-17, -6.699182918089771e-17, 5.876418788263287e-17, 2.3494219032441533e-17, -2.4251933017152357e-17, -5.361563046164561e-17, -4.719417998760855e-12, 2.856819123195611e-17, -6.667803462145905e-12, 4.2384201882902654e-17, 1.1564904416061506e-11, 1.1806541855285957e-11, -8.086087355252403e-12, 7.724341999360007e-13, -1.8003955531281646e-12, 4.5921447866583564e-17, 6.698556639928022e-12, 4.526435874902859e-17, 6.430582814815022e-17, -1.1108710305796077e-11, 5.614955982807812e-12, -4.5111098725134766e-17, 8.051875138859188e-12, 2.4434703392584023e-12, 7.637788729620632e-17, 5.183587196439897e-17, -2.4979724570384688e-17, -1.8301716814231784e-17, 5.4892277858002803e-17, -2.4587396114573238e-17, -5.954329275798431e-17], [3.558511473740669e-17, 4.0441502039872864e-17, -5.291241113568978e-17, 4.260782519842269e-17, 3.655988422357388e-17, -3.683136159189133e-17, -2.7041586398097642e-17, -6.476633465646309e-12, 4.450001077580509e-17, -3.941340743357502e-12, 3.7653201926409716e-17, 1.5211099740897183e-11, 1.2349348973983432e-11, -6.841386398365179e-12, 1.435948690682587e-12, -2.9286371504982922e-12, 2.4497072954766122e-17, 7.019353414489116e-12, 1.9526481788208425e-17, 2.88262682743502e-17, -1.414885656553233e-11, 6.50485785028132e-12, -4.115993818037722e-17, 3.4571403899341657e-12, 1.4484332515937032e-13, 6.131619889103657e-17, 1.916108302441925e-17, -3.685025108835959e-17, -4.059528815063627e-17, 2.4037382218590803e-17, 1.345989037208838e-17, -4.7920333125540406e-17], [9.337075126411177e-17, 3.180006860326204e-17, -4.321619999534319e-17, 8.426210140211263e-18, 9.241879872796125e-17, -9.680970502996423e-17, -3.742253764951563e-17, 1.127247600818393e-11, 9.91365905628555e-17, 5.505519217602339e-12, 3.8868171427572503e-17, -1.3079415155103913e-11, -1.1284536673150658e-11, -1.3147099728327838e-11, 3.672087373757238e-12, 7.675068046386624e-12, 2.9866001217104856e-17, -1.1592021613437975e-11, 3.653453940960525e-17, 8.069335472634447e-17, 3.733811437117707e-12, 4.078839696552983e-11, -5.0180177324145477e-17, 3.3993023240003195e-12, -3.143594759502655e-11, 6.079908527673782e-17, 4.853986493456302e-17, -9.41121565558655e-17, -8.732740941346876e-17, 4.555244259532366e-17, -2.6185624863311444e-17, -3.392386475215929e-17], [1.4094465453167007e-16, 6.940048648042352e-17, -1.8285291985116687e-16, -2.884515446209601e-17, 1.408875195123998e-16, -1.4694191249602654e-16, 2.0554563064854657e-17, 1.0467735185593074e-11, 1.3955096769608153e-16, -7.560019450736366e-12, 1.1801535353548795e-16, -7.919080322049687e-12, -8.234704584886288e-12, -1.4983361773523995e-11, 4.352922102629497e-12, -7.0703729329602005e-12, -1.7217218511086986e-17, -9.864976023565841e-12, -1.9224761042334808e-17, -8.73928063126972e-18, -1.1743416569037768e-12, 1.7542229821532196e-11, -1.321347839612863e-16, 9.126542403758986e-12, -1.5074380979585023e-11, 1.9205299467754905e-16, -2.19809864003656e-17, -1.4520791693898878e-16, -1.255973836743776e-16, -2.1571563430015128e-17, 4.760791031690158e-17, -1.6844889958998087e-16], [5.067035462897705e-17, 3.959549148785568e-17, -4.6520773307602735e-17, -1.3111516846461924e-18, 5.025474600200591e-17, -5.1027015056775215e-17, 6.90810789586923e-18, -3.0806073295606973e-13, 5.489156648267601e-17, -8.411808576080926e-13, 3.529528719438036e-17, 4.895114695535607e-12, 5.487623701803945e-13, -4.946695397051171e-12, 1.4317501177696368e-12, -2.8665672266448006e-12, -5.3492355734956834e-18, -7.740862529963255e-13, -7.88475673638814e-18, -6.500754531411366e-18, -5.094148193551806e-12, 6.445448775399543e-12, -4.0093027391416525e-17, 5.811338823352719e-13, -4.82242934821131e-12, 4.996227809846431e-17, -1.098824161455543e-17, -5.0531001165541467e-17, -5.338332505841622e-17, -9.1866728460976e-18, 2.8554565912906134e-17, -4.3884389876718626e-17], [1.4403500130016818e-16, 4.051051537273939e-17, -1.683683255808733e-16, -4.773378073635255e-18, 1.4418472760848518e-16, -1.5238665351586698e-16, -4.0027660270690134e-17, 2.2956386791506134e-11, 1.4302221459304806e-16, -1.5422769398393266e-12, 1.0509519603154859e-16, -2.7494789431314892e-11, -2.112976807411293e-11, -1.5993838198280486e-11, 4.594883501463087e-12, 1.1188655904548206e-11, 3.1701551392306976e-17, -2.0314951110211865e-11, 4.0122977947035845e-17, 9.62570292667706e-17, 1.4025123944161333e-11, 4.695356603523493e-11, -1.224071796623321e-16, 1.289373729312926e-11, -3.659807873424015e-11, 1.8871590985849372e-16, 5.5085580040989095e-17, -1.49207712395042e-16, -1.2001195577595415e-16, 5.0596017561688135e-17, -2.786126944557849e-17, -1.4753458409619833e-16], [2.1771779188561138e-17, 1.976053750561398e-17, -4.963579652813453e-17, 4.368964839946649e-17, 2.3463274205725924e-17, -2.4048181888668295e-17, -3.7496894569139246e-17, -4.7327254962259424e-12, 2.7961523735819916e-17, -4.2630838095747414e-12, 3.527379704206623e-17, 1.0055755707283343e-11, 9.664703932987795e-12, -4.6998186592484e-12, 5.68897359776166e-13, -3.98029835002936e-13, 3.2199768892692565e-17, 5.586379449307177e-12, 3.129994197002268e-17, 4.346190241577349e-17, -9.271244362507591e-12, 2.9682090119109716e-12, -3.771143544153345e-17, 5.045559456351434e-12, 2.6971671424069754e-12, 5.554382817417612e-17, 3.5534388713522486e-17, -2.4463524163482197e-17, -2.0701801213889096e-17, 3.7972682240034847e-17, -1.2905349316613442e-17, -4.527140963656999e-17], [1.388890908571411e-16, 6.736732947432739e-17, -1.8138797636889055e-16, -2.7651838895008638e-17, 1.388737251500823e-16, -1.4493106951413463e-16, 1.8631483945954625e-17, 1.0637503031207807e-11, 1.3750486696776016e-16, -7.296501076947681e-12, 1.1666424334038874e-16, -8.40833999649071e-12, -8.592439260102225e-12, -1.4838529710514692e-11, 4.297522407381571e-12, -6.8118852572518485e-12, -1.5661111453501204e-17, -1.0094437438712411e-11, -1.734746140725591e-17, -5.862500729994531e-18, -7.725602384385521e-13, 1.777466888952528e-11, -1.3073921777134604e-16, 8.872586693131623e-12, -1.5267457437184717e-11, 1.9062686912705863e-16, -1.9618795144569343e-17, -1.4322489369545825e-16, -1.2339965081360792e-16, -1.9334612282043075e-17, 4.482818641202938e-17, -1.6693196946056683e-16], [1.5019324846406217e-16, 7.220106857162186e-17, -1.9791839343481966e-16, -3.059130626541585e-17, 1.5020825682909633e-16, -1.569247781145697e-16, 2.0782553894008972e-17, 1.1737427869917827e-11, 1.4831487349418695e-16, -7.682055512547858e-12, 1.2686743016944663e-16, -9.61575871011311e-12, -9.440334798604955e-12, -1.599459974188644e-11, 4.708572941269917e-12, -7.442256012846205e-12, -1.7451103829286355e-17, -1.1074550131107141e-11, -1.9325309808874303e-17, -7.115205797111681e-18, -7.914515397222655e-13, 1.932314204478036e-11, -1.4210499702517986e-16, 9.421767185879837e-12, -1.665332281797216e-11, 2.0796352920987582e-16, -2.1816584253620685e-17, -1.5504698547984572e-16, -1.3297112311758152e-16, -2.154959682166817e-17, 4.86682400569088e-17, -1.8206822323487456e-16], [1.9356939541137106e-17, 1.4548541949088806e-17, -6.016797293913946e-17, 5.180365493390125e-17, 2.1419082610258328e-17, -2.2151804159941475e-17, -4.795045573472714e-17, -4.011329896719262e-12, 2.5760912286518543e-17, -5.801636081270711e-12, 3.8223658764050786e-17, 9.976196084504618e-12, 1.0246728812668415e-11, -6.864591794303321e-12, 5.500027516758266e-13, -1.2196791970495169e-12, 4.1009603067129383e-17, 5.795281789178208e-12, 4.0656320844952885e-17, 5.795920218027586e-17, -9.690255542427195e-12, 4.90259005267446e-12, -4.068866029818126e-17, 7.1757595525301365e-12, 2.235607749270785e-12, 6.8473455241768e-17, 4.673951625750871e-17, -2.2788703453105255e-17, -1.643538228535289e-17, 4.930632718143221e-17, -2.2824088585349048e-17, -5.351627614391064e-17], [5.915896039709878e-08, -2.6409199449517473e-07, -1.2775038840118214e-06, -4.391490620037075e-07, 6.248080808290979e-08, -8.582971133819228e-08, 2.716294318361179e-07, 0.14846563339233398, -4.977655976290407e-08, -0.002945201238617301, 3.31199373704294e-07, -0.2308594286441803, -0.08083529025316238, -0.0027586091309785843, 0.0037649874575436115, 0.07926437258720398, -2.4649784791108686e-07, -0.07599522173404694, -2.1783860404411826e-07, -3.3782924901970546e-07, 0.10609082877635956, 0.12508752942085266, -3.387137894605985e-07, 0.12473716586828232, -0.020251460373401642, 1.3461318530971766e-06, -2.1742458500284556e-07, -8.538602003227425e-08, 1.0765774050014443e-07, -2.5595073793738266e-07, -7.405784430147833e-08, -1.0806573982335976e-06], [1.4551904272842712e-16, 7.50001220330482e-17, -1.8598678293733017e-16, -2.2408195408247187e-17, 1.4559241695748302e-16, -1.5136961840912078e-16, 1.5059780926677205e-17, 9.498301450916458e-12, 1.4592174072039754e-16, -7.980307387134289e-12, 1.2230500631306955e-16, -5.880723425583101e-12, -7.87675046715064e-12, -1.5535647421294208e-11, 4.2481187838283585e-12, -7.480676668392139e-12, -1.2618376373881033e-17, -9.520024525644377e-12, -1.4451907401207912e-17, -1.2903791115134545e-18, -1.961272724088081e-12, 1.7833561016811217e-11, -1.3678061409318833e-16, 9.10184688035498e-12, -1.5260291294505457e-11, 1.9551706826424352e-16, -1.6757843757905662e-17, -1.497898754927119e-16, -1.3141657943135346e-16, -1.5979450257881012e-17, 4.691600020428057e-17, -1.7170460307165079e-16], [-4.820184358322877e-07, 9.59438537506685e-08, 2.10978737413825e-06, -2.9737142881458567e-07, -5.281389690026117e-07, 5.702784164896002e-07, 5.244530711934203e-07, 0.03505658730864525, -4.2357194729447656e-07, 0.20090125501155853, -1.1642641766229644e-06, -0.09096362441778183, -0.1273009479045868, -0.05925309658050537, -0.03134606033563614, 0.018821874633431435, -4.306981793433806e-07, -0.047784630209207535, -4.948294645146234e-07, -8.027807893995487e-07, 0.11907731741666794, 0.16060344874858856, 1.2291154689592076e-06, -0.07055989652872086, -0.10403836518526077, -2.11950850825815e-06, -6.137027526165184e-07, 5.932431577093666e-07, 1.5823698618078197e-07, -5.907379545533331e-07, 5.216087402004632e-07, 1.971265646716347e-06], [7.402576944590973e-17, 3.018693075116318e-17, -1.0136770843314783e-16, 5.413171258172051e-18, 7.42857357688229e-17, -7.802446640610948e-17, -1.910030344737008e-17, 9.972959090498446e-12, 7.624717952453314e-17, -2.4003000108352435e-12, 6.042326734595293e-17, -1.1134784067001746e-11, -8.980203733410796e-12, -9.442981119267557e-12, 2.00566971884919e-12, 8.55760286851831e-13, 1.5795008833616388e-17, -9.043284350529479e-12, 1.7722129556989354e-17, 4.102564375356801e-17, 4.283462907289648e-12, 1.7981288333301926e-11, -6.981359371322231e-17, 5.4006465098621614e-12, -1.3897222782277563e-11, 1.1096397630316331e-16, 2.2986813209811705e-17, -7.677574131850963e-17, -6.545521877034981e-17, 2.242074539250084e-17, -3.421128644037401e-18, -8.974467600881002e-17], [1.2271327705093427e-06, 8.119002927742258e-07, -1.2875523225375218e-06, -4.039358998397802e-07, 1.216752366417495e-06, -1.2651569250010652e-06, 4.586462978295458e-07, 0.10544714331626892, 1.2230510719746235e-06, 0.0262118149548769, 8.966110272012884e-07, -0.06326933205127716, -0.08503734320402145, -0.08840964734554291, 0.04336303099989891, -0.07774266600608826, -3.743074614703801e-07, -0.08902131021022797, -4.3820401174343715e-07, -4.5737249365629395e-07, -0.018595727160573006, 0.13518477976322174, -9.966778407033416e-07, -0.02736469730734825, -0.1002194881439209, 1.3617511740449117e-06, -5.23771632288117e-07, -1.2389075436658459e-06, -1.1830475159513298e-06, -5.062523769083782e-07, 8.000745310710045e-07, -1.179632931780361e-06], [8.012270882318262e-07, 6.612647212023148e-07, -4.22601459604266e-07, -2.590722658624145e-07, 7.854745263102814e-07, -8.112914429148077e-07, 3.5762798233918147e-07, 0.019188281148672104, 8.213278874791285e-07, 0.06683576852083206, 4.2949801581926295e-07, -0.04256436601281166, -0.13241882622241974, 0.06585150212049484, 0.01923489198088646, 0.07270262390375137, -2.8214665803716343e-07, -0.08246474713087082, -3.452051657859556e-07, -3.6273684145271545e-07, 0.02440245822072029, 0.019270911812782288, -4.991572950530099e-07, -0.09506215900182724, -0.06245217099785805, 4.129313140310842e-07, -4.281507131054241e-07, -7.881038754931069e-07, -8.533575623914658e-07, -4.0271839907290996e-07, 6.990808856244257e-07, -4.103429489532573e-07], [-7.778041322126228e-09, -9.131214255830855e-07, -2.1099117475387175e-06, 5.783102778877947e-07, 7.087325570864778e-08, -1.2639630142530223e-07, -1.2163907285867026e-06, -0.14689181745052338, -1.6191684437671938e-07, 0.005803635809570551, 1.1864647149195662e-06, -0.12880472838878632, 0.2153426706790924, -0.06816459447145462, -0.05962558090686798, 0.06952252238988876, 9.995727623390849e-07, 0.07533234357833862, 1.1462111615401227e-06, 2.0250847683200845e-06, 0.0016816587885841727, -0.0842004120349884, -1.207488708132587e-06, 0.2754805386066437, 0.1610635668039322, 2.109250772264204e-06, 1.487490067120234e-06, -1.6404038660766673e-07, 6.274261181715701e-07, 1.399876737195882e-06, -1.607396939107275e-06, -1.9715316739166155e-06], [2.2127623822143505e-07, 5.8711417949552924e-08, -6.187669328028278e-07, -1.330743089056341e-07, 2.2679716948914574e-07, -2.440312982798787e-07, 1.238073394915773e-07, -0.020479407161474228, 1.8073856722367054e-07, -0.10765110701322556, 3.2255226756205957e-07, 0.07695756107568741, 0.0657750591635704, -0.02653425931930542, 0.03630415350198746, -0.04072437807917595, -1.0591606525167663e-07, 0.024235790595412254, -1.1710559277844368e-07, -1.6577733674694173e-07, -0.05069845914840698, -0.027224216610193253, -3.5760959349318e-07, 0.008910279721021652, 0.020495429635047913, 5.979865136396256e-07, -1.3848146807049488e-07, -2.449550891014951e-07, -1.3891077799144114e-07, -1.3793516018267837e-07, 1.2499198476234596e-07, -5.950710715296736e-07], [6.158047654025722e-07, 5.483716449816711e-07, -5.542912617784168e-07, -2.478954996831817e-08, 6.155610208224971e-07, -6.356563062581699e-07, 1.3533066578474973e-07, 0.03646005690097809, 6.412484481188585e-07, 0.007522599305957556, 5.170921895114589e-07, 0.2038453370332718, -0.03382304310798645, -0.10856147855520248, 0.020831258967518806, 0.016981353983283043, -1.0149221196797953e-07, -0.018801357597112656, -1.4823775984496024e-07, -1.4454352026405104e-07, -0.04203583300113678, -0.04367421939969063, -5.767765287600923e-07, 0.006850406527519226, 0.07643958926200867, 5.075789886177517e-07, -1.9284367169802863e-07, -6.303691861830885e-07, -6.387892881321022e-07, -1.6695156546120415e-07, 4.7150049908850633e-07, -5.694463425243157e-07], [1.3261341382476664e-17, 9.737857202646798e-18, -4.163323438326781e-17, 3.631967759113338e-17, 1.471776490444368e-17, -1.5231192601932894e-17, -3.3876374658831397e-17, -2.7860166430804245e-12, 1.771966621312517e-17, -3.991148123799748e-12, 2.6570973569114173e-17, 6.84399889192e-12, 7.022187952648862e-12, -4.7891161522595205e-12, 3.8252165107319214e-13, -8.264462790334715e-13, 2.892936475717636e-17, 3.969254612490314e-12, 2.8811511372222256e-17, 4.1059875796037906e-17, -6.61091537415559e-12, 3.430150911573615e-12, -2.8282976048025373e-17, 4.98228975437387e-12, 1.5441341781607942e-12, 4.7357817221779845e-17, 3.3194814230034654e-17, -1.5689209124548406e-17, -1.1124120919418291e-17, 3.492421728031152e-17, -1.666132005222685e-17, -3.704881083131927e-17], [4.0859362115952536e-07, 3.0009553597665217e-07, -2.983097147080116e-07, -1.2782467706529133e-07, 4.061198239924124e-07, -4.204870265311911e-07, 1.6493724785959785e-07, 0.018094586208462715, 4.0708886217544205e-07, -0.012856477871537209, 2.9074533358652843e-07, -0.029368111863732338, -0.03626035153865814, -0.03180880472064018, 0.024463020265102386, -0.011782974004745483, -1.360963324259501e-07, -0.03389628604054451, -1.5477354509130237e-07, -1.922605150639356e-07, 0.011782504618167877, 0.006403838749974966, -3.291300174623757e-07, 0.022641465067863464, -0.024792969226837158, 2.804692940117093e-07, -1.8588006867048534e-07, -4.132214144192403e-07, -3.9930654338604654e-07, -1.8222405628876004e-07, 2.9029365578026045e-07, -3.042808316422452e-07], [1.494145439441272e-17, 1.169210862293089e-17, -4.894698668844937e-17, 4.353817508569578e-17, 1.6663359879617405e-17, -1.7208415655008197e-17, -3.998121904237896e-17, -3.5674564431015243e-12, 2.0349126142282212e-17, -4.7737027004945976e-12, 3.1012367666984945e-17, 8.603110411564696e-12, 8.831572625989104e-12, -5.506067823901617e-12, 4.196953928056052e-13, -1.0892033802667456e-12, 3.421212396074422e-17, 5.049384521615963e-12, 3.383856588739282e-17, 4.796452773130789e-17, -8.349842518795558e-12, 3.840211568878482e-12, -3.2970496082800074e-17, 5.650027321002504e-12, 1.9481447705027577e-12, 5.584637113757862e-17, 3.8830313025297176e-17, -1.7766375447954816e-17, -1.2695300034945402e-17, 4.1028512415932345e-17, -1.9081633980944757e-17, -4.3496736645729325e-17], [2.0832800153137893e-17, 1.292910098072229e-17, -1.0048938820640433e-16, 8.876894037568737e-17, 2.4721240555129218e-17, -2.569052252511273e-17, -8.359168309616697e-17, -7.420450538753176e-12, 3.108517941322431e-17, -1.0236683896380772e-11, 6.163863389380974e-17, 1.6835758481770213e-11, 1.843278481239441e-11, -1.0988680451684552e-11, 2.0357432644994844e-13, -2.2864735278738113e-12, 7.085482219852446e-17, 1.0620483659184998e-11, 7.153548596353719e-17, 9.651541402035257e-17, -1.6761970283996064e-11, 6.6989387127736055e-12, -6.503272138323732e-17, 1.1201268211580295e-11, 4.56965411690935e-12, 1.1400418930909581e-16, 8.308425080375754e-17, -2.7211924392918237e-17, -1.3989677220552055e-17, 8.664427734150816e-17, -5.0141782908833215e-17, -8.931931326805565e-17], [-2.6955612497658876e-07, 3.6606780895453994e-07, 2.3175778096629074e-06, -2.539583476846019e-07, -2.987464426951192e-07, 3.370790295775805e-07, 4.958531576448877e-07, -0.13818131387233734, -2.1769643865354737e-07, 0.10761021822690964, -8.306847121275496e-07, 0.02756614238023758, -0.18651147186756134, 0.14157243072986603, -0.06260689347982407, 0.11749738454818726, -4.2005092382169096e-07, -0.06337368488311768, -4.5470474674402794e-07, -7.369795866907225e-07, 0.21303313970565796, -0.1966390758752823, 8.449620736428187e-07, -0.16066762804985046, 0.029195088893175125, -2.7090959520137403e-06, -5.591102762991795e-07, 3.5134121390001383e-07, -2.1588009602169222e-08, -5.507066589416354e-07, 6.374049235091661e-07, 1.924709749800968e-06], [-3.3987973324656195e-07, -6.436893613681605e-07, -8.702428431206499e-07, 5.559037390412414e-07, -3.027213040240895e-07, 2.8952217689948156e-07, -8.94388790584344e-07, 0.11610817909240723, -3.7332409874579753e-07, -0.005250546149909496, 2.692405018933641e-07, -0.15114359557628632, -0.08479517698287964, -0.0064009721390903, -0.04813843220472336, -0.048478808254003525, 7.444477887474932e-07, -0.0500456765294075, 8.251474241660617e-07, 1.3071989997115452e-06, 0.07097592204809189, -0.01660446636378765, -2.617050540720811e-07, 0.0136127769947052, -0.06275884807109833, 9.159704177363892e-07, 1.0307969660061644e-06, 2.644244716520916e-07, 5.689224735760945e-07, 1.0067333278129809e-06, -1.0617362704579136e-06, -7.248392535075254e-07], [9.706210099591131e-17, 4.1702992178685634e-17, -1.3306352911817104e-16, 4.025134893347856e-18, 9.747444722254655e-17, -1.0228549510127747e-16, -1.9171106799082168e-17, 1.21550295870132e-11, 9.925064884315921e-17, -2.9820007140662907e-12, 8.133123671007596e-17, -1.3566047590840569e-11, -1.0957974111436286e-11, -1.1834386769160599e-11, 2.5351107931642636e-12, -1.6792362110746618e-14, 1.590875940273223e-17, -1.10487487214872e-11, 1.766286868354483e-17, 4.4515823160394655e-17, 4.588098130586804e-12, 2.1719797835273447e-11, -9.288791601439722e-17, 6.463015452679022e-12, -1.6937102761960254e-11, 1.4454340635697798e-16, 2.304392341366359e-17, -1.0075606461844652e-16, -8.569765184850248e-17, 2.2593068620791563e-17, 2.237960308319368e-18, -1.1871919820998688e-16], [3.548769598182844e-07, -2.4543961529843727e-08, -9.307054824603256e-07, 5.875147053302499e-07, 3.956567695695412e-07, -4.2055216908920556e-07, -7.689297376600734e-07, -0.05191732943058014, 3.687536604957131e-07, 0.1150522232055664, 7.308780709536222e-07, 0.025471694767475128, -0.027239512652158737, -0.0005786498659290373, 0.02530311606824398, -0.008549642749130726, 6.513395192087046e-07, -0.006788162514567375, 6.992714247644471e-07, 1.2727509783871938e-06, 0.057677749544382095, -0.11388028413057327, -7.610458396811737e-07, -0.0032049017027020454, 0.05395711585879326, 8.7691819317115e-07, 8.349908853233501e-07, -4.44638118324292e-07, -1.5462720170944522e-07, 8.394828796554066e-07, -5.531278475245927e-07, -9.041847306434647e-07], [7.988322749952204e-07, 6.789498456782894e-07, -6.757912984767245e-08, -1.0713557685448905e-07, 7.891442805885163e-07, -8.102449555735802e-07, 2.6471934688743204e-07, -0.060253169387578964, 8.470348689115781e-07, -0.0836443081498146, 3.7932059626655246e-07, -0.005407875403761864, -0.058421965688467026, -0.05643918737769127, 0.07086583971977234, -0.034796494990587234, -2.125343883108144e-07, -0.0546225868165493, -2.6053118062918657e-07, -3.091672340360674e-07, 0.040986258536577225, -0.04557580500841141, -4.624630776106642e-07, -0.0023233857937157154, -0.15055696666240692, -9.6654027004206e-09, -3.3580650438125303e-07, -7.944175877128146e-07, -8.628032901469851e-07, -3.1146174706009333e-07, 6.177915565785952e-07, -1.527815243207442e-07], [1.5512859181035775e-16, 4.1948204908193304e-17, -1.961701836061358e-16, 7.415901666206345e-18, 1.559386994150677e-16, -1.649878038534916e-16, -5.558139540887583e-17, 2.1241598757715252e-11, 1.543760162716121e-16, -6.150157206424867e-12, 1.2214568470964694e-16, -2.327388802514374e-11, -1.650483742732245e-11, -1.7324808254670643e-11, 5.3021359004701285e-12, 1.1250693952857826e-11, 4.4585104499779646e-17, -1.8069688106914228e-11, 5.3997682025526704e-17, 1.178446499268366e-16, 9.518412100173457e-12, 4.931997171775393e-11, -1.4130963308770807e-16, 1.5827632607323672e-11, -3.6994157737169076e-11, 2.192866391789917e-16, 7.17929773620576e-17, -1.6195438034602693e-16, -1.2702831348986574e-16, 6.741401554809988e-17, -3.9118416723926946e-17, -1.7317629634772553e-16], [2.1325591348705135e-17, 1.7628659802132087e-17, -6.981923839372237e-17, 6.140049190417817e-17, 2.3727072029236435e-17, -2.4453861039566352e-17, -5.5460120804908206e-17, -5.2877012664265255e-12, 2.912125742439886e-17, -6.985451713598101e-12, 4.385386691211542e-17, 1.2708454948107129e-11, 1.3022922150385252e-11, -8.037654743164868e-12, 6.520264471572557e-13, -1.7425210580013228e-12, 4.7545934636686655e-17, 7.4628254964626e-12, 4.668092540036035e-17, 6.579303933251646e-17, -1.2374145111349044e-11, 5.603881941818045e-12, -4.6616871842446696e-17, 8.113099601858575e-12, 2.7758886769063684e-12, 7.98436218615708e-17, 5.335910851880312e-17, -2.5222498771446552e-17, -1.8563360659427208e-17, 5.66323052160673e-17, -2.5065236847749195e-17, -6.197450230973077e-17], [1.4484354718788162e-16, 6.954783712602127e-17, -1.8970272971182458e-16, -2.87716147969176e-17, 1.4485037639101885e-16, -1.5131965670012258e-16, 1.8906217097163087e-17, 1.1506409540451568e-11, 1.4321656894977352e-16, -7.243803647194458e-12, 1.2178895148995487e-16, -9.736871899035382e-12, -9.555226401780637e-12, -1.5351263663032633e-11, 4.544318046861839e-12, -7.011626522446246e-12, -1.589292220272429e-17, -1.0982472743725769e-11, -1.7551796525252435e-17, -4.9028483831120546e-18, -3.3182676983760373e-13, 1.888738644650889e-11, -1.3656856468879914e-16, 8.89087848482406e-12, -1.635181920423001e-11, 1.994133536471643e-16, -1.9691855044992476e-17, -1.4949052875519632e-16, -1.2835924047801866e-16, -1.947820421893738e-17, 4.5928789921700585e-17, -1.7443758134574639e-16], [1.2860801670160521e-16, 7.285272807563604e-17, -1.5624348569229143e-16, -1.9995021702576836e-17, 1.2839854810072718e-16, -1.329442562912858e-16, 1.7957207669632024e-17, 6.922940085779539e-12, 1.3022970098379297e-16, -6.9023081521180085e-12, 1.044808125946585e-16, -2.067903357230727e-12, -5.400349872147769e-12, -1.3603990330068871e-11, 3.742285127616984e-12, -7.304201514457542e-12, -1.474747226896291e-17, -7.124422579662948e-12, -1.7716865379571067e-17, -9.633323079916021e-18, -3.5100926071979233e-12, 1.4749744828290723e-11, -1.1685044500499688e-16, 7.76000791402609e-12, -1.2570672801304195e-11, 1.6434919395082106e-16, -2.155952133465758e-17, -1.3152988332293852e-16, -1.1952815437928413e-16, -2.0089153201924146e-17, 5.051151940775462e-17, -1.4473664898296016e-16], [2.1431334809491463e-17, 1.667870904306394e-17, -6.909795675191083e-17, 5.996931062578382e-17, 2.380531008029415e-17, -2.4591402977460444e-17, -5.4989785908610554e-17, -4.849493202840893e-12, 2.890842054406652e-17, -6.804419007411244e-12, 4.350418457996475e-17, 1.1906584225507277e-11, 1.2247722801228544e-11, -7.976732989412039e-12, 6.406810845738242e-13, -1.5881633031247788e-12, 4.7068294081218935e-17, 6.965105141948369e-12, 4.6488496720100916e-17, 6.590333228667183e-17, -1.1605090152744246e-11, 5.650123598155421e-12, -4.627207649335499e-17, 8.17798606611575e-12, 2.6137991510771785e-12, 7.884651849886468e-17, 5.3329439204592065e-17, -2.5342019752515564e-17, -1.82968744989259e-17, 5.638825384813966e-17, -2.5826974238959478e-17, -6.135743219021111e-17], [3.4840996293243785e-17, 3.7692969461538815e-17, -5.935764695874781e-17, 4.3277715763137534e-17, 3.593176627979296e-17, -3.632108379817472e-17, -2.896786505160703e-17, -6.216993499869039e-12, 4.331652707747852e-17, -4.8286843273848135e-12, 3.95849300457946e-17, 1.5193830568693834e-11, 1.3040611993031526e-11, -7.420486967946172e-12, 1.38298107774798e-12, -2.80845073759306e-12, 2.605013267897526e-17, 7.364501369844234e-12, 2.1358097892417243e-17, 3.1151049459763136e-17, -1.4766552564049462e-11, 6.8561584361248595e-12, -4.310202590975372e-17, 4.993444026324401e-12, 4.2357114452169775e-13, 6.869696606072472e-17, 2.1533470108445836e-17, -3.640982704301186e-17, -3.85919857472084e-17, 2.6277332723463973e-17, 1.0092613460674865e-17, -5.3334458536549037e-17], [1.254771976400961e-16, 3.874986805636517e-17, -1.455373201112421e-16, -5.204243219824326e-18, 1.2541494071847292e-16, -1.323033170480103e-16, -3.165761155816816e-17, 2.1505242031594207e-11, 1.25634772238065e-16, -6.169631862687486e-13, 8.936815662886568e-17, -2.6454801890785085e-11, -2.1059669633172184e-11, -1.4253300796573942e-11, 3.7006144676388075e-12, 8.880230752128515e-12, 2.5158807518641194e-17, -1.923270223636031e-11, 3.1857041495132244e-17, 7.91106008725059e-17, 1.443682499935317e-11, 4.0428771441725075e-11, -1.0433093408510879e-16, 1.0865618300937019e-11, -3.222969807703535e-11, 1.631442631135722e-16, 4.3966591777271695e-17, -1.2942945337198467e-16, -1.0678740904148507e-16, 4.033430274120844e-17, -1.9358650150643866e-17, -1.2677996078275282e-16], [3.200864573393858e-11, 1.8075207997014786e-11, -6.707494282220949e-11, 4.4632214590834e-12, 3.308252630174202e-11, -3.4607081089710334e-11, -4.958810597387175e-13, -2.174235305574257e-06, 3.30631320932806e-11, -1.4346421721711522e-06, 4.3313831687985527e-11, 3.3926487503777025e-06, 2.9687892038054997e-06, -9.205009519064333e-07, 4.87614033772843e-06, -1.7055357375284075e-06, -3.1172831785504507e-14, 2.453283514114446e-07, -3.226732574711233e-13, -2.1300168660115526e-12, -6.960438895475818e-06, -2.603198709039134e-06, -4.771832581851321e-11, 2.358184929107665e-06, 6.066613877919735e-07, 6.640177990790974e-11, -7.931607302370802e-13, -3.527177508400037e-11, -2.7378762451624183e-11, -3.172627904748232e-13, 7.954573631729911e-12, -6.482508974059442e-11], [1.9062501577238322e-11, 5.541669553799089e-12, -4.8449518702531336e-11, 1.3316149398423516e-11, 2.0235093114995273e-11, -2.1394917087969034e-11, -1.403016591794426e-11, -1.4785721305088373e-06, 2.0448793700000856e-11, -1.349702188235824e-06, 3.1225393798406387e-11, 2.70859050033323e-06, 1.1445030168033554e-06, -2.058419710238013e-07, 2.3792663341737352e-06, -5.76355603243428e-07, 1.13209277022297e-11, -1.8002712920406339e-07, 1.2598197658697519e-11, 1.736019661358057e-11, -3.880976237269351e-06, -1.159277644546819e-06, -3.427671341205141e-11, 1.5158162796069519e-06, -1.0242247583391872e-07, 4.942027342913491e-11, 1.502053169344375e-11, -2.210795435608759e-11, -1.4013644411559056e-11, 1.5116626700395486e-11, -9.46794986161903e-12, -4.5805418485977967e-11], [-3.9726080064417246e-11, -2.108761602837017e-11, 5.709450620616785e-11, 3.459281125439695e-11, -3.9284516611948206e-11, 4.154280391910348e-11, -3.687988803235953e-11, 1.0793797855512821e-06, -3.4348458105570856e-11, 3.2869559163373196e-06, -3.6520113322335845e-11, -1.8125215319741983e-06, -4.515824002737645e-06, 2.2432502646552166e-06, -4.9121526899398305e-06, 9.748304137247032e-07, 3.1116970111710884e-11, -1.1518521887410316e-06, 3.389741959347603e-11, 4.688572446953643e-11, 1.0990935152221937e-05, 4.128509772272082e-06, 4.177077086997549e-11, -5.443580903374823e-06, -4.97935434395913e-06, -5.318844670254563e-11, 3.992378649897432e-11, 4.1268564954233256e-11, 3.374431289948632e-11, 4.009235304858194e-11, -3.9301277510173094e-11, 5.75748962394762e-11], [-1.2220970763143768e-11, -1.35516068852648e-11, 2.146605115882494e-11, -1.5742667586193804e-11, -1.2893611525677251e-11, 1.301116506202682e-11, 1.1313148334801681e-11, 7.517913331867021e-07, -1.562743164040814e-11, 4.1481573020973883e-07, -1.6619398565675958e-11, -1.0382335631220485e-06, -1.3021530094192713e-06, 7.708597991040733e-07, -6.767976969968004e-07, 3.4065610066136287e-07, -9.655204587233346e-12, -6.830021561654576e-07, -9.430537947774376e-12, -1.2565644705309076e-11, 1.4711444009662955e-06, -3.1574336389894597e-07, 1.7716503611375778e-11, -5.57870237116731e-07, -2.7418835202297487e-07, -2.323590625463723e-11, -1.050575425265432e-11, 1.3112230051737228e-11, 1.325282852210341e-11, -1.1249865622398048e-11, 5.607087602381433e-13, 1.9975188170207048e-11], [3.167860765374009e-11, 1.785789918717917e-11, -6.61362145604194e-11, 3.03397563149177e-12, 3.269152656915075e-11, -3.421244537671342e-11, 9.015631123598933e-13, -2.180976025556447e-06, 3.25033645831585e-11, -1.427946813237213e-06, 4.253027097167461e-11, 3.355328544785152e-06, 2.9932170946267433e-06, -9.375057743454818e-07, 4.8922101996140555e-06, -1.7331799426756334e-06, -1.1963454315741529e-12, 2.680170041458041e-07, -1.5793578467607206e-12, -3.8605984728490306e-12, -7.022415957180783e-06, -2.6731195248430595e-06, -4.689937327384541e-11, 2.3606921786267776e-06, 7.161214057305187e-07, 6.530168072949039e-11, -2.271346956003728e-12, -3.485456367968709e-11, -2.708383170513251e-11, -1.8128417603874292e-12, 8.961200705093209e-12, -6.400580065957229e-11], [-3.3091997891920855e-11, -1.8876164520342797e-11, 6.840154137544019e-11, -2.555811682083964e-12, -3.411900276195645e-11, 3.569240042411437e-11, -1.6491872971424737e-12, 2.267064473926439e-06, -3.390177027995378e-11, 1.4527655594065436e-06, -4.406327386297093e-11, -3.4901011076726718e-06, -3.1716258490632754e-06, 1.0263896683682106e-06, -5.122641596244648e-06, 1.826122797865537e-06, 1.8339303600040102e-12, -3.1725025451123656e-07, 2.296549018662719e-12, 4.931874787034163e-12, 7.2990578701137565e-06, 2.788117853924632e-06, 4.858715513256229e-11, -2.45822570832388e-06, -7.526804779445229e-07, -6.746346536967707e-11, 3.147872370753979e-12, 3.634288703313615e-11, 2.8392123721521223e-11, 2.6694620906125843e-12, -1.0046983210665328e-11, 6.626125342856781e-11], [1.2314545216884909e-11, 1.0481739608214635e-11, -2.5502801259680297e-11, 1.877645781911408e-11, 1.3144459479197401e-11, -1.3434897291886294e-11, -1.681569640477054e-11, -6.006125090607384e-07, 1.557218069769828e-11, -7.605390806020296e-07, 1.84304169148497e-11, 1.2360505934339017e-06, 9.85506403594627e-07, -1.0950471960313735e-06, 8.413733780798793e-07, -4.232836090523051e-07, 1.4197422751327515e-11, 5.444860562420217e-07, 1.4694643071799796e-11, 2.159136931745298e-11, -1.3047289257883676e-06, 6.898072797412169e-07, -1.9726631786398663e-11, 9.915100918078679e-07, 1.2085845924048044e-07, 2.7845196634568303e-11, 1.7006377209249912e-11, -1.365964806543385e-11, -1.2011569690273394e-11, 1.7574483535121033e-11, -6.573595400655163e-12, -2.3373558297179464e-11], [3.1565123208565637e-06, 1.0342502037019585e-06, -9.981133189285174e-06, -1.4691021306134644e-06, 3.2686193662812e-06, -3.456913418631302e-06, 1.619278464204399e-06, 0.2644854187965393, 2.7168437100044684e-06, -0.05539824441075325, 5.309826974553289e-06, -0.22880566120147705, -0.15115103125572205, -0.18362562358379364, -0.02972792088985443, -7.466829265467823e-05, -1.302092641708441e-06, -0.05339925363659859, -1.6176844610527041e-06, -2.4660309918544954e-06, -0.14557798206806183, -0.07035369426012039, -5.423238235380268e-06, 0.17625541985034943, 0.06925570964813232, 9.91457091004122e-06, -1.7746692719811108e-06, -3.489786649879534e-06, -1.9798981156782247e-06, -1.7093166206905153e-06, 1.6679231293892371e-06, -9.201287866744678e-06], [3.098698728165594e-11, 1.6240991190796805e-11, -6.639540306441205e-11, 3.724739700700086e-12, 3.203954462849268e-11, -3.3603033550155814e-11, -4.901195009739123e-13, -2.103927045027376e-06, 3.1706789971330807e-11, -1.5165671811701031e-06, 4.2385133597333535e-11, 3.480928853605292e-06, 2.7085814053862123e-06, -7.495299882975814e-07, 4.894919129583286e-06, -1.6666575675117201e-06, -6.705569530630201e-14, 6.793187168341319e-08, -2.293036908355278e-13, -1.7111479334169788e-12, -6.78649530527764e-06, -2.595312480480061e-06, -4.679083856484745e-11, 2.357496441618423e-06, 4.5352325628300605e-07, 6.557841769616601e-11, -6.029019514533496e-13, -3.4303736934360174e-11, -2.5992373184346995e-11, -1.9493354684336356e-13, 6.92057218823483e-12, -6.418331144342204e-11], [1.4552534821632435e-06, 1.4283669997894322e-06, 3.488567472231807e-06, 9.592808964953292e-07, 1.367678692076879e-06, -1.4527025768984458e-06, -9.840024404184078e-07, -0.02925495058298111, 1.5481300579267554e-06, 0.41612568497657776, -6.415171469598135e-07, 0.11359811574220657, -0.06672247499227524, 0.33443474769592285, -0.0022650964092463255, 0.40531468391418457, 1.0094262279380928e-06, -0.037498604506254196, 6.970636263758934e-07, 2.0223505998728797e-06, -0.2909248471260071, 0.1779661923646927, 5.099972781863471e-07, 0.04350128397345543, 0.0647839829325676, -3.6564840684150113e-06, 8.442608532277518e-07, -1.3424299822872854e-06, -1.8205395235781907e-06, 9.944604926204192e-07, 6.714216738146206e-07, 2.9288189580256585e-06], [2.552355202189993e-11, 1.3830043013585147e-11, -4.598496583518852e-11, -1.6619153969665845e-11, 2.555625329414557e-11, -2.696365700161074e-11, 1.916509312360759e-11, -1.5966819546520128e-06, 2.307761967634825e-11, -1.5893565432634205e-06, 2.7790018550244433e-11, 1.8250285620524664e-06, 3.0626713396486593e-06, -9.180378697237757e-07, 3.890515017701546e-06, -1.1256713605689583e-06, -1.6288945886566708e-11, 6.117236921454605e-07, -1.7867268428672922e-11, -2.548691119264035e-11, -7.633999302925076e-06, -3.158927711410797e-06, -3.132823861440315e-11, 2.611920535855461e-06, 2.563094767538132e-06, 4.360814487291975e-11, -2.1288941096098135e-11, -2.708041256516136e-11, -2.1698092975142025e-11, -2.1162087707193855e-11, 2.178579712464046e-11, -4.5488359606826734e-11], [2.7124981443193974e-06, 2.0364529973448953e-06, -1.944659516084357e-06, 2.0151425417225255e-07, 2.7203418540011626e-06, -2.7556729946809355e-06, 3.7544900521879754e-08, -0.10289648920297623, 2.9802786229993217e-06, -0.04453236982226372, 1.941183882081532e-06, 0.47374898195266724, 0.08476053923368454, 0.22460369765758514, 0.008220295421779156, -0.06729430705308914, -9.955886781654044e-09, -0.009582516737282276, -5.484826459678516e-08, 1.5791101759532467e-07, -0.1756954789161682, -0.04394681006669998, -2.1211776584095787e-06, 0.017623985186219215, -0.13864979147911072, 2.0291493001423078e-06, -1.0408117390170446e-07, -2.724773821682902e-06, -2.792802433759789e-06, -6.470668267866131e-08, 9.896961046251818e-07, -1.9213812265661545e-06], [9.913077292367234e-08, -2.244475041379701e-07, -7.276514679688262e-07, 1.771900315361563e-07, 1.260331004004911e-07, -1.4085978250477638e-07, -2.898514708249422e-07, -0.04444599151611328, 6.603201541111048e-08, -0.0077638644725084305, 4.402967022087978e-07, 0.24448329210281372, 0.3241574168205261, -0.013249344192445278, 0.042665839195251465, -0.2072761207818985, 2.219362471578279e-07, 0.12211472541093826, 2.6255295892951835e-07, 2.9202703899500193e-07, -0.20414063334465027, 0.012230024673044682, -4.473049841635657e-07, 0.007882749661803246, 0.11120431870222092, 8.384928378291079e-07, 3.3476609928584367e-07, -1.6087356868865754e-07, 1.0119526905327803e-07, 3.167079967170139e-07, -4.353004499080271e-07, -6.78889591654297e-07], [2.9101395284669707e-06, 1.4476510159511236e-06, -1.6457627225463511e-06, -6.3467644473291784e-09, 2.92873255602899e-06, -3.0683040677104145e-06, 2.636761564644985e-08, -0.07013098895549774, 2.8144431780674495e-06, 0.22118635475635529, 1.5912693243080867e-06, -0.1118437647819519, 0.04572806879878044, 0.9092238545417786, 1.0424766540527344, 0.3189595639705658, -4.005375942028877e-08, -0.12158321589231491, -2.6957422960549593e-08, 1.425599862159288e-06, -0.09628470242023468, 0.13154684007167816, -1.937098431881168e-06, 0.3040067255496979, -0.04500769078731537, 1.316747443524946e-06, -8.092148107152752e-08, -3.1219724405673333e-06, -2.598504352135933e-06, -8.9606281505894e-08, 1.088516114577942e-06, -2.153006334992824e-06], [-5.743253495893441e-06, -1.9110589164483827e-06, 5.076560228189919e-06, 1.770560857039527e-06, -5.768095434177667e-06, 6.145792212919332e-06, -1.9977858300990192e-06, 0.045355767011642456, -5.434209015220404e-06, -0.07548271119594574, -4.1677362787595484e-06, 0.046337373554706573, -0.13719797134399414, -0.25308021903038025, -0.17010486125946045, -0.658405601978302, 1.7553662701175199e-06, 0.12163668870925903, 1.8109894881490618e-06, 2.291042164870305e-06, 0.02260028012096882, 0.043060578405857086, 4.852474376093596e-06, -0.13496936857700348, 0.19744741916656494, -5.41110193807981e-06, 2.247514430564479e-06, 6.143993232399225e-06, 4.736407845484791e-06, 2.2365125005308073e-06, -2.2737583549314877e-06, 5.089002115710173e-06], [-3.2563384593231604e-06, -1.87596776868304e-06, 2.437978992020362e-06, 3.6390684954312746e-07, -3.1909148674458265e-06, 3.3568267099326476e-06, -1.1911137676179351e-07, -0.06154298037290573, -3.2335526611859677e-06, 0.3066185414791107, -2.1581693090411136e-06, -0.07848053425550461, -0.011176389642059803, 0.4534148573875427, 0.8268594741821289, 0.3374415338039398, -1.67966951458709e-09, 0.0315326526761055, 2.2376537955892672e-08, 5.607533353213512e-07, -0.09788967669010162, 0.2506604492664337, 2.304296913280268e-06, 0.3558085262775421, 0.10073556005954742, -2.8089270927011967e-06, -1.1988075243607454e-07, 3.1692852644482628e-06, 3.0662197332276264e-06, -3.782717428180149e-08, -5.775657996309747e-07, 1.8376736079517286e-06], [-1.0026029485799004e-11, -9.172882939334492e-12, 2.023833184372492e-11, -1.5564710978410723e-11, -1.06908345023915e-11, 1.0893002645728789e-11, 1.361098473512401e-11, 5.098563065075723e-07, -1.2793615125628044e-11, 5.815417694066127e-07, -1.4803491765746912e-11, -1.0319110970158363e-06, -8.360013339370198e-07, 9.455669669478084e-07, -6.953579259061371e-07, 4.087160050403327e-07, -1.1529189061776357e-11, -4.866578819928691e-07, -1.1822602792588288e-11, -1.7391648884923505e-11, 1.0669047014744137e-06, -5.75555588966381e-07, 1.5821382398639727e-11, -7.670049626540276e-07, -1.6209118314236548e-07, -2.2146848591142465e-11, -1.3617766636553341e-11, 1.1059676612024116e-11, 1.0042315937153212e-11, -1.4144151995465482e-11, 4.7267398328720844e-12, 1.85557524207125e-11], [-9.363473054690985e-07, -7.130340691219317e-07, 5.847182933393924e-07, 2.221938757429598e-07, -9.310399491369026e-07, 9.623224741517333e-07, -3.113831894552277e-07, -0.02498144842684269, -9.501281397206185e-07, -0.012019806541502476, -6.368943559209583e-07, 0.0379161573946476, 0.08748430758714676, 0.053428638726472855, -0.05214081332087517, 0.024596411734819412, 2.5516735036035243e-07, 0.08226313441991806, 2.964229963708931e-07, 3.309645819626894e-07, -0.02097012661397457, -0.007249157875776291, 7.246666200444452e-07, -0.013243612833321095, 0.06231234595179558, -5.3450304449143e-07, 3.590971573430579e-07, 9.462652883485134e-07, 9.356407986160775e-07, 3.4659777270462655e-07, -6.434658530451998e-07, 6.054648906683724e-07], [-1.1161371306356305e-11, -8.623022434983696e-12, 2.41813513657263e-11, -1.7641397023759886e-11, -1.1951338356464003e-11, 1.2262912907345935e-11, 1.6552014966975115e-11, 5.021985884923197e-07, -1.4045331737932987e-11, 7.901655862951884e-07, -1.7162066906495355e-11, -1.1459791267043329e-06, -8.147264338731475e-07, 1.1307320164632984e-06, -7.755010642540583e-07, 3.9617205516151444e-07, -1.3944655326281197e-11, -4.148209313825646e-07, -1.458892902317377e-11, -2.1740798397673622e-11, 1.1499357697175583e-06, -7.44170165489777e-07, 1.8383421521162013e-11, -1.0450086165292305e-06, -5.39292557277804e-08, -2.6448119735955622e-11, -1.7000231083974526e-11, 1.2496902818126543e-11, 1.0511018271042172e-11, -1.7457394904663026e-11, 7.512932116704452e-12, 2.2076665148751395e-11], [-1.6639807587370825e-11, -1.3071971456668496e-11, 3.0147696838955795e-11, -2.1771402389236805e-11, -1.7482140735047835e-11, 1.7942513794166892e-11, 2.098572357556172e-11, 3.473830361144792e-07, -2.018235231715515e-11, 1.0972263453368214e-06, -2.144277116977733e-11, -9.968071026378311e-07, -1.0274995929648867e-06, 1.7724441931932233e-06, -6.494577746707364e-07, 1.1241455410981871e-07, -1.79086537266393e-11, -5.533281068892393e-07, -1.8476697602465286e-11, -3.102836043655799e-11, 1.332838905909739e-06, -1.657863094806089e-06, 2.3018429176624444e-11, -1.9132291981804883e-06, 3.51707356571751e-08, -3.367905260232007e-11, -2.134475582393769e-11, 1.8047159253131717e-11, 1.6090358212483835e-11, -2.2091320092676447e-11, 6.984969894152648e-12, 2.7149659256875402e-11], [7.304133760044351e-07, 1.9507871229507145e-07, -2.1762361939181574e-06, -6.573071686943877e-07, 7.706725568823458e-07, -8.250048608715588e-07, 7.402516075671883e-07, -0.08313775062561035, 5.474978479469428e-07, 0.13933907449245453, 1.455367169000965e-06, -0.3889647424221039, -0.00511471601203084, 0.10985580831766129, -0.032399967312812805, 0.10780150443315506, -6.615414349653292e-07, -0.04407123848795891, -6.468544597737491e-07, -1.4282749134508776e-06, 0.29100731015205383, -0.1728920191526413, -1.6441655361632002e-06, 0.018748270347714424, 0.04343916103243828, 1.950352043422754e-06, -7.477094072783075e-07, -8.479321422782959e-07, -3.749296695332305e-07, -7.797776220286323e-07, 5.429127440947923e-07, -2.207301122325589e-06], [5.0517301133368164e-06, 3.6548749449138995e-06, -9.690360457170755e-06, 1.812495753483745e-07, 5.114560281072045e-06, -5.217085799813503e-06, -6.153367593242365e-08, 0.06771162897348404, 5.363001946534496e-06, 0.08492420613765717, 5.55836595594883e-06, 0.15053702890872955, -0.1865525245666504, -0.5314055681228638, -0.10510849207639694, -0.35319337248802185, 1.4232503531275142e-07, -0.08933062851428986, -7.545861535618315e-08, 3.7164531363487185e-07, -0.031161019578576088, 0.19418664276599884, -5.882417553948471e-06, 0.05965113267302513, -0.10990764200687408, 9.652443623053841e-06, -1.2634920665277605e-07, -5.191194304643432e-06, -4.830113994103158e-06, -9.556747393446585e-09, 1.7401312106812838e-06, -8.900909051590133e-06], [-2.7571530128445154e-11, -1.5061915256686653e-11, 4.968728900545116e-11, 1.729573081976632e-11, -2.7636564911559525e-11, 2.9139243101772294e-11, -2.016116787406652e-11, 1.8627604276844067e-06, -2.5057258351557365e-11, 1.714781319606118e-06, -3.01948570313737e-11, -2.1234957330307225e-06, -3.4216670883324696e-06, 1.013951418826764e-06, -4.370916485640919e-06, 1.3622189953821362e-06, 1.7150962941525627e-11, -6.982548939049593e-07, 1.8824004854867127e-11, 2.6874025574330496e-11, 8.149490895448253e-06, 3.4057516131724697e-06, 3.400616246929111e-11, -2.820447434714879e-06, -2.6221266580250813e-06, -4.7065143449209756e-11, 2.2455178341762583e-11, 2.9292259590141256e-11, 2.348750013925205e-11, 2.2299176394291464e-11, -2.3170932186844517e-11, 4.9207353469693516e-11], [-7.267312412295723e-06, -5.234383024799172e-06, 9.702241186460014e-06, 6.191555144141603e-07, -7.2924208325275686e-06, 7.4860104177787434e-06, -1.2803950539819198e-06, -0.04995018616318703, -7.659740731469356e-06, -0.08338259905576706, -6.556078005814925e-06, -0.216542586684227, 0.07292110472917557, -0.9990543127059937, -0.19544897973537445, -0.4967237412929535, 1.0185164001086378e-06, 0.16317668557167053, 1.2683004797509057e-06, 1.2632001471502008e-06, 0.26374098658561707, -0.1071387454867363, 7.149231350922491e-06, 0.3170681595802307, 0.21421460807323456, -1.0398449376225471e-05, 1.6284080857076333e-06, 7.384063337667612e-06, 7.15070791557082e-06, 1.4997488051449182e-06, -3.7764834814879578e-06, 8.942914973886218e-06], [1.5277616682851658e-07, -5.662679427587136e-07, -2.207403213105863e-06, 8.451705753032002e-07, 2.0925675414673606e-07, -2.6108270390068355e-07, -1.250213927050936e-06, -0.026976341381669044, 6.173485900262676e-08, -0.025475725531578064, 1.1086686981798266e-06, -0.07273093611001968, 0.11939191073179245, 0.29149654507637024, -0.1602412760257721, 0.4333440661430359, 1.150116418102698e-06, 0.0721345767378807, 1.0720438012867817e-06, 2.154112735297531e-06, -0.07285376638174057, -0.035582441836595535, -1.1877635870405356e-06, 0.27650612592697144, 0.3316708207130432, 2.0656536889873678e-06, 1.3301191756909247e-06, -2.6535099095781334e-07, 2.719707481446676e-07, 1.3588894489657832e-06, -1.056001224242209e-06, -2.142922994607943e-06], [3.810057477848794e-11, 1.943040346674696e-11, -5.521180387879632e-11, -3.7457259516315844e-11, 3.760196667923488e-11, -3.9853037536730085e-11, 3.948930765718117e-11, -5.25702432696562e-07, 3.220152616778549e-11, -3.2368413940275786e-06, 3.4917242708321083e-11, 2.030153837040416e-06, 4.51256391897914e-06, -2.263044279970927e-06, 5.388687895901967e-06, -1.0025587471318431e-06, -3.346860635855542e-11, 9.313603186456021e-07, -3.6101299033530765e-11, -5.03409848529035e-11, -1.1120578164991457e-05, -3.8009422951290617e-06, -4.0170835408082084e-11, 5.770375537395012e-06, 4.935388005833374e-06, 5.04173404414221e-11, -4.2400385286134323e-11, -3.964364947428578e-11, -3.19639315016218e-11, -4.277696599719327e-11, 3.979318263791498e-11, -5.6337035730935625e-11], [-1.2902305092377109e-11, -9.086582181128122e-12, 2.9169593823707984e-11, -2.1228458227384728e-11, -1.3873830036204016e-11, 1.427909093049129e-11, 2.0663318278657528e-11, 5.400177656156302e-07, -1.6206027839138493e-11, 9.767868505150545e-07, -2.0477425310971853e-11, -1.327621816926694e-06, -8.420106496487278e-07, 1.3639083817906794e-06, -9.82726533038658e-07, 5.133492777531501e-07, -1.735852780959668e-11, -4.1980936771324195e-07, -1.835575788589061e-11, -2.7454786707958867e-11, 1.2551981853903271e-06, -9.197211738865008e-07, 2.1940598643466203e-11, -1.2884994475825806e-06, -1.2530546378286544e-08, -3.1866089628129757e-11, -2.1533682822982847e-11, 1.459195611563935e-11, 1.1749336746580408e-11, -2.1972009281445715e-11, 1.0562798032076604e-11, 2.659802933457911e-11], [-3.219995450831625e-11, -1.841037565453174e-11, 6.643878502909928e-11, -1.5506484984939561e-12, -3.3167388974186807e-11, 3.4705523177525066e-11, -2.597499906137335e-12, 2.220512214989867e-06, -3.284484142995758e-11, 1.4034111472938093e-06, -4.268804060236775e-11, -3.3809221804403933e-06, -3.118363338217023e-06, 1.0519776196815656e-06, -5.079858510725899e-06, 1.8636925460668863e-06, 2.616167482302756e-12, -3.169952833559364e-07, 3.1418223057910755e-12, 6.073660671623848e-12, 7.2549751166661736e-06, 2.818934717652155e-06, 4.7101617745015645e-11, -2.417007863186882e-06, -8.561181630284409e-07, -6.537858449062739e-11, 4.1377244512641465e-12, 3.533183814963259e-11, 2.763475212552713e-11, 3.6752632187608825e-12, -1.0605803561769545e-11, 6.44396827564897e-11], [-2.9792779354664845e-11, -1.4822755869947635e-11, 6.598269847168936e-11, -1.061038062966091e-11, -3.107940640956208e-11, 3.2579310776936765e-11, 8.092847572638284e-12, 1.980899696718552e-06, -3.1421396734510054e-11, 1.5332835801018518e-06, -4.2873954386735136e-11, -3.492966243356932e-06, -2.2863141566631384e-06, 6.21341712303547e-07, -4.368417648947798e-06, 1.4027425550011685e-06, -6.302042221406623e-12, 3.379958357641044e-08, -6.7284905945486084e-12, -8.240193249964278e-12, 5.990393219690304e-06, 2.0962261260137893e-06, 4.713875817463631e-11, -2.201915776822716e-06, -1.9337369039362784e-08, -6.608090463711136e-11, -7.683964575733171e-12, 3.336146636723214e-11, 2.4632179976280533e-11, -8.10255942201854e-12, -1.788792096217573e-13, 6.328253199239242e-11], [-1.2806136359677645e-11, -9.967087051532264e-12, 2.769967415161556e-11, -2.0402119230156224e-11, -1.3722877868771466e-11, 1.4074005849629145e-11, 1.9125034889100334e-11, 5.954154858045513e-07, -1.614706458819004e-11, 8.812482406028721e-07, -1.975677260679376e-11, -1.3356516319618095e-06, -9.489413059782237e-07, 1.289747729060764e-06, -9.530712645755557e-07, 5.099756208437611e-07, -1.6104586414433797e-11, -5.071228201813938e-07, -1.6864403970529018e-11, -2.5073837103817276e-11, 1.308298465119151e-06, -8.39195195112552e-07, 2.115443237249437e-11, -1.1647498467937112e-06, -8.206342272387701e-08, -3.0253986815775846e-11, -1.9667404857481863e-11, 1.4348231804073297e-11, 1.2073491512110124e-11, -2.017989421398969e-11, 8.728178770012196e-12, 2.532852573511324e-11], [1.7154581574696515e-11, 6.181369218566379e-12, -4.741728190649219e-11, 2.635366577741216e-11, 1.8694219783288446e-11, -1.9583402607881162e-11, -2.7631693808038982e-11, -1.1884148989338428e-06, 2.0570474143499773e-11, -1.4518805073748808e-06, 3.167850357033153e-11, 2.4085279619612265e-06, 1.045802719090716e-06, -1.0367157301516272e-06, 1.8068407143800869e-06, -6.588012411157251e-07, 2.279529863480345e-11, 1.6895529597604764e-07, 2.4953239127767368e-11, 3.5557320976487006e-11, -2.5783067485463107e-06, 8.500989423509964e-08, -3.4255574071773154e-11, 1.5776134887346416e-06, -1.8440898941207706e-07, 5.0158689701707004e-11, 2.970983528638449e-11, -2.0340054293632726e-11, -1.2910403648924706e-11, 2.985652350351309e-11, -1.9445079227353723e-11, -4.3893218920620924e-11], [-3.7228293364721665e-11, -2.0047545221113516e-11, 5.426399954377992e-11, 3.055920100303311e-11, -3.686392163748664e-11, 3.8950200703657956e-11, -3.288596825412604e-11, 1.3624099892695085e-06, -3.251104940815708e-11, 3.0232276913011447e-06, -3.4617968214245565e-11, -1.6773303741501877e-06, -4.2823721742024645e-06, 2.0813063201785553e-06, -4.625456313078757e-06, 1.1553134982023039e-06, 2.7693018017638238e-11, -1.1773396408898407e-06, 3.0341805457023696e-11, 4.1781394316542375e-11, 1.0407734407635871e-05, 4.065634129801765e-06, 3.9473452284610744e-11, -4.839526809519157e-06, -4.695134975918336e-06, -5.098049760121626e-11, 3.5814188420468795e-11, 3.8705691429719025e-11, 3.175672919075723e-11, 3.5854871155427404e-11, -3.6033349914976753e-11, 5.43829599408685e-11], [1.3306028657016983e-16, 7.558722836205873e-17, -1.2682200802765012e-16, -2.5231040238451774e-17, 1.3226480351868984e-16, -1.37180903335215e-16, 2.070289474665889e-17, 9.445088808290869e-12, 1.3500913732823457e-16, 1.1764675605235864e-12, 9.464494689713336e-17, -6.8070262967956374e-12, -1.1675070632488627e-11, -1.0630155609925307e-11, 2.277009310269751e-12, -4.693356380619518e-12, -1.7154859019067838e-17, -1.1193284146782112e-11, -1.9467067059169966e-17, -8.48613937559073e-18, 4.053764702388607e-13, 1.7912933289454536e-11, -1.0724918096408157e-16, -4.284037317600631e-13, -1.6267740626796368e-11, 1.3370179491370676e-16, -2.2642497625475282e-17, -1.3508672025224714e-16, -1.2595835205880595e-16, -2.1879719641054408e-17, 5.2297700135277124e-17, -1.178992438472651e-16], [6.030365041193286e-17, 5.1219959897736884e-17, -3.7366319146364075e-17, -1.2158221175791765e-18, 5.957978796661015e-17, -6.03307819360246e-17, 9.521858010832663e-18, -6.95076808610029e-13, 6.629343066355184e-17, 1.9179577630951128e-12, 3.588656582240061e-17, 5.973931418989942e-12, -8.293535129488827e-13, -4.430713174824463e-12, 1.0185563330267211e-12, -3.182700197140731e-12, -7.326241078069885e-18, -1.565622197857719e-12, -1.059171769867711e-17, -8.535359103579472e-18, -5.441357434077254e-12, 7.626688343365107e-12, -4.1160328609626346e-17, -2.949064386789657e-12, -6.299226331524244e-12, 4.0398296742117994e-17, -1.45671568215937e-17, -5.949208696934483e-17, -6.61243681812358e-17, -1.233486931791522e-17, 3.763676088455461e-17, -3.617544045336128e-17], [9.2538104642071e-17, 3.1401728198758556e-17, -1.8926764263578904e-17, 1.5618443823144494e-17, 9.12059468091666e-17, -9.547535682279779e-17, -5.055222000261468e-17, 1.1942023758759746e-11, 9.983018481520367e-17, 1.267949634176091e-11, 2.956512915853972e-17, -1.2962717704789739e-11, -1.3104242517492093e-11, -1.1118925224984366e-11, -2.0875185260949003e-12, 1.533518624585728e-11, 4.0678767218055124e-17, -1.2738516838584069e-11, 4.9134075090674165e-17, 1.0004690613569256e-16, 3.15290393619605e-12, 4.8018203996358366e-11, -4.0624481008814494e-17, -7.627919021251095e-13, -3.4351584077274566e-11, 3.8936185526259064e-17, 6.485941711874011e-17, -9.218646685495225e-17, -8.867038015134045e-17, 6.116780268914456e-17, -3.922798175914327e-17, -1.0370235953762975e-17], [2.0740425585411647e-17, 1.9564298831453124e-17, -4.824029320392082e-17, 4.248273894619242e-17, 2.236496529507394e-17, -2.2877127406225948e-17, -3.6014679555672826e-17, -4.445924097623566e-12, 2.6848184953437844e-17, -4.418848099929651e-12, 3.387155385022144e-17, 1.0019480037315454e-11, 9.52819420585449e-12, -5.099762626081805e-12, 6.834528602783774e-13, -6.534142259380371e-13, 3.0955603224629106e-17, 5.535531234779345e-12, 2.994670426638798e-17, 4.1268441115687026e-17, -9.195461232736069e-12, 3.116951575315996e-12, -3.6135401602991265e-17, 5.312822664443884e-12, 2.7435490945054708e-12, 5.4132333794360536e-17, 3.390434659842549e-17, -2.3279876683394342e-17, -2.00119937943852e-17, 3.6341174360892406e-17, -1.1872907970958443e-17, -4.389084519421899e-17], [1.3025172384042159e-16, 7.305878869239035e-17, -1.2438089877833263e-16, -2.3807118297113192e-17, 1.2949740129622223e-16, -1.3438360349668727e-16, 1.8512502286644997e-17, 9.551146332165139e-12, 1.322315707103999e-16, 1.4504166097328852e-12, 9.263405097568225e-17, -7.206026140377242e-12, -1.1914293336634518e-11, -1.0487465063047097e-11, 2.187328009689571e-12, -4.420254960668668e-12, -1.5381580654739935e-17, -1.1330502508455353e-11, -1.7338670131705697e-17, -5.38175907441035e-18, 7.20274263409787e-13, 1.810953297043394e-11, -1.051234657561632e-16, -6.757948150734605e-13, -1.6399440833092527e-11, 1.3133350402807353e-16, -1.9971284927719015e-17, -1.3232875450620754e-16, -1.230686991592479e-16, -1.9343878359264894e-17, 4.902344133810642e-17, -1.1545368767497453e-16], [1.3911261491098763e-16, 7.690685937176663e-17, -1.3522769829840578e-16, -2.634506061765859e-17, 1.3834651331486551e-16, -1.4375526866933745e-16, 2.031881824463827e-17, 1.0605409779540498e-11, 1.4073177132922342e-16, 1.7682451640063657e-12, 9.986238530208913e-17, -8.436355780627736e-12, -1.3027839224077908e-11, -1.1087094783923668e-11, 2.438263133064389e-12, -4.671961168628558e-12, -1.6892755261451836e-17, -1.2386233531891389e-11, -1.8965171913780966e-17, -6.296436784207705e-18, 1.0242494786344425e-12, 1.9448612859074288e-11, -1.1325772828943816e-16, -8.860712727778997e-13, -1.7684209999146994e-11, 1.4269586868033874e-16, -2.1743072712583098e-17, -1.4153899372795677e-16, -1.3073594875356523e-16, -2.1155309602166193e-17, 5.212338340171015e-17, -1.2541505983248112e-16], [1.9290088458391796e-17, 1.5067089894569724e-17, -5.948138656094085e-17, 5.022418002401085e-17, 2.1270410130041722e-17, -2.1963274809089614e-17, -4.6117833778893454e-17, -3.662754127775614e-12, 2.5600862764156882e-17, -5.947909265807683e-12, 3.743735410864768e-17, 9.820057093878898e-12, 9.941698506099605e-12, -7.355174629075645e-12, 6.850580215947422e-13, -1.6318224983075114e-12, 3.948740214285215e-17, 5.608622507397021e-12, 3.898211390259046e-17, 5.556124528915404e-17, -9.550084681397841e-12, 5.038457932121654e-12, -3.980607512819943e-17, 7.322637288198486e-12, 2.2196972992299946e-12, 6.769835392058131e-17, 4.4732951453744924e-17, -2.2559670376379122e-17, -1.6708035904501394e-17, 4.730613166838508e-17, -2.109817127417348e-17, -5.283297863582754e-17], [3.9407512986144866e-07, 5.163679972497448e-08, -1.0323874448658898e-06, -2.6206714665022446e-07, 3.9606044310858124e-07, -4.2540881395325414e-07, 1.4409475568299968e-07, 0.07331019639968872, 3.355451951847499e-07, 0.050177767872810364, 4.623502434242255e-07, -0.11936051398515701, -0.04505017027258873, 0.11308901011943817, 0.003973393701016903, 0.1041218638420105, -1.2634575341508025e-07, -0.04761751368641853, -1.1555044210354026e-07, -1.0232464120463192e-07, 0.030906030908226967, 0.040989991277456284, -4.99566851885902e-07, -0.021979009732604027, -0.014827027916908264, 1.0883069307965343e-06, -1.1555719936495734e-07, -4.1763865965549485e-07, -2.6903074967776774e-07, -1.3305280788245e-07, 7.056438278141286e-08, -9.073055480257608e-07], [1.436108892565e-16, 8.58975714763892e-17, -1.3380641671758246e-16, -1.9041156724850087e-17, 1.429027432428158e-16, -1.4770789497814044e-16, 1.6041462334042887e-17, 8.677223002628853e-12, 1.477727724079442e-16, 9.962792309886614e-13, 1.0263741082108203e-16, -4.869933883239197e-12, -1.1871884551817313e-11, -1.1959599977018343e-11, 2.1773149689457982e-12, -5.7606328561499165e-12, -1.3184761001366504e-17, -1.1293484376839746e-11, -1.5589318793776502e-17, -1.4292930318510426e-18, -5.447438290381856e-13, 1.906793473116508e-11, -1.1605007827918037e-16, -6.774812373426531e-13, -1.7280506886541147e-11, 1.4126860492932544e-16, -1.8571045167317825e-17, -1.4564714322680953e-16, -1.3805997795067715e-16, -1.7289927686930397e-17, 5.4943169318009516e-17, -1.2477435881722205e-16], [-9.884315659292042e-07, -4.248140328400041e-07, 1.6519169321327354e-06, -1.5404569353449915e-07, -1.0144098041564575e-06, 1.0638358389769564e-06, 2.438152080230793e-07, 0.1465604603290558, -9.78864136413904e-07, 0.05796198919415474, -1.1795699492722633e-06, -0.1989763081073761, -0.18809285759925842, -0.15136630833148956, -0.02190144918859005, -0.0433230847120285, -2.0335089345735469e-07, -0.07732957601547241, -2.1577331210664852e-07, -4.0295162762049586e-07, 0.210569366812706, 0.09913336485624313, 1.281665049646108e-06, 0.055299267172813416, -0.04745500534772873, -1.6882285081010195e-06, -2.66679592186847e-07, 1.0644275789672974e-06, 7.792187943778117e-07, -2.669506784513942e-07, -7.013462699489992e-09, 1.5862115105846897e-06], [5.3797418290505166e-17, 2.623352027513949e-17, -4.2776222627526235e-17, 1.2746581097020627e-17, 5.349141440341975e-17, -5.571648392907309e-17, -2.3263331416782056e-17, 6.911124884184661e-12, 5.906330300957694e-17, 3.5814658530530785e-12, 3.094422783684528e-17, -6.763361138500956e-12, -7.491123173164471e-12, -7.469479895716447e-12, -4.791442850121674e-13, 2.3716718693111982e-12, 1.9333776829624396e-17, -7.108885962531231e-12, 2.14174993865659e-17, 4.3391317439743117e-17, 1.8609968167188073e-12, 1.7967067070245868e-11, -3.784312921249679e-17, -5.900074265957622e-13, -1.3065958037739023e-11, 5.1654904698707066e-17, 2.7135858518149086e-17, -5.4422641102142146e-17, -5.2839169255531886e-17, 2.6773821416369327e-17, -8.152673092168552e-18, -3.5991280270504926e-17], [1.1815814104920719e-06, 8.156401349879161e-07, -1.0442566917845397e-06, -3.9521370354123064e-07, 1.1687546930261306e-06, -1.2114699075027602e-06, 4.578896550810896e-07, 0.08763822168111801, 1.1886327229149174e-06, 0.11313796788454056, 8.01805015271384e-07, -0.0831523910164833, -0.09881796687841415, 0.0066878823563456535, 0.07160872220993042, 0.012278009206056595, -3.757097886136762e-07, -0.09144967794418335, -4.3206611621826596e-07, -4.639318547106086e-07, -0.02476292848587036, 0.0967618077993393, -8.957707677836879e-07, -0.06167583167552948, -0.08576907217502594, 1.0964887451336836e-06, -5.172337864678411e-07, -1.1854206150019309e-06, -1.1668756769722677e-06, -5.026437861488375e-07, 7.895649218880862e-07, -9.714481166156475e-07], [6.397336278496368e-07, 5.876158297724032e-07, -2.7934618174185744e-07, -2.79009640280492e-07, 6.204819555932772e-07, -6.386508744071762e-07, 3.953735188133578e-07, 0.05400323122739792, 6.591008627765405e-07, 0.094479039311409, 2.760403390311694e-07, -0.0586833581328392, -0.1269172579050064, 0.07064010947942734, -0.0031533637084066868, 0.053270354866981506, -3.111411785994278e-07, -0.07754191756248474, -3.820733525117248e-07, -4.520439915722818e-07, 0.02863270603120327, 0.01789189875125885, -3.296407271591306e-07, -0.10801515728235245, -0.03152267262339592, 2.7861227636094554e-07, -4.727471321075427e-07, -6.148575835140946e-07, -7.192492716967536e-07, -4.450713788628491e-07, 6.941365882084938e-07, -2.5779118573154847e-07], [1.1852414445456816e-06, -1.338800075245672e-07, -4.178972176305251e-06, -6.337503322129123e-08, 1.2638948874155176e-06, -1.379871378048847e-06, -4.930287786919507e-07, -0.059291936457157135, 9.164300536212977e-07, -0.13843144476413727, 2.4068494894891046e-06, -0.02303619496524334, 0.26198703050613403, 0.016120685264468193, -0.04501477628946304, 0.11976175010204315, 3.972900515236688e-07, 0.05024523288011551, 4.702521607669041e-07, 8.699549880475388e-07, -0.07771899551153183, -0.23553705215454102, -2.5621773147577187e-06, 0.3694097399711609, 0.26916420459747314, 4.138598796998849e-06, 6.621681905016885e-07, -1.398380845785141e-06, -4.096931718322594e-07, 6.021885496920731e-07, -5.838172114636109e-07, -3.927290435967734e-06], [4.5712346263826475e-07, 2.3217482691961777e-07, -5.120031119076884e-07, -2.24060400455528e-07, 4.5538359927377314e-07, -4.785848659594194e-07, 1.8628897180406057e-07, 0.1069185808300972, 4.277156904208823e-07, -0.03456463664770126, 3.577156917344837e-07, -0.11299345642328262, -0.14386071264743805, -0.014799484983086586, 0.022335611283779144, -0.03924843668937683, -1.566110228168327e-07, -0.10448117554187775, -1.6654311707497982e-07, -1.3785060559712292e-07, 0.11225397884845734, 0.014957953244447708, -4.0161580727726687e-07, -0.022676333785057068, -0.07206529378890991, 4.813900318367814e-07, -1.9184254540505208e-07, -4.70292235377201e-07, -3.97829239773273e-07, -1.9447068666522682e-07, 2.6105547590304923e-07, -4.866124641011993e-07], [-9.920097454596544e-07, -6.016443876433186e-07, 1.3486065881807008e-06, -4.534507169751123e-08, -1.0070126563732629e-06, 1.0504300007596612e-06, 1.1403920474606366e-08, 0.23416201770305634, -9.919416470438591e-07, 0.031040219590067863, -1.0526340474825702e-06, -0.3137112855911255, -0.32908448576927185, -0.08807007968425751, -0.0006385394954122603, -0.006036523263901472, -1.831146612119028e-08, -0.16055040061473846, 2.1947927919541144e-08, 6.3435980912629475e-09, 0.36133143305778503, 0.03467854857444763, 1.151261926679581e-06, 0.01755926012992859, -0.08853251487016678, -1.3962697948954883e-06, 2.3534992621421225e-08, 1.0414893267807201e-06, 8.59788656271121e-07, 5.24255838740828e-09, -3.2936574712039146e-07, 1.3168059922463726e-06], [1.3212922365320872e-17, 1.003201420899923e-17, -4.1168894892049945e-17, 3.51384272804607e-17, 1.4610428293797574e-17, -1.5099402878018495e-17, -3.2572245013802743e-17, -2.500634248281397e-12, 1.7586442158028606e-17, -4.1033205479268364e-12, 2.6000883999665076e-17, 6.680201097147842e-12, 6.7672243676819566e-12, -5.1502283340831845e-12, 4.974668680463035e-13, -1.1231006359288531e-12, 2.784269096902055e-17, 3.810593767611392e-12, 2.7630947621458e-17, 3.940672887207108e-17, -6.4738774237238506e-12, 3.5447068457566955e-12, -2.7644612645177375e-17, 5.112020182163057e-12, 1.5070890499110923e-12, 4.6838069864410726e-17, 3.178739950500018e-17, -1.552881714941315e-17, -1.1288382445459071e-17, 3.3512127330454896e-17, -1.548990161031498e-17, -3.657645099688209e-17], [4.4413587829694734e-07, 3.316947356779565e-07, -2.765711997199105e-07, -1.2933335824527603e-07, 4.4084407591071795e-07, -4.557263650895038e-07, 1.7505074367818452e-07, 0.023892976343631744, 4.47830444727515e-07, -0.00541256507858634, 2.9298141157596547e-07, -0.031444743275642395, -0.045525263994932175, -0.018730826675891876, 0.03595311567187309, -0.007479541469365358, -1.446719153364029e-07, -0.039709270000457764, -1.6468875685404782e-07, -1.9627509573183488e-07, 0.018574735149741173, 0.01698664389550686, -3.339327747653442e-07, 0.022933531552553177, -0.036993253976106644, 2.6124911300939857e-07, -1.9959082919740467e-07, -4.480755819713522e-07, -4.424158248639287e-07, -1.947035315197354e-07, 3.174444316300651e-07, -2.852090403848706e-07], [1.4971328849415685e-17, 1.2183175146920959e-17, -4.833920084412501e-17, 4.2231193321915045e-17, 1.6625370782805295e-17, -1.7140591807862524e-17, -3.8476329353961234e-17, -3.2786022161057637e-12, 2.0303273866567172e-17, -4.888730045782275e-12, 3.040501195657911e-17, 8.457077052548279e-12, 8.546831645195319e-12, -5.891766675231169e-12, 5.375512860360254e-13, -1.4553643663470228e-12, 3.296368673199754e-17, 4.872235861291818e-12, 3.246592914403253e-17, 4.6046732642160846e-17, -8.208402707543527e-12, 3.917795775298938e-12, -3.2293336254862114e-17, 5.715437238068555e-12, 1.925199366245578e-12, 5.5130684545430387e-17, 3.71849581427006e-17, -1.7663303780547033e-17, -1.3004428183204431e-17, 3.938886177083993e-17, -1.7620770153449556e-17, -4.2915850714925186e-17], [2.0691292711387222e-17, 1.2896591955468343e-17, -1.0034725210738811e-16, 8.606245835097307e-17, 2.447035502098066e-17, -2.5427733861949534e-17, -8.135271693622274e-17, -6.74753091942093e-12, 3.0533009884565565e-17, -1.0641588304993732e-11, 6.083370774845684e-17, 1.6268850849820993e-11, 1.7818687497728192e-11, -1.2449576959616682e-11, 4.0240740969456346e-13, -3.3752842101136826e-12, 6.898395802861122e-17, 1.0189698043672202e-11, 6.960742059990469e-17, 9.438175787855369e-17, -1.6360007099036622e-11, 6.863626854369809e-12, -6.409739186867666e-17, 1.1849143194408995e-11, 4.580310523222275e-12, 1.1358619178451562e-16, 8.087540063555514e-17, -2.6894821396373584e-17, -1.3903862195083353e-17, 8.434885114167351e-17, -4.8435845318173254e-17, -8.914631340602386e-17], [5.8696784321909945e-08, 1.4657591407285508e-07, 5.759756618317624e-07, -3.107117407807891e-08, 6.03900005557989e-08, -5.7681820209154466e-08, 1.9029515740953684e-08, -0.0373024046421051, 6.203152480566132e-08, -0.06035836786031723, -3.9110993554913875e-08, -0.035525623708963394, -0.11400170624256134, -0.09781982749700546, -0.09963598102331161, -0.07409751415252686, -2.592031833614783e-08, -0.06363406032323837, -6.194045276686211e-09, 1.8599878304215167e-09, 0.1322258561849594, -0.04135049134492874, 2.637519358472673e-08, 0.020422615110874176, -0.06505545973777771, -7.781466138112592e-07, 1.490452916641516e-08, -5.6219711552785157e-08, -8.202785295452486e-08, -1.9955295194051814e-09, 5.294162619406961e-08, 4.1988946009041683e-07], [2.887078949243005e-07, -2.82149992258951e-09, -3.491363429475314e-07, 3.088228481828992e-07, 3.0536656936419604e-07, -3.2751808021203033e-07, -4.753350992814376e-07, -0.012873795814812183, 3.0217114499464515e-07, 0.08128275722265244, 3.396090448859468e-07, -0.06108121946454048, -0.06712083518505096, 0.13971294462680817, 0.008104294538497925, -0.005773295182734728, 3.9997868839236617e-07, -0.04580257087945938, 4.335504115715594e-07, 8.167004921233456e-07, 0.02311553992331028, 0.04969089478254318, -3.7933574503767886e-07, -0.11111626774072647, -0.10841474682092667, 3.428315267228754e-07, 5.289073214953532e-07, -3.30754232891195e-07, -1.8112181976448483e-07, 5.28899249729875e-07, -3.475198866453866e-07, -3.319281915992178e-07], [7.284841350156096e-17, 3.6794466027849015e-17, -6.270985263940061e-17, 1.2441832870105065e-17, 7.258343777285817e-17, -7.560408299422012e-17, -2.4018765691724685e-17, 8.80786329288119e-12, 7.856597853975609e-17, 4.4505189464305595e-12, 4.602086505004509e-17, -9.00396424086125e-12, -9.845002417463444e-12, -9.021484947968617e-12, -4.101885118460574e-13, 2.03270690210533e-12, 2.0024604990004183e-17, -9.166029046880908e-12, 2.2000587272160656e-17, 4.746992997328283e-17, 2.446535812480888e-12, 2.1547857248505053e-11, -5.462456250711124e-17, -1.0633712877253232e-12, -1.6093576124531772e-11, 7.304612952029583e-17, 2.793306872274809e-17, -7.401615429846942e-17, -7.047268460785966e-17, 2.7699271085693654e-17, -3.374614417037166e-18, -5.4233243211647105e-17], [1.5377102045022184e-06, 7.192917905740615e-07, -2.1488758648047224e-06, 2.7802934710052796e-07, 1.5688713119743625e-06, -1.6432056781923166e-06, -4.3850326392202987e-07, -0.01074843481183052, 1.5541572793154046e-06, 0.1398623287677765, 1.5728631979072816e-06, -0.018418146297335625, -0.04359209164977074, 0.10922273248434067, 0.03939275071024895, 0.03842192143201828, 3.8010048797332274e-07, -0.06616374850273132, 3.8751420561311534e-07, 9.314852036368393e-07, 0.005183070432394743, 0.027992375195026398, -1.7115787613875e-06, -0.03595899045467377, -0.0589769147336483, 2.2014573914930224e-06, 4.636677601865813e-07, -1.6383791034968453e-06, -1.2894826113551972e-06, 4.790850880453945e-07, 7.810189117662958e-08, -2.0096374555578222e-06], [4.209206281302613e-07, 3.7389901308415574e-07, 3.081175536934211e-09, -3.649022417562264e-08, 4.1658074678707635e-07, -4.2695816659943375e-07, 1.2119488701500813e-07, 0.022561663761734962, 4.523321877059061e-07, -0.010027885437011719, 1.929366675312849e-07, -0.04668817296624184, -0.11244697868824005, -0.08165772259235382, 0.030425457283854485, -0.027691826224327087, -9.750808516173493e-08, -0.07435572147369385, -1.1974923097568535e-07, -1.219073482161548e-07, 0.10625330358743668, -0.022754305973649025, -2.3569295137804147e-07, -0.018744757398962975, -0.0909174457192421, -6.663852758492794e-08, -1.5399579922359408e-07, -4.2100452901649987e-07, -4.649309630622156e-07, -1.4183419239088835e-07, 3.2016768614084867e-07, -4.693797706067926e-08], [1.0304384766942118e-16, 3.523447618446791e-17, -3.4371614309011795e-17, 2.9271526363197696e-17, 1.0218942965365801e-16, -1.0707761708759317e-16, -6.650282647253597e-17, 9.77087594861148e-12, 1.1159598199582323e-16, 1.0426130445106985e-11, 4.1744328048256134e-17, -8.8737437536901e-12, -9.232569569972426e-12, -1.3305741924929393e-11, -2.120259480140052e-12, 1.503660564117215e-11, 5.394208887091824e-17, -1.0873840022851411e-11, 6.32587630764459e-17, 1.2205998879818644e-16, -1.3294791699827724e-12, 5.1883525253870744e-11, -5.4382191970188303e-17, 5.680272875327463e-13, -3.59127554083738e-11, 5.713988970970944e-17, 8.175719502087137e-17, -1.0382149670689454e-16, -9.716541916314164e-17, 7.832344918415554e-17, -4.926191089126056e-17, -2.467213911396807e-17], [2.1757311799647586e-17, 1.8574441570912968e-17, -6.917936455907585e-17, 5.949725519381206e-17, 2.4059540732839874e-17, -2.475973919519866e-17, -5.3293695075962424e-17, -4.842503134594445e-12, 2.94517624012281e-17, -7.118972512182298e-12, 4.323207855438176e-17, 1.2416003121462627e-11, 1.2522856016050632e-11, -8.542889486096161e-12, 8.242519080464694e-13, -2.2618671258883838e-12, 4.5753626155186356e-17, 7.1402202726778e-12, 4.47037652130116e-17, 6.312667887623343e-17, -1.2109800141824056e-11, 5.727549511058694e-12, -4.593321037489407e-17, 8.142024381097013e-12, 2.6763560985465507e-12, 7.903395100822429e-17, 5.098836586983429e-17, -2.5469294724646648e-17, -1.9380679624717378e-17, 5.427463532949926e-17, -2.2817079056838274e-17, -6.137037591243634e-17], [1.3372338101897194e-16, 7.389903875862171e-17, -1.2813224888304431e-16, -2.4555964905657448e-17, 1.329646909611383e-16, -1.3814464154073317e-16, 1.8339262542235566e-17, 1.041800066353682e-11, 1.3551947467895528e-16, 1.9741209535129034e-12, 9.513293713642534e-17, -8.60998165125304e-12, -1.304329214080191e-11, -1.052786503807912e-11, 2.3171787839199043e-12, -4.2941960751163855e-12, -1.5256130443040143e-17, -1.2249530383090512e-11, -1.7088275942840995e-17, -3.996973529393488e-18, 1.4226563720479146e-12, 1.900558183054457e-11, -1.0808447456408252e-16, -1.1814507705487642e-12, -1.736369381610814e-11, 1.3537025129645072e-16, -1.9479185255143868e-17, -1.359878309592277e-16, -1.2589602896273376e-16, -1.8959808474689172e-17, 4.905643260965749e-17, 